// Auto-generated - DO NOT EDIT
// OnsetNet weights for Daisy Seed bare metal inference
// sr=48000 note_vocab_size=49 window_samples=384

#pragma once
#include <stdint.h>

#define ONSET_SR                 48000
#define ONSET_NOTE_VOCAB_SIZE    49
#define ONSET_WINDOW             384
#define ONSET_WIDTH              96
#define ONSET_N_STRINGS          6

static const char* onset_pitch_names[] = {
    "E2",
    "F2",
    "F#2",
    "G2",
    "G#2",
    "A3",
    "A#3",
    "B3",
    "C3",
    "C#3",
    "D3",
    "D#3",
    "E3",
    "F3",
    "F#3",
    "G3",
    "G#3",
    "A4",
    "A#4",
    "B4",
    "C4",
    "C#4",
    "D4",
    "D#4",
    "E4",
    "F4",
    "F#4",
    "G4",
    "G#4",
    "A5",
    "A#5",
    "B5",
    "C5",
    "C#5",
    "D5",
    "D#5",
    "E5",
    "F5",
    "F#5",
    "G5",
    "G#5",
    "A6",
    "A#6",
    "B6",
    "C6",
    "C#6",
    "D6",
    "D#6",
    "E6",
};

// shape: [48, 1, 9]
static const float l0_conv_weight[432] = {
    0.18278030f, 0.20528577f, -0.23628266f, 0.16250388f, -0.22549519f, -0.06391788f, -0.24843523f, 0.14889660f, 0.35425529f, -0.29304606f, 0.23268490f, -0.01347659f, 0.16195440f, -0.04365399f, 0.07000738f, -0.06315102f, 0.32801130f, 0.23121205f, -0.22618520f, 0.09164084f, -0.08846280f, 0.10463620f, 0.02439640f, 0.36103663f, -0.16202374f, -0.11068434f, -0.08251759f, -0.20666154f, 0.03327587f, -0.32276735f, 0.30931628f, -0.27318454f, 0.26823524f, 0.06386770f, -0.09377993f, 0.22056414f, 0.06789368f, 0.22940437f, -0.08025701f, -0.22302468f, -0.06281234f, -0.24594022f, 0.01895828f, 0.21818827f, 0.21053252f, -0.12207940f, 0.24517378f, 0.10589789f, 0.23264831f, -0.17264062f, -0.30921602f, -0.09184911f, -0.23921552f, 0.26464921f, 0.15270349f, 0.14317678f, 0.08070122f, -0.03973407f, 0.23813479f, -0.26118764f, 0.01109532f, -0.24063769f, 0.09441816f, -0.08159268f, 0.12685506f, -0.05430281f, 0.28705773f, -0.20430087f, -0.21461095f, -0.22545619f, 0.28106952f, 0.10307774f, 0.45861337f, -0.18534099f, -0.26387656f, -0.21336345f, -0.19799075f, 0.16475718f, 0.13838267f, 0.28257611f, -0.18218865f, -0.23111233f, 0.20267998f, -0.12178954f, 0.23370889f, -0.05274778f, 0.22463624f, -0.22739632f, -0.14923291f, 0.11418132f, 0.10708536f, -0.07089057f, 0.19789007f, 0.21959434f, -0.24502251f, -0.18303464f, 0.28883559f, -0.13951159f, -0.16034557f, -0.29828948f, -0.12053508f, 0.18556687f, 0.08131982f, -0.07847917f, 0.14221095f, -0.18775031f, -0.30448124f, -0.26700890f, -0.28515774f, -0.19253637f, 0.42326662f, 0.14426851f, 0.15681107f, -0.24576992f, -0.16989830f, -0.06682471f, 0.12630059f, -0.36433026f, -0.14996606f, -0.18704343f, 0.08359959f, -0.03529447f, 0.05909870f, -0.14890014f, -0.19947247f, -0.18134522f, -0.10637055f, -0.25299463f, 0.29237267f, -0.06884340f, 0.27939960f, 0.08877275f, -0.31001562f, 0.20962940f, -0.12999193f, -0.17976247f, -0.31994039f, -0.32114246f, 0.09522618f, -0.03614624f, 0.17287923f, -0.20211418f, 0.34123790f, -0.13587189f, -0.14040522f, 0.02282684f, 0.13506612f, 0.24193008f, 0.28869733f, -0.28913385f, 0.06867772f, -0.17909876f, -0.08085596f, -0.30299410f, 0.26560324f, -0.28350174f, 0.14159858f, 0.07135582f, 0.05646915f, -0.22831920f, 0.26961514f, 0.08757663f, 0.00010547f, -0.29037321f, 0.17489798f, 0.00831934f, -0.09530202f, 0.34083834f, 0.12516361f, -0.14990133f, -0.16432260f, 0.01582329f, 0.24871600f, -0.02190799f, -0.13270772f, -0.06418183f, -0.26679069f, 0.12033368f, 0.24986510f, -0.34039488f, 0.18798418f, 0.20491284f, 0.01419785f, -0.20372736f, 0.10266440f, 0.11241222f, 0.08214797f, -0.08545940f, -0.11524049f, -0.05041959f, -0.09697752f, -0.11459037f, 0.20798182f, 0.27980176f, -0.03566335f, -0.08171470f, -0.02952025f, -0.06900392f, 0.09957741f, 0.10666522f, -0.28534278f, -0.09986805f, 0.31571126f, 0.17239016f, 0.03537418f, -0.16852158f, -0.21345742f, -0.27987647f, -0.07878511f, 0.13959742f, 0.23430695f, 0.16967149f, -0.29020208f, -0.20100729f, -0.05295892f, 0.32779843f, 0.09071158f, -0.04182697f, 0.18673384f, -0.07453129f, -0.16786726f, 0.28245404f, -0.12034374f, -0.06782512f, -0.36734918f, 0.19646995f, 0.19999920f, 0.06998599f, -0.29131007f, -0.38137460f, -0.31896687f, 0.19392294f, 0.12843622f, 0.28028327f, 0.25287712f, 0.14269039f, 0.03480091f, -0.22051638f, -0.25339362f, -0.25334877f, 0.21515772f, -0.04929251f, 0.06069203f, -0.20955856f, -0.05035333f, -0.18521500f, -0.14748295f, 0.17171426f, -0.06820945f, 0.21532047f, -0.10819381f, -0.26829183f, -0.04393446f, -0.15099044f, -0.09452445f, -0.31351060f, 0.18819930f, -0.22748172f, 0.17582016f, 0.16705751f, 0.25816405f, -0.28814191f, 0.22938855f, -0.16084874f, 0.13220586f, 0.33613932f, -0.02601379f, 0.03808847f, -0.04290947f, -0.24200933f, 0.14560151f, -0.37923947f, 0.13594729f, 0.14677316f, 0.21268667f, -0.18013047f, -0.34544894f, 0.05750667f, 0.28086472f, -0.41282037f, -0.05101584f, -0.10459229f, 0.08727780f, -0.04204598f, -0.01354922f, 0.01420624f, -0.20010757f, 0.38579285f, 0.37299699f, 0.02996640f, 0.04793759f, -0.05016628f, -0.21288575f, -0.23266989f, 0.19788289f, -0.15252380f, -0.26584047f, 0.00226584f, -0.08843173f, -0.09797845f, 0.02824760f, -0.04315926f, -0.06182357f, -0.09014056f, -0.19751735f, 0.36956683f, -0.16368698f, 0.05635205f, -0.14381224f, -0.01393296f, 0.25981092f, 0.09842704f, -0.35084054f, 0.10882328f, 0.36153439f, 0.01082698f, 0.12786333f, 0.26415741f, -0.06947557f, 0.09289716f, -0.12592502f, 0.01745799f, 0.36474043f, 0.25558776f, -0.19927050f, -0.24778536f, -0.22861262f, -0.33599713f, -0.25770599f, -0.09105317f, 0.23482677f, 0.05517823f, -0.26228306f, -0.26769909f, 0.25036132f, -0.15224381f, 0.05820159f, 0.24983066f, -0.09720613f, 0.01972988f, -0.01650044f, -0.08821234f, -0.16111992f, -0.24063134f, -0.19055323f, -0.11221258f, 0.40911111f, -0.08131183f, -0.13621312f, 0.18189867f, 0.19589300f, 0.17710575f, 0.18841456f, 0.09565078f, -0.44830686f, -0.06813355f, 0.10939153f, -0.08907242f, -0.18595663f, 0.33910298f, -0.07400590f, -0.10968179f, -0.20907234f, 0.14737204f, 0.28332680f, 0.20068826f, 0.18602964f, -0.19540514f, -0.31102198f, -0.00302496f, 0.27325603f, 0.16402031f, -0.22777869f, -0.05618763f, -0.25155729f, -0.15546378f, 0.08258767f, 0.21713090f, 0.29743445f, -0.36471903f, 0.16106547f, -0.33972862f, 0.03564794f, 0.22647901f, -0.05694007f, 0.30499300f, -0.25714409f, -0.14419934f, 0.19286713f, -0.07581165f, -0.05981133f, -0.13372870f, 0.23035966f, 0.16036129f, 0.07240787f, -0.23530173f, -0.26706004f, 0.06099804f, 0.13480823f, -0.11588408f, -0.06565387f, 0.24689567f, 0.03590084f, 0.01770125f, -0.09495305f, -0.31481996f, -0.27714294f, -0.10132344f, -0.10473827f, 0.16577619f, -0.03834718f, -0.08161339f, 0.36376911f, 0.15269445f, 0.18395485f, -0.19774877f, -0.15250987f, 0.12118407f, -0.22755073f, -0.21494298f, 0.00215115f, -0.14176539f, -0.29248723f, 0.17918848f, 0.22213985f, 0.00399949f, -0.10982638f, -0.34211618f, -0.14338787f, 0.07374697f, 0.16366214f, -0.02458693f
};

// shape: [48]
static const float l0_bn_weight[48] = {
    0.82281625f, 0.91666031f, 0.88342535f, 1.09009409f, 0.93038237f, 0.71969849f, 0.90224093f, 1.31006813f, 1.18144011f, 1.36981237f, 1.09166956f, 0.82928836f, 0.81306434f, 0.80627906f, 1.26063228f, 0.74374682f, 0.92954946f, 0.99167687f, 1.01176035f, 0.74535912f, 0.88906056f, 0.95910227f, 1.14498127f, 1.06734121f, 0.82242703f, 1.22477901f, 0.95067161f, 0.75853705f, 1.03089106f, 1.43907619f, 0.86123735f, 0.82561952f, 0.90783536f, 0.81929940f, 0.91444820f, 0.79886091f, 0.77634013f, 0.92059773f, 0.78552395f, 0.91696560f, 1.05157268f, 1.20953560f, 1.21114457f, 0.98782003f, 1.02807534f, 0.94271410f, 0.83607137f, 1.21764612f
};

// shape: [48]
static const float l0_bn_bias[48] = {
    -0.25941366f, -0.04442660f, -0.05980866f, 0.01161671f, -0.35895041f, -0.07849323f, -0.01115473f, -0.05721803f, 0.00677714f, 0.00896638f, -0.00751574f, -0.11865065f, -0.21761060f, -0.16649570f, 0.06388780f, -0.23050028f, -0.12963599f, 0.01837846f, -0.05884700f, -0.29248866f, -0.01207124f, 0.04230443f, -0.25135443f, -0.12534696f, 0.03238816f, 0.04952771f, -0.12701868f, -0.20060290f, 0.12801027f, 0.07949337f, -0.11700241f, -0.36570185f, -0.07205228f, -0.17324463f, -0.06832247f, -0.26811910f, -0.22721754f, -0.10688738f, -0.24752426f, -0.18206225f, 0.00300878f, -0.01473127f, 0.06529875f, 0.04947490f, 0.03968702f, 0.01870798f, -0.07266566f, -0.21220684f
};

// shape: [48]
static const float l0_bn_running_mean[48] = {
    -0.00663390f, -0.01412790f, 0.00201268f, -0.00004093f, -0.00308329f, 0.00208434f, -0.00405576f, -0.00039457f, -0.00000120f, 0.00017667f, -0.00036198f, 0.01985724f, 0.00267902f, 0.02638433f, -0.00022570f, 0.01353723f, -0.00167723f, -0.00179233f, 0.00112708f, 0.00449073f, -0.00705006f, -0.00038123f, 0.00083333f, 0.00083335f, 0.00652666f, -0.00172548f, 0.00167821f, 0.01515509f, 0.00096357f, 0.00048210f, -0.00168003f, 0.00774578f, 0.00619195f, 0.00397938f, -0.00501714f, -0.02192410f, 0.03124651f, 0.00101959f, 0.00313998f, -0.00268413f, 0.00180284f, -0.00089308f, -0.00017772f, -0.00026573f, 0.00105458f, 0.00528959f, 0.02160724f, -0.00046998f
};

// shape: [48]
static const float l0_bn_running_var[48] = {
    0.05442101f, 0.29626969f, 0.00541341f, 0.01915094f, 0.01463321f, 0.01318690f, 0.03591638f, 0.00137203f, 0.00226422f, 0.00079119f, 0.01111019f, 0.52635151f, 0.01060310f, 0.93380034f, 0.00228123f, 0.27487221f, 0.01183440f, 0.01595425f, 0.00231021f, 0.03619040f, 0.07961460f, 0.00136506f, 0.00761528f, 0.00857430f, 0.07738500f, 0.00847781f, 0.01349651f, 0.30508292f, 0.04097133f, 0.00283122f, 0.00525868f, 0.11909647f, 0.09693672f, 0.03102995f, 0.05065209f, 0.65458238f, 1.35775185f, 0.00139185f, 0.05139571f, 0.00956002f, 0.00604011f, 0.00298511f, 0.00091121f, 0.00102387f, 0.00388254f, 0.10884777f, 0.65893108f, 0.00569482f
};

// shape: [48]
static const float l0_bn_bias[48] = {
    -0.25941366f, -0.04442660f, -0.05980866f, 0.01161671f, -0.35895041f, -0.07849323f, -0.01115473f, -0.05721803f, 0.00677714f, 0.00896638f, -0.00751574f, -0.11865065f, -0.21761060f, -0.16649570f, 0.06388780f, -0.23050028f, -0.12963599f, 0.01837846f, -0.05884700f, -0.29248866f, -0.01207124f, 0.04230443f, -0.25135443f, -0.12534696f, 0.03238816f, 0.04952771f, -0.12701868f, -0.20060290f, 0.12801027f, 0.07949337f, -0.11700241f, -0.36570185f, -0.07205228f, -0.17324463f, -0.06832247f, -0.26811910f, -0.22721754f, -0.10688738f, -0.24752426f, -0.18206225f, 0.00300878f, -0.01473127f, 0.06529875f, 0.04947490f, 0.03968702f, 0.01870798f, -0.07266566f, -0.21220684f
};

// shape: [96, 48, 5]
static const float l1_conv_weight[23040] = {
    -0.02345635f, 0.04117946f, -0.04768205f, 0.04460580f, -0.02521659f, 0.00410694f, -0.00837929f, 0.01392615f, -0.01302106f, 0.04663550f, 0.00834904f, 0.05815595f, 0.06486298f, -0.02840329f, -0.07334200f, 0.00265016f, -0.02000810f, -0.12970605f, -0.07111016f, -0.11001782f, -0.06075559f, 0.00969528f, 0.00260876f, -0.00844229f, -0.05905072f, 0.04390101f, -0.00591855f, -0.02888987f, 0.00293615f, -0.00014509f, -0.00785451f, -0.05318674f, 0.02624581f, -0.02530174f, -0.05230073f, -0.02996088f, 0.03661976f, 0.03115280f, 0.00472324f, -0.03056230f, -0.04274803f, -0.07588021f, -0.10837227f, 0.00867488f, -0.04162843f, -0.07688338f, -0.04749988f, 0.00560250f, 0.08711393f, -0.05990480f, -0.25960013f, -0.13928121f, -0.07600990f, -0.07506197f, 0.04148030f, -0.00771994f, 0.05389489f, 0.05849105f, 0.01361846f, 0.00553870f, 0.02784606f, 0.00610262f, -0.00541125f, -0.00585091f, 0.00881370f, 0.06781792f, -0.01944106f, -0.03301166f, -0.02200033f, -0.04365150f, -0.01174431f, 0.01171669f, -0.00335502f, -0.00609804f, -0.10726532f, -0.02024459f, -0.01123783f, -0.01779541f, -0.00439641f, -0.06349272f, 0.01410536f, -0.04903005f, -0.02828120f, -0.02447919f, 0.08300520f, -0.04168279f, 0.05786332f, -0.01041590f, -0.02303156f, 0.01511848f, 0.00802482f, 0.05490030f, 0.04141713f, -0.07126186f, -0.02759888f, -0.00824763f, -0.00039827f, 0.00214994f, 0.00661349f, -0.05524130f, -0.01521937f, 0.06317718f, 0.04580994f, 0.00067960f, -0.06181463f, -0.02065812f, -0.05532850f, 0.04363597f, -0.00603819f, 0.00014279f, -0.04945740f, -0.00231875f, 0.02330174f, -0.02724862f, -0.09856736f, 0.03898076f, 0.05050509f, -0.02798186f, -0.00546871f, 0.06524471f, -0.02867054f, 0.02795343f, -0.01051999f, -0.05566510f, -0.01583765f, -0.05655529f, 0.00940130f, 0.02951062f, 0.00905852f, 0.00256146f, -0.05294394f, -0.07711584f, -0.04361841f, -0.02679849f, -0.07597393f, -0.02103237f, -0.06014421f, -0.06624881f, -0.04642498f, -0.07116481f, -0.08285847f, -0.01581863f, 0.00747258f, -0.04081244f, 0.00526724f, 0.06185415f, -0.01849169f, -0.04526297f, -0.01947069f, -0.25762814f, 0.01573259f, 0.06945430f, 0.01850020f, 0.02133472f, -0.04558210f, 0.00538153f, 0.00446182f, 0.01234046f, 0.02006656f, 0.05088145f, -0.08898675f, -0.01808204f, -0.03898195f, -0.06572580f, -0.04619692f, -0.04598647f, 0.04797639f, 0.00756050f, -0.03252496f, 0.03008460f, -0.04523962f, -0.00901484f, -0.00840321f, -0.05394077f, -0.05148435f, -0.00594744f, 0.05591239f, 0.06736409f, 0.04432743f, -0.03790450f, -0.03176900f, 0.05371514f, 0.01385994f, -0.00667011f, 0.00579813f, -0.03956226f, -0.01168057f, 0.06850454f, -0.01340112f, -0.00949875f, -0.04917303f, -0.03818714f, -0.01212422f, -0.04577005f, -0.00515488f, 0.01443146f, -0.05756548f, 0.01912887f, -0.03748503f, -0.03925601f, 0.02751497f, 0.04264447f, -0.04195514f, -0.06467883f, -0.15119967f, -0.15344857f, -0.11443087f, -0.03783445f, 0.01749700f, -0.07958565f, 0.01062722f, 0.01959294f, -0.05553675f, -0.05648599f, 0.00721657f, -0.01338370f, -0.00296909f, 0.00998629f, 0.05934414f, -0.03992171f, 0.09287284f, 0.02377270f, 0.02814486f, 0.05355702f, 0.00258492f, -0.00175178f, 0.01780526f, 0.07034142f, -0.02757016f, 0.05467048f, -0.06945747f, 0.02649883f, 0.02323670f, -0.00318978f, 0.00381143f, -0.22047108f, -0.02846647f, -0.02229478f, 0.07788448f, 0.10521951f, 0.08178230f, 0.04818095f, -0.03474956f, 0.07443831f, 0.01068440f, -0.07982361f, -0.10135739f, -0.03731758f, 0.03482899f, 0.01142207f, -0.01465318f, 0.01880172f, -0.02492830f, 0.04568890f, -0.04685732f, -0.03239610f, -0.08033507f, -0.03181378f, 0.04159548f, 0.11164723f, 0.05955021f, 0.12059535f, 0.05115927f, 0.08129269f, 0.10104129f, 0.04404768f, -0.04523434f, 0.04674928f, 0.03350870f, -0.04015091f, -0.07827098f, -0.09917867f, -0.04577230f, -0.10950900f, -0.03220610f, 0.00670442f, -0.04742217f, 0.04695238f, 0.07517790f, 0.08484799f, -0.15242065f, -0.12850167f, 0.01480818f, 0.03372558f, 0.02722360f, 0.00406766f, -0.01150907f, -0.02050854f, -0.07186159f, -0.07663733f, -0.10639558f, -0.06447435f, -0.03576721f, 0.00490203f, 0.04649998f, -0.06393701f, -0.07855233f, -0.04163599f, 0.03930779f, -0.05638704f, -0.05109451f, 0.01831812f, 0.00942315f, 0.02284191f, -0.06856350f, -0.05576851f, 0.01429482f, 0.04291328f, 0.03016463f, 0.01065743f, 0.01884824f, 0.02119364f, -0.05655507f, -0.00872827f, 0.05540483f, -0.04238028f, -0.05502315f, 0.02454461f, 0.00171670f, 0.01003077f, -0.04580986f, -0.03739452f, 0.05656394f, -0.04956613f, -0.03249898f, 0.00810720f, -0.05572024f, 0.06431768f, 0.00581229f, 0.04285772f, 0.03208937f, -0.03920972f, -0.04961808f, 0.01777053f, 0.03200054f, -0.08908992f, -0.05809723f, 0.05289762f, 0.01279180f, 0.03284714f, -0.10678512f, -0.10473263f, -0.10595818f, -0.10267675f, -0.11496241f, -0.08230542f, -0.05346669f, -0.03251756f, -0.00289533f, -0.05768960f, -0.08779798f, -0.00063578f, -0.03291727f, 0.00931246f, 0.09492096f, 0.02886343f, -0.04669418f, 0.04704435f, 0.00725939f, 0.04504167f, 0.03546623f, -0.05260476f, 0.05321481f, -0.04923484f, -0.01105456f, -0.14022863f, -0.08655798f, 0.01593877f, -0.01157760f, 0.01337239f, -0.14175604f, -0.00039097f, -0.04156806f, -0.06053115f, 0.00992030f, 0.02544121f, 0.03695403f, -0.05421238f, -0.04187863f, 0.01163789f, -0.04797898f, -0.02712806f, -0.00314607f, -0.01085519f, 0.07796262f, 0.07486896f, 0.02748412f, 0.12746009f, 0.15926374f, 0.18731283f, -0.05982911f, -0.05364088f, -0.03163604f, 0.00623522f, 0.02143443f, -0.03707810f, 0.01381047f, -0.04745620f, 0.02032856f, -0.02210978f, -0.08888681f, -0.05090288f, -0.04558925f, 0.04264509f, -0.01798897f, -0.02771924f, -0.01649111f, -0.06771015f, -0.00029823f, -0.09336283f, -0.08179506f, -0.08853366f, -0.04073514f, -0.01073843f, 0.03185299f, -0.01570797f, 0.03062022f, 0.06667551f, 0.04298089f, -0.00208103f, -0.07147376f, -0.00153366f, -0.05322086f, 0.01560224f, 0.03597966f, 0.06143517f, 0.07610171f, 0.06505574f, 0.02063336f, -0.04281168f, 0.05826413f, -0.03678478f, -0.03430117f, 0.07432120f, 0.08322094f, 0.06308851f, 0.05538545f, -0.04353087f, 0.03646715f, 0.07069381f, 0.03384662f, 0.00928553f, -0.01285512f, -0.02802666f, 0.03672295f, -0.02493038f, 0.04043943f, -0.04223111f, 0.04649110f, -0.07371228f, -0.09679217f, 0.02516831f, 0.01709068f, 0.01612783f, 0.00581970f, -0.09000469f, -0.09355435f, -0.04223638f, -0.04311665f, -0.00553875f, 0.05104825f, 0.01695377f, 0.06435683f, 0.01755528f, 0.02629272f, -0.01779806f, -0.01876231f, -0.02278141f, 0.07935157f, 0.07474079f, 0.03376585f, -0.01695656f, 0.00623179f, 0.02122256f, -0.05212356f, -0.21912684f, -0.13677189f, -0.13085741f, -0.12599735f, -0.02674983f, 0.02019290f, 0.00157579f, 0.02951095f, -0.06602540f, -0.06339027f, 0.01878742f, -0.01750081f, -0.02041731f, -0.05991724f, -0.00269768f, -0.04578563f, -0.00171988f, 0.05859628f, -0.00985964f, -0.01568372f, 0.05437062f, -0.03029744f, -0.04244563f, -0.02894071f, -0.16354166f, -0.13012639f, -0.10670418f, -0.10301268f, -0.10652569f, -0.12961072f, 0.01509174f, -0.00395646f, -0.03610843f, -0.06975681f, -0.02512825f, -0.03992528f, -0.03469417f, -0.06259128f, 0.01429384f, -0.03000060f, -0.02330419f, -0.04536466f, 0.01708639f, -0.11784519f, -0.19638847f, 0.02045884f, 0.01947967f, 0.02103198f, -0.07754853f, -0.11823696f, 0.02308077f, 0.04914377f, -0.05133666f, -0.05835064f, 0.00614446f, -0.06822954f, -0.05317671f, -0.04277348f, 0.04187355f, 0.04644787f, -0.01642880f, 0.00127378f, -0.03077539f, 0.01438034f, 0.01891719f, 0.00677445f, -0.03140873f, 0.04346207f, -0.01996096f, -0.02954926f, 0.03447761f, 0.04459455f, 0.05426712f, 0.00923620f, -0.02993184f, 0.13075404f, 0.09731147f, -0.07120526f, -0.00644869f, -0.09918617f, 0.00648780f, 0.01861449f, -0.02097428f, -0.01415899f, 0.01787110f, -0.01769486f, -0.03378154f, 0.04418709f, -0.01771379f, 0.02594212f, 0.05169531f, 0.02147997f, -0.04158473f, 0.05667575f, -0.01324148f, -0.04528270f, 0.00748364f, -0.04399245f, -0.02028824f, -0.01196728f, -0.03887977f, -0.04447833f, -0.03208761f, 0.00442696f, -0.06750538f, -0.06132833f, -0.01201209f, 0.01354390f, 0.04746122f, -0.03372734f, -0.00419360f, 0.01159727f, 0.00235208f, -0.04366608f, -0.00389289f, -0.07148577f, -0.09371671f, -0.00229484f, -0.00026082f, 0.03053766f, 0.00835920f, 0.04195080f, -0.03270278f, 0.00903772f, -0.03530639f, -0.03241734f, -0.07156138f, -0.01456013f, 0.04951206f, 0.03226105f, -0.18368019f, -0.09439900f, -0.10074237f, -0.11024738f, -0.05090072f, 0.00937055f, 0.00838080f, -0.04573733f, -0.06187347f, -0.01505126f, 0.01799787f, 0.00650081f, -0.04124065f, 0.05264898f, -0.01931523f, -0.01918754f, -0.02481031f, 0.04116211f, -0.05603531f, -0.09408939f, -0.12028981f, -0.11911320f, -0.16781966f, -0.08427378f, 0.01891054f, 0.02906934f, 0.04583759f, -0.06581049f, 0.01637708f, -0.06503461f, 0.03205358f, 0.03039202f, 0.03304948f, 0.02769688f, 0.02068231f, -0.01121441f, 0.01351305f, -0.04249673f, 0.00904790f, -0.02348599f, -0.00799186f, -0.06295548f, -0.02422423f, -0.04375657f, -0.03027538f, -0.02374365f, -0.04052776f, 0.00648451f, 0.02899837f, 0.04477737f, 0.00013285f, -0.06903033f, -0.10577052f, -0.02364904f, -0.02255232f, -0.06029110f, 0.01654280f, 0.04540309f, -0.00727936f, -0.05062274f, 0.05177250f, 0.01525575f, 0.03185353f, -0.04381273f, 0.03352303f, -0.02344574f, 0.05895190f, -0.04635844f, 0.01526341f, -0.01630898f, -0.03012981f, -0.03199507f, 0.00326822f, -0.05497579f, -0.10392906f, -0.05034728f, 0.01417264f, -0.04417432f, 0.02507082f, -0.01692100f, 0.08920940f, 0.04277075f, 0.00358507f, -0.08003002f, -0.14440334f, -0.03161217f, -0.13463935f, 0.01989282f, -0.07601357f, -0.00949913f, 0.06313091f, 0.01492709f, 0.02710996f, -0.05738242f, 0.01740611f, 0.05235608f, -0.01727225f, 0.09642677f, 0.00224264f, 0.00240468f, 0.09441619f, -0.02742806f, -0.04047607f, 0.00404044f, -0.02162327f, 0.00993052f, -0.06225624f, -0.00678386f, -0.03644904f, -0.03819681f, -0.01826314f, 0.05005482f, -0.00322946f, -0.08905020f, -0.01518581f, 0.04314110f, 0.03960568f, -0.01103966f, 0.03636059f, 0.09255236f, 0.05172426f, -0.04226134f, 0.06949145f, 0.02460845f, 0.06455278f, 0.06757616f, 0.07722951f, -0.03159968f, 0.08245635f, -0.03772309f, 0.01060353f, -0.03439181f, -0.00498070f, 0.00267052f, 0.01752629f, 0.03092631f, 0.05315151f, 0.10938573f, 0.09778329f, 0.08483473f, 0.03418870f, 0.06956567f, 0.03278609f, 0.04182871f, 0.05418197f, -0.03424950f, -0.02868337f, 0.01895329f, -0.01649693f, -0.00546427f, 0.03034741f, -0.00384943f, 0.04787790f, 0.00427995f, 0.06234492f, 0.00501144f, -0.05247759f, -0.09876902f, -0.02456925f, 0.05307970f, 0.05089916f, -0.01026858f, -0.01607083f, 0.02245156f, -0.00462078f, 0.00918884f, 0.08549222f, -0.02557667f, -0.04376597f, 0.02267156f, 0.01332866f, 0.06432801f, 0.05955876f, 0.08350123f, -0.01274296f, 0.04737508f, 0.04782042f, -0.02865606f, 0.05942001f, 0.05964957f, 0.01210304f, 0.04126799f, -0.00991656f, -0.04042524f, 0.04261980f, 0.03612705f, -0.05072580f, 0.03354528f, -0.06066059f, 0.07183278f, 0.06481464f, 0.00823645f, -0.04668633f, 0.02759128f, 0.01222739f, 0.06366725f, 0.03344354f, 0.04822428f, -0.02284751f, -0.00721433f, 0.01717110f, 0.00693187f, 0.05987752f, -0.01092725f, 0.02814330f, 0.03542476f, -0.00147413f, 0.06072198f, 0.01117101f, -0.05276841f, -0.01460306f, -0.01678069f, 0.02006494f, 0.02493496f, -0.02390535f, 0.00199547f, 0.00957511f, -0.00803671f, 0.06901629f, -0.01054985f, 0.03729457f, -0.00201458f, -0.06740643f, 0.00906171f, 0.04072681f, -0.07654341f, 0.01031176f, 0.08629197f, 0.09098218f, -0.01764451f, 0.12385486f, 0.03783128f, 0.01376570f, 0.02757499f, 0.08811297f, 0.00054160f, 0.05489846f, -0.02088404f, 0.08986142f, 0.09606347f, 0.01240331f, 0.00516227f, 0.04002961f, 0.03003883f, 0.01101112f, -0.04343322f, -0.04621793f, -0.04869361f, 0.07526060f, 0.07876401f, -0.05403890f, 0.02536688f, 0.03184854f, 0.07154317f, 0.05646633f, 0.07359210f, -0.01374101f, 0.03047864f, 0.06310365f, -0.03625160f, -0.03687706f, -0.02560588f, -0.04763574f, -0.12081625f, -0.12347361f, 0.00896332f, 0.03277533f, -0.01188383f, 0.05923495f, 0.08012223f, -0.04471033f, -0.01627739f, -0.01195902f, 0.00877832f, 0.04992640f, 0.02127817f, 0.00913804f, 0.08411408f, 0.01907972f, 0.02603784f, 0.01716755f, -0.04804874f, 0.02323340f, -0.03489242f, 0.01884064f, 0.01372877f, 0.02442753f, -0.03618574f, -0.02746917f, 0.07278114f, 0.08464759f, -0.02765537f, 0.04941301f, -0.02335168f, 0.03616338f, 0.05440912f, 0.04209869f, -0.04942798f, 0.04640038f, 0.04783316f, 0.02584900f, 0.07992698f, -0.01799713f, -0.00882099f, -0.04276767f, 0.04404986f, 0.03100625f, -0.00069766f, -0.03946535f, -0.02170991f, 0.01771814f, -0.03421979f, 0.01010757f, 0.01782193f, -0.00372811f, 0.08602910f, 0.06198895f, 0.10170489f, 0.04753460f, -0.01527228f, -0.03961406f, -0.07103095f, -0.06955683f, -0.12795235f, -0.08901619f, -0.07883298f, 0.00600108f, 0.04855862f, -0.05863208f, 0.01434090f, -0.03842234f, 0.05240353f, 0.06138625f, 0.00036413f, 0.08120687f, 0.08365261f, -0.01173342f, 0.03263753f, -0.01610108f, 0.04291877f, 0.08911689f, 0.09092070f, 0.05829544f, 0.07668649f, -0.01516622f, 0.06465572f, -0.04100715f, 0.07570688f, 0.02810208f, -0.01678076f, -0.01784517f, -0.01670441f, -0.07518000f, -0.02527080f, -0.03332305f, 0.02138778f, -0.04612923f, 0.01760570f, -0.00760289f, -0.01114128f, -0.00274233f, -0.05443073f, -0.06147907f, -0.02350930f, -0.06300354f, -0.04088031f, -0.02046328f, -0.06405616f, -0.04881636f, -0.05743274f, -0.27964142f, -0.19282773f, -0.07164548f, -0.04724855f, -0.02053218f, -0.01520014f, -0.05253172f, -0.03174574f, -0.00693371f, -0.04522732f, 0.00735829f, -0.00853225f, 0.02024501f, 0.00758469f, 0.02761801f, -0.03489181f, -0.06585120f, 0.02181441f, -0.04926967f, -0.01839159f, -0.06945516f, -0.04599869f, -0.01989006f, 0.06333009f, 0.04364666f, 0.01805019f, 0.05575856f, -0.03981284f, -0.00031271f, 0.06274739f, 0.07193369f, -0.06456682f, 0.01076879f, 0.04525487f, 0.02604734f, -0.04353044f, -0.05595434f, -0.07305571f, -0.15870145f, -0.17606327f, 0.02136949f, -0.06440843f, -0.03288228f, -0.01270901f, -0.08214709f, 0.03087011f, 0.05119543f, 0.00589773f, -0.05555549f, -0.00337992f, 0.01585758f, 0.04398034f, -0.04142757f, -0.07013011f, 0.00582629f, -0.10509975f, -0.13001160f, -0.14032042f, -0.05159327f, 0.02339527f, -0.02686907f, 0.03907759f, 0.05424311f, 0.00205660f, 0.00405774f, -0.04138172f, 0.01358621f, -0.08691871f, -0.02558464f, -0.07830327f, -0.00641158f, -0.04159893f, -0.05468484f, -0.01952808f, 0.02738695f, -0.05126121f, -0.03850448f, -0.01291904f, -0.02087079f, -0.03652919f, 0.03945909f, -0.01169571f, 0.05226912f, -0.04967381f, -0.07568572f, -0.04768379f, -0.06088375f, -0.05556602f, -0.06611065f, -0.06667956f, 0.01721025f, 0.01703070f, 0.01738067f, 0.02413255f, -0.03814844f, 0.00284900f, -0.05166849f, 0.03406389f, -0.07358842f, -0.11352977f, -0.04905883f, 0.00784199f, -0.00600987f, -0.03592854f, 0.04620405f, 0.02638260f, 0.03773678f, 0.00525210f, 0.02528538f, -0.00089735f, 0.02906472f, 0.04746047f, -0.02119101f, 0.05121385f, 0.02966861f, 0.03666300f, 0.05692206f, 0.00067458f, -0.04652459f, -0.03716089f, 0.00815985f, 0.00362832f, -0.02473535f, 0.03770204f, 0.01708009f, -0.13518800f, -0.03673810f, -0.01535141f, -0.06455781f, -0.00474268f, 0.01623414f, -0.04353792f, -0.09433671f, -0.14350139f, -0.21628278f, 0.01058343f, 0.05749261f, 0.01239975f, 0.01704057f, 0.02362012f, -0.01540062f, -0.06377472f, -0.04299133f, -0.01546178f, 0.00059308f, 0.02586737f, 0.02242623f, 0.04441024f, -0.01004038f, -0.07152599f, -0.04848418f, -0.04224301f, -0.03403916f, 0.02684609f, 0.04177271f, 0.05179869f, -0.02171578f, -0.00354068f, -0.01320153f, 0.00081460f, -0.00529893f, -0.02235321f, -0.01289258f, -0.00434260f, 0.01443082f, -0.02891062f, -0.04186523f, 0.01297625f, -0.01333055f, -0.04010537f, 0.02734259f, -0.01300071f, -0.01715665f, -0.04087264f, -0.03883696f, -0.07876010f, 0.00161718f, -0.00414561f, 0.03839253f, 0.00826725f, -0.02626977f, -0.02163996f, 0.01316354f, -0.05517331f, 0.00992659f, 0.00643415f, -0.06475850f, 0.00725448f, -0.06004578f, -0.09592953f, -0.04260032f, -0.02534724f, 0.07936823f, 0.01085587f, 0.06990160f, -0.06509650f, -0.00739101f, 0.03600725f, 0.03815172f, -0.02613895f, -0.00457237f, -0.04068865f, 0.02360336f, -0.01739951f, 0.03357707f, -0.10127953f, -0.05708087f, 0.06545401f, -0.02678015f, -0.00667717f, -0.04662235f, 0.04869926f, -0.01089598f, -0.03995421f, -0.00157440f, 0.03140982f, 0.02092947f, 0.04645406f, -0.02717857f, 0.00053818f, -0.15813120f, -0.03574679f, -0.00420900f, 0.01293370f, -0.08289848f, -0.02222985f, 0.00420396f, -0.05670629f, -0.06438873f, -0.07636225f, -0.00244317f, 0.03307813f, 0.00513387f, -0.01467589f, -0.00172477f, -0.10920537f, -0.03238114f, -0.05471015f, -0.06060482f, 0.03498733f, -0.17268707f, -0.07795909f, -0.13654089f, -0.09207413f, -0.11653328f, 0.01063425f, -0.05718938f, 0.02102069f, -0.07631154f, -0.00702206f, -0.04779881f, 0.03765211f, -0.03188317f, -0.00738906f, -0.02620704f, 0.02505530f, 0.01254341f, -0.05358032f, 0.00107661f, -0.05163671f, 0.10025549f, -0.04958101f, -0.08374293f, -0.07539245f, -0.05914792f, -0.00332480f, 0.04846445f, 0.06442261f, 0.08439157f, 0.05096488f, -0.13965155f, 0.05296909f, 0.03127346f, 0.01988570f, 0.01471420f, 0.05009246f, 0.06230401f, -0.00477791f, 0.02692571f, -0.07811052f, -0.00961007f, -0.05804928f, 0.02252088f, -0.04285938f, -0.02146620f, 0.02250161f, 0.05227911f, -0.04475880f, -0.03434509f, -0.00155309f, 0.00640334f, -0.01794077f, -0.02309588f, -0.04210607f, 0.02699094f, 0.07805049f, 0.02966723f, 0.04602934f, 0.03238519f, -0.00958951f, -0.04609549f, -0.01816459f, 0.03780615f, 0.03555107f, 0.06181331f, -0.04412460f, 0.03155490f, 0.04814701f, -0.04158372f, 0.00862932f, -0.03214105f, 0.00082356f, -0.09010398f, -0.10581216f, -0.06908431f, -0.14130801f, -0.09738142f, -0.08773980f, 0.03204935f, 0.03156247f, -0.04315193f, 0.01509381f, -0.03484302f, -0.03786661f, 0.04890121f, 0.02706223f, -0.02229134f, 0.00370797f, 0.00379065f, 0.00703511f, -0.01064731f, 0.00274193f, 0.07904672f, 0.02890651f, 0.03824670f, 0.00208907f, 0.03552920f, 0.02089114f, -0.00240449f, -0.03154774f, 0.00806295f, -0.04009942f, -0.01157250f, 0.03105805f, 0.02804233f, -0.02231236f, 0.06060001f, 0.02113628f, -0.00912029f, 0.05257941f, -0.07250595f, 0.00713270f, 0.03305644f, -0.03280364f, -0.07956498f, -0.04915714f, 0.00166873f, -0.05108928f, -0.02657419f, -0.00919699f, 0.01833509f, 0.02313592f, 0.03053635f, 0.02496185f, -0.03891987f, -0.11960244f, -0.05196104f, 0.00410490f, -0.04690262f, -0.06391102f, -0.05239858f, -0.02993841f, -0.05971796f, 0.02599820f, -0.05200421f, -0.05512899f, -0.00062324f, 0.00012568f, -0.01589829f, 0.00926689f, 0.02520199f, -0.05975325f, -0.03437749f, 0.01204455f, -0.05391404f, -0.04555296f, 0.06591052f, -0.00397541f, -0.03689871f, -0.03612065f, -0.07989800f, 0.04072048f, -0.01274576f, -0.03301010f, -0.05800377f, 0.03233439f, -0.03145549f, -0.03301272f, -0.06636808f, -0.09197819f, 0.01138361f, 0.04588640f, -0.04228016f, -0.00641438f, -0.06459676f, -0.06210961f, 0.04136347f, -0.00518017f, 0.05963744f, -0.01299715f, -0.15263727f, -0.10080209f, 0.00460984f, -0.09132283f, 0.01691271f, -0.01740222f, 0.00615567f, 0.05228145f, 0.00159048f, 0.05414301f, -0.09593878f, -0.06607601f, 0.01326210f, -0.01281905f, -0.05114108f, -0.03347314f, -0.03002608f, 0.04018011f, 0.00911841f, 0.00765228f, -0.03429855f, 0.01124989f, -0.02234416f, -0.00517035f, 0.03026576f, 0.04315129f, -0.03700101f, -0.06243411f, 0.02088541f, 0.01459478f, 0.01986479f, 0.08104233f, -0.05553043f, 0.02934433f, -0.09252870f, -0.12247492f, -0.04521410f, -0.04782267f, 0.03615090f, -0.06638934f, -0.16512837f, -0.13883621f, 0.00667279f, 0.01068307f, -0.05317223f, 0.04014052f, 0.06972481f, -0.05534524f, 0.05127254f, 0.00881709f, -0.01814901f, 0.03752144f, 0.05311540f, 0.04121025f, 0.05861890f, 0.00463593f, 0.00599623f, -0.05212227f, 0.02439000f, -0.04485296f, 0.02916787f, 0.02927836f, 0.02624698f, -0.01355398f, -0.01348407f, 0.02895792f, 0.01789818f, 0.03642017f, -0.01458589f, -0.03073246f, -0.05869101f, 0.05260631f, 0.02544338f, 0.06015968f, 0.05003097f, -0.05965485f, 0.01166781f, -0.00045754f, -0.03859868f, -0.02715329f, 0.00279633f, 0.05846590f, -0.02119560f, 0.06208394f, -0.02713293f, -0.07529575f, 0.00617343f, 0.06709564f, 0.04779358f, -0.04121399f, 0.09133835f, 0.01961705f, -0.02520467f, -0.09116697f, -0.09956365f, 0.04942738f, -0.00569688f, -0.06085495f, 0.01493373f, 0.02250818f, -0.19118488f, -0.04422999f, 0.01513448f, -0.00883821f, -0.07791739f, -0.07435324f, 0.00419385f, 0.11006654f, 0.03075232f, 0.08224020f, -0.03337812f, 0.04919178f, 0.06419867f, -0.04090114f, -0.00125001f, -0.06515658f, 0.01614403f, -0.04981621f, -0.01697942f, 0.08118695f, -0.06906305f, 0.04312521f, 0.01155332f, 0.06308428f, -0.02064807f, 0.04296121f, -0.02017007f, -0.02262198f, 0.01660515f, -0.04108564f, -0.06352051f, 0.05898629f, -0.03922908f, -0.04962320f, -0.00159247f, -0.03857468f, -0.00426460f, -0.01979459f, 0.03203466f, -0.01112600f, 0.03950442f, 0.07232643f, 0.00836816f, -0.01954328f, -0.10128957f, -0.03439742f, -0.00916223f, -0.00029388f, -0.06857306f, -0.12325373f, 0.05932296f, -0.00603045f, 0.03204417f, 0.06274279f, -0.00919924f, -0.04750859f, -0.04358556f, -0.01786028f, 0.03698535f, -0.02872749f, 0.01821537f, 0.02865832f, 0.02674822f, 0.01237191f, 0.03903511f, 0.05659764f, 0.05136348f, 0.02176469f, -0.05977675f, -0.21724398f, -0.14425035f, -0.05299255f, 0.00159399f, 0.02045529f, 0.08297443f, 0.05081756f, -0.00833476f, -0.03006556f, -0.00750518f, -0.05391786f, -0.01491310f, -0.04781848f, -0.04699404f, -0.09433818f, -0.19746271f, 0.04717713f, 0.00165718f, 0.01944654f, -0.02343729f, -0.00823143f, -0.00188585f, -0.00639536f, -0.02193153f, 0.02434578f, -0.01293738f, -0.06419207f, 0.01556323f, 0.00683165f, -0.05248715f, 0.06846444f, 0.00392914f, -0.00694159f, 0.01781590f, -0.04850711f, -0.18908973f, 0.04978169f, -0.01228682f, 0.04090998f, 0.01492580f, -0.07162789f, -0.04707217f, 0.00755655f, 0.01012205f, 0.04511262f, 0.05390023f, -0.02183549f, -0.00252519f, 0.01871799f, -0.02604034f, -0.05231705f, -0.05062211f, 0.02429209f, 0.04243218f, 0.00996686f, -0.01602241f, -0.01717602f, 0.01955796f, 0.05073235f, 0.01930086f, -0.04677256f, 0.04058006f, 0.02706325f, 0.02081830f, -0.00074961f, 0.03733495f, 0.01675416f, -0.06098573f, -0.04086767f, 0.00297713f, 0.03127797f, 0.00671756f, -0.05149726f, -0.06390297f, 0.00586984f, -0.03510015f, -0.02228681f, -0.02478168f, 0.04882152f, 0.00730123f, 0.05514150f, -0.07808565f, 0.01171980f, -0.00176983f, -0.03742333f, -0.00140502f, -0.05788496f, 0.06189124f, 0.01786144f, -0.01113810f, -0.07829569f, -0.21167056f, -0.00510886f, 0.02642437f, -0.04027242f, 0.01528257f, -0.08821883f, -0.04475487f, -0.01008209f, 0.06903273f, 0.00156699f, -0.02826983f, 0.02007122f, -0.01974115f, 0.03410270f, 0.06565790f, -0.13339086f, 0.00630924f, -0.01779203f, -0.02562455f, 0.03000845f, -0.05356550f, -0.01071226f, -0.04826195f, 0.06630770f, 0.01536579f, -0.01567377f, -0.02526265f, 0.00270801f, 0.05564529f, 0.01521052f, -0.26693231f, -0.07316945f, 0.00462078f, 0.06351385f, 0.01531043f, -0.00308243f, 0.01623602f, 0.04598116f, 0.01556314f, 0.04555170f, 0.04083915f, 0.01733902f, 0.02397726f, 0.02064699f, 0.00007811f, 0.05772235f, 0.05036117f, 0.01754621f, 0.00116071f, 0.05806984f, 0.02481682f, 0.05702942f, 0.03457033f, 0.02320577f, -0.00440660f, -0.03515588f, 0.03897903f, -0.03113243f, 0.01997777f, 0.03589133f, -0.08864820f, -0.01279676f, -0.02001570f, 0.05303963f, -0.02492848f, 0.07463738f, 0.04886284f, 0.03830509f, 0.06584061f, 0.00532213f, -0.06152942f, 0.00607919f, -0.02746455f, -0.13994040f, -0.26613510f, -0.08273204f, -0.12138252f, 0.01532392f, 0.01764551f, 0.01628090f, 0.15115581f, 0.08553592f, 0.10533711f, 0.03374024f, -0.06451751f, 0.05669986f, 0.01731952f, 0.06034884f, 0.01864483f, -0.01893886f, -0.01389537f, 0.04800252f, 0.05035957f, 0.03821889f, 0.00040541f, -0.04636390f, -0.03784557f, 0.03005716f, -0.01969618f, 0.05437450f, 0.02498684f, -0.02800542f, 0.04257936f, -0.00696007f, 0.01646986f, -0.03976104f, -0.08571846f, -0.05004561f, -0.08627158f, -0.15063894f, 0.06342881f, -0.05568349f, -0.07714478f, -0.05100776f, -0.02250663f, -0.00713712f, -0.01185314f, 0.03901873f, -0.02122343f, 0.01985944f, 0.01381595f, 0.00844500f, 0.05942265f, 0.01022477f, -0.10549588f, -0.01471507f, 0.00199094f, -0.01429780f, -0.00248076f, -0.07350496f, 0.04169487f, 0.01239010f, -0.01362857f, 0.01414428f, 0.03130180f, 0.02030469f, 0.06259861f, -0.04461463f, 0.03455376f, -0.03383190f, -0.10148598f, -0.06518924f, 0.03950759f, 0.05017843f, 0.00218113f, 0.00538222f, -0.00586321f, 0.00899246f, 0.00533870f, -0.14174199f, 0.16972907f, 0.07487987f, -0.01549541f, 0.03392913f, 0.04189377f, -0.02459729f, -0.06129209f, 0.00759160f, -0.05661773f, 0.03700867f, 0.09208839f, -0.04097978f, -0.02980056f, 0.02265173f, -0.06463224f, -0.02081056f, -0.09548777f, 0.02537656f, -0.01753193f, 0.01658577f, -0.01659406f, 0.02873106f, -0.00724343f, -0.05305013f, -0.02286733f, 0.03605366f, -0.06176759f, -0.00360121f, 0.02779503f, 0.01953404f, -0.06526677f, -0.03522353f, -0.06803622f, -0.11906604f, -0.28982642f, 0.04364905f, -0.03150493f, 0.02486618f, -0.03859681f, -0.04028810f, -0.04615841f, 0.04823684f, 0.04888398f, -0.01429189f, 0.04375229f, 0.02468992f, 0.00308456f, 0.02865977f, -0.04981366f, -0.05614095f, -0.04016360f, 0.01524454f, -0.05677628f, -0.04541786f, -0.00907366f, -0.07197873f, -0.01747494f, -0.00650735f, -0.06703536f, -0.00793454f, -0.01477277f, -0.01833600f, 0.04925302f, 0.05694731f, -0.00582536f, -0.03225466f, -0.03914608f, -0.00687042f, 0.03708369f, 0.04019524f, 0.04234827f, -0.04030868f, -0.06881273f, -0.02519945f, 0.00287347f, 0.00126879f, -0.04891830f, -0.00128417f, -0.05855902f, -0.03781923f, -0.01820928f, -0.01973151f, 0.05132550f, 0.01196690f, -0.02379156f, 0.05156839f, 0.05964772f, 0.05724058f, -0.00210438f, -0.04362623f, 0.12192570f, 0.02534416f, -0.06975867f, -0.03327512f, -0.01008649f, 0.02151836f, 0.04583547f, 0.03741734f, -0.03139674f, -0.00691652f, -0.00996046f, -0.04421087f, -0.02186945f, -0.02260098f, 0.00814289f, 0.09787150f, 0.08438249f, 0.04280644f, -0.07628763f, -0.00580618f, 0.06185775f, 0.01394692f, 0.00269400f, 0.05195168f, 0.01401795f, -0.05296712f, -0.02612756f, 0.04150757f, 0.03917817f, 0.01188438f, 0.13500534f, -0.01888795f, -0.05141032f, -0.06237058f, 0.03040682f, 0.00866396f, 0.03852507f, -0.02722466f, -0.00658686f, 0.03207245f, 0.01899390f, -0.00372519f, 0.00725121f, -0.00982983f, -0.07085671f, -0.00461417f, -0.02141061f, 0.03084231f, 0.01803880f, -0.03505825f, 0.04551080f, -0.04545338f, 0.04105291f, 0.03873837f, -0.05671532f, -0.08051347f, -0.04878874f, -0.04287742f, -0.02358888f, -0.08559640f, -0.04548353f, -0.08442059f, -0.06151718f, -0.07012205f, -0.03998977f, -0.08952919f, -0.05124024f, -0.00636048f, 0.02835617f, 0.04582108f, -0.07350245f, 0.02256813f, -0.06984682f, -0.07629474f, -0.05932300f, -0.08551220f, -0.11054605f, -0.11376055f, -0.07036888f, 0.02788246f, -0.02604360f, -0.04437627f, -0.05926703f, -0.05685493f, -0.03376836f, -0.12414341f, 0.00044558f, 0.01482631f, -0.00961004f, 0.05599878f, -0.06213061f, -0.08349928f, -0.02030066f, -0.06809054f, -0.01053001f, 0.04739913f, -0.04257692f, -0.07346852f, -0.01084053f, -0.09791429f, 0.04347414f, -0.05606900f, -0.00523650f, -0.08687859f, -0.07609701f, 0.03142165f, 0.05170245f, 0.07124734f, 0.09312849f, -0.04626640f, 0.00090653f, 0.00158538f, -0.04380329f, -0.03725440f, -0.10373952f, -0.09984868f, 0.02001732f, -0.04903224f, 0.04577447f, -0.00406703f, 0.01550544f, 0.06527150f, -0.03032905f, -0.01246555f, -0.00794245f, 0.02071275f, -0.06407536f, 0.01138793f, -0.05030094f, -0.03052635f, -0.00601332f, -0.05788843f, -0.05013478f, -0.04643996f, 0.01510566f, 0.02123400f, -0.00012407f, -0.05094831f, -0.04961925f, 0.03810578f, 0.03751015f, 0.05005181f, -0.05610900f, 0.05356690f, -0.02034362f, 0.03353779f, 0.06463893f, 0.01201741f, -0.04497942f, 0.00872011f, -0.10370307f, -0.00292446f, -0.11559694f, -0.02403776f, -0.04198457f, -0.06741063f, -0.01243881f, -0.08689203f, -0.09634890f, 0.00531581f, -0.02537166f, -0.03548256f, -0.07770050f, -0.04348046f, -0.04362618f, -0.05171300f, -0.08795462f, -0.04903281f, -0.04850069f, -0.03024632f, 0.02532206f, 0.01969595f, -0.02515595f, -0.06164321f, 0.02943410f, -0.04153496f, -0.07151839f, -0.05869353f, -0.05256801f, -0.00100394f, 0.01213995f, 0.05691645f, -0.01676072f, 0.01596274f, -0.08355127f, -0.03358807f, -0.03372392f, -0.07260475f, -0.04891482f, -0.06860552f, 0.02814294f, 0.01741439f, -0.02645060f, -0.07716724f, 0.01529378f, -0.11468478f, -0.05093720f, -0.01492327f, -0.07995042f, -0.04207137f, 0.03405323f, 0.03848169f, -0.05012174f, -0.00157924f, -0.09656201f, -0.05856500f, 0.03109395f, -0.02878564f, 0.04113715f, -0.02164347f, -0.03623029f, 0.05028519f, 0.04359151f, -0.00798416f, -0.05549874f, -0.01197250f, -0.05426023f, 0.01273645f, -0.03897626f, -0.02609105f, 0.04321129f, 0.05021756f, -0.02513652f, 0.02910051f, 0.00273233f, -0.04694454f, 0.03525116f, -0.00053585f, -0.04797306f, -0.09357453f, -0.03350833f, -0.08108559f, 0.02249893f, 0.03255697f, -0.02236827f, 0.02214144f, -0.02646233f, 0.00067796f, -0.07117715f, -0.05154003f, -0.06587251f, -0.03320826f, -0.05012350f, -0.05667397f, 0.04097873f, 0.03713942f, -0.01056344f, -0.02472087f, 0.03858751f, 0.03038043f, 0.04717269f, -0.01591663f, -0.01090721f, -0.03919741f, -0.00529542f, -0.04625230f, 0.00599208f, -0.00857806f, -0.08746891f, -0.02754269f, -0.06850152f, -0.06630909f, -0.00055342f, -0.00230251f, -0.03361214f, 0.03045558f, -0.07298193f, -0.06367661f, -0.04469119f, -0.03601798f, -0.10774677f, 0.00951672f, -0.03913729f, -0.01137617f, 0.01315623f, 0.01129682f, -0.02632185f, -0.00457945f, -0.01720561f, 0.02593454f, -0.01557847f, -0.00084931f, -0.04918694f, -0.08090293f, -0.05340207f, -0.00565424f, 0.03544651f, -0.03661084f, 0.04129341f, -0.00678030f, 0.05593075f, 0.02138174f, -0.03261522f, 0.02918611f, -0.02049980f, -0.01458501f, -0.07166076f, -0.05431416f, -0.01989708f, 0.01744320f, 0.00877348f, -0.00985014f, -0.07985303f, -0.00192249f, -0.02915618f, -0.08408213f, -0.05384821f, -0.09419661f, 0.01869579f, -0.06450282f, -0.10583338f, -0.07083955f, -0.18342827f, -0.12371267f, -0.09032895f, 0.08194868f, 0.07895668f, -0.00127043f, -0.03246285f, 0.01834065f, -0.08182003f, -0.00501468f, 0.04414177f, -0.03973315f, 0.00325276f, 0.03977979f, 0.03352696f, -0.02353742f, 0.09176732f, 0.06026176f, -0.05070360f, 0.03163539f, -0.02766748f, -0.03741546f, 0.00213439f, -0.02056231f, -0.05706963f, -0.06174861f, -0.07478750f, 0.00451760f, -0.05821577f, -0.00540054f, -0.02643852f, -0.05178042f, -0.02758139f, -0.06960241f, 0.05409481f, 0.06183089f, -0.03686816f, -0.00859152f, 0.02090936f, -0.01010491f, -0.04609178f, -0.02014613f, 0.02575395f, -0.11388484f, -0.06235669f, -0.04194509f, 0.03539456f, 0.02742858f, -0.09226276f, 0.00744669f, -0.09912860f, -0.00251709f, -0.12672217f, -0.05281384f, -0.00350916f, -0.04165583f, 0.03129075f, -0.06127782f, -0.01458831f, -0.06711172f, 0.00596314f, 0.05309905f, 0.05264074f, -0.03820573f, -0.09050424f, 0.00387268f, -0.04991075f, -0.00661001f, -0.14882283f, -0.04146313f, -0.03453169f, 0.05362187f, 0.02397256f, -0.04801371f, -0.02686399f, -0.04179452f, -0.02495661f, -0.01725088f, -0.06556799f, 0.00175804f, -0.02404542f, 0.04209691f, 0.00627660f, -0.00291715f, 0.05437590f, 0.05606675f, 0.02653714f, 0.04978114f, 0.12892710f, 0.08078185f, 0.03510620f, 0.00589505f, 0.11366560f, 0.06792544f, -0.04577932f, -0.02178485f, -0.05048386f, 0.02997898f, -0.07868338f, 0.01137710f, -0.02979755f, 0.01111098f, 0.00806335f, 0.04836187f, 0.11404184f, 0.08376069f, 0.01272001f, 0.12086132f, 0.00366559f, 0.07805124f, 0.04742371f, 0.05139843f, -0.02527707f, -0.09213977f, -0.03629988f, -0.02312492f, -0.02152093f, -0.08252857f, 0.01830144f, -0.04930745f, 0.03868990f, 0.03865553f, 0.00834234f, 0.04888932f, 0.01364112f, 0.01793180f, -0.03386009f, 0.04847239f, -0.01105385f, 0.01798623f, -0.03565561f, 0.02402479f, 0.04287647f, -0.12033293f, -0.00271250f, -0.09028357f, -0.09198581f, -0.10868894f, -0.04089908f, -0.10783048f, -0.07292915f, -0.06621604f, -0.01223596f, -0.08235309f, -0.04301917f, -0.01516076f, -0.01147918f, -0.04605703f, -0.01370052f, -0.05604045f, -0.07173133f, -0.03750604f, -0.07037089f, 0.01736879f, -0.05505972f, -0.00770810f, 0.02980439f, -0.05549994f, 0.04640990f, -0.04674577f, -0.07115188f, -0.09288846f, -0.02188327f, -0.04863847f, -0.03247735f, 0.04863529f, 0.02038589f, 0.07093024f, 0.04647712f, -0.05110189f, -0.14093688f, -0.10304771f, 0.05992574f, -0.03191233f, -0.12748265f, -0.04089932f, -0.08740576f, -0.02355265f, -0.11068279f, 0.00613045f, -0.04426980f, -0.04455262f, -0.06980000f, -0.08571971f, -0.01255432f, -0.06079946f, -0.05834530f, 0.01466300f, -0.05002223f, -0.03329824f, 0.04460729f, 0.02637639f, -0.03576176f, 0.00798242f, 0.02049864f, -0.06830008f, 0.00975755f, 0.01577850f, 0.03485906f, 0.02418631f, -0.10630353f, -0.00565753f, -0.02181539f, -0.15424564f, -0.03160155f, -0.09728251f, -0.05213302f, -0.01989568f, -0.09919746f, -0.08970512f, -0.00268630f, 0.03836926f, -0.02127854f, 0.01726730f, 0.00480041f, 0.02416200f, -0.04539889f, 0.07067787f, 0.06499967f, 0.02215816f, 0.06123979f, -0.05873726f, -0.01353661f, -0.10198119f, -0.04070387f, -0.01652635f, 0.00202391f, -0.00950694f, -0.03083280f, -0.04492977f, 0.00293249f, -0.01813583f, -0.01904626f, 0.02344811f, -0.02802200f, -0.08554138f, -0.01158446f, 0.00284832f, -0.00180596f, 0.03466069f, -0.06043201f, -0.00559008f, -0.01284363f, 0.02913947f, 0.05013162f, -0.03809118f, 0.01699464f, -0.04893130f, 0.00017179f, -0.05541885f, 0.01960770f, -0.03041596f, 0.07187241f, -0.01254634f, -0.04037512f, -0.02536144f, 0.06720191f, 0.03887727f, -0.07339882f, -0.04297562f, 0.01678955f, -0.01469984f, -0.00880599f, -0.05927550f, -0.02862857f, 0.01273934f, 0.01447251f, 0.05903567f, 0.02259903f, 0.04428899f, -0.00149495f, -0.02334439f, 0.00881719f, 0.01763762f, 0.05463292f, 0.01839551f, 0.00931334f, -0.03381874f, 0.01163599f, 0.03831115f, 0.06747878f, -0.00587398f, 0.02952073f, -0.01826802f, -0.06929544f, -0.10121255f, -0.01895353f, -0.07441885f, 0.07396885f, 0.03900865f, 0.03745694f, 0.04759251f, 0.02931249f, -0.00250453f, -0.01082698f, -0.01696229f, -0.02126233f, 0.03124670f, 0.06178692f, 0.07329592f, 0.05787683f, 0.00382427f, 0.00995498f, -0.10809771f, -0.01309957f, -0.08969083f, -0.06716073f, 0.02883626f, 0.00972608f, -0.03312658f, -0.05166769f, -0.03292917f, 0.05479924f, -0.02654585f, 0.09474860f, 0.07081152f, 0.04438046f, 0.03836149f, 0.07015526f, 0.03332065f, 0.07545103f, 0.03194769f, -0.05534874f, 0.03763416f, 0.02429838f, -0.04670573f, 0.04531545f, -0.00367225f, -0.14877307f, -0.12520388f, -0.15173922f, -0.17087635f, -0.21192500f, 0.11010247f, 0.10770176f, 0.00596838f, -0.01629091f, 0.02109834f, -0.07608207f, -0.05761508f, -0.02039771f, 0.05069212f, -0.04524235f, 0.03006388f, -0.00088334f, -0.03312862f, -0.01171281f, -0.03993347f, 0.05451390f, 0.08420105f, 0.05410087f, 0.08323743f, 0.09788240f, -0.03114882f, 0.00833334f, -0.06016322f, 0.02507064f, 0.02554078f, -0.04749548f, -0.00711583f, -0.03614655f, -0.04080208f, 0.02604740f, 0.04359253f, -0.00500791f, 0.01869635f, -0.03233487f, -0.01049059f, 0.04755790f, -0.06132704f, 0.02229618f, 0.05362803f, 0.08211895f, 0.02044052f, -0.06465180f, 0.00895990f, -0.02232880f, -0.01882685f, -0.04255423f, -0.09867914f, -0.11054651f, -0.10287474f, 0.00055341f, -0.00553430f, 0.06984123f, 0.02601643f, -0.03852538f, 0.02731520f, 0.02022821f, 0.02743608f, 0.02783477f, -0.04146659f, -0.02122309f, 0.04794827f, -0.03450990f, 0.02290243f, -0.02079872f, -0.00511152f, -0.05113968f, -0.08873503f, -0.04790028f, 0.01386052f, 0.01285098f, -0.03026645f, -0.09440596f, 0.01344673f, -0.04207788f, -0.02213601f, 0.04821879f, 0.00854775f, 0.01371799f, 0.00247250f, 0.03964323f, -0.09861484f, -0.06245417f, -0.11152288f, -0.06170339f, 0.01325939f, 0.00257899f, -0.01131736f, -0.05118129f, 0.02327462f, 0.08871827f, 0.07619612f, 0.01082755f, 0.05107729f, 0.06412186f, 0.00088559f, -0.01666800f, -0.04700039f, 0.03613788f, 0.00677052f, 0.00552126f, -0.03235050f, 0.03238996f, -0.01457392f, 0.00318622f, 0.05696200f, -0.00592239f, 0.06887537f, 0.02335224f, -0.04492611f, -0.01811010f, 0.01785336f, 0.04596760f, 0.02406146f, -0.03108185f, 0.01541086f, 0.08071893f, 0.04026970f, 0.00231204f, 0.02299861f, 0.02123606f, 0.01075128f, -0.03864432f, -0.02172575f, 0.02521559f, 0.07315142f, 0.07511289f, 0.00652219f, 0.04466298f, 0.08952252f, 0.01027932f, -0.00769995f, 0.05690632f, 0.05803112f, 0.03309267f, -0.04380634f, 0.06153144f, -0.02427756f, 0.01923295f, -0.00255175f, 0.04326589f, -0.04208381f, 0.01466499f, 0.07832208f, 0.09907506f, 0.05134907f, 0.02020777f, 0.00513606f, -0.01797623f, 0.02117504f, 0.03410761f, -0.11012311f, -0.03189474f, -0.01269859f, 0.01119028f, -0.14857964f, 0.04150617f, -0.03475211f, -0.15497833f, -0.09318927f, -0.03337529f, 0.00911924f, 0.00126294f, 0.04116325f, 0.03480658f, 0.03568687f, -0.00983165f, 0.02044128f, 0.05475998f, -0.00162904f, 0.04462692f, 0.06980582f, -0.01331854f, -0.00363841f, -0.01535930f, 0.04617882f, -0.01622666f, 0.02763161f, 0.01307991f, -0.03411365f, -0.04500037f, 0.03048949f, -0.01709543f, -0.02915616f, -0.07276017f, 0.01033400f, -0.04361891f, 0.00194214f, -0.04995312f, 0.01398881f, 0.02535772f, -0.02482744f, 0.10820346f, 0.04771579f, 0.13423587f, 0.07701833f, 0.15109934f, 0.09408530f, -0.03030340f, -0.00457154f, 0.05414691f, 0.00003708f, 0.02531017f, -0.02409032f, 0.08047658f, 0.00220429f, -0.00464887f, 0.06981473f, -0.02493722f, 0.05071763f, 0.03888614f, 0.09146480f, -0.01951449f, 0.04021602f, 0.01974838f, 0.05147048f, 0.00724265f, 0.08904587f, 0.03610558f, 0.05781787f, 0.03075716f, 0.06506747f, -0.02011368f, 0.05493046f, 0.03908044f, 0.06622630f, 0.03373382f, 0.03745869f, -0.00972094f, -0.04091853f, 0.09396377f, -0.02630243f, 0.04043691f, -0.03064424f, 0.03888452f, 0.06235547f, -0.08111893f, 0.04976191f, 0.04042155f, -0.04066548f, 0.01155866f, 0.07413283f, 0.10305292f, -0.04015537f, 0.04520821f, 0.05166576f, 0.07418931f, 0.04243713f, -0.01696631f, 0.06186642f, 0.05825146f, -0.03571522f, -0.01983360f, 0.04853144f, 0.08543775f, 0.04807261f, 0.01358146f, -0.08520941f, -0.04025357f, 0.01271304f, 0.08598442f, 0.05767569f, -0.01353066f, 0.01869479f, -0.04729944f, -0.04541031f, 0.06830909f, -0.02491389f, 0.03265411f, -0.01176652f, -0.01358694f, 0.03519622f, 0.07909469f, 0.00173712f, 0.06267929f, 0.06148084f, 0.03811574f, -0.05890539f, -0.03520147f, -0.06617229f, -0.02369481f, 0.06504773f, 0.07083420f, 0.08922491f, 0.05636597f, -0.01469684f, -0.00520339f, 0.08545720f, 0.04055930f, 0.04309277f, -0.02280410f, 0.00154630f, 0.02478405f, -0.02719790f, 0.05551302f, 0.02939379f, 0.01030749f, -0.01521210f, -0.01534682f, 0.04330189f, 0.01956007f, 0.07054045f, -0.06694624f, -0.03838690f, -0.02698559f, 0.00048221f, 0.02261989f, 0.01687866f, 0.09597679f, -0.02398836f, 0.06575990f, -0.04123371f, -0.06167188f, -0.08511356f, -0.02273480f, -0.02585400f, 0.01181284f, -0.00233966f, 0.01172727f, -0.10149767f, -0.04183240f, 0.01212814f, 0.03618433f, -0.02023430f, 0.05704996f, -0.02137685f, 0.10659163f, 0.10363203f, 0.06889426f, 0.03990460f, -0.01918760f, 0.03527075f, 0.00967404f, -0.04687636f, 0.01048142f, -0.03740188f, 0.04437832f, -0.01590308f, -0.05050857f, -0.02026862f, -0.06159277f, 0.01653131f, -0.03054184f, -0.02121704f, -0.01369018f, -0.05227767f, -0.03990521f, -0.00088154f, -0.00104055f, 0.03038119f, -0.05153528f, 0.03159116f, 0.00141512f, -0.03703185f, -0.04024309f, -0.00838893f, 0.02160967f, 0.00738309f, -0.02146432f, 0.04002604f, 0.00423376f, -0.08383044f, -0.01289538f, 0.00115460f, -0.01396958f, -0.03778998f, -0.07917251f, 0.07658593f, -0.01842689f, 0.07925662f, -0.03795733f, -0.01547550f, -0.02898601f, -0.04176200f, -0.01211850f, -0.01841734f, -0.03305282f, -0.03313857f, 0.02302079f, -0.01176762f, -0.00465892f, -0.00797421f, -0.02932206f, -0.03380971f, 0.02619436f, -0.02345395f, 0.03960605f, 0.04717804f, -0.00120875f, -0.02208148f, -0.17035270f, 0.07113875f, 0.01379784f, -0.00464990f, 0.03403846f, -0.02652676f, -0.22279944f, -0.03405149f, -0.02845578f, 0.01721698f, -0.02392906f, -0.00775439f, 0.02576160f, -0.02794326f, 0.02607515f, 0.03458158f, -0.04243482f, 0.04643270f, 0.02414425f, 0.01945961f, -0.03128570f, -0.04566140f, -0.04610227f, 0.02209877f, 0.02014453f, -0.03342430f, 0.04829398f, 0.02797551f, -0.02949313f, 0.02914547f, -0.03273533f, -0.04289261f, 0.01012126f, -0.06726845f, -0.03452268f, 0.05892645f, -0.00669971f, -0.06146360f, -0.05097440f, -0.01795860f, -0.01443047f, 0.03220589f, 0.00908709f, 0.01404214f, -0.00396646f, 0.00273416f, 0.03174379f, 0.05039845f, 0.05247645f, -0.04286864f, -0.08051506f, -0.02709192f, -0.04994335f, 0.06908249f, 0.02292247f, -0.02347559f, -0.02493168f, 0.00440116f, -0.04953119f, -0.06881242f, 0.03502613f, -0.06146703f, -0.04383367f, -0.01882289f, 0.01052673f, 0.01782824f, 0.00627162f, -0.00524942f, -0.02555081f, 0.05362517f, 0.07530944f, 0.04671026f, 0.01996097f, 0.05839187f, -0.04586917f, -0.01598796f, -0.05127699f, 0.07425603f, -0.02402012f, 0.05288909f, -0.01210793f, 0.03002181f, 0.00704853f, 0.05345220f, -0.06053537f, 0.00718165f, -0.09124316f, -0.05774458f, 0.01111745f, -0.10454475f, -0.20884313f, -0.01871017f, 0.00690293f, 0.01659867f, 0.04413500f, 0.03297205f, -0.01234138f, -0.04639088f, -0.05972752f, 0.05496986f, -0.03788352f, -0.01600460f, 0.00085010f, -0.00285217f, 0.00134171f, -0.03233740f, 0.03083535f, -0.00750581f, -0.02540661f, -0.05290195f, -0.19192038f, 0.02851341f, 0.05859518f, 0.05574990f, -0.06352804f, -0.07799266f, -0.01964863f, -0.00254129f, 0.02919356f, 0.04636940f, 0.00602701f, -0.02487542f, 0.00789914f, 0.05031456f, 0.01512716f, -0.07457640f, 0.01241459f, -0.05693110f, -0.04201284f, 0.02996793f, -0.03471820f, 0.05913070f, -0.02763957f, 0.06660567f, 0.02258950f, -0.00565152f, 0.01499654f, 0.00591723f, -0.03422848f, -0.04480986f, -0.06140579f, 0.03807329f, -0.03118950f, -0.00553993f, -0.06706308f, 0.01675857f, -0.06653576f, -0.06191466f, 0.01932517f, -0.04267639f, -0.01127786f, -0.06935284f, 0.06169896f, -0.02224202f, 0.03446606f, 0.04951127f, -0.08107571f, 0.05446761f, 0.06722661f, -0.03164181f, -0.02410728f, 0.00281389f, 0.04868966f, 0.04853962f, -0.07085387f, -0.10457998f, -0.21677995f, -0.00097939f, 0.01067759f, -0.03084720f, 0.01071727f, -0.11402342f, -0.04375744f, -0.03046555f, -0.01717879f, 0.03886895f, 0.01217469f, 0.00120626f, -0.00592457f, -0.01409520f, -0.04429008f, -0.06034096f, 0.01530104f, 0.05038229f, 0.00131947f, -0.03672538f, -0.07412615f, 0.06001659f, -0.05571617f, 0.01162221f, -0.01525474f, 0.05357641f, 0.03025653f, -0.02191911f, -0.06231283f, -0.00739588f, -0.23833460f, -0.01703829f, 0.06420205f, 0.03958093f, -0.00438502f, -0.05551567f, -0.05714547f, -0.06610265f, 0.00659820f, -0.03866619f, 0.01914547f, -0.01997366f, -0.04350614f, 0.04003120f, 0.04128891f, 0.04157287f, 0.08690729f, -0.01967570f, 0.04157192f, 0.02307189f, 0.07929941f, 0.05711484f, 0.08214661f, 0.00389989f, 0.02578867f, 0.00635793f, -0.07748424f, -0.08000264f, 0.01050137f, -0.05710991f, -0.02713258f, 0.00959235f, 0.06159940f, -0.02849139f, -0.05865913f, 0.05144491f, 0.08171099f, -0.02678508f, 0.01380971f, -0.04597692f, -0.04277533f, 0.01238841f, 0.03059714f, 0.05177745f, -0.09377678f, 0.04647517f, 0.04732102f, -0.06544026f, -0.05506513f, -0.16459818f, 0.14011997f, -0.00697153f, -0.02311871f, 0.08056179f, -0.02842501f, 0.06543077f, -0.00880068f, 0.03732641f, -0.01471077f, 0.03352711f, 0.05085051f, 0.01824526f, 0.00776887f, -0.03359797f, -0.03802928f, -0.03040318f, 0.04828104f, 0.01221670f, 0.03338829f, -0.00567975f, 0.00683879f, -0.02348776f, 0.03822570f, -0.06228227f, 0.00905001f, 0.15703085f, 0.04114191f, 0.05968431f, 0.02470886f, -0.01505334f, -0.04560996f, -0.04601434f, 0.05000971f, 0.04980638f, -0.05671232f, 0.01392629f, -0.01074137f, 0.06290766f, -0.02490615f, -0.00663625f, 0.06562191f, 0.02996366f, 0.03162216f, 0.03002686f, 0.04722790f, -0.04130503f, -0.04820886f, -0.00606633f, 0.03322413f, -0.02825211f, 0.03938410f, 0.00187170f, -0.01431121f, 0.01628759f, -0.00995837f, 0.03531315f, -0.01546419f, 0.06266621f, 0.00300411f, -0.00485403f, 0.00918141f, 0.04988600f, -0.03638021f, 0.02133447f, -0.11742216f, -0.01680788f, -0.03797935f, -0.05342274f, 0.03387581f, 0.02173826f, -0.02647509f, 0.00629818f, 0.01889329f, -0.08047454f, -0.07122555f, 0.03459983f, -0.06097806f, -0.00097940f, -0.00736250f, 0.04951470f, -0.18029082f, -0.11065137f, -0.11185104f, -0.12497044f, -0.18928531f, 0.10711613f, 0.03679604f, 0.00888856f, 0.00337192f, 0.00303913f, 0.06405446f, 0.00874968f, -0.03876984f, 0.02148145f, 0.01114858f, -0.06451240f, -0.06652029f, 0.00372483f, 0.07275409f, -0.05898310f, -0.05641147f, -0.07754475f, -0.10455616f, -0.11681578f, -0.03636290f, 0.05731554f, -0.04906188f, 0.00056149f, -0.04453244f, 0.04391829f, -0.04369156f, -0.02373167f, -0.01568229f, 0.02197999f, 0.03563088f, 0.01799817f, 0.00679065f, 0.05682579f, 0.01811812f, 0.02766722f, 0.00226389f, 0.00443219f, 0.05382602f, 0.02872029f, -0.07007115f, 0.06980287f, 0.03008739f, -0.02193745f, 0.06141592f, 0.02331613f, 0.02425189f, -0.06486832f, 0.04428515f, 0.04583371f, -0.05809160f, -0.04190274f, 0.00394496f, -0.02331438f, 0.01793068f, 0.00420908f, -0.00373525f, 0.06431439f, 0.04402857f, 0.03634018f, 0.03364969f, 0.00925179f, -0.06513914f, -0.00163660f, 0.01020025f, -0.04216901f, 0.00211990f, 0.00815642f, 0.04980287f, 0.04627217f, -0.02512539f, -0.22532907f, -0.20791672f, -0.20897454f, -0.09527066f, -0.12491331f, 0.03729162f, 0.05208626f, 0.08840439f, 0.00843690f, -0.04911872f, -0.01812095f, 0.05348251f, 0.07671656f, -0.03439855f, 0.05299841f, 0.00538033f, 0.05887932f, -0.02738401f, -0.08714128f, 0.02017507f, -0.01761070f, -0.00698698f, -0.05998701f, 0.04049469f, 0.08221851f, -0.01776285f, 0.01569397f, -0.06178556f, -0.02841145f, -0.00889095f, 0.04930682f, -0.02917342f, 0.03953540f, -0.02826525f, -0.03687107f, 0.06900255f, -0.04955811f, -0.02985657f, 0.05013467f, 0.01800789f, 0.03513404f, 0.01805978f, -0.01568783f, -0.02226721f, 0.10144447f, -0.01838114f, 0.05009880f, 0.06757444f, 0.05482115f, -0.03139510f, -0.01521319f, -0.04318082f, 0.05480817f, -0.05667276f, -0.03644946f, -0.03740953f, 0.05696769f, 0.06567024f, 0.11786091f, 0.09433118f, -0.02692107f, -0.01726218f, -0.01883064f, 0.04558925f, 0.08041415f, 0.00980847f, -0.04855288f, -0.00029939f, -0.04149089f, -0.03084693f, -0.02303913f, 0.00583153f, -0.04164960f, 0.07022902f, -0.01893791f, 0.00399775f, 0.05180224f, 0.02403897f, 0.07320996f, 0.15182555f, -0.00520039f, -0.02433902f, 0.01509159f, -0.01614978f, -0.05692129f, -0.01805878f, -0.07752682f, -0.02798303f, -0.13778274f, -0.06282598f, 0.10659583f, 0.06551946f, 0.09677766f, 0.10980704f, -0.01642503f, 0.00252364f, -0.00943276f, -0.01648597f, 0.05158544f, 0.06924515f, 0.02313967f, 0.04807338f, -0.04173420f, 0.02070416f, -0.00480069f, -0.02953641f, 0.02628650f, 0.03553598f, 0.00850066f, 0.03264012f, 0.03046018f, -0.00547268f, -0.07287940f, -0.09013025f, -0.07748508f, 0.01078666f, -0.03781887f, 0.00132405f, -0.04388057f, -0.04102368f, -0.02453165f, 0.04929230f, -0.01391351f, 0.00347610f, -0.02109078f, 0.06640553f, 0.01095621f, -0.07809123f, 0.04074265f, -0.04332694f, -0.02367206f, 0.01094134f, 0.03384560f, -0.04116293f, -0.05982162f, 0.02329530f, 0.05106032f, -0.04178569f, -0.01799928f, -0.05291381f, 0.02700480f, 0.03851143f, 0.05441622f, -0.00323824f, -0.04991240f, 0.00019153f, -0.06532568f, -0.03357638f, -0.01509123f, -0.14181075f, -0.00030234f, -0.04435172f, -0.03699429f, -0.02492305f, -0.01147011f, 0.05984699f, 0.07118906f, 0.06081179f, 0.08782660f, 0.05942626f, 0.00815494f, -0.00907186f, 0.04417104f, -0.04253003f, 0.04757024f, -0.21385032f, -0.13954262f, -0.02456809f, -0.05047753f, 0.03422385f, 0.03827791f, 0.03220463f, 0.06151602f, -0.02926661f, -0.03791162f, -0.00181680f, -0.00332903f, -0.01595475f, 0.00691945f, 0.06312285f, 0.00022927f, 0.07681360f, 0.07745859f, 0.13749452f, 0.08519054f, 0.01321305f, 0.02042603f, -0.04089339f, -0.05041621f, 0.00529037f, 0.08704516f, -0.02296847f, 0.06733622f, 0.02814221f, 0.04109370f, 0.07423693f, 0.00823722f, -0.00734819f, 0.05398228f, -0.01771564f, -0.02182245f, -0.03181230f, 0.05266748f, 0.02294757f, -0.01418079f, -0.00376339f, 0.01031724f, -0.02520904f, 0.02529486f, -0.05891471f, 0.01642348f, -0.01547852f, -0.04245861f, 0.04547268f, 0.03144632f, 0.04991186f, -0.01378470f, 0.04005229f, 0.04288809f, 0.06151750f, -0.01681305f, -0.00544119f, -0.04225977f, 0.04814943f, 0.04394967f, -0.00507727f, 0.01719587f, 0.01536951f, 0.04875566f, 0.02697806f, 0.03077077f, 0.01854064f, -0.04262508f, 0.01453867f, 0.00479089f, -0.08033302f, -0.00043272f, -0.00593909f, -0.01565348f, 0.09232791f, 0.03648308f, -0.02756403f, -0.00117594f, -0.04152035f, 0.00181438f, -0.14726380f, -0.06849565f, -0.04670932f, 0.05695651f, 0.04879310f, -0.05302950f, 0.05094504f, -0.05495689f, 0.03723055f, 0.04459669f, 0.01516514f, 0.01679235f, -0.10905197f, -0.07773161f, -0.07804738f, -0.05524989f, -0.04959752f, 0.00322981f, -0.01865944f, 0.02233960f, -0.06381454f, 0.01770286f, -0.03682051f, 0.01008259f, 0.04721927f, -0.04470029f, 0.03625601f, -0.04289921f, 0.05873141f, 0.02346181f, -0.00384138f, 0.03359479f, 0.07494537f, 0.02271480f, 0.07816044f, 0.10369564f, -0.01413081f, 0.00830984f, 0.03223379f, 0.02722219f, 0.02521184f, 0.07278975f, -0.00584888f, 0.02050401f, 0.03346991f, 0.02156493f, 0.06755009f, 0.05837589f, 0.04159810f, -0.00433645f, 0.07374163f, -0.00007981f, 0.05365538f, 0.03093020f, 0.03371518f, -0.01840261f, 0.03836410f, -0.01250856f, 0.04962043f, 0.03598583f, -0.03488183f, 0.01124881f, 0.01761449f, 0.02348713f, 0.05536621f, 0.07009705f, 0.04088717f, 0.06532928f, -0.04036361f, 0.07028370f, -0.05612268f, 0.04907944f, 0.03288579f, 0.06319775f, 0.18414481f, -0.13223617f, -0.04198248f, -0.00254560f, -0.06519012f, -0.07362773f, -0.06050487f, -0.04630305f, -0.00014065f, -0.01789266f, -0.04672299f, 0.15372464f, 0.09907849f, 0.07543236f, -0.04141340f, -0.08211668f, -0.00940601f, -0.01566088f, 0.00330849f, -0.04514114f, 0.05705324f, 0.01836275f, 0.05771266f, -0.01711012f, 0.02274602f, -0.03090674f, 0.08289275f, 0.07993718f, 0.06736487f, -0.00839505f, 0.04894418f, -0.10172061f, 0.05236597f, -0.01890292f, -0.05112130f, -0.01404700f, -0.02829172f, 0.03982376f, -0.00018443f, -0.01406005f, 0.07306209f, -0.03524893f, 0.01263356f, -0.02812095f, 0.01710338f, -0.00952225f, 0.01249938f, 0.00429712f, -0.02340567f, 0.08946772f, 0.07729863f, 0.00066022f, 0.05458784f, 0.01592093f, -0.00629897f, 0.05067928f, 0.00724464f, -0.00321361f, -0.01486612f, -0.02544402f, -0.03077558f, 0.05272162f, 0.09546597f, -0.01068254f, -0.01335495f, -0.03830577f, -0.02552173f, 0.01725706f, -0.04043096f, 0.02708944f, -0.09799563f, 0.06814658f, 0.00551586f, 0.02809578f, 0.04709098f, 0.19931529f, 0.14783078f, 0.04118283f, -0.01871771f, 0.03419266f, -0.04851088f, -0.03633791f, -0.01011363f, 0.00341790f, -0.01155786f, -0.04212393f, -0.01319924f, 0.02175962f, 0.03835173f, 0.02943033f, -0.00746233f, 0.01659629f, -0.05974569f, 0.01990654f, 0.04558427f, 0.02931875f, 0.00847887f, 0.07915635f, -0.03855941f, 0.00697001f, -0.00495745f, -0.00655735f, -0.00723784f, -0.06168358f, -0.04615501f, -0.10006125f, -0.03806477f, -0.01820513f, 0.07504993f, 0.11253224f, 0.18438694f, 0.08114878f, -0.02645410f, -0.02519397f, 0.04947504f, 0.07713504f, -0.01790830f, 0.02858745f, -0.00390100f, 0.07794508f, 0.06491936f, 0.05563726f, 0.04029945f, -0.01283672f, 0.05080356f, -0.02889902f, 0.02475138f, 0.00313228f, -0.03344266f, -0.02253907f, 0.01884244f, -0.00510539f, -0.04470961f, -0.01853669f, -0.00416529f, -0.03248714f, 0.08503196f, -0.02326379f, 0.02321239f, -0.03807564f, -0.04609508f, 0.02360316f, 0.08375243f, 0.08069187f, 0.03671550f, 0.06158977f, 0.00466920f, 0.06313963f, 0.05825260f, -0.03774324f, -0.03261412f, 0.02798858f, -0.00327814f, -0.04807460f, -0.05666259f, 0.03063753f, 0.06375568f, 0.03446638f, -0.02662900f, 0.07597221f, -0.00926620f, 0.05840110f, 0.00947220f, 0.01382364f, 0.04188775f, 0.00586767f, 0.10523483f, 0.08410545f, -0.03771341f, 0.00394512f, -0.01598629f, 0.03825871f, 0.07112054f, 0.00594547f, -0.06319652f, 0.02014645f, -0.04599536f, 0.03368889f, -0.04998388f, 0.01479232f, -0.08377551f, 0.01385900f, -0.00741873f, -0.04497118f, -0.06480963f, -0.01224871f, 0.02108685f, -0.03876137f, 0.03070566f, -0.02237520f, -0.07085057f, -0.01272988f, 0.05840527f, -0.01863847f, 0.04437887f, -0.05897800f, 0.16484334f, -0.00343913f, 0.01678436f, 0.02212090f, -0.03605634f, -0.03851065f, -0.07069299f, -0.03592603f, -0.04623137f, 0.04428709f, -0.02963632f, 0.02661859f, 0.05226893f, 0.02085311f, -0.06605291f, -0.03751681f, -0.02824379f, 0.06154928f, 0.00106370f, -0.01432960f, 0.12356772f, -0.01450068f, 0.00513441f, -0.02949784f, -0.00157306f, -0.00211548f, -0.01994466f, 0.02312528f, -0.05661612f, -0.02986993f, 0.04704548f, -0.05612794f, -0.02401752f, 0.06293613f, 0.00388682f, -0.03351139f, -0.01396020f, -0.03462533f, 0.05285660f, -0.01200183f, -0.03024751f, 0.03643091f, -0.03810873f, -0.09213538f, -0.14524791f, -0.06518256f, 0.05354393f, -0.03544184f, -0.03008050f, 0.07756062f, -0.01622274f, -0.05381856f, -0.00880720f, 0.05601921f, 0.00395450f, 0.03957729f, -0.01590051f, -0.01858049f, 0.04524332f, -0.04889100f, -0.01419932f, 0.02296590f, 0.07137929f, 0.02506224f, -0.06591040f, -0.03070700f, 0.05739519f, -0.01292062f, -0.00984586f, -0.04388720f, -0.03868720f, -0.03101663f, 0.02370951f, 0.03193041f, 0.06012250f, 0.06550358f, 0.00131835f, -0.01580218f, 0.02362802f, -0.04381957f, -0.00064016f, -0.04962154f, 0.05517231f, -0.02083680f, 0.01800588f, -0.03937684f, 0.02010609f, 0.00510778f, -0.06071430f, 0.02771124f, 0.05193698f, -0.05232645f, -0.07168421f, -0.10092966f, -0.12835737f, -0.08396615f, 0.01209177f, 0.03696835f, -0.02646299f, -0.02150373f, 0.01714224f, -0.02353384f, -0.00392351f, -0.02266108f, -0.01745292f, -0.07044569f, 0.01148527f, -0.04646919f, 0.02835495f, 0.04490298f, 0.00450151f, 0.01025038f, -0.06285751f, 0.03121781f, 0.08242737f, -0.01735267f, 0.04434668f, 0.03833785f, -0.11821818f, -0.14143461f, 0.02550745f, -0.02157361f, 0.04554162f, 0.01873953f, -0.08260389f, 0.05234794f, -0.05303576f, -0.01591361f, 0.02147376f, 0.03310674f, -0.00517938f, -0.03884595f, 0.05924970f, -0.05389034f, -0.10369715f, 0.02430286f, 0.03025436f, -0.05115434f, 0.01338474f, 0.03075896f, 0.04132390f, -0.00659902f, 0.06691315f, -0.05428051f, -0.01898180f, 0.05456663f, 0.00070275f, 0.06275161f, -0.01598466f, -0.00286306f, -0.18445359f, -0.05572670f, 0.02384577f, -0.11461255f, -0.27777135f, -0.06265095f, 0.05110026f, 0.01095765f, -0.03197962f, -0.02944146f, -0.09782832f, -0.07705946f, -0.03960726f, -0.04974571f, 0.05364995f, 0.01208755f, 0.00333648f, -0.04100475f, 0.01301754f, -0.03342406f, -0.06679040f, 0.03744065f, 0.05901627f, -0.03838524f, 0.04316939f, 0.00333581f, 0.00295963f, 0.02574369f, -0.02839226f, 0.01296478f, 0.03096923f, -0.04717638f, -0.04336512f, -0.07012525f, 0.00615130f, -0.06557287f, -0.05129211f, -0.03498580f, -0.05593485f, -0.04652312f, -0.01276258f, -0.00978541f, 0.05219459f, -0.03033549f, -0.04987636f, -0.03559666f, -0.00267692f, -0.01989757f, 0.03113471f, -0.02977226f, -0.03072234f, 0.03580127f, 0.01417108f, 0.04510295f, -0.07625017f, -0.03439216f, -0.01577132f, 0.05296521f, -0.02583824f, -0.09278847f, -0.09356924f, -0.05025901f, 0.02072630f, 0.00907405f, -0.06937961f, 0.05376769f, 0.00954985f, -0.02986402f, -0.00171610f, 0.04357848f, -0.03851603f, -0.06604405f, 0.01468612f, 0.04494251f, 0.07475717f, -0.05265189f, -0.03387946f, 0.00646629f, -0.03743830f, -0.03572987f, -0.10528185f, -0.04768445f, 0.01663544f, -0.07715029f, -0.02345753f, 0.05141038f, -0.01312220f, -0.01614182f, -0.01379066f, -0.03314349f, 0.03105365f, -0.12322903f, -0.00276952f, 0.01932887f, 0.04045421f, 0.02158217f, 0.07336646f, 0.00135572f, -0.01279525f, 0.01685492f, -0.02744339f, -0.00506877f, 0.09180695f, -0.00268457f, 0.01058005f, -0.16348715f, -0.08403885f, -0.07031979f, -0.06778916f, -0.05088478f, 0.00589785f, -0.00256688f, 0.04287272f, 0.02883103f, 0.09560052f, 0.03734624f, 0.09541445f, 0.08341783f, 0.04893387f, 0.11390776f, -0.04896127f, -0.04340922f, 0.03625197f, 0.02672096f, 0.04409520f, 0.01681859f, -0.01452502f, 0.03971042f, 0.00317307f, 0.07188202f, -0.14419673f, -0.05703215f, 0.00571965f, 0.03228127f, 0.08019360f, 0.03204199f, 0.04515735f, 0.02269384f, 0.02952965f, 0.00921441f, -0.18146424f, -0.00023495f, -0.05947728f, -0.02149492f, 0.01370406f, 0.04137449f, -0.02102370f, 0.06894305f, -0.00867766f, -0.00534062f, -0.04585475f, 0.04651844f, -0.03406251f, 0.07516143f, -0.01189374f, -0.05409308f, -0.05565907f, 0.01767142f, -0.06679680f, -0.01247223f, -0.05039741f, -0.04294362f, -0.02775520f, -0.00166386f, 0.03437643f, 0.04108990f, 0.02574645f, 0.08243532f, 0.04183411f, -0.02510037f, -0.08910142f, -0.05231119f, 0.00360738f, 0.05055786f, 0.03187450f, -0.06334082f, -0.01718318f, -0.02678358f, -0.05286362f, 0.02935473f, 0.02372954f, 0.00940807f, -0.01071470f, -0.01047667f, 0.03070480f, -0.06377540f, 0.03488759f, -0.06742697f, 0.00153604f, -0.13168715f, -0.02944289f, -0.00055791f, -0.02184661f, 0.02294997f, -0.08281321f, -0.02656285f, 0.04717197f, 0.08193371f, 0.02312518f, -0.00417237f, -0.04739874f, -0.01318086f, -0.03839625f, 0.09137601f, -0.02457404f, 0.02176266f, -0.01643387f, -0.02528360f, 0.05200405f, -0.02230442f, -0.04830086f, -0.03917822f, -0.02593007f, 0.04213661f, 0.08798047f, -0.00491596f, -0.00706035f, -0.04856124f, 0.04428735f, 0.05345815f, 0.08128845f, 0.00670693f, 0.00010109f, -0.04781901f, 0.13212189f, 0.05307041f, -0.05757891f, -0.00631811f, 0.00024308f, -0.06918401f, 0.01225184f, 0.03696404f, 0.04781349f, -0.00136963f, -0.01348194f, -0.02827565f, 0.03825490f, 0.01107485f, 0.05841735f, 0.09644762f, -0.08424759f, -0.08066245f, -0.02438194f, 0.00413051f, -0.14096302f, 0.01651610f, 0.02678811f, 0.04479356f, 0.00801833f, 0.12456679f, -0.06878927f, -0.07118500f, -0.04730576f, -0.03617733f, 0.06999791f, 0.05193342f, 0.02518427f, -0.00414745f, -0.00236898f, 0.03157387f, -0.03190392f, -0.05790915f, 0.01085842f, -0.01429393f, 0.03127808f, -0.01671178f, 0.02489447f, 0.02950181f, -0.01962752f, 0.11946772f, 0.09028102f, -0.00950903f, 0.07222947f, 0.01043799f, 0.04952694f, -0.02885496f, -0.02384996f, 0.00519957f, -0.03098682f, 0.07988720f, -0.18140128f, -0.03654386f, -0.05437714f, -0.00890149f, -0.05416219f, -0.02974725f, -0.02772652f, 0.01657470f, -0.01866189f, 0.03000384f, 0.02113482f, -0.05415250f, -0.05469723f, 0.04056263f, 0.04158651f, -0.07221501f, 0.03967913f, -0.08277025f, -0.05955436f, -0.03966136f, 0.08558239f, -0.03199546f, 0.02683260f, 0.06534498f, 0.11129660f, 0.00727885f, -0.05434452f, 0.06477263f, 0.07869480f, -0.08773405f, -0.01061219f, 0.00883648f, 0.00600898f, -0.05237948f, -0.05363198f, -0.05531742f, 0.03742053f, -0.06875186f, -0.02452932f, 0.00998453f, -0.05973800f, -0.01802169f, -0.08467516f, 0.03320100f, -0.03093519f, -0.00787211f, -0.03870412f, -0.00653832f, -0.03369365f, -0.05838937f, 0.06265420f, 0.01135486f, 0.08122355f, 0.03597188f, 0.11240485f, -0.00389392f, 0.02228015f, 0.07108546f, -0.04463036f, -0.02427940f, 0.06002032f, -0.00754655f, -0.00973455f, 0.01378116f, -0.02642799f, -0.04104279f, -0.03557104f, 0.02738052f, 0.01873369f, 0.00909648f, -0.03590034f, -0.00054772f, -0.00528226f, -0.09148560f, -0.08925205f, -0.06426042f, 0.02593670f, 0.03995387f, -0.06949185f, 0.00182804f, 0.02927189f, -0.02759878f, 0.01673969f, 0.05754618f, 0.09054895f, 0.06728492f, -0.00518559f, -0.04457947f, -0.02608893f, 0.03034962f, -0.03581049f, 0.00982734f, -0.08484507f, -0.05180486f, -0.08963890f, -0.00357161f, 0.04750252f, 0.00774067f, -0.02501932f, -0.10594743f, -0.23430473f, -0.20858617f, -0.10825595f, -0.12208104f, -0.01531060f, 0.02401787f, 0.03309412f, 0.03783298f, 0.00873113f, 0.03024779f, 0.02036242f, -0.03870380f, 0.04160899f, -0.04863296f, 0.07628091f, -0.05983782f, -0.02436696f, 0.02277463f, -0.00477350f, 0.06980486f, -0.06276871f, -0.05683939f, 0.04650205f, -0.03921300f, 0.05500894f, 0.04903493f, 0.05740433f, 0.00311969f, 0.00412747f, -0.09291312f, -0.06300526f, -0.04057881f, -0.06581051f, 0.01993602f, 0.02392945f, 0.02622734f, -0.01752552f, 0.04997458f, 0.01022430f, 0.12459905f, 0.05733771f, -0.02561920f, -0.07683359f, 0.03238333f, -0.06181049f, -0.01230846f, -0.08521530f, -0.01082628f, -0.00182081f, -0.03698345f, 0.04865653f, -0.05901049f, -0.02255014f, -0.00011456f, 0.06346647f, 0.04002482f, 0.04316948f, 0.02564023f, 0.05917514f, -0.01560881f, -0.03566195f, -0.00051956f, 0.05726487f, 0.04434567f, 0.10789764f, 0.03114691f, 0.01324653f, 0.05019499f, 0.02822167f, 0.06058049f, -0.01765288f, -0.05419246f, 0.02188632f, 0.00061257f, 0.07007207f, 0.02515534f, -0.00044043f, -0.04247582f, -0.05045577f, 0.02321994f, 0.06611398f, 0.02134417f, 0.00357552f, 0.02251902f, -0.05584887f, 0.08194915f, -0.01704328f, -0.03731341f, -0.02734283f, -0.00065139f, -0.01350133f, 0.00877309f, -0.05491749f, -0.01664508f, 0.02688298f, -0.04389769f, -0.03642407f, -0.01004364f, -0.07085568f, 0.00094740f, 0.03390413f, -0.01378055f, -0.03707431f, -0.03375722f, -0.01057510f, -0.01599587f, 0.01675620f, 0.03774767f, -0.00931618f, 0.05648820f, -0.03501742f, 0.00404040f, -0.04872688f, 0.00347739f, 0.04710205f, 0.05589934f, 0.02195845f, -0.00692035f, -0.03606873f, -0.02426817f, -0.08272143f, 0.01928904f, -0.05121110f, -0.02341813f, -0.05192211f, -0.00509378f, 0.06899317f, 0.02649277f, -0.00255789f, 0.04009534f, 0.04387684f, 0.04808631f, -0.04764814f, 0.00299821f, -0.05471956f, -0.07953034f, 0.02118656f, -0.07018865f, -0.04181078f, 0.02965544f, 0.01926030f, -0.08927403f, -0.06154944f, -0.01607700f, 0.06817690f, 0.01571980f, 0.02756599f, 0.01684040f, -0.04049369f, 0.02691260f, 0.00890451f, 0.01995468f, -0.01058117f, 0.02794866f, 0.03550046f, -0.02954059f, 0.06043916f, 0.00319268f, 0.04862509f, 0.08558445f, 0.05494338f, -0.02674421f, -0.05698497f, -0.07551615f, -0.04195708f, 0.00829337f, 0.03076220f, 0.02206678f, -0.09865646f, -0.10913499f, 0.08956082f, 0.03183136f, 0.02546795f, 0.03025453f, 0.07740474f, -0.00752405f, -0.06058360f, -0.07018766f, 0.01637825f, 0.00231331f, -0.01507188f, -0.05449237f, 0.01661902f, -0.06054747f, 0.03174353f, -0.08031798f, -0.06827146f, -0.06440166f, 0.06541452f, 0.07351857f, 0.04058361f, 0.11531952f, 0.00195895f, -0.05740429f, 0.00133803f, 0.04956324f, 0.04841439f, 0.03114134f, 0.09029625f, -0.01606144f, 0.05552571f, 0.01140099f, 0.04018318f, 0.08782174f, 0.00667143f, 0.04287851f, -0.00823979f, 0.05693148f, 0.01678128f, 0.06315718f, 0.13782619f, 0.02297911f, -0.04039264f, 0.07837284f, 0.00769055f, 0.01352006f, 0.04570895f, 0.00900953f, 0.09536774f, 0.10763440f, -0.01471724f, 0.00628223f, 0.01486764f, 0.07438833f, 0.05257092f, 0.00505188f, 0.03527547f, 0.05651071f, 0.07032018f, 0.04811709f, 0.02671227f, -0.02245449f, 0.01547358f, 0.01443280f, 0.03708734f, -0.00798790f, -0.07795265f, -0.10684377f, -0.02220318f, -0.08388109f, 0.04247990f, -0.06808628f, -0.04345753f, -0.06961668f, -0.05329632f, 0.02814011f, 0.06641740f, 0.05423385f, 0.09251415f, 0.11810921f, 0.05431234f, 0.06603340f, 0.00571045f, 0.01389608f, 0.06730332f, 0.06603461f, -0.02327812f, -0.03546539f, -0.02185492f, 0.00113337f, 0.01437392f, -0.00074449f, 0.00316552f, -0.00165129f, 0.05843550f, -0.04754714f, 0.04227471f, -0.02177806f, -0.00290501f, -0.02484140f, -0.01548752f, 0.05597696f, 0.01003434f, 0.02453373f, -0.02798250f, 0.04311929f, 0.04751375f, 0.03124445f, 0.01611291f, 0.06993560f, 0.08347242f, 0.07277605f, 0.01939129f, 0.03989218f, 0.01351972f, -0.02191172f, 0.00681878f, 0.02353141f, -0.01991107f, -0.00580552f, 0.04584346f, 0.04794807f, -0.01255468f, 0.08769548f, 0.01392410f, 0.07262233f, 0.05549458f, 0.00586732f, 0.09582805f, 0.00646271f, -0.02253282f, 0.05034243f, -0.01788186f, -0.02727874f, 0.00645161f, -0.03521485f, 0.03406016f, 0.05177425f, 0.07631198f, 0.12279890f, 0.10110722f, 0.02396480f, 0.03279046f, 0.03390240f, 0.05564808f, 0.03484767f, 0.00086878f, 0.04388556f, 0.03411901f, 0.08906984f, 0.04064257f, -0.05320049f, 0.00463931f, 0.03463902f, -0.03129764f, -0.07382165f, -0.01386043f, 0.05077404f, -0.01176451f, 0.05390363f, 0.04152633f, -0.03989252f, 0.04345959f, 0.03831523f, -0.01770384f, 0.06259553f, -0.04173636f, 0.05902624f, 0.05873419f, 0.05788140f, 0.01796148f, 0.01356011f, 0.04378402f, 0.02223960f, 0.00413355f, 0.07240622f, 0.03523432f, -0.00165215f, 0.00923187f, 0.10082012f, 0.03097389f, 0.04849530f, 0.01517532f, 0.08058195f, -0.02372523f, 0.00935945f, 0.01811315f, 0.01547015f, 0.08600979f, 0.07468712f, 0.00979980f, 0.04648763f, 0.00769716f, 0.01766114f, -0.03375737f, 0.02420339f, -0.00347966f, 0.06507427f, 0.09683628f, -0.00221520f, -0.02256115f, 0.07651902f, -0.00746741f, 0.08557969f, 0.10208123f, -0.00633848f, -0.04215104f, 0.04867320f, 0.05732363f, 0.09633434f, 0.06230142f, 0.05728749f, -0.03146843f, 0.02745077f, 0.04685750f, 0.09080732f, -0.01675096f, 0.00316183f, -0.01658660f, -0.01785023f, 0.05772036f, 0.03184372f, 0.04607264f, 0.02699409f, 0.02892925f, -0.01194188f, 0.03312670f, -0.03309679f, 0.03332240f, 0.09409549f, 0.07636336f, -0.02200105f, 0.02377659f, -0.04664214f, -0.05209928f, 0.02020082f, -0.03522436f, 0.01165181f, -0.09497517f, -0.01047664f, -0.01973238f, -0.04395923f, -0.00654514f, 0.03958199f, 0.02125553f, 0.18948349f, -0.01047950f, 0.04151433f, 0.02227940f, 0.04811734f, 0.05210254f, -0.02898555f, -0.01342008f, 0.05640583f, 0.01810256f, 0.06767594f, -0.03079293f, -0.01291727f, 0.07060534f, 0.07872048f, 0.00400528f, 0.07538403f, -0.04627278f, -0.05551554f, -0.01364948f, -0.10034191f, -0.08073140f, -0.07846723f, -0.04451358f, -0.07901055f, 0.03023301f, -0.04436630f, -0.03426671f, 0.02661148f, -0.08955659f, -0.03705350f, -0.03523206f, -0.08670595f, -0.08077276f, 0.00017575f, 0.01516062f, -0.02890736f, -0.01117010f, -0.00644956f, -0.02658329f, -0.03291965f, -0.03990495f, -0.04730714f, -0.07769568f, -0.22113949f, 0.00426467f, -0.03700039f, -0.04761928f, 0.05453068f, -0.05485719f, -0.05620161f, -0.05371474f, -0.03324166f, 0.01603697f, 0.02476933f, 0.00669783f, 0.02490798f, -0.04733771f, -0.06132076f, -0.09106350f, -0.13743614f, -0.08959011f, -0.00797346f, -0.10295460f, -0.10282408f, -0.01051266f, -0.02445190f, -0.05181850f, -0.07205164f, -0.00768815f, 0.02364415f, -0.01530816f, -0.06635404f, -0.02512674f, 0.06574428f, 0.03842079f, -0.02989969f, 0.03168074f, -0.05945827f, -0.00738287f, 0.05661370f, -0.00579180f, -0.06756718f, -0.00448216f, 0.00841601f, 0.03597832f, -0.05417341f, -0.02392853f, -0.02098278f, -0.03446638f, 0.05239204f, -0.05055140f, -0.03071528f, -0.01217984f, -0.06778731f, 0.06165239f, -0.00744570f, 0.00267439f, 0.00098485f, -0.04538499f, -0.02549741f, 0.01673043f, 0.05509240f, -0.01426100f, 0.00624435f, 0.00048096f, 0.00445993f, 0.03903283f, 0.06243734f, -0.10692761f, -0.06560415f, -0.00691575f, -0.09804335f, -0.01924673f, -0.07715984f, -0.07232217f, 0.00138511f, -0.05221905f, 0.00104491f, -0.07814302f, 0.04826610f, -0.03909250f, 0.02277159f, -0.05889858f, -0.07415323f, 0.00537528f, -0.01266383f, -0.04093819f, -0.09206781f, -0.03078404f, -0.01938878f, 0.04435103f, 0.00578431f, 0.01331715f, 0.02447297f, 0.00849598f, 0.03014232f, 0.05299861f, 0.01085500f, -0.03875994f, -0.04532647f, 0.02613151f, 0.03975647f, 0.02639595f, -0.01138200f, -0.22019745f, -0.13653137f, -0.13545136f, -0.08812682f, -0.15425974f, 0.04358622f, -0.04986647f, 0.02823229f, 0.06373724f, -0.06081113f, -0.04253180f, -0.03280941f, -0.00284611f, 0.04133772f, -0.01121276f, 0.00233330f, 0.00398023f, 0.02204946f, -0.07653770f, -0.07147138f, -0.00212076f, -0.00143134f, -0.04107040f, 0.01168389f, 0.07240395f, -0.03407837f, -0.04487323f, -0.00689336f, -0.03813659f, -0.03712732f, 0.05533947f, 0.03753813f, 0.03009991f, 0.04479520f, 0.02591872f, -0.00592901f, -0.04458916f, 0.04311052f, 0.00006885f, -0.04971507f, 0.00712751f, 0.05186551f, -0.02950551f, -0.01685077f, 0.01084721f, 0.06083214f, -0.00740543f, -0.04615141f, -0.03227835f, -0.06047531f, -0.05067924f, -0.07999479f, 0.02631107f, -0.03342726f, -0.13263477f, 0.03225547f, -0.01122838f, 0.04870468f, -0.01711635f, -0.02403771f, -0.04477381f, -0.07551058f, -0.02565579f, 0.02220150f, -0.08932769f, 0.03680969f, -0.02880278f, -0.02559690f, -0.00717740f, -0.03645034f, -0.14744353f, -0.11082383f, -0.12433014f, -0.10123808f, -0.14935556f, -0.03471982f, -0.04338861f, -0.04408463f, -0.08963441f, 0.00709222f, -0.00712665f, -0.12075596f, -0.08119917f, -0.07696949f, -0.09835702f, -0.05563686f, -0.13523977f, -0.01425909f, -0.05953066f, -0.03202186f, -0.08054840f, 0.02789741f, 0.03016241f, 0.02456738f, 0.01814904f, 0.08232366f, 0.04229196f, 0.00148630f, 0.10889153f, -0.00742499f, 0.00971452f, 0.06722442f, -0.00608150f, 0.01546461f, -0.00513212f, -0.03519319f, 0.04976907f, 0.03005926f, -0.07188623f, -0.05869387f, -0.03297009f, -0.06584320f, -0.05921463f, -0.04784815f, 0.02088955f, 0.08040545f, 0.04836891f, 0.01029722f, -0.04000874f, 0.01860738f, 0.02325573f, -0.01332789f, 0.06436536f, 0.03410154f, 0.01396051f, 0.05902110f, 0.04799877f, -0.04777953f, 0.02426041f, -0.05428021f, -0.03225703f, -0.01306228f, 0.06251556f, -0.07209199f, -0.00765205f, -0.02046433f, 0.04306464f, 0.02574387f, -0.01096868f, 0.01442229f, 0.03554792f, 0.02466217f, -0.05874250f, -0.01916642f, 0.05418301f, 0.02273112f, -0.02659900f, -0.03948323f, -0.04563324f, -0.04583546f, 0.04000447f, 0.06916843f, 0.03589740f, 0.02723833f, 0.02611569f, 0.00164960f, 0.04494935f, 0.07165568f, 0.01549049f, -0.02049476f, 0.06096515f, 0.10682910f, 0.11405396f, 0.11008794f, 0.03100150f, -0.21186467f, -0.11770453f, -0.10499348f, -0.01190937f, -0.01731061f, 0.01832957f, 0.00946041f, 0.01084721f, -0.00802122f, 0.00399899f, 0.05925760f, 0.07291520f, 0.07449005f, 0.04244890f, -0.02137023f, 0.09218727f, 0.08654483f, 0.00229266f, 0.02625514f, 0.08776522f, -0.07239194f, 0.02284303f, 0.02538517f, 0.05773195f, 0.06762990f, 0.10704362f, 0.07532357f, -0.03486212f, 0.04742382f, -0.00163334f, -0.13026249f, -0.09118478f, -0.07376222f, -0.07132024f, -0.08297273f, -0.03256786f, 0.02316381f, 0.06306802f, 0.06168610f, 0.04281347f, 0.05520575f, -0.06993132f, -0.07061623f, 0.00688511f, -0.07270006f, 0.05693715f, 0.01524587f, -0.01450573f, 0.07422574f, 0.04497723f, 0.07505721f, 0.04977574f, -0.01148203f, 0.05944446f, 0.00813120f, -0.07456190f, -0.04182834f, -0.05314011f, -0.04895065f, 0.06606035f, -0.06601752f, 0.03568114f, 0.09563463f, -0.00490960f, 0.00916610f, -0.03948981f, -0.00549368f, -0.02803339f, 0.01150018f, -0.07963943f, 0.01616860f, 0.03736428f, -0.02322867f, -0.01862898f, -0.04142433f, 0.07789775f, 0.01306207f, -0.06051185f, -0.00711641f, -0.12658179f, -0.07574524f, 0.03684803f, -0.00633779f, 0.03706675f, 0.04286628f, -0.00521104f, 0.02323928f, 0.07591923f, -0.01641825f, 0.03584582f, 0.01675333f, -0.02077447f, -0.04769541f, -0.01950699f, -0.10534105f, 0.11934400f, 0.06642063f, 0.02723887f, 0.02175516f, 0.01339413f, 0.07548199f, -0.01003114f, 0.04642430f, -0.04520198f, 0.03040773f, 0.07341249f, 0.03004979f, 0.00085711f, 0.00162719f, 0.04534768f, 0.00134000f, -0.01486113f, -0.05390422f, 0.04274772f, -0.02713100f, 0.05658417f, -0.01488969f, 0.00339597f, -0.06032946f, -0.04183019f, -0.01286944f, -0.06250018f, -0.00472812f, 0.03847174f, 0.03795153f, 0.07455079f, 0.00351472f, 0.02886493f, -0.02265267f, 0.06542305f, 0.04837818f, 0.07475463f, 0.00319580f, 0.07865720f, 0.05101307f, 0.10386571f, 0.00649504f, -0.05327638f, -0.05049904f, -0.05608412f, 0.00512913f, -0.07721859f, -0.04549165f, 0.01026224f, 0.02770366f, 0.04664552f, 0.04687602f, -0.02412752f, -0.05311486f, -0.04607816f, -0.00512097f, 0.01554480f, -0.00605860f, -0.05248186f, -0.00065744f, -0.04518538f, -0.12082515f, -0.10035864f, -0.12763196f, -0.09350429f, 0.01480035f, 0.05258752f, 0.00810344f, 0.08692849f, 0.03252463f, 0.01122252f, 0.05656461f, 0.01848836f, 0.02108964f, 0.00027458f, 0.03756476f, -0.03469628f, -0.07000811f, 0.01216823f, -0.05865010f, 0.05053949f, 0.00739312f, -0.04903568f, -0.08728941f, -0.00224731f, 0.01580761f, 0.07334751f, -0.04373924f, 0.03392179f, -0.02875189f, -0.04150346f, -0.09568670f, -0.15728374f, -0.08416831f, 0.01613295f, 0.06004985f, 0.03605246f, 0.09243836f, 0.03217462f, -0.00176901f, 0.06675246f, 0.06098634f, 0.06473221f, 0.05750353f, 0.07358102f, -0.00073790f, 0.03592724f, 0.00134191f, 0.00419805f, 0.06537064f, -0.11968160f, 0.01751991f, -0.02256964f, 0.02441375f, 0.03833058f, 0.01965239f, 0.03367297f, -0.01066390f, 0.09274271f, 0.02958987f, 0.06216258f, 0.00348385f, -0.01102735f, 0.06790017f, -0.02366262f, 0.00463198f, 0.03260203f, 0.01972834f, 0.03282544f, -0.00325078f, -0.08980385f, -0.02593162f, 0.03094285f, 0.10441911f, 0.10144470f, -0.02976331f, -0.04000671f, -0.03739548f, -0.01031931f, -0.05089509f, -0.09796688f, -0.05303291f, 0.02318165f, 0.00645189f, -0.15134457f, 0.09685769f, 0.03435069f, -0.01316194f, 0.03163459f, -0.07282571f, 0.00865442f, 0.05120512f, 0.02836710f, 0.04723484f, -0.04437727f, 0.07387867f, 0.06739920f, 0.07508074f, -0.00595529f, 0.01200243f, 0.05909867f, 0.09290050f, -0.01729520f, -0.05001094f, -0.05399640f, -0.11601027f, -0.10665648f, 0.04387303f, 0.02813831f, 0.01700722f, -0.00473404f, 0.08279765f, -0.03210077f, -0.01426254f, 0.02747940f, -0.01604892f, 0.06269642f, 0.00727487f, -0.01213500f, 0.04557842f, -0.06613690f, 0.00616305f, -0.00560755f, 0.05296063f, 0.10364515f, 0.08258324f, -0.01330824f, -0.06004183f, -0.02608351f, 0.02658632f, 0.04501191f, 0.03950369f, 0.03243045f, 0.07093401f, -0.04316444f, -0.01156648f, 0.01048640f, 0.07736482f, -0.03159329f, 0.05722864f, 0.01121157f, 0.05535698f, 0.07044028f, 0.05089873f, 0.01949990f, -0.02959770f, -0.03157289f, 0.00737233f, 0.07128064f, 0.05227306f, 0.01343954f, 0.00947357f, 0.05006801f, 0.08663864f, -0.03737983f, 0.08481712f, 0.02503568f, -0.01721705f, -0.00357911f, -0.01832970f, -0.02341631f, -0.01403935f, -0.02415138f, 0.00537770f, 0.03540286f, -0.02059028f, 0.01241597f, -0.02817808f, 0.04616641f, 0.00534956f, -0.00964978f, 0.09477203f, -0.00903119f, 0.06484983f, 0.05889151f, -0.00667981f, 0.05709910f, -0.01562255f, 0.02978650f, -0.00768386f, -0.03470428f, 0.03448785f, 0.03806277f, -0.01735191f, 0.03491512f, -0.00416352f, 0.00962195f, -0.03205127f, -0.03031213f, 0.01333732f, 0.07709467f, 0.03765963f, 0.00777745f, 0.06937876f, 0.05349164f, 0.05560713f, 0.01755552f, 0.02337372f, 0.07409297f, 0.05845131f, 0.07840732f, 0.07786413f, 0.02061891f, 0.08053986f, 0.01069951f, 0.06003240f, 0.06598130f, 0.06960272f, 0.06370273f, 0.09096121f, 0.02248826f, 0.01470086f, 0.01584792f, -0.00762759f, 0.07710815f, 0.05069738f, 0.02057928f, -0.00434073f, -0.04215367f, 0.00914308f, 0.08175949f, 0.07257706f, 0.09062061f, 0.05092013f, 0.04323544f, -0.01340147f, -0.04921161f, 0.06340460f, -0.02293148f, -0.01210112f, 0.08196586f, 0.07259882f, 0.00671184f, 0.07294879f, -0.02476425f, 0.02964983f, 0.04140888f, 0.00327965f, -0.03851086f, -0.02873322f, 0.04273639f, -0.00727817f, -0.01069880f, 0.05694765f, -0.03405593f, -0.02041937f, -0.02048274f, 0.04758060f, -0.04185827f, -0.05753769f, -0.03580644f, -0.02955590f, 0.00121350f, -0.00314801f, -0.00538549f, -0.06411158f, 0.02546466f, 0.05514605f, -0.00268642f, 0.00504025f, 0.03019391f, -0.04424795f, 0.07247654f, 0.02210517f, 0.03807479f, 0.06607354f, 0.05330157f, -0.01253868f, -0.03949824f, -0.05597420f, 0.03776107f, 0.02066749f, 0.01461650f, 0.04253641f, -0.03498979f, 0.01708128f, 0.02389542f, 0.03491110f, -0.05605911f, -0.04744982f, 0.00865608f, -0.02971801f, 0.03377780f, -0.07227919f, 0.05228823f, -0.09138414f, -0.07100702f, 0.00740120f, 0.00108388f, -0.00680354f, 0.04509157f, 0.08576021f, 0.05321405f, -0.01383936f, -0.02046934f, -0.05936648f, 0.03056221f, -0.05697680f, -0.05400890f, 0.08369794f, 0.00520429f, 0.01180274f, -0.07539019f, 0.02507493f, -0.03078413f, 0.02413753f, 0.02821466f, -0.02203433f, 0.03392905f, -0.00420747f, -0.05071492f, -0.01895021f, -0.07281730f, 0.01704242f, 0.05740266f, 0.00867375f, 0.03103681f, -0.04539644f, -0.16857861f, -0.08255877f, -0.17170839f, -0.15475087f, -0.06444377f, 0.00519911f, 0.05874792f, 0.01888900f, -0.10298647f, -0.10841038f, -0.10963979f, 0.00205924f, -0.00476967f, -0.01435448f, 0.03944444f, -0.03112878f, -0.00383990f, 0.03672701f, 0.02379392f, -0.04817554f, -0.01179237f, 0.01684131f, 0.02491249f, -0.02338762f, 0.05244803f, 0.00830744f, -0.04694606f, -0.14565609f, -0.16244447f, -0.06847113f, -0.11893538f, -0.08583464f, -0.02905731f, -0.05514732f, -0.00947305f, 0.00776471f, -0.03965359f, -0.00160097f, -0.00520162f, -0.01395060f, -0.07694437f, -0.02472376f, -0.06358946f, -0.01165011f, -0.06958650f, -0.05091731f, 0.00618775f, -0.07191642f, -0.05965143f, 0.02513905f, 0.04145269f, -0.00331296f, 0.00109466f, -0.01549352f, -0.01093494f, 0.01108593f, 0.02457558f, 0.02067347f, -0.02251879f, -0.03571136f, 0.04699444f, 0.03952978f, -0.02373383f, 0.00923028f, 0.05435001f, 0.05765960f, 0.05210260f, -0.11285692f, -0.07550208f, 0.01387694f, 0.10523643f, 0.09305032f, -0.01064930f, -0.05355372f, -0.05045850f, -0.00648306f, 0.01190243f, 0.00575834f, -0.05460215f, 0.05852645f, 0.06935569f, 0.01073935f, -0.05672317f, 0.00777831f, -0.07857693f, 0.07899717f, 0.11454277f, -0.00470931f, -0.07315901f, -0.14388807f, -0.05920329f, -0.02477477f, -0.04136419f, 0.05740429f, 0.02206833f, -0.01086075f, -0.05538776f, -0.05087912f, -0.02820355f, -0.00768875f, -0.13529514f, -0.02517026f, -0.13719067f, -0.11682564f, -0.05711135f, 0.04833464f, -0.00538284f, -0.00221603f, -0.02534969f, 0.01396579f, -0.02057751f, 0.01161398f, 0.00221421f, -0.05471197f, 0.00833540f, 0.05290645f, 0.03738521f, -0.03696610f, -0.06900471f, -0.03047551f, -0.09370057f, -0.02023949f, 0.04452370f, 0.00500810f, -0.01102527f, -0.05695042f, -0.04783164f, -0.02342458f, -0.08160776f, -0.05020675f, -0.05709809f, 0.01845194f, -0.01162506f, -0.08663584f, -0.00446936f, -0.02602129f, -0.04047750f, 0.04166415f, -0.03793019f, -0.05225001f, 0.00678939f, -0.03818532f, -0.10966790f, -0.10714838f, -0.01458254f, 0.07870417f, -0.04396452f, -0.06240430f, -0.02011293f, -0.05845977f, 0.00490990f, -0.01654008f, 0.02829063f, -0.08730036f, -0.02862058f, 0.01906506f, 0.01952080f, -0.09447210f, 0.04998937f, 0.01070658f, 0.15166499f, 0.11280708f, -0.00377446f, -0.02295546f, -0.07839477f, 0.00741864f, 0.06122955f, -0.12411461f, -0.02743750f, -0.02878009f, -0.03045567f, -0.05464678f, -0.08644935f, 0.02144573f, 0.00984766f, -0.04259868f, 0.03566882f, -0.01784136f, 0.03420696f, 0.07830258f, 0.02208823f, -0.06490603f, 0.04146744f, 0.05224858f, 0.02864650f, -0.05156222f, -0.01157592f, -0.04184133f, -0.00829690f, -0.04738214f, 0.03577789f, 0.07111803f, -0.05513011f, -0.02934117f, -0.06784341f, -0.09712603f, 0.05377033f, -0.07691973f, -0.05159349f, -0.06666829f, -0.01460709f, -0.07002603f, -0.05059178f, 0.06611159f, 0.03399080f, 0.02799159f, 0.03343380f, 0.02176841f, 0.02455846f, -0.03328251f, 0.02927160f, -0.04536339f, 0.02562990f, -0.00085787f, -0.02417311f, -0.03114545f, 0.00542974f, -0.06414496f, -0.06090918f, -0.04754896f, -0.10297480f, -0.00479162f, 0.03436423f, -0.04959061f, -0.06363344f, -0.03838447f, 0.00745138f, -0.00088618f, -0.04489226f, 0.01806506f, -0.04399158f, -0.01711030f, -0.05784345f, -0.08873278f, -0.05574835f, -0.06017014f, -0.03477176f, -0.13130248f, -0.09180464f, 0.00194536f, -0.03116544f, -0.01695849f, -0.13138902f, 0.00205522f, -0.06511007f, -0.08677863f, -0.05972188f, -0.04013889f, -0.04896207f, -0.05948668f, 0.04899648f, 0.01448798f, 0.00989362f, -0.00381403f, -0.05591561f, -0.03151381f, 0.02756051f, -0.05739890f, -0.05185849f, 0.02442698f, -0.03311707f, 0.00344711f, -0.05618417f, 0.00303409f, -0.00372903f, -0.06006683f, -0.06519805f, 0.05445731f, 0.00242932f, 0.06272549f, 0.00848490f, -0.01521355f, -0.04952081f, -0.05207893f, 0.02022943f, 0.04721210f, -0.00242898f, -0.09200332f, 0.00588469f, 0.03705055f, 0.02710066f, -0.01912198f, 0.02640841f, -0.00989037f, -0.05348682f, -0.10899618f, -0.06993692f, 0.03638758f, 0.05272265f, 0.02096710f, 0.03815306f, 0.03695488f, -0.00102688f, 0.06046795f, 0.01282377f, -0.02295511f, -0.04208215f, -0.06628880f, -0.06385067f, 0.00927018f, 0.06156252f, 0.01219492f, 0.01083748f, -0.02025910f, -0.01266826f, -0.01179185f, 0.01089923f, 0.02020104f, -0.01382875f, 0.00294821f, -0.02327991f, -0.03925652f, -0.02003487f, -0.09799830f, 0.00547175f, -0.05205277f, 0.03504692f, 0.01450318f, 0.01367155f, -0.03349036f, -0.04530091f, -0.08964327f, -0.08042061f, 0.03510477f, 0.04835685f, -0.04436876f, -0.09514874f, 0.03938096f, 0.02685880f, -0.05566841f, -0.07156827f, -0.01046745f, -0.04922513f, -0.03420254f, -0.04983607f, 0.02078269f, -0.04453826f, -0.01268526f, 0.02868374f, 0.05357687f, 0.05873981f, 0.02227697f, -0.01785194f, 0.02376730f, 0.02706212f, -0.00176931f, -0.02113265f, -0.00762536f, -0.01881911f, 0.01912463f, -0.00423218f, -0.08744534f, -0.06880089f, -0.07469352f, -0.02755813f, 0.00475202f, -0.01784161f, -0.03535567f, -0.02820949f, 0.02340596f, -0.02514068f, -0.04866165f, -0.01700636f, -0.02823429f, -0.04677143f, -0.03438753f, -0.02712481f, -0.04606263f, -0.05379560f, -0.03509730f, -0.00276254f, 0.01288394f, -0.03251024f, 0.02205964f, 0.00155247f, -0.07524554f, -0.06443784f, -0.05300335f, -0.07338053f, -0.00071130f, 0.01118203f, -0.05426030f, -0.02615620f, -0.04593514f, 0.07462765f, 0.05019528f, -0.01648203f, 0.01673189f, -0.06197661f, 0.05334966f, -0.02656323f, 0.01698582f, 0.02090794f, 0.02163577f, 0.01343357f, -0.00644588f, 0.00563799f, 0.06857019f, 0.00103314f, -0.00599811f, 0.01329460f, -0.04906460f, -0.13428193f, -0.01228456f, 0.00048216f, -0.02570308f, -0.08759271f, -0.04343189f, -0.11742307f, -0.02989957f, -0.04212153f, -0.02471779f, 0.01336477f, 0.02601489f, 0.01827361f, 0.00656663f, -0.09086673f, -0.04327368f, -0.10687476f, -0.06356184f, -0.09443807f, -0.05861874f, -0.08552881f, -0.08759469f, -0.00782995f, -0.08829274f, -0.02784271f, -0.01689193f, -0.03828854f, 0.04619401f, 0.02598739f, -0.00931978f, -0.11325116f, 0.01402118f, -0.03798664f, -0.07472242f, 0.05518112f, 0.01359400f, 0.03882055f, 0.02571559f, 0.07575279f, 0.09317373f, -0.02431848f, 0.01885945f, -0.03271784f, 0.05671808f, 0.07742728f, -0.00269408f, 0.01100224f, -0.02276717f, -0.02242026f, 0.06974494f, -0.05953775f, -0.00962003f, -0.01012567f, -0.06734465f, 0.01708614f, 0.09498120f, -0.02133005f, 0.04845718f, 0.02331007f, 0.10008446f, -0.05437187f, 0.06818654f, 0.00540305f, 0.05276557f, -0.03965458f, 0.04104994f, 0.01964573f, 0.03793717f, 0.02955645f, 0.04233233f, -0.07434169f, -0.10529061f, 0.00482104f, 0.03884963f, 0.07954805f, -0.11268102f, -0.03177076f, -0.00110881f, -0.01003513f, -0.01552939f, -0.01905992f, -0.03060980f, -0.11128953f, -0.11430042f, 0.02237255f, 0.10392410f, -0.01491273f, 0.06793205f, 0.07139810f, 0.01174402f, 0.00495939f, 0.04257504f, 0.06441543f, 0.06308009f, -0.03755599f, -0.04075628f, 0.06191201f, 0.00157369f, 0.05167995f, 0.04437742f, -0.01128855f, 0.02707106f, 0.02838493f, -0.01835097f, 0.06534909f, -0.07388949f, -0.03424037f, -0.09274427f, 0.04760272f, -0.09274400f, 0.06239715f, -0.01363340f, -0.00895027f, 0.01189589f, 0.06639531f, -0.03259694f, -0.03533278f, 0.05993903f, -0.00585093f, 0.00194091f, 0.01883846f, -0.05137995f, 0.02545885f, -0.04207285f, 0.03472231f, 0.08933278f, 0.02071767f, -0.03133345f, 0.05184580f, 0.05740675f, 0.00656288f, 0.05717167f, -0.00161706f, 0.03016497f, -0.01458429f, 0.02278956f, 0.01478129f, 0.01924193f, 0.04224597f, 0.06640295f, -0.05057031f, -0.07228408f, 0.05659863f, 0.06130998f, 0.01800416f, -0.00694724f, -0.08306261f, -0.08929942f, -0.02129307f, -0.05826267f, 0.08197786f, 0.00126553f, -0.01717707f, 0.00921011f, 0.06874358f, 0.07434275f, -0.03207952f, -0.02432567f, 0.02560100f, 0.01584860f, 0.01296484f, 0.02586207f, -0.04937813f, 0.03543140f, 0.08513532f, 0.05349411f, -0.06394290f, 0.06077586f, 0.02033731f, 0.02694187f, 0.08234153f, -0.00601249f, -0.00635000f, -0.00896659f, 0.05805812f, 0.03814226f, 0.07383582f, 0.06475614f, 0.07956895f, 0.06539484f, -0.03098485f, -0.14745373f, -0.15505169f, -0.14409490f, 0.03632971f, 0.04397219f, 0.05473525f, 0.04598256f, 0.01902695f, 0.05108093f, -0.04676336f, 0.03072774f, -0.05966832f, -0.06382433f, 0.01258014f, 0.07003582f, -0.01712149f, 0.07208462f, -0.01289169f, -0.04286889f, -0.01822101f, 0.03305954f, -0.02558932f, 0.06434797f, -0.03155809f, -0.01308966f, -0.01183950f, -0.03346091f, 0.07331301f, -0.00964120f, 0.00807264f, 0.01160324f, 0.08567017f, 0.05949218f, 0.05506260f, -0.00000181f, 0.04213031f, 0.01675027f, 0.05835908f, 0.01865894f, 0.09228399f, 0.05274646f, 0.00600865f, -0.06105233f, 0.04307415f, -0.03647424f, -0.00237669f, -0.02020862f, 0.04310493f, -0.05594867f, 0.01490414f, 0.05899305f, 0.06678136f, 0.00127696f, 0.05040617f, 0.06520250f, -0.01207811f, -0.04674943f, 0.03534557f, 0.10464987f, 0.06292420f, 0.00295074f, -0.02465849f, -0.02836279f, -0.00668723f, 0.00342037f, 0.06925375f, -0.01073378f, -0.07267796f, -0.01739940f, -0.08176705f, -0.05557979f, 0.00122615f, 0.00814850f, 0.00707152f, 0.02506048f, -0.02769419f, -0.01676178f, -0.06373541f, 0.03860640f, 0.04803272f, 0.04168023f, -0.05567599f, 0.04799715f, 0.01495125f, -0.05108312f, 0.07238235f, 0.01515727f, 0.02661223f, 0.06881697f, 0.17292506f, 0.06470069f, -0.04871592f, 0.08111269f, 0.01509188f, 0.08267918f, 0.01690828f, 0.02628745f, 0.12775959f, 0.12102043f, 0.11135829f, 0.04649311f, 0.02204098f, 0.08814232f, 0.05034581f, -0.01783034f, 0.03989807f, 0.06775617f, -0.01258690f, -0.00458199f, 0.02661188f, 0.00209152f, -0.00344293f, -0.00056138f, 0.03123439f, 0.05585365f, 0.10363818f, 0.10461890f, 0.08271305f, 0.03507807f, 0.00708138f, 0.05304326f, 0.00901995f, -0.03090692f, 0.03462534f, 0.13119887f, 0.07596610f, 0.05693204f, 0.03595775f, 0.06005991f, 0.07814376f, -0.04576709f, 0.05344096f, 0.03337387f, -0.02507225f, -0.02753538f, -0.04115947f, 0.03217026f, -0.03840002f, -0.04553915f, -0.03845765f, 0.02295341f, -0.03876642f, 0.02274531f, 0.00536903f, 0.03872487f, 0.05144012f, -0.02777202f, 0.02926066f, 0.06327989f, -0.00699479f, 0.03081551f, 0.05064374f, 0.11702448f, 0.09684213f, 0.00228398f, 0.01264023f, 0.09032045f, 0.03547026f, 0.10365117f, 0.06771093f, 0.08540019f, 0.01280961f, 0.11914405f, 0.09152585f, -0.06776282f, 0.01219221f, 0.01980210f, -0.04037162f, -0.03732665f, 0.11381172f, 0.06340078f, 0.00782559f, -0.01636840f, -0.00477842f, 0.09943689f, 0.07291593f, -0.02073101f, 0.02852817f, 0.03043315f, -0.03837372f, 0.07507277f, 0.01209442f, -0.02122306f, 0.01142692f, 0.01759976f, -0.01504120f, 0.04096808f, 0.04146713f, 0.02818560f, 0.03053294f, 0.03699514f, 0.00516947f, -0.01240473f, 0.06038483f, 0.06778010f, 0.01152993f, 0.07352018f, 0.01467624f, 0.11783276f, 0.02515215f, -0.01226912f, -0.01132124f, -0.02200268f, 0.01494500f, 0.01503988f, -0.03242451f, -0.03116522f, -0.03573562f, -0.01806873f, -0.00750617f, -0.00770798f, 0.01385077f, -0.08913314f, -0.01657598f, -0.00711795f, -0.01896637f, 0.01047698f, 0.04324134f, 0.07941016f, -0.00977377f, 0.04202469f, 0.07308254f, 0.00290715f, 0.03236315f, -0.05096975f, 0.02178591f, 0.02410486f, -0.05346729f, 0.01518674f, 0.13096245f, 0.05285404f, -0.00621177f, 0.04682131f, 0.08139421f, 0.02927304f, 0.00998967f, 0.00654765f, -0.01750531f, 0.05994741f, -0.01486958f, -0.01789035f, 0.05653260f, 0.01667837f, -0.01010510f, 0.03955826f, -0.00660413f, 0.08261491f, 0.03333155f, 0.02494392f, 0.04989018f, 0.05957323f, 0.07546555f, 0.06855024f, 0.03350829f, -0.06073899f, 0.02112309f, 0.01551149f, 0.06237870f, 0.00784978f, 0.00585377f, 0.05742071f, -0.00658328f, 0.03320791f, 0.05357555f, 0.04811555f, 0.07140161f, 0.01072012f, -0.01738569f, 0.09705313f, 0.14522682f, 0.04525492f, 0.12728803f, 0.08562822f, 0.06743155f, 0.03118261f, 0.01025009f, 0.08035149f, -0.00808799f, 0.02570867f, 0.06302694f, -0.02412177f, 0.05137520f, 0.02313277f, 0.03822021f, 0.06748300f, 0.03280897f, 0.06220701f, 0.02054751f, -0.02909669f, 0.00910151f, -0.01377025f, 0.02810347f, 0.05342374f, -0.00583622f, 0.07036965f, 0.07226925f, 0.08544418f, 0.02412455f, 0.08372706f, 0.02263524f, 0.09180517f, -0.01435267f, 0.00448512f, -0.01681419f, -0.01248914f, -0.00517474f, -0.02954739f, -0.05604782f, 0.02998949f, -0.08657318f, -0.08298867f, -0.01689491f, -0.02894359f, -0.01705779f, 0.08175601f, -0.00123395f, -0.01366727f, 0.06400210f, 0.05348104f, -0.02215545f, 0.05727075f, 0.09866110f, 0.00239294f, -0.06208001f, 0.05266531f, 0.06055525f, 0.02961215f, 0.00732914f, 0.08004075f, 0.02111672f, 0.02389006f, 0.08525672f, 0.06247185f, 0.06812470f, -0.04515704f, 0.05450762f, 0.03571296f, 0.03271985f, -0.03437393f, -0.01560998f, -0.07101972f, 0.02986026f, -0.02096868f, -0.08164351f, -0.08167037f, -0.10826434f, -0.03847026f, -0.09029902f, -0.12738919f, 0.03021903f, 0.04572161f, -0.02331213f, 0.02329629f, 0.07640932f, -0.01070295f, -0.03491684f, 0.03760366f, 0.01684110f, -0.05900384f, 0.04208118f, -0.01160376f, -0.03334389f, 0.02523224f, -0.08903764f, 0.03948572f, 0.00085780f, -0.05460581f, 0.04217317f, -0.06898876f, -0.10015623f, 0.01426315f, -0.00520977f, -0.00696474f, 0.02786840f, 0.13648888f, -0.03981689f, -0.00078517f, 0.01426978f, -0.03027095f, -0.07641068f, 0.07377501f, -0.00685461f, 0.08822045f, 0.02123491f, 0.06763463f, 0.05204555f, 0.07808039f, 0.00047769f, 0.05054158f, -0.07984921f, -0.05069607f, -0.03223130f, -0.02137316f, -0.10186705f, -0.05788124f, -0.11215016f, -0.09746242f, -0.03422010f, -0.15682431f, -0.09651310f, -0.03850260f, -0.08902709f, -0.03366869f, -0.07889318f, -0.02156933f, 0.01828014f, 0.02205948f, -0.03064549f, -0.05251689f, -0.04478669f, -0.00697856f, 0.01050263f, -0.09276456f, -0.05914134f, 0.07504481f, 0.05182515f, 0.03048783f, 0.04791613f, -0.01858491f, -0.07455026f, 0.01114098f, 0.03732739f, -0.02140828f, -0.00465140f, -0.01945246f, -0.03811817f, 0.00179107f, -0.00077462f, -0.00519060f, -0.03587626f, -0.00873368f, 0.01259016f, -0.09561090f, -0.11283617f, -0.02443038f, 0.00199994f, -0.05639850f, 0.03738960f, 0.03878455f, -0.00004433f, 0.02468522f, 0.01608069f, 0.01966932f, 0.05450584f, -0.00652537f, -0.00633309f, 0.03330379f, -0.05030926f, -0.11956358f, -0.02613690f, -0.00405696f, -0.00610926f, -0.00076518f, 0.03338445f, 0.03237950f, -0.04484282f, -0.00920057f, -0.11189135f, -0.12037551f, 0.02954597f, 0.03565864f, -0.08986485f, -0.02007086f, -0.04134539f, 0.01332946f, -0.03363399f, 0.01875696f, -0.06775547f, -0.01090102f, -0.09592956f, 0.02101704f, -0.07039404f, -0.03031261f, -0.04669066f, -0.05783550f, -0.01813674f, 0.01351942f, 0.02528011f, 0.08501623f, -0.12421234f, -0.10324524f, -0.09589841f, -0.09359418f, -0.02331242f, 