// Auto-generated by train_onset.py - DO NOT EDIT
// OnsetNet weights for Daisy Seed bare metal inference
// sr=48000 vocab_size=56 window_samples=480

#pragma once
#include <stdint.h>

#define ONSET_SR           48000
#define ONSET_VOCAB_SIZE   56
#define ONSET_WINDOW       480
#define ONSET_WIDTH        32

// Pitch names for each vocab index
static const char* onset_pitch_names[] = {
    "E2",
    "F2",
    "F#2",
    "G2",
    "G#2",
    "A2",
    "A#2",
    "B2",
    "C3",
    "C#3",
    "D3",
    "D#3",
    "E3",
    "F3",
    "F#3",
    "G3",
    "G#3",
    "A3",
    "A#3",
    "B3",
    "C4",
    "C#4",
    "D4",
    "D#4",
    "E4",
    "F4",
    "F#4",
    "G4",
    "G#4",
    "A4",
    "A#4",
    "B4",
    "C5",
    "C#5",
    "D5",
    "D#5",
    "E5",
    "F5",
    "F#5",
    "G5",
    "G#5",
    "A5",
    "A#5",
    "B5",
    "C6",
    "C#6",
    "D6",
    "D#6",
    "E6",
    "F6",
    "F#6",
    "G6",
    "G#6",
    "A6",
    "A#6",
    "B6",
};

// shape: [16, 1, 9]
static const float l0_conv_weight[144] = {
    0.21743751f, 0.30190083f, 0.13753635f, 0.35895428f, 0.07055488f, 0.28540602f, 0.01900326f, 0.24495284f, 0.14815627f, 0.08238718f, 0.17509431f, 0.21621639f, 0.24596357f, 0.25259650f, 0.22567908f, 0.19369371f, 0.16402449f, 0.08335714f, -0.12150484f, -0.07041526f, -0.23312323f, -0.11744258f, -0.22848560f, -0.03786218f, -0.26198629f, -0.16413543f, -0.14465576f, -0.32069835f, 0.00368072f, -0.34719971f, 0.18354183f, -0.29604912f, 0.28648514f, 0.00810887f, -0.07038961f, 0.13273925f, 0.07779230f, 0.13638054f, 0.17936571f, 0.16861804f, 0.15886965f, 0.18538368f, 0.23838037f, 0.21549660f, 0.13604538f, 0.07239683f, 0.22790395f, 0.09447824f, 0.09218843f, -0.20390016f, -0.42106801f, -0.27821422f, -0.13384125f, 0.08786038f, 0.15641336f, 0.02527859f, 0.22286986f, -0.05168131f, 0.18055542f, -0.13696913f, 0.05062830f, -0.26942006f, 0.17482586f, -0.01338839f, 0.06626436f, -0.08966397f, 0.09585334f, -0.19850215f, -0.34247085f, -0.12471709f, 0.27971631f, 0.11747453f, 0.09120917f, -0.32096350f, -0.43543839f, -0.36098054f, -0.26670799f, 0.05870935f, 0.11010917f, 0.22880878f, 0.07269451f, -0.33085287f, 0.13710327f, -0.13745801f, 0.10825787f, -0.09420100f, 0.19319525f, -0.24343312f, -0.15523291f, -0.01968112f, -0.01610782f, -0.00585827f, 0.21928661f, 0.23981394f, -0.32513371f, -0.14586690f, 0.18015814f, -0.11064956f, -0.19823673f, -0.05404764f, -0.10224543f, -0.12001678f, -0.21029411f, -0.26590833f, -0.26231715f, -0.26137868f, -0.24225891f, -0.13161124f, -0.25040352f, -0.20411673f, 0.24310467f, 0.19217621f, 0.10925054f, -0.36763549f, -0.24166097f, -0.09402703f, -0.06826691f, -0.10452328f, -0.17847402f, -0.21016361f, -0.22747149f, -0.22109598f, -0.22077960f, -0.18845423f, -0.15499985f, -0.08419239f, -0.24186492f, -0.22492687f, 0.23937114f, -0.01443841f, 0.26344609f, 0.06822458f, -0.27582508f, 0.29323104f, -0.09583569f, -0.19372408f, -0.23265663f, -0.30740720f, 0.01568641f, -0.16489482f, 0.16188040f, -0.34270778f, 0.14248504f, -0.25872812f
};

// shape: [16]
static const float l0_bn_weight[16] = {
    0.97223359f, 1.15940142f, 0.92695910f, 0.88900054f, 1.06963968f, 0.94319129f, 0.90288204f, 0.93947458f, 0.93835831f, 0.92498261f, 0.86992037f, 1.03481293f, 0.85654718f, 1.17604434f, 0.95361358f, 0.87395120f
};

// shape: [16]
static const float l0_bn_bias[16] = {
    -0.12834240f, -0.09654753f, 0.00374853f, -0.01895315f, 0.06427051f, -0.18298821f, 0.02184423f, -0.20746149f, -0.18993796f, 0.09207679f, -0.20578240f, -0.35517651f, -0.09997538f, -0.04013024f, -0.01117606f, -0.13196713f
};

// shape: [16]
static const float l0_bn_running_mean[16] = {
    0.00036129f, 0.00001023f, 0.00032787f, 0.00068856f, -0.00003429f, -0.00000117f, -0.00068062f, 0.00022808f, -0.00000322f, 0.00062839f, 0.00006725f, -0.00000779f, -0.00015887f, -0.00000043f, 0.00011850f, 0.00074328f
};

// shape: [16]
static const float l0_bn_running_var[16] = {
    0.16532758f, 0.02164692f, 0.07849972f, 0.49948570f, 0.02262616f, 0.10848905f, 0.25585812f, 0.16037840f, 0.14002335f, 0.30522963f, 0.24238439f, 0.02682423f, 0.20785224f, 0.02011979f, 0.39791432f, 0.38326278f
};

// shape: [16]
static const float l0_bn_bias[16] = {
    -0.12834240f, -0.09654753f, 0.00374853f, -0.01895315f, 0.06427051f, -0.18298821f, 0.02184423f, -0.20746149f, -0.18993796f, 0.09207679f, -0.20578240f, -0.35517651f, -0.09997538f, -0.04013024f, -0.01117606f, -0.13196713f
};

// shape: [32, 16, 5]
static const float l1_conv_weight[2560] = {
    -0.01542724f, 0.03208001f, 0.03954265f, 0.06516286f, 0.13082287f, 0.04534546f, 0.09964641f, -0.06315219f, 0.01517701f, 0.12762251f, 0.11275557f, -0.00333406f, 0.04798518f, 0.01831795f, -0.03736090f, -0.03917124f, 0.07026032f, -0.02239444f, -0.02753779f, -0.12897415f, 0.07921151f, 0.05191553f, 0.05631625f, 0.11768380f, 0.15224250f, -0.04515671f, -0.05347098f, -0.04845900f, -0.02023843f, -0.08780693f, -0.06279888f, 0.04065046f, -0.05472741f, 0.00163441f, 0.01275695f, -0.06575638f, -0.02600607f, 0.04617971f, -0.04531678f, -0.02982470f, 0.06111926f, 0.00758089f, -0.02967517f, -0.00940659f, -0.01582565f, -0.01550143f, -0.01802834f, -0.06650089f, 0.01078061f, 0.03484368f, 0.00122736f, -0.03201913f, -0.03141128f, -0.01681246f, -0.02932635f, 0.03996877f, 0.01335987f, 0.02686437f, 0.09402198f, -0.01758060f, -0.03271457f, -0.04904045f, -0.04286952f, -0.10707151f, -0.06178775f, 0.27048764f, 0.21927758f, 0.14940852f, 0.00529997f, 0.01982432f, -0.03831478f, 0.05540079f, -0.03398089f, -0.03305956f, 0.02661656f, -0.02569219f, -0.07696686f, 0.03422330f, -0.06367692f, -0.02649224f, -0.12337830f, 0.05943443f, 0.11530308f, 0.03061306f, -0.02402596f, -0.11663711f, -0.10338408f, 0.00742957f, -0.02177852f, 0.07925359f, 0.01524713f, 0.04488551f, 0.00385238f, -0.03545345f, -0.08227879f, -0.15160301f, -0.01222998f, -0.08161180f, -0.01618303f, -0.02722721f, -0.08403783f, -0.09915968f, -0.04891958f, -0.09438635f, -0.09396892f, 0.02123175f, -0.00646009f, -0.12086596f, -0.08146457f, -0.07068209f, -0.08341146f, -0.10475636f, -0.07224549f, -0.21611194f, -0.07452630f, 0.06968167f, 0.05165073f, -0.02782315f, 0.04432745f, 0.04376100f, -0.08718358f, 0.04160660f, -0.01370643f, -0.01693761f, -0.18350159f, -0.08359244f, 0.05002205f, -0.08571472f, 0.08805481f, 0.10748057f, 0.07007986f, -0.03272108f, -0.10933422f, -0.01488106f, -0.01376098f, -0.15994674f, -0.03076899f, -0.07779215f, 0.00539020f, -0.09844898f, -0.09920516f, -0.02641279f, -0.17690808f, -0.05436806f, 0.04029538f, -0.11200625f, 0.00777946f, -0.01615799f, -0.06551047f, -0.07302669f, 0.00486204f, -0.03846607f, -0.03698795f, -0.08077363f, -0.06464782f, -0.08539316f, -0.02621810f, -0.00368754f, -0.03925084f, -0.04898101f, -0.10556001f, 0.06150856f, -0.07168394f, -0.00735300f, -0.08827378f, 0.01982449f, 0.15469225f, 0.05480063f, -0.07740581f, 0.00905277f, 0.06189033f, 0.02170313f, 0.04468988f, 0.07574126f, -0.06802741f, -0.02138942f, -0.08952042f, -0.04167503f, 0.04992038f, 0.00790034f, -0.04278840f, -0.05968323f, -0.07038240f, -0.08662423f, -0.08600470f, -0.07364904f, -0.03552066f, -0.02246643f, -0.08609689f, -0.10045100f, -0.03377619f, -0.16329518f, -0.05113950f, 0.03431771f, -0.05002083f, -0.03561237f, -0.06972111f, -0.05636703f, -0.09981675f, -0.12819615f, -0.10057667f, -0.07211021f, 0.03065714f, -0.08811691f, -0.05996720f, -0.05799988f, -0.01044033f, 0.02617875f, 0.04442416f, 0.00008162f, -0.16517630f, -0.06200655f, 0.01946554f, -0.06989270f, -0.10902335f, 0.11686900f, -0.04455102f, -0.07045190f, -0.05633257f, -0.02606247f, -0.01945678f, -0.04873581f, 0.04373297f, -0.11392647f, -0.10142700f, 0.03092780f, 0.10865125f, 0.04787160f, -0.06889576f, -0.04098650f, -0.13832162f, -0.13013494f, -0.01331728f, 0.00669090f, 0.03043788f, -0.10286272f, 0.03989709f, -0.10758984f, -0.00528617f, 0.05655110f, -0.07039234f, 0.01876026f, -0.09499929f, -0.06976379f, -0.03234446f, -0.10018662f, -0.05469736f, -0.08576284f, -0.07962882f, -0.12528458f, 0.01335271f, -0.04229061f, -0.07822355f, 0.01260843f, 0.03977067f, -0.00637048f, -0.01199002f, 0.06118859f, 0.04329051f, 0.02674622f, -0.04001542f, -0.11758772f, -0.06502742f, -0.04309200f, -0.11383930f, 0.05876524f, 0.02938534f, 0.04700617f, 0.15645179f, 0.07148867f, 0.01471227f, -0.05411402f, -0.00672821f, 0.07063320f, -0.02277801f, -0.00482357f, 0.00427394f, 0.05044323f, -0.02166409f, 0.11829143f, 0.07035863f, 0.00670215f, 0.00413501f, -0.00510996f, 0.03269143f, 0.03547737f, 0.05934355f, 0.00951636f, -0.01775084f, 0.04792058f, -0.03956074f, 0.04994977f, -0.02402519f, 0.01952150f, 0.01834715f, -0.02349781f, 0.00016146f, 0.13684653f, -0.01400781f, 0.02582115f, 0.06231832f, 0.01769761f, 0.02499546f, 0.09193659f, 0.10672751f, -0.34493631f, -0.13447392f, -0.14081813f, -0.18286557f, -0.11681775f, 0.00280957f, 0.01046114f, -0.00793063f, 0.04685314f, 0.02392819f, -0.04645952f, 0.00312879f, 0.05800054f, 0.03474590f, -0.02024734f, 0.00723817f, -0.03491335f, -0.10458128f, -0.09266143f, 0.02805171f, 0.09485992f, 0.09416530f, -0.01751093f, -0.03983818f, -0.09794441f, -0.05737212f, 0.02390982f, -0.12001497f, -0.15580903f, -0.08520051f, 0.03855079f, 0.04145607f, -0.03895627f, -0.11878823f, -0.04223650f, -0.09614027f, -0.07961604f, 0.05120794f, -0.05531569f, 0.04812307f, 0.09037767f, 0.01146978f, 0.04163272f, 0.03175650f, -0.00024941f, -0.06369073f, -0.05638561f, -0.00532858f, 0.03144727f, -0.07530469f, -0.06769325f, -0.02009438f, -0.07971535f, 0.00650389f, 0.03397209f, 0.06935459f, 0.04899465f, -0.08779896f, -0.05590817f, -0.03318835f, -0.02093186f, -0.02918039f, -0.10236303f, -0.04360230f, -0.16533488f, -0.07386327f, -0.07461075f, 0.06165948f, -0.09914716f, 0.02748184f, -0.01499181f, -0.03134278f, 0.07616102f, 0.01053432f, 0.05883386f, 0.06682184f, -0.10554977f, 0.05014726f, -0.00490808f, 0.01524900f, -0.01802999f, -0.03792411f, -0.12017845f, -0.07559841f, 0.05566468f, 0.06516807f, -0.04727178f, -0.11296455f, -0.04616365f, -0.09697498f, 0.06793682f, -0.11288336f, -0.09122580f, -0.10684782f, -0.03532138f, 0.10757917f, 0.04402307f, 0.09908663f, 0.11305398f, 0.11779786f, 0.07943378f, 0.01506925f, 0.15974024f, 0.05164732f, 0.13710466f, -0.00919383f, -0.07546227f, 0.04794609f, 0.06571803f, 0.11488691f, 0.10599832f, 0.05152493f, 0.05583125f, -0.01558945f, -0.06477129f, 0.03439458f, 0.02429678f, -0.02669244f, 0.02125458f, -0.04104226f, -0.05631453f, -0.07056011f, -0.08932020f, -0.05339731f, 0.01302297f, 0.06691061f, -0.03563434f, -0.03848735f, 0.04780572f, -0.06959205f, -0.02266356f, 0.09047864f, -0.02956460f, 0.04075858f, 0.11319727f, 0.05972874f, 0.05741477f, -0.04659989f, 0.00521437f, -0.00369258f, 0.03360999f, 0.01531038f, 0.07861274f, -0.06623349f, 0.01135399f, -0.05827080f, -0.07728256f, -0.01726224f, -0.12059972f, 0.06406204f, 0.07626503f, -0.02867087f, 0.09634472f, -0.01286023f, 0.08456501f, 0.01378968f, -0.06301101f, -0.03852087f, -0.00005131f, 0.07653735f, 0.16547506f, 0.06730215f, -0.03836942f, -0.01806671f, 0.21237250f, 0.05718228f, -0.02120640f, -0.00540957f, -0.05763991f, -0.02744190f, 0.08235897f, -0.04678705f, 0.00522459f, -0.04300853f, -0.02303253f, -0.00892796f, -0.11941741f, -0.06198478f, -0.00755737f, -0.16874950f, -0.01294753f, -0.06032639f, -0.07930532f, 0.01032871f, -0.05983664f, -0.05197538f, -0.06329125f, -0.12027179f, -0.06739037f, -0.12366283f, -0.02035224f, 0.02821086f, -0.12601626f, 0.05514058f, 0.05483871f, -0.09503943f, -0.06304786f, -0.01124764f, -0.06754345f, -0.17044766f, -0.02305811f, 0.08314113f, -0.03353193f, 0.04314541f, -0.04270979f, 0.00981200f, 0.07085931f, -0.00739927f, -0.09376870f, -0.02729334f, 0.08917660f, -0.08439955f, 0.04374319f, -0.08634783f, 0.03533701f, 0.07594664f, 0.02692129f, 0.02485073f, 0.01033643f, 0.08503927f, -0.08632912f, -0.02238912f, -0.00877852f, 0.08558911f, 0.04127942f, -0.07358969f, 0.08761287f, -0.01134379f, -0.04479797f, -0.13694800f, -0.12113764f, 0.03021811f, -0.06542087f, -0.16503806f, -0.15545130f, 0.01372423f, 0.05445995f, -0.05790935f, -0.04751997f, -0.08268590f, -0.14605752f, -0.01724653f, 0.03154843f, -0.06915232f, -0.04453507f, 0.03195204f, 0.00743725f, 0.05328329f, 0.07306996f, -0.06214463f, 0.11662713f, 0.06381860f, -0.05037931f, -0.02255958f, -0.04079424f, -0.06205142f, -0.14407852f, -0.02349330f, -0.01925825f, -0.15092637f, -0.02916870f, -0.04273617f, -0.07116138f, -0.03242301f, -0.24966943f, 0.06233816f, 0.06353571f, 0.02849434f, -0.08785754f, -0.06046744f, -0.06544802f, 0.00623914f, 0.02840993f, 0.00146471f, 0.11480073f, -0.13111649f, -0.05475006f, -0.08993638f, -0.18371777f, -0.16092479f, -0.07240762f, 0.00697456f, -0.03684187f, -0.06028752f, -0.02040805f, 0.00661509f, 0.04439188f, -0.04794656f, -0.02345457f, 0.04973141f, 0.03196368f, -0.01594201f, 0.02172235f, 0.03314951f, 0.06835754f, -0.01493313f, 0.01061314f, -0.01870856f, -0.11477590f, -0.00527982f, 0.00993179f, -0.00822064f, 0.01095029f, -0.02626904f, -0.03254203f, 0.03783021f, -0.04447747f, -0.00289715f, -0.00977773f, -0.07395683f, 0.09624721f, -0.05811530f, -0.06186832f, -0.00248785f, -0.14343627f, -0.10012835f, 0.01722453f, 0.08877124f, -0.04249897f, -0.04258305f, 0.12106008f, 0.06063206f, 0.01065504f, -0.06725846f, -0.09922660f, 0.02315913f, -0.07322897f, -0.05630941f, 0.03682635f, -0.01501623f, -0.02001708f, -0.00229256f, -0.02084146f, 0.05838076f, 0.06396297f, -0.05056495f, -0.06441824f, 0.07554577f, 0.03143157f, 0.00835984f, 0.04461526f, -0.04175627f, 0.04847557f, 0.12741737f, 0.01899772f, 0.06321076f, -0.10503359f, -0.07023017f, -0.04106162f, -0.08387558f, 0.09250977f, -0.01285638f, 0.04877682f, -0.06610563f, 0.03736645f, -0.05983952f, -0.02215942f, 0.04989566f, 0.18688846f, 0.21639858f, -0.04155124f, -0.00799153f, 0.01458640f, 0.04882053f, 0.03392404f, 0.08522939f, 0.01708733f, 0.03157039f, 0.08123846f, 0.00402223f, 0.11746952f, 0.08057024f, 0.10983631f, -0.03051343f, -0.02738523f, 0.08913057f, 0.09940279f, 0.08151298f, 0.02538821f, 0.03067982f, -0.04874644f, 0.03717884f, -0.00203007f, -0.10836803f, -0.04779365f, -0.01486526f, 0.08231935f, -0.01082074f, 0.02841919f, 0.04140235f, 0.02629430f, 0.05937740f, -0.04274768f, -0.04344428f, -0.01169915f, 0.04753232f, 0.05742218f, 0.03794432f, 0.04332003f, 0.03978823f, 0.22007702f, 0.08567125f, 0.03571183f, -0.05825812f, 0.10766152f, 0.02942880f, 0.11848714f, 0.05284832f, 0.07885127f, 0.12148179f, 0.10672076f, 0.01387811f, -0.07993400f, 0.08180358f, -0.02222222f, -0.00703570f, 0.11310890f, 0.09026447f, 0.07231361f, 0.01665486f, -0.09925515f, 0.04207377f, 0.09228136f, 0.03090648f, -0.02631935f, -0.00097558f, 0.01927572f, 0.10179968f, 0.06777475f, 0.09822249f, 0.01884058f, 0.09978762f, 0.07062051f, 0.02684931f, 0.06873640f, 0.05468949f, 0.09530236f, 0.08022918f, -0.03610352f, -0.12598522f, -0.03367649f, 0.00217094f, -0.03585213f, -0.01170723f, 0.01628545f, -0.00159852f, -0.02160533f, -0.11726895f, -0.08785302f, -0.05100683f, -0.01151870f, 0.10159522f, 0.07995116f, 0.08515281f, 0.02003950f, 0.05848889f, -0.00616169f, -0.15264226f, 0.01941398f, -0.03408236f, -0.06207896f, -0.03181834f, 0.09525658f, 0.12208873f, 0.05000759f, 0.11527497f, -0.06800431f, -0.01604446f, 0.04030898f, 0.02108403f, -0.02525331f, -0.08708359f, 0.01175847f, -0.02163570f, 0.04623747f, 0.06787409f, -0.08045486f, -0.05364157f, 0.04020747f, -0.04328367f, -0.03059095f, 0.09762104f, -0.04070929f, -0.03836593f, 0.00249158f, -0.01489965f, -0.05278255f, -0.07620674f, 0.04392545f, 0.00975136f, 0.03909415f, -0.07425530f, -0.01044536f, -0.01742954f, 0.01532898f, -0.11633287f, -0.02333049f, -0.03891993f, -0.07118189f, -0.10151381f, -0.05416898f, -0.13307135f, -0.12706327f, -0.08775075f, -0.18320575f, 0.05606274f, -0.07337195f, -0.01330176f, 0.03179382f, 0.10612401f, 0.02609084f, -0.08295296f, -0.02849325f, -0.06303535f, 0.02703924f, -0.01903671f, 0.05467957f, 0.03341389f, -0.08273020f, -0.08231062f, -0.03357772f, 0.05185717f, 0.03990801f, 0.01343534f, -0.01082891f, 0.05472340f, -0.07050917f, -0.09240976f, -0.00086787f, 0.03613468f, 0.08520253f, 0.05255920f, -0.01016733f, 0.08330002f, 0.13255450f, -0.06877395f, 0.01328692f, -0.04869153f, 0.04030302f, 0.06146398f, -0.03289273f, -0.00941790f, 0.02904497f, 0.00880681f, -0.07162435f, 0.06307077f, -0.03203842f, -0.01887454f, 0.00362213f, -0.01045741f, -0.10873048f, 0.02128706f, -0.04925251f, -0.05935067f, -0.04372641f, -0.05217671f, -0.03837031f, -0.02726585f, -0.04475902f, -0.04653450f, -0.17159182f, -0.11958965f, -0.12371657f, -0.13077898f, -0.13475318f, 0.01829785f, 0.04662022f, -0.06121827f, 0.01235812f, 0.02560053f, 0.05055974f, -0.09537130f, 0.00668189f, -0.03220250f, -0.06186862f, 0.06514021f, -0.02908588f, 0.03784260f, -0.06129702f, -0.00151797f, -0.07503528f, 0.00952411f, -0.06926665f, -0.08906535f, -0.15651448f, -0.00750777f, 0.09092908f, 0.00277928f, -0.05492502f, -0.04762682f, 0.03512230f, -0.07073340f, 0.04716996f, -0.00396134f, 0.05478214f, -0.02055710f, -0.08406384f, 0.03240323f, 0.02181743f, 0.06513957f, 0.00470031f, 0.17061675f, 0.05575515f, 0.03371322f, 0.01256276f, 0.10649171f, 0.01058446f, 0.01173232f, 0.02643073f, 0.06767442f, -0.04449972f, -0.03902721f, 0.08868268f, 0.10921793f, 0.12339699f, 0.05477637f, 0.07786941f, 0.03200245f, 0.08364457f, 0.07078430f, 0.08676269f, 0.09709904f, 0.02404339f, 0.00092573f, 0.01513078f, 0.01845191f, 0.06989370f, 0.02407477f, 0.06096994f, -0.02127057f, 0.00196209f, 0.07375105f, 0.00348904f, -0.00332585f, -0.09912784f, 0.08691148f, 0.10194734f, 0.15615742f, 0.06427472f, 0.01057477f, -0.20110032f, 0.01611138f, 0.00340270f, -0.13010405f, -0.03976103f, 0.12509371f, 0.08470350f, -0.03585613f, 0.10425259f, 0.05748969f, 0.07282217f, -0.09895092f, 0.05353001f, -0.06804290f, 0.09107676f, -0.00895281f, 0.05760013f, 0.04536897f, 0.02886817f, -0.03049435f, 0.12840280f, -0.04691373f, -0.16341852f, -0.10684562f, 0.00571817f, -0.04313417f, 0.01187136f, -0.09265571f, 0.06605656f, 0.04427623f, 0.03301569f, -0.04481043f, -0.11423201f, -0.01109587f, -0.05833052f, 0.13254206f, -0.08652626f, 0.06878189f, 0.06381189f, 0.06826986f, 0.02807150f, -0.06684436f, 0.12243392f, 0.01922037f, -0.05422233f, 0.12794282f, -0.01798429f, 0.01846049f, 0.15026870f, 0.02709198f, -0.05376958f, 0.00225905f, -0.01022764f, 0.01760052f, -0.09714665f, 0.03476170f, -0.04606834f, -0.01509166f, -0.04876915f, 0.04218998f, 0.04236553f, -0.10414490f, 0.04375252f, 0.01396154f, -0.01061986f, -0.08973885f, 0.03208533f, 0.09415028f, 0.06881428f, -0.04393255f, 0.09567739f, 0.08057816f, 0.05374992f, 0.10658811f, 0.13196737f, 0.00899675f, 0.14522260f, -0.03694561f, 0.00329499f, -0.01496907f, -0.11206213f, -0.04566622f, -0.04490075f, -0.04095794f, 0.02543128f, 0.16103816f, 0.09591237f, 0.05256252f, 0.00626301f, 0.06415050f, -0.01836613f, -0.02550001f, -0.02063037f, -0.12168446f, -0.09648756f, 0.05897790f, 0.03407921f, 0.04377822f, -0.03109898f, 0.05617023f, 0.11717269f, -0.08284339f, 0.06016343f, 0.01796046f, -0.09953278f, -0.07116339f, -0.09181608f, -0.07417241f, -0.06681122f, -0.01104596f, -0.00701624f, -0.05835078f, -0.00911166f, -0.04614136f, 0.05947119f, 0.07655343f, -0.07228403f, 0.06089192f, 0.05743031f, 0.13923199f, 0.07337672f, 0.14209487f, -0.00512059f, 0.12293988f, 0.05700101f, -0.10805096f, -0.00133262f, 0.05022983f, -0.00868211f, 0.06321608f, -0.02262465f, -0.01109835f, 0.06230963f, 0.05466501f, -0.01940149f, 0.07718066f, -0.03439586f, 0.08904975f, 0.10444006f, 0.09797254f, -0.04140563f, 0.05010916f, 0.01069676f, 0.02062778f, -0.00973160f, 0.07705599f, 0.02093711f, -0.00169087f, 0.09769199f, 0.03874113f, 0.10319707f, 0.01692834f, 0.00836820f, 0.06544875f, 0.01224310f, 0.06064243f, 0.01743389f, -0.05110095f, 0.01959941f, -0.03059541f, -0.11133043f, -0.09448729f, -0.18819201f, -0.10944162f, -0.09220054f, 0.02584537f, 0.06468330f, -0.01174669f, 0.06263658f, 0.06086619f, -0.09200546f, 0.01503588f, 0.06637280f, -0.06770036f, 0.00088720f, 0.10380954f, 0.06797338f, -0.05066707f, 0.05374324f, -0.05425013f, -0.08681931f, -0.00436462f, -0.00065756f, -0.06186825f, -0.05079873f, -0.12745884f, 0.03020958f, 0.08866809f, 0.09990537f, 0.05218983f, 0.03737767f, -0.13444827f, -0.02780696f, 0.03888819f, -0.01276384f, -0.07006100f, 0.04691704f, 0.08650032f, -0.13036102f, -0.02624715f, 0.06986698f, 0.11169989f, 0.08170479f, 0.10312772f, 0.03025475f, 0.04853383f, 0.08142424f, -0.10852600f, -0.06678373f, 0.07024615f, 0.08339181f, -0.01148814f, 0.06913318f, 0.04984853f, 0.04266333f, 0.01253493f, 0.05517612f, 0.16170487f, 0.06839871f, 0.03347467f, -0.01652644f, -0.00105135f, 0.05357416f, 0.05836419f, 0.00507758f, 0.10113087f, 0.01173208f, 0.02383759f, 0.06143619f, 0.00249660f, -0.01176010f, -0.08842722f, 0.08282144f, 0.07165767f, 0.09329595f, -0.05346388f, -0.08020138f, 0.07677528f, 0.05965150f, -0.01179609f, -0.05195267f, -0.17892815f, 0.02325359f, 0.12436952f, 0.09871298f, -0.04618489f, 0.08923540f, 0.08420485f, 0.02810372f, 0.11770051f, -0.07320027f, -0.04671681f, -0.03619572f, 0.06738434f, 0.06569715f, -0.05074176f, -0.09393495f, -0.04792016f, -0.04062477f, -0.11593316f, -0.11779808f, -0.07112537f, -0.01908312f, -0.07203660f, -0.17854695f, 0.06512605f, -0.03017454f, -0.10250956f, 0.06763319f, 0.01176747f, 0.00113397f, -0.03143846f, 0.03946245f, -0.07154615f, 0.03853892f, -0.02624798f, -0.08867248f, -0.04775905f, -0.12418743f, -0.01573235f, 0.08558844f, 0.05945048f, 0.13103233f, 0.03516763f, 0.00392500f, 0.00324176f, -0.00758090f, 0.04078366f, -0.04789581f, 0.06822123f, 0.10381068f, 0.11016069f, -0.01063916f, 0.10818044f, 0.03516051f, 0.06403803f, 0.06207974f, 0.01184345f, 0.09330896f, 0.04306671f, -0.04091980f, -0.02151016f, 0.03012581f, 0.08762916f, -0.03659523f, 0.05459611f, 0.03861503f, 0.03012991f, 0.01741441f, -0.01198122f, -0.11946588f, -0.04112142f, -0.10540973f, -0.05742311f, -0.02401346f, -0.01936756f, 0.00004750f, -0.01825848f, 0.01042671f, 0.00408096f, -0.26068360f, -0.18650267f, -0.04801095f, -0.07260065f, -0.17910746f, 0.00954671f, 0.00407886f, -0.00980764f, 0.01657505f, -0.01229822f, 0.05250524f, 0.01002999f, 0.08804567f, 0.01122388f, -0.00324220f, -0.03245524f, -0.09702990f, -0.05340924f, 0.01118241f, 0.01726416f, -0.23932818f, 0.02761432f, 0.00513271f, 0.01573941f, 0.14835559f, -0.08473855f, 0.04864845f, 0.06367543f, 0.07557429f, -0.08847239f, 0.01865955f, -0.07024618f, -0.01720312f, -0.04482872f, -0.08331954f, -0.22569257f, -0.09633728f, 0.03447348f, 0.08549209f, 0.00397261f, -0.07433008f, -0.02212060f, -0.08689149f, 0.02231150f, 0.04369095f, -0.02729063f, -0.11647316f, -0.02694084f, -0.02010461f, -0.00746832f, -0.06961454f, -0.12033878f, 0.05183857f, -0.00771815f, -0.02441336f, -0.04421650f, -0.03462102f, 0.05237715f, 0.03478209f, 0.09210756f, 0.06703560f, 0.00745706f, 0.00016727f, -0.03662389f, 0.05243011f, -0.08172405f, -0.01673869f, -0.00792019f, 0.00724549f, -0.00773474f, -0.05395643f, 0.00048864f, 0.05580887f, -0.07667430f, -0.04489652f, -0.02368125f, -0.06144263f, 0.07703712f, 0.01527001f, -0.05399289f, 0.07882088f, -0.03927416f, -0.06534526f, -0.10817742f, -0.14891277f, -0.06777263f, -0.12333602f, -0.04658605f, -0.00671138f, 0.05918697f, 0.10652793f, 0.07079351f, -0.02312187f, 0.00571772f, -0.06614506f, -0.03315903f, -0.09635817f, -0.00543206f, 0.00376504f, -0.02032420f, 0.03215181f, 0.02600199f, 0.10131724f, 0.07426395f, 0.08079539f, -0.00165624f, 0.02184757f, 0.08421771f, 0.01875694f, 0.06456915f, -0.01461287f, 0.04598895f, 0.02970201f, 0.04293203f, 0.04829463f, -0.04863470f, 0.00389795f, -0.02317206f, 0.02204189f, 0.02433676f, -0.02211436f, -0.00523221f, 0.00765474f, -0.05948414f, -0.04649429f, -0.11900261f, -0.13191527f, -0.00481148f, -0.04058085f, -0.06731676f, -0.07726431f, -0.06297231f, 0.01827253f, 0.00025751f, 0.04330996f, -0.02868610f, -0.01859162f, 0.03393209f, -0.00191600f, -0.06535487f, -0.11714406f, -0.07778872f, -0.02241709f, -0.00906950f, -0.01747683f, -0.02787723f, -0.07857217f, -0.06702668f, -0.10978673f, -0.09375478f, -0.04454698f, 0.02175135f, 0.09713072f, 0.11836813f, 0.03096426f, -0.10961159f, -0.12361451f, -0.04445670f, -0.03521792f, -0.02789203f, -0.00458858f, -0.02021655f, 0.06120619f, 0.00507204f, -0.06905889f, -0.06928430f, -0.10568725f, -0.10379726f, -0.01170548f, -0.04334217f, -0.01881189f, -0.08320641f, -0.04523256f, -0.10201333f, 0.00730416f, 0.02528154f, 0.12781043f, 0.06910605f, 0.10632943f, 0.07544220f, 0.19824113f, 0.10590536f, 0.09446371f, 0.11379418f, 0.10758457f, 0.02732115f, -0.02510728f, -0.05840244f, -0.01426760f, -0.02721340f, 0.07521032f, -0.10043266f, 0.03208091f, -0.07221649f, -0.00664146f, 0.11838643f, 0.25570127f, 0.14274646f, 0.15191728f, 0.09870272f, -0.03528147f, 0.00356438f, -0.03038949f, -0.10903925f, -0.06842883f, 0.07416154f, -0.03515550f, -0.05039149f, -0.06021172f, 0.04835768f, -0.03330675f, -0.11720920f, -0.01158322f, 0.01126102f, 0.03989799f, 0.09798082f, -0.00928805f, -0.00136867f, -0.02653394f, -0.05473731f, 0.02527913f, 0.04744757f, -0.07682527f, -0.03202907f, 0.05119456f, -0.05065840f, -0.05170098f, -0.07409848f, -0.00594796f, 0.07714815f, 0.02253112f, 0.00957618f, 0.04168537f, -0.10358187f, 0.11085206f, -0.04417344f, 0.01305666f, 0.03050984f, -0.08239916f, -0.01040531f, -0.03810540f, 0.04545529f, -0.00740468f, 0.07635220f, 0.07902325f, 0.03459107f, -0.01183035f, 0.00527858f, -0.02836783f, 0.04883394f, -0.03799042f, -0.00770837f, -0.00280921f, 0.07619597f, 0.06543770f, -0.14974706f, -0.02903724f, -0.11241692f, 0.01092708f, -0.01159189f, -0.15183532f, -0.09540083f, 0.06651442f, -0.11093102f, -0.04188240f, 0.04625753f, 0.03721064f, -0.01447376f, -0.08955004f, 0.03610146f, -0.03251529f, -0.02049232f, -0.04481687f, 0.03452500f, 0.03495548f, -0.07005534f, 0.03709590f, -0.08940230f, -0.05732137f, -0.13742363f, 0.06302033f, -0.05109112f, -0.04854174f, 0.02453965f, 0.10598893f, -0.07368878f, -0.10704931f, 0.00297570f, 0.00921714f, -0.03528296f, -0.03868713f, -0.05228348f, 0.04475667f, 0.06755362f, -0.02602029f, 0.07560349f, 0.06967030f, 0.09616095f, -0.03655241f, 0.01074651f, 0.05803481f, 0.05148007f, 0.04436216f, -0.05782529f, -0.00917339f, 0.02770830f, -0.05404856f, 0.00797447f, -0.04037400f, 0.06041695f, -0.05737970f, -0.08064721f, -0.01207365f, -0.19904262f, -0.19605407f, -0.04239843f, 0.05682462f, 0.02557493f, -0.04014936f, 0.03232343f, -0.12355170f, -0.10311289f, 0.05201186f, -0.00716350f, -0.17964473f, -0.00250114f, -0.04209447f, -0.03709794f, -0.04299478f, -0.10036978f, 0.06671885f, -0.01487856f, 0.02288517f, -0.03202255f, 0.05298571f, 0.10586188f, 0.08988485f, 0.06345049f, 0.13917306f, -0.00577245f, 0.05380021f, 0.10387523f, 0.12603633f, 0.04005217f, 0.16133615f, 0.00965116f, -0.02347520f, 0.11987765f, -0.06579853f, 0.03034188f, 0.04611242f, -0.06186923f, -0.01580063f, -0.09975076f, -0.07194203f, -0.00998662f, -0.01924204f, 0.02216098f, 0.15275654f, 0.12904511f, 0.02331228f, -0.04828595f, -0.06372929f, -0.02456406f, -0.03153283f, 0.01229606f, -0.06028399f, -0.02918452f, -0.05251766f, -0.05592058f, -0.06539205f, 0.01933530f, -0.02142486f, -0.12158230f, -0.03224400f, -0.10536150f, -0.04597982f, -0.04659917f, -0.04982967f, -0.13589272f, -0.11932027f, -0.04822927f, -0.06311852f, -0.09572005f, 0.04138245f, -0.05019663f, -0.07612047f, -0.08069302f, -0.07294050f, 0.03537017f, -0.07994256f, -0.11547348f, -0.11548843f, -0.00714843f, -0.09691557f, -0.05900586f, -0.16077121f, -0.08399018f, -0.03612070f, 0.03451461f, -0.08053647f, -0.04747450f, -0.03622703f, -0.08278635f, 0.04680129f, -0.03101999f, 0.00643470f, -0.05613386f, -0.16054203f, -0.08282354f, 0.09649717f, -0.10376249f, 0.05734722f, -0.04974068f, -0.03740286f, 0.12281394f, 0.03508748f, 0.02516899f, -0.03906407f, -0.09953042f, 0.26591983f, 0.10231803f, -0.05714184f, -0.08383078f, -0.18105294f, -0.00424432f, 0.01226317f, -0.04157598f, 0.03011247f, 0.06148793f, -0.06673866f, -0.07390625f, 0.00176737f, 0.02145771f, -0.01179462f, 0.02815500f, 0.06134725f, -0.01226247f, -0.04502111f, -0.02510216f, -0.10145590f, 0.05451544f, -0.10196846f, 0.06626219f, 0.06918611f, 0.04001843f, 0.08089890f, -0.07091755f, -0.11648591f, -0.06195359f, 0.06055369f, 0.01043480f, -0.09735089f, 0.01421309f, 0.02420225f, -0.10995205f, 0.00048461f, -0.01038939f, -0.00067710f, 0.06297185f, 0.04357496f, 0.03580932f, 0.02336984f, 0.01337664f, -0.01484523f, -0.02060118f, -0.01896798f, -0.11842996f, 0.01411467f, -0.03837529f, 0.02062276f, 0.02196249f, 0.03180638f, 0.10370031f, 0.13795127f, -0.00371236f, 0.00083992f, -0.03971329f, -0.00211349f, 0.00707380f, -0.04991046f, 0.07337635f, 0.09883728f, 0.03385005f, 0.16556057f, -0.04659252f, -0.02483888f, 0.01943443f, -0.01944244f, 0.01461796f, -0.09005324f, 0.01508101f, -0.08919467f, -0.05213447f, -0.01708944f, 0.02738487f, 0.06084080f, -0.06897584f, -0.00062962f, -0.10150004f, -0.08390752f, -0.08822057f, -0.04369684f, 0.02808039f, -0.11375136f, -0.05648566f, 0.10206717f, 0.01697116f, 0.03563825f, 0.09429692f, -0.04275661f, -0.08260345f, -0.12272967f, -0.00554522f, -0.02813882f, -0.01049386f, -0.00220999f, 0.04111905f, -0.06596503f, 0.00241937f, -0.00160540f, -0.04015440f, -0.05466698f, -0.07890683f, 0.00128156f, -0.08271601f, 0.00958360f, 0.05661875f, -0.11502660f, 0.02406443f, -0.04727614f, 0.01162614f, -0.07754175f, -0.02268420f, -0.00209067f, -0.02411976f, -0.03328972f, -0.07135839f, -0.08647814f, 0.01156298f, -0.09494708f, -0.02857905f, -0.02807619f, -0.04362644f, -0.05493480f, -0.03330950f, -0.01529845f, -0.08949269f, -0.04265992f, -0.00059173f, 0.04652649f, 0.14105539f, 0.09289049f, 0.09887522f, 0.15275857f, -0.01211937f, -0.05814055f, -0.02559487f, 0.06438405f, -0.00276036f, 0.20033233f, 0.22104740f, 0.06404941f, 0.10557460f, 0.14670347f, -0.03142055f, 0.04777177f, -0.03883802f, -0.07932007f, -0.06608774f, 0.13714953f, 0.03731013f, 0.04468466f, 0.03949538f, -0.03680208f, 0.00589894f, -0.02917122f, -0.05260707f, -0.03951135f, -0.04443050f, -0.08987785f, -0.05083724f, -0.05509625f, -0.01301498f, -0.08656115f, -0.11943527f, 0.00148796f, -0.06327051f, 0.09465671f, -0.04052358f, -0.06700312f, -0.05044909f, -0.05356507f, 0.01397582f, -0.07768063f, -0.04573603f, -0.05118824f, -0.05723520f, -0.04971543f, -0.04402467f, -0.05688699f, 0.01614860f, -0.06301569f, -0.06873769f, -0.11849406f, -0.06136564f, -0.12192760f, 0.03207546f, -0.07876597f, -0.04052539f, 0.00082844f, -0.00899409f, -0.02643457f, 0.01962734f, -0.05397570f, -0.09702618f, -0.16010140f, -0.13336658f, -0.13001214f, -0.04675639f, 0.02858060f, 0.12019186f, 0.07668906f, -0.06164363f, -0.02254491f, -0.03420362f, -0.08631218f, -0.08709703f, -0.09900878f, -0.02603394f, -0.04035324f, 0.04866512f, -0.08520934f, -0.04860479f, -0.10283820f, -0.03505700f, -0.08678422f, -0.04427517f, 0.00972999f, -0.03166451f, -0.07764618f, -0.05162415f, -0.00417444f, 0.01597241f, -0.10067760f, -0.10114314f, -0.00926204f, 0.00267789f, -0.03444926f, -0.08331750f, -0.08564994f, -0.00238038f, -0.03006754f, 0.01048533f, -0.04850534f, 0.15475503f, 0.05128130f, 0.04612705f, -0.06255098f, -0.01608963f, 0.14202197f, -0.02897982f, 0.00934151f, -0.14047468f, -0.04693586f, -0.05964990f, 0.02044258f, 0.05482823f, 0.05608317f, 0.03441856f, 0.00343803f, -0.09343173f, 0.01444582f, -0.03626849f, -0.01952581f, 0.09842569f, 0.05074683f, -0.12121207f, -0.13423865f, -0.01063199f, -0.07334326f, 0.04116794f, -0.05103089f, 0.08270612f, 0.06377002f, -0.03637799f, -0.02698925f, 0.07463241f, -0.01151737f, -0.01075712f, -0.11945454f, 0.00156161f, -0.04982898f, -0.04795689f, -0.10263095f, -0.09347355f, -0.00538290f, -0.03488562f, -0.04038101f, 0.01471765f, -0.04812939f, 0.05080573f, -0.04717861f, -0.00770985f, -0.04419844f, 0.00554687f, -0.01759229f, -0.05117222f, 0.03020473f, 0.02913724f, 0.00805216f, 0.10760254f, -0.01362504f, 0.20678888f, 0.22837169f, 0.02039484f, -0.02779299f, 0.00438573f, -0.02558143f, -0.01207396f, -0.00666769f, 0.06687748f, 0.03437465f, 0.08897333f, 0.26394993f, -0.05901922f, -0.01268157f, -0.01979873f, -0.05225245f, -0.04504779f, -0.04609596f, 0.05680163f, -0.04682470f, 0.03257765f, 0.04650982f, 0.03503501f, 0.08669678f, 0.00697906f, -0.06473100f, 0.13814613f, -0.01972748f, -0.04325851f, -0.17967555f, -0.05438544f, -0.05284714f, 0.06591583f, 0.05244957f, 0.00783494f, 0.04361624f, -0.06188665f, -0.06603300f, -0.09983170f, -0.12189731f, 0.00747318f, 0.03835354f, 0.04341176f, -0.01329216f, -0.04620465f, -0.01322473f, 0.09069154f, 0.03572077f, 0.03206430f, -0.05056662f, -0.09485836f, -0.05970977f, 0.02072619f, -0.06781606f, 0.00266359f, -0.01268233f, -0.06037147f, 0.04060733f, -0.08751231f, -0.05230294f, -0.08493508f, -0.14323500f, -0.06018390f, -0.04578964f, -0.06288804f, 0.05423114f, -0.06478989f, -0.13507299f, -0.11795468f, -0.12255102f, -0.09799189f, -0.07843327f, 0.02918353f, -0.09074068f, -0.03777300f, -0.01778387f, 0.02277015f, 0.08384163f, 0.09456660f, -0.08475302f, 0.02752800f, 0.03746180f, -0.06502012f, -0.00712505f, -0.01797243f, 0.06411811f, 0.02528128f, -0.07271281f, -0.02548364f, -0.03306886f, -0.03246444f, 0.11485744f, -0.17940834f, -0.03924192f, -0.09123880f, -0.10283241f, -0.05426726f, 0.02034547f, -0.00328615f, -0.00062007f, -0.00745714f, -0.00253118f, -0.02648930f, 0.02604343f, -0.01291612f, 0.02376011f, 0.01889254f, -0.21523194f, -0.04099816f, -0.12312265f, -0.08787319f, -0.18156436f, -0.04010922f, -0.07234870f, 0.09339813f, 0.05595868f, -0.07502377f, -0.10733651f, 0.04303570f, -0.01072747f, -0.01885318f, -0.11073132f, -0.00742806f, -0.05005735f, -0.00408003f, -0.08614749f, -0.04394485f, 0.01390287f, 0.03666153f, 0.01607025f, -0.02788464f, -0.08340152f, -0.03935597f, 0.02291612f, -0.01115565f, -0.03925760f, 0.01967526f, -0.00936784f, -0.02647598f, 0.03197677f, 0.08125550f, 0.00763511f, -0.02540687f, -0.07279961f, -0.05865814f, -0.07059900f, 0.06735874f, 0.12244464f, 0.05794908f, 0.08865019f, 0.04939879f, 0.07092204f, 0.05072261f, -0.01078375f, -0.06714321f, -0.03690218f, -0.01837865f, -0.19806889f, -0.16456354f, -0.06918242f, -0.12504186f, -0.14127468f, -0.02991799f, -0.06801707f, 0.00721529f, -0.00780656f, -0.00844986f, -0.12293113f, -0.05388411f, -0.05682550f, -0.11439336f, -0.18494689f, -0.00925251f, 0.01265123f, -0.00150045f, -0.02925268f, 0.00974894f, -0.10871312f, -0.07494284f, -0.04686943f, -0.03774924f, -0.06725166f, 0.00900443f, -0.02505384f, -0.03016683f, -0.01544490f, 0.01321219f, 0.16721813f, 0.10592125f, 0.01768002f, 0.02999891f, 0.03538570f, 0.04249454f, -0.03304783f, -0.07562588f, -0.09271440f, -0.02887237f, -0.04228634f, 0.02492260f, -0.01281855f, 0.10072792f, 0.11217581f, 0.01386948f, 0.07755682f, 0.03904932f, 0.00583858f, -0.02274851f, -0.01447465f, -0.02136522f, 0.00775129f, -0.04817009f, 0.02131522f, 0.05334843f, -0.06044258f, -0.01121880f, -0.01145531f, -0.01099648f, 0.03464972f, 0.08404175f, 0.02485921f, -0.03546228f, -0.03950951f, 0.15319712f, 0.11095668f, -0.00944599f, 0.00905722f, -0.06084678f, -0.05552830f, -0.05128245f, 0.01386118f, 0.02303648f, 0.05792879f, 0.03009662f, -0.02697891f, 0.06551886f, 0.02376484f, 0.04136926f, 0.18095924f, 0.08412574f, 0.01152479f, 0.03090901f, 0.03521221f, 0.05073110f, 0.06688508f, 0.05728881f, 0.01764160f, -0.03359905f, 0.21573627f, 0.18918532f, 0.02642338f, -0.14702837f, -0.05183075f, -0.00038846f, 0.02459370f, -0.02666722f, 0.02174230f, -0.02847244f, -0.00684490f, -0.04401801f, -0.01549202f, -0.09123267f, -0.04852909f, -0.01532714f, 0.03251552f, 0.07103207f, -0.09466786f, -0.02651819f, -0.19306202f, -0.10770115f, -0.02681313f, -0.07733515f, -0.15133777f, -0.04430750f, -0.07890464f, 0.08285158f, 0.06338187f, -0.09931076f, -0.03291148f, -0.03275346f, -0.04805206f, -0.02059321f, 0.03784415f, -0.03088011f, -0.04269089f, 0.01267289f, -0.07975947f, -0.10946447f, -0.00440092f, -0.00396423f, 0.04581327f, 0.05622968f, -0.00471311f, -0.13023852f, -0.01166367f, -0.09387009f, 0.07729066f, -0.01649657f, 0.03543000f, -0.00839147f, -0.05977910f, 0.01775779f, 0.02875337f, 0.06114946f, 0.06359299f, 0.01487903f, -0.01589414f, -0.04072673f, 0.02075122f, 0.00368199f, -0.11911970f, -0.08071935f, 0.03106896f, -0.06504960f, 0.03255332f, 0.01374420f, 0.00605102f, 0.07174176f, -0.12159713f, -0.06949846f, -0.04037977f, -0.07250503f, -0.26323804f, 0.00818915f, -0.05495768f, -0.00537936f, 0.06287839f, 0.00059817f, -0.16194272f, -0.09603434f, 0.01451625f, 0.00430817f, -0.12838998f, -0.09798548f, -0.07809556f, 0.01797570f, 0.02548747f, 0.01241299f, -0.02575733f, 0.10401051f, -0.00529855f, 0.07115932f, 0.05324081f, -0.04130979f, -0.08827677f, 0.03601405f, -0.08789526f, 0.01317942f, -0.27682713f, -0.13037851f, -0.10961402f, -0.12033476f, -0.04786447f, -0.09219915f, -0.08606987f, 0.04485760f, 0.02828505f, -0.03555269f, -0.02477938f, 0.05594650f, -0.00908359f, 0.04687684f, -0.00955894f, -0.11023249f, -0.07472970f, -0.03496490f, 0.04251107f, 0.04284993f, 0.04120646f, 0.00016323f, 0.09275024f, 0.05566760f, 0.02778760f, -0.04419706f, -0.05321086f, 0.01622780f, 0.00276497f, 0.06658590f, 0.06606462f, 0.11369686f, 0.03709899f, 0.02065589f, 0.01552171f, -0.03838547f, -0.03560587f, -0.03606679f, 0.03994613f, 0.06743234f, 0.01038316f, -0.01392283f, 0.08174907f, -0.02309224f, 0.05458855f, 0.04325626f, -0.04335901f, 0.00570383f, 0.03625292f, 0.11298955f, -0.04205190f, 0.04019514f, -0.04301497f, -0.08625682f, 0.01190108f, -0.00367849f, 0.09411964f, 0.02114335f, 0.02605773f, 0.09993009f, -0.06985366f, -0.12040788f, -0.11219564f, -0.15021878f, -0.27638888f, 0.05588706f, -0.02948385f, 0.02798463f, 0.07015187f, 0.01984365f, -0.02030202f, 0.06819700f, 0.05741075f, -0.06245591f, 0.08725404f, 0.01825978f, 0.00700103f, -0.12353279f, -0.01208436f, -0.05944220f, 0.06243245f, 0.03161036f, -0.03697323f, 0.03138425f, -0.03654768f, 0.04417464f, -0.06137308f, -0.02771502f, 0.00071213f, 0.07296876f, 0.02869820f, -0.00619227f, 0.07689930f, 0.06004928f, 0.01994876f, -0.04539912f, -0.01591313f, 0.02066093f, 0.06180742f, 0.04560565f, 0.05214358f, 0.07862362f, 0.15035501f, 0.08536270f, 0.17466833f, 0.07433948f, -0.05635625f, 0.03107778f, 0.00054389f, 0.06210436f, 0.08468172f, 0.05429767f, -0.00776866f, 0.12302840f, 0.00885591f, 0.09698514f, 0.06806110f, 0.07677754f, 0.05650493f, 0.08536119f, -0.01450312f, -0.03730552f, -0.02748954f, 0.06294755f, 0.04710774f, 0.07320036f, 0.03784274f, 0.08321426f, 0.12142335f, 0.14377747f, 0.09651539f, -0.06011063f, -0.00737243f, 0.06511199f, 0.12754761f, 0.06536217f, 0.10752991f, 0.03494548f, 0.02457282f, 0.06511705f, 0.06530517f, 0.09922116f, 0.06381799f, 0.04221166f, -0.03025715f, -0.02842692f, 0.05992123f, 0.06276286f, 0.09829376f, 0.07677314f, -0.10066393f, -0.00305238f, -0.09855947f, -0.04239582f, 0.08712745f, -0.10720614f, 0.07882503f, -0.10456587f, 0.00028186f, 0.04696377f, -0.11475454f, 0.00678268f, -0.02138560f, 0.06267627f, 0.09776091f, -0.09265637f, -0.08529741f, 0.06982841f, -0.00602573f, -0.01631527f, 0.07463150f, -0.00863080f, -0.00566775f, 0.04165077f, 0.01820641f, -0.11614209f, -0.03643682f, -0.07579634f, -0.06605326f, 0.03032361f, -0.05234658f, -0.12684774f, 0.00182366f, -0.04715128f, -0.07810772f, -0.14872491f, -0.13420361f, -0.00491955f, -0.09524520f, -0.02600073f, -0.04580304f, -0.10755117f, -0.04621670f, -0.11716484f, -0.09026857f, -0.03763745f, -0.07836306f, -0.11499602f, 0.01923126f, -0.00626325f, -0.09020545f, -0.01975924f, 0.06274214f, -0.11203007f, -0.07260125f, -0.12526649f, -0.05116337f, -0.01946311f, -0.14226905f, 0.00830467f, -0.07520932f, 0.03398217f, -0.07683716f, 0.02642454f, 0.08508085f, -0.10146698f, -0.01394389f, -0.06327831f, -0.06042515f, -0.02891788f, -0.04196914f, 0.01092423f, 0.08476614f, -0.00076709f, -0.05162792f, 0.07982042f, -0.07023533f, 0.02362304f, -0.07022604f, -0.03187197f, -0.09679846f, 0.07613948f, -0.00459052f, -0.08306472f, -0.00781935f
};

// shape: [32]
static const float l1_bn_weight[32] = {
    0.98287052f, 1.05794895f, 0.96642560f, 1.07710731f, 0.92104059f, 0.88388753f, 0.96930426f, 0.98960179f, 0.96027064f, 0.84506762f, 1.09264684f, 0.89923596f, 0.84857416f, 0.92973864f, 0.90430301f, 1.01411939f, 1.04803109f, 0.97983295f, 0.97240180f, 1.00782251f, 0.98582095f, 0.94438779f, 1.10276711f, 1.08176923f, 1.03755987f, 0.96750015f, 1.08503032f, 0.93654007f, 1.00925219f, 1.06962693f, 0.89092928f, 0.94867730f
};

// shape: [32]
static const float l1_bn_bias[32] = {
    0.14478371f, 0.16394240f, 0.08434647f, -0.14916629f, -0.06014876f, -0.05922012f, -0.10083789f, -0.04318517f, 0.11532482f, -0.00209382f, 0.14321017f, -0.09074426f, -0.06308159f, 0.00012152f, 0.00822053f, -0.11249663f, -0.03685769f, 0.02520629f, -0.04870412f, -0.02157691f, 0.21868253f, 0.04944636f, 0.04272556f, 0.06874037f, 0.02925884f, -0.10626708f, 0.19145228f, 0.01558206f, -0.11549995f, -0.20305645f, 0.05339634f, 0.03876708f
};

// shape: [32]
static const float l1_bn_running_mean[32] = {
    0.41300541f, -0.99670666f, -0.68403137f, -0.45942658f, -0.67105389f, 0.57055217f, -0.69838119f, -0.65933269f, 0.73744053f, 0.24472326f, -0.74610817f, 0.30142704f, 0.19353102f, 0.15637237f, 0.38163280f, -0.50592446f, -0.49045622f, -0.36950406f, 0.62914127f, -0.63721853f, -0.38539189f, 0.10588852f, -0.01541193f, -1.02501786f, 0.10371104f, -0.62006009f, -0.84748918f, 0.40283510f, -0.71671051f, -0.43462518f, 0.75636238f, -0.75477403f
};

// shape: [32]
static const float l1_bn_running_var[32] = {
    0.17848037f, 0.46468890f, 0.29436499f, 0.17236462f, 0.48351297f, 0.22546722f, 0.23092633f, 0.29442185f, 0.32791683f, 0.30865511f, 0.20953675f, 0.22094914f, 0.15567991f, 0.17187621f, 0.27500492f, 0.17691542f, 0.22588214f, 0.16293001f, 0.38785905f, 0.17800801f, 0.45876727f, 0.24667777f, 0.35598466f, 0.42726165f, 0.35422513f, 0.25638783f, 0.29840970f, 0.16989052f, 0.19352172f, 0.21019916f, 0.30489749f, 0.30991369f
};

// shape: [32]
static const float l1_bn_bias[32] = {
    0.14478371f, 0.16394240f, 0.08434647f, -0.14916629f, -0.06014876f, -0.05922012f, -0.10083789f, -0.04318517f, 0.11532482f, -0.00209382f, 0.14321017f, -0.09074426f, -0.06308159f, 0.00012152f, 0.00822053f, -0.11249663f, -0.03685769f, 0.02520629f, -0.04870412f, -0.02157691f, 0.21868253f, 0.04944636f, 0.04272556f, 0.06874037f, 0.02925884f, -0.10626708f, 0.19145228f, 0.01558206f, -0.11549995f, -0.20305645f, 0.05339634f, 0.03876708f
};

// shape: [32, 32, 5]
static const float l2_conv_weight[5120] = {
    -0.09819798f, -0.00088337f, 0.01408134f, -0.03297161f, 0.01140490f, -0.12597775f, -0.06544460f, -0.17610580f, -0.10923734f, -0.01558355f, 0.09954896f, 0.06870023f, 0.07893519f, 0.07427753f, 0.06774917f, -0.02076955f, -0.02883287f, -0.06621863f, -0.03718027f, 0.01472928f, -0.02918636f, 0.00422318f, 0.01718096f, -0.01805536f, 0.03942964f, -0.04023946f, -0.01545602f, 0.01410812f, -0.04933443f, -0.00147580f, 0.08008340f, 0.03877422f, 0.07682187f, 0.06372630f, 0.09327079f, 0.03039775f, 0.12348357f, 0.00215526f, 0.05430386f, 0.08471587f, 0.00227290f, -0.02786790f, -0.07037073f, 0.03974402f, -0.07262579f, 0.01491011f, 0.03398131f, -0.01738090f, 0.02912063f, -0.01103602f, -0.00051739f, -0.00520450f, 0.01765691f, 0.00346398f, 0.09041028f, 0.00191949f, 0.06330427f, 0.04339375f, 0.01446661f, 0.06306722f, -0.00891218f, -0.02086045f, -0.02435718f, 0.00117416f, -0.00775395f, -0.02451312f, -0.03161034f, 0.02396259f, -0.04505660f, -0.03275185f, 0.02437669f, 0.00019301f, 0.00490135f, 0.03324500f, -0.01339203f, -0.08771253f, -0.03833979f, -0.11113915f, -0.02627076f, -0.00943524f, -0.01152719f, -0.00074626f, -0.08557487f, -0.03797872f, -0.09984930f, 0.05427898f, 0.05046036f, 0.07204886f, 0.01657543f, -0.03170533f, -0.02690915f, -0.01042343f, 0.04791640f, 0.04637955f, 0.00962006f, 0.05272980f, 0.07837395f, 0.04134285f, 0.04692722f, 0.02675717f, -0.14155187f, -0.10441900f, -0.05835656f, -0.07516243f, -0.08714724f, -0.03343764f, -0.03798307f, -0.04639495f, -0.03753158f, -0.02931848f, -0.06889048f, -0.07079599f, -0.01212393f, -0.07535835f, -0.06815833f, -0.01779861f, -0.03333989f, -0.15738827f, -0.07237271f, -0.01219872f, -0.06278770f, -0.08762792f, -0.01941523f, -0.01919829f, -0.02172751f, -0.04061270f, 0.01340808f, -0.04922301f, -0.06616098f, 0.01439481f, -0.14538759f, -0.05731572f, -0.09550086f, -0.16187130f, -0.11304427f, -0.00976196f, 0.02798116f, 0.03677269f, 0.05343270f, 0.03570066f, 0.03465107f, 0.02854237f, 0.03885709f, 0.03850849f, 0.05945934f, -0.01532353f, -0.07795856f, -0.06355055f, -0.08010493f, 0.01786595f, 0.00659779f, -0.00428690f, 0.00371461f, -0.01587678f, 0.00266120f, 0.05453989f, 0.04438598f, 0.00161448f, 0.03693514f, -0.01783213f, -0.11627915f, -0.01876776f, 0.01023351f, -0.02947311f, 0.00551607f, -0.07028388f, -0.08855368f, -0.04002031f, -0.09405061f, -0.02063221f, -0.01742386f, 0.02723571f, 0.03630181f, 0.05764590f, 0.04391584f, -0.04331433f, -0.10320082f, -0.12602852f, -0.14452079f, -0.03601236f, -0.01529197f, 0.07715764f, 0.03304475f, -0.03099917f, 0.01463568f, -0.00609144f, -0.01584720f, -0.01487617f, -0.02129661f, -0.04565222f, 0.00741433f, 0.05468626f, 0.03610452f, 0.02390175f, 0.04448935f, 0.02020486f, 0.05602134f, 0.00658589f, 0.05316016f, 0.08971809f, 0.00147375f, -0.05478645f, -0.05634636f, -0.00082391f, -0.02058244f, 0.01041381f, 0.01639963f, -0.00502287f, 0.01831324f, -0.01627844f, -0.07908371f, 0.02528591f, -0.08886389f, 0.01113798f, 0.02736016f, -0.00467523f, 0.04602610f, 0.01686920f, 0.02284555f, 0.03346103f, -0.00795047f, -0.01996824f, 0.00216487f, 0.04253893f, 0.00031658f, 0.01502019f, -0.02597532f, -0.00567700f, -0.03470031f, 0.00960528f, -0.01004329f, -0.01831437f, 0.06018921f, 0.01921104f, -0.01794562f, -0.08595397f, -0.07007570f, -0.05081220f, -0.11622608f, 0.03340523f, 0.21313281f, 0.02650168f, 0.01940257f, -0.00344493f, 0.07244058f, 0.08295199f, 0.04596323f, 0.00685184f, 0.05484718f, 0.05846691f, -0.04628615f, 0.03655077f, 0.01936466f, 0.00682324f, -0.02384455f, 0.02945408f, 0.05038508f, -0.02470368f, 0.03560452f, 0.05943093f, -0.03120971f, -0.08468910f, -0.03382821f, -0.13010235f, -0.15671931f, -0.01062835f, 0.02435515f, -0.00550611f, 0.00760223f, -0.06126268f, -0.15205033f, -0.07131925f, -0.04047855f, -0.05154899f, -0.01900861f, -0.03404360f, -0.05801794f, -0.08835568f, -0.11937276f, -0.00803929f, -0.01349381f, 0.02164829f, 0.04601840f, -0.01926086f, -0.04350835f, -0.04599398f, -0.07461856f, 0.00722426f, 0.01228016f, 0.00901344f, -0.10763953f, -0.13114606f, -0.16996421f, -0.03808827f, -0.10643093f, -0.01864668f, 0.02776027f, 0.05170435f, 0.02336970f, -0.01628404f, 0.05009070f, 0.05350382f, -0.00164201f, 0.04865046f, -0.00205695f, -0.05700494f, -0.04600370f, -0.02058674f, -0.03518573f, 0.04503790f, 0.02037791f, -0.05856225f, 0.01021311f, 0.02891176f, 0.00373115f, 0.05762519f, -0.05912205f, -0.02885802f, 0.03177818f, -0.00150687f, -0.02296394f, -0.05217652f, -0.05787802f, -0.02464306f, -0.08637353f, -0.04900911f, 0.05777458f, -0.00248341f, 0.01883799f, -0.04920641f, 0.07803568f, 0.02872702f, -0.02025092f, 0.03241585f, -0.02772366f, -0.10187338f, -0.04116990f, -0.01134666f, -0.05852824f, -0.01807235f, -0.08006987f, 0.04476499f, 0.03760794f, -0.01850604f, -0.06007055f, -0.12260087f, -0.01483767f, -0.02405520f, 0.00164418f, -0.04062524f, -0.04581273f, 0.03600910f, -0.01216832f, -0.07298410f, -0.11317047f, 0.03357081f, 0.06693074f, 0.06979305f, -0.03600393f, -0.00251599f, -0.07060599f, -0.06317086f, -0.01434459f, -0.11338209f, -0.04627180f, 0.02720395f, -0.03809055f, 0.00499606f, -0.02631136f, -0.01433827f, -0.13275996f, -0.09001198f, -0.04691137f, -0.05091843f, -0.13971537f, -0.03303621f, -0.01834087f, 0.01740252f, -0.00615713f, -0.02987005f, -0.06382914f, -0.04517858f, -0.02682980f, 0.00400216f, -0.03075270f, 0.02076019f, 0.05082635f, 0.00540980f, 0.01804651f, 0.02761614f, 0.01047729f, -0.00224353f, -0.04807426f, 0.01512453f, -0.06309415f, -0.03945910f, -0.04424288f, 0.01034754f, -0.10727752f, -0.09592807f, -0.02190178f, 0.02472850f, -0.04087598f, 0.02993422f, -0.03726301f, -0.00834319f, -0.01929650f, 0.01222716f, -0.00921017f, 0.06981600f, -0.02150313f, 0.02344962f, -0.04553521f, 0.07205993f, -0.02985338f, -0.13013114f, -0.07046892f, -0.04339482f, -0.06928045f, -0.09860794f, 0.08799646f, 0.01752619f, -0.00332064f, 0.00241688f, 0.04414167f, -0.00058560f, -0.02207538f, 0.01791769f, 0.02107541f, -0.04057950f, 0.06973780f, 0.02866321f, 0.06704938f, 0.02444217f, 0.07633609f, 0.01800431f, -0.02505832f, -0.04315645f, -0.06658215f, -0.03489578f, -0.04772764f, -0.04257833f, -0.01452650f, -0.09219047f, -0.03634189f, -0.04947559f, 0.02593911f, 0.03142080f, -0.05161707f, 0.07991955f, -0.05489821f, 0.06663407f, -0.01932269f, 0.02328865f, 0.02876149f, -0.07377189f, -0.03955303f, -0.01364744f, -0.02411871f, -0.02412891f, -0.11242912f, -0.00390088f, -0.07489400f, -0.07973175f, -0.04237936f, -0.10594679f, -0.01979668f, -0.00739021f, -0.01236760f, -0.11585446f, -0.03722061f, -0.00840058f, 0.01882412f, -0.06063518f, -0.02743978f, 0.02791816f, -0.01465943f, -0.04099443f, 0.05426588f, 0.04474323f, -0.05372436f, -0.08552372f, -0.08768451f, -0.08460790f, -0.09293748f, 0.01774935f, -0.01563584f, 0.06159773f, -0.03770884f, 0.07019727f, -0.01684297f, 0.07865668f, 0.05701787f, -0.04543572f, 0.08023741f, -0.06925373f, -0.11819257f, -0.07623339f, -0.06970876f, -0.00406172f, -0.06916607f, 0.05279759f, -0.00241835f, 0.02736379f, 0.01639957f, -0.02788652f, 0.02734642f, 0.04763087f, -0.00611751f, 0.01801316f, 0.03041178f, 0.06671908f, 0.01318573f, 0.02614076f, -0.02395393f, -0.00419697f, 0.01658226f, 0.02161820f, 0.02660760f, -0.01032519f, -0.03051091f, -0.06679023f, -0.05543299f, 0.02186126f, -0.08188749f, 0.03842885f, -0.03866949f, -0.05227528f, -0.02016038f, 0.01296768f, -0.06333014f, 0.01379705f, -0.06900789f, -0.03828676f, -0.09209719f, -0.02961423f, 0.02508210f, 0.02192118f, 0.03058360f, 0.02380737f, -0.01304251f, -0.00335249f, -0.02298237f, -0.02529447f, 0.01856081f, 0.03620677f, 0.06214513f, 0.04980740f, 0.04872295f, 0.05233946f, -0.01624521f, 0.02382883f, 0.04940693f, -0.00927750f, -0.02763112f, -0.06788711f, -0.05594718f, -0.12018204f, -0.03892414f, -0.12665582f, -0.03638245f, -0.06062337f, -0.02589596f, -0.01572028f, -0.03296950f, 0.06939816f, -0.06702697f, 0.01425384f, -0.04274791f, -0.03369329f, -0.08429056f, -0.04791276f, -0.05405668f, -0.01382401f, -0.08941961f, -0.00437976f, -0.05877976f, -0.06199467f, -0.04021140f, 0.00967859f, 0.01961407f, 0.07018849f, 0.00735773f, 0.02033312f, 0.02966245f, -0.02016242f, -0.04954739f, -0.03424134f, 0.00478024f, -0.03295927f, 0.04976957f, 0.09657154f, 0.01212138f, 0.08838332f, 0.03808955f, -0.00045523f, 0.01719502f, -0.02609381f, 0.03839465f, 0.00037273f, -0.12335285f, -0.10501546f, -0.09559221f, -0.09532974f, -0.11607748f, -0.00871575f, 0.00879564f, -0.08042923f, -0.00255889f, -0.01632141f, -0.01237004f, 0.01779144f, 0.03075378f, 0.02734971f, 0.04388538f, -0.07813367f, 0.02033913f, 0.02373666f, -0.02335248f, 0.01339696f, -0.04298969f, -0.02214774f, -0.08070253f, -0.10323287f, 0.02960963f, -0.13257651f, -0.03546997f, -0.15780507f, -0.11804089f, -0.09387340f, -0.03866577f, 0.01445251f, 0.04863111f, -0.01162513f, -0.02001774f, 0.04873766f, -0.01954716f, 0.01094893f, 0.04040787f, -0.02510362f, -0.11396071f, -0.02163139f, -0.05521427f, -0.03288548f, -0.07624043f, -0.02497260f, 0.08070397f, 0.00246383f, 0.04387379f, 0.03496424f, -0.02617636f, 0.05892156f, -0.01067742f, -0.04246784f, 0.03649541f, -0.14995833f, -0.09527219f, -0.18984413f, -0.08834252f, -0.04067222f, -0.07570537f, 0.02742726f, -0.00997088f, -0.03085446f, 0.06117236f, 0.04470480f, 0.04268315f, 0.00794932f, 0.03159284f, 0.00394355f, 0.01797442f, 0.03690454f, -0.05160327f, 0.04840113f, 0.05587468f, -0.02469145f, 0.04901272f, -0.03365951f, 0.01898729f, 0.08198589f, -0.02860358f, -0.04145227f, 0.02020586f, 0.05890964f, -0.05447880f, -0.05506763f, -0.00189880f, -0.02223219f, 0.02030473f, 0.01963338f, -0.00899882f, 0.00884674f, -0.04137648f, -0.00425468f, 0.06533758f, 0.01877997f, 0.00736973f, -0.00233596f, 0.04737052f, 0.00745325f, 0.00599211f, 0.02841691f, 0.04346539f, 0.01672698f, 0.01745673f, 0.00842007f, 0.00259849f, 0.12758870f, 0.00179946f, 0.00982934f, -0.00546472f, 0.00845461f, 0.03975415f, 0.00390300f, 0.02505098f, -0.12117524f, -0.02873755f, -0.03248702f, -0.05721178f, -0.05999218f, 0.03891059f, -0.08654429f, 0.02496709f, -0.03063502f, 0.04545794f, -0.05187892f, 0.02280565f, -0.05036832f, 0.03048964f, -0.01703664f, -0.09278908f, -0.10750056f, -0.06803803f, -0.07002615f, -0.11618063f, 0.01506759f, 0.03818327f, -0.02638718f, -0.04023159f, 0.00365471f, 0.00059608f, 0.05458625f, 0.03072086f, 0.00408529f, -0.04433076f, -0.09963128f, 0.03336727f, -0.02688814f, -0.00057949f, -0.05068921f, -0.03156864f, 0.03715303f, -0.00921217f, 0.00662945f, -0.00192900f, -0.00940647f, -0.02506865f, -0.02097354f, 0.01760230f, 0.05331936f, -0.05641444f, -0.14293447f, -0.09711046f, -0.04591866f, -0.10525081f, -0.02152890f, 0.01078093f, -0.03748441f, -0.09386535f, -0.06806022f, 0.06665111f, 0.04840705f, -0.05331183f, 0.03285241f, -0.02154544f, -0.04672714f, 0.04677544f, 0.01271326f, 0.03828530f, 0.01588191f, 0.05632037f, 0.04074987f, 0.00782937f, -0.00605961f, 0.02994936f, -0.16544406f, -0.13386787f, -0.16813718f, -0.07808392f, -0.10849100f, 0.00424982f, -0.04684193f, 0.02290617f, -0.00245466f, -0.03450189f, -0.01417017f, -0.06604894f, -0.03903736f, -0.07561046f, -0.00731699f, -0.10684913f, -0.03062656f, -0.01854173f, 0.00862718f, -0.02936303f, 0.06883562f, -0.01983530f, -0.00088599f, 0.01616434f, 0.05547592f, 0.01869275f, -0.01683942f, -0.07472473f, -0.05487704f, -0.03165587f, -0.14633587f, -0.11416405f, -0.07114560f, -0.14305474f, -0.13571566f, -0.04645722f, 0.01913140f, 0.02805307f, -0.01456659f, -0.00814650f, 0.02968679f, -0.01232773f, 0.02429670f, 0.09856031f, 0.07946634f, 0.05101544f, 0.07564901f, -0.00254114f, -0.03033644f, 0.05977193f, -0.08155240f, 0.05911361f, -0.04532532f, 0.07074095f, 0.05711192f, 0.01352535f, -0.02024091f, 0.01027839f, -0.01802146f, -0.05964059f, 0.00509356f, -0.00043588f, -0.01818570f, -0.05093202f, -0.04008035f, -0.00541668f, 0.13203020f, -0.01953633f, 0.01977186f, 0.03145815f, -0.03065726f, 0.03956474f, 0.04259115f, 0.02933075f, 0.03860589f, -0.03930791f, -0.01297277f, 0.01105503f, 0.03924485f, 0.01991058f, 0.07678228f, 0.00783621f, 0.01870097f, 0.08711703f, -0.04409116f, -0.05189594f, 0.00119541f, -0.02212721f, -0.00636013f, 0.00389736f, -0.02079692f, -0.04505863f, -0.13762569f, -0.01355258f, 0.01870567f, -0.02952396f, 0.00317821f, -0.05147800f, -0.01563886f, 0.00810007f, 0.01884820f, 0.00247999f, -0.07046334f, -0.02777350f, -0.00741993f, -0.09671241f, -0.02892824f, -0.16022922f, -0.02396051f, -0.13108125f, -0.02146968f, 0.09172088f, 0.00316497f, 0.06523848f, -0.00521367f, -0.00274402f, -0.01533099f, 0.03685858f, 0.04768628f, -0.03404531f, -0.05892500f, -0.01403859f, -0.00870615f, 0.00957435f, -0.00761549f, -0.01692089f, 0.07172889f, 0.00710364f, -0.00324635f, -0.03149200f, 0.00507493f, -0.08694617f, -0.00986091f, -0.02242216f, -0.01931955f, -0.08723923f, -0.11030471f, -0.05576594f, -0.05670980f, -0.08613768f, -0.02873437f, 0.00877739f, -0.09596960f, -0.01704379f, -0.06615935f, 0.07832209f, 0.03434063f, 0.06094291f, 0.06203585f, 0.07897095f, -0.01705329f, 0.05267161f, 0.04995691f, 0.02990498f, 0.03110529f, -0.00048657f, 0.06896483f, -0.03915099f, 0.03770605f, 0.09308012f, -0.13160524f, -0.08633462f, -0.14530680f, -0.08079910f, -0.10693767f, -0.00147620f, -0.04394780f, 0.01289809f, -0.06276070f, 0.01285147f, -0.02392041f, 0.00787827f, -0.04638273f, -0.07436804f, -0.06177139f, -0.10074215f, -0.08917985f, -0.07970309f, -0.08211794f, -0.08565525f, 0.07643877f, -0.00008648f, -0.00019618f, 0.08036283f, -0.00402868f, 0.05537568f, 0.03062044f, 0.01056775f, -0.03474167f, 0.03821213f, -0.08612622f, -0.06420273f, -0.06506567f, -0.03587186f, -0.01160206f, -0.00096982f, -0.00098858f, 0.01609867f, 0.03737530f, 0.00415252f, 0.01619010f, 0.02965182f, 0.02598417f, 0.00161709f, -0.03212703f, -0.01665848f, 0.08377349f, -0.04784516f, -0.05585593f, -0.03640313f, -0.01852443f, 0.01604344f, 0.03732635f, 0.04645679f, -0.01618714f, -0.02820617f, -0.07572549f, 0.02089463f, -0.06004219f, -0.05879406f, -0.02035412f, -0.04225329f, 0.00021024f, -0.01701734f, -0.01697290f, -0.01912612f, -0.02986212f, -0.07508541f, -0.08909486f, -0.07312883f, 0.02843401f, 0.04159135f, 0.00423582f, 0.04931981f, 0.04272475f, -0.02951212f, -0.00636972f, 0.00684462f, -0.00611331f, -0.03380410f, 0.05993394f, 0.07325318f, 0.00820116f, 0.03162675f, 0.06216532f, -0.01196285f, 0.03198572f, 0.02758545f, 0.01975737f, 0.02177791f, -0.08706445f, -0.08111906f, -0.12308127f, -0.08311359f, -0.13660969f, -0.03552405f, -0.00502245f, -0.06368563f, -0.03659659f, -0.04096351f, 0.03988266f, 0.02395504f, -0.04489306f, -0.04100550f, -0.03789156f, -0.09434035f, -0.03426076f, -0.04462600f, -0.01520617f, -0.02622247f, -0.02787782f, -0.06213563f, -0.09234550f, -0.03333310f, -0.04048220f, 0.06076381f, 0.02388462f, 0.08258042f, -0.01837242f, 0.07769926f, -0.07300574f, -0.07610124f, -0.02052342f, -0.07222238f, -0.02173960f, 0.00506945f, 0.10634439f, 0.11732010f, 0.07363097f, 0.11562557f, 0.01404633f, 0.06219039f, 0.08429093f, 0.09145337f, 0.01922361f, -0.07653173f, -0.12224176f, -0.12856323f, -0.09262770f, -0.11823843f, -0.04927975f, 0.02745923f, -0.00920808f, -0.00119690f, -0.00118924f, -0.02123765f, -0.00026091f, 0.10215137f, -0.04097436f, 0.05094482f, -0.01369487f, 0.00648434f, -0.04623758f, -0.00332234f, -0.01480441f, -0.00427169f, -0.07647685f, -0.08426251f, -0.08589021f, -0.01172040f, -0.07467949f, -0.02534564f, -0.03723953f, -0.07564454f, -0.07483880f, -0.01947879f, 0.00948285f, 0.03426039f, 0.05106661f, -0.02088236f, 0.05233102f, -0.03684426f, 0.00770858f, 0.02946560f, 0.01809775f, -0.15063587f, -0.02066649f, -0.10142048f, -0.03575673f, -0.05902887f, 0.04555037f, 0.07384759f, 0.03767172f, 0.04645637f, 0.03649915f, 0.01485958f, -0.03667967f, -0.08296172f, 0.00985013f, 0.01348561f, -0.06883581f, -0.12504756f, -0.05870206f, -0.03912153f, -0.03669588f, -0.01728083f, 0.00301315f, -0.10573719f, -0.05883944f, -0.02613982f, -0.04297310f, 0.02105664f, 0.06949926f, 0.01924584f, 0.02470486f, -0.07167046f, 0.01217896f, -0.04027443f, -0.07363664f, 0.00094675f, 0.00122129f, 0.02094204f, -0.00634292f, 0.02551732f, 0.06883845f, -0.00568425f, -0.02889640f, -0.00248449f, 0.00693303f, -0.11327128f, -0.03629182f, -0.06997446f, -0.06169382f, -0.05398645f, 0.00624237f, -0.09960333f, -0.01272913f, -0.09235997f, 0.00573325f, 0.00006017f, -0.03518558f, 0.05738312f, -0.02772899f, 0.03171726f, 0.02432376f, -0.01185363f, -0.05906922f, -0.03869601f, -0.01527350f, -0.01765575f, -0.00311444f, 0.03291953f, 0.04040473f, 0.05359999f, 0.01316148f, 0.00826194f, -0.00248741f, -0.06466640f, -0.03615265f, -0.08719674f, -0.06804011f, -0.02820861f, -0.09405152f, -0.08682145f, -0.08519869f, -0.05110721f, -0.08471358f, -0.05466633f, -0.08324719f, -0.02919317f, 0.01441464f, 0.00574733f, -0.00967991f, -0.04708095f, -0.05667832f, -0.02793854f, -0.02847300f, 0.01333864f, -0.01790636f, -0.06744212f, -0.04249344f, -0.08072345f, -0.05805925f, -0.03695966f, -0.02270707f, 0.07240206f, -0.03462925f, -0.05541014f, 0.00521465f, -0.02363336f, -0.09877605f, -0.03755705f, 0.01658945f, -0.05810924f, -0.00990291f, 0.03846241f, 0.05891290f, 0.03992808f, -0.01255336f, 0.05272666f, -0.01702775f, -0.03031512f, 0.08389500f, 0.06508098f, -0.03752500f, -0.05238568f, -0.08236869f, -0.06523460f, -0.02513410f, -0.10791803f, -0.09436544f, -0.01579174f, -0.07588321f, -0.06598047f, -0.05895108f, 0.07515372f, 0.05933288f, -0.03272125f, -0.00816371f, 0.03391779f, -0.09854517f, 0.00187817f, -0.05683342f, 0.00956376f, -0.02408892f, -0.06886402f, 0.00016960f, -0.06528622f, -0.04994634f, -0.06276558f, -0.07637827f, -0.05741370f, -0.07118069f, -0.11699992f, -0.06312796f, -0.03693395f, 0.04572295f, 0.02737038f, 0.02274356f, -0.01229314f, 0.03881200f, 0.03963634f, 0.01228348f, -0.01932403f, -0.00307847f, -0.06223676f, 0.02155422f, 0.03704885f, 0.03517969f, -0.03773192f, -0.00043133f, -0.00277365f, 0.04114815f, 0.07840915f, 0.00854670f, -0.00132468f, -0.01075056f, -0.04148181f, -0.04093627f, -0.06902565f, -0.09593906f, 0.01503774f, -0.10093858f, -0.09152713f, -0.03826299f, -0.03241000f, 0.04756069f, 0.04790806f, 0.02406997f, 0.02509249f, -0.00322930f, 0.00659554f, 0.07446960f, -0.00049233f, 0.03708648f, 0.06693199f, 0.06720268f, -0.01348321f, -0.05711110f, 0.06506255f, -0.03340381f, 0.04620802f, 0.00596352f, -0.07155675f, 0.02914096f, -0.00943202f, 0.02738516f, 0.04639368f, 0.04467409f, -0.06807858f, 0.04062592f, -0.00631569f, 0.00276046f, 0.05233685f, -0.01113397f, 0.03555744f, 0.09964404f, -0.02872080f, 0.02706699f, 0.13520499f, -0.03842340f, 0.01117198f, 0.02795425f, -0.03315789f, 0.02683268f, 0.02868035f, 0.03337866f, 0.03483253f, 0.05640265f, 0.00201294f, 0.02603079f, 0.01799104f, 0.06562908f, -0.01006849f, 0.00810829f, -0.03060781f, 0.03085285f, 0.02670219f, -0.02089201f, -0.00113885f, -0.01932694f, 0.00317331f, -0.02401530f, -0.00473182f, -0.01003640f, 0.04378578f, -0.02461730f, 0.01422614f, 0.01086068f, 0.03886689f, 0.01030204f, 0.00147115f, 0.02758066f, -0.05697349f, -0.01602735f, -0.11768700f, -0.06632212f, -0.07831870f, -0.07609083f, -0.10698625f, 0.07525037f, 0.10695697f, -0.06247608f, 0.06202781f, 0.07154886f, 0.07931834f, -0.03206917f, -0.01234520f, -0.01986076f, -0.05051236f, -0.02907107f, -0.00418534f, 0.05429879f, 0.00236876f, -0.00906114f, -0.02168841f, 0.03900584f, -0.04276014f, 0.04699397f, 0.03680386f, 0.06397962f, -0.00983012f, 0.01115683f, -0.08336759f, 0.01805481f, -0.08643865f, -0.08219540f, -0.09292333f, -0.10485584f, -0.10556670f, -0.05015760f, -0.05719792f, 0.01387141f, -0.07711270f, -0.04871919f, 0.03321591f, 0.10799235f, 0.04133645f, 0.09762086f, 0.08894680f, -0.03420200f, 0.05075682f, 0.01089581f, -0.01247363f, 0.04048640f, 0.00724375f, -0.00342636f, -0.01865241f, 0.00693830f, 0.01825813f, -0.13804746f, -0.06897026f, -0.14219324f, -0.08585855f, -0.00262163f, -0.06290349f, -0.05612167f, -0.04785039f, -0.01260691f, -0.03014765f, -0.06500773f, 0.00611775f, -0.11096185f, 0.00590684f, -0.04178681f, -0.00667434f, -0.07643220f, -0.06059153f, -0.02075301f, -0.08067263f, -0.03194310f, 0.06056101f, -0.02312416f, -0.06677973f, -0.02915090f, 0.02113367f, 0.02745595f, -0.05244303f, -0.04036878f, 0.02206704f, -0.03244212f, 0.02717613f, 0.00286065f, 0.01221311f, -0.08871092f, -0.04554648f, 0.03942754f, -0.00949562f, -0.07050552f, -0.00578534f, -0.08051507f, -0.04383625f, -0.05982441f, -0.08795185f, -0.06025429f, -0.13905227f, -0.02340769f, -0.03826281f, -0.01999835f, -0.10461581f, 0.06040755f, 0.06664538f, 0.03302216f, 0.04717638f, -0.08310751f, -0.07436991f, 0.02410447f, 0.03832645f, -0.10965173f, -0.04498090f, -0.00342714f, 0.02679704f, 0.03877923f, 0.02202108f, 0.01653638f, -0.14855994f, 0.04081810f, -0.03077876f, -0.03141617f, -0.10131546f, -0.02849800f, -0.03685327f, 0.00599379f, 0.00920210f, -0.03698840f, -0.05941049f, -0.05236174f, -0.03871248f, -0.00025169f, -0.06146370f, 0.01799886f, -0.00931652f, 0.00644763f, 0.03792452f, 0.06767578f, 0.02597478f, -0.00180804f, 0.03832427f, -0.05030044f, -0.01034405f, -0.05852360f, -0.07120569f, -0.02199080f, -0.00232098f, -0.04782674f, -0.08004662f, -0.07697412f, -0.00284000f, -0.04435233f, -0.04214625f, -0.04654306f, 0.02772929f, -0.08715677f, 0.01960845f, -0.00803910f, 0.03730053f, 0.08402676f, 0.01552268f, 0.00066905f, 0.05826212f, -0.13250396f, -0.01840667f, -0.04687558f, -0.08505397f, -0.07809961f, 0.06052380f, -0.01413072f, 0.08781914f, -0.00376149f, 0.10561805f, -0.02548069f, 0.01507165f, -0.01980177f, -0.01385758f, 0.01283576f, 0.10143010f, 0.03353498f, 0.09294349f, 0.11431547f, 0.08207127f, 0.08274747f, 0.02841974f, -0.02329218f, -0.02655168f, 0.05493035f, -0.03516757f, -0.01770288f, -0.06332397f, 0.00220329f, -0.04421823f, -0.00403832f, 0.03250466f, -0.00290659f, -0.03890908f, -0.06161114f, -0.06367294f, -0.01612535f, 0.08633276f, -0.04343056f, -0.00279319f, -0.04953409f, -0.00563148f, -0.08575489f, -0.02611599f, -0.04069124f, -0.05189520f, -0.05454480f, -0.03647723f, -0.00655569f, -0.09160177f, -0.04366752f, -0.06102762f, -0.03372383f, -0.05442776f, -0.05338283f, -0.01290248f, -0.03241131f, 0.00775417f, 0.02704913f, -0.09889378f, 0.02468640f, 0.02446030f, 0.00740024f, 0.01346773f, 0.04432976f, -0.13348499f, 0.01288697f, -0.01532472f, -0.02144945f, -0.03520191f, -0.09846247f, -0.05541497f, -0.04442868f, -0.11260581f, 0.00616858f, -0.00846272f, 0.04724010f, 0.01130523f, 0.09240165f, 0.07353862f, -0.06785546f, -0.01340978f, -0.03427124f, -0.01397573f, 0.04460532f, -0.02633922f, 0.03535489f, 0.01902250f, -0.02415811f, 0.06864890f, 0.02255398f, 0.01744607f, -0.06959739f, -0.00622509f, 0.01942560f, 0.00706629f, 0.08587179f, 0.00171290f, 0.00736214f, -0.01315937f, 0.05547108f, 0.14068487f, 0.11736847f, 0.13190024f, 0.07148214f, 0.01567506f, -0.01926241f, -0.05328737f, 0.00894170f, -0.04509403f, 0.00865279f, -0.00213411f, -0.02075549f, 0.00685399f, 0.00374968f, -0.01392935f, -0.00719814f, -0.01432496f, 0.00889086f, -0.03690859f, 0.00671239f, 0.01746799f, 0.03498578f, 0.02403173f, 0.06494103f, 0.00362742f, -0.00780447f, 0.04493985f, 0.01139442f, -0.00682721f, 0.00528267f, -0.00296351f, 0.00531125f, -0.03449845f, 0.00139382f, 0.02306456f, 0.06304228f, 0.07742690f, 0.00166748f, -0.03043859f, -0.07299140f, -0.00883986f, -0.04679613f, -0.08063726f, 0.00979911f, 0.07397570f, -0.03608230f, 0.03245497f, -0.09366108f, -0.04039211f, 0.08795317f, 0.00434460f, 0.03358907f, 0.06032444f, -0.03922916f, -0.03884108f, -0.03745872f, 0.04487831f, 0.07588076f, -0.01641818f, 0.08261038f, 0.03958368f, 0.00945036f, 0.01796473f, -0.01885787f, -0.17073160f, -0.04044417f, 0.02366296f, 0.03450238f, -0.08005707f, -0.01573952f, -0.07425851f, 0.01008358f, 0.05377073f, 0.01475940f, 0.00740947f, -0.07654064f, 0.00170838f, -0.08642673f, -0.08409334f, -0.02632144f, -0.09968204f, -0.12500867f, -0.13172072f, 0.05885006f, -0.01396039f, -0.04174292f, -0.00492727f, -0.02461056f, -0.02209932f, -0.03142448f, -0.06184495f, 0.00099306f, -0.00452707f, 0.02504438f, -0.12541689f, 0.01552935f, -0.10388900f, -0.13839841f, 0.00346309f, 0.02853044f, 0.01711518f, 0.05950707f, 0.04542378f, 0.01868489f, 0.13075459f, 0.07499019f, 0.11583613f, 0.04012402f, -0.00632452f, -0.03669146f, -0.07037139f, -0.04823537f, -0.06222438f, -0.01189560f, 0.00205183f, -0.03074190f, -0.01375055f, 0.06666955f, 0.03903787f, 0.08209124f, 0.01670006f, 0.02065930f, 0.00715102f, -0.01287823f, -0.16223252f, -0.06377165f, -0.07986709f, -0.01169420f, -0.06599353f, 0.04783376f, 0.09384838f, -0.03681314f, 0.01487865f, -0.00197085f, -0.02439685f, 0.02996961f, -0.04825227f, -0.06882770f, -0.01264962f, -0.10356884f, -0.09444165f, -0.15642108f, -0.06006658f, -0.01959399f, -0.04725719f, -0.00794162f, 0.00043367f, -0.07081291f, -0.03803313f, 0.02953153f, 0.01758964f, 0.03684393f, 0.02973147f, 0.05488545f, 0.02280487f, 0.02024441f, -0.01810848f, -0.04108387f, 0.02734104f, 0.00225498f, 0.00383807f, -0.03062325f, 0.06828959f, 0.02975953f, -0.02019498f, -0.03317673f, 0.01894034f, 0.05260180f, -0.08764859f, -0.03668187f, -0.05902217f, -0.05913435f, -0.00848559f, -0.00598471f, -0.03139316f, 0.00196885f, -0.07764516f, -0.05235375f, 0.03198804f, 0.02182599f, 0.01136348f, 0.01382616f, -0.00644223f, 0.02532206f, -0.01647493f, -0.04885400f, 0.02187597f, 0.01232113f, -0.00487208f, 0.06754338f, 0.06445065f, 0.12829591f, 0.05671472f, 0.07232860f, 0.03227919f, 0.01305989f, 0.06036827f, -0.00646614f, -0.01810741f, -0.04177494f, -0.01000085f, -0.01839228f, -0.06919132f, -0.03980636f, 0.04834346f, -0.02848216f, 0.02769576f, -0.03754995f, -0.00904280f, -0.00279848f, 0.01124683f, -0.04360406f, -0.02239358f, -0.00134765f, -0.09061564f, -0.02396634f, -0.10386062f, -0.05526591f, -0.12878643f, -0.04932513f, -0.02779696f, 0.01970877f, 0.01684442f, -0.01859439f, 0.06745949f, 0.02052287f, 0.00603198f, -0.03935036f, 0.01781229f, -0.09695630f, 0.03396309f, -0.03261491f, 0.03437399f, -0.01484048f, 0.08285665f, 0.00434338f, 0.02890439f, 0.02111009f, -0.00599684f, -0.00406725f, 0.01780574f, 0.02694882f, 0.07404272f, 0.02826319f, -0.04645986f, -0.13784088f, -0.07713695f, -0.06189517f, -0.08657768f, -0.03876597f, 0.01493499f, -0.02605595f, -0.09514909f, -0.05208699f, 0.03058099f, -0.00022298f, 0.04805032f, 0.10655586f, 0.12761721f, -0.05620493f, 0.02365249f, 0.02161739f, 0.02690030f, 0.05822468f, -0.02905458f, 0.04370281f, -0.05019606f, -0.03170812f, 0.04432187f, -0.18696885f, -0.08136138f, -0.17986286f, -0.12634806f, -0.04933738f, 0.04179041f, -0.00902293f, -0.02027308f, -0.02244209f, -0.02094287f, -0.02910959f, 0.02343911f, -0.06455741f, 0.01509751f, -0.04436755f, -0.01969549f, 0.06697930f, 0.03907143f, 0.04288675f, -0.02805458f, -0.08134975f, -0.05722096f, -0.00969858f, -0.10572943f, -0.06992758f, -0.01301960f, 0.04976521f, 0.10586819f, 0.09074771f, 0.04606880f, 0.00172670f, -0.02123440f, -0.00335879f, 0.00701012f, -0.01009818f, -0.00281723f, 0.03026178f, -0.02766473f, 0.04645398f, 0.06438977f, 0.04820225f, -0.02127358f, -0.05200789f, -0.03086218f, 0.00988563f, -0.01930448f, 0.03556751f, 0.04679441f, 0.02664843f, -0.00871043f, 0.03369369f, 0.08301044f, -0.02768086f, 0.02055478f, 0.04860531f, 0.05876342f, -0.04728003f, 0.02807759f, 0.01332865f, 0.00371419f, -0.00923720f, -0.00080452f, 0.03033709f, 0.04990767f, 0.00542447f, -0.07150023f, -0.00515991f, 0.02347126f, -0.01610750f, -0.03923582f, 0.06093859f, 0.03428556f, 0.04547120f, 0.02082817f, 0.06557346f, 0.03562035f, -0.01102288f, 0.03287769f, 0.03954324f, 0.01630641f, -0.00580356f, -0.03677961f, -0.03199723f, -0.00205017f, -0.00278422f, 0.07045457f, 0.02972722f, 0.09178862f, -0.00070249f, 0.01136561f, -0.00068278f, 0.02613934f, -0.00042376f, 0.03885596f, 0.04092955f, 0.07909110f, 0.02342377f, 0.06242999f, 0.05913518f, 0.03376556f, 0.09824388f, 0.10226271f, 0.15088862f, 0.02856514f, 0.09274196f, -0.06054885f, -0.05724253f, -0.02861813f, -0.04021467f, -0.04023857f, 0.04288105f, 0.05733429f, 0.04507557f, -0.03259918f, 0.02202846f, -0.08495793f, -0.01838624f, -0.08121599f, -0.06918053f, -0.06124330f, 0.03537116f, 0.01668211f, 0.08457707f, 0.04119381f, 0.09893747f, -0.17543910f, -0.12570716f, -0.05997775f, -0.11106119f, -0.09603283f, -0.12914738f, 0.00566808f, -0.10854740f, -0.07281093f, -0.07668070f, 0.01895808f, -0.05204536f, -0.01587315f, -0.01006549f, 0.01098704f, 0.04553897f, 0.00676020f, 0.05535493f, 0.01951310f, 0.03626884f, 0.00285395f, -0.10335901f, -0.10307751f, 0.00742094f, -0.04287830f, 0.04229514f, 0.07155533f, 0.02770313f, 0.06994914f, 0.03205620f, 0.02121783f, 0.01221467f, 0.01865432f, -0.01824502f, 0.02283635f, -0.01336754f, -0.02523900f, -0.04780234f, -0.04885323f, 0.06110327f, 0.05852678f, -0.04676717f, 0.01128550f, 0.02514594f, 0.03001273f, 0.05925815f, 0.05636034f, 0.09676751f, 0.07687455f, 0.04868414f, 0.08472905f, 0.04056307f, -0.00130810f, 0.03096425f, 0.06940244f, -0.15350007f, -0.07345997f, -0.08918668f, -0.05770425f, 0.02359129f, 0.00855846f, 0.00853579f, -0.03088476f, -0.05112896f, -0.08956810f, 0.01645051f, -0.01337597f, 0.05696084f, -0.01636508f, 0.02468755f, 0.04312304f, 0.03065204f, 0.00545060f, 0.04500981f, -0.01221282f, 0.02408410f, -0.06130702f, 0.00147554f, -0.03194248f, -0.01436960f, -0.00401941f, -0.00271399f, 0.00967685f, -0.01268250f, -0.05059778f, 0.02355446f, 0.00656183f, -0.00938691f, 0.08028995f, 0.01026682f, 0.02361656f, 0.00384403f, -0.04996710f, -0.03781199f, 0.02021760f, -0.01780754f, 0.02538763f, 0.03916004f, 0.01933509f, -0.00382710f, 0.04933966f, 0.05536761f, 0.10505468f, 0.11123323f, 0.01255216f, -0.04555548f, 0.00123641f, -0.01897710f, -0.00276744f, -0.01770710f, 0.00533274f, 0.01367409f, 0.00421451f, 0.03970626f, -0.00800624f, -0.04550407f, -0.03714916f, 0.00888398f, 0.00686803f, -0.01248415f, 0.02470529f, 0.04067560f, -0.02153091f, -0.01108262f, -0.02141248f, 0.04669141f, 0.02965673f, 0.06946369f, 0.03155110f, 0.04624575f, 0.16395491f, 0.09967531f, 0.17797336f, 0.11718616f, 0.06697324f, 0.12493458f, 0.01618536f, 0.09495214f, 0.01099438f, 0.02564300f, 0.08012449f, 0.00893870f, 0.05213050f, 0.06739482f, 0.05398592f, 0.01122629f, 0.07967862f, 0.02391535f, 0.04809454f, -0.04795618f, 0.01950355f, -0.01502453f, 0.01952729f, 0.08726534f, 0.09207068f, 0.07641137f, 0.09677161f, 0.04993406f, 0.06548104f, 0.10268776f, 0.04090976f, -0.06642384f, -0.00105975f, 0.04322238f, 0.03345455f, -0.10711009f, -0.14038776f, -0.13001542f, -0.10720842f, -0.05179831f, 0.11343256f, 0.07549188f, 0.09594439f, 0.08543736f, 0.10422181f, -0.02992505f, -0.00923312f, 0.01628479f, 0.03049948f, 0.00547820f, -0.07943520f, -0.05767719f, -0.07280312f, -0.08154580f, 0.03013318f, 0.04587254f, 0.04120031f, -0.03636187f, 0.04137020f, 0.01592764f, 0.05909805f, 0.07336620f, 0.11222983f, 0.07498492f, 0.02256064f, -0.02952470f, 0.01220618f, -0.01812375f, -0.02992268f, 0.02312052f, -0.03858770f, -0.03252612f, -0.00375278f, 0.01754427f, -0.04841081f, -0.00730427f, -0.01607537f, 0.08453997f, 0.06068397f, 0.07456948f, 0.01482869f, -0.06484471f, -0.00527410f, -0.02530083f, -0.05388515f, -0.01135609f, 0.01501410f, 0.02966320f, -0.02029850f, 0.08380600f, -0.07250968f, 0.02507494f, 0.01882800f, 0.07340146f, -0.03150564f, -0.09518345f, -0.01495120f, -0.05498291f, -0.05861823f, 0.02324522f, 0.06199686f, 0.01256690f, -0.07471324f, 0.02251199f, 0.00364731f, 0.02331253f, -0.00550003f, 0.05156583f, 0.03096485f, -0.05105623f, -0.07998399f, 0.08698350f, -0.00017040f, -0.05769589f, -0.09257684f, 0.01143481f, -0.06516273f, -0.07313835f, -0.05750572f, -0.10063785f, -0.08253430f, 0.01942387f, 0.09032729f, -0.06710045f, 0.02354735f, -0.01027703f, -0.01780863f, 0.01185236f, 0.01211607f, 0.06400677f, 0.03194455f, 0.15089348f, -0.12748401f, -0.00707703f, -0.00076844f, 0.03825623f, 0.08498576f, 0.01380158f, 0.05257884f, 0.04459340f, 0.03604126f, -0.00214184f, 0.03920702f, 0.06206115f, 0.01077480f, -0.02019029f, 0.06567556f, -0.02214601f, 0.05970513f, 0.05756044f, 0.05327556f, 0.04548864f, 0.03256265f, 0.00251863f, 0.01862371f, 0.00391630f, 0.08557831f, -0.01934371f, -0.13651209f, 0.00364321f, 0.04684179f, -0.01472219f, -0.04121953f, -0.00390072f, -0.03242830f, -0.04250704f, -0.10696504f, 0.07262464f, 0.03813155f, -0.06259979f, -0.11598574f, -0.01772357f, -0.14117175f, -0.04618085f, -0.11770774f, -0.08757466f, -0.03970193f, 0.01853151f, -0.03667555f, 0.03244584f, -0.04006500f, 0.03610605f, -0.00185524f, -0.01118692f, 0.01364604f, -0.00802708f, -0.01821830f, 0.03957559f, 0.04952425f, -0.09055116f, -0.11053536f, -0.09302436f, -0.04559240f, -0.01843854f, -0.07788309f, -0.01584680f, -0.03173592f, 0.01113412f, -0.08185143f, 0.09789831f, -0.02227908f, 0.00378235f, 0.01237336f, -0.06003271f, -0.01477090f, 0.01335357f, 0.02094138f, -0.09268842f, -0.01038051f, 0.01515579f, -0.00927567f, -0.00435557f, 0.04168041f, 0.03110091f, 0.07738371f, -0.00258243f, 0.02092440f, -0.02894933f, -0.01294182f, -0.02505870f, -0.08453270f, -0.07758763f, -0.10557140f, -0.06966614f, -0.01523980f, -0.10436343f, -0.00006581f, -0.13424844f, 0.00447600f, 0.03940830f, -0.00038573f, 0.03438250f, -0.00826627f, -0.00463683f, 0.06035437f, -0.04487709f, -0.08732419f, 0.03184411f, -0.03630511f, 0.03221473f, -0.01669117f, -0.03770822f, -0.06096296f, -0.01140323f, -0.01889984f, 0.03927525f, 0.04541305f, 0.08644246f, 0.05246832f, 0.02857686f, 0.03028248f, 0.02034965f, 0.01035810f, 0.03622067f, -0.00944428f, -0.04286828f, -0.07020601f, -0.10753600f, -0.12986496f, -0.02484714f, 0.05350792f, -0.05472638f, 0.00100508f, 0.00545698f, -0.04787276f, 0.01939262f, 0.01635758f, -0.06105477f, -0.01276560f, -0.07420356f, 0.02470537f, -0.01188099f, -0.04915199f, -0.02270030f, -0.00018245f, 0.03998838f, 0.06270932f, -0.07096701f, 0.00852235f, 0.02070174f, -0.06082061f, -0.06234408f, 0.03230713f, -0.01733960f, -0.03462119f, -0.02959172f, 0.05141769f, -0.05884917f, -0.01560397f, 0.01335657f, -0.06127756f, -0.01679706f, -0.09560146f, -0.12554361f, -0.06607846f, 0.00184022f, 0.01712879f, -0.02460341f, 0.04967880f, 0.00705992f, 0.03940618f, 0.02319262f, -0.06326592f, -0.03150028f, 0.00476684f, -0.00507283f, 0.04503894f, 0.05823566f, 0.00764784f, -0.03441774f, 0.00433555f, -0.00488132f, 0.04318121f, 0.00742736f, 0.02354442f, -0.12466872f, -0.04700710f, -0.06203619f, -0.05202648f, -0.09848857f, -0.05577365f, -0.07280672f, -0.09664201f, -0.05825013f, -0.05923369f, 0.06434796f, 0.01424601f, -0.00317280f, 0.00623137f, 0.08037137f, -0.08595045f, -0.03748950f, -0.00891480f, 0.02219013f, -0.04755468f, -0.00217671f, -0.13759662f, -0.08766025f, -0.07257868f, -0.08365999f, 0.06742988f, -0.05492696f, -0.01913184f, 0.00247885f, -0.04312918f, -0.07555701f, -0.02646567f, -0.04539225f, 0.02171581f, -0.06631485f, -0.02336170f, 0.07067661f, 0.12090065f, 0.01671598f, -0.00117643f, 0.01926356f, 0.12486103f, 0.06595647f, 0.11641678f, -0.00020281f, -0.13150567f, -0.11202973f, -0.09414379f, -0.07961017f, -0.01809578f, -0.02423882f, -0.05164105f, 0.03026317f, -0.02950955f, 0.00534011f, -0.03695263f, 0.03656239f, 0.03663662f, 0.04269101f, -0.02694882f, -0.13804993f, -0.03804872f, -0.03535129f, -0.04895361f, -0.01315614f, -0.13197629f, -0.12518500f, -0.05769273f, -0.10257182f, -0.06446962f, -0.03999884f, -0.01658512f, -0.04203330f, -0.02739389f, -0.02433226f, 0.02258566f, 0.01997253f, -0.00299446f, -0.00160823f, -0.03150804f, 0.00226765f, 0.11604152f, -0.03399651f, -0.02943538f, -0.01333317f, -0.07392566f, -0.00056604f, 0.03429499f, 0.00299266f, -0.00187724f, -0.08971858f, -0.03276668f, 0.01347554f, -0.06950526f, -0.06185833f, 0.06553301f, 0.02097302f, 0.06441742f, 0.02803986f, 0.10092982f, -0.00090774f, -0.03046451f, 0.03184216f, 0.03044551f, 0.04559448f, -0.02391759f, 0.00528547f, 0.05133786f, 0.07357150f, 0.03090186f, 0.04183974f, -0.02754020f, 0.04263311f, 0.06810649f, -0.00479306f, -0.01941860f, 0.03219978f, 0.04806600f, 0.05577032f, -0.03160352f, 0.00741027f, 0.03418474f, 0.02578550f, 0.06430630f, 0.02572985f, 0.03319388f, -0.00405428f, -0.03716920f, 0.06459882f, 0.01228331f, -0.00297725f, 0.02602033f, 0.00727740f, 0.00232561f, 0.01536560f, -0.02530692f, -0.04037787f, -0.05347602f, -0.08016875f, -0.01737790f, 0.12964512f, 0.11083154f, 0.02553404f, 0.05898881f, 0.09082208f, 0.02234452f, 0.00535618f, 0.01036118f, -0.01660027f, 0.02283009f, 0.00296748f, 0.03331034f, -0.01339867f, 0.07641343f, 0.03282510f, 0.06443672f, 0.02765394f, 0.01161358f, 0.05707324f, 0.07479043f, -0.01252436f, -0.04465169f, -0.01354856f, -0.06124816f, 0.00613387f, -0.00211985f, -0.00407920f, 0.01880386f, -0.04714620f, 0.02543504f, 0.10921516f, 0.08641894f, 0.06882980f, 0.04663413f, 0.09808122f, -0.03116126f, -0.01976057f, -0.03871537f, -0.03239600f, -0.03761567f, -0.01843721f, 0.01004830f, 0.04566138f, 0.05667648f, -0.02702483f, -0.04993932f, -0.00336207f, -0.11149272f, -0.08276538f, -0.08462666f, -0.00778480f, 0.01205381f, 0.02024282f, 0.03263746f, 0.00462705f, -0.06785826f, -0.15499964f, -0.12274490f, -0.07244012f, -0.11599433f, -0.01592113f, 0.04155565f, 0.04115010f, -0.05399368f, -0.04520299f, -0.01423490f, -0.04635136f, 0.03789527f, -0.03784110f, -0.00835207f, 0.03711376f, 0.08465032f, 0.05589752f, 0.02518093f, -0.00199897f, -0.00107776f, -0.04913465f, -0.10863223f, -0.06841458f, 0.01843813f, 0.03962280f, 0.00548352f, 0.03522805f, 0.08027162f, 0.03253350f, -0.04932801f, -0.03316376f, 0.00245774f, -0.01954402f, -0.05853369f, 0.03389714f, 0.02002293f, -0.00353908f, 0.04102890f, 0.03519011f, 0.10969358f, 0.03111413f, 0.04565521f, -0.00259878f, 0.05858798f, 0.04928429f, 0.10731869f, 0.07726651f, 0.09038755f, 0.04090637f, -0.03634050f, -0.00929084f, -0.01999146f, -0.01050841f, -0.03138923f, -0.00774513f, 0.02524113f, 0.01719950f, -0.03344758f, -0.03290620f, 0.02460371f, -0.02743037f, 0.10204285f, 0.13325395f, -0.02666200f, -0.05719803f, -0.06597773f, -0.01129138f, -0.03014740f, -0.03317828f, 0.02850890f, -0.00093897f, -0.03079333f, -0.04241619f, 0.08261915f, 0.09566569f, 0.02347095f, -0.03185029f, 0.02995055f, -0.00233594f, -0.00511357f, 0.09232242f, -0.03363220f, 0.01264409f, 0.04984421f, -0.01773034f, 0.00049881f, -0.01927953f, 0.02951863f, 0.10061919f, 0.05334793f, -0.05240060f, -0.01162775f, 0.02060400f, 0.00523701f, -0.03590881f, -0.04984351f, 0.03835592f, 0.00982737f, 0.01001225f, -0.03574194f, -0.08303244f, -0.04346906f, 0.00259403f, 0.00040967f, 0.12474930f, 0.09787143f, 0.06045733f, 0.09310276f, 0.07986707f, -0.01906044f, -0.00043354f, -0.02284059f, 0.00940805f, 0.01395454f, 0.07605365f, -0.04674071f, 0.05324167f, -0.01632048f, 0.08021646f, 0.06531307f, 0.00173987f, 0.03613380f, 0.05486712f, 0.03832084f, -0.01842779f, -0.01098451f, 0.04901331f, -0.02248515f, -0.01740778f, -0.02415258f, -0.02554131f, -0.02837883f, -0.02928182f, 0.00694172f, 0.02407134f, 0.03496648f, 0.12857443f, 0.04373414f, 0.10510702f, -0.01187692f, -0.04500383f, -0.04652818f, 0.00945140f, 0.03445959f, 0.03612154f, 0.04617020f, -0.02058769f, -0.06081136f, -0.03015480f, -0.08089321f, 0.00756040f, -0.04047640f, -0.06499816f, -0.09482002f, -0.00989774f, -0.05859229f, 0.00352539f, 0.00643614f, 0.00089456f, -0.05342819f, -0.08301750f, -0.15059216f, -0.03365733f, -0.09340145f, -0.02365069f, 0.01026691f, 0.06548110f, -0.03217959f, 0.02682047f, -0.00010527f, -0.00465836f, 0.04410549f, 0.02495183f, 0.00723577f, -0.03101211f, 0.04156278f, -0.00657070f, -0.02217292f, 0.02229384f, -0.02519316f, -0.05912099f, -0.10359252f, -0.06849633f, -0.02596918f, 0.03128474f, 0.04284476f, 0.07519501f, 0.14159946f, 0.01391957f, -0.04169791f, 0.04525844f, -0.05188123f, 0.04312665f, -0.03067003f, 0.00213293f, 0.07850131f, 0.03978837f, 0.06684318f, 0.08036487f, 0.02519862f, 0.06985860f, 0.01509493f, 0.04757056f, 0.09941082f, 0.02212183f, 0.03332739f, 0.15300401f, 0.01508660f, 0.06555889f, -0.04980291f, -0.05706285f, -0.03705036f, -0.03949611f, -0.03789221f, -0.00633406f, 0.09847165f, -0.07082485f, 0.03092444f, 0.04488700f, -0.00824479f, -0.00676488f, -0.08524506f, -0.04286966f, -0.03016073f, -0.09132600f, 0.00686786f, -0.09133080f, -0.01348173f, 0.07430236f, -0.00659548f, 0.04342312f, 0.05518103f, 0.02694116f, -0.04116892f, 0.03356539f, -0.01116013f, 0.00302386f, 0.07181416f, -0.00455346f, 0.03097645f, 0.08377571f, -0.06592348f, 0.00471111f, 0.03767817f, -0.02440053f, 0.03793204f, -0.05129232f, -0.00318383f, -0.01797584f, -0.02438609f, -0.07378213f, -0.00970612f, -0.01320095f, -0.04200420f, -0.00002420f, 0.01054128f, 0.01674904f, 0.01359875f, -0.03380976f, 0.01922351f, 0.11270036f, 0.00837535f, 0.15552928f, 0.05090627f, -0.01469629f, -0.00460105f, -0.02594787f, 0.00296017f, -0.04627489f, -0.01815418f, 0.03565199f, 0.03754037f, 0.03829953f, -0.00608349f, 0.02678467f, -0.02644050f, 0.03098699f, 0.04306086f, 0.10109207f, 0.02480103f, 0.01793499f, 0.02589668f, -0.00646224f, -0.01464302f, -0.04719323f, -0.04905704f, -0.08325987f, 0.02163410f, -0.06802559f, -0.03490334f, 0.03088428f, 0.10162257f, 0.00610035f, -0.01801631f, 0.01152346f, 0.02022750f, -0.03943763f, -0.03475739f, -0.03389106f, -0.06497444f, -0.05418533f, -0.01050393f, -0.02839229f, -0.07795583f, 0.05195293f, 0.07107523f, -0.07800786f, -0.08106970f, 0.02328269f, -0.06031903f, -0.00072729f, -0.07268741f, -0.00510178f, -0.00782539f, -0.02556027f, 0.00211149f, -0.04274297f, 0.00016562f, -0.05875315f, -0.07459585f, 0.05901851f, -0.04288759f, 0.06863914f, 0.01946681f, -0.02501552f, -0.06512830f, 0.04180560f, 0.00060463f, 0.07420057f, -0.07772140f, -0.04564994f, -0.04631111f, -0.05097398f, -0.06821623f, -0.07451829f, 0.01318900f, 0.07515673f, -0.05854450f, -0.07946116f, 0.09006111f, 0.03407640f, -0.07785676f, 0.06680477f, 0.09133652f, 0.00586811f, 0.05657218f, 0.09362306f, -0.00005485f, -0.01622393f, 0.02020367f, 0.02982157f, -0.03937804f, -0.02498935f, 0.14069952f, -0.08819993f, -0.05376856f, -0.12432896f, -0.04814482f, 0.05603223f, -0.05090575f, 0.01325289f, -0.06048698f, 0.00639643f, -0.03026664f, -0.04345100f, 0.06135041f, -0.08860445f, -0.08601927f, -0.06768837f, -0.02066718f, 0.03550351f, 0.08119539f, 0.05751434f, 0.00151087f, 0.06509879f, 0.08894484f, -0.00163058f, -0.01049747f, -0.01618540f, -0.03578025f, 0.00699660f, -0.03981240f, -0.02815034f, 0.01866039f, -0.00653269f, 0.03434873f, -0.13210338f, 0.03769388f, 0.00309965f, -0.05384067f, 0.05476385f, -0.07685176f, -0.03430076f, 0.01451474f, 0.04502544f, 0.03950164f, -0.01595743f, 0.08241074f, 0.03048290f, 0.03446807f, 0.00329491f, -0.02775531f, 0.01374522f, 0.09292790f, -0.07735729f, -0.03370885f, -0.09300446f, 0.02686885f, -0.01002778f, 0.01736648f, -0.03212038f, 0.04303977f, -0.04169833f, -0.03933252f, -0.03281674f, -0.04378500f, 0.00839020f, -0.03258049f, -0.00709211f, 0.05919589f, 0.06286022f, 0.01560929f, 0.02973316f, 0.16081874f, -0.05854966f, -0.00592101f, 0.00125242f, 0.01863990f, -0.06782720f, -0.01210385f, -0.01817692f, 0.03774933f, 0.02606583f, 0.00748223f, 0.02787346f, 0.06894751f, -0.01553171f, -0.04421132f, -0.05209184f, 0.01416813f, -0.06496827f, 0.02010407f, -0.02888285f, -0.01056435f, 0.07219048f, 0.07236023f, 0.03336972f, 0.00489927f, 0.02406298f, 0.02608834f, 0.05519276f, -0.02534605f, 0.00346646f, -0.00244956f, -0.05903417f, 0.01247914f, -0.09839927f, 0.05346491f, -0.05398953f, -0.06901532f, -0.03978470f, -0.06787027f, -0.03129260f, -0.09023403f, 0.02948930f, 0.06430800f, 0.00218986f, 0.04724354f, 0.10678179f, -0.06806751f, -0.00405009f, -0.03526020f, -0.07346601f, 0.00817290f, -0.04123760f, 0.06643769f, 0.02743137f, -0.03478463f, 0.02640659f, -0.05009241f, 0.02066588f, -0.04298327f, -0.05255299f, -0.00606979f, 0.05751944f, -0.04089125f, -0.06473086f, -0.07034055f, -0.03609936f, -0.03516376f, -0.08246449f, -0.04787465f, 0.01167213f, -0.09550359f, -0.09387858f, 0.00599947f, -0.00831747f, -0.00991285f, -0.08585614f, 0.02786180f, 0.09804749f, 0.04776885f, 0.08026020f, 0.09999567f, -0.03348169f, 0.07321943f, 0.03032140f, 0.03457598f, 0.04501453f, 0.06302006f, 0.08081711f, 0.01065667f, -0.00336548f, 0.03427155f, -0.08796249f, -0.08196211f, -0.03751917f, -0.01689111f, 0.01016153f, -0.04303695f, -0.07959715f, -0.03348853f, -0.00643425f, -0.03652618f, 0.01655249f, 0.01113697f, -0.02245755f, -0.04449778f, -0.14179267f, 0.08104430f, -0.04311728f, -0.05379109f, 0.00829935f, -0.00429490f, -0.15289816f, -0.07721094f, -0.19189557f, -0.10868015f, -0.04964124f, 0.05934526f, 0.02286863f, -0.00380754f, 0.07076344f, 0.02140143f, -0.13227406f, -0.01336002f, -0.09100440f, -0.10467182f, -0.05789148f, 0.03599719f, -0.02613543f, 0.00029401f, -0.00746271f, 0.00558621f, -0.05165687f, -0.04475342f, -0.02249647f, -0.09135617f, -0.04991057f, 0.02810188f, 0.02603681f, 0.03202664f, 0.03045976f, -0.05418119f, 0.08680011f, 0.07050809f, 0.02713762f, 0.06983650f, 0.03244402f, -0.07484058f, -0.08004468f, -0.08847721f, -0.09090646f, -0.05940408f, -0.04005293f, -0.03499469f, -0.06538626f, -0.02743622f, -0.01894637f, -0.01881160f, -0.06413230f, -0.05805977f, -0.01497035f, -0.07201478f, -0.00845885f, -0.08003990f, 0.00806496f, -0.06560506f, -0.05564589f, -0.05205971f, -0.06528334f, -0.06046123f, -0.01867297f, 0.00641651f, -0.01626979f, -0.00982139f, -0.02472573f, -0.06398547f, 0.02750170f, -0.03150347f, -0.06608383f, 0.02178517f, -0.04413617f, -0.01639724f, -0.10197163f, -0.01738854f, -0.06287865f, -0.05925218f, -0.04473669f, 0.00105542f, 0.01899453f, 0.02354833f, -0.06270920f, 0.04075991f, 0.01528813f, 0.03057927f, 0.00805423f, 0.01521281f, 0.05486386f, 0.02961153f, -0.00532539f, 0.05557744f, 0.02793975f, 0.01700108f, -0.07414134f, -0.04313196f, -0.00169920f, 0.00276534f, -0.10945383f, -0.02367976f, -0.04314495f, 0.07800958f, 0.00293147f, 0.02467282f, 0.04965500f, -0.01071321f, -0.01758561f, 0.08417360f, 0.05216328f, 0.02307427f, 0.00960758f, 0.02477146f, 0.04640668f, 0.00883813f, -0.01152907f, -0.07010128f, -0.14277577f, -0.06564162f, -0.14113417f, 0.02276557f, -0.02959386f, -0.02077428f, -0.00450328f, -0.01559655f, 0.02540556f, 0.03108083f, -0.01052582f, 0.04698731f, 0.08274336f, -0.09385812f, -0.14454836f, -0.08641634f, -0.12503947f, -0.05326805f, -0.05419374f, -0.03637535f, -0.02564408f, 0.01932873f, -0.03509325f, -0.00694765f, 0.01727686f, 0.00175648f, -0.02551468f, -0.04571187f, -0.08431048f, -0.05867872f, -0.03283787f, -0.03791907f, -0.05719317f, -0.03438234f, -0.00214515f, -0.02836949f, -0.04480059f, -0.01645817f, 0.08278369f, 0.07254548f, 0.08464272f, -0.03322018f, -0.02534298f, 0.02789254f, 0.05874158f, 0.02776907f, 0.03039955f, 0.03428555f, -0.05517839f, 0.04518228f, 0.08215483f, 0.01176639f, -0.05021640f, 0.05587110f, 0.04875210f, -0.07644332f, -0.08270700f, -0.01371230f, -0.07017564f, 0.06380554f, 0.05233838f, 0.02873937f, -0.03780079f, -0.07119310f, 0.01144860f, -0.03128706f, -0.05151594f, -0.01162695f, -0.05013007f, -0.05505706f, -0.07236445f, -0.02711124f, -0.02482912f, -0.05254870f, -0.03895086f, 0.04217520f, 0.02168908f, -0.06728958f, -0.07581955f, 0.03122485f, -0.03268910f, -0.01212478f, -0.07276501f, 0.00720987f, 0.00531035f, 0.01342640f, 0.01478356f, -0.01176451f, 0.04942315f, 0.04107301f, 0.07806862f, 0.02706950f, 0.02042321f, -0.03976437f, 0.01344329f, 0.07565203f, 0.08451347f, -0.07673200f, -0.02935263f, -0.03923215f, -0.03289234f, 0.00680577f, -0.03043539f, -0.04932524f, -0.02544103f, 0.00647654f, 0.00192856f, -0.05176359f, 0.04683188f, 0.03045008f, -0.03471669f, 0.05784960f, -0.04305555f, -0.06294584f, -0.00863602f, -0.04027935f, -0.02101397f, -0.07866759f, -0.06487134f, 0.04762651f, -0.00499891f, -0.02857231f, -0.04968611f, -0.07710218f, 0.04561527f, 0.02548731f, 0.08615616f, -0.03773654f, 0.01645178f, 0.01742562f, -0.02390472f, -0.02812427f, 0.08397823f, 0.03838153f, 0.06191377f, 0.04738792f, 0.04516827f, 0.08274325f, -0.06275219f, -0.02518434f, 0.01012201f, -0.07710311f, -0.06915489f, 0.12460484f, 0.09278129f, 0.02957944f, -0.01837433f, 0.08027977f, 0.06175467f, -0.02089095f, 0.04452710f, 0.05538414f, 0.08517915f, 0.15826777f, 0.08607928f, 0.00049455f, 0.08127316f, 0.12543783f, 0.03983786f, -0.01674888f, 0.02201897f, -0.04679016f, -0.02449824f, -0.00170584f, 0.04146145f, 0.02621867f, 0.00652691f, 0.02344883f, -0.03188514f, -0.05747850f, 0.02888054f, -0.06679531f, -0.05509906f, -0.06927215f, 0.03185137f, -0.01412772f, -0.03422893f, 0.05007983f, -0.01828834f, 0.01811432f, 0.01838581f, -0.01664186f, -0.01599566f, -0.08478475f, -0.00460494f, -0.01227737f, -0.02969554f, -0.13075967f, -0.07593973f, 0.00774147f, 0.00126651f, -0.01801495f, -0.01985464f, -0.05383264f, -0.10357412f, 0.01355825f, -0.00617492f, -0.10964895f, -0.10206118f, -0.07631287f, -0.02866211f, 0.05363277f, 0.01714378f, -0.11178330f, -0.13058557f, -0.10397815f, -0.07865673f, -0.11104257f, -0.00167432f, 0.01324894f, 0.02976823f, -0.05674051f, -0.01478860f, -0.02261440f, 0.00911923f, -0.01396498f, -0.05064110f, 0.04225323f, -0.10175736f, -0.08159634f, -0.04053787f, -0.06364217f, -0.06187157f, -0.08058307f, 0.02720616f, -0.03582685f, 0.00257307f, -0.04481665f, -0.04594849f, -0.03006668f, 0.04119383f, -0.04170602f, -0.02030156f, -0.00805044f, -0.00611098f, -0.03984090f, -0.06607291f, -0.00104170f, -0.02229022f, -0.02613474f, -0.06086554f, 0.02720542f, -0.02161307f, -0.00801182f, -0.00014871f, -0.02901888f, -0.04060008f, -0.09755518f, 0.02575022f, 0.00554311f, -0.03234553f, -0.04196294f, 0.03887532f, -0.02189539f, 0.02820133f, -0.07396842f, -0.04463926f, -0.04094301f, -0.03380050f, -0.02323071f, -0.03085993f, 0.02976055f, -0.00247926f, -0.03949165f, -0.00899327f, -0.01077656f, -0.01416375f, -0.00624343f, 0.03299697f, 0.01817334f, 0.04237054f, 0.05343568f, 0.01600167f, 0.01048820f, 0.01210562f, 0.02297227f, -0.00770167f, -0.04359923f, -0.09664532f, -0.07209423f, -0.03111984f, -0.05329822f, -0.07041083f, -0.01654797f, -0.05617186f, -0.04474291f, -0.00426502f, -0.05433690f, 0.03602505f, -0.07069344f, 0.00811160f, -0.01913541f, -0.01805580f, -0.02752964f, 0.01528621f, 0.00489457f, -0.01709481f, 0.00523990f, -0.01729598f, -0.02267472f, -0.07349230f, -0.05605546f, -0.03615218f, -0.04331381f, -0.02775094f, 0.03801347f, -0.00262899f, 0.00661421f, -0.07579210f, -0.02338494f, -0.04719819f, -0.03503152f, -0.02870765f, 0.07290782f, 0.10324598f, 0.06716916f, 0.05800212f, 0.09727354f, 0.06932905f, 0.05681284f, 0.02357165f, 0.01656381f, 0.02858869f, -0.03775568f, -0.08366188f, -0.07496141f, -0.06325720f, -0.11918551f, -0.08729026f, -0.03571319f, -0.06691252f, -0.09505383f, -0.04640363f, 0.01925257f, 0.00439688f, -0.02675549f, 0.01241824f, -0.01382257f, -0.10712179f, -0.01416671f, -0.01457572f, -0.01447424f, -0.00806484f, -0.02181752f, -0.01215031f, 0.00416540f, -0.05065585f, -0.01552002f, -0.10021774f, -0.09817550f, -0.13783532f, -0.11266919f, -0.08113340f, -0.02575298f, 0.01294694f, 0.01302934f, 0.01964366f, -0.06128113f, 0.04482780f, 0.01734414f, -0.04419186f, 0.04098267f, -0.03053524f, -0.05518903f, -0.04129912f, -0.02299496f, 0.01461704f, -0.01401921f, -0.06164701f, -0.09485729f, -0.08235923f, -0.06219133f, -0.08624960f, 0.00899679f, 0.07670236f, 0.01145044f, 0.03060516f, 0.08191787f, -0.02175557f, -0.04838837f, -0.15227744f, -0.06470992f, -0.00643188f, -0.02494929f, 0.01268390f, 0.04550618f, 0.01826340f, 0.01956418f, -0.01120562f, 0.01296945f, -0.02816235f, 0.03456071f, -0.02115454f, 0.07523192f, 0.05425359f, 0.02223029f, 0.05585770f, 0.06929638f, 0.06975818f, 0.08363119f, 0.04277395f, 0.06162412f, 0.07601651f, -0.00227298f, -0.03738455f, 0.00066071f, -0.03403679f, -0.01004886f, -0.00967073f, -0.00821419f, 0.02739741f, -0.03008955f, -0.00814684f, -0.02879513f, 0.07123989f, 0.00708607f, -0.05380696f, 0.06651518f, 0.00397370f, 0.05281902f, 0.03526323f, 0.02828439f, 0.02578768f, -0.00036664f, -0.00592492f, 0.03552773f, -0.02394204f, -0.00006922f, 0.01386248f, -0.04969725f, 0.02675710f, 0.02253817f, -0.03740599f, 0.06103509f, -0.01861226f, 0.06661870f, -0.01752440f, 0.03853425f, -0.05296378f, 0.00278586f, -0.11352773f, -0.03846962f, 0.01760022f, -0.02450775f, -0.02923944f, 0.00371768f, -0.09130014f, -0.10419820f, 0.03632755f, 0.06167523f, 0.09713218f, 0.00397428f, 0.06209286f, -0.01461885f, -0.01930379f, 0.02473921f, 0.00913722f, -0.02969795f, 0.04739702f, 0.08244564f, 0.07117704f, 0.06399496f, 0.04757332f, -0.12918302f, -0.04102139f, -0.06504187f, -0.09034118f, -0.07893503f, -0.03034101f, -0.02634916f, -0.04366191f, -0.05109040f, 0.00245555f, -0.07516884f, -0.01051721f, -0.03580266f, -0.07568296f, -0.02778000f, -0.04777888f, -0.08528451f, -0.02231504f, -0.08221654f, -0.05953133f, -0.09559008f, -0.10085879f, -0.07896106f, -0.01557875f, -0.07875898f, -0.04683447f, -0.01160562f, -0.00041319f, -0.06223151f, -0.00885568f, -0.04339108f, -0.08284970f, -0.15637775f, -0.04920574f, -0.06484658f, -0.01443031f, 0.01828161f, 0.01713230f, 0.03529212f, 0.04178766f, 0.02216717f, 0.08738594f, 0.05035897f, 0.04646670f, 0.08913328f, -0.06385493f, -0.04517019f, -0.12698205f, -0.05857880f, 0.00490423f, 0.00478066f, 0.01072300f, 0.01714450f, 0.02318514f, -0.00044415f, 0.05829447f, 0.03603493f, 0.04967451f, 0.00675795f, -0.02845634f, -0.05017792f, 0.00245892f, -0.01615770f, 0.06148848f, -0.05164432f, -0.12072591f, -0.10822075f, -0.04865000f, -0.04944712f, -0.10721893f, 0.04815353f, 0.09557704f, 0.03047154f, -0.01494820f, 0.06929210f, -0.04920552f, -0.02385822f, -0.02377141f, -0.00735361f, 0.00879866f, -0.00249495f, 0.02635446f, 0.02752780f, 0.06291469f, 0.00983012f, 0.02384677f, 0.00066803f, 0.00511328f, -0.03056761f, 0.00399444f, 0.05359307f, 0.08814076f, 0.02810184f, 0.09224486f, -0.00680471f, 0.07091170f, 0.10071794f, 0.09784397f, 0.11085719f, 0.07539588f, 0.01187848f, -0.06058392f, 0.02663731f, -0.01093872f, -0.02713055f, -0.02272965f, -0.02234996f, 0.00635068f, 0.03643824f, -0.02149695f, -0.01040812f, -0.01166751f, -0.07991540f, -0.02958305f, 0.05112087f, 0.01745830f, 0.06052846f, 0.01437270f, -0.00746368f, 0.03646417f, -0.01480963f, 0.00165284f, -0.01669998f, -0.00074677f, 0.01967340f, 0.00454673f, 0.00066357f, 0.02252622f, -0.00452387f, 0.01109829f, 0.05458396f, 0.05030431f, 0.02954037f, 0.04403662f, 0.01814432f, 0.00626896f, -0.05018352f, -0.02033451f, -0.06900262f, 0.01742568f, 0.00159976f, 0.03033658f, -0.03198922f, -0.06236224f, -0.02195763f, 0.14530747f, 0.05006828f, 0.13552330f, 0.10097483f, 0.07941569f, -0.06801715f, -0.00065029f, 0.01696061f, -0.01713530f, 0.00535851f, 0.07800251f, 0.08247816f, 0.01770167f, -0.01936869f, 0.06874511f, -0.12129410f, -0.08223674f, -0.07891022f, -0.08218847f, -0.12218487f, -0.04231409f, -0.04986484f, 0.01844881f, -0.01871889f, -0.02302144f, -0.06920273f, -0.11124304f, -0.05374246f, -0.05881497f, -0.06521487f, -0.15412846f, -0.00943693f, -0.07756756f, -0.15754364f, 0.03043027f, -0.05796940f, -0.08413417f, -0.03608105f, -0.04142169f, -0.01173729f, -0.06594427f, 0.03286920f, -0.01912865f, 0.00035029f, -0.03281454f, -0.12721393f, 0.03150573f, -0.05100737f, -0.03609636f, -0.05628078f, -0.00069737f, 0.03641125f, 0.02529124f, 0.04554828f, 0.03263510f, 0.06165769f, 0.00878679f, -0.02716424f, 0.01852063f, 0.00569143f, -0.04838833f, -0.03394258f, -0.05251231f, -0.01763495f, 0.04691502f, 0.02324313f, 0.00651011f, 0.00313585f, 0.00749159f, 0.04622028f, 0.08019839f, 0.00200064f, 0.05061584f, 0.05272305f, 0.03133318f, -0.06878037f, -0.01279350f, -0.00722418f, -0.01591043f, -0.06061959f, -0.04297534f, -0.07892133f, -0.06495088f, -0.15648048f, -0.09556557f, 0.07686221f, 0.04474586f, 0.04345664f, 0.07065359f, 0.11118581f, -0.03383071f, -0.00991547f, -0.07987659f, -0.06839225f, 0.00575830f, -0.04156645f, -0.01309569f, 0.03323008f, -0.01586813f, 0.03206056f, -0.01005964f, 0.02415738f, 0.00140514f, -0.03948153f, -0.00631694f, 0.05340505f, 0.07165562f, 0.05917710f, 0.03863968f, 0.08619530f, 0.06107875f, 0.14290880f, 0.07315209f, 0.08826452f, 0.12398417f, 0.01174409f, -0.06854799f, -0.02443467f, 0.00608381f, -0.04497130f, -0.01267691f, -0.02229002f, -0.03300104f, -0.00726549f, 0.00334484f, -0.08621071f, 0.00406675f, -0.03092601f, -0.04419224f, 0.05906234f, 0.01239668f, 0.01078215f, 0.02503037f, 0.01735515f, 0.02933502f, -0.01398048f, -0.01606760f, -0.00877262f, -0.00300364f, -0.00153665f, -0.03192533f, -0.04210870f, 0.00205657f, -0.01332464f, -0.03427297f, 0.03895586f, 0.00274033f, 0.08279046f, 0.04577386f, 0.02544221f, -0.02795168f, -0.01050425f, -0.01506279f, -0.01364358f, -0.04241058f, -0.02438485f, -0.01267635f, -0.01300907f, -0.08371859f, -0.04086836f, 0.03415971f, -0.02684286f, 0.07684895f, -0.01486460f, -0.01158963f, -0.01097784f, 0.00955316f, 0.05456846f, 0.02370534f, 0.01864877f, 0.05285256f, 0.06202311f, 0.03196517f, 0.02510742f, 0.03999817f, -0.11527877f, -0.10406063f, -0.03339088f, 0.02436416f, -0.06958657f, -0.05437575f, -0.05606679f, -0.00082863f, 0.00068103f, -0.01026008f, -0.03587003f, -0.08168367f, 0.00173299f, -0.08383100f, -0.06131789f, 0.00600016f, -0.07825393f, -0.06949242f, -0.09713013f, -0.08390567f, -0.02389236f, -0.06994751f, -0.04776570f, -0.01392420f, -0.00288400f, 0.00898159f, 0.00702166f, -0.03141103f, -0.03879089f, 0.00023610f, -0.11151318f, 0.00020027f, -0.15508850f, -0.17683190f, -0.02733332f, -0.02765786f, 0.03149258f, 0.02912735f, 0.02802703f, 0.01972406f, 0.03736651f, 0.03858997f, 0.08830180f, 0.07430782f, 0.02534533f, -0.01519964f, -0.02965572f, -0.07605621f, -0.04172169f, -0.02585664f, 0.04278425f, 0.00379640f, -0.00771567f, 0.02959092f, -0.00015005f, 0.03970331f, 0.03598050f, 0.06273310f, 0.00060134f, 0.00902652f, 0.02741162f, -0.00972344f, -0.01855515f, 0.03131657f, -0.02658881f, -0.06649097f, -0.06281641f, -0.09422556f, -0.06686783f, -0.02112129f, 0.07478796f, 0.02047039f, 0.06252657f, 0.03335859f, 0.09221309f, -0.03253298f, -0.00985203f, -0.01473946f, -0.07790039f, 0.01789577f, -0.04404572f, -0.03562411f, 0.04249614f, 0.02961880f, 0.01746502f, -0.00875848f, -0.03555875f, -0.02589502f, 0.04448447f, -0.02567568f, -0.03429922f, 0.06305049f, 0.03868634f, -0.01203129f, 0.02643157f, 0.10310642f, 0.05910812f, -0.00856692f, 0.11178997f, 0.08270916f, 0.01844063f, -0.04039340f, 0.01758131f, -0.02819208f, -0.05380253f, 0.00375493f, 0.00131760f, 0.00150252f, -0.03229697f, 0.01517595f, -0.01851148f, 0.03147880f, -0.03068997f, -0.03726910f, -0.03199019f, 0.07831246f, 0.06413112f, 0.01661604f, 0.08550867f, 0.04122277f, 0.02578443f, -0.00073102f, 0.00718956f, 0.02493109f, 0.04773631f, -0.02071660f, 0.01356877f, 0.03578541f, 0.02653758f, 0.03425549f, 0.10549142f, 0.04614611f, 0.03760135f, 0.05372293f, 0.01118847f, -0.00638238f, 0.04270425f, -0.00183733f, -0.00115149f, -0.00178210f, -0.01503600f, 0.03163732f, -0.01267118f, -0.04122532f, 0.02144032f, 0.05284721f, 0.05884030f, 0.17581566f, 0.16692188f, 0.00694848f, -0.08246402f, -0.03083245f, -0.02476345f, 0.00161188f, 0.00083713f, 0.02651173f, 0.00729463f, 0.06012060f, 0.05311740f, -0.00943159f, -0.06193891f, -0.07202553f, 0.00621698f, -0.08813433f, -0.10406552f, -0.00703166f, -0.00522563f, 0.04032630f, 0.06969336f, -0.00147017f, -0.09070057f, -0.06577697f, -0.12905571f, -0.11717019f, -0.11941682f, -0.11471245f, -0.02855149f, -0.06469057f, -0.09192609f, -0.00509095f, -0.02420557f, -0.06006479f, 0.01536719f, -0.01656835f, 0.03035383f, 0.03149823f, -0.05464831f, 0.00086474f, 0.05653554f, 0.07029121f, -0.02656135f, 0.00904502f, -0.10919856f, -0.14015932f, -0.02352206f, 0.06021608f, 0.01760635f, 0.03548779f, 0.06117635f, -0.00440362f, -0.01029543f, -0.00960891f, 0.09963898f, -0.00099765f, -0.00125624f, 0.00847160f, 