// Auto-generated - DO NOT EDIT
// OnsetNet weights for Daisy Seed bare metal inference
// sr=48000 note_vocab_size=49 window_samples=768

#pragma once
#include <stdint.h>

#define ONSET_SR                 48000
#define ONSET_NOTE_VOCAB_SIZE    49
#define ONSET_WINDOW             768

static const char* onset_pitch_names[] = {
    "E2",
    "F2",
    "F#2",
    "G2",
    "G#2",
    "A3",
    "A#3",
    "B3",
    "C3",
    "C#3",
    "D3",
    "D#3",
    "E3",
    "F3",
    "F#3",
    "G3",
    "G#3",
    "A4",
    "A#4",
    "B4",
    "C4",
    "C#4",
    "D4",
    "D#4",
    "E4",
    "F4",
    "F#4",
    "G4",
    "G#4",
    "A5",
    "A#5",
    "B5",
    "C5",
    "C#5",
    "D5",
    "D#5",
    "E5",
    "F5",
    "F#5",
    "G5",
    "G#5",
    "A6",
    "A#6",
    "B6",
    "C6",
    "C#6",
    "D6",
    "D#6",
    "E6",
};

// shape: [49, 96]
static const float note_head_weight[4704] = {
    -0.03581050f, -0.01222382f, -0.17052741f, 0.20541917f, -0.04431810f, -0.34048688f, -0.05620414f, 0.19526385f, -0.11945397f, 0.09635480f, 0.02185934f, 0.14774267f, -0.06175406f, -0.11073235f, 0.01897027f, 0.20777708f, -0.01797257f, -0.05737624f, 0.18424432f, 0.05465416f, -0.26380354f, 0.21279061f, -0.10551314f, -0.01510897f, -0.04330623f, -0.14357747f, 0.06541692f, -0.67635590f, -0.20010950f, -0.08208460f, -0.14243351f, -0.08089835f, 0.08067208f, 0.01195358f, -0.18426751f, 0.12260353f, 0.24424912f, -0.12446642f, -0.14104652f, 0.19041738f, 0.32833669f, 0.28985679f, 0.03925574f, -0.15992038f, -0.66074550f, 0.29426032f, -0.07600579f, 0.40669537f, 0.38156363f, -0.41496041f, 0.18768874f, 0.06758996f, -0.07431924f, 0.02221596f, -0.05898639f, 0.30401027f, 0.25427958f, 0.47059458f, -0.07426742f, -0.02335497f, -0.10388558f, -0.35437778f, 0.10183075f, 0.06648206f, -0.39904645f, 0.18130004f, 0.39788744f, -0.04168260f, -0.94891483f, -0.10949045f, 0.04355127f, 0.00911719f, 0.01058078f, -0.28445655f, 0.22013383f, -0.50845861f, -0.29544529f, 0.27342626f, -0.01837478f, -0.22578102f, -0.30695623f, -0.62883514f, 0.49338460f, 0.34733772f, 0.32183048f, -0.19089861f, 0.22298172f, 0.14242287f, -0.10632481f, 0.05476830f, -0.29655728f, -0.32829937f, -0.05314118f, -0.20428248f, 0.27994207f, -0.52391011f, -0.41585109f, -0.00276221f, 0.06586458f, -0.04714286f, 0.03947338f, -0.42570451f, -0.32697466f, 0.20177665f, -0.04402168f, -0.28177297f, -0.04452783f, 0.36606899f, 0.31772080f, 0.21167570f, -0.10696469f, 0.31239504f, -0.15916282f, 0.12776271f, 0.39419085f, 0.14713837f, 0.24923560f, -0.11208428f, 0.03736749f, -0.06434754f, -0.26400626f, -0.04424520f, -0.13930064f, 0.26498801f, -0.04045121f, -0.07527052f, -0.14671895f, -0.27659196f, 0.14247820f, -0.02605101f, 0.37412211f, -0.23717491f, -0.24142623f, 0.15868539f, -0.43885019f, 0.37672189f, -0.42047396f, -0.31730628f, -0.08718622f, 0.19937012f, -0.68562275f, -0.20213059f, -0.08835036f, -0.80955279f, 0.39986649f, 0.19511971f, 0.01369268f, -0.11910787f, -0.19155103f, -0.05952147f, 0.04721455f, -0.20607306f, -0.16181640f, -0.56222719f, 0.06288371f, -0.14866447f, 0.54994017f, 0.30644378f, -0.14502656f, -0.17321618f, -0.03872598f, 0.30589861f, 0.13112880f, -0.08799868f, 0.08382474f, 0.08814240f, 0.07758097f, 0.01835194f, 0.33881029f, 0.43887532f, -0.31977344f, 0.25215232f, 0.19946100f, -0.01487839f, -0.53421074f, -0.43991873f, 0.31045049f, 0.26157826f, 0.22682188f, -0.69394010f, -0.06473823f, 0.25423279f, -0.18930703f, -0.08604962f, 0.13362969f, -0.14249463f, 0.17958879f, 0.33692160f, -0.33090815f, 0.14220540f, -0.83128703f, 0.28214571f, 0.10277753f, -0.31037611f, -0.16947877f, -0.01088734f, 0.13939486f, 0.22076507f, -0.24652845f, -0.31627351f, 0.24179818f, -0.13324621f, 0.45074821f, 0.12168459f, -0.29989463f, -0.38880000f, -0.75348049f, 0.32044229f, 0.36267447f, 0.02587351f, 0.23604432f, 0.25998750f, -0.29987860f, -0.04719497f, 0.10255902f, -0.16881695f, 0.44896519f, 0.18300323f, -0.57768106f, -0.05138308f, -0.25720242f, 0.10609844f, -0.19131744f, -0.12837526f, 0.12372483f, -0.06833103f, -0.07215539f, 0.22620867f, -0.19893441f, 0.27582547f, -0.50282878f, 0.00354316f, -0.10098513f, -0.30310971f, -0.00868153f, 0.28018308f, 0.14953101f, 0.20472588f, 0.25401390f, -0.11330740f, -0.13530432f, 0.02630989f, -0.01934318f, 0.20915368f, -0.05910099f, -0.33375624f, 0.01358006f, 0.18869816f, -0.04367453f, -0.12844945f, 0.14953493f, -0.08154603f, -0.41902265f, 0.01510500f, -0.97398692f, -0.16572332f, -0.12034973f, 0.32839632f, 0.65378100f, -0.03209651f, 0.37340298f, -0.04638874f, -0.22624220f, -0.04508438f, 0.30272883f, -0.56332237f, 0.07837790f, 0.19184485f, -0.41590703f, 0.15754931f, 0.07911570f, 0.26695877f, -0.12402229f, 0.19738083f, -1.09831011f, 0.28040120f, -1.08099508f, 0.14524010f, -0.18980813f, -0.64917064f, -0.26744705f, -0.11205110f, 0.18999609f, -0.05277078f, 0.32676703f, 0.13045020f, 0.51576185f, 0.24746875f, 0.49894723f, 0.21093050f, -0.27194625f, -1.12198699f, 0.09401124f, -0.03973782f, 0.22004937f, 0.42355910f, 0.33918729f, 0.32534963f, -0.12116747f, 0.25070393f, 0.07525831f, 0.05903831f, -0.54426163f, 0.30917758f, -0.43417019f, -0.41113546f, -0.15470837f, -0.13579772f, -0.29207101f, -0.00507580f, 0.15447880f, -0.17744803f, -0.40948120f, 0.42813864f, 0.62221229f, -0.06099885f, 0.32715294f, -0.45281082f, 0.30282363f, 0.13453211f, -0.16751319f, -0.32829681f, 0.29346958f, -0.10888057f, 0.18259645f, 0.13601416f, 0.17108977f, -0.48220700f, -0.21697657f, -0.65949845f, -0.22481249f, 0.08596652f, 0.23525044f, 0.40048307f, 0.03717326f, -0.34070748f, -0.31455803f, -0.15622245f, 0.02245464f, -0.17871065f, 0.22275160f, -0.29996628f, 0.01860188f, 0.49693185f, 0.12310474f, -0.09207430f, -0.54621649f, -0.29316449f, 0.31740692f, -0.20618118f, -0.24487364f, 0.07680673f, -0.03477905f, -0.35771635f, 0.28613093f, 0.06494039f, 0.21445835f, -0.69226074f, 0.34053478f, -0.13495310f, 0.00880617f, -0.01458035f, 0.18283030f, 0.24725482f, 0.03546441f, -0.47476518f, 0.23679160f, -0.21110721f, 0.26905707f, -0.01937485f, -0.65849715f, 0.19407007f, -0.05002381f, 0.02014843f, 0.17380221f, -0.17634889f, 0.18669644f, -0.12740739f, -0.22268811f, 0.21753718f, -0.07393235f, 0.02286228f, -0.72290456f, -0.03709619f, 0.10131949f, 0.03783837f, 0.43009672f, 0.28988686f, -0.13897926f, -0.34863794f, 0.06882171f, -0.14277661f, -0.01722566f, -0.28909248f, -1.29496717f, 0.44747651f, -0.06621626f, 0.51243407f, 0.16557671f, -0.16322966f, -0.61519229f, -0.28026113f, -0.48744571f, -0.25546515f, -0.19180278f, 0.11291609f, 0.09429172f, -0.17763884f, 0.07385220f, 0.03597056f, 0.10239956f, -0.00492117f, 0.28125897f, -0.12616116f, -0.19713855f, 0.31229472f, -0.16165090f, -0.23997554f, 0.36197260f, 0.09757646f, -0.34089279f, -0.24076402f, 0.36259109f, -0.53241903f, 0.08170817f, -0.09389829f, -0.08381051f, 0.44253442f, 0.69334406f, 0.16656689f, -0.07985399f, 0.00650693f, 0.00416826f, -0.48243824f, -0.00432532f, 0.14194873f, -0.08527023f, -0.14391944f, 0.03926425f, -0.59363532f, -0.11050098f, 0.33527583f, -0.05992851f, 0.11244091f, -0.22679374f, -1.18127525f, 0.42112389f, 0.20496702f, 0.08508371f, -0.10324205f, -0.28820908f, 0.06505463f, -0.03337434f, 0.42781517f, -0.33630386f, 0.17541224f, 0.30226412f, 0.09115808f, -0.16726053f, -0.03277586f, -0.25874394f, 0.14307426f, 0.18229122f, 0.05470845f, 0.19988784f, 0.09657472f, 0.11337557f, -0.12228919f, 0.09041520f, -0.26734027f, -0.16116290f, 0.03714053f, -0.25760937f, 0.28335592f, 0.17915814f, 0.34974578f, -0.15310487f, -0.58801663f, 0.30841565f, -0.33058375f, 0.20092981f, -0.10922860f, 0.17439105f, 0.22224203f, -0.23706010f, -0.06442734f, -0.04322473f, 0.46009541f, -0.30718717f, -0.32510960f, -0.98687178f, 0.10296320f, -0.11103193f, -0.13315068f, 0.06050111f, -0.27054459f, 0.35087556f, -0.27363479f, 0.27043730f, -0.00917134f, -0.10232773f, 0.01086020f, -0.28520054f, 0.02091078f, -0.21717460f, 0.42000037f, -0.12180335f, 0.00941399f, -0.52757603f, 0.00234099f, 0.16428283f, -0.04830847f, 0.38013381f, 0.41406313f, 0.48958609f, 0.17243916f, 0.02708220f, 0.26589465f, -0.17424637f, 0.05778926f, 0.10189653f, 0.45134637f, 0.30964690f, 0.32688949f, 0.30686212f, -0.25029093f, -0.22367898f, 0.27709925f, -0.10305794f, 0.16208515f, -0.13770057f, 0.09175457f, 0.33676657f, 0.07288440f, 0.11666177f, 0.65298015f, -0.22092722f, -0.26171833f, -0.42817599f, -0.18685216f, 0.49736610f, 0.42324716f, 0.46372321f, -0.30467018f, -0.15793628f, 0.31957838f, -1.38521719f, -0.10908223f, -0.50099128f, -0.23411548f, -0.21628858f, 0.10901551f, -0.26930276f, -0.30518952f, -0.17806983f, -0.12869510f, 0.22242619f, 0.21867357f, -0.17040417f, -0.17336544f, -0.83929878f, -0.08302545f, 0.10699743f, -0.38775235f, -0.01583546f, -0.41704637f, -0.24787074f, 0.00059012f, -0.13645703f, -0.04568434f, 0.08571345f, -0.20768446f, -0.09429007f, 0.18375371f, 0.02728677f, -0.21100827f, -0.09866436f, 0.19570108f, 0.36821821f, 0.00882133f, -0.16652581f, -0.05378760f, -0.04719957f, 0.22420084f, 0.00214945f, 0.25820076f, 0.55012292f, 0.33588773f, -0.05908385f, -0.11501961f, 0.18510683f, 0.23320717f, 0.61742496f, 0.28112543f, -0.10953145f, -0.17972276f, -0.33211553f, 0.11920868f, -0.19298300f, -0.30018106f, 0.07354663f, -0.60677755f, -0.17519276f, 0.08260915f, -0.10062049f, 0.10143743f, -0.44044644f, -0.10782625f, -0.04504694f, -0.31607798f, -0.01527809f, -0.11950289f, -0.13030535f, -0.09222450f, 0.41848806f, 0.31085157f, 0.15439244f, 0.37516046f, 0.11100254f, -0.16577366f, -0.60049242f, -0.35269421f, 0.04228283f, -0.11879235f, 0.04507834f, -0.21406145f, 0.00747761f, 0.22627896f, -0.23761369f, -0.17102437f, -0.08452648f, -0.02344521f, 0.06425399f, -0.07333719f, 0.27951288f, 0.10808427f, -0.23138791f, 0.09514705f, -0.19438151f, 0.04125131f, -1.00952721f, 0.19025353f, -0.07790676f, 0.08374555f, -0.39238313f, -0.20043087f, -0.12918353f, -0.27437374f, 0.09597550f, 0.08847147f, 0.01255295f, 0.33228827f, -0.39227596f, 0.30131838f, -0.89964569f, -0.16863227f, 0.07180788f, -0.06313880f, 0.01080994f, 0.52239555f, -0.01921956f, 0.47994390f, -0.18148117f, 0.01785357f, -0.07715175f, -0.45957685f, 0.10097393f, -0.28444028f, -0.08957227f, -0.18203512f, -0.27805761f, 0.33268932f, -0.24935810f, 0.47069183f, 0.09728353f, -0.12235670f, 0.03127502f, -0.44198582f, -0.63399988f, -0.15605769f, 0.05550941f, 0.06491277f, 0.47756967f, -0.79914129f, -0.24068999f, -0.29498488f, -0.45657656f, -0.10554160f, 0.47089922f, -0.04704415f, 0.09301560f, 0.30450925f, 0.13718387f, -0.31622592f, 0.64515239f, 0.15709746f, -0.00670132f, -0.00052116f, 0.06005670f, -0.26880583f, 0.10459753f, 0.18282367f, 0.00673738f, -0.11887538f, 0.21770747f, -0.29292980f, 0.23235883f, 0.12367413f, 0.01966415f, 0.01308168f, -0.02302752f, -0.19261672f, -0.40466928f, 0.10665440f, -0.17645746f, -0.12330528f, -0.39661217f, 0.52064419f, -0.11927213f, -0.03552473f, -0.09232295f, -0.04439010f, -0.35765243f, 0.25182211f, 0.01119615f, -0.48389399f, 0.10983927f, -0.02605773f, 0.18885587f, 0.27804011f, 0.08249118f, -0.08610753f, 0.05958594f, 0.28504506f, -0.19981188f, -0.05354289f, 0.40261057f, -0.24960361f, 0.22544312f, -0.37013161f, 0.29360929f, 0.23220104f, -0.23719421f, 0.01666904f, -0.36570013f, -0.17625691f, -0.12539327f, -0.26655209f, -0.15794931f, 0.16055194f, -0.01304630f, -0.39900199f, 0.18129720f, 0.44943881f, -0.42096242f, 0.39643058f, -0.59749824f, -0.15849072f, 0.33395860f, -0.05963602f, -0.22274370f, -0.51280975f, 0.08797628f, -0.25501782f, -0.19134520f, 0.23215966f, 0.10899141f, -0.00215838f, 0.12361322f, 0.43793198f, 0.32899013f, -0.79114544f, 0.01948063f, 0.22351739f, -0.14468393f, -0.98742568f, -0.09210657f, 0.18274447f, 0.23365913f, 0.16715048f, 0.22788386f, 0.01896487f, -0.46364534f, -0.26146680f, 0.36558321f, 0.03472097f, 0.19143146f, 0.17076199f, -0.01529492f, 0.32121152f, -0.04258649f, 0.28564176f, -0.45447576f, 0.13748632f, -0.18541129f, -0.07710319f, 0.05565404f, -0.22537348f, -0.08218541f, 0.21556313f, 0.00972422f, 0.11350663f, 0.55791038f, -0.42273283f, -0.28348997f, -0.07053388f, 0.29150069f, -0.01927577f, 0.06946252f, 0.11433274f, 0.05762298f, -0.01462323f, 0.39040211f, 0.01217868f, 0.02035618f, -0.16801131f, 0.12974425f, -0.45446777f, 0.12320330f, -0.80288011f, 0.17985186f, 0.04180383f, 0.26952538f, -0.42928243f, -0.00364342f, -0.45305368f, -0.49356064f, -0.01673261f, 0.45138046f, -0.87535495f, -0.10884762f, -0.24097122f, 0.36601719f, 0.13053186f, -0.07184732f, -0.15874666f, 0.25870821f, -0.27741572f, -0.10608876f, -0.09928972f, 0.08528943f, -0.15237474f, 0.01141172f, -0.15018517f, 0.00526565f, -0.08780309f, 0.61615801f, -0.06035060f, 0.21713419f, -0.53641951f, 0.27093321f, -0.56279075f, 0.18197352f, -0.16143434f, -0.38064745f, 0.00330605f, 0.34828454f, 0.17877774f, -0.03942356f, 0.07006739f, 0.25499257f, -0.31747046f, -0.23618032f, -0.38887930f, 0.08283518f, -0.08773469f, 0.16616501f, -0.12278999f, -0.18835810f, -0.22623044f, 0.28874430f, -0.36704767f, -0.28724408f, 0.01979498f, -0.00544057f, -0.05757413f, 0.06809399f, 0.45976067f, -0.23394482f, 0.05292163f, -0.22050101f, 0.13676351f, -0.09221295f, 0.11321150f, -0.07291053f, -0.11437795f, 0.01259368f, -0.96979773f, 0.61403394f, -0.26112735f, -0.26413336f, -0.28141972f, -0.00562053f, -1.18682289f, -0.22012067f, -0.17302783f, -0.07578416f, 0.09388426f, 0.10102332f, -0.05180102f, 0.08099388f, -0.01345705f, 0.24674319f, -0.12476488f, -0.10658618f, 0.25470865f, -0.09783982f, 0.13129036f, 0.28779605f, -0.12411848f, -0.07949791f, -0.02512435f, 0.32763040f, 0.15726408f, -0.28029585f, 0.03798936f, 0.02606407f, 0.18889828f, 0.01970709f, -0.00250583f, 0.03150506f, 0.00693403f, 0.41804636f, -0.17258181f, -0.02908519f, -0.24543571f, -0.15320560f, 0.01593621f, 0.39152497f, 0.24800999f, -0.17101426f, 0.48898476f, -0.48484597f, 0.31897268f, 0.55468565f, -0.23236898f, 0.30387864f, -0.36398497f, -0.12266754f, 0.25611773f, -0.27464122f, 0.50218421f, -0.07723109f, -0.36549282f, 0.01627282f, 0.14698553f, -0.24262697f, -0.22379076f, -0.21522895f, -0.25814983f, 0.12963764f, -0.21699169f, -0.02878080f, 0.53776497f, -0.13100909f, -0.20007026f, -0.45133874f, -0.13144915f, -0.01323169f, 0.09151536f, -0.22077972f, 0.33978087f, 0.13637523f, -0.23208602f, -0.04176661f, 0.01166971f, -0.01700593f, 0.21699062f, 0.50873947f, -0.07202695f, -0.14111733f, -0.18122445f, -0.12375617f, 0.23041308f, -0.22991402f, -0.45619172f, -0.41665986f, 0.09799600f, -0.19840309f, -0.24379429f, -0.11895556f, -0.04042942f, -0.07877342f, 0.01885624f, 0.11929509f, 0.03164142f, -0.45498627f, -0.10346020f, -0.61790931f, 0.54777777f, 0.09187182f, 0.08154128f, 0.19504841f, -0.14188714f, -0.48609945f, -0.08252626f, -0.81533259f, -0.21279362f, 0.25852147f, -0.04856030f, 0.08525272f, 0.13344385f, 0.02890132f, 0.18116707f, -0.05565269f, 0.20544583f, 0.10429838f, -0.03956017f, -0.40999591f, -0.05370433f, -0.21194628f, 0.32262185f, 0.21034378f, 0.14049587f, -0.18187521f, 0.36898509f, -0.20684180f, 0.08539646f, -0.00905843f, -0.04816064f, 0.45834360f, 0.29725456f, 0.14109589f, 0.16505508f, 0.30731237f, -0.08495259f, -0.41921106f, 0.01785786f, -0.12582348f, -0.17869911f, -0.71242547f, -0.16803026f, 0.64696383f, -0.26127341f, 0.05619927f, -0.18055606f, 0.10113354f, -0.04385711f, -0.62263900f, -0.29795989f, -0.30293959f, 0.10261117f, 0.13546273f, -0.05783542f, -0.24832255f, -0.23640512f, -0.17891254f, 0.13827781f, -0.15888025f, 0.55945277f, -0.16463433f, 0.14663997f, 0.27489218f, 0.01100815f, -0.26754093f, 0.12276334f, -0.19066036f, 0.59628338f, -0.00631172f, 0.16972932f, 0.05281799f, -0.14958850f, -0.59431821f, -0.02537405f, 0.33607671f, -0.01720506f, -0.30390033f, 0.28557134f, -0.08377479f, -0.45257992f, -0.07027973f, -0.23864566f, -0.15488069f, 0.01034368f, 0.10241432f, 0.24404715f, -0.03727697f, 0.00937690f, 0.11592185f, -0.25246596f, -0.23236533f, -0.04979555f, -0.43161288f, -0.16900295f, 0.21064711f, 0.50936466f, -0.49910364f, 0.07967161f, -0.20716634f, -0.11117765f, -0.41764137f, 0.34498870f, 0.37576258f, 0.39195985f, 0.36205265f, 0.16095023f, -0.00209883f, -0.18533777f, 0.00843724f, -0.22580571f, -0.36953339f, -0.09101323f, 0.09678575f, 0.00365823f, -0.32641420f, -0.06292202f, -0.04502461f, -0.49732605f, -0.75730687f, -0.75940740f, -0.03478845f, 0.28480765f, -0.15415376f, -0.23859957f, -0.10645844f, 0.04283883f, -0.09760489f, 0.20534430f, 0.21427901f, -0.30790576f, 0.34352887f, -0.11599745f, -0.03937600f, 0.64906925f, 0.40542710f, -0.07697739f, 0.01042575f, -0.19807351f, -0.55630434f, -0.12690085f, -0.13509156f, 0.23925118f, -0.04737423f, 0.34308210f, 0.02952766f, -0.44716340f, -0.24262315f, 0.02982910f, -0.24406764f, 0.03721690f, 0.33744082f, 0.21672946f, 0.08391547f, 0.00004072f, -0.03486292f, 0.12278476f, -0.11821962f, 0.14888011f, -0.11739839f, -0.13376270f, 0.10165285f, -0.09260110f, 0.11690394f, -0.28820434f, 0.53887600f, -0.90845472f, -0.08000419f, 0.44912294f, -0.36350051f, 0.16448615f, 0.28400430f, 0.11734860f, -0.13151684f, -0.07678352f, -0.29883733f, -0.22837411f, 0.48445848f, -0.42895198f, -0.16319308f, -0.33280748f, 0.04205685f, 0.27197418f, 0.21564016f, -0.00919232f, -0.08116322f, 0.17939827f, 0.00998495f, -0.25935644f, 0.78228074f, -0.15154743f, -0.12115286f, -0.15474984f, 0.04638597f, -0.26743793f, 0.06884895f, -0.26361638f, -0.31227303f, -0.59082872f, 0.34849611f, -0.12614027f, 0.22179323f, -0.03006146f, 0.13225794f, -0.29260889f, 0.12296991f, 0.25897077f, -0.31544387f, -0.09690436f, -0.10702632f, -0.24511200f, 0.15250267f, -0.14335507f, 0.39090472f, -0.08066739f, 0.08729799f, -0.14798455f, -0.07964657f, -0.40016446f, -0.06730905f, 0.21371706f, -0.10029013f, -0.26967946f, 0.24368629f, 0.13351293f, -0.31058362f, 0.36340213f, 0.21340096f, -0.09643649f, -0.03585193f, 0.17431501f, -0.47603005f, 0.02227908f, 0.21890651f, 0.00867350f, -0.43616620f, -0.56404281f, 0.09701025f, 0.18821563f, 0.20472823f, 0.38429439f, -0.15622458f, 0.76305228f, -0.07913831f, -0.12378981f, 0.01804918f, -0.15276402f, -0.09737004f, -0.03643777f, -0.17283712f, -0.00309639f, -0.17513508f, -0.18040735f, -0.00466101f, -0.28773165f, -0.25400004f, 0.16647775f, 0.00119078f, -0.68028957f, 0.01628030f, -0.57513708f, 0.44415894f, 0.29104641f, -0.02243981f, -0.31214002f, -0.06319670f, -0.29555097f, -0.30760050f, -0.02335113f, 0.14919615f, -0.05727769f, -0.00120423f, 0.01115281f, 0.39932567f, -0.24135865f, -0.09016389f, 0.30480802f, 0.08663239f, -0.22166027f, -0.22755370f, 0.78271228f, 0.38483471f, 0.12906539f, -0.26525396f, -0.29009053f, 0.12372217f, -0.23412405f, -0.69722503f, 0.24890766f, -0.21094927f, -0.01422273f, 0.14903618f, 0.16555330f, -0.26890481f, 0.02519695f, -0.71621180f, 0.05789189f, 0.10561123f, 0.25964335f, 0.13454345f, -0.48427677f, -0.05374089f, -0.07993732f, 0.37934992f, -0.00974319f, -0.31252462f, -0.22078471f, -0.24429716f, -0.27044898f, 0.01467898f, -0.10070871f, 0.50793988f, 0.15126482f, -0.00710304f, -0.15113264f, 0.24924520f, -0.18754627f, -0.01967005f, 0.07942959f, -0.54170465f, -0.22371402f, -0.38371146f, -0.09605017f, 0.04770013f, -0.18066721f, -0.01564811f, -0.21611476f, 0.24337204f, -0.15188558f, -0.06355924f, -0.06665805f, 0.13345405f, 0.35207659f, 0.42085767f, 0.03508174f, -0.03563980f, 0.29432306f, -0.14905629f, 0.02210463f, -0.00286232f, -0.26429930f, -0.02025634f, 0.05837956f, 0.21237294f, -0.19349933f, -0.42754638f, -0.26053664f, -0.15806876f, 0.22337332f, 0.13160148f, 0.08966191f, 0.09284101f, -0.08120205f, -0.21272892f, -0.05091663f, -0.21166781f, -0.18805921f, -0.56000823f, 0.33018914f, -0.00921937f, -0.08206946f, -0.81080282f, -0.06281167f, 0.13834599f, -0.03398528f, -0.08565067f, 0.03514281f, 0.03489480f, 0.20657401f, -0.16116257f, -0.20586663f, -0.22371806f, -0.32383734f, 0.00907435f, -0.14336734f, -0.12216195f, 0.47721082f, 0.64157766f, -0.58831173f, 0.06426167f, -0.04673145f, 0.14267823f, 0.09602778f, 0.45108435f, 0.18607789f, 0.13457857f, 0.04874396f, -0.00227808f, -0.00577897f, -0.38757044f, -0.06636519f, 0.06209663f, 0.05317343f, 0.01450725f, 0.10654017f, -0.14925599f, -0.14940372f, -0.10121249f, -0.15723543f, -0.17932236f, -0.21526422f, 0.40401196f, 0.08659945f, 0.34269598f, 0.43619144f, -0.38823098f, -0.06670246f, 0.46912989f, -0.45494309f, 0.05054039f, 0.31425926f, -0.07794071f, -0.25079018f, -0.21919605f, 0.12977758f, 0.00174092f, -0.05637305f, 0.37918937f, -0.39242297f, 0.16980714f, 0.39116240f, -0.15144853f, -0.11044324f, 0.07152952f, 0.42213392f, -0.08351079f, -0.14170235f, -0.30922201f, -0.11518989f, -0.90814334f, 0.09250633f, -0.35260573f, -0.53683007f, 0.14509729f, 0.08583359f, -0.29160303f, -0.08625260f, -0.16280730f, -0.17958361f, -0.20162053f, -0.10118434f, 0.02481381f, -0.17932919f, 0.22388056f, 0.42263442f, -0.26635122f, 0.13491735f, -0.28690767f, 0.00827722f, -0.05351529f, 0.45964542f, 0.18463470f, 0.07546109f, -0.18935721f, -0.07173908f, -0.09159385f, 0.08859087f, 0.17403266f, 0.06346306f, -0.09192038f, -0.00449425f, -0.18139172f, -0.83484364f, -0.10054176f, -0.29867065f, 0.36600295f, 0.02241829f, 0.05966165f, -0.14398082f, 0.04136737f, -0.11640818f, -0.28377011f, 0.50359148f, -1.25641215f, 0.53341812f, 0.08634023f, -0.00379179f, 0.30610570f, -0.25902462f, 0.64439070f, 0.35518926f, -0.10973331f, -0.07532258f, 0.09125724f, -0.26996985f, 0.06609198f, 0.00421145f, -0.01713619f, -0.18510054f, 0.12074304f, 0.00248143f, -0.11557548f, -0.29544917f, 0.01249843f, 0.05664055f, -0.19729815f, 0.13355744f, -0.28993437f, -0.17145751f, -0.05136145f, -0.38263091f, -0.01007913f, -0.08630623f, -0.15361074f, 0.15541469f, -0.13166085f, 0.30124402f, -0.17532270f, -0.27818215f, 0.13289404f, -0.48250288f, -0.34849104f, -0.35555664f, -0.24445811f, -0.18091813f, -0.02867496f, 0.74983490f, 0.00919575f, -0.07016030f, -0.76842105f, 0.04852936f, -0.19112232f, 0.05937331f, -0.36493099f, 0.01953680f, -0.07950492f, 0.05585129f, 0.10503810f, 0.11878060f, 0.20797665f, 0.00796838f, 0.22992118f, 0.12270270f, -0.17973964f, -0.14703497f, -0.34325314f, -0.11840858f, 0.32092923f, 0.65227222f, -0.12760296f, 0.11631230f, 0.25923926f, -0.08986049f, -0.01560763f, -0.19805183f, 0.03170121f, -0.03541735f, -0.28305760f, -0.01080773f, 0.22816752f, 0.19575624f, -0.09790223f, 0.49171060f, 0.36400607f, -0.23157223f, -0.16834094f, 0.09364607f, 0.26889849f, 0.67063206f, -0.09431669f, 0.16568962f, 0.11243130f, 0.18615766f, 0.02106793f, 0.21535294f, -0.30106571f, 0.00747284f, -0.03602170f, -0.31406993f, -0.29561457f, -0.46575853f, -0.21138074f, -0.22283027f, 0.01331178f, -0.28269210f, -0.09827720f, -0.30348900f, -0.21272236f, -0.08713853f, 0.41292736f, 0.02451142f, -0.04179344f, -0.15928593f, 0.31218520f, 0.14538652f, 0.31958669f, 0.19327900f, -0.15397060f, -0.25155765f, -0.06967095f, -0.35751137f, -0.30591518f, -0.25279754f, 0.12270960f, 0.05590384f, -0.29257289f, -0.06897289f, -0.09227753f, -0.31524116f, 0.09227309f, 0.38369352f, 0.01203658f, -0.56552947f, -0.01672907f, -0.02373289f, 0.09168438f, 0.01569828f, 0.08939245f, 0.21062282f, -0.02161914f, -0.13174677f, 0.16924065f, 0.14556676f, -0.02812149f, -0.11440800f, 0.06972539f, -0.01828109f, -0.07550345f, -0.30262381f, 0.37392673f, 0.31266764f, -0.00737393f, -0.05899887f, -0.02293530f, -0.00794567f, -0.28525496f, 0.27957556f, -0.32272950f, 0.05492362f, 0.04174677f, 0.08669529f, -0.12482513f, -1.38795066f, 0.64346641f, -0.23355025f, -0.12378562f, -0.31693685f, 0.07821895f, -0.15986212f, -0.14775954f, -0.13629861f, -0.07793995f, -0.17868389f, -0.17193651f, 0.02228306f, -0.08534969f, 0.43826717f, 0.08641029f, -1.09509659f, 0.27824038f, -0.28969666f, 0.03253071f, -0.09294218f, -0.57794785f, -0.02266234f, -0.06503057f, -0.98176259f, -0.01648938f, 0.18144061f, -0.40088826f, 0.10790367f, -0.03657284f, 0.14844263f, 0.10100935f, -0.58972198f, -0.08070707f, -0.00740044f, -0.32006896f, -0.15235919f, -0.20213082f, -0.15001749f, -0.64267260f, 0.04983103f, 0.05861533f, -0.56175089f, 0.50922143f, 0.00991043f, -0.38601398f, -0.00728035f, -0.39776593f, -0.16602723f, 0.42480746f, 0.09990881f, 0.32273218f, 0.41105223f, -0.00197572f, -0.58213526f, -0.04772701f, 0.01762236f, -0.07445100f, -0.38132066f, 0.01870142f, -0.01169060f, 0.14820962f, -0.21134034f, 0.49309301f, 0.23585571f, -0.27348164f, 0.03695865f, -0.01159800f, 0.19873330f, -0.16053450f, -0.31253645f, -0.27069825f, -0.00491069f, -0.22743168f, 0.12882774f, 0.56346709f, -0.50319999f, -0.03542291f, -0.30182734f, 0.64130098f, 0.14408344f, 0.06176180f, 0.14237422f, -0.27042562f, 0.13029484f, -0.27387697f, 0.04802082f, 0.05408520f, -0.10537814f, 0.42363194f, 0.23538493f, 0.07068735f, -0.20285331f, 0.11745055f, -0.07342781f, 0.09776933f, 0.20437010f, 0.44894788f, 0.20262398f, 0.11386428f, 0.11808512f, 0.27134189f, 0.00868969f, -0.17033282f, 0.05707946f, -0.08459231f, -0.17455356f, -0.07591034f, -0.07051305f, -0.42455375f, 0.18665387f, -0.02623399f, -0.04856309f, 0.33129436f, -0.17056049f, 0.41789427f, 0.13210210f, -0.00950825f, -0.50949609f, 0.25065970f, 0.45718524f, -0.11737627f, 0.30684903f, -0.03353854f, 0.12760574f, 0.03440294f, 0.47315750f, -0.16803528f, 0.05586361f, -0.41290709f, 0.10936323f, 0.01680784f, 0.16437116f, -0.01481209f, -1.04291081f, 0.21727520f, -0.19835971f, -0.29256108f, 0.24249005f, 0.66282117f, 0.12594481f, 0.14708890f, 0.01596117f, 0.03971346f, 0.21787594f, 0.28459042f, 0.13980183f, -0.31290969f, -0.27940428f, 0.04833036f, 0.35635573f, -0.32782510f, -0.34663129f, -0.39689407f, 0.20381936f, 0.04726457f, 0.03372849f, -0.19762664f, 0.04140643f, 0.06806009f, 0.11483657f, 0.17727801f, -0.36642644f, -0.17146391f, -0.51129264f, -0.01447279f, 0.08639282f, 0.00814320f, -0.21800558f, -0.17201440f, -0.30344185f, 0.00822442f, -0.21193515f, -0.00063517f, -0.27723572f, -0.21945076f, -0.11490677f, -0.13766989f, -0.17844571f, -0.18600465f, 0.18686832f, 0.10842850f, -0.30308723f, -0.24051367f, -0.16507679f, -0.08910499f, 0.12058493f, 0.01660095f, -0.34042993f, -0.53855306f, 0.15143958f, 0.10825133f, 0.64618212f, -0.95818800f, 0.27450374f, 0.05106006f, 0.05874039f, -0.40460277f, -0.14067680f, -0.16070221f, -0.04418607f, 0.10108814f, 0.25587288f, -0.18066633f, -0.08412741f, 0.00692066f, 0.13738799f, -0.37755132f, 0.09469788f, 0.21672127f, -0.28913796f, -0.13851804f, -0.17763363f, 0.36521652f, 0.06112574f, -0.01456108f, 0.41184437f, 0.04576198f, 0.54047793f, 0.11699144f, -0.32280314f, -0.07973105f, 0.53724349f, -0.10861463f, -0.11611363f, -0.25908411f, -0.37063944f, -0.20849788f, 0.22240660f, -0.01351483f, 0.38751024f, -0.29897168f, -0.17080602f, 0.15568823f, 0.11701825f, -0.79428977f, -0.46127623f, -0.27360922f, -0.20734602f, 0.36257643f, -0.33271152f, -0.52441269f, 0.28735182f, 0.27500251f, -0.29656041f, -0.00821207f, -0.09106193f, 0.20544811f, 0.08916298f, -0.22441792f, 0.21731687f, -0.41743174f, 0.04989804f, -0.29064488f, -0.12860040f, 0.56199932f, 0.06136370f, -0.34807810f, -0.09252539f, -0.41312784f, 0.16956468f, 0.01845440f, 0.03041783f, -0.05149734f, 0.18695398f, 0.03869404f, 0.06178823f, -0.12698232f, -0.13650964f, 0.05318197f, 0.11537544f, -0.18654132f, 0.01245668f, 0.03393248f, 0.09274542f, -0.09675842f, 0.10366660f, -0.25900811f, 0.09895097f, 0.09176372f, -0.58248979f, -0.26442903f, 0.16299929f, -0.32192743f, 0.29421121f, 0.04201328f, 0.29266685f, -0.82538301f, 0.10135795f, 0.07113832f, 0.48011541f, -0.02041940f, 0.37754101f, -0.08555681f, -0.02665411f, -0.38110456f, -0.15573263f, -0.12689474f, 0.01375011f, 0.14906389f, 0.01045507f, 0.06737046f, 0.03418491f, 0.22086748f, -0.07655932f, 0.28090686f, 0.02907513f, -0.07251009f, 0.19747084f, -0.42209607f, -0.18860634f, 0.06236362f, 0.19660810f, 0.16482897f, -0.28365266f, -0.06548218f, -0.16713797f, -0.10941865f, 0.15084243f, -0.17493500f, -0.32422227f, 0.04497247f, 0.20877472f, -0.05998195f, 0.37939498f, 0.16459450f, 0.47273144f, -0.24729529f, -0.15978980f, -0.71833807f, -0.12318378f, -0.46719381f, -0.35300040f, 0.09680280f, -0.00977146f, -0.78217959f, 0.26966766f, -0.00158436f, 0.32276100f, -0.09489386f, -0.14310828f, 0.11889584f, 0.25936157f, -0.07172596f, -0.44611517f, 0.16104455f, 0.26535341f, -0.11372264f, -0.28091857f, 0.16287187f, -0.14685105f, -0.74850118f, 0.04099244f, -0.80712527f, 0.10080345f, 0.08315656f, -0.25571555f, -0.27537411f, -0.20029055f, -0.19324574f, -0.57690948f, 0.03869581f, 0.02872893f, -0.15140855f, -0.36661133f, -0.05153965f, 0.08812682f, 0.18472145f, -0.50664407f, -0.23550028f, 0.28108591f, 0.14167187f, 0.33550471f, -0.42027715f, 0.06290882f, 0.18770030f, 0.63134670f, 0.54739100f, 0.18918821f, -0.36876482f, 0.19264960f, 0.38011277f, 0.29204142f, 0.15761907f, 0.16714445f, 0.09802920f, 0.01268560f, 0.26665586f, -0.00462279f, -0.39843425f, -0.01432161f, -0.09573945f, -0.03442229f, -0.09367045f, -0.05591986f, -0.33132428f, 0.21416527f, 0.12535721f, 0.15680027f, -0.19688626f, 0.13362359f, 0.30005407f, 0.06185464f, -0.01162766f, 0.03965151f, -0.14766517f, 0.07231776f, -0.11305081f, 0.07300649f, 0.13059705f, -0.36985776f, 0.05877625f, 0.01528002f, -0.09798629f, -0.22171707f, -0.30823132f, -0.15676033f, -0.12768903f, -0.08081880f, 0.23465168f, 0.11136214f, -0.26710656f, 0.32710040f, -0.03452018f, 0.19179271f, 0.54866195f, 0.18038276f, -0.17488749f, 0.19627911f, -0.25461149f, -0.18405703f, 0.09046571f, -0.65182096f, 0.05499736f, 0.61070830f, -0.04164504f, -0.17489116f, -0.18619737f, 0.09350565f, 0.12533350f, 0.15564467f, 0.21794936f, 0.15388989f, -0.62136376f, -0.04521388f, -0.46194753f, 0.28393152f, -0.32638931f, -0.18144268f, 0.38036504f, 0.07502024f, -0.38955182f, -0.30929720f, -0.27227873f, 0.02849143f, -0.27239639f, 0.27918938f, -0.11705980f, -0.25956589f, -0.23406054f, 0.08922610f, -0.08929306f, -0.12800609f, -0.09107716f, 0.26916790f, 0.16963097f, -0.56136680f, -0.52550805f, 0.12838149f, 0.36070383f, -0.27509800f, 0.01309418f, 0.32304955f, 0.47442037f, 0.11683117f, 0.09205047f, -0.53307021f, -0.48232931f, 0.20492814f, 0.10363927f, 0.18967730f, -0.35898405f, -0.29537562f, 0.04571478f, -0.53276837f, 0.17952231f, 0.10030823f, -0.13326339f, -0.11559644f, -0.26798645f, -0.04922058f, 0.14398719f, -0.20736034f, -0.37951624f, -0.19408046f, -0.35026404f, 0.03090613f, -0.17694980f, -0.18820290f, -0.06940560f, -0.26243326f, -0.11277921f, -0.21713199f, -0.34599406f, 0.30322927f, -0.14450596f, 0.03243764f, -0.20926461f, -1.16569602f, -0.06097395f, -0.12062631f, -0.16197227f, 0.10134979f, 0.24933878f, -0.10384522f, -0.79761702f, 0.11299883f, 0.00318021f, 0.40745655f, 0.12401669f, 0.36708507f, 0.35540175f, -0.36072856f, 0.11344863f, 0.09139790f, -0.01595191f, -0.31191018f, 0.09379610f, -0.10595596f, 0.13028193f, -0.70025808f, -0.10151932f, 0.25194642f, 0.09708683f, -0.05218087f, -0.03997208f, -0.37953815f, -0.00088615f, 0.17746457f, 0.54368865f, -0.12783265f, -0.17168169f, -0.36914659f, -0.38686135f, 0.37679815f, 0.39525035f, -0.10581054f, -0.03804456f, -0.11020941f, -0.20028228f, 0.35549822f, -0.12001202f, 0.20592928f, -0.21423241f, -0.27558807f, 0.10965675f, -0.25170109f, 0.01177324f, -0.03224013f, -0.02013069f, 0.18132937f, -0.04998049f, 0.05421494f, 0.13333379f, -0.40154365f, 0.19098581f, 0.21147291f, 0.21321264f, 0.04492589f, -0.23801810f, 0.33849886f, -0.14271770f, -0.08839749f, 0.17041029f, 0.53892064f, -0.26514032f, 0.03725737f, 0.39605606f, -0.37772027f, 0.00366080f, -0.24887539f, 0.16516958f, -0.10906126f, 0.14384931f, 0.10405432f, 0.22184864f, -0.02659441f, 0.15207393f, -0.17125340f, -0.10026571f, -0.12554911f, 0.01866535f, -0.04232756f, -0.06655985f, 0.19110872f, -0.08786191f, 0.06624511f, 0.15276948f, 0.09638528f, 0.53606176f, 0.28387851f, 0.40919948f, -0.30675009f, 0.01333239f, 0.45724902f, 0.20700264f, -0.13318262f, -0.59108657f, -0.07166989f, 0.23072523f, -0.01092828f, -0.27622104f, 0.32994616f, -0.24174476f, 0.31249157f, 0.15866074f, 0.44606316f, 0.10248756f, -0.27472937f, -0.23469894f, -0.28487006f, 0.03058012f, 0.00587182f, -0.31194168f, 0.60027766f, -0.26517731f, -0.23991148f, -0.31033632f, 0.27719679f, -0.09156977f, -0.15897271f, 0.13149999f, -0.11205070f, -0.23185177f, 0.21944134f, 0.21378724f, -0.10559932f, 0.16554053f, -0.22460367f, 0.12209672f, -0.10715288f, 0.29298511f, -0.20910780f, 0.02431280f, 0.07224587f, 0.05025249f, -0.60867339f, -0.04809656f, -0.43166688f, -0.72436035f, 0.01522970f, -0.21673259f, 0.04894340f, 0.18921971f, 0.33762750f, 0.09116996f, 0.16241859f, -0.12974118f, -0.16609676f, 0.12050468f, 0.11758748f, -0.32392725f, -0.03790537f, 0.34946188f, -0.28692803f, 0.12879634f, -0.09349725f, -0.05566685f, -0.01463978f, -0.18213880f, -1.04326940f, -0.00935652f, 0.01210225f, -0.41220662f, -0.00604173f, 0.05028223f, -0.13078918f, 0.10026701f, 0.18015550f, -0.24677968f, -0.26505691f, -0.17226513f, -0.67192978f, 0.26654205f, 0.06751604f, -0.43356964f, -0.17990603f, -1.21888649f, 0.16308521f, 0.12122022f, -0.39015424f, 0.00811102f, -0.49472249f, 0.03249570f, -0.28831077f, -0.51167494f, -0.56371123f, 0.32680452f, -0.10101566f, 0.04357383f, 0.05817166f, 0.19550195f, -0.00245620f, -0.05042905f, -0.03414023f, 0.01806050f, -0.00322329f, -0.16890924f, 0.49208108f, -0.32992062f, -0.12389851f, -0.25707623f, -0.21436119f, 0.14432094f, -0.67512614f, -0.17703739f, -0.04283332f, -0.10841732f, 0.35558495f, 0.21276537f, -0.30357111f, 0.01104308f, -0.26237372f, 0.27404860f, -0.19746430f, 0.08378623f, -0.33322215f, -0.11455427f, 0.45240688f, -0.31095478f, 0.40056217f, -0.18479472f, -0.30646935f, 0.48286709f, 0.28966752f, 0.01180642f, 0.17473187f, 0.02153654f, -0.28616700f, 0.33664057f, -0.55717373f, 0.23988280f, -0.26881760f, 0.22453666f, -0.21350254f, 0.53959239f, -0.32735649f, 0.19284497f, -0.06075214f, -0.08914262f, -0.04927011f, -0.22317408f, 0.38543525f, 0.18091856f, 0.02698021f, -0.13358964f, -0.02943400f, -0.02831450f, 0.04656776f, 0.43747902f, 0.02211409f, -0.12741916f, 0.02948487f, 0.02779543f, -0.39997438f, 0.16915889f, 0.06951140f, -0.19948612f, 0.03694640f, 0.02416835f, -0.29176244f, 0.18238981f, -0.18215205f, -0.05209637f, -0.35001653f, 0.31739274f, -0.01537981f, -0.04405645f, 0.49355504f, -0.25558826f, 0.14857058f, 0.18244621f, -0.42102179f, 0.72704911f, -0.17070894f, 0.17898306f, -0.06896991f, 0.13217275f, 0.10334326f, 0.04225869f, -0.24983634f, -0.34616372f, -0.10908236f, 0.46846786f, 0.43004382f, -0.17244527f, -0.40668643f, 0.13758063f, 0.00094866f, 0.18423761f, 0.01356267f, -0.10540570f, -0.10336205f, -0.06984377f, -0.21166325f, -0.11418365f, -0.21634968f, -0.31625491f, 0.03029328f, 0.31937557f, 0.16238728f, -0.35600203f, -0.20475319f, -0.04476532f, -0.38981849f, -0.01251158f, 0.10240111f, -0.44223598f, -0.10440344f, 0.29212835f, 0.26874065f, 0.02290202f, -0.07141644f, -0.06473558f, -0.36606789f, -0.31948692f, 0.14711761f, -0.10101011f, 0.05664494f, 0.30980551f, -0.75032783f, -0.14743616f, -0.25351620f, -0.09611120f, 0.17503917f, 0.45571798f, -0.16508056f, -0.15360788f, -0.15712033f, 0.10238314f, -0.04714721f, 0.33767498f, -0.26114652f, 0.05573140f, 0.29073390f, 0.00038956f, 0.05408300f, -0.10340180f, 0.19208892f, 0.27495512f, -0.34406337f, 0.11745446f, 0.11818504f, -0.28584087f, -0.02390738f, 0.04543522f, -0.16444615f, -0.16310096f, -0.24254006f, 0.19584833f, -0.09188922f, -0.15083714f, -0.13278429f, 0.01650442f, 0.15310700f, -0.10749722f, -0.25707316f, -0.22427474f, -0.06433492f, -0.04203250f, 0.04801203f, -0.04696614f, -0.24244843f, -0.11701558f, 0.47935313f, -0.15901904f, 0.17901815f, -0.50270647f, 0.54883456f, 0.42551297f, 0.04106172f, -0.27540737f, -0.43506062f, 0.05867571f, -0.98180467f, 0.21872327f, -0.06100317f, -0.08935717f, -0.33062235f, 0.01159843f, 0.14052205f, -0.19317256f, 0.11902950f, -0.01955599f, -0.03489986f, 0.13543531f, -0.25422084f, 0.09407154f, 0.10258649f, 0.52296662f, -0.36978504f, 0.25037807f, -0.12552366f, -0.10290434f, -0.39066246f, 0.30512056f, -0.31965512f, -0.04684642f, 0.20217450f, 0.04628746f, 0.02177499f, 0.39789003f, 0.55064750f, 0.32867810f, -0.11200915f, -0.32656148f, -0.32252878f, 0.12304208f, -0.21318108f, -0.24764822f, 0.24816467f, 0.07432649f, -0.57926333f, -0.28308505f, -0.20167522f, 0.01218452f, 0.34540626f, -0.37146515f, 0.34104049f, 0.09181621f, -0.08619598f, -0.39496741f, -0.05903333f, -0.17862511f, -0.59321576f, -0.13541447f, 0.10606437f, 0.37155673f, -0.08112232f, -0.07127726f, -0.23932172f, -0.45748591f, 0.11759835f, -0.13455123f, 0.31533819f, -0.45968831f, 0.34547445f, 0.03926048f, -0.20066014f, 0.18823029f, -0.15845013f, 0.29335675f, -0.10949431f, -0.22616284f, -0.00404101f, -0.27011877f, -0.37425363f, 0.13353951f, -0.15685102f, 0.40583822f, 0.25752512f, -0.06584831f, 0.03817749f, 0.25044268f, 0.25320652f, 0.07021996f, 0.25164196f, -0.24116230f, -0.40054581f, 0.07789214f, -0.44958165f, -0.27231163f, 0.06391454f, 0.45675212f, 0.12007014f, 0.17680660f, 0.05829931f, -0.09133128f, 0.32903677f, -0.11325631f, 0.69764304f, -0.32073262f, -0.12977684f, -0.25500906f, -0.64299738f, -0.23558888f, 0.13476476f, 0.08429634f, -0.10104927f, 0.20056213f, -0.10197817f, 0.39080635f, 0.11235110f, 0.08168125f, -0.04331321f, -0.16110986f, -0.21974128f, -0.05656271f, 0.21491319f, 0.09315349f, -0.06925115f, -0.31252548f, -0.04578813f, -0.20630972f, -0.60078228f, 0.00280339f, -0.41482559f, 0.12533158f, -0.01156779f, -0.57261455f, -0.07274096f, 0.15342851f, 0.17357954f, -0.00763862f, -0.08442239f, -0.15930818f, -0.24423192f, -0.36043417f, -0.10549049f, -0.08615962f, 0.04318962f, -0.19888788f, 0.53458047f, -0.11533371f, 0.56031853f, 0.11396156f, -0.36497918f, -0.17841913f, -0.01352611f, -0.45145890f, 0.44739744f, -0.22058637f, -0.43632865f, 0.22308877f, -0.21628429f, -0.07074805f, 0.06118212f, 0.50292659f, -0.01390148f, -0.02380427f, -0.20859911f, -0.17182495f, 0.02088284f, -0.22811827f, 0.05346756f, -0.75876385f, 0.38212174f, 0.31801969f, 0.09406393f, -0.48280388f, -0.12122357f, -0.06308506f, 0.35918862f, -0.13766484f, 0.14985327f, -0.31256729f, 0.15283617f, -0.03404221f, -0.09323686f, 0.29214936f, 0.32291436f, 0.18229093f, -0.15738827f, 0.00323465f, -0.03674434f, -0.08057132f, -0.38562474f, -0.14030249f, -0.02832915f, -0.15171714f, -0.07745336f, 0.17655137f, -0.20624168f, 0.09541719f, 0.14502256f, -0.08208320f, 0.03593120f, -0.00959523f, -0.15476756f, -0.04549653f, 0.20595680f, 0.04738230f, -0.07077977f, 0.08479691f, -0.25465354f, -0.12490582f, -0.02322313f, 0.00843357f, -0.07405636f, 0.04316115f, -0.08319155f, -0.09100600f, -0.03845799f, 0.29485327f, -0.00313043f, -0.15949786f, -0.24588642f, -0.56505489f, -0.39349541f, 0.09930476f, 0.00800541f, -0.20560782f, 0.01325413f, 0.08527563f, 0.05817710f, -0.12853168f, 0.05718732f, 0.18051814f, 0.16048673f, 0.04004944f, -0.09524323f, -0.48000845f, -0.10810522f, 0.09344257f, 0.19836968f, -0.00373571f, -0.43920633f, -0.17357650f, 0.20110738f, 0.37417287f, -0.39464989f, 0.24776717f, 0.05486651f, -0.22441396f, 0.21433322f, 0.56123275f, 0.12267910f, -0.09835977f, -0.11389313f, 0.47847834f, 0.08166688f, -0.00785213f, 0.30569202f, 0.28512466f, 0.01392684f, -0.01360946f, -0.33174619f, -0.03874933f, -0.47567722f, 0.07904216f, -0.41679883f, 0.59323084f, -0.49274594f, -0.27106199f, -0.11090820f, 0.57539141f, -0.13210604f, -0.12523076f, 0.19257517f, 0.09083519f, -0.22968420f, -0.27708563f, 0.11460103f, 0.02980794f, -0.54275376f, 0.29284957f, -0.53683966f, 0.32506943f, 0.18306664f, -0.11646949f, -0.72122717f, -0.05398273f, -0.16902360f, -0.22299577f, 0.28311110f, -0.16343087f, -0.05414741f, -0.37570950f, -0.07271218f, -0.08229724f, 0.08059048f, 0.25792646f, -0.54458028f, -0.36412689f, 0.06346406f, -0.03057028f, -0.33076906f, -0.32661974f, -0.06708499f, -0.37160140f, -0.21172272f, -0.09410889f, -0.05563421f, -0.15921602f, -0.23216215f, -0.04946368f, -0.33037305f, 0.08070363f, -0.32590458f, 0.25485319f, -0.24383324f, -0.18401334f, 0.28512305f, 0.49230519f, -0.20799494f, -0.15160038f, -0.26336956f, -0.21922289f, -0.83104092f, 0.11194336f, 0.33107042f, -0.13933958f, -0.04687203f, 0.53726971f, 0.34195802f, -0.23216632f, 0.02085158f, 0.50770271f, 0.04058831f, -0.06122145f, -0.15460435f, -0.10342626f, -0.30377311f, 0.27215928f, 0.05229421f, -0.58235472f, -0.14867218f, -0.12540609f, 0.08583593f, 0.13439099f, 0.36782676f, 0.35024634f, 0.36070532f, 0.07929012f, -0.22147849f, -0.43514550f, -0.29287896f, 0.08902438f, 0.03341867f, -0.41368493f, -0.24739198f, -0.25231767f, -0.13226575f, 0.32133049f, -0.02220375f, -0.06795080f, 0.48236352f, 0.31407365f, 0.21832813f, -0.12255342f, -0.25021419f, 0.00973558f, 0.03387609f, -0.22880988f, 0.40791848f, -0.05084350f, -0.06293248f, -0.16711369f, -0.09026850f, -0.23618257f, 0.16223124f, 0.32823658f, -0.11138741f, 0.18127243f, 0.12832640f, -0.01568071f, 0.58891690f, 0.05715356f, -0.06140678f, -0.47213587f, -0.12008686f, 0.06941184f, -0.11285392f, -0.15762725f, -0.46003801f, 0.07302077f, -0.23926467f, -0.15667969f, 0.36327654f, -0.14152153f, -0.06602839f, -0.36451134f, -0.08789421f, -0.32645947f, -0.22855555f, 0.32029852f, -0.12478830f, -0.07648444f, 0.02365431f, 0.31932217f, -0.01825248f, 0.13846780f, 0.02896650f, 0.30619058f, 0.04511644f, -0.01183949f, 0.13069098f, 0.11595477f, 0.19215548f, -0.01441465f, -0.28206420f, 0.01706941f, 0.32779694f, -0.03690771f, 0.50468647f, -0.11912949f, -0.13357635f, -0.29604846f, -0.02016067f, -0.53984022f, 0.06906877f, 0.07153445f, -0.06052143f, 0.44392103f, 0.32307169f, 0.33983538f, -0.00133095f, -0.02192453f, 0.12435581f, 0.36996400f, -0.29769060f, -0.07756037f, -0.28926212f, -0.19925290f, -0.30872124f, -0.09608042f, -0.05267645f, 0.19597191f, 0.29637533f, -0.09943362f, -0.05419496f, -0.09557615f, 0.01697768f, -0.20700429f, 0.05953117f, -0.05317354f, 0.07385045f, -0.34143296f, -0.28667405f, -0.02667123f, -0.47502819f, 0.14510341f, 0.21685623f, -0.25731388f, -0.15346420f, 0.22593361f, -0.01681278f, -0.23734851f, -0.10843829f, -0.60040855f, -0.61189121f, -0.03195047f, 0.16087587f, -0.05082151f, 0.27069882f, 0.06789131f, 0.29663286f, 0.17631131f, -0.14348303f, -0.08412171f, 0.51592231f, 0.45722193f, -0.09952268f, -0.29934049f, -0.25466189f, 0.37699416f, -0.14646497f, 0.05665956f, 0.11393737f, -0.15147121f, 0.40312645f, 0.04249325f, -0.30998379f, -0.17557546f, 0.13652159f, 0.37704748f, 0.04109218f, -0.05532845f, -0.27313077f, 0.09394510f, 0.21159263f, -0.48154068f, 0.10699280f, 0.19967321f, -0.33944282f, -0.16803020f, -0.29497832f, 0.06544162f, -0.04973168f, -0.35641915f, -0.22254647f, 0.16287296f, 0.38874617f, -0.40508598f, 0.14241181f, -0.08217893f, 0.02223020f, -0.05781933f, 0.67146206f, 0.15871769f, 0.02305916f, 0.26193345f, -0.42428002f, -0.14540967f, 0.04835046f, -0.20611696f, 0.01309021f, 0.17924920f, -0.36163911f, -0.12589143f, -0.47659662f, 0.13374507f, -0.19571547f, 0.40843815f, -0.23827437f, -0.68231273f, 0.17824572f, -0.21849693f, -0.26890582f, -0.14966254f, 0.06237604f, 0.11827167f, 0.53551471f, -0.02797937f, -0.35213658f, -0.10444642f, 0.14660557f, 0.13788691f, -0.33500639f, -0.15680438f, -0.11656198f, -0.01205508f, 0.08165371f, 0.05881473f, -0.28109708f, -0.03012746f, -0.51197457f, 0.00692765f, 0.09145820f, -0.04743933f, -0.11621626f, 0.14391543f, -0.20683897f, 0.25174639f, -0.05868725f, 0.63714331f, -0.34403077f, -0.20133969f, -0.24460328f, -0.58335155f, 0.15660609f, -0.18429954f, 0.31250173f, -0.46455249f, 0.23345391f, 0.01427473f, -0.25980222f, 0.12078986f, 0.45887452f, 0.00369214f, 0.04361384f, 0.23683415f, -0.15160784f, -0.36525455f, -0.09787660f, 0.22295086f, 0.50868124f, -0.12347226f, -0.06677941f, 0.02535383f, 0.02276302f, 0.38460115f, -0.22057001f, 0.31738701f, -0.02351273f, 0.07942787f, 0.00414758f, 0.00521760f, -0.09520914f, 0.01164302f, -0.24970761f, -0.17585526f, -0.10806018f, -0.18789870f, -0.37798437f, -0.31291103f, 0.00321132f, 0.18233855f, 0.05048221f, -0.23978148f, -0.28081691f, 0.35248637f, -0.22478665f, 0.14329346f, -0.78258896f, -0.22457276f, 0.58197808f, 0.05482875f, -0.01681620f, -0.06898765f, -0.02246790f, -0.17804085f, -0.04544886f, -0.10092000f, 0.35892037f, 0.08117545f, -0.01548102f, 0.09550000f, -0.03667575f, -0.02655709f, -0.24111989f, -0.22303373f, -0.12961787f, 0.19726534f, 0.19776766f, 0.04443535f, 0.06249573f, -0.27692428f, 0.27976277f, 0.23051178f, 0.35783520f, -0.25037700f, -0.39526355f, -0.10402401f, -0.01197809f, 0.24582031f, -0.02242168f, -0.10709041f, -0.02805919f, -0.19022694f, -0.18236248f, -0.04181975f, 0.06072643f, -0.03829311f, 0.51853496f, -0.73708415f, -0.23589382f, -0.42045471f, 0.06448802f, -0.19615482f, -0.23837614f, 0.03903650f, 0.00546142f, 0.02724650f, -0.14646289f, 0.67949259f, -0.00801749f, 0.00156897f, -0.57733923f, -0.24938239f, -0.08264182f, 0.12553360f, -0.17995018f, 0.12868169f, -0.03456292f, 0.34041536f, 0.11764309f, 0.05320229f, -0.19100960f, 0.06572322f, -0.26306686f, -0.20961851f, -0.14077291f, -0.08540671f, -0.20748502f, 0.21335979f, 0.24793766f, -0.06728467f, -0.02169953f, -0.12008168f, -0.06675372f, -0.13748342f, 0.02756145f, 0.11050167f, -0.30550069f, -0.04942219f, 0.16223305f, -0.21639787f, 0.03925714f, 0.04878516f, 0.14370275f, -0.06107593f, 0.15716973f, -0.08685761f, -0.16052119f, -0.04866543f, 0.18131697f, 0.25513926f, -0.04320204f, -0.12413657f, -0.21467237f, 0.07813545f, -0.48077050f, -0.01485104f, 0.07457859f, -0.01608695f, 0.01673449f, -0.31941730f, 0.12774174f, -0.04782090f, -0.16441274f, -0.00688656f, 0.04108307f, 0.14978580f, -0.10499904f, -0.01479641f, 0.56384116f, 0.05123650f, 0.06019906f, -0.11550713f, -0.01133696f, -0.14858793f, -0.18725044f, -0.19230802f, -0.10027102f, 0.48617631f, -0.17708535f, 0.17353730f, -0.09181192f, 0.18175021f, -0.42211550f, -0.31761795f, -0.08911581f, -0.06859586f, 0.13624650f, 0.01523325f, -0.18170415f, 0.19150035f, 0.71741104f, -0.04682808f, -0.46444145f, 0.38160518f, -0.03276192f, -0.12941127f, -0.08170364f, -0.27670613f, -0.24525738f, 0.30586293f, -0.26617581f, 0.03797988f, 0.08782615f, 0.08650942f, 0.05545401f, 0.02053840f, 0.09995502f, -0.06852088f, -0.17502190f, -0.11903875f, -0.38149589f, 0.12230626f, -0.12737451f, 0.06033130f, -0.21119648f, -0.00866402f, 0.04511653f, -0.14727195f, 0.10340071f, -0.35888481f, -0.35227621f, -0.15058824f, 0.39657292f, 0.27936754f, -0.16897084f, 0.12522572f, -0.02619028f, 0.61612755f, 0.01745575f, -0.21867892f, -0.05839504f, -0.21675369f, 0.19608136f, -0.10011689f, 0.02069413f, 0.54363126f, 0.19268839f, -0.10145298f, -0.60023916f, -0.06433480f, -0.32243109f, -0.12607107f, 0.35371682f, -0.38162643f, -0.13551809f, 0.00376044f, 0.42923337f, -0.04058217f, -0.35649702f, 0.28890616f, 0.21421199f, 0.04269690f, -0.27548289f, -0.20222418f, -0.05648706f, 0.11544135f, -0.12956133f, 0.11878903f, -0.21297751f, -0.07102627f, -0.14103687f, 0.27229393f, -0.29901001f, 0.14248858f, 0.05881212f, -0.43174365f, 0.01976424f, -0.40875044f, 0.10169438f, 0.08087201f, 0.00303119f, 0.40607250f, -0.11765175f, -0.68685848f, -0.24055116f, -0.03425195f, -0.16986310f, 0.09262439f, 0.25056386f, -0.25509420f, -0.22789565f, 0.00790821f, -0.08867188f, -0.24968855f, 0.14971393f, -0.40828860f, -0.27053258f, -0.16331044f, 0.03506786f, 0.43372306f, -0.01789811f, -0.14980832f, -0.24617228f, 0.34195977f, 0.27240655f, 0.07566725f, -0.31974253f, -0.10199864f, -0.34250605f, -0.25174820f, 0.17321892f, 0.51245970f, 0.16979909f, -0.26444206f, 0.25262344f, -0.71913135f, -0.04974065f, 0.26467192f, 0.03486545f, 0.54390478f, 0.19105822f, 0.02077655f, -0.23065178f, 0.20315629f, 0.07830515f, -0.26614758f, -0.21951075f, 0.06321238f, 0.02257050f, -0.16149376f, -0.55025858f, -0.32235953f, -0.01409741f, -0.64582449f, 0.19385086f, -0.13411202f, -0.23897049f, 0.16639711f, 0.21754749f, -0.02129078f, -0.17393515f, 0.35137296f, -0.28044122f, -0.12012223f, 0.51514000f, 0.04071530f, -0.18829088f, -0.03403663f, 0.13360697f, 0.22147353f, -0.11108509f, 0.00319165f, 0.01570826f, 0.12529631f, -0.35014570f, -0.15483417f, -0.05029242f, 0.19049771f, 0.03132318f, 0.10595386f, 0.12501006f, 0.38578507f, -0.07408304f, 0.05633547f, -0.02608767f, 0.05622080f, -0.10627691f, -0.13771211f, -0.07718547f, 0.03675508f, 0.45554522f, -0.15786852f, -0.11799900f, -0.17714861f, -0.27657264f, -0.03510633f, -0.15312895f, 0.31809080f, 0.31846526f, 0.15529040f, 0.21964802f, 0.00593290f, 0.12946339f, 0.01417380f, -0.05357032f, 0.06534988f, -0.01358562f, 0.06641202f, -0.08976731f, 0.01561340f, -0.26849869f, -0.13864200f, -0.21703967f, 0.15702263f, -0.27017143f, -0.19950424f, -0.13266775f, -0.19234048f, 0.04751371f, -0.09401049f, -0.02913106f, 0.25890595f, 0.31184608f, -0.72232372f, -0.14302960f, 0.28910735f, 0.03226998f, -0.04464247f, -0.17891781f, -0.41468191f, -0.00949567f, -0.01188560f, 0.02617566f, 0.03325981f, -0.42145342f, -0.08106038f, 0.16926290f, -0.24003936f, -0.01664250f, 0.10112099f, -0.12516451f, -0.21607138f, 0.20794578f, 0.18512461f, -0.31183675f, 0.07004194f, 0.45819974f, -0.19175065f, 0.12745972f, -0.08913592f, -0.20303288f, -0.09766479f, 0.07712472f, -0.02147993f, 0.11487225f, -0.10149576f, -0.19097748f, 0.16238232f, -0.18498081f, -0.10250877f, 0.05560590f, 0.01345904f, 0.10631058f, 0.11869308f, -0.41717055f, 0.23187093f, -0.03055277f, 0.16698422f, 0.19639155f, -0.04471216f, 0.56952512f, -0.25060192f, -0.42106161f, -0.17277546f, 0.42469570f, 0.19344696f, -0.06446508f, -0.14723803f, 0.03792645f, 0.05887715f, 0.17031516f, -0.15822580f, -0.18049173f, -0.09925889f, -0.25379166f, -0.17740670f, 0.02376899f, 0.08384140f, 0.12696633f, 0.03483316f, -0.50621116f, -0.08316650f, -0.02321291f, -0.39637569f, -0.05861787f, -0.41615599f, -0.33081880f, -0.12605649f, -0.18064953f, 0.21211198f, 0.20140858f, -0.19802716f, -0.30095166f, 0.38546532f, 0.11038565f, -0.59677434f, -0.18046196f, -0.08045395f, -0.24862398f, 0.07528564f, 0.02021536f, -0.05175091f, -0.10577319f, -0.25743756f, -0.13141583f, 0.17240630f, -0.13350630f, -0.14621913f, 0.34740782f, 0.55926400f, 0.01589566f, 0.37944987f, 0.06096397f, 0.01831261f, -0.47142661f, -0.32187584f, 0.17604336f, 0.11679458f, -0.25791290f, 0.21744810f, 0.18907501f, 0.01925100f, 0.15311979f, 0.24443653f, -0.13680626f, 0.10731098f, 0.06460937f, -0.12543817f, -0.32083741f, -0.51101542f, 0.13283813f, -0.07392934f, 0.02393399f, 0.05863718f, -0.03296163f, -0.41738325f, 0.22435229f, 0.11800218f, -0.05551397f, -0.22312890f, 0.03494946f, 0.02716419f, 0.20002623f, 0.10513217f, 0.14643928f, 0.11134306f, -0.36499605f, 0.16389833f, -0.13304037f, -0.01481115f, 0.14649731f, 0.35788745f, -0.00062865f, 0.27930191f, 0.30590186f, -0.19562504f, -0.17332502f, 0.20960790f, 0.47952944f, -0.12962446f, -0.29329377f, 0.12652577f, -0.24772629f, 0.15124445f, -0.11087772f, 0.02532733f, -0.08158193f, -0.11338057f, 0.06962714f, -0.20160639f, -0.16291721f, -0.01796877f, -0.41924641f, -0.16591381f, 0.15104654f, -0.15766443f, 0.53485847f, -0.31376871f, -0.06309491f, -0.01152791f, -0.21715868f, 0.30854425f, -0.05774872f, 0.12488873f, 0.09993677f, -0.23899466f, 0.26267931f, -0.33673000f, -0.01868354f, -0.35224599f, -0.17356478f, 0.64530015f, -0.33974853f, 0.48645830f, -0.07091653f, -0.29007030f, -0.11934349f, -0.03074009f, -0.25304332f, -0.28650805f, -0.04801772f, 0.10857207f, -0.16521549f, 0.12448116f, 0.04463409f, 0.21334304f, -0.05209716f, -0.18110137f, -0.18950835f, -0.14154612f, -0.04758573f, -0.44010380f, -0.15521051f, -0.03015904f, -0.13780017f, -0.07063726f, 0.07172893f, -0.06172171f, -0.16392443f, -0.33490723f, -0.26761827f, 0.01750330f, -0.24024740f, -0.22553879f, -0.02630354f, 0.03864098f, -0.28331342f, -0.10505955f, -0.28841051f, -0.10951465f, 0.02970277f, 0.48727784f, -0.17867406f, -0.10145926f, -0.02232159f, 0.21058430f, 0.00070557f, 0.03480157f, -0.13061035f, -0.07675854f, 0.29174343f, -0.14082664f, 0.30918357f, 0.26641074f, -0.12299865f, -0.10090146f, -0.11798020f, -0.17330405f, 0.06474519f, -0.51095027f, 0.18748404f, 0.08886588f, 0.15017843f, -0.20051141f, -0.09608249f, 0.48309243f, 0.00869428f, -0.10030776f, 0.12554380f, 0.03018928f, 0.05655215f, 0.01476132f, 0.05799008f, -0.29042241f, -0.14974713f, 0.22799338f, -0.29828238f, 0.14953612f, 0.15141235f, 0.49772871f, 0.04731309f, -0.06274814f, 0.21137217f, 0.14508246f, -0.05888715f, -0.35466528f, 0.24128784f, -0.38115957f, -0.24442296f, -0.20482734f, -0.28224063f, 0.31997159f, -0.21692438f, -0.13587563f, 0.02175231f, 0.29802445f, 0.07731715f, 0.19455712f, -0.16748981f, 0.19817410f, 0.27140719f, 0.21277866f, 0.06243819f, -0.04154435f, -0.21230218f, -0.40175393f, -0.10974889f, 0.06320242f, -0.00185642f, -0.31413922f, -0.06549105f, -0.16198778f, 0.06106935f, -0.09394860f, -0.21117181f, -0.19236952f, -0.12276374f, -0.07327157f, -0.17146090f, 0.10045075f, 0.14632447f, -0.23992580f, 0.36863089f, -0.41988760f, 0.29904324f, 0.10426453f, -0.13895188f, -0.01847507f, 0.23996623f, -0.05284177f, 0.14184798f, -0.05319230f, 0.14276886f, 0.03363534f, -0.23395719f, -0.25376990f, -0.08844705f, -0.07930732f, 0.21879418f, -0.10821819f, -0.28910106f, -0.19969343f, 0.07527231f, -0.18661501f, -0.21116154f, 0.03768202f, -0.33341455f, -0.10309777f, 0.07364040f, -0.04699448f, -0.03963627f, -0.12369034f, -0.28056696f, 0.02927700f, 0.06500934f, 0.13543089f, -0.27822468f, 0.01825279f, 0.26583776f, 0.15035442f, -0.38024443f, 0.08980434f, -0.26148504f, 0.04782509f, 0.05136637f, -0.21582094f, -0.07146540f, 0.03963488f, -0.15391319f, -0.01131041f, 0.01802220f, 0.44362205f, 0.75575572f, -0.16325663f, -0.25242221f, 0.03784001f, -0.11534932f, 0.03311689f, 0.26972792f, -0.16014051f, -0.19944870f, -0.09290535f, -0.24231270f, -0.02345317f, 0.09069496f, -0.06902053f, -0.40392476f, -0.36766243f, 0.15824300f, -0.07503275f, 0.13670941f, -0.00205984f, 0.19644490f, 0.17326353f, -0.05416678f, -0.39970726f, 0.27270776f, -0.08363878f, -0.13643432f, 0.19616961f, 0.31613109f, -0.32091653f, -0.03399270f, -0.09302567f, -0.02354908f, 0.39640382f, 0.25280139f, 0.07273468f, -0.05038816f, -0.05308374f, -0.09652335f, -0.05282388f, -0.27713025f, -0.33086887f, 0.19897828f, -0.10771470f, 0.18344897f, -0.12312131f, 0.00402046f, -0.21671073f, -0.11633071f, -0.20265888f, -0.12271735f, -0.10856486f, -0.01299451f, 0.24659215f, 0.24205537f, -0.17317083f, -0.16098310f, -0.03393038f, -0.08536900f, -0.01840118f, -0.02686566f, 0.39622548f, 0.15975036f, 0.07132676f, 0.05809212f, -0.00926352f, 0.21086913f, 0.03272727f, -0.20505846f, 0.29124337f, -0.17321908f, 0.17827339f, 0.28690785f, -0.05129473f, -0.03817491f, -0.11510932f, -0.18443292f, 0.05607723f, -0.01090856f, -0.25545886f, 0.04073235f, -0.07415412f, -0.01137215f, -0.30191863f, 0.34150332f, -0.24015452f, 0.06777468f, -0.00328141f, -0.14947878f, 0.23320177f, 0.18684866f, -0.08435388f, 0.00386812f, 0.07337304f, -0.08489311f, -0.25407368f, -0.15326968f, 0.00076870f, -0.04917039f, -0.53181350f, -0.13168189f, 0.06775567f, 0.16643383f, -0.03651724f, -0.05514330f, -0.13887276f, -0.03735030f, 0.31864911f, -0.29462516f, -0.03227046f, 0.40127802f, 0.08634019f, 0.37741378f, -0.02718163f, -0.25338539f, 0.02456515f, -0.10227691f, -0.22839761f, -0.22565369f, -0.30726114f, 0.02803235f, -0.24935131f, 0.05481448f, -0.09514908f, 0.49523681f, -0.13994639f, 0.09866996f, 0.30715802f, -0.00751590f, -0.40387860f, -0.31102744f, -0.06184288f, 0.05825075f, -0.26817319f, -0.13306727f, -0.31083664f, 0.16679439f, -0.13367580f, -0.07359460f, 0.12226524f, -0.00971728f, 0.09239458f, 0.03354412f, -0.27438769f, -0.36330330f, -0.23398784f, -0.28531185f, -0.14419177f, 0.22948118f, 0.01393603f, 0.23956464f, 0.00864650f, 0.02707954f, -0.01006668f, -0.48022011f, -0.09836681f, -0.08839633f, 0.25008520f, -0.19755642f, -0.17454763f, -0.12470423f, -0.10430645f, 0.12557186f, 0.02320053f, 0.06661260f, -0.01440620f, -0.20812468f, 0.00420244f, -0.16580813f, -0.07480663f, 0.08408727f, -0.04374009f, -0.21663566f, 0.12073800f, 0.09167156f, -0.02424393f, 0.23829450f, 0.04375912f, 0.04596299f, 0.20998058f, 0.08890504f, -0.16960129f, -0.35012633f, 0.03565149f, -0.22147827f, -0.06854112f, 0.02738093f, -0.01980679f, 0.11014625f, -0.20510656f, 0.02022132f, -0.13993543f, -0.41874766f, -0.01980066f, 0.08959485f, 0.70632470f, 0.21847944f, -0.05631658f, -0.25813535f, 0.22226882f, -0.05172782f, 0.37432629f, -0.18572222f, 0.10666478f, 0.14656687f, -0.03718465f, 0.19492355f, -0.13095124f, 0.21547385f, -0.11430695f, -0.23630168f, 0.20250954f, 0.10553543f, -0.03303080f, 0.15831576f, -0.39873573f, 0.08048773f, -0.30522084f, -0.11360028f, 0.07255993f, -0.32249704f, -0.27897570f, -0.14463979f, -0.05216334f, -0.00086382f, 0.11728197f, 0.28003651f, 0.14588852f, 0.29557917f, -0.10647935f, -0.12411644f, -0.21503054f, -0.00845444f, 0.17808703f, 0.24948187f, -0.37501574f, 0.08315694f, -0.32133114f, -0.60698062f, -0.38403615f, -0.07472485f, 0.53725487f, -0.26571000f, 0.14415149f, -0.01790840f, 0.24092214f, -0.03587517f, 0.17401111f, -0.26029867f, -0.14839964f, 0.17448704f, -0.04809670f, -0.00738148f, -0.24944265f, 0.10895833f, 0.05568824f, -0.09555513f, 0.00600380f, 0.14508152f, -0.03777209f, -0.14772046f, -0.15932517f, 0.12927751f, -0.28087002f, 0.23503733f, 0.04852866f, -0.30642229f, -0.00325297f, -0.08690318f, -0.17143792f, -0.11125102f, -0.30961934f, 0.08302266f, -0.02288384f, -0.10878466f, -0.15471894f, 0.05319091f, 0.19539136f, -0.05612345f, 0.03512435f, 0.00313800f, -0.40451187f, 0.09211263f, -0.05598705f, -0.11800096f, 0.16853268f, -0.06461629f, -0.07279419f, -0.03587089f, 0.03218471f, 0.31717893f, -0.30040497f, 0.10866223f, -0.10869927f, 0.18135239f, -0.32704365f, -0.05070287f, -0.02631563f, 0.35178190f, -0.09481417f, 0.22096592f, -0.01440095f, 0.27388749f, -0.17181851f, -0.44686270f, -0.00746200f, 0.01171528f, -0.39015728f, 0.13491279f, 0.19472885f, 0.28983903f, -0.48299536f, 0.03017193f, 0.01673085f, -0.20140497f, 0.30493292f, -0.10266535f, -0.33527356f, -0.04448886f, 0.17689918f, -0.02705402f, -0.09314810f, -0.11075095f, 0.30260581f, -0.25491279f, -0.27523425f, -0.05795463f, -0.25578743f, -0.20366970f, 0.35661104f, -0.09598209f, -0.09100441f, -0.16704251f, -0.18306002f, 0.25045073f, -0.22300474f, 0.20569427f, -0.12179768f, -0.18501005f, -0.18764247f, 0.08133729f, 0.00548234f, -0.01553516f, 0.17053413f, 0.10221878f, -0.10282258f, -0.22804205f, 0.24116907f, -0.14940116f, 0.02790948f, -0.04879268f, -0.10794463f, -0.01952770f, -0.26394296f, -0.07135371f, 0.10369295f, -0.04067371f, -0.24525398f, -0.07753529f, 0.03816672f, 0.42678913f, 0.14601895f, 0.28812864f, -0.23115884f, -0.15712689f, -0.36509299f, 0.01534541f, -0.17521058f, 0.04822324f, -0.15816894f, 0.04315745f, -0.19766310f, 0.04241022f, -0.14209664f, 0.27070570f, -0.14077896f, -0.09229362f, -0.09117799f, -0.14655539f, -0.18123682f, 0.16190498f, -0.03772125f, -0.14753860f, 0.24790069f, -0.40628076f, -0.21193984f, 0.05935813f, -0.23999640f, -0.12207882f, 0.02794706f, 0.25433496f, -0.05045017f, -0.10351844f, -0.10133354f, -0.22512063f, 0.25715578f, 0.47746748f, 0.04092310f, -0.15574208f, 0.05733368f, 0.50914639f, -0.03674031f, -0.35836944f, 0.22366917f, 0.12340162f, -0.17872554f, 0.34460282f, 0.36958867f, -0.14948344f, -0.10649689f, -0.40523535f, -0.02864931f, -0.01411106f, -0.05266178f, -0.04857273f, -0.27523023f, -0.07770624f, 0.21791737f, -0.16283982f, 0.02569945f, -0.05889676f, 0.10679950f, -0.02693145f, 0.31638631f, 0.24923840f, -0.32469219f, -0.24360134f, -0.43621412f, 0.05170917f, 0.00348650f, 0.04965552f, -0.18249588f, 0.25239992f, -0.06824781f, -0.08932454f, -0.13482378f, -0.01142377f, -0.16390456f, -0.17406251f, -0.06584787f, 0.27002388f, -0.05125061f, -0.30213022f, -0.03336224f, -0.13307236f, -0.30941308f, -0.17154482f, -0.10902874f, -0.15063336f, 0.07589422f, 0.20633350f, -0.04254198f, -0.02430448f, 0.25301710f, 0.02240415f, -0.01670222f, -0.35122678f, 0.02184047f, -0.35197979f, 0.16336666f, -0.15899792f, -0.30551311f, -0.02711509f, -0.26895261f, 0.41220766f, 0.00771315f, 0.10241059f, 0.04384270f, 0.11586388f, -0.07554785f, 0.06867298f, -0.05361871f, -0.01216900f, -0.10577434f, -0.06113823f, 0.08994336f, -0.08107401f, 0.22364944f, -0.16392767f, 0.07950183f, 0.08183908f, -0.04804907f, 0.16777158f, -0.26131192f, -0.25851417f, -0.14025351f, -0.11522985f, 0.07796390f, -0.10637507f, -0.13219747f, -0.14838791f, -0.00310578f, -0.04180950f, -0.04645820f, 0.10756781f, -0.08729905f, 0.23045097f, 0.12923437f, -0.03885527f, -0.00006293f, 0.03984306f, 0.03349361f, -0.21913159f, 0.12273165f, 0.26666674f, 0.06419861f, 0.06996875f, -0.24142963f, -0.20495732f, -0.01752784f, -0.16507933f, -0.01502709f, 0.03902537f, 0.10300971f, 0.24728781f, 0.01696880f, 0.11497915f, -0.10959850f, -0.14801858f, -0.13560866f, 0.00719460f, 0.35265344f, -0.01549720f, 0.41312975f, -0.09125009f, 0.13788627f, -0.44363350f, -0.01211344f, -0.02608895f, 0.04514708f, -0.23838541f, -0.12347996f, -0.03837506f, 0.02991177f, -0.16858295f, 0.03702862f, 0.12881385f, 0.01265998f, -0.04765813f, 0.03141168f, -0.15881494f, 0.32604834f, -0.31265652f, -0.03103419f, -0.19692032f, 0.03823255f, 0.03988444f, -0.02460209f, -0.02044488f, -0.25723490f, -0.10807217f, -0.23227865f, -0.06009039f, -0.04093142f, 0.02364703f, 0.03888411f, -0.11215892f, 0.37005478f, -0.03355215f, -0.22613998f, 0.04797591f, -0.15323165f, 0.19053558f, 0.09145010f, 0.25011584f, -0.10761867f, -0.01246293f, -0.07686931f, -0.04511118f, 0.04553795f, -0.08383159f, -0.22765015f, 0.03475937f, 0.10544792f, -0.22746198f, -0.05145662f, 0.12405032f, -0.08521201f, 0.10115834f, -0.22270638f, 0.07295322f, -0.12312498f, -0.18718566f, -0.00882255f, -0.05008772f, 0.16744359f, 0.41285342f, -0.07403252f, 0.19538809f, -0.04593104f, -0.05676053f, -0.09124329f, 0.04006119f, 0.20254259f, -0.20862171f, -0.04044662f, -0.04577599f, 0.06881825f, -0.16254705f, 0.07866159f, -0.00790979f, 0.19614111f, -0.19408531f, 0.26757056f, 0.10737836f, 0.33223802f, 0.02021596f, -0.13886024f, -0.07232542f, -0.27444631f, 0.10591054f, 0.16960816f, -0.00327568f, -0.17203529f, 0.17603947f, 0.04971186f, -0.17977549f, -0.52167863f, -0.11764279f, -0.03936018f, -0.00274560f, 0.08448576f, -0.11557455f, -0.37358668f, 0.10948237f, 0.04681569f, -0.06515807f, -0.16320544f, 0.26972273f, 0.13259920f, 0.15264367f, -0.05122403f, 0.31369638f, -0.12169870f, 0.04970656f, -0.21730894f, -0.07865231f, 0.08327951f, 0.48170665f, -0.04932687f, -0.04875855f, 0.07179108f, -0.13771886f, -0.04405876f, -0.18756577f, 0.18508527f, -0.04105315f, 0.00179823f, 0.03976981f, -0.23138596f, -0.22125615f, -0.03221913f, -0.10900965f, -0.12645699f, -0.05851566f, -0.08276467f, -0.08344588f, -0.20798273f, 0.13373630f, -0.05883124f, -0.12574649f, 0.22775248f, -0.04254299f, -0.02265628f, -0.03894262f, -0.08558363f, -0.01451572f, -0.14270286f, -0.14984912f, 0.12927338f, -0.01876917f, 0.05737954f, -0.11141840f, -0.05101680f, 0.03297325f, 0.27951241f, 0.28167057f, -0.14745510f, -0.08243462f, -0.07716624f, -0.10497792f, 0.11317077f, -0.35477424f, 0.10734874f, -0.15497243f, -0.13970979f, 0.09471191f, -0.22833568f, 0.09794348f, 0.27617505f, -0.11051276f, 0.01481300f, -0.03709796f, 0.12604904f, -0.10881938f, 0.20377612f, -0.04282304f, -0.14611262f, -0.08132569f, -0.02421145f, -0.05748283f, -0.35581684f, -0.02090160f, -0.10901342f, -0.05421706f, 0.07519758f, -0.08568785f, 0.21854872f, -0.17452218f, 0.05346285f, -0.14834537f, 0.01676715f, 0.19538371f, -0.30281880f, -0.15219168f, 0.07243896f, -0.22379652f, 0.18326573f, -0.11238325f, -0.02983366f, -0.24573724f, -0.19009179f, -0.17121482f, -0.03468287f, -0.20478545f, 0.08223093f, -0.11736330f, 0.15511361f, -0.09485750f, -0.16906160f, 0.36773372f, 0.16277590f, -0.10116880f, 0.29363513f, -0.11390729f, -0.07563130f, -0.13499695f, -0.09117539f, 0.30774015f, -0.07662856f, 0.02417951f, -0.40544873f, -0.21623950f, 0.05803465f, 0.44089970f, 0.27542862f, -0.07477698f, 0.03821576f, 0.06012818f, 0.18701549f, 0.02739500f, -0.14458698f, -0.19401343f, 0.14928050f, 0.17595053f, -0.30382723f, -0.13687758f, 0.04341846f, -0.38763621f, 0.01701721f, -0.11646090f, -0.20781668f, 0.01524322f, -0.05453988f, -0.18544675f, 0.20939223f, -0.24423811f, -0.02241987f, -0.21696761f, 0.08523594f, -0.44259840f, 0.13519332f, -0.23262119f, 0.01585287f, -0.23658696f, 0.12829673f, -0.14830592f, 0.02253464f, -0.08538053f, -0.12908386f, 0.06637025f, 0.06182079f, 0.34759259f, 0.08020554f, -0.10342030f, -0.06380226f, -0.22983886f, -0.21583568f, -0.10786377f, -0.27834132f, -0.28999969f, -0.01113067f, 0.40222511f, 0.05199048f, -0.22444367f, 0.02063376f, 0.14531438f, -0.22386499f, -0.19252275f, -0.33814573f, -0.07605019f, -0.23365448f, 0.37193555f, -0.11651158f, -0.04418184f, 0.25414088f, -0.03395525f, -0.00099587f, 0.07010230f, -0.14848214f, 0.04751101f, 0.05191799f, 0.24043706f, -0.05916400f, -0.03319370f, 0.32274210f, 0.42169729f, 0.11262427f, -0.08501788f, -0.04889327f, -0.24568707f, 0.19751343f, -0.25832102f, -0.00024382f, -0.30294171f, -0.08832927f, -0.17160057f, 0.28228083f, -0.03229018f, 0.02403150f, -0.06679777f, 0.02438575f, -0.12974980f, 0.02529928f, -0.21128860f, -0.09671326f, -0.11122522f, -0.05063466f, -0.06383460f, -0.03386934f, 0.14966382f, -0.19685760f, -0.03607761f, -0.10860866f, 0.21185616f, 0.24336654f, -0.13369332f, -0.25657451f, -0.12569085f, 0.02196858f, 0.16903131f, -0.04345929f, 0.23683554f, 0.08941981f, -0.11631741f, -0.04975305f, -0.15865886f, 0.23617704f, -0.06958554f, -0.07053159f, 0.01935533f, 0.09410515f, -0.09291410f, -0.06548503f, 0.22029756f, -0.06988941f, 0.40218183f, 0.09616239f, 0.15478618f, -0.07602127f, -0.08071618f, 0.05897283f, -0.26594743f, -0.18291666f, -0.51451135f, -0.16605449f, -0.16449615f, 0.10723256f, 0.11118647f, -0.00401749f, 0.44370291f, -0.17129609f, -0.03756991f, -0.00519874f, 0.05735629f, 0.08576811f, -0.14911585f, -0.04318799f, -0.02485728f, -0.04278491f, -0.12444163f, 0.16335739f, -0.16177085f, -0.25398698f, -0.06993900f, -0.17582086f, -0.21269313f, 0.16151814f, -0.01372453f, 0.02878115f, -0.17889023f, 0.17576286f, -0.07919491f, -0.01475102f, 0.05899528f, 0.12755689f, 0.06309287f, 0.09553134f, 0.05791627f, -0.34824130f, 0.32796460f, 0.13383751f, -0.24716015f
};

// shape: [49]
static const float note_head_bias[49] = {
    0.07272956f, -0.15530877f, 0.11745722f, 0.15394233f, 0.28688276f, 0.09118104f, -0.13821089f, 0.03269086f, 0.10696483f, 0.09126071f, 0.04501748f, -0.20047197f, 0.13532649f, -0.01910377f, 0.16448633f, 0.22811791f, 0.03298638f, 0.07722756f, 0.09313169f, 0.08342648f, 0.06992151f, 0.15797196f, -0.04000938f, 0.03462039f, 0.11660111f, 0.04303889f, 0.10601536f, 0.03612194f, 0.07781885f, 0.00946505f, -0.08758204f, -0.02303690f, -0.07903353f, -0.11508539f, -0.01752858f, -0.21540751f, -0.11611143f, -0.07693063f, -0.17996494f, -0.17011006f, -0.26758999f, -0.12726246f, -0.02302817f, -0.11474089f, -0.16795650f, -0.17208073f, -0.13135640f, -0.14423159f, -0.12454332f
};

// shape: [6, 96]
static const float string_head_weight[576] = {
    0.46262136f, 0.22971371f, 0.02269305f, -0.25499544f, -0.41000369f, -0.37506858f, -0.26875097f, 0.56038630f, 0.01499662f, -0.13266027f, 0.07326008f, 0.04727023f, -0.28137156f, -0.45458251f, -0.21779732f, 0.52137375f, 0.54930997f, -0.00095519f, 0.55328614f, -0.73507595f, -0.27010956f, 0.08259985f, -0.12897788f, -0.09944212f, -0.18529461f, 0.43088943f, -0.28044939f, -0.20775686f, -0.44547042f, -0.35088485f, 0.06986801f, -0.53463030f, -0.60104829f, -0.39914459f, 0.29829723f, -0.23335287f, -0.19789773f, -0.66775066f, 0.77446252f, 0.51053578f, -0.40008700f, 0.24465753f, 0.06158163f, 0.62714863f, 0.00553040f, 0.53736973f, -0.35834852f, -0.12842354f, 0.77189595f, -0.13823661f, -0.44461337f, -0.44684511f, -0.03474222f, -0.42045072f, -0.28136042f, -0.14709967f, -0.48563844f, -0.23289423f, -0.05262656f, -0.48786345f, 0.36438215f, -0.02920093f, 0.04904656f, -0.69712704f, -0.08416417f, -0.01211943f, 1.04905009f, -0.21921088f, -0.09990826f, 0.05611959f, -0.07805940f, -0.13125001f, 0.55211598f, -0.47218126f, -0.19167323f, 0.16581446f, -0.18958846f, -0.44509795f, -0.12495214f, -0.28700405f, -0.48547333f, -0.53956574f, 0.11101032f, 0.45853823f, 0.02294960f, -0.38382244f, -0.43797946f, -0.37690923f, -0.35516033f, 0.16769767f, -0.47947457f, 1.07539880f, -0.32584327f, -0.10210548f, 0.26278371f, -0.26310757f, -0.69752991f, 0.38305587f, 0.24297413f, 0.02686913f, -0.22748540f, -0.00551247f, 0.00742948f, -0.10743259f, -0.77028704f, -0.57500255f, -0.16315764f, 0.30062681f, -0.50244153f, -0.22211270f, 0.58113796f, -0.67792070f, 0.18019572f, -0.25891548f, -0.55261475f, 0.94903839f, -0.14098151f, 0.20979115f, 0.53045076f, -0.09598155f, -0.25117460f, -0.40637064f, 0.16938071f, -0.05313367f, -0.02565852f, -0.20985353f, -0.24442315f, -0.14938621f, 0.84102833f, -0.09074169f, 0.30744761f, 0.01218494f, -0.09513743f, -0.44463325f, -0.73964369f, 0.36000463f, 0.24423020f, 0.62141287f, 0.15188280f, 0.20178621f, 0.18712488f, 0.07679744f, -0.27467915f, -0.48716822f, -0.21120399f, 0.07807115f, 0.03699492f, 0.07782424f, -0.26335251f, -0.05992411f, -0.13563457f, 0.63685435f, -0.61915070f, -0.23430836f, -0.29755029f, 0.28360590f, 0.06553644f, 0.05584874f, -0.27570698f, -0.11455221f, 0.43828511f, 0.26697356f, -0.56906694f, 0.60836583f, -0.24845973f, -0.09231654f, -0.13433819f, -0.49535981f, -0.03796142f, -0.37690333f, 0.08940082f, 0.76836669f, -0.32299459f, 0.01423284f, 0.10479396f, -0.45185694f, 0.36892310f, -0.07845331f, -0.07769261f, -0.53888136f, 0.16075850f, -0.31237975f, -0.30376244f, -0.38316828f, -0.26671287f, 0.35843077f, -0.36543697f, -0.97494805f, 0.26671079f, -0.19757898f, -0.20281574f, 0.03765586f, -0.22405264f, -0.16145815f, 0.12206296f, 0.62125331f, -0.05259445f, -0.07591578f, 0.65163147f, -0.45887679f, 0.92320001f, -0.05474110f, -0.26143950f, 0.03304255f, -0.12978694f, 0.03205396f, 0.15517041f, -0.43332386f, -0.73401147f, -0.11665365f, 1.02803969f, 0.11418249f, -0.02453935f, 0.07112387f, 0.47450578f, -0.02012069f, 0.09092201f, -0.76909506f, 0.31896123f, 0.04029365f, 0.28443485f, 0.54342937f, -0.26376167f, -0.06460036f, -0.00356386f, -0.28384951f, -0.59234399f, -0.30100206f, 0.11935310f, -0.32243842f, 0.48317602f, -0.86782300f, -0.39034635f, -0.37389567f, -0.85049301f, -0.66104537f, -0.12911081f, -0.49244070f, 0.12965059f, -0.00962059f, -0.33691677f, -0.16675469f, -0.23363289f, -0.09873640f, 0.48288968f, -0.26792824f, -0.33430269f, 0.02633478f, -0.30517241f, -0.28371602f, 0.04225672f, -0.27562803f, 0.63264084f, -0.18412863f, 0.01383149f, 0.15421012f, -0.02527096f, 0.45323893f, -0.12019805f, 0.01015138f, -0.03213348f, -0.59643745f, -0.12870501f, 0.31632832f, 0.04534147f, 0.66758442f, -0.12120538f, -1.02765548f, -0.18881226f, 0.58686262f, -0.29516992f, 0.64248031f, -0.29424474f, -0.10202233f, -0.44733045f, 0.21919857f, -0.17869097f, -0.02516487f, 0.46397549f, -0.12725268f, -0.38787544f, -0.11107601f, -0.28972191f, -0.19320098f, -0.13006201f, -0.22876979f, -0.24758992f, -0.18885814f, -0.37307036f, -0.22067453f, 0.17751427f, -0.42528504f, -0.19910003f, -0.18359701f, -0.16317010f, -0.18303429f, 0.59866828f, -0.18765029f, -0.03931296f, -0.05424282f, -0.14908294f, -0.00428004f, -0.51950186f, -0.23535618f, -0.37548393f, -0.35086972f, -0.87953806f, -0.33406731f, -0.02589327f, -0.17036927f, -0.45621157f, -0.28440371f, -0.12732308f, 0.92848849f, 0.24665309f, 0.41219753f, -0.14386524f, -0.39476752f, 0.10595664f, 0.03908065f, 0.04720706f, -0.13218746f, -0.27931768f, -0.31065425f, -0.12088212f, 0.46038133f, -0.32166448f, 0.66657519f, -0.52007157f, -0.46496332f, -0.48262429f, -0.25982931f, -0.32751083f, -0.10494415f, -0.22686525f, 0.25251383f, -0.14613508f, -0.28469816f, -0.37109241f, -0.26137638f, -0.02455362f, 0.58760232f, 0.24533693f, -0.16804066f, 1.05053985f, -0.13496710f, -0.14303741f, -0.07565339f, -0.40984863f, -0.03277487f, 0.11849050f, -0.27227038f, -0.19506888f, -0.09864233f, -0.55474836f, 0.74751562f, -0.17232785f, 0.33963072f, -0.42860955f, -0.44051334f, -0.40300748f, 0.08389074f, -0.23441620f, -0.29212794f, -0.26120025f, -0.35088685f, 0.42900333f, 0.19728728f, -0.13963418f, -0.15071896f, 0.14204656f, 0.36871451f, 0.00472295f, 0.58324015f, 0.08323298f, 0.62799621f, -0.41601023f, -0.20138605f, 1.02713633f, -0.35550699f, -0.32460710f, 0.04832224f, 0.07737819f, -0.11578832f, 0.74985325f, -0.53114927f, -0.29631928f, -0.22777991f, 0.07714571f, -0.06489025f, -0.02739204f, -0.54319662f, -0.70148259f, 0.26952010f, 0.05190596f, -0.19879231f, 0.07084563f, 0.44923982f, 0.31652614f, 0.84357417f, -0.07185889f, 0.17999230f, -0.41440612f, -0.05561382f, 0.65875942f, -0.52993315f, -0.45982909f, 0.02807258f, 0.50134474f, 0.10796225f, -0.02470503f, -0.44318023f, -0.27722463f, 0.65738189f, 0.15418632f, -0.26380825f, -0.49636340f, 0.07968976f, -0.25982133f, 0.23085949f, -0.58589941f, 0.23525730f, -0.09807241f, -0.21547092f, 0.58114761f, -0.22876050f, -1.14364302f, -0.31366357f, -0.26071873f, 0.10543337f, 0.65098488f, 0.08137912f, -0.18184999f, -0.37629980f, 0.45184448f, -0.21842909f, -0.25506642f, -0.27124342f, 0.93117261f, -0.31159845f, -0.25094184f, 0.29736876f, 0.04292244f, 0.19504602f, -0.43213117f, 0.22704662f, 0.15840244f, -0.08523538f, -0.65531671f, -0.44926062f, -0.15416729f, -0.69699007f, -0.03419661f, 0.06508929f, 0.12752046f, 0.28570563f, -0.50861353f, 0.02949367f, -0.10875110f, 0.10733256f, 0.50044787f, 0.14107201f, -0.01849770f, -0.34277919f, -0.04608601f, 0.59002316f, -0.17727855f, -0.02948267f, -0.38543820f, 0.33798212f, -0.02977956f, -0.32009026f, 0.29973349f, 0.30369893f, -0.67160118f, -0.49173972f, -0.76004797f, 0.11184985f, -0.15601192f, -0.20475024f, -0.35890847f, -0.38943884f, -0.41535801f, -0.00310730f, 0.32609051f, 0.32727683f, -0.75817358f, 0.33562461f, -0.45694765f, 0.25771254f, 0.10225492f, -0.32487935f, 0.33315623f, 0.07414500f, -0.56019670f, -0.46557692f, -0.33885798f, 0.35078731f, -0.35082260f, -0.44393069f, -0.41311929f, -0.15665500f, -0.39967978f, -0.00955297f, -0.20425114f, -0.44021526f, -0.59435552f, 0.11734215f, 0.12901184f, -0.61822402f, 0.22421850f, 0.31089941f, -0.35114872f, 0.14612970f, -0.36787060f, 0.25467712f, 0.43540505f, 0.31979597f, -0.40387151f, -0.69746619f, 0.18927525f, -0.49824923f, 1.75690269f, -0.21813758f, 0.23180744f, -0.45903265f, -0.22782470f, 0.20392719f, -0.60164493f, 0.48092237f, -0.09609421f, 0.38883409f, -0.42268372f, 0.00164396f, -1.01362741f, -0.48945844f, 0.14036344f, 0.25585356f, 0.21520782f, -0.09437013f, -0.59284890f, -0.01693687f, 0.10844674f, 0.15414883f, 0.50555944f, -0.38228679f, 0.23731478f, -0.94914657f, 0.21398054f, 0.14805053f, 0.32992843f, 0.01078547f, -0.10768096f, -0.13358891f, 0.29934046f, 0.14918771f, 0.08435486f, -0.05678331f, -0.19821611f, -0.41993892f, 0.31101233f, -0.11715008f, 0.14391467f, -0.30342788f, 0.19540097f, -0.56045383f, 0.06351296f, 0.15438098f, 0.48720998f, -0.57606888f, 0.31840909f, 0.57912207f, 0.57048053f, -0.00902333f, 0.23197092f, 0.27658227f
};

// shape: [6]
static const float string_head_bias[6] = {
    -0.03676364f, -0.20913470f, 0.05773436f, 0.03346215f, -0.00714659f, 0.10533518f
};

