// Auto-generated - DO NOT EDIT
// OnsetNet weights for Daisy Seed bare metal inference
// sr=48000 vocab_size=56 window_samples=480

#pragma once
#include <stdint.h>

#define ONSET_SR           48000
#define ONSET_VOCAB_SIZE   56
#define ONSET_WINDOW       480
#define ONSET_WIDTH        96

static const char* onset_pitch_names[] = {
    "E2",
    "F2",
    "F#2",
    "G2",
    "G#2",
    "A2",
    "A#2",
    "B2",
    "C3",
    "C#3",
    "D3",
    "D#3",
    "E3",
    "F3",
    "F#3",
    "G3",
    "G#3",
    "A3",
    "A#3",
    "B3",
    "C4",
    "C#4",
    "D4",
    "D#4",
    "E4",
    "F4",
    "F#4",
    "G4",
    "G#4",
    "A4",
    "A#4",
    "B4",
    "C5",
    "C#5",
    "D5",
    "D#5",
    "E5",
    "F5",
    "F#5",
    "G5",
    "G#5",
    "A5",
    "A#5",
    "B5",
    "C6",
    "C#6",
    "D6",
    "D#6",
    "E6",
    "F6",
    "F#6",
    "G6",
    "G#6",
    "A6",
    "A#6",
    "B6",
};

// shape: [48, 1, 9]
static const float l0_conv_weight[432] = {
    0.29175612f, 0.22031938f, -0.20554073f, 0.17484538f, -0.23280971f, -0.02767405f, -0.26442724f, 0.15433857f, 0.29356176f, -0.22676140f, 0.30208415f, 0.09585166f, 0.27541772f, 0.06399996f, 0.09247312f, -0.07973988f, 0.27141526f, 0.09655473f, -0.14843716f, 0.13547634f, -0.06241728f, 0.06067434f, -0.00911087f, 0.33406028f, -0.09815037f, -0.16493408f, -0.32963490f, -0.22864339f, 0.01186295f, -0.33209077f, 0.30396476f, -0.26199183f, 0.28344509f, 0.08972034f, -0.06518566f, 0.24584247f, 0.01186663f, 0.18608461f, -0.07015738f, -0.22969951f, -0.05110741f, -0.23319937f, 0.03485817f, 0.29080617f, 0.32402056f, -0.17164452f, 0.21318752f, 0.11570641f, 0.23786952f, -0.16430515f, -0.30337876f, -0.11869930f, -0.19820110f, 0.35432571f, 0.19659637f, 0.15475745f, 0.10104579f, -0.03337658f, 0.23224720f, -0.26747665f, -0.01813118f, -0.27091485f, 0.04547831f, -0.06903812f, 0.12306491f, -0.06284395f, 0.26160455f, -0.22058134f, -0.22989002f, -0.22286388f, 0.30282986f, 0.15557492f, 0.47792238f, -0.17618920f, -0.27793324f, -0.23445411f, -0.21366408f, 0.14732479f, 0.13915220f, 0.28846037f, -0.15204075f, -0.28157261f, 0.18581817f, -0.08459970f, 0.25816837f, -0.02158966f, 0.23231310f, -0.22100423f, -0.15822446f, 0.07729737f, 0.12082514f, -0.04849886f, 0.21615863f, 0.23423736f, -0.24028693f, -0.19055502f, 0.27266976f, -0.16306262f, -0.18899983f, -0.31765932f, -0.10110398f, 0.22150436f, 0.15471667f, -0.01204273f, 0.22180615f, -0.08720554f, -0.28538907f, -0.23983057f, -0.29439524f, -0.15747599f, 0.40926498f, 0.16725805f, 0.22697245f, -0.25280067f, -0.18401301f, -0.08357173f, 0.10752362f, -0.34392577f, -0.13979998f, -0.12779264f, 0.09503649f, -0.03084230f, 0.04551002f, -0.18167850f, -0.24767287f, -0.20205037f, -0.16642261f, -0.27821159f, 0.29348472f, -0.02926797f, 0.31794325f, 0.12869284f, -0.27328223f, 0.20698680f, -0.13472852f, -0.27857944f, -0.23407276f, -0.19346359f, 0.26296780f, 0.06591140f, 0.23583633f, -0.17618334f, 0.31688583f, -0.21594092f, -0.10992464f, 0.03480907f, 0.15205108f, 0.25694823f, 0.28962055f, -0.28405574f, 0.04489251f, -0.20828916f, -0.12916283f, -0.32783374f, 0.24996759f, -0.28491783f, 0.13792555f, 0.07871106f, 0.07009654f, -0.22188394f, 0.29690483f, 0.11456104f, -0.01249525f, -0.28669789f, 0.18123980f, 0.01255312f, -0.09490913f, 0.34549144f, 0.14039223f, -0.14825739f, -0.20110852f, -0.00356859f, 0.22237082f, -0.05714589f, -0.12325704f, -0.04524200f, -0.19585966f, 0.19815153f, 0.26962632f, -0.50050509f, 0.34236145f, 0.16612908f, -0.10702838f, -0.21595305f, 0.06539702f, 0.13088349f, 0.11278220f, -0.00751110f, -0.03759981f, -0.06101573f, -0.10840598f, -0.10629523f, 0.22228792f, 0.31832165f, -0.00493771f, -0.08095251f, -0.04260446f, -0.09740444f, 0.11655062f, 0.12895745f, -0.26528460f, -0.08218615f, 0.31733453f, 0.16694160f, 0.00777949f, -0.20937876f, -0.25546378f, -0.29523492f, -0.08964913f, 0.12796588f, 0.22076166f, 0.15245004f, -0.29758686f, -0.20017405f, -0.03491078f, 0.37212726f, 0.09024305f, -0.04422845f, 0.18734801f, -0.07096046f, -0.15677764f, 0.31613779f, -0.08196137f, -0.02258977f, -0.44341791f, 0.22986273f, 0.21154898f, 0.07101568f, -0.29260835f, -0.38535431f, -0.32558635f, 0.18049099f, 0.11757495f, 0.26341826f, 0.27300903f, 0.16860084f, 0.03937833f, -0.21562621f, -0.25505680f, -0.28089762f, 0.17207353f, -0.09995823f, 0.02899903f, -0.22510312f, -0.04634019f, -0.09539032f, -0.03177132f, 0.28714576f, 0.02187613f, 0.25724760f, -0.10144681f, -0.29128540f, -0.03824848f, -0.15207125f, -0.10910415f, -0.32111835f, 0.17656831f, -0.22172895f, 0.18263081f, 0.19146319f, 0.28580117f, -0.29403195f, 0.22847633f, -0.15494305f, 0.13787521f, 0.33909890f, -0.02051088f, 0.04126151f, -0.04636779f, -0.26244277f, 0.19174050f, -0.35413191f, 0.13150308f, 0.15084742f, 0.19284278f, -0.21734548f, -0.38125059f, 0.06623504f, 0.26505125f, -0.50251144f, -0.10473999f, -0.13487010f, 0.09659256f, -0.07149437f, -0.01579820f, 0.01663597f, -0.22271648f, 0.35059997f, 0.40485007f, 0.05209386f, 0.05329711f, -0.05093200f, -0.22897196f, -0.25674313f, 0.17940398f, -0.15696034f, -0.20591360f, -0.01781521f, -0.02635878f, 0.00162618f, 0.13569087f, 0.05225262f, -0.08311708f, -0.15547340f, -0.28743207f, 0.33354899f, -0.19939363f, 0.02502150f, -0.16686074f, -0.02869723f, 0.26325271f, 0.11160354f, -0.31520247f, 0.12700823f, 0.38741902f, 0.15532838f, 0.22225913f, 0.15992554f, -0.15439457f, -0.11472595f, -0.25033045f, -0.10846601f, 0.28892109f, 0.22510587f, -0.17837200f, -0.29280049f, -0.22766642f, -0.27659073f, -0.16663736f, 0.03560368f, 0.36845514f, 0.20392475f, -0.10828909f, -0.32990921f, 0.21523467f, -0.10678145f, 0.09055556f, 0.26399729f, -0.07276067f, 0.01691283f, -0.02464079f, -0.11264380f, -0.30994433f, -0.31323078f, -0.22689182f, -0.11498591f, 0.38669169f, -0.08976314f, -0.14045879f, 0.15004946f, 0.15933576f, 0.21767557f, 0.15115726f, 0.07381163f, -0.42858467f, -0.06230505f, 0.11872377f, -0.09457830f, -0.21677338f, 0.34319022f, -0.06673723f, -0.11400634f, -0.20699416f, 0.14378202f, 0.28995535f, 0.22397669f, 0.18054278f, -0.19477148f, -0.35700089f, 0.06295239f, 0.29539707f, 0.16514564f, -0.22471768f, -0.06698786f, -0.25821069f, -0.16596210f, 0.07353634f, 0.20908977f, 0.30097285f, -0.37632102f, 0.12633845f, -0.33708057f, 0.06966796f, 0.24225441f, -0.02266567f, 0.29990989f, -0.30102178f, -0.17979839f, 0.16863033f, -0.05705085f, -0.04387232f, -0.09743483f, 0.25247219f, 0.17950620f, 0.06063714f, -0.27429315f, -0.28661910f, 0.06936094f, 0.15360115f, -0.10343133f, -0.05067626f, 0.25474593f, 0.04507219f, 0.00845446f, -0.11898453f, -0.34939757f, -0.29876998f, -0.12229627f, -0.12366433f, 0.15144034f, -0.05858976f, -0.08559794f, 0.35343176f, 0.15518542f, 0.25293231f, -0.13380355f, -0.07594093f, 0.19277894f, -0.12115415f, -0.10837016f, 0.10661950f, -0.15679295f, -0.49026144f, 0.20974758f, 0.22275180f, -0.00761714f, -0.12283199f, -0.35363111f, -0.15061748f, 0.07452054f, 0.17011423f, -0.00791384f
};

// shape: [48]
static const float l0_bn_weight[48] = {
    0.59810483f, 0.63612348f, 0.57633907f, 1.22869885f, 0.84736204f, 0.52017498f, 1.01240706f, 1.19669640f, 1.36121356f, 1.44123638f, 1.18690479f, 0.65874791f, 0.78381896f, 0.58637869f, 0.74693513f, 0.84616899f, 1.02287912f, 1.13003361f, 1.13685453f, 0.69136673f, 0.60921484f, 0.82975650f, 1.13752091f, 1.27586079f, 0.61926091f, 1.40341675f, 0.81149179f, 0.53213888f, 1.29821467f, 1.55524302f, 0.95521557f, 0.49245030f, 0.92664719f, 0.59371185f, 0.81852353f, 0.61896968f, 0.49865144f, 0.90141124f, 0.48705602f, 0.87278944f, 0.80944985f, 1.04267967f, 0.85131723f, 1.21428740f, 1.16303277f, 0.93804616f, 0.68469638f, 1.52310264f
};

// shape: [48]
static const float l0_bn_bias[48] = {
    -0.06102877f, -0.05728387f, -0.11198614f, -0.17099515f, -0.16436453f, 0.03404084f, -0.11095162f, 0.18277943f, -0.06958485f, 0.18317905f, -0.08611319f, -0.05340344f, -0.18767954f, -0.12591039f, -0.02126415f, -0.25048259f, -0.20213604f, -0.33785436f, -0.17716923f, -0.48130050f, -0.04961564f, -0.32400960f, -0.21852107f, -0.17255849f, 0.01219467f, -0.07217398f, -0.12289301f, 0.02468301f, -0.01329483f, -0.01834244f, -0.26288903f, 0.00997629f, 0.02664773f, -0.22881921f, -0.11595687f, -0.07384241f, 0.03981202f, -0.06980553f, -0.00450796f, -0.23455933f, -0.03856020f, -0.08546846f, -0.00722016f, -0.09102637f, 0.04004146f, -0.03051623f, 0.04607098f, -0.23669952f
};

// shape: [48]
static const float l0_bn_running_mean[48] = {
    -0.00012440f, -0.00108356f, -0.00004881f, 0.00043223f, 0.00026474f, 0.00041095f, -0.00048324f, 0.00042243f, 0.00012514f, 0.00001971f, -0.00022123f, 0.00015247f, -0.00007390f, 0.00138197f, -0.00045773f, 0.00027813f, -0.00046249f, 0.00023389f, -0.00027288f, 0.00013374f, -0.00075313f, -0.00033305f, -0.00039234f, 0.00036472f, -0.00024418f, 0.00049238f, 0.00038242f, -0.00002713f, 0.00048821f, -0.00027459f, -0.00004204f, 0.00131400f, 0.00008547f, 0.00018553f, 0.00007312f, -0.00020913f, 0.00126680f, -0.00002554f, 0.00092649f, 0.00001617f, -0.00040538f, 0.00011702f, -0.00035589f, -0.00012856f, -0.00005980f, 0.00096841f, 0.00022012f, 0.00024284f
};

// shape: [48]
static const float l0_bn_running_var[48] = {
    0.13808586f, 0.76865000f, 0.07803939f, 0.03594216f, 0.07399941f, 0.00397899f, 0.04865404f, 0.00345832f, 0.00245464f, 0.00089400f, 0.02056404f, 0.17528956f, 0.00387549f, 1.18407261f, 0.01045648f, 0.05876346f, 0.01861549f, 0.03307242f, 0.00330404f, 0.06082650f, 0.19162345f, 0.00395736f, 0.02043820f, 0.01648414f, 0.07060633f, 0.00658496f, 0.05065357f, 0.04169399f, 0.05295176f, 0.00306644f, 0.00205324f, 0.37952128f, 0.09878233f, 0.00330188f, 0.07167877f, 0.15177707f, 0.45201284f, 0.00300031f, 0.29523206f, 0.00910410f, 0.00959946f, 0.01037618f, 0.00096791f, 0.00139763f, 0.00309093f, 0.22512999f, 0.31040511f, 0.00661671f
};

// shape: [48]
static const float l0_bn_bias[48] = {
    -0.06102877f, -0.05728387f, -0.11198614f, -0.17099515f, -0.16436453f, 0.03404084f, -0.11095162f, 0.18277943f, -0.06958485f, 0.18317905f, -0.08611319f, -0.05340344f, -0.18767954f, -0.12591039f, -0.02126415f, -0.25048259f, -0.20213604f, -0.33785436f, -0.17716923f, -0.48130050f, -0.04961564f, -0.32400960f, -0.21852107f, -0.17255849f, 0.01219467f, -0.07217398f, -0.12289301f, 0.02468301f, -0.01329483f, -0.01834244f, -0.26288903f, 0.00997629f, 0.02664773f, -0.22881921f, -0.11595687f, -0.07384241f, 0.03981202f, -0.06980553f, -0.00450796f, -0.23455933f, -0.03856020f, -0.08546846f, -0.00722016f, -0.09102637f, 0.04004146f, -0.03051623f, 0.04607098f, -0.23669952f
};

// shape: [96, 48, 5]
static const float l1_conv_weight[23040] = {
    -0.03005743f, 0.03598913f, -0.04812404f, 0.03651342f, -0.04256266f, -0.02052773f, -0.03526242f, -0.02313519f, -0.06086993f, 0.00331713f, -0.01688881f, 0.01239940f, -0.01552188f, -0.10085303f, -0.11504454f, 0.01691908f, -0.02322572f, -0.15541150f, -0.12984802f, -0.17085640f, -0.10757902f, -0.02621052f, -0.01276185f, 0.00017437f, 0.00071665f, -0.02108292f, -0.15318799f, -0.12986965f, -0.12151510f, -0.14757062f, -0.00831284f, -0.05953230f, 0.01476505f, -0.04682521f, -0.09968259f, -0.03197817f, 0.05031348f, 0.06658746f, 0.12892130f, 0.12302458f, -0.14869495f, -0.38050568f, -0.56944245f, -0.31983054f, -0.13181828f, 0.05976526f, 0.01507320f, 0.02409367f, 0.05477896f, -0.07245161f, 0.03564420f, -0.02997981f, -0.08890922f, -0.10368124f, -0.06901172f, 0.07908282f, 0.11763939f, 0.07722944f, -0.02110732f, -0.07528942f, 0.15611455f, 0.03692731f, 0.06462024f, 0.00966575f, 0.00989959f, 0.18942314f, 0.09337816f, 0.01487566f, -0.01980832f, -0.06553684f, 0.01054161f, 0.03553005f, 0.03126448f, -0.00633891f, -0.06511901f, -0.02560278f, -0.01678533f, 0.02086947f, 0.05922327f, 0.02459311f, 0.07761567f, -0.02217904f, 0.01024611f, -0.02916519f, 0.06030760f, 0.02027766f, 0.12402556f, 0.05468404f, 0.04245263f, 0.09275275f, -0.00037344f, 0.05974859f, 0.08599379f, -0.02028884f, -0.04256887f, 0.16112246f, 0.13458285f, 0.11221940f, 0.13902281f, 0.11068371f, -0.02974308f, 0.04424086f, 0.02213997f, -0.02331445f, -0.09757637f, -0.01542010f, -0.03875589f, 0.05195355f, 0.02539464f, 0.05911525f, 0.16799718f, 0.16669235f, 0.19221871f, 0.14337556f, 0.10798410f, 0.07573935f, 0.07829136f, -0.01779691f, 0.00638468f, 0.09712078f, -0.30437583f, -0.24721929f, -0.23146895f, -0.24303706f, -0.13437904f, -0.01480354f, 0.05347228f, 0.05037181f, 0.03010922f, 0.04625465f, 0.21436675f, 0.09398941f, -0.01293714f, -0.08084612f, -0.14073436f, 0.00371000f, -0.03056362f, -0.02972923f, -0.08976190f, -0.19642575f, -0.05548435f, -0.02425771f, -0.01064085f, -0.07211296f, -0.06384478f, 0.13844652f, 0.02434100f, -0.00111095f, 0.08087164f, 0.01470564f, 0.07671315f, 0.13061965f, 0.08700540f, 0.05215913f, 0.02641251f, 0.01965536f, 0.01821637f, 0.02593501f, 0.03705093f, 0.03541547f, 0.06970686f, 0.04972479f, -0.05129414f, -0.07672321f, -0.06484356f, 0.02735407f, 0.12565041f, 0.15361145f, 0.03870899f, 0.00013829f, -0.05556002f, -0.00915145f, -0.00486820f, -0.02746158f, 0.00911335f, -0.00268054f, 0.06462982f, 0.07514712f, 0.03888256f, -0.04806777f, -0.03479249f, 0.06095202f, 0.01707159f, -0.02774494f, -0.07524493f, 0.03714780f, 0.00489260f, 0.04716556f, -0.04825937f, -0.14788084f, -0.03610538f, -0.02227390f, 0.01760107f, -0.01800480f, 0.01884694f, 0.02238715f, -0.05991717f, 0.01755447f, -0.04191373f, -0.05340634f, -0.02052131f, 0.03322366f, -0.07602518f, -0.01178182f, -0.10994538f, -0.05978221f, -0.09319355f, -0.07345150f, -0.04005728f, -0.13694514f, 0.01954876f, 0.05029196f, 0.04206447f, -0.02383426f, 0.03180767f, -0.06320632f, -0.07311489f, -0.04310967f, 0.03332890f, -0.02998722f, 0.09895077f, 0.03072751f, 0.04325966f, 0.07648416f, 0.03133561f, -0.01595953f, 0.01635081f, 0.08780213f, 0.00296944f, 0.09057934f, -0.20629518f, -0.23107930f, -0.26748815f, -0.28837585f, -0.26259953f, 0.11851164f, 0.13155602f, 0.04420112f, 0.07642009f, 0.07461388f, 0.13394919f, 0.08987078f, 0.01106271f, 0.10995701f, 0.04948901f, 0.04179558f, 0.00701397f, 0.05742608f, 0.10997990f, 0.06763640f, 0.06677087f, 0.11371997f, 0.04024103f, 0.07021801f, -0.10908113f, 0.00807598f, 0.03134460f, 0.06865299f, 0.10418040f, 0.18169273f, 0.08736386f, 0.13785672f, 0.03519870f, 0.05742021f, 0.05435382f, 0.07168327f, -0.03343078f, 0.08344096f, -0.02580136f, -0.05157422f, -0.01384818f, -0.02434903f, 0.05785940f, -0.00512643f, 0.05112391f, 0.01338904f, -0.07475239f, -0.02880972f, 0.13372689f, 0.19869787f, 0.06941671f, 0.02835751f, 0.10474678f, 0.07691401f, 0.03395342f, -0.12345968f, -0.09467971f, -0.09655205f, -0.18096709f, -0.06967850f, -0.00860444f, 0.11381890f, 0.05327322f, 0.12004390f, 0.13108958f, 0.02339789f, 0.01928880f, 0.03524031f, 0.07474887f, -0.07585838f, 0.03370735f, 0.08783823f, 0.10917362f, 0.06670844f, 0.05498084f, 0.02996678f, 0.11469697f, 0.13344255f, 0.08838321f, 0.03088456f, 0.01952250f, 0.09565005f, -0.02002243f, -0.02811969f, 0.06899751f, 0.05090718f, 0.04356185f, 0.09945833f, 0.08006781f, 0.05839463f, 0.09540875f, 0.12812786f, 0.16739780f, 0.04208584f, 0.05672378f, -0.00204342f, 0.01313503f, 0.09362350f, 0.03733039f, 0.07454967f, 0.06543622f, 0.06960594f, 0.01116490f, 0.02203658f, 0.01725759f, 0.05184089f, 0.07421288f, 0.14592935f, 0.11620529f, 0.07234276f, 0.03459637f, 0.02629877f, 0.04243800f, 0.04833259f, 0.01831294f, 0.10453418f, 0.12384939f, 0.03893995f, 0.01557383f, -0.10906558f, 0.01048389f, 0.00514306f, -0.01222558f, -0.05163783f, 0.02882042f, -0.03851584f, -0.05296220f, 0.07986537f, -0.03226943f, 0.09550942f, 0.04079263f, -0.07574103f, -0.05895180f, -0.19331297f, -0.17305109f, -0.01584285f, -0.06724161f, -0.02311120f, -0.03251776f, -0.01619039f, -0.08132683f, 0.02808988f, -0.05121310f, -0.12248650f, -0.10816010f, 0.09387982f, 0.09688114f, -0.01403075f, -0.00178018f, 0.01636595f, 0.02896268f, 0.08321960f, 0.07933908f, 0.06887139f, 0.13106580f, -0.08803893f, -0.18921022f, -0.14251570f, -0.03989759f, 0.01017200f, -0.00912116f, -0.02610748f, -0.00122705f, -0.02232647f, 0.10487968f, 0.02742909f, 0.07353611f, 0.00781464f, 0.06838475f, 0.02344683f, -0.12898342f, -0.09203064f, -0.12806974f, -0.04143682f, -0.10591377f, 0.07719599f, 0.10757358f, 0.10730006f, 0.10936743f, 0.06819487f, -0.04259415f, -0.03356799f, -0.04199408f, -0.02715200f, 0.04648587f, 0.04764817f, 0.08755845f, 0.11817659f, 0.08147570f, 0.03764682f, 0.00030419f, 0.05866888f, -0.01638912f, 0.05190060f, 0.04472423f, 0.10422332f, 0.09755924f, 0.06403981f, 0.03687667f, -0.05240438f, 0.12555726f, 0.02141539f, -0.00182624f, 0.08150488f, 0.07149225f, 0.10999424f, 0.07399786f, -0.00851781f, 0.02733917f, 0.12123535f, 0.11231678f, 0.09393410f, 0.01238106f, -0.01963827f, -0.03683710f, 0.06176315f, 0.08842921f, 0.02670693f, 0.05890530f, 0.07214638f, 0.08952817f, 0.01632447f, 0.03785501f, -0.03106732f, 0.03590563f, 0.02221238f, -0.03729300f, -0.00439178f, -0.06608773f, -0.03936386f, -0.09479149f, -0.05023372f, 0.00866249f, -0.02081546f, -0.00558853f, 0.00072020f, 0.01861059f, 0.00571302f, 0.08405910f, 0.03837340f, 0.08782564f, 0.03038684f, -0.00153181f, -0.04572675f, -0.19570243f, -0.13992871f, -0.04350199f, -0.03009968f, 0.01539495f, 0.14731953f, 0.03608014f, 0.02629132f, 0.05112100f, -0.03183509f, -0.01516240f, 0.02138923f, -0.01323687f, -0.01589165f, -0.04772440f, 0.01482521f, -0.04026232f, -0.01109811f, 0.04044696f, -0.04555250f, -0.05113058f, 0.04140836f, 0.01023071f, 0.01610002f, 0.06509077f, -0.08970164f, -0.04115827f, -0.00191880f, -0.00620038f, 0.02240235f, 0.06334841f, 0.01243062f, 0.01607239f, -0.00870056f, -0.05968894f, -0.06642053f, -0.09633295f, -0.00052137f, -0.03939580f, -0.00476301f, -0.04284980f, -0.00740943f, 0.01861469f, 0.04636025f, -0.05769138f, -0.18107817f, -0.31470138f, -0.09010870f, 0.03963355f, 0.01552077f, 0.08566739f, 0.12642838f, -0.02908738f, -0.23806739f, -0.11481583f, 0.01957771f, -0.29801184f, -0.04071151f, 0.04335427f, 0.08037169f, 0.02786816f, -0.00305510f, -0.00245250f, -0.03948666f, 0.01563069f, 0.01957952f, 0.02337107f, -0.03397229f, 0.02924772f, -0.03406895f, -0.04920215f, 0.04487477f, 0.03411317f, 0.04099992f, 0.00897526f, -0.02080040f, 0.03558198f, 0.06023470f, -0.03414804f, 0.02568717f, -0.04318423f, -0.05894546f, -0.02483902f, -0.03695064f, -0.01995223f, 0.02418004f, -0.02109773f, -0.00197017f, 0.06054231f, -0.03642478f, -0.02181264f, -0.01987343f, -0.02326561f, -0.09251624f, 0.01344651f, -0.08056589f, 0.01968061f, -0.03464061f, -0.08627708f, -0.03395490f, -0.00446612f, -0.07281503f, -0.09851521f, -0.10344464f, -0.09196533f, -0.22061120f, -0.06213752f, -0.00687622f, 0.00234476f, 0.03544371f, -0.04145848f, -0.07101398f, -0.05312926f, 0.00226303f, -0.07775673f, -0.05367836f, -0.05496456f, -0.06600822f, 0.04500140f, 0.02425374f, 0.14399505f, 0.04422352f, 0.17394173f, 0.11065628f, 0.10126482f, -0.07066373f, -0.04748229f, -0.07914101f, -0.03934444f, 0.02861156f, 0.02671400f, -0.26197776f, -0.05300781f, -0.13752656f, -0.12636024f, -0.27021939f, -0.06693789f, -0.00961666f, -0.01654858f, -0.06223011f, -0.05674747f, 0.01183546f, -0.01602500f, -0.06653222f, 0.03649622f, -0.01332084f, -0.26241246f, -0.16877790f, -0.07801021f, -0.19507632f, -0.32816795f, -0.00712963f, -0.05490157f, -0.12620302f, 0.03516750f, 0.10311905f, 0.13127363f, 0.02815391f, -0.10837354f, 0.04338681f, -0.13674265f, 0.04941089f, 0.04860425f, 0.03978416f, 0.03226207f, 0.02645722f, -0.06628407f, -0.01656137f, -0.03857079f, 0.01290552f, -0.00951030f, 0.00296683f, -0.05742868f, -0.03006718f, -0.04294813f, -0.04469134f, -0.01481530f, -0.02075945f, 0.04488274f, 0.09984753f, 0.12885788f, 0.02281323f, -0.03837881f, -0.08242923f, 0.01470590f, 0.03183350f, -0.06556166f, 0.00732997f, 0.03617107f, -0.00795855f, -0.04870374f, 0.02105296f, -0.04757791f, -0.03308105f, -0.08554916f, 0.00151292f, -0.02988568f, 0.06604861f, -0.03322867f, 0.03467629f, 0.00996639f, -0.04014305f, -0.07708289f, -0.04183014f, -0.07168912f, -0.12932540f, 0.00314959f, 0.02753465f, -0.02688148f, 0.03381112f, 0.00612763f, -0.12529111f, -0.02878686f, -0.00954410f, -0.12338218f, -0.20260063f, -0.05127658f, -0.00290866f, 0.07973801f, -0.05792993f, -0.02195979f, 0.03358529f, 0.03297020f, 0.03641999f, 0.00119440f, -0.00942995f, -0.05808126f, -0.09806845f, 0.04208423f, 0.02755133f, 0.01805629f, 0.09265321f, -0.00859098f, -0.04489817f, -0.00235645f, -0.01914009f, -0.02713971f, -0.09660991f, -0.02392129f, -0.05854880f, -0.05072551f, -0.43067512f, -0.06849948f, 0.03989171f, 0.01193694f, -0.01205225f, 0.04770196f, 0.02453958f, 0.00503845f, 0.06183895f, 0.12642887f, 0.06929698f, -0.01116970f, 0.11639050f, 0.06750312f, 0.08752909f, 0.08640166f, 0.08247808f, -0.04257942f, 0.03589153f, -0.08615346f, 0.02393569f, -0.00836791f, 0.04531582f, 0.06186874f, 0.05963929f, 0.05128808f, 0.04416687f, 0.09311815f, 0.03059527f, 0.03021703f, 0.09940822f, 0.07627457f, 0.06338049f, 0.02596074f, -0.00398587f, -0.18616094f, -0.14986983f, -0.02111321f, -0.02043037f, 0.05569068f, 0.05985654f, 0.03777738f, 0.10991246f, 0.06692909f, 0.19284672f, -0.18974498f, -0.18364972f, -0.19086143f, -0.12279164f, -0.01458684f, 0.01076609f, -0.01729348f, -0.04324705f, -0.09628388f, -0.12348916f, 0.08221893f, 0.17311400f, 0.07211585f, 0.05419544f, 0.16161765f, 0.03251930f, 0.07964547f, 0.06038495f, 0.06037909f, -0.06615495f, 0.08763651f, 0.05371415f, 0.00446951f, 0.08702677f, 0.04349956f, 0.03642012f, 0.06474083f, 0.00633678f, -0.04443944f, 0.01711163f, 0.03588894f, 0.02788362f, 0.11701027f, 0.02214789f, 0.13058062f, 0.08225037f, 0.00619987f, -0.03008100f, 0.06176463f, 0.05602212f, -0.01930221f, -0.01222979f, 0.02066685f, -0.03696040f, 0.07090291f, 0.05179913f, 0.05006710f, 0.10512402f, 0.00887786f, 0.02862665f, 0.07021651f, 0.04562614f, 0.04424603f, 0.00034169f, -0.09192751f, 0.02749190f, 0.00559020f, 0.03001704f, 0.02177581f, -0.06656401f, 0.03536288f, 0.02683821f, 0.01218890f, 0.10924263f, 0.05769053f, -0.04083787f, 0.00013839f, -0.09937866f, 0.01340085f, 0.11973347f, 0.03831818f, 0.09967031f, 0.13714951f, 0.11655858f, 0.08711709f, 0.06630453f, -0.00886296f, -0.04634415f, 0.04868463f, 0.08626044f, 0.03904920f, 0.07619524f, -0.03465303f, 0.03719867f, 0.04447113f, 0.05360980f, -0.02810959f, 0.02868354f, 0.05436095f, 0.04354509f, 0.04707546f, 0.05235768f, 0.05860163f, 0.13624233f, 0.11087732f, -0.02688249f, 0.03927416f, 0.04671434f, 0.08149153f, 0.05640172f, 0.17301120f, 0.11243215f, 0.22026311f, 0.21800953f, 0.14550905f, 0.05776285f, 0.09136821f, 0.08794873f, 0.08026305f, 0.18136285f, 0.01386480f, 0.00410070f, -0.03186705f, 0.01677446f, 0.00407701f, -0.00909646f, 0.03380840f, 0.03720781f, 0.05200666f, 0.09449932f, 0.09285686f, 0.08482789f, 0.14184594f, 0.04801355f, 0.03873413f, 0.04967803f, -0.01936808f, 0.04562733f, -0.01261573f, 0.00403694f, 0.05924384f, 0.06730780f, 0.00669312f, -0.01145630f, 0.06742780f, 0.07597330f, -0.04424373f, 0.07717993f, 0.01361439f, 0.06465194f, 0.10975649f, 0.09902417f, -0.00641612f, 0.06964735f, 0.07211301f, 0.05932089f, 0.09676501f, 0.00065329f, 0.00190824f, -0.03215366f, 0.04574701f, 0.04890425f, 0.05056788f, 0.00220025f, 0.01153262f, 0.11068920f, 0.00294485f, 0.02265175f, 0.04134536f, -0.04025406f, 0.06630332f, 0.03334225f, 0.01955326f, -0.03746924f, -0.09188969f, -0.04673051f, -0.05515031f, -0.01175980f, -0.04064153f, -0.04524253f, -0.01386171f, 0.00747256f, -0.02707391f, -0.04674640f, -0.00574817f, -0.07496680f, 0.03484318f, 0.01040446f, 0.01944112f, 0.07538608f, -0.09428225f, -0.15406735f, -0.07701749f, 0.00028970f, 0.09438127f, -0.00406235f, 0.07348526f, 0.11034340f, 0.12203339f, 0.01932973f, 0.09455817f, -0.01610621f, 0.08110564f, -0.00424752f, -0.08718142f, -0.04829775f, -0.06497745f, -0.12447903f, -0.05500719f, 0.00805047f, 0.06032746f, -0.03853329f, -0.00524988f, -0.04761108f, -0.03758644f, -0.00560896f, -0.08801180f, -0.11200642f, -0.08297369f, -0.10737564f, -0.04305400f, -0.00996393f, -0.05640810f, -0.02452432f, -0.00665959f, -0.13396096f, -0.24460882f, -0.19168600f, -0.17266952f, -0.15095507f, -0.07890688f, -0.13990578f, -0.10219237f, -0.05749795f, -0.03515587f, -0.04900937f, -0.06111313f, -0.01582003f, -0.03138093f, 0.03387053f, -0.03231462f, -0.07914873f, 0.00904464f, -0.03234150f, -0.00070089f, -0.01702050f, -0.08968252f, -0.05684723f, 0.03522181f, 0.03015464f, -0.03081402f, -0.04445039f, -0.10815646f, -0.05780106f, -0.04130706f, 0.05088169f, -0.01100305f, 0.07252931f, 0.04538478f, 0.00684723f, -0.06138407f, -0.17597342f, -0.20274274f, -0.20869471f, -0.30557424f, 0.01492639f, -0.09405166f, -0.07105695f, -0.03816136f, -0.07639971f, 0.06687171f, 0.10629176f, 0.04044336f, -0.02623990f, 0.01555021f, 0.03482918f, 0.04193476f, -0.05584605f, -0.07854269f, 0.02112800f, -0.01851173f, -0.06161674f, -0.05171583f, -0.04929904f, 0.00501020f, -0.02123921f, 0.01685347f, 0.02082275f, -0.01646107f, -0.01123471f, -0.09654590f, -0.07702056f, -0.22801532f, -0.16820714f, -0.26999515f, -0.10709517f, -0.09273284f, -0.01350558f, 0.08188426f, 0.20778608f, -0.00751284f, 0.02773866f, 0.01717993f, 0.00764946f, 0.00394392f, 0.12466192f, 0.06944958f, 0.12299559f, 0.02914730f, -0.00463918f, -0.01169804f, -0.04616527f, -0.07296304f, -0.10565538f, -0.11824813f, -0.07535455f, -0.07638438f, -0.02246787f, -0.01061484f, -0.10772859f, -0.01942151f, -0.08507037f, -0.05067159f, -0.12886757f, -0.05445862f, 0.16536953f, 0.10269804f, 0.03423590f, -0.07923649f, -0.12469845f, -0.02303396f, 0.00078771f, -0.02670613f, 0.02585327f, 0.03313074f, 0.04542491f, 0.09838270f, 0.07579812f, 0.14484434f, 0.09290699f, -0.02284402f, 0.00892749f, -0.04057902f, -0.06563012f, -0.06216780f, 0.04065496f, 0.00803106f, -0.04948090f, 0.00994432f, 0.00372778f, -0.23396201f, -0.34388503f, -0.26366946f, -0.30113056f, -0.28531814f, -0.18270852f, -0.13417476f, -0.03580345f, -0.04481013f, -0.01767714f, -0.01862649f, 0.03157828f, 0.01308158f, 0.00379989f, 0.07237706f, 0.02581205f, -0.04474168f, -0.04862925f, -0.04660347f, -0.04227838f, -0.05831088f, -0.04667139f, -0.03490669f, -0.06058389f, -0.08471151f, -0.04602038f, -0.05619108f, -0.03108146f, -0.00085753f, 0.04954084f, -0.01685395f, -0.10330594f, -0.05100390f, -0.04207136f, 0.02256650f, 0.02091097f, -0.03184099f, -0.05112746f, -0.05561325f, -0.01776855f, -0.00142134f, -0.03808507f, -0.00671939f, -0.03946092f, -0.07064128f, 0.08456766f, 0.04763082f, 0.02280505f, -0.03620230f, -0.03397952f, -0.04040528f, 0.02310073f, 0.00554743f, 0.02190021f, -0.02842149f, 0.00128081f, 0.03231933f, 0.07319613f, -0.04651064f, 0.06478176f, 0.02823060f, -0.02354869f, 0.04713830f, -0.01036095f, 0.00758604f, -0.07826626f, -0.04459286f, 0.08018699f, -0.04314602f, 0.05989391f, 0.00692675f, 0.05860332f, 0.05315437f, -0.01985924f, -0.15728232f, -0.07309648f, -0.01726092f, 0.05694401f, -0.00786556f, -0.17397824f, 0.00828916f, -0.00598090f, 0.04395831f, -0.05476839f, -0.04398832f, 0.00538027f, 0.05332052f, -0.01242269f, -0.05281999f, -0.04013194f, -0.01036570f, -0.02434535f, 0.00232725f, -0.04703643f, 0.02165392f, -0.15618247f, -0.12481349f, -0.13304803f, -0.13133679f, -0.21584146f, -0.14148404f, -0.07188681f, -0.09285309f, -0.08409671f, -0.11155353f, -0.05235759f, 0.03218276f, 0.03361678f, -0.00546467f, -0.06574849f, -0.01987040f, 0.02795770f, 0.00972768f, -0.02829397f, 0.04735142f, -0.29868233f, -0.29982653f, -0.35698554f, -0.23893635f, -0.26281992f, 0.02211471f, -0.09628371f, -0.07341603f, -0.20229612f, -0.15277547f, -0.02876581f, 0.04345964f, -0.04651778f, -0.02278756f, -0.02628914f, -0.01985636f, -0.03466318f, -0.08542954f, 0.00781806f, -0.04371633f, 0.07299015f, -0.02762705f, -0.18767066f, -0.08882532f, -0.06511232f, 0.08119357f, 0.12859279f, 0.04538544f, -0.04252831f, -0.01189001f, -0.17738581f, -0.04890788f, 0.01864684f, -0.00146583f, 0.07799310f, 0.00043911f, 0.02826471f, 0.03663312f, 0.09712613f, 0.00784890f, -0.00970384f, -0.03922579f, 0.04637222f, -0.02852327f, -0.02317883f, -0.07187246f, -0.01226634f, -0.07059045f, -0.03220353f, -0.01705813f, 0.02318229f, 0.01420535f, 0.01372283f, -0.01229445f, 0.04386970f, 0.05439054f, -0.04902529f, -0.02593184f, -0.06103218f, -0.15413229f, -0.09184481f, -0.03148820f, 0.02885934f, 0.04296632f, 0.07213080f, -0.00863526f, 0.07236083f, 0.12414894f, 0.00921363f, 0.05772797f, -0.01658441f, 0.03713251f, -0.00963302f, -0.04835014f, -0.13253701f, -0.13522556f, -0.05118510f, 0.00138144f, 0.07329524f, 0.11536361f, -0.05795215f, 0.02819973f, 0.01188091f, 0.02023715f, 0.10708151f, -0.08846942f, -0.09138701f, -0.02097710f, 0.02003812f, 0.02576667f, -0.02752987f, -0.01617321f, 0.05060533f, -0.03432250f, -0.01910346f, -0.07629842f, -0.04123484f, 0.00726967f, 0.04383759f, 0.09539826f, -0.08117640f, -0.04435629f, 0.05348580f, 0.09711530f, -0.00926709f, -0.01953605f, 0.03291470f, 0.00311474f, -0.03830907f, 0.02628460f, -0.13224827f, -0.03893853f, -0.09042585f, 0.02425817f, 0.04009476f, 0.02579868f, 0.04188501f, -0.01957469f, 0.01900585f, 0.07118063f, -0.01760519f, 0.01005039f, 0.03600990f, 0.03021573f, -0.02942193f, -0.05213605f, 0.04891784f, 0.23204245f, 0.13430138f, -0.05620472f, -0.14012820f, -0.07749035f, -0.04598214f, 0.09188341f, 0.16564761f, -0.08838362f, -0.16417253f, -0.04444026f, -0.02981417f, 0.00943779f, -0.01761235f, -0.08075003f, -0.04214183f, 0.02230833f, -0.02535394f, -0.09516115f, -0.02236854f, -0.07097568f, -0.09384184f, -0.04725255f, -0.05362158f, 0.05086706f, -0.01130293f, -0.03400611f, -0.04449202f, -0.01467417f, -0.17195506f, -0.15602198f, -0.27513856f, -0.31793937f, -0.08897452f, -0.01276817f, -0.05494004f, -0.00516377f, -0.09684750f, -0.07479881f, 0.03964119f, 0.00741643f, 0.08018907f, 0.01053521f, -0.17967093f, -0.11910801f, 0.00622647f, -0.07357793f, 0.01707272f, -0.04247481f, -0.00158851f, 0.04144552f, 0.00976679f, 0.07186828f, -0.26500687f, -0.21843800f, -0.12146708f, -0.04572594f, 0.01079384f, -0.05027681f, -0.06333514f, 0.03395896f, -0.04327673f, 0.00255692f, -0.11827338f, -0.07933310f, -0.13023466f, -0.02980840f, 0.06485786f, -0.03204747f, -0.14926797f, -0.05438557f, 0.01524768f, 0.10891143f, 0.05376855f, 0.06454784f, -0.11805507f, -0.09811949f, -0.05160975f, -0.03163334f, 0.07263526f, 0.09273042f, 0.13904162f, 0.03952863f, -0.10277211f, -0.07061480f, 0.04485503f, 0.03941743f, -0.04723123f, 0.04885846f, 0.06359810f, -0.07257666f, 0.02022617f, -0.01777800f, 0.01317638f, 0.03737679f, 0.05440780f, 0.07679766f, 0.10162296f, 0.06271196f, 0.03649636f, -0.03057437f, 0.04313582f, -0.02145206f, 0.04698772f, 0.04658334f, 0.03617272f, -0.00439607f, -0.01444822f, -0.09411523f, -0.14538035f, -0.12715599f, -0.17924312f, -0.26167026f, 0.00837057f, 0.08210365f, -0.00218279f, 0.02455184f, -0.02346656f, -0.02329334f, 0.02437384f, -0.00932006f, -0.03395667f, 0.03106380f, 0.04824778f, 0.18935841f, 0.11049929f, 0.04311404f, -0.06665683f, -0.19166432f, -0.12499572f, -0.01162506f, 0.01944043f, -0.06962973f, 0.02302430f, -0.01886744f, 0.00882774f, -0.06521279f, -0.07134324f, -0.01423309f, -0.20718361f, -0.12647276f, -0.06249958f, -0.03593207f, -0.29921997f, -0.14877637f, -0.07559446f, 0.05868067f, -0.05685127f, -0.13025989f, -0.12172863f, 0.00824199f, -0.05466345f, -0.02398271f, -0.11705677f, -0.08921161f, -0.10537653f, -0.20360899f, -0.18983284f, -0.16706501f, -0.15977176f, -0.30060887f, -0.13864809f, 0.03083864f, -0.13511123f, -0.07830457f, -0.18142244f, -0.10637364f, -0.19068766f, 0.02954658f, 0.04567315f, 0.07688504f, 0.10226931f, -0.03675140f, -0.06312902f, 0.05799318f, -0.04543184f, -0.07178058f, -0.02788373f, -0.20531307f, -0.05499391f, -0.00574921f, 0.10744765f, 0.01117485f, 0.01948246f, 0.08084176f, 0.05799639f, 0.02372928f, -0.00796266f, -0.30682072f, -0.33574477f, -0.33252844f, -0.05801223f, -0.15143918f, 0.04800418f, -0.02839192f, 0.04785231f, 0.07172400f, -0.06124675f, -0.00056136f, -0.02011103f, 0.00675525f, 0.05933264f, -0.02355863f, -0.15933567f, 0.00021458f, 0.09250771f, 0.07926489f, 0.01921102f, 0.15186264f, 0.00006288f, 0.03903139f, -0.03318391f, -0.17480186f, -0.02678999f, -0.00005106f, 0.01113868f, 0.02312648f, 0.10456965f, 0.14637366f, 0.01802945f, -0.06105621f, -0.06282779f, -0.14330497f, 0.03844190f, -0.11439528f, -0.09006611f, -0.03359498f, -0.08376572f, 0.16437563f, 0.16936851f, 0.17906563f, -0.08213674f, -0.22541121f, 0.07460139f, 0.03635467f, 0.02896019f, 0.07934976f, 0.08187392f, -0.04383250f, -0.03423092f, -0.00052713f, -0.07977427f, 0.06988793f, 0.17149524f, 0.09044238f, 0.03668567f, 0.00988932f, -0.02625481f, 0.03628093f, -0.05518651f, -0.03085088f, -0.01144286f, -0.07145016f, -0.01071251f, 0.04221893f, 0.02344372f, 0.06735071f, 0.10565655f, 0.00131206f, 0.03388289f, 0.04971936f, -0.03264025f, -0.15502144f, -0.02482611f, 0.01856674f, -0.05744698f, -0.09754453f, 0.01786718f, -0.00987404f, 0.02472509f, 0.06278690f, 0.05271943f, 0.03219818f, 0.08492361f, 0.05001295f, 0.03111059f, 0.00569319f, 0.04650670f, 0.12746961f, 0.05778669f, 0.08150988f, 0.15201306f, 0.17138562f, -0.01225964f, -0.15587288f, -0.14277363f, -0.15665224f, -0.11687531f, -0.02454298f, -0.03488432f, 0.02775669f, -0.01628594f, 0.06630325f, -0.00273008f, 0.01510547f, -0.01704243f, -0.02749827f, 0.04044263f, -0.22453269f, -0.20549664f, -0.18019684f, -0.14231546f, -0.13515162f, -0.05938914f, -0.08870200f, -0.04991076f, -0.10217840f, -0.03991718f, 0.05640423f, -0.05540691f, -0.01036903f, -0.02696395f, 0.01645773f, -0.10789061f, 0.04004658f, 0.07870176f, 0.04594553f, 0.03308824f, -0.10059372f, -0.06259418f, -0.07666220f, -0.05744793f, 0.04343745f, -0.11656291f, -0.09126218f, -0.10848214f, -0.00098078f, -0.01109337f, 0.11649532f, 0.07833643f, 0.09309126f, 0.08320349f, -0.02584054f, -0.02038169f, -0.16945408f, -0.04717914f, 0.09538025f, 0.01264326f, 0.01632598f, 0.03822294f, 0.05784598f, 0.02193692f, 0.04073026f, 0.06353773f, 0.03495810f, 0.03520546f, 0.02529363f, -0.00803588f, 0.09420402f, 0.07244150f, 0.00998461f, -0.01300405f, 0.03689108f, 0.05257083f, 0.21435213f, 0.20824005f, 0.12709235f, -0.00024507f, -0.02536231f, 0.06666251f, -0.03766272f, -0.02395578f, -0.03732002f, -0.01640698f, 0.04625190f, -0.02817908f, 0.01381654f, -0.09414384f, 0.06699256f, 0.06170082f, 0.05363037f, 0.10321517f, 0.05184332f, -0.06240232f, 0.05122266f, -0.08038189f, -0.10799560f, -0.17445515f, -0.11180864f, 0.02687634f, 0.09462106f, 0.03416366f, 0.04190716f, -0.06630806f, -0.01356273f, -0.10390907f, 0.04604948f, -0.10087060f, -0.15334548f, -0.09754491f, -0.05162379f, -0.11421656f, -0.11038445f, 0.01880894f, 0.06698399f, 0.04393251f, 0.00489525f, -0.04970339f, -0.08442333f, -0.03630628f, 0.03033707f, 0.07958556f, 0.06326266f, 0.08645172f, 0.03490150f, 0.08119796f, 0.00567597f, 0.01821708f, -0.00699444f, -0.03674524f, 0.02927286f, 0.03848896f, -0.08117865f, -0.06545293f, -0.10722755f, -0.04843657f, -0.00306678f, 0.02209073f, -0.03069019f, -0.00405852f, 0.01902057f, 0.04016036f, 0.06761056f, -0.02691359f, -0.01412126f, 0.00662252f, -0.08640016f, -0.26265806f, -0.07525524f, -0.02030581f, -0.03623045f, -0.00518212f, -0.03076749f, 0.03779349f, -0.00627691f, -0.05313559f, -0.08208379f, -0.17170793f, 0.03580683f, 0.08033514f, -0.02969670f, 0.04511739f, -0.03496537f, -0.07326792f, -0.02800131f, 0.05219034f, 0.04699253f, -0.00382063f, -0.07058874f, -0.03032604f, -0.04996871f, -0.10140056f, -0.16147840f, -0.20632735f, -0.13124014f, -0.18583301f, -0.06054833f, -0.09134182f, -0.02105686f, -0.08307489f, -0.03736155f, -0.14494772f, -0.10795258f, -0.00261657f, -0.06454443f, -0.11522238f, -0.04551081f, -0.02719938f, -0.05247086f, -0.10393310f, -0.03613245f, -0.11854604f, -0.17353474f, -0.04331511f, 0.00537892f, -0.01634006f, -0.07574885f, -0.05447242f, -0.17264077f, -0.10660698f, -0.04116862f, -0.04908816f, -0.05963705f, 0.11508717f, 0.01330826f, -0.19650140f, -0.24301590f, -0.14163288f, 0.04259443f, -0.00991327f, -0.00452866f, -0.04425245f, -0.04560646f, -0.04854188f, 0.07241376f, 0.07714808f, 0.00959704f, 0.05644666f, 0.01457324f, 0.01470022f, 0.00404768f, -0.15197276f, -0.24888003f, 0.00032758f, 0.06613792f, -0.04369991f, -0.05446886f, -0.06491643f, -0.04891870f, 0.00200460f, -0.00882895f, -0.10871304f, -0.08747473f, -0.00208738f, -0.00586982f, 0.05366255f, 0.05649724f, -0.01202850f, -0.02905890f, -0.01346536f, 0.01853804f, 0.04834484f, 0.04448711f, -0.03705538f, -0.10848515f, -0.01104329f, 0.01374223f, 0.05836127f, -0.02495417f, -0.02627422f, 0.03594780f, -0.03432269f, -0.02817619f, -0.07704299f, -0.03614018f, 0.02705844f, 0.00547820f, -0.01237768f, 0.05451682f, 0.00901622f, -0.02099230f, -0.17910732f, -0.19586304f, -0.03269952f, 0.01838780f, -0.06172990f, -0.04512032f, -0.03274786f, 0.09276675f, -0.07972475f, -0.04458517f, -0.11447535f, -0.09977990f, -0.04099331f, -0.07643469f, 0.03420860f, -0.05880647f, -0.05921263f, -0.19888932f, -0.03853484f, 0.03809815f, -0.07230781f, 0.04955826f, -0.05112904f, -0.00753852f, 0.03767975f, 0.10011477f, 0.05993259f, -0.02854278f, -0.02502098f, 0.00030229f, -0.02979825f, -0.09098019f, -0.24402399f, -0.10753299f, -0.03595939f, -0.07562662f, 0.01374187f, 0.00074559f, 0.04071852f, -0.01760249f, 0.00258046f, 0.03341577f, 0.02413253f, 0.00357986f, 0.01671188f, -0.00369782f, -0.06671256f, -0.02769230f, -0.03913769f, 0.00935499f, -0.01997092f, -0.08828153f, -0.02228646f, -0.11857374f, 0.05716804f, 0.08162376f, 0.07820499f, -0.03411053f, -0.00871278f, 0.01924759f, 0.01342667f, -0.07533179f, -0.07920556f, -0.06259540f, -0.06173115f, -0.06253450f, -0.02330854f, -0.07840253f, -0.01689502f, 0.01581985f, 0.06094136f, 0.03935741f, -0.03164914f, -0.03576634f, -0.07889386f, -0.10985279f, 0.01589242f, 0.02980293f, 0.03866929f, 0.01320396f, -0.00023307f, 0.05792918f, 0.01703999f, -0.00776807f, -0.06465104f, 0.05010602f, -0.16994163f, 0.02487241f, 0.10593957f, 0.04436558f, 0.01348748f, 0.02902347f, -0.24376895f, -0.18749988f, -0.10064375f, -0.14016110f, -0.10464145f, 0.10410138f, 0.33116317f, 0.20410731f, 0.06278209f, 0.02718292f, 0.16973615f, 0.06066791f, 0.09987090f, -0.02160024f, -0.06267431f, 0.04771587f, 0.03675495f, 0.05607363f, 0.05457620f, 0.02356027f, 0.30534017f, 0.35741240f, 0.29226491f, 0.24245134f, 0.08749689f, -0.05905822f, 0.03227700f, -0.05882322f, -0.00743880f, -0.08050940f, 0.08544275f, 0.05201466f, -0.00153070f, 0.01236498f, 0.01981151f, -0.02546898f, -0.03025107f, 0.01854747f, 0.01089681f, 0.02730006f, 0.06593169f, 0.00062042f, -0.03652262f, -0.04881895f, -0.05523387f, 0.00921480f, 0.00520730f, -0.04346230f, -0.03679227f, 0.03422345f, 0.03334348f, -0.00965037f, -0.08990254f, 0.02947756f, -0.00218847f, 0.13614641f, 0.10541781f, 0.02299829f, -0.05136799f, 0.02474764f, -0.05327882f, 0.03041790f, 0.03247684f, 0.04464189f, 0.02371171f, -0.03934264f, 0.03237307f, -0.04020920f, -0.05395604f, -0.00320522f, 0.02422128f, 0.00476683f, -0.03374228f, -0.00885951f, 0.02751903f, 0.15705803f, 0.06694767f, 0.02609292f, -0.02099194f, -0.02008718f, -0.11403087f, -0.07651307f, -0.13095523f, -0.11221359f, -0.07695918f, 0.04125866f, 0.02380278f, 0.06056515f, 0.13852027f, 0.15540367f, 0.11505866f, 0.05626734f, 0.00863908f, 0.03386235f, -0.06353530f, -0.06605318f, -0.12479948f, -0.09725465f, -0.16496295f, -0.08549191f, -0.39304900f, -0.25487056f, -0.18428703f, -0.16793284f, -0.05082510f, 0.05055831f, 0.06798617f, 0.05949746f, -0.04086167f, -0.03751151f, 0.10556056f, 0.06091912f, 0.01658326f, 0.03744904f, -0.03293417f, -0.00995556f, 0.03880538f, 0.00429038f, 0.05846774f, -0.01319205f, -0.03017937f, 0.05556480f, 0.05658745f, -0.00161637f, -0.04930177f, -0.28937000f, -0.20955411f, -0.07650673f, -0.07600263f, -0.06543751f, -0.14404228f, -0.15030149f, -0.34436354f, -0.23907538f, -0.13540490f, -0.43529752f, -0.23154421f, -0.16397774f, -0.13655643f, -0.15563777f, -0.01983528f, -0.04607126f, 0.03492205f, 0.03099188f, -0.03133275f, -0.04799236f, -0.15596569f, -0.13402246f, -0.15171432f, -0.05462704f, 0.00099465f, -0.00659740f, -0.05236426f, -0.09834355f, 0.00012634f, -0.07133792f, -0.00988990f, 0.07320014f, 0.05624791f, 0.00802764f, 0.11982525f, 0.06795906f, 0.01370111f, 0.01784126f, 0.03348609f, -0.26457509f, -0.15498361f, -0.23787645f, -0.22983855f, -0.24968234f, -0.48719567f, -0.48239437f, -0.29508150f, -0.15210783f, -0.19026925f, -0.01341405f, -0.07367263f, -0.06357410f, -0.03573793f, -0.04664079f, -0.10398009f, 0.00969952f, -0.06138144f, -0.08183072f, -0.04999939f, 0.04678055f, 0.02290745f, 0.05064745f, 0.05934910f, 0.08792607f, 0.03280672f, 0.06812552f, 0.04308366f, -0.01309057f, -0.04418290f, 0.01979987f, 0.04305490f, -0.04250453f, 0.01762276f, -0.06498266f, -0.00380988f, 0.04331225f, 0.05590928f, 0.08814425f, -0.04885681f, 0.13159527f, -0.02104946f, -0.07075436f, -0.09749150f, -0.11743864f, 0.04002128f, 0.05231724f, -0.05184779f, -0.02012946f, -0.09637471f, -0.13815020f, -0.05178865f, -0.11101925f, 0.00007969f, -0.10760491f, 0.10617850f, 0.04164940f, -0.03325776f, -0.01105139f, -0.04005745f, 0.21014641f, 0.14748639f, 0.04933098f, 0.04334848f, 0.13306515f, -0.13718304f, -0.02845377f, 0.02684302f, 0.06652474f, 0.00570127f, 0.06139447f, 0.01244154f, -0.03393111f, 0.04261082f, 0.02000834f, -0.03871813f, 0.03744863f, -0.02392853f, -0.04925635f, -0.04273124f, 0.04999409f, -0.05043110f, -0.11489558f, -0.09874716f, -0.06200482f, -0.05404086f, -0.00963818f, -0.03281595f, -0.06508872f, -0.06696045f, -0.07967928f, 0.01973018f, 0.05881919f, -0.06479457f, -0.19150905f, 0.10806803f, 0.02658899f, -0.05338198f, -0.02497862f, 0.02320818f, -0.04990972f, -0.00523699f, 0.00567266f, 0.07717461f, 0.09506851f, -0.30419064f, -0.16666892f, -0.25768569f, -0.20012680f, -0.35379353f, 0.06935161f, -0.01235627f, -0.08417177f, -0.02465964f, -0.18961953f, -0.07486351f, -0.08782240f, 0.01087905f, 0.02215418f, -0.00080067f, -0.01698125f, -0.04668939f, 0.06448577f, 0.03502888f, 0.07456043f, -0.10712380f, -0.05478501f, -0.05142801f, 0.12909204f, -0.00100465f, -0.02678101f, 0.01799392f, -0.05145232f, -0.05375680f, -0.09875992f, -0.35706812f, -0.21099307f, -0.13918598f, -0.06878200f, -0.05374254f, 0.04816794f, 0.07428349f, 0.03323257f, -0.03869731f, -0.05652210f, 0.12352671f, 0.04878635f, 0.02044245f, 0.00602235f, 0.00876095f, 0.06790624f, 0.00849065f, 0.01830636f, -0.03595110f, -0.02137623f, -0.02521413f, 0.03989030f, -0.00434192f, 0.04831311f, 0.02448109f, 0.00481621f, 0.06797216f, 0.11390465f, 0.05185361f, 0.10106348f, 0.09270830f, 0.04260149f, 0.04204127f, 0.01748125f, -0.10284299f, -0.07837668f, -0.01401956f, 0.00612035f, -0.02705245f, -0.19230935f, 0.04754809f, -0.02728517f, 0.07335534f, 0.07439204f, 0.04024104f, 0.06087446f, 0.03783549f, 0.01408176f, -0.07479756f, -0.00970632f, -0.03604702f, 0.00581702f, -0.03596355f, 0.02342565f, 0.03356061f, -0.03642472f, 0.04657768f, -0.10825238f, -0.21074301f, -0.26638058f, 0.03133058f, -0.02583163f, 0.01458088f, 0.01876473f, 0.04405451f, -0.07069307f, -0.03734678f, 0.00250581f, 0.02896137f, -0.01721695f, 0.01823945f, -0.05612173f, -0.07037663f, -0.06144464f, -0.09421062f, 0.03207026f, -0.05848838f, 0.00290510f, 0.04904034f, -0.03247090f, 0.01067044f, -0.04860443f, -0.06877737f, -0.08724646f, -0.05823772f, 0.02592253f, -0.06297221f, 0.00730645f, -0.05314297f, -0.03034170f, -0.00867212f, 0.00108758f, -0.04784317f, -0.02781583f, 0.03386138f, 0.06471263f, -0.07811100f, 0.04463837f, 0.01102894f, -0.06061964f, -0.16277082f, -0.21842653f, -0.02141950f, -0.09665453f, -0.13064978f, -0.31906068f, -0.13385540f, -0.10212073f, -0.02485258f, -0.03849098f, -0.17159094f, -0.16156018f, -0.04484013f, -0.01253583f, -0.06499278f, 0.06505077f, 0.07713441f, -0.04194215f, -0.00385987f, -0.04467293f, -0.09739874f, -0.00133370f, -0.07126337f, 0.03768195f, 0.03333880f, -0.07755718f, 0.01793308f, -0.06239446f, -0.03388090f, 0.00372234f, -0.07622109f, -0.07100192f, 0.01596097f, 0.06714039f, 0.01143986f, 0.16159405f, 0.22561948f, 0.26049355f, 0.20053290f, 0.29430956f, 0.05124359f, -0.00517245f, 0.03929770f, -0.08006413f, -0.02747332f, -0.06927110f, -0.03754561f, 0.01801811f, 0.01894640f, 0.00830228f, -0.21443701f, -0.19538312f, -0.09069255f, -0.06358822f, -0.20149718f, 0.04433584f, -0.03672542f, -0.11432449f, 0.00002410f, 0.01430935f, -0.06228400f, 0.02702466f, -0.00655169f, 0.02618271f, 0.12948056f, 0.01946262f, 0.02530741f, 0.08561572f, 0.02927206f, -0.00016141f, 0.00770122f, 0.00618614f, 0.03463851f, 0.05512887f, -0.01483420f, 0.03969191f, 0.03710679f, 0.04389041f, 0.04075586f, 0.01044287f, 0.01216586f, 0.05753139f, 0.13359044f, 0.12148689f, 0.11861329f, 0.04074847f, -0.01441312f, -0.06535886f, -0.11798556f, -0.25131389f, 0.17076793f, 0.18616292f, 0.14003214f, 0.16388194f, 0.23632067f, -0.11904643f, -0.05131496f, -0.05260637f, -0.00014365f, -0.02617487f, 0.11890377f, 0.07389812f, 0.08591986f, 0.06903628f, 0.10874742f, 0.12057827f, 0.02810453f, 0.00676612f, 0.08349576f, -0.01354136f, 0.06211254f, 0.02456925f, 0.05444032f, 0.06612389f, 0.08162528f, 0.13377325f, 0.10036931f, 0.02478516f, -0.02419335f, -0.11276001f, 0.11042089f, 0.20645809f, 0.23735064f, 0.22357370f, 0.22791447f, -0.07815970f, 0.01211187f, -0.05742493f, -0.03398734f, 0.05380395f, 0.01104165f, 0.01810965f, 0.00495732f, 0.06998138f, 0.16989599f, -0.31729800f, -0.10224406f, -0.06522638f, -0.12428342f, -0.21740058f, 0.12487157f, 0.02841314f, 0.04128956f, 0.03117904f, -0.03679640f, -0.16794404f, -0.11247809f, -0.13241643f, -0.06212307f, -0.14042228f, -0.04426419f, -0.00757305f, 0.07323781f, 0.07097805f, 0.04095519f, 0.03514643f, 0.10300411f, 0.09514371f, 0.17665562f, 0.34271750f, -0.07103445f, -0.10678997f, -0.14414281f, -0.11681439f, -0.26292503f, 0.01439577f, -0.05254911f, -0.05874871f, -0.04255767f, -0.04277230f, -0.12623206f, -0.02480571f, 0.03506486f, -0.01085178f, -0.06179390f, 0.01668724f, 0.04490446f, -0.04947945f, 0.03572835f, 0.09530109f, -0.04956882f, -0.05914049f, -0.10466989f, -0.09741922f, -0.03748395f, -0.47702369f, -0.43325767f, -0.34974968f, -0.39279839f, -0.42182091f, 0.07729886f, 0.00553604f, 0.13233349f, 0.27114272f, 0.16365504f, -0.08123598f, -0.13272350f, -0.01716780f, -0.06279963f, -0.05190735f, 0.03502741f, -0.04262416f, -0.07196385f, -0.08855604f, 0.01550408f, -0.06550175f, -0.04292376f, -0.08643736f, -0.14435580f, -0.07868437f, 0.14480390f, 0.03204714f, -0.09365008f, -0.14549743f, -0.18267196f, 0.03516058f, -0.09262384f, -0.03723535f, -0.03447654f, 0.00892611f, 0.00523131f, -0.09005141f, -0.03425868f, 0.03554296f, 0.00228106f, -0.03687554f, -0.10210683f, 0.04073408f, -0.04840213f, -0.00177994f, 0.00053714f, -0.06726886f, -0.05909830f, -0.03742812f, -0.01804735f, -0.09917527f, 0.03349288f, 0.03931750f, -0.02674626f, 0.04252047f, -0.04993078f, -0.14396505f, -0.15219457f, -0.05522019f, 0.01981897f, 0.08675788f, -0.02085679f, -0.03191948f, -0.01550450f, -0.10190093f, -0.01584146f, -0.08547914f, 0.00661388f, 0.01840930f, 0.07783557f, -0.18900281f, -0.11487496f, -0.15055974f, -0.13905492f, -0.03784563f, 0.09608654f, 0.13679782f, 0.09985340f, 0.00835092f, 0.00122810f, -0.04073095f, -0.01086222f, -0.02559096f, -0.06624483f, -0.00832701f, -0.00207234f, -0.02861739f, -0.04450307f, -0.01408931f, -0.01165221f, -0.06505095f, -0.07527940f, -0.07587643f, -0.06614238f, -0.02752654f, 0.08431576f, 0.03171428f, 0.06802181f, 0.09708636f, 0.05711580f, -0.03542127f, 0.00633775f, 0.02749156f, -0.02013533f, -0.03891332f, 0.02427156f, -0.07262504f, 0.04093365f, -0.06644231f, -0.05182599f, -0.01290003f, -0.01756087f, -0.01590262f, 0.03718618f, -0.00996881f, 0.03167698f, -0.01966608f, 0.02779747f, 0.08834722f, 0.16334325f, -0.01891723f, -0.01951146f, -0.07070500f, -0.10227614f, -0.08157222f, 0.10172979f, 0.04043508f, -0.00648046f, -0.10508087f, -0.15853718f, 0.17635155f, 0.10110509f, 0.16495875f, -0.03379377f, 0.03078647f, -0.04950334f, -0.00892513f, 0.03087320f, -0.04962273f, -0.01907304f, -0.05524220f, -0.17411077f, -0.03140760f, -0.02973832f, -0.03794457f, -0.02051412f, 0.03251466f, 0.00022157f, -0.06413484f, -0.07388785f, -0.06528030f, -0.07258500f, 0.02651600f, 0.02461180f, 0.06110164f, -0.06263985f, -0.04725331f, -0.06487793f, 0.01963734f, 0.07301828f, -0.20058419f, -0.15655726f, -0.19937012f, -0.18798079f, -0.23898801f, -0.08190438f, -0.04905161f, -0.09665071f, -0.05628742f, 0.04144637f, -0.18225387f, -0.13597408f, -0.12278818f, 0.04569594f, 0.00323986f, 0.03513083f, 0.05836602f, -0.03910457f, 0.00886042f, -0.00126142f, 0.02792038f, -0.09939282f, -0.02835305f, -0.03746078f, 0.00515401f, -0.11249686f, -0.13045353f, -0.09562562f, -0.07442360f, -0.12746401f, 0.05202629f, 0.02727760f, 0.04528855f, 0.08663988f, 0.10143672f, -0.03493479f, -0.03168265f, -0.03503794f, -0.03690782f, 0.02819932f, -0.04583424f, -0.01067660f, -0.06633808f, 0.02478262f, 0.08465225f, -0.00741606f, 0.01954577f, 0.03863849f, 0.07048352f, 0.20042823f, 0.02764278f, 0.00352190f, -0.13371529f, 0.01653442f, 0.02071924f, -0.01802292f, -0.00898619f, -0.06474064f, 0.02423751f, 0.02606484f, -0.01208659f, -0.00203743f, 0.07990273f, 0.09304805f, 0.12478147f, 0.05633102f, 0.12911174f, 0.15030152f, 0.17929630f, 0.24258617f, 0.04374092f, -0.04646928f, 0.04210989f, 0.03361727f, -0.02899182f, -0.01531727f, -0.10705766f, -0.02721193f, -0.05826981f, -0.05086346f, 0.04316098f, 0.06328920f, -0.00526081f, 0.06899285f, 0.05459712f, 0.05450458f, -0.01793037f, 0.03369366f, -0.01869106f, -0.04866916f, -0.07138767f, -0.03455111f, 0.02586966f, 0.01960600f, -0.02241536f, -0.06325046f, 0.03688342f, 0.01313979f, 0.00947005f, -0.05331213f, -0.06002544f, -0.03497936f, -0.08822132f, 0.01102121f, 0.00734435f, -0.02788672f, 0.00597394f, 0.02807296f, 0.06900747f, 0.05502084f, -0.01466258f, -0.14029625f, -0.09311735f, -0.10140845f, -0.02885734f, 0.01966107f, -0.03841102f, 0.01570950f, -0.07866869f, -0.00680882f, -0.12448292f, -0.11258583f, -0.17817177f, -0.10358978f, -0.05702190f, 0.19579828f, -0.00206747f, -0.00103745f, -0.10974763f, -0.10892668f, 0.09280018f, 0.05314871f, 0.06312072f, 0.09201605f, -0.06912320f, -0.04713987f, -0.04521933f, -0.02923309f, -0.07845833f, -0.04955610f, -0.03104414f, -0.03302031f, -0.03641807f, -0.00327424f, -0.04526780f, 0.00029033f, -0.07279868f, -0.08585782f, -0.03403511f, -0.02284679f, -0.01442193f, -0.06378415f, -0.07045992f, -0.06792869f, -0.07438137f, -0.01331960f, -0.20216386f, -0.14243385f, -0.18810920f, -0.33051777f, -0.02646286f, -0.02775607f, -0.05555391f, -0.05484588f, -0.01016970f, -0.00004763f, -0.00820792f, -0.04202285f, 0.01657851f, -0.01685447f, -0.02720906f, -0.00619566f, -0.03183251f, -0.03493348f, -0.04971298f, 0.00558111f, 0.10161290f, 0.02083082f, 0.14915913f, -0.13481276f, -0.03593654f, -0.04751010f, -0.06084230f, -0.02892284f, -0.07538298f, -0.03867893f, 0.01185855f, 0.02540865f, -0.00454857f, 0.06968588f, -0.05595855f, -0.02724586f, -0.03306900f, 0.05821093f, 0.03568158f, -0.03906434f, 0.03721244f, -0.08988441f, -0.01671203f, -0.12905356f, 0.18513303f, -0.04686053f, -0.01368567f, 0.01985331f, 0.01239203f, -0.20910235f, -0.08360432f, -0.01842591f, 0.06036276f, -0.05672236f, -0.00069463f, -0.01114056f, -0.11616757f, -0.02960189f, -0.04095160f, 0.01477192f, 0.10293606f, 0.04633795f, 0.01754017f, -0.03879371f, -0.19446839f, 0.00797368f, 0.02142316f, 0.02870930f, -0.00469871f, 0.09519248f, 0.08347943f, -0.00518780f, 0.01801500f, -0.06098407f, 0.06103426f, 0.06442108f, -0.06790876f, -0.01421937f, -0.00398448f, -0.19615197f, -0.14200972f, -0.08434366f, 0.02124094f, 0.01486729f, -0.10239752f, -0.02069239f, -0.01882002f, 0.00616190f, 0.03236108f, 0.03475957f, 0.01809624f, 0.00728322f, -0.08766752f, -0.13421494f, -0.00189381f, -0.00270756f, 0.05626284f, -0.01017786f, -0.15277469f, -0.08525932f, -0.07221296f, -0.14928329f, -0.24213521f, -0.19848390f, -0.12033314f, -0.08574709f, -0.03474043f, -0.00854934f, 0.00270941f, 0.04650427f, -0.00312922f, -0.02999808f, 0.03577306f, 0.01564159f, 0.07787843f, -0.02509846f, -0.04428435f, -0.10728613f, -0.05054357f, -0.07112654f, 0.10992854f, -0.01270259f, 0.03662618f, -0.12167042f, 0.02810119f, -0.02621817f, 0.01573487f, -0.07817845f, -0.03407596f, -0.16518889f, -0.04039141f, 0.13422482f, -0.03580984f, -0.19609064f, -0.01061988f, -0.02609682f, 0.01389289f, 0.06151419f, 0.08183835f, -0.02286691f, -0.03597425f, -0.06918771f, 0.05255919f, -0.07303558f, -0.06418758f, -0.06385374f, -0.03381651f, -0.04114091f, -0.29629928f, -0.11918194f, -0.15872258f, -0.15995589f, -0.11959127f, -0.18607266f, -0.05208469f, 0.03025927f, 0.02627289f, -0.12148107f, -0.19565473f, -0.06997593f, -0.01540314f, 0.04290648f, 0.06511747f, -0.00829622f, -0.00229719f, -0.00631985f, 0.01195228f, -0.01631464f, -0.07635225f, -0.02089699f, -0.03193348f, -0.02629452f, 0.03861289f, -0.02150990f, 0.04572426f, -0.08061706f, 0.01107061f, -0.04305647f, -0.10012716f, -0.04559658f, -0.02303290f, -0.05330998f, -0.06371599f, -0.07308106f, -0.01944141f, -0.06918867f, -0.03463928f, -0.09497535f, -0.03855492f, -0.10242877f, -0.03310844f, 0.03511211f, -0.03588083f, -0.03300656f, -0.13415533f, 0.02128575f, -0.04628310f, 0.03079206f, 0.02353786f, -0.17460556f, -0.02667536f, 0.04023053f, -0.10795540f, -0.03574013f, 0.02237899f, 0.08789630f, 0.07394791f, -0.00550164f, -0.10270038f, -0.18978867f, -0.05527775f, -0.07123438f, -0.09233591f, 0.01934345f, -0.13989766f, -0.09419438f, -0.07424948f, -0.01662858f, 0.11216930f, 0.12667252f, 0.06927916f, 0.01159344f, -0.04495580f, -0.12174941f, -0.03967253f, 0.05127621f, 0.09026326f, 0.05321861f, 0.00547943f, -0.18693684f, -0.03238614f, -0.09785017f, 0.02355441f, -0.00999482f, 0.04900654f, 0.00728897f, -0.07609259f, -0.10810891f, -0.04292198f, -0.15589435f, -0.09133085f, -0.01941058f, 0.02562716f, 0.09540305f, -0.02115840f, -0.01864076f, -0.03125848f, 0.00886984f, -0.06017813f, 0.05594679f, 0.00513531f, -0.04150410f, 0.01540067f, 0.00162682f, 0.06494421f, 0.05628213f, -0.06744260f, -0.02279965f, -0.02113308f, 0.10502227f, 0.05495357f, 0.09025035f, -0.01301433f, -0.09376585f, -0.01349931f, -0.11398846f, -0.07517114f, 0.01017048f, -0.07348613f, -0.03576586f, -0.11919348f, 0.00167693f, -0.16772932f, -0.13040009f, -0.06300407f, 0.03611240f, -0.05614597f, 0.03575599f, 0.01179041f, 0.02192992f, 0.05231691f, 0.09133441f, 0.02845031f, -0.14204793f, -0.08520509f, -0.14563167f, -0.30210331f, -0.22576816f, -0.43699902f, 0.01939482f, -0.10485183f, -0.05180868f, 0.00044415f, -0.05546894f, 0.03648267f, -0.00743397f, 0.04515699f, 0.00426080f, 0.02381834f, 0.04367992f, -0.03961777f, -0.09551889f, -0.14201121f, -0.11057103f, 0.09147399f, 0.10827887f, 0.14345820f, 0.10212786f, 0.11512230f, 0.11133145f, 0.06017699f, 0.06714477f, -0.07454219f, 0.02219462f, 0.15250146f, 0.04968216f, 0.06123888f, 0.01177759f, -0.06548020f, 0.10080115f, 0.10843480f, 0.18503782f, 0.21561450f, 0.07890815f, 0.04253649f, -0.01571852f, 0.08789255f, 0.04324105f, 0.04728196f, 0.08562262f, 0.01647956f, 0.01352867f, -0.01084219f, 0.00133742f, -0.16929764f, -0.10819578f, -0.06664634f, 0.07435827f, -0.03485075f, 0.20368530f, 0.16986744f, 0.11532868f, 0.13001916f, 0.06871267f, 0.05961929f, 0.02516700f, 0.10147820f, 0.01883588f, -0.02420862f, -0.01925621f, 0.04219621f, -0.04445771f, 0.02740008f, -0.14401740f, 0.01087010f, 0.04924180f, -0.02963233f, 0.02331726f, -0.06307213f, 0.00890348f, 0.06908996f, 0.06172216f, -0.07420234f, -0.18278156f, -0.00592292f, -0.06882679f, -0.00345935f, -0.00627594f, -0.00311617f, -0.17706199f, -0.09260684f, -0.07554381f, -0.04368827f, -0.05708478f, 0.16465452f, 0.15229329f, 0.08986346f, 0.08933922f, 0.11453842f, 0.10202523f, 0.02191980f, -0.05617937f, -0.01749199f, -0.09145078f, -0.03435437f, -0.06605745f, 0.00978514f, 0.03697988f, -0.26088247f, -0.18294942f, -0.12155402f, -0.09518895f, -0.03347371f, -0.02008298f, 0.00714589f, -0.04098040f, 0.03096247f, -0.05693060f, 0.01841488f, -0.00905580f, 0.00653625f, 0.01636836f, 0.01191224f, -0.04670473f, -0.00745842f, 0.01113983f, 0.01289661f, -0.03574576f, -0.01370516f, 0.07974011f, 0.06846417f, 0.08122154f, -0.05654278f, -0.07939202f, 0.10146197f, 0.05780460f, 0.00063269f, 0.03205071f, -0.03208375f, 0.05883012f, -0.03145737f, 0.06853039f, 0.04217357f, -0.07776329f, -0.01116298f, 0.01907333f, -0.01344273f, 0.00961685f, -0.09801537f, 0.08458180f, 0.13580371f, 0.04627360f, 0.00552335f, 0.00491314f, 0.04711006f, -0.03067768f, 0.02839173f, 0.02295384f, -0.10715098f, -0.01112776f, 0.05947350f, 0.08082666f, 0.04863507f, -0.03624444f, -0.32510298f, -0.21178170f, -0.19599915f, 0.00742921f, -0.09660933f, -0.08234902f, 0.06781914f, 0.07187695f, 0.01434365f, 0.03289739f, -0.06613594f, 0.06445841f, 0.15373151f, -0.01426218f, -0.06819796f, 0.07000407f, 0.00270263f, -0.08431029f, -0.16411555f, -0.11581467f, 0.01519557f, 0.01433477f, -0.06284903f, 0.00311773f, 0.01401702f, 0.05113587f, 0.05757524f, -0.04269234f, -0.00150555f, -0.03438961f, -0.02860070f, -0.15302598f, -0.09467256f, -0.08893420f, -0.08605475f, -0.25775144f, -0.10884236f, -0.09819096f, 0.02166192f, 0.08742930f, 0.02435021f, 0.02059359f, -0.01514658f, -0.01644965f, 0.09378470f, -0.01076161f, 0.08034160f, 0.11269053f, 0.10296836f, 0.00218535f, 0.02701297f, -0.00383698f, 0.06121062f, -0.04056550f, -0.03284619f, 0.09639125f, 0.13673542f, 0.04072398f, -0.01531310f, -0.08852480f, 0.01764087f, 0.02034093f, -0.02966577f, 0.02486261f, 0.04609605f, 0.01653630f, -0.02044042f, -0.00634315f, -0.08287848f, -0.00781829f, -0.06465806f, -0.01221756f, -0.03808304f, 0.09865481f, 0.05506023f, 0.06142486f, 0.08560534f, -0.06229481f, -0.07495043f, 0.07454249f, 0.03829866f, 0.10371576f, 0.10784458f, 0.02334473f, -0.10838262f, 0.00485236f, -0.02744025f, -0.04282198f, 0.01260378f, 0.02648332f, 0.04149629f, 0.06731360f, 0.08141999f, 0.13691214f, 0.05496898f, 0.00851455f, 0.00125067f, -0.01839966f, 0.05757919f, 0.07792690f, 0.05848760f, 0.05895806f, -0.03667979f, -0.03614678f, -0.00678816f, -0.01621058f, 0.04302435f, 0.04739396f, 0.00843888f, 0.03335166f, 0.12934197f, 0.09313649f, 0.00861461f, -0.07953771f, -0.09825590f, 0.01001752f, -0.04918437f, -0.00188689f, -0.03938968f, -0.00505853f, -0.03740311f, 0.09678008f, 0.00223607f, 0.05906087f, 0.02734420f, 0.13050145f, 0.01758912f, -0.10027590f, -0.04485736f, -0.21703883f, 0.14564769f, 0.05433705f, 0.03280872f, -0.00720816f, -0.03767623f, -0.00099706f, 0.02102757f, -0.06437661f, -0.03500123f, -0.00794833f, 0.02094490f, 0.04623502f, 0.08122794f, 0.03557152f, -0.00990591f, 0.00007140f, -0.05737950f, 0.01601273f, 0.01880053f, -0.12628117f, -0.01532508f, -0.11732215f, -0.11262804f, -0.13342404f, -0.11422800f, 0.02169380f, 0.01667790f, 0.03917200f, 0.01764894f, 0.01209836f, -0.01519884f, -0.04236036f, -0.01615812f, -0.08834113f, 0.03569261f, -0.09083378f, -0.02233211f, 0.06003527f, 0.03923186f, 0.09655546f, 0.02133283f, -0.02211191f, -0.00937708f, -0.14068815f, -0.15970320f, -0.04051651f, -0.04478853f, -0.06497603f, -0.03069087f, 0.01887757f, 0.10173042f, 0.15073612f, 0.08861412f, 0.07056317f, 0.03391312f, -0.18684705f, -0.19358116f, -0.25672048f, -0.30724758f, -0.18833520f, 0.04944800f, -0.08675026f, 0.01219035f, -0.03752329f, 0.05128393f, 0.02259123f, -0.03530259f, -0.04105916f, 0.03159833f, -0.03284426f, -0.05009887f, -0.07328001f, -0.01597022f, -0.05030353f, -0.10655164f, 0.01186261f, 0.02727726f, 0.01556778f, 0.01846983f, -0.03103018f, 0.07834932f, 0.01472561f, -0.05508049f, -0.00055299f, -0.07647894f, 0.03209675f, -0.01317695f, 0.03515381f, 0.03879533f, 0.05678922f, -0.06876519f, -0.05323680f, -0.08443127f, 0.02450802f, 0.01989223f, 0.08218910f, 0.08831643f, 0.06986349f, 0.08767965f, 0.06575230f, -0.01969710f, -0.01975876f, -0.06472484f, 0.00392113f, 0.00974014f, -0.10190990f, -0.03601344f, -0.05467056f, -0.06028414f, 0.05125054f, 0.10076530f, 0.00377598f, 0.02350644f, 0.05088456f, 0.10106818f, -0.15206383f, -0.11194750f, -0.07912794f, 0.04374602f, 0.03591968f, -0.06933384f, 0.04216905f, -0.05238753f, -0.05110508f, 0.19901748f, 0.11655874f, 0.13048317f, -0.05049313f, -0.12244718f, -0.04623537f, -0.04286307f, -0.02465321f, 0.06186231f, 0.03284417f, 0.03618350f, -0.07799542f, -0.00064845f, -0.05184788f, -0.01019785f, 0.03776205f, -0.06490749f, 0.01241377f, -0.07718952f, 0.02982384f, 0.00400032f, -0.33947161f, -0.09504467f, 0.07329456f, 0.06017529f, 0.13246584f, 0.08960625f, -0.02986344f, -0.01033626f, 0.02303531f, 0.02538492f, 0.01933939f, 0.06922188f, -0.00707952f, 0.01098875f, 0.02054429f, 0.02070504f, 0.04050089f, 0.00218382f, -0.02211057f, -0.05737026f, 0.00445597f, 0.01822736f, 0.06718760f, 0.05359556f, 0.08861308f, -0.02820103f, 0.02046799f, -0.03147091f, 0.06056627f, 0.10570725f, -0.02059071f, 0.02900300f, 0.01155973f, 0.01398061f, 0.04716793f, 0.03978759f, 0.00367665f, 0.00061739f, -0.07987955f, 0.01260750f, -0.05760957f, 0.06046320f, 0.03827088f, 0.09268794f, 0.26545343f, -0.05406053f, 0.00028779f, 0.04987376f, -0.05291472f, -0.05204505f, -0.45734751f, -0.42261240f, -0.11755776f, 0.01888506f, -0.07344639f, 0.00595089f, -0.08242901f, -0.08270309f, -0.21768552f, -0.16797191f, 0.00226708f, -0.00596331f, -0.00361803f, -0.07683869f, 0.01161010f, -0.09798419f, 0.01146922f, 0.01753627f, 0.01229311f, 0.01523570f, 0.08318733f, 0.09053120f, 0.06696162f, -0.03873721f, -0.00714927f, -0.11562878f, 0.01980257f, -0.00435956f, -0.02623297f, 0.01969521f, -0.09159072f, 0.01100961f, -0.02352455f, -0.00945867f, 0.09017088f, -0.09310687f, -0.03718941f, 0.03350146f, 0.08745957f, 0.00904725f, 0.04745139f, 0.03692539f, 0.05639875f, 0.14329544f, 0.15690933f, -0.06793348f, -0.03883924f, -0.09369840f, -0.12296833f, -0.14189604f, -0.00881197f, -0.04412868f, -0.06698759f, -0.07639852f, -0.11212324f, 0.04515019f, 0.08758887f, -0.01894640f, -0.01605377f, -0.04000985f, -0.04267665f, 0.02574206f, -0.09143510f, -0.08588274f, -0.18233603f, 0.07550929f, 0.03513308f, 0.03365761f, 0.06635337f, 0.07807871f, -0.03967765f, -0.05231920f, -0.01383747f, 0.04695001f, 0.01611790f, -0.05828150f, -0.04274979f, -0.01234244f, -0.00174517f, -0.00792859f, -0.00190607f, -0.01730117f, 0.01454656f, 0.04641823f, 0.01533443f, 0.00072189f, -0.08015160f, 0.01321661f, 0.04991153f, 0.03798164f, -0.02809862f, 0.06400684f, -0.04501769f, 0.00591513f, -0.00846149f, -0.18600583f, -0.12110960f, -0.12336287f, -0.04949645f, -0.05628359f, -0.04401048f, 0.00677108f, 0.07920314f, 0.17783077f, 0.26772118f, 0.03100481f, -0.03250277f, 0.00059625f, 0.09056851f, 0.11080061f, -0.04130807f, 0.02746079f, -0.00162537f, 0.07375323f, 0.05602329f, 0.07876982f, 0.06167955f, 0.04093373f, 0.12065927f, 0.07113164f, 0.04193071f, 0.02396443f, -0.03324267f, -0.07476720f, -0.05099091f, -0.00503435f, -0.02142397f, 0.03472437f, 0.09790757f, 0.11874117f, 0.07897574f, -0.03498214f, 0.01606956f, -0.04021792f, -0.04547985f, 0.00362495f, 0.08093029f, 0.08146601f, 0.03229447f, 0.04811696f, -0.13350618f, 0.00245215f, 0.04335424f, 0.00740509f, -0.02199868f, 0.04092823f, 0.03257130f, -0.01356188f, -0.02486717f, 0.05115249f, 0.02882702f, -0.02033682f, -0.06688717f, 0.04093952f, -0.06266215f, 0.05165362f, 0.01127645f, -0.00892764f, 0.05027556f, -0.01008170f, -0.04782816f, -0.00419819f, -0.07586637f, 0.03741481f, 0.02038443f, -0.08253683f, 0.00094142f, 0.01702739f, 0.03283115f, 0.04855127f, -0.04416412f, -0.01281624f, -0.08149182f, -0.07681450f, -0.15681642f, -0.20666493f, -0.03773145f, -0.01591152f, 0.01502177f, 0.02796019f, 0.06292951f, 0.04307738f, 0.11007716f, 0.05287587f, -0.01108835f, -0.01262168f, 0.04481358f, -0.04098321f, 0.02106726f, -0.05859028f, -0.00835228f, -0.08626937f, -0.01273489f, 0.06280136f, 0.00933975f, -0.05155395f, -0.03716109f, 0.01801149f, 0.03078512f, 0.10750813f, -0.02922210f, 0.06384994f, 0.10030473f, 0.06186831f, -0.03402873f, 0.01030538f, 0.03235456f, 0.10283544f, 0.08075323f, 0.07369421f, 0.05670634f, 0.01800528f, 0.04123764f, -0.05181653f, -0.01560677f, 0.02461362f, 0.01413270f, -0.00602456f, -0.03896290f, -0.00630437f, -0.03919886f, -0.10144977f, -0.02415768f, 0.00334555f, 0.01793711f, 0.03669406f, 0.00335382f, -0.04982845f, 0.05217996f, -0.02371643f, -0.04162505f, -0.03951677f, -0.17471832f, -0.13038844f, -0.17382583f, 0.01283780f, 0.06492072f, -0.00554050f, 0.06618052f, -0.05680545f, 0.13384882f, 0.05894418f, -0.02136610f, 0.07547446f, 0.05255240f, -0.00963242f, -0.00220808f, 0.00272741f, 0.09861244f, 0.03955309f, 0.02014417f, 0.08156687f, 0.14159872f, 0.10388464f, 0.01548975f, -0.01923704f, 0.03896708f, -0.01080325f, -0.07966232f, -0.00398152f, -0.02865019f, -0.00688903f, 0.05400760f, 0.07712292f, 0.12068319f, -0.01981926f, -0.10425060f, -0.03068623f, 0.00029713f, -0.07771444f, 0.00882746f, -0.09509182f, -0.02167767f, -0.10423595f, -0.10172254f, -0.01413519f, -0.00270142f, -0.04529241f, -0.06373385f, 0.01229163f, -0.00002058f, -0.07843416f, -0.11074974f, -0.14037935f, -0.21613464f, 0.10258287f, 0.05738748f, 0.04792860f, 0.06370302f, 0.02197545f, -0.07261575f, -0.06201348f, 0.00331965f, -0.01115225f, -0.02558629f, -0.11058692f, 0.00034956f, -0.03321744f, 0.06587052f, 0.08033606f, -0.08343437f, -0.21286927f, -0.12043759f, -0.07766248f, -0.18843047f, -0.02386142f, 0.07910679f, 0.05610748f, -0.02323411f, -0.10306855f, 0.05380869f, 0.01795368f, 0.14012296f, 0.02295753f, 0.05505153f, -0.02707603f, -0.11053043f, -0.05182961f, 0.04070647f, 0.05858963f, -0.03782809f, -0.05654696f, -0.12547697f, -0.07387394f, -0.03557393f, -0.22793381f, -0.16869037f, -0.17626314f, -0.06114252f, -0.04293535f, 0.02032156f, -0.01796620f, 0.07101154f, -0.02691544f, -0.01418602f, -0.00768407f, 0.02296014f, 0.04630208f, -0.00687469f, 0.05822789f, -0.13030760f, -0.03201164f, -0.07158894f, -0.24425083f, -0.40204221f, 0.01043840f, 0.03422619f, 0.12309118f, -0.06120701f, -0.03506259f, -0.11353286f, -0.10309014f, -0.06677078f, -0.07863193f, 0.02953095f, -0.15142424f, -0.10606012f, -0.09192776f, 0.00263002f, -0.04497382f, -0.07893952f, 0.01065361f, 0.06654212f, -0.05047781f, 0.08734097f, -0.08304862f, -0.05972676f, -0.01461616f, -0.05866408f, 0.01023921f, 0.02995340f, 0.00905422f, 0.03103759f, 0.00835197f, 0.07191609f, -0.11389011f, -0.10235084f, -0.07409421f, -0.06709751f, -0.06893395f, 0.03045734f, 0.02201417f, 0.00678802f, -0.08706944f, -0.12258621f, -0.07996891f, -0.04794138f, -0.07992757f, -0.01622484f, -0.07314900f, -0.01887477f, 0.08718090f, 0.06314231f, 0.05118747f, 0.00706204f, 0.11447353f, 0.07014679f, 0.08329248f, 0.10934671f, 0.05919220f, -0.04538828f, -0.06015439f, -0.03878034f, -0.08052767f, -0.12490321f, 0.03632081f, 0.04291485f, -0.00600861f, -0.00076664f, 0.00003192f, -0.09828508f, -0.04909675f, 0.05307838f, 0.00711028f, -0.03314582f, 0.14875661f, 0.08745315f, 0.02058605f, -0.05138417f, -0.14907221f, -0.06819363f, -0.04666511f, 0.00007207f, -0.08445958f, -0.05706454f, 0.03628755f, -0.03071762f, -0.04449346f, -0.03563536f, -0.03846248f, 0.12530158f, 0.01582083f, 0.04562475f, 0.01398234f, -0.03280865f, 0.06092729f, 0.06262632f, -0.01720425f, -0.03454806f, -0.00360650f, -0.04126514f, -0.02295488f, 0.07518644f, -0.00544793f, 0.02077983f, -0.04938947f, -0.00579758f, 0.07134762f, 0.04621483f, 0.08901177f, -0.06044299f, -0.03831340f, 0.03111315f, 0.04136086f, 0.11429334f, 0.04477205f, 0.11390597f, 0.12093333f, 0.12357207f, 0.15812488f, -0.08134799f, -0.03595249f, 0.09246795f, 0.13281450f, 0.16620481f, 0.04832237f, -0.03107371f, 0.05298395f, 0.00622717f, 0.08685382f, -0.10028271f, 0.03029951f, 0.06156579f, 0.16398853f, 0.26634359f, -0.09164526f, -0.00912168f, 0.09702986f, 0.06982661f, 0.01995937f, -0.23173149f, -0.15815143f, -0.06707942f, -0.13188741f, -0.14069657f, 0.10315172f, 0.02883447f, 0.12281285f, 0.07922570f, 0.12729737f, -0.03923754f, 0.06314491f, 0.01028706f, 0.11367919f, 0.03531624f, 0.06738599f, -0.03895963f, -0.00810443f, -0.07239834f, -0.09001587f, -0.03492629f, -0.04525675f, -0.01194072f, 0.02431178f, 0.06597456f, 0.00876231f, -0.03718315f, 0.05194703f, 0.01718126f, 0.05292277f, 0.10250672f, 0.06170074f, 0.03934916f, 0.01733724f, -0.00738349f, -0.08481009f, -0.04335533f, 0.04722384f, 0.03841723f, 0.20813052f, 0.05096420f, 0.02790693f, 0.01061478f, 0.03635830f, 0.08117367f, -0.00841752f, 0.09875172f, 0.03678004f, 0.02130882f, -0.07194658f, -0.03416497f, -0.01405934f, -0.03267577f, 0.08132955f, 0.05649430f, 0.03811126f, 0.06027295f, 0.06439318f, 0.00672212f, -0.01321672f, -0.03026222f, 0.01729763f, 0.03925588f, 0.14182723f, 0.03864343f, 0.10406893f, 0.06053129f, 0.09769849f, 0.14916448f, 0.10668086f, -0.00886408f, -0.02955697f, -0.00693142f, 0.14665255f, 0.23327586f, 0.02642301f, 0.03729070f, 0.04151374f, 0.15600500f, 0.20333110f, 0.07989153f, -0.05491566f, 0.02262547f, -0.01769505f, 0.03413109f, 0.04191142f, -0.05161331f, 0.06933308f, 0.14017248f, 0.09206703f, 0.09201840f, 0.06248761f, 0.07263923f, 0.01403377f, 0.01237816f, -0.00527761f, 0.05577734f, 0.01353045f, 0.11507098f, 0.20647572f, -0.12541184f, -0.11533979f, -0.01567016f, 0.04058369f, 0.04736242f, 0.03620532f, 0.02481572f, 0.01837101f, -0.02142935f, 0.10445636f, 0.06996685f, -0.01289825f, -0.04451737f, -0.03692929f, 0.07795141f, 0.07456050f, 0.03436725f, 0.05725608f, 0.10476214f, 0.14400978f, -0.03740473f, -0.08696386f, 0.02600827f, 0.02915471f, 0.06171434f, -0.02359737f, 0.02654391f, 0.06179560f, 0.06826940f, 0.18622401f, 0.10857282f, -0.02510731f, 0.04395614f, -0.01480725f, 0.03207945f, 0.05805549f, 0.00666715f, 0.00299795f, -0.02090893f, 0.10382503f, 0.02575196f, -0.01960540f, -0.04037976f, 0.01374440f, -0.01200628f, 0.08454541f, 0.04125776f, 0.01994383f, -0.02733100f, 0.02714039f, 0.17620720f, -0.00288957f, 0.01070758f, 0.05225183f, 0.04775235f, -0.06782378f, 0.04110457f, -0.00375885f, 0.00140177f, 0.07123487f, 0.10969389f, -0.03093688f, 0.03098863f, 0.01317867f, -0.01621534f, 0.00948272f, -0.04105957f, 0.04431721f, -0.03445377f, -0.11491891f, -0.06689732f, -0.03200258f, -0.08390337f, -0.05959963f, -0.06170410f, -0.05736233f, 0.01129912f, -0.10639587f, -0.05282873f, 0.03902175f, -0.03576842f, 0.03234126f, -0.04806982f, 0.06085045f, -0.01218583f, 0.02767034f, 0.01430096f, 0.05586722f, 0.03978711f, 0.04793045f, 0.20061722f, -0.00127778f, 0.02948390f, 0.01674243f, -0.07540068f, 0.07025302f, 0.07838368f, 0.12516487f, -0.00343360f, -0.00030110f, 0.11401504f, 0.04294888f, 0.03354481f, 0.04436404f, -0.02654481f, 0.03025080f, -0.00519516f, 0.02893437f, 0.00395454f, -0.01027455f, -0.06462506f, 0.00673224f, -0.00381085f, -0.19615114f, -0.30756146f, -0.00927182f, 0.05306822f, 0.06595619f, -0.06589004f, -0.06766018f, 0.04586572f, -0.00327908f, 0.03083744f, 0.02930989f, 0.09123275f, 0.02816972f, -0.00747822f, -0.02418223f, -0.01086860f, 0.07305682f, 0.06493501f, 0.02913028f, -0.09021533f, -0.16196918f, -0.40089232f, 0.02150470f, -0.03710463f, -0.12160388f, -0.03936902f, -0.27157614f, -0.27046132f, -0.12851939f, 0.00286791f, 0.04178656f, 0.14486951f, 0.03537742f, 0.06612682f, 0.08071224f, 0.06703203f, 0.10499209f, 0.08163674f, 0.01437166f, 0.06711350f, -0.03105892f, 0.07113027f, -0.05137735f, -0.02544186f, 0.05264095f, 0.08698718f, 0.08904001f, -0.00136219f, -0.00055465f, 0.08609972f, -0.02107835f, 0.05118385f, 0.03978538f, 0.06428966f, 0.03883642f, 0.05449901f, -0.07921501f, -0.06518689f, -0.00828700f, -0.01376680f, 0.07882496f, 0.04481820f, -0.05153002f, -0.00709314f, 0.08116404f, 0.06985381f, 0.12589209f, 0.04523423f, 0.01592834f, -0.01983803f, 0.01231092f, -0.20230226f, -0.01546359f, -0.08040450f, -0.02085310f, 0.04906632f, 0.02220662f, 0.09868436f, -0.02118420f, -0.00508914f, 0.00654408f, 0.02904553f, 0.11185525f, 0.10653540f, 0.09197123f, 0.11502445f, 0.02899573f, -0.03350359f, 0.01655134f, 0.12046616f, -0.00234396f, 0.04218886f, 0.09850118f, 0.04253171f, 0.03124223f, -0.08589964f, -0.07206948f, -0.10831991f, -0.01826404f, 0.22783183f, 0.15702578f, 0.20833252f, 0.07362765f, 0.03947655f, -0.05095056f, -0.06414591f, -0.01117057f, 0.14615692f, -0.03431905f, -0.00686550f, -0.00278128f, -0.12646730f, 0.08231870f, -0.00500555f, -0.02814876f, -0.03273781f, -0.02724111f, 0.03852311f, 0.06905809f, 0.00761092f, 0.02939578f, 0.04237833f, -0.10111315f, -0.04561143f, 0.07472846f, -0.05966120f, -0.11777674f, 0.01880194f, -0.06131843f, -0.04630389f, -0.14256111f, -0.17715725f, -0.00359282f, -0.00196308f, 0.04389023f, -0.02358997f, 0.06380969f, -0.00334719f, 0.05804823f, 0.02508283f, 0.07090741f, 0.09336001f, 0.12666866f, 0.09316634f, 0.01666901f, -0.04089097f, -0.05647869f, -0.02490372f, 0.08773600f, 0.01431148f, -0.00204273f, 0.00373998f, 0.02408880f, 0.11370571f, 0.09368279f, 0.00287509f, -0.00625385f, 0.12143512f, 0.10623813f, 0.00862274f, 0.04635217f, -0.04081418f, -0.01015860f, 0.09706233f, 0.00056662f, 0.02544523f, 0.05506018f, 0.01012769f, -0.07741670f, 0.00363912f, -0.00958764f, 0.03136872f, 0.04226719f, 0.07512309f, 0.09748057f, 0.03623195f, 0.08174743f, 0.05164706f, 0.02731432f, 0.02085710f, -0.00750366f, 0.05242200f, -0.02042542f, 0.06413586f, 0.01536234f, 0.04601779f, 0.12417952f, 0.08088057f, -0.00496314f, 0.04563228f, 0.02357911f, 0.00552448f, 0.05937807f, -0.02237695f, -0.02054312f, -0.05260377f, -0.01587443f, -0.03457484f, -0.00584145f, -0.01235645f, -0.08624756f, 0.12857187f, -0.20181246f, -0.12897430f, -0.04554047f, 0.15958190f, 0.04040224f, -0.06125756f, -0.05804660f, 0.06886350f, 0.00342655f, 0.04890868f, -0.01226036f, -0.01502655f, -0.04504107f, 0.06820995f, 0.05246479f, 0.02268492f, 0.06547839f, -0.02338857f, -0.00159926f, 0.07101709f, 0.11532763f, 0.11114722f, 0.07568104f, 0.11468265f, -0.01163222f, 0.10316119f, 0.03948234f, 0.04495465f, 0.07438228f, -0.00982977f, 0.06258170f, 0.02207697f, 0.08672196f, 0.05944821f, 0.10748139f, 0.11242305f, 0.01614727f, -0.00527370f, 0.14483668f, 0.07093210f, 0.04550993f, 0.07894141f, 0.04050597f, 0.11729940f, 0.09820919f, -0.00502733f, 0.02146345f, 0.03352258f, 0.09360956f, 0.09821859f, -0.01534823f, 0.02518050f, 0.03683612f, 0.04502692f, 0.01911657f, 0.01567913f, -0.01113594f, -0.03843459f, -0.08474296f, -0.01537273f, -0.01131715f, -0.03578182f, -0.07190853f, 0.08468627f, -0.12632728f, -0.01047080f, -0.06424162f, -0.06718134f, -0.06928303f, 0.01783362f, 0.04342752f, 0.11609022f, 0.09315570f, 0.13555434f, 0.16095409f, 0.11393534f, 0.11369213f, 0.03165600f, 0.04058707f, 0.10031702f, 0.09809083f, 0.00649542f, 0.01525236f, -0.01760985f, -0.00641143f, 0.06411659f, 0.04513504f, 0.02744417f, 0.01431459f, 0.07539062f, -0.03477673f, 0.04534766f, -0.01031664f, 0.01864119f, 0.01839186f, 0.06157761f, 0.10286663f, 0.02296332f, 0.02059411f, -0.04560909f, 0.06544917f, 0.06084609f, 0.02984626f, 0.00132743f, 0.06371041f, 0.06820717f, 0.05763432f, -0.02092827f, 0.00100892f, -0.02859889f, -0.07722563f, -0.06562124f, -0.01731602f, -0.02525689f, -0.02350567f, 0.03943004f, 0.03977364f, -0.03540548f, 0.06002174f, -0.01494854f, 0.12735508f, 0.10823029f, 0.04172733f, 0.11222999f, -0.00701500f, 0.09522890f, 0.16570514f, 0.06153090f, 0.05527448f, 0.05245562f, 0.02348273f, 0.05785347f, -0.01536530f, -0.01924972f, 0.05730235f, 0.06433753f, -0.02042328f, -0.00291416f, -0.05320472f, -0.06866334f, 0.05932436f, 0.03723626f, 0.07039329f, 0.04547205f, 0.05985475f, -0.13958173f, -0.18618922f, -0.12281734f, -0.13366741f, -0.29533970f, -0.03487801f, 0.01083922f, 0.08315310f, 0.00067844f, 0.02574881f, 0.11044405f, 0.02716364f, 0.09690443f, 0.08167848f, 0.00249772f, 0.05563702f, 0.02559303f, 0.15659358f, 0.16762707f, 0.16586617f, -0.14020394f, -0.09980175f, -0.16964872f, -0.06673718f, 0.01660038f, 0.14331244f, 0.09900530f, 0.07451853f, 0.05877159f, 0.10986140f, 0.09195324f, 0.11428320f, 0.07293469f, 0.12425859f, -0.00571293f, 0.08443270f, 0.07258096f, 0.02483387f, 0.02772331f, -0.02412101f, 0.03051632f, 0.05892675f, 0.03413694f, 0.01372284f, -0.01640796f, 0.02655042f, 0.00565148f, 0.05605043f, 0.04399933f, -0.09059243f, 0.03781227f, 0.13214529f, 0.02802072f, 0.10594036f, 0.11184857f, 0.07260645f, 0.02733386f, 0.10857645f, 0.10433462f, 0.11146392f, 0.05105577f, 0.08662382f, -0.02034353f, 0.04183525f, 0.02895667f, 0.12308137f, 0.03699110f, 0.05459792f, 0.02346704f, -0.00057483f, 0.09363775f, 0.08154667f, 0.11137700f, 0.08787952f, 0.03539994f, -0.00457692f, 0.04917610f, -0.01004235f, 0.07047410f, 0.09343606f, 0.06179905f, 0.00890849f, 0.10006302f, -0.03325128f, -0.00129177f, 0.00711831f, -0.05126778f, 0.01627553f, -0.02880359f, -0.01356128f, 0.00895108f, -0.07494732f, -0.03086249f, 0.02998097f, -0.00391587f, 0.13766059f, -0.05825870f, -0.01296990f, 0.01536151f, 0.00356890f, 0.05023925f, 0.00849184f, 0.02145320f, 0.07981645f, 0.00865970f, 0.11365680f, -0.00206645f, 0.01161448f, 0.09968346f, 0.10880537f, 0.02145126f, 0.06650473f, -0.01728248f, -0.06204389f, -0.03657326f, -0.23005880f, -0.14648910f, -0.17543215f, -0.11158185f, -0.07531189f, -0.05003433f, -0.11897694f, -0.08403110f, -0.00197747f, -0.14166699f, -0.00297090f, 0.01383769f, -0.04595006f, -0.04328639f, 0.05121988f, 0.03917143f, -0.00993372f, -0.01209873f, -0.04214006f, -0.04407037f, -0.00494000f, 0.02217245f, -0.04070581f, -0.12091596f, -0.34330219f, 0.00892299f, -0.00485067f, 0.04828180f, 0.06343068f, -0.03704322f, -0.06101646f, -0.03159062f, -0.01075956f, 0.07278796f, 0.10443585f, 0.03866189f, 0.05932029f, -0.01717555f, -0.07065071f, -0.05925554f, 0.01068650f, -0.01687299f, 0.01217089f, 0.00488588f, -0.16425474f, 0.13121717f, 0.03402443f, -0.02426959f, -0.02452910f, 0.09898181f, 0.07609174f, 0.04311964f, -0.00666961f, 0.01042474f, 0.12365250f, 0.05338239f, -0.00028919f, 0.06879549f, -0.03885211f, 0.02343726f, 0.02276531f, -0.02609592f, -0.04611566f, -0.01649080f, 0.05913588f, 0.04622021f, -0.02606576f, 0.01942635f, 0.01599705f, 0.00403395f, 0.00643348f, -0.02692598f, 0.06337555f, 0.07727176f, -0.06597213f, 0.09289971f, 0.03735552f, 0.02156181f, 0.02793977f, -0.03005778f, 0.02588176f, -0.01148201f, 0.02797196f, -0.01798080f, 0.03816661f, -0.08465605f, -0.06746637f, -0.09130952f, -0.13754950f, -0.31075194f, -0.05443478f, -0.07912593f, -0.13368258f, -0.04727950f, -0.00324995f, -0.06512955f, 0.00323619f, -0.04571247f, 0.01038902f, -0.08483822f, -0.13057321f, -0.12903979f, -0.03401496f, -0.11917970f, -0.12698755f, 0.01029411f, 0.00590757f, -0.05619420f, -0.06215396f, -0.03855348f, -0.04437477f, 0.02512067f, -0.02340852f, 0.04123898f, 0.07368383f, 0.02734404f, 0.04340200f, 0.06451257f, 0.00590263f, -0.02456972f, -0.04302838f, 0.03640350f, 0.03152426f, -0.01578123f, -0.06282863f, -0.32381734f, -0.10221877f, -0.10561240f, -0.08176678f, -0.29451776f, 0.04889951f, -0.02965032f, 0.08529697f, 0.09681047f, -0.07575741f, -0.04791527f, -0.03047460f, -0.01904777f, 0.04688229f, -0.00000883f, 0.13760068f, 0.12720686f, 0.10956328f, 0.00414104f, -0.01007874f, 0.12193198f, 0.03808530f, -0.03269717f, 0.00706550f, 0.10136053f, -0.00454757f, -0.06595958f, 0.12563424f, 0.04642955f, 0.25448918f, 0.01275625f, 0.01754790f, 0.02529445f, 0.04907459f, 0.03772135f, -0.01878182f, -0.03273081f, 0.05161250f, -0.04207432f, -0.12372857f, -0.03293823f, 0.06255308f, 0.01672910f, 0.01483348f, 0.07132972f, 0.02798174f, -0.02352793f, -0.10720865f, -0.19476935f, -0.22604948f, -0.16336942f, -0.15599583f, -0.06735238f, -0.08514407f, -0.14604522f, 0.03054110f, -0.00282301f, 0.05802557f, -0.00545243f, -0.01907914f, -0.10648982f, -0.08931973f, -0.09064998f, 0.00764946f, -0.09866839f, 0.00920809f, -0.03910575f, -0.04585527f, -0.01503628f, -0.03929004f, -0.49803621f, -0.12194171f, -0.09193360f, -0.12906554f, -0.16042721f, 0.02228999f, -0.03303365f, -0.04980883f, -0.09129074f, 0.00749301f, -0.12782337f, -0.06557392f, -0.06558935f, -0.12177861f, -0.10399365f, -0.11844189f, -0.24481426f, 0.03496882f, 0.01035447f, -0.05439017f, -0.08492613f, 0.04228624f, 0.11027779f, 0.06059615f, -0.03918706f, 0.11344841f, 0.05097947f, 0.03596990f, 0.07845337f, -0.01860273f, 0.02740049f, 0.07387201f, -0.01324493f, 0.01124088f, -0.00676428f, -0.03312719f, 0.05769738f, 0.04321706f, -0.07174152f, -0.08668858f, -0.04968485f, 0.04034747f, 0.04544626f, 0.05233510f, 0.06092844f, -0.04019422f, 0.01693286f, 0.00407236f, -0.03169037f, 0.01474014f, -0.02529848f, -0.05458055f, 0.02011895f, -0.01788916f, -0.04503805f, 0.00799010f, 0.00261248f, -0.06153421f, 0.02255905f, -0.08213302f, 0.04787225f, -0.00043162f, 0.03230101f, -0.10768887f, -0.04404800f, -0.16297477f, -0.06984325f, -0.09028708f, -0.13666424f, -0.09257973f, 0.04006203f, 0.03083115f, -0.03507211f, -0.01790611f, 0.08502593f, -0.06766182f, -0.05878884f, -0.03394104f, -0.02379439f, -0.05070883f, -0.02391397f, -0.02413574f, -0.05582122f, -0.05396975f, -0.06747030f, -0.03647382f, 0.09979008f, 0.18085204f, 0.07144240f, -0.05891864f, 0.18372194f, 0.08519378f, 0.01803158f, -0.07334916f, -0.16003884f, -0.00920081f, 0.06443251f, 0.11832357f, 0.12568291f, 0.03710310f, -0.02255760f, -0.03761818f, -0.02572379f, -0.04248590f, -0.05037807f, 0.05433694f, 0.01593925f, 0.04772460f, 0.03779285f, 0.01513647f, 0.06288014f, 0.05050804f, -0.02774286f, -0.00221648f, 0.04809901f, -0.01407642f, 0.02601992f, 0.01233009f, 0.03947692f, -0.02178824f, 0.07757346f, 0.05345242f, -0.03026439f, 0.04761625f, -0.00953276f, -0.03626656f, -0.01529526f, 0.02915979f, 0.07587446f, -0.01116101f, 0.01099174f, 0.05212561f, 0.04289332f, 0.01700845f, 0.00399310f, 0.05453179f, -0.09439360f, -0.11924092f, -0.06991792f, -0.21746926f, 0.13299914f, 0.08186436f, 0.05913698f, 0.10835344f, 0.04367569f, -0.06296982f, -0.00675951f, -0.05191826f, 0.02647255f, -0.02869273f, -0.14780867f, -0.08229120f, -0.13698593f, -0.18269153f, -0.07658320f, 0.02757433f, 0.06399503f, 0.07555621f, 0.01769060f, -0.13209961f, 0.19620681f, 0.13855655f, 0.05840869f, 0.08161544f, -0.08019260f, 0.04472720f, 0.08078232f, 0.01815807f, 0.00173981f, -0.04391097f, -0.01619460f, 0.10445034f, 0.02993491f, 0.04710961f, -0.11790764f, -0.04242811f, 0.09840091f, 0.10987373f, 0.11063927f, 0.06895576f, 0.01012451f, 0.02435897f, 0.08773875f, 0.00494464f, 0.03220528f, 0.14936118f, 0.04313496f, -0.01195498f, 0.02106415f, -0.10323994f, 0.18410374f, 0.02209460f, -0.04506397f, -0.05868956f, -0.21165477f, -0.01500518f, -0.09445651f, -0.06409340f, -0.28501570f, -0.29533806f, 0.05275453f, 0.01556343f, -0.00356116f, -0.00491228f, 0.04394122f, -0.01567391f, 0.03975425f, 0.03652088f, 0.08460513f, -0.01548841f, 0.06771832f, -0.01764207f, 0.00972751f, -0.04958771f, -0.01515010f, 0.03314260f, -0.03103896f, -0.01687137f, 0.00140530f, 0.00108399f, 0.03531958f, 0.01297480f, 0.03985950f, -0.03203125f, 0.03681605f, 0.02191935f, 0.05451093f, -0.00597905f, 0.06354398f, 0.02457418f, 0.15380816f, -0.01628492f, -0.10109761f, -0.07309917f, -0.08169853f, 0.02984611f, -0.06268656f, -0.02248416f, 0.01940983f, 0.02502738f, -0.10438884f, -0.00388143f, -0.11582964f, -0.13282907f, -0.12924439f, -0.04677501f, -0.04374506f, -0.04247808f, -0.05320814f, -0.07338893f, -0.19938958f, -0.13526857f, -0.14198712f, -0.11384746f, -0.12037855f, -0.01032678f, -0.07412561f, 0.00661994f, 0.07910375f, -0.23801053f, -0.04034617f, -0.00359520f, 0.04196220f, 0.02452681f, -0.17462951f, 0.12132811f, -0.03676289f, -0.10823920f, -0.01744194f, -0.07841522f, 0.09181495f, 0.01676752f, -0.03559737f, -0.06591596f, 0.00823903f, 0.00691075f, 0.07296850f, -0.03102675f, 0.02644486f, -0.05969796f, -0.13307668f, -0.09595395f, -0.09908585f, -0.02268419f, 0.04536973f, 0.02273960f, 0.01241886f, 0.08372099f, 0.02758533f, -0.02022849f, 0.05877498f, 0.05779709f, 0.06661908f, 0.05410866f, 0.05955312f, -0.16052715f, -0.14296520f, -0.15319046f, -0.06015598f, 0.04091265f, -0.05207045f, 0.02995190f, -0.03102478f, 0.02198123f, 0.01374099f, -0.02296169f, -0.01364306f, -0.03899080f, 0.03902035f, -0.03509100f, 0.10368457f, 0.00546475f, 0.01746847f, 0.13305083f, 0.06530838f, 0.01021826f, 0.04179773f, 0.01406213f, 0.00308128f, -0.07277694f, -0.12322599f, -0.07997549f, -0.04918022f, -0.03898829f, -0.08272256f, -0.06926937f, -0.32235280f, -0.36387190f, -0.40674901f, -0.48104939f, -0.08892930f, 0.00231877f, 0.02993508f, 0.01061286f, -0.03996419f, 0.10669279f, 0.04385286f, -0.01403454f, 0.08284302f, -0.08224344f, -0.11067752f, -0.08484521f, -0.10827710f, -0.05745379f, -0.10922797f, -0.04836736f, 0.00839034f, -0.00909369f, -0.00184388f, -0.00977511f, -0.12068526f, -0.09301168f, -0.22868267f, -0.25302640f, -0.19777307f, 0.03420322f, -0.01660423f, 0.02630558f, 0.01752928f, 0.01271093f, -0.11356185f, -0.03941389f, -0.15348041f, -0.09176046f, -0.04756464f, 0.00115752f, 0.04548476f, -0.00132144f, -0.02599549f, -0.02176371f, 0.01031012f, 0.05083623f, 0.01712377f, 0.05671960f, 0.10462684f, -0.01795415f, -0.07587576f, -0.12703928f, 0.12831974f, 0.09719770f, 0.04997995f, 0.11080872f, 0.14869379f, 0.24985205f, 0.14638245f, -0.01549571f, 0.00484322f, 0.07584722f, -0.02918956f, 0.06226959f, 0.01515575f, 0.04336877f, 0.05414885f, 0.07752325f, 0.06230499f, -0.02640361f, -0.17168476f, -0.28331572f, -0.33964935f, -0.44574067f, -0.03906784f, 0.01252013f, 0.00601237f, 0.05167355f, -0.14155467f, 0.06961562f, 0.04791787f, 0.00350724f, 0.01472165f, -0.04965416f, -0.14800102f, -0.09363128f, -0.03179323f, -0.03566959f, -0.07057438f, -0.20832865f, -0.12394153f, -0.14546312f, -0.08708902f, -0.19023478f, -0.01423743f, 0.11816724f, 0.03632110f, 0.13613534f, 0.09681120f, 0.00358761f, 0.04753306f, 0.00290862f, 0.05126449f, -0.06457610f, -0.07166911f, -0.18487181f, -0.24396119f, -0.22947739f, -0.45840609f, -0.07479153f, 0.01133272f, -0.04164881f, -0.04227279f, -0.00498942f, 0.06553894f, -0.00477470f, -0.03924002f, 0.00922726f, 0.01801377f, 0.27034655f, 0.22982951f, 0.11411469f, 0.02781852f, -0.11981058f, -0.04295829f, -0.06192134f, -0.11861728f, -0.11116545f, -0.06251029f, 0.06036155f, 0.06029566f, 0.05650878f, 0.02902019f, 0.03982668f, -0.01123154f, -0.00859831f, 0.00761659f, -0.02313777f, 0.05088251f, 0.05120007f, 0.02234507f, 0.03113986f, 0.01283477f, 0.06696715f, 0.03990189f, 0.08246849f, 0.11275464f, 0.12789562f, 0.15627421f, 0.00879504f, -0.06071800f, 0.03571777f, -0.09272581f, -0.10494493f, 0.04045838f, 0.05940594f, 0.01435282f, 0.08600921f, -0.01329088f, 0.07261533f, 0.10647590f, 0.09330345f, 0.12289537f, 0.10617304f, 0.11318167f, 0.08166681f, 0.05371318f, 0.11564427f, 0.05720313f, -0.09781415f, -0.05187494f, 0.05580575f, 0.01743856f, -0.09658105f, -0.09684744f, -0.08481868f, -0.00742905f, -0.00509430f, -0.04260366f, -0.03399362f, 0.05026190f, 0.06079220f, 0.00828188f, -0.04032069f, 0.03533548f, -0.06307306f, 0.03566570f, -0.08010440f, -0.14481677f, 0.09502918f, 0.06735974f, -0.01281458f, -0.01473397f, -0.02138181f, -0.07991487f, -0.01230940f, -0.04626974f, -0.02995013f, -0.06547862f, -0.00175373f, 0.02338135f, 0.05332313f, -0.03942154f, -0.04306914f, -0.00993272f, -0.02901465f, 0.04129879f, -0.06654641f, 0.03846629f, -0.11020350f, -0.11350387f, -0.06694212f, -0.09126678f, -0.15306166f, 0.03930947f, 0.06785136f, 0.07516201f, 0.05975474f, 0.05340557f, -0.07794723f, 0.02978667f, -0.05433037f, -0.08479398f, 0.00818683f, -0.01163586f, 0.04422685f, 0.01341773f, 0.03862460f, -0.00869381f, 0.06415323f, 0.03312907f, -0.02372022f, -0.00825628f, -0.06450241f, -0.05753423f, 0.06952885f, 0.00878278f, -0.01950036f, -0.07079531f, -0.13608262f, -0.09085026f, -0.03860305f, -0.03378082f, -0.01401771f, -0.26963025f, -0.18393816f, -0.23499493f, -0.10008111f, 0.00486063f, 0.06810392f, -0.05881670f, -0.05640452f, -0.07524660f, 0.05761099f, -0.04777180f, -0.03034222f, 0.04074210f, -0.06566775f, -0.07795485f, -0.19221063f, -0.05399882f, -0.06443841f, 0.08223037f, 0.04500370f, -0.08553949f, -0.09537070f, -0.01553511f, -0.07577337f, -0.17064524f, -0.02445347f, -0.12481827f, -0.06376175f, -0.06877095f, -0.01553500f, -0.21296299f, -0.17671372f, -0.10342024f, -0.04781676f, -0.11138848f, -0.03600759f, -0.01014989f, -0.02355501f, -0.07657210f, -0.02757545f, -0.02949367f, 0.00128157f, -0.02095290f, -0.00840128f, 0.01719980f, -0.15265381f, -0.17804278f, -0.11806135f, -0.07041007f, -0.23725785f, -0.11851471f, -0.08794331f, -0.06537573f, -0.02174195f, -0.06455007f, -0.02187535f, -0.06000416f, -0.05260329f, 0.03970321f, 0.04642746f, -0.07309575f, -0.10388373f, -0.07937020f, 0.04096868f, 0.08456548f, -0.00251346f, -0.07553300f, -0.05771063f, -0.02286885f, -0.10633340f, -0.04820774f, -0.04386380f, -0.02981045f, 0.09409160f, 0.21013743f, 0.04286689f, -0.03320339f, 0.08278470f, 0.04755541f, -0.14307392f, -0.18265843f, -0.01499708f, -0.04950690f, 0.11419015f, 0.00961079f, 0.01338368f, -0.03650611f, -0.05787919f, 0.01853843f, -0.09515179f, -0.11811607f, 0.03421089f, 0.05221921f, 0.03183108f, -0.04788877f, -0.14349315f, -0.06971591f, 0.05379269f, -0.00818839f, 0.13185363f, 0.00751269f, -0.02776913f, 0.02109759f, 0.06235310f, -0.01264206f, -0.02303532f, 0.01019448f, 0.00703559f, -0.03259423f, 0.00684614f, -0.08016202f, -0.09749188f, -0.00210861f, 0.07204517f, 0.09014183f, 0.06975921f, 0.02643984f, 0.07778489f, -0.01700584f, -0.08318437f, -0.03186757f, -0.05151429f, -0.04966699f, -0.13709126f, -0.08704788f, -0.00255248f, -0.07986068f, -0.02060790f, -0.03005235f, 0.00828053f, -0.03083617f, -0.08304544f, 0.01884550f, -0.00195642f, -0.03442495f, -0.04543440f, -0.08125653f, -0.05918888f, 0.03464987f, 0.00389321f, -0.22795331f, -0.15156032f, -0.00263627f, 0.06921656f, -0.10473388f, -0.16481622f, -0.08208323f, -0.07992505f, 0.00234679f, 0.00909636f, -0.05378232f, -0.14692853f, -0.04524560f, -0.01212958f, -0.01650330f, -0.07878247f, 0.02062711f, 0.00345636f, 0.04023635f, -0.14154702f, 0.00454489f, -0.04204568f, -0.07293563f, -0.09298261f, -0.11656407f, -0.11839945f, -0.15725009f, -0.03146387f, -0.01836880f, 0.03110576f, -0.12625851f, -0.07804305f, 0.00637890f, -0.04486980f, 0.11652517f, -0.05217843f, -0.04286306f, 0.05944147f, 0.07495540f, 0.01402856f, -0.06862208f, -0.02209464f, 0.00419991f, -0.04585433f, 0.00530553f, -0.00281180f, 0.02963374f, -0.01005442f, 0.04699446f, 0.01239680f, 0.04743034f, 0.01340418f, -0.02015017f, -0.03245977f, 0.03943287f, -0.06791043f, -0.06646959f, -0.09113611f, -0.02614651f, -0.06090794f, -0.08949519f, 0.01161317f, -0.01258400f, -0.00311074f, 0.02282394f, 0.26725140f, 0.26068363f, 0.27401885f, 0.22985694f, 0.06971880f, -0.00781487f, -0.01452147f, -0.01218267f, 0.01072309f, -0.00854562f, -0.08662301f, -0.08150775f, -0.06644526f, -0.10744437f, 0.02621088f, -0.19979161f, -0.22330189f, -0.30083936f, -0.20118880f, -0.06278991f, 0.12394919f, -0.00634765f, 0.02109751f, -0.04554535f, -0.01953818f, 0.02592880f, 0.03967760f, -0.00346048f, 0.03012786f, 0.06945124f, -0.00965246f, -0.00487403f, 0.00015718f, 0.04789824f, 0.07535077f, -0.04610797f, 0.02722952f, -0.07587323f, -0.05534108f, -0.01819783f, -0.00664980f, -0.03940593f, -0.06720062f, 0.03673305f, -0.01734969f, 0.30649817f, 0.16309416f, 0.14455763f, 0.18232332f, 0.18078820f, 0.03928325f, 0.02085386f, 0.00844365f, 0.00129008f, 0.06111787f, 0.30315214f, 0.26940033f, 0.24593472f, 0.18654990f, 0.18313825f, -0.01391994f, -0.02988140f, 0.02673438f, 0.01085072f, 0.03110627f, 0.06485789f, 0.03687441f, 0.13543400f, 0.21713048f, 0.16105607f, -0.03354155f, 0.02771997f, 0.05248979f, 0.03390291f, -0.00429679f, 0.06588181f, 0.04632551f, -0.01914911f, -0.09215480f, -0.05735536f, 0.03179282f, 0.03390090f, 0.11327501f, 0.05558553f, 0.04274870f, 0.03778218f, 0.12055920f, 0.08210860f, 0.07858902f, 0.03527823f, -0.06331085f, -0.08431054f, -0.02444511f, 0.02158063f, -0.01814049f, 0.02888656f, -0.00254703f, 0.02164695f, 0.00519020f, 0.08398921f, 0.12227768f, 0.07647911f, 0.07029741f, 0.01034735f, -0.04942391f, 0.01159537f, 0.00203129f, 0.05121691f, -0.00102303f, 0.05237506f, -0.20266341f, -0.16114402f, -0.15007667f, -0.12782611f, -0.15477057f, -0.08733533f, -0.02717467f, 0.00151006f, -0.02794488f, 0.05282457f, -0.05957057f, -0.06384484f, -0.11625312f, -0.08344170f, 0.01970285f, -0.34208655f, -0.46974540f, -0.42604372f, -0.33591256f, -0.41466653f, -0.08677626f, 0.01262009f, 0.06057085f, 0.06044913f, 0.05260373f, 0.02028643f, 0.06423023f, 0.02226408f, -0.00764349f, -0.00579023f, 0.02013046f, 0.04673536f, 0.05011229f, 0.04238698f, 0.00871178f, -0.17594425f, -0.20051053f, -0.15119730f, -0.15372480f, -0.21848707f, 0.09512994f, 0.05649297f, 0.09685516f, 0.04077395f, -0.01449871f, 0.17580879f, 0.14963499f, 0.07722597f, 0.05969496f, 0.01635900f, -0.01549486f, 0.00148333f, 0.02835973f, 0.07244825f, 0.09135365f, -0.02872200f, 0.00582544f, -0.01638607f, -0.07191233f, -0.04467090f, -0.26922846f, -0.33474186f, -0.27137405f, -0.31580025f, -0.39495814f, -0.01744660f, -0.12237515f, -0.11599948f, -0.06627095f, -0.11627910f, -0.01919217f, -0.14603068f, -0.00893210f, -0.07498862f, -0.06110609f, 0.06228643f, 0.03179069f, 0.01548135f, 0.01138728f, 0.03209243f, -0.10270680f, -0.21647683f, -0.08322783f, -0.04785613f, -0.11919155f, 0.02836148f, -0.02531464f, -0.06496501f, -0.06818543f, -0.10088145f, 0.08917478f, 0.03709901f, -0.06413741f, 0.03676881f, 0.04300960f, -0.01274617f, 0.07187863f, 0.06013216f, 0.10006705f, 0.05616823f, -0.03948005f, -0.05635941f, -0.00125530f, -0.06482473f, -0.01049822f, -0.00339979f, -0.01813219f, 0.04539693f, -0.00515128f, 0.10021318f, -0.41000304f, -0.42669377f, -0.28634593f, -0.24162710f, -0.21633033f, 0.09438011f, 0.09233167f, -0.02800293f, -0.04292420f, 0.08176649f, 0.06176850f, 0.08346087f, 0.06742951f, 0.12471675f, 0.14483096f, 0.00955143f, 0.04488815f, -0.00410826f, 0.10419301f, 0.15104091f, 0.02411473f, 0.06616361f, 0.04782437f, 0.05014595f, 0.13561295f, -0.16614494f, -0.04940407f, -0.02329671f, -0.02459522f, 0.12226298f, 0.09707483f, 0.00981608f, 0.10011809f, 0.08523148f, 0.18450877f, -0.04098652f, 0.06694590f, 0.00993174f, 0.07283079f, -0.04159482f, 0.15550174f, 0.09097279f, 0.08859701f, 0.05196072f, 0.01161505f, -0.08028782f, -0.08357630f, 0.06317793f, 0.12494789f, 0.21222888f, 0.02098695f, -0.03294387f, -0.08692278f, -0.07875788f, -0.03959192f, -0.08965817f, -0.04571842f, -0.03517991f, -0.04884710f, 0.05063698f, 0.07511699f, -0.08169588f, -0.06494955f, -0.04655372f, -0.13521433f, 0.05480624f, 0.09165067f, 0.12224290f, 0.12923405f, 0.03306009f, -0.06547498f, 0.06358325f, 0.00980114f, 0.08056144f, 0.07159647f, 0.03739900f, 0.08461261f, 0.08066216f, 0.04365689f, 0.12985919f, 0.02645615f, 0.03529622f, -0.04278169f, 0.05437250f, -0.01038174f, 0.08758071f, 0.00504024f, -0.00962958f, -0.01096509f, 0.06975507f, 0.00990939f, -0.07552633f, 0.02606997f, -0.06344686f, -0.06245983f, 0.06602361f, 0.02781476f, 0.08629269f, 0.06980641f, 0.24797945f, 0.02961381f, 0.03637536f, 0.04908646f, 0.05837295f, 0.03845506f, 0.04322308f, 0.08498366f, 0.02218664f, 0.07784475f, 0.09234194f, 0.07466867f, 0.05853888f, 0.04897372f, 0.07287972f, 0.10454112f, 0.10295114f, 0.03156345f, 0.04085065f, 0.01871976f, -0.02363214f, 0.00715847f, -0.01006385f, -0.03047105f, 0.02404044f, 0.06311326f, 0.03384746f, -0.00722440f, -0.04014068f, -0.06346374f, 0.03426337f, 0.08685921f, -0.01150426f, 0.00282850f, 0.06776167f, 0.09796080f, -0.01268848f, 0.00934925f, -0.00587147f, 0.09842733f, 0.09876035f, 0.09771117f, -0.02708867f, 0.06170826f, 0.03298844f, 0.07614174f, 0.12206018f, 0.04708322f, 0.04608892f, 0.03996100f, 0.12372765f, -0.06078010f, 0.00686364f, -0.02254444f, 0.04747875f, 0.06864691f, -0.05318091f, -0.05032987f, -0.00406974f, 0.01963867f, 0.13883086f, 0.05537080f, 0.11314003f, 0.09233949f, 0.06764327f, 0.14360453f, 0.02377264f, 0.09139513f, -0.01386602f, -0.02529532f, 0.06239248f, 0.11395409f, 0.01480869f, 0.07732814f, 0.00754492f, 0.00815183f, 0.01473235f, 0.06093417f, -0.01167573f, 0.10398538f, -0.01781458f, 0.00512710f, 0.02337381f, -0.01158051f, 0.13627073f, 0.12241506f, 0.05567066f, 0.05094424f, 0.12182438f, 0.09764920f, 0.10945072f, 0.05047450f, 0.09034581f, 0.05574818f, 0.09189401f, 0.06774484f, 0.03731989f, 0.07135789f, 0.02783060f, -0.03345300f, 0.04793449f, 0.00825077f, 0.05742304f, 0.02201710f, 0.07290207f, -0.01901674f, 0.05674743f, 0.09082311f, 0.10858484f, 0.04432497f, 0.04055819f, 0.06568831f, 0.02894784f, 0.02573660f, 0.10035001f, 0.15958847f, 0.11001097f, 0.09063563f, 0.07090104f, 0.00953334f, 0.01383054f, 0.04577611f, 0.01996923f, -0.08110762f, -0.08305435f, 0.04092590f, 0.02843207f, -0.04270920f, -0.07366038f, -0.12729922f, -0.09688396f, 0.04665340f, 0.02775075f, 0.01536026f, -0.04999064f, 0.07463972f, 0.10158769f, 0.10833800f, -0.02059001f, 0.04336106f, 0.01400228f, -0.00918366f, 0.11054402f, 0.06255268f, 0.08579179f, 0.14029703f, 0.22675772f, 0.11076667f, -0.07616711f, 0.01657324f, -0.02274386f, 0.05921394f, 0.00809012f, 0.02501854f, 0.12714571f, 0.11597800f, 0.12657778f, 0.06203935f, 0.03707256f, 0.09203139f, 0.05333121f, -0.00044997f, 0.06422760f, 0.10714305f, 0.02965935f, 0.07731461f, -0.05142199f, -0.10202856f, -0.09954654f, -0.12297077f, -0.12909642f, 0.04000875f, 0.10984928f, 0.11459517f, 0.10768313f, 0.07438026f, -0.02178686f, 0.00671679f, 0.01624655f, -0.00444437f, 0.08436431f, 0.09022262f, 0.05637291f, 0.05552937f, 0.08682280f, 0.14864017f, 0.04363766f, 0.01051582f, 0.16070066f, 0.14807510f, -0.09160444f, -0.07190827f, -0.00256445f, 0.07758332f, 0.03829121f, -0.01349702f, 0.09059675f, 0.02230340f, -0.06831725f, -0.13561144f, -0.03236787f, -0.02127489f, 0.01942796f, -0.05144180f, 0.01325002f, 0.06485547f, -0.02419217f, 0.02534634f, 0.04238921f, 0.09437504f, 0.08402720f, -0.00155909f, -0.05366481f, 0.01982007f, -0.04255009f, -0.00255778f, 0.05630406f, 0.08459792f, 0.01095012f, 0.10402521f, 0.08087786f, 0.02683066f, 0.02959821f, 0.04916915f, 0.03379138f, 0.07314298f, 0.21521395f, 0.13572738f, 0.05621144f, 0.01538003f, -0.02024181f, -0.00136188f, -0.04808335f, -0.09946337f, 0.02542718f, 0.14018683f, -0.02514098f, 0.10911983f, 0.08966102f, 0.03596157f, 0.02198695f, 0.05232148f, 0.03459506f, 0.05179483f, 0.10116552f, 0.01713770f, 0.05368084f, 0.05195775f, 0.01358730f, 0.03890743f, 0.12327164f, 0.05489943f, 0.01301073f, 0.09621535f, 0.04748500f, 0.14400826f, 0.07576613f, 0.07013713f, 0.06794910f, 0.08938488f, 0.16347505f, -0.02244579f, 0.02168212f, 0.08586971f, 0.12485611f, 0.07176599f, -0.01190029f, -0.01857562f, 0.03215227f, -0.02371770f, 0.02276890f, -0.00517334f, 0.00913252f, 0.05801748f, 0.13210620f, 0.22539465f, -0.02594291f, 0.00806346f, 0.01523382f, -0.07073401f, -0.10472375f, -0.04724706f, -0.01231880f, 0.03598319f, 0.05500648f, 0.16402037f, 0.10835584f, 0.03215206f, -0.02822056f, 0.02264514f, 0.05267716f, 0.01471018f, -0.01563487f, -0.02063376f, -0.04912700f, 0.00705744f, -0.09180101f, -0.09927275f, 0.03638365f, -0.04733567f, -0.14360781f, -0.00574678f, -0.00909773f, 0.10360175f, 0.04683019f, -0.03852372f, 0.09696601f, 0.07835080f, 0.11062036f, 0.10728434f, 0.04883003f, -0.08337939f, 0.00761790f, 0.04596574f, 0.16176574f, 0.11358345f, -0.02384167f, 0.05199504f, 0.02692718f, 0.05299936f, 0.06284175f, 0.05450948f, 0.08409991f, 0.06056925f, 0.06543259f, 0.16709730f, 0.12162041f, 0.03644075f, 0.12811665f, 0.07998829f, 0.04530074f, 0.05987284f, 0.02050982f, 0.09641623f, 0.00374805f, 0.01474102f, 0.20845956f, 0.00267835f, 0.02115144f, -0.04950711f, -0.02090408f, 0.16244142f, 0.08306226f, 0.09505308f, 0.07115338f, 0.01096163f, 0.03323006f, -0.00544361f, 0.01859637f, 0.02893499f, -0.04610681f, 0.00958620f, 0.07816657f, 0.07642464f, 0.05190992f, 0.08603954f, 0.14287174f, 0.16845533f, 0.05042482f, 0.06587077f, -0.00237245f, -0.11552131f, 0.01928847f, 0.04905020f, 0.01477136f, 0.00005312f, -0.01314814f, -0.10056178f, -0.05511552f, 0.02294498f, 0.03783519f, 0.15206368f, -0.01706729f, 0.01117020f, 0.07583082f, 0.07918388f, 0.12198243f, 0.16294314f, 0.18214786f, 0.07256538f, 0.01592000f, 0.06424505f, 0.07299566f, 0.03274335f, 0.01789416f, 0.12248226f, -0.06001629f, -0.07863095f, 0.01104087f, 0.04399914f, 0.05527507f, -0.07721806f, 0.02585962f, 0.01755571f, 0.04277900f, -0.01368897f, -0.03430305f, -0.07116563f, 0.03481054f, -0.01360481f, -0.07291215f, -0.03545006f, -0.11229710f, -0.11191669f, -0.11848221f, -0.15712689f, 0.05891886f, 0.06827023f, -0.00633234f, 0.01609607f, 0.06324963f, 0.02773594f, -0.00199568f, 0.07136624f, 0.10334896f, 0.07403043f, 0.06991044f, -0.01264399f, -0.01571395f, -0.05797132f, -0.04183101f, 0.06850927f, 0.03835567f, -0.03124471f, 0.08663946f, -0.06569861f, -0.09758146f, -0.05629103f, -0.00762858f, 0.04912640f, 0.11712527f, 0.09372402f, 0.01224573f, 0.02496411f, 0.04131136f, -0.04261962f, 0.01938870f, 0.04950461f, 0.03978412f, 0.05387875f, -0.14202774f, 0.06497861f, -0.00156229f, 0.07469825f, -0.00782654f, 0.03358719f, -0.17329769f, -0.13408646f, -0.13963062f, -0.15132675f, -0.21514297f, -0.21840411f, -0.26647660f, -0.19524603f, -0.18113063f, -0.20140491f, -0.14598767f, -0.08609622f, -0.14695203f, -0.09061458f, -0.16930470f, -0.04700692f, 0.03907514f, -0.00426515f, -0.05707165f, -0.04770133f, -0.04939482f, -0.02183465f, -0.01441089f, -0.09672005f, -0.09105892f, 0.08864483f, 0.07536739f, 0.09018315f, 0.10594812f, 0.02475791f, -0.02775312f, 0.06818150f, 0.09795244f, 0.06729525f, 0.08592394f, -0.19250026f, -0.26543075f, -0.15089272f, -0.09560222f, -0.10730702f, -0.05669400f, -0.04660888f, -0.03594903f, -0.13939334f, -0.18147302f, -0.05698861f, -0.03117414f, -0.07831083f, 0.03470727f, 0.03448236f, -0.02102105f, 0.05227282f, 0.02503888f, 0.06595542f, 0.12005276f, -0.00282931f, 0.05849573f, 0.08772308f, 0.04294952f, -0.04701015f, -0.12470008f, -0.04360737f, -0.00625200f, -0.02412658f, 0.01660459f, 0.03602654f, -0.03272398f, 0.03204557f, -0.02096567f, -0.06608017f, 0.05496356f, -0.03745054f, -0.23212114f, -0.11487845f, -0.02117531f, -0.00810277f, 0.00021534f, 0.02307210f, -0.04176198f, 0.03448555f, -0.14917147f, -0.04160242f, -0.10138936f, 0.01898204f, 0.00968594f, -0.06218135f, -0.03178447f, 0.01891789f, 0.05734577f, 0.11857146f, -0.09094972f, -0.13964510f, -0.11021195f, -0.10731170f, -0.02631241f, -0.13548973f, -0.11198436f, -0.06381840f, -0.00662260f, 0.06871456f, 