// Auto-generated - DO NOT EDIT
// OnsetNet weights for Daisy Seed bare metal inference
// sr=48000 note_vocab_size=49 window_samples=384

#pragma once
#include <stdint.h>

#define ONSET_SR                 48000
#define ONSET_NOTE_VOCAB_SIZE    49
#define ONSET_WINDOW             384
#define ONSET_WIDTH              128
#define ONSET_N_STRINGS          6

static const char* onset_pitch_names[] = {
    "E2",
    "F2",
    "F#2",
    "G2",
    "G#2",
    "A3",
    "A#3",
    "B3",
    "C3",
    "C#3",
    "D3",
    "D#3",
    "E3",
    "F3",
    "F#3",
    "G3",
    "G#3",
    "A4",
    "A#4",
    "B4",
    "C4",
    "C#4",
    "D4",
    "D#4",
    "E4",
    "F4",
    "F#4",
    "G4",
    "G#4",
    "A5",
    "A#5",
    "B5",
    "C5",
    "C#5",
    "D5",
    "D#5",
    "E5",
    "F5",
    "F#5",
    "G5",
    "G#5",
    "A6",
    "A#6",
    "B6",
    "C6",
    "C#6",
    "D6",
    "D#6",
    "E6",
};

// shape: [64, 1, 9]
static const float l0_conv_weight[576] = {
    0.49441257f, 0.04424418f, -0.34376687f, 0.15051655f, -0.16224989f, 0.00404917f, -0.24425809f, 0.10925721f, 0.24888818f, -0.28655025f, 0.26351148f, 0.01344572f, 0.16196175f, -0.10755690f, -0.00213718f, -0.19731092f, 0.19153868f, 0.48599809f, -0.19259003f, 0.11526856f, -0.08555496f, 0.06771672f, -0.01387853f, 0.34312025f, -0.11909165f, 0.02158529f, -0.40847343f, -0.24098331f, 0.03895063f, -0.30437756f, 0.31453091f, -0.26501435f, 0.26813549f, 0.05668116f, -0.08515108f, 0.32167429f, 0.12658654f, 0.20287463f, -0.07950465f, -0.18369764f, 0.01251635f, -0.16907074f, -0.02565510f, 0.12153027f, 0.39406770f, -0.14113069f, 0.23839583f, 0.12131073f, 0.22085649f, -0.15994324f, -0.29434150f, -0.12665163f, -0.27034876f, 0.34007046f, 0.27387109f, 0.12148016f, 0.03366863f, -0.07910056f, 0.19531031f, -0.28954843f, -0.01304880f, -0.25200087f, 0.09617326f, -0.11639431f, 0.12889695f, -0.02991624f, 0.28685015f, -0.21137942f, -0.23966780f, -0.24612904f, 0.28552493f, 0.13710167f, 0.49904874f, -0.21548840f, -0.30629581f, -0.25131118f, -0.20529801f, 0.13889706f, 0.11663131f, 0.29466248f, -0.13574703f, -0.30882922f, 0.22527789f, -0.09238842f, 0.23373388f, -0.04616433f, 0.24314487f, -0.21256058f, -0.15665002f, 0.07172307f, 0.06883499f, -0.11278292f, 0.18780792f, 0.22972965f, -0.25491402f, -0.15583041f, 0.36122221f, -0.10209587f, -0.21359377f, -0.39680007f, -0.11498699f, 0.18677118f, 0.10050880f, -0.10695856f, 0.19083932f, -0.07144435f, -0.16772068f, -0.27358371f, -0.30707622f, -0.14408891f, 0.43890435f, 0.17281824f, 0.17630422f, -0.26159829f, -0.17251480f, -0.06848831f, 0.08656771f, -0.36970782f, -0.03012709f, -0.01834198f, 0.19197157f, 0.04762521f, 0.16388148f, -0.05029473f, -0.10139787f, -0.37032726f, -0.17422882f, -0.24171002f, 0.31726632f, -0.03910971f, 0.31174472f, 0.13081405f, -0.26286128f, 0.18775004f, -0.22325064f, -0.38655770f, -0.10931478f, -0.11695492f, 0.27126446f, 0.04726682f, 0.22809726f, -0.19811268f, 0.29536259f, -0.23890314f, -0.26389679f, -0.01252368f, 0.15528794f, 0.26880559f, 0.32102698f, -0.22221933f, 0.09859426f, -0.17486116f, -0.11014859f, -0.33529437f, 0.26504517f, -0.27598509f, 0.12788631f, 0.05378862f, 0.04374902f, -0.25323191f, 0.27086303f, 0.21143371f, 0.05253164f, -0.27651122f, 0.16627650f, -0.02518406f, -0.11868852f, 0.34380138f, 0.16042180f, -0.09930488f, -0.26756936f, -0.07432660f, 0.19788258f, -0.04997398f, -0.12596370f, -0.01824650f, -0.16740282f, 0.21275777f, 0.37805071f, -0.37755439f, 0.44111520f, 0.06718227f, -0.11866298f, -0.26518279f, 0.07042067f, 0.10669424f, 0.08867042f, -0.06830045f, -0.09006242f, 0.47967154f, -0.07585767f, -0.19030841f, 0.15639640f, 0.21862370f, -0.07648668f, -0.10783638f, -0.01989295f, -0.02926731f, 0.17462689f, 0.10065738f, -0.32592908f, -0.14250211f, 0.28022233f, 0.18029721f, 0.06278107f, -0.12139241f, -0.25283292f, -0.34392017f, -0.04055507f, 0.19446655f, 0.26714781f, 0.16970779f, -0.28739342f, -0.21954431f, -0.08849370f, 0.29690045f, 0.08742252f, -0.05639929f, 0.16977103f, -0.07527755f, -0.15448348f, 0.31912896f, -0.04700561f, 0.06129469f, -0.44086853f, 0.22765535f, 0.18836977f, 0.04054557f, -0.29408842f, -0.37738350f, -0.31467351f, 0.19004650f, 0.11977713f, 0.34194896f, 0.30144173f, 0.14929543f, 0.03613460f, -0.22036415f, -0.26938838f, -0.27146518f, 0.21849631f, -0.05018387f, 0.01254456f, -0.35497445f, 0.13916518f, -0.01671040f, -0.08146132f, 0.19682479f, -0.04197631f, 0.24099092f, -0.07098093f, -0.25525936f, 0.01652234f, -0.14064200f, -0.11944048f, -0.34450155f, 0.16050974f, -0.25422081f, 0.15663105f, 0.16885282f, 0.32146895f, -0.31813598f, 0.21911354f, -0.14657085f, 0.14038989f, 0.33525485f, -0.01027306f, 0.05199272f, -0.03029826f, -0.29298109f, 0.15141848f, -0.40070435f, 0.14544508f, 0.18145292f, 0.23730971f, -0.17146786f, -0.35642073f, -0.02400974f, 0.29495874f, -0.70104378f, -0.00976260f, -0.05401526f, 0.09944980f, -0.03594260f, -0.02648714f, -0.00875356f, -0.24310079f, 0.32956380f, 0.39861894f, 0.04581629f, 0.04181164f, -0.04626078f, -0.20152488f, -0.21133880f, 0.21125177f, -0.13166200f, -0.34693810f, -0.41309491f, -0.09440205f, 0.03713796f, 0.14840902f, 0.02438725f, -0.06436334f, -0.10300570f, -0.24131048f, 0.32040700f, -0.08227985f, 0.10200657f, -0.14120816f, -0.02798578f, 0.22424477f, 0.03923149f, -0.43827474f, -0.01772580f, 0.42289254f, 0.25277531f, 0.17119178f, 0.16804990f, -0.16690415f, -0.00772399f, -0.26470381f, -0.08873037f, 0.24375466f, 0.23471063f, -0.68364584f, -0.18072978f, -0.03892741f, -0.14065038f, -0.11177035f, 0.04402640f, 0.33283371f, 0.14892420f, -0.20069923f, -0.32632673f, 0.25693032f, -0.11890338f, 0.06342003f, 0.22338390f, -0.09167808f, 0.03626411f, 0.02141768f, -0.19138190f, -0.68009979f, -0.13055409f, -0.03317265f, -0.04482571f, 0.38976872f, -0.12593688f, -0.18668219f, 0.09692246f, 0.10026508f, 0.20663407f, 0.10936660f, 0.03895759f, -0.41889584f, -0.02627053f, 0.12879632f, -0.08740807f, -0.23556568f, 0.41662022f, -0.15913752f, -0.12515080f, -0.18042949f, 0.14514963f, 0.28058681f, 0.20339994f, 0.18776740f, -0.16708225f, -0.35918659f, 0.05928736f, 0.27754569f, 0.13263316f, -0.25097570f, -0.09337387f, -0.27193564f, -0.17131995f, 0.08173563f, 0.25999233f, 0.37066540f, -0.40317410f, 0.14172058f, -0.30890587f, 0.05854362f, 0.20409265f, -0.06370770f, 0.29600281f, -0.27545744f, -0.19295289f, 0.18309951f, -0.06106708f, -0.05576723f, -0.11658726f, 0.26572812f, 0.19516794f, 0.11758034f, -0.29128629f, -0.30750117f, 0.14224155f, 0.19346319f, -0.10024752f, -0.08519641f, 0.21765825f, 0.02473064f, 0.00698204f, -0.13153361f, -0.43728721f, -0.27103031f, -0.08808079f, -0.10702261f, 0.16678497f, -0.02706193f, -0.07209898f, 0.35223231f, 0.13946064f, 0.30890200f, -0.11212748f, -0.08751836f, 0.16773863f, -0.14538601f, -0.12430427f, 0.10674920f, -0.02787945f, -0.46291131f, 0.30393621f, 0.16793416f, -0.05293525f, -0.12076541f, -0.33877212f, -0.13348171f, 0.08827882f, 0.18367009f, 0.01354187f, -0.07064831f, 0.22844578f, -0.31813321f, 0.26014149f, -0.12225343f, 0.02056751f, -0.02727769f, 0.05734918f, -0.02745564f, 0.50867605f, -0.10866027f, 0.10543372f, 0.20779411f, -0.23443973f, -0.30116892f, 0.20734073f, 0.20724192f, -0.29424897f, -0.02513262f, -0.34112146f, -0.29023653f, 0.06106940f, 0.10675419f, 0.09735733f, -0.04865643f, 0.34807783f, 0.09076554f, -0.19256815f, 0.03733671f, 0.14410698f, 0.18475682f, -0.14984547f, 0.23425369f, -0.02213028f, -0.13120912f, -0.43216962f, 0.61411071f, 0.16824798f, 0.10813916f, 0.03518987f, 0.12275048f, -0.16217409f, -0.27466136f, 0.10099028f, -0.22025913f, -0.20944434f, -0.04967829f, 0.13871258f, 0.22004268f, -0.04493915f, -0.10439741f, 0.13601503f, -0.08531993f, -0.54668695f, 0.71329010f, -0.05795578f, 0.18264732f, 0.16423225f, -0.05445828f, -0.01378424f, -0.03858325f, -0.08259138f, -0.07128873f, 0.02555194f, 0.08891677f, 0.24822429f, -0.14011516f, -0.18667246f, -0.11890296f, -0.20411293f, 0.03020503f, 0.32490140f, 0.33362713f, 0.10461152f, -0.28296584f, -0.18340945f, -0.06401566f, -0.04321110f, 0.07380675f, -0.22034030f, 0.26143527f, -0.34472492f, -0.18671618f, -0.22895126f, 0.33637956f, -0.27958953f, 0.28676662f, 0.02195733f, -0.02413479f, 0.22506781f, -0.05340291f, 0.17310114f, 0.19334607f, -0.34946039f, 0.05728259f, -0.05130592f, -0.08340043f, -0.07589132f, 0.36850113f, -0.19381599f, -0.04836509f, 0.33368412f, 0.23945521f, -0.01847912f, -0.33553869f, -0.03093252f, -0.21830590f, 0.27251583f, -0.20911486f, -0.04865920f, -0.11127429f, 0.00460669f, 0.23643623f, -0.05682316f, 0.09182031f, 0.21232939f, 0.61224371f, -0.15178362f, -0.01275370f, 0.22255470f, -0.07398640f, 0.15221018f, -0.10337918f, -0.27711469f, 0.12932730f, 0.10551465f, 0.19323193f, 0.34471956f, 0.22781967f, 0.30936703f, 0.01072354f, -0.28857934f, -0.24302806f, -0.22897311f, -0.33160111f, -0.94409132f, -0.18295319f, -0.08350857f, -0.06866323f, -0.26320127f, -0.17446750f, 0.13674675f, 0.27100089f, -0.10935701f
};

// shape: [64]
static const float l0_bn_weight[64] = {
    0.74440831f, 0.69217360f, 0.76850909f, 0.94553429f, 0.75774604f, 0.96015441f, 0.99204081f, 1.06885040f, 0.84850383f, 1.13793314f, 0.87430638f, 0.53862363f, 0.74251556f, 0.77536821f, 1.15721714f, 0.84320652f, 0.70922935f, 0.68054241f, 0.77311611f, 1.17112589f, 0.76376128f, 0.61109108f, 1.03754711f, 1.03839421f, 0.87463880f, 1.23056996f, 0.75227249f, 0.71058977f, 0.91853571f, 1.46302414f, 0.75325781f, 0.51247114f, 0.73218524f, 0.52825886f, 1.01910424f, 0.65526384f, 0.74070901f, 0.91247892f, 0.49046642f, 0.80419880f, 0.89024293f, 1.17729521f, 1.43630946f, 0.73715991f, 1.30198848f, 0.86870265f, 0.68988597f, 0.95955920f, 1.78943527f, 0.69916010f, 0.91947007f, 0.75983435f, 0.69769198f, 0.67584127f, 0.70926523f, 1.20910227f, 1.03764832f, 0.83114088f, 0.80044073f, 1.97595632f, 0.80266875f, 0.64104414f, 1.12874520f, 0.80372411f
};

// shape: [64]
static const float l0_bn_bias[64] = {
    -0.18564762f, -0.39415923f, -0.09033135f, 0.02782893f, -0.59584117f, -0.91389620f, -0.03114133f, -0.03073576f, -0.29869229f, -0.19953915f, -0.22635874f, -0.33080658f, -0.36946517f, -0.56580985f, -0.03517510f, -0.44454157f, -0.26252520f, -0.26440215f, -0.08746587f, -0.05630374f, -0.61211115f, -0.14174151f, -0.15436772f, -0.12938017f, -0.11534810f, -0.21792677f, -0.46516097f, -0.51013196f, -0.01036112f, -0.05535438f, -0.36381975f, -0.32249412f, -0.41058236f, -0.21214044f, -0.14097038f, 0.01357768f, -0.41156101f, -0.40670970f, 0.00098045f, -0.22520882f, 0.00110570f, -0.15373248f, -0.03602329f, -0.55071074f, -0.26497301f, -0.22836968f, -0.00390099f, 0.09308851f, -0.01979587f, 0.02091311f, 0.00613791f, -0.30029747f, -0.20345710f, -0.40633193f, -0.48676422f, 0.15346558f, -0.02856453f, 0.00105091f, -0.32870463f, -0.04987518f, -0.13179557f, -0.02508998f, -0.00541790f, -0.79595900f
};

// shape: [64]
static const float l0_bn_running_mean[64] = {
    0.00086440f, 0.00145335f, -0.00077555f, 0.00026401f, 0.00113562f, -0.00019312f, 0.00029123f, -0.00001966f, -0.00017459f, -0.00013424f, 0.00004369f, -0.00186342f, -0.00021470f, -0.00153144f, -0.00000584f, -0.00063089f, 0.00015537f, 0.00026345f, -0.00018743f, -0.00007377f, 0.00068534f, 0.00103359f, -0.00011253f, -0.00016006f, -0.00037182f, 0.00036110f, -0.00023267f, -0.00069685f, -0.00013032f, -0.00014496f, 0.00016090f, -0.00188812f, -0.00062133f, -0.00112247f, 0.00021328f, 0.00154982f, -0.00241519f, -0.00036864f, -0.00179983f, 0.00038404f, -0.00050657f, 0.00009246f, 0.00004174f, 0.00009835f, -0.00011841f, -0.00104181f, -0.00103131f, 0.00033291f, -0.00000380f, 0.00088905f, -0.00005215f, -0.00091109f, 0.00145953f, -0.00152668f, 0.00215985f, 0.00019857f, -0.00004287f, -0.00059972f, 0.00050027f, 0.00001176f, 0.00201410f, -0.00003930f, 0.00007044f, -0.00409515f
};

// shape: [64]
static const float l0_bn_running_var[64] = {
    0.06241197f, 0.22876479f, 0.05483320f, 0.05127632f, 0.11435928f, 0.01471111f, 0.03705692f, 0.00395472f, 0.01430037f, 0.00273191f, 0.00933110f, 0.29666603f, 0.00714398f, 0.19602387f, 0.00631497f, 0.04616115f, 0.01366159f, 0.03794287f, 0.00525478f, 0.00165986f, 0.05529360f, 0.11370446f, 0.01208300f, 0.00970672f, 0.03248700f, 0.02199893f, 0.03173506f, 0.03953594f, 0.06056850f, 0.00771815f, 0.00407896f, 0.37573990f, 0.11972571f, 0.13305148f, 0.01232722f, 0.20308942f, 0.58799565f, 0.01099685f, 0.33882499f, 0.01322566f, 0.02403050f, 0.00911867f, 0.00218187f, 0.00576844f, 0.00241505f, 0.20788182f, 0.15250976f, 0.01597967f, 0.00013978f, 0.10406672f, 0.06708454f, 0.09156904f, 0.30611041f, 0.22414483f, 0.49138433f, 0.00630512f, 0.00899576f, 0.09435228f, 0.02378916f, 0.00307313f, 0.52036995f, 0.00156190f, 0.20458281f, 1.63249910f
};

// shape: [64]
static const float l0_bn_bias[64] = {
    -0.18564762f, -0.39415923f, -0.09033135f, 0.02782893f, -0.59584117f, -0.91389620f, -0.03114133f, -0.03073576f, -0.29869229f, -0.19953915f, -0.22635874f, -0.33080658f, -0.36946517f, -0.56580985f, -0.03517510f, -0.44454157f, -0.26252520f, -0.26440215f, -0.08746587f, -0.05630374f, -0.61211115f, -0.14174151f, -0.15436772f, -0.12938017f, -0.11534810f, -0.21792677f, -0.46516097f, -0.51013196f, -0.01036112f, -0.05535438f, -0.36381975f, -0.32249412f, -0.41058236f, -0.21214044f, -0.14097038f, 0.01357768f, -0.41156101f, -0.40670970f, 0.00098045f, -0.22520882f, 0.00110570f, -0.15373248f, -0.03602329f, -0.55071074f, -0.26497301f, -0.22836968f, -0.00390099f, 0.09308851f, -0.01979587f, 0.02091311f, 0.00613791f, -0.30029747f, -0.20345710f, -0.40633193f, -0.48676422f, 0.15346558f, -0.02856453f, 0.00105091f, -0.32870463f, -0.04987518f, -0.13179557f, -0.02508998f, -0.00541790f, -0.79595900f
};

// shape: [128, 64, 5]
static const float l1_conv_weight[40960] = {
    -0.10058491f, -0.00732818f, -0.10705826f, -0.12163306f, -0.05892263f, -0.06642920f, -0.00857710f, 0.01969469f, -0.04484088f, -0.07666364f, 0.00031245f, 0.02826200f, 0.00350254f, -0.02218893f, -0.03379194f, -0.17783949f, -0.18555889f, -0.07077890f, -0.03526629f, -0.04250854f, -0.05312269f, -0.08014589f, 0.00503853f, -0.09711784f, -0.15083480f, -0.07409082f, -0.12397644f, -0.19488959f, -0.25149059f, -0.40132496f, -0.04864948f, -0.02134912f, 0.02854040f, 0.01023011f, 0.03029227f, -0.10387413f, 0.00176573f, 0.02070770f, 0.11555447f, 0.16152748f, -0.12414934f, -0.13011104f, -0.01839335f, 0.05339767f, -0.03653787f, -0.13383879f, -0.08884266f, -0.06661276f, -0.04174102f, -0.04181281f, 0.00846643f, 0.05672739f, -0.07444787f, 0.02916020f, 0.02222711f, 0.00334487f, 0.04562828f, 0.04970595f, -0.02886325f, -0.05954330f, -0.09024207f, -0.01843832f, -0.03959480f, -0.01957051f, 0.00980800f, -0.01416503f, 0.07695235f, 0.03475176f, -0.08458783f, -0.07590011f, -0.31587300f, -0.27476853f, -0.21009219f, -0.31357992f, -0.15482660f, -0.03424295f, 0.06176841f, 0.01856866f, 0.02530782f, 0.04955957f, -0.17108014f, -0.16160290f, -0.09471662f, -0.04155867f, -0.00712039f, -0.17525600f, -0.12936050f, 0.00362085f, 0.04550601f, 0.02112501f, 0.10449094f, 0.03966088f, 0.02534011f, -0.08532350f, -0.08177011f, 0.13613601f, 0.06674770f, 0.03784881f, 0.01692877f, -0.08093002f, -0.16305245f, -0.17328753f, -0.26116544f, -0.18170473f, -0.02305519f, 0.03019149f, 0.01383275f, 0.04293741f, 0.03444388f, 0.16412073f, 0.00643918f, 0.04616932f, -0.01147762f, 0.00490936f, 0.06143497f, 0.02091463f, 0.08466248f, 0.10670266f, 0.14071870f, 0.15417425f, 0.06467906f, 0.06169743f, -0.03753980f, 0.02656838f, -0.03820026f, -0.15584481f, -0.10612730f, -0.13851070f, -0.12189927f, -0.11010920f, 0.06939610f, 0.04624218f, -0.03301701f, -0.03675092f, -0.07447635f, 0.04592804f, 0.05119702f, -0.04679966f, 0.03334592f, 0.02023512f, -0.06567696f, -0.07535148f, -0.01321378f, 0.00248133f, 0.05979418f, -0.16882858f, -0.12424732f, -0.15571649f, -0.22268195f, -0.14366689f, 0.13950509f, -0.00248023f, -0.08396684f, -0.00777277f, -0.12163952f, -0.02344922f, -0.00948832f, 0.06442398f, 0.06562589f, 0.07202793f, -0.01469984f, -0.03669521f, 0.00694420f, 0.00485722f, -0.02181058f, 0.04935146f, 0.06458139f, 0.08001728f, 0.00074832f, 0.00267072f, -0.06846710f, -0.09655087f, -0.07244935f, 0.05691030f, -0.01876028f, 0.03989172f, -0.04682340f, -0.06632633f, -0.00978719f, -0.10761710f, 0.02987039f, 0.05818329f, -0.00573354f, 0.07264727f, -0.01661750f, -0.03335344f, -0.01870339f, -0.05820787f, -0.11382078f, -0.02112570f, 0.03266747f, -0.01581111f, -0.00843190f, 0.09262668f, 0.05590271f, -0.01927415f, -0.04331360f, -0.07339922f, -0.21536393f, -0.24410094f, -0.03593994f, 0.02109391f, -0.00712175f, -0.04666227f, -0.02729759f, -0.11987235f, -0.11099754f, -0.09117648f, -0.16973674f, -0.31680644f, -0.04156565f, 0.08888760f, 0.03527120f, 0.22983149f, 0.09713633f, -0.07326061f, -0.05453894f, -0.07746506f, -0.00549324f, -0.09213314f, -0.16947372f, -0.10558373f, -0.06399587f, -0.07622054f, -0.11985105f, 0.00321927f, -0.01792807f, 0.08217460f, 0.06366254f, 0.03339422f, 0.04803134f, 0.05695270f, 0.05471331f, -0.03611779f, -0.03059589f, -0.01791975f, 0.01055010f, -0.06307855f, -0.04894283f, -0.14977518f, 0.01344130f, 0.09775913f, 0.00484921f, 0.05844512f, 0.07273482f, 0.07369640f, 0.02928340f, 0.00717289f, 0.08006538f, 0.05869089f, -0.17350154f, -0.13903604f, -0.01051126f, -0.01655768f, 0.05434683f, 0.00863124f, -0.04765905f, -0.05512347f, -0.07831537f, -0.02420263f, -0.03961832f, 0.01752144f, 0.01126131f, -0.01882002f, 0.07283024f, -0.04330441f, -0.04232277f, -0.08470789f, -0.07184051f, -0.09128214f, -0.13350150f, -0.17810595f, -0.13133077f, -0.05273648f, -0.01926721f, -0.04363208f, -0.03284097f, 0.00107948f, -0.02989729f, -0.00274093f, -0.00699472f, -0.01023283f, 0.01704525f, 0.00979178f, -0.03746828f, -0.14255874f, 0.01093073f, -0.02570594f, 0.01842968f, 0.09858564f, 0.09060854f, 0.08873128f, -0.00798560f, -0.17827851f, -0.14671133f, -0.02293386f, -0.00546564f, 0.04765062f, 0.20163569f, 0.08719755f, 0.04125622f, -0.01882157f, -0.01570906f, -0.07009454f, 0.00337996f, -0.04094999f, 0.08130067f, 0.06960706f, 0.10638581f, 0.11925215f, 0.05259221f, -0.00726047f, -0.05781975f, -0.01786139f, -0.01033077f, -0.07236282f, -0.03223545f, 0.01366909f, 0.05292634f, 0.01855616f, -0.06420557f, 0.01698526f, 0.00954915f, -0.00653312f, 0.01846392f, 0.05457245f, 0.07420338f, -0.00299723f, -0.01782357f, -0.04044241f, -0.07054207f, -0.00990363f, -0.00215847f, -0.05597797f, -0.15337476f, 0.11169901f, 0.10381315f, 0.06255150f, -0.03727330f, -0.29374117f, 0.01558469f, 0.05439333f, 0.00560306f, -0.01071731f, -0.08154212f, 0.01758850f, 0.00924229f, -0.00612184f, 0.07084241f, 0.08851781f, -0.26323155f, 0.01396813f, 0.03938843f, 0.10559651f, 0.14544328f, -0.03157901f, -0.05016411f, -0.09923960f, -0.08455355f, -0.14096461f, 0.10522190f, 0.08765653f, 0.06056267f, -0.02022931f, -0.05008685f, -0.08522998f, -0.00586419f, -0.00756557f, 0.01984946f, 0.06775627f, -0.05885227f, -0.02174749f, 0.01561647f, 0.03779970f, -0.03459554f, -0.01038427f, 0.06043569f, 0.02477765f, 0.01154576f, -0.10000948f, -0.05880153f, -0.02259268f, -0.02762430f, -0.01586215f, -0.01993185f, -0.00287169f, -0.02669149f, -0.01636251f, -0.01695043f, 0.01345812f, 0.08570596f, 0.07478297f, 0.04728385f, 0.08306088f, 0.14820352f, -0.20960882f, -0.03069465f, -0.01538105f, 0.08974738f, 0.01153853f, 0.06689061f, 0.07214510f, 0.04172543f, 0.04224681f, 0.01460377f, 0.01602767f, 0.06958830f, 0.07682710f, -0.06810858f, -0.20274481f, 0.03146565f, 0.05443786f, 0.07913601f, -0.00983891f, -0.21120973f, 0.05391070f, 0.00382177f, -0.06993779f, -0.03983425f, -0.19772692f, -0.12715574f, 0.00491161f, 0.02990025f, -0.04890413f, 0.00295503f, -0.03589005f, 0.00509997f, 0.03231105f, -0.01148243f, -0.03927491f, 0.01232861f, 0.02075407f, 0.03835196f, -0.04134252f, -0.28659114f, -0.38977396f, -0.12516296f, 0.00404871f, 0.05679936f, 0.06549585f, 0.01873435f, 0.05819219f, 0.09224272f, -0.00578483f, -0.28810820f, -0.05705050f, -0.00678559f, -0.00585363f, 0.01121561f, -0.12839541f, 0.07517117f, 0.04092867f, 0.08448946f, 0.01840593f, 0.07526380f, -0.10303875f, -0.01117998f, -0.03921128f, 0.03035928f, 0.05615821f, -0.06554591f, -0.00211556f, 0.05900204f, 0.06461731f, 0.00975818f, 0.13745534f, 0.09162138f, 0.04794753f, -0.04110441f, -0.34199065f, 0.02327953f, 0.07339081f, -0.02165043f, -0.03182670f, -0.05237346f, -0.06634589f, -0.02379972f, 0.00269406f, 0.08415637f, 0.00704177f, 0.02784641f, 0.02821443f, 0.02454325f, -0.03073193f, -0.05782724f, -0.01288406f, 0.06618354f, 0.08060709f, -0.02339187f, 0.02787361f, -0.00657691f, 0.08573733f, 0.06120465f, -0.04719885f, -0.32277042f, -0.01124119f, -0.01469577f, 0.00149128f, -0.04490092f, -0.01710521f, -0.09466831f, -0.00540548f, -0.02339346f, 0.01514295f, -0.03283390f, -0.06300275f, -0.03305939f, -0.05965047f, 0.01917486f, 0.02214737f, 0.08533435f, 0.10604704f, 0.03350502f, -0.01804231f, 0.03178700f, -0.03012786f, 0.00553305f, 0.05618947f, 0.04564510f, -0.10979986f, -0.01096113f, 0.08296347f, 0.07261480f, 0.07641952f, -0.07482667f, -0.24854788f, -0.05202011f, 0.05918589f, 0.01074478f, 0.06804838f, -0.14954914f, -0.05997473f, -0.03630694f, -0.00750011f, 0.04921990f, -0.03040942f, -0.05742096f, 0.01375702f, -0.04306231f, 0.03593510f, -0.24326022f, 0.05730348f, 0.11033882f, 0.12749077f, 0.04969199f, -0.21759444f, -0.00125405f, 0.02676088f, 0.12151965f, -0.00292729f, 0.06461223f, 0.09085185f, 0.05844809f, 0.03835065f, -0.11275591f, -0.22740509f, -0.05097432f, -0.01080382f, 0.08705176f, 0.02785187f, -0.11692368f, -0.06475463f, -0.00135934f, -0.05667318f, -0.00672741f, -0.13759489f, 0.03226054f, 0.00852720f, 0.05384204f, 0.01015554f, -0.04146724f, -0.04055629f, 0.06534027f, 0.01118665f, -0.08216480f, 0.03128747f, 0.00151531f, 0.01857220f, -0.04463701f, -0.11658703f, -0.02820133f, 0.06130965f, -0.01705121f, 0.06678536f, -0.00560085f, 0.01770856f, 0.02185987f, 0.00739670f, -0.07377224f, -0.05377726f, -0.06072293f, 0.04434812f, -0.02153248f, -0.00903383f, -0.00943924f, -0.01688461f, 0.01201884f, 0.00614761f, 0.06340662f, -0.07754075f, 0.08433542f, 0.08724819f, 0.09358988f, 0.03276737f, 0.02182654f, -0.15747571f, -0.02409659f, 0.07697708f, 0.14271447f, 0.07716951f, 0.00742093f, 0.04110977f, 0.02918054f, 0.03190979f, -0.11701576f, 0.01136060f, -0.12612242f, -0.15594137f, -0.14543618f, -0.13316655f, -0.00140309f, 0.01401719f, 0.01864925f, 0.00715627f, -0.09008304f, -0.20345251f, -0.05534573f, 0.04819538f, 0.01185023f, -0.03887582f, -0.03514457f, -0.01511811f, 0.05328245f, 0.02912503f, 0.00538873f, -0.17027654f, 0.00418973f, 0.07932027f, 0.03161588f, 0.07785950f, -0.06788890f, -0.04180383f, -0.12203653f, -0.18960105f, -0.27027509f, -0.11787422f, -0.12149768f, -0.16737533f, -0.07958022f, -0.13048403f, 0.03304321f, 0.00480243f, -0.05733624f, -0.08178569f, 0.01103626f, 0.06071830f, 0.05631261f, 0.04186623f, 0.08345940f, 0.06291372f, -0.25372267f, -0.24243215f, -0.27229810f, -0.17810038f, -0.19109441f, -0.19734792f, -0.20786431f, -0.17719579f, -0.24229099f, -0.04714940f, -0.19768240f, -0.08945807f, -0.07232495f, -0.02379271f, 0.04294420f, -0.02727235f, 0.01522610f, -0.00556256f, 0.14110081f, 0.20046327f, -0.06616626f, 0.04754362f, 0.00681217f, -0.01569510f, -0.02894977f, 0.04712228f, -0.07163759f, 0.04726823f, 0.07153290f, 0.07190751f, -0.17606911f, -0.04107084f, -0.02387685f, -0.00434455f, 0.16193445f, 0.04875820f, 0.00410038f, 0.02850639f, -0.05970292f, 0.02033020f, 0.00748537f, 0.03767948f, 0.00780627f, 0.01836668f, 0.00236958f, 0.02155789f, 0.02069287f, -0.02893172f, -0.05258293f, 0.00941563f, 0.05614469f, -0.00571563f, 0.04131625f, 0.04992184f, 0.04553818f, 0.06781566f, 0.04760375f, -0.05606757f, 0.02392281f, -0.00002058f, -0.25438496f, -0.13993160f, -0.04318171f, 0.06057014f, 0.04383819f, 0.05638113f, 0.02739025f, 0.01794844f, 0.01252488f, 0.09357394f, -0.01545878f, -0.10187717f, -0.05051675f, 0.02743799f, 0.11943780f, 0.03771434f, 0.01783573f, -0.01073927f, 0.18038729f, -0.00331442f, -0.25146225f, -0.16629857f, -0.23839058f, -0.19046739f, -0.21876509f, -0.06761090f, -0.00729319f, -0.04887184f, -0.09301171f, -0.11028101f, -0.01711440f, 0.00486914f, -0.03661641f, 0.17154828f, 0.16832948f, 0.01816888f, 0.05174647f, 0.06573167f, 0.02225208f, 0.08203018f, 0.00168141f, -0.02745895f, 0.04422726f, 0.05859705f, 0.19262485f, -0.25729528f, -0.22787881f, -0.32064840f, -0.03762719f, -0.06937700f, -0.05597231f, -0.00008504f, -0.08149872f, -0.03215995f, -0.00941189f, -0.00836425f, 0.02179564f, -0.01438377f, 0.01692143f, -0.04553472f, -0.07144471f, 0.00685187f, -0.03851575f, -0.01191763f, -0.01541423f, 0.11630835f, 0.02359824f, 0.08335485f, 0.16908018f, 0.13835463f, -0.11755738f, -0.15176971f, -0.08032247f, -0.06264085f, -0.10070082f, 0.03604338f, -0.05889899f, -0.07402905f, 0.01140916f, 0.00839957f, 0.02278981f, -0.04883055f, -0.01024815f, 0.02918057f, 0.09922212f, -0.05849340f, 0.01493400f, -0.03409049f, 0.05902784f, -0.00774308f, 0.00621115f, 0.04162891f, 0.02147663f, 0.01806206f, 0.08610503f, 0.10351480f, 0.14729188f, -0.00336808f, 0.01678021f, -0.04001151f, -0.00952449f, -0.01447839f, -0.07092140f, -0.05168727f, -0.03150964f, -0.03574901f, -0.05032071f, -0.05043305f, -0.08440503f, -0.07398341f, 0.00193059f, -0.00116760f, -0.04656315f, -0.02429342f, -0.06380189f, -0.03601111f, -0.15325809f, -0.17928314f, -0.28086326f, -0.18356913f, -0.09771107f, -0.08710165f, -0.11716228f, -0.07412910f, -0.07790372f, -0.04966526f, -0.09836923f, -0.13624379f, -0.12175001f, -0.13366127f, -0.20341618f, -0.02133228f, -0.03846495f, 0.02888196f, 0.06693908f, -0.03621048f, -0.03356660f, -0.00017855f, -0.11817080f, -0.04425419f, 0.10754903f, 0.04426548f, -0.00217092f, -0.04930024f, -0.05244983f, 0.03584707f, 0.00478027f, -0.06126303f, -0.05555741f, -0.01282003f, -0.03070093f, 0.00902490f, -0.06411278f, -0.02114595f, 0.04171466f, -0.24386238f, -0.12215145f, -0.13065234f, -0.09757160f, -0.16617239f, -0.06241728f, -0.03202901f, 0.00803999f, 0.01884954f, -0.02428257f, -0.03300210f, -0.02573118f, -0.05297863f, -0.00450297f, 0.04071791f, 0.02144341f, -0.02386111f, 0.00001253f, 0.03494981f, 0.00160936f, -0.00497774f, -0.04226519f, -0.01305339f, -0.06711295f, 0.07549837f, -0.19907728f, -0.08375928f, -0.08171082f, -0.07630083f, -0.01088735f, 0.03863950f, -0.03115467f, -0.05258054f, -0.03499012f, -0.00808828f, -0.18447994f, -0.15017872f, -0.22212067f, -0.15449357f, -0.20463410f, -0.08725712f, -0.13998067f, -0.08730550f, 0.00716391f, 0.00917965f, -0.10735368f, 0.02212509f, 0.11657294f, 0.06411002f, 0.04365385f, -0.00208827f, 0.01287735f, -0.03767060f, 0.03050428f, -0.02500552f, -0.03259521f, -0.14900655f, -0.18046744f, -0.06808188f, -0.06937995f, 0.02940951f, -0.01718837f, 0.06545050f, -0.01278561f, 0.00333883f, 0.00681695f, 0.01556054f, 0.02188285f, -0.02184603f, 0.04584841f, 0.00107972f, 0.00653120f, 0.02807461f, 0.07054965f, 0.01660574f, -0.08349933f, -0.04847395f, -0.02727896f, 0.00472734f, 0.15082642f, -0.09106398f, -0.16728665f, -0.14362255f, -0.07475308f, -0.08094461f, -0.01915926f, 0.04485556f, 0.01348372f, -0.00383728f, -0.00228999f, 0.10689225f, -0.00401910f, -0.00046853f, -0.06973013f, -0.03836868f, -0.08413240f, -0.12312513f, -0.16647051f, -0.09145605f, 0.05336013f, 0.07130641f, 0.06164847f, 0.01519351f, 0.03242007f, -0.00807399f, -0.06652402f, -0.09210609f, -0.11269873f, -0.12416813f, -0.05386517f, -0.00070548f, -0.06215577f, -0.20189638f, -0.13766050f, -0.05068657f, -0.15793112f, 0.01651752f, -0.04554183f, -0.04527019f, 0.03971179f, -0.01160221f, -0.05093723f, 0.02455901f, -0.08616225f, -0.18275230f, 0.11638479f, 0.07687237f, 0.02697394f, -0.06066939f, -0.25523120f, -0.00382629f, -0.02381211f, 0.04761472f, 0.04939974f, 0.10984910f, 0.07582656f, 0.04974538f, 0.03410354f, 0.15453340f, 0.02895543f, -0.00356746f, -0.06855656f, -0.19840075f, -0.15246624f, -0.15316892f, -0.03260200f, -0.07312290f, -0.06731828f, 0.02815605f, 0.02566518f, -0.03687245f, -0.17620702f, -0.23711362f, -0.22725914f, -0.11794437f, 0.05046941f, -0.06387392f, -0.11155829f, -0.06693535f, -0.05198348f, 0.06487884f, 0.09907522f, 0.09495963f, 0.14855249f, -0.02044271f, 0.01880050f, -0.01064767f, -0.02608893f, -0.10679568f, -0.13410319f, 0.08246440f, 0.02278422f, 0.04407908f, 0.00396715f, -0.07161749f, -0.11319916f, -0.16305834f, -0.03951782f, 0.09834787f, 0.25084326f, -0.04795014f, 0.02409130f, 0.06946135f, 0.03140689f, 0.24478793f, -0.11026946f, -0.01551720f, 0.04174233f, 0.04397897f, 0.02481343f, 0.01321072f, 0.03404560f, 0.04341101f, 0.01263052f, -0.01536514f, -0.00012741f, -0.05417019f, 0.00128003f, -0.06535890f, -0.00951297f, -0.02072760f, 0.05684259f, 0.01459665f, 0.00103317f, -0.09843934f, -0.00682186f, -0.12606026f, -0.02661712f, -0.00877785f, 0.10306526f, -0.17698437f, -0.04840854f, 0.01490041f, 0.01984963f, 0.12483965f, -0.11348079f, 0.05521119f, -0.06876417f, -0.18088348f, -0.04431444f, 0.03899667f, 0.01940066f, 0.02045643f, -0.00958666f, -0.06176126f, 0.02444823f, -0.08012928f, 0.00037254f, -0.02624325f, -0.16245753f, -0.06339524f, -0.09245789f, 0.01008704f, 0.10407075f, 0.19927758f, -0.13648367f, 0.00108825f, -0.10524775f, -0.01589548f, 0.02987369f, 0.02391945f, 0.09981123f, 0.06685522f, -0.07740378f, -0.12852737f, -0.06473030f, 0.02071616f, 0.00134232f, -0.03797771f, 0.02514260f, 0.05616333f, 0.11856402f, -0.01956672f, -0.02450482f, -0.07207399f, 0.07004017f, 0.01163228f, 0.00676229f, 0.02093540f, 0.08653215f, 0.07259805f, 0.01107761f, 0.02657440f, 0.02000093f, -0.04689921f, 0.07818467f, 0.08776142f, 0.11184283f, 0.00866755f, -0.07092144f, -0.11599134f, -0.17317237f, -0.11305157f, -0.08108000f, 0.05503959f, 0.05141122f, 0.01820040f, 0.06230528f, -0.03204112f, -0.07379973f, -0.01077862f, 0.03335662f, 0.02600087f, 0.04157561f, 0.06981367f, -0.03399655f, -0.04171378f, -0.01888081f, 0.12128376f, 0.14878885f, -0.15990634f, -0.17654325f, -0.15511724f, -0.16511194f, 0.00554318f, -0.43946373f, 0.07495049f, 0.06811757f, 0.10953324f, 0.10865056f, 0.16200919f, -0.06150879f, -0.08818634f, -0.04385693f, -0.07010345f, 0.03560203f, -0.01083857f, 0.08385554f, 0.13615565f, 0.06006627f, -0.03430996f, -0.02154298f, 0.01611548f, -0.05894262f, -0.13301359f, -0.00914411f, 0.03102238f, 0.03553456f, 0.02411555f, 0.10622881f, -0.11282477f, 0.02458684f, 0.09048770f, 0.13506530f, 0.05696695f, -0.05305015f, -0.13013878f, -0.06213574f, -0.07473841f, 0.11206697f, -0.07286303f, 0.01827729f, 0.07686842f, 0.05975940f, 0.01443516f, 0.03762639f, 0.01335137f, -0.11246368f, -0.07516135f, -0.07243289f, -0.10160466f, -0.18007869f, -0.02650479f, -0.02376474f, 0.06425036f, -0.04869978f, 0.02292520f, 0.10825133f, 0.01356658f, -0.03112435f, -0.09301955f, -0.10729627f, -0.16159503f, -0.11892859f, -0.00500286f, -0.06103548f, 0.02131650f, 0.05749720f, -0.01408016f, 0.02902921f, -0.10527369f, -0.05517271f, 0.12590332f, 0.11649305f, 0.21163179f, -0.09329210f, -0.02400861f, -0.15316463f, -0.07149066f, -0.08688811f, 0.02567958f, 0.01959183f, 0.02044406f, 0.01837325f, -0.10398626f, 0.05239377f, -0.07230166f, -0.03281954f, 0.02195765f, 0.07173239f, 0.05823084f, -0.03233673f, -0.00064474f, -0.04268419f, -0.00514389f, 0.04566239f, 0.03277641f, 0.06791158f, -0.02538659f, 0.00365634f, 0.06163119f, 0.02643748f, 0.03485918f, -0.08850177f, -0.03562648f, 0.06213026f, -0.01935432f, -0.07510548f, -0.08755636f, 0.02561479f, 0.09274090f, 0.10192700f, 0.03656815f, -0.00913306f, 0.00558495f, -0.13905522f, -0.05406992f, -0.07280998f, 0.01832051f, -0.00802506f, 0.02093676f, 0.04078630f, 0.09283882f, -0.03244918f, 0.06717126f, 0.05653558f, 0.03992853f, 0.08674330f, 0.07056882f, -0.01066807f, 0.06160916f, 0.01107943f, -0.00841993f, -0.04720759f, 0.06664222f, 0.04492624f, 0.09137341f, 0.04493884f, 0.01971458f, -0.02689252f, -0.08338541f, 0.03433548f, 0.00110526f, -0.05164748f, 0.03703001f, -0.26033673f, -0.13170637f, -0.05397902f, -0.08974189f, 0.03996577f, -0.00154933f, -0.11668480f, 0.00189999f, 0.02432731f, -0.09321941f, -0.09334704f, -0.00890650f, 0.05169557f, 0.01368474f, -0.00496047f, 0.08076944f, -0.10833703f, -0.03269823f, 0.09789317f, 0.25241020f, -0.22099237f, -0.12888199f, -0.05205739f, -0.00022709f, -0.14112172f, 0.00827134f, 0.04597051f, -0.04268701f, -0.04407093f, 0.01922461f, 0.00195333f, -0.00181370f, 0.00325044f, -0.10831446f, -0.12646739f, 0.01951523f, 0.03351201f, 0.02431730f, 0.06364551f, 0.00397118f, 0.02009670f, -0.05932948f, 0.04731631f, 0.01519236f, -0.10980338f, -0.02417142f, -0.04144049f, 0.05897672f, 0.00756743f, 0.00788266f, 0.07731424f, -0.04049766f, 0.07378279f, 0.01217516f, 0.11088893f, -0.00889393f, 0.01885328f, 0.00218227f, -0.00385116f, 0.02902746f, -0.08987609f, -0.03851193f, 0.01743560f, -0.07470028f, -0.18064487f, -0.06577872f, -0.05853440f, -0.07493217f, -0.15922923f, -0.23607089f, -0.12465424f, 0.09102247f, 0.04117985f, 0.11421670f, 0.03398930f, -0.08363762f, -0.01956717f, -0.01765388f, -0.00029405f, 0.00297980f, -0.18667971f, -0.10994171f, -0.17970665f, 0.00378773f, -0.13925825f, 0.02278758f, -0.05890436f, -0.07857437f, -0.06805510f, 0.06539509f, -0.12408151f, -0.01767928f, -0.00662758f, -0.00511667f, -0.26960629f, -0.00598348f, 0.04656068f, 0.08050792f, 0.14274615f, 0.03515989f, -0.27777240f, -0.14871377f, -0.06135658f, -0.07559340f, -0.13943443f, 0.08329695f, 0.05861545f, -0.00236297f, -0.05108280f, -0.02507881f, -0.03222822f, -0.00173681f, -0.04236793f, 0.04529507f, 0.09606715f, 0.03909818f, 0.03293517f, 0.01856778f, 0.06629462f, -0.05955924f, -0.15482888f, -0.04604625f, -0.00234058f, -0.10576037f, 0.01965964f, -0.01197089f, -0.03647655f, -0.04117415f, -0.00148531f, 0.00704413f, -0.13431014f, -0.12088834f, -0.03507274f, -0.03560404f, -0.11695841f, -0.00900520f, 0.02731075f, -0.03492145f, 0.02969725f, 0.08250050f, -0.07042707f, -0.01734547f, 0.00831790f, 0.00605416f, 0.08407648f, -0.00905015f, -0.07364912f, -0.05369424f, -0.05234381f, -0.08502343f, -0.02653846f, -0.05556009f, 0.01594824f, 0.03814892f, 0.02811730f, 0.07836367f, 0.00936363f, 0.01425691f, 0.01343988f, -0.03016488f, 0.02198235f, 0.04336980f, 0.01167481f, 0.01613378f, 0.01346446f, -0.05699035f, 0.04140782f, -0.08530948f, 0.00261268f, 0.09424027f, 0.08476423f, 0.03270373f, -0.05045020f, -0.06586201f, -0.04519606f, 0.01391909f, 0.02107183f, 0.01147443f, 0.08024249f, 0.06351878f, -0.45541188f, 0.01097355f, 0.12525092f, 0.13691750f, -0.18028128f, -0.00319740f, -0.15330055f, 0.01748093f, 0.04616510f, 0.04995892f, 0.13218111f, -0.06550833f, 0.04722198f, 0.11683629f, 0.07933618f, 0.06862004f, 0.01849578f, 0.01852981f, 0.06888342f, 0.13563249f, -0.12717395f, -0.05134832f, 0.07426407f, -0.00359263f, -0.06809384f, -0.27254954f, -0.08144636f, 0.07467801f, 0.07880268f, -0.06070311f, 0.03241456f, -0.37190673f, -0.10091321f, 0.05830353f, -0.06469166f, -0.18077196f, -0.06222459f, -0.01178241f, -0.01006105f, -0.01621005f, -0.02299398f, 0.02110919f, -0.02330517f, 0.02256448f, 0.09385432f, 0.03365336f, 0.03530192f, 0.06002300f, 0.05613732f, -0.04810579f, -0.05485082f, 0.02982605f, 0.01102755f, 0.06374758f, 0.06086457f, 0.04068053f, 0.08833116f, 0.08958255f, 0.03650571f, -0.03768270f, 0.02948297f, -0.01519517f, 0.07126109f, 0.09057144f, 0.09661634f, 0.00513686f, -0.08460763f, 0.17112918f, 0.07048516f, 0.15760334f, -0.19119662f, -0.16291012f, -0.04721638f, -0.00861020f, 0.16645192f, 0.00756780f, 0.02919124f, 0.02277237f, 0.06262340f, 0.15953128f, 0.09652363f, -0.04800242f, 0.02733508f, -0.01492368f, -0.00491445f, -0.00407878f, -0.11339230f, -0.03008375f, -0.04477149f, 0.09989542f, 0.02221878f, 0.04508633f, 0.00343546f, 0.00585369f, 0.01229575f, 0.00888149f, -0.04018743f, -0.06015145f, -0.02615628f, -0.09328203f, -0.28424370f, -0.21667393f, -0.09648036f, -0.05572755f, -0.08886934f, 0.00493876f, -0.03020073f, -0.01887949f, 0.04291652f, 0.01146897f, 0.07332645f, -0.00681401f, -0.07653863f, -0.00731134f, -0.02997342f, -0.11418239f, -0.13229661f, -0.16374730f, -0.06476542f, -0.00836785f, -0.03190349f, 0.03396014f, -0.05121307f, -0.06068488f, -0.04200217f, 0.03917596f, 0.11491252f, 0.06556018f, 0.06425897f, -0.13467444f, -0.01497744f, -0.08925305f, -0.07365599f, -0.02406785f, -0.02430922f, 0.08783890f, 0.09070586f, 0.02377681f, 0.02659616f, 0.02528348f, 0.02673035f, 0.07408160f, 0.04091539f, 0.02349729f, 0.02567261f, -0.11756390f, -0.12449995f, -0.01099733f, -0.21383090f, -0.37229678f, 0.00322138f, -0.10310825f, -0.00464109f, 0.08623336f, 0.05517873f, -0.06983987f, -0.02412248f, -0.03036190f, -0.03561362f, -0.05184479f, 0.00878581f, 0.01207081f, -0.00373694f, -0.11599410f, -0.09564324f, -0.03364820f, -0.01285834f, -0.04982021f, 0.00874427f, -0.03239812f, 0.05862405f, 0.08084125f, -0.03249749f, -0.06157335f, 0.00151800f, -0.00954526f, 0.01615470f, -0.04439389f, 0.01026121f, -0.03513834f, -0.33626831f, -0.04016313f, 0.07094544f, -0.06431102f, -0.23275042f, -0.10332090f, -0.02754175f, -0.04340023f, 0.01801504f, 0.06662741f, -0.07600907f, -0.01946384f, 0.04024602f, 0.02421865f, 0.02233691f, -0.04290573f, 0.09124970f, 0.03525221f, -0.00275961f, -0.14193997f, 0.01398472f, -0.08090074f, 0.06117905f, 0.04686078f, -0.06746949f, -0.00306846f, 0.07759523f, 0.06938877f, -0.06315421f, -0.05714413f, -0.01623107f, -0.07225305f, -0.05538807f, -0.11057176f, -0.15081240f, -0.01011972f, -0.06598519f, -0.01305466f, 0.01427598f, -0.03158113f, 0.11068469f, 0.01570798f, 0.00537051f, 0.05318951f, -0.06703559f, -0.21802473f, 0.02805743f, 0.09896511f, 0.05104327f, -0.00135390f, 0.08491652f, 0.00946956f, 0.00942016f, 0.00075569f, -0.01336325f, 0.12697680f, -0.00115679f, -0.00673960f, 0.00095195f, -0.15334801f, 0.02031137f, 0.00344363f, 0.01441103f, 0.06673851f, 0.06257437f, -0.04747840f, -0.01741789f, -0.01450026f, -0.03543469f, -0.04714398f, -0.21797296f, -0.18603548f, -0.10825804f, -0.19905259f, -0.28409278f, -0.06139963f, 0.09615956f, 0.13563603f, 0.10903828f, 0.01457598f, -0.06021177f, 0.00192425f, -0.02885466f, -0.04566292f, 0.02402430f, -0.04414444f, -0.05202940f, 0.02736991f, 0.05224789f, -0.02716774f, 0.07826094f, 0.02389331f, 0.01165867f, 0.02043607f, 0.08230020f, -0.00864382f, -0.02446466f, -0.00700369f, 0.04186288f, 0.00735369f, -0.00369258f, 0.06649659f, 0.08522830f, 0.05565314f, -0.06206378f, 0.04933003f, 0.01323146f, 0.02011658f, -0.04658066f, -0.01369079f, 0.00125735f, 0.01941476f, 0.00677988f, 0.01815599f, 0.01959254f, -0.06424493f, 0.03123225f, -0.02535712f, 0.01595119f, 0.04693995f, -0.04418103f, 0.01409232f, -0.06019313f, 0.02739548f, 0.02955204f, 0.11303992f, -0.01627108f, -0.06339556f, -0.06326551f, -0.09305748f, -0.04514390f, 0.00766799f, -0.03307243f, -0.03750594f, -0.05936997f, -0.03313904f, -0.04571556f, -0.07737365f, 0.02543171f, 0.07743366f, 0.11776439f, -0.10508761f, 0.01941591f, -0.10128064f, -0.25051787f, -0.03683184f, -0.07688377f, -0.07689100f, -0.04247106f, 0.02858840f, -0.16976261f, -0.00239628f, -0.03114252f, -0.06298425f, 0.01995747f, -0.10648078f, 0.02206156f, 0.10963548f, 0.10436563f, 0.04653993f, 0.07275118f, -0.02761818f, -0.03824106f, 0.03726987f, 0.00771385f, 0.07309256f, 0.06120300f, -0.04166930f, -0.09155374f, -0.01237263f, -0.01416122f, 0.15027122f, -0.02603451f, -0.04321118f, -0.13269706f, 0.03920271f, 0.05170699f, 0.07673967f, 0.09055550f, 0.10921630f, -0.03033179f, -0.02861055f, -0.09647319f, -0.15351613f, -0.25925171f, -0.01989377f, -0.03306872f, 0.05435730f, -0.01960417f, 0.06583834f, 0.04593528f, 0.01878426f, 0.04953874f, -0.01274355f, 0.00897872f, 0.03332664f, 0.02940272f, -0.04347701f, 0.03293212f, -0.00357708f, 0.00172300f, -0.00757322f, -0.06326824f, -0.05533399f, -0.08585027f, 0.12039766f, 0.01580065f, -0.03682860f, -0.11792850f, -0.23302995f, 0.13012898f, 0.06721881f, 0.01905234f, -0.06855731f, -0.00176908f, -0.14014509f, 0.05766739f, 0.11898249f, 0.10515004f, 0.05425960f, 0.04334918f, -0.06403503f, 0.02679915f, -0.06616634f, -0.06480858f, -0.38853598f, -0.31734630f, -0.34197944f, -0.47728494f, -0.43328461f, -0.00853282f, -0.01120173f, -0.03071116f, -0.02732603f, 0.02585320f, -0.32063982f, 0.19760011f, 0.18335749f, -0.04305735f, -0.20058416f, 0.06343409f, 0.07221354f, 0.03599582f, -0.00256087f, -0.08745249f, 0.03203973f, 0.04871450f, 0.04205382f, 0.04807422f, 0.06672029f, 0.07483575f, 0.06223446f, 0.08978422f, 0.02540822f, 0.05746947f, 0.03603971f, 0.02518571f, 0.03659941f, 0.02923591f, 0.07361379f, -0.10440738f, -0.02854784f, -0.04419876f, -0.07163911f, -0.12225485f, 0.09794369f, -0.00824298f, -0.01458611f, 0.04604771f, 0.07197849f, 0.00151666f, 0.08654337f, 0.12547654f, 0.04387154f, 0.09201469f, -0.02720792f, -0.00873606f, -0.02081716f, 0.00305879f, -0.00456056f, 0.00650338f, 0.10349906f, 0.15466072f, 0.18918738f, 0.09511680f, -0.14317788f, -0.10929161f, -0.08883186f, 0.01982812f, 0.04825859f, 0.01059386f, -0.03341724f, -0.08485705f, -0.09006854f, 0.07188216f, 0.03167376f, -0.07248512f, -0.06459064f, -0.05251653f, -0.31303638f, -0.01811618f, -0.01439263f, -0.03537674f, 0.04616654f, 0.01746462f, 0.02620643f, 0.03930147f, -0.09548317f, -0.05495163f, -0.10517866f, -0.00825111f, -0.03016819f, -0.02703148f, -0.19339125f, -0.26813239f, 0.12517460f, 0.06969511f, -0.01106215f, -0.00673135f, -0.00000989f, 0.01837943f, -0.02103982f, -0.00925586f, 0.00021970f, 0.00377978f, 0.16584171f, 0.06412414f, 0.11388791f, 0.05827957f, -0.02974520f, 0.11422370f, -0.01135282f, 0.07155779f, 0.04653135f, 0.05925561f, 0.07044720f, 0.06565336f, -0.06531078f, 0.00944866f, 0.09812758f, -0.06392205f, 0.04069856f, -0.00962655f, -0.17699860f, -0.26108727f, -0.10405187f, -0.12834603f, -0.16934827f, -0.13436699f, -0.22488721f, -0.12509958f, -0.08041599f, -0.04638192f, -0.05105873f, -0.07034660f, -0.00661514f, 0.03947357f, 0.09831470f, 0.03918180f, 0.05468065f, -0.00536633f, 0.02352372f, -0.02119161f, 0.01226724f, -0.04117960f, 0.00196187f, 0.00735779f, -0.09557126f, -0.10377911f, 0.01271292f, 0.09443749f, 0.09121224f, 0.04894638f, 0.01635399f, -0.03367937f, -0.21862970f, -0.12582877f, -0.04324482f, -0.04046679f, 0.07306746f, -0.01124118f, 0.12215716f, 0.07562459f, 0.00433426f, 0.09213990f, 0.03413970f, 0.08396974f, 0.14327288f, 0.08698168f, 0.00112860f, 0.04351510f, -0.01749163f, 0.00530262f, 0.15385596f, 0.10955548f, 0.09894148f, 0.10353003f, 0.10494729f, -0.01778723f, -0.16945329f, 0.00495772f, -0.02650644f, -0.02304288f, -0.06026149f, 0.01248144f, 0.05794811f, 0.05215079f, -0.00626370f, -0.03742789f, -0.08794174f, 0.04375376f, -0.00583965f, -0.00261826f, 0.01434483f, 0.02033171f, 0.01000251f, -0.03667764f, -0.02164621f, -0.03964813f, -0.09167602f, -0.01807060f, 0.08720464f, -0.02356287f, 0.05730715f, 0.14678447f, 0.09858952f, 0.00301378f, -0.00349664f, -0.02289991f, -0.00732290f, 0.08420293f, 0.02249348f, 0.08819321f, -0.02119866f, 0.01873909f, -0.05489385f, -0.02000283f, -0.00228130f, -0.05699690f, -0.13453475f, -0.02402592f, -0.01582486f, -0.04080100f, 0.00166456f, 0.01656431f, 0.02320807f, 0.03359759f, -0.02130483f, 0.02794002f, 0.00937009f, -0.01247857f, -0.07900719f, -0.13616447f, -0.28605872f, -0.20474233f, -0.41346699f, -0.16992334f, 0.02368522f, 0.05123661f, 0.16554415f, -0.02406825f, -0.01288164f, 0.06854065f, -0.08314423f, -0.12005144f, -0.07692736f, -0.01975692f, 0.08146564f, 0.14763254f, 0.13915496f, 0.13062212f, 0.11751429f, 0.07751259f, -0.01002558f, -0.04371740f, 0.12892342f, 0.11229273f, 0.03267296f, 0.09268439f, 0.05337294f, 0.00537848f, -0.04838265f, 0.05605576f, 0.03179405f, 0.05307580f, 0.04710917f, 0.04849096f, 0.15012477f, 0.08968427f, 0.00459886f, 0.04117143f, 0.07105351f, 0.04800823f, 0.03123602f, 0.06830896f, 0.07865403f, 0.07408171f, 0.13945252f, 0.10826859f, 0.05210587f, -0.05700720f, 0.00821289f, -0.06661802f, 0.09921382f, 0.19332989f, -0.00917487f, 0.02057437f, 0.00446569f, 0.03049286f, -0.07204600f, 0.07301698f, 0.05456316f, 0.09400041f, 0.07076699f, 0.05588563f, 0.00964627f, -0.11601016f, -0.02573706f, -0.09807931f, -0.10386942f, -0.14136092f, -0.05079068f, -0.04618334f, -0.01181098f, -0.00896716f, -0.14306472f, -0.15962023f, -0.13173553f, -0.02412850f, 0.08790710f, -0.10863678f, 0.05254353f, 0.10086766f, 0.05383106f, 0.12679821f, -0.01909907f, 0.03699112f, -0.03322647f, 0.04368531f, 0.11310744f, -0.03843330f, 0.11555640f, -0.01014621f, 0.00241243f, 0.01729722f, -0.26070410f, -0.18033361f, -0.14544380f, -0.13654052f, -0.18068998f, 0.11370494f, 0.07122133f, 0.11515258f, 0.11983772f, 0.18510967f, -0.02279854f, -0.03265537f, -0.14927676f, -0.05626516f, -0.02158686f, 0.03922327f, 0.02392373f, 0.07608682f, 0.09971598f, 0.03906486f, 0.07923338f, 0.06332411f, 0.09913895f, 0.06931389f, 0.00038050f, 0.03442097f, -0.05571108f, -0.06138394f, -0.00093115f, -0.00651628f, -0.04268447f, 0.04825855f, 0.05408952f, -0.02662657f, 0.04633264f, 0.04257658f, 0.01812100f, 0.06416367f, -0.03194520f, 0.03488096f, -0.25256038f, -0.19523567f, -0.15563433f, -0.20008919f, -0.16537476f, 0.04458372f, -0.01990555f, -0.02163091f, 0.04952018f, 0.10909859f, 0.02585383f, 0.11126015f, 0.09922712f, 0.07252451f, -0.01876464f, 0.07538731f, 0.02353539f, 0.02784993f, 0.05102884f, -0.06387902f, 0.05194578f, 0.05370326f, -0.04781086f, -0.04317573f, -0.03233844f, -0.26214340f, -0.00991927f, 0.00752504f, 0.04599193f, 0.00349695f, -0.08226473f, 0.05360105f, 0.00108195f, -0.02045176f, -0.03781865f, -0.02944983f, -0.06279017f, -0.01782223f, -0.06226729f, 0.00422265f, 0.04652319f, 0.02720311f, 0.00901574f, -0.02656609f, 0.01890192f, 0.06436168f, 0.07581155f, -0.01447468f, 0.03519860f, -0.04045043f, -0.04697664f, -0.06634797f, -0.06864599f, -0.04758966f, 0.05495718f, -0.13589601f, -0.09883229f, -0.14302984f, -0.15369795f, -0.20480143f, -0.12865274f, -0.18367638f, -0.10113128f, -0.03804216f, -0.03997663f, 0.00257950f, 0.10619465f, 0.10172179f, 0.05486854f, 0.03028655f, -0.15831669f, -0.10009766f, -0.09559339f, -0.12629744f, -0.11227245f, 0.02142545f, 0.10182013f, 0.06780150f, 0.01812825f, -0.05274712f, 0.12468158f, 0.05239994f, 0.01662396f, -0.03451576f, -0.06026208f, -0.01236962f, 0.01483437f, 0.00520341f, -0.03976485f, -0.02060892f, 0.02034091f, -0.01940738f, -0.01543625f, -0.06067878f, -0.08207081f, 0.00139305f, 0.01881588f, 0.02984677f, -0.03542588f, -0.09694731f, 0.09870793f, 0.12107203f, 0.17079411f, 0.08194952f, 0.12431739f, 0.10073197f, 0.07890500f, -0.00400343f, -0.06570909f, -0.06988510f, 0.10751192f, 0.03268005f, 0.06065365f, 0.07613738f, 0.06872259f, 0.07049105f, 0.12981895f, 0.11498484f, 0.15871452f, 0.11488663f, -0.11518824f, -0.07555238f, -0.04609064f, -0.09055135f, -0.00078979f, -0.37835181f, -0.32723016f, -0.29561144f, -0.14458388f, -0.05368497f, -0.01189429f, 0.06109286f, 0.07184298f, -0.07796544f, -0.12564962f, 0.00246103f, -0.02158930f, -0.02042997f, 0.00880213f, 0.01680028f, -0.09416390f, -0.06108643f, -0.06768920f, -0.09149170f, -0.02205404f, 0.02974338f, 0.06002381f, 0.11308402f, 0.09035540f, 0.06423433f, -0.00242138f, -0.01497378f, 0.02126466f, -0.06078118f, 0.03250010f, 0.00956247f, -0.01962435f, -0.05873498f, -0.11479813f, -0.10438300f, 0.04152798f, 0.04336846f, -0.01629340f, 0.01343181f, -0.03751160f, -0.10794948f, -0.04150672f, -0.09849642f, -0.03412032f, 0.02185668f, 0.08507627f, 0.00486905f, -0.08900840f, -0.01533246f, -0.04515291f, -0.03147777f, 0.02789144f, -0.02577881f, -0.05439940f, -0.04836467f, 0.03448762f, -0.01205799f, 0.00588901f, -0.01080278f, -0.06916844f, 0.02749470f, 0.06530687f, 0.01952993f, 0.01818664f, -0.03576470f, -0.02579629f, 0.02029980f, -0.06155165f, -0.04573311f, -0.10161404f, 0.10231346f, 0.04320757f, -0.01444782f, -0.05579533f, 0.05904878f, -0.05582015f, 0.03434948f, 0.00532416f, 0.02673355f, -0.08666700f, -0.12421715f, -0.17879391f, -0.19647565f, -0.27551058f, -0.24391598f, -0.00385081f, -0.00567792f, 0.10841008f, 0.00949422f, 0.12156523f, 0.08885545f, 0.06325570f, 0.02884478f, -0.02384192f, 0.02346812f, 0.01925983f, 0.02322740f, 0.00377069f, 0.03995071f, 0.08630484f, 0.02683002f, -0.01789803f, -0.08949749f, -0.07519604f, -0.08936758f, 0.09286720f, 0.02053593f, 0.06918542f, 0.01898807f, 0.01155284f, -0.71719044f, -0.78059399f, -0.69837546f, -0.46953505f, -0.30316144f, 0.05252861f, 0.01660304f, 0.01633056f, 0.00779943f, -0.04684067f, -0.00317627f, 0.01342648f, -0.01554287f, -0.05400399f, -0.02273217f, 0.01134385f, 0.00463450f, -0.04083383f, -0.01028637f, 0.01367541f, 0.04199966f, 0.03234387f, -0.03233749f, -0.01257727f, 0.01485012f, 0.02560224f, 0.08179066f, 0.07560407f, 0.10016864f, 0.06419734f, -0.13525768f, 0.01432652f, -0.01912947f, 0.02604024f, -0.00472240f, -0.07069235f, -0.05903030f, 0.04743070f, 0.09682792f, 0.15571545f, 0.00592215f, 0.10210805f, -0.00065306f, 0.02134236f, 0.03799856f, -0.04149767f, 0.05720101f, -0.02377430f, -0.04376276f, -0.14132623f, -0.07299517f, 0.04321970f, -0.01624643f, -0.06318039f, -0.03184732f, 0.14863387f, 0.25862229f, 0.11156726f, 0.09939385f, 0.06991448f, -0.08931883f, -0.08531803f, -0.07938350f, -0.05023997f, -0.13216531f, -0.04509160f, -0.02658760f, -0.04193388f, 0.00203738f, 0.00825111f, -0.18018603f, -0.17701182f, -0.16477512f, -0.14748423f, -0.18190712f, -0.15382846f, -0.07556668f, -0.05604700f, -0.01871200f, 0.04021860f, -0.01915081f, -0.08146811f, -0.03269693f, -0.02820735f, 0.03390622f, 0.12958366f, 0.01659732f, 0.00430516f, -0.08772579f, -0.04007888f, -0.12300318f, 0.01752997f, 0.05512833f, -0.02846309f, 0.06064713f, -0.00747531f, 0.01717792f, 0.08866049f, 0.05454510f, -0.02452924f, -0.07561220f, -0.00765094f, 0.06851217f, 0.04862297f, 0.04797178f, 0.09650456f, 0.11441528f, 0.00785673f, 0.01390497f, 0.01946059f, 0.13020016f, -0.02350213f, 0.06928949f, -0.00883055f, -0.06255653f, -0.15427543f, 0.10325024f, 0.03027980f, 0.15505794f, -0.07687620f, 0.06398621f, 0.01006637f, 0.01541211f, 0.00276312f, -0.02393762f, -0.00717996f, -0.03743503f, 0.02285816f, -0.01617384f, 0.04228454f, -0.05735169f, -0.02617245f, 0.00009672f, -0.05782657f, 0.00371355f, -0.04605134f, 0.00714368f, 0.02480680f, -0.05434001f, 0.05124635f, 0.15782069f, 0.03836616f, -0.01469277f, -0.14361243f, -0.05708565f, -0.10130563f, -0.05032264f, -0.00147309f, 0.08926861f, 0.11662814f, 0.18291970f, 0.02721347f, -0.01686720f, -0.14185269f, -0.26749632f, 0.16114627f, 0.10726465f, -0.05381725f, -0.04867925f, -0.07715416f, -0.00095711f, 0.00887166f, -0.02165406f, 0.00876996f, -0.07294438f, 0.05708802f, 0.08352505f, 0.14113125f, -0.02947025f, 0.00825925f, -0.20372009f, -0.09163041f, -0.26986653f, -0.20745026f, -0.11240278f, -0.07667077f, 0.01214613f, 0.02565502f, 0.08705974f, -0.01177182f, 0.00869889f, 0.04101228f, 0.04816895f, 0.10777239f, 0.04829813f, -0.06428315f, 0.10221750f, 0.09220976f, 0.02534569f, 0.12318675f, 0.08203918f, 0.02692862f, 0.00932787f, 0.00367195f, 0.02488740f, 0.04103784f, -0.03955265f, -0.15013830f, -0.19297202f, -0.15714240f, -0.00455547f, -0.03018781f, -0.02866191f, 0.02330581f, -0.09668446f, -0.13791789f, -0.05974879f, -0.03140033f, -0.02885435f, -0.01013055f, -0.02142929f, 0.02621604f, -0.04258259f, -0.00258433f, -0.07179789f, -0.02525678f, 0.04357436f, 0.01778203f, -0.03572077f, -0.06631158f, -0.02814328f, -0.06192730f, 0.00372191f, -0.06967814f, -0.06543884f, -0.12427159f, 0.00812380f, 0.03681249f, 0.03070761f, 0.04974416f, -0.03861365f, 0.02753684f, -0.01078504f, -0.05388942f, -0.05413743f, -0.11319949f, 0.03573003f, 0.01305322f, 0.05528743f, 0.02990973f, 0.09632421f, 0.13329691f, -0.00352203f, -0.00805887f, -0.03394780f, -0.35927507f, -0.21110465f, -0.26276505f, -0.25463191f, -0.21195196f, -0.07828585f, -0.00397553f, 0.00637050f, 0.00123064f, 0.06513167f, -0.14541636f, -0.10180175f, -0.09362163f, -0.06895191f, -0.01139403f, -0.06203368f, -0.02500092f, 0.06649011f, -0.03138460f, 0.06115299f, -0.11803626f, -0.15396206f, -0.13484636f, -0.19649376f, -0.06276705f, 0.07291269f, -0.03572202f, -0.01770026f, 0.08235388f, 0.04833729f, -0.03744734f, 0.01807198f, -0.00495826f, -0.02509285f, -0.00102218f, 0.00411126f, 0.11585734f, 0.05446181f, 0.07448074f, 0.14236484f, 0.04775426f, 0.03884963f, -0.05983054f, -0.36998960f, -0.39376161f, -0.25155064f, 0.01723282f, 0.07160041f, -0.04785109f, -0.06344473f, -0.16241103f, -0.01207194f, 0.00360688f, -0.01231182f, 0.07245211f, 0.05332542f, 0.02236360f, 0.10607048f, 0.08498573f, 0.10078840f, -0.12792405f, -0.12513526f, -0.10740335f, -0.01277024f, 0.02447066f, -0.33177325f, -0.16711348f, -0.12023278f, -0.24944340f, -0.29080498f, -0.09700961f, 0.03538581f, 0.11231480f, 0.05975341f, 0.08806513f, 0.01314000f, -0.01009714f, -0.11021414f, -0.10197165f, -0.07756330f, -0.04739704f, 0.00211629f, -0.01114386f, -0.00223636f, 0.00199629f, -0.01431810f, 0.09728603f, 0.09513219f, 0.11355231f, 0.01052421f, -0.03238498f, 0.03146016f, -0.05145139f, 0.02860367f, 0.04090614f, -0.19632269f, -0.24593605f, -0.23503880f, -0.16509557f, -0.12134585f, 0.11454569f, -0.06704431f, -0.07803775f, -0.09378452f, -0.14874519f, 0.05447709f, -0.05427676f, -0.02391696f, -0.02621822f, -0.09260308f, 0.06706396f, 0.09635933f, 0.06478947f, 0.11544207f, -0.00448507f, -0.06520466f, -0.09083223f, -0.00934810f, -0.09526873f, 0.02627508f, 0.19906978f, 0.19234769f, 0.11807563f, 0.02145301f, -0.20244540f, 0.06964745f, 0.05925366f, 0.05681065f, 0.07764840f, 0.04890623f, -0.04479712f, 0.04067976f, 0.00756869f, 0.04449626f, 0.13037427f, 0.00533030f, -0.02628968f, -0.09747884f, -0.09303165f, -0.00267365f, -0.39898655f, -0.25367919f, -0.21368110f, -0.15380588f, -0.06658766f, -0.03251102f, -0.00296355f, -0.02358382f, -0.02053444f, -0.02433246f, -0.05524820f, 0.00079391f, 0.02711116f, 0.03253983f, -0.07992162f, -0.03603447f, -0.02243304f, -0.01045404f, 0.05770347f, 0.08568657f, -0.01555727f, -0.07440311f, -0.01178365f, 0.01981809f, -0.01926080f, -0.10205795f, -0.05108136f, -0.12811314f, -0.11885031f, -0.06202483f, -0.05028818f, 0.04538779f, -0.07950317f, 0.02504218f, 0.01501869f, 0.14734729f, 0.04793058f, 0.00059738f, -0.02996768f, -0.04908132f, 0.00078086f, 0.04177598f, 0.05070636f, -0.01142494f, -0.18040600f, 0.06125581f, -0.00953896f, -0.04105942f, 0.01307143f, -0.12754308f, -0.22932453f, -0.36865005f, 0.03104486f, 0.04758247f, 0.11230027f, 0.08536265f, -0.00221949f, 0.07651190f, 0.08165053f, -0.00008178f, -0.00298699f, 0.01341524f, 0.03139674f, 0.03021418f, -0.05342168f, -0.19321726f, -0.22820263f, -0.10806751f, -0.01535270f, 0.01153906f, -0.01219235f, -0.09383801f, -0.10779908f, -0.07849439f, -0.03926291f, -0.00229647f, -0.08021723f, 0.06470916f, -0.01314229f, -0.05317861f, -0.11589225f, 0.00583561f, 0.04280565f, 0.05159377f, 0.03412623f, 0.00342411f, -0.06946211f, 0.05384592f, -0.03984044f, -0.03716086f, -0.02417134f, 0.00096736f, -0.01084430f, -0.03627540f, -0.09543706f, -0.06257463f, -0.07693777f, 0.04005063f, 0.03490049f, 0.05814656f, -0.05879068f, -0.00204464f, -0.00124680f, 0.02968976f, 0.15052626f, -0.07232373f, -0.03714388f, -0.08626746f, -0.12715070f, -0.05093018f, 0.03581891f, 0.00453916f, 0.02291818f, -0.02998106f, -0.01182509f, -0.05419952f, -0.01607592f, 0.02072481f, 0.04031700f, -0.05346319f, -0.10191016f, 0.02837410f, 0.00000074f, -0.09313089f, -0.04513492f, -0.03877781f, -0.05144243f, 0.00790934f, 0.05584076f, 0.02402970f, -0.05525218f, -0.01989919f, 0.02942891f, -0.09908919f, -0.16817078f, -0.01047525f, -0.03540483f, -0.01652351f, -0.02366405f, 0.00361805f, -0.10620758f, 0.00552891f, 0.06124920f, 0.05097291f, 0.04284204f, 0.01527621f, 0.13363555f, 0.04040198f, 0.01106471f, 0.00331571f, -0.07913847f, -0.03752472f, 0.04116116f, 0.00400486f, -0.06380538f, 0.09406845f, 0.04493613f, 0.03625372f, 0.02124336f, 0.08465186f, -0.09371173f, -0.02542163f, 0.03294383f, 0.00277441f, 0.02886561f, 0.01688782f, -0.01140769f, -0.07973544f, -0.01951229f, -0.05035924f, -0.02440728f, 0.01594104f, 0.02991926f, 0.04752904f, 0.01995439f, 0.00715369f, -0.03143322f, -0.00697723f, 0.06295258f, 0.03098053f, -0.01036113f, 0.05193710f, 0.00116100f, 0.05757857f, -0.01762473f, -0.01243847f, 0.04554454f, 0.04739541f, 0.05773592f, 0.00708555f, -0.12992817f, -0.16420153f, -0.01577093f, 0.03590528f, 0.10510875f, -0.04675266f, 0.05052837f, 0.07642463f, 0.07006394f, 0.06551103f, 0.01988928f, 0.05523449f, -0.03641094f, -0.01305208f, -0.05408091f, -0.15414768f, -0.11773247f, 0.07267710f, 0.04446451f, 0.15145764f, 0.02719229f, 0.01132111f, -0.01955029f, -0.14886154f, -0.13339353f, 0.04552743f, -0.01139329f, 0.03108112f, -0.09918830f, -0.02973287f, -0.04405560f, 0.07349769f, -0.01750841f, -0.03422390f, 0.02121814f, -0.14378603f, -0.05958765f, 0.01915743f, 0.03015286f, 0.04487578f, -0.08599494f, -0.01574605f, 0.02022514f, -0.04103325f, -0.07190400f, 0.10079578f, 0.06495584f, -0.01967069f, -0.05513916f, 0.02165817f, 0.12809567f, 0.00357989f, -0.05035310f, -0.02798650f, 0.05331434f, -0.66478628f, -0.69712818f, -0.56446666f, -0.69124377f, -0.53195369f, 0.12201347f, 0.07621583f, -0.03391547f, 0.00003026f, -0.01233710f, 0.04454238f, 0.01910987f, 0.04872052f, 0.03044717f, 0.01007409f, 0.00878000f, -0.09708142f, -0.04586019f, 0.05855066f, 0.01601403f, 0.01783191f, -0.01720738f, -0.07002644f, -0.00409226f, -0.00253733f, -0.06037818f, -0.02056910f, -0.05798453f, -0.03742900f, 0.05146383f, -0.04280886f, -0.04860581f, -0.14306174f, -0.03847904f, -0.00932154f, -0.01201268f, -0.01973559f, 0.04042595f, -0.06594889f, -0.05457604f, 0.16793343f, 0.07387482f, 0.08594222f, -0.02159959f, -0.03262176f, -0.05173805f, 0.04669284f, 0.00009075f, 0.02900893f, -0.00537604f, -0.02027910f, 0.00499534f, -0.02215003f, -0.02719019f, -0.05152750f, -0.14916900f, -0.34990221f, -0.29721719f, -0.21531874f, -0.08728209f, -0.04500499f, -0.03207365f, 0.00705805f, 0.03664255f, -0.03256427f, -0.12872852f, -0.00791016f, 0.10613424f, 0.01718474f, -0.03615348f, 0.11008243f, -0.02526420f, 0.05714506f, -0.03324160f, -0.06356325f, 0.01077911f, -0.01159808f, 0.03220617f, -0.07989072f, -0.02267040f, 0.10085572f, 0.05897271f, 0.06866050f, -0.00803022f, -0.01819192f, -0.00980208f, -0.00885561f, -0.06655937f, 0.04121162f, -0.01150373f, -0.01720872f, 0.04111394f, 0.05376743f, 0.12051128f, 0.10668032f, 0.01378191f, 0.02052505f, 0.00235846f, -0.02519143f, -0.06855787f, 0.04672989f, -0.05341623f, -0.00027830f, 0.04754714f, 0.06602473f, -0.25611353f, -0.23477924f, -0.17924234f, -0.17880718f, -0.19131185f, -0.03224673f, 0.02308418f, 0.07656199f, 0.02609135f, -0.02109996f, 0.07111783f, 0.05839243f, -0.02086521f, -0.05203140f, -0.03540465f, -0.02335841f, -0.03704753f, -0.07700894f, -0.09148383f, -0.11840799f, 0.03157138f, -0.07447534f, -0.04040959f, -0.04187258f, 0.01691404f, 0.04745839f, 0.03804696f, 0.06241268f, -0.02167052f, -0.12793176f, 0.09313975f, 0.11501964f, 0.11338051f, 0.21860628f, 0.18429326f, -0.01052208f, -0.00740901f, -0.08672550f, -0.14802988f, -0.15814036f, 0.08253375f, 0.13164710f, 0.13323829f, 0.24177732f, 0.24047720f, -0.03611717f, -0.03187849f, -0.04258291f, -0.00005273f, 0.01853463f, 0.07567172f, 0.04151069f, 0.03138984f, -0.09003249f, -0.11841404f, 0.01666463f, -0.05629617f, -0.07978999f, -0.09979547f, -0.12387347f, -0.00187256f, 0.01130252f, 0.04659406f, 0.00179709f, -0.04444401f, 0.07220003f, 0.01783265f, -0.02093644f, 0.01942479f, -0.11773567f, 0.05877087f, -0.08432808f, 0.03265576f, -0.19947919f, -0.23274386f, 0.18573596f, 0.14547032f, 0.07754531f, -0.02158973f, 0.03549066f, 0.01570924f, 0.04344325f, 0.02844084f, 0.01055050f, -0.07689741f, -0.03854072f, 0.04685966f, -0.02613294f, -0.16055492f, -0.31982759f, 0.09374262f, 0.03171875f, -0.00478558f, -0.03632423f, -0.07818764f, -0.41742355f, -0.33215266f, -0.27555445f, -0.23555924f, -0.46454889f, -0.02463634f, 0.03942244f, 0.05618583f, 0.04900394f, 0.03651876f, -0.02987233f, -0.13532637f, -0.15485606f, -0.15504260f, -0.20373239f, 0.04910416f, -0.00963538f, -0.03427081f, 0.05227458f, -0.02507806f, 0.06701577f, -0.01043942f, 0.00224105f, 0.05557495f, 0.01999330f, 0.12731192f, 0.13307649f, 0.10402608f, 0.10401705f, -0.02780989f, -0.01907702f, -0.00778667f, -0.06780991f, -0.02706155f, -0.04743010f, 0.14697935f, 0.02027685f, 0.00548100f, -0.02703892f, -0.00236698f, -0.09056605f, -0.24793124f, -0.30065468f, -0.31511888f, -0.38481617f, 0.13381094f, 0.08221238f, -0.08544058f, -0.02959377f, -0.04522119f, -0.05256689f, -0.02271246f, -0.04334995f, -0.05983904f, -0.08244553f, 0.00798090f, -0.00037111f, -0.01179242f, 0.07081882f, 0.02589327f, 0.06640509f, 0.03968238f, -0.03479529f, -0.12581681f, -0.10414542f, -0.06037188f, -0.03472224f, -0.03536336f, 0.01275890f, 0.13449773f, 0.09065954f, 0.07144115f, -0.05562301f, -0.07033911f, -0.09601373f, 0.06951495f, -0.00111352f, 0.02114875f, -0.00753075f, 0.08941556f, 0.04300487f, -0.00988958f, -0.03779133f, 0.05094687f, 0.03816935f, 0.03776331f, 0.07435027f, 0.08528744f, 0.01017065f, -0.02322625f, 0.19921869f, 0.05280834f, 0.00367507f, -0.09887429f, -0.17571887f, -0.02724505f, -0.06121197f, 0.00303913f, 0.00323158f, 0.03745215f, 0.06468782f, 0.00447818f, -0.00959977f, -0.00970133f, 0.01578224f, 0.04534342f, -0.00238611f, -0.01558608f, -0.14859405f, -0.18540470f, -0.35318923f, -0.45724490f, -0.40254992f, -0.35126045f, -0.36039162f, 0.05450674f, -0.07341792f, -0.01453618f, 0.03568188f, -0.07825003f, 0.07303789f, -0.01254715f, -0.01137428f, -0.02903119f, -0.09223821f, 0.08223452f, -0.02866804f, -0.00013648f, -0.10850652f, -0.09475647f, 0.04256978f, 0.05556821f, 0.03504417f, 0.08401671f, 0.04562076f, -0.15834297f, -0.07065585f, 0.00923677f, 0.09985361f, 0.08326368f, 0.09570267f, 0.05263044f, 0.04950423f, -0.05666442f, -0.07886757f, -0.00791334f, 0.00481769f, 0.18915826f, 0.24651140f, 0.20963860f, 0.09320608f, 0.11291011f, -0.01439441f, -0.00141728f, -0.04452664f, 0.00447028f, -0.03378739f, 0.05462328f, 0.02077671f, 0.04664266f, -0.04601067f, -0.12069905f, -0.03519510f, 0.09325702f, 0.05461435f, 0.09468091f, 0.05760363f, 0.02785372f, 0.02711596f, -0.11579500f, 0.07569660f, -0.03668595f, 0.02197524f, 0.01120007f, -0.00756019f, 0.12473267f, 0.06791763f, 0.04825038f, -0.00489810f, -0.11147071f, -0.08118540f, -0.17168872f, -0.12362571f, -0.01709740f, -0.01842271f, 0.08518209f, 0.04501346f, 0.02259757f, -0.01337787f, -0.13738620f, 0.07768822f, 0.10933112f, 0.08932448f, 0.07074215f, -0.05324373f, 0.04374259f, -0.04698806f, -0.02239508f, -0.11418002f, -0.02603993f, -0.08112399f, 0.03439196f, 0.06691323f, 0.07630138f, -0.02966117f, 0.03286310f, -0.07673945f, -0.08178159f, -0.11260898f, -0.08805275f, -0.14396656f, -0.14316846f, -0.07759193f, -0.06982607f, -0.07167796f, 0.17666160f, 0.12542532f, 0.07571182f, 0.05134913f, 0.15671514f, -0.05648204f, -0.05281951f, -0.08348311f, -0.07599244f, 0.06530514f, 0.00960971f, -0.03674320f, 0.03026299f, -0.00356998f, -0.08072989f, -0.09326330f, 0.01715076f, 0.02715816f, 0.04385112f, 0.05367640f, -0.06275661f, -0.02279000f, 0.04873736f, -0.04432095f, -0.10170846f, 0.04233292f, 0.00790561f, 0.01164046f, -0.07085998f, -0.00370010f, -0.07778748f, 0.03270504f, 0.05856092f, 0.12398606f, 0.06465796f, 0.01060467f, 0.04153122f, -0.02109976f, 0.06063434f, 0.08564246f, -0.02339676f, -0.05088187f, -0.03137630f, -0.01978284f, -0.03794953f, -0.05855987f, -0.04247462f, -0.02306694f, 0.07207070f, 0.09216326f, 0.02739504f, 0.07293637f, 0.01868838f, 0.07861292f, 0.04087093f, 0.19467868f, 0.11030065f, 0.13206004f, 0.00923905f, -0.04067519f, -0.13987319f, -0.06164151f, 0.00317810f, -0.06203734f, -0.04706869f, 0.04506930f, 0.07475842f, 0.01901629f, 0.01432298f, -0.16916201f, 0.13389428f, 0.16676228f, 0.01937522f, 0.02141012f, 0.15070337f, 0.03315116f, -0.07328840f, -0.07844728f, -0.06886667f, -0.02484589f, -0.04251163f, -0.07746374f, -0.05975951f, -0.18831800f, -0.03914023f, -0.01940177f, 0.04510833f, 0.03198371f, -0.03074500f, -0.07872482f, -0.00753196f, 0.01843856f, -0.02653264f, -0.02896088f, -0.06210831f, 0.02735641f, 0.04614585f, -0.04953437f, 0.04701383f, 0.01334172f, -0.20870925f, -0.04968955f, 0.04801498f, 0.08645943f, 0.11157354f, 0.05967112f, -0.05047213f, -0.00251017f, 0.02643222f, -0.06373507f, 0.01180056f, -0.00300733f, -0.11251372f, -0.13973796f, -0.15553772f, 0.10495075f, 0.02601849f, -0.02136135f, -0.12847762f, -0.08033656f, -0.04308484f, 0.07015248f, 0.03616609f, 0.02298697f, -0.04236220f, -0.04323480f, 0.01570729f, 0.07118912f, 0.01919251f, 0.12030333f, 0.00991676f, -0.02172388f, 0.03119271f, 0.01847841f, -0.07000469f, -0.13797960f, -0.20676252f, -0.20121038f, -0.19847797f, -0.03171416f, -0.00222048f, 0.01986623f, 0.01587868f, -0.03700775f, -0.06730467f, 0.04566405f, 0.01463115f, -0.05268886f, 0.01544925f, -0.01441514f, -0.06099119f, -0.01897763f, 0.03054523f, -0.06829078f, -0.00108147f, -0.01105813f, 0.04933090f, -0.02602022f, 0.03967148f, 0.14300711f, 0.03911039f, 0.00925718f, -0.03210056f, -0.04485261f, -0.07257234f, 0.04716330f, -0.00198186f, 0.01577963f, 0.00809774f, -0.02766301f, -0.06673401f, -0.01429325f, 0.07389288f, 0.21184345f, 0.03964787f, -0.04795713f, 0.03315205f, -0.00091455f, -0.01596572f, -0.07390160f, 0.04701942f, 0.04628929f, 0.04910885f, 0.24462034f, 0.15959409f, -0.02708832f, 0.04111475f, 0.04139291f, 0.09832416f, 0.09379927f, -0.02496554f, 0.01562874f, 0.05268013f, 0.00234041f, 0.01831654f, -0.01480634f, -0.07508821f, 0.00891735f, -0.04645905f, 0.07175766f, 0.21199535f, 0.13202935f, 0.04774402f, -0.13935497f, -0.14531255f, -0.21888298f, -0.07286184f, -0.03664307f, 0.07572597f, 0.01720618f, -0.05485905f, 0.05177290f, 0.03064165f, -0.01258312f, 0.08383901f, -0.02584398f, -0.05553031f, -0.01830747f, 0.03797825f, 0.02785152f, -0.13595860f, -0.12722905f, 0.04628466f, 0.05801398f, 0.02349558f, -0.05176724f, 0.06591137f, 0.03094625f, 0.06081490f, 0.10057245f, 0.07199454f, 0.07170106f, 0.03275587f, 0.05325193f, 0.03226099f, -0.08522431f, 0.04826802f, -0.00433069f, 0.06427736f, 0.07206088f, -0.04016802f, -0.05216931f, -0.04167100f, -0.05420103f, -0.10613362f, -0.00432389f, 0.02904497f, -0.01548262f, -0.03401425f, -0.09283190f, -0.06366674f, -0.03717153f, -0.01178521f, -0.02268553f, -0.06532678f, 0.03594664f, 0.02688336f, -0.01336649f, -0.03165345f, -0.09838775f, 0.03805852f, 0.02501823f, 0.05478490f, 0.08003739f, 0.02736646f, 0.21411118f, 0.09542198f, 0.04510289f, 0.01529619f, -0.00976586f, -0.11281519f, -0.04378341f, 0.02937639f, 0.03502976f, -0.00608149f, -0.08927359f, -0.08986256f, -0.13145311f, -0.00899351f, 0.07407394f, -0.06856333f, -0.20423228f, -0.32508588f, -0.37797099f, -0.34983081f, 0.04071268f, -0.00113623f, -0.08418538f, -0.03873534f, -0.00670299f, -0.17774558f, -0.04841394f, 0.02726500f, 0.02557710f, 0.12673049f, 0.07358897f, 0.12635888f, 0.06447509f, 0.14091717f, 0.04920909f, 0.08550609f, 0.13355824f, 0.10633209f, 0.09427174f, 0.01032991f, 0.19913845f, 0.01440116f, 0.02591782f, 0.04283461f, 0.01612595f, -0.02370686f, -0.00303454f, 0.09583362f, 0.10376441f, 0.13914497f, 0.04458345f, -0.02874768f, -0.00170407f, 0.06346669f, 0.07949450f, -0.00263288f, -0.01622890f, -0.00741564f, -0.01452073f, 0.18459740f, 0.07005001f, 0.02543858f, 0.10285524f, 0.12111219f, 0.08743998f, 0.13009696f, 0.07931441f, 0.11223620f, 0.14927746f, 0.00909511f, 0.19688670f, 0.06869116f, -0.00636725f, -0.03661931f, -0.06432986f, 0.04646023f, 0.04278950f, 0.05608070f, -0.05913866f, -0.14761661f, -0.10440816f, 0.08492634f, 0.04071297f, 0.04628623f, 0.02584850f, 0.06349110f, -0.06556965f, -0.09802169f, -0.05826649f, -0.13084464f, -0.05592535f, -0.02810364f, 0.01156311f, -0.03463270f, -0.05449168f, -0.00067959f, -0.00716265f, -0.02282370f, 0.03826040f, 0.07057380f, 0.03520373f, -0.13801515f, -0.08965342f, -0.03141012f, -0.02664593f, 0.00004942f, 0.05526233f, 0.08249689f, 0.05493416f, 0.12835170f, -0.10859369f, -0.08120860f, 0.00166329f, 0.05786775f, 0.04843254f, 0.22615835f, 0.07548643f, 0.07807248f, 0.04986432f, 0.02215658f, 0.07553785f, 0.05134376f, 0.08987598f, 0.06475329f, -0.05953982f, -0.04128358f, 0.07829262f, -0.00317082f, -0.00397402f, 0.09957435f, -0.06831582f, 0.01369912f, -0.00152835f, 0.06532373f, 0.06606080f, -0.03715428f, -0.00878170f, 0.05466855f, -0.06647729f, 0.16536066f, 0.11884250f, 0.02909262f, 0.05989950f, 0.10552825f, -0.01650098f, 0.17321008f, 0.04781805f, 0.05459025f, 0.08348845f, 0.02856842f, -0.06748076f, -0.01241305f, -0.01554507f, 0.05475709f, 0.14341110f, 0.17778775f, 0.06026341f, 0.05348818f, 0.01400224f, -0.09431674f, 0.02418190f, 0.00939620f, 0.02424661f, 0.07364483f, 0.17996621f, 0.01192383f, -0.02970190f, -0.02724918f, 0.02682951f, 0.02908890f, 0.06433487f, 0.02372735f, 0.02550302f, 0.06974895f, 0.12764248f, 0.05200608f, -0.00419329f, 0.05980641f, 0.05828877f, 0.12926787f, 0.00795339f, -0.01294999f, -0.05020356f, -0.03639742f, -0.14691117f, 0.04598019f, 0.05935564f, 0.02251966f, 0.04282231f, 0.00102752f, 0.05503681f, -0.01302115f, 0.01500902f, -0.01187383f, 0.20527340f, 0.14525352f, 0.11747958f, 0.02932187f, 0.05776194f, -0.02722336f, 0.02464182f, 0.05126812f, 0.05406879f, 0.09741927f, 0.15005673f, 0.15882510f, 0.11416633f, 0.01665156f, 0.05989557f, -0.03844592f, -0.02488541f, 0.07470974f, 0.03444237f, 0.04237150f, 0.24918820f, 0.10236680f, 0.00154532f, 0.00811635f, 0.01461973f, 0.01353919f, 0.20328768f, 0.15000278f, 0.08885621f, 0.02974459f, 0.04896384f, 0.04795603f, -0.01845925f, 0.04240970f, 0.01618162f, 0.07714283f, 0.13890593f, 0.07445095f, 0.05160424f, -0.00328306f, 0.04793681f, 0.02532860f, -0.02665266f, 0.00532536f, 0.01811030f, 0.05279263f, -0.04884237f, -0.07681369f, -0.05049323f, -0.04736689f, 0.04238593f, 0.01708473f, 0.05433098f, 0.03413027f, 0.01613119f, 0.00841682f, 0.15716596f, -0.00173607f, -0.06005292f, -0.03625396f, -0.17363913f, -0.00286467f, 0.01723499f, 0.02655316f, -0.01251870f, -0.00412787f, 0.18562028f, -0.00099315f, -0.04856954f, -0.06764001f, -0.10120270f, 0.22345133f, 0.17994490f, 0.03903192f, 0.05000651f, 0.02712230f, -0.02664141f, 0.09740505f, 0.13196857f, 0.16841458f, 0.13452759f, 0.14839320f, 0.00935134f, 0.04008199f, -0.00904274f, -0.00668235f, -0.02923436f, -0.12134521f, -0.03003728f, 0.01512888f, 0.03234206f, 0.18325569f, 0.10229132f, 0.08909798f, 0.06995437f, -0.01641937f, 0.03378548f, 0.00494740f, -0.06596810f, -0.05182328f, -0.05347490f, 0.10975480f, 0.07933700f, 0.09706537f, 0.11920048f, 0.13937800f, 0.25697693f, 0.14493643f, 0.06651490f, 0.10915301f, 0.05217335f, 0.04743224f, 0.00225352f, 0.06286592f, 0.10337750f, 0.09772813f, 0.21577425f, 0.17507486f, 0.04487690f, 0.09069211f, 0.01157455f, -0.07982895f, -0.03295857f, -0.06704979f, -0.04112895f, 0.03771904f, -0.08787132f, -0.06358407f, 0.00497190f, 0.03556794f, 0.07707594f, 0.14943556f, 0.14086077f, 0.09543391f, 0.08246171f, 0.02692343f, 0.04789265f, 0.10559595f, 0.05090183f, 0.04943095f, 0.21154819f, -0.07832146f, -0.06063461f, -0.01602478f, -0.04583684f, -0.01789355f, 0.07001866f, 0.11493958f, 0.09750244f, 0.20233254f, 0.22937997f, 0.08398025f, 0.03268163f, -0.01285440f, -0.00379113f, 0.00123905f, -0.03370725f, -0.05412693f, -0.03251679f, -0.06572916f, -0.07978574f, 0.18208286f, 0.09624480f, 0.12522240f, 0.02223534f, 0.06874653f, 0.02154958f, -0.02942335f, -0.03699606f, -0.10310362f, -0.03602796f, 0.03675392f, 0.01480373f, -0.08151148f, -0.13659871f, -0.22638012f, -0.09532312f, -0.04845697f, -0.14188126f, -0.12971859f, -0.33417651f, 0.17910762f, 0.01511788f, -0.00051765f, 0.05877601f, -0.02225875f, -0.12671126f, 0.01663748f, -0.04975537f, -0.11429373f, -0.18812500f, -0.11622790f, -0.10876960f, -0.06770977f, 0.00969749f, 0.02299227f, 0.14753686f, -0.02233873f, -0.00012183f, 0.04194502f, -0.07243448f, -0.08657345f, -0.08656226f, 0.06099813f, 0.02639111f, 0.00880331f, -0.18846644f, -0.22881408f, -0.22828665f, -0.04923502f, 0.03987955f, 0.16530567f, 0.09232089f, -0.00858451f, 0.04979401f, 0.13059098f, 0.02999753f, -0.03746478f, 0.07146888f, -0.06399506f, -0.02185341f, -0.05122154f, 0.03894864f, 0.08296819f, 0.01825511f, -0.07621372f, -0.01708308f, 0.09715417f, -0.00690517f, 0.06777303f, -0.02977022f, -0.02241413f, 0.01764063f, 0.03327296f, 0.02812963f, -0.11522102f, -0.01002254f, -0.06073179f, -0.04976817f, -0.03067360f, -0.07379787f, 0.03500627f, -0.08769584f, -0.09528615f, -0.07683175f, 0.00713977f, 0.09841488f, -0.06572051f, -0.13552362f, 0.01551375f, 0.06392165f, 0.16127929f, 0.07654361f, 0.00785310f, -0.04691079f, -0.01008759f, -0.26757321f, -0.16364408f, -0.11454759f, -0.06459529f, 0.02613240f, -0.13687702f, -0.05501652f, -0.01930155f, 0.01519090f, -0.06388623f, 0.06984707f, 0.11398674f, 0.03248705f, -0.02094296f, 0.07788025f, -0.06114047f, 0.02571698f, -0.07044457f, -0.00972873f, 0.02188232f, 0.05701059f, 0.08040054f, 0.10717507f, 0.11820833f, 0.09151904f, 0.14555120f, 0.11284997f, 0.02605889f, 0.01850190f, 0.10668193f, 0.01643758f, 0.01680067f, 0.10514753f, 0.14102143f, 0.02995444f, -0.07707822f, -0.08851631f, -0.02946172f, 0.05602781f, 0.09853523f, 0.07392034f, -0.02243070f, -0.01103651f, 0.12355836f, 0.18439718f, 0.01262534f, 0.06030757f, 0.00958193f, -0.07529832f, -0.15617365f, 0.03256988f, 0.01006671f, -0.02675771f, -0.05496557f, 0.01413448f, -0.28251791f, -0.24009803f, -0.14438988f, -0.08446763f, 0.04501006f, -0.03091303f, 0.03546390f, 0.02780892f, -0.05340166f, -0.22772263f, -0.05260597f, -0.07492044f, -0.04899687f, 0.04980442f, 0.04069142f, 0.05568956f, 0.05962412f, 0.09487358f, 0.08488522f, 0.04757841f, -0.08865213f, -0.06278615f, -0.02130469f, 0.06502882f, 0.05639303f, 0.10537396f, 0.00106024f, 0.03214933f, -0.00117468f, 0.01572212f, 0.07110009f, 0.04083162f, 0.01662310f, -0.02718400f, -0.09914831f, -0.11135819f, -0.12038669f, -0.01389047f, -0.02985073f, 0.05542957f, -0.09906857f, 0.05476721f, 0.01236505f, -0.16994955f, -0.30823007f, 0.02083415f, 0.00701386f, -0.02430586f, -0.11924032f, -0.00612488f, -0.07327846f, -0.07813288f, -0.06500474f, -0.13310297f, -0.17768869f, 0.03156919f, 0.00876118f, -0.19981772f, -0.23854117f, -0.24025565f, 0.04729067f, -0.09635665f, -0.07585767f, 0.03720322f, 0.09480260f, 0.12305273f, 0.00114526f, 0.06315269f, -0.00309707f, 0.11598698f, 0.08278485f, -0.03329181f, 0.02386376f, 0.04467467f, 0.04550774f, 0.15417011f, 0.03671492f, -0.06774842f, -0.04610067f, 0.02251464f, 0.06816146f, 0.01247158f, 0.01488878f, -0.00907366f, 0.06591104f, -0.00994693f, 0.03740579f, -0.01922325f, -0.07158584f, -0.09965773f, 0.14576267f, 0.01456590f, -0.11438769f, -0.10047963f, 0.01024802f, -0.04216216f, -0.02848622f, -0.05312572f, 0.05275457f, -0.06341735f, 0.16119938f, -0.00728965f, -0.01985901f, -0.04593232f, 0.09792260f, 0.07364517f, -0.10721617f, -0.02854026f, -0.08947717f, -0.09684445f, -0.03777612f, -0.02543644f, -0.10805653f, -0.14168587f, -0.21428983f, -0.00759977f, 0.01569184f, -0.04395359f, -0.03164731f, 0.02466896f, -0.04069808f, 0.04999220f, -0.03315094f, -0.06346471f, -0.21690089f, 0.05108036f, 0.06971727f, -0.00770779f, -0.03991519f, 0.07351098f, -0.05363400f, 0.00111586f, 0.10828406f, 0.07990376f, 0.14494181f, 0.14147294f, -0.03414811f, -0.03017537f, -0.00293128f, 0.05712776f, 0.14351174f, -0.01613814f, 0.00727430f, 0.01923454f, 0.05963524f, -0.02243868f, -0.00126580f, -0.09397670f, -0.14289805f, -0.27704176f, -0.03469553f, -0.00590882f, -0.02070939f, 0.05033311f, 0.10515822f, 0.00140213f, 0.02844202f, -0.08845295f, -0.11093233f, -0.11887863f, 0.09598882f, 0.07560699f, 0.07581768f, 0.03479085f, 0.10325824f, 0.05105398f, -0.07290918f, -0.04400342f, -0.08149509f, -0.08093730f, -0.05978334f, -0.01503495f, -0.04343652f, -0.01460307f, 0.08720060f, -0.00229156f, 0.05049361f, 0.05129258f, 0.07907429f, 0.08165832f, 0.09132345f, -0.00019844f, 0.12281217f, 0.08165166f, 0.09060814f, 0.06591455f, -0.00511347f, 0.01738654f, -0.00237305f, -0.02827012f, -0.01617688f, 0.04315354f, 0.06530019f, 0.10780599f, 0.18369943f, 0.07886408f, 0.05822087f, 0.04853396f, 0.01054963f, 0.04386060f, -0.06000258f, -0.06399759f, -0.17317829f, -0.23479491f, -0.16283372f, -0.45625344f, -0.16073732f, -0.04649478f, -0.07293832f, 0.09262741f, -0.02691428f, -0.01864431f, 0.02323575f, 0.00505133f, 0.09291115f, -0.11583199f, -0.00495896f, 0.07225514f, -0.02471546f, -0.04599999f, 0.09177300f, -0.00574595f, -0.06898333f, -0.07125022f, -0.08507048f, -0.32230321f, -0.20553705f, -0.10786963f, -0.00534767f, 0.03297786f, 0.13852271f, 0.12128866f, 0.07834138f, 0.10686468f, 0.07596064f, 0.11038454f, 0.07062332f, -0.04749797f, -0.02774089f, -0.00450277f, 0.07752517f, 0.05870124f, 0.10184051f, 0.15067534f, 0.04642406f, 0.02744623f, -0.06839014f, -0.08035515f, 0.02050622f, -0.04113455f, 0.01659455f, 0.01178888f, 0.00150035f, 0.09357165f, 0.06742790f, 0.08548147f, 0.13038486f, 0.13519263f, 0.09051877f, 0.04763716f, -0.00476927f, 0.06530190f, 0.05619774f, 0.07742308f, 0.13889211f, 0.04131915f, -0.02104252f, -0.04450645f, -0.05911346f, -0.01457570f, -0.10979951f, -0.03555856f, 0.05333640f, 0.02883842f, -0.00665274f, -0.05462428f, -0.00546242f, 0.04519906f, 0.01795042f, 0.04992185f, -0.04390878f, 0.06873736f, 0.06524001f, 0.10760336f, 0.10511855f, -0.11537990f, -0.06318195f, -0.01571016f, 0.06338089f, 0.23952052f, 0.06369650f, -0.06074912f, -0.05460265f, 0.02700488f, 0.07225258f, 0.02695823f, 0.01681791f, -0.00732181f, 0.00843237f, 0.08658911f, 0.02019428f, 0.02680819f, -0.03948718f, 0.00988612f, 0.01798560f, -0.06859783f, 0.05060206f, 0.03763030f, 0.01141869f, 0.00295398f, 0.14479895f, 0.08418521f, 0.11382618f, 0.06241459f, 0.08535689f, -0.07448248f, -0.04843943f, -0.05886666f, 0.06608386f, 0.03979550f, 0.11006147f, 0.05318313f, 0.00167958f, 0.08046546f, 0.03439480f, -0.01553691f, 0.04928897f, 0.10636932f, 0.13112801f, 0.11745797f, 0.08096069f, 0.11418840f, 0.00425331f, 0.09178513f, 0.12608606f, 0.10719771f, 0.04550750f, 0.02091131f, 0.04719580f, 0.10382757f, 0.09062476f, 0.11806649f, 0.01251256f, 0.01590451f, 0.10967118f, 0.07008254f, 0.01782935f, 0.12823817f, 0.15137862f, 0.20198938f, 0.10220675f, 0.04980439f, 0.07418766f, 0.11919285f, 0.15068966f, 0.11330779f, 0.10456868f, 0.02988070f, 0.06322996f, 0.10760762f, 0.11246584f, 0.01748060f, -0.05694774f, -0.05724721f, -0.06557086f, 0.07448675f, 0.01789388f, 0.02664432f, 0.04384012f, 0.06286032f, 0.07772834f, 0.07902727f, 0.02501752f, 0.05351227f, 0.09512026f, 0.07873803f, -0.00095791f, -0.11160238f, -0.09974103f, -0.01355296f, -0.28395697f, -0.12570375f, -0.03092732f, 0.04975374f, 0.07197134f, -0.17432882f, -0.04906508f, -0.05384772f, -0.03564139f, -0.05375391f, 0.03060420f, -0.00321820f, -0.02716880f, 0.05054217f, -0.01349221f, 0.08197434f, -0.08149000f, -0.04409316f, 0.00535498f, -0.00568906f, 0.03891766f, 0.07461280f, 0.08850394f, 0.02955465f, 0.06285568f, 0.02578786f, 0.04819436f, -0.00527982f, 0.02136970f, -0.06096707f, -0.04751874f, 0.02828232f, 0.01997081f, 0.01505220f, 0.03794921f, 0.08849931f, -0.01471905f, -0.03878123f, 0.02251549f, 0.01331090f, -0.04101238f, 0.04092063f, 0.08866583f, 0.13900630f, 0.12086631f, -0.07511007f, -0.02351621f, -0.02180642f, 0.03921486f, 0.13638943f, 0.03512858f, 0.02309750f, -0.02019942f, 0.02961709f, -0.03218199f, -0.06183008f, -0.00362540f, 0.07974440f, 0.13658342f, 0.13108134f, 0.03078046f, 0.04422755f, 0.08001786f, 0.00644850f, 0.06476066f, -0.03224416f, -0.03438040f, 0.06343318f, 0.02950870f, 0.05691662f, -0.08011277f, -0.04361469f, -0.07317109f, 0.03260341f, -0.01233624f, -0.20156720f, -0.00865279f, 0.03619586f, 0.09203109f, 0.03956839f, -0.07373071f, -0.07846857f, 0.02726488f, 0.04309350f, 0.09384342f, 0.15817194f, 0.03962347f, 0.10028601f, 0.14122553f, 0.08117520f, -0.01245836f, -0.05273502f, 0.02116770f, 0.04535105f, 0.00433785f, 0.11514877f, 0.05145499f, 0.07170800f, 0.09313030f, 0.14754850f, -0.01886018f, -0.04028195f, -0.07036817f, 0.01814142f, 0.06861502f, -0.38241765f, -0.21471509f, -0.14417689f, -0.01229437f, 0.11631265f, 0.13253839f, 0.14272304f, 0.18844707f, 0.20305263f, 0.10969774f, -0.06472293f, -0.02315843f, -0.03523929f, -0.01780117f, -0.02511705f, 0.07657827f, -0.00142318f, 0.00358938f, 0.03984160f, 0.03235219f, -0.14836915f, -0.14723599f, -0.24709879f, -0.28895688f, -0.26490477f, 0.08751798f, 0.03002324f, -0.00785319f, 0.06986427f, 0.07942665f, -0.09610056f, -0.02012233f, 0.03540288f, 0.00067879f, 0.00773612f, -0.04064338f, -0.09802817f, -0.21572869f, -0.31547302f, -0.33730164f, 0.08048602f, 0.07136972f, 0.01732449f, 0.07395684f, -0.03082976f, 0.00925199f, 0.07439809f, 0.05725160f, 0.12276864f, 0.14481367f, 0.00329099f, -0.01650594f, -0.04666857f, -0.02657470f, 0.05233985f, -0.32376605f, -0.16935436f, -0.11949421f, 0.05268173f, -0.12323465f, 0.05751752f, 0.01101272f, 0.00582308f, 0.01177091f, 0.00373361f, -0.17409970f, -0.12663853f, -0.13036384f, -0.18291213f, -0.31607988f, -0.28209245f, -0.13489750f, -0.19837736f, -0.13904364f, -0.15104890f, -0.18142609f, -0.09880555f, -0.13025908f, -0.11063346f, -0.26131034f, -0.03340890f, -0.05755135f, -0.00524231f, 0.02241275f, -0.02746118f, -0.01819101f, 0.01729541f, -0.01254933f, -0.06165009f, -0.00571048f, 0.00504032f, -0.02900936f, -0.01655251f, -0.11376885f, -0.06262381f, 0.09033342f, 0.03774659f, 0.11086723f, 0.10770775f, 0.07464451f, -0.18951228f, -0.12889563f, -0.09336774f, -0.11501492f, -0.13111477f, 0.00680151f, -0.00363543f, -0.05333951f, -0.08938807f, -0.02809294f, -0.01790329f, 0.04495080f, -0.01403600f, 0.04855840f, -0.00668305f, 0.03943411f, 0.05211375f, 0.00000320f, -0.08507349f, -0.02034158f, 0.07520538f, 0.04280122f, 0.03068162f, 0.10638597f, 0.04350387f, 0.04876630f, -0.04582008f, 0.01236181f, 0.02294742f, -0.01590269f, 0.04609844f, 0.03589728f, 0.00645206f, -0.04972447f, 0.01178653f, -0.08071628f, -0.08941482f, -0.05047210f, 0.08702691f, 0.06590247f, 0.04212416f, 0.02546986f, 0.02374549f, -0.04164812f, -0.03568184f, -0.12148651f, -0.10615545f, -0.01770890f, 0.03744399f, -0.08366584f, -0.03440675f, 0.01070162f, 0.02478034f, -0.02070357f, -0.03538616f, -0.04176268f, 0.06043515f, 0.08865904f, 0.11874297f, 0.06596528f, -0.01337195f, -0.01975983f, 0.00029988f, -0.05444884f, -0.07513838f, -0.12723620f, -0.12710349f, -0.07010087f, 0.00618513f, -0.05219182f, 0.00198741f, -0.00515616f, -0.02511693f, -0.08228362f, 0.00038610f, -0.04119419f, -0.16070509f, -0.10069332f, -0.05605649f, -0.04578919f, 0.05247835f, 0.05529552f, 0.07496062f, -0.00933359f, 0.15287869f, -0.01197598f, -0.05446509f, -0.00132752f, -0.01722475f, -0.08173911f, -0.13956472f, -0.14704934f, -0.10281339f, -0.00338526f, -0.08249097f, -0.16353133f, 0.02467885f, -0.14613035f, -0.05117697f, -0.10855044f, -0.13321720f, -0.05703869f, -0.14933677f, -0.18669613f, -0.13199331f, -0.05028078f, -0.00697910f, -0.00217765f, -0.04875557f, -0.01055809f, -0.29366118f, -0.15985911f, -0.06899375f, -0.15691517f, -0.21750525f, 0.06815583f, -0.06593045f, 0.03581636f, 0.05047319f, 0.01233192f, 0.02479499f, 0.00134821f, -0.01002974f, -0.01105879f, 0.14065182f, -0.03757304f, -0.02983898f, -0.00724125f, -0.03322892f, -0.01139198f, -0.11962807f, -0.02409386f, -0.04535571f, -0.06944721f, -0.00045190f, 0.02505384f, 0.02218882f, 0.03561841f, -0.02214611f, -0.06168570f, -0.01131987f, -0.11195032f, -0.09433603f, -0.06105520f, -0.11328873f, 0.09305706f, 0.04670768f, -0.01215415f, 0.03176963f, 0.03576131f, -0.06794811f, -0.05328413f, -0.04433731f, -0.07589287f, -0.08479976f, 0.11322299f, 0.11333396f, -0.00227432f, 0.00843491f, -0.08958022f, 0.08373974f, 0.10047428f, 0.07964469f, 0.06553495f, 0.07225924f, -0.12339838f, -0.15802754f, -0.26163897f, -0.30676016f, -0.16204585f, 0.05694932f, 0.08076040f, -0.01458446f, -0.05108508f, -0.11600967f, -0.14514944f, -0.12595052f, -0.25950167f, -0.29078993f, -0.26684469f, 0.05144970f, 0.05821307f, -0.02536812f, -0.02292221f, -0.07671906f, 0.00672992f, -0.04314557f, 0.07944138f, 0.05415924f, 0.14917819f, 0.13501969f, 0.10461678f, 0.07100379f, 0.05313957f, 0.01203107f, -0.06318258f, -0.00168432f, -0.08029554f, -0.09181754f, -0.12038866f, -0.02020586f, -0.07966609f, -0.03241207f, -0.08605812f, -0.05356380f, -0.03233725f, -0.08989992f, 0.05421225f, 0.05363574f, 0.04961292f, 0.03331226f, -0.03708573f, -0.04088340f, 0.00439093f, -0.00090970f, 0.01010461f, -0.05574674f, -0.03270784f, -0.07081436f, 0.03387592f, 0.15859583f, 0.13982299f, 0.11184299f, 0.05766429f, -0.00872613f, -0.20396389f, -0.19187731f, -0.19498883f, -0.09067690f, -0.05782178f, -0.02132635f, 0.00300619f, 0.00297563f, -0.05337382f, -0.05494779f, 0.06190679f, 0.08914380f, 0.16248098f, 0.06409149f, 0.13865639f, -0.01673689f, 0.02871703f, -0.03101846f, -0.05125463f, -0.00754250f, -0.02696367f, -0.03667656f, -0.03237676f, 0.04473096f, 0.23010831f, 0.01134481f, 0.12261013f, 0.16976906f, 0.16879353f, 0.19026986f, 0.15403649f, 0.04900152f, 0.10855902f, 0.06791726f, -0.14876658f, 0.20457460f, 0.01471329f, 0.08103549f, 0.00173225f, 0.00035505f, 0.10751179f, 0.04223854f, 0.02578449f, -0.08298095f, -0.27052861f, -0.21522355f, -0.00842328f, 0.01633492f, 0.00021424f, 0.15417624f, 0.08940140f, -0.03715137f, -0.03657205f, -0.00050884f, -0.12039977f, 0.03212198f, 0.02904795f, 0.01645035f, -0.03408985f, -0.07054688f, 0.01394452f, -0.00544003f, 0.00841594f, -0.01458612f, -0.04878013f, 0.02659537f, -0.04420466f, 0.04439651f, 0.03517297f, 0.05979427f, -0.02183877f, 0.06836081f, 0.02767711f, -0.03260566f, 0.03119585f, -0.16849193f, -0.08954532f, -0.04480498f, -0.07385302f, -0.24224150f, 0.09833971f, 0.06206303f, 0.06205682f, 0.08379046f, 0.09736364f, -0.07046618f, 0.01558458f, 0.08577709f, 0.01684179f, -0.13756241f, -0.12062097f, -0.00773213f, -0.06877930f, -0.01937583f, 0.13790856f, 0.02432135f, 0.01672098f, 0.03194217f, -0.02532119f, 0.04339154f, -0.04676109f, -0.08429666f, 0.01462172f, -0.03726087f, 0.21361777f, 0.05368317f, -0.02390841f, 0.06669205f, 0.05680916f, 0.13252679f, 0.07078945f, 0.04954290f, -0.00979478f, -0.01494099f, 0.00667396f, -0.04257980f, -0.02052328f, 0.00124773f, 0.07730381f, 0.19434477f, 0.26271585f, 0.01125181f, -0.01749629f, 0.05296290f, -0.08165612f, 0.04751633f, 0.01894815f, 0.01984435f, 0.06658427f, 0.24069591f, 0.07859592f, 0.08049043f, 0.02676075f, 0.05851135f, 0.19629878f, -0.08584195f, -0.00567259f, -0.01990070f, -0.00078283f, 0.03179672f, 0.00503353f, 0.05409802f, 0.01795386f, -0.00009872f, 0.00855838f, 0.07276000f, -0.00048597f, -0.00895963f, -0.11445261f, -0.28155708f, 0.05579999f, 0.03838908f, 0.07085321f, 0.06452834f, 0.18149541f, 0.05298498f, -0.01688270f, 0.07134797f, 0.03070891f, 0.18448921f, 0.10871786f, 0.03004388f, 0.08104282f, 0.02452148f, 0.03809104f, -0.02712706f, 0.00308007f, 0.05525590f, 0.08654945f, 0.05590753f, 0.02192629f, -0.01486342f, 0.02576086f, 0.02076230f, -0.02160108f, -0.02285752f, 0.02600114f, -0.04193128f, -0.03788919f, 0.26882493f, 0.00383442f, 0.00318524f, -0.02629591f, -0.04040284f, 0.00954218f, 0.09399228f, 0.06433223f, 0.07907610f, 0.04605111f, 0.11834032f, 0.05837427f, 0.05569655f, 0.05967880f, 0.03628249f, 0.00995766f, 0.03937704f, -0.05466066f, -0.03208200f, 0.00453441f, -0.01306617f, 0.02612013f, -0.01644840f, -0.00521032f, -0.04571658f, 0.02832946f, -0.01103016f, 0.04907089f, 0.03249924f, 0.04257311f, 0.02138264f, 0.15457895f, 0.17323029f, 0.01045849f, 0.05665898f, -0.02388267f, 0.24850965f, -0.02163957f, 0.05188571f, -0.04680593f, -0.15882277f, -0.12556534f, 0.07923862f, 0.12185800f, 0.06608926f, -0.20851536f, 0.22856125f, -0.04386577f, -0.07080679f, -0.10742104f, -0.02284113f, 0.14014593f, 0.04375761f, 0.07270895f, 0.11785813f, 0.07541224f, 0.03031348f, 0.03211030f, 0.03902439f, 0.03382650f, 0.08488229f, 0.11096776f, -0.01752324f, 0.02830313f, 0.02596886f, 0.02943368f, 0.04980878f, 0.02105048f, -0.05373526f, -0.08053182f, -0.00459624f, 0.08724515f, 0.05232289f, 0.05187334f, 0.03048129f, 0.02487219f, -0.14531565f, -0.08648526f, -0.06529938f, -0.10917588f, -0.08565205f, 0.02070976f, 0.06174650f, 0.05141173f, 0.02490519f, -0.04846801f, -0.00815748f, 0.02657436f, 0.02397315f, 0.10801994f, 0.03993611f, 0.10514694f, -0.00202711f, -0.01743175f, -0.01915169f, -0.03859073f, -0.03854989f, 0.03249907f, 0.07432943f, 0.09292737f, 0.10282864f, -0.06372564f, 0.01360984f, 0.02767304f, -0.01877458f, 0.17012650f, -0.20962834f, -0.01728485f, 0.05618791f, -0.00503884f, -0.04583096f, 0.14507063f, 0.06868264f, 0.05797978f, 0.01878785f, 0.03939955f, -0.01121812f, 0.00923800f, 0.08376812f, -0.01724184f, 0.12425840f, -0.35949719f, -0.30357388f, -0.19115883f, -0.23871762f, -0.19497992f, -0.00878635f, -0.01013471f, 0.00380959f, -0.01161472f, 0.04327671f, 0.26135114f, 0.03952100f, -0.10045824f, -0.09326773f, -0.11238808f, 0.04088625f, 0.00107173f, -0.02092351f, -0.00092429f, -0.07154983f, 0.23905616f, 0.22989684f, 0.20457256f, 0.13775352f, 0.17276914f, -0.26648194f, -0.14357114f, -0.24123961f, -0.20083687f, -0.30858639f, -0.10584141f, -0.05942860f, -0.13901840f, -0.08345579f, -0.11971250f, -0.09439640f, -0.11675628f, -0.13615999f, -0.06949761f, 0.00302434f, 0.06732743f, 0.05921139f, 0.05687937f, 0.03179282f, -0.05180797f, -0.15291214f, -0.21002699f, -0.19788286f, -0.25015932f, -0.24176139f, -0.02242195f, -0.05703087f, -0.12588480f, -0.19405311f, -0.26372042f, -0.02121504f, 0.02199453f, 0.04248847f, 0.07271215f, 0.08998202f, 0.08597759f, 0.04820520f, 0.02935639f, -0.04579107f, 0.03714039f, 0.05325090f, 0.03788551f, -0.03312711f, -0.02027442f, 0.00378506f, 0.15709339f, 0.01059131f, -0.03040164f, 0.04702445f, -0.01432106f, 0.13124672f, 0.04444009f, -0.00814147f, 0.04893929f, 0.14859745f, 0.00086207f, -0.01910357f, -0.05924472f, 0.03448269f, 0.04236636f, -0.09679056f, -0.08328485f, -0.02562856f, -0.06620611f, 0.02029636f, -0.10955811f, -0.06247807f, -0.07200575f, -0.06145769f, 0.02087066f, 0.08053406f, -0.04223785f, 0.08350410f, 0.11699053f, 0.04912484f, -0.10545304f, -0.04048086f, -0.04252755f, 0.01612601f, -0.04976965f, 0.06842630f, 0.03430010f, -0.05996080f, -0.09746308f, 0.01811959f, 0.03993733f, 0.07362571f, 0.05745817f, 0.09649986f, 0.04732288f, -0.07669544f, -0.03027237f, -0.07704341f, -0.02164629f, 0.15641785f, 0.08190873f, -0.04424076f, -0.01339882f, -0.02056712f, 0.00405342f, -0.03143851f, 0.10628715f, 0.05412775f, -0.00460718f, -0.07840456f, -0.10244571f, -0.02430497f, -0.09503739f, -0.10660510f, -0.16091546f, 0.02299844f, 0.07359201f, 0.02202687f, 0.02593087f, 0.08822966f, -0.07488635f, 0.04303062f, -0.05358458f, -0.08265377f, -0.02485874f, -0.03001870f, -0.02052457f, -0.04118804f, 0.04578127f, 0.15136267f, -0.12717663f, -0.13837452f, -0.13723712f, -0.13528717f, -0.12195137f, 0.06043853f, 0.08711600f, -0.06407549f, -0.02004139f, 0.01113982f, -0.08739329f, -0.09273531f, 0.02159786f, -0.03809737f, 0.08892083f, 0.07227627f, 0.06673733f, 0.06046294f, 0.03083707f, 0.02240936f, 0.10035770f, -0.04351668f, 0.07601300f, 0.05319344f, 0.03179206f, -0.16449223f, -0.09506935f, -0.18482830f, -0.12360377f, -0.10769934f, -0.03463339f, -0.04634031f, -0.02498969f, 0.02625324f, -0.00404451f, 0.00811326f, 0.03348535f, 0.02367309f, 0.01025792f, -0.00869376f, -0.05894932f, -0.04159445f, -0.01213196f, -0.02172685f, 0.00084759f, 0.09930128f, -0.00584230f, 0.01101002f, 0.03582390f, -0.00063269f, -0.12682863f, -0.20828426f, -0.19330589f, -0.21837777f, -0.21830262f, -0.11805946f, -0.09182471f, 0.02052383f, -0.00632340f, 0.01049768f, -0.02815202f, -0.07717393f, -0.02543307f, -0.06378178f, 0.02834499f, -0.07870980f, -0.00704704f, -0.04594493f, -0.06514241f, -0.09976628f, -0.19324006f, -0.23818906f, -0.27745983f, -0.23355496f, -0.35704234f, -0.01565125f, -0.06073193f, -0.11705072f, -0.10077375f, -0.02229992f, 0.15293418f, 0.09608858f, 0.05588755f, 0.01950031f, -0.04951518f, -0.30036500f, -0.10454399f, -0.09611412f, -0.01045535f, 0.06432341f, 0.10907958f, -0.06141842f, 0.00570190f, -0.02911893f, -0.01857308f, 0.16170943f, -0.00082380f, 0.07588195f, -0.02914084f, 0.00586970f, 0.01256266f, 0.00814393f, -0.00448227f, -0.02175780f, 0.08750501f, -0.01084822f, 0.01520228f, 0.00279269f, -0.01844591f, 0.06609921f, -0.07317378f, -0.08444677f, -0.11376999f, 0.00425690f, -0.14381339f, 0.12863082f, -0.00429653f, 0.02916347f, -0.05082437f, -0.11165725f, -0.15219434f, -0.00565899f, -0.04489624f, 0.04939154f, 0.00054779f, 0.05532157f, 0.01514505f, -0.03158259f, 0.01859665f, 0.03234397f, -0.03786108f, -0.08804604f, -0.00041488f, 0.05082826f, 0.07302611f, -0.08681888f, -0.01624112f, -0.04426435f, -0.09652843f, -0.17914389f, -0.03270347f, -0.03048319f, -0.01556092f, 0.00213355f, 0.05043991f, 0.04504526f, 0.01252937f, 0.03122566f, -0.06380728f, -0.12017272f, 0.02720394f, -0.08022588f, -0.01259602f, -0.00539495f, 0.05958594f, 0.10878323f, 0.13063829f, 0.05340290f, 0.05156058f, 0.02733699f, 0.04622892f, 0.04998486f, 0.02300330f, 0.06246087f, 0.04323046f, -0.21698816f, -0.21570483f, -0.28635323f, -0.15429607f, -0.19463640f, 0.15538985f, 0.08350199f, 0.10282272f, -0.03678124f, -0.12951477f, -0.08716836f, -0.11793842f, -0.01348034f, 0.01979422f, -0.00232936f, 0.02108373f, 0.04441183f, 0.03317744f, -0.06510244f, -0.01050572f, 0.07021951f, -0.01079562f, -0.02202282f, -0.03732194f, 0.02977504f, -0.21150477f, -0.19471002f, -0.13762030f, -0.07727551f, -0.01144901f, 0.15394142f, 0.04814598f, 0.12580767f, 0.11796677f, 0.15447657f, 0.02527366f, 0.04559816f, 0.04854094f, 0.11401826f, 0.08929455f, 0.03198416f, 0.02061540f, 0.00098363f, 0.06507922f, 0.12986149f, -0.16270150f, -0.14801940f, -0.14151555f, -0.08665456f, -0.11153651f, 0.03838706f, 0.03959739f, 0.03872263f, 0.05095364f, 0.08988994f, 0.01570213f, -0.05320069f, -0.06661107f, -0.09368552f, -0.04702088f, -0.04930602f, 0.06312600f, 0.10965207f, 0.02586201f, -0.11769256f, 0.03663460f, 0.01563778f, 0.07965343f, -0.04823792f, -0.16989273f, -0.10174107f, -0.03101501f, -0.08841030f, 0.06736508f, 0.03029428f, 0.02381299f, 0.09942522f, -0.00432934f, 0.05323673f, -0.00045397f, -0.00447689f, 0.11131463f, 0.01171191f, -0.01679354f, -0.18051149f, 0.07042966f, 0.09672692f, 0.03019012f, 0.05407369f, 0.12061074f, -0.01079354f, -0.02771360f, 0.00414078f, 0.10037361f, 0.09011970f, 0.05977469f, 0.10010000f, 0.04742853f, 0.10963443f, 0.13971636f, -0.04954623f, -0.03243359f, -0.09339772f, -0.03953989f, -0.00241731f, -0.04013765f, 0.00730572f, -0.07325570f, 0.01877299f, -0.01597253f, 0.08909182f, 0.06667138f, -0.00139514f, 0.06961513f, -0.01749233f, -0.15231517f, -0.10474003f, -0.12722984f, -0.05585426f, -0.08072405f, 0.08669450f, 0.03698415f, -0.00111905f, 0.01334363f, 0.04217986f, 0.04515432f, -0.02188850f, -0.06114665f, -0.06891980f, 0.21438554f, 0.11983499f, 0.07761290f, 0.06367496f, -0.02480986f, 0.08934541f, 0.13260436f, -0.02470596f, 0.03723746f, -0.00112265f, 0.04094276f, -0.05740983f, -0.15893677f, -0.21001388f, -0.14472474f, -0.14574076f, -0.16420031f, 0.01378195f, -0.04211474f, -0.03538033f, -0.07266381f, 0.04269385f, -0.13651279f, -0.11641371f, -0.11815304f, 0.11423360f, 0.14241759f, 0.11822227f, 0.06104406f, 0.09416510f, 0.04207037f, -0.00667948f, 0.02129650f, -0.03191129f, -0.11528543f, -0.22922885f, 0.14657375f, 0.01371310f, 0.09188137f, 0.10269742f, 0.08532637f, 0.10959868f, 0.13420153f, 0.13623598f, -0.07227381f, -0.12417701f, 0.09104464f, 0.03284196f, -0.14130117f, -0.08652676f, 0.05389631f, 0.06632829f, -0.09741808f, 0.09033748f, 0.02649831f, 0.14003135f, -0.00303930f, -0.03279872f, 0.03235207f, 0.00689602f, 0.08049609f, 0.02191626f, -0.00849394f, -0.04698619f, -0.07568889f, -0.13040426f, 0.06188584f, 0.02271670f, -0.03804183f, -0.05248521f, 0.06847527f, -0.07584300f, -0.05466295f, -0.05803432f, -0.10569545f, 0.07984621f, 0.14318535f, 0.02112261f, 0.02071625f, 0.12755914f, 0.08357227f, 0.02562899f, 0.04015324f, -0.01233972f, 0.06185592f, 0.02158069f, 0.12878895f, 0.10616046f, 0.07098755f, 0.06404672f, 0.17516598f, 0.06516494f, 0.01972623f, 0.06278930f, 0.02240003f, 0.06447240f, 0.10662995f, 0.09735723f, 0.10829433f, 0.12315740f, 0.19219078f, 0.12795101f, 0.11161181f, 0.04325591f, 0.14617641f, 0.17046121f, -0.18587765f, -0.07876527f, -0.04478468f, -0.07582479f, 0.04020494f, -0.13689016f, -0.03593393f, -0.01622793f, 0.01896779f, 0.00710278f, -0.07576248f, 0.05882696f, -0.12414328f, -0.08727375f, -0.01985540f, -0.10060759f, -0.14637177f, -0.05314414f, 0.02822594f, 0.08570190f, -0.07906184f, -0.06947645f, -0.16483447f, -0.06265359f, -0.07855105f, 0.05729638f, 0.08907358f, -0.01269698f, -0.01634597f, 0.01436005f, 0.01638446f, -0.01562561f, -0.01597038f, 0.02473576f, 0.06969539f, 0.01495266f, 0.00693272f, -0.01223207f, 0.01553207f, 0.06956200f, 0.04488755f, -0.01586688f, -0.07477728f, -0.03953603f, -0.03580424f, -0.01510673f, 0.03565211f, 0.14874496f, -0.07785601f, -0.22078125f, 0.09421673f, 0.09537669f, 0.01546901f, 0.10842089f, 0.10592978f, 0.02717699f, 0.00639779f, -0.00351250f, -0.06416438f, 0.03960871f, 0.04478748f, 0.02404494f, 0.03685551f, 0.03653078f, 0.19437598f, 0.07448811f, 0.02874478f, 0.00110509f, 0.05421263f, 0.05059460f, 0.16812605f, 0.06793723f, 0.07835360f, 0.08905054f, 0.18079844f, -0.05646943f, 0.05707151f, 0.01285932f, -0.04148868f, -0.18946435f, -0.12034269f, -0.03555072f, -0.00443643f, -0.03159510f, -0.02420075f, -0.00956394f, -0.00696293f, 0.06434906f, 0.10741985f, 0.08700317f, 0.04444771f, 0.05456433f, 0.02239771f, 0.09729938f, 0.16136844f, 0.07998026f, 0.03112458f, 0.08992309f, 0.04775632f, 0.04343954f, -0.16717446f, -0.03492323f, 0.16917112f, 0.05643948f, -0.08202624f, -0.01340176f, 0.08019464f, 0.03431331f, -0.11513977f, -0.24499756f, 0.07202465f, 0.02907741f, -0.00227565f, 0.00008226f, -0.02638901f, -0.09027466f, -0.05326468f, -0.02723908f, -0.05939328f, 0.04688755f, -0.06995399f, -0.11904053f, 0.02634912f, 0.01341166f, 0.05214581f, 0.06561472f, 0.03111814f, 0.02164040f, -0.01340105f, 0.16297832f, -0.03530092f, 0.02092734f, 0.02001406f, 0.03754470f, 0.21195318f, -0.02758763f, -0.04355909f, -0.06799459f, -0.05599533f, 0.02209321f, -0.17120697f, -0.14178677f, -0.18868409f, -0.12542586f, -0.01112810f, -0.14903396f, -0.02835300f, -0.07377248f, -0.08881353f, -0.01502836f, 0.01232232f, -0.06394581f, 0.01924625f, 0.12063087f, 0.12500751f, -0.01042674f, 0.01421453f, 0.13673785f, 0.05549790f, -0.05964360f, -0.11437824f, 0.07177583f, 0.03394869f, 0.04723260f, -0.02512564f, -0.01697629f, 0.02487509f, -0.06449432f, 0.08419257f, 0.18301503f, -0.07206572f, -0.07607470f, -0.06424257f, 0.04759826f, 0.01734956f, -0.08415382f, -0.01692371f, 0.04717988f, 0.02765392f, 0.03671645f, -0.18705358f, -0.07995940f, -0.03395407f, -0.04194776f, -0.01720342f, -0.12130528f, -0.10908822f, -0.03759477f, 0.02682692f, 0.02931160f, -0.37618113f, -0.27740160f, -0.12964681f, 0.03475550f, -0.03990823f, 0.01771744f, 0.07739371f, 0.07940746f, -0.03700837f, -0.02152752f, -0.01310295f, -0.00833597f, 0.08312859f, 0.07643492f, 0.05108824f, 0.03107461f, -0.00048885f, -0.03965976f, 0.03046489f, 0.07376675f, -0.07381227f, -0.13726087f, -0.00067120f, -0.09366386f, 0.02053278f, -0.03377350f, -0.08228048f, -0.00978343f, -0.04707836f, -0.04376612f, -0.08976070f, 0.02209736f, 0.00270615f, 0.02221335f, -0.00323280f, -0.00048291f, 0.02654477f, 0.00646484f, 0.01542289f, 0.07978704f, -0.10404995f, -0.11686064f, -0.07399038f, 0.00188176f, -0.09594164f, 0.01373784f, 0.01775721f, 0.01048900f, 0.07740024f, 0.14754228f, 0.09428282f, 0.02701689f, -0.04321966f, 0.02197787f, 0.09009043f, -0.17667490f, -0.12455233f, -0.03136122f, -0.00941829f, -0.05381696f, -0.25474602f, -0.15420713f, -0.08197390f, -0.02370963f, -0.01645473f, 0.06291050f, 0.01014897f, 0.04762914f, 0.13890554f, 0.20518354f, 0.03641247f, 0.01789462f, -0.02408315f, 0.10213091f, 0.14601171f, -0.09029099f, 0.00291020f, -0.05677707f, -0.07492968f, 0.03525831f, -0.20482619f, -0.13689333f, -0.11856099f, -0.08470818f, -0.10239035f, -0.05522288f, -0.10628808f, -0.06970999f, 0.03483335f, 0.02832032f, -0.29064649f, -0.21671417f, -0.19411565f, -0.07949349f, -0.13430060f, -0.08730513f, -0.03120574f, 0.03151147f, 0.09916204f, 0.18874653f, -0.06084095f, -0.09891267f, -0.01482332f, -0.00088524f, 0.05324560f, -0.31767806f, -0.23285209f, -0.08651477f, -0.06120078f, -0.08374099f, -0.20356475f, -0.07361519f, 0.00684235f, -0.00449277f, 0.01807876f, -0.19226427f, -0.03621555f, -0.06365086f, 0.02144837f, -0.03930170f, -0.06211032f, -0.04628818f, -0.04065647f, 0.06092032f, 0.05829471f, 0.03276874f, 0.09309057f, -0.01831354f, 0.10092464f, 0.11026920f, -0.20941585f, -0.05531388f, 0.03765054f, -0.00144540f, -0.00075750f, -0.11837184f, -0.05646414f, -0.03462363f, 0.02310992f, 0.03076855f, 0.02309751f, 0.04196182f, 0.05854636f, 0.00714123f, -0.05530465f, -0.38673955f, -0.17349076f, 0.05182564f, 0.08302907f, 0.07784823f, -0.22895290f, -0.14393547f, -0.10394500f, -0.09019849f, -0.12422628f, -0.08351783f, -0.08224186f, -0.06974527f, 0.02882392f, 0.05760253f, -0.25604603f, -0.06279001f, -0.08105034f, -0.01406465f, 0.00106716f, 0.09495921f, -0.00167250f, 0.07951090f, 0.09554338f, 0.11212081f, -0.17463604f, -0.02940071f, 0.02335189f, 0.02091622f, -0.03807489f, -0.01176316f, 0.05997929f, 0.03973262f, 0.10850570f, 0.20659789f, 0.01551756f, -0.06781022f, -0.01832232f, 0.06481906f, 0.13676827f, -0.14779004f, -0.04668325f, -0.04932206f, 0.04847276f, -0.02425503f, -0.11312662f, -0.01083067f, -0.08004199f, 0.02457734f, 0.02730493f, -0.06044268f, -0.00223072f, -0.02593669f, -0.11360545f, -0.07678080f, -0.01997372f, -0.10627730f, -0.06600364f, -0.00598738f, 0.00548120f, -0.19732793f, -0.00746694f, 0.10902185f, 0.07231703f, 0.09485361f, -0.22662702f, -0.14329289f, -0.11046825f, -0.10210375f, -0.00276349f, -0.00938727f, -0.07176280f, 0.00805291f, 0.03865473f, 0.10126057f, -0.04604942f, -0.01850285f, -0.05604189f, -0.12975302f, -0.14369895f, -0.10539074f, -0.07405943f, 0.06474072f, 0.09035019f, 0.09717170f, -0.05170857f, -0.09767637f, -0.03413046f, 0.00023830f, -0.04668086f, 0.04012757f, 0.01186467f, 0.00495051f, 0.04277709f, 0.15177688f, -0.21969180f, -0.06849728f, -0.13025305f, -0.13825883f, -0.12018240f, -0.07014295f, -0.05997045f, -0.01763782f, -0.04622545f, 0.05010765f, 0.02347237f, 