// Auto-generated - DO NOT EDIT
// OnsetNet weights for Daisy Seed bare metal inference
// sr=48000 note_vocab_size=49 window_samples=384

#pragma once
#include <stdint.h>

#define ONSET_SR                 48000
#define ONSET_NOTE_VOCAB_SIZE    49
#define ONSET_WINDOW             384

static const char* onset_pitch_names[] = {
    "E2",
    "F2",
    "F#2",
    "G2",
    "G#2",
    "A3",
    "A#3",
    "B3",
    "C3",
    "C#3",
    "D3",
    "D#3",
    "E3",
    "F3",
    "F#3",
    "G3",
    "G#3",
    "A4",
    "A#4",
    "B4",
    "C4",
    "C#4",
    "D4",
    "D#4",
    "E4",
    "F4",
    "F#4",
    "G4",
    "G#4",
    "A5",
    "A#5",
    "B5",
    "C5",
    "C#5",
    "D5",
    "D#5",
    "E5",
    "F5",
    "F#5",
    "G5",
    "G#5",
    "A6",
    "A#6",
    "B6",
    "C6",
    "C#6",
    "D6",
    "D#6",
    "E6",
};

// shape: [49, 96]
static const float note_head_weight[4704] = {
    -0.05663909f, -0.08705962f, 0.01353823f, 0.08480082f, 0.09452257f, -0.35410506f, -0.06209063f, 0.10949299f, -0.06373388f, -0.01384571f, 0.04761335f, -0.14867099f, -0.30171150f, -0.04898271f, 0.03189204f, 0.13116078f, 0.08698086f, 0.15315925f, 0.18608122f, 0.11368842f, -0.03462153f, 0.27400002f, -0.10949694f, 0.01064465f, 0.07962639f, -0.08332070f, 0.12053524f, -0.40565011f, 0.01984280f, -0.12162839f, -0.14027779f, -0.02489000f, 0.00023072f, -0.22524083f, 0.06355527f, -0.00087192f, 0.36102566f, -0.11640523f, -0.17728862f, 0.12182815f, -0.10637265f, 0.00153427f, -0.03161859f, -0.08712703f, -0.15985540f, 0.21109536f, -0.06902181f, 0.38747776f, 0.21678513f, -0.14803748f, 0.30713052f, -0.23998190f, -0.12186423f, -0.00331258f, 0.05184072f, 0.18025394f, -0.00230401f, 0.29589874f, -0.14135505f, -0.08085620f, -0.10121354f, 0.04848349f, -0.15035796f, 0.08660809f, 0.02408857f, 0.13997991f, 0.27612159f, -0.03085159f, -0.11573993f, 0.01559585f, -0.21421225f, -0.08714595f, -0.02064688f, -0.01631402f, 0.05184090f, -0.09197856f, 0.00783977f, 0.16914217f, -0.15785541f, -0.02364509f, -0.10060323f, -0.31523982f, 0.19507214f, 0.08915425f, 0.00206549f, -0.33371395f, 0.03616763f, -0.00860423f, -0.16434358f, -0.00497917f, -0.11708916f, 0.01138592f, -0.13910924f, -0.18266402f, 0.03465226f, -0.24274634f, -0.03443107f, 0.02423466f, 0.09486920f, -0.07344043f, 0.04618370f, -0.06874553f, -0.08579930f, 0.28500551f, -0.07983399f, -0.19401321f, -0.13308392f, 0.35460514f, 0.05753531f, 0.11800434f, -0.06154023f, 0.09875759f, -0.22122103f, -0.00275260f, 0.25191635f, -0.06557035f, -0.08754621f, -0.02044591f, 0.15321776f, -0.03885351f, -0.09065999f, -0.06313599f, -0.16811724f, 0.26695764f, -0.12902077f, 0.00419433f, -0.33352450f, -0.08720920f, 0.27563980f, -0.14266273f, 0.24929890f, -0.02881195f, -0.01193715f, 0.21241495f, -0.08699334f, 0.19042803f, -0.14297384f, -0.14995898f, -0.12722461f, 0.27757418f, -0.09063271f, -0.24364652f, -0.14654756f, -0.11435468f, 0.24881300f, -0.18277787f, 0.02012443f, -0.20218314f, -0.07552170f, -0.10791555f, 0.04802973f, -0.04394456f, -0.02854430f, -0.29092064f, -0.04566182f, -0.00231911f, 0.17718379f, 0.05725514f, 0.00793225f, -0.32836810f, -0.11578514f, -0.01152813f, 0.17246653f, -0.02296679f, 0.15563497f, 0.17140804f, 0.04085993f, 0.02543211f, 0.17489110f, 0.09600770f, 0.07576299f, 0.19581170f, 0.04268947f, 0.20078288f, -0.23787609f, -0.18933749f, 0.14274235f, -0.09090502f, -0.03700225f, -0.22928758f, -0.00558761f, 0.14871410f, -0.03365795f, 0.09350254f, -0.10893496f, -0.14583944f, -0.04438330f, 0.00938078f, -0.15342996f, -0.19412851f, -0.43735090f, 0.12253114f, 0.14873178f, -0.16659252f, 0.04358557f, -0.00974835f, -0.06245035f, 0.11705959f, 0.01250830f, -0.33466530f, 0.23496796f, -0.11422546f, -0.17272359f, 0.05520190f, -0.09509227f, 0.08110503f, -0.09725458f, 0.13459527f, -0.00692584f, 0.11375002f, 0.24607299f, 0.06325814f, -0.29889634f, -0.18050511f, 0.07685869f, 0.05824637f, 0.12931654f, 0.18123840f, -0.01950603f, -0.11425971f, -0.47500166f, 0.03903225f, -0.09137113f, 0.09478273f, 0.02616258f, -0.12130220f, -0.01895731f, -0.05261152f, -0.35054383f, -0.17235184f, -0.01208456f, -0.09972858f, 0.01654054f, -0.03298852f, 0.16264713f, 0.01881741f, 0.03362755f, 0.10759611f, 0.06246635f, -0.11421385f, -0.29997200f, -0.16508780f, -0.29688987f, 0.38299608f, -0.16193315f, -0.17610742f, 0.08323709f, -0.05703276f, -0.03605431f, 0.04869093f, -0.02116480f, -0.18795554f, -0.05768564f, -0.21675536f, -0.08007437f, -0.01734364f, 0.18663657f, 0.11606966f, 0.47031397f, -0.00194622f, 0.05822656f, -0.09798297f, -0.06985007f, 0.01318906f, 0.20615952f, -0.27280068f, -0.05108111f, 0.30729446f, -0.33639014f, 0.12056918f, -0.04546240f, 0.10007122f, -0.07792736f, -0.09277393f, -0.18894443f, 0.33684877f, -0.10815264f, 0.10479834f, -0.06531027f, -0.19565535f, 0.10011382f, 0.06815337f, -0.12604593f, -0.22741865f, 0.07441976f, 0.04027937f, 0.36512265f, -0.05559390f, 0.19910759f, -0.13821380f, 0.09482802f, -0.01638598f, 0.17366917f, 0.00701357f, 0.07569345f, 0.28692815f, 0.06337225f, 0.19650157f, -0.23425406f, 0.24915664f, -0.01066386f, 0.04102055f, -0.15262234f, 0.12646762f, -0.20649992f, -0.21058989f, -0.05863230f, -0.09852682f, -0.11110077f, -0.11371021f, 0.20965390f, -0.29065168f, 0.05686558f, 0.22903875f, 0.01991419f, 0.19305536f, 0.14204258f, -0.07964983f, 0.16878106f, -0.05491674f, -0.09829520f, -0.14723235f, 0.17249109f, -0.27322763f, -0.01342678f, -0.07824555f, 0.31366512f, 0.05742440f, -0.15351886f, -0.05658054f, -0.17309445f, -0.30508113f, -0.07644705f, 0.28581032f, -0.10756560f, -0.11359599f, -0.21154577f, -0.08964914f, -0.28744277f, -0.20088352f, 0.40118229f, -0.01378726f, 0.14862862f, 0.35145909f, 0.20911366f, -0.05037826f, -0.08095157f, -0.07390161f, 0.19933377f, -0.07048453f, -0.19868161f, 0.02528249f, -0.05557756f, 0.03121812f, 0.02526793f, -0.10882855f, 0.01061883f, -0.19882600f, -0.02171308f, -0.17679872f, -0.28062236f, -0.10642662f, 0.06012127f, -0.00269166f, 0.09998702f, -0.14819644f, 0.01187497f, -0.04237323f, 0.03579713f, -0.01537468f, -0.31599316f, -0.09339565f, 0.13138525f, -0.15790053f, 0.04661384f, -0.13246013f, 0.15948479f, 0.07566683f, -0.23051748f, -0.21884148f, -0.16126543f, -0.01023832f, -0.03572628f, 0.04942328f, 0.01302513f, -0.01231675f, 0.23309764f, -0.13319930f, -0.16239183f, -0.08727038f, -0.16595231f, -0.05121017f, 0.03463663f, -0.17369443f, 0.15304355f, 0.27449417f, 0.00659260f, 0.04824717f, 0.06730948f, -0.04431023f, -0.19039646f, -0.23857275f, -0.20441331f, 0.09958655f, -0.10280854f, 0.17697074f, 0.15656526f, -0.16837689f, -0.16483271f, -0.02299808f, 0.10158238f, -0.20200551f, 0.43320724f, 0.02685161f, 0.03654565f, -0.00027468f, -0.07418858f, -0.10986982f, 0.26140136f, -0.09640054f, 0.03288022f, 0.01296400f, 0.09144869f, -0.11023282f, -0.07618691f, -0.10382312f, -0.13631766f, 0.28227964f, -0.04750509f, 0.08539603f, 0.04937829f, -0.11096557f, -0.17605156f, -0.09710095f, 0.13576484f, 0.06236501f, -0.31213126f, -0.12940469f, -0.08386422f, -0.17465419f, -0.05839197f, -0.02857791f, 0.08133277f, 0.09355309f, -0.05972658f, -0.17748296f, 0.06640198f, -0.04954543f, -0.14073010f, 0.07878026f, -0.26583973f, 0.07519262f, 0.17011079f, 0.09040633f, -0.33300593f, 0.02884732f, 0.21284153f, -0.29107717f, -0.13860220f, -0.10894445f, -0.13516392f, -0.03617809f, 0.01966034f, 0.16386922f, -0.05943554f, 0.04089164f, -0.05924645f, -0.04102721f, 0.00359903f, -0.28420323f, -0.08948208f, -0.07549327f, -0.12597387f, 0.06671809f, 0.11482412f, 0.25701946f, -0.26956281f, -0.06200948f, 0.58758360f, -0.06022529f, -0.16884302f, -0.37998390f, 0.15598796f, -0.04222078f, -0.03725638f, -0.00298974f, 0.09385297f, 0.13819589f, 0.01283749f, -0.33744311f, -0.03675523f, -0.21372159f, -0.18448162f, -0.08609492f, -0.05651836f, -0.18019357f, 0.31221780f, -0.31802097f, 0.21425951f, 0.02739289f, -0.08974994f, 0.04062255f, -0.32173407f, 0.09888516f, -0.29125032f, 0.08480864f, 0.02129142f, -0.22050658f, -0.28034005f, -0.16011092f, 0.17911842f, -0.10964536f, 0.12924224f, 0.02995725f, 0.34817618f, 0.08849773f, -0.09535083f, -0.10213181f, -0.12083057f, -0.11867968f, 0.08069103f, 0.08319944f, 0.41092026f, 0.22401370f, -0.11327697f, -0.29834482f, 0.05223219f, -0.06168537f, -0.12288111f, 0.02767527f, 0.19394620f, 0.23453413f, 0.21243584f, 0.35509390f, 0.05733268f, 0.26646385f, -0.35395473f, -0.12493262f, -0.44385657f, -0.05226503f, 0.32033440f, 0.29893771f, 0.07113582f, -0.03108137f, -0.05327030f, 0.28025541f, -0.18316437f, -0.08661996f, -0.30859378f, -0.22814755f, -0.15100850f, 0.07960060f, 0.11370108f, 0.03242195f, -0.16594107f, -0.09029065f, 0.24764046f, 0.06812384f, -0.01809954f, 0.00294760f, -0.26823658f, 0.39994907f, -0.16162066f, -0.45916405f, -0.21994993f, -0.16413346f, -0.07927044f, 0.02774493f, -0.21783675f, -0.15852752f, 0.16320375f, -0.00742699f, -0.08665694f, 0.07271763f, 0.26711300f, -0.05847277f, 0.05914820f, -0.34823003f, 0.06604306f, -0.06924128f, -0.14961010f, -0.16248426f, -0.30953681f, -0.00814233f, 0.00491209f, 0.14222279f, 0.06635270f, 0.33348703f, -0.11757560f, 0.14057703f, -0.19994052f, 0.26906645f, 0.19799213f, -0.04085657f, -0.22524366f, -0.11582091f, -0.14448021f, 0.10413290f, -0.25220412f, 0.08503006f, 0.16430891f, 0.00075955f, 0.05882465f, 0.01246092f, -0.14283089f, -0.14751950f, -0.18099971f, 0.01169735f, -0.05258489f, -0.14442125f, -0.30452409f, 0.09074906f, -0.15268645f, -0.11408921f, -0.01014702f, 0.30615619f, 0.05065470f, 0.28478712f, 0.08205426f, 0.11505538f, -0.13822599f, -0.03794939f, -0.04677803f, -0.23855369f, 0.11602294f, -0.01431217f, -0.08094019f, 0.09464241f, -0.17845157f, -0.13190877f, -0.10866931f, 0.26937988f, -0.00103387f, 0.10325121f, 0.32100391f, 0.07969226f, -0.32479706f, -0.13101260f, 0.10768302f, 0.14928719f, 0.07997863f, 0.01766916f, -0.30468851f, 0.26684028f, 0.14441632f, -0.25413463f, -0.03214204f, -0.23760834f, 0.08693343f, -0.01125158f, -0.25392237f, 0.30207890f, -0.05628569f, 0.04112898f, -0.21406069f, 0.13331047f, -0.09676050f, -0.21345563f, -0.25843963f, 0.47444743f, -0.16011341f, -0.05656116f, 0.01051849f, -0.11697255f, -0.19984877f, 0.06192331f, 0.24279575f, 0.37636217f, -0.30951759f, 0.10887609f, -0.26738438f, -0.06345764f, -0.10084255f, 0.36384210f, 0.18691714f, -0.01497400f, -0.04212920f, -0.20971674f, -0.07856957f, 0.17450690f, 0.13415116f, -0.36865705f, -0.08453710f, -0.24154803f, -0.30101302f, -0.16476844f, 0.08102190f, -0.27295476f, 0.41170877f, -0.28360224f, -0.03556557f, 0.15675071f, 0.17140956f, -0.14723350f, 0.50956333f, 0.08440866f, -0.21115708f, 0.17281955f, 0.12887359f, -0.29743236f, 0.18864417f, 0.21609814f, -0.22524814f, -0.24102385f, 0.18538615f, -0.17354065f, 0.06773992f, -0.06105094f, 0.09744258f, 0.02501549f, 0.25544024f, -0.13730676f, -0.23373133f, 0.00805154f, -0.26958549f, -0.10002767f, 0.06126067f, 0.19376068f, -0.29522210f, 0.20864213f, -0.02346561f, 0.05006878f, -0.17311648f, -0.04446853f, -0.10384970f, -0.06792434f, 0.18601485f, -0.25890338f, 0.15309153f, 0.11808870f, 0.03487132f, 0.02393689f, 0.15003206f, -0.02969355f, -0.05339830f, -0.07331361f, 0.16177157f, -0.12565088f, -0.22216938f, -0.27998474f, -0.15371302f, 0.15918507f, 0.00843101f, 0.20466740f, -0.15392412f, -0.18536142f, -0.34438694f, 0.15145776f, 0.10836757f, -0.18384381f, 0.03165929f, -0.23529880f, -0.25763887f, 0.15661849f, 0.09173505f, 0.30911541f, -0.24225968f, 0.10685918f, 0.12922774f, -0.10570551f, -0.07363126f, -0.50129020f, 0.00027321f, 0.08323377f, -0.00262365f, 0.45216730f, -0.08410574f, 0.00129351f, -0.29727533f, 0.24682198f, 0.34322238f, -0.07954419f, -0.05823350f, 0.06474257f, 0.14452773f, -0.47004431f, -0.09848867f, 0.34561703f, 0.30467775f, 0.04548462f, 0.21804559f, 0.07932881f, -0.62727433f, -0.00751681f, 0.18886496f, 0.29700091f, 0.24190526f, 0.11223303f, -0.03156254f, 0.35144931f, -0.15894863f, -0.00995313f, -0.45447227f, 0.20024012f, -0.26993924f, 0.12582153f, -0.31187248f, 0.22511750f, -0.11812095f, 0.18251050f, -0.05519488f, -0.18938103f, 0.47359931f, 0.01076703f, -0.11895151f, 0.04544187f, 0.19634846f, -0.16240720f, 0.15957043f, -0.04746705f, 0.03911258f, -0.12627311f, 0.08344629f, -0.02880282f, 0.02550154f, -0.49733660f, 0.04611306f, -0.31731474f, -0.05078527f, -0.40542838f, 0.12225302f, -0.19914640f, 0.26971394f, -0.21792422f, 0.01684083f, -0.17423351f, -0.10556208f, -0.47651279f, 0.24855603f, -0.09281806f, -0.09567548f, -0.15114531f, -0.08223527f, 0.11556264f, -0.01453316f, 0.14930369f, 0.10480545f, -0.38875234f, -0.13967986f, -0.10321119f, -0.05570722f, 0.23899721f, 0.23313347f, -0.34130216f, -0.07654046f, -0.10270939f, 0.09687767f, -0.03513563f, 0.32906294f, -0.19880752f, 0.08007830f, 0.41736835f, 0.05190918f, -0.03446826f, -0.10157570f, 0.17807309f, 0.05512485f, 0.32023501f, -0.06930959f, -0.30044496f, 0.03486114f, -0.73258471f, -0.24850814f, -0.10374405f, 0.22355282f, -0.58834332f, -0.04545957f, 0.04739899f, 0.00269591f, -0.33205822f, -0.22489490f, -0.08013009f, -0.01235575f, -0.08753351f, -0.02335127f, -0.26553693f, -0.34776399f, 0.02158363f, -0.04145847f, 0.15583616f, 0.01046890f, 0.08680590f, -0.18582994f, 0.05812877f, -0.23895478f, -0.12891129f, 0.17387503f, -0.18206146f, 0.24783237f, -0.12341496f, -0.11104997f, -0.04189039f, 0.16677290f, -0.89709890f, -0.01585804f, -0.06274996f, -0.05724116f, -0.01177329f, 0.25953084f, -0.06764676f, -0.00180706f, -0.02781084f, 0.24198784f, 0.08696103f, -0.11974309f, 0.42968377f, -0.01059066f, -0.01947838f, 0.00778500f, -0.16618051f, -0.20618212f, 0.00279941f, 0.17825751f, 0.00565557f, 0.05618466f, 0.14532046f, -0.06808430f, 0.07590577f, 0.25213867f, 0.04286883f, -0.04940545f, -0.02988186f, 0.03473802f, 0.14324404f, -0.05579101f, -0.07812821f, -0.16072308f, -0.18484829f, 0.43214732f, 0.13661347f, -0.23086493f, 0.12494292f, -0.56240231f, 0.48928180f, 0.17529008f, -0.18376538f, 0.16368590f, 0.07989730f, 0.05159238f, 0.41437188f, -0.13134348f, 0.20592748f, 0.11297971f, 0.10186429f, 0.13758397f, -0.03994046f, -0.21843968f, -0.40385476f, -0.26460266f, -0.02015830f, 0.07426860f, -0.04693938f, -0.05945009f, 0.34926718f, -0.25365493f, -0.11622454f, -0.09168219f, 0.08941387f, -0.18179846f, -0.00758683f, 0.03959569f, 0.03012889f, -0.08183982f, -0.07007624f, 0.14114147f, 0.02585294f, 0.10328835f, 0.14786007f, 0.17826007f, -0.11159777f, -0.05273883f, -0.00509643f, -0.08258574f, 0.29204965f, 0.20082048f, -0.42704180f, -0.04243432f, 0.13108663f, 0.26319894f, -0.24319485f, 0.04117907f, -0.19015332f, -0.16550085f, -0.12224274f, 0.23506674f, 0.42520773f, -0.33943111f, -0.10640823f, -0.46407017f, 0.47775295f, -0.21288162f, 0.05022660f, 0.42342401f, -0.14984126f, -0.64628738f, -0.12035276f, -0.40403086f, 0.05905547f, -0.18449488f, 0.05568849f, 0.07266659f, -0.16173555f, -0.34755564f, 0.29863998f, -0.03275115f, 0.32765615f, 0.28538561f, 0.33565149f, -0.22239022f, -0.20166923f, -0.15452638f, 0.02557144f, 0.01410188f, 0.05343780f, -0.52005345f, 0.29550183f, -0.13346483f, 0.05097764f, 0.11302930f, -0.01617606f, 0.27776897f, 0.01426802f, 0.19589031f, 0.00766263f, 0.28591031f, 0.13456783f, -0.22461571f, 0.13298763f, 0.12555899f, 0.15023716f, -0.24569499f, -0.18144597f, 0.17595117f, -0.52641559f, -0.05311815f, -0.24958310f, -0.19651294f, -0.46729046f, 0.09908199f, -0.02613007f, -0.17146297f, 0.06276453f, -0.04616712f, 0.11572121f, -0.24468726f, -0.01353040f, -0.06673796f, -0.11426363f, -0.39299178f, 0.45644912f, 0.10480915f, 0.11466233f, -0.02964957f, 0.16632941f, -0.28028995f, 0.02298808f, -0.50235778f, 0.29890272f, 0.57939714f, -0.11340345f, -0.09929855f, 0.16846102f, -0.09714501f, -0.08726387f, 0.24402447f, -0.04060105f, 0.01163570f, 0.02145449f, 0.01216314f, -0.50855678f, -0.27041513f, -0.04396395f, 0.16284539f, 0.29251674f, -0.26236016f, -0.06942881f, 0.10359114f, 0.00740180f, 0.27217546f, -0.19148384f, -0.53516871f, -0.18888047f, -0.11379562f, -0.25441024f, -0.18632199f, 0.25479659f, -0.13612707f, -0.13853143f, -0.05990020f, -0.09520301f, 0.06830905f, 0.09859560f, -0.06277538f, 0.32400703f, 0.39912707f, 0.07167835f, 0.07285929f, 0.19398129f, 0.22645681f, -0.08108768f, -0.15251787f, 0.16182585f, -0.03192807f, 0.16462210f, -0.26456949f, -0.28521511f, 0.02810250f, -0.27436063f, -0.08310902f, -0.22583118f, 0.02266453f, 0.31684387f, -0.14970887f, -0.39440647f, 0.01999070f, 0.17452548f, -0.16000399f, 0.16837837f, -0.06764703f, -0.14131653f, 0.39028746f, -0.22630639f, 0.20747356f, 0.27263784f, 0.28047264f, -0.04928779f, -0.07418057f, -0.24341099f, -0.07355686f, 0.00940044f, -0.03473614f, 0.07863120f, -0.20767900f, 0.42365187f, -0.12115441f, -0.09715973f, -0.11578823f, 0.08468027f, -0.02489478f, -0.22147760f, 0.15134105f, 0.01719240f, -0.08100447f, 0.23325855f, -0.15875269f, -0.22007799f, -0.31453562f, -0.05494186f, 0.07710683f, -0.13627560f, 0.03305575f, 0.03492466f, -0.08628651f, 0.02202293f, 0.20088921f, 0.17855588f, 0.02798869f, 0.07025619f, -0.09054452f, 0.18980879f, 0.27671906f, -0.02794044f, -0.06540924f, -0.19982368f, -0.13703138f, -0.21986839f, -0.33750281f, -0.16564016f, -0.61835432f, -0.49860090f, 0.21205312f, 0.05667120f, 0.18272430f, 0.06274776f, -0.07140455f, 0.08293726f, 0.19185823f, -0.11046620f, 0.34133089f, -0.13018827f, 0.09606293f, -0.02964511f, -0.03911957f, -0.18722039f, -0.23967224f, 0.02095590f, -0.33449998f, -0.18080267f, 0.21811686f, -0.22558972f, 0.05124742f, 0.07017339f, -0.03466718f, -0.05247241f, 0.26397932f, 0.18479025f, -0.08162896f, 0.19191431f, -0.13263860f, -0.80448371f, 0.28869474f, 0.23784447f, 0.06122779f, -0.05851260f, -0.27324852f, -0.02225880f, -0.12365307f, -0.26359046f, 0.19828697f, 0.40560094f, -0.04706416f, -0.51462215f, 0.40229124f, 0.00257563f, -0.09916066f, 0.05702554f, 0.20296931f, 0.01130305f, -0.37001643f, 0.26368287f, -0.40308282f, 0.17826118f, 0.00794278f, 0.03940504f, -0.14041963f, -0.24750458f, 0.00771218f, 0.24313487f, 0.06971925f, 0.30647877f, -0.20917057f, 0.16827740f, -0.05398649f, -0.21280122f, 0.18245506f, 0.08380797f, 0.04707820f, -0.01711680f, 0.08279663f, -0.16172726f, 0.27868062f, -0.05032462f, -0.08436154f, 0.11900660f, -0.26034442f, 0.20340528f, -0.16489907f, -0.28734973f, 0.45545289f, -0.26199856f, 0.24622007f, -0.00750871f, -0.15370402f, -0.29242843f, 0.12678221f, -0.18299554f, -0.16771571f, -0.10312336f, -0.06836627f, 0.10048238f, -0.08163724f, 0.07885922f, 0.33864409f, -0.00387982f, 0.39491010f, 0.21024108f, 0.09341802f, -0.05212566f, -0.08225600f, 0.19257037f, 0.15580550f, -0.08880602f, 0.11817450f, -0.06504471f, 0.14118554f, -0.10379354f, 0.25022274f, -0.03348585f, -0.14609304f, 0.05681187f, 0.32741314f, 0.03196967f, -0.00994127f, -0.22975759f, -0.06753541f, 0.16033755f, -0.04803218f, -0.02168851f, -0.07477684f, 0.02134795f, -0.04146741f, 0.33677059f, 0.07980628f, -0.03394932f, -0.24489598f, 0.18793714f, -0.24329615f, -0.35530916f, -0.21969654f, 0.09264807f, 0.32622853f, 0.09626272f, 0.05453756f, -0.12786365f, 0.50712234f, -0.44260335f, -0.12948862f, 0.09862257f, -0.45900056f, -0.15462516f, -0.34162587f, 0.18374527f, -0.26389882f, -0.47885144f, 0.19753259f, -0.07758564f, -0.13446589f, 0.07613514f, -0.12537579f, -0.01231607f, -0.04753175f, -0.07942325f, 0.26418144f, -0.38339552f, 0.03691373f, 0.03516149f, -0.13007733f, 0.00882384f, 0.03168442f, -0.07329627f, -0.13843179f, -0.24120660f, -0.14595574f, 0.11830396f, -0.05865644f, -0.11792410f, 0.10904568f, 0.01565485f, 0.17766392f, -0.04104349f, 0.11200973f, -0.33107847f, -0.14713401f, -0.07396250f, -0.26508740f, -0.22357300f, -0.22752729f, 0.17743312f, -0.01976868f, 0.03609780f, -0.92702115f, -0.07816982f, 0.05794086f, -0.29885510f, 0.03127328f, -0.23439366f, 0.00427802f, 0.02150129f, -0.05035971f, -0.13032798f, -0.10768160f, -0.05730664f, 0.38091597f, 0.14912425f, -0.18929945f, 0.35247433f, 0.44300935f, -0.20115611f, -0.32999989f, -0.08925983f, 0.21239424f, -0.14462671f, -0.22208107f, 0.24199677f, 0.26167798f, -0.12027284f, -0.47851452f, 0.12486836f, -0.05071784f, 0.22103539f, 0.05291784f, -0.01604943f, -0.21753019f, 0.10822689f, -0.12577809f, 0.07525486f, -0.19778620f, -0.26799712f, -0.04354686f, -0.16843511f, 0.16793509f, -0.08926220f, 0.23301359f, 0.12108450f, 0.07926546f, -0.32205328f, 0.30396810f, -0.10625239f, 0.05096669f, 0.00839680f, -0.71023953f, 0.04040696f, -0.01577271f, 0.25162655f, -0.12438346f, 0.18766809f, 0.35881507f, -0.11326086f, 0.25780910f, 0.24726348f, 0.06073083f, -0.29883042f, 0.32353011f, 0.07595626f, -0.05910337f, 0.13427868f, -0.12862518f, -0.01782016f, -0.46484327f, 0.12334044f, -0.12320961f, -0.35665768f, 0.19080691f, 0.08602677f, -0.20714381f, 0.04326052f, -0.25603849f, -0.03914079f, 0.12953824f, -0.04620421f, -0.13268289f, -0.06110338f, 0.42687303f, 0.17005932f, -0.05903490f, 0.21239367f, -0.10073310f, -0.10542597f, -0.06442446f, 0.14808257f, 0.19112369f, 0.46655375f, -0.11682034f, -0.73609948f, -0.06441422f, -0.13789381f, 0.31300908f, -0.25946707f, -0.05788361f, -0.08727939f, -0.06951000f, -0.14019541f, -0.16050936f, -0.00836735f, 0.04839196f, 0.17346926f, 0.10799924f, -0.18504055f, -0.75965732f, 0.02504641f, -0.18957125f, 0.19311899f, -0.54325819f, 0.29595089f, 0.10105358f, -0.28082904f, 0.28963131f, -0.08929037f, 0.03921011f, 0.36881015f, -0.02832660f, 0.10866345f, 0.25313583f, -0.20300959f, 0.03639549f, 0.04140824f, 0.10565353f, 0.04708439f, 0.20210046f, -0.17533688f, -0.36216494f, -0.37332976f, 0.05266793f, 0.09647210f, -0.34053245f, -0.23720303f, -0.17026420f, -0.36051065f, 0.26271632f, 0.05765462f, 0.02595441f, 0.24085219f, 0.06988761f, -0.14870700f, -0.24468826f, 0.24009110f, 0.36131415f, -0.22757699f, 0.19210544f, -0.56401980f, 0.04404227f, -0.19596332f, -0.44195428f, -0.12252843f, 0.00264393f, 0.34626663f, 0.12955014f, -0.00101967f, -0.54965097f, 0.08126310f, -0.09556531f, 0.21824045f, -0.07003453f, -0.21503392f, -0.04253282f, 0.42457592f, 0.14976387f, 0.06514597f, 0.02611463f, -0.19717683f, 0.06745771f, 0.00563647f, -0.03001693f, -0.19707111f, -0.08935729f, 0.08806755f, 0.17797078f, 0.14876536f, 0.25016993f, 0.13974109f, 0.14016783f, -0.14793350f, 0.05468609f, 0.02563891f, -0.04617823f, -0.00509669f, -0.24781942f, -0.47622231f, 0.30086601f, 0.42047414f, -0.06035745f, 0.42908147f, 0.26101872f, 0.01656868f, -0.27334765f, 0.16115960f, -0.01601477f, 0.09118337f, 0.02942913f, 0.05047420f, 0.55226249f, -0.41901064f, 0.23554982f, -0.00025391f, 0.20493054f, 0.01002895f, 0.02954294f, 0.29182860f, -0.21268304f, -0.21694291f, -0.07985650f, -0.00295733f, -0.02897892f, -0.05810118f, 0.06038868f, -0.66048861f, -0.14980561f, -0.08160217f, 0.18186520f, -0.35115871f, -0.43638262f, -0.33341542f, -0.14068694f, 0.06638468f, 0.15695192f, 0.26781371f, 0.25761446f, -0.41359103f, 0.04044345f, -0.28477794f, 0.31043494f, -0.01783973f, 0.19612153f, 0.34303856f, -0.01854298f, -0.02799906f, -0.04382480f, -0.13557549f, -0.03962693f, -0.14683649f, 0.20986466f, -0.51931983f, -0.17869782f, -0.23828554f, -0.14617473f, 0.00684621f, 0.46308079f, 0.12961364f, -0.00585124f, 0.10269379f, 0.03674498f, -0.04066642f, -0.16259649f, 0.14152589f, 0.02265943f, 0.17472050f, 0.18451668f, -0.50826991f, -0.16590840f, 0.11295584f, -0.14856581f, 0.08422434f, 0.09256820f, 0.19159952f, -0.26165935f, -0.02248666f, -0.38144684f, 0.24178550f, 0.02834415f, 0.03248839f, -0.20080091f, -0.08590499f, -0.00007801f, -0.14996491f, -0.12895444f, -0.23294336f, 0.04767801f, -0.10025075f, -0.08294131f, -0.19841929f, 0.12882416f, 0.13953830f, -0.16748038f, -0.16971044f, 0.07951543f, 0.36758304f, -0.13359828f, -0.64915419f, 0.23279841f, -0.22957389f, -0.12009024f, -0.08324956f, -0.30568779f, -0.02925286f, -0.20104058f, -0.16891302f, -0.44642463f, 0.21515617f, -0.12789857f, -0.07383507f, 0.06445714f, 0.06148157f, -0.05187587f, -0.94097316f, 0.50776589f, -0.18659647f, -0.21807981f, -0.04452384f, -0.11647463f, 0.03310272f, -0.43766689f, 0.18781947f, 0.00345512f, -0.06801234f, 0.44277236f, 0.06717218f, 0.06216636f, -0.00121897f, 0.02165047f, -0.08498973f, 0.37202302f, -0.22875287f, 0.21367046f, 0.18682672f, -0.18020456f, -0.08545871f, -0.00196451f, 0.03604661f, 0.14209743f, -0.89347535f, 0.07034676f, -0.07377367f, -0.08609061f, -0.23501176f, 0.38342357f, 0.41842949f, -0.10311645f, 0.13045023f, -0.01031852f, 0.29265288f, -0.01529173f, -0.07200405f, -0.81203014f, 0.02181340f, 0.02777982f, 0.03689025f, 0.27140999f, 0.22549433f, 0.40569794f, -0.02986749f, 0.33010051f, 0.18178691f, -0.13951559f, 0.15797313f, 0.15956675f, 0.07057714f, -0.08301754f, -0.50509936f, -0.17696156f, 0.01673027f, -0.04541999f, 0.13946772f, 0.30774191f, -0.17390646f, 0.20018299f, -0.09573298f, -0.26595664f, -0.49553171f, 0.23986205f, -0.04689958f, 0.15243867f, 0.23044316f, 0.15061253f, 0.32680139f, -0.11508686f, 0.03938070f, -0.05196831f, 0.00069450f, 0.13918397f, 0.23917033f, -0.75062448f, 0.17911375f, -0.04886702f, 0.02988204f, 0.04075051f, -0.09053753f, 0.09201588f, 0.10912577f, -0.12880537f, -0.02371236f, 0.14966053f, 0.15321352f, -0.04262349f, 0.17780681f, -0.14865164f, 0.17468448f, -0.05679637f, 0.51255357f, 0.05763850f, 0.70409822f, -0.34074855f, 0.28795949f, -0.04712778f, -0.11583177f, 0.11471198f, -0.68207210f, 0.22164585f, 0.14918271f, 0.03363714f, -0.20745739f, 0.25732642f, 0.15138061f, 0.00098314f, 0.06649955f, 0.00145670f, 0.12931567f, 0.18375729f, 0.13942112f, -0.31544468f, -0.09628178f, 0.42968482f, 0.19238216f, -0.21319562f, -0.35952684f, -0.33682093f, 0.39322898f, -0.20516081f, -0.02167829f, -0.01619153f, 0.15260698f, 0.10646193f, -0.20603849f, 0.04408194f, -0.30862540f, -0.10420472f, -0.12910841f, 0.26507410f, 0.04157159f, 0.23387255f, -0.62505209f, -0.32401660f, -0.03884858f, 0.02421257f, -0.70613378f, -0.19253606f, -0.25962269f, -0.03163252f, -0.44165948f, 0.01074228f, 0.03474981f, -0.20047314f, 0.06430166f, 0.00409101f, -0.14970411f, -0.53619647f, 0.06595586f, 0.27135968f, 0.22397856f, 0.05762738f, -0.25269434f, -0.43648180f, -0.01582847f, 0.31060961f, 0.29803479f, -0.37156689f, 0.12424939f, -0.08575609f, 0.26761600f, -0.29714301f, 0.05541350f, -0.19186510f, 0.03654585f, -0.05493475f, -0.03367037f, -0.33876202f, 0.06856810f, 0.13097101f, -0.49716869f, -0.25188047f, -0.12370655f, 0.24199693f, 0.11329330f, -0.12993726f, -0.30723411f, 0.09469383f, -0.13384742f, -0.00726064f, 0.23668788f, 0.24188350f, 0.35073748f, 0.15922852f, -0.10995943f, -0.17651708f, 0.26785335f, -0.36469582f, -0.08566270f, -0.11700951f, -0.44107497f, -0.08776758f, -0.17790003f, 0.05037253f, 0.31991041f, -0.10561101f, -0.31526428f, -0.00367120f, 0.17300625f, -0.39839038f, -0.35547110f, -0.24595048f, 0.02178078f, 0.04623161f, -0.02152325f, -0.28523496f, 0.23200914f, 0.09653708f, -0.11295226f, 0.24820349f, -0.10699012f, 0.01522656f, 0.14930490f, -0.35264686f, 0.12767389f, -0.21674272f, -0.04184135f, 0.04434253f, -0.01651020f, 0.15513019f, -0.24550219f, 0.05662538f, -0.19654956f, -0.06374375f, -0.01334276f, -0.20635743f, 0.10374383f, 0.00363402f, 0.64588869f, -0.07612918f, -0.01346337f, 0.14386442f, 0.13178569f, 0.10964595f, 0.28785527f, 0.01249331f, 0.01102392f, -0.03737249f, 0.34386796f, 0.01982371f, 0.00453943f, 0.15726343f, 0.26272669f, 0.38195959f, -0.52438295f, -0.65887105f, 0.10610968f, -0.15259208f, 0.26968604f, 0.01032706f, -0.35925785f, -0.38425598f, 0.10953156f, -0.17304428f, 0.02367246f, 0.16260554f, 0.14862143f, -0.01622533f, 0.21553592f, -0.01710962f, -0.18691622f, -0.04219174f, -0.15321352f, 0.22419010f, 0.07775721f, 0.08381727f, 0.14569522f, 0.18631025f, 0.43263054f, 0.26790196f, 0.16674237f, -0.20254663f, -0.02039014f, -0.07873693f, -0.04946432f, 0.07916705f, 0.19707759f, -0.03419089f, -0.23502012f, 0.03237973f, -0.26371112f, -0.11158419f, -0.13904794f, 0.03540847f, -0.44961411f, 0.08231647f, -0.11151645f, 0.00571105f, 0.08898514f, 0.03269083f, 0.13615464f, 0.06379774f, -0.03968012f, -0.39196125f, -0.22706790f, 0.17195737f, -0.26373830f, 0.43122715f, -0.14480408f, -0.31713778f, 0.18563567f, -0.26449594f, 0.42274195f, 0.12705213f, -0.11491211f, 0.11593586f, -0.15893017f, -0.21940686f, -0.39345503f, 0.21561940f, 0.28937921f, 0.17221917f, 0.00162095f, 0.24388163f, -0.06300392f, -0.33987632f, 0.07956249f, -0.12522455f, -0.08805447f, -0.00096389f, 0.10131462f, -0.24003042f, -0.13276272f, -0.22209768f, -0.69610298f, 0.10475567f, 0.16435470f, -0.11615249f, -0.07044862f, -0.34724903f, -0.70350355f, 0.02986312f, -0.36674663f, 0.02028594f, 0.11318496f, 0.19558188f, -0.16327648f, -0.38947815f, -0.06117925f, 0.03719102f, 0.48112735f, 0.34434050f, -0.02772374f, -0.14577124f, -0.24960794f, 0.20948717f, 0.21694855f, 0.00368124f, -0.19074263f, 0.23517595f, 0.01504885f, 0.46090528f, 0.30778474f, -0.20382847f, -0.11713438f, -0.10740405f, -0.05375415f, 0.02340713f, -0.04883071f, -0.21838582f, 0.03455937f, -0.04207354f, 0.23807921f, -0.30945468f, -0.91153908f, 0.33826607f, -0.34497216f, 0.10957437f, 0.14106995f, -0.18211037f, -0.09737805f, 0.16437103f, 0.11704952f, -0.10542144f, -0.16142567f, -0.03909362f, -0.11245704f, 0.14919893f, 0.28658232f, -0.15017627f, -0.06346834f, 0.03580870f, 0.11151160f, -0.25125012f, 0.00313458f, -0.29842594f, 0.26763308f, -0.20127542f, 0.16463803f, 0.26384836f, 0.30637360f, -0.55724919f, 0.15831423f, -0.02471707f, -0.05685203f, 0.08274213f, -0.19094126f, -0.08043083f, 0.31200469f, -0.48438305f, -0.20486765f, -0.57767016f, 0.13196808f, 0.17627522f, 0.12998784f, 0.23138952f, 0.07569641f, -0.27609646f, 0.01822115f, 0.02629081f, 0.22261024f, 0.14218536f, -0.09389330f, 0.08157884f, 0.16611066f, -0.45995140f, -0.05376692f, 0.05644336f, -0.07938018f, 0.11057541f, 0.23455755f, -0.23088375f, -0.23836222f, -0.08329321f, 0.28961354f, 0.00473151f, 0.24069560f, -0.26522061f, 0.27219617f, 0.60273403f, -0.65394080f, -0.17330119f, 0.10288788f, 0.18420739f, -0.01399382f, 0.11058055f, 0.12641367f, 0.20179386f, 0.17340373f, 0.03153108f, 0.00396999f, -0.27622634f, -0.00253299f, 0.00141478f, 0.36698648f, -0.17818148f, -0.43301338f, -0.24564698f, -0.70322001f, -0.06524315f, 0.54488617f, 0.15138398f, -0.36785275f, 0.01863020f, 0.07025737f, 0.09169482f, 0.13340440f, -0.50818938f, -0.30534786f, -0.08401142f, 0.31796044f, 0.05523735f, 0.11327347f, -0.04964847f, -0.07605286f, 0.15544988f, -0.32155603f, -0.14737502f, 0.31421718f, -0.16772696f, 0.18222037f, -0.21071300f, -0.11861930f, -0.21251053f, -0.26256570f, -0.24557236f, 0.16514595f, 0.20305966f, -0.19276750f, 0.15257710f, -0.09347454f, -0.09213590f, 0.31027144f, 0.23053326f, 0.22941503f, 0.15064733f, -0.33468369f, -0.02445563f, 0.14889763f, -0.11608727f, -0.06844676f, 0.24874803f, -0.05905393f, 0.15067090f, -0.28497428f, 0.27825007f, 0.37133014f, 0.51072836f, 0.23672369f, -0.01291704f, -0.24510373f, 0.07423080f, 0.02413969f, 0.15721890f, -0.07301963f, -0.17011689f, -0.22060831f, -0.19990891f, 0.14917441f, 0.13136208f, -0.10823663f, 0.19362004f, -0.31614792f, -0.22361463f, 0.17279270f, -0.14999335f, 0.16723250f, 0.24244222f, -0.28016436f, -0.05832250f, -0.13249204f, -0.00259854f, -0.63631386f, -0.02575123f, 0.24376597f, -0.57243377f, 0.07119966f, -0.16037360f, -0.23255399f, 0.13616320f, -0.31746051f, 0.02961786f, 0.17387705f, -0.89852488f, 0.31214026f, -0.14652418f, -0.11941250f, 0.04544352f, 0.35633612f, -0.03778546f, -0.15076053f, 0.14585604f, 0.04349814f, 0.03079077f, 0.12112893f, 0.00858126f, -0.64761382f, -0.04328500f, -0.05419707f, 0.15898860f, 0.00892592f, 0.19938645f, 0.07678663f, 0.06835757f, 0.03670250f, 0.29055080f, 0.25366518f, -0.22473828f, -0.10419211f, -0.05594195f, 0.02645978f, -0.13607796f, 0.25887915f, 0.23260443f, 0.01481471f, 0.11251768f, -0.28681210f, 0.06420092f, 0.22057305f, -0.02219599f, 0.22454296f, -0.11505222f, -0.20688064f, 0.28134108f, -0.19448301f, -0.34482425f, -0.01850099f, -0.12793554f, 0.02251287f, 0.00862071f, 0.26423278f, 0.13368465f, 0.25606450f, -0.04356360f, -0.32204008f, -0.08070484f, -0.33070984f, -0.20153520f, 0.23343900f, -0.16349822f, -0.29579225f, -0.26045388f, 0.14260916f, 0.05413117f, -0.26665258f, -0.03900775f, -0.24011935f, -0.04719398f, 0.06432417f, 0.14423867f, 0.26513287f, 0.35337493f, -0.12498511f, 0.10563706f, -0.02831523f, 0.12766460f, -0.09953617f, -0.46887341f, 0.26987356f, 0.01131521f, -0.07058940f, -0.16409212f, -0.58166820f, -0.51622581f, 0.36187658f, -0.40266871f, -0.00747802f, 0.09869450f, 0.37236312f, 0.23128323f, 0.03394159f, 0.23108160f, -0.25197798f, 0.14033063f, 0.07296152f, -0.16588573f, -0.05632506f, 0.33420539f, -0.24374102f, 0.53818482f, -0.04959068f, -0.11099633f, 0.01550445f, -0.24852638f, -0.44484633f, -0.09724623f, 0.10365736f, -0.20666426f, -0.24058114f, -0.08991721f, -0.15483446f, 0.13317761f, 0.17796008f, -0.06092844f, -0.11646970f, -0.03904180f, -0.45555460f, 0.21227209f, 0.22935505f, -0.32959631f, -0.32160315f, -0.68082291f, 0.35093594f, -0.17684707f, -0.21120334f, 0.08563556f, -0.24094181f, 0.27329350f, 0.16063415f, -0.24247505f, -0.25518301f, 0.01336959f, -0.31017578f, -0.13052310f, -0.01623034f, -0.18284746f, 0.24425608f, 0.07441995f, 0.04683950f, -0.16097704f, 0.34608719f, -0.30114430f, 0.12958989f, -0.00663712f, -0.18585368f, -0.27495191f, -0.12468912f, -0.07056522f, -0.72894859f, 0.02127401f, -0.01046347f, 0.15868482f, 0.50472379f, 0.06650875f, -0.10684535f, 0.40398875f, -0.10920958f, 0.03889816f, -0.15081479f, 0.11448859f, 0.06248836f, -0.00399394f, 0.29819861f, 0.09026968f, 0.09202491f, -0.27281076f, -0.25669068f, 0.33009696f, 0.01901780f, 0.03530054f, 0.27013588f, -0.10525261f, -0.21491072f, 0.34289688f, -0.27257255f, 0.01898892f, 0.03300858f, -0.18409216f, 0.15664397f, 0.34926090f, -0.51388001f, 0.13815375f, -0.22858682f, -0.27946612f, 0.06602397f, -0.07599354f, 0.31422114f, 0.30296820f, 0.14617842f, -0.15388015f, -0.07851417f, -0.16546458f, 0.20292941f, 0.21404076f, 0.29277942f, -0.13898268f, -0.14030021f, -0.09090238f, -0.45632723f, -0.06675407f, 0.02260828f, -0.07696030f, -0.00064616f, -0.03388719f, 0.15773052f, 0.08130804f, -0.08849243f, 0.01015416f, 0.07111230f, 0.07424857f, 0.01775128f, -0.34539482f, 0.13219678f, -0.43305355f, 0.22192919f, 0.12171709f, 0.06777587f, 0.50080407f, -0.15273549f, -0.04538795f, -0.00220104f, 0.21818173f, 0.36825204f, -0.12007046f, -0.13436364f, -0.21589471f, -0.21382505f, 0.16433920f, 0.36145121f, -0.02604880f, -0.51740384f, 0.10513403f, 0.38427135f, 0.17902070f, -0.15395193f, -0.46010339f, -0.20816806f, -0.11046930f, 0.10820971f, -0.19300246f, -0.17061919f, 0.00796896f, -0.04658023f, 0.49120575f, 0.35688832f, -0.32293153f, -0.22504151f, -0.34868616f, -0.80395651f, -0.07889987f, 0.23033701f, -0.30789438f, -0.24895164f, 0.21046986f, 0.24229445f, -0.00580599f, -0.06793164f, -0.20371905f, -0.18335520f, -0.04060030f, 0.09869421f, 0.20561272f, -0.04392423f, 0.03925602f, -0.86540914f, -0.16413313f, -0.37674263f, -0.44010976f, 0.00984527f, 0.41069305f, -0.22377129f, -0.18031159f, -0.08629458f, -0.16079919f, 0.26303574f, 0.31388026f, 0.47841391f, 0.10080315f, 0.11034164f, 0.32697123f, 0.07899294f, -0.01514880f, 0.14573807f, -0.06191711f, -0.60901755f, 0.20624511f, -0.01875289f, -0.36692479f, 0.00380573f, 0.07044427f, -0.11147028f, 0.05593551f, -0.21581537f, 0.26816201f, 0.35392582f, -0.30187497f, -0.02713858f, 0.03826980f, 0.25805813f, 0.18933247f, -0.20081916f, -0.20751148f, -0.13291961f, -0.00566894f, -0.18201804f, -0.14432913f, 0.03194648f, 0.27286944f, 0.40561637f, 0.21360476f, 0.05552398f, -0.25886261f, 0.49246702f, 0.37186196f, -0.22742724f, -0.13319497f, -0.05988109f, 0.09177635f, -0.42890054f, 0.11251087f, -0.33267802f, 0.11439069f, 0.01551561f, 0.20937172f, 0.13783471f, -0.11723460f, 0.15196621f, -0.09818050f, -0.66931915f, -0.23095693f, 0.05437182f, 0.34061930f, 0.04735360f, 0.09737785f, -0.18351479f, 0.05226143f, 0.05188597f, 0.10494089f, 0.02936221f, -0.10890166f, -0.04108110f, 0.15547088f, 0.19846015f, 0.01323535f, 0.34618619f, 0.19691820f, 0.22983931f, 0.28757894f, 0.09265234f, -0.15234108f, -0.06310997f, 0.15965657f, 0.01562795f, -0.05735086f, 0.20003301f, -0.14738220f, -0.40914771f, -0.12948425f, -0.09232252f, 0.13942605f, 0.26618516f, -0.10414397f, 0.16895159f, 0.22075303f, 0.08141105f, -0.46721634f, -0.08886626f, -0.74288923f, -0.47513944f, 0.34259561f, -0.38051695f, 0.24003819f, 0.28172016f, -0.11372018f, -0.46696734f, -0.45612878f, 0.17106590f, -0.34311175f, -0.08153679f, -0.06978839f, 0.38402835f, 0.06331353f, -0.15567753f, 0.39557597f, 0.10873238f, 0.17068237f, -0.19284450f, -0.07061438f, -0.03905782f, -0.14799505f, -0.47881117f, -0.05569254f, 0.01153769f, 0.43504205f, 0.10926720f, -0.29395577f, -0.11058836f, 0.10586694f, -0.15900385f, -0.17102237f, 0.26782647f, -0.13970014f, -0.46481863f, -0.29281276f, 0.05715656f, 0.01961909f, 0.08337855f, 0.34294161f, 0.21772456f, 0.16260195f, -0.11952338f, 0.07584945f, 0.18859378f, -0.12810497f, 0.28555065f, -0.37798244f, 0.15877260f, 0.05440319f, -0.23512046f, -0.09602148f, 0.11794957f, -0.20589131f, -0.39295956f, 0.03887391f, -0.03404640f, 0.49979302f, -0.11206861f, -0.24742241f, 0.26343641f, -0.03792556f, -0.18664375f, -0.01463121f, 0.16649678f, 0.45978701f, 0.23548104f, -0.08072402f, -0.37054935f, -0.25953627f, 0.09349629f, -0.06786342f, 0.31584209f, 0.03634450f, 0.29295722f, -0.60348433f, -0.35065541f, -0.01011784f, -0.02219304f, -0.02346803f, 0.10026398f, 0.11899319f, -0.34508407f, -0.36035770f, 0.31975988f, 0.22608070f, -0.02359549f, -0.19742142f, 0.32828888f, 0.01574970f, 0.10854027f, -0.15064390f, -0.05441646f, -0.03529248f, -0.20666653f, 0.05343895f, 0.35516930f, -0.48713782f, -0.05299118f, 0.07056264f, -0.45572072f, -0.18987454f, 0.20131019f, 0.19948164f, 0.22168693f, -0.04458885f, 0.01127036f, 0.03169837f, -0.14471494f, -0.25304163f, 0.02946336f, -0.57145017f, -0.01628731f, 0.31165117f, 0.24258949f, -0.59080213f, 0.17466661f, -0.16626051f, -0.21775000f, -0.22181131f, -0.06022889f, 0.00242068f, -0.19975139f, -0.08306390f, -0.08566467f, -0.11115111f, 0.17700309f, 0.07722460f, -0.07473958f, -0.03844783f, 0.41048324f, 0.13689511f, -0.26593122f, -0.01479687f, 0.02014359f, -0.13841386f, -0.49401811f, 0.08798592f, -0.08688670f, 0.00535874f, 0.01295783f, -0.07063967f, 0.00052325f, 0.16114934f, -0.25554451f, -0.07442055f, -0.04396255f, 0.20829435f, -0.03071548f, -0.04118899f, 0.23517853f, -0.32029539f, -0.26227009f, 0.10434843f, -0.18852501f, 0.02369688f, -0.26676220f, -0.07792119f, 0.03724945f, 0.39670327f, 0.09430275f, -0.12150894f, -0.17934914f, -0.12825401f, 0.10994968f, 0.00910923f, 0.00479999f, -0.09397593f, -0.27754110f, 0.19205543f, -0.17098728f, 0.34082603f, 0.16413172f, 0.35050961f, 0.16327402f, 0.13315460f, -0.03671728f, -0.82867652f, 0.28548771f, 0.18929687f, -0.10060391f, -0.08148033f, -0.34311262f, -0.14260253f, 0.27064276f, 0.08761737f, -0.37172177f, 0.18506083f, -0.31252033f, -0.35746169f, 0.16511527f, 0.42398062f, 0.16747297f, 0.12522039f, -0.06805768f, 0.34639993f, 0.27107632f, 0.08766140f, 0.26671350f, 0.09655655f, -0.18599629f, 0.08249234f, -0.08950777f, -0.32244429f, -0.65064919f, 0.32766253f, 0.03718566f, 0.52049136f, -0.16511200f, -0.47973526f, -0.10096259f, 0.30956617f, -0.19196534f, -0.05890585f, -0.02600824f, 0.15167286f, -0.40976408f, -0.20731516f, 0.08359025f, -0.10529346f, -0.11980712f, 0.00406493f, -0.27522349f, 0.26691791f, 0.15901735f, -0.04951439f, -0.36202672f, -0.28927928f, -0.28178471f, 0.10682967f, 0.30002144f, -0.08140875f, 0.17341073f, -0.35070297f, 0.09593234f, -0.14310257f, -0.00462227f, -0.02120534f, -0.33925441f, -0.38251278f, 0.13619894f, 0.20790282f, 0.08109426f, 0.14286630f, 0.00190563f, -0.43522808f, -0.09692789f, 0.06904713f, -0.11326803f, -0.43146360f, -0.14798774f, -0.27317372f, -0.13412534f, 0.16368724f, -0.19870263f, 0.17942853f, -0.22984694f, -0.04914645f, -0.09960162f, 0.15608217f, -0.08711132f, -0.18174744f, -0.13544703f, -0.02456476f, -0.13131769f, -0.23304041f, 0.44286543f, 0.00509079f, -0.27409050f, 0.43818253f, 0.12539542f, -0.07140560f, 0.03892113f, 0.61617398f, -0.23827979f, -0.00868632f, -0.12909864f, 0.18015578f, -0.19223787f, 0.17088041f, -0.20754503f, -0.21292403f, 0.13139746f, -0.08896359f, 0.20554975f, 0.04924131f, 0.22067447f, 0.12067537f, 0.12245832f, -0.05502126f, -0.24932009f, -0.32413104f, -0.44424012f, -0.04783636f, 0.13110621f, -0.11471418f, -0.14946254f, -0.04824639f, 0.00576615f, 0.26962101f, 0.32721978f, -0.40846601f, 0.14949127f, -0.00053860f, 0.10483833f, 0.08027684f, -0.10385338f, 0.16475107f, 0.03324604f, -0.11215565f, -0.04896445f, -0.13116133f, 0.10661621f, -0.17953596f, -0.16599125f, -0.29236484f, 0.17275441f, -0.13668035f, 0.19084358f, 0.11074205f, 0.05562131f, 0.01286503f, 0.11187643f, 0.29421785f, 0.12968405f, -0.49817526f, -0.09077176f, -0.06043392f, 0.10845759f, 0.33611327f, -0.37766367f, 0.13353382f, -0.07986176f, -0.21068330f, 0.35896775f, -0.19523978f, -0.24872303f, -0.49112284f, -0.26145890f, -0.38195610f, -0.17179058f, 0.09376867f, -0.05493992f, 0.04208685f, -0.05953530f, 0.01280896f, 0.01541411f, 0.03025896f, -0.34467703f, 0.16139868f, 0.13112783f, 0.03524893f, 0.06399349f, 0.47152910f, 0.20959978f, 0.15352750f, -0.13358887f, 0.13562731f, 0.04227226f, -0.09969601f, 0.10354907f, 0.05415767f, -0.55736065f, -0.01873959f, 0.14441524f, -0.34575537f, -0.01402513f, 0.11692395f, 0.16614148f, 0.22459228f, 0.22299528f, 0.21794888f, 0.11320342f, -0.21422048f, -0.20517017f, 0.05005809f, -0.15574762f, 0.05964684f, -0.26870975f, -0.01342224f, -0.34786695f, 0.02417269f, 0.00135951f, -0.01587650f, 0.29285738f, -0.20077968f, 0.28883535f, 0.01804470f, 0.33621576f, -0.23185645f, 0.08068027f, -0.18728857f, 0.06727774f, -0.44155103f, -0.23994285f, 0.20113420f, -0.10344227f, 0.14160150f, 0.20644253f, 0.08556159f, -0.07211014f, 0.06473423f, 0.23002505f, -0.27090740f, -0.35333177f, -0.40241027f, -0.23173532f, -0.16825052f, 0.22825620f, 0.08699527f, 0.30280411f, 0.12457135f, 0.36913061f, 0.23727603f, -0.29618305f, 0.07966667f, -0.04167680f, 0.22601737f, -0.05951377f, -0.29293507f, -0.27818444f, 0.43219170f, -0.17024970f, 0.21472961f, 0.18600062f, -0.35433406f, -0.09412166f, 0.02491359f, -0.22992879f, -0.06462015f, 0.13147531f, 0.43486741f, -0.03439449f, -0.03430439f, -0.01475271f, 0.24953970f, 0.08574625f, -0.13795623f, 0.02627179f, -0.07087909f, -0.10430119f, -0.00815246f, -0.11964558f, -0.05197165f, 0.01585694f, -0.40478873f, -0.24803837f, 0.03368421f, 0.19866586f, -0.23323554f, 0.16004859f, -0.07570683f, 0.08470599f, -0.03326223f, -0.18099934f, 0.39942241f, -0.02649529f, 0.06832258f, 0.00278343f, -0.11413411f, 0.02996938f, -0.07240404f, 0.04484539f, 0.19566360f, -0.32860821f, -0.16527465f, -0.13575010f, 0.18160443f, 0.01433533f, 0.03575734f, 0.17187142f, -0.15811212f, 0.14311546f, -0.07633808f, -0.38564447f, -0.03486243f, 0.21965382f, 0.01242193f, 0.32446837f, -0.05117828f, -0.22510272f, -0.04619600f, 0.17021738f, 0.21644357f, -0.06105964f, -0.08315656f, -0.21326283f, -0.03201579f, -0.22623818f, 0.14095278f, 0.00336332f, -0.13245679f, -0.26884308f, -0.10805998f, 0.05158431f, -0.12759793f, -0.03781038f, 0.01558212f, -0.54084712f, 0.00838112f, 0.13319784f, 0.09277718f, -0.05339098f, -0.01963867f, -0.42337349f, -0.14810508f, -0.05057371f, -0.32874852f, 0.28515291f, -0.18660152f, 0.39771339f, -0.27612120f, 0.04865101f, 0.19860418f, 0.32720080f, -0.04560971f, 0.06914844f, 0.07857316f, 0.06983697f, -0.30276859f, -0.29407588f, 0.26801172f, 0.05312056f, 0.11983594f, -0.04704522f, -0.30539230f, 0.14750223f, 0.46307021f, -0.02636868f, 0.36784038f, -0.05120799f, 0.01627144f, 0.05428808f, 0.00606602f, -0.07364617f, 0.18417773f, 0.00393429f, -0.20842543f, -0.09440225f, -0.20912459f, -0.40008703f, -0.07840298f, 0.04773347f, 0.22014306f, 0.03286710f, -0.03734288f, -0.18336594f, 0.12604912f, -0.14159100f, -0.07074736f, -0.00268105f, -0.23862237f, 0.00093190f, 0.13555564f, -0.17530864f, 0.03388657f, -0.05874623f, -0.20018309f, -0.09900121f, -0.18085657f, 0.09453643f, -0.00243139f, -0.02649141f, 0.07574795f, -0.11058635f, -0.00928805f, -0.55120319f, -0.04060540f, -0.33303502f, -0.12172189f, 0.27370787f, -0.06191973f, -0.09803798f, -0.11668473f, -0.01890910f, 0.28721744f, 0.24512801f, -0.08710965f, 0.27691734f, -0.27589071f, 0.12302990f, 0.10448180f, 0.11740366f, -0.12952496f, -0.01577204f, -0.15434624f, 0.08612221f, -0.04725800f, 0.15788524f, 0.00469918f, 0.18189256f, -0.29491851f, -0.05994847f, -0.15749341f, 0.31150982f, 0.02186534f, -0.17410849f, 0.11675173f, 0.02299416f, -0.07830334f, -0.03277823f, 0.04975411f, 0.11363928f, 0.15818061f, -0.86627346f, -0.13513148f, -0.00681005f, 0.00652943f, -0.06031660f, 0.13662417f, 0.05248625f, 0.15210766f, -0.00207439f, 0.01692920f, -0.04299008f, 0.03622226f, -0.02422469f, -0.19722757f, -0.19091454f, 0.00727435f, -0.11943723f, 0.14836805f, 0.19586432f, -0.72796547f, -0.10888543f, 0.07497779f, 0.12436675f, 0.02054328f, -0.05075713f, 0.06832092f, -0.14029823f, -0.04897711f, -0.07769261f, 0.07237014f, 0.15296693f, 0.20527150f, 0.17002684f, 0.00125710f, -0.03526141f, -0.42115983f, 0.07529836f, -0.03643738f, -0.08385725f, 0.01256707f, 0.00086105f, 0.04136094f, -0.34871331f, -0.06295319f, -0.39377111f, -0.15188012f, 0.13592252f, 0.01504556f, 0.08119957f, -0.11656849f, 0.03554956f, -0.17796388f, -0.14293581f, 0.12731233f, -0.04815337f, 0.14553477f, 0.00530833f, 0.03760093f, 0.33396244f, 0.06013981f, 0.02743956f, -0.24217941f, 0.14410220f, -0.01377030f, -0.05149591f, -0.07686324f, -0.04964159f, 0.36139876f, -0.46784738f, 0.05557299f, 0.02334794f, 0.40228477f, 0.01483286f, -0.02371510f, -0.26212579f, -0.08758496f, -0.08586732f, 0.05009739f, -0.11063045f, 0.08126620f, 0.39440835f, -0.05521493f, -0.08975107f, 0.18854858f, -0.15255661f, -0.02861148f, 0.07158899f, -0.32797703f, -0.14728567f, 0.14497271f, -0.21636297f, -0.09297623f, -0.03134596f, 0.03865662f, -0.00118323f, 0.04620951f, 0.46797356f, 0.04087454f, -0.11215094f, -0.05325955f, -0.03952422f, 0.16521960f, -0.18492620f, 0.09430435f, -0.13554110f, -0.05938645f, -0.08559635f, -0.01857183f, 0.00794046f, -0.10849088f, 0.03270532f, -0.19692327f, 0.04647692f, -0.03371577f, 0.07184648f, 0.03971435f, 0.04883384f, 0.32487077f, -0.37372047f, -0.13382506f, 0.08124346f, -0.19865787f, -0.13061136f, -0.26351762f, -0.04411972f, 0.20168391f, 0.21665922f, 0.02464130f, -0.42675450f, 0.06983542f, -0.04613907f, -0.12899370f, 0.07275161f, -0.29374862f, 0.01965522f, 0.01052869f, 0.32584497f, 0.23657596f, -0.18653651f, -0.07965029f, 0.50915426f, 0.02791601f, -0.13710824f, -0.02373174f, -0.16594335f, 0.01901484f, -0.03995759f, 0.05356302f, -0.01138290f, 0.08946382f, -0.17765220f, -0.00176596f, -0.05581481f, 0.05747546f, 0.14698534f, -0.18602599f, 0.15827039f, -0.07786035f, -0.19537209f, 0.04007617f, 0.05868403f, -0.02188973f, -0.20490763f, -0.63025033f, 0.06342297f, 0.05492727f, -0.15264700f, -0.11243302f, 0.21457237f, -0.17106950f, -0.06411334f, -0.09270050f, 0.26230559f, -0.21883740f, 0.11623491f, -0.06482166f, 0.03673586f, -0.07405950f, -0.08312912f, 0.03547822f, -0.05510261f, 0.01235309f, -0.10039990f, 0.29039514f, 0.24538071f, 0.02831078f, -0.14604761f, 0.17590512f, -0.20256837f, -0.02044795f, 0.12300772f, 0.33990806f, -0.37550655f, -0.17190117f, 0.02758599f, -0.08984616f, -0.10789502f, 0.18097492f, 0.10256918f, 0.17041104f, -0.17867035f, -0.12786335f, -0.23480950f, -0.12590569f, -0.01193779f, -0.14891657f, -0.08641381f, -0.22472779f, -0.04375944f, -0.15017752f, -0.15154499f, -0.15631218f, -0.15067327f, -0.27399299f, 0.20729817f, 0.02610857f, -0.13721517f, 0.36258009f, 0.15201208f, 0.05866022f, -0.18511993f, -0.08610693f, -0.13630909f, -0.19588257f, 0.48528558f, -0.12014727f, -0.15505156f, -0.25601122f, 0.26864362f, 0.21179608f, -0.12567307f, 0.05813620f, -0.03814841f, -0.00832177f, -0.37944502f, -0.05617343f, 0.01879898f, 0.18917535f, 0.10048031f, 0.25734097f, 0.00955227f, 0.30659780f, -0.03701371f, -0.02718065f, -0.17814104f, -0.12719657f, 0.15688047f, -0.00099212f, -0.06277505f, 0.03811713f, 0.22295643f, -0.21754345f, -0.07265399f, -0.04051938f, -0.00306414f, 0.07552314f, -0.12481630f, 0.02226838f, 0.19111454f, 0.18993162f, 0.16312291f, -0.00932400f, -0.06491677f, 0.03984768f, 0.08886321f, -0.02401710f, 0.00631894f, -0.14308187f, -0.27812970f, 0.08756518f, -0.19867061f, -0.03108346f, -0.08956126f, -0.06106791f, 0.19517082f, -0.32521334f, -0.06232037f, -0.22739810f, 0.24596857f, -0.01475635f, 0.10324074f, 0.36105913f, 0.46121240f, -0.49467054f, 0.06726126f, 0.16922940f, 0.15011764f, -0.15197712f, -0.15233640f, -0.16419716f, -0.06215591f, -0.05624501f, -0.12939660f, -0.00622818f, -0.04878759f, -0.11167327f, 0.12353083f, -0.05275751f, 0.01457090f, -0.22634159f, 0.04643510f, -0.43543467f, 0.11281144f, 0.29291669f, -0.06331637f, -0.03300191f, 0.10516369f, 0.01797210f, 0.18452680f, 0.10530864f, -0.01615414f, -0.04891724f, 0.11877866f, 0.00457441f, 0.30417922f, 0.03376236f, -0.04402633f, 0.19397645f, -0.23644714f, 0.10314149f, 0.06889486f, 0.05509445f, -0.05380385f, 0.16853333f, -0.37453434f, 0.28898904f, -0.20479527f, -0.01241921f, 0.19855070f, 0.12783387f, 0.23845212f, -0.13194713f, -0.21588953f, -0.00810928f, 0.22685297f, -0.19617118f, 0.10738847f, -0.04856061f, -0.10343136f, -0.00511970f, 0.14321569f, -0.18650682f, -0.30792707f, -0.04149143f, -0.06042403f, -0.07620118f, 0.13342987f, 0.10924140f, 0.00451464f, 0.20125277f, -0.25641111f, -0.11443929f, -0.14364977f, -0.21397319f, 0.06344959f, -0.31301016f, -0.31144038f, -0.10021631f, 0.11209919f, 0.29323584f, -0.32954752f, -0.12866634f, -0.10385156f, -0.04344866f, 0.09936298f, -0.79085368f, 0.11079068f, -0.05210829f, 0.02243292f, 0.23574708f, 0.19052927f, -0.18727693f, -0.22158687f, -0.33093220f, -0.15748158f, 0.13077289f, -0.26193839f, -0.20174132f, 0.11166409f, 0.29933885f, -0.21427961f, 0.32269141f, 0.03907605f, 0.13710110f, -0.30068469f, 0.02954240f, 0.01998361f, -0.09808312f, -0.06380930f, 0.38328508f, 0.11178698f, 0.05970756f, 0.08923246f, 0.16953935f, 0.00320146f, 0.21247298f, -0.03087606f, -0.04061009f, -0.12357311f, -0.33192304f, -0.26936692f, -0.03219195f, 0.13642931f, 0.02979077f, -0.47291723f, -0.36946264f, 0.23284335f, 0.02529476f, -0.02155812f, -0.35421479f, -0.10679310f, -0.03106255f, 0.04018433f, -0.07106157f, 0.27155802f, -0.07339315f, -0.18303648f, 0.17303303f, -0.01271726f, -0.17915323f, 0.30078688f, 0.24891832f, 0.07604897f, 0.25662392f, 0.18567538f, -0.10048365f, 0.00035570f, -0.03556382f, 0.33040962f, -0.31634295f, -0.05811592f, 0.01375704f, -0.01179350f, 0.11514258f, -0.02536316f, -0.05609208f, -0.16365758f, -0.19654012f, -0.09951677f, -0.44853455f, -0.16399570f, 0.28387475f, -0.14155290f, 0.00468165f, 0.24663104f, -0.15976299f, 0.30322823f, -0.12134383f, -0.04142668f, -0.05373727f, -0.11320986f, 0.24887297f, -0.06217730f, 0.07841571f, -0.03146699f, -0.23554775f, -0.00478677f, -0.20736548f, -0.00084095f, -0.01837684f, -0.20902109f, 0.41148493f, -0.10670046f, 0.26947382f, 0.05374049f, -0.25957522f, -0.00089285f, -0.02839913f, -0.05229579f, -0.15879823f, 0.08222140f, 0.08102859f, -0.15432686f, 0.11128728f, 0.19242705f, 0.39116132f, 0.02122476f, -0.24026954f, 0.14518759f, -0.15573713f, -0.10602543f, -0.20842631f, -0.07697731f, 0.02635607f, 0.02464293f, -0.05952541f, 0.09147088f, -0.18495187f, -0.09592874f, -0.24253485f, -0.20866674f, 0.03438267f, -0.20142755f, -0.18729179f, 0.01524290f, 0.06911426f, -0.09256308f, -0.06170340f, -0.17340107f, -0.11017457f, 0.39719680f, 0.36470026f, -0.27653822f, -0.05627996f, -0.11803380f, 0.13708471f, -0.06019892f, -0.05087662f, -0.06615192f, 0.07727355f, -0.02051038f, -0.07436408f, 0.14918187f, 0.20803964f, -0.20483325f, 0.03163055f, 0.09290224f, -0.02177327f, 0.06187807f, -0.30690271f, 0.14157605f, -0.05777316f, 0.16083719f, -0.02549919f, -0.19854337f, 0.47520882f, -0.13895099f, 0.12874095f, -0.15430525f, 0.06035047f, -0.04689417f, 0.06979497f, -0.06290783f, -0.10231523f, -0.06286260f, 0.15830468f, -0.09020846f, -0.18183041f, -0.06002939f, 0.13088766f, -0.04000200f, 0.00337828f, 0.05835715f, 0.10400607f, -0.13750240f, -0.04154191f, 0.11354034f, -0.08380976f, -0.16847225f, 0.03702243f, -0.23253067f, 0.07740931f, -0.09600696f, -0.13559616f, 0.05147689f, 0.00963860f, 0.05449557f, 0.19117507f, -0.01117569f, 0.29585150f, 0.03895392f, -0.12405920f, 0.14592458f, 0.24878688f, -0.17811820f, 0.00815000f, -0.08636331f, -0.01113781f, 0.26027423f, -0.27094412f, -0.05029022f, -0.42058992f, -0.09521420f, 0.05877405f, -0.10931201f, -0.38913712f, -0.10537167f, 0.18781419f, 0.09414995f, -0.03614591f, -0.16645336f, -0.18485187f, 0.25826377f, -0.14194418f, 0.29165649f, 0.25116050f, 0.13844433f, -0.13164000f, 0.17153513f, 0.04749547f, -0.00467432f, -0.19251528f, 0.07344421f, -0.09956691f, 0.03285305f, -0.27916947f, -0.22390512f, 0.01364953f, 0.06178113f, -0.01606326f, -0.17111501f, -0.29826865f, -0.07703714f, 0.00857460f, 0.08472153f, 0.07771943f, -0.21474490f, 0.01434289f, 0.08578794f, -0.19747330f, 0.02142203f, -0.14347599f, -0.21357842f, -0.14899954f, -0.11006742f, 0.13097139f, -0.07822844f, 0.09223520f, 0.28549999f, 0.06586520f, -0.21917045f, 0.05837095f, -0.11100241f, 0.00728559f, -0.04728803f, -0.03287517f, -0.02538872f, 0.12412965f, 0.14072591f, 0.16244696f, -0.11994280f, 0.26496646f, 0.25189623f, -0.08288647f, -0.08656678f, 0.08308103f, -0.08056346f, -0.08024589f, 0.08849126f, -0.12627435f, -0.37158778f, -0.14528967f, -0.17489707f, -0.29480433f, 0.13261807f, -0.06764807f, -0.22723162f, -0.03858929f, 0.15580904f, -0.14434201f, -0.08989204f, -0.24833776f, 0.16684082f, 0.03857402f, -0.14517230f, -0.33478814f, 0.19857846f, 0.21984257f, 0.08386180f, 0.21198112f, 0.44880429f, -0.23746727f, 0.01052267f, -0.05178414f, -0.10458152f, 0.35775879f, 0.18882878f, 0.30330336f, 0.16302262f, -0.10246554f, -0.22268979f, -0.07873505f, -0.18181571f, -0.05539520f, -0.16315080f, -0.04234368f, 0.03183953f, -0.00514557f, 0.01645291f, -0.07279639f, 0.14221677f, -0.12007039f, 0.13172220f, -0.21561441f, 0.01643511f, 0.07082974f, 0.13241363f, -0.04217983f, -0.07177314f, 0.04032869f, -0.17424418f, 0.05742417f, 0.06120976f, 0.25292474f, 0.21434198f, -0.12322254f, 0.16302723f, 0.08772291f, 0.23825938f, 0.09586928f, -0.02464811f, 0.15599409f, -0.05867130f, 0.03547443f, 0.06278259f, -0.18269047f, -0.03228484f, -0.02140086f, -0.05848372f, 0.35601711f, -0.06154577f, -0.21541123f, 0.09677777f, -0.30167252f, 0.00999097f, -0.20252439f, 0.31095532f, -0.16091757f, 0.01429176f, -0.02473810f, -0.04918489f, 0.14901292f, 0.07441022f, -0.04175014f, -0.09036557f, 0.01829182f, 0.01231227f, -0.05164811f, -0.06875969f, -0.06838612f, 0.05907205f, -0.19890647f, -0.19725463f, 0.04304638f, 0.14133108f, -0.00308693f, 0.06855806f, 0.02886201f, 0.18123485f, 0.12620357f, -0.29213861f, -0.09432706f, 0.29465115f, 0.05758708f, 0.34402019f, -0.05148377f, -0.06025807f, 0.18374734f, -0.08263713f, 0.02309931f, -0.20502152f, -0.24094702f, 0.07952140f, -0.21105170f, -0.03184902f, -0.05298975f, 0.23870569f, -0.01282312f, -0.13605377f, 0.20688234f, -0.00056082f, -0.40522024f, -0.27019045f, -0.05493735f, -0.27979362f, -0.01814560f, -0.21875876f, -0.40807265f, 0.12831034f, -0.12742862f, 0.07454081f, 0.07682795f, -0.00739742f, -0.04158376f, -0.09744807f, -0.04392273f, -0.14821641f, -0.15829676f, -0.23548815f, -0.16140862f, 0.16417120f, 0.01969650f, 0.07963913f, -0.23766749f, 0.01648476f, -0.20181184f, -0.21648507f, -0.04505158f, -0.00569538f, 0.12650512f, -0.14318140f, -0.08424568f, -0.21365239f, -0.26760647f, 0.13776743f, -0.37516633f, -0.02480762f, -0.08974168f, -0.10646776f, 0.02189950f, -0.16583891f, 0.02105394f, 0.03608694f, -0.08595431f, 0.08942020f, -0.23262966f, 0.19306362f, 0.12003864f, -0.04107057f, 0.04992805f, -0.20084502f, 0.12604688f, 0.02326705f, -0.19549733f, -0.10513809f, -0.19079609f, 0.06843870f, 0.10492895f, -0.30295703f, 0.09906214f, -0.04181297f, -0.21921729f, -0.12563646f, -0.24509542f, -0.11407577f, 0.10406600f, 0.14032562f, 0.52338392f, 0.19211513f, 0.00602798f, -0.11919799f, 0.09333032f, 0.10690015f, 0.42602223f, -0.14882483f, 0.22893213f, 0.16553667f, 0.02537917f, 0.23949297f, -0.21619889f, -0.09347171f, -0.14478448f, 0.05259350f, -0.18149886f, 0.08830076f, -0.00200621f, 0.03980247f, -0.02263054f, 0.07617785f, 0.06582835f, 0.24309136f, 0.10105705f, -0.10284167f, -0.25593376f, -0.20061967f, -0.03169015f, -0.07368315f, 0.18929434f, 0.19383910f, 0.09415150f, 0.28840727f, -0.08216560f, -0.11953013f, 0.01439055f, -0.03560837f, 0.02057476f, 0.10540879f, -0.11766265f, -0.14358111f, -0.03633527f, -0.00384372f, -0.02214606f, 0.09299749f, 0.22961245f, 0.07249086f, -0.23988259f, -0.24019916f, 0.19895612f, 0.06564249f, 0.16786119f, -0.12305820f, 0.06553496f, 0.18754932f, 0.13883439f, -0.04507146f, -0.25508776f, -0.03225269f, -0.10126099f, 0.06624322f, 0.22779836f, 0.15669951f, -0.01877379f, 0.22726549f, -0.20652261f, 0.02182468f, -0.08896399f, 0.26562589f, 0.25442073f, -0.20624350f, -0.08620912f, 0.04249119f, 0.01718956f, -0.16621147f, -0.63791406f, 0.08113955f, 0.00595964f, -0.04682274f, 0.05418507f, 0.13868468f, -0.05841353f, 0.08064841f, -0.06402051f, -0.33131090f, -0.46864927f, 0.17318913f, -0.00503709f, -0.02690659f, 0.26636329f, 0.08132872f, 0.16798770f, -0.03719765f, -0.03228505f, 0.19128299f, -0.46671936f, 0.08759777f, -0.13289554f, 0.01807946f, -0.12248261f, -0.05747405f, -0.37842092f, 0.12575528f, -0.01652799f, 0.22679490f, 0.06675870f, 0.30057567f, 0.10988823f, -0.21647495f, 0.01673416f, -0.02819792f, -0.09273568f, -0.03088316f, 0.22449015f, -0.15789562f, -0.33737257f, 0.00072364f, 0.00670989f, -0.10946563f, 0.13749029f, -0.12199198f, 0.09302869f, -0.02245861f, 0.24683785f, -0.11909859f, -0.10719536f, 0.07684783f, 0.22837785f, -0.17379746f, -0.25629550f, -0.07416637f, -0.22383164f, 0.03947455f, 0.13854091f, -0.12424160f, -0.16707122f, 0.00038682f, -0.07178313f, -0.06991313f, -0.11974642f, 0.14662229f, -0.17567742f, 0.02824487f, 0.06622754f, 0.10273620f, -0.08041310f, 0.22669017f, 0.14817613f, -0.01944276f, -0.03773071f, -0.33374906f, 0.15188202f, 0.14801487f, 0.06662102f, -0.19855668f, 0.14311050f, 0.08329178f, -0.15764624f, -0.04308869f, -0.23390305f, -0.01523930f, 0.02901126f, -0.03516748f, 0.20667347f, 0.33157802f, 0.31074521f, 0.01639054f, -0.07807366f, -0.12267403f, -0.43429953f, -0.12935561f, 0.50889039f, -0.08404297f, -0.02047192f, 0.03171541f, -0.07162020f, 0.00765618f, 0.14415407f, 0.07247119f, -0.11165097f, 0.07417687f, 0.00572500f, -0.02114788f, -0.03259329f, 0.06122115f, -0.04376648f, -0.03388884f, 0.09650652f, -0.25505102f, -0.05643447f, 0.03971370f, -0.14229666f, -0.10739437f, -0.15608460f, 0.17350304f, -0.12730885f, 0.04102438f, 0.05729883f, -0.15296330f, 0.18072610f, 0.22757430f, 0.06505230f, -0.33016744f, -0.14022841f, 0.29399237f, 0.04840883f, -0.19454382f, 0.07893332f, 0.06024854f, -0.29663196f, -0.20521137f, 0.10609409f, 0.00827726f, 0.09495118f, -0.19306104f, -0.11730289f, -0.10366643f, -0.18064858f, -0.10547855f, -0.21069311f, -0.06632271f, 0.12880956f, -0.04105558f, 0.21095283f, 0.08098138f, 0.09695471f, -0.24793679f, 0.24785429f, 0.19697340f, -0.26421747f, 0.00356251f, -0.22164230f, 0.06103634f, -0.22630559f, -0.21048616f, 0.03367113f, 0.14474158f, -0.03924098f, -0.07130493f, -0.13887878f, -0.01633159f, -0.10881678f, -0.16761191f, -0.07442769f, 0.34994608f, -0.07420143f, -0.19865057f, 0.07661743f, -0.12442485f, -0.13433385f, -0.11421254f, 0.08518725f, -0.09117772f, 0.03800123f, 0.15041529f, -0.05625777f, -0.15819454f, 0.02929103f, -0.08508559f, -0.09729782f, -0.22165149f, -0.02523080f, -0.18867287f, 0.04015755f, -0.02856284f, 0.06827048f, -0.05860703f, -0.40887702f, 0.25992310f, -0.03700645f, 0.33012351f, -0.07355727f, 0.15747255f, -0.18446378f, 0.03421062f, 0.07963667f, 0.03175350f, -0.18026990f, 0.01321616f, -0.01453337f, -0.05085467f, 0.10346511f, -0.08221342f, 0.00091368f, 0.05740970f, -0.10698118f, 0.16373880f, -0.04706879f, -0.14475638f, -0.07507194f, -0.03380940f, 0.03022938f, -0.09263739f, -0.06353586f, -0.06505098f, 0.19674452f, -0.03877850f, -0.08239919f, 0.07624851f, -0.03077330f, 0.13182588f, -0.24261664f, 0.06291998f, -0.07444843f, -0.03042970f, 0.03635166f, 0.07269781f, 0.06956866f, -0.05657522f, -0.10501286f, -0.00940088f, -0.06028991f, -0.17703623f, 0.15018615f, 0.02672619f, 0.04554554f, 0.09328863f, 0.23085688f, 0.01972637f, 0.15742494f, 0.04536843f, -0.19623896f, 0.13703460f, -0.08740920f, 0.06645760f, 0.08892124f, 0.02584790f, 0.14794396f, -0.17572504f, 0.01275694f, -0.21327198f, 0.16808389f, 0.12768987f, -0.00199226f, 0.01231135f, -0.15977706f, 0.08543932f, -0.03240414f, -0.15357471f, -0.04468883f, 0.06512527f, -0.12561320f, 0.03809084f, 0.03402806f, -0.14497228f, 0.26004395f, -0.32261804f, 0.03429097f, -0.03961247f, -0.00329220f, -0.05504393f, 0.02585742f, -0.05596326f, -0.14645301f, 0.03064277f, -0.02543569f, 0.12753709f, -0.13781244f, -0.09997251f, -0.20619838f, -0.13920610f, 0.13086335f, 0.04776588f, 0.05308061f, -0.15265937f, -0.09889599f, 0.21765846f, -0.00252716f, 0.08265565f, -0.23708466f, 0.00253881f, -0.11517125f, -0.00093274f, 0.16753148f, -0.00138570f, -0.05684877f, -0.09305848f, -0.05295779f, -0.18037705f, 0.08693836f, 0.16708128f, -0.02217045f, -0.05868333f, -0.19370227f, 0.01269427f, -0.03103262f, -0.13383320f, -0.03632389f, 0.09671189f, 0.10167929f, 0.28964144f, -0.07989042f, -0.04801430f, -0.10098556f, -0.00002802f, -0.00066729f, 0.06563433f, 0.22049478f, -0.01722212f, -0.06304292f, -0.11918035f, 0.12320153f, -0.24246371f, 0.06554975f, 0.07841236f, 0.11144286f, 0.00931062f, 0.15008646f, -0.02426186f, 0.19609936f, -0.09857155f, -0.08579583f, -0.03530467f, -0.09499679f, 0.08258815f, 0.06579474f, 0.01726887f, -0.08982855f, 0.15838794f, 0.16070952f, -0.04503652f, -0.22748363f, -0.10120890f, 0.02737175f, -0.03828495f, 0.13096258f, -0.08412863f, -0.12165665f, 0.14810123f, -0.11512859f, 0.02346761f, -0.18858384f, 0.01808264f, 0.01135738f, 0.18666166f, -0.06984852f, 0.18420480f, -0.03099834f, 0.08193817f, -0.11566484f, 0.08027494f, 0.04014409f, 0.04871035f, -0.06089994f, -0.01927364f, 0.09745448f, -0.32520312f, -0.09329422f, -0.06948736f, -0.08525882f, -0.07194059f, -0.04298447f, 0.11846746f, -0.13099208f, -0.22034325f, -0.02172736f, -0.02323788f, -0.00547196f, -0.04684084f, -0.08066022f, 0.11319334f, -0.25412738f, 0.26147011f, -0.01410683f, 0.02742706f, 0.19501252f, 0.09248687f, 0.06144816f, 0.13228448f, -0.16550113f, -0.02051918f, -0.15926555f, -0.03541594f, 0.17052537f, -0.07391599f, 0.03455721f, -0.04892801f, -0.04093147f, -0.07371722f, 0.09702598f, 0.25121978f, -0.13040134f, -0.16846107f, -0.04108629f, -0.08805230f, 0.08340238f, -0.16107003f, 0.10194105f, -0.02991645f, -0.06021670f, 0.14777029f, -0.01711671f, 0.12090301f, 0.12726356f, 0.01479008f, -0.05596124f, 0.00204503f, 0.08926754f, -0.20263648f, 0.17386320f, 0.11999348f, 0.02869800f, -0.05793197f, -0.18313237f, -0.10599570f, -0.26288968f, 0.02627671f, 0.06967155f, -0.13547328f, 0.11592625f, 0.13529482f, 0.05837573f, -0.25455567f, -0.06291503f, -0.07140071f, 0.12565909f, 0.12035944f, -0.06934823f, 0.04700157f, 0.08821576f, -0.18383624f, 0.08316073f, -0.05749441f, -0.03816770f, -0.40356189f, 0.02232366f, -0.05574512f, 0.02518859f, -0.17923787f, 0.13764657f, 0.02636104f, -0.17620316f, -0.13982812f, -0.04129891f, 0.25707951f, -0.30171797f, -0.20279633f, 0.11403833f, -0.14583670f, -0.00685573f, -0.10201067f, -0.08300009f, 0.44291875f, -0.02626268f, -0.15740971f, -0.02674361f, -0.11602882f, -0.03717962f, 0.14199424f, 0.14956044f, 0.11743654f, 0.07449353f, 0.11820358f, 0.07237884f, -0.05896267f, -0.13303834f, -0.15318915f, 0.06072727f, 0.12173300f, -0.15265787f, 0.00253861f, 0.03514488f, -0.20439646f, -0.04188331f, -0.04733876f, -0.25263798f, -0.05104148f, -0.13850611f, -0.13630484f, 0.14834166f, -0.04048503f, -0.04719371f, -0.17101385f, 0.06974915f, -0.09172376f, 0.15540552f, -0.12647618f, -0.11404836f, -0.00260035f, 0.08242135f, -0.06440917f, 0.18398167f, -0.14504889f, -0.05925554f, -0.01519949f, 0.13592812f, 0.01083723f, 0.11850987f, -0.05175918f, -0.09766201f, -0.06502295f, 0.03361808f, -0.06596728f, 0.05104508f, -0.12600088f, -0.02871175f, 0.10719103f, -0.19037977f, 0.01800556f, -0.04416383f, -0.00302674f, -0.05024057f, -0.20193873f, 0.07134309f, 0.11592092f, -0.16105051f, 0.21132085f, 0.03753399f, -0.17729795f, 0.07292441f, 0.06115850f, 0.10205971f, 0.06103259f, -0.18605989f, -0.09478988f, 0.03989246f, 0.17426544f, 0.08477179f, -0.07878166f, 0.15131283f, 0.18333437f, -0.06807239f, -0.03416306f, -0.10271732f, -0.12325092f, 0.11505575f, -0.12775493f, -0.06881330f, -0.21280164f, 0.10204887f, -0.08269283f, 0.23525259f, 0.08928270f, 0.06742386f, -0.10050202f, -0.04236877f, -0.13575475f, -0.05918472f, 0.04569728f, -0.06514362f, -0.16960022f, -0.03389205f, 0.03168383f, -0.10571352f, 0.09621709f, -0.13767701f, -0.00521050f, -0.16608512f, 0.06228114f, 0.09075595f, -0.09695532f, 0.03713958f, -0.06751193f, -0.03657191f, 0.11361171f, -0.18312705f, 0.05558183f, 0.10111144f, 0.04249348f, -0.18659927f, -0.11777411f, 0.15804757f, -0.10559569f, -0.09469854f, -0.08700574f, 0.09083374f, -0.13420880f, -0.04851248f, 0.06416836f, 0.04462263f, 0.25933188f, 0.06512045f, 0.03999223f, 0.01673437f, 0.07117638f, 0.04230224f, -0.19724409f, -0.04806836f, -0.23017566f, -0.12191605f, -0.11310536f, -0.00257601f, 0.08130804f, -0.03272992f, 0.11446705f, -0.09039108f, -0.01924825f, 0.10427350f, 0.12597962f, 0.12809128f, -0.14185438f, 0.08624912f, 0.00447321f, -0.01659374f, -0.12511790f, 0.22870556f, -0.01031630f, -0.15788390f, 0.06785201f, -0.23917384f, -0.07061167f, 0.13660982f, 0.08849177f, 0.05811171f, -0.21331163f, 0.16078708f, -0.02661057f, 0.08103698f, 0.07321557f, 0.21804920f, -0.04434810f, 0.10774843f, 0.08459094f, -0.30146071f, 0.26930442f, -0.05123188f, -0.13092050f
};

// shape: [49]
static const float note_head_bias[49] = {
    0.07749179f, -0.07588038f, 0.10900953f, 0.13277301f, 0.16821232f, 0.11078034f, -0.07224368f, 0.01585934f, 0.07309009f, 0.01796749f, 0.03196230f, -0.11944695f, 0.16533855f, -0.17773598f, 0.15811065f, 0.07347871f, 0.00413198f, 0.05240272f, 0.01525605f, 0.01296242f, 0.00562269f, 0.12569226f, 0.03533152f, -0.04035329f, 0.07193588f, 0.03812528f, 0.05957333f, 0.00504783f, 0.14004351f, 0.02003125f, -0.03577473f, -0.04205185f, -0.02324775f, -0.06558299f, -0.02145225f, -0.11595127f, -0.13074748f, 0.03918817f, -0.08053744f, -0.04573677f, -0.12965856f, -0.03380281f, 0.02627229f, -0.06202159f, -0.10902670f, -0.13318150f, -0.03828743f, -0.03527477f, -0.03642406f
};

// shape: [6, 96]
static const float string_head_weight[576] = {
    0.24243978f, 0.02424583f, -0.04481287f, -0.17345095f, -0.58224326f, 0.02779065f, 0.04918868f, 0.44069862f, 0.01472298f, 0.19450268f, -0.41890523f, 0.06931372f, -0.30836141f, -0.68384832f, -0.31256637f, 0.13930117f, 0.52552772f, -0.06985131f, 0.29044244f, -0.30742475f, -0.02345395f, 0.10821701f, -0.04177475f, 0.05434074f, -0.34311181f, 0.28512779f, -0.45055735f, 0.00465212f, -0.27042681f, 0.40601850f, 0.36176836f, -0.48577669f, -0.25754318f, -0.11973505f, 0.21558589f, 0.11033775f, -0.16987418f, -0.43781966f, 0.53239197f, 0.30905682f, -0.14025603f, 0.23810466f, 0.21004905f, 0.51339889f, -0.36531878f, 0.24093352f, -0.30357763f, 0.19151784f, 0.76235634f, -0.24600682f, 0.03764848f, -0.38522214f, 0.33699670f, -0.43343103f, 0.09349547f, -0.20561227f, -0.19977529f, -0.14091289f, -0.11405678f, -0.17494033f, 0.15725492f, 0.04474229f, -0.09108936f, -0.48245853f, -0.14760134f, -0.68679047f, 0.54351175f, 0.12991811f, -0.04616443f, 0.25812203f, 0.42829427f, -0.18408576f, 0.41614935f, -0.57880867f, 0.06034800f, 0.40576312f, -0.25315854f, -0.27871048f, 0.04031007f, -0.34075344f, -0.26539266f, -0.27156627f, -0.32924289f, 0.09124983f, -0.35240772f, -0.15868953f, -0.48989895f, -0.65513688f, 0.16617888f, 0.30431852f, -0.76388717f, 0.55142969f, -0.30080992f, -0.20119213f, 0.84843612f, -0.17325340f, -0.41134721f, 0.27590126f, 0.21732682f, -0.07818878f, 0.06462408f, 0.09094911f, 0.00513819f, -0.46992311f, -0.42612693f, -0.45851946f, -0.32524002f, 0.26254010f, -0.24852644f, -0.48812070f, 0.44103652f, -0.40098774f, -0.05853656f, -0.02549930f, 0.10772973f, 0.74992228f, -0.01835863f, -0.02362474f, 0.28064483f, -0.25804156f, -0.17352948f, -0.30180153f, 0.12083400f, 0.13430630f, 0.10902442f, -0.40684131f, -0.50749207f, -0.02472113f, 0.71059936f, -0.09484833f, 0.24357907f, -0.11269411f, -0.31617913f, -0.50850356f, -0.65506619f, 0.40366864f, 0.17470077f, 0.61101735f, 0.38095528f, -0.23362444f, 0.13962843f, -0.03776407f, -0.10291817f, -0.19360775f, -0.63967675f, -0.23050955f, -0.18112411f, 0.10443846f, -0.54892969f, -0.15826447f, 0.41546550f, 0.72784668f, -0.06004087f, -0.07716701f, -0.24037695f, 0.22958869f, 0.27506572f, -0.16728812f, -0.23467486f, -0.05451932f, 0.30584997f, 0.64651793f, -0.55225533f, 0.24299340f, -0.00406422f, 0.25515175f, -0.40041927f, -0.00233305f, -0.73079717f, -0.34969220f, -0.15205096f, 0.12059654f, -0.41962937f, -0.22209099f, -0.08919518f, -0.36285010f, 0.15794723f, -0.18962005f, -0.04843339f, -0.03665183f, 0.75528342f, -0.28265768f, -0.46962512f, -0.38572276f, 0.17240797f, 0.35896772f, 0.93677717f, -0.65803295f, -0.12291339f, 0.01300645f, -0.21843560f, -0.06490171f, -0.11605553f, 0.04879438f, -0.03702854f, 0.39288908f, 0.14325450f, -0.13067952f, 0.08824843f, -0.43883291f, 0.76617712f, -0.35032788f, 0.07005978f, 0.05418726f, -0.24056344f, 0.45583594f, 0.42004561f, -0.61645794f, -0.56437361f, -0.22622839f, -0.13144982f, -0.21214896f, -0.22244881f, 0.36406314f, 0.47833517f, -0.16651607f, -0.02096770f, -0.50145531f, 0.47539195f, 0.17896642f, 0.13086364f, 0.31981590f, 0.07396752f, -0.11472520f, -0.17782989f, -0.36729777f, -0.49003962f, -0.31368273f, -0.06804342f, -0.62764484f, 0.37717846f, -0.59267622f, -0.26202103f, -0.52353156f, -0.79192811f, -0.35354778f, 0.08748382f, -0.28112477f, 0.08692539f, 0.23147474f, -0.18268448f, -0.11351116f, -0.44444981f, -0.20086341f, 0.34976882f, -0.07012587f, -0.87246501f, 0.16804349f, 0.01002128f, -0.53081340f, 0.06370458f, -0.30401024f, 0.23393831f, -0.17099459f, 0.31448194f, 0.25851184f, -0.13625537f, 0.34159973f, -0.11656506f, 0.11695357f, -0.26405537f, -0.50005257f, -0.24965981f, 0.28393528f, 0.84360993f, 0.95052165f, -0.10816219f, -0.57593465f, 0.29482192f, 0.43180966f, -0.20166001f, 0.56628972f, -0.01970725f, -0.28965580f, -0.13660181f, 0.01734079f, -0.05736364f, 0.03573040f, 0.75073367f, -0.06707659f, -0.47151729f, -0.33796996f, -0.61255169f, -0.24354047f, -0.12813975f, -0.12156919f, -0.53377414f, -0.32997093f, -0.07575063f, -0.08552700f, 0.26156995f, 0.08397796f, -0.50319862f, -0.14701372f, -0.01252314f, 0.07978987f, 0.05695085f, 0.04665771f, -0.17515321f, -0.15695947f, -0.28469720f, 0.32251489f, -0.17906351f, 0.02519096f, -0.21932401f, -0.23175967f, -0.04154261f, -0.23552641f, 0.03939442f, -0.10520004f, -0.18637516f, -0.18830237f, -0.26547661f, 0.12669702f, -0.05869395f, 0.05466750f, -0.22965491f, -0.43718988f, -0.14184760f, -0.25246310f, -0.10644453f, -0.18729939f, -0.14380357f, -0.23967780f, 0.04602496f, 0.43042600f, -0.26028267f, 0.21878535f, -0.38503751f, -0.39630261f, 0.00463725f, -0.10063904f, -0.31359297f, 0.03900585f, -0.38120297f, 0.25326276f, 0.10533597f, -0.07339666f, -0.25931478f, -0.13581267f, 0.06627821f, 0.25616452f, 0.06669348f, -0.35209525f, -0.18325585f, -0.02573087f, -0.11549529f, -0.06732035f, -0.08887880f, -0.02626372f, 0.11902404f, -0.37285659f, 0.11705253f, -0.17071709f, -0.18962479f, 0.11457153f, -0.15703106f, 0.08726011f, -0.32746154f, -0.06286655f, -0.50427532f, -0.12457749f, -0.36294594f, -0.24650423f, 0.03544464f, -0.37640062f, 0.00854270f, 0.24241722f, -0.34984416f, -0.16206396f, 0.26579323f, 0.14913468f, 0.10896245f, 0.01657812f, -0.15554458f, 0.34951207f, -0.08456119f, -0.28178135f, 0.40317488f, -0.05429629f, -0.29105809f, -0.19812991f, 0.03189671f, -0.23559937f, 0.32699159f, -0.34039247f, -0.09771658f, -0.24514051f, 0.07363862f, -0.17673877f, 0.06220384f, -0.66237772f, -0.33807254f, -0.02736792f, 0.04610230f, -0.07154744f, 0.07418631f, 0.24385764f, -0.26759472f, 0.77445483f, -0.13275124f, 0.11078354f, -0.30111259f, -0.11635622f, 0.52337700f, -0.50503379f, -0.34677643f, 0.07554229f, 0.50889957f, -0.34391192f, 0.16389972f, -0.82392466f, -0.18446434f, 0.45053017f, 0.33918092f, -0.13512768f, -0.35640451f, 0.09392377f, -0.33401743f, 0.20645936f, -0.70606512f, 0.41431877f, -0.15369211f, -0.28363559f, 0.34973747f, -0.20997488f, -0.79473811f, -0.28243214f, -0.28126860f, 0.23189755f, 0.75055927f, -0.33878905f, -0.44048581f, -0.20505051f, 0.66181099f, -0.11102441f, -0.25350171f, 0.06919255f, 0.74079537f, -0.25710708f, -0.28131530f, 0.34340805f, -0.06301333f, 0.15298639f, -0.22308730f, 0.43651444f, -0.05039913f, -0.00328756f, -0.34930703f, -0.24064302f, -0.16291635f, -0.18648587f, 0.00123582f, -0.19925784f, -0.00856394f, 0.11681253f, -0.53789568f, -0.09521537f, 0.07492301f, 0.10059135f, 0.32303032f, 0.32101595f, 0.15659058f, -0.09499691f, -0.01650396f, 0.74535507f, -0.22209114f, -0.12687382f, -0.82878429f, 0.48242003f, 0.11963692f, -0.12575404f, -0.04639362f, 0.06210741f, -0.71892655f, -0.39874119f, -0.61796743f, 0.09500767f, -0.40782264f, -0.32951364f, -0.43266326f, -0.65482521f, -0.31462672f, -0.11518185f, 0.28913453f, 0.16141562f, -0.49954131f, 0.71401256f, -0.61209089f, 0.37409499f, 0.29362753f, -0.26320514f, 0.33871096f, 0.10489088f, -0.60178703f, -0.57485712f, -0.30149180f, 0.32799581f, -0.42117167f, -0.21292387f, -0.38605788f, -0.17073545f, -0.16466698f, -0.01024603f, -0.13019918f, 0.67981344f, -0.54033530f, 0.14800255f, 0.10151285f, -0.46160054f, 0.00291191f, 0.33767131f, -0.30398098f, 0.07421713f, -0.24534528f, 0.15876170f, 0.64951706f, 0.19543219f, -0.34346214f, -0.61737126f, 0.09443984f, -0.39417002f, 0.74072737f, -0.24139269f, 0.27499595f, -0.70565510f, -0.33689925f, 0.03411722f, -0.59031135f, 0.40504321f, -0.26098430f, 0.25615919f, -0.46116388f, 0.04699060f, -0.81362212f, -0.47117585f, 0.18349342f, 0.10172753f, 0.27473456f, -0.07231567f, -0.45918462f, -0.10269588f, 0.11839616f, 0.02404909f, 0.36434162f, -0.04706631f, 0.21459781f, -0.51628429f, 0.06531709f, -0.16702271f, 0.31221607f, -0.20485300f, -0.08796286f, -0.40871626f, 0.19737312f, 0.09229513f, -0.08695021f, 0.11681290f, -0.11554074f, -0.70646131f, 0.24460611f, -0.20849110f, 0.18051958f, -0.13544132f, 0.06478675f, -0.38207406f, -0.05309512f, 0.19474992f, 0.11624837f, -0.48975340f, 0.36864430f, 0.40673167f, 0.77836061f, 0.03033200f, 0.23877081f, 0.48625180f
};

// shape: [6]
static const float string_head_bias[6] = {
    0.15789078f, -0.11033865f, 0.04187819f, -0.04079811f, -0.03308777f, 0.10183430f
};

