// Auto-generated - DO NOT EDIT
// OnsetNet weights for Daisy Seed bare metal inference
// sr=48000 note_vocab_size=49 window_samples=384

#pragma once
#include <stdint.h>

#define ONSET_SR                 48000
#define ONSET_NOTE_VOCAB_SIZE    49
#define ONSET_WINDOW             384
#define ONSET_WIDTH              96
#define ONSET_N_STRINGS          6

static const char* onset_pitch_names[] = {
    "E2",
    "F2",
    "F#2",
    "G2",
    "G#2",
    "A3",
    "A#3",
    "B3",
    "C3",
    "C#3",
    "D3",
    "D#3",
    "E3",
    "F3",
    "F#3",
    "G3",
    "G#3",
    "A4",
    "A#4",
    "B4",
    "C4",
    "C#4",
    "D4",
    "D#4",
    "E4",
    "F4",
    "F#4",
    "G4",
    "G#4",
    "A5",
    "A#5",
    "B5",
    "C5",
    "C#5",
    "D5",
    "D#5",
    "E5",
    "F5",
    "F#5",
    "G5",
    "G#5",
    "A6",
    "A#6",
    "B6",
    "C6",
    "C#6",
    "D6",
    "D#6",
    "E6",
};

// shape: [48, 1, 9]
static const float l0_conv_weight[432] = {
    0.36480805f, 0.28501967f, -0.19859980f, 0.16327712f, -0.27864221f, -0.09578601f, -0.32977748f, 0.10287653f, 0.20181745f, -0.36341104f, 0.17279269f, -0.03522307f, 0.13744088f, -0.03430349f, 0.10042113f, -0.10207600f, 0.36720625f, 0.28500929f, -0.13163026f, 0.15575349f, -0.09049187f, 0.08335356f, -0.04773764f, 0.35213223f, -0.22029604f, -0.24255961f, -0.44714451f, -0.26131624f, -0.00924269f, -0.33539745f, 0.30819887f, -0.25955942f, 0.28583360f, 0.09471455f, -0.06058608f, 0.25584656f, 0.03170806f, 0.19992472f, -0.06876376f, -0.24307793f, -0.05713975f, -0.24169095f, 0.01307734f, 0.27670738f, 0.30378586f, -0.14747354f, 0.22134516f, 0.09348320f, 0.19517864f, -0.16794582f, -0.31762320f, -0.08716320f, -0.18931292f, 0.39076111f, 0.22524340f, 0.20464087f, 0.10195291f, -0.01980392f, 0.23184569f, -0.26493597f, -0.02167283f, -0.27939400f, 0.02723594f, -0.08504968f, 0.13797000f, -0.05547499f, 0.28535393f, -0.21932337f, -0.23145114f, -0.24739957f, 0.29699445f, 0.14155395f, 0.47458693f, -0.15359804f, -0.25891969f, -0.23998296f, -0.22721085f, 0.14164869f, 0.12651312f, 0.29329833f, -0.15669502f, -0.28004894f, 0.19611032f, -0.11208048f, 0.27702585f, -0.02396575f, 0.23246202f, -0.21569039f, -0.18428946f, 0.07144484f, 0.13524459f, -0.03817078f, 0.22070496f, 0.24296357f, -0.24225716f, -0.18753278f, 0.28494477f, -0.17320047f, -0.19958137f, -0.29272154f, -0.11301772f, 0.22403142f, 0.19041187f, 0.03470891f, 0.27021128f, -0.02546695f, -0.23528560f, -0.41470215f, -0.34279814f, -0.16522779f, 0.43053034f, 0.18145521f, 0.20471147f, -0.23739696f, -0.15064959f, -0.06155722f, 0.08505676f, -0.39088634f, -0.13506866f, 0.01377355f, 0.26787663f, 0.14099155f, 0.12017781f, -0.14809355f, -0.19621517f, -0.15432411f, -0.07720073f, -0.25312045f, 0.31783181f, -0.08350507f, 0.27472106f, 0.07440351f, -0.34181446f, 0.22015682f, -0.13197753f, -0.24675104f, -0.26914576f, -0.18819857f, 0.25632712f, 0.05112416f, 0.24303882f, -0.17962258f, 0.32494855f, -0.18610153f, -0.03074038f, 0.07937710f, 0.18391867f, 0.26516932f, 0.29144531f, -0.28872386f, 0.03404437f, -0.22157107f, -0.17599568f, -0.35955536f, 0.22326036f, -0.29895893f, 0.12440834f, 0.06890844f, 0.05978244f, -0.20488124f, 0.31360072f, 0.15414441f, 0.00443798f, -0.30724508f, 0.19826576f, 0.01290738f, -0.08174516f, 0.34013882f, 0.14819391f, -0.18089040f, -0.19019160f, -0.07871568f, 0.19947197f, -0.07878513f, -0.13279274f, -0.09628236f, -0.30195996f, -0.05371868f, 0.15235899f, -0.43616003f, 0.24419792f, 0.26863641f, 0.02175874f, -0.22883254f, 0.11904000f, 0.11637763f, 0.04549540f, -0.11807106f, -0.17000946f, -0.06828375f, -0.11624540f, -0.11642154f, 0.22423223f, 0.29951733f, -0.01060983f, -0.07583039f, -0.04878428f, -0.08713378f, 0.11558529f, 0.11078454f, -0.27970424f, -0.07737062f, 0.32775429f, 0.19463570f, 0.03540956f, -0.19538963f, -0.29214400f, -0.35992780f, -0.12872666f, 0.13150999f, 0.24910769f, 0.15374506f, -0.27377480f, -0.19931388f, -0.02300571f, 0.36973116f, 0.10870067f, -0.02658152f, 0.20542637f, -0.05561994f, -0.15917145f, 0.30480707f, -0.11504520f, -0.02695660f, -0.40215120f, 0.23417121f, 0.22523592f, 0.06654073f, -0.28858531f, -0.39413646f, -0.32709402f, 0.16834834f, 0.12658361f, 0.27721301f, 0.28463846f, 0.17104563f, 0.01601492f, -0.23774904f, -0.27596888f, -0.27773410f, 0.19832735f, -0.04071423f, 0.10273162f, -0.29280311f, -0.03083471f, -0.02256219f, -0.01005709f, 0.30015251f, 0.00345658f, 0.26398334f, -0.10844290f, -0.25371593f, -0.08252455f, -0.17400025f, -0.12941779f, -0.31671375f, 0.15789278f, -0.21251264f, 0.18267705f, 0.21774706f, 0.30314204f, -0.29531747f, 0.22181571f, -0.14585051f, 0.14532265f, 0.35044730f, -0.01350570f, 0.04818295f, -0.05487014f, -0.29041624f, 0.20594954f, -0.33161449f, 0.12375323f, 0.14872710f, 0.18020110f, -0.23923546f, -0.41491312f, 0.10991880f, 0.29998392f, -0.60402149f, -0.10733330f, -0.07720573f, 0.10768823f, 0.00427308f, -0.01017906f, 0.01495502f, -0.21712935f, 0.36198214f, 0.41460246f, 0.08614177f, 0.05795730f, -0.02164580f, -0.20601453f, -0.22652200f, 0.16315793f, -0.19014281f, -0.30853975f, -0.18980540f, -0.16398871f, 0.01508112f, 0.21471491f, 0.23731922f, 0.00124268f, -0.16431837f, -0.36509073f, 0.17339300f, -0.20431651f, 0.00278969f, -0.17481509f, -0.03656539f, 0.25526047f, 0.10437237f, -0.31386617f, 0.15391004f, 0.38844845f, 0.13614371f, 0.19227719f, 0.32713917f, -0.10287861f, 0.06060190f, -0.12088504f, -0.03794677f, 0.32840773f, 0.21770628f, -0.25188363f, -0.33392993f, -0.02295164f, -0.15609011f, -0.06410728f, 0.00982116f, 0.29959127f, 0.04297965f, -0.33204651f, -0.30809441f, 0.25313729f, -0.15155739f, 0.08979459f, 0.26196268f, -0.09216599f, 0.01740873f, -0.00314657f, -0.10271769f, -0.33321190f, -0.29530075f, -0.26871720f, -0.15206796f, 0.35160327f, -0.11597908f, -0.18592472f, 0.13834117f, 0.16113992f, 0.23312755f, 0.18618317f, 0.04149226f, -0.47592068f, -0.06443686f, 0.13690995f, -0.08491371f, -0.20607524f, 0.33095092f, -0.06866424f, -0.12996918f, -0.23055837f, 0.14121999f, 0.29711473f, 0.23862775f, 0.21687815f, -0.16959727f, -0.35634303f, 0.03541779f, 0.26636696f, 0.13483348f, -0.25528777f, -0.07889713f, -0.26588055f, -0.16064288f, 0.10009591f, 0.25414118f, 0.31699437f, -0.39780310f, 0.16643848f, -0.35288370f, 0.04684117f, 0.22703239f, -0.04206835f, 0.31429100f, -0.27536112f, -0.21593450f, 0.10562758f, -0.13688982f, -0.10918995f, -0.14257708f, 0.24510072f, 0.20932880f, 0.23831022f, 0.02773471f, -0.29566908f, 0.06135340f, 0.17059064f, -0.07364103f, -0.02699320f, 0.27259248f, 0.04350317f, -0.02016815f, -0.15510066f, -0.36475152f, -0.29885912f, -0.10422089f, -0.09283809f, 0.17875825f, -0.02214493f, -0.06472368f, 0.37408814f, 0.16244376f, 0.31521830f, -0.07965342f, -0.03391134f, 0.22967820f, -0.08840503f, -0.09884140f, 0.07812610f, -0.13825649f, -0.46114150f, 0.26136425f, 0.26168275f, 0.02169983f, -0.11196165f, -0.35384545f, -0.16733965f, 0.03949405f, 0.12500982f, -0.05542763f
};

// shape: [48]
static const float l0_bn_weight[48] = {
    0.84016997f, 0.53474462f, 0.27621147f, 1.15357149f, 0.72048968f, 1.05297852f, 0.85201037f, 1.27833247f, 1.31949937f, 0.92645836f, 1.02250636f, 0.71197176f, 1.07107747f, 0.38728964f, 1.68926227f, 0.96975297f, 0.84343976f, 0.97794664f, 0.92443115f, 0.24846590f, 0.69783705f, 1.40250909f, 0.81841379f, 1.10396612f, 0.67795646f, 1.27362168f, 0.55269146f, 0.60674948f, 1.20527947f, 1.52379477f, 0.89552492f, 0.46567327f, 0.64566177f, 0.51629758f, 0.95828784f, 0.49972606f, 0.31920424f, 0.85733396f, 0.34275573f, 0.77748460f, 0.86546892f, 1.17823875f, 1.12127542f, 0.85553610f, 1.04766381f, 0.91810066f, 0.95021123f, 1.29785764f
};

// shape: [48]
static const float l0_bn_bias[48] = {
    -0.65620869f, -0.00162491f, 0.02559397f, -0.11850598f, -0.08015566f, 0.11285920f, 0.00648078f, -0.26648748f, 0.04133871f, -0.28406966f, 0.12574367f, -0.48279285f, -0.39961174f, -0.12921110f, -0.04493644f, -0.72145534f, -0.22811557f, 0.00533676f, -0.05445557f, 0.00500865f, -0.21025790f, -0.00192624f, -0.15290605f, -0.17089614f, -0.11801320f, -0.22191229f, -0.13283288f, -0.07455659f, -0.02598373f, -0.14618224f, -0.59529310f, -0.00633895f, 0.05631630f, -0.21424451f, -0.30508092f, -0.00141267f, 0.00626881f, -0.00244579f, -0.00216854f, -0.20979543f, -0.01629283f, 0.11869663f, -0.18278664f, -0.71908766f, 0.10271084f, 0.13374856f, -0.77418113f, -0.24296482f
};

// shape: [48]
static const float l0_bn_running_mean[48] = {
    0.00168628f, 0.00405220f, -0.00456678f, 0.00012846f, 0.00168724f, -0.00003141f, 0.00161154f, 0.00019321f, -0.00000484f, -0.00030036f, 0.00037316f, -0.00285462f, -0.00042077f, -0.00374920f, -0.00003435f, -0.00156142f, 0.00109515f, 0.00058096f, -0.00044115f, -0.00637716f, 0.00229983f, -0.00001459f, -0.00048512f, -0.00064957f, -0.00128138f, 0.00072206f, -0.00038010f, -0.00116995f, -0.00040493f, -0.00027188f, 0.00064017f, -0.00406802f, -0.00174828f, -0.00184558f, 0.00132763f, 0.00778670f, -0.00629892f, -0.00028563f, -0.00541242f, 0.00078566f, -0.00051228f, 0.00027669f, 0.00000091f, 0.00170084f, -0.00020864f, -0.00182540f, -0.00211643f, 0.00019837f
};

// shape: [48]
static const float l0_bn_running_var[48] = {
    0.03942241f, 0.22953734f, 0.25261053f, 0.02857492f, 0.03658428f, 0.00211848f, 0.05666501f, 0.00172730f, 0.00192508f, 0.00134202f, 0.01819284f, 0.08824966f, 0.00348535f, 0.14930893f, 0.00136413f, 0.03912394f, 0.03854719f, 0.02665033f, 0.00230845f, 0.49246442f, 0.08323297f, 0.00088528f, 0.01262131f, 0.02044608f, 0.03769867f, 0.00645165f, 0.01090903f, 0.01389501f, 0.05041300f, 0.00292160f, 0.00442948f, 0.23615639f, 0.09314046f, 0.03774504f, 0.04792237f, 0.69541460f, 0.45785689f, 0.00099711f, 0.38464326f, 0.00669388f, 0.00359690f, 0.00199178f, 0.00093124f, 0.05889154f, 0.00157846f, 0.10639715f, 0.09441485f, 0.01290639f
};

// shape: [48]
static const float l0_bn_bias[48] = {
    -0.65620869f, -0.00162491f, 0.02559397f, -0.11850598f, -0.08015566f, 0.11285920f, 0.00648078f, -0.26648748f, 0.04133871f, -0.28406966f, 0.12574367f, -0.48279285f, -0.39961174f, -0.12921110f, -0.04493644f, -0.72145534f, -0.22811557f, 0.00533676f, -0.05445557f, 0.00500865f, -0.21025790f, -0.00192624f, -0.15290605f, -0.17089614f, -0.11801320f, -0.22191229f, -0.13283288f, -0.07455659f, -0.02598373f, -0.14618224f, -0.59529310f, -0.00633895f, 0.05631630f, -0.21424451f, -0.30508092f, -0.00141267f, 0.00626881f, -0.00244579f, -0.00216854f, -0.20979543f, -0.01629283f, 0.11869663f, -0.18278664f, -0.71908766f, 0.10271084f, 0.13374856f, -0.77418113f, -0.24296482f
};

// shape: [96, 48, 5]
static const float l1_conv_weight[23040] = {
    -0.04442587f, 0.05887793f, -0.06611541f, 0.00181063f, 0.00241975f, 0.05742031f, 0.00086300f, -0.00953689f, -0.05645039f, 0.04730465f, -0.10000230f, -0.06802459f, -0.16030422f, -0.30912071f, -0.31252488f, 0.10297413f, 0.01656025f, -0.10517512f, -0.07879365f, -0.12663230f, -0.08144035f, -0.02563722f, -0.02147237f, 0.00259567f, 0.06570817f, -0.02928334f, -0.05854236f, -0.02576011f, 0.02206515f, 0.06060566f, -0.03028008f, 0.00920204f, 0.09730056f, 0.05655916f, -0.01204686f, 0.04256965f, 0.06686328f, 0.06079552f, 0.00894440f, 0.15594624f, -0.13288555f, -0.05964005f, 0.01838276f, 0.11542202f, 0.12364379f, 0.02139580f, 0.17865160f, 0.01782008f, 0.22656955f, -0.04795384f, 0.06273928f, 0.02714441f, 0.03046159f, 0.00765240f, -0.05825137f, 0.12277117f, 0.08984886f, 0.16793188f, 0.19923702f, 0.37683758f, 0.06726179f, 0.05829571f, 0.05678892f, 0.11505044f, 0.08357301f, 0.12750842f, 0.06904902f, 0.09642165f, 0.12684195f, 0.13100617f, 0.02266905f, 0.05612925f, 0.03937507f, 0.02634733f, -0.08628473f, 0.02828888f, 0.00788133f, 0.01475746f, 0.00361733f, -0.01791733f, 0.13057141f, 0.03670253f, -0.02731749f, -0.08975959f, -0.07859470f, 0.05608704f, 0.06473597f, -0.01180285f, -0.00678424f, 0.09515417f, -0.20768301f, -0.22412007f, -0.14165035f, -0.14235939f, -0.13243450f, -0.06334623f, -0.07806668f, -0.13932814f, -0.21683647f, -0.31297597f, -0.00624559f, 0.10398026f, 0.05973851f, 0.00159604f, -0.11806847f, 0.09727633f, 0.05890303f, 0.03219011f, -0.09469278f, -0.14982623f, -0.09682420f, 0.16165347f, 0.01250719f, 0.11327174f, -0.03333934f, 0.15739042f, 0.14495991f, 0.05102599f, 0.05040136f, 0.11904251f, 0.04603826f, -0.00603370f, -0.06443460f, 0.12926461f, 0.32579604f, -0.29507485f, -0.09963742f, 0.02304754f, 0.07420909f, 0.23063104f, -0.05754971f, -0.09742199f, -0.25717026f, -0.17046164f, -0.12626196f, -0.02509345f, -0.08487603f, -0.11484186f, -0.04346769f, 0.04154544f, 0.00075844f, 0.02605592f, 0.03808549f, -0.02563054f, 0.01793918f, -0.17548305f, -0.15556876f, -0.04414944f, 0.13919060f, -0.02792400f, -0.04056064f, 0.03797991f, 0.02752444f, 0.02325113f, 0.07724131f, -0.05514436f, -0.06145532f, -0.05892589f, -0.06187222f, -0.05371963f, -0.54148656f, -0.47845373f, -0.37384284f, -0.23320562f, -0.08318211f, 0.01752091f, 0.12918606f, 0.09735199f, 0.14113046f, 0.11533702f, -0.04737946f, -0.11038170f, -0.11857069f, -0.11687924f, -0.01346088f, -0.00007520f, 0.07220209f, 0.08591139f, 0.05060973f, -0.03345744f, -0.12423297f, -0.04501354f, -0.06794760f, -0.12497286f, -0.14385015f, -0.09741151f, -0.10619225f, -0.06870916f, -0.08222750f, -0.01664909f, -0.11512686f, -0.11351136f, -0.09441744f, -0.14586024f, -0.12773551f, -0.17064558f, -0.04994723f, 0.03840375f, 0.09118689f, 0.10969792f, -0.33858865f, -0.26523042f, -0.20537648f, -0.11670069f, -0.23897548f, -0.32927498f, -0.18289024f, -0.05218024f, 0.09148401f, 0.16122550f, -0.01496315f, 0.04816713f, 0.05786764f, 0.12610063f, 0.13371237f, -0.02929566f, -0.11662640f, -0.17530970f, -0.07418536f, -0.09307775f, 0.15426189f, -0.00896860f, -0.04383742f, -0.02790843f, -0.08121511f, -0.02150505f, -0.03687475f, 0.02054879f, -0.08958908f, 0.00471833f, 0.03461382f, 0.04511207f, 0.02053137f, 0.10198209f, 0.36332268f, -0.27001181f, -0.17392027f, -0.18880926f, -0.09629630f, -0.08836390f, 0.21185644f, 0.09607929f, -0.00420057f, 0.10134148f, 0.04977451f, 0.17204461f, 0.14634275f, 0.17329432f, 0.22529635f, 0.18759364f, 0.06616478f, 0.12372561f, 0.10008568f, 0.18611777f, 0.06990626f, -0.18645862f, -0.09188041f, -0.03311236f, 0.03574212f, 0.07662348f, 0.19980069f, 0.25113183f, 0.15633862f, 0.18522577f, 0.21976940f, -0.04031249f, -0.12894610f, 0.04351489f, -0.00610792f, -0.04011432f, -0.01948317f, -0.02901159f, 0.07595926f, 0.06673902f, 0.17972760f, -0.04677850f, -0.03957337f, 0.08316791f, -0.01485019f, -0.05029711f, -0.05103346f, -0.12848738f, -0.04318376f, 0.04150415f, 0.02423245f, 0.05043649f, -0.06682923f, -0.03104453f, -0.05380781f, 0.01708818f, -0.00038258f, 0.06006372f, 0.08955004f, 0.07477418f, 0.05386186f, 0.12473615f, 0.09465939f, 0.12813896f, 0.16180545f, 0.07866341f, 0.02936180f, 0.15856864f, 0.14421163f, 0.03683265f, -0.01624667f, 0.12562491f, 0.19748759f, 0.21718258f, 0.19070965f, 0.16334957f, -0.03526801f, 0.05226690f, 0.00797073f, -0.04225304f, 0.07239408f, 0.00706083f, 0.05631474f, 0.20193532f, 0.16519991f, 0.24436730f, -0.00701577f, -0.02747017f, 0.08978171f, 0.07975673f, 0.18593092f, 0.00852608f, 0.01607295f, 0.13203785f, 0.07853039f, 0.09720947f, -0.01980399f, -0.05217351f, -0.05781799f, 0.02993152f, 0.02395475f, 0.05415924f, 0.07408439f, 0.20035848f, 0.16383389f, 0.16608240f, 0.13977566f, 0.11839706f, 0.15144007f, 0.17195091f, 0.13514636f, -0.02763653f, -0.04782975f, -0.02236044f, 0.02229240f, 0.02028944f, 0.02587997f, 0.00988059f, -0.02953177f, 0.05327194f, 0.03653843f, 0.02159356f, 0.02961808f, 0.06036244f, -0.03428082f, 0.04244519f, 0.11546331f, 0.02214142f, 0.18985598f, 0.08824027f, 0.08638963f, 0.03918969f, -0.01493238f, -0.02004277f, -0.09432703f, -0.10201468f, 0.03351600f, 0.12649123f, 0.09712858f, 0.10416847f, 0.12312332f, 0.19788434f, 0.19688489f, 0.07378890f, 0.04784829f, 0.09332549f, 0.05672288f, 0.12127545f, 0.05498111f, 0.01062952f, 0.05722287f, 0.02115102f, -0.06404229f, 0.00889023f, -0.04080549f, -0.13474768f, 0.06154858f, 0.05975324f, 0.06326175f, 0.08830130f, 0.07596119f, 0.08800466f, 0.15747155f, 0.09364317f, 0.15949324f, 0.14654608f, 0.02590032f, 0.03227983f, 0.03723687f, 0.10468943f, 0.00566360f, 0.18342632f, 0.19639055f, 0.15042616f, 0.18678743f, 0.09979405f, 0.12229207f, 0.08234032f, 0.02201754f, 0.03708762f, 0.08340548f, 0.18765949f, 0.23136762f, 0.25139496f, 0.21202599f, 0.16108625f, 0.08036447f, 0.14721879f, 0.09103516f, 0.16641621f, 0.18632945f, 0.08484609f, 0.06254575f, 0.01919287f, -0.02409112f, -0.10689715f, 0.19421689f, 0.09462291f, 0.07745669f, 0.17461726f, 0.19364472f, 0.20731454f, 0.11834618f, 0.02707039f, 0.08572423f, 0.12349598f, -0.01323064f, -0.07261345f, -0.01411673f, -0.01596972f, 0.01116357f, 0.04184703f, 0.00359831f, -0.07552696f, -0.06927226f, -0.01407340f, -0.03606362f, 0.00206574f, -0.01526906f, -0.02540725f, 0.06064159f, 0.09110691f, 0.09624427f, 0.09387359f, 0.00525150f, -0.00115104f, -0.12944232f, -0.08967896f, -0.04410871f, -0.10078844f, -0.06091923f, -0.05572241f, -0.01771255f, -0.06642104f, 0.05053974f, 0.08703487f, 0.16709118f, 0.07676794f, 0.15552990f, 0.21015635f, 0.15440258f, -0.13273610f, -0.05113442f, 0.05761038f, 0.05847789f, 0.10751479f, -0.10015653f, -0.00295036f, 0.06439579f, -0.05960063f, -0.10176349f, 0.02005909f, -0.03284203f, -0.06110318f, -0.11847395f, -0.05908176f, -0.01946488f, 0.01282516f, 0.05546353f, -0.03067590f, -0.02513321f, -0.25993440f, -0.18475486f, -0.11642950f, -0.10869666f, -0.14133121f, -0.05914193f, -0.02881665f, -0.03531281f, -0.05676341f, -0.02978863f, 0.15368137f, 0.06749283f, -0.05048858f, -0.28203639f, -0.20004493f, 0.03561873f, 0.08590930f, 0.00097530f, -0.01264533f, -0.11887535f, -0.10633303f, -0.17854185f, 0.04143694f, -0.04837786f, -0.36629373f, -0.13591589f, 0.00608570f, 0.10566130f, -0.04186567f, -0.22844723f, -0.05640864f, -0.00481078f, -0.04993074f, -0.10012481f, 0.02825347f, -0.13355935f, -0.04621274f, -0.03732933f, -0.02777829f, -0.07551683f, -0.04234256f, -0.03425901f, -0.06074308f, -0.02470957f, -0.00513762f, 0.02115701f, -0.08405474f, 0.07666662f, 0.00189117f, 0.00077711f, 0.06870437f, 0.07312085f, 0.07682579f, 0.02103979f, -0.02022701f, 0.12710886f, -0.00535633f, -0.19588181f, -0.14639866f, -0.21785925f, 0.04738116f, 0.07643060f, 0.02749815f, 0.02218229f, 0.01934277f, 0.05749878f, 0.00098784f, 0.03066533f, -0.12764531f, -0.10941961f, -0.22333160f, -0.19347024f, -0.19252162f, -0.06878499f, -0.09611444f, -0.02105627f, 0.01821522f, -0.02362938f, 0.00326658f, 0.03122967f, -0.00866318f, -0.02511959f, -0.02409883f, 0.00394602f, -0.07532350f, 0.02404831f, 0.08963808f, 0.08788193f, 0.08191179f, -0.01594590f, 0.16130202f, -0.00901196f, -0.18000014f, -0.15064806f, -0.21178037f, -0.06859977f, -0.07303034f, 0.01177674f, 0.02492333f, 0.10397309f, -0.04470188f, 0.04358395f, 0.02345514f, 0.03365783f, -0.06173394f, -0.07176500f, -0.12905173f, -0.07032138f, 0.01562083f, 0.03553141f, -0.25259268f, 0.05044790f, 0.15774225f, 0.14601339f, 0.18986019f, -0.01000124f, 0.05405052f, -0.00913114f, -0.06472664f, -0.05253269f, 0.07357653f, 0.06827527f, 0.00700116f, 0.10146653f, 0.02499209f, -0.24482425f, -0.14009102f, 0.01023408f, -0.09933420f, -0.15965225f, 0.09903867f, -0.00155542f, -0.14532749f, -0.08778391f, -0.06446807f, -0.12417899f, -0.03212895f, -0.11570589f, -0.04035612f, -0.10071301f, 0.10135706f, 0.08601630f, 0.06748776f, 0.03810007f, 0.01196061f, -0.06879505f, -0.04242947f, -0.11550364f, -0.06385089f, -0.08283098f, -0.00396636f, -0.06848932f, -0.04083219f, -0.06798688f, -0.04572187f, -0.31538513f, -0.39789864f, -0.32993540f, -0.28428131f, -0.21819988f, 0.10596740f, 0.02407875f, -0.02644594f, 0.04874903f, 0.05937313f, -0.00713447f, 0.05196677f, 0.06461717f, 0.00428643f, -0.04399713f, -0.00310892f, 0.00245102f, 0.04641312f, -0.04161768f, 0.00793356f, 0.01890808f, 0.10502842f, -0.00695211f, 0.03472987f, -0.00843641f, -0.07864947f, 0.10117717f, 0.11747548f, 0.06007685f, 0.01946822f, -0.05569337f, 0.02180544f, -0.02652520f, 0.06821949f, 0.01343940f, -0.19237632f, 0.14448534f, 0.15719424f, -0.02246190f, -0.12154518f, -0.20754334f, -0.33243480f, -0.05429880f, -0.09681662f, -0.13201723f, 0.01514135f, -0.27089050f, -0.34701186f, -0.48830250f, -0.34158015f, -0.04160712f, -0.05789980f, 0.06356009f, 0.00347215f, -0.04280643f, 0.06398562f, -0.04485171f, -0.04923989f, -0.02983238f, -0.09484305f, -0.17600568f, -0.18034117f, -0.04498568f, -0.09071317f, -0.12694712f, -0.47583097f, -0.10227098f, -0.00749499f, -0.10933382f, -0.07605644f, 0.13485028f, 0.18744935f, 0.13220541f, 0.16011088f, 0.16466513f, 0.15277672f, 0.04272176f, 0.14695297f, 0.10174479f, 0.15955561f, 0.15038790f, 0.14281029f, 0.02831372f, 0.15122655f, 0.10098754f, 0.00371947f, -0.09742647f, -0.08665252f, -0.07991057f, -0.02575645f, 0.03686814f, 0.03622120f, 0.13134521f, 0.14519237f, 0.17919609f, 0.01685542f, 0.04583555f, -0.01034042f, -0.19466929f, -0.04895112f, 0.06682570f, 0.06855659f, 0.09290443f, 0.05852240f, 0.05163076f, -0.17769447f, -0.06840592f, 0.14185664f, -0.04710210f, -0.05104196f, 0.17473474f, -0.01931816f, -0.03000291f, -0.06359733f, -0.09804576f, -0.21799150f, -0.12549785f, -0.14103059f, -0.10773461f, 0.14037372f, 0.03093364f, 0.04693315f, -0.04062454f, -0.15188946f, -0.02359970f, -0.06370388f, 0.01595048f, 0.01993774f, 0.06886828f, 0.00068051f, -0.20019391f, -0.07251077f, -0.02283798f, 0.12220533f, 0.12323098f, 0.06382468f, 0.10653283f, 0.05110930f, 0.02617679f, 0.10907198f, -0.04260314f, -0.04724244f, -0.08683968f, -0.05649581f, -0.04603877f, -0.01919957f, -0.01039792f, -0.08126400f, -0.05050417f, -0.17184195f, 0.16211522f, 0.13525036f, 0.15172081f, 0.06548004f, 0.07450658f, 0.16197209f, 0.03628686f, 0.06042867f, -0.05045412f, 0.00439467f, -0.12893684f, -0.17251183f, -0.03612776f, 0.07126276f, 0.06534199f, 0.10027450f, 0.06981481f, 0.10485426f, 0.08744202f, 0.03855046f, 0.14275065f, 0.14647268f, 0.12793361f, 0.18226412f, 0.09847243f, 0.16100790f, 0.02158473f, -0.21445093f, -0.10340233f, -0.05566644f, 0.03382843f, -0.02341112f, 0.12298433f, 0.14437138f, 0.11039487f, 0.02991028f, -0.01760100f, -0.04723801f, -0.01493087f, 0.09317613f, 0.12717690f, 0.14029554f, 0.07833579f, 0.19134627f, 0.27681550f, -0.23892213f, -0.16366443f, -0.04430621f, -0.10256489f, -0.11339266f, 0.19258998f, 0.11634499f, 0.08387720f, 0.12310857f, 0.14283122f, -0.04033812f, 0.07021569f, 0.09424345f, 0.15995866f, 0.13986109f, -0.00262758f, -0.13164493f, -0.05991163f, -0.09456916f, -0.16133301f, -0.13752736f, -0.06754351f, -0.02614845f, -0.04680973f, -0.00916579f, -0.00250890f, 0.01604435f, -0.04990754f, 0.07738665f, 0.21126828f, 0.03927362f, 0.11671484f, 0.11588029f, 0.13432981f, 0.18275221f, 0.20111357f, 0.11085382f, 0.17656393f, 0.06367538f, 0.06683583f, 0.03529058f, 0.01663546f, 0.05947143f, 0.01284219f, 0.10815293f, 0.16295046f, 0.10197122f, 0.03555781f, 0.01124330f, 0.18073334f, 0.16684765f, 0.05095535f, 0.12386022f, 0.04791921f, 0.10881970f, 0.15612389f, 0.15044615f, 0.06404266f, 0.14282852f, 0.13090816f, -0.10194472f, 0.06335847f, 0.07209911f, 0.13082714f, 0.16303045f, 0.10634106f, 0.12012301f, 0.11356635f, 0.07437085f, 0.06944092f, -0.08287497f, -0.05069316f, 0.02532424f, 0.08014097f, 0.07056302f, -0.13093998f, -0.15623227f, -0.04062587f, 0.05933250f, 0.09461672f, -0.10838449f, 0.04326636f, 0.05100383f, -0.03867491f, 0.05518935f, -0.05045699f, -0.02220203f, 0.18080938f, -0.01151408f, 0.00933606f, 0.13479403f, 0.12954272f, 0.09267215f, 0.04252211f, 0.15119131f, -0.04639752f, -0.02440121f, 0.02612231f, 0.09394855f, 0.18291195f, 0.09601058f, 0.13983536f, 0.14080115f, 0.17440020f, 0.06846602f, 0.10159211f, -0.01328865f, 0.13182448f, 0.09805460f, 0.08372936f, 0.03838706f, 0.02313969f, -0.00986503f, -0.07657479f, -0.09647484f, -0.03091429f, -0.12671261f, -0.10343946f, -0.12374888f, -0.08402839f, -0.07624997f, -0.11940058f, -0.09380181f, -0.02468814f, -0.01296679f, -0.03183681f, 0.00406107f, -0.05178888f, -0.02329389f, -0.00846117f, -0.49744329f, -0.23620898f, -0.02510375f, 0.04758142f, 0.09067082f, -0.07882649f, -0.11092408f, -0.07011335f, 0.01763350f, 0.05527402f, -0.03037993f, -0.02572753f, 0.00394114f, -0.00109889f, 0.00519091f, 0.11390017f, -0.00818187f, -0.00171930f, -0.11963769f, -0.15603273f, -0.07315939f, -0.16119735f, -0.08094653f, 0.15928838f, 0.21455994f, 0.08754016f, 0.00400389f, -0.08425290f, -0.10073964f, -0.01563094f, -0.09072659f, -0.10275629f, -0.04977265f, -0.01113586f, 0.04440466f, 0.05801256f, -0.03387496f, -0.10594552f, -0.20598885f, -0.21349511f, -0.04362777f, -0.14006902f, -0.13880314f, -0.14017889f, -0.21915415f, -0.16843313f, -0.00618385f, 0.12611254f, 0.04878320f, 0.09997419f, 0.04916789f, 0.09629570f, 0.00478163f, -0.03350607f, 0.04310082f, -0.33811462f, -0.26059249f, -0.21308841f, -0.17314829f, -0.16618930f, -0.34589899f, -0.10601497f, -0.01748488f, -0.04167280f, -0.05587141f, 0.14829609f, 0.14337403f, -0.02938995f, -0.02139691f, -0.15415578f, -0.13594922f, -0.01285476f, 0.08460506f, 0.18980606f, 0.27548555f, -0.13499013f, -0.12015069f, -0.09334643f, -0.00474930f, 0.01027707f, 0.07082719f, 0.00911404f, 0.06809878f, -0.01434220f, -0.02287218f, 0.08281349f, -0.00117451f, -0.08260363f, -0.17080000f, -0.21715969f, -0.14945164f, -0.17200576f, -0.12992202f, -0.08206549f, -0.14836699f, 0.03582512f, 0.02591302f, 0.06962192f, 0.05392276f, 0.09285520f, -0.30809242f, -0.06948496f, 0.01990696f, -0.02416529f, 0.06910627f, 0.02411734f, 0.06086316f, 0.04027883f, 0.10297826f, 0.09605560f, 0.13307722f, -0.01286257f, -0.10788087f, 0.04049017f, 0.12515774f, 0.02201117f, 0.04881112f, 0.01474236f, -0.00416359f, 0.00260697f, -0.04789103f, 0.00096162f, -0.00656496f, 0.07990205f, 0.05311728f, -0.39289948f, -0.11115962f, 0.02337921f, 0.00386755f, 0.04854198f, -0.03424587f, -0.03309873f, -0.04137390f, 0.02809917f, -0.00603887f, -0.02524022f, -0.00394903f, 0.01077928f, 0.08569913f, 0.17291237f, 0.01307481f, -0.01440227f, 0.00040358f, 0.00305988f, 0.00036133f, 0.02333506f, 0.04689233f, 0.06711884f, 0.03304475f, -0.01931135f, -0.03514474f, -0.00502256f, 0.00517661f, 0.03411919f, 0.04481204f, -0.04359082f, 0.01696887f, 0.08737948f, 0.12836434f, 0.17605290f, 0.02152590f, -0.03962968f, -0.04459610f, -0.02903233f, 0.01626091f, 0.02459455f, 0.00226342f, 0.03973468f, 0.01204385f, -0.01675927f, -0.14628460f, -0.04108334f, -0.01403894f, -0.03644343f, -0.00552998f, -0.02925860f, 0.05928226f, 0.03762424f, 0.05634566f, 0.00456886f, 0.11831664f, 0.07772558f, 0.07490508f, -0.07145324f, 0.02019305f, -0.06374666f, -0.15074845f, -0.08449471f, -0.02497173f, -0.06245757f, 0.13918678f, -0.01118553f, -0.02228582f, -0.09205418f, -0.11159506f, -0.12224711f, -0.13484323f, -0.01856684f, -0.05939426f, -0.08257260f, -0.12617213f, -0.06318583f, 0.02096089f, -0.10384764f, -0.08509947f, -0.22347288f, 0.08262043f, 0.11679123f, 0.02014148f, -0.06551202f, -0.03961157f, 0.08400417f, 0.02711193f, -0.01347026f, 0.00126800f, -0.01173393f, -0.07701088f, -0.12974402f, -0.25831577f, -0.25615266f, -0.05860021f, -0.00579157f, -0.03338925f, 0.04259581f, -0.03083465f, -0.12738919f, -0.06891844f, -0.04615686f, -0.02900959f, -0.12181373f, 0.07677299f, 0.13594730f, 0.12033918f, 0.09795193f, 0.11847953f, -0.12208774f, -0.05015208f, -0.05240223f, -0.06532566f, 0.06057071f, 0.09639192f, 0.08954934f, -0.04397478f, 0.01491196f, 0.02196160f, 0.12907137f, 0.07676684f, 0.10366090f, 0.07083009f, 0.20769829f, -0.05697849f, -0.00352039f, -0.07208988f, 0.06512018f, -0.20550002f, 0.16819315f, 0.16462152f, 0.12731032f, 0.11262898f, 0.02292958f, -0.05048444f, -0.07034110f, -0.17944565f, 0.23785567f, 0.35195836f, -0.11058458f, 0.09376921f, 0.00553237f, -0.04427797f, 0.04904171f, -0.20450732f, 0.01621290f, -0.08132156f, 0.15503182f, 0.20423520f, 0.14157273f, 0.18098269f, 0.06831561f, 0.14997852f, 0.05484507f, 0.11054471f, 0.13169500f, 0.13100965f, 0.06273617f, 0.06654111f, 0.31180373f, 0.20025130f, 0.14243631f, 0.00167430f, -0.09271716f, -0.03281445f, -0.05630323f, -0.03607654f, -0.01913554f, 0.06810591f, -0.18066068f, -0.14526655f, -0.09901156f, -0.12458825f, -0.25208241f, 0.19683161f, 0.13366280f, 0.11220670f, 0.04202923f, 0.10017595f, -0.01106586f, 0.13469525f, 0.12479895f, -0.04825740f, -0.05310084f, 0.12449025f, 0.12255681f, -0.03284647f, -0.00959076f, 0.10044893f, -0.13787016f, -0.20164099f, -0.06140994f, 0.12511601f, 0.23323321f, -0.12573758f, -0.05550733f, -0.07267628f, -0.05110966f, 0.05143322f, 0.07440694f, -0.00214450f, 0.03151644f, 0.02132155f, 0.00297478f, 0.00442782f, 0.08699845f, 0.03417112f, 0.00772884f, -0.10819829f, 0.01529779f, -0.07833172f, -0.03153153f, 0.01375703f, 0.12558481f, 0.11239041f, 0.00872622f, 0.08060643f, 0.13573243f, 0.06897049f, 0.02476291f, 0.07251624f, -0.02867510f, -0.06540856f, 0.07556821f, 0.03759759f, 0.00003737f, 0.00910120f, 0.04631858f, 0.05641825f, -0.05565511f, -0.01417100f, -0.04583631f, -0.07680027f, -0.10122558f, 0.07846117f, 0.04455401f, 0.00258310f, -0.03141233f, -0.05508102f, 0.01911564f, 0.06212887f, 0.07035704f, 0.05762347f, 0.06438515f, -0.16259451f, -0.12966487f, -0.09620222f, 0.07873642f, 0.14469831f, -0.03845688f, -0.01539419f, 0.02135966f, 0.03725570f, 0.08573926f, 0.00802987f, -0.11527219f, -0.12179148f, -0.08329438f, -0.15449801f, -0.10824751f, 0.02350829f, -0.05009421f, -0.09866990f, -0.03773025f, -0.09423868f, 0.02408458f, -0.01060733f, 0.03110682f, -0.01544203f, 0.15051991f, 0.13970917f, 0.05731181f, 0.03111586f, 0.05993634f, 0.06042764f, 0.08356027f, 0.00384177f, 0.06464940f, 0.01959652f, -0.09036177f, -0.02572616f, -0.08928867f, -0.00817732f, -0.04194253f, 0.01494475f, -0.01699433f, 0.01165036f, -0.21034810f, -0.17402358f, -0.02251697f, -0.02899996f, -0.04150035f, -0.09691805f, -0.03372453f, 0.05553965f, -0.00243574f, 0.10976309f, 0.07602111f, 0.01319213f, -0.05660796f, -0.03934938f, 0.02882533f, 0.18409868f, 0.27512226f, 0.22935784f, 0.05603305f, -0.00512621f, -0.01590359f, -0.20171610f, -0.09971505f, -0.01012947f, -0.14486954f, -0.12046798f, 0.05034370f, -0.00607117f, 0.13198397f, 0.03319775f, 0.07520759f, 0.01849576f, 0.09761965f, 0.04773385f, 0.02652215f, -0.04792755f, -0.17017600f, -0.06343363f, -0.04789617f, 0.04847252f, -0.00096493f, -0.10910169f, 0.40854362f, 0.36677530f, 0.15779150f, 0.20161189f, 0.17994544f, 0.15039146f, 0.08521573f, 0.09872987f, 0.06269654f, 0.05652567f, -0.13238186f, -0.05860607f, -0.04266057f, 0.03186876f, -0.07012688f, 0.12337501f, 0.10159032f, 0.06881280f, -0.03534403f, -0.12708460f, 0.08713834f, 0.07387336f, 0.06851114f, -0.01313714f, -0.06575720f, 0.02608350f, 0.10386204f, 0.05304469f, 0.04716402f, 0.04703784f, -0.00108556f, 0.06347787f, 0.00666223f, -0.10450572f, -0.13036601f, -0.02143061f, -0.04693916f, -0.05632327f, 0.06062001f, 0.01833680f, -0.19289139f, -0.02857550f, 0.09225731f, 0.12974089f, 0.08962273f, 0.12804171f, 0.14376521f, -0.00604901f, -0.14610976f, -0.16770068f, -0.01063737f, -0.03467751f, -0.08047355f, -0.00776618f, 0.00669540f, -0.08704867f, 0.08471948f, 0.12691265f, -0.02307775f, -0.17718863f, -0.11441623f, 0.01669774f, 0.09439845f, 0.05648036f, 0.14101624f, -0.04624129f, 0.05185249f, 0.04402377f, -0.10013694f, -0.10731660f, -0.27260959f, -0.06123300f, 0.01133601f, 0.05216699f, 0.08161246f, -0.07532117f, 0.06587117f, 0.04454706f, 0.09142927f, -0.01988208f, 0.01021148f, -0.08799165f, -0.12416042f, -0.04020737f, -0.13518228f, -0.22663741f, 0.04256699f, 0.03045123f, 0.03335386f, 0.09198391f, -0.11539848f, -0.06291070f, -0.03721672f, 0.06458834f, 0.06224696f, 0.13544109f, 0.08924020f, 0.03595236f, -0.00913072f, -0.08454766f, -0.01346706f, 0.06425418f, 0.04443491f, -0.12173258f, -0.22061661f, 0.12307929f, 0.06049815f, 0.09049235f, 0.09075843f, 0.01184940f, -0.09106322f, -0.04315064f, 0.00121914f, 0.08275889f, 0.03172719f, -0.06505655f, 0.05300149f, 0.02963065f, 0.03218748f, 0.04950865f, 0.10152575f, 0.07506590f, 0.02793527f, 0.00006069f, -0.08611654f, -0.23314394f, -0.12402206f, 0.01164960f, 0.09143649f, 0.17222199f, 0.11492515f, 0.01663942f, -0.05109171f, -0.09544732f, -0.15790175f, -0.08635449f, -0.00957246f, 0.04627588f, -0.10859703f, -0.28231198f, 0.12068371f, 0.01924172f, 0.01865915f, -0.05998513f, -0.06907033f, -0.07881502f, -0.00388546f, -0.01310723f, 0.02478854f, -0.01270370f, -0.11388852f, -0.00772372f, -0.01818114f, -0.01580051f, 0.19004519f, -0.00778638f, -0.00682020f, -0.04658208f, -0.07844525f, -0.16623074f, 0.07262500f, -0.06561437f, -0.03112184f, -0.05096352f, -0.29289731f, -0.09626103f, 0.00550462f, 0.03004566f, 0.10457473f, 0.13981074f, 0.06764768f, 0.06183133f, 0.03658922f, -0.02411129f, -0.05068596f, -0.09516320f, 0.00529604f, 0.05349153f, 0.02544272f, -0.03970006f, 0.00826894f, 0.00096482f, -0.00901167f, -0.10315627f, -0.18847153f, 0.10974730f, 0.10611568f, 0.09120296f, 0.04734274f, 0.04558076f, 0.01959586f, -0.01363029f, 0.02507810f, 0.06708127f, 0.08486216f, -0.15135357f, 0.00879736f, 0.01261645f, 0.06524193f, -0.05590672f, -0.04204619f, -0.01981748f, 0.07852408f, 0.06651460f, 0.13937956f, -0.18576217f, -0.02415581f, 0.02558957f, -0.00789365f, -0.00060248f, -0.06729053f, 0.13040425f, 0.02313065f, -0.09552167f, -0.23398688f, -0.26395974f, -0.10741112f, 0.05449998f, -0.03254790f, -0.06584132f, -0.13575357f, 0.02479216f, 0.06048186f, 0.00123088f, -0.02153466f, -0.09487834f, -0.01760750f, -0.07093717f, 0.00079128f, -0.08120175f, -0.21260513f, -0.06837470f, 0.01929378f, 0.00621972f, 0.05373973f, -0.18683338f, -0.09497478f, -0.09212987f, 0.07112106f, 0.07327335f, 0.13937622f, 0.10050634f, 0.06030216f, 0.00365675f, -0.25392631f, -0.16620374f, -0.06667659f, 0.06604376f, 0.12284698f, 0.10307361f, -0.13190654f, -0.08318620f, -0.04364320f, -0.04025508f, -0.02561147f, 0.09097798f, 0.04270914f, 0.01692857f, -0.01172480f, -0.04115344f, 0.18926138f, 0.12906463f, -0.00849646f, -0.08825581f, -0.04803647f, 0.02254120f, 0.11722338f, 0.04455893f, -0.01101519f, -0.11265749f, -0.00478630f, 0.05259044f, -0.05050050f, -0.02825208f, -0.03220413f, -0.12570487f, 0.03308992f, 0.03795129f, 0.11045225f, 0.00561471f, -0.01542483f, 0.00283958f, 0.05200142f, 0.12720932f, 0.07056653f, 0.03131003f, 0.14348932f, 0.09020639f, 0.04882494f, -0.19822770f, -0.13911930f, -0.20633197f, -0.05684553f, 0.02223631f, 0.14196885f, 0.04130805f, 0.01411204f, -0.10370631f, 0.11364739f, -0.18367942f, 0.00270738f, -0.04704506f, -0.01155500f, -0.01239538f, -0.01388047f, -0.24742645f, -0.13815013f, -0.09927539f, -0.10774332f, -0.18129352f, -0.26027271f, -0.19527654f, -0.15328766f, 0.04122433f, 0.02382747f, -0.16228783f, -0.17537658f, -0.14794332f, -0.31274799f, -0.40348172f, -0.18339707f, -0.22928749f, -0.03022288f, 0.04462287f, -0.06030279f, -0.30845016f, -0.37683490f, -0.27925351f, -0.03885434f, -0.03100883f, -0.09017952f, -0.01330181f, 0.08631206f, 0.04153544f, 0.09642819f, -0.00169999f, 0.02052677f, 0.07625722f, 0.03443640f, -0.09422339f, -0.08915617f, -0.15326467f, -0.17234990f, -0.05931118f, -0.14499617f, 0.17070411f, 0.10058186f, -0.02777212f, -0.11562334f, -0.17600815f, -0.02987549f, 0.06270352f, -0.01069803f, 0.06801145f, -0.01781676f, -0.19796276f, -0.06030513f, 0.07418664f, 0.13035896f, 0.12414531f, -0.08407137f, -0.01476486f, 0.05570993f, 0.06117987f, -0.03348219f, -0.14330991f, -0.15791406f, -0.16716330f, -0.00797765f, 0.09686632f, -0.06624751f, -0.13279384f, -0.03962303f, -0.02054550f, -0.04398698f, 0.04783830f, -0.08477473f, -0.13078576f, -0.07664651f, -0.15474872f, 0.00222395f, -0.10509174f, -0.08162876f, -0.17317005f, -0.08252260f, -0.09228613f, 0.06013086f, 0.09847917f, 0.01721211f, -0.02049464f, -0.06684371f, -0.09833016f, -0.03133816f, 0.01444420f, 0.08137374f, -0.15186322f, -0.10166986f, -0.05310204f, -0.05830418f, -0.03452255f, 0.06794640f, -0.03413131f, -0.00380746f, -0.06229853f, -0.16937789f, -0.14127482f, 0.13064961f, 0.23122285f, 0.14668021f, 0.10204256f, -0.06734662f, -0.11919711f, -0.14850655f, -0.18777986f, -0.20559704f, -0.26904485f, -0.18089329f, -0.31133446f, -0.38347024f, -0.40997937f, -0.12180271f, -0.07801973f, -0.06002235f, -0.10776210f, -0.08003020f, 0.04464260f, 0.03877971f, 0.08975542f, 0.06855618f, -0.03413579f, 0.09139408f, 0.11263207f, 0.11235327f, 0.07974393f, -0.03493170f, -0.22290826f, -0.07802671f, 0.05451622f, 0.07019987f, 0.06633277f, -0.02857689f, 0.07740042f, 0.17898156f, 0.05268528f, -0.01307723f, -0.04734976f, -0.03937028f, 0.04311251f, -0.00024482f, -0.02975124f, -0.20414887f, -0.20631246f, -0.20716727f, -0.30816659f, -0.22933488f, -0.07003821f, -0.03467024f, -0.04569693f, 0.01707186f, 0.02778472f, -0.06911825f, -0.15338577f, -0.01116579f, -0.01404401f, -0.01732774f, -0.02103477f, -0.07990558f, -0.06809940f, -0.08397205f, -0.12180579f, -0.24959169f, -0.06532656f, -0.03935590f, 0.00310472f, 0.06846002f, -0.22999786f, -0.18817568f, -0.04137447f, 0.14437044f, 0.17352436f, -0.19445783f, -0.12668939f, -0.00570710f, 0.00739689f, -0.04905223f, 0.08300690f, -0.02154909f, -0.05133373f, -0.08923566f, -0.07790988f, -0.05835681f, -0.08258804f, -0.15626313f, -0.11126045f, -0.04570711f, -0.08175308f, -0.07581276f, -0.02240528f, -0.01256999f, -0.04001563f, -0.11031402f, -0.11452826f, -0.01318583f, 0.00828861f, -0.10900891f, -0.08498596f, -0.12301974f, -0.02487946f, -0.01728676f, -0.05841791f, -0.07308056f, -0.02766601f, 0.01940504f, 0.04201761f, 0.03574025f, -0.12575816f, -0.03210315f, 0.02657256f, 0.16630393f, 0.03704923f, -0.10818256f, -0.02452976f, 0.05009829f, 0.10797267f, 0.08712052f, 0.02548899f, 0.00664677f, -0.02299555f, 0.00280287f, 0.17494065f, -0.17711087f, -0.18985420f, -0.03147823f, -0.08275507f, 0.11099890f, -0.27254632f, -0.12683342f, -0.23181327f, -0.08396830f, -0.51356983f, 0.02649105f, 0.01294231f, 0.04071900f, -0.11466505f, -0.10608412f, -0.04317529f, -0.07734841f, 0.04412007f, 0.09098212f, 0.12774776f, -0.16494949f, -0.09828368f, 0.00361172f, -0.10111562f, -0.30130044f, -0.05196756f, -0.13202970f, -0.06349899f, -0.18413506f, -0.14089447f, 0.00356493f, 0.04695863f, 0.12124752f, 0.15820499f, 0.08151324f, -0.08149867f, -0.04946633f, -0.05779486f, -0.11699773f, -0.28324819f, -0.02533563f, 0.07096446f, 0.01657584f, 0.05892451f, 0.02847292f, -0.00807836f, 0.06704017f, 0.02209250f, 0.04856955f, 0.13482459f, -0.00582710f, -0.18282971f, -0.19455318f, -0.36217645f, -0.52365327f, -0.11898291f, -0.23729533f, -0.23208827f, -0.19346561f, -0.09702369f, 0.08742420f, 0.06168445f, 0.00744959f, 0.05398400f, 0.12405498f, -0.08046956f, -0.03212966f, -0.09772745f, 0.06203437f, 0.09482989f, 0.08010429f, 0.12542515f, -0.06429265f, -0.01543306f, -0.02527848f, -0.06128779f, 0.04620720f, 0.00079563f, 0.08284286f, 0.10394515f, 0.04745778f, 0.10182184f, 0.02073880f, -0.04810741f, -0.05391169f, 0.03469988f, -0.05097504f, -0.13480590f, -0.11186138f, -0.03157346f, -0.09609821f, 0.10748902f, 0.09614199f, 0.03373149f, 0.02115732f, -0.12963383f, -0.12673956f, -0.11098897f, -0.26790354f, -0.33370557f, -0.11653803f, -0.11713342f, -0.08370751f, -0.03150456f, 0.06679174f, 0.11093099f, 0.13270845f, 0.14114667f, 0.20545147f, 0.16801627f, -0.00754123f, -0.08813097f, -0.09185816f, -0.10871714f, -0.03652801f, -0.10070404f, -0.03945303f, 0.00133404f, 0.00936272f, 0.08776310f, 0.02397212f, 0.11632737f, 0.11472172f, -0.00040619f, -0.04591918f, -0.02398922f, 0.01738151f, -0.02567309f, 0.03553949f, -0.16627398f, -0.04008816f, 0.10026073f, 0.06803931f, 0.19149470f, 0.21467932f, -0.12121191f, -0.05618493f, -0.05910395f, -0.09451777f, -0.11600413f, -0.12307978f, -0.19878861f, -0.19859543f, -0.28730696f, -0.22099061f, -0.09493111f, -0.03778085f, -0.00451681f, 0.06557259f, 0.01484013f, -0.13725889f, -0.00328369f, -0.00507535f, -0.03997185f, -0.08470316f, -0.03400139f, -0.06227983f, 0.02843453f, 0.04924938f, -0.02418329f, 0.06855673f, 0.00818608f, -0.09820166f, -0.17651235f, -0.19793265f, -0.14985925f, 0.06843188f, 0.07959948f, 0.15752937f, 0.09384009f, 0.10002110f, -0.04615197f, -0.05758596f, -0.01592602f, -0.08045106f, 0.07146223f, 0.06628829f, 0.06779978f, 0.08087303f, 0.11362952f, -0.15775484f, 0.02652189f, 0.10412767f, 0.05695077f, 0.07023890f, -0.05813550f, -0.01248739f, 0.12483618f, 0.19946592f, 0.29710269f, 0.05024530f, -0.02347636f, 0.03389021f, 0.12293440f, 0.15052480f, -0.35785595f, -0.13967268f, -0.13457566f, -0.11502176f, -0.12473476f, 0.15937822f, 0.15199861f, 0.14290051f, 0.15858814f, 0.23091036f, 0.19491938f, 0.13604163f, 0.07754215f, 0.01746596f, 0.03060314f, 0.00744639f, 0.02021147f, -0.04645466f, 0.02708566f, -0.00963969f, 0.28074315f, 0.16195510f, 0.10230634f, 0.16056141f, 0.05323503f, -0.07047944f, -0.17123248f, -0.12471663f, -0.13724405f, -0.09973067f, 0.16126719f, 0.11014988f, -0.06816236f, -0.19223066f, -0.18549629f, -0.21434213f, -0.07059520f, -0.09795581f, 0.06788594f, -0.13244429f, -0.16890284f, -0.20146576f, -0.09656437f, -0.10455970f, -0.17867883f, 0.11968253f, 0.15801676f, 0.11468660f, 0.02591889f, -0.06845549f, -0.13408063f, -0.13724840f, -0.00318625f, -0.01428346f, 0.06871960f, 0.04239081f, 0.00268232f, -0.02439728f, 0.06401105f, -0.02636744f, -0.02409036f, 0.06005575f, 0.00736817f, 0.00982955f, 0.07134052f, -0.06641947f, -0.02538742f, 0.00021754f, -0.06857968f, 0.01838441f, 0.02474140f, 0.07397242f, 0.04081943f, -0.00591750f, -0.00012750f, -0.07561761f, 0.01238609f, 0.07648925f, -0.00417331f, -0.08413170f, -0.10797575f, -0.01349582f, -0.00718825f, 0.04021252f, 0.08592835f, -0.54734534f, -0.52855951f, -0.40099770f, -0.39939779f, -0.45122617f, -0.06848691f, -0.02517430f, -0.05374100f, 0.04693741f, -0.06203640f, -0.04069493f, 0.02191056f, -0.00337079f, 0.11861879f, 0.06180270f, 0.04432715f, -0.01768906f, 0.03382473f, 0.06178431f, 0.06809920f, -0.26884243f, -0.32181203f, -0.23354518f, -0.26883593f, -0.29297277f, 0.02425954f, 0.16170737f, 0.19436453f, 0.18698338f, 0.11796060f, -0.03813301f, -0.00557931f, -0.03346223f, -0.00497239f, 0.00828764f, -0.11072774f, -0.03725120f, -0.03456615f, -0.01649633f, -0.15023321f, -0.03043785f, 0.01386409f, 0.02984948f, -0.01525261f, 0.02869734f, -0.05826268f, 0.01018965f, 0.00579324f, 0.05274778f, 0.03979475f, 0.08976836f, -0.05738079f, -0.05963628f, -0.05642672f, 0.02542524f, 0.02030788f, 0.10279364f, 0.04088928f, 0.08003788f, 0.09427076f, 0.05708614f, 0.13193151f, 0.13226423f, -0.00577408f, 0.00486337f, 0.09263156f, 0.00834358f, -0.05070167f, -0.01316138f, -0.05125841f, 0.23906954f, 0.19505812f, 0.10465879f, -0.18730181f, -0.25604925f, 0.10056211f, 0.02745105f, 0.10988197f, 0.09242779f, 0.02574532f, 0.04051133f, -0.04219764f, -0.05103787f, -0.10744037f, -0.00036226f, 0.07875273f, 0.10878586f, 0.04032185f, 0.08211064f, 0.07008766f, -0.08571745f, -0.06588217f, -0.07996166f, -0.12640180f, -0.09111150f, 0.19048022f, 0.06646639f, 0.05911930f, 0.01900733f, 0.05391445f, -0.00444145f, 0.02838081f, 0.03650268f, 0.02757365f, -0.01389050f, -0.09257468f, -0.16185588f, -0.12161338f, -0.01136163f, 0.06506784f, 0.09893945f, 0.02489160f, 0.06206454f, 0.06494247f, -0.04778503f, 0.07252934f, -0.00225290f, -0.09902784f, -0.14847381f, -0.31368929f, -0.09270304f, -0.05248737f, -0.00651593f, 0.04528694f, 0.14419936f, -0.06408926f, 0.07066043f, 0.16756770f, 0.21543759f, 0.25429231f, -0.30448240f, -0.19530696f, -0.29746142f, -0.32443425f, -0.28423688f, 0.11241804f, 0.03563218f, -0.08657558f, -0.10608204f, -0.17864241f, -0.25866419f, -0.14641376f, -0.06365371f, 0.08342200f, 0.16251394f, -0.26351446f, -0.17865637f, -0.04549871f, -0.05507557f, -0.17247546f, 0.01571129f, 0.07026824f, -0.03482464f, 0.01818239f, 0.03970280f, -0.08457624f, -0.10165464f, -0.13760820f, -0.06603972f, -0.01779296f, 0.04762564f, 0.04806153f, -0.19415502f, -0.14579830f, -0.04898860f, -0.35821116f, -0.33506393f, -0.20566255f, -0.15685220f, -0.18682167f, 0.04562382f, 0.05870187f, 0.06094639f, -0.00333969f, 0.09751890f, 0.07004713f, 0.06107589f, 0.11579870f, 0.01160263f, 0.02143481f, -0.14601186f, -0.13501464f, -0.08873537f, -0.08032943f, -0.07801723f, -0.14568122f, -0.04459230f, 0.02390571f, -0.03614493f, -0.12445734f, -0.00456249f, -0.03527285f, -0.13258247f, -0.06236348f, -0.10206160f, -0.11539059f, -0.08732429f, -0.10309794f, -0.08912808f, -0.00255616f, -0.04085030f, -0.07806436f, -0.02987797f, 0.07184737f, 0.05533750f, -0.01469675f, 0.00450736f, -0.02654441f, -0.10366290f, -0.32647100f, -0.00587814f, 0.02770243f, 0.14157005f, 0.24413365f, 0.17709774f, -0.10203299f, -0.09791502f, -0.06720261f, -0.17312607f, -0.19059786f, 0.02778452f, -0.20502260f, -0.07219452f, -0.04633496f, -0.05290828f, 0.02176222f, 0.05063165f, 0.02134117f, -0.00420510f, -0.00301685f, 0.11011613f, -0.00877878f, 0.00586139f, 0.05872856f, -0.05360920f, -0.06729907f, 0.02783429f, 0.14287078f, 0.13517042f, 0.16048346f, -0.05134787f, -0.20067698f, -0.24045938f, -0.22382155f, -0.14517681f, 0.14954351f, 0.07248434f, 0.04308646f, 0.04236224f, -0.00692769f, 0.23152822f, 0.03396914f, -0.05433696f, -0.16574547f, -0.20157513f, 0.02581429f, 0.03699899f, 0.04524227f, -0.03079535f, -0.01978978f, -0.01938595f, 0.00589305f, -0.20411488f, -0.12086578f, 0.17178577f, 0.11054478f, 0.08567863f, 0.06639951f, -0.09263671f, -0.35313132f, -0.03077224f, 0.13698326f, 0.04119390f, -0.07721864f, -0.12538207f, 0.07353460f, 0.02773890f, 0.08987980f, 0.10914496f, 0.02321409f, 0.08288898f, 0.03480203f, -0.06255564f, -0.06685847f, -0.17537884f, -0.22342259f, -0.12867421f, -0.36105549f, -0.46720043f, -0.54998147f, -0.05423217f, 0.06690186f, -0.02053295f, -0.08272535f, -0.09475718f, 0.03649459f, -0.02333934f, -0.02769447f, -0.00604739f, -0.09805889f, -0.01224468f, -0.00104450f, -0.01837079f, 0.02542994f, 0.01215742f, 0.09084733f, 0.11683942f, 0.00166753f, -0.12500700f, -0.19969682f, 0.50783962f, 0.26605737f, 0.16995196f, 0.11664247f, 0.13001753f, 0.03386949f, 0.03075924f, -0.03896329f, -0.05737745f, -0.00471904f, 0.07152791f, 0.05252942f, 0.07488979f, 0.00066595f, -0.00769426f, 0.00628551f, -0.08045208f, 0.01869107f, 0.07304180f, 0.01101206f, 0.16817985f, 0.03986078f, 0.05086516f, 0.02573358f, 0.03501890f, -0.25564551f, -0.41561621f, -0.45305428f, -0.38857180f, -0.26099023f, 0.03619044f, 0.06673384f, 0.00798196f, -0.06740023f, 0.00954250f, 0.08657265f, 0.04070676f, -0.03260560f, -0.09771386f, -0.14234748f, 0.09987296f, -0.01294605f, 0.01574845f, -0.01391733f, 0.00979770f, 0.17957287f, 0.11037929f, -0.03597359f, -0.01906411f, 0.12300359f, 0.18525076f, 0.07873596f, 0.02435150f, -0.07388212f, -0.22565566f, -0.01274433f, 0.07562564f, 0.06918923f, 0.00155868f, -0.11056472f, -0.23473659f, -0.26419172f, -0.26068395f, -0.22578195f, -0.32861593f, 0.06865988f, 0.06285524f, -0.03930142f, 0.03446931f, 0.13285266f, 0.20273423f, 0.01628963f, 0.02526439f, -0.00084778f, -0.04456617f, -0.03473796f, -0.10501708f, -0.03836123f, -0.02792900f, 0.02759633f, 0.07511290f, 0.08085281f, -0.00530081f, -0.05042556f, -0.08561910f, -0.11920990f, 0.04463899f, 0.05769969f, 0.02822064f, 0.06266617f, -0.00901043f, 0.00558070f, -0.02309925f, -0.05494131f, -0.03898008f, 0.06668630f, 0.04083660f, 0.00056981f, 0.01446597f, -0.00514651f, -0.09655578f, -0.10033493f, -0.05636832f, -0.00867314f, 0.02282074f, 0.13019095f, 0.06205143f, 0.05016893f, 0.04244715f, -0.01838108f, 0.02861014f, 0.06415216f, 0.03319177f, -0.03377116f, -0.13843489f, -0.10971782f, -0.14400962f, -0.04364172f, -0.14491695f, 0.08638598f, 0.07609697f, 0.08563041f, 0.12821901f, 0.15564458f, 0.06563228f, 0.17823246f, 0.03891498f, 0.00630202f, -0.03637810f, -0.11302508f, -0.37797153f, -0.16967884f, -0.17407887f, -0.15023839f, -0.20516251f, 0.08733172f, -0.01006618f, -0.00476747f, 0.13906074f, 0.22056805f, 0.12457817f, 0.05192219f, 0.18230109f, 0.10999551f, 0.15837151f, 0.01771062f, -0.01277573f, 0.08019777f, 0.01110061f, 0.05665719f, 0.06266663f, -0.00914794f, 0.00550543f, -0.14763626f, 0.00185896f, -0.00605877f, 0.02071704f, 0.02043137f, -0.03693745f, -0.04019288f, -0.36497828f, -0.27528697f, -0.20624945f, -0.07033049f, -0.04842350f, -0.00446012f, 0.00508888f, -0.11259382f, -0.04463035f, -0.04934274f, -0.07720867f, 0.02759179f, 0.02753972f, 0.09564409f, 0.00984819f, 0.10809924f, 0.13786645f, 0.02194829f, -0.04326873f, -0.05832542f, -0.12215856f, -0.05596508f, -0.07003217f, 0.10763009f, 0.11155532f, -0.08149431f, -0.01760492f, -0.06408158f, 0.04334363f, 0.04418076f, 0.06366459f, -0.03986008f, 0.01506706f, -0.01867198f, -0.01941700f, -0.28197220f, -0.17641786f, -0.02991609f, 0.04317910f, 0.00592393f, 0.05071530f, 0.01837401f, 0.06285845f, 0.06761952f, 0.06613263f, 0.12724578f, 0.11709262f, 0.05820322f, 0.00601392f, 0.11000094f, -0.00430091f, 0.06694980f, 0.01918124f, 0.07016484f, 0.06497179f, 0.05995468f, 0.11490413f, 0.05817131f, 0.04970679f, 0.10760047f, 0.01486282f, 0.07894477f, -0.03114944f, 0.09731481f, 0.05837800f, 0.04085943f, -0.01431724f, -0.01999442f, 0.08063611f, 0.11622509f, 0.06946759f, 0.05537910f, 0.08412139f, 0.09124103f, 0.09522257f, -0.03243623f, -0.15140405f, -0.04726415f, 0.04711366f, 0.12893820f, 0.06945501f, -0.09636804f, -0.09589392f, -0.17998767f, -0.18042961f, 0.07542861f, -0.03653249f, -0.00083347f, -0.11046354f, -0.11682915f, -0.03565991f, 0.03220643f, -0.00202122f, 0.05215547f, 0.01577053f, 0.05749181f, -0.02939150f, -0.00453724f, -0.04539007f, 0.00445466f, 0.02402106f, 0.05532147f, 0.04612472f, -0.03511383f, -0.15616183f, -0.00994907f, 0.08009194f, 0.03342559f, 0.04439338f, -0.01671604f, -0.03457911f, -0.02287713f, -0.07473554f, 0.00122582f, 0.00989307f, -0.05390685f, -0.05083090f, -0.07309806f, -0.08109576f, -0.17071502f, 0.05232180f, -0.09304211f, -0.09828927f, -0.13647397f, -0.07561690f, 0.00554413f, -0.00720574f, -0.01816360f, -0.06979543f, 0.01877549f, -0.09022837f, -0.12784897f, -0.02098065f, 0.09823969f, 0.15009825f, 0.12684610f, 0.01308839f, -0.05700732f, -0.15238744f, -0.20520511f, -0.07263625f, -0.04156515f, -0.04012069f, -0.16409577f, -0.07650384f, -0.00889543f, 0.00144654f, -0.02902240f, -0.09826735f, -0.13169511f, 0.07532296f, 0.09321288f, -0.01175785f, -0.06409338f, -0.20142761f, 0.10391836f, 0.02400204f, -0.04156247f, -0.02750939f, -0.08159021f, -0.02141103f, 0.00209175f, 0.06218367f, 0.08611323f, -0.01031933f, -0.00175984f, 0.08928955f, 0.11184958f, 0.14395152f, -0.00097892f, -0.23605333f, -0.18499650f, -0.13793290f, -0.06839407f, -0.03590932f, 0.07489496f, 0.07505982f, 0.04117702f, 0.07159638f, -0.02006471f, -0.03937405f, 0.04276631f, 0.02684045f, -0.00344404f, -0.08492141f, -0.01847113f, 0.08768366f, 0.01162113f, 0.11203405f, -0.02556881f, 0.03910646f, 0.03763872f, 0.00928128f, -0.01488965f, -0.09451387f, 0.05396752f, -0.08223354f, -0.08111007f, 0.01840987f, 0.03254205f, -0.09343997f, 0.00371357f, 0.02453955f, 0.09387368f, 0.03428800f, 0.05060519f, 0.02654247f, 0.00552584f, -0.06822054f, -0.24459729f, 0.00091744f, 0.06614737f, -0.00010096f, -0.06339549f, -0.02012331f, -0.27690697f, -0.10862928f, 0.04840212f, 0.11760288f, -0.02749903f, -0.01809010f, 0.02570246f, -0.03490667f, 0.03831286f, -0.00507892f, -0.12502368f, -0.03586362f, -0.03233840f, -0.03093399f, -0.12031813f, -0.56984770f, -0.32603338f, 0.11471638f, 0.11405579f, 0.09611490f, 0.03538476f, 0.05764837f, 0.02126226f, 0.08386372f, 0.01590919f, 0.05538186f, 0.04080446f, -0.08210934f, -0.06878110f, -0.01321770f, -0.46888095f, -0.33857071f, -0.16919845f, -0.12460858f, -0.16038750f, -0.05912587f, -0.04593029f, 0.02482332f, 0.02918919f, 0.10054860f, 0.07525992f, 0.07547441f, 0.04514015f, -0.06180235f, -0.17660719f, -0.03271145f, 0.02194577f, 0.11645693f, -0.00355847f, -0.18609165f, -0.00156565f, 0.04465252f, 0.01445016f, -0.00268792f, 0.09135338f, -0.17444976f, -0.08583111f, -0.03451414f, 0.03963812f, 0.07488467f, -0.02121368f, -0.02902284f, -0.10941387f, 0.03923467f, 0.14473674f, 0.09975943f, 0.10436882f, -0.02304550f, -0.15773249f, -0.26711622f, -0.10189404f, -0.01213042f, -0.01389448f, 0.00880552f, -0.11666814f, 0.16886775f, 0.13936023f, 0.13403229f, -0.09640951f, -0.19332249f, -0.25004601f, -0.05604200f, 0.12074034f, -0.10895494f, -0.25180000f, 0.05471604f, 0.08721416f, 0.07193229f, 0.03637044f, -0.03791689f, -0.12151891f, -0.06038728f, -0.01855410f, 0.10848694f, 0.00352367f, 0.00968396f, -0.01277557f, 0.03170406f, 0.06433452f, -0.03821710f, 0.10271991f, -0.01112201f, -0.08392337f, -0.13172954f, -0.27641553f, -0.03426846f, -0.02492226f, -0.03632254f, -0.15835439f, -0.32410261f, -0.07068534f, -0.02547228f, 0.02798974f, 0.05939430f, 0.02793053f, 0.01058364f, 0.02805379f, 0.00013548f, -0.11033167f, -0.28799060f, -0.02565024f, -0.05304857f, 0.01149681f, 0.08887447f, 0.00303578f, 0.04891388f, -0.06429698f, -0.00488027f, -0.07398049f, -0.18572927f, 0.01677826f, 0.03951276f, 0.02267997f, 0.03029371f, 0.01061035f, 0.05292131f, 0.00383570f, 0.04085349f, -0.00928207f, 0.08765873f, -0.11817170f, -0.03935554f, 0.07576455f, 0.04507437f, -0.01939420f, -0.09438664f, 0.03643755f, -0.04210338f, 0.02028678f, 0.06689107f, -0.23594733f, -0.03076204f, 0.10109091f, -0.01692350f, -0.05835961f, -0.02857555f, 0.16274810f, 0.15637198f, -0.00755030f, -0.29788715f, -0.23612842f, -0.01653185f, 0.08992860f, 0.00940420f, 0.00234312f, -0.15588306f, -0.02494360f, -0.00004872f, 0.04040695f, -0.02408170f, -0.00280230f, -0.04607803f, -0.08182485f, -0.10096568f, -0.07762264f, -0.04322387f, 0.08431794f, 0.07434535f, -0.03679096f, -0.12424956f, 0.00883107f, 0.12396663f, 0.03644714f, 0.08664463f, 0.01902152f, -0.05699883f, -0.08327723f, -0.16480851f, -0.19980200f, -0.10422044f, -0.13168269f, 0.10973620f, 0.09249476f, 0.02394531f, 0.13281652f, 0.00597091f, -0.02175740f, -0.04197917f, 0.04630616f, -0.05775797f, 0.00746566f, -0.01929506f, -0.02622205f, 0.05548528f, 0.03839350f, 0.12493959f, 0.14375399f, 0.03437432f, 0.11926753f, -0.06271683f, 0.08925895f, 0.06392547f, 0.08725087f, -0.01647283f, -0.09983590f, 0.09842138f, -0.00888779f, 0.00595923f, 0.08360199f, -0.02778830f, -0.02430482f, 0.13001329f, 0.15163618f, 0.05096280f, -0.01751080f, 0.02727803f, 0.01828873f, -0.12570484f, -0.05185263f, -0.19612561f, -0.05551656f, 0.07151704f, 0.02768677f, -0.00211477f, -0.16153449f, 0.11562086f, 0.13077936f, 0.17074966f, 0.14343263f, 0.05354088f, -0.04357907f, -0.08596855f, -0.08550365f, 0.21669158f, -0.19144225f, 0.14935842f, 0.03381488f, 0.03762230f, -0.11804630f, -0.17216264f, 0.03736044f, 0.14574468f, 0.19685355f, 0.25082707f, 0.29601058f, 0.00736273f, 0.08772142f, -0.05925640f, 0.04680664f, 0.06789690f, -0.20471489f, -0.27771378f, -0.24037020f, -0.31949174f, -0.20569304f, 0.01171477f, -0.03795796f, 0.06750669f, 0.02202852f, 0.01264050f, 0.15625162f, 0.11898089f, -0.07950041f, -0.29500958f, -0.46783334f, 0.00431232f, -0.02703797f, 0.06377827f, -0.00891595f, 0.00932260f, 0.02510471f, -0.02860038f, -0.05767504f, -0.13989291f, -0.13040404f, -0.11867870f, -0.22668914f, -0.05115996f, 0.03496492f, -0.17261846f, 0.09892616f, 0.13436367f, 0.11492010f, 0.16780707f, 0.06905562f, 0.06186602f, -0.01741132f, 0.05816771f, 0.02481948f, 0.01245207f, 0.02490781f, 0.11544166f, 0.03501249f, 0.10525408f, 0.02753098f, -0.01090292f, -0.36625069f, -0.12604532f, -0.15682425f, -0.33566865f, -0.08765157f, 0.00912035f, 0.09754202f, -0.11150423f, -0.13661167f, -0.04145589f, -0.16616873f, -0.13292462f, -0.31327048f, -0.65016860f, -0.06936104f, -0.12397358f, -0.07814323f, -0.03715857f, -0.10472829f, 0.01732058f, -0.09337089f, -0.09188824f, -0.15470921f, -0.30055255f, -0.15217037f, -0.36726809f, -0.30269492f, -0.06143337f, -0.14628306f, -0.16125037f, -0.13845238f, 0.00010418f, 0.07292641f, -0.19783127f, -0.15098789f, -0.32280713f, -0.05586921f, -0.29267016f, -0.17206830f, 0.00459395f, -0.01335073f, 0.06878395f, -0.04012565f, 0.01830185f, -0.12837416f, -0.09017263f, -0.02476594f, 0.06488817f, 0.10179728f, 0.15298295f, 0.07087899f, 0.04504742f, -0.17168966f, -0.31747147f, -0.17397735f, -0.22621210f, -0.12240502f, -0.21908589f, -0.14631473f, 0.14797558f, 0.13654342f, 0.11284304f, 0.12849227f, 0.09267246f, 0.05386956f, -0.03173317f, 0.08395086f, 0.09067951f, -0.02504503f, -0.05108478f, 0.04389887f, 0.04520816f, 0.14951581f, 0.11540259f, 0.02558799f, -0.10892038f, -0.27122700f, -0.14504695f, -0.00233725f, -0.06964350f, -0.08179313f, 0.02002368f, 0.07576010f, 0.04997938f, 0.06110296f, -0.02201310f, 0.03290554f, -0.00205958f, -0.14676861f, 0.03080835f, -0.25610012f, -0.07878798f, 0.00176653f, 0.04418051f, 0.07483414f, 0.05602012f, 0.05067495f, -0.04554311f, -0.14991505f, -0.06018454f, -0.06895917f, 0.05898999f, -0.13462022f, 0.16715740f, -0.00569505f, 0.09939729f, -0.02066506f, -0.00491774f, 0.10528386f, -0.11370103f, -0.14558758f, -0.09962220f, 0.04343565f, 0.10736164f, -0.13170269f, -0.05090866f, -0.10252656f, -0.02830484f, -0.03421262f, -0.17811075f, -0.01857616f, 0.22407643f, 0.36543828f, 0.27223131f, 0.14376329f, -0.05784406f, -0.05379353f, -0.02801128f, -0.00048966f, -0.11981671f, -0.09662811f, -0.12666567f, -0.14415066f, 0.13711852f, -0.07254398f, 0.01431121f, 0.06225349f, 0.05632965f, -0.03384868f, 0.01510506f, -0.01010047f, 0.07519358f, -0.04365013f, -0.06923278f, -0.05780601f, 0.05524658f, 0.05546934f, 0.07071906f, 0.01686287f, 0.00578851f, -0.00497475f, -0.02077956f, 0.00849868f, 0.02676173f, -0.19681732f, -0.04601084f, 0.05807285f, 0.19299990f, 0.06289021f, -0.10923252f, -0.10021345f, -0.16873938f, -0.01381161f, 0.04025664f, 0.08250270f, 0.08547077f, 0.01612705f, 0.03811413f, 0.09367082f, -0.24478239f, -0.29885539f, -0.17300740f, -0.25389758f, -0.05647817f, 0.14742686f, 0.18889920f, 0.04919705f, -0.04090726f, -0.12960547f, 0.08404534f, 0.06789922f, 0.11801897f, 0.21055005f, 0.16698633f, -0.02040427f, -0.06033903f, -0.08718054f, -0.03352651f, -0.01810306f, -0.07519961f, 0.03196584f, -0.05960149f, 0.08187798f, 0.05084497f, -0.01869104f, 0.03747251f, 0.03500936f, 0.00279500f, 0.01892911f, -0.40858114f, -0.30350950f, -0.33385497f, -0.11635363f, 0.01880741f, -0.12303532f, -0.15265045f, -0.05633274f, -0.04498117f, 0.09086272f, -0.13178727f, -0.07109199f, -0.14410833f, -0.03813600f, -0.00280599f, 0.02100633f, 0.03363629f, -0.02086490f, 0.08366202f, -0.03698943f, 0.08615771f, 0.08211167f, 0.04384430f, -0.03956334f, -0.13270780f, 0.04588847f, 0.08289681f, 0.00446757f, 0.01561039f, -0.01305962f, -0.18025194f, -0.12377986f, -0.04987251f, -0.03085209f, -0.04242674f, -0.15849878f, -0.20217095f, -0.13280198f, 0.05115914f, -0.04475449f, 0.09687459f, 0.03038556f, 0.02024983f, -0.03002868f, -0.16055363f, -0.14962567f, 0.00018451f, 0.07109657f, 0.21703282f, 0.21201321f, 0.05329569f, 0.03080601f, 0.06329574f, -0.05676547f, -0.06357637f, 0.17703488f, 0.17302684f, 0.11233094f, -0.02015245f, 0.08521255f, 0.01239614f, 0.03925214f, 0.09630514f, 0.02263047f, -0.00497341f, -0.05968308f, -0.02639774f, -0.01944114f, 0.01402083f, 0.10245915f, -0.13485447f, -0.00597049f, 0.06314538f, 0.15343080f, 0.21769094f, 0.15710071f, 0.22973877f, 0.11440556f, 0.00357829f, -0.04642565f, 0.11821368f, 0.03125965f, 0.13797419f, 0.08064536f, 0.02334900f, -0.04679907f, -0.05209981f, -0.02576317f, 0.07444212f, 0.01166634f, 0.02119274f, 0.03563394f, 0.13211352f, 0.07600425f, -0.00005949f, 0.00652164f, 0.03274832f, -0.02245165f, 0.03895592f, -0.07355341f, 0.02847631f, 0.04850794f, 0.06584484f, 0.13783008f, 0.04658432f, 0.03453889f, -0.04305027f, 0.02492441f, 0.03505238f, 0.05034596f, -0.02326131f, -0.00193133f, -0.02558892f, 0.07226946f, 0.08452105f, -0.07464439f, -0.00413245f, 0.01236719f, 0.03234346f, -0.00302954f, -0.05682288f, -0.01340249f, -0.02880941f, 0.04778312f, 0.06768682f, -0.19020653f, -0.20469497f, -0.21361914f, -0.17707303f, -0.10035081f, 0.15311553f, 0.04472322f, 0.02282205f, -0.05547399f, -0.09136003f, -0.01116107f, -0.10129585f, -0.17391370f, -0.14039738f, -0.16349855f, -0.12355834f, -0.17024940f, 0.01168162f, -0.01151528f, 0.16329958f, 0.05513555f, 0.07900022f, 0.02527707f, 0.05350057f, 0.08561852f, -0.07771183f, -0.02312789f, 0.06275662f, -0.00548773f, -0.03635018f, -0.13792138f, -0.00025531f, -0.01933133f, 0.05831627f, 0.16125947f, -0.09663931f, -0.05402973f, -0.14026850f, -0.06545844f, -0.10207129f, -0.00143561f, 0.02828736f, 0.09066141f, 0.04869227f, 0.16981734f, 0.07872622f, -0.05871011f, -0.01537048f, 0.02739275f, 0.03458103f, -0.02732803f, 0.03454948f, -0.01622526f, 0.02569640f, 0.07974553f, -0.03196286f, 0.03677817f, 0.04458270f, 0.03243506f, 0.00280342f, -0.20429923f, -0.13095182f, 0.03236926f, 0.06073919f, 0.12722692f, -0.05117221f, 0.02036439f, -0.01553944f, 0.08078969f, 0.14573503f, -0.06861974f, -0.03696609f, 0.06384109f, 0.10918073f, -0.05158340f, 0.23460750f, 0.11291628f, 0.08674387f, -0.04848502f, 0.00663877f, -0.15350412f, -0.04436684f, 0.04009865f, 0.08804926f, 0.30756184f, 0.04874903f, -0.00376134f, -0.01973134f, -0.06012838f, 0.04119170f, -0.07549353f, 0.04214562f, 0.10168550f, 0.06021098f, -0.07772028f, 0.16408348f, 0.07602192f, 0.10740718f, -0.05577370f, -0.13774313f, 0.05689438f, 0.04540699f, 0.06846141f, -0.00830673f, 0.11466490f, -0.01016402f, 0.04233430f, -0.02860139f, 0.08547097f, 0.06248778f, 0.11210950f, 0.10768604f, 0.08285470f, -0.01336298f, 0.04124082f, -0.44211760f, -0.13772851f, -0.06942238f, -0.08847689f, -0.26841199f, -0.00502070f, 0.01112694f, 0.00165351f, -0.00722200f, 0.09546530f, 0.11688783f, 0.11664052f, 0.02893797f, 0.03299366f, -0.04787865f, -0.17484218f, -0.05266306f, 0.01555828f, 0.18271926f, 0.29039675f, -0.00687397f, 0.09385740f, 0.05555016f, 0.01988252f, 0.01653337f, -0.00324869f, -0.02202463f, -0.03252152f, -0.02040167f, -0.01157879f, 0.16737133f, 0.15998465f, 0.01597619f, -0.00577500f, -0.05435827f, -0.12698726f, -0.09644745f, -0.01923645f, 0.00039474f, -0.24944854f, 0.02601703f, 0.02417478f, 0.03865857f, 0.04736044f, 0.09340667f, -0.06831544f, -0.07045698f, -0.02190578f, 0.05038352f, 0.02097976f, -0.09487569f, -0.03961761f, 0.01497682f, 0.05721288f, 0.08143368f, 0.16123265f, 0.04482554f, 0.03357716f, 0.03022127f, 0.04963299f, -0.05662628f, -0.11230692f, 0.01373950f, 0.09179864f, 0.09278593f, -0.00724359f, 0.07004400f, -0.04062263f, -0.00486807f, -0.02519067f, -0.18269004f, -0.12208377f, -0.08508925f, -0.01467764f, 0.01235064f, -0.09624006f, -0.05108650f, 0.10552686f, 0.12916587f, 0.12003390f, 0.12953134f, -0.01303023f, -0.02547684f, 0.09801030f, 0.17034368f, -0.03364600f, 0.04589015f, 0.01543497f, 0.08490949f, 0.06896067f, 0.01735019f, 0.03807937f, 0.03060404f, 0.14361262f, 0.10108326f, 0.08295828f, 0.06189931f, 0.01957198f, 0.01429557f, 0.03186476f, -0.06586444f, -0.01215582f, 0.08740523f, 0.18659362f, 0.30486536f, 0.09776855f, -0.03383845f, 0.00194486f, -0.05616104f, -0.04550479f, 0.02042861f, 0.07621026f, 0.07043981f, 0.02059988f, 0.05850593f, -0.12566717f, -0.05519634f, 0.02822760f, -0.10147912f, -0.09837615f, 0.06113832f, 0.04274241f, -0.01668683f, -0.03636684f, 0.05859581f, 0.11911932f, -0.00432559f, -0.07027638f, 0.04401864f, -0.02664702f, 0.08728554f, 0.05641941f, 0.09672064f, 0.08034603f, -0.01124187f, 0.12997665f, -0.02623088f, -0.12219642f, 0.05792857f, 0.01463640f, -0.03811084f, -0.07322844f, 0.05579102f, -0.22445981f, -0.30844149f, -0.01663004f, 0.11437278f, 0.10526703f, 0.19721837f, 0.19936310f, -0.26599163f, -0.09491548f, -0.02951662f, -0.04725581f, -0.03380383f, -0.01182374f, 0.00383395f, 0.11279412f, 0.05527778f, 0.03560589f, -0.07998549f, -0.00498312f, -0.05300270f, 0.04678563f, -0.04353673f, 0.10386550f, -0.07940684f, -0.03948468f, -0.01068559f, -0.09883691f, -0.25505614f, -0.26219025f, -0.17986074f, -0.11606301f, 0.01229489f, 0.07075560f, 0.11009702f, 0.09588882f, 0.03358087f, -0.08698379f, 0.06571309f, 0.02870487f, 0.04992426f, -0.04659098f, -0.09037784f, 0.04352726f, 0.03480698f, 0.05379146f, -0.03566392f, 0.00361726f, 0.08148395f, 0.03156287f, 0.04695402f, -0.04812727f, -0.06499290f, 0.12030292f, -0.12526691f, -0.03057139f, -0.00755138f, -0.17816558f, -0.05721023f, -0.01301885f, -0.00864062f, 0.07063919f, 0.02766055f, 0.00491013f, 0.06231238f, 0.07547927f, 0.06882824f, -0.24242951f, 0.15896147f, 0.08566645f, -0.18593085f, -0.03773410f, 0.00689138f, -0.25629634f, -0.09340639f, -0.00807521f, -0.12818649f, -0.17579083f, 0.10243246f, 0.10608802f, 0.04480901f, 0.08523232f, 0.01865388f, -0.10095986f, -0.01407820f, 0.04923899f, -0.05108083f, -0.23832485f, -0.41391945f, 0.11118919f, 0.03676333f, 0.05254250f, -0.14814015f, -0.09315524f, -0.07440765f, -0.02237806f, -0.00642377f, 0.02431361f, 0.07221671f, 0.06433968f, 0.04042998f, 0.11465503f, 0.08116228f, -0.15978463f, -0.11462840f, -0.00337856f, -0.05239068f, -0.01105768f, -0.05411687f, 0.01341484f, -0.01072935f, -0.07570120f, 0.00194098f, 0.09513739f, -0.01342125f, -0.03538175f, -0.02561961f, -0.01181637f, -0.21397783f, 0.00776170f, -0.03592810f, -0.07711814f, -0.22639172f, 0.09937299f, 0.04043989f, 0.03353887f, -0.02088428f, -0.05717163f, -0.14881591f, -0.02876904f, -0.05804905f, 0.03301204f, 0.07041308f, 0.00945591f, 0.00482453f, -0.08490171f, -0.04953681f, 0.03752140f, 0.00935919f, 0.08459190f, 0.06560817f, -0.03874876f, -0.03216820f, -0.04937674f, 0.04917293f, 0.16414627f, 0.08557963f, 0.01546150f, 0.12866798f, 0.00437260f, -0.00779187f, 0.03252866f, 0.05348371f, -0.37331176f, -0.10617781f, -0.06361900f, -0.32653782f, -0.56495798f, 0.08649399f, 0.08865152f, -0.05363001f, 0.01885298f, 0.01633172f, -0.02266084f, -0.01169799f, 0.09145834f, -0.01164105f, 0.02840110f, -0.02511942f, -0.01419696f, 0.00573221f, -0.08518565f, -0.00848398f, 0.06070621f, 0.05221285f, 0.07723862f, -0.06050579f, -0.27760974f, -0.36239642f, -0.18536931f, -0.17430279f, -0.20714621f, -0.33256453f, -0.14929822f, -0.03378655f, 0.02816013f, 0.01494504f, 0.11960174f, -0.00602993f, -0.03542602f, -0.08314466f, -0.00926385f, -0.01484087f, -0.10739372f, 0.00357559f, 0.02367776f, -0.07766892f, -0.00922186f, -0.03219652f, -0.05647020f, -0.03667162f, -0.02894851f, 0.06352218f, 0.12734322f, 0.06507526f, 0.06406217f, 0.02078698f, 0.05894582f, 0.00602202f, 0.04572027f, 0.05678328f, 0.01465174f, -0.00987286f, -0.28143278f, -0.01193374f, 0.14718845f, -0.03379159f, -0.07540300f, -0.06812738f, 0.04644351f, 0.03607291f, 0.09295251f, 0.04034291f, -0.22044164f, -0.01712782f, 0.07630189f, 0.17925300f, 0.05054779f, -0.10017722f, 0.03811675f, 0.03385488f, -0.17290550f, -0.25483358f, -0.00058502f, 0.01109944f, 0.11466248f, 0.10102101f, -0.10562193f, -0.05588907f, -0.04478109f, -0.02360809f, 0.04195538f, 0.08563259f, -0.14688875f, -0.23323037f, -0.23174872f, -0.23170134f, -0.18648039f, -0.11543980f, -0.02672120f, 0.08365097f, 0.05431918f, 0.07557019f, -0.18814906f, -0.06401693f, 0.02293381f, -0.04563228f, 0.03425160f, 0.05418743f, -0.04861763f, -0.07092617f, -0.13391942f, -0.23324592f, -0.02249768f, -0.07020179f, 0.01182240f, -0.00285438f, 0.00205552f, 0.04794798f, -0.00840715f, -0.07660787f, -0.04902283f, 0.00330691f, -0.05994568f, -0.02401442f, 0.06154733f, -0.01286134f, 0.04483801f, -0.08890894f, -0.04533364f, 0.01947998f, 0.01728247f, 0.11332787f, -0.06237444f, -0.00540099f, 0.06389218f, 0.04443387f, 0.12381918f, 0.02059403f, 0.05569490f, 0.03556676f, 0.10171371f, 0.14442819f, -0.08970190f, 0.02345485f, 0.17255828f, 0.15305212f, 0.20295016f, -0.05233128f, -0.09358066f, -0.06544709f, -0.10943290f, -0.02760528f, -0.16521105f, -0.07927261f, -0.04952755f, 0.11802161f, 0.14724414f, 0.02415561f, 0.06667920f, 0.11428239f, 0.07241706f, -0.04021566f, -0.21561749f, -0.21611837f, -0.15299544f, -0.31785676f, -0.14440872f, -0.02672393f, -0.05530608f, 0.05164039f, -0.00285243f, -0.00673499f, -0.31754154f, -0.22172579f, -0.32610324f, -0.13405770f, -0.42637751f, -0.16277906f, -0.19418168f, -0.08024206f, -0.10217258f, -0.05985577f, -0.27595806f, -0.25977033f, -0.24587081f, -0.21123327f, -0.20809709f, -0.04549048f, -0.03142253f, 0.05909229f, 0.02424684f, -0.01630436f, -0.08567952f, -0.06178823f, -0.16481443f, -0.18720296f, -0.30161697f, -0.11728552f, -0.12689745f, -0.09653942f, -0.07560439f, 0.01881210f, 0.04490641f, 0.05000880f, 0.06762996f, 0.10669922f, 0.14323555f, -0.18414885f, -0.16143773f, -0.28749716f, -0.09984185f, -0.03076428f, -0.06418701f, -0.01928299f, -0.08236240f, 0.01874800f, -0.02569230f, -0.12748952f, -0.06477846f, -0.01514316f, -0.07008956f, -0.08219008f, -0.06421771f, 0.08415941f, 0.13666537f, 0.08437666f, -0.09556703f, 0.03090717f, 0.06085927f, 0.08002426f, 0.20530063f, 0.15116063f, -0.09012844f, -0.07275921f, -0.06532783f, 0.02455372f, 0.06844780f, 0.03475283f, 0.08441103f, 0.05648870f, 0.17991683f, 0.21207851f, 0.09584016f, -0.03372113f, -0.05163150f, -0.04797188f, 0.14465766f, -0.04176598f, -0.09488545f, -0.00793944f, 0.06644010f, -0.01617015f, -0.17697993f, -0.14979297f, -0.07999378f, -0.03179942f, -0.10930153f, -0.04684574f, 0.03752427f, -0.00603673f, 0.05636293f, 0.11310290f, 0.02002226f, -0.05445299f, 0.05676270f, 0.13494028f, -0.01876706f, -0.08652854f, -0.10210227f, -0.00169274f, -0.08154045f, 0.02945614f, -0.10112753f, -0.16956256f, -0.17377473f, -0.11173252f, -0.01065613f, 0.04801150f, 0.02310751f, 0.03633784f, 0.11278570f, 0.19288942f, -0.27680326f, -0.30016971f, -0.22231367f, -0.30261621f, -0.33363292f, -0.02934182f, 0.00546631f, 0.02726990f, 0.06186434f, 0.18288796f, 0.00297728f, -0.08485671f, -0.00407550f, -0.06868856f, -0.01792958f, -0.13220896f, -0.08048104f, -0.00609090f, -0.03425214f, 0.01712322f, 0.00828696f, 0.13007778f, 0.25927249f, 0.29910770f, 0.03546658f, -0.10034801f, -0.13355228f, -0.06641193f, -0.03608957f, -0.02074630f, 0.02433688f, -0.07017859f, -0.04724148f, 0.00234363f, 0.02882873f, -0.11235134f, -0.10897896f, -0.18451189f, -0.18120381f, -0.18252063f, 0.11535090f, 0.05145331f, -0.00850223f, 0.11008241f, 0.00882285f, -0.13508202f, -0.06347841f, -0.00933244f, -0.04803581f, -0.01406507f, 0.16349392f, 0.15046602f, 0.02729857f, 0.01038861f, 0.16917281f, -0.13959563f, 0.00654212f, -0.08986267f, -0.07762247f, -0.12971729f, -0.05015592f, -0.03849371f, -0.14212392f, -0.00230457f, -0.03549218f, -0.15561350f, -0.13949858f, -0.23647690f, -0.35651809f, -0.35415193f, -0.04835847f, 0.00238179f, 0.08713002f, 0.08370094f, 0.10280365f, -0.17293862f, -0.11078212f, -0.02118476f, -0.06659573f, 0.01889169f, 0.18264802f, 0.09822313f, 0.07070042f, 0.08702884f, 0.01980533f, 0.07037292f, 0.03997758f, 0.09012284f, 0.06697248f, 0.08232998f, 0.02957804f, 0.01102226f, -0.02039102f, -0.08573701f, -0.09934078f, 0.05781656f, 0.12907635f, 0.13304073f, 0.00748496f, 0.02342443f, 0.03095125f, 0.01965888f, -0.07050465f, -0.10759134f, -0.50040674f, 0.05710642f, -0.01426033f, -0.00311314f, 0.04849260f, 0.11493305f, -0.08633365f, -0.09483010f, -0.07102022f, 0.00801037f, -0.05880253f, 0.05272494f, -0.07370918f, -0.09616109f, -0.15560475f, -0.22539128f, -0.43132511f, -0.09856895f, -0.01001968f, -0.02906032f, -0.04206169f, 0.08986995f, 0.07000290f, 0.04704073f, 0.06218022f, 0.16785687f, 0.10342745f, 0.07157554f, 0.11388642f, -0.05439192f, 0.05083375f, -0.27423620f, 0.06591282f, -0.10801280f, -0.04656809f, -0.03451057f, -0.08952461f, 0.01928886f, 0.15904763f, 0.05688084f, 0.09621222f, -0.08588668f, 0.05058362f, -0.11057317f, -0.12195586f, -0.26392937f, -0.24820396f, -0.18688171f, -0.13516928f, 0.02379096f, 0.09326675f, -0.03977474f, -0.00398645f, 0.09385756f, 0.06751471f, 0.13011028f, 0.13762511f, -0.03323102f, -0.09950405f, 0.00698265f, -0.10024808f, -0.20408233f, -0.01312103f, -0.05018323f, 0.01463632f, 0.18440422f, 0.12035118f, 0.02395698f, 0.04108204f, 0.04796978f, 0.13457973f, -0.01261403f, 0.04128448f, 0.12671833f, 0.20213313f, 0.11164974f, -0.10977694f, -0.05124475f, -0.00829118f, -0.05848204f, 0.02252656f, 0.10246091f, -0.00174297f, 0.00269579f, -0.02734519f, 0.07704291f, 0.08030535f, 0.06235861f, 0.04691759f, 0.09781245f, 0.06513013f, 0.13094386f, 0.05359272f, -0.01214567f, -0.03885224f, 0.09227794f, -0.10781661f, -0.09639312f, -0.08024114f, -0.05668365f, -0.13162160f, 0.25888857f, 0.03696427f, -0.02620858f, -0.04937528f, -0.05764982f, -0.27543789f, -0.07463919f, -0.00768592f, 0.08278061f, 0.21773611f, 0.15426922f, 0.11547413f, 0.10956383f, 0.05584333f, 0.08753441f, -0.11882713f, -0.06377637f, -0.09187801f, -0.11193933f, -0.00527699f, 0.06854302f, 0.09783670f, 0.08422679f, -0.00309153f, -0.01285951f, -0.25281942f, -0.08779223f, -0.02870774f, 0.09338107f, 0.13148440f, 0.14806548f, 0.06252199f, 0.00947371f, -0.03131365f, 0.01974175f, -0.10236933f, 0.09978341f, 0.08304018f, 0.10253427f, -0.00839466f, 0.07754105f, 0.06638388f, -0.01701291f, -0.01192460f, 0.03268267f, 0.11776330f, 0.15382111f, 0.06168037f, 0.09688041f, 0.02667927f, -0.09878290f, 0.09908472f, 0.03133681f, 0.04525585f, 0.09787762f, -0.13108270f, -0.22946613f, -0.10661618f, -0.07993518f, 0.21182744f, -0.14103492f, -0.02057108f, 0.08755110f, 0.07461523f, 0.12491459f, -0.09740794f, -0.10998023f, -0.07458550f, -0.00549693f, 0.02503276f, -0.15364580f, 0.06876089f, 0.03031021f, 0.00591657f, 0.26194397f, 0.18529269f, -0.00950672f, -0.12662308f, -0.15241934f, -0.23134372f, -0.19669196f, -0.33426848f, -0.21429798f, -0.26408181f, -0.06190236f, 0.10356683f, -0.01513243f, -0.06101587f, -0.05404098f, 0.07764514f, 0.08687518f, 0.01750622f, -0.14422470f, -0.03986901f, 0.02012967f, -0.01500065f, -0.05405593f, 0.02057461f, -0.02482056f, 0.02640863f, 0.10212065f, 0.00014017f, -0.12197689f, -0.04269913f, -0.02790165f, 0.04663098f, -0.03242224f, -0.07649799f, -0.09396892f, -0.00008999f, 0.15716335f, 0.06652501f, -0.00275071f, 0.08929285f, -0.00114661f, 0.14498767f, 0.11567256f, 0.13672790f, 0.18434939f, 0.08202466f, 0.09301566f, 0.06883242f, 0.13129865f, 0.10266210f, 0.17496043f, 0.16738686f, 0.06286133f, 0.05788580f, 0.19738702f, 0.15062031f, 0.07430429f, 0.09834016f, 0.06575936f, 0.15132409f, 0.14253148f, -0.25864995f, -0.07763869f, -0.01256757f, 0.05176350f, 0.01960004f, 0.13511235f, 0.14564839f, 0.16465384f, 0.16335610f, 0.18745583f, 0.04027791f, -0.06932788f, -0.05865813f, -0.05884464f, -0.09328215f, -0.31338125f, -0.17835987f, -0.15447554f, 0.00979179f, -0.07097153f, 0.01516612f, -0.06316386f, -0.02029696f, 0.01618623f, 0.20903441f, 0.00431259f, 0.03417194f, 0.06334782f, 0.18087716f, 0.25921643f, 0.15744963f, 0.14360274f, 0.09530351f, 0.14046106f, 0.20298329f, 0.25584799f, 0.07046425f, -0.00013422f, 0.12618575f, 0.02828520f, 0.12143132f, 0.07504097f, 0.07767458f, 0.08238877f, 0.15437613f, -0.09604686f, 0.02273215f, -0.08029247f, 0.00390947f, -0.08549687f, 0.15606359f, 0.18749316f, 0.19623795f, 0.17228442f, 0.04252130f, 0.13241948f, 0.08717799f, 0.05098694f, 0.08686365f, 0.21273631f, 0.12563437f, 0.04922410f, -0.00947169f, -0.02586435f, -0.10778861f, 0.00399688f, 0.00204256f, 0.02157656f, 0.07710242f, 0.10534740f, 0.08726870f, 0.09475391f, 0.04617794f, 0.15112928f, 0.07793687f, 0.08492406f, 0.07543839f, 0.03972413f, 0.14462686f, 0.10558379f, -0.10723540f, -0.06355890f, -0.01164107f, -0.02380679f, -0.00346213f, -0.01479252f, 0.06592952f, 0.05887617f, -0.06523933f, 0.04461730f, 0.13673839f, 0.02281078f, -0.01629560f, 0.04433638f, 0.17108074f, 0.07646722f, 0.02695703f, -0.00029367f, -0.05394881f, -0.03760537f, 0.07970331f, -0.03345230f, 0.01210363f, 0.02637576f, 0.00195454f, 0.01450323f, 0.06964891f, 0.03958961f, -0.05616999f, -0.01359687f, 0.19857208f, 0.06072218f, 0.15909152f, 0.13698266f, 0.05264941f, 0.02720622f, -0.09240125f, 0.05392463f, 0.02103154f, 0.08553900f, -0.06946531f, -0.05913570f, 0.02446402f, -0.00532478f, 0.04258993f, -0.03696540f, -0.00872776f, -0.10257243f, -0.00503789f, 0.09327199f, 0.13225262f, 0.10500030f, 0.05556909f, 0.10354982f, 0.00907501f, 0.06258234f, 0.02554058f, -0.00834691f, 0.02652214f, -0.01732202f, 0.12207294f, 0.12694289f, 0.08854149f, 0.10540487f, 0.11003600f, 0.05471975f, -0.04855252f, 0.01654005f, -0.01908903f, -0.16710441f, 0.04943261f, 0.16360550f, 0.10362878f, 0.21619178f, 0.22792956f, 0.06520400f, 0.01132679f, 0.10221878f, 0.11968164f, 0.15831558f, 0.08015920f, -0.00442372f, -0.12783666f, -0.09764738f, -0.07871106f, 0.15262479f, 0.02316485f, 0.04628187f, 0.01137899f, 0.01495836f, 0.11016605f, 0.10051110f, 0.04320122f, 0.01701190f, 0.09235068f, 0.00843985f, -0.01304781f, -0.00749765f, 0.06524608f, 0.12961359f, -0.02176831f, -0.05667071f, -0.18569639f, -0.21456417f, -0.15895300f, 0.00999743f, -0.07891059f, 0.01783091f, -0.06398078f, -0.06068819f, 0.04467266f, -0.04643052f, -0.01806543f, 0.00952861f, -0.03090082f, 0.20019299f, 0.00778984f, -0.13461111f, -0.12157561f, -0.19897869f, 0.19193786f, 0.02704357f, 0.02594780f, 0.05706915f, 0.02685538f, 0.14272815f, 0.06926915f, 0.10719472f, 0.20327108f, 0.19590409f, 0.03481411f, 0.13262253f, 0.02621513f, 0.01228335f, 0.09729074f, -0.17982928f, -0.20714638f, -0.17071950f, -0.08435000f, -0.05582334f, 0.07299407f, -0.03739099f, -0.04520261f, 0.01041201f, -0.11570890f, 0.01374109f, 0.02721423f, -0.01860558f, 0.01405579f, 0.13844731f, 0.04482751f, 0.14510494f, 0.16131081f, 0.07600012f, 0.04521612f, 0.07208332f, 0.01325554f, 0.01392516f, -0.03572878f, -0.15393160f, -0.02635560f, -0.09372375f, -0.23148292f, -0.06828453f, -0.02799696f, -0.07462498f, -0.02892521f, -0.01829206f, 0.04388370f, 0.06952096f, -0.02847711f, -0.06975975f, -0.13885859f, -0.22078308f, -0.12934302f, -0.00348472f, -0.06625848f, -0.21586931f, -0.29630736f, -0.19941868f, -0.13957725f, -0.01914286f, -0.01992108f, -0.01193569f, 0.03688892f, 0.28185359f, 0.21135482f, 0.16974422f, 0.13246538f, 0.15204646f, 0.01153823f, -0.03571128f, 0.06205413f, -0.01508292f, 0.00859851f, -0.02875361f, -0.02938623f, -0.07609968f, -0.00804935f, 0.06780550f, 0.08998561f, 0.00962121f, 0.03159127f, 0.02527476f, 0.01325130f, -0.11127211f, -0.09098364f, -0.10434126f, -0.10598360f, -0.19298446f, 0.11525016f, 0.09039641f, 0.14652856f, 0.12266880f, 0.01731316f, 0.11845779f, 0.04998701f, 0.03461619f, -0.05456678f, -0.08370595f, -0.05375851f, 0.01313894f, 0.02899116f, -0.12092296f, -0.39929402f, 0.03820148f, 0.05893990f, 0.01360552f, 0.03624761f, -0.02688030f, -0.03622413f, 0.03696960f, -0.02658983f, 0.02427668f, -0.02290676f, 0.04984729f, -0.03358645f, 0.03122459f, -0.04569574f, -0.08136014f, 0.19898944f, 0.17490552f, 0.12174682f, 0.08202646f, 0.08667655f, 0.00777676f, 0.08386116f, -0.00786913f, -0.08047997f, -0.12669578f, 0.08392649f, 0.12112673f, 0.02452357f, -0.05303197f, -0.09438196f, 0.03373448f, 0.12602299f, 0.14756213f, 0.08806344f, -0.04277629f, 0.02252020f, -0.05232750f, 0.01593456f, 0.09198966f, -0.03759395f, 0.10091256f, -0.02716431f, 0.04747794f, 0.02779722f, -0.15255052f, -0.05119069f, -0.01589667f, 0.05034278f, 0.12142704f, 0.05604630f, 0.15715370f, 0.14794666f, 0.04302776f, -0.13886806f, -0.09730493f, 0.03577024f, -0.06691752f, -0.20187324f, -0.15968826f, -0.23191702f, -0.13946742f, -0.08388635f, -0.01004040f, 0.00858320f, -0.06212192f, 0.02624045f, 0.01912451f, 0.02200733f, 0.06110639f, 0.06697270f, 0.02085309f, 0.03171542f, 0.15321137f, 0.13992552f, 0.05780214f, 0.02611542f, 0.07670514f, -0.02316068f, -0.00602760f, 0.02527462f, -0.06943434f, -0.11015173f, -0.16140029f, -0.23728411f, -0.41944432f, -0.00718836f, -0.03440252f, 0.05743297f, -0.01771364f, -0.11971490f, 0.04653075f, 0.02626717f, 0.09342868f, 0.02140375f, 0.01303495f, -0.09299017f, -0.07685073f, -0.02258434f, 0.08828294f, -0.00986369f, 0.01129836f, -0.04378378f, -0.04095674f, -0.00060028f, -0.01723777f, -0.13390146f, -0.13867804f, -0.07512681f, 0.01293707f, 0.08907522f, 0.07131949f, 0.04973897f, 0.02310706f, -0.02466527f, -0.03087184f, -0.08292817f, -0.26496181f, -0.15385787f, -0.02349309f, -0.00258063f, -0.13208413f, -0.09916220f, -0.28166664f, -0.36945608f, -0.36053818f, -0.13521260f, -0.01904158f, 0.00576510f, -0.07687633f, -0.16318212f, 0.06841623f, 0.05982928f, 0.00629351f, 0.06296781f, -0.09939554f, 0.11175542f, 0.12907691f, -0.03495842f, -0.06992217f, -0.08271843f, -0.07288817f, 0.05111842f, 0.06688317f, -0.04964208f, -0.12765913f, -0.46366027f, -0.35309300f, -0.17358683f, -0.01716372f, 0.01236026f, 0.35891020f, 0.19057155f, 0.07347696f, -0.03040950f, 0.06400938f, 0.07623044f, 0.03327978f, 0.08496666f, 0.04426246f, 0.02309976f, 0.02455711f, 0.04926558f, -0.04189976f, 0.01687572f, -0.05148949f, -0.03381915f, -0.04452943f, 0.04167945f, -0.06845097f, 0.01586862f, -0.06548454f, 0.03935283f, 0.01478270f, -0.00949210f, 0.03943234f, -0.14524838f, -0.04232623f, 0.07555573f, 0.01185143f, -0.07743783f, 0.22448301f, -0.00849004f, -0.12344294f, -0.15664960f, -0.16729036f, -0.00619630f, -0.04741587f, -0.15258107f, -0.08602922f, -0.01041026f, -0.25929633f, -0.20736849f, -0.11028175f, -0.05637915f, -0.10911315f, -0.16501737f, 0.03364711f, 0.04918431f, 0.01557815f, -0.03668918f, -0.91335094f, -0.86234653f, -0.54941493f, -0.45605701f, -0.30249906f, -0.04440373f, -0.04145829f, -0.02893005f, -0.04946702f, -0.02476922f, 0.07834487f, 0.09448367f, 0.02263910f, -0.07808846f, -0.14652865f, 0.05596796f, 0.05642627f, -0.01809320f, 0.00539622f, 0.07235650f, 0.03330639f, -0.05697164f, -0.15165257f, -0.11174491f, -0.20173761f, 0.24113955f, 0.14319779f, -0.00501017f, 0.02411438f, -0.09120171f, 0.17415722f, 0.15249130f, 0.10211378f, 0.05915132f, -0.07205122f, 0.00200869f, 0.00308661f, 0.00962047f, 0.01823609f, -0.00069221f, 0.13635683f, 0.01847514f, -0.01577692f, 0.00696806f, -0.06657256f, 0.09011601f, 0.03572524f, -0.00270662f, 0.08703282f, 0.05048835f, 0.21714483f, 0.09491032f, 0.01757833f, 0.07087692f, -0.00415454f, -0.00275971f, -0.17561854f, -0.24856098f, -0.12774959f, -0.19107270f, -0.10888023f, 0.00273093f, 0.02456434f, 0.01504604f, 0.13257623f, 0.07731921f, 0.03066231f, -0.08392435f, -0.09888499f, -0.29966003f, 0.06620956f, 0.06808536f, -0.00026571f, 0.00188056f, 0.00237724f, -0.21280433f, -0.09194689f, -0.06133698f, 0.11095215f, -0.04696639f, 0.05352914f, 0.08917837f, 0.02888337f, 0.07689247f, 0.05181715f, -0.00410150f, 0.01371844f, 0.04957524f, -0.06167387f, -0.03487123f, 0.13474680f, 0.03718810f, -0.01189700f, 0.02153886f, -0.13356596f, -0.11536810f, -0.05201122f, -0.15495865f, -0.06410298f, -0.05137872f, 0.01883513f, 0.02121220f, 0.14300461f, 0.01624703f, 0.13918573f, 0.13187790f, 0.06291495f, 0.02421707f, 0.00882023f, 0.03170099f, 0.07645976f, 0.01202728f, -0.05262722f, 0.03416359f, -0.04074383f, 0.02435044f, -0.02756538f, 0.01479826f, -0.04739831f, -0.00521682f, 0.10879359f, -0.00875434f, 0.01344209f, 0.04058146f, 0.03084685f, 0.03942090f, -0.00395003f, 0.03339653f, -0.00933761f, 0.07664394f, 0.06852145f, 0.09323583f, 0.01556350f, 0.08933376f, 0.05346858f, 0.12536909f, 0.05904926f, -0.04681102f, -0.01167920f, -0.09552877f, 0.10387856f, -0.00898208f, 0.00794286f, 0.04738877f, 0.05283029f, -0.05059533f, -0.04629476f, 0.03721313f, -0.04632754f, 0.01572793f, -0.01157361f, 0.02335910f, -0.01518861f, -0.05302460f, 0.01036417f, -0.09459256f, -0.17854796f, -0.12427053f, -0.16388954f, -0.12540089f, -0.03824938f, 0.01025515f, -0.01612411f, -0.29146343f, -0.26726314f, 0.14062445f, 0.12710731f, 0.09158207f, 0.04750516f, 0.03094436f, 0.24332117f, 0.11371387f, -0.03246035f, -0.06084863f, -0.14769122f, 0.25353628f, 0.13573644f, 0.01552489f, -0.05058165f, -0.03616517f, 0.08349530f, 0.08578485f, -0.02757668f, 0.04313550f, 0.01798057f, -0.12236305f, -0.08081751f, 0.00166683f, 0.12756582f, 0.16532299f, -0.15566231f, -0.17249085f, -0.04112474f, -0.06220524f, -0.01682560f, 0.11821228f, 0.09800483f, 0.07227250f, 0.05321733f, 0.08687980f, -0.00252381f, 0.01110728f, -0.03875015f, -0.02815931f, 0.03929199f, -0.08921447f, 0.04680447f, -0.04284923f, -0.03971651f, -0.02025854f, 0.02089065f, 0.00650566f, -0.06996427f, 0.04814944f, 0.06355166f, 0.04391493f, -0.06525354f, 0.00267869f, 0.11131904f, -0.05498062f, -0.14339069f, -0.05424752f, 0.01641208f, 0.10159155f, 0.10011078f, 0.05619668f, -0.02149469f, 0.01791113f, 0.16030720f, 0.27684629f, 0.09286022f, -0.04219578f, -0.23787047f, -0.24651848f, -0.17670220f, 0.01213395f, 0.10644642f, 0.01997249f, 0.12024259f, -0.11015227f, 0.00473921f, 0.00966103f, 0.04559205f, 0.07033689f, -0.02851416f, -0.11278517f, -0.05424910f, -0.07851636f, -0.04873220f, -0.12944743f, -0.07320046f, -0.01489916f, -0.01159542f, -0.01379767f, -0.01104844f, 0.07580674f, 0.10673553f, -0.01590179f, -0.05575900f, -0.08139646f, -0.47931442f, -0.44481808f, -0.43438888f, -0.40970510f, -0.48280823f, -0.04102571f, 0.08963487f, 0.03746381f, 0.07233695f, 0.08569522f, -0.18826132f, -0.03126991f, -0.02170411f, 0.04631903f, 0.15947680f, -0.00400324f, 0.05182860f, 0.00480809f, 0.06506347f, 0.15316485f, 0.02784426f, -0.05265937f, -0.08604921f, -0.05180504f, -0.06735864f, 0.09050725f, 0.07024174f, 0.03922333f, 0.05896271f, -0.05336565f, -0.11381941f, -0.06450586f, 0.05644852f, 0.01200550f, 0.11010747f, -0.30888352f, -0.09598722f, 0.05357256f, -0.02496403f, -0.48269552f, -0.02927230f, -0.09089418f, -0.00713815f, 0.15622982f, 0.10727059f, -0.09684855f, -0.07025164f, -0.03548458f, 0.01898528f, -0.08318115f, 0.00983061f, -0.04372057f, -0.07769720f, -0.01837601f, 0.00972325f, -0.06474682f, -0.13505895f, -0.18798366f, -0.03055768f, 0.09599584f, 0.01655077f, 0.02383199f, -0.02563356f, -0.00073171f, -0.03123237f, -0.02723366f, 0.08697461f, -0.01672245f, 0.07744326f, 0.03241742f, -0.02633264f, 0.03089070f, -0.06778202f, -0.02729792f, -0.04542829f, -0.00175340f, 0.02258265f, 0.06066080f, 0.21282156f, 0.12857594f, 0.00462351f, 0.02834129f, 0.02378319f, 0.02892772f, 0.09072059f, 0.10102033f, 0.07366296f, 0.05600895f, 0.13471462f, 0.10592975f, 0.12894382f, 0.05829518f, 0.04216025f, 0.10391157f, 0.14559427f, 0.07859546f, 0.06826443f, -0.01029395f, 0.04835225f, -0.04066845f, 0.16410784f, 0.12816237f, 0.08649587f, 0.08943083f, 0.17024547f, 0.07173397f, 0.04950088f, 0.03419578f, 0.00426400f, 0.08347953f, 0.07966058f, 0.05460373f, 0.01885271f, -0.03108495f, 0.01034342f, 0.04126426f, 0.02171324f, 0.02493546f, 0.09330792f, 0.02242958f, 0.05013603f, 0.02455255f, 0.13161084f, 0.03023414f, 0.00624681f, -0.03111627f, -0.03835143f, -0.05970548f, 0.13110739f, 0.02858988f, 0.03544287f, -0.00836974f, -0.01961085f, 0.01351385f, -0.07743700f, -0.00008371f, -0.07396253f, -0.03693190f, 0.13046861f, 0.03861572f, -0.00382711f, -0.42430311f, -0.09277226f, -0.22354892f, -0.22792077f, 0.10551057f, 0.08393443f, 0.05761634f, 0.02187446f, 0.03887969f, -0.19420461f, 0.01855192f, 0.04414784f, 0.01112433f, -0.13797505f, -0.06441444f, -0.09922029f, 0.01786843f, -0.02993866f, 0.01908343f, -0.00713781f, -0.01178517f, -0.06330232f, -0.05068031f, -0.05016471f, -0.35001415f, -0.48426926f, -0.34133789f, -0.27084136f, -0.25522870f, 0.03491898f, -0.03686220f, -0.07503187f, -0.16776189f, -0.24879156f, -0.02772324f, -0.06381920f, 0.04578761f, -0.01475483f, 0.10062037f, -0.14680782f, -0.15261236f, -0.06322128f, -0.01848389f, -0.01446260f, -0.01672336f, 0.01370256f, -0.00644956f, -0.07515448f, -0.16519231f, -0.09149011f, 0.04497022f, 0.01570538f, -0.02047251f, 0.04906235f, -0.07713138f, -0.19290449f, -0.25160584f, -0.14740187f, -0.06758440f, 0.13013746f, 0.12996010f, 0.05495311f, 0.06075711f, -0.08397097f, -0.00298107f, 0.08283429f, 0.06621070f, 0.04829727f, 0.04107359f, -0.17626853f, -0.18287188f, -0.27612898f, -0.44407639f, -0.29225293f, -0.10540920f, -0.00319162f, 0.06543045f, 0.01887534f, 0.05457151f, -0.02217134f, -0.07878699f, -0.02698605f, -0.05830119f, 0.02859679f, 0.07164453f, 0.06959408f, 0.16480984f, 0.12622719f, 0.21739709f, 0.17018010f, 0.10407162f, 0.04857484f, 0.09799782f, 0.12485968f, 0.05295032f, -0.01888499f, 0.01438104f, -0.07280205f, -0.12982792f, -0.05832212f, -0.06058048f, 0.00812497f, 0.01727644f, -0.00799552f, 0.11075225f, 0.03918554f, 0.06880602f, 0.03247264f, -0.20103070f, 0.14064968f, 0.11909743f, 0.06790657f, -0.06711743f, -0.07940823f, -0.09493295f, -0.01995491f, -0.05436900f, -0.06539906f, -0.05779345f, 0.08433599f, -0.01603162f, -0.00190518f, 0.04187293f, 0.10805724f, -0.04365755f, -0.07351916f, -0.07311337f, -0.00311114f, 0.04613263f, 0.07892108f, -0.02475728f, -0.08187500f, -0.03306681f, -0.05817033f, -0.10348108f, -0.10048144f, -0.00899192f, -0.03738494f, 0.00617505f, -0.32913873f, -0.10378269f, -0.09166757f, -0.07284129f, -0.01556746f, 0.06621850f, -0.00433793f, -0.02496036f, -0.00526588f, -0.09467945f, -0.27425399f, -0.19525546f, -0.01415149f, -0.03711649f, -0.16900593f, -0.01713179f, -0.03444099f, -0.24562164f, -0.12473635f, -0.02434262f, -0.38192242f, -0.30789351f, -0.21383154f, -0.01160909f, -0.07889272f, 0.01107295f, 0.04108378f, -0.03481270f, -0.09226412f, -0.15394640f, -0.03302163f, -0.05527980f, -0.04568129f, -0.26345268f, -0.33313313f, -0.11358415f, -0.03018572f, -0.01687728f, -0.10992659f, -0.06361897f, -0.07933773f, -0.11805020f, -0.07330012f, -0.01597900f, 0.03065582f, 0.10439163f, -0.03876889f, -0.01369730f, -0.01055354f, -0.04770109f, -0.28907311f, -0.19166398f, -0.04333838f, -0.04305389f, -0.01633664f, 0.11861053f, 0.04620185f, 0.00504915f, -0.09707405f, -0.04143828f, -0.10461452f, -0.08090797f, 0.02927463f, 0.02044916f, 0.05288129f, -0.00026092f, -0.08408892f, -0.01197334f, -0.02831208f, -0.02119086f, 0.05095271f, -0.06944194f, -0.12579939f, -0.07798705f, -0.10018115f, 0.15337586f, 0.08999527f, 0.10250233f, 0.09536519f, 0.03388145f, 0.01120707f, -0.01756849f, -0.08598036f, -0.06622944f, -0.12193156f, 0.15802594f, -0.06566382f, -0.06257020f, -0.02340642f, 0.00381555f, -0.00643514f, 0.04897699f, -0.05508278f, 0.01751691f, 0.10896449f, 0.13118680f, 0.04503859f, -0.08470422f, 0.05495994f, 0.06937871f, 0.07077046f, 0.06588243f, 0.07303988f, -0.06610324f, 0.03552256f, -0.30140153f, -0.21230848f, -0.10377806f, -0.08270119f, 0.02836103f, 0.13405536f, 0.12265629f, 0.13362652f, 0.05738423f, -0.11721941f, 0.20036662f, 0.18042992f, 0.14626101f, 0.01016694f, -0.09923897f, -0.22855738f, -0.19105488f, -0.13566889f, 0.04209105f, 0.17222853f, 0.02322216f, 0.04840425f, -0.04708937f, -0.08701217f, -0.08039061f, -0.40223071f, -0.21158513f, -0.12274902f, -0.04540816f, -0.11070307f, -0.04431665f, 0.06008182f, 0.02117847f, 0.01829164f, 0.03308915f, 0.00337858f, -0.00321793f, -0.06516417f, -0.00457885f, -0.07984771f, -0.04758177f, -0.07994996f, -0.00850888f, -0.07221797f, -0.19950536f, -0.07017235f, -0.06765880f, -0.04000882f, -0.05421731f, 0.02909882f, 0.12204021f, -0.08590558f, -0.13840432f, -0.02954028f, 0.08010925f, -0.08018118f, -0.01363264f, 0.11476333f, 0.07298733f, 0.11514115f, 0.11880181f, 0.02447295f, 0.06904218f, 0.01160520f, -0.30584666f, 0.01251138f, -0.00432832f, -0.07199548f, -0.03665145f, 0.00411055f, -0.16880259f, -0.10719184f, -0.02170788f, 0.08735388f, 0.10871245f, -0.20134933f, -0.11488032f, -0.23871034f, 0.07113806f, 0.08450692f, -0.01924158f, -0.03327515f, -0.07130740f, -0.04341286f, -0.00870344f, -0.24675085f, -0.04555574f, 0.06555767f, 0.02402355f, 0.06143298f, 0.00394570f, 0.06192073f, 0.05565277f, -0.00517715f, -0.01615857f, 0.01798962f, -0.02084821f, 0.04377700f, 0.00564735f, 0.03406696f, -0.36706302f, -0.24318145f, -0.08307356f, -0.03006541f, -0.06490908f, -0.18464261f, 0.02349528f, 0.07412693f, 0.05753415f, 0.03774263f, 0.14121269f, 0.09874319f, 0.00576047f, -0.12995665f, -0.18498522f, -0.08131015f, 0.01293317f, 0.02270214f, 0.02091418f, -0.00966846f, 0.01328909f, 0.06478018f, 0.00662162f, -0.03476287f, -0.04400701f, -0.07762612f, -0.02776158f, 0.05427677f, 0.10345870f, 0.05516528f, -0.03067545f, -0.01122634f, -0.06096790f, 0.00177474f, 0.15203081f, 0.06141415f, -0.00058714f, 0.04379884f, -0.05972994f, -0.11606048f, -0.35265851f, -0.19211759f, 0.06270797f, 0.08123601f, 0.21047845f, 0.04509175f, 0.02261562f, -0.03335111f, -0.05591916f, -0.12890442f, -0.25467202f, -0.03172616f, 0.06845843f, 0.08768763f, -0.05332310f, 0.04440707f, 0.00271587f, -0.09642566f, -0.14828157f, -0.06386506f, -0.04501585f, 0.01002919f, -0.00781263f, 0.05264081f, -0.04789224f, -0.14025642f, -0.05451315f, -0.07623037f, 0.04906421f, 0.11900602f, 0.07008331f, 0.01152221f, 0.03406634f, -0.05086656f, -0.24146801f, -0.11584545f, -0.11488786f, -0.00324232f, -0.05742366f, -0.23473844f, -0.04925641f, -0.03671760f, 0.01341306f, 0.03232491f, -0.01532026f, -0.02823555f, -0.01362323f, 0.01794834f, -0.02917323f, -0.08545588f, 0.01104134f, -0.00641659f, -0.01207302f, 0.00526763f, 0.00476164f, -0.06352806f, -0.06378153f, -0.03212469f, -0.05242172f, -0.11682135f, -0.00066464f, 0.05669716f, 0.03827411f, -0.04082123f, -0.03413849f, -0.00713488f, -0.02131354f, 0.03942326f, 0.03370193f, -0.04861725f, -0.15802042f, -0.11253111f, 0.07385422f, 0.08108197f, 0.03352607f, 0.04011675f, -0.02076481f, 0.08081218f, -0.00368105f, 0.02637412f, -0.06808621f, -0.01064511f, 0.03471123f, 0.01949437f, -0.03306848f, -0.07736091f, -0.07129171f, -0.01227927f, 0.03652370f, -0.03262064f, -0.23665458f, -0.05183899f, 0.16553842f, 0.10965889f, -0.00999242f, -0.08851609f, -0.07517349f, -0.07839779f, -0.03907783f, 0.03643619f, -0.07432070f, -0.11391266f, -0.15460366f, -0.22256912f, -0.37130487f, -0.28133446f, -0.11880253f, 0.04241674f, 0.05384893f, 0.12218925f, -0.14470612f, -0.01181581f, 0.10898275f, 0.04980185f, 0.09841866f, -0.00994411f, -0.10163361f, -0.15169150f, -0.27625087f, -0.32606369f, -0.32154751f, -0.09878056f, -0.18554255f, -0.23427372f, 0.04262105f, -0.08048667f, -0.05531231f, 0.02385204f, 0.09922657f, 0.20968112f, -0.02530992f, 0.03624909f, 0.03027675f, 0.15762854f, 0.24787223f, 0.03234630f, 0.09772328f, 0.08844688f, 0.10405324f, 0.23792097f, -0.05721762f, -0.00184181f, -0.02130808f, -0.08245477f, 0.02370814f, 0.08197709f, -0.02770490f, 0.13549414f, 0.13407697f, 0.31921449f, -0.12758262f, 0.02320731f, -0.04292491f, -0.04454613f, -0.14815286f, 0.21811467f, 0.12594567f, 0.08824601f, 0.04998777f, 0.07956325f, -0.11295097f, -0.08037762f, 0.04762150f, 0.01226351f, 0.07722475f, 0.13993149f, 0.01391122f, -0.03942071f, -0.12882359f, -0.07899497f, -0.09365389f, -0.02721607f, -0.08552358f, -0.04113888f, 0.12164840f, 0.20612532f, 0.01713801f, 0.02384220f, 0.12209495f, 0.12166401f, 0.00299664f, 0.05301638f, 0.11310402f, 0.12314323f, 0.04462949f, 0.11175977f, 0.10347191f, 0.00672919f, 0.17694195f, -0.11307851f, 0.00717005f, 0.02657863f, 0.04174904f, 0.03353352f, 0.16956377f, -0.14010423f, -0.11063863f, -0.16700678f, 0.03310062f, -0.18159105f, 0.29991269f, 0.15312192f, 0.08734216f, 0.01406754f, -0.00054278f, 0.02531869f, -0.01513407f, 0.07115720f, 0.03490645f, 0.07788039f, 0.05263548f, 0.00619344f, 0.11027980f, -0.03220909f, 0.05937286f, 0.05680174f, -0.01526804f, 0.00136223f, 0.16317682f, 0.18995306f, 0.03052018f, 0.09807388f, 0.07567443f, 0.13043773f, 0.12960014f, 0.03146065f, 0.00196019f, 0.02959112f, 0.07331310f, 0.12918422f, -0.02646929f, 0.01812894f, 0.02052826f, -0.03693585f, -0.13868755f, 0.02155295f, 0.01659475f, 0.00618148f, 0.07580669f, 0.06140771f, 0.14071925f, 0.01392246f, -0.00852247f, 0.08384885f, 0.07880680f, 0.11643144f, 0.00760201f, 0.02542066f, 0.12070689f, 0.16666861f, 0.14183281f, 0.02591626f, 0.01754040f, 0.06943548f, 0.17618728f, 0.18363658f, -0.01327396f, 0.07277607f, 0.07102232f, 0.16164044f, 0.10983472f, 0.00965617f, 0.04337257f, 0.01032369f, 0.12534854f, 0.10179907f, 0.09670749f, 0.09963243f, 0.10639434f, 0.13926327f, -0.15516336f, -0.07103064f, -0.06556695f, -0.00694522f, 0.13726994f, 0.03957905f, 0.07570628f, 0.07969823f, 0.12589985f, 0.24299340f, 0.05165906f, 0.08249842f, -0.03611470f, -0.05077816f, 0.03793912f, 0.17981257f, 0.04893823f, 0.13434714f, 0.05862672f, 0.06162496f, 0.01735469f, 0.03296208f, -0.03221084f, 0.10455225f, 0.05201812f, -0.00254929f, 0.00042488f, 0.06672951f, 0.12575230f, 0.02726012f, 0.01584413f, 0.01133423f, 0.11034658f, 0.11333184f, 0.14809714f, 0.01619066f, 0.05925157f, 0.04684740f, 0.10934068f, 0.11851991f, 0.05039983f, 0.07686476f, 0.02608641f, -0.13198283f, -0.01091704f, 0.01624347f, 0.03915719f, 0.01783416f, 0.05806386f, -0.01573254f, 0.03219657f, -0.01904229f, 0.03183415f, -0.03556814f, 0.06580175f, -0.03782280f, -0.02515839f, -0.02593075f, 0.05520184f, 0.20273413f, 0.23358284f, -0.01323880f, -0.09656429f, -0.15879914f, -0.11135139f, -0.06000083f, -0.09879255f, -0.04099936f, -0.11806235f, -0.11175968f, 0.04672491f, -0.00959621f, 0.07847781f, 0.05297599f, 0.07989997f, 0.07425737f, -0.03959336f, -0.05907352f, -0.11182632f, -0.06244909f, 0.09159215f, 0.06426873f, -0.02481692f, 0.06159881f, 0.03294672f, -0.04878566f, 0.07123423f, -0.00464775f, -0.00181249f, 0.07010083f, 0.34662837f, 0.13114944f, -0.06062225f, 0.01489628f, 0.00836999f, -0.41154325f, -0.34473112f, -0.20245628f, -0.08195587f, -0.08560525f, 0.06397587f, 0.03264476f, 0.02416708f, 0.07581869f, -0.01395007f, -0.06557343f, 0.00207466f, 0.02161721f, -0.09090710f, -0.12606820f, -0.14942297f, -0.11851654f, -0.07080732f, -0.14020814f, -0.24718858f, -0.01628197f, 0.09527767f, 0.09083200f, 0.00498704f, -0.14259478f, -0.14775743f, -0.06996781f, -0.08051153f, -0.14467369f, 0.17525172f, 0.04963597f, 0.04606259f, -0.00148763f, 0.00096724f, 0.07526684f, 0.00327625f, 0.06405254f, -0.01179780f, -0.06808887f, -0.21542434f, -0.29992059f, -0.30351809f, -0.18851796f, -0.10416254f, -0.06657331f, 0.04012424f, 0.05734491f, -0.03944690f, 0.03870832f, 0.09063846f, -0.12577449f, 0.02535970f, -0.01235817f, 0.02463454f, 0.08673880f, -0.05891425f, -0.02886061f, -0.01762267f, 0.05295665f, 0.03438217f, -0.02942687f, 0.02436954f, -0.05978668f, -0.05776187f, 0.00375164f, 0.02705625f, 0.03594755f, -0.04862986f, 0.03782008f, -0.01837420f, -0.05830164f, -0.09792471f, -0.18311399f, -0.04797371f, 0.01254434f, 0.08004338f, -0.01186492f, -0.09070987f, -0.10818788f, -0.15382405f, 0.04508428f, -0.01671114f, -0.19855592f, -0.12498486f, -0.02097486f, -0.16461574f, 0.00143037f, 0.02430507f, 0.05356763f, -0.03179155f, 0.06354834f, 0.01583984f, 0.03617528f, 0.04312219f, -0.05945504f, -0.00056822f, 0.00153251f, -0.04516966f, -0.05441338f, -0.02618404f, -0.20087667f, -0.21780927f, -0.07274583f, -0.09314401f, 0.02529738f, 0.09553538f, -0.01941682f, -0.08905908f, 0.13291003f, 0.16076560f, -0.05518493f, 0.01435601f, 0.01773523f, 0.04619879f, -0.06711742f, 0.09976237f, 0.08023843f, 0.02235043f, -0.09876443f, 0.02265783f, -0.13405374f, -0.05945570f, 0.00467611f, 0.09131879f, 0.10291275f, -0.12856476f, 0.09035414f, 0.21169016f, 0.13838483f, 0.03746678f, -0.25560144f, -0.09439810f, -0.01318790f, 0.03037495f, 0.16062827f, 0.14226997f, 0.05654361f, -0.02744589f, 0.00377117f, -0.05615341f, -0.00489382f, 0.00811202f, 0.03910769f, -0.03716439f, -0.00298547f, -0.16569883f, 0.05121269f, 0.01669942f, 0.03248905f, 0.01474002f, -0.11646975f, -0.03458956f, -0.03139156f, -0.14069177f, -0.08713605f, 0.03758373f, 0.02868884f, 0.06204304f, 0.03838113f, -0.02960247f, -0.26464814f, -0.15170582f, -0.12238403f, 0.00151614f, -0.03113746f, -0.02987702f, 0.02317983f, -0.01742661f, -0.00423496f, 0.01915507f, -0.04321027f, -0.03096289f, -0.06834621f, -0.08507417f, 0.00983277f, 0.08744582f, 0.02433987f, 0.11344450f, 0.05924515f, 0.01636591f, -0.00356035f, -0.01986171f, 0.04397612f, -0.05014260f, -0.04566027f, 0.12346673f, 0.01383410f, -0.02366659f, -0.01461055f, -0.10767745f, 0.06182617f, 0.00199974f, 0.02870928f, -0.00534817f, -0.06525353f, -0.20731869f, -0.21249269f, -0.01210628f, -0.07026790f, -0.03901578f, 0.08920069f, 0.06039899f, 0.08818164f, 0.09419584f, 0.05776899f, -0.19898017f, 0.01291133f, 0.00366951f, -0.04593230f, -0.07805394f, -0.07876706f, -0.10849196f, -0.04775861f, -0.02756222f, -0.04022253f, -0.06286594f, -0.08225899f, -0.02763031f, -0.07767342f, -0.22776245f, 0.12274373f, 0.02643099f, -0.03807746f, 0.00680487f, -0.07223246f, 0.10016175f, 0.10769615f, 0.08809114f, -0.03011012f, -0.12547821f, -0.15440412f, -0.18201083f, -0.32740602f, -0.47641924f, -0.47516716f, -0.78304011f, -0.29635718f, 0.08676723f, 0.13764204f, 0.08727152f, -0.13222264f, -0.01472364f, 0.05162998f, 0.11012357f, 0.08210726f, 0.14601344f, 0.09727416f, 0.21282114f, 0.16506043f, 0.08560608f, 0.12131785f, 0.04666837f, 0.08515116f, 0.04577274f, 0.02937712f, 0.10621653f, 0.04099369f, -0.03921088f, 0.00977885f, 0.06054958f, 0.13691804f, 0.13888921f, 0.19933653f, 0.20555224f, 0.11017574f, -0.00466988f, 0.03421998f, 0.03008462f, -0.01819256f, -0.10477232f, 0.15531190f, 0.18890767f, 0.13056879f, 0.20700316f, 0.12031991f, -0.10017970f, 0.05122380f, 0.07293738f, 0.12332111f, 0.09439233f, -0.01675892f, -0.13117270f, 0.04353734f, 0.03981575f, -0.10888187f, 0.01667278f, 0.10623124f, -0.01149845f, 0.05811428f, -0.01804491f, -0.03722614f, -0.00351683f, 0.03312753f, 0.04219527f, 0.11819758f, 0.10779019f, 0.16440199f, 0.19660930f, 0.24623609f, 0.20540115f, 0.12586519f, 0.03819789f, 0.09303298f, 0.18705647f, 0.04558740f, 0.03614604f, 0.07334014f, 0.03723820f, 0.13760479f, 0.12360183f, -0.04215585f, -0.04626860f, -0.09174041f, 0.00022308f, -0.07358541f, 0.35735434f, 0.32812378f, 0.28469497f, 0.12503935f, 0.12402160f, 0.03951534f, 0.06587194f, 0.01734372f, 0.09687916f, 0.06084356f, 0.18646634f, 0.20764507f, 0.17640324f, 0.09646535f, 0.12492317f, 0.05265385f, -0.10769130f, -0.01475524f, -0.00162885f, 0.05620044f, 0.03979017f, 0.08351108f, 0.11503202f, 0.06393692f, 0.06904123f, -0.01276099f, 0.03497327f, 0.04351161f, 0.19841021f, 0.22074656f, 0.09802147f, 0.02880799f, -0.11867774f, -0.03464945f, -0.08408517f, 0.03425680f, 0.00231734f, 0.10660920f, 0.09240612f, 0.10659499f, 0.06312522f, -0.00012456f, 0.06177532f, 0.07793865f, 0.07295091f, 0.13309838f, 0.08010396f, 0.09793767f, 0.02938143f, 0.06464942f, -0.03152917f, 0.03187967f, -0.02157224f, 0.02194679f, -0.03647050f, 0.00970054f, -0.00476447f, 0.12076943f, 0.01330861f, 0.05875817f, 0.01408445f, 0.07169693f, -0.00412128f, 0.07027756f, 0.08739605f, -0.00552669f, -0.02551495f, 0.01626241f, 0.03694285f, 0.04112218f, 0.01212129f, 0.00431593f, -0.01591807f, 0.07841725f, 0.16129430f, 0.04440977f, 0.00341036f, 0.07840680f, 0.07558104f, 0.06330162f, 0.03580013f, 0.05101890f, 