// Auto-generated - DO NOT EDIT
// OnsetNet weights for Daisy Seed bare metal inference
// sr=48000 vocab_size=49 window_samples=480

#pragma once
#include <stdint.h>

#define ONSET_SR           48000
#define ONSET_VOCAB_SIZE   49
#define ONSET_WINDOW       480
#define ONSET_WIDTH        96

static const char* onset_pitch_names[] = {
    "E2",
    "F2",
    "F#2",
    "G2",
    "G#2",
    "A3",
    "A#3",
    "B3",
    "C3",
    "C#3",
    "D3",
    "D#3",
    "E3",
    "F3",
    "F#3",
    "G3",
    "G#3",
    "A4",
    "A#4",
    "B4",
    "C4",
    "C#4",
    "D4",
    "D#4",
    "E4",
    "F4",
    "F#4",
    "G4",
    "G#4",
    "A5",
    "A#5",
    "B5",
    "C5",
    "C#5",
    "D5",
    "D#5",
    "E5",
    "F5",
    "F#5",
    "G5",
    "G#5",
    "A6",
    "A#6",
    "B6",
    "C6",
    "C#6",
    "D6",
    "D#6",
    "E6",
};

// shape: [48, 1, 9]
static const float l0_conv_weight[432] = {
    0.29127857f, 0.18405621f, -0.25841498f, 0.12108584f, -0.24663518f, -0.07084326f, -0.29183322f, 0.13301876f, 0.25995401f, -0.38531938f, 0.16442117f, -0.04056419f, 0.15739074f, -0.02614840f, 0.09116304f, -0.11830783f, 0.22225487f, 0.24283661f, -0.16595981f, 0.10086831f, -0.11419702f, 0.05408534f, -0.03874341f, 0.33749598f, -0.15291670f, -0.13718934f, -0.24768771f, -0.22189373f, 0.02330166f, -0.32617471f, 0.30679646f, -0.27197361f, 0.27541074f, 0.08285527f, -0.06360995f, 0.27825898f, 0.09049190f, 0.22944826f, -0.04492106f, -0.22562145f, -0.07582177f, -0.27317354f, -0.02703872f, 0.24237241f, 0.27787438f, -0.19137090f, 0.20593366f, 0.09690373f, 0.24167696f, -0.14375649f, -0.22618878f, -0.12186538f, -0.22315459f, 0.36059240f, 0.18653587f, 0.16356708f, 0.08722897f, -0.03055389f, 0.22499593f, -0.26896736f, -0.01406733f, -0.27394488f, 0.07973112f, -0.13312230f, 0.08187671f, -0.08821721f, 0.25046760f, -0.21341713f, -0.21278609f, -0.18964966f, 0.33683705f, 0.17607419f, 0.47036415f, -0.19110768f, -0.28840020f, -0.24053968f, -0.20628799f, 0.14983472f, 0.13913438f, 0.29633841f, -0.14357497f, -0.27087462f, 0.20083214f, -0.10115512f, 0.25485376f, -0.03299423f, 0.23549774f, -0.21519341f, -0.16265978f, 0.07045256f, 0.12561516f, -0.03989302f, 0.21317370f, 0.23268895f, -0.24381903f, -0.19444084f, 0.27277613f, -0.16674426f, -0.19328800f, -0.38561612f, -0.13522980f, 0.19813019f, 0.19282992f, 0.10226012f, 0.27324146f, -0.02996783f, -0.22407964f, -0.19173731f, -0.34454060f, -0.17631301f, 0.42631426f, 0.15850244f, 0.19151822f, -0.23193620f, -0.14412577f, -0.05006800f, 0.10001752f, -0.27917960f, -0.03992572f, -0.05765942f, 0.22438636f, 0.09915709f, 0.08261579f, -0.16845992f, -0.23997305f, -0.28015104f, -0.15737128f, -0.27561757f, 0.31699914f, -0.03535923f, 0.31797528f, 0.09123098f, -0.31097001f, 0.18284045f, -0.11105447f, -0.23600812f, -0.19453442f, -0.18159910f, 0.25569600f, 0.04896827f, 0.23929426f, -0.19083673f, 0.31055796f, -0.22577026f, -0.10016054f, 0.03149299f, 0.15124904f, 0.25119159f, 0.29356277f, -0.28486753f, 0.04968933f, -0.21338362f, -0.12506621f, -0.30769575f, 0.26825956f, -0.29022527f, 0.13618873f, 0.06039659f, 0.05834854f, -0.24369413f, 0.27679777f, 0.15794195f, -0.01544580f, -0.29141918f, 0.16822146f, 0.01883184f, -0.06985784f, 0.35349774f, 0.14716592f, -0.15808259f, -0.20654225f, 0.04064545f, 0.25750777f, -0.04074209f, -0.13351101f, -0.12929669f, -0.28910223f, 0.16036332f, 0.23901433f, -0.38148233f, 0.23333044f, 0.19400950f, -0.04210917f, -0.26213256f, -0.06862486f, 0.06519486f, 0.08655544f, 0.00111809f, 0.07397673f, -0.10862450f, -0.11792392f, -0.07166617f, 0.26144913f, 0.31837565f, -0.00011665f, -0.08577766f, -0.06927545f, -0.10073598f, 0.12944321f, 0.13114153f, -0.26912081f, -0.09344736f, 0.31502873f, 0.16152206f, 0.00702144f, -0.19834669f, -0.23711227f, -0.33569685f, -0.09310212f, 0.14262512f, 0.24815774f, 0.16703036f, -0.27616739f, -0.19434859f, -0.04092881f, 0.35341930f, 0.07329770f, -0.04157808f, 0.17826478f, -0.05987449f, -0.16417511f, 0.30413747f, -0.09826937f, -0.03437348f, -0.49022034f, 0.21404129f, 0.21015415f, 0.06835283f, -0.29925960f, -0.38629392f, -0.32768968f, 0.18249518f, 0.12610815f, 0.27940899f, 0.27972466f, 0.16735184f, 0.03065158f, -0.21374585f, -0.27487838f, -0.26852250f, 0.17499085f, -0.07626863f, 0.05333672f, -0.26731920f, 0.00866006f, -0.02566040f, -0.01947748f, 0.27208140f, -0.03401211f, 0.27043241f, -0.10170274f, -0.30713293f, -0.12143332f, -0.18967822f, -0.12537736f, -0.31663227f, 0.18739279f, -0.20946042f, 0.18511973f, 0.18237492f, 0.27188733f, -0.28154406f, 0.23994707f, -0.14951228f, 0.14381377f, 0.33718961f, -0.01696305f, 0.03207239f, -0.05445071f, -0.27897918f, 0.17539892f, -0.34896621f, 0.14462493f, 0.14972642f, 0.20722289f, -0.21281269f, -0.39652830f, 0.03716250f, 0.28913662f, -0.52759576f, -0.09289473f, -0.14727908f, 0.06396246f, -0.08188283f, -0.03953424f, -0.00488127f, -0.22881112f, 0.35527769f, 0.41358101f, 0.04004114f, 0.04925175f, -0.06349551f, -0.22177061f, -0.25240269f, 0.22621340f, -0.11901001f, -0.19052738f, 0.09749976f, -0.02215900f, -0.04892394f, 0.03406157f, -0.04161097f, -0.08226785f, -0.12334189f, -0.24543858f, 0.38776115f, -0.16987753f, 0.04930768f, -0.16510144f, -0.01563397f, 0.24867994f, 0.10127916f, -0.34587747f, 0.12632738f, 0.44221437f, 0.31346208f, 0.41715163f, 0.31330326f, -0.07191488f, -0.00014269f, -0.27936676f, -0.12662716f, 0.19962122f, 0.13535592f, -0.40265730f, -0.27132535f, -0.12699749f, -0.17886756f, -0.11611777f, 0.06401788f, 0.38069722f, 0.20131268f, -0.12634805f, -0.32603076f, 0.22846317f, -0.14763385f, 0.07023809f, 0.25872877f, -0.07829483f, 0.02562940f, -0.00050560f, -0.07994775f, -0.36657581f, -0.33344552f, -0.14623305f, -0.10436843f, 0.36912072f, -0.12532395f, -0.16260102f, 0.14301376f, 0.17620151f, 0.18725555f, 0.14993352f, 0.07704571f, -0.43195647f, -0.07015769f, 0.11992248f, -0.10228453f, -0.22280225f, 0.35161874f, -0.06923216f, -0.12108511f, -0.21592261f, 0.14655086f, 0.29521510f, 0.23160522f, 0.19695482f, -0.18945897f, -0.34756196f, 0.04363318f, 0.28185454f, 0.15153292f, -0.23371294f, -0.08241849f, -0.27266595f, -0.17224744f, 0.07508069f, 0.23213680f, 0.30290961f, -0.38703787f, 0.16386689f, -0.32680753f, 0.08437090f, 0.25116000f, -0.02205547f, 0.28597146f, -0.31142104f, -0.15939163f, 0.18849377f, -0.06465066f, -0.05949407f, -0.12528922f, 0.23388255f, 0.16903576f, 0.07216257f, -0.25550735f, -0.30431327f, 0.06167945f, 0.14081362f, -0.10164686f, -0.04704730f, 0.26308885f, 0.04934315f, 0.01453586f, -0.11446229f, -0.36099574f, -0.30027926f, -0.10614252f, -0.10887999f, 0.15772800f, -0.04639008f, -0.08136675f, 0.35880223f, 0.14770728f, 0.31935045f, -0.06964695f, -0.05141859f, 0.22284620f, -0.14160581f, -0.14528333f, 0.04649407f, -0.12443475f, -0.36511457f, 0.22323327f, 0.23301469f, -0.00313296f, -0.11006381f, -0.35204697f, -0.15015413f, 0.06814096f, 0.16836536f, -0.01897589f
};

// shape: [48]
static const float l0_bn_weight[48] = {
    0.79360747f, 0.74524242f, 0.62465304f, 1.19696152f, 0.87267292f, 0.81560618f, 0.89256638f, 1.26599205f, 1.02232969f, 1.26379311f, 1.29838824f, 0.59974176f, 1.00482512f, 0.50106972f, 0.92370826f, 0.80067009f, 0.97835124f, 0.86822414f, 0.89770645f, 0.54041320f, 0.76616377f, 0.78387183f, 1.03794241f, 1.29182005f, 0.63271838f, 1.40305889f, 0.57645190f, 0.83942831f, 1.17198777f, 1.39870381f, 0.95690572f, 0.58552867f, 1.00219524f, 0.60181737f, 0.85007089f, 0.61705095f, 0.56637663f, 0.97922158f, 0.53960115f, 0.96127725f, 0.92097044f, 1.26964152f, 0.66300100f, 1.56660223f, 1.03595138f, 0.83021182f, 0.74370790f, 1.04956567f
};

// shape: [48]
static const float l0_bn_bias[48] = {
    -0.09880220f, -0.06766568f, -0.24230510f, -0.00084260f, -0.39303449f, -0.21552645f, -0.15693568f, -0.25402629f, 0.03533213f, 0.02307243f, -0.18858758f, -0.09439711f, -0.36297303f, 0.00659770f, 0.00064731f, -0.49886912f, 0.02219567f, -0.21956797f, -0.07611142f, -0.19814827f, -0.46646526f, -0.20159426f, -0.32927603f, -0.04744980f, 0.01994050f, -0.22598834f, -0.12269060f, -0.38704094f, 0.16153063f, -0.17067868f, -0.39771670f, 0.04860093f, -0.04657159f, -0.04482231f, -0.55812097f, -0.07261990f, -0.00836312f, -0.13969298f, -0.26969448f, -0.09671830f, 0.03251753f, 0.01850671f, -0.03240088f, -0.02552538f, -0.04748535f, -0.02383915f, -0.47662988f, 0.00008900f
};

// shape: [48]
static const float l0_bn_running_mean[48] = {
    -0.00023955f, -0.00131927f, 0.00184003f, 0.00013045f, -0.00056389f, 0.00040095f, -0.00123403f, 0.00058682f, 0.00022496f, 0.00014832f, -0.00029229f, 0.00072811f, 0.00031911f, 0.00350357f, -0.00052049f, 0.00101563f, -0.00079526f, -0.00021147f, -0.00011909f, 0.00159412f, -0.00161142f, -0.00050909f, -0.00022503f, 0.00050731f, 0.00131854f, 0.00030322f, 0.00097736f, 0.00084747f, 0.00140398f, -0.00022431f, -0.00024243f, 0.00487738f, 0.00049338f, 0.00055525f, -0.00116234f, -0.00541890f, 0.00388191f, 0.00026652f, 0.00363409f, -0.00015978f, -0.00017253f, 0.00019935f, -0.00071776f, -0.00009389f, 0.00014558f, 0.00259067f, 0.00136796f, -0.00006699f
};

// shape: [48]
static const float l0_bn_running_var[48] = {
    0.01297782f, 0.12155116f, 0.12057278f, 0.03841810f, 0.03322460f, 0.00146611f, 0.04644327f, 0.00918056f, 0.00315108f, 0.00096080f, 0.02024896f, 0.03166044f, 0.00641749f, 0.39467061f, 0.00372572f, 0.03682386f, 0.01839852f, 0.03093685f, 0.00260026f, 0.08598337f, 0.07098434f, 0.00311660f, 0.01610784f, 0.01518821f, 0.12878318f, 0.00626308f, 0.03340606f, 0.03413418f, 0.08154111f, 0.00404639f, 0.00213702f, 0.51821387f, 0.05433920f, 0.00441469f, 0.09722522f, 0.76858443f, 0.37690675f, 0.00303278f, 0.34311140f, 0.00375112f, 0.00559925f, 0.00364608f, 0.00309198f, 0.00072116f, 0.00453937f, 0.19486646f, 0.13801512f, 0.00911008f
};

// shape: [48]
static const float l0_bn_bias[48] = {
    -0.09880220f, -0.06766568f, -0.24230510f, -0.00084260f, -0.39303449f, -0.21552645f, -0.15693568f, -0.25402629f, 0.03533213f, 0.02307243f, -0.18858758f, -0.09439711f, -0.36297303f, 0.00659770f, 0.00064731f, -0.49886912f, 0.02219567f, -0.21956797f, -0.07611142f, -0.19814827f, -0.46646526f, -0.20159426f, -0.32927603f, -0.04744980f, 0.01994050f, -0.22598834f, -0.12269060f, -0.38704094f, 0.16153063f, -0.17067868f, -0.39771670f, 0.04860093f, -0.04657159f, -0.04482231f, -0.55812097f, -0.07261990f, -0.00836312f, -0.13969298f, -0.26969448f, -0.09671830f, 0.03251753f, 0.01850671f, -0.03240088f, -0.02552538f, -0.04748535f, -0.02383915f, -0.47662988f, 0.00008900f
};

// shape: [96, 48, 5]
static const float l1_conv_weight[23040] = {
    -0.04276794f, 0.04960154f, -0.05173321f, 0.02128694f, -0.06769084f, 0.00250303f, -0.02107973f, -0.02532302f, -0.05144197f, 0.03450906f, -0.08934738f, -0.02886367f, -0.01625330f, -0.05217835f, -0.10461504f, 0.08142512f, 0.04790132f, -0.09226003f, -0.06383760f, -0.10516088f, -0.11011032f, -0.01187068f, -0.01290113f, -0.03414165f, -0.06685878f, -0.06388409f, 0.16232003f, 0.12641510f, 0.07354999f, 0.17082851f, -0.02468353f, -0.09325501f, -0.02866066f, -0.04550392f, -0.08312184f, -0.02957455f, 0.07494830f, 0.07036799f, 0.00653003f, -0.00586724f, 0.03124391f, 0.00292070f, 0.00666165f, 0.13827026f, -0.14079325f, -0.09718644f, 0.03412182f, -0.03228507f, 0.20665482f, 0.13588169f, -0.52674389f, -0.48632485f, -0.45067337f, -0.63617462f, -0.35744005f, -0.05895085f, -0.00550529f, -0.06747150f, -0.10492551f, -0.16679583f, -0.05947510f, 0.00324756f, -0.06030768f, -0.06558160f, 0.03881498f, -0.01149880f, -0.13685624f, -0.21041498f, -0.25193149f, -0.27270246f, 0.06082077f, 0.07787763f, 0.02744672f, 0.01897922f, -0.06629959f, -0.03272390f, 0.00563513f, 0.08951956f, 0.13711494f, 0.16208309f, 0.10587569f, 0.00299868f, 0.04755373f, 0.01391322f, 0.12331391f, -0.02701058f, 0.05890319f, -0.02051673f, -0.00951771f, 0.02429763f, -0.12587282f, -0.05565827f, -0.07776131f, -0.09291139f, -0.06593519f, -0.01655544f, 0.00583811f, 0.03124782f, 0.01605796f, -0.06233336f, -0.08723485f, 0.02296839f, 0.02832732f, -0.00864081f, -0.07240730f, 0.02410621f, -0.04529326f, 0.00000597f, -0.01183166f, 0.00507945f, -0.14446326f, -0.06865514f, 0.17087562f, 0.07141544f, 0.16996814f, 0.08502165f, 0.11012278f, 0.02525830f, -0.01633911f, 0.09795809f, -0.19125272f, -0.18944953f, -0.28431532f, -0.17689824f, 0.00255154f, -0.06778851f, 0.01240265f, 0.06548137f, 0.12006614f, 0.16408400f, -0.12497281f, -0.22103992f, -0.20308763f, -0.14514126f, -0.15039055f, -0.14729410f, -0.18284045f, -0.14756882f, -0.19598587f, -0.13232236f, -0.05475054f, -0.00049708f, -0.00940820f, -0.09957431f, -0.10566639f, 0.07316447f, -0.00804643f, 0.08246851f, 0.10076032f, -0.06141357f, 0.03436158f, 0.15278926f, 0.00393887f, -0.01077127f, 0.02393578f, -0.03950967f, -0.03404147f, -0.04054410f, -0.07405823f, -0.07835925f, -0.07838647f, -0.02393621f, -0.09344663f, -0.14752562f, -0.05609090f, -0.12340926f, -0.03558054f, -0.04238031f, -0.20432371f, -0.09247487f, -0.02473062f, -0.00138323f, -0.05356886f, -0.10824531f, -0.11037651f, 0.00156625f, 0.06848726f, 0.06635812f, 0.02160129f, -0.07999352f, -0.05084487f, 0.06616747f, 0.02777800f, -0.00713782f, -0.04457420f, -0.08568338f, -0.05919548f, -0.01650669f, -0.11875908f, -0.08489955f, -0.06057342f, -0.02696858f, 0.02646794f, 0.01488985f, 0.14168994f, -0.02345267f, -0.10522015f, -0.02690229f, -0.09240180f, -0.06241581f, -0.06880016f, -0.15206265f, -0.15370327f, -0.03403461f, -0.03436855f, -0.04977858f, -0.11040205f, -0.01379768f, -0.03649300f, -0.05815082f, 0.07728607f, 0.07601986f, 0.02734911f, 0.01772480f, -0.01390612f, 0.00402159f, -0.11576844f, 0.00247172f, 0.02001595f, -0.11657552f, 0.02714364f, -0.01906111f, -0.01863922f, -0.00970543f, -0.02118561f, -0.06418447f, -0.03984239f, 0.00771278f, -0.07737329f, -0.01512191f, 0.19112597f, 0.27614570f, 0.32058430f, 0.27060860f, 0.34643078f, -0.08904871f, 0.03964255f, -0.01930636f, 0.01790389f, 0.08769044f, 0.16005129f, 0.04383890f, -0.03986818f, 0.06708218f, 0.04386736f, -0.02536051f, -0.05933787f, 0.00509959f, 0.07879910f, 0.06032329f, 0.00517111f, 0.06316055f, 0.03399526f, 0.10643439f, -0.00847916f, -0.25209486f, -0.15707161f, -0.02523281f, 0.13479064f, 0.34560609f, 0.04736205f, 0.05957932f, 0.01569356f, 0.04598795f, 0.09728516f, -0.00745308f, -0.09888291f, 0.14154457f, -0.02437339f, -0.05778613f, -0.01139807f, -0.10983289f, -0.00867690f, -0.04451087f, 0.07090250f, -0.04778043f, -0.06885566f, 0.04033365f, 0.07658021f, 0.12677574f, -0.02076211f, -0.22218013f, -0.03055639f, 0.04884818f, 0.01752325f, -0.02771737f, 0.01096777f, 0.03399811f, -0.11447786f, 0.01281819f, 0.10019643f, 0.10714771f, 0.11463659f, 0.07616152f, 0.07856209f, -0.02430472f, -0.05034254f, -0.00372272f, 0.06645558f, -0.01377309f, 0.00133421f, 0.15396729f, 0.06680516f, 0.08619028f, -0.02884009f, -0.03914895f, 0.03480574f, 0.06841537f, 0.05210043f, 0.03802285f, -0.21411330f, -0.00652794f, -0.00284156f, 0.06674156f, 0.06022425f, 0.13430978f, 0.12245502f, 0.17574745f, 0.14791584f, 0.13276570f, 0.01724753f, -0.06022565f, 0.03920380f, -0.11090736f, -0.06408610f, -0.06878153f, -0.08592277f, 0.07588097f, 0.01519114f, 0.10675357f, -0.00173302f, -0.05730590f, -0.08917802f, 0.01760939f, 0.06121944f, -0.06148988f, -0.03068042f, 0.08781373f, 0.06581732f, 0.06185675f, -0.00570672f, 0.01094140f, 0.03636425f, 0.03151740f, 0.00879599f, -0.15332048f, 0.01081514f, 0.03000706f, 0.02966869f, -0.07688534f, -0.04476575f, -0.02148180f, -0.05248201f, 0.02751150f, 0.17283273f, 0.08824486f, 0.07964456f, 0.02739302f, -0.05720173f, -0.03059994f, 0.02193919f, -0.06645074f, 0.06037974f, -0.03818161f, 0.00721073f, 0.07170087f, -0.04974321f, -0.05458440f, 0.00588953f, 0.12990670f, -0.08620579f, 0.01185704f, 0.00657055f, 0.00628000f, 0.05200093f, 0.10918192f, 0.11704340f, 0.01376208f, 0.04102438f, 0.12156545f, -0.02544139f, -0.14531478f, -0.14063501f, -0.17014548f, -0.08632475f, -0.07599932f, -0.06634250f, 0.00080868f, 0.12284601f, 0.24186726f, -0.02146499f, -0.05184385f, -0.06357472f, 0.01757370f, 0.07358590f, -0.05738080f, 0.01265139f, -0.02489929f, 0.04107793f, -0.00079902f, -0.11551728f, -0.07765216f, -0.04210073f, 0.06915750f, 0.02642874f, -0.05159464f, -0.02354703f, -0.00843956f, 0.03692484f, -0.07931269f, -0.03274420f, -0.04055153f, 0.01042482f, 0.01992216f, 0.09270535f, 0.04673479f, 0.06095748f, 0.08777773f, 0.05095904f, 0.01719997f, -0.07095052f, 0.01192279f, -0.03693464f, 0.03814759f, 0.04827707f, 0.05772644f, 0.06133264f, 0.04847863f, 0.03179692f, 0.00560501f, 0.12127206f, 0.02099623f, 0.00043653f, 0.07602753f, 0.08170529f, 0.10231650f, -0.02280367f, -0.07586949f, -0.00127975f, 0.10328518f, 0.00178228f, -0.04393977f, -0.09628352f, -0.06473316f, 0.06684986f, 0.18783930f, 0.01745971f, -0.11314409f, -0.09319372f, -0.08675802f, 0.11620458f, 0.05503352f, 0.01038346f, 0.00557361f, 0.00198841f, -0.18008552f, -0.15959981f, -0.04652529f, -0.18196717f, -0.26719260f, 0.00151866f, -0.04046475f, -0.10683018f, -0.10403282f, -0.04194466f, -0.19418205f, -0.14523853f, -0.10659245f, 0.02760151f, 0.02311806f, 0.06414852f, 0.00729293f, 0.05071420f, 0.05974146f, -0.02576643f, 0.20369059f, 0.00403162f, -0.15530002f, -0.08564766f, 0.04855247f, -0.05549758f, -0.04720297f, -0.00194360f, -0.03395870f, -0.01710842f, 0.00948070f, -0.01250257f, -0.00173190f, -0.02869504f, -0.00410303f, -0.06390590f, -0.02940591f, 0.03137017f, -0.05033632f, -0.05075863f, -0.02294330f, -0.12034518f, -0.10278017f, -0.07801845f, -0.21275316f, -0.12238920f, -0.04025818f, -0.03232889f, -0.04867877f, -0.06380294f, -0.01678879f, -0.14495964f, -0.09024221f, -0.14994733f, 0.03678243f, -0.01096959f, -0.06241490f, -0.14716281f, -0.08512706f, -0.14667170f, -0.02696052f, -0.07295014f, -0.13579577f, -0.38496023f, -0.49196407f, -0.09629790f, 0.07604204f, -0.02428634f, -0.11575478f, -0.15445356f, -0.04175857f, 0.02643866f, 0.02210954f, -0.08956016f, -0.01307266f, -0.19638981f, -0.11108784f, -0.04881903f, -0.06482531f, -0.10180922f, -0.02012546f, -0.00119423f, -0.02572129f, 0.01816521f, 0.01818766f, 0.07615805f, -0.00105547f, 0.02653114f, 0.00181657f, -0.07495452f, 0.02436394f, 0.03710670f, 0.05683874f, 0.01711257f, -0.03187278f, 0.04718828f, 0.04836280f, -0.08995096f, 0.01395146f, -0.11747321f, -0.01051155f, -0.00586174f, -0.04515984f, -0.03897124f, -0.05315831f, 0.03868953f, -0.04584525f, 0.01521980f, -0.09365933f, -0.11009924f, -0.00463930f, -0.03159366f, -0.10576332f, -0.03964444f, -0.12509896f, 0.01274865f, 0.08898412f, 0.00049728f, -0.00973528f, -0.01491125f, -0.07973162f, -0.07860607f, -0.05935325f, -0.00550322f, -0.08043463f, -0.21844639f, -0.14344855f, -0.08714315f, -0.03382646f, -0.07245013f, -0.07002230f, -0.06288509f, -0.01584826f, -0.03683041f, 0.01140338f, -0.16508806f, -0.10842145f, -0.03889735f, -0.09214254f, 0.02379434f, 0.07433739f, 0.06894855f, -0.09970186f, -0.05555638f, -0.21075378f, -0.05379085f, -0.08029080f, -0.01990243f, 0.02650523f, -0.02882388f, -0.18840510f, 0.03605933f, -0.06931257f, -0.12432815f, 0.08165532f, -0.07228979f, -0.04791224f, -0.07370467f, -0.05400517f, -0.02321127f, 0.03240285f, 0.00757636f, -0.03910323f, 0.05156699f, -0.04735258f, 0.10940894f, -0.00864729f, 0.00277714f, -0.14929402f, -0.18053034f, -0.00098719f, 0.03547009f, -0.08355101f, -0.11915372f, 0.00085761f, 0.05001453f, 0.03313911f, -0.25107390f, 0.01401107f, -0.25477880f, -0.00971938f, -0.01207858f, -0.00535923f, 0.00320787f, 0.01660197f, -0.13632081f, -0.08932938f, -0.12601011f, -0.06186521f, -0.11859299f, -0.02144745f, -0.07902931f, -0.05782515f, -0.04461312f, 0.01736370f, -0.08938423f, -0.11005145f, -0.02666621f, -0.01246930f, -0.03731878f, -0.06330457f, -0.09578405f, -0.09605939f, 0.02189647f, 0.06172254f, -0.08712488f, -0.02788803f, 0.00646398f, -0.04006660f, -0.06350566f, 0.15274607f, 0.01342489f, 0.02881457f, -0.07263535f, -0.03003260f, -0.03692392f, 0.05507490f, -0.04261306f, 0.01704264f, -0.00950659f, -0.08547888f, -0.03452199f, -0.05382658f, -0.00821695f, -0.02820086f, 0.01214235f, 0.09657176f, 0.01586319f, 0.00215707f, -0.05262813f, -0.05005003f, 0.04475798f, 0.01939472f, -0.03255985f, 0.00118216f, -0.08906357f, -0.11466504f, 0.02028184f, -0.09505863f, 0.02566418f, 0.02020306f, 0.07530770f, 0.02352460f, -0.02673392f, 0.14092334f, 0.13056210f, 0.02495450f, 0.04403020f, -0.05606049f, -0.10860439f, 0.11235388f, -0.07531408f, -0.10815564f, -0.07296009f, -0.08029464f, -0.12130901f, -0.15194122f, -0.06244873f, -0.08583935f, -0.12639038f, -0.09591085f, 0.07830761f, 0.03006340f, -0.11325581f, 0.02498373f, 0.08718404f, 0.07015742f, -0.03531970f, 0.05552080f, 0.13510431f, -0.15865071f, -0.14120382f, 0.04069200f, 0.03618968f, 0.10173915f, 0.04390720f, 0.05560603f, -0.03733747f, 0.07929570f, -0.01040092f, -0.20449030f, -0.15037924f, -0.01109331f, 0.00787843f, -0.00825658f, 0.18092395f, 0.09403592f, 0.07145598f, 0.02171264f, 0.09422385f, -0.04033955f, 0.02486143f, -0.00916522f, 0.00722153f, -0.02420318f, -0.01381030f, -0.09164130f, -0.06872062f, -0.13995206f, -0.27883872f, -0.06094015f, -0.02408798f, 0.04417830f, -0.02933764f, 0.09370530f, -0.04418498f, -0.08265135f, -0.07182969f, 0.01364717f, -0.02082960f, 0.11396355f, 0.08691253f, 0.02884840f, -0.09960961f, -0.15163927f, 0.03438797f, 0.04937230f, 0.04067438f, -0.28217056f, -0.22291301f, -0.00035459f, 0.05070707f, 0.04039931f, 0.05129947f, -0.04726684f, -0.00672595f, 0.00659071f, -0.06206542f, -0.00511634f, -0.05250829f, 0.01921603f, 0.04704679f, -0.00189529f, -0.03437304f, 0.03689432f, -0.41502252f, -0.23836268f, 0.02680920f, -0.01828657f, 0.05365701f, 0.02339464f, -0.03703088f, -0.10695257f, -0.02762286f, -0.03354932f, 0.01882697f, -0.11004065f, -0.08847325f, -0.26153317f, -0.29906577f, -0.41059056f, -0.22548349f, -0.05064713f, -0.08643399f, -0.01375663f, 0.04052906f, -0.01801937f, 0.02940038f, -0.02787538f, -0.16812633f, -0.03379850f, -0.02941284f, 0.03111685f, 0.03271210f, -0.00203606f, 0.25509903f, 0.07872421f, -0.10548799f, -0.07285953f, -0.12092210f, -0.15784305f, -0.12657994f, -0.15525351f, -0.01803052f, -0.05028157f, -0.05555258f, -0.04865097f, 0.07833691f, 0.03004256f, -0.09061621f, 0.10656480f, 0.05968923f, -0.00702606f, 0.04513086f, 0.01173184f, -0.01943240f, 0.02895103f, -0.03242543f, 0.05439612f, 0.07004100f, 0.18496229f, 0.17549391f, 0.11995728f, -0.01207408f, 0.01872384f, -0.07606021f, -0.05082931f, -0.03913412f, 0.05953995f, 0.06289730f, -0.05752182f, 0.00991280f, 0.00633251f, 0.05562969f, 0.03679456f, 0.00559594f, -0.05718178f, 0.05027654f, 0.06365559f, -0.06459612f, 0.08904428f, 0.03100557f, 0.00863747f, -0.21318194f, -0.19628033f, -0.01430862f, -0.02511560f, -0.03418043f, 0.08567676f, -0.02255006f, -0.03409095f, 0.00318060f, 0.00366012f, 0.02873832f, 0.04953259f, -0.05871160f, -0.05005600f, 0.09608741f, -0.04379191f, -0.03623763f, -0.05156696f, -0.08547424f, -0.02136207f, -0.05888662f, -0.01119739f, -0.37877917f, -0.20403036f, -0.19181253f, -0.17437118f, -0.03346448f, 0.14869824f, -0.00164074f, 0.04727140f, -0.01701280f, 0.07146334f, 0.06228828f, 0.03889672f, -0.05588169f, 0.03466607f, 0.01727210f, -0.02242777f, 0.04717326f, -0.09035826f, -0.08085386f, -0.13361298f, -0.00369267f, -0.00500870f, -0.01397441f, -0.03867347f, -0.02534020f, 0.13338985f, 0.08478490f, 0.04602535f, 0.12122664f, 0.04505786f, 0.07051804f, 0.03269114f, 0.05817710f, -0.02652284f, -0.13211270f, 0.07279965f, 0.04434526f, -0.11569317f, -0.30609727f, -0.24258679f, -0.17370057f, -0.09474433f, -0.01321822f, -0.09757284f, -0.04572422f, -0.10255413f, 0.08464045f, 0.20901492f, 0.17289776f, -0.01297063f, -0.04480966f, -0.11814840f, -0.05291456f, -0.01860433f, -0.02249358f, -0.04040767f, 0.02003855f, 0.02473271f, 0.02630758f, -0.10251002f, -0.02887408f, -0.12622584f, 0.01560752f, -0.04359192f, -0.09865161f, -0.00669208f, -0.08199893f, -0.26426548f, -0.41906464f, -0.25897974f, 0.07533501f, -0.03959710f, -0.03300008f, -0.03587195f, -0.05728148f, 0.01552316f, -0.04175039f, -0.01990187f, 0.04367719f, 0.02321367f, -0.05253026f, -0.01319131f, -0.05337704f, -0.04314174f, -0.03916282f, -0.13178125f, -0.08091037f, 0.01681557f, -0.00114440f, -0.01726069f, -0.02208916f, -0.05949331f, -0.04983265f, -0.05512533f, -0.09819338f, -0.01505764f, -0.03610895f, 0.05438918f, 0.10200027f, 0.11079497f, -0.01411613f, -0.08306225f, -0.02958738f, -0.10073633f, -0.07053966f, -0.31455007f, -0.23849082f, -0.06622342f, 0.02110838f, 0.07326756f, -0.09275322f, 0.02503216f, -0.07499591f, -0.03051937f, 0.12890035f, -0.02109331f, -0.05872457f, 0.03415390f, -0.01781973f, -0.06272870f, -0.09594098f, -0.30032599f, -0.24657367f, -0.25223815f, -0.06204640f, 0.01853241f, -0.05766586f, -0.02446240f, -0.01386441f, -0.07062202f, -0.08112577f, -0.03279343f, -0.01634484f, -0.01733312f, -0.00885079f, -0.00386220f, 0.03442166f, -0.04148923f, -0.06090648f, 0.02400335f, -0.18106481f, -0.12916091f, -0.00293659f, 0.02049938f, 0.14752533f, -0.10233573f, -0.02528922f, 0.01051004f, -0.04538984f, -0.02985522f, -0.12859905f, -0.10902450f, -0.09397619f, 0.02236792f, -0.00353965f, -0.09545343f, -0.08948586f, -0.01811228f, 0.02463350f, 0.06451617f, -0.12227836f, -0.09057102f, -0.07481413f, -0.11483888f, -0.06638645f, 0.03094238f, -0.01247801f, 0.05006124f, -0.03377295f, -0.04489188f, -0.10610262f, -0.11588471f, -0.12966433f, -0.14412238f, -0.12658952f, -0.16451506f, -0.11323811f, 0.05747961f, 0.05465346f, 0.01221741f, 0.05018772f, 0.02408883f, 0.07034605f, -0.11142917f, -0.10883463f, -0.26528215f, -0.13373397f, -0.01548433f, -0.00616141f, 0.10559597f, 0.02867589f, 0.04211449f, 0.02093298f, 0.05508525f, 0.05833555f, 0.13225250f, 0.06387034f, -0.12346298f, -0.02603035f, 0.00396825f, 0.06953125f, 0.08398018f, 0.02478844f, -0.00024773f, -0.00631653f, -0.03678095f, -0.04062930f, -0.06861852f, -0.00753410f, -0.03798952f, -0.16021408f, -0.05324222f, 0.00637642f, -0.03807971f, 0.04866065f, -0.17559561f, -0.16994821f, 0.05952404f, 0.05007806f, -0.16335453f, 0.04614112f, -0.05684689f, -0.11779165f, 0.00950859f, -0.05342339f, -0.02780327f, -0.07694153f, -0.05306363f, -0.02117173f, 0.01119455f, 0.03270776f, 0.02744871f, 0.04568037f, -0.02121365f, -0.10624629f, -0.03653180f, -0.05920451f, -0.03745667f, 0.06068135f, 0.07545882f, -0.06872188f, -0.12689525f, -0.07065833f, -0.10471364f, -0.13103062f, 0.00354872f, -0.02006382f, -0.01742792f, 0.01087992f, 0.04552877f, -0.04288090f, -0.05814525f, 0.00260340f, -0.02048909f, -0.02213195f, -0.02134650f, -0.00880912f, 0.00505376f, -0.01601727f, -0.02644245f, -0.12361122f, -0.03424969f, -0.03572422f, 0.00416552f, -0.02417368f, 0.04012057f, -0.01086277f, -0.10431768f, -0.12897098f, -0.11161375f, -0.06734433f, -0.08792426f, -0.00133387f, -0.10080168f, -0.03155145f, 0.08654585f, -0.12195177f, -0.15058607f, 0.00101064f, 0.10088832f, -0.07919797f, 0.01939026f, 0.02449684f, 0.02952908f, 0.04405976f, -0.32885435f, -0.15718280f, -0.09739897f, -0.11734428f, 0.17454821f, -0.25865522f, -0.11848740f, 0.01597806f, -0.02118666f, 0.01428076f, -0.03816062f, 0.05909593f, -0.00396593f, -0.05235220f, -0.00259494f, 0.02717665f, 0.02332789f, 0.05624175f, -0.04780398f, -0.03323714f, 0.00696217f, 0.00682580f, -0.04816197f, 0.00339978f, -0.05016709f, -0.12580466f, -0.09618055f, -0.07834744f, -0.07637775f, 0.00574585f, -0.06104767f, -0.03407643f, -0.05127302f, -0.00844704f, 0.06320814f, -0.06411667f, 0.00757828f, 0.00823656f, 0.00347931f, 0.09827214f, 0.05551556f, -0.02712413f, -0.14628591f, -0.18064807f, -0.50809395f, -0.22495367f, -0.39179006f, -0.21524090f, -0.28174555f, -0.09060822f, 0.00564635f, 0.09179484f, -0.02626107f, 0.01382592f, 0.01453858f, -0.00438473f, -0.00565826f, -0.05996651f, -0.00073711f, -0.08115177f, -0.09505796f, -0.21267913f, -0.30635989f, -0.40795234f, -0.45482355f, 0.22858492f, 0.21531861f, 0.13398078f, 0.00655917f, -0.12234092f, -0.18048233f, -0.01027185f, -0.02822288f, -0.03161898f, 0.10789219f, 0.06247449f, 0.05076713f, 0.03344915f, 0.04749968f, -0.07714527f, -0.03936515f, -0.08129585f, 0.03061317f, -0.04041275f, 0.00592473f, -0.05721264f, 0.01974750f, -0.06113683f, -0.02161076f, -0.00202711f, -0.02182981f, -0.04549311f, -0.04647079f, -0.05881336f, 0.02670534f, 0.19650212f, 0.10768741f, -0.04816017f, -0.05056385f, -0.21816896f, -0.10961094f, -0.06047737f, -0.01199260f, 0.00349404f, 0.04938947f, -0.03409434f, 0.04936739f, 0.07230753f, -0.04358651f, -0.01228012f, -0.17940675f, -0.13132274f, -0.14032833f, -0.13512033f, -0.11799395f, -0.12195385f, -0.10154139f, -0.02572955f, 0.07472154f, 0.14802283f, -0.04406217f, 0.01603528f, -0.02503465f, -0.01009980f, 0.07807879f, -0.00616678f, -0.05374229f, 0.00153749f, -0.00035263f, -0.01957062f, 0.00744492f, 0.01904161f, -0.02593809f, -0.13993326f, -0.18681613f, 0.03912948f, 0.05998294f, 0.03976954f, 0.03522070f, -0.04710944f, -0.02332777f, 0.05430140f, 0.09250285f, 0.20108968f, 0.09201430f, -0.03966694f, 0.03785612f, 0.02013436f, -0.00110860f, 0.08173282f, -0.25908348f, -0.11218025f, -0.06422351f, -0.06324662f, -0.08143474f, 0.01503632f, 0.02495288f, -0.03267700f, -0.00981739f, 0.03689225f, -0.01715421f, -0.00236696f, 0.02957265f, 0.04613692f, 0.01552547f, -0.02293008f, 0.09924435f, 0.22310655f, 0.13542023f, 0.00277651f, -0.04217301f, -0.00561149f, -0.05467401f, -0.02480526f, -0.18697217f, -0.19865745f, -0.05989525f, 0.06475323f, -0.12274704f, 0.06698264f, -0.02948766f, -0.10434811f, -0.08500674f, -0.03700740f, -0.09859050f, -0.00012386f, 0.06294136f, -0.02370355f, -0.05850460f, -0.07912442f, -0.01267713f, 0.08886158f, 0.00265253f, -0.04245328f, -0.08480155f, 0.09267139f, 0.03472093f, -0.04163521f, -0.07023078f, -0.08341401f, -0.09846583f, -0.05618325f, -0.12092035f, -0.09409096f, -0.15936460f, -0.09152707f, 0.01037424f, -0.02971673f, 0.03092210f, -0.04055848f, -0.12633586f, -0.07442717f, 0.05187259f, -0.03935986f, 0.06381790f, -0.06227300f, -0.03485002f, -0.00548894f, -0.04238126f, 0.02575859f, -0.17371041f, -0.12009674f, 0.03886992f, 0.00026728f, 0.10780115f, -0.11367504f, -0.10226824f, 0.01397041f, 0.00853546f, 0.05274460f, 0.04870186f, 0.05388777f, 0.00036416f, 0.01108864f, 0.12625237f, 0.02888165f, -0.10068314f, -0.11998740f, 0.01529163f, -0.05913342f, 0.09085417f, -0.02651982f, -0.01944876f, 0.11859038f, 0.00026475f, -0.03451181f, 0.05441546f, 0.08844798f, 0.14393567f, 0.07200810f, -0.08738250f, -0.04106133f, 0.08163936f, 0.05745505f, -0.05428638f, 0.05309263f, 0.05640998f, -0.07451410f, 0.03978738f, -0.01677986f, -0.01136799f, 0.03264189f, 0.07312395f, 0.07016071f, 0.06857509f, -0.06903216f, -0.02200533f, -0.08371744f, 0.01881360f, -0.06280623f, 0.08966430f, 0.05984876f, 0.01401830f, -0.08093372f, -0.14987127f, 0.04031022f, 0.03131496f, 0.03685551f, -0.02406195f, -0.04364439f, 0.11563559f, 0.13869283f, 0.01639641f, -0.05123409f, -0.23521946f, -0.05893357f, -0.01125484f, -0.04046388f, -0.09902546f, -0.10196593f, 0.08650083f, 0.09891404f, 0.01975591f, 0.02213882f, -0.20925610f, -0.18602179f, -0.09667034f, -0.00293721f, 0.06315650f, -0.01427530f, 0.07930306f, -0.04820588f, -0.00698159f, -0.18488640f, -0.16709237f, -0.00235078f, -0.00195837f, -0.00451308f, 0.05874813f, 0.03402037f, 0.03180745f, 0.05719626f, -0.03535162f, -0.07787683f, -0.11287273f, -0.04177905f, -0.01633134f, 0.17861201f, 0.04165542f, 0.10111924f, -0.05011965f, 0.05034691f, 0.07854495f, -0.03975735f, -0.01018868f, -0.20559481f, -0.00258580f, -0.07244661f, -0.02689079f, 0.08968042f, -0.02950366f, 0.09333216f, 0.06038817f, 0.09125927f, -0.01531825f, 0.12022553f, 0.08399059f, -0.01775061f, 0.03064052f, -0.10089915f, -0.25828657f, -0.11001530f, -0.14731497f, -0.09098617f, -0.03402647f, -0.11289952f, -0.06023998f, 0.01317218f, 0.08753478f, 0.05589023f, 0.10961156f, 0.07366841f, -0.01981458f, -0.15764837f, -0.27110130f, -0.05274026f, 0.01766281f, -0.04282872f, -0.05191689f, -0.09737729f, 0.08726182f, 0.01828325f, 0.02938540f, 0.04667933f, -0.03759931f, -0.03113944f, -0.03362201f, -0.01013364f, 0.03117988f, -0.05030204f, -0.02720269f, 0.04069492f, 0.06460445f, 0.05526134f, 0.06831589f, -0.01450993f, -0.07791144f, -0.02716765f, -0.08049531f, -0.17487551f, -0.16908658f, -0.03937132f, -0.00838938f, 0.04244386f, 0.05899583f, 0.08425018f, -0.00757087f, -0.04877114f, -0.05775807f, -0.09480754f, -0.00833693f, -0.05258320f, -0.07129981f, -0.13714740f, -0.21417783f, 0.08716080f, 0.01910794f, 0.00918844f, -0.04535799f, -0.04390766f, -0.08230770f, -0.05821733f, -0.06014108f, -0.01604604f, -0.09448090f, -0.12202805f, -0.10079795f, 0.00467532f, -0.04913749f, 0.14070211f, -0.02308374f, -0.09935457f, -0.03732072f, -0.09752599f, -0.19797854f, 0.06028176f, 0.04884524f, 0.02175234f, -0.00822306f, -0.25986269f, -0.05580546f, 0.02848775f, 0.06041976f, 0.11151040f, 0.11069828f, 0.01509342f, -0.01012290f, -0.00737744f, -0.08914110f, -0.10348353f, -0.08815213f, 0.03023889f, 0.10986184f, 0.07787475f, 0.01982052f, -0.00052212f, 0.01163827f, 0.03629839f, -0.05202253f, -0.13811758f, 0.04447836f, 0.04619129f, 0.05449035f, 0.03717090f, 0.06420597f, -0.04616658f, -0.08004417f, -0.01334576f, 0.05761300f, 0.09263428f, -0.04203432f, -0.07780472f, -0.09554185f, 0.01551935f, -0.01317180f, -0.09550016f, -0.07163218f, 0.04841175f, 0.01474073f, 0.06184004f, -0.14673589f, -0.02616519f, -0.04252004f, -0.05606813f, -0.05170930f, -0.01842488f, 0.05402472f, 0.03040001f, 0.00400784f, -0.03810843f, -0.28315797f, -0.08520149f, -0.03616561f, 0.02852206f, 0.04607631f, -0.05850785f, -0.00099661f, 0.06755736f, 0.11926058f, 0.00065960f, 0.04022490f, -0.00275826f, -0.04635713f, 0.06986878f, 0.00456804f, -0.17124085f, -0.02753650f, -0.12657976f, -0.02346651f, 0.03996638f, -0.14830491f, -0.10597852f, -0.08050461f, 0.09400627f, 0.08608855f, 0.00203610f, -0.04038245f, -0.02450193f, -0.03596369f, -0.12438887f, -0.18517332f, -0.06890956f, 0.00208839f, 0.05442376f, 0.03653677f, 0.00470311f, 0.02372516f, 0.06721328f, 0.03251714f, 0.06634134f, 0.06676267f, 0.03370173f, 0.02920286f, 0.02432748f, -0.00117210f, 0.09390635f, 0.07595504f, 0.01613270f, -0.04555983f, 0.02532692f, -0.07285934f, -0.00632023f, 0.03745010f, 0.04449096f, -0.13668068f, -0.04979154f, 0.05305840f, -0.02382927f, -0.02576138f, -0.03137790f, -0.12444198f, 0.07445548f, 0.04761948f, 0.01987612f, -0.11521775f, -0.01004515f, -0.01181438f, -0.00919989f, 0.03940582f, 0.03161106f, -0.16978167f, -0.00048950f, 0.17956059f, -0.09713988f, -0.25218275f, -0.04371601f, -0.15977395f, -0.03526108f, 0.01111718f, -0.04645183f, -0.19879082f, 0.00486953f, -0.05469516f, -0.00094416f, -0.21758291f, -0.07906397f, -0.08449755f, 0.03657619f, -0.11076016f, -0.15705973f, 0.11552527f, 0.18403095f, 0.08926217f, -0.00145404f, -0.07405395f, -0.33443552f, -0.22814170f, -0.14715026f, 0.01472908f, -0.05229329f, 0.03254482f, -0.04518997f, -0.02984506f, -0.13024703f, -0.13644680f, -0.01861767f, -0.06373858f, 0.00485534f, 0.06194957f, -0.04360301f, -0.11883615f, -0.21025677f, -0.29752246f, -0.28827339f, -0.26643437f, -0.14115892f, -0.09387985f, -0.03343463f, -0.08646009f, -0.05169158f, -0.01710355f, -0.01567772f, 0.05523942f, 0.03270128f, -0.05475761f, 0.00654306f, 0.00328359f, -0.02037086f, -0.00874082f, -0.19620146f, 0.11498215f, 0.01559095f, -0.03795595f, -0.01007998f, -0.02493580f, -0.07396665f, -0.01101907f, -0.09852514f, -0.01115815f, -0.06768753f, -0.06016932f, -0.01393383f, 0.05895963f, 0.08574757f, 0.06367269f, 0.12609620f, 0.04819494f, 0.06886987f, 0.06110616f, -0.09573167f, -0.27715242f, -0.15528940f, -0.16947682f, -0.04193529f, -0.32226279f, -0.05535430f, -0.14785887f, -0.09632674f, -0.19303635f, -0.09017126f, 0.05767823f, -0.07583289f, -0.03645508f, -0.05684354f, -0.17890926f, 0.18500949f, 0.02535592f, 0.12061633f, -0.00721504f, -0.06584661f, -0.16611832f, -0.01905842f, -0.06292478f, -0.05721946f, -0.03354136f, -0.08364681f, -0.04320075f, 0.11951414f, 0.03359470f, -0.09268730f, -0.18605179f, 0.00277014f, -0.03022224f, -0.02629286f, -0.00204595f, 0.07658263f, -0.02597881f, -0.03294173f, -0.07248172f, -0.18225834f, -0.11174630f, 0.04135539f, 0.06825840f, -0.00837195f, -0.01171153f, 0.14946367f, -0.03509517f, -0.02074421f, -0.11423126f, -0.14764814f, -0.01282657f, 0.09419686f, -0.03318213f, 0.04223863f, -0.16781262f, -0.08815604f, -0.03625490f, -0.01776295f, -0.08371471f, -0.01840730f, -0.02542400f, -0.01151568f, 0.06109119f, 0.06777208f, 0.01059354f, -0.04325443f, 0.01211060f, 0.08270189f, 0.08778814f, 0.06403051f, -0.06358126f, -0.01914185f, -0.06734452f, 0.00302924f, 0.23348302f, -0.11870723f, -0.06923459f, -0.01302544f, -0.08610242f, -0.10186536f, -0.04257357f, -0.01555957f, 0.01958887f, 0.03906754f, -0.10361325f, -0.02236071f, -0.03963202f, -0.06733342f, -0.23002312f, -0.28147087f, -0.03576018f, -0.07534369f, -0.03631590f, -0.04327363f, -0.08195729f, 0.02723753f, 0.01216560f, 0.06135700f, 0.00698899f, -0.04143300f, -0.05421180f, -0.13201337f, -0.03137276f, 0.03773710f, 0.06340342f, -0.13961792f, 0.01685978f, 0.02692122f, -0.08120332f, -0.00773659f, -0.08697288f, -0.05590948f, 0.00730545f, 0.05901002f, 0.04977394f, 0.00553845f, -0.05529820f, -0.03625822f, -0.14974843f, -0.23167077f, 0.02251870f, -0.07011612f, -0.00829292f, -0.05840200f, -0.00545367f, -0.04339827f, 0.02347821f, -0.03289623f, -0.01906634f, 0.03912544f, -0.02771097f, -0.05024625f, -0.01536973f, -0.01987535f, -0.06212353f, 0.18969782f, 0.10010866f, 0.11750427f, 0.06178796f, -0.05243186f, 0.03121563f, -0.08091237f, 0.06736060f, 0.08435887f, 0.07092915f, -0.15900585f, -0.10873917f, -0.02556576f, -0.01628907f, -0.03902439f, -0.02262438f, -0.08632321f, -0.10384524f, -0.05648978f, -0.02378277f, -0.12021225f, -0.08648194f, -0.06051447f, -0.02349555f, -0.11063462f, -0.06617016f, -0.06460604f, -0.12463947f, -0.10553888f, 0.11543957f, 0.16758446f, 0.06831317f, 0.08275576f, -0.03942309f, -0.03163430f, -0.07204567f, 0.00852783f, 0.04055629f, 0.03445116f, 0.01740324f, -0.11849529f, -0.03088065f, -0.09152731f, -0.13226655f, -0.06830350f, -0.14483275f, -0.10948744f, -0.00116883f, -0.04399544f, -0.02650534f, 0.13914922f, 0.14461832f, 0.20668264f, 0.14405325f, 0.07038420f, -0.17923032f, -0.21097843f, -0.09875541f, -0.08775038f, -0.09706746f, 0.05700586f, 0.01908846f, 0.02434782f, 0.05311307f, 0.11655958f, 0.33000100f, 0.23885408f, 0.15047489f, 0.04922328f, -0.25955778f, 0.01620407f, 0.09887183f, -0.02530272f, -0.00773684f, -0.00645253f, 0.03210022f, 0.06103692f, 0.00018680f, 0.03696928f, 0.05580097f, -0.22581373f, -0.18925156f, -0.10273485f, -0.05290121f, 0.02731944f, 0.23962051f, 0.11791986f, 0.04604173f, 0.00441227f, 0.02676214f, 0.01697339f, 0.05287897f, 0.02535659f, 0.01111810f, 0.08537021f, 0.07363283f, 0.01546689f, -0.06967360f, 0.04965092f, -0.00894678f, 0.23792411f, 0.17740776f, 0.11843169f, 0.04868204f, 0.02300938f, -0.11110134f, -0.03906534f, -0.02690910f, -0.00090696f, -0.03353332f, -0.09468874f, -0.00082363f, -0.08218784f, -0.07549137f, 0.01765125f, 0.08302484f, 0.04058782f, -0.06571893f, 0.01140488f, 0.05011382f, 0.19447874f, 0.06489979f, 0.01271224f, -0.02091291f, 0.03409226f, 0.27966520f, 0.28823513f, 0.17998129f, 0.17076278f, -0.12626661f, -0.10998686f, -0.15439041f, 0.00640118f, 0.08780439f, 0.10994913f, 0.17130199f, 0.10701259f, 0.02018056f, -0.00952868f, -0.19111118f, -0.00538976f, -0.05886570f, 0.04565367f, 0.04779743f, 0.09547915f, -0.32090482f, -0.33026049f, -0.27055621f, -0.28078300f, -0.18491313f, 0.16142769f, 0.15769802f, 0.13647334f, 0.03235796f, 0.07419830f, -0.01130143f, -0.11795308f, -0.12576571f, -0.21298745f, -0.34997922f, 0.00355348f, 0.06704549f, 0.03744809f, 0.10906716f, 0.08792868f, -0.06549972f, 0.01587781f, 0.00886219f, -0.02641308f, -0.05701694f, -0.10928883f, -0.19641986f, -0.14345428f, -0.20814471f, -0.29073673f, 0.04396280f, 0.12511991f, 0.01156842f, 0.06088235f, -0.18162219f, 0.23256113f, 0.27361798f, 0.25332898f, 0.15777238f, 0.04565457f, -0.07359852f, -0.03255917f, 0.14920814f, 0.10049786f, 0.02561916f, -0.13955607f, -0.13410503f, -0.16956249f, -0.09899236f, -0.02396923f, 0.03154212f, 0.03675912f, 0.01224996f, -0.04285511f, -0.01604709f, 0.01296888f, -0.03501201f, -0.07998066f, -0.06393116f, -0.03583456f, 0.09610180f, 0.07290142f, 0.04888168f, 0.05889968f, 0.10155282f, -0.16176815f, -0.04095457f, -0.01544683f, -0.08795313f, -0.25099126f, -0.27092642f, -0.25511369f, -0.07300675f, -0.07774979f, -0.24904455f, 0.04270613f, -0.08261221f, -0.15750052f, -0.22449993f, -0.29213220f, -0.08374733f, 0.00882750f, -0.06810050f, -0.10569666f, -0.10022943f, 0.06780416f, 0.01997577f, -0.01606899f, 0.00756212f, 0.05829886f, -0.22003500f, -0.12269298f, -0.06589024f, -0.06519100f, -0.04995740f, 0.04052763f, 0.04612163f, -0.04866041f, 0.01778712f, -0.03179931f, 0.02086315f, 0.05189837f, -0.00509887f, 0.03151543f, -0.02675078f, 0.05710888f, -0.09297946f, -0.10632757f, 0.11197547f, 0.18996382f, -0.04014634f, -0.08867677f, -0.05013975f, -0.08438417f, -0.05087186f, -0.10480635f, -0.07761119f, -0.16787222f, -0.13929437f, -0.37979192f, 0.13476560f, 0.06030225f, -0.11219966f, -0.05394993f, -0.07188535f, 0.17953520f, 0.10252502f, -0.08723651f, -0.11976782f, -0.05592734f, -0.15796199f, 0.04022282f, 0.01977551f, -0.00609714f, 0.03644160f, 0.10932614f, 0.03849263f, -0.14217359f, -0.19258176f, -0.22237478f, -0.01611930f, 0.04495002f, -0.03527649f, -0.04785410f, -0.00070847f, -0.07780051f, -0.08444433f, -0.05067012f, -0.09097628f, -0.01218947f, -0.01208116f, 0.01743038f, -0.02705118f, -0.04784606f, -0.00172925f, -0.33267885f, -0.00727046f, 0.10426686f, -0.00023553f, -0.15026218f, 0.01100420f, -0.01638231f, -0.05994556f, -0.00987890f, 0.04796333f, -0.00419518f, 0.07789437f, -0.13316333f, -0.22748943f, -0.29753834f, -0.15709846f, 0.03529274f, -0.03010876f, 0.03571501f, -0.10389172f, 0.03724116f, 0.04517395f, -0.02972223f, 0.10132293f, 0.00684051f, 0.00163598f, -0.07677785f, -0.01750374f, 0.01773313f, 0.01986181f, 0.03512604f, -0.05009341f, 0.02218845f, 0.04137934f, 0.14872672f, -0.01732645f, 0.18346986f, 0.00825228f, 0.11150376f, -0.07205345f, 0.01842035f, 0.06067646f, -0.07163429f, -0.08480525f, 0.02177096f, 0.01841706f, 0.08877536f, 0.00963382f, -0.02392814f, -0.12139376f, -0.01098639f, 0.04480166f, 0.05656815f, 0.02914612f, 0.05878421f, 0.20120624f, 0.04476093f, -0.16680367f, 0.03437469f, 0.27273214f, 0.04606083f, -0.07317446f, -0.02858337f, -0.04903604f, -0.01176249f, -0.05147477f, 0.04049777f, -0.00488399f, 0.02418904f, 0.01835007f, 0.04589737f, 0.10912710f, 0.04074598f, -0.07494239f, 0.01829314f, -0.06913915f, 0.10151230f, -0.10933363f, -0.13574107f, -0.05534236f, -0.10490212f, -0.13674769f, 0.05772115f, 0.04950741f, 0.08318371f, 0.07121620f, 0.00217404f, 0.07166264f, 0.04133981f, -0.00914542f, 0.08703095f, 0.02422066f, 0.00444160f, -0.05086766f, 0.03856640f, -0.01626735f, 0.00071764f, -0.05795864f, -0.03820788f, -0.03586961f, 0.13228363f, 0.22582468f, 0.13491006f, 0.10989761f, 0.05188635f, -0.02138682f, -0.11103471f, -0.12806703f, -0.15379046f, -0.08517058f, -0.06490460f, -0.02000396f, 0.00791319f, -0.01071884f, -0.07505965f, -0.05072331f, -0.00192288f, 0.01702694f, 0.01419480f, -0.08037382f, 0.03286768f, -0.02777553f, 0.01255757f, 0.02784917f, -0.07814383f, 0.05304015f, 0.00642114f, -0.11309608f, -0.08713194f, -0.06876444f, -0.01065848f, -0.01704716f, -0.00307878f, 0.03559044f, 0.13455108f, 0.08715070f, 0.12984776f, 0.12131095f, 0.16462694f, 0.01918017f, -0.09306625f, -0.34651694f, -0.28036904f, -0.50783002f, -0.44682562f, -0.14239471f, -0.12771827f, -0.03238690f, -0.25924826f, -0.38490826f, -0.02181417f, 0.13515532f, 0.10456766f, 0.02371497f, -0.05065688f, -0.03554543f, -0.04414994f, 0.00009506f, -0.04528338f, -0.13403538f, 0.00811608f, -0.00072043f, -0.12810715f, -0.08565217f, -0.10632098f, 0.04479578f, 0.05603704f, -0.06581130f, 0.00155233f, -0.18722576f, -0.38181251f, -0.16148579f, -0.17419693f, -0.18431695f, -0.23777738f, -0.18109621f, -0.18052234f, -0.12304349f, -0.08261275f, -0.18892144f, 0.02478500f, -0.00727181f, -0.01258309f, -0.10104617f, -0.02674255f, 0.10137147f, 0.04666442f, 0.07213406f, -0.01734513f, 0.02856174f, -0.02251495f, 0.03261416f, -0.04273584f, -0.12858666f, -0.21577321f, 0.01359960f, 0.05327502f, 0.17472146f, 0.10297221f, 0.05647916f, 0.05985513f, 0.01141850f, -0.07460166f, -0.11531143f, -0.13439000f, -0.01931716f, 0.05372244f, 0.00016340f, 0.09014694f, 0.15307701f, 0.02159230f, 0.06870725f, -0.01296694f, 0.03884692f, -0.00926461f, 0.07426187f, 0.03309662f, 0.04432088f, 0.00773635f, -0.07626589f, -0.08215061f, -0.05624352f, -0.00904403f, 0.05390627f, 0.01721953f, -0.05967512f, -0.02817156f, 0.01557811f, -0.07288398f, -0.11208216f, -0.03377384f, 0.03521320f, 0.03619852f, 0.00682760f, 0.15345792f, 0.07777752f, 0.09640801f, 0.03529724f, -0.02573920f, -0.03078996f, 0.11374015f, 0.12927394f, 0.01284379f, 0.00527078f, -0.05455177f, 0.01966569f, 0.06786323f, 0.09637853f, 0.05197599f, 0.01234346f, -0.02155997f, -0.03554068f, -0.03617037f, -0.01477999f, -0.11956745f, 0.00766737f, -0.04575388f, -0.04407110f, -0.03806815f, -0.05023965f, 0.09616179f, 0.15795428f, -0.07475967f, -0.11535647f, -0.10794189f, 0.00913970f, 0.03082429f, 0.01914310f, -0.02718826f, -0.06967025f, -0.18210253f, 0.04448711f, 0.07534062f, 0.07234779f, 0.10588599f, -0.00462435f, -0.10143205f, -0.14865834f, -0.17139389f, -0.05035992f, 0.00626051f, 0.12066737f, 0.07591482f, 0.04700357f, 0.07186481f, 0.00467306f, 0.01773345f, 0.06687187f, 0.07652211f, 0.01296537f, 0.08286919f, 0.07468238f, -0.03635362f, 0.00463068f, -0.11220209f, -0.19057345f, -0.08420751f, -0.24644630f, -0.24685888f, -0.38821864f, 0.06107171f, 0.13053092f, 0.04735072f, -0.00836566f, -0.03788681f, -0.08206113f, -0.07914051f, -0.07014682f, -0.00506266f, -0.14264525f, -0.03812170f, -0.09135230f, -0.08187333f, -0.02158790f, -0.09651664f, 0.15130845f, 0.15297650f, 0.11515281f, 0.15903570f, 0.23688813f, 0.01632044f, 0.12222240f, -0.01316073f, 0.03294436f, 0.09075007f, -0.00977702f, 0.00030754f, -0.02299271f, 0.00429954f, 0.03864028f, 0.10109103f, 0.13209124f, 0.13556789f, 0.03713723f, 0.07453988f, 0.02669050f, -0.04036721f, 0.09232278f, 0.09186545f, 0.14693622f, 0.01855448f, -0.11209201f, -0.03384066f, -0.08544932f, -0.17761676f, -0.21211192f, -0.26544788f, -0.19217832f, -0.16472217f, -0.13425611f, 0.00203038f, 0.05581173f, 0.01285099f, -0.03623452f, -0.01140125f, 0.10274561f, 0.00823580f, 0.03728270f, 0.03180927f, -0.09333934f, 0.02241909f, -0.04128678f, 0.03732128f, -0.00219703f, -0.01719608f, -0.11798240f, 0.03435345f, 0.13504262f, 0.07527408f, -0.08055858f, 0.12260636f, 0.00557758f, -0.03301230f, -0.13157582f, -0.12063669f, -0.08654883f, -0.09817555f, -0.10746716f, -0.05618572f, -0.13282773f, -0.17531230f, -0.13848697f, -0.17027037f, -0.05704610f, 0.05183136f, 0.03724855f, 0.02761094f, 0.04134272f, 0.24572900f, 0.16469824f, 0.03157159f, -0.01594058f, -0.06074743f, 0.07529467f, -0.05255703f, -0.08934937f, -0.11369514f, -0.00332978f, 0.00645141f, 0.01041116f, -0.02613484f, 0.06242285f, 0.00436711f, -0.04226533f, 0.02241781f, -0.20531294f, -0.02938444f, -0.03241288f, -0.10047384f, -0.07010639f, -0.00660762f, 0.03561628f, 0.01994507f, 0.01939486f, 0.01953136f, 0.11753909f, 0.07889426f, 0.05235252f, 0.08552754f, 0.08897676f, 0.02377678f, -0.03202259f, -0.05474090f, -0.03737490f, 0.00262336f, 0.13104431f, 0.05515478f, 0.05375560f, 0.04625740f, -0.00202875f, 0.01898355f, 0.07764659f, 0.07456614f, 0.06876684f, -0.00261223f, 0.08935221f, 0.00728355f, 0.02142802f, 0.00009130f, 0.03477007f, 0.04082434f, 0.06976348f, 0.06654741f, 0.11665913f, -0.01225047f, 0.01528801f, -0.08331950f, -0.08514069f, -0.06360634f, -0.01042061f, -0.11268891f, -0.06266344f, -0.14193402f, -0.11130460f, -0.30708510f, 0.10208200f, -0.03281993f, -0.20311685f, 0.00368573f, -0.02481009f, 0.01080709f, -0.01315101f, 0.01492176f, -0.03736524f, -0.04494208f, -0.00602122f, -0.01710579f, -0.00757903f, -0.05520179f, 0.02033288f, 0.27135378f, 0.12564632f, 0.11451504f, 0.06070656f, 0.13547544f, -0.05415531f, -0.04017425f, -0.07697354f, -0.11254982f, -0.09301507f, -0.06506620f, -0.08843284f, 0.00792399f, -0.04976582f, -0.05226841f, 0.19973449f, 0.23607329f, 0.17209746f, 0.18882251f, 0.15810558f, -0.07761151f, 0.00313855f, -0.06080956f, 0.02455152f, -0.06059979f, 0.07415038f, 0.11055734f, 0.02312735f, 0.03208788f, 0.07253489f, 0.00267584f, -0.01949663f, -0.03285820f, 0.10400867f, 0.03255324f, -0.01561169f, 0.04320771f, -0.03903833f, 0.03329674f, 0.03371116f, -0.02562923f, -0.11617653f, -0.03534380f, -0.02809586f, 0.02253621f, -0.01975842f, 0.02720993f, 0.00420724f, -0.06959793f, -0.12248711f, 0.02242820f, -0.01720148f, 0.09628441f, 0.09700383f, 0.12203173f, 0.07645750f, -0.00509786f, -0.10271223f, -0.27872205f, -0.19064368f, -0.08206695f, 0.00691387f, -0.02814053f, 0.06006942f, 0.08181825f, -0.06799844f, 0.02272907f, -0.00456379f, -0.01764612f, 0.02727580f, -0.07222325f, 0.00801644f, -0.08279366f, 0.04547281f, 0.05859859f, 0.14639600f, 0.06302128f, 0.01664847f, 0.11839429f, 0.14037362f, -0.03771280f, -0.11266246f, -0.15554222f, -0.20953831f, -0.25810313f, 0.14915393f, -0.01017934f, 0.02972600f, 0.05706112f, 0.18220441f, 0.03560400f, -0.05221911f, 0.03782783f, 0.05159900f, -0.02533254f, 0.02489287f, -0.07328521f, -0.02410023f, -0.09495874f, -0.10574285f, -0.05293668f, 0.02850361f, 0.00659535f, 0.06142943f, 0.05299918f, 0.12472754f, 0.02324133f, -0.00467654f, -0.08029415f, -0.09680846f, -0.01710623f, 0.02632766f, 0.08229934f, 0.05913348f, -0.01026183f, -0.00741704f, 0.10383271f, 0.05918134f, 0.05686640f, -0.02420375f, 0.00325337f, 0.00796921f, -0.05507748f, 0.00419316f, -0.03816500f, 0.16272576f, 0.08234878f, 0.02975246f, 0.06069492f, 0.04850241f, 0.21824001f, 0.04879729f, 0.03610545f, 0.01103856f, 0.04139264f, -0.00697510f, -0.02160795f, 0.06496730f, 0.01517742f, 0.05057603f, -0.02451516f, -0.10452516f, -0.09973334f, -0.02898401f, 0.00617928f, 0.02257743f, -0.06191933f, 0.01689773f, -0.07413117f, -0.12305340f, 0.04427558f, 0.13397026f, 0.09252647f, 0.08015336f, 0.03552831f, -0.00519062f, -0.07592610f, -0.05041381f, -0.19585700f, -0.28260320f, 0.18944463f, 0.08725238f, 0.03036841f, 0.02750416f, -0.10343992f, 0.18969439f, 0.09481406f, 0.01230652f, -0.01933886f, -0.08923792f, 0.08160028f, 0.02543796f, 0.04200612f, 0.05560083f, 0.03944072f, 0.15461379f, 0.12103023f, 0.14401671f, 0.12650245f, -0.02064751f, -0.03884250f, -0.00913895f, -0.01592306f, -0.05670621f, -0.00617209f, 0.09752474f, 0.07925300f, 0.02679341f, 0.04218236f, -0.08614375f, -0.06989712f, -0.00132729f, 0.01000837f, -0.00238251f, -0.04151779f, -0.00214271f, 0.05539709f, -0.08369481f, -0.00596740f, -0.10106494f, -0.01346289f, 0.01039711f, -0.00399630f, -0.00542068f, -0.07013463f, -0.13761294f, -0.07613097f, -0.03820237f, 0.07317217f, 0.01231602f, -0.08369126f, -0.07213406f, -0.06646617f, -0.00095466f, -0.02961243f, 0.03494652f, -0.02034816f, -0.06102721f, 0.07634720f, 0.07878632f, -0.01930835f, 0.00557049f, -0.04340483f, 0.01275491f, 0.09247965f, -0.06631404f, 0.03908099f, 0.02837712f, -0.00092695f, -0.11884047f, 0.06911322f, 0.08866429f, 0.06560604f, 0.08931202f, 0.07530717f, -0.09029319f, 0.05059893f, 0.05347123f, 0.04963687f, -0.02517355f, -0.27088249f, -0.05760165f, 0.06070074f, 0.14361538f, 0.01124790f, 0.03666000f, 0.05512548f, 0.02307158f, 0.08272360f, -0.00814248f, 0.08578928f, 0.06424502f, -0.04193630f, -0.02871838f, -0.02655767f, -0.15696257f, -0.09605388f, -0.04901452f, -0.00820149f, -0.05512508f, 0.00146115f, 0.03377777f, 0.01189342f, 0.02320654f, 0.05060816f, 0.09003824f, 0.05119722f, 0.04776729f, -0.13564041f, -0.18371628f, -0.04007567f, 0.00141866f, 0.05396963f, 0.00371088f, -0.16416161f, -0.00501479f, 0.03082168f, -0.01300756f, -0.04758350f, 0.04049062f, -0.14767230f, -0.09009414f, -0.04416108f, -0.01827704f, -0.02996103f, 0.03265665f, -0.01553093f, -0.00215724f, 0.11965971f, 0.20467572f, 0.06448840f, -0.02830757f, 0.01594143f, -0.15751578f, -0.17651501f, -0.09474108f, 0.00632796f, -0.05358189f, 0.05723696f, -0.01359081f, 0.11682888f, 0.09044231f, 0.11516941f, -0.04702160f, -0.06384154f, -0.12812130f, 0.00304548f, 0.03048460f, -0.19315262f, -0.32214493f, 0.01180418f, 0.02594004f, 0.02349064f, 0.00366987f, -0.06973171f, -0.07007059f, -0.05637997f, -0.05367235f, 0.03001352f, -0.10616487f, 0.01223240f, -0.01538920f, 0.01319417f, 0.05333968f, 0.06153882f, -0.02539570f, -0.03221041f, 0.01882435f, -0.02860938f, -0.22770014f, 0.05354967f, 0.09838384f, 0.07178479f, -0.13938227f, -0.29330498f, -0.05845957f, -0.03888403f, 0.00976541f, 0.05990276f, 0.04965711f, 0.01997157f, 0.02957884f, 0.03319416f, -0.05441905f, -0.14143439f, -0.00522154f, -0.08968271f, -0.03616243f, 0.08504996f, 0.04566109f, 0.00948005f, -0.10561370f, 0.00298597f, -0.06429753f, -0.12870349f, -0.03198827f, -0.01550538f, -0.03819297f, -0.02784221f, -0.02083689f, -0.00162933f, -0.05145982f, -0.03178101f, -0.08378278f, 0.03216536f, -0.11917188f, -0.06189594f, 0.08803619f, -0.05538889f, -0.07688510f, -0.15951745f, -0.01158703f, -0.08194488f, -0.00432191f, 0.02803846f, -0.12431584f, 0.05863255f, 0.12059173f, -0.06507614f, -0.09698663f, 0.00856244f, 0.08784451f, 0.06391113f, -0.08842743f, -0.20691352f, -0.31436926f, -0.15427221f, -0.05168999f, 0.00790919f, 0.06393354f, -0.13901985f, -0.06345431f, 0.00066665f, 0.01079412f, 0.08114581f, 0.01671774f, -0.05677888f, -0.06551008f, -0.00784698f, -0.00522924f, -0.14461118f, -0.06780159f, 0.03456062f, 0.05378481f, -0.01511749f, -0.17879888f, 0.00449877f, -0.07944871f, -0.01100864f, -0.00323095f, 0.01625248f, -0.00498880f, -0.07421409f, -0.13887298f, -0.12923399f, -0.28489748f, -0.04488676f, 0.09561926f, 0.04791349f, 0.00924216f, -0.14244248f, -0.11149849f, -0.08465037f, -0.04251448f, -0.05336589f, 0.00284901f, -0.01880174f, -0.04337262f, 0.05203363f, 0.07490181f, 0.06321547f, 0.03256344f, -0.13468380f, -0.16738990f, -0.17431781f, 0.06607737f, 0.06465371f, 0.07169101f, -0.05162059f, -0.13897057f, 0.00832533f, -0.10792246f, -0.07142095f, -0.00451208f, -0.03307063f, 0.01511938f, 0.05157137f, 0.00797883f, -0.45730269f, -0.39622664f, -0.03097036f, 0.06218910f, -0.02557602f, 0.06166682f, -0.01829713f, 0.00048954f, 0.09863579f, 0.06948900f, 0.01844645f, -0.06249329f, -0.05975894f, 0.02106653f, 0.13221873f, 0.04755026f, -0.23147532f, -0.14902999f, -0.20389767f, -0.18448853f, 0.12752464f, -0.20174740f, -0.07099266f, -0.03325103f, 0.00556350f, -0.07383735f, -0.09556169f, -0.09270310f, -0.10464106f, -0.17951897f, -0.20450531f, -0.16196358f, -0.12863961f, 0.11017041f, -0.07772368f, 0.02485813f, 0.07175978f, -0.02047142f, -0.05864625f, -0.02479191f, -0.12355772f, -0.01916727f, 0.04274994f, 0.06389443f, 0.01289722f, 0.04641608f, 0.01049008f, -0.09807642f, -0.01371856f, 0.10828044f, 0.00410777f, -0.03501691f, 0.11935094f, 0.04326423f, 0.07515694f, -0.00670439f, -0.02857334f, 0.08847652f, 0.04534493f, 0.06177541f, 0.03396907f, 0.01578725f, -0.39681134f, -0.11084112f, -0.31570345f, -0.11946011f, -0.24014409f, -0.06407002f, -0.08594439f, -0.19230567f, -0.11319613f, -0.18304701f, 0.01900331f, -0.03098704f, 0.05086913f, -0.01009341f, 0.00695995f, -0.00723900f, 0.13012961f, 0.00588768f, 0.06418054f, -0.05817610f, -0.12199640f, -0.00313794f, -0.02081439f, -0.00316905f, -0.12960698f, -0.09093782f, 0.08512583f, 0.08036975f, 0.01878056f, -0.02971851f, 0.10549609f, 0.03683425f, 0.06129226f, 0.08964688f, 0.15193352f, -0.25327972f, -0.06083458f, -0.04404611f, -0.07864540f, -0.10221197f, -0.03523159f, 0.11361561f, 0.03446871f, 0.06907791f, 0.12760586f, 0.27889255f, 0.23829013f, 0.07038752f, 0.20688288f, 0.22470155f, -0.12383587f, -0.10102195f, -0.00143166f, 0.07301298f, -0.13210501f, 0.22353573f, 0.00682006f, -0.01766359f, -0.13122262f, -0.21613935f, -0.01177789f, 0.03397356f, 0.01498848f, -0.02877706f, 0.13272591f, -0.15878181f, -0.07061932f, -0.04647368f, -0.00249609f, -0.00675047f, -0.02322507f, 0.11411300f, 0.14847758f, 0.03704109f, -0.02898550f, -0.02760696f, 0.06003968f, 0.15311138f, 0.05473610f, -0.18958470f, 0.11626232f, 0.07147766f, 0.02386386f, 0.07918625f, 0.01875533f, 0.03279590f, -0.04987484f, 0.06277109f, 0.05690702f, -0.04795357f, -0.20074233f, -0.08384638f, -0.05296086f, 0.05588800f, 0.03727087f, -0.08184142f, -0.10437115f, -0.12925938f, -0.05134762f, 0.13867366f, -0.06669624f, -0.09517915f, -0.01941541f, 0.02505513f, -0.04553126f, -0.10211045f, -0.07224298f, 0.01064697f, -0.02546231f, -0.08121423f, -0.22407980f, -0.26374966f, -0.21958522f, -0.03554908f, -0.08030744f, -0.21789923f, 0.07810622f, 0.13894339f, -0.00005309f, -0.07332091f, -0.02362615f, 0.02353260f, 0.05556601f, -0.00676452f, -0.03601172f, 0.04033301f, 0.07494210f, 0.02507934f, -0.12301648f, -0.14620933f, -0.11803063f, 0.00514484f, -0.07031536f, 0.01314637f, 0.10031669f, -0.07029820f, 0.00757943f, -0.04861901f, 0.06859515f, 0.08799356f, -0.16140956f, -0.12424867f, -0.07972148f, -0.06332889f, 0.04285230f, -0.13206558f, -0.00613723f, 0.01017913f, 0.05074847f, 0.03843781f, -0.08400541f, -0.05069419f, -0.05753804f, -0.02695437f, 0.09665378f, 0.04306202f, 0.11454967f, 0.13841692f, 0.11619118f, 0.00578001f, 0.05814304f, 0.02841116f, 0.10405557f, -0.02763181f, -0.05789837f, 0.02461430f, 0.08379132f, 0.01682085f, -0.02555528f, -0.09976053f, -0.00088361f, 0.00246604f, -0.00673548f, 0.06378895f, 0.05383334f, 0.10410936f, -0.01705611f, 0.02413556f, -0.03786923f, -0.12483748f, -0.14908618f, -0.04904639f, -0.05551809f, 0.10587646f, 0.07546013f, 0.00899164f, -0.01245490f, -0.08588842f, -0.09246613f, -0.06908449f, -0.05491451f, 0.01361160f, -0.00073476f, -0.06442450f, -0.07700229f, 0.07867701f, 0.03061686f, 0.00365450f, 0.07554977f, -0.00012717f, -0.06465887f, -0.04875051f, -0.10007140f, -0.08181388f, -0.19866915f, 0.02125748f, 0.01507692f, -0.00827947f, 0.06548244f, 0.07429949f, -0.03314311f, 0.02653832f, -0.05783390f, -0.02438344f, 0.05622647f, 0.00889860f, 0.06676806f, 0.06542549f, 0.03408239f, 0.04697756f, 0.11858118f, 0.12988520f, -0.00657229f, -0.07369606f, -0.07429869f, -0.01122665f, -0.01970370f, 0.04692284f, 0.01784539f, 0.06950031f, -0.07889968f, 0.09795809f, -0.03906603f, 0.01721216f, 0.04866672f, 0.15282631f, 0.10102071f, 0.02100779f, 0.11631663f, -0.03318244f, -0.01611214f, 0.01570599f, -0.01136771f, -0.07753862f, -0.06768675f, 0.12512669f, 0.14555275f, 0.03127103f, 0.00543281f, -0.03873926f, 0.02567499f, 0.04867887f, 0.07925189f, 0.03751072f, -0.02037794f, -0.04618638f, 0.00760011f, 0.03089673f, 0.01911311f, -0.03681498f, 0.08498356f, -0.03610154f, -0.17875578f, -0.24845035f, -0.22618119f, -0.01899376f, 0.04803580f, 0.08686943f, 0.09115844f, 0.08262873f, 0.08254879f, 0.05583643f, 0.06918760f, -0.05459199f, 0.02158760f, -0.01700100f, -0.04559100f, 0.07364476f, 0.02148736f, 0.06623635f, 0.11897655f, 0.09139036f, 0.05848290f, -0.11092759f, -0.19237140f, 0.01590061f, -0.00194744f, -0.00350408f, 0.03239430f, 0.08548904f, 0.00017274f, 0.11258511f, 0.09274741f, 0.16785136f, 0.12744026f, 0.13423589f, -0.03562015f, -0.21934180f, -0.31688729f, -0.09763985f, 0.12780382f, 0.05294714f, 0.08947285f, -0.00156834f, -0.00508497f, 0.04638680f, 0.01328796f, 0.02829071f, 0.10117247f, 0.01289528f, 0.00974072f, -0.02908005f, -0.06370633f, -0.18960717f, -0.30755481f, -0.01934877f, 0.01772508f, -0.00291195f, 0.04041654f, -0.07518128f, 0.09846762f, 0.07489258f, 0.03474613f, 0.11323432f, 0.04765455f, 0.01766720f, -0.01646170f, 0.07013956f, 0.08478811f, 0.09798177f, -0.04425070f, -0.00963488f, -0.01033912f, 0.10540346f, 0.08825465f, -0.09836344f, -0.10718462f, -0.04135784f, 0.05458488f, 0.05309742f, 0.05805434f, 0.08145706f, 0.05171497f, 0.11505844f, 0.10434196f, -0.12477251f, -0.06165626f, -0.05976725f, -0.04529734f, 0.00506607f, 0.09414037f, -0.00284118f, -0.01163445f, -0.01342114f, 0.03809430f, -0.20693098f, -0.06330458f, 0.13200673f, 0.18607397f, 0.02128837f, -0.04551458f, 0.05305505f, -0.04675011f, 0.03554745f, 0.12295321f, -0.06166206f, -0.07616527f, -0.18295601f, -0.16983122f, 0.04198996f, -0.06196006f, -0.04350458f, 0.10843405f, 0.08081865f, 0.16496177f, -0.07693329f, 0.03739921f, 0.00323333f, 0.08975830f, 0.15315863f, -0.00525678f, 0.02132149f, -0.14931421f, -0.10267141f, -0.14183275f, -0.13933891f, -0.05351060f, 0.06192882f, 0.06335735f, 0.12234628f, -0.01787978f, -0.10306174f, -0.05402882f, -0.02483223f, -0.12532805f, -0.00449418f, 0.08076657f, 0.03864156f, 0.03940259f, -0.00573497f, -0.05919023f, 0.01192564f, 0.03919186f, 0.04964394f, -0.04071724f, 0.10419681f, 0.04901469f, 0.12226012f, 0.09871443f, 0.18963020f, -0.07780956f, -0.06678852f, -0.14655383f, -0.00725778f, -0.05287136f, -0.11686605f, 0.00803062f, 0.03762341f, -0.01600872f, 0.04327464f, -0.01274032f, -0.00267151f, -0.00945864f, -0.06016215f, 0.01190773f, 0.01076302f, 0.06698769f, 0.05140611f, 0.11609139f, 0.17812155f, -0.05984859f, 0.05387101f, 0.06340699f, 0.02819118f, -0.01914980f, -0.18706711f, -0.00507928f, 0.07890032f, 0.10235353f, -0.15728095f, 0.04201781f, 0.06521582f, 0.09008590f, 0.02089548f, 0.09630404f, -0.02302806f, -0.01746989f, 0.01164571f, -0.05412385f, 0.04131448f, -0.20061465f, -0.11965550f, -0.05272178f, 0.02405708f, -0.00572059f, 0.03819841f, 0.04501726f, 0.03233590f, -0.05493887f, -0.01886831f, -0.05641143f, -0.01403684f, 0.05060931f, -0.01633707f, -0.02057561f, -0.13208465f, -0.02587705f, -0.05554244f, -0.06416219f, -0.00039857f, 0.00343275f, 0.07368875f, 0.05995833f, 0.09610032f, 0.09466517f, 0.07128182f, 0.08660065f, 0.05121890f, 0.08939822f, 0.01863993f, -0.02743238f, -0.07274005f, -0.15260147f, -0.22392772f, -0.05857970f, -0.04974189f, -0.03862397f, -0.02810761f, -0.02654338f, -0.07614116f, -0.15210749f, -0.10607048f, -0.17972882f, -0.10334239f, -0.14893298f, 0.01261040f, 0.01100089f, 0.00197688f, 0.01844407f, -0.19633928f, 0.08736520f, -0.01456194f, -0.02976776f, -0.05734082f, 0.04771639f, -0.09981266f, -0.13698360f, 0.05144548f, 0.13712622f, 0.13196604f, -0.05661035f, -0.02678397f, -0.05182139f, -0.11243746f, -0.20150337f, 0.00382394f, -0.05732739f, -0.07611071f, -0.09626821f, -0.11520410f, 0.02455356f, -0.02457707f, 0.03443371f, 0.00236006f, -0.07805095f, -0.02471875f, 0.03497660f, -0.11995959f, 0.02501665f, 0.07003477f, -0.19380337f, -0.06150702f, -0.01782017f, 0.09505699f, 0.09020758f, 0.01339280f, -0.03105936f, 0.08211312f, 0.00844189f, 0.09261230f, -0.01811191f, -0.13077672f, -0.03824592f, 0.00374242f, -0.02106357f, -0.11939039f, -0.02998043f, -0.02073647f, 0.06784593f, 0.03697753f, 0.13122679f, 0.09142143f, 0.01032722f, 0.02485326f, -0.05573505f, -0.04895048f, -0.04913600f, 0.01014176f, -0.05137616f, -0.01178447f, -0.12776659f, -0.15528460f, -0.12093116f, -0.13712597f, -0.19379577f, 0.01918192f, -0.06002270f, 0.01065836f, -0.03969150f, -0.07659766f, -0.08543739f, 0.00698560f, 0.02348191f, 0.01644614f, 0.01563688f, -0.27687061f, -0.11678775f, -0.03000864f, -0.06235247f, -0.06993885f, -0.03374204f, -0.02712617f, -0.07989668f, -0.09032922f, -0.00495129f, -0.15578108f, -0.12738948f, -0.08384236f, 0.00925828f, -0.27911040f, 0.02936229f, -0.10420862f, -0.20713148f, -0.20309752f, -0.11920361f, -0.07057437f, -0.01426063f, -0.01928157f, 0.03694429f, -0.10739741f, -0.02398244f, 0.07043426f, 0.06785773f, -0.03122380f, 0.00337436f, -0.12698877f, -0.03057062f, 0.01398978f, -0.08450886f, -0.05934530f, -0.30530903f, -0.10984889f, -0.02077417f, -0.02155349f, 0.04548333f, -0.06350534f, -0.05124196f, 0.03265620f, 0.00712984f, -0.01272257f, 0.01569885f, 0.08167765f, -0.06112809f, -0.02196015f, -0.10611067f, -0.10471574f, -0.10072186f, 0.03662440f, 0.06331153f, -0.01310343f, 0.05426431f, -0.05611973f, -0.04591668f, -0.04325462f, 0.12889405f, -0.01153888f, 0.06339997f, 0.09744642f, 0.07477932f, -0.00291371f, 0.01023955f, -0.01184324f, 0.03817613f, -0.01900396f, -0.00980136f, -0.06783612f, -0.09526149f, -0.01445415f, -0.07002942f, -0.00931504f, 0.03273289f, 0.00018496f, 0.03663136f, -0.00192781f, 0.11193813f, 0.00453463f, -0.04581808f, -0.08185859f, -0.07517698f, -0.16929154f, 0.07209161f, 0.02366493f, -0.06638115f, 0.00291911f, -0.08357994f, -0.06611291f, 0.01056324f, 0.00066003f, 0.16335879f, 0.13105604f, 0.03732109f, -0.00130290f, -0.09433976f, -0.12069511f, -0.06924123f, -0.15829715f, -0.02063704f, 0.02800886f, 0.10302523f, -0.02568555f, 0.07298844f, 0.07284230f, 0.05569008f, 0.07433424f, -0.10211930f, 0.01458215f, 0.04864418f, 0.09499045f, 0.05129315f, -0.02223884f, -0.21734326f, 0.03431712f, 0.01140689f, 0.02128709f, -0.05753981f, -0.01038516f, 0.00138381f, 0.06303452f, 0.08246307f, 0.12156681f, -0.12030886f, -0.10722040f, -0.03010528f, 0.00537899f, -0.22525485f, -0.00132528f, 0.03536235f, 0.09449425f, 0.01415725f, 0.00447703f, -0.07275224f, -0.05913588f, -0.07971229f, -0.13135239f, -0.23194057f, 0.01904793f, -0.05077694f, -0.03575903f, -0.04736284f, -0.02103532f, -0.01035107f, 0.03291745f, 0.07320713f, 0.03573645f, 0.00570958f, 0.01227749f, -0.03065866f, -0.01455446f, -0.03578657f, -0.01139532f, -0.10372994f, -0.04865772f, -0.10685146f, -0.00061642f, 0.05630764f, -0.18344367f, -0.13466623f, -0.08260756f, -0.02291161f, -0.06854425f, -0.11100551f, -0.03561224f, 0.00438959f, -0.05118531f, 0.02294552f, -0.16439843f, -0.00047830f, 0.07926615f, 0.11454624f, -0.21269503f, 0.12195451f, 0.01973644f, 0.05034883f, 0.07939202f, 0.11653013f, 0.02530284f, -0.05798366f, 0.00803835f, 0.03445594f, 0.21610354f, 0.00241434f, 0.03513497f, -0.03514804f, -0.00227703f, 0.02986642f, 0.11687109f, 0.02437564f, 0.04900622f, -0.05865083f, -0.04063962f, -0.00460432f, -0.00292745f, 0.02878452f, -0.11914273f, -0.12312160f, -0.22873101f, -0.18624404f, -0.10134392f, -0.14715251f, -0.25770000f, -0.07090142f, 0.01392417f, 0.03071964f, 0.04837946f, 0.04125625f, -0.04897326f, -0.05192432f, -0.03577800f, -0.05187364f, 0.04522902f, -0.05058141f, -0.06321916f, -0.11473309f, -0.07527547f, -0.03410508f, -0.14302589f, 0.01432829f, 0.02455601f, -0.08294807f, -0.05588960f, -0.10170902f, -0.06491075f, 0.01983061f, 0.00846599f, 0.11653824f, 0.05435992f, -0.04578035f, -0.04556618f, -0.05852477f, 0.05720608f, -0.01615419f, -0.03372217f, -0.02264186f, -0.04343341f, -0.03561990f, -0.01941374f, 0.01941694f, -0.00796853f, -0.03976963f, 0.00547915f, -0.02093425f, 0.02821342f, -0.03285993f, 0.01383273f, -0.05955460f, 0.07198229f, 0.04881046f, -0.03198765f, 0.03406737f, -0.00641437f, -0.02406225f, 0.00189403f, 0.08594135f, 0.05336804f, -0.04523553f, -0.06062564f, -0.03477905f, -0.06306364f, -0.06101635f, 0.01310387f, 0.07202661f, 0.07996213f, -0.04503671f, -0.04096501f, -0.00980754f, -0.27010065f, -0.05529791f, 0.01593606f, -0.40312740f, -0.37211406f, -0.26189527f, -0.02323676f, -0.00957201f, -0.17876637f, -0.13906477f, -0.19832230f, -0.13155954f, -0.05350365f, -0.14846312f, -0.11761217f, -0.03264527f, -0.11388876f, -0.12751074f, -0.10236368f, -0.06230270f, 0.04227706f, -0.02593449f, 0.00861496f, -0.08486078f, 0.03516355f, 0.06227836f, 0.10075026f, 0.04213445f, 0.02187009f, 0.02694970f, 0.02025036f, 0.01687226f, 0.06463550f, -0.03077867f, -0.01334304f, -0.00662347f, 0.03265778f, 0.07324174f, 0.05429694f, 0.09443186f, 0.15958638f, 0.06921235f, 0.06521999f, 0.05377098f, 0.11594075f, 0.04497704f, 0.12192744f, 0.14216980f, 0.12354589f, 0.09109965f, -0.06367674f, -0.16493008f, 0.04767208f, -0.15406068f, 0.17203794f, 0.14308470f, 0.10922561f, 0.12664178f, 0.07919464f, 0.14906985f, -0.00106818f, 0.00303205f, 0.08969764f, 0.13783410f, 0.13688673f, -0.14566192f, -0.08818769f, -0.15153575f, 0.00890994f, -0.01653545f, -0.01123642f, -0.04248996f, -0.07310645f, -0.03310914f, 0.07465140f, 0.15842569f, 0.07780744f, 0.16883850f, 0.12648444f, 0.18549018f, 0.02281610f, 0.10356673f, 0.03821718f, 0.14284818f, 0.02843928f, 0.21725760f, 0.07575417f, 0.10116072f, -0.07868361f, 0.00303700f, 0.01861182f, 0.01210027f, 0.02034125f, 0.03276429f, 0.04598998f, 0.14224817f, -0.00188265f, 0.01718043f, -0.05168644f, -0.07247226f, 0.18149738f, 0.12382186f, 0.10170359f, 0.09142877f, 0.02838131f, -0.00444666f, 0.02280807f, 0.02588030f, 0.02422710f, 0.17511190f, 0.07867297f, 0.01609339f, -0.02930758f, 0.00594217f, -0.02397629f, 0.01738701f, 0.06613380f, -0.00307028f, 0.04762445f, -0.02709190f, 0.02226928f, 0.04887414f, -0.00166364f, 0.08586615f, -0.02807459f, 0.04503108f, 0.10893279f, 0.12943023f, 0.04655756f, -0.01060725f, 0.00535848f, 0.02632971f, -0.07038353f, 0.07364058f, -0.04276139f, -0.06171994f, -0.00393558f, -0.03552847f, 0.15308987f, 0.08956689f, 0.09157389f, 0.00341558f, -0.00063813f, -0.02052745f, 0.15432577f, -0.01094307f, -0.02115749f, -0.06369215f, 0.07421970f, 0.09274844f, -0.12691590f, -0.14636095f, -0.03596171f, -0.05997219f, 0.04002113f, 0.02131063f, -0.07744572f, -0.02035347f, 0.02021972f, -0.02552740f, 0.15500836f, 0.14449005f, 0.15546063f, 0.10721609f, 0.06644730f, 0.03708627f, 0.05895155f, -0.04639259f, 0.01746039f, 0.05446529f, -0.13011724f, -0.12886217f, -0.00279641f, 0.13640121f, 0.10260896f, -0.02810232f, -0.01447701f, 0.08116405f, -0.02565413f, 0.14924784f, 0.06470238f, -0.00470806f, 0.00318132f, -0.00136942f, 0.08832565f, 0.10466612f, 0.05715797f, 0.05116909f, 0.10217509f, 0.12418361f, 0.03432142f, -0.03540133f, 0.07579207f, -0.03075230f, 0.16825992f, -0.02133525f, 0.01370838f, 0.00058975f, -0.01729373f, 0.05805830f, 0.14502896f, 0.04191714f, 0.12343288f, 0.05811609f, 0.07015755f, 0.07939152f, 0.02377485f, 0.03505312f, 0.00512672f, 0.07709948f, 0.11002182f, 0.07598700f, 0.00213967f, 0.03411582f, -0.03414421f, 0.14877102f, 0.07870255f, 0.08707038f, 0.04329564f, 0.07008532f, 0.12853914f, 0.04745921f, 0.06322035f, 0.08322317f, 0.15744936f, -0.11229010f, -0.00300939f, -0.05979827f, 0.02592994f, 0.11573999f, 0.13504124f, -0.00649021f, 0.02505573f, -0.05916135f, 0.05890599f, 0.00111681f, -0.00657384f, 0.07373927f, 0.15834601f, 0.14137357f, -0.04568318f, -0.03976168f, -0.02635207f, -0.11714306f, 0.13269968f, 0.20460106f, 0.11953031f, -0.07314366f, -0.04922751f, -0.00785748f, 0.13768849f, 0.10301688f, -0.02701227f, 0.08678277f, -0.00856979f, 0.08489547f, 0.04784025f, 0.05823683f, 0.04443758f, -0.00180297f, 0.20673491f, 0.09605436f, 0.10328293f, 0.07198193f, 0.06749677f, -0.02836870f, -0.06319277f, 0.06837536f, -0.04212038f, 0.00605157f, 0.04733459f, 0.01104062f, 0.01882835f, 0.05940709f, 0.01695620f, 0.18533142f, 0.05610704f, 0.09243112f, 0.11306491f, 0.18259740f, -0.07335868f, -0.00312935f, -0.07695968f, -0.17874880f, -0.21745206f, -0.10372775f, 0.00285835f, 0.09318781f, 0.00458817f, 0.10529826f, -0.15395315f, -0.07859438f, -0.09457194f, -0.09737270f, -0.11565423f, -0.04305637f, -0.09607921f, -0.07526835f, -0.07388667f, -0.02572118f, 0.10862812f, 0.22362240f, 0.07233715f, 0.18519561f, -0.10331090f, 0.10902253f, -0.08424225f, 0.04079666f, -0.02297214f, -0.08616520f, -0.18792917f, -0.11968018f, 0.03120210f, 0.00084275f, 0.03600948f, 0.01748185f, 0.02694714f, -0.00531077f, -0.01270219f, 0.00263458f, 0.06672650f, -0.02524261f, 0.14931554f, 0.05350060f, 0.15036824f, 0.06636351f, 0.19455743f, 0.12333317f, 0.07868309f, 0.17993954f, -0.32179677f, -0.23669767f, -0.02873748f, -0.03160448f, 0.09423079f, 0.02616681f, 0.03630869f, -0.08102651f, -0.02970283f, -0.07825434f, 0.09560653f, -0.02959056f, 0.13150740f, 0.25996917f, 0.52929342f, 0.04726762f, 0.08701980f, 0.14310582f, 0.06127351f, 0.10585243f, -0.00698534f, -0.06169203f, -0.08857819f, 0.00204457f, -0.10023426f, -0.21380541f, -0.18880101f, 0.01411896f, 0.07346769f, 0.06911229f, 0.04665823f, -0.09370990f, 0.03648317f, 0.14949085f, 0.25734261f, 0.09320323f, 0.11294438f, 0.12022518f, 0.13092905f, 0.05478322f, 0.04128850f, 0.03345802f, 0.00941594f, -0.08862532f, -0.07631636f, 0.02132951f, -0.00910191f, 0.00782025f, -0.02134814f, -0.02293985f, 0.04161181f, 0.10287421f, 0.14686662f, 0.16453888f, 0.13345654f, 0.04376536f, 0.02990364f, -0.00279597f, 0.02165104f, 0.06602541f, -0.06861521f, -0.15850367f, 0.01211299f, 0.11464622f, -0.01512494f, 0.05527934f, -0.02849070f, 0.00500539f, 0.03895549f, 0.03944030f, 0.29568383f, 0.30838290f, 0.09838773f, 0.07117854f, 0.07495567f, -0.04776453f, -0.00648041f, 0.08607081f, 0.09564807f, 0.12187745f, -0.03260545f, -0.06056201f, -0.02453718f, -0.06972773f, -0.05091184f, -0.08419641f, -0.08424150f, 0.00664547f, -0.06279553f, 0.07551509f, -0.56559014f, -0.43279144f, -0.46874699f, -0.36747459f, -0.24391823f, 0.02529346f, -0.01757623f, -0.05572139f, -0.09359957f, -0.09724315f, -0.15956610f, -0.00150409f, -0.02940112f, -0.16887410f, -0.34446454f, -0.08006093f, -0.00617220f, -0.03538582f, -0.06162739f, -0.03963047f, 0.00602827f, 0.01266457f, -0.05490769f, 0.01516161f, -0.01382050f, -0.35795525f, -0.18414240f, -0.26682448f, -0.24783164f, -0.25279707f, 0.17078155f, -0.06309285f, -0.02651906f, -0.06588674f, -0.01346992f, 0.05043196f, 0.20171413f, 0.29870450f, 0.25589156f, 0.26089871f, -0.02151035f, -0.09693298f, 0.06699104f, 0.02330456f, -0.00386182f, -0.16776712f, -0.15177414f, -0.00459626f, 0.03879505f, 0.09877460f, 0.14442669f, -0.01609011f, -0.04613015f, -0.00450444f, -0.02299079f, 0.02148232f, -0.06219773f, -0.01648406f, -0.05162930f, -0.04743411f, 0.08133712f, 0.00744402f, -0.00217044f, -0.03737611f, 0.14627855f, -0.00975587f, -0.11921956f, -0.19108413f, 0.02565055f, -0.08401646f, -0.34967303f, -0.32838100f, -0.11812969f, -0.10208388f, -0.03547229f, -0.09605192f, -0.06375080f, -0.05083790f, 0.11158709f, 0.15977070f, 0.04891204f, 0.00909754f, -0.11424154f, -0.06296727f, 0.01245731f, 0.04898052f, 0.01941938f, 0.01582509f, 0.08304702f, -0.01115236f, 0.07755195f, 0.00382961f, -0.00135805f, 0.01029604f, -0.10139100f, 0.05684042f, 0.00779437f, 0.05617522f, 0.01842120f, 0.05791228f, 0.19525200f, 0.07764619f, -0.00670885f, 0.07123645f, -0.05059907f, 0.05224895f, 0.08085080f, 0.04792403f, 0.09096508f, 0.04388461f, -0.00690388f, -0.15355678f, -0.12291678f, -0.06423165f, 0.05431584f, -0.00663972f, -0.00166472f, -0.00198550f, 0.03668154f, 0.02092138f, 0.18180889f, 0.05726139f, -0.00058751f, -0.12967360f, -0.12899655f, 0.02529376f, -0.04406198f, -0.09850099f, -0.05445326f, -0.06941311f, 0.09094036f, -0.11527505f, -0.12294619f, 0.02423558f, 0.11198728f, 0.21397111f, 0.13324259f, 0.05239326f, 0.10686356f, 0.14507470f, 0.08029351f, 0.08787220f, 0.03251502f, 0.04580738f, 0.07805360f, 0.16316862f, -0.01290086f, -0.04797768f, -0.05907233f, -0.00288588f, 0.05210939f, 0.04000586f, 0.03509957f, 0.02153577f, 0.06168236f, -0.06258017f, 0.08770880f, -0.00705060f, -0.00686517f, -0.00805688f, 0.01875778f, 0.08315056f, 0.07274303f, 0.05901453f, -0.05543923f, 0.04706784f, 0.01678131f, -0.00772927f, 0.03198682f, 0.11071137f, 0.09750378f, 0.03043419f, -0.05212888f, -0.04358142f, -0.10685807f, -0.03092114f, 0.00682810f, 0.03793029f, 0.01588459f, 0.01852750f, 0.05074828f, 0.04264858f, -0.04354643f, 0.03708584f, -0.04426090f, 0.09896513f, 0.09604218f, 0.05953841f, 0.15487503f, 0.05230087f, -0.04387357f, 0.07943550f, 0.04396077f, -0.02248245f, -0.00302025f, -0.01397385f, 0.10867824f, 0.08916184f, 0.07910522f, 0.05818129f, 0.19815125f, 0.12416299f, 0.02080047f, -0.03838716f, 0.05748697f, 0.07922184f, 0.02572953f, 0.03470419f, 0.02350766f, 0.05401177f, -0.08347892f, -0.22964643f, -0.20969501f, -0.24164113f, -0.21579678f, -0.03685011f, 0.02108271f, 0.03632739f, -0.03575072f, 0.08896000f, 0.07861689f, -0.02384141f, 0.06718499f, 0.04277714f, -0.02370689f, 0.23686704f, 0.06065486f, 0.07830347f, -0.00839797f, -0.00528341f, -0.06767806f, -0.11805641f, -0.04598225f, -0.03021792f, 0.03473578f, 0.05508420f, 0.06678742f, -0.03913134f, -0.01435272f, 0.13292676f, 0.02952431f, 0.06367970f, 0.03984926f, 0.10819499f, 0.01550826f, 0.04931178f, 0.12015457f, 0.05727015f, 0.14508276f, 0.12985142f, -0.01567670f, 0.06100732f, 0.00504950f, 0.00706134f, 0.00810860f, 0.11661073f, 0.06373526f, 0.08415639f, 0.08316722f, -0.05633277f, -0.04606571f, 0.07258440f, 0.01660043f, 0.11972041f, 0.11453238f, -0.00636445f, -0.04857276f, 0.05337208f, 0.06760473f, 0.09712979f, 0.09404468f, 0.00050245f, -0.07074700f, -0.00842480f, 0.02720600f, 0.07557137f, -0.00574995f, 0.02170590f, -0.01808751f, -0.03171577f, 0.07641785f, 0.02861634f, -0.00142544f, 0.00360931f, 0.11837424f, -0.02521151f, 0.00285148f, -0.05430729f, -0.00116996f, 0.06315000f, 0.13744113f, 0.02126690f, -0.05778544f, -0.15687990f, -0.01741342f, 0.06643982f, 0.01537715f, 0.05108564f, -0.04444301f, 0.07264657f, -0.08033320f, -0.03865004f, -0.02755062f, -0.02175812f, 0.17968890f, 0.23728730f, -0.01644450f, -0.01417069f, -0.01978749f, -0.00878990f, 0.05932493f, -0.03580379f, -0.02005547f, 0.04611015f, 0.01511243f, 0.02835479f, -0.06185545f, -0.07585693f, 0.01672075f, 0.01200649f, 0.03478630f, 0.12046700f, -0.06667667f, -0.10408817f, 0.01279102f, -0.25606227f, -0.26542476f, -0.21129911f, -0.10845483f, -0.07327849f, -0.01356451f, -0.12328774f, -0.06986081f, -0.01793829f, -0.24820101f, -0.00315965f, 0.01966727f, -0.03124049f, -0.04112079f, 0.06145824f, 0.05896604f, 0.04222850f, 0.04328893f, -0.00715532f, -0.12005272f, -0.24691920f, -0.22675879f, -0.15799344f, -0.23506890f, -0.46561038f, -0.02187955f, -0.05617740f, 0.02169083f, 0.06823753f, -0.05342554f, -0.19688933f, -0.11534882f, -0.05539880f, 0.01636736f, 0.06538939f, -0.01818826f, -0.01743465f, -0.09658181f, -0.09375540f, -0.11137044f, -0.04454193f, -0.03470844f, 0.02886301f, -0.05663418f, -0.01073908f, -0.04066667f, -0.04091120f, -0.09111092f, -0.10529941f, 0.02297591f, 0.03539344f, 0.03929828f, -0.02672873f, 0.00203248f, 0.12232376f, 0.04520082f, -0.03188021f, 0.03825376f, -0.05558234f, -0.00737814f, 0.12887534f, 0.00058144f, 0.01083194f, 0.05839840f, 0.07969870f, 0.05668496f, -0.04789234f, -0.02910831f, -0.03432697f, -0.04999102f, -0.03503130f, -0.11054398f, 0.02240775f, 0.06501915f, -0.04968875f, 0.11380649f, 0.01517072f, 0.00460974f, 0.00452815f, -0.07626879f, -0.00050862f, 0.02639197f, 0.02096016f, -0.00416287f, 0.07281678f, -0.05169326f, -0.01353026f, 0.05336459f, -0.03619237f, -0.32828996f, -0.08363351f, -0.08417853f, -0.10797634f, 0.03255763f, 0.01754631f, -0.02527902f, 0.04893233f, -0.02228158f, 0.02400980f, -0.04395078f, -0.20291789f, -0.18961215f, -0.12136054f, -0.23558894f, -0.27398172f, 0.06339043f, 0.00133289f, -0.07264724f, -0.19571218f, -0.17982861f, -0.08302237f, 0.02630345f, -0.01447799f, 0.03626824f, 0.03981101f, 0.03272376f, 0.05377933f, 0.07786941f, 0.02631945f, -0.06971310f, -0.06671481f, -0.00186395f, 0.01525087f, -0.00276065f, -0.03353304f, -0.42137888f, -0.38754386f, -0.20727323f, -0.09334667f, -0.29758644f, 0.02564608f, -0.07831699f, 0.02248693f, 0.06164983f, -0.07707980f, -0.03270821f, -0.03129749f, 0.00891293f, 0.08075617f, 0.05466769f, 0.06234707f, 0.06830519f, 0.07979607f, -0.05787917f, -0.07045162f, 0.14349110f, 0.06278932f, -0.03415014f, 0.00633275f, 0.12710464f, -0.31900027f, -0.23716140f, -0.01603064f, -0.04878419f, -0.18096967f, 0.06522138f, 0.04120066f, 0.04787241f, 0.05085491f, 0.00324840f, -0.07863071f, -0.07798380f, 0.05245041f, -0.01008444f, -0.08687193f, -0.00258279f, 0.07258138f, 0.00051558f, -0.01508135f, 0.00148372f, -0.14220728f, -0.11036483f, -0.11015926f, -0.20503972f, -0.45160851f, -0.13501276f, -0.12602855f, 0.01449157f, -0.04978207f, -0.15004002f, 0.08595320f, 0.02519822f, 0.09341701f, 0.02427253f, -0.00891769f, -0.01021309f, -0.02229821f, 0.02736820f, 0.10770675f, 0.03272588f, 0.03614451f, -0.03782174f, -0.04836063f, -0.01775756f, -0.03550652f, -0.31894475f, -0.18294294f, -0.07731510f, -0.06907055f, -0.04146056f, -0.08207107f, -0.09222096f, -0.10215986f, -0.07392146f, 0.04910886f, -0.04059016f, -0.08168012f, -0.01712169f, 0.02649512f, 0.07153047f, -0.16908820f, -0.09017004f, 0.11360092f, 0.01175095f, 0.03475413f, -0.01660225f, 0.01112688f, -0.00185196f, -0.00868931f, 0.11229627f, 0.07516818f, -0.00900127f, 0.01668324f, 0.08456799f, -0.02199563f, -0.00526472f, 0.05425813f, -0.02891684f, -0.01978554f, -0.05704604f, -0.07987665f, -0.00724028f, -0.00950332f, -0.08631327f, -0.03744456f, -0.17773648f, -0.12498648f, -0.05227302f, -0.05315151f, 0.06070575f, 0.16869827f, 0.18268897f, 0.09673522f, -0.05188935f, -0.04870485f, -0.00982222f, -0.05521029f, 0.03478272f, 0.02169863f, 0.00266917f, 0.02807261f, 0.02071916f, -0.06324936f, 0.00610407f, -0.05383483f, 0.00090423f, -0.01690254f, 0.08886714f, -0.04294983f, -0.08267061f, -0.16067751f, 0.04140144f, 0.03581502f, -0.06771782f, -0.01614097f, 0.13813640f, -0.12827750f, -0.03585029f, -0.08408782f, -0.03619001f, 0.19444720f, 0.04647926f, 0.05252350f, -0.08329521f, -0.04423917f, 0.02955719f, 0.05779239f, 0.00448990f, -0.09495986f, -0.23021288f, -0.16550803f, 0.10046553f, 0.01305983f, 0.01461395f, -0.14343643f, 0.11027566f, 0.07981129f, 0.00206551f, 0.01676321f, -0.17783840f, -0.40392080f, -0.19151017f, 0.05563740f, -0.01136764f, -0.13642792f, 0.00447206f, -0.01255800f, -0.02048287f, -0.05172622f, -0.05626840f, 0.11708954f, 0.03138585f, 0.07002176f, -0.01652957f, -0.14418866f, 0.08584033f, 0.06710442f, -0.02470798f, -0.00976399f, 0.04770273f, 0.03994661f, 0.03404855f, 0.02929088f, 0.09996297f, 0.01631410f, 0.12725040f, 0.08730823f, -0.07443984f, -0.01716601f, -0.10075325f, -0.50330800f, -0.32752809f, -0.32367927f, -0.30540815f, -0.28030095f, 0.00805717f, 0.05803368f, 0.09782121f, 0.08567899f, -0.01020036f, 0.10343777f, -0.03090916f, -0.02155339f, 0.05921186f, -0.07633764f, 0.03217699f, -0.02947752f, -0.06397224f, 0.07579195f, 0.05960323f, 0.12869094f, 0.07517980f, -0.01542652f, 0.02440671f, -0.03401486f, 0.26539642f, 0.05414438f, -0.04712885f, 0.08221272f, 0.11983342f, -0.18157662f, -0.01987150f, 0.05180501f, -0.02367072f, 0.04462652f, 0.08996469f, 0.02909545f, -0.04464694f, -0.01462274f, -0.22703576f, 0.00139988f, 0.02561822f, -0.01884093f, 0.00281319f, 0.01201655f, -0.19664189f, 0.08592837f, 0.05395020f, -0.04359596f, -0.26540506f, -0.09774482f, 0.01251422f, 0.01721231f, 0.10201041f, 0.10862522f, -0.00777958f, 0.02524761f, 0.05351878f, -0.03228187f, 0.00412722f, 0.11840502f, 0.01143861f, 0.02376531f, 0.00490664f, -0.22671889f, 0.12502480f, 0.13483813f, -0.02776721f, -0.07824392f, -0.25369596f, -0.03136833f, -0.08197099f, -0.00305325f, -0.05339543f, -0.06160036f, 0.11587453f, 0.05170594f, 0.01250603f, -0.00169227f, 0.00953593f, -0.08455064f, -0.03039879f, 0.01195102f, 0.13811056f, 0.05505743f, 0.03029114f, -0.03190239f, -0.01746500f, -0.11053614f, -0.13334969f, -0.05289179f, -0.11349307f, -0.04748490f, 0.00816672f, 0.01878281f, 0.08108917f, 0.02651422f, 0.00317409f, -0.08035757f, 0.00191746f, 0.10372653f, 0.09668602f, 0.00277052f, 0.05574662f, -0.01163655f, 0.21215384f, 0.06116272f, -0.03879269f, -0.04969558f, -0.12750454f, 0.06408224f, -0.03136725f, -0.01798877f, 0.00999610f, 0.01128812f, -0.09394916f, 0.22920758f, 0.04958720f, -0.05925488f, -0.22884193f, -0.01682970f, 0.01908467f, -0.00013195f, -0.00491270f, 0.05189739f, -0.12956148f, 0.12086734f, 0.05580867f, -0.14478207f, -0.08366535f, -0.09769897f, -0.12073099f, 0.02146376f, 0.00572481f, -0.03560794f, 0.00086035f, -0.17968521f, 0.02215879f, 0.05580522f, -0.19615932f, 0.16898282f, -0.02517542f, -0.04851281f, 0.04762960f, -0.14590210f, 0.13495480f, 0.05214098f, -0.01718350f, -0.11276485f, -0.08854607f, -0.04949199f, 0.04221885f, -0.05340441f, 0.01684732f, -0.07439112f, -0.17963579f, -0.05675865f, -0.04489464f, -0.24399129f, -0.16825548f, -0.02106104f, -0.04006001f, 0.00847849f, -0.03229598f, -0.08117896f, 0.04955552f, 0.05105490f, 0.04987648f, 0.02983107f, 0.05920883f, -0.02609269f, -0.02089642f, -0.06105280f, -0.04715534f, 0.00336852f, -0.19537868f, -0.06873507f, -0.11260971f, -0.06693406f, -0.07470626f, -0.03244043f, -0.00621912f, -0.05959168f, 0.02012446f, -0.04596741f, 0.07445939f, 0.06412286f, -0.14982082f, 0.14265124f, -0.25074458f, 0.02318627f, 0.08000148f, 0.06800218f, 0.09138753f, -0.00102755f, -0.01642192f, 0.01400914f, 0.00252294f, 0.00899781f, -0.06191035f, -0.01760988f, -0.00736914f, -0.04337468f, -0.01587730f, -0.01865368f, 0.07311634f, -0.00754582f, 0.08377275f, 0.16349287f, -0.12899409f, 0.22440976f, 0.05246650f, 0.08148110f, 0.07677402f, -0.12436375f, 0.03749359f, 0.03894377f, 0.04716611f, 0.03853846f, -0.07873444f, 0.02119500f, -0.04077356f, 0.03548005f, -0.11114633f, -0.01629687f, 0.05737565f, 0.07005136f, -0.05492012f, -0.10267641f, -0.14516725f, -0.02078642f, -0.08539958f, -0.01480222f, -0.06113267f, 0.00417834f, -0.03847690f, 0.05358112f, -0.02343833f, -0.02037343f, 0.02558003f, -0.04751424f, 0.00576920f, -0.01253695f, -0.08038010f, -0.11106485f, -0.08208481f, -0.00455528f, -0.05066781f, 0.01769961f, 0.07739624f, 0.14580756f, -0.08075856f, 0.00609166f, -0.06407672f, -0.08022797f, 0.02637189f, 0.01817682f, 0.00746453f, 0.02041066f, -0.06701783f, -0.03744784f, -0.02346170f, 0.03538137f, -0.06659146f, 0.02598345f, 0.07233751f, 0.02461767f, 0.09877495f, 0.09875171f, 0.09042799f, -0.04905488f, 0.09974303f, -0.02164357f, 0.14194144f, -0.01197200f, 0.03073036f, 0.02896381f, 0.03064482f, 0.02185990f, -0.10652743f, 0.03966139f, -0.03636607f, -0.07521285f, -0.08579608f, -0.07603984f, -0.00332452f, 0.04608523f, 0.03672832f, 0.06437131f, 0.14191628f, -0.13295342f, -0.09711801f, -0.14833136f, -0.07078205f, -0.07213493f, -0.04352313f, 0.06562078f, -0.04492281f, 0.00497425f, 0.01420132f, 0.03485657f, 0.06503689f, -0.05251551f, -0.01149412f, -0.09301234f, -0.16844435f, -0.26611543f, -0.19976771f, -0.32902196f, -0.64727825f, 0.00581937f, 0.00936158f, -0.04216186f, -0.05698589f, -0.02710216f, 0.13149576f, 0.05872905f, 0.00615128f, 0.04781743f, 0.00672199f, -0.41433758f, -0.57520467f, -0.71450591f, -0.77775085f, -0.85474283f, 0.09166802f, 0.08791304f, 0.00409752f, 0.07096856f, -0.10658092f, 0.04020005f, 0.06113063f, 0.01745381f, 0.02610580f, 0.06414275f, -0.03947774f, -0.03225440f, -0.03272470f, -0.05441592f, 0.01822711f, 0.06829984f, 0.03717860f, 0.01306236f, -0.02571617f, 0.01510820f, 0.07864551f, 0.07169303f, 0.01738546f, 0.05715506f, 0.06669189f, 0.02837728f, -0.00979597f, 0.07176373f, -0.03895761f, -0.02490620f, -0.02824572f, -0.03448825f, -0.08916377f, 0.00538520f, -0.09711802f, 0.13174579f, 0.11389218f, 0.05340200f, 0.04992213f, -0.02991210f, -0.07173496f, -0.00392437f, -0.07296495f, 0.06709581f, -0.01113921f, -0.02055280f, 0.04075113f, 0.09881175f, 0.01001543f, -0.01356626f, -0.04359644f, -0.05534525f, -0.00979279f, -0.00187083f, -0.05763138f, -0.03064536f, 0.04020029f, 0.05037102f, -0.01081918f, -0.00700560f, 0.08074483f, 0.01865208f, 0.11516237f, 0.04024889f, 0.02805412f, 0.06046787f, 0.05826364f, 0.07384494f, -0.01255825f, -0.10816129f, -0.07455496f, -0.03120529f, -0.04989149f, 0.02284465f, 0.02166948f, 0.07405920f, 0.09529132f, 0.08314558f, -0.03996095f, -0.05081789f, 0.00920067f, -0.02228150f, 0.06982821f, -0.02951622f, 0.06617522f, -0.09369203f, -0.07083213f, -0.01053939f, -0.03383158f, -0.07792678f, -0.08281637f, -0.07434428f, -0.00725284f, -0.04243003f, -0.06512700f, -0.06746807f, 0.03650412f, -0.02157991f, -0.01448212f, 0.07819429f, -0.05809458f, -0.10087878f, -0.03016144f, 0.09162162f, 0.07920028f, 0.19567573f, 0.14455637f, 0.03827357f, 0.04817115f, -0.04090423f, -0.20142813f, -0.04684939f, 0.10697866f, 0.08101019f, -0.11644674f, 0.00417355f, 0.00043788f, -0.07870195f, -0.06821851f, -0.06627765f, -0.22187835f, -0.20544840f, 0.05167579f, -0.00420805f, -0.22114831f, 0.09096004f, -0.03134607f, -0.07110263f, -0.09954996f, -0.01302883f, -0.04748586f, -0.02289062f, 0.06212031f, 0.00058149f, -0.01647915f, -0.49842966f, -0.48038879f, -0.12468117f, -0.01192855f, -0.12745997f, 0.03840572f, 0.00296512f, 0.09265649f, 0.05356172f, -0.02114760f, -0.06964523f, -0.16157745f, -0.02071603f, -0.07174835f, -0.06041095f, -0.23248917f, -0.18080449f, -0.12968536f, -0.08128074f, -0.08339252f, 0.02602280f, -0.02592577f, -0.07636636f, -0.11604333f, -0.12134869f, -0.03692920f, 0.04177917f, 0.00341227f, -0.01498744f, -0.01788007f, -0.24376196f, -0.08844902f, 0.01704764f, 0.02950570f, -0.17809829f, -0.02339072f, -0.00917547f, -0.00011939f, 0.02931150f, -0.03351970f, 0.05982577f, -0.00525073f, -0.02206555f, 0.05696793f, 0.06613136f, 0.06987533f, 0.01603022f, 0.02346262f, -0.00381748f, 0.02587455f, -0.04249329f, -0.03908447f, 0.00963364f, 0.01005382f, -0.02840306f, -0.37724745f, -0.28309411f, 0.01124281f, 0.05267086f, 0.05447294f, 0.06284142f, 0.02058011f, 0.10933018f, 0.07074497f, -0.09036908f, -0.08929053f, -0.01586483f, -0.01137642f, 0.13223872f, -0.00592572f, 0.03320703f, -0.00701927f, -0.05587165f, 0.00377803f, -0.06817935f, -0.18506452f, -0.02136086f, -0.06255959f, -0.13363382f, -0.19378975f, 0.11895037f, 0.05691335f, 0.15912716f, 0.04609482f, 0.10674366f, -0.04485011f, -0.04982954f, -0.05579654f, -0.07180529f, -0.14286177f, -0.10083171f, -0.07486850f, 0.02787652f, -0.00009015f, -0.03653761f, 0.08036755f, -0.00225599f, 0.05492230f, 0.09486251f, 0.08126114f, 0.06470585f, 0.03751212f, 0.03016786f, -0.08137801f, -0.11167789f, 0.02588110f, -0.03216740f, -0.00439460f, -0.06000960f, -0.00056402f, -0.05622112f, -0.10486332f, -0.03042356f, -0.03668005f, -0.00493482f, 0.03835138f, -0.05575645f, 0.02017582f, -0.00346476f, -0.02127158f, 0.08027954f, -0.01384080f, -0.03409350f, 0.02654461f, -0.03411205f, -0.25480774f, -0.03974508f, 0.10216207f, -0.02893714f, -0.13967660f, -0.17778970f, -0.09755198f, -0.09344810f, -0.01318831f, -0.03214760f, -0.02074403f, -0.06054597f, -0.00791699f, 0.00045235f, 0.00097255f, -0.11481973f, 0.07704530f, 0.07022274f, 0.04343869f, -0.07094898f, 0.11013672f, 0.07144950f, -0.00660247f, -0.04333838f, -0.04017873f, -0.02911006f, 0.00510298f, 0.01228569f, -0.02253126f, -0.00318798f, -0.27858075f, -0.09279216f, -0.18554747f, -0.18289125f, 0.21130773f, 0.01725914f, 0.13040778f, 0.11898246f, 0.07236096f, -0.01373388f, 0.12514208f, 0.10003431f, 0.12129097f, 0.03406317f, 0.03338895f, -0.05001706f, -0.01119514f, -0.05046694f, 0.01930203f, 0.01881490f, 0.13007784f, 0.10192322f, 0.02115830f, -0.03771434f, 0.07196970f, -0.05025810f, -0.03002342f, -0.05939074f, 0.01348449f, -0.03639917f, -0.06425550f, 0.05489548f, 0.04099794f, 0.05221651f, 0.06014426f, -0.03048121f, -0.03181144f, -0.08012214f, 0.00614326f, -0.03750228f, -0.09443326f, -0.08765043f, -0.03700793f, -0.07521445f, -0.19093886f, -0.05498231f, -0.05582969f, -0.06790125f, -0.09119694f, 0.01229391f, -0.01352604f, -0.07514176f, 0.00335275f, -0.06165525f, -0.00692830f, -0.00232962f, -0.03294404f, 0.02595524f, -0.04186220f, -0.02901203f, -0.18864211f, -0.15970926f, -0.12352660f, -0.07931264f, -0.28676564f, -0.09518787f, -0.00882013f, -0.00756504f, -0.02173547f, -0.05250131f, 0.02766394f, 0.05837871f, -0.04846407f, -0.08598547f, 0.08757560f, -0.49462810f, -0.44902262f, -0.24106364f, -0.11078283f, -0.05368424f, 0.00579757f, -0.03085761f, -0.08051933f, -0.04325501f, 0.06094584f, 0.03664662f, -0.03955504f, 0.01263007f, -0.04655138f, -0.07226358f, -0.06804040f, -0.01915760f, -0.02917366f, -0.07997059f, -0.05840150f, -0.06991210f, -0.08396339f, 0.06117365f, 0.01327563f, -0.01441565f, -0.05130694f, -0.06691864f, -0.02641070f, -0.01155269f, -0.07168328f, -0.17402278f, -0.00627568f, 0.04847636f, 0.04656763f, 0.04552971f, -0.02473731f, -0.00830024f, -0.02221470f, -0.11538664f, -0.14671709f, 0.05517388f, 0.01371930f, -0.03245810f, 0.03584236f, 0.11501767f, -0.07185014f, -0.00792332f, -0.03442239f, -0.04652171f, -0.02740396f, -0.13533559f, -0.12729071f, -0.05700105f, 0.00434341f, -0.03166500f, -0.04898479f, -0.05495029f, -0.00351984f, 0.03520668f, 0.05565258f, -0.06810203f, 0.01050170f, -0.04139991f, -0.02853936f, -0.07643498f, -0.09936634f, -0.16665088f, -0.04244570f, -0.12710372f, -0.17656749f, -0.01245172f, -0.00167099f, -0.02789586f, -0.01906587f, -0.03014372f, -0.04547002f, 0.03380492f, 0.00218682f, -0.00431705f, -0.14489655f, -0.08793323f, -0.05771406f, -0.07498768f, -0.06477104f, 0.00387426f, -0.07649547f, -0.09551764f, -0.13341069f, -0.04661788f, -0.06478373f, 0.04968664f, 0.11513792f, 0.13056503f, 0.06759127f, -0.08397032f, 0.11853745f, 0.09411715f, -0.06529477f, -0.04653884f, 0.05000447f, -0.04693676f, -0.06948073f, -0.01723320f, 0.00310033f, -0.20233144f, -0.03542398f, -0.08047554f, -0.05665492f, -0.04409005f, -0.07697766f, -0.27264592f, -0.13881065f, 0.02495611f, 0.00406130f, -0.04371614f, 0.04745008f, -0.00161365f, -0.03439084f, -0.05995806f, -0.11966677f, -0.12987770f, -0.11013693f, -0.06506484f, -0.05957426f, -0.13626806f, -0.02591243f, 0.02526711f, 0.00266757f, -0.06591881f, -0.03494606f, -0.00230520f, -0.07329045f, -0.03065822f, -0.03222524f, -0.09078059f, 0.06247321f, -0.02653433f, 0.05201690f, 0.00728485f, -0.03053876f, 0.02220894f, -0.09766726f, -0.02781476f, -0.11951227f, -0.08458241f, 0.01597232f, 0.01174236f, -0.00498251f, -0.00215356f, -0.00810038f, 0.08410684f, -0.01661119f, -0.04609247f, 0.04016431f, 0.07216451f, -0.31995073f, -0.08439745f, 0.02339231f, 0.12323615f, -0.00272541f, -0.01664692f, -0.02928880f, -0.00348936f, -0.04221975f, 0.03331773f, -0.06194752f, -0.07296879f, -0.03509646f, 0.07822748f, 0.13139611f, 0.05749677f, -0.01855891f, 0.04678030f, 0.01743541f, 0.03994490f, 0.08370610f, 0.04355272f, 0.06711088f, -0.06342334f, -0.05736784f, -0.22839585f, -0.19536616f, -0.06524325f, -0.02289238f, -0.02283081f, -0.13280955f, 0.03244586f, 0.03019694f, 0.00722515f, 0.08885029f, 0.08865310f, 0.09490660f, 0.08270185f, 0.13514458f, 0.15765576f, -0.00273408f, 0.04453471f, -0.01234336f, 0.08477183f, 0.11407536f, -0.00200658f, 0.02995229f, 0.00221938f, 0.01052720f, 0.06731863f, -0.20603906f, -0.07512420f, -0.02906443f, -0.02095719f, 0.09996475f, 0.13767971f, 0.01351085f, 0.08226704f, 0.04322574f, 0.16224998f, -0.04566637f, 0.02462246f, 0.00557086f, -0.01548443f, -0.05889463f, 0.11959986f, 0.06230900f, 0.07563611f, 0.06183472f, 0.09364920f, -0.11343344f, -0.08248155f, -0.02651775f, 0.02506937f, 0.09032734f, 0.00762827f, -0.04083273f, -0.01732356f, -0.03470028f, -0.00111823f, -0.16155839f, -0.03415535f, 0.03462554f, -0.00562802f, 0.06252447f, 0.05752083f, -0.13259031f, -0.11007306f, -0.18525836f, -0.40307707f, 0.03510360f, 0.09143003f, 0.11649563f, 0.10364216f, 0.00303635f, -0.07413040f, 0.10662283f, 0.03745749f, 0.11947205f, 0.05434240f, 0.05190373f, 0.09418970f, 0.09571479f, 0.04689200f, 0.13160983f, -0.12230571f, -0.01947064f, -0.05657918f, 0.04668988f, -0.05122789f, 0.06803246f, 0.01432057f, 0.03101278f, 0.02420371f, 0.05687400f, 0.00235416f, -0.02331827f, 0.04397805f, -0.10431693f, -0.14240594f, -0.00145065f, -0.02772511f, 0.05782529f, 0.01706265f, 0.12153331f, 0.05461095f, 0.06518304f, -0.00726465f, 0.06902694f, -0.02462528f, 0.03786653f, 0.09149688f, 0.04007826f, 0.07202591f, 0.02219033f, 0.12507935f, 0.12032098f, 0.13047576f, 0.15090989f, 0.17260228f, 0.04270669f, 0.02450519f, 0.06802564f, 0.07980543f, 0.01366396f, 0.06467196f, 0.01617942f, -0.00262671f, 0.17648156f, 0.00998004f, 0.09863508f, -0.01517473f, -0.13223638f, -0.09088214f, 0.01228858f, 0.13929471f, 0.02014916f, 0.04330934f, 0.09352741f, 0.03694775f, -0.01558210f, -0.00263693f, -0.08108144f, -0.03862661f, 0.03896694f, 0.10402893f, -0.01872757f, 0.12423335f, 0.09542059f, 0.14244604f, 0.08754856f, 0.01133415f, 0.00383270f, -0.02925140f, 0.03981161f, 0.03465546f, 0.03798795f, -0.01026601f, 0.01125582f, 0.02754125f, -0.04883039f, -0.07097314f, -0.06793113f, -0.04909083f, -0.11354627f, 0.07532530f, 0.10650054f, 0.02796201f, 0.04566410f, 0.15221840f, 0.06271878f, 0.12721458f, 0.02155104f, 0.02822574f, 0.12128175f, 0.10080703f, 0.00300640f, 0.11276438f, 0.07271641f, 0.01649147f, 0.04138651f, 0.05764943f, -0.02132562f, 0.11886986f, 0.04463946f, 0.08931065f, 0.08418788f, 0.04557185f, 0.16200566f, 0.07823036f, 0.04675939f, 0.03050091f, 0.10106085f, 0.07556414f, 0.08670289f, 0.07487375f, 0.12061417f, 0.07988973f, 0.11412209f, 0.10002203f, 0.05088473f, 0.08657371f, 0.06008672f, -0.03030211f, 0.04257858f, -0.00685220f, 0.04678208f, 0.00908583f, 0.05395991f, -0.03443755f, 0.02083526f, 0.03628198f, 0.03053667f, 0.00805264f, 0.04360845f, 0.05634569f, 0.06455619f, -0.00346299f, 0.06785500f, 0.02306147f, 0.10891349f, 0.04390407f, -0.01380897f, -0.06551126f, -0.02665060f, 0.07162543f, 0.09560271f, 0.00526178f, -0.01467545f, -0.00928732f, -0.16873285f, -0.08111200f, 0.03901858f, 0.07730054f, -0.09649932f, 0.03631321f, 0.02306481f, -0.01354169f, -0.08419906f, -0.01315148f, 0.10190383f, 0.10489772f, -0.01114728f, 0.08357381f, 0.07355592f, -0.02248052f, 0.09457646f, 0.05929564f, 0.09071510f, 0.09899432f, 0.18242826f, 0.04222734f, -0.07201774f, 0.01054351f, -0.03088878f, -0.00419378f, -0.04321207f, 0.00917418f, 0.10687259f, 0.05296130f, 0.12187446f, 0.05427878f, 0.00487264f, 0.05654923f, 0.01063854f, -0.01588620f, 0.04373259f, 0.08067691f, 0.00083386f, 0.01590568f, 0.15111394f, 0.07236402f, -0.06157521f, -0.10271454f, -0.13623869f, -0.00872078f, 0.10059353f, 0.09664918f, 0.12233311f, 0.05076392f, 0.06881275f, -0.23909977f, -0.04943479f, -0.23420125f, -0.05416382f, 0.07921321f, 0.02901420f, 0.04362772f, 0.02755684f, 0.07599927f, 0.15171660f, -0.00916055f, 0.01263663f, 0.02315740f, 0.09210141f, -0.20168564f, -0.07996982f, -0.04375176f, -0.10068300f, -0.18758872f, 0.03464605f, -0.05208265f, -0.05563122f, 0.08042938f, 0.00955515f, 0.09568601f, 0.07019734f, -0.01749288f, 0.05281749f, 0.09062003f, -0.03972524f, 0.02083510f, 0.04395147f, 0.12022009f, 0.09134600f, -0.01103158f, 0.05916329f, 0.06027413f, -0.04238145f, 0.04269183f, 0.04769392f, 0.08691808f, 0.02995162f, 0.14378017f, 0.11903097f, 0.13219185f, 0.18948059f, 0.04789158f, -0.05597261f, -0.08770699f, 0.04942882f, 0.02478128f, 0.00390547f, -0.04477900f, -0.06419041f, 0.09149411f, 0.09508505f, 0.00098961f, 0.03821247f, 0.07245624f, 0.05046864f, 0.12216821f, 0.02940981f, 0.01022314f, 0.03911185f, -0.00428581f, 0.04170462f, 0.07773018f, 0.10791698f, 0.09291675f, 0.04309204f, 0.05120040f, 0.00674988f, 0.00314265f, 0.09611260f, 0.02466023f, -0.00139735f, 0.10264118f, 0.06438519f, 0.15222593f, 0.04594663f, 0.04909485f, -0.00962149f, 0.01397782f, 0.03524574f, 0.15083537f, 0.10590427f, 0.01556017f, 0.08806129f, 0.09622718f, 0.06928547f, 0.13536327f, 0.03465634f, -0.04603578f, 0.08908661f, 0.03210822f, 0.03394724f, 0.07113414f, 0.13996901f, 0.21580257f, -0.29241699f, -0.06067114f, 0.03492748f, 0.02590861f, 0.04863366f, 0.00907208f, 0.06518713f, 0.06869797f, 0.06293127f, 0.15439457f, 0.07788141f, 0.01783524f, -0.01290342f, 0.02668605f, 0.05351806f, 0.16682044f, 0.04607302f, 0.00629216f, 0.02016615f, 0.07847171f, 0.11513042f, -0.02611611f, 0.00257855f, -0.03768487f, 0.09579430f, 0.02565666f, 0.03800678f, 0.10418618f, 0.03175739f, 0.00477424f, 0.00887578f, 0.03721134f, 0.08291779f, 0.09593976f, 0.05790110f, 0.07085573f, 0.15858388f, 0.07293373f, 0.13415155f, 0.05229662f, -0.08767472f, -0.02054693f, -0.01979688f, 0.01564899f, 0.06128268f, 0.17524388f, 0.17155349f, 0.05261989f, 0.04960723f, 0.15599293f, 0.06952278f, 0.00398660f, 0.10851488f, 0.05550840f, 0.02598753f, -0.01605072f, -0.02703474f, 0.06766655f, -0.00966533f, 0.03056447f, 0.14245917f, -0.04590562f, 0.03070865f, -0.01041878f, -0.01956860f, 0.03733286f, -0.00425916f, 0.04000258f, 0.03125833f, -0.01397003f, -0.08257036f, -0.06370267f, -0.00813755f, 0.00189012f, -0.03680434f, -0.00740974f, 0.05315670f, 0.08589690f, 0.09022789f, 0.17008716f, -0.15696205f, -0.01390821f, -0.07214220f, -0.01863711f, -0.10789949f, -0.00817522f, -0.00553192f, 0.01570090f, 0.02041452f, 0.12033608f, -0.01711740f, -0.10468251f, -0.09667972f, -0.13525775f, -0.23643567f, 0.12977009f, -0.02794165f, -0.05610729f, 0.00072094f, -0.04608104f, 0.02774045f, 0.05247330f, 0.05612661f, -0.03592777f, -0.06354844f, 0.01098584f, 0.01358498f, -0.00932661f, -0.03205486f, 0.03025051f, -0.05057602f, -0.00047001f, 0.08692764f, 0.10487631f, 0.02382734f, -0.06159083f, -0.00486823f, -0.00691476f, -0.00086884f, -0.02170932f, -0.03856553f, -0.09408027f, 0.01557201f, -0.02478625f, -0.06418777f, -0.12422053f, -0.18697335f, -0.14837392f, -0.21342739f, -0.30520448f, 0.05935657f, 0.07035244f, -0.00392301f, -0.00331650f, 0.01495046f, -0.05432718f, -0.07143902f, -0.01102130f, -0.02487982f, -0.09775607f, -0.04854563f, -0.05065685f, 0.02837829f, 0.01022425f, 0.10933483f, 0.06337524f, -0.00833488f, -0.04670894f, 0.05123550f, -0.07777388f, -0.09318402f, 0.00633242f, 0.00529930f, 0.05736943f, 0.09422258f, 0.04115272f, -0.00631922f, 0.06319734f, 0.06571946f, 0.03564416f, -0.41089755f, -0.18234925f, -0.08315194f, -0.10726924f, 0.04665336f, 0.04794512f, 0.01628882f, 0.06780271f, -0.02506991f, 0.00924410f, -0.41336372f, -0.27732608f, -0.20921782f, -0.16911389f, -0.29174709f, -0.07871900f, -0.09950373f, 0.04370339f, 0.00698770f, -0.06658315f, -0.14362201f, -0.07585893f, -0.14167169f, -0.14463915f, -0.23955910f, -0.07712908f, -0.03988323f, -0.00798929f, -0.00270664f, 0.00895385f, -0.13931762f, -0.13695131f, -0.16136004f, -0.24224663f, -0.27714592f, -0.02175189f, -0.04546478f, -0.00895755f, 0.02219631f, -0.06658950f, -0.08414469f, -0.01046442f, 0.01421755f, -0.03945134f, -0.02887658f, -0.27435878f, -0.27944154f, -0.25562334f, -0.04146921f, -0.13336012f, -0.11388956f, -0.08806311f, -0.08884520f, -0.18394271f, -0.27638564f, -0.06237406f, -0.04645599f, -0.12741356f, -0.04042317f, -0.03141753f, -0.04568919f, 0.01043549f, 0.00000507f, -0.00987128f, 0.02299576f, 0.03647190f, 0.06382993f, 0.08813014f, 0.01714564f, -0.11741142f, -0.09442168f, -0.04336455f, -0.01541374f, -0.00604185f, 0.00527083f, -0.00603620f, -0.12578405f, -0.08837414f, -0.20842221f, -0.24943593f, 0.06567094f, 0.05034392f, -0.12310341f, 0.06078273f, 0.10213456f, 0.02113544f, -0.02878285f, 0.02727815f, -0.04000102f, -0.03782432f, -0.37701017f, -0.22586307f, -0.24354631f, -0.15486911f, -0.27897686f, -0.08276794f, 