{"state_dict": {"conv.0.weight": [[[0.3015763461589813, 0.18046283721923828, -0.20333875715732574, 0.17513476312160492, -0.3357335031032562, -0.1224273070693016, -0.2927688658237457, 0.08064926415681839, 0.5068362355232239]], [[-0.39407670497894287, 0.1394914984703064, -0.04964527487754822, 0.10555591434240341, -0.113375224173069, 0.019778361544013023, -0.23863179981708527, 0.335316002368927, 0.5095083713531494]], [[-0.25422316789627075, 0.08953864872455597, -0.19228221476078033, 0.011858533136546612, 0.07539650052785873, 0.47544533014297485, -0.134109228849411, -0.2980247139930725, -0.11148799955844879]], [[-0.37403419613838196, -0.07535303384065628, -0.3949000835418701, 0.3087615370750427, -0.24421505630016327, 0.3260127902030945, 0.14015983045101166, 0.002613698597997427, 0.32958900928497314]], [[0.0931018516421318, 0.23075948655605316, -0.06371809542179108, -0.2636672258377075, -0.12266680598258972, -0.27959880232810974, -0.05818789079785347, 0.26956841349601746, 0.41419389843940735]], [[-0.22649875283241272, 0.2374403476715088, 0.12567229568958282, 0.2625940144062042, -0.14712847769260406, -0.30286431312561035, -0.11412301659584045, -0.21962793171405792, 0.38552525639533997]], [[0.37415367364883423, 0.24988238513469696, 0.09015648066997528, -0.040177375078201294, 0.194980651140213, -0.3077758550643921, -0.05067253112792969, -0.303806871175766, 0.08015609532594681]], [[-0.059495531022548676, 0.1542181819677353, -0.06133386492729187, 0.2265811413526535, -0.29348546266555786, -0.30119645595550537, -0.2619886100292206, 0.357116162776947, 0.2931583821773529]], [[0.4937146008014679, -0.1663118302822113, -0.2916370928287506, -0.25452062487602234, -0.2173183113336563, 0.16374509036540985, 0.15919773280620575, 0.2871243953704834, -0.1728525459766388]], [[-0.2569703459739685, 0.26984062790870667, -0.16994506120681763, 0.29298293590545654, -0.11416193097829819, 0.24217621982097626, -0.24635925889015198, -0.15862439572811127, 0.13306088745594025]], [[0.2010563611984253, -0.004840133246034384, 0.2571627199649811, 0.2815377116203308, -0.22373820841312408, -0.17809374630451202, 0.2933307886123657, -0.22933022677898407, -0.3278250992298126]], [[-0.32375001907348633, -0.10515978932380676, 0.2443017214536667, 0.1931196004152298, 0.07431747764348984, 0.30307334661483765, 0.06444557756185532, -0.26098352670669556, -0.40490826964378357]], [[-0.3527391850948334, -0.14967134594917297, 0.4771856367588043, 0.16901664435863495, 0.28163331747055054, -0.2885209023952484, -0.16024751961231232, -0.10182139277458191, 0.08932553976774216]], [[-0.50911545753479, -0.2416282445192337, 0.0857713371515274, 0.27536696195602417, 0.2619973421096802, 0.14670750498771667, -0.022261742502450943, -0.17375129461288452, -0.23198483884334564]], [[-0.14365994930267334, -0.2728327512741089, 0.3877604603767395, -0.08970098942518234, 0.33014217019081116, 0.08818982541561127, -0.3483077883720398, 0.20232371985912323, -0.15401557087898254]], [[-0.3364907205104828, -0.25009745359420776, -0.1440819501876831, 0.3173667788505554, 0.07449895888566971, 0.2803403437137604, -0.1860685497522354, 0.3091305196285248, -0.26845791935920715]], [[-0.20395562052726746, 0.021398944780230522, 0.1934012919664383, 0.32994917035102844, 0.37368395924568176, -0.2205672413110733, 0.08755214512348175, -0.26305893063545227, -0.275255411863327]], [[-0.48889070749282837, 0.15226441621780396, -0.3339523673057556, 0.1096361055970192, 0.07570219784975052, 0.09830836206674576, -0.16149692237377167, 0.40385836362838745, 0.20880086719989777]], [[-0.0030927853658795357, -0.32729196548461914, 0.2157643586397171, 0.035021618008613586, -0.17876093089580536, 0.3972585201263428, 0.20431210100650787, -0.1663311868906021, -0.22040991485118866]], [[0.10354641824960709, 0.2914077043533325, 0.013179606758058071, -0.07132261991500854, -0.07696761935949326, -0.2650527060031891, 0.06853259354829788, 0.1034993976354599, -0.9265317916870117]], [[0.6564852595329285, 0.07260897755622864, -0.3227396607398987, -0.3986329436302185, -0.0155914556235075, 0.12573127448558807, 0.09185270965099335, 0.05490599945187569, 0.03381408751010895]], [[-0.1696171760559082, -0.10930182039737701, -0.1342441439628601, 0.3395402133464813, 0.4094524681568146, 0.03766594082117081, -0.052310582250356674, -0.09486791491508484, -0.19741232693195343]], [[0.10676851123571396, 0.12466815114021301, -0.2864418923854828, -0.0753302276134491, 0.34583139419555664, 0.21030202507972717, 0.06541246175765991, -0.19325122237205505, -0.4422113299369812]], [[-0.4187576472759247, -0.1304517388343811, 0.15439347922801971, 0.25905364751815796, 0.12005966156721115, -0.314789354801178, -0.22088578343391418, -0.006308472249656916, 0.4638547897338867]], [[0.09025686979293823, -0.0315411351621151, 0.18298345804214478, -0.040051694959402084, -0.16740834712982178, 0.3680257201194763, -0.12961025536060333, 0.058232128620147705, -0.7855780720710754]], [[0.2837541103363037, 0.23039355874061584, 0.034097667783498764, -0.3192523717880249, -0.4309535324573517, -0.35015588998794556, 0.13193544745445251, 0.15145252645015717, 0.33877426385879517]], [[0.41969504952430725, 0.2469804883003235, 0.0723731741309166, -0.20085512101650238, -0.2645328938961029, -0.2991146445274353, 0.13996335864067078, -0.22249382734298706, -0.02444123476743698]], [[-0.39192166924476624, 0.019724857062101364, -0.04371250420808792, -0.009382718242704868, 0.3184901773929596, 0.03555222228169441, 0.28677764534950256, -0.07242416590452194, -0.30319589376449585]], [[-0.11899929493665695, -0.2089473158121109, -0.1755804866552353, -0.35307466983795166, 0.1359509527683258, -0.21401382982730865, 0.20427779853343964, 0.2973383665084839, 0.3852803707122803]], [[-0.3531419336795807, 0.19710209965705872, -0.14109286665916443, 0.1485310196876526, 0.38570913672447205, 0.022811952978372574, 0.08811181783676147, -0.031515054404735565, -0.3423500955104828]], [[0.14779362082481384, -0.38947775959968567, 0.1641964465379715, 0.21045279502868652, 0.23943433165550232, -0.1677701771259308, -0.5082165002822876, 0.003164557972922921, 0.33097365498542786]], [[-0.7312223315238953, -0.1500099152326584, -0.09437902271747589, 0.12128884345293045, 0.009826257824897766, -0.014861050993204117, 0.02182053215801716, -0.20218725502490997, 0.41192886233329773]], [[0.5411509871482849, 0.13571350276470184, 0.064724862575531, -0.0446186400949955, -0.24532458186149597, -0.26510101556777954, 0.178280770778656, -0.16573573648929596, -0.2851017117500305]], [[-0.3529510796070099, -0.24057304859161377, 0.07808229327201843, 0.13976159691810608, 0.052630167454481125, -0.12433315813541412, -0.13365358114242554, -0.2871362268924713, 0.38662636280059814]], [[-0.21637198328971863, 0.01760711520910263, -0.18174245953559875, -0.04494350403547287, 0.21566790342330933, 0.06939894706010818, -0.3537161648273468, 0.17356982827186584, 0.6337055563926697]], [[0.4662766456604004, 0.4298362731933594, 0.38579103350639343, 0.06597576290369034, 0.26199373602867126, -0.12393758445978165, -0.12933781743049622, 0.15547266602516174, 0.05072294548153877]], [[-0.43078115582466125, -0.23059499263763428, 0.1862861067056656, -0.16027510166168213, 0.027939412742853165, -0.02034345082938671, 0.2930523753166199, 0.005718457046896219, -0.4026992917060852]], [[-0.5963179469108582, 0.11725776642560959, -0.1535445749759674, 0.07990184426307678, 0.2995213270187378, -0.04958406835794449, 0.07425227761268616, 0.04462875798344612, -0.05657975748181343]], [[-0.384187251329422, -0.3216383457183838, -0.2335084229707718, -0.13960793614387512, 0.3979032039642334, -0.07825310528278351, -0.10755003988742828, 0.19831272959709167, 0.2607154846191406]], [[0.282990425825119, 0.1717766374349594, 0.04461536556482315, -0.4952239394187927, -0.107257179915905, 0.10649596899747849, -0.12651203572750092, -0.19040454924106598, 0.42867252230644226]], [[-0.06955855339765549, -0.12875941395759583, -0.2529103457927704, 0.13383759558200836, 0.2886458933353424, 0.2525326609611511, 0.2887948155403137, -0.11790265142917633, -0.5080037713050842]], [[0.16061893105506897, 0.29052624106407166, 0.12210319191217422, -0.28780630230903625, -0.1291266679763794, -0.31835073232650757, -0.198580801486969, 0.10747858881950378, 0.3021732270717621]], [[0.3303215205669403, -0.4246480464935303, 0.17341841757297516, -0.37177443504333496, 0.05698554590344429, 0.24017755687236786, -0.04925176873803139, 0.3291980028152466, -0.2832243740558624]], [[-0.2557857930660248, 0.20004874467849731, -0.09056486189365387, -0.023239238187670708, -0.14262129366397858, 0.3256411552429199, 0.3047208786010742, 0.07497633248567581, -0.3725813627243042]], [[-0.44711926579475403, 0.0378509983420372, 0.21358518302440643, -0.0865669921040535, -0.010419193655252457, 0.3086314797401428, 0.08002267777919769, -0.02071169950067997, -0.16049478948116302]], [[-0.4614519774913788, -0.3565618693828583, -0.14935067296028137, -0.11396870017051697, 0.1620924025774002, -0.018952587619423866, -0.04000268504023552, 0.390849232673645, 0.19249176979064941]], [[0.25290581583976746, -0.12002603709697723, -0.0054411496967077255, 0.27102863788604736, -0.03801938146352768, -0.03700647130608559, 0.1520455926656723, -0.1469704657793045, -0.6686462759971619]], [[0.3439335823059082, 0.2665588855743408, -0.05022694543004036, -0.14376133680343628, -0.41692858934402466, -0.20200061798095703, 0.04486474022269249, 0.181272491812706, 0.0038557539228349924]]], "conv.1.weight": [0.8172838091850281, 0.6643028855323792, 0.7997100949287415, 1.025720238685608, 0.7621715664863586, 1.347498893737793, 0.7074395418167114, 1.1239265203475952, 1.662589192390442, 0.9874523878097534, 0.9592499732971191, 0.8056672215461731, 1.110893726348877, 0.3586404025554657, 1.2880570888519287, 0.7385657429695129, 0.9060996174812317, 0.8016064763069153, 0.8084757328033447, 0.3000048100948334, 0.5550801753997803, 0.7655919194221497, 0.9260244965553284, 1.0800232887268066, 0.15824958682060242, 1.2324976921081543, 0.713927686214447, 0.6211246252059937, 0.9068683981895447, 1.47365140914917, 0.8151124119758606, 0.16783161461353302, 0.9971702694892883, 0.4920896291732788, 0.8858007192611694, 0.5051720142364502, 0.3634038269519806, 0.9364802241325378, 0.1185154840350151, 0.6792202591896057, 0.6820443272590637, 0.9231529831886292, 1.479814052581787, 0.5164136290550232, 0.7306627035140991, 0.8399469256401062, 0.9358059167861938, 0.9534939527511597], "conv.1.bias": [-0.8300568461418152, -0.3084689974784851, -0.884848415851593, -0.17721210420131683, -0.33696600794792175, 0.00559506518766284, -0.17376932501792908, -0.24714502692222595, 0.004034146666526794, -0.10573956370353699, 0.140663743019104, -0.5675872564315796, -0.161546990275383, 0.002248629927635193, 0.11732548475265503, -0.5348547101020813, -0.25673767924308777, 0.1034608706831932, -0.06754093617200851, -0.0004793310654349625, 0.001754879835061729, -0.17116601765155792, -0.2965022027492523, -0.15771229565143585, -0.00029301521135494113, -0.1497591882944107, -0.20355884730815887, -0.2284919023513794, -0.0007538765203207731, 0.07946763187646866, -0.122499480843544, -0.011624576523900032, -0.1103908121585846, -0.24717161059379578, -0.7643284797668457, -0.33589428663253784, -0.04648086428642273, -0.9928677678108215, -0.025481386110186577, -0.08439205586910248, 0.003035732079297304, 0.1276722103357315, 0.1059306338429451, 0.005710007157176733, 0.040214069187641144, -0.09582293778657913, -0.9793380498886108, 0.018568212166428566], "conv.1.running_mean": [0.001058846479281783, 0.0012912784004583955, -0.0008457375224679708, 0.0006190375424921513, 0.0009473905083723366, 0.00026836429606191814, 0.00028514338191598654, 0.0006171910208649933, 7.584113336633891e-05, 0.0001099024957511574, -0.0002236192231066525, -0.0008978069527074695, -0.00023974079522304237, -0.0010813386179506779, -0.00032491731690242887, -0.0004200105322524905, -0.0003840825811494142, 0.0006595375598408282, -0.00033180348691530526, -0.0021212720312178135, 0.0005913108470849693, -0.00023329167743213475, -0.0007817408186383545, 0.0001598712260602042, -0.0015518181025981903, 0.0006175879389047623, -0.00036209882819093764, -0.0005232800613157451, 0.00045794143807142973, -0.0003189450653735548, 2.0686837160610594e-05, -0.0007713826489634812, -0.0004892318393103778, -0.0007551074959337711, 0.0011503492714837193, 0.0027944508474320173, -0.001632368192076683, -0.00036956099211238325, -0.0004820682806894183, 0.000399298791307956, -0.0006452020606957376, 0.0003416569088585675, -0.0002573772508185357, -1.3083271369396243e-05, -0.0002447771548759192, -0.0003246600099373609, -0.0012883696472272277, 0.00025984039530158043], "conv.1.running_var": [0.05387172847986221, 0.12515297532081604, 0.07811864465475082, 0.06927578151226044, 0.038495685905218124, 0.0017567536560818553, 0.10391537845134735, 0.007154596503823996, 0.002101578749716282, 0.0006640698993578553, 0.045930638909339905, 0.03330833092331886, 0.002420881763100624, 0.11356472223997116, 0.002203527605161071, 0.03979136049747467, 0.021067973226308823, 0.0637737289071083, 0.0018936366541311145, 0.5117689967155457, 0.06437013298273087, 0.004701920785009861, 0.031972385942935944, 0.03306981176137924, 0.19063685834407806, 0.007006568368524313, 0.06108087673783302, 0.018626675009727478, 0.08678705245256424, 0.0028944863006472588, 0.0016688575269654393, 0.36764392256736755, 0.0800623968243599, 0.19127041101455688, 0.12174446880817413, 1.8629984855651855, 0.38431766629219055, 0.058029528707265854, 0.2028352916240692, 0.008938385173678398, 0.009718281216919422, 0.005415890831500292, 0.0009638844639994204, 0.0029840930365025997, 0.009470359422266483, 0.22267207503318787, 0.13581322133541107, 0.012316274456679821], "conv.1.num_batches_tracked": 142800.0, "conv.3.weight": [[[-0.8487168550491333, -0.4114167094230652, -0.24774232506752014, -0.06989091634750366, -0.06032506749033928], [0.1491939276456833, 0.10303343087434769, 0.09711463749408722, 0.04953227564692497, 0.11409361660480499], [0.08210346102714539, 0.1849328726530075, 0.17393651604652405, -0.04918159916996956, -0.045564331114292145], [0.1413995772600174, 0.1055997833609581, -0.05869191884994507, -0.004189054016023874, 0.07598455250263214], [-0.0021810017060488462, -0.033725738525390625, 0.11491709202528, 0.17580121755599976, 0.10651874542236328], [-0.04530274122953415, -0.6783664226531982, -0.20148104429244995, -0.008318183943629265, -0.18687009811401367], [-0.1458277851343155, -0.09929085522890091, -0.05860716477036476, -0.06486143171787262, -0.09724816679954529], [0.0021975692361593246, 0.047586750239133835, 0.14498013257980347, 0.0633377954363823, 0.01398160308599472], [-0.09221380203962326, -0.4292142689228058, -0.2770528197288513, -0.1450844407081604, -0.32092568278312683], [-0.32539719343185425, -0.32052165269851685, -0.09063762426376343, 0.3479789197444916, -0.1789293885231018], [-0.05155957117676735, -0.09815103560686111, -0.07394654303789139, 0.007054930552840233, -0.004993715789169073], [0.12610825896263123, 0.09949884563684464, 0.09999093413352966, -0.09583797305822372, -0.3185567557811737], [-0.15283524990081787, 0.18760454654693604, -0.07672794163227081, -0.044388823211193085, -0.03093818947672844], [-0.08404763787984848, -0.12101924419403076, -0.10081634670495987, -0.04595122113823891, -0.06147785112261772], [-0.09572754800319672, 0.21573130786418915, -0.21685941517353058, -0.006193432491272688, -0.1648419201374054], [-0.2612888813018799, -0.07413197308778763, -0.08850114047527313, 0.07383574545383453, 0.06386356055736542], [0.10809491574764252, -0.4096423089504242, -0.38250020146369934, -0.32563504576683044, -0.1664036214351654], [-0.16463807225227356, -0.09292720258235931, -0.13343718647956848, -0.12030553817749023, -0.009488562121987343], [-0.18562695384025574, 0.08160427957773209, 0.06830429285764694, -0.07087302953004837, -0.5490684509277344], [0.0707680881023407, 0.051265470683574677, 0.011599005199968815, 0.006737627554684877, -0.13203838467597961], [-0.1548614352941513, 0.03336821496486664, 0.05814255401492119, 0.09838412702083588, 0.08331693708896637], [-0.33827194571495056, -0.08226357400417328, 0.1037227138876915, 0.18830639123916626, 0.1896432638168335], [0.17302371561527252, 0.20106521248817444, 0.07731655985116959, 0.12454498559236526, -0.2559134364128113], [-0.17657408118247986, 0.028053779155015945, -0.06442558765411377, 0.02177240513265133, 0.16744208335876465], [0.039596110582351685, 0.09025120735168457, 0.000532061152625829, -0.08058400452136993, -0.14748911559581757], [-0.42271745204925537, -0.1702864170074463, -0.0541655607521534, 0.09766358137130737, 0.18355408310890198], [0.06971229612827301, 0.01599753089249134, -0.0074508353136479855, 0.027662178501486778, -0.2457100749015808], [0.008173070847988129, -0.03827733173966408, -0.010405933484435081, -0.014481709338724613, -0.12152206897735596], [-0.154813751578331, -0.10717705637216568, -0.07571974396705627, -0.09331055730581284, 0.02498050406575203], [0.35726800560951233, -0.12312968820333481, -0.05058833956718445, 0.14296318590641022, -0.06355810165405273], [-0.24181267619132996, 0.22824443876743317, 0.20324893295764923, 0.07505757361650467, 0.10811702162027359], [-0.11961355805397034, -0.023783672600984573, 0.04747143015265465, 0.11948022246360779, 0.2127310037612915], [-0.3151472210884094, -0.28787314891815186, -0.22481676936149597, -0.1988036036491394, -0.44513294100761414], [-0.03905590623617172, 0.13615083694458008, 0.2042750120162964, 0.19976772367954254, 0.2960057854652405], [0.11617109179496765, 0.0019241215195506811, -0.05528824031352997, -0.28828316926956177, -0.5992192029953003], [-0.28380319476127625, -0.1233101338148117, 0.015431514009833336, 0.05795947089791298, 0.023021627217531204], [-0.0002311443240614608, 0.10290562361478806, 0.09336478263139725, 0.10126171261072159, 0.12342070788145065], [-0.8191667199134827, -0.6257680058479309, -0.17584019899368286, -0.14966708421707153, -0.026384951546788216], [-0.22801952064037323, -0.07044974714517593, 0.08058136701583862, 0.15470300614833832, 0.28306567668914795], [-0.28021711111068726, -0.15640194714069366, 0.041158586740493774, -0.01828647404909134, -0.054088279604911804], [-0.02405168116092682, -0.0695711299777031, -0.1523645967245102, -0.07385201007127762, -0.48537465929985046], [-0.3524453639984131, 0.001022004522383213, -0.05441951006650925, 0.1200103908777237, 0.06456217169761658], [-0.346415638923645, 0.14650249481201172, 0.032978929579257965, -0.2604021430015564, -0.04915512353181839], [0.10855624079704285, -0.04802914708852768, -0.01622701995074749, 0.033792369067668915, -0.19929362833499908], [-0.08775146305561066, -0.013844375498592854, 0.044816043227910995, 0.10112970322370529, -0.10426148772239685], [-0.26982730627059937, -0.09965283423662186, 0.09725029021501541, 0.14420457184314728, 0.32051777839660645], [-0.36142629384994507, -0.1598132997751236, -0.0687645897269249, -0.32361921668052673, -0.4308145344257355], [-0.30565813183784485, -0.13251842558383942, -0.09626809507608414, 0.21546149253845215, 0.0814826712012291]], [[0.1325533390045166, 0.16915513575077057, 0.4516502916812897, 0.44415968656539917, -0.015737038105726242], [-0.15748697519302368, -0.3998590409755707, 0.14304834604263306, 0.3732185363769531, 0.3441919982433319], [-0.06530973315238953, -0.03881341218948364, -0.21059852838516235, -0.17292676866054535, -0.35014578700065613], [-0.1290118247270584, -0.21081431210041046, -0.04069364815950394, -0.06379950791597366, -0.09915205091238022], [-0.14168104529380798, 0.05292369797825813, 0.3024913966655731, 0.02955658733844757, 0.1594289094209671], [-0.018523940816521645, -0.13674035668373108, 0.05333780124783516, 0.05688265338540077, -0.07514548301696777], [-0.2742873430252075, -0.21359054744243622, -0.13822154700756073, -0.2952907085418701, -0.14353351294994354], [-0.11492487043142319, -0.09079936146736145, 0.07442259043455124, 0.12033116817474365, 0.000527269032318145], [-0.03592614457011223, -0.08232579380273819, 0.01833427883684635, 0.002240790519863367, 0.07074205577373505], [0.07600287348031998, 0.01156438048928976, -0.167276531457901, 0.03441982716321945, 0.12592226266860962], [0.17336148023605347, 0.1867288500070572, 0.05165302753448486, 0.17665956914424896, 0.25138673186302185], [0.1754346340894699, 0.28963032364845276, 0.18554246425628662, -0.041229669004678726, 0.06978531926870346], [0.0007079525385051966, 0.0657055675983429, 0.14142148196697235, 0.072471983730793, 0.02161119505763054], [-0.305107980966568, -0.17046721279621124, -0.13003025949001312, -0.1659289300441742, -0.14359107613563538], [0.004243049304932356, 0.05760922655463219, -0.08336471021175385, -0.0012004631571471691, -0.0668354332447052], [0.014172828756272793, 0.05944950878620148, -0.048503607511520386, 0.031235598027706146, 0.08024159073829651], [0.25150591135025024, 0.08965905755758286, 0.09519646316766739, 0.03537626564502716, -0.037947993725538254], [-0.055464353412389755, -0.15581363439559937, 0.0029850280843675137, -0.1279006004333496, -0.20347021520137787], [-0.06324950605630875, -0.15962329506874084, -0.1356746107339859, 0.09125763177871704, 0.16211217641830444], [-0.16443833708763123, -0.18163613975048065, -0.035891421139240265, 0.0012725702254101634, 0.1775200366973877], [-1.4467239379882812, -1.3005061149597168, -1.0742812156677246, -1.4026572704315186, -1.1009494066238403], [-0.03513767197728157, 0.011368959210813046, 0.26655223965644836, -0.0624583400785923, -0.31982192397117615], [0.059629667550325394, 0.06994597613811493, -0.23121443390846252, -0.43294593691825867, -0.1943116933107376], [0.05634025111794472, 0.11136915534734726, 0.2280452847480774, 0.12179813534021378, 0.10214384645223618], [-0.09140868484973907, -0.15644113719463348, -0.019682593643665314, 0.0071539506316185, 0.2456076592206955], [-0.008134729228913784, -0.02478577382862568, 0.18791325390338898, 0.05936571955680847, -0.16477976739406586], [0.1705464869737625, 0.15890531241893768, -0.13351920247077942, -0.2045876681804657, -0.33023834228515625], [0.11213210225105286, 0.18703079223632812, -0.06197827309370041, -0.08213979005813599, -0.05463537573814392], [-0.07002140581607819, -0.0922117605805397, -0.06966472417116165, -0.11630169302225113, -0.1658463478088379], [-0.054564304649829865, -0.05871668457984924, 0.15659159421920776, 0.23560525476932526, 0.25338277220726013], [0.010344453155994415, -0.17288842797279358, -0.2771349549293518, 0.05296538770198822, 0.08442582190036774], [-0.04369382560253143, 0.0016673950012773275, -0.07921822369098663, -0.030225468799471855, -0.11446823924779892], [-0.17060674726963043, -0.10885021090507507, -0.15222381055355072, -0.021481430158019066, -0.05476890504360199], [0.2019219994544983, 0.19610917568206787, 0.09287730604410172, 0.13659419119358063, 0.026440562680363655], [-0.28397446870803833, -0.3517974019050598, 0.1821001172065735, 0.2064366489648819, 0.056443002074956894], [0.07366030663251877, 0.22729693353176117, 0.25129783153533936, 0.1173846647143364, 0.2099054902791977], [-0.22425660490989685, -0.13292072713375092, -0.17963282763957977, -0.06720827519893646, -0.05932234600186348], [0.023517362773418427, 0.1222415566444397, 0.06254030019044876, 0.04057203605771065, -0.028070658445358276], [0.2257559448480606, 0.11480452865362167, 0.09814833849668503, 0.14920848608016968, 0.08350864052772522], [-1.0672967433929443, -0.5543485879898071, -0.299303263425827, -0.3377908170223236, -0.24433903396129608], [-0.0420028492808342, -0.05909937247633934, -0.144053652882576, -0.04317812621593475, 0.19647131860256195], [0.0685499981045723, 0.2253977209329605, 0.2920440137386322, 0.49339309334754944, 0.426013320684433], [0.012004392221570015, 0.03218882903456688, -0.0607287622988224, -0.022545961663126945, -0.12668350338935852], [0.16817648708820343, 0.06845609098672867, -0.1956176459789276, -0.05775494873523712, -0.2132151871919632], [-0.019617339596152306, -0.03220309689640999, -0.1292511373758316, -0.1052187904715538, -0.24030134081840515], [0.23937375843524933, 0.2355998456478119, 0.1977614462375641, 0.24403145909309387, 0.13011904060840607], [-0.46677374839782715, -0.3783746659755707, -0.3718299865722656, -0.4828025996685028, -0.834161102771759], [-0.10443391650915146, 0.12251851707696915, -0.016059963032603264, 0.03162612393498421, 0.03004276566207409]], [[-0.9812480807304382, -0.933669924736023, -0.6846346259117126, -0.6926237344741821, -0.9781047701835632], [0.1617557853460312, 0.08157063275575638, -0.04886297136545181, -0.26823386549949646, -0.4513934850692749], [-1.063833236694336, -0.4445311725139618, -0.25595709681510925, -0.5463895797729492, -1.1005568504333496], [0.006061781197786331, 0.006431250367313623, -0.011018343269824982, 0.05737799033522606, 0.06645520776510239], [-0.016228865832090378, -0.15946610271930695, -0.24661791324615479, -0.20073002576828003, -0.4535309672355652], [-0.21124069392681122, -0.1481127142906189, -0.05395771563053131, -0.17809440195560455, 0.041213035583496094], [-0.40762901306152344, -0.14742238819599152, -0.09574974328279495, -0.009974217973649502, -0.09536943584680557], [-0.01908799447119236, 0.05929180234670639, 0.04641299694776535, -0.002436561044305563, -0.15679684281349182], [0.2861591875553131, 0.13818952441215515, -0.05213456600904465, -0.08908344060182571, -0.0016098308842629194], [-0.18626825511455536, -0.09718222916126251, -0.02520698495209217, -0.27559664845466614, -0.4357912540435791], [-0.001394597697071731, 0.10460085421800613, 0.04006129130721092, 0.053508542478084564, 0.13967061042785645], [0.09583864361047745, 0.3364364802837372, 0.14754745364189148, 0.1058364063501358, -0.3235275447368622], [-0.6647636294364929, 0.049374524503946304, -0.054281942546367645, -0.21986936032772064, 0.052779536694288254], [0.0037831654772162437, 0.14635741710662842, 0.16519679129123688, 0.1749885380268097, 0.03236222639679909], [0.30948126316070557, -0.01871522329747677, -0.12665268778800964, 0.00584401423111558, 0.046325378119945526], [-0.15676365792751312, 0.04347022995352745, -0.0032341566402465105, 0.09183394908905029, -0.012530040927231312], [0.04664495214819908, -0.04078494757413864, 0.07659342885017395, -0.027492471039295197, -0.1399272233247757], [0.10904999822378159, 0.1921463906764984, 0.15465432405471802, 0.18195535242557526, 0.16164185106754303], [-0.047107942402362823, 0.04160458967089653, -0.020767953246831894, 0.09829095751047134, -0.5666556358337402], [0.09065837413072586, 0.015226325951516628, -0.00918102078139782, 0.008171518333256245, -0.17446598410606384], [-0.27229544520378113, 0.051946792751550674, 0.14236050844192505, 0.1999291628599167, 0.1920928657054901], [-0.0577227957546711, -0.05102872475981712, -0.0777592808008194, -0.04346206411719322, 0.012105822563171387], [-0.03473944589495659, -0.21322695910930634, -0.06307821720838547, -0.028734588995575905, -0.2128896266222], [-0.15546251833438873, -0.010358557105064392, 0.02494572103023529, 0.030909055843949318, -0.012630532495677471], [0.08651772886514664, -0.016139332205057144, 0.02502770535647869, 0.057143695652484894, -0.13111548125743866], [-0.3922111988067627, 0.1895623654127121, -0.025942685082554817, -0.38859301805496216, -0.51961350440979], [0.1230737715959549, 0.034456975758075714, -0.050030361860990524, -0.12798325717449188, 0.027109269052743912], [-0.12402304261922836, 0.011749391444027424, 0.014750869944691658, 0.2403053641319275, 0.01697670854628086], [0.07541187107563019, 0.06040804833173752, 0.14389313757419586, 0.1276933252811432, 0.09700377285480499], [0.19310976564884186, 0.039836835116147995, -0.06670456379652023, 0.09796348214149475, -0.07016356289386749], [0.10434907674789429, 0.09978223592042923, 0.4583699107170105, 0.24282528460025787, -0.6519370079040527], [-0.2617771625518799, -0.08497636765241623, 0.05077747628092766, 0.18235191702842712, 0.2323479950428009], [0.04633371904492378, 0.17842403054237366, 0.14248089492321014, 0.11538615077733994, 0.12872466444969177], [-0.3290398418903351, -0.13156971335411072, -0.014827956445515156, -0.08343300968408585, -0.11297197639942169], [-0.029713209718465805, -0.17725622653961182, -0.22070279717445374, -0.11283821612596512, -0.09524446725845337], [-0.3091426491737366, -0.18355761468410492, -0.11383741348981857, -0.03081360273063183, -0.13255588710308075], [-0.09167251735925674, 0.10988049954175949, 0.16991598904132843, 0.12027087062597275, -0.05330725386738777], [-0.5308430194854736, -0.19551996886730194, -0.18817836046218872, -0.22213508188724518, -0.03293222934007645], [-0.3260107934474945, -0.1386634260416031, -0.12108200043439865, 0.02400870807468891, 0.11250646412372589], [-0.17513714730739594, 0.04503784328699112, 0.2211301624774933, 0.22250227630138397, 0.180521160364151], [-0.170358344912529, 0.04238586872816086, 0.19317586719989777, 0.2650550901889801, -0.43768617510795593], [-0.10875269025564194, 0.03565726801753044, -0.0986577570438385, -0.21445851027965546, -0.06549171358346939], [-0.2941811978816986, -0.12177366763353348, -0.05418630316853523, 0.007054158952087164, -0.061260610818862915], [0.06950786709785461, 0.1394645720720291, 0.21326227486133575, 0.11895962059497833, 0.18107716739177704], [-0.09993608295917511, -0.10059471428394318, 0.055558156222105026, 0.07606258988380432, 0.10643235594034195], [-0.16495691239833832, -0.19273501634597778, -0.14179909229278564, -0.026054397225379944, 0.027579516172409058], [0.0004983081598766148, -0.10925683379173279, -0.26169610023498535, -0.621114194393158, -0.8515598773956299], [-0.264545202255249, 0.2152886539697647, 0.12398531287908554, -0.12437229603528976, 0.15687622129917145]], [[0.11483398824930191, 0.011596782132983208, 0.1397802233695984, 0.2534071207046509, 0.30989018082618713], [0.14305256307125092, 0.04465801268815994, 0.1896628588438034, 0.09105166792869568, 0.005836180876940489], [0.09030401706695557, 0.08165054023265839, 0.06029461324214935, 0.1794920116662979, -0.04648097604513168], [0.06040680781006813, 0.005198717582970858, 0.06381507962942123, 0.06094060838222504, 0.16291365027427673], [0.0971575528383255, 0.037192728370428085, 0.19495977461338043, 0.05223550274968147, -0.07619045674800873], [-0.20264500379562378, -0.39434170722961426, -0.1394665241241455, 0.11998382955789566, 0.15974803268909454], [-0.35886937379837036, -0.47039517760276794, -0.3832612633705139, -0.32671183347702026, -0.19091194868087769], [0.10624518990516663, 0.024413568899035454, 0.1609441488981247, 0.05732278898358345, 0.08520817011594772], [-0.30945611000061035, -0.2756141424179077, -0.14980415999889374, -0.12002886086702347, 0.11956430971622467], [-0.11563929170370102, -0.13459676504135132, -0.009538036771118641, -0.2558439075946808, 0.02581080235540867], [-0.3364449143409729, -0.22773776948451996, -0.2016824185848236, 0.032074395567178726, 0.2966800034046173], [0.2907259464263916, 0.2458222210407257, 0.2780097723007202, 0.19870276749134064, -0.0232929028570652], [0.4541221559047699, -0.009105019271373749, -0.17504140734672546, 0.016218431293964386, -0.1738116443157196], [0.17548684775829315, 0.1422746330499649, 0.08285428583621979, 0.004690780304372311, 0.07816768437623978], [-0.26442912220954895, -0.0968998521566391, -0.28963857889175415, -0.06768613308668137, 0.180165097117424], [0.03380384296178818, -0.05433136969804764, -0.12225402146577835, -0.027477223426103592, 0.05336816981434822], [0.21256132423877716, -0.23109550774097443, -0.23137855529785156, 0.026673704385757446, 0.04789518937468529], [0.06040827929973602, 0.023221826180815697, 0.14635872840881348, 0.08313127607107162, 0.2118149846792221], [0.24655874073505402, 0.27764537930488586, 0.2211257517337799, -0.12138599157333374, -0.390542209148407], [0.03671183064579964, 0.05112524703145027, 0.16091084480285645, 0.1664411872625351, 0.04103357717394829], [0.04054327681660652, -0.021046150475740433, 0.028597893193364143, 0.11814160645008087, 0.03899532929062843], [-0.5147138237953186, -0.24445566534996033, -0.2716590166091919, -0.020775707438588142, 0.2160634994506836], [0.003976562526077032, 0.11834053695201874, 0.2602957487106323, 0.2259828746318817, -0.010351554490625858], [-0.034341055899858475, -0.11538094282150269, -0.13700953125953674, 0.07702856510877609, 0.24623632431030273], [0.03604300320148468, 0.12910592555999756, 0.11792647838592529, 0.2061610221862793, 0.12649326026439667], [0.2586671710014343, -0.0027612349949777126, 0.2630721628665924, 0.051238302141427994, -0.08340136706829071], [-0.09666705876588821, 0.13681337237358093, 0.14187340438365936, 0.19686181843280792, 0.18166399002075195], [0.15635620057582855, 0.06752759963274002, 0.08696027100086212, 0.08283403515815735, 0.08142849802970886], [0.13418062031269073, -0.04491204395890236, 0.07556367665529251, 0.1775231808423996, 0.15491439402103424], [-0.054877713322639465, -0.17963673174381256, 0.07670944929122925, 0.06642517447471619, -0.28328806161880493], [0.09093523025512695, 0.21019244194030762, 0.0343506783246994, -0.06227217614650726, -0.1147642657160759], [0.04335544630885124, -0.028012242168188095, -0.019135426729917526, -0.009539209306240082, 0.05260666459798813], [0.008623749949038029, 0.1698232740163803, 0.31645235419273376, 0.24448028206825256, 0.31106722354888916], [-0.0035350630059838295, -0.08154014497995377, 0.038257695734500885, 0.06901223957538605, 0.18811020255088806], [0.131632462143898, 0.16115954518318176, 0.09204936027526855, -0.0033380070235580206, -0.18940004706382751], [0.01564849726855755, -0.012778043746948242, 0.14188365638256073, 0.160462886095047, 0.20332811772823334], [0.168138325214386, 0.10177362710237503, -0.0034265548456460238, 0.10607791692018509, 0.11715108901262283], [0.2925838828086853, 0.22029618918895721, 0.08954700827598572, -0.03601148724555969, -0.25672149658203125], [0.14264394342899323, -0.04331878200173378, -0.11452464014291763, -0.15306885540485382, -0.12307669222354889], [0.3760528266429901, 0.16984081268310547, 0.23069694638252258, 0.07165288925170898, -0.04570436105132103], [0.09870760887861252, 0.08369637280702591, 0.14466412365436554, -0.05606626346707344, -0.32398539781570435], [0.44791918992996216, 0.0031540619675070047, -0.4612671434879303, -0.6537701487541199, -0.746345579624176], [-0.18368899822235107, -0.2081795632839203, -0.12305547297000885, -0.05512700602412224, -0.15126703679561615], [-0.2298944890499115, -0.015501338988542557, 0.050940025597810745, 0.09509388357400894, 0.1886347532272339], [0.41013288497924805, 0.04824310541152954, -0.13078373670578003, -0.2646050751209259, -0.26558879017829895], [0.14948521554470062, -0.0334719642996788, -0.15452542901039124, -0.177510604262352, -0.25300920009613037], [0.09397734701633453, 0.012900494039058685, 0.15034990012645721, 0.10636509209871292, 0.31173714995384216], [-0.3861039876937866, 0.010762490332126617, -0.15874287486076355, -0.20083023607730865, -0.062046438455581665]], [[-0.5767543911933899, -0.19338402152061462, 0.008857784792780876, -0.07703755795955658, -0.20267091691493988], [0.1584366410970688, 0.004729527980089188, -0.034477364271879196, -0.11248304694890976, -0.33950212597846985], [0.0030974089168012142, 0.22043059766292572, 0.2248208075761795, -0.04952681064605713, -0.6167510747909546], [0.12053583562374115, -0.06026184931397438, 0.00924153346568346, 0.11577394604682922, -0.2522289752960205], [0.00931750051677227, 0.023087825626134872, 0.07761266827583313, -0.12246383726596832, -0.17828312516212463], [-0.0999085083603859, -0.29232868552207947, -0.14097611606121063, -0.09529034048318863, 0.08656667172908783], [-0.443913072347641, -0.30360788106918335, -0.08090146631002426, -0.046599145978689194, 0.04564438760280609], [0.19264215230941772, 0.13536326587200165, 0.04163738712668419, -0.19615596532821655, -0.30940479040145874], [0.0821879506111145, -0.04572843015193939, -0.14017832279205322, -0.13093072175979614, -0.08658720552921295], [-0.22954969108104706, -0.14806365966796875, 0.07806123048067093, -0.00929876510053873, 0.09992271661758423], [-0.1766495406627655, -0.07207626849412918, 0.1425790637731552, 0.15200175344944, 0.3513701856136322], [0.16435670852661133, 0.10654586553573608, 0.08871950954198837, -0.4082981050014496, -0.9951600432395935], [-0.3664936125278473, -0.053684450685977936, 0.11092909425497055, 0.09293578565120697, 0.12527325749397278], [-0.10930373519659042, -0.007540952879935503, -0.015006800182163715, 0.012758541852235794, 0.11952771246433258], [0.06285883486270905, -0.1288117617368698, -0.15747496485710144, -0.013253228738904, 0.12370862066745758], [-0.6924638152122498, -0.14785295724868774, 0.1725054532289505, 0.12001269310712814, -0.0006412900984287262], [-0.1769932508468628, -0.12656086683273315, -0.14331696927547455, -0.006724672857671976, 0.17830854654312134], [0.2578306794166565, 0.13348188996315002, 0.10658977180719376, 0.10665041953325272, -0.06880602985620499], [0.02256406471133232, 0.09945718199014664, -0.0429670624434948, 0.04053112864494324, -0.10141486674547195], [0.14997626841068268, 0.10298846662044525, 0.1313137263059616, 0.02337387390434742, 0.025191443040966988], [-0.08966264873743057, -0.0011078479001298547, 0.053003303706645966, 0.08858652412891388, 0.1339276283979416], [-0.023154178634285927, 0.03599138930439949, 0.005237025208771229, -0.0530829057097435, -0.007035460323095322], [0.17140427231788635, 0.071075938642025, -0.034322015941143036, -0.3613691031932831, -0.5365812182426453], [-0.2552734315395355, -0.26931262016296387, -0.0750003233551979, 0.09974606335163116, 0.3924776315689087], [0.1286822110414505, 0.10544585436582565, 0.05701447278261185, 0.1112370565533638, 0.05397095903754234], [-0.09163310378789902, 0.12143370509147644, 0.05518238618969917, -0.061749570071697235, -0.3153068423271179], [0.06972184777259827, 0.021166611462831497, -0.09246135503053665, -0.2592126727104187, -0.3999469578266144], [-0.02710781618952751, 0.05747520923614502, 0.06025474891066551, 0.11125238239765167, 0.0175487007945776], [0.00787135399878025, 0.045393217355012894, 0.11420400440692902, 0.13734471797943115, 0.13750657439231873], [-0.04553736373782158, -0.15897276997566223, -0.10744570940732956, -0.1237892434000969, -0.1314249038696289], [-0.035130854696035385, 0.044901203364133835, 0.10467400401830673, 0.06374611705541611, -0.21792814135551453], [-0.18339498341083527, -0.18318484723567963, -0.11145414412021637, 0.016514919698238373, 0.10110199451446533], [0.19355331361293793, 0.19464011490345, 0.16818419098854065, 0.20714899897575378, 0.1435961276292801], [-0.08014953881502151, -0.001059588510543108, -0.0003093126870226115, 0.05226301774382591, 0.03840569406747818], [-0.06794260442256927, -0.20949134230613708, -0.18332429230213165, -0.301796555519104, -0.7152024507522583], [-0.13399650156497955, -0.08433626592159271, -0.034598201513290405, 0.012611505575478077, 0.057899922132492065], [-0.2633865177631378, -0.1399918794631958, -0.004900738131254911, 0.01824316941201687, -0.05775302276015282], [-1.3690718412399292, -0.5190379023551941, -0.22425995767116547, -0.06777738779783249, -0.27704688906669617], [-0.2227533459663391, -0.0006965590873733163, 0.036191172897815704, 0.13630448281764984, 0.11467359215021133], [-0.057027436792850494, -0.0012543703196570277, 0.09793784469366074, -0.00608553783968091, -0.00278479908592999], [0.05980496481060982, 0.08546512573957443, 0.20822232961654663, 0.0647062137722969, 0.14542262256145477], [-0.49040916562080383, -0.33379635214805603, 0.1812376081943512, 0.12345708906650543, 0.18707101047039032], [-0.28303179144859314, -0.021760957315564156, -0.010922401212155819, -0.0660737082362175, 0.0329151414334774], [0.18998505175113678, 0.04315835237503052, 0.008465358056128025, -0.2221042960882187, 0.06795455515384674], [-0.34641173481941223, -0.11106553673744202, 0.006716015748679638, -0.0670534148812294, 0.0675385519862175], [-0.3382505178451538, 0.03742370754480362, 0.10016683489084244, 0.15309613943099976, 0.206096351146698], [-0.21804766356945038, -0.20166583359241486, -0.1140771359205246, -0.08748973160982132, -0.1669093817472458], [-0.4447295665740967, -0.10389009118080139, 0.08254546672105789, 0.1977401226758957, 0.21175436675548553]], [[-0.20830979943275452, -0.1570323407649994, -0.2627381682395935, -0.4116201102733612, -0.38700127601623535], [-0.09655725210905075, -0.14695899188518524, -0.17370270192623138, -0.03248676285147667, 0.20593665540218353], [-0.2840847671031952, -0.027059175074100494, 0.47877800464630127, 0.6890066266059875, 0.7577436566352844], [0.04626581445336342, -0.01441153883934021, -0.1381353884935379, -0.19824248552322388, -0.32166194915771484], [-0.1805824339389801, -0.14937227964401245, -0.06881832331418991, 0.03514736145734787, 0.21801817417144775], [-0.10464508831501007, -0.22933286428451538, -0.11224472522735596, -0.12127435207366943, -0.1454004943370819], [0.15794703364372253, 0.09933692961931229, -0.08616114407777786, -0.16430138051509857, -0.1451893299818039], [-0.0558672733604908, -0.17972324788570404, -0.017387721687555313, 0.3755834102630615, 0.3740626573562622], [-0.275265634059906, -0.2311154305934906, -0.20899537205696106, -0.11130732297897339, -0.28367242217063904], [0.2612035870552063, 0.40208345651626587, 0.07993020862340927, 0.07555022090673447, 0.2872551679611206], [0.19816391170024872, 0.2202722728252411, 0.12677337229251862, 0.09995797276496887, -0.1482282131910324], [-0.1311098039150238, -0.025975022464990616, 0.21954607963562012, 0.5620236992835999, 0.5848485827445984], [0.23131638765335083, 0.25472161173820496, 0.2885369062423706, 0.10620748996734619, 0.3481791913509369], [0.05498727411031723, 0.02119160257279873, -0.012668376788496971, -0.11611028760671616, -0.04922771453857422], [0.07665298879146576, 0.04627932235598564, 0.19426392018795013, 0.023076770827174187, -0.2006930410861969], [-0.3498612344264984, -0.3579278588294983, 0.11081252992153168, -0.12001718580722809, -0.05897039920091629], [-0.032074935734272, 0.04549640417098999, -0.20073357224464417, -0.1901627629995346, -0.27536848187446594], [0.1697816252708435, 0.1765688955783844, 0.12213192880153656, 0.32642993330955505, 0.4225117266178131], [-0.05262231081724167, -0.03402896225452423, -0.002447825623676181, -0.10069144517183304, 0.04532966390252113], [-0.3528096079826355, -0.25437191128730774, -0.3642677664756775, -0.20612312853336334, 0.08530867844820023], [0.12497453391551971, 0.10760636627674103, 0.13824914395809174, 0.09128876030445099, 0.012354529462754726], [0.3341972827911377, -0.1686737835407257, -0.12363660335540771, -0.08920405060052872, -0.39602193236351013], [-0.22205713391304016, -0.14221566915512085, -0.030128534883260727, -0.06747039407491684, 0.2165621668100357], [0.26656636595726013, 0.2259308397769928, 0.257286936044693, 0.20334306359291077, 0.19953536987304688], [-0.29943811893463135, -0.1802673488855362, -0.20327486097812653, -0.08873062580823898, 0.09197942912578583], [-0.03111632540822029, -0.05639847368001938, 0.017925318330526352, 0.018638771027326584, 0.0037157719489187002], [-0.14679183065891266, -0.21349641680717468, -0.15953221917152405, 0.0212140791118145, 0.31505677103996277], [-0.030660096555948257, -0.2504388988018036, -0.01683483086526394, -0.030249491333961487, 0.1877763420343399], [-0.06386592239141464, 0.015506885945796967, -0.12085649371147156, -0.16252511739730835, -0.18973644077777863], [-0.3042886257171631, -0.13218554854393005, -0.05898049473762512, 0.036062877625226974, 0.06741208583116531], [-0.05055547133088112, -0.03986509516835213, 0.10090407729148865, 0.21580982208251953, 0.14858682453632355], [0.011345230042934418, -0.054197948426008224, -0.10467187315225601, -0.3573097884654999, -0.6381179094314575], [0.2873578667640686, 0.21366047859191895, 0.20832164585590363, 0.162861630320549, 0.1141439825296402], [-0.07367129623889923, -0.1265610307455063, -0.22057729959487915, -0.27398914098739624, -0.317291796207428], [-0.13705655932426453, -0.15789172053337097, -0.10117592662572861, 0.15449345111846924, 0.20685051381587982], [0.18531771004199982, 0.20683814585208893, 0.06795749068260193, 0.07668282091617584, -0.046813175082206726], [-0.08894035220146179, -0.13156536221504211, -0.20545561611652374, -0.042752232402563095, -0.16812095046043396], [-0.399215966463089, -0.23680655658245087, 0.732304573059082, 0.4751359224319458, 0.2236575335264206], [0.0001350340899080038, 0.10112868249416351, 0.013296524994075298, -0.19059428572654724, -0.37984421849250793], [0.1435183733701706, 0.17582274973392487, 0.20313400030136108, 0.15526962280273438, 0.26167404651641846], [-0.19920465350151062, -0.23076680302619934, -0.15490791201591492, -0.18083207309246063, 0.038457367569208145], [0.29356080293655396, 0.16964592039585114, 0.019273530691862106, -0.13253293931484222, -0.09319249540567398], [0.08998385816812515, 0.03872254863381386, 0.11043979227542877, 0.05934527516365051, 0.22139550745487213], [0.172560453414917, -0.11231120675802231, -0.1237383559346199, 0.028862234205007553, -0.058833200484514236], [0.17425857484340668, -0.027630025520920753, -0.12168905138969421, -0.3934577703475952, -0.06009533628821373], [-0.2064899504184723, -0.1937018781900406, -0.13993851840496063, -0.2743959128856659, -0.4359950125217438], [-0.2115190029144287, -0.008578330278396606, -0.049501679837703705, 0.05755268409848213, 0.15959030389785767], [0.17317388951778412, -0.005873067770153284, 0.06654690951108932, -0.07276931405067444, -0.12556180357933044]], [[0.0288368072360754, 0.1140822097659111, 0.04109157994389534, -0.037723928689956665, -0.10341227799654007], [0.05281158536672592, 0.05109246075153351, 0.04576751962304115, -0.044025931507349014, -0.13167573511600494], [0.0416950099170208, 0.037217576056718826, 0.02666887640953064, -0.09236004203557968, -0.10186324268579483], [-0.10324496030807495, -0.030918458476662636, 0.038941629230976105, 0.07544262707233429, -0.18516819179058075], [-0.017824694514274597, 0.058289479464292526, 0.02739938348531723, -0.14583171904087067, -0.191168874502182], [-0.20275183022022247, -0.40588849782943726, -0.14478081464767456, -0.10746332257986069, -0.00427533034235239], [-0.37595024704933167, -0.13214601576328278, 0.014494734816253185, 0.05972464755177498, 0.04858969524502754], [0.17079848051071167, 0.11082682758569717, 0.039338160306215286, -0.11036860197782516, -0.23297151923179626], [-0.27445733547210693, -0.31743964552879333, -0.14999039471149445, -0.08836779743432999, 0.03426185995340347], [-0.440560907125473, -0.07625503838062286, 0.17358951270580292, 0.14740735292434692, 0.13625255227088928], [-0.22233930230140686, -0.047902025282382965, 0.06471900641918182, 0.05521862581372261, 0.21200835704803467], [0.08519309014081955, 0.11615901440382004, 0.02277427911758423, -0.21743711829185486, -0.28740426898002625], [-0.4230422079563141, -0.07408371567726135, 0.030364736914634705, 0.11613499373197556, 0.29242590069770813], [-0.04902329295873642, 0.12309210002422333, 0.10997112840414047, 0.15396881103515625, 0.03181875869631767], [0.033683452755212784, 0.011766277253627777, -0.15086224675178528, -0.10076039284467697, -0.025969771668314934], [-0.2773318588733673, -0.14410945773124695, -0.1356363147497177, 0.07381648570299149, 0.16070476174354553], [-0.07498283684253693, -0.11719150841236115, -0.07589057087898254, -0.12515904009342194, 0.20982421934604645], [-0.017084665596485138, 0.02684779092669487, 0.1326264888048172, 0.04349043592810631, -0.13125871121883392], [-0.06525569409132004, -0.009535728953778744, 0.21147437393665314, 0.06547798216342926, -0.2857128381729126], [0.2245398610830307, 0.10861987620592117, 0.06319984048604965, 0.01735994592308998, -0.18465423583984375], [-0.060243550688028336, 0.06758777797222137, 0.15033495426177979, 0.1736496537923813, 0.12543241679668427], [-0.2079070806503296, -0.02505306340754032, 0.021841224282979965, 0.09319514781236649, 0.36947306990623474], [0.2726980745792389, 0.12307378649711609, 0.10997428745031357, -0.12936879694461823, -0.44114938378334045], [-0.3695446848869324, -0.032706085592508316, 0.0919535756111145, 0.16222058236598969, 0.3039097189903259], [0.20024290680885315, 0.07937975227832794, -0.03138630464673042, -0.07208865880966187, -0.2996159791946411], [-0.04764929786324501, 0.01744982786476612, 0.02664877288043499, -0.055672477930784225, -0.31525105237960815], [0.37948736548423767, 0.1288500428199768, 0.00785785261541605, -0.10960427671670914, -0.3017498254776001], [-0.2785319685935974, -0.1147855669260025, -0.04732102155685425, 0.11600419133901596, 0.028548715636134148], [-0.11378148943185806, 0.13672393560409546, 0.15869653224945068, 0.07131756097078323, 0.08607543259859085], [-0.028368601575493813, 0.011500556953251362, 0.19337612390518188, -0.0923747792840004, -0.5563536286354065], [0.22388584911823273, 0.0451601967215538, 0.15325535833835602, 0.009240019135177135, -0.5335427522659302], [-0.20870773494243622, 0.03322642296552658, 0.15097539126873016, 0.22217807173728943, 0.19155606627464294], [0.11506584286689758, 0.048029981553554535, 0.057986561208963394, 0.03675857186317444, 0.0043768733739852905], [-0.28249603509902954, -0.07901477068662643, 0.0733376145362854, 0.11112397164106369, 0.15979288518428802], [0.08599428832530975, 0.05459033325314522, 0.04763532802462578, -0.005947840865701437, -0.02508215233683586], [0.003919747192412615, 0.02505131997168064, 0.04259345307946205, 0.03298504278063774, 0.06516043841838837], [0.1025121733546257, 0.09083333611488342, 0.09714468568563461, 0.11904672533273697, 0.07334958761930466], [-0.18385744094848633, -0.0023831508588045835, -0.06392877548933029, 0.1509445309638977, -0.0005897107184864581], [-0.27188119292259216, -0.13032621145248413, 0.0879305973649025, 0.15028035640716553, 0.20982028543949127], [-0.20351077616214752, -0.04948541894555092, 0.060495775192976, -0.029810264706611633, -0.19018732011318207], [-0.05922216549515724, 0.05605371668934822, 0.04385048896074295, -0.09652093797922134, -0.36324605345726013], [-0.42771077156066895, 0.03227797523140907, 0.21196489036083221, 0.04574299603700638, -0.06691905111074448], [-0.15610836446285248, -0.11140281707048416, -0.09763647615909576, 0.0056756166741251945, -0.004694273229688406], [0.05811105668544769, -0.0499165840446949, -0.10152025520801544, -0.08627946674823761, 0.20018914341926575], [-0.36317795515060425, -0.018593108281493187, 0.007492495235055685, 0.06830763816833496, 0.07595852017402649], [-0.390863835811615, -0.17960767447948456, -0.05383167415857315, 0.2317829430103302, 0.19616848230361938], [0.019474314525723457, -0.022629765793681145, 0.026327094063162804, 0.03312574699521065, -0.2725892663002014], [-0.46103259921073914, 0.0051965354941785336, 0.07083552330732346, 0.18098151683807373, 0.1836128979921341]], [[-0.08698403090238571, -0.08799483627080917, 0.02214801125228405, -0.13830772042274475, -0.09346671402454376], [0.09784591943025589, 0.1281438022851944, 0.13255086541175842, 0.155135378241539, 0.1476382613182068], [-0.6583736538887024, -0.5802908539772034, -0.9368560910224915, -0.8565601706504822, -0.4258069097995758], [-0.23575440049171448, -0.029699062928557396, 0.07369411736726761, -0.001484403619542718, -0.14267927408218384], [0.1137908548116684, 0.15235161781311035, -0.019073858857154846, 0.004387175664305687, 0.01379136648029089], [-0.29616227746009827, -0.21976794302463531, 0.025304211303591728, -0.2916398048400879, -0.20507018268108368], [0.13401494920253754, 0.09249457716941833, 0.025680506601929665, 0.023378407582640648, -0.018038006499409676], [-0.13718703389167786, 0.14999043941497803, 0.07904230803251266, 0.03915291279554367, -0.4188539683818817], [-0.1818772256374359, 0.07525940239429474, 0.20705759525299072, 0.10561007261276245, -0.03337181732058525], [-0.715688943862915, -0.4781860411167145, -0.12398499250411987, 0.05307099595665932, 0.323329359292984], [-0.023680197075009346, 0.05954228341579437, 0.10297787189483643, -0.01696229912340641, -0.20133526623249054], [-0.14461186528205872, -0.036008648574352264, -0.44002634286880493, -0.1601489633321762, -0.4859835207462311], [-0.3566502034664154, -0.4208640158176422, -0.20591308176517487, 0.25449785590171814, 0.38567858934402466], [0.17634588479995728, 0.10664654523134232, 0.06981010735034943, -0.028922973200678825, -0.0616544745862484], [-0.3681058883666992, -0.22219598293304443, 0.011191273108124733, 0.09273358434438705, 0.05162462964653969], [-0.08530587702989578, -0.25390490889549255, -0.42593055963516235, -0.39259886741638184, -0.41418737173080444], [-0.3669114112854004, -0.06930628418922424, 0.024571094661951065, 0.16208596527576447, -0.07718012481927872], [-0.20618440210819244, -0.08022044599056244, 0.0605119988322258, 0.055186834186315536, -0.2664841115474701], [-0.25532376766204834, -0.16995540261268616, -0.14570042490959167, 0.11484326422214508, 0.28970006108283997], [0.13324791193008423, 0.03326039016246796, -0.13966767489910126, -0.14161057770252228, -0.2567823827266693], [0.12775664031505585, 0.06184786185622215, -0.08369119465351105, -0.08888407051563263, -0.1606842279434204], [-0.0882197692990303, 0.10681367665529251, 0.15541517734527588, 0.24413412809371948, -0.06288952380418777], [0.07001809775829315, -0.04631093889474869, 0.02954021282494068, -0.07331912219524384, -0.6454995274543762], [-0.18266594409942627, 0.06426103413105011, 0.12225430458784103, 0.09851270914077759, -0.09580599516630173], [0.07137323170900345, -0.05088129639625549, -0.08948638290166855, -0.25820475816726685, -0.2063578963279724], [0.12158647179603577, -0.057599857449531555, -0.10989474505186081, 0.03682165965437889, 0.06862682104110718], [-0.01729764975607395, -0.2434823215007782, -0.0933065265417099, -0.1226632297039032, -0.25525087118148804], [0.014131169766187668, 0.029213393107056618, -0.15664644539356232, -0.2088981717824936, -0.1034592017531395], [-0.4132223427295685, -0.22243048250675201, 0.011605506762862206, -0.01076371781527996, -0.21908073127269745], [-0.2628534138202667, -0.20625396072864532, -0.26666459441185, -0.3238561451435089, -0.5690641403198242], [0.0325479619204998, -0.09019701927900314, 0.12246853113174438, -0.0660884901881218, -0.005629189312458038], [0.14272086322307587, 0.1697869896888733, 0.11631450057029724, -0.01707991398870945, -0.008325953967869282], [-0.08263280987739563, -0.18382485210895538, -0.018131734803318977, -0.11410286277532578, -0.5636085867881775], [-0.024795781821012497, 0.05329364538192749, 0.06615087389945984, -0.055966682732105255, -0.17161554098129272], [-0.32109659910202026, -0.19617870450019836, -0.1420944631099701, -0.07925776392221451, 0.13907283544540405], [-0.03820980712771416, 0.02383352629840374, 0.17916208505630493, 0.2489156574010849, 0.20958878099918365], [0.13335876166820526, 0.05203458294272423, 0.027367185801267624, 0.01605198159813881, -0.10138323158025742], [-0.43737611174583435, -0.5764523148536682, -0.6982221007347107, -0.8190005421638489, -0.94230717420578], [0.24855627119541168, 0.1778528243303299, 0.10738075524568558, -0.05742890387773514, -0.18938633799552917], [0.10082555562257767, 0.07454632967710495, 0.026494644582271576, -0.18176651000976562, -0.004356875084340572], [0.29831311106681824, 0.0980214923620224, 0.10547882318496704, 0.056343793869018555, 0.20777830481529236], [0.12145853042602539, 0.22408872842788696, 0.07951068133115768, -0.11562197655439377, -0.09381941705942154], [-0.03560754284262657, -0.22197191417217255, -0.12974396347999573, -0.3343106508255005, -0.4701882004737854], [-0.0864911824464798, -0.05806000530719757, 0.06573760509490967, 0.07211705297231674, -0.09401271492242813], [-0.03387373685836792, 0.23695304989814758, 0.12893714010715485, -0.07457035779953003, -0.024957725778222084], [0.3631956875324249, 0.37698084115982056, 0.2051495462656021, 0.14690928161144257, -0.08591251075267792], [-0.3803013563156128, 0.36078858375549316, -0.0408589169383049, 0.10686227679252625, 0.24545498192310333], [-0.19058144092559814, -0.07642704993486404, -0.04473954811692238, 0.11923102289438248, 0.032955352216959]], [[-0.23756901919841766, -0.13952268660068512, -0.1255849003791809, -0.20342442393302917, -0.1024155244231224], [0.021417271345853806, 0.04232378676533699, 0.0749448910355568, 0.057060711085796356, -0.05867595598101616], [0.49460574984550476, 0.4708220362663269, 0.5135251879692078, 0.613355278968811, 0.6169561743736267], [0.23531147837638855, 0.06575857847929001, 0.06265126913785934, 0.10425395518541336, 0.124041348695755], [-0.019341545179486275, 0.04785337299108505, 0.14922581613063812, 0.18590861558914185, 0.08692660182714462], [-0.12022672593593597, -0.20335416495800018, -0.03592647239565849, -0.08018533885478973, -0.19815309345722198], [-0.18287178874015808, 0.040150221437215805, 0.1550092250108719, 0.24378472566604614, 0.17332836985588074], [-0.02190639264881611, 0.055776000022888184, 0.03256683796644211, 0.05605243891477585, 0.27262404561042786], [-0.45639774203300476, -0.2232036292552948, -0.06152518838644028, -0.16703665256500244, -0.07870422303676605], [-0.019273260608315468, -0.21137654781341553, -0.08422987163066864, 0.023690681904554367, -0.17203885316848755], [-0.06893930584192276, 0.1465766429901123, 0.2128237634897232, 0.09277671575546265, 0.21861162781715393], [0.28321895003318787, 0.11478246003389359, 0.15529926121234894, 0.18862029910087585, 0.19489753246307373], [0.24886776506900787, 0.01477977354079485, -0.16179892420768738, -0.08473950624465942, -0.0917603000998497], [0.1085190549492836, -0.02857613004744053, 0.0385717935860157, -0.04362408071756363, -0.11502204835414886], [0.00632970966398716, 0.14976729452610016, -0.06193307042121887, -0.032528091222047806, -0.20465929806232452], [0.22204537689685822, 0.2361268699169159, 0.32202357053756714, 0.22324098646640778, -0.0896204486489296], [-0.19555845856666565, -0.08811779320240021, -0.08180157095193863, 0.028064507991075516, 0.046378228813409805], [0.3540506362915039, 0.21865497529506683, 0.03540045768022537, -0.0056148418225348, 0.02277391217648983], [0.05123741924762726, 0.06753769516944885, -0.05524604022502899, -0.11748285591602325, 0.04690191522240639], [-0.07142399251461029, -0.06985055655241013, -0.15036450326442719, -0.1309565305709839, -0.06142113357782364], [0.3195333182811737, 0.31431373953819275, 0.28696948289871216, 0.2962591052055359, 0.28046247363090515], [-0.07406627386808395, 0.1306052803993225, -0.16214683651924133, -0.051990848034620285, -0.23962028324604034], [-0.2797496020793915, 0.06339418143033981, 0.005113499704748392, 0.21722085773944855, 0.551162600517273], [0.06486811488866806, 0.13043606281280518, -0.06815388053655624, -0.09828441590070724, -0.015531125478446484], [-0.1187298446893692, -0.06524059921503067, -0.18345580995082855, -0.14190585911273956, 0.026021668687462807], [-0.12271179258823395, 0.10302034020423889, 0.18394169211387634, 0.0831795409321785, 0.05026352405548096], [-0.43877583742141724, -0.0924723669886589, -0.04894893988966942, 0.06376972794532776, 0.09271729737520218], [0.18927492201328278, 0.14083996415138245, 0.2160559594631195, 0.1596323847770691, 0.07346690446138382], [0.35949650406837463, 0.14726729691028595, 0.07302282005548477, -0.001636524684727192, 0.027540132403373718], [-0.09348110109567642, 0.04130969196557999, 0.05793825909495354, 0.06992682814598083, 0.17382670938968658], [-0.01947471871972084, 0.04161394387483597, -0.028532695025205612, 0.07157274335622787, 0.370233952999115], [0.08157743513584137, 0.10448001325130463, 0.051066286861896515, -0.06949851661920547, -0.007570344023406506], [-0.588395357131958, -0.2685001492500305, -0.24466517567634583, -0.12127799540758133, -0.03793450444936752], [0.29914233088493347, 0.23100709915161133, 0.078246109187603, 0.10524493455886841, 0.08969339728355408], [-0.21011461317539215, -0.06611654162406921, 0.08078893274068832, 0.06427024304866791, -0.05065780133008957], [0.08663418889045715, 0.15431831777095795, 0.11884592473506927, 0.013909729197621346, -0.06447906047105789], [0.09665624797344208, 0.01475268229842186, 0.08781424164772034, 0.015707476064562798, 0.021575957536697388], [0.34325969219207764, 0.315705269575119, 0.36455774307250977, 0.33173415064811707, 0.17997616529464722], [-0.05992387607693672, 0.0744231790304184, 0.09221737086772919, 0.021133799105882645, -0.12458468973636627], [0.14213036000728607, 0.08670936524868011, 0.21953998506069183, 0.26125016808509827, 0.16083738207817078], [0.06767591089010239, -0.034008368849754333, -0.07149688154459, -0.14052405953407288, 0.127900168299675], [-0.34198763966560364, 0.026975279673933983, 0.19247153401374817, 0.2871866226196289, 0.060674913227558136], [-0.08532731235027313, -0.07410271465778351, 0.05939943343400955, -0.09302905201911926, 0.06705395877361298], [0.11655371636152267, 0.010689254850149155, 0.05393128842115402, -0.12208988517522812, 0.007272790651768446], [-0.004835308063775301, 0.04440250247716904, -0.0017336283344775438, -0.0007793260738253593, 0.02373497374355793], [-0.10492762923240662, -0.10195956379175186, 0.008225995115935802, 0.010475867427885532, -0.09026031941175461], [0.4051835834980011, 0.6094468832015991, 0.41859039664268494, 0.5060096979141235, 0.4815053641796112], [-0.48817384243011475, 0.14392411708831787, -0.04465259984135628, 0.0969928726553917, -0.0186484195291996]], [[0.19884198904037476, 0.162376269698143, 0.07759756594896317, -0.19587358832359314, -0.24840950965881348], [0.1440519541501999, 0.0897592306137085, -0.046946678310632706, -0.01609230600297451, 0.07971490174531937], [0.2966690957546234, 0.21964634954929352, 0.07496461272239685, -0.00957745686173439, -0.035676922649145126], [0.04428020864725113, -0.006850695703178644, -0.034482311457395554, 0.037756919860839844, -0.10819750279188156], [-0.036590076982975006, -0.15754260122776031, -0.200997456908226, -0.23116078972816467, -0.1366899311542511], [-0.013204503804445267, 0.05464884638786316, -0.04982820525765419, -0.05937677249312401, -0.25131160020828247], [-0.07624775171279907, 0.04009942710399628, 0.06041358411312103, 0.17996710538864136, 0.16807988286018372], [-0.17523449659347534, -0.09974761307239532, -0.14309844374656677, -0.1476753205060959, 0.13443180918693542], [0.29944804310798645, 0.21718546748161316, 0.04387941211462021, -0.10943849384784698, -0.16529886424541473], [-0.2112654745578766, 0.14281080663204193, 0.14539778232574463, 0.1440613567829132, 0.12193311750888824], [0.09725982695817947, 0.12500335276126862, -0.010945020243525505, 0.022164711728692055, 0.04278520867228508], [0.06981322914361954, 0.08496835827827454, 0.04718877747654915, -0.1258770227432251, 0.052333079278469086], [-0.19423264265060425, 0.04808596521615982, 0.039882928133010864, 0.19637636840343475, 0.12251942604780197], [-0.06890604645013809, 0.018116720020771027, 0.029379714280366898, -0.03934890776872635, 0.02165638841688633], [0.05386260896921158, -0.11306601017713547, 0.041019801050424576, -0.07020760327577591, -0.294238805770874], [-0.47822463512420654, -0.16089363396167755, -0.1745210587978363, 0.12173359841108322, 0.18132486939430237], [-0.36753660440444946, -0.24174903333187103, -0.17594875395298004, -0.08841115981340408, 0.007833529263734818], [-0.17234644293785095, -0.0820157453417778, -0.21017147600650787, -0.17615410685539246, -0.22909356653690338], [0.07992539554834366, 0.17189103364944458, 0.04281805828213692, 0.0012432802468538284, 0.10195408016443253], [0.125091090798378, 0.08176952600479126, 0.1510244905948639, 0.12713883817195892, 0.19634754955768585], [0.22067585587501526, 0.14320780336856842, 0.23917128145694733, 0.10542342811822891, -0.015253651887178421], [0.00350548280403018, -0.1283997893333435, -0.2757399380207062, -0.038912948220968246, -0.010931577533483505], [0.1466798037290573, 0.15782354772090912, 0.05888524651527405, -0.016615785658359528, 0.25479012727737427], [-0.7178682088851929, -0.07823555171489716, -0.24735714495182037, -0.088736891746521, -0.31608957052230835], [0.13907714188098907, 0.18188750743865967, 0.16962651908397675, 0.08361752331256866, 0.1877804547548294], [0.11381802707910538, 0.048166971653699875, -0.03345668315887451, 0.034978196024894714, -0.3361344337463379], [0.38505762815475464, 0.28044918179512024, 0.22171063721179962, 0.12910716235637665, 0.26093339920043945], [-0.10638710856437683, 0.11006585508584976, 0.08103372901678085, 0.21107590198516846, 0.2403688281774521], [-0.35766035318374634, -0.023336943238973618, -0.2627549469470978, -0.45452943444252014, -0.5074332356452942], [0.10302278399467468, 0.05577182397246361, -0.14650924503803253, -0.014726771973073483, 0.20150579512119293], [0.26659321784973145, 0.3345786929130554, 0.24379976093769073, -0.12321938574314117, -0.32429513335227966], [0.129487544298172, 0.15742287039756775, 0.2584382891654968, 0.22559554874897003, 0.0741502046585083], [0.2652045786380768, 0.12018077075481415, 0.10673470050096512, 0.027670124545693398, 0.2722198963165283], [0.1689939647912979, 0.35387757420539856, 0.3084062337875366, 0.3212546408176422, 0.1543559581041336], [0.26820456981658936, 0.13506466150283813, 0.12796346843242645, 0.30742794275283813, 0.15776388347148895], [0.3091058135032654, 0.15502271056175232, 0.09873184561729431, 0.008985103107988834, -0.12779398262500763], [0.07202185690402985, 0.13418656587600708, 0.13346977531909943, 0.08243172615766525, 0.05146537348628044], [-0.7288260459899902, -0.08972961455583572, -0.0267277080565691, 0.3983708620071411, 0.23063801229000092], [-0.193579763174057, -0.04856524243950844, 0.11520541459321976, 0.2324157953262329, 0.020868156105279922], [0.1954921931028366, 0.15708816051483154, 0.15776266157627106, -0.049907974898815155, -0.5171909928321838], [-0.15272830426692963, -0.14146897196769714, -0.027925562113523483, -0.0749998465180397, 0.15186229348182678], [-0.1662970632314682, -0.05507873371243477, -0.05623139441013336, 0.05793328210711479, -0.06609352678060532], [0.08934646099805832, 0.04924869164824486, 0.07491043210029602, 0.19107374548912048, 0.17023345828056335], [0.005162006709724665, 0.05263841524720192, 0.010614151135087013, 0.11046168953180313, -0.21658611297607422], [-0.6777302622795105, -0.28732675313949585, -0.3146868050098419, -0.10838619619607925, 0.042653653770685196], [-0.6819655299186707, -0.2522696256637573, 0.01582772471010685, 0.19500212371349335, 0.0582934208214283], [-0.22816027700901031, -0.21115007996559143, -0.2885875701904297, -0.44897961616516113, -0.27370738983154297], [-0.02806587889790535, 0.019106151536107063, -0.09827493876218796, -0.0015665868995711207, -0.04998939111828804]], [[0.21180351078510284, 0.4359917640686035, -0.03435232490301132, -0.021939484402537346, 0.11757664382457733], [-0.04643746837973595, -0.07310720533132553, -0.09796899557113647, -0.06274182349443436, -0.08755939453840256], [-0.11950593441724777, -0.2731466293334961, -0.15261319279670715, -0.19214653968811035, -0.11560723185539246], [0.06003656983375549, 0.15837451815605164, 0.2190750241279602, 0.14405934512615204, 0.17647933959960938], [0.03131299465894699, -0.09806443750858307, -0.14626003801822662, -0.16407410800457, -0.10943347960710526], [0.12750031054019928, -0.2751505374908447, 0.05810486897826195, -0.11145084351301193, -0.2002556324005127], [0.06183267757296562, 0.15742389857769012, -0.1745450496673584, -0.09686242789030075, -0.05768117308616638], [-0.08765143901109695, -0.034835442900657654, -0.14544448256492615, -0.04817544296383858, 0.008295171894133091], [0.18306773900985718, -0.02763291448354721, 0.00870593823492527, 0.22781769931316376, 0.2731015682220459], [-0.3257513642311096, -0.12690486013889313, -0.07151806354522705, -0.08678878098726273, -0.27594923973083496], [-0.798863410949707, -0.38304752111434937, -0.44354984164237976, -0.3959406614303589, -0.13569293916225433], [-0.0997108742594719, -0.11469420790672302, 0.10969153791666031, 0.10578632354736328, 0.034739550203084946], [0.0664072334766388, 0.003304450074210763, -0.1073693186044693, 0.009029502980411053, -0.26287391781806946], [-0.018139995634555817, 0.020815975964069366, 0.002221633680164814, -0.008682796731591225, -0.018849126994609833], [0.11844342201948166, 0.18372657895088196, 0.07222175598144531, 0.03247130662202835, -0.28002113103866577], [0.37644001841545105, 0.33894282579421997, 0.27834340929985046, 0.1189398244023323, 0.14306284487247467], [-0.39285847544670105, -0.41313958168029785, -0.04774069786071777, 0.09490567445755005, -0.11375956982374191], [0.10431300848722458, 0.15040403604507446, 0.13876433670520782, 0.14343518018722534, 0.07206220924854279], [0.05764720216393471, 0.05443168431520462, 0.09669613093137741, -0.01512028370052576, -0.1763126403093338], [0.08258844166994095, 0.09404759109020233, 0.008399361744523048, -0.05918234586715698, 0.011251352727413177], [-0.9175123572349548, -0.4697926640510559, -0.3423694372177124, -0.09196774661540985, 0.12574578821659088], [-0.00980658270418644, -0.27307283878326416, -0.04052652791142464, 0.23588408529758453, 0.09895645827054977], [-0.08922766894102097, 0.19347888231277466, 0.25664496421813965, 0.1851876676082611, 0.19226042926311493], [-0.025811435654759407, 0.01601250283420086, 0.05681828036904335, 0.018633587285876274, -0.18172907829284668], [0.07484889775514603, 0.05355234071612358, -0.09200463443994522, 0.016001146286725998, 0.024486562237143517], [-0.14150270819664001, -0.4543224573135376, -0.18223519623279572, -0.05830246955156326, -0.46030017733573914], [-0.17963328957557678, 0.1265859752893448, 0.13931041955947876, 0.11795315891504288, 0.2302420735359192], [0.02334562875330448, 0.04216534644365311, 0.050754573196172714, 0.08606205135583878, -0.023440204560756683], [0.06576470285654068, -0.005207092501223087, -0.11797592788934708, -0.10392455011606216, -0.18308967351913452], [0.33069249987602234, 0.12466426193714142, -0.03442753106355667, -0.42299145460128784, -0.3625432848930359], [0.1256033033132553, 0.0012737703509628773, -0.08309487998485565, 0.1765976995229721, 0.16671545803546906], [-0.22874115407466888, -0.20462001860141754, -0.21607843041419983, -0.13100817799568176, -0.07517927139997482], [-0.11850367486476898, 0.20287159085273743, 0.3347691595554352, 0.2028890997171402, 0.31779584288597107], [0.2427210658788681, 0.0675390288233757, 0.15583889186382294, 0.15763019025325775, 0.0955396294593811], [0.3035934269428253, 0.07953064143657684, -0.06256519258022308, -0.15338680148124695, -0.04673461243510246], [-0.19699515402317047, -0.1622089147567749, -0.037419602274894714, -0.07547874003648758, 0.041941363364458084], [-0.09456697106361389, 0.053769081830978394, 0.03135127201676369, -0.01942952536046505, 0.012839308008551598], [-0.0440298393368721, -0.028455611318349838, 0.03471631184220314, -0.24251164495944977, -0.2749079763889313], [-0.1344422698020935, -0.2440221756696701, -0.17707863450050354, -0.12272410839796066, -0.07909983396530151], [-0.115252286195755, 0.0498877689242363, 0.3546340763568878, 0.0747494101524353, 0.08563370257616043], [0.018372897058725357, -0.05174912139773369, 0.07088956981897354, -0.004192915745079517, -0.0029091662727296352], [-0.45313534140586853, -0.3588537871837616, -0.12659741938114166, -0.2229972928762436, 0.06907059252262115], [-0.19698211550712585, -0.1752461940050125, -0.6432285904884338, -0.4071539044380188, -0.330555260181427], [-0.23299376666545868, -0.034166350960731506, 0.1433764398097992, 0.10019510984420776, 0.029652658849954605], [0.1281290054321289, 0.012986980378627777, -0.0370793379843235, -0.12012386322021484, -0.21441036462783813], [-0.23774322867393494, -0.28049415349960327, -0.26629409193992615, -0.18854974210262299, -0.1888698935508728], [-0.30693933367729187, -0.07635322958230972, -0.009927697479724884, 0.014087311923503876, 0.1211227998137474], [-0.896148681640625, 0.11045823991298676, -0.21387656033039093, -0.48325878381729126, -0.2567584812641144]], [[0.08593421429395676, -0.03130533918738365, -0.08164665848016739, -0.053897034376859665, -0.2678684890270233], [0.12136411666870117, -0.018229246139526367, -0.07127532362937927, -0.13873499631881714, -0.2944246530532837], [-0.692788302898407, -0.30686280131340027, -0.19796516001224518, -0.48532459139823914, -0.39000916481018066], [0.05043018236756325, 0.03040148876607418, 0.06087395176291466, 0.12777480483055115, -0.2121550738811493], [0.06294368207454681, 0.07053575664758682, 0.060917552560567856, -0.11379280686378479, -0.4639694094657898], [-0.6610708832740784, -0.6505118012428284, -0.04858865961432457, -0.4117997884750366, 0.2379729002714157], [-0.13144329190254211, -0.052747439593076706, 0.0845366045832634, 0.0575408935546875, 0.017416562885046005], [0.28160688281059265, 0.13235512375831604, 0.20123666524887085, 0.2672102153301239, -0.7479734420776367], [-0.7696207165718079, -0.7239129543304443, -0.6635945439338684, -0.3984585702419281, -0.670150637626648], [0.13449731469154358, -0.10473526269197464, 0.10719379782676697, -0.0020248352084308863, 0.2541610300540924], [-0.29228246212005615, -0.21029110252857208, 0.15480577945709229, 0.20819605886936188, 0.2538272738456726], [-0.16504211723804474, -0.038635723292827606, 0.18145287036895752, 0.0764537826180458, 0.17211467027664185], [0.267333447933197, 0.03838436305522919, 0.24495916068553925, 0.04917030408978462, -0.07014401257038116], [-0.07641272246837616, -0.055455539375543594, 0.01200354564934969, 0.008670282550156116, 0.03411091864109039], [-0.12432239204645157, -0.12318605929613113, -0.16177202761173248, 0.06337739527225494, 0.013723275624215603], [-0.4272248446941376, -0.6157451868057251, -0.5560683012008667, -0.32683658599853516, -0.1587527096271515], [-0.17284758388996124, -0.14263850450515747, -0.12818153202533722, -0.08533418923616409, 0.05777962505817413], [0.033090993762016296, 0.02475695312023163, 0.05895914509892464, 0.1130078062415123, -0.2053668200969696], [-0.1556575745344162, 0.10643979161977768, -0.06264691054821014, 0.02125285565853119, 0.3742295503616333], [-0.009713304229080677, 0.11060920357704163, 0.09108215570449829, 0.1884526163339615, 0.05979808047413826], [0.1629885882139206, -0.015210428275167942, 0.04525064304471016, 0.0035638625267893076, 0.029788043349981308], [0.04944212734699249, -0.019390014931559563, -0.07759592682123184, -0.06996958702802658, 0.26087138056755066], [-0.0068604592233896255, -0.16274285316467285, 0.03151405230164528, 0.07156147807836533, 0.015812641009688377], [-0.04596578702330589, -0.017038974910974503, 0.1458471119403839, 0.42447856068611145, 0.4292275607585907], [-0.005860745906829834, 0.09035459905862808, 0.08014419674873352, 0.1724288910627365, 0.05603177845478058], [0.17686064541339874, 0.06803938746452332, -0.051450468599796295, -0.003667535725980997, -0.327806293964386], [0.061045512557029724, -0.03701649233698845, -0.10360240191221237, 0.08642871677875519, 0.1161874458193779], [0.23907077312469482, 0.20568038523197174, 0.18129131197929382, 0.13104112446308136, 0.22943738102912903], [-0.07972630858421326, -0.11085623502731323, -0.04889756813645363, 0.44225627183914185, 0.35207921266555786], [-0.04998496547341347, -0.16016946732997894, -0.10555518418550491, -0.06364740431308746, 0.06869196146726608], [0.29101595282554626, 0.14226573705673218, 0.04443439096212387, -0.07019070535898209, -0.11914744228124619], [0.09041962772607803, -0.006517629139125347, -0.00673429062590003, -0.12287992238998413, -0.0798819288611412], [-0.029229525476694107, -0.02855299413204193, 0.057401835918426514, 0.16308660805225372, 0.10851240903139114], [0.1309499740600586, 0.08681699633598328, 0.24055080115795135, 0.2813414931297302, 0.22543108463287354], [0.06417571008205414, -0.07383512705564499, -0.05377320200204849, -0.12036652117967606, -0.34327003359794617], [-0.0489647276699543, 0.10336311161518097, 0.11053980886936188, 0.11535407602787018, -0.04025466740131378], [-0.018773743882775307, -0.05540136992931366, -0.11502394825220108, 0.029812172055244446, 0.1232156902551651], [0.1362878680229187, -0.3220512866973877, -0.5453835129737854, -0.7385187149047852, -0.5117785334587097], [0.04139915853738785, -0.015263918787240982, -0.0038350261747837067, -0.12837128341197968, -0.15702085196971893], [0.13263651728630066, 0.00667019747197628, 0.027909742668271065, -0.10366109758615494, 0.11304396390914917], [0.0313921757042408, -0.020587177947163582, 0.03059776872396469, 0.06802815198898315, 0.15423746407032013], [0.25898268818855286, 0.1325272172689438, 0.05944913625717163, 0.06116082891821861, -0.13799500465393066], [-0.08330456167459488, 0.03167123720049858, -0.02094254456460476, 0.08675304055213928, -0.07818585634231567], [0.031185153871774673, -0.09499969333410263, -0.1954955756664276, -0.1462831348180771, 0.014618049375712872], [-0.042942341417074203, -0.13948585093021393, -0.12061100453138351, -0.0290608461946249, 0.07375235855579376], [-0.12320462614297867, -0.10969310998916626, -0.1059645339846611, -0.24305810034275055, -0.5058974027633667], [0.3579834997653961, 0.066923126578331, 0.12775425612926483, -0.11072834581136703, -0.20654958486557007], [0.003931208048015833, -0.036109425127506256, 0.05497771501541138, 0.2322414666414261, 0.030313333496451378]], [[-0.2558947503566742, -0.10261333733797073, -0.2222547084093094, -0.2802278995513916, -0.8376175761222839], [-0.09071195870637894, -0.1305791586637497, 0.012165111489593983, -0.0071166870184242725, -0.47630077600479126], [-0.6812485456466675, -0.332789808511734, -0.1186392679810524, -0.1435651034116745, -0.43827003240585327], [0.06738190352916718, 0.012318679131567478, 0.045495640486478806, 0.21141766011714935, -0.011345846578478813], [-0.020508401095867157, -0.041267432272434235, -0.006602689158171415, -0.14359207451343536, -0.4759232699871063], [-0.016465039923787117, -0.15868647396564484, -0.04790943115949631, -0.006546657532453537, 0.049734264612197876], [-0.435627281665802, -0.16531254351139069, -0.03903418034315109, 0.07503458112478256, -0.0017725809011608362], [0.16710643470287323, -0.04977179691195488, 0.008311610668897629, -0.020952453836798668, -0.07839611917734146], [0.08069666475057602, -0.01344228070229292, 0.04159089922904968, -0.01140012126415968, 0.015497512184083462], [-0.16521157324314117, -0.10663530230522156, -0.017960386350750923, 0.011132326908409595, -0.049485042691230774], [-0.02522978000342846, 0.12139108777046204, 0.09027460217475891, 0.026622524484992027, 0.07006462663412094], [0.023172056302428246, 0.0017203039024025202, 0.07015972584486008, -0.18464085459709167, -0.704705536365509], [-0.4439983665943146, -0.022630639374256134, 0.0626455694437027, -0.013070276007056236, 0.15366816520690918], [0.2939557433128357, 0.2757095396518707, 0.21431031823158264, 0.25955766439437866, 0.12996065616607666], [0.16306492686271667, 0.06554335355758667, -0.17346921563148499, -0.028327438980340958, -0.11485182493925095], [-0.5549505352973938, -0.42594489455223083, -0.16482964158058167, 0.13497036695480347, 0.1210055723786354], [0.029883895069360733, -0.1660478562116623, -0.11294563114643097, -0.14885066449642181, 0.05358075723052025], [0.1968061476945877, 0.09917164593935013, 0.12252003699541092, 0.09326618909835815, -0.12321972846984863], [0.05783357098698616, 0.06439853459596634, 0.10626061260700226, 0.05258723348379135, -0.3233802616596222], [0.2380923479795456, 0.2571684420108795, 0.12320591509342194, -0.06524713337421417, -0.25265464186668396], [-0.16756571829319, 0.03737086057662964, 0.13708831369876862, 0.15526166558265686, 0.16699862480163574], [-0.10675187408924103, -0.11404244601726532, -0.11371256411075592, 0.05839192122220993, 0.2869143486022949], [0.09082222729921341, 0.030794454738497734, -0.11365806311368942, -0.15001891553401947, -0.2403583526611328], [-0.03679951652884483, 0.012382768094539642, -0.10218223184347153, -0.07604549825191498, 0.11168545484542847], [0.29015105962753296, 0.1948043704032898, 0.11759054660797119, -0.15602588653564453, -0.38131991028785706], [-0.14376221597194672, 0.0203928854316473, 0.04809316247701645, -0.1493210792541504, -0.2920271158218384], [0.10882154107093811, -0.01950029470026493, -0.2336856871843338, -0.27256670594215393, -0.20459140837192535], [-0.7072223424911499, -0.1799437552690506, -0.020997704938054085, 0.34082135558128357, 0.09927462041378021], [0.13032911717891693, 0.1228601261973381, 0.15957415103912354, 0.16272327303886414, 0.021731916815042496], [0.020654581487178802, -0.028697749599814415, 0.0031168065033853054, 0.012709392234683037, -0.12579500675201416], [0.11561395227909088, 0.09101136028766632, 0.17235136032104492, 0.0034699561074376106, -0.4160577952861786], [-0.3471454381942749, -0.07804892957210541, 0.10185392200946808, 0.1864493042230606, 0.1735534518957138], [0.12835070490837097, 0.17227905988693237, 0.13495291769504547, 0.14295998215675354, -0.0012588687241077423], [-0.38123759627342224, -0.054047297686338425, 0.19330723583698273, 0.30111244320869446, 0.349353551864624], [0.020488401874899864, -0.1322474628686905, -0.032705552875995636, -0.21162296831607819, -0.6131227016448975], [-0.07913779467344284, 0.040838830173015594, 0.004636094905436039, -0.06133728101849556, -0.16981537640094757], [0.06881164014339447, 0.12598100304603577, 0.1748615801334381, 0.11624159663915634, 0.0757971704006195], [-0.5062164068222046, -0.05347008258104324, -0.20415715873241425, -0.0823788046836853, -0.11283194273710251], [-0.5077425837516785, -0.17783665657043457, -0.06830788403749466, 0.1182309165596962, 0.22108867764472961], [-0.16212184727191925, 0.051001567393541336, 0.22441253066062927, 0.028913551941514015, -0.18851783871650696], [0.16263459622859955, 0.20095166563987732, 0.1288905143737793, -0.00891140941530466, -0.7573835849761963], [-0.32796916365623474, -0.19043031334877014, 0.04252965375781059, 0.1283969283103943, 0.1228267103433609], [-0.21596947312355042, 0.009793396107852459, -0.029913490638136864, -0.009420032612979412, 0.032659027725458145], [0.21341615915298462, 0.1375139206647873, -0.02739630825817585, -0.15563111007213593, -0.08897268027067184], [-0.23900389671325684, -0.10185649991035461, 0.03398210555315018, 0.02475031279027462, -0.16394881904125214], [-0.4962140619754791, -0.28506144881248474, -0.23927253484725952, -0.014988478273153305, 0.03638787195086479], [-0.29047438502311707, -0.3774719536304474, -0.2792072296142578, -0.06966135650873184, -0.604248046875], [-0.2530938684940338, -0.008271325379610062, 0.029723746702075005, 0.03021424449980259, 0.09854704141616821]], [[-0.5630182027816772, -0.4782871901988983, -0.33737674355506897, -0.2502550482749939, -0.3244452178478241], [0.18846134841442108, 0.16217422485351562, 0.15529802441596985, 0.19328318536281586, 0.2399417757987976], [-0.4711386561393738, -0.25520437955856323, -0.16371506452560425, 0.23121222853660583, 0.5924539566040039], [0.19470985233783722, 0.013574237003922462, -0.026111053302884102, -0.1665213257074356, -0.08181831985712051], [0.01646166667342186, 0.0018315897323191166, 0.06932955235242844, 0.08162163197994232, -0.035197917371988297], [-0.06626608967781067, -0.03768298774957657, 0.1945311278104782, 0.0340622179210186, -0.37702807784080505], [-0.0520048514008522, 0.04126027598977089, -0.00020391156431287527, 0.05769405886530876, 0.02334185503423214], [0.07210315763950348, 0.030278775840997696, -0.05479580536484718, -0.17147432267665863, -0.26405155658721924], [-0.011872077360749245, -0.029798677191138268, 0.027620989829301834, 0.17784176766872406, 0.033222828060388565], [0.012657977640628815, 0.15531392395496368, 0.08902634680271149, 0.12168136984109879, 0.047942016273736954], [-0.09694457799196243, -0.2844741940498352, 0.006490372121334076, 0.16443116962909698, 0.25665655732154846], [-0.043443627655506134, -0.00046625398681499064, 0.02981572598218918, 0.5214463472366333, 0.6870463490486145], [0.02124333381652832, 0.12289026379585266, 0.03304062411189079, 0.4000338912010193, 0.04262372851371765], [0.1331091672182083, 0.09789740294218063, 0.16667357087135315, 0.05614878982305527, 0.15724006295204163], [0.035031285136938095, 0.012770808301866055, 0.0029395457822829485, -0.1179841086268425, -0.08683353662490845], [-0.10350523144006729, -0.011479903012514114, 0.05046166107058525, 0.05758680775761604, 0.05247737839818001], [-0.7893651723861694, -0.3956591784954071, -0.11980055272579193, 0.10525080561637878, 0.003973235376179218], [0.26185092329978943, 0.04181967303156853, -0.057613857090473175, -0.2631125748157501, -0.3245963156223297], [-0.12925924360752106, -0.07387064397335052, -0.2660887539386749, -0.06380078941583633, -0.2821476459503174], [0.14559568464756012, 0.1997876763343811, 0.16982413828372955, 0.1792149841785431, 0.09594698250293732], [0.14988937973976135, 0.14528025686740875, 0.2995894253253937, 0.2545154392719269, 0.27133750915527344], [-0.1071527898311615, 0.12512247264385223, -0.024799171835184097, 0.16446392238140106, 0.0669219121336937], [-0.11752349138259888, -0.29939597845077515, -0.29300135374069214, -0.6405981779098511, -0.409695565700531], [-0.005159057676792145, 0.053843382745981216, 0.05978541448712349, 0.01092675793915987, -0.1036946251988411], [0.1561293751001358, 0.12665724754333496, 0.13422785699367523, 0.0030287334229797125, 0.07678022235631943], [0.00886715017259121, -0.05530175566673279, -0.07465716451406479, -0.06596308946609497, -0.24360747635364532], [0.3002266585826874, 0.04980114847421646, -0.37831681966781616, -0.5385350584983826, -0.6148570775985718], [0.16515222191810608, 0.08864626288414001, 0.10440906137228012, 0.07919645309448242, 0.0748368352651596], [-0.016253996640443802, -0.12488316744565964, 0.030457381159067154, -0.017497533932328224, -0.14530546963214874], [-0.5116722583770752, -0.39845743775367737, -0.4080381989479065, -0.24647504091262817, 0.04608181491494179], [-0.02193469926714897, -0.1032467857003212, -0.027239548042416573, -0.06516848504543304, -0.11619951575994492], [-0.039712078869342804, -0.03858235850930214, -0.03943956643342972, -0.038717299699783325, 0.03502245619893074], [0.19043146073818207, -0.3769676089286804, -0.8475112318992615, -0.9889044165611267, -1.119659423828125], [-0.03342878073453903, 0.009671020321547985, 0.04287935420870781, 0.04408881813287735, -0.053016405552625656], [-0.012606031261384487, -0.08822017908096313, -0.1753338873386383, -0.15635330975055695, -0.1712936908006668], [-0.21154725551605225, -0.29225483536720276, -0.10117483884096146, 0.004133423324674368, 0.010958176106214523], [-0.1370389461517334, -0.10354369878768921, -0.09747650474309921, 0.03948180377483368, 0.15297821164131165], [-0.07155419886112213, -0.1333640068769455, -0.12500205636024475, -0.2626248598098755, -0.08154227584600449], [0.04632633924484253, -0.05720014125108719, -0.004619835875928402, -0.052283257246017456, -0.0700276717543602], [-0.0510081984102726, 0.06666579097509384, 0.09143929928541183, 0.060124754905700684, -0.11838136613368988], [0.05385430529713631, -0.05273391306400299, -0.13629183173179626, -0.3035122752189636, -0.12148179858922958], [-0.08169481158256531, -0.06902619451284409, -0.14283479750156403, -0.124581478536129, -0.24926869571208954], [0.09786144644021988, -0.07402025163173676, -0.06532323360443115, -0.10814767330884933, 0.07173416018486023], [0.08326132595539093, 0.05368165299296379, 0.04477989673614502, -0.10385864228010178, -0.06927521526813507], [-0.024874372407794, -0.07041185349225998, -0.17318354547023773, -0.14187687635421753, -0.07822131365537643], [-0.009674166329205036, -0.05326833575963974, -0.16022157669067383, -0.24610814452171326, -0.2318248301744461], [0.5812788009643555, 0.11852134019136429, 0.12875773012638092, 0.058450013399124146, 0.14177803695201874], [-0.12603060901165009, -0.4152718782424927, -0.4158251881599426, 0.0542650930583477, 0.2139720618724823]], [[0.020668022334575653, 0.17079932987689972, -0.16443778574466705, -0.3405943512916565, -0.1860380619764328], [0.036583416163921356, 0.2668558955192566, 0.3368598520755768, 0.29281067848205566, 0.34630122780799866], [-0.19407422840595245, -0.090098075568676, 0.19845257699489594, 0.0991884395480156, 0.18085524439811707], [0.009280486963689327, 0.06113157793879509, -0.014060447923839092, -0.005808432586491108, 0.09051016718149185], [-0.40224489569664, -0.31326377391815186, 0.022928496822714806, 0.12730011343955994, 0.3306027054786682], [-0.06636824458837509, 0.02645651064813137, -0.03498534858226776, 0.19243581593036652, 0.18217822909355164], [0.22081013023853302, -0.1612941026687622, -0.5481037497520447, -0.5100588798522949, -0.5767598152160645], [0.018140917643904686, 0.08242996782064438, 0.10788767784833908, 0.12387131154537201, 0.34952405095100403], [-0.11526162177324295, -0.07840293645858765, 0.05075288936495781, 0.02405213750898838, 0.3065432608127594], [-0.051121026277542114, 0.07708778977394104, -0.0991482064127922, 0.1191195398569107, -0.18569092452526093], [0.03953682631254196, -0.09752802550792694, -0.14264634251594543, -0.5615254044532776, -0.39282500743865967], [0.043870195746421814, 0.08985406905412674, 0.2088216245174408, 0.3035986125469208, 0.3227011561393738], [-0.08525276929140091, 0.054908424615859985, -0.040371064096689224, 0.18151909112930298, 0.1178046390414238], [-0.1322375237941742, -0.06732600182294846, 0.015458810143172741, 0.03505881130695343, 0.11323525756597519], [0.0680818110704422, 0.25231802463531494, -0.04541473835706711, -0.07045634835958481, -0.15195243060588837], [0.16578784584999084, -0.00686541385948658, 0.16792577505111694, 0.08261506259441376, 0.0993087887763977], [-0.09325743466615677, -0.44000908732414246, -0.81309574842453, -0.7930900454521179, -0.11399280279874802], [0.1406877338886261, 0.13076962530612946, -0.012634473852813244, 0.13847801089286804, 0.12931108474731445], [-0.04141068458557129, 0.006281720940023661, 0.19542406499385834, 0.0009867474436759949, -0.10994821041822433], [0.06577946990728378, 0.18739569187164307, 0.14979979395866394, 0.13549582660198212, 0.10119488835334778], [-0.6293329000473022, -0.6312958598136902, -0.4829041659832001, -0.21504594385623932, -0.15899509191513062], [-0.518983781337738, -0.23542837798595428, -0.3910246193408966, -0.24452555179595947, -0.22488881647586823], [0.1304427981376648, 0.15680740773677826, 0.1744571030139923, 0.044728394597768784, -0.0773751437664032], [0.12368899583816528, 0.1759984940290451, -0.06560730189085007, -0.01029947865754366, 0.0911625325679779], [0.10610287636518478, 0.15803414583206177, 0.25980252027511597, 0.10615907609462738, 0.14799121022224426], [-0.44845375418663025, -0.3085715174674988, 0.10571126639842987, 0.028930801898241043, 0.34745678305625916], [0.11381352692842484, 0.02621852047741413, -0.021568642929196358, -0.09191413968801498, -0.12445231527090073], [-0.1488378793001175, -0.03196346387267113, 0.0071921455673873425, 0.06726796925067902, 0.11185847967863083], [0.09402026981115341, 0.11499875038862228, -0.0733058974146843, -0.018443139269948006, 0.177625373005867], [0.06418627500534058, 0.028216751292347908, 0.043801628053188324, -0.0036408822052180767, -0.0749339610338211], [0.010360242798924446, -0.0634060800075531, 0.04260872304439545, 0.2654403746128082, 0.18515929579734802], [-0.11317090690135956, -0.18474775552749634, -0.20113030076026917, -0.056299127638339996, -0.07195866107940674], [-0.151426300406456, -0.17872650921344757, -0.06599234789609909, -0.14967191219329834, -0.2156313806772232], [-0.07362732291221619, -0.088701993227005, -0.07771608233451843, 0.08241593837738037, 0.04761829599738121], [-0.3625609874725342, -0.4102393388748169, -0.3620073199272156, -0.035791508853435516, 0.19018658995628357], [-0.14052285254001617, -0.3384248912334442, -0.205789715051651, -0.29348090291023254, -0.2848081886768341], [-0.13438327610492706, -0.0760498121380806, -0.056732188910245895, 0.0866539254784584, 0.18259169161319733], [-0.08789895474910736, -0.11440233141183853, -0.06719758361577988, -0.11365208774805069, -0.15758252143859863], [-0.06812936812639236, -0.1792745590209961, -0.27763015031814575, -0.17490635812282562, -0.10117945820093155], [-0.4329753816127777, -0.47254595160484314, -0.3511456549167633, 0.006529856473207474, -0.1659378707408905], [0.006194666028022766, 0.07483664155006409, 0.17079678177833557, 0.06548158824443817, 0.01723739132285118], [-0.3939032554626465, -0.22712655365467072, -0.021029599010944366, 0.3820832073688507, 0.13490916788578033], [0.028209377080202103, 0.11241549998521805, -0.09399585425853729, 0.051666922867298126, 0.12130274623632431], [-0.10693132132291794, 0.1959863156080246, -0.03399636968970299, -0.01876012608408928, 0.050919871777296066], [-0.024930322542786598, 0.11149510741233826, -0.0011223433539271355, -0.24634572863578796, -0.11934910714626312], [-0.0827794075012207, -0.07559756189584732, -0.2516842186450958, -0.19760335981845856, 0.029769418761134148], [-0.17442923784255981, -0.062263429164886475, -0.01764484867453575, 0.0013642285484820604, 0.222395122051239], [-0.1447197049856186, -0.17164020240306854, -0.0668034702539444, -0.2731808125972748, -0.26187002658843994]], [[0.44078654050827026, 0.062088947743177414, 0.15793514251708984, 0.15514583885669708, 0.3983445167541504], [-0.1684482842683792, 0.06953026354312897, 0.051921531558036804, 0.1674293428659439, 0.461078941822052], [0.1563291698694229, 0.085905060172081, 0.11036048084497452, 0.1308908611536026, 0.06436634808778763], [-0.2622344493865967, -0.16405634582042694, -0.12112778425216675, 0.09120724350214005, 0.3024340867996216], [0.005794169846922159, -0.060214389115571976, -0.1266196221113205, 0.0759805217385292, 0.2249029278755188], [-0.15690836310386658, -0.07024884223937988, 0.04743146151304245, 0.11635596305131912, -0.10310661792755127], [0.137074276804924, 0.10931604355573654, 0.13092060387134552, 0.003624974051490426, 0.003786636283621192], [-0.2674941122531891, -0.13869768381118774, -0.03257250413298607, 0.2507985532283783, 0.482549250125885], [-0.026155365630984306, -0.08853452652692795, -0.11673032492399216, -0.03876990079879761, -0.2795543670654297], [-0.12586650252342224, -0.005765099544078112, 0.05745796114206314, 0.06907298415899277, 0.004603817127645016], [0.41461899876594543, 0.21188335120677948, 0.10402615368366241, -0.06969784945249557, -0.3117764890193939], [-0.038454268127679825, -0.12255258113145828, 0.006621177773922682, -0.026701902970671654, 0.13663005828857422], [0.042236097157001495, 0.07637010514736176, -0.0521123968064785, 0.00016768983914516866, 0.05396324023604393], [0.08095227181911469, 0.13667336106300354, 0.20171575248241425, 0.17755207419395447, 0.22980253398418427], [-0.24263069033622742, 0.2428920865058899, 0.0661076158285141, -0.012269881553947926, -0.2547943592071533], [0.19544760882854462, 0.11715511977672577, 0.08725249022245407, 0.1402844339609146, 0.18295890092849731], [-0.07941293716430664, 0.018697837367653847, 0.0846172496676445, -0.028445841744542122, -0.316432386636734], [-0.5255085825920105, -0.2201278656721115, -0.10786372423171997, 0.20688758790493011, 0.3075253665447235], [-0.05118156969547272, 0.05061710998415947, 0.09550173580646515, 0.04079589620232582, 0.17455963790416718], [0.20196637511253357, 0.16008689999580383, -0.022896969690918922, -0.0796944797039032, -0.10443581640720367], [0.06057516485452652, 0.03483772650361061, -0.010394971817731857, 0.0053621199913322926, -0.008360795676708221], [0.14305642247200012, 0.012823384255170822, -0.04923101142048836, -0.013855149038136005, -0.5009863972663879], [0.10123912245035172, -0.03683647885918617, -0.03060954436659813, -0.0752030462026596, 0.3862292468547821], [-0.0854705423116684, 0.029619716107845306, -0.0408291295170784, -0.10470942407846451, -0.13896264135837555], [0.13900642096996307, 0.09615086764097214, -0.03375672549009323, -0.06232333183288574, -0.04019836336374283], [0.13419786095619202, -0.02191109210252762, -0.05384164676070213, 0.14318905770778656, 0.07651758939027786], [-0.16002696752548218, -0.14783653616905212, 0.02406243421137333, 0.22620470821857452, 0.22106361389160156], [-0.030630283057689667, 0.04954328015446663, -0.01101875863969326, 0.06220759451389313, 0.10147911310195923], [0.16273696720600128, -0.022806793451309204, -0.20414358377456665, -0.1757192313671112, -0.31358984112739563], [-0.1701083779335022, -0.014062021858990192, 0.08343545347452164, 0.11429611593484879, 0.4664662182331085], [-0.11684820055961609, -0.1610732078552246, -0.12590278685092926, 0.011791315861046314, 0.32204827666282654], [-0.18749545514583588, -0.07660315185785294, -0.03204558789730072, 0.11226683855056763, 0.1234402060508728], [-0.1271018534898758, 0.006884194444864988, 0.031502991914749146, 0.28118130564689636, 0.21579709649085999], [0.12472544610500336, 0.1483311802148819, 0.1313340961933136, 0.10353203117847443, 0.045289020985364914], [-0.1088646873831749, 0.12156405299901962, 0.20292650163173676, 0.27238062024116516, 0.5515308976173401], [0.3276239335536957, 0.16099584102630615, 0.11641974002122879, -0.0035702623426914215, -0.03324885293841362], [-0.002759260358288884, 0.1463431566953659, 0.19961170852184296, 0.21301300823688507, 0.2213321179151535], [0.5740648508071899, 0.297712504863739, 0.13081450760364532, 0.05246897414326668, 0.022951142862439156], [-0.08051487058401108, -0.09543848782777786, -0.060066547244787216, -0.1029629036784172, -0.02690594084560871], [0.08861188590526581, -0.006222460884600878, 0.07167850434780121, 0.07144231349229813, 0.08198027312755585], [0.12341616302728653, -0.05457783862948418, 0.04787648841738701, -0.04367979243397713, 0.20677831768989563], [0.43342486023902893, 0.13733252882957458, -0.058437529951334, -0.07900521159172058, -0.2772521376609802], [0.051897525787353516, -0.1256103813648224, 0.09035217761993408, -0.025975298136472702, 0.003505164058879018], [-0.2679847180843353, -0.16434849798679352, 0.04857558757066727, 0.07808902859687805, -0.06532380729913712], [-0.17047592997550964, -0.05361662432551384, -0.025036821141839027, -0.04741407558321953, 0.02243340201675892], [-0.20299318432807922, -0.21345457434654236, -0.06800592690706253, -0.15694303810596466, -0.23537059128284454], [-0.08289118856191635, -0.12953989207744598, -0.21422365307807922, -0.07762206345796585, -0.1759701520204544], [0.4450792670249939, 0.10879631340503693, -0.05770573765039444, -0.005168797913938761, -0.31251898407936096]], [[-0.10025175660848618, 0.01739872619509697, 0.13182882964611053, 0.037085868418216705, 0.2079017162322998], [0.1260451376438141, 0.028537480160593987, 0.00800212100148201, -0.07824309915304184, -0.18559640645980835], [-0.4512556195259094, -0.29955968260765076, -0.07899334281682968, -0.11993490159511566, -0.046441566199064255], [0.2725319266319275, 0.03213457390666008, 0.08094070851802826, -0.05664314702153206, -0.18483582139015198], [0.18148186802864075, 0.29032841324806213, 0.1866535246372223, -0.027915174141526222, -0.0998089537024498], [0.02214628830552101, -0.25240758061408997, -0.11090446263551712, -0.2776738107204437, -0.3336489498615265], [-0.0838412195444107, -0.07620325684547424, 0.002975051524117589, 0.08556987345218658, 0.06943317502737045], [-0.16765686869621277, -0.04053695872426033, 0.019884269684553146, -0.19639062881469727, -0.3998318314552307], [0.10781916975975037, -0.018346628174185753, -0.19599546492099762, -0.17295552790164948, -0.15271703898906708], [0.08548680692911148, 0.027466071769595146, 0.2693750858306885, 0.256856769323349, -0.013342566788196564], [0.10433167219161987, 0.04514927417039871, 0.06452446430921555, -0.03959031030535698, -0.30621886253356934], [0.3176656663417816, 0.31487491726875305, 0.10368607193231583, -0.07018858194351196, -0.24309943616390228], [-0.06542856991291046, 0.3044208586215973, 0.2257390022277832, 0.1166188046336174, 0.19073037803173065], [-0.3487035036087036, -0.29110175371170044, -0.13391682505607605, -0.13321498036384583, -0.12877142429351807], [0.1951952874660492, 0.02769111469388008, -0.1317390650510788, -0.016828561201691628, -0.1265791654586792], [-0.1336643546819687, -0.01456674374639988, 0.01378086768090725, 0.04447951167821884, 0.03503655269742012], [0.16662561893463135, 0.3019736409187317, 0.19553276896476746, 0.009493967518210411, -0.3048224449157715], [0.08568689972162247, -0.10821948200464249, -0.02797793410718441, -0.06089299917221069, -0.20558041334152222], [-0.018765751272439957, 0.11432062089443207, 0.23721256852149963, 0.22611728310585022, 0.2956221401691437], [-0.22310785949230194, -0.22224479913711548, -0.18908636271953583, -0.17098933458328247, -0.28500086069107056], [-0.2567228078842163, -0.1661083698272705, -0.14789238572120667, -0.07572118192911148, -0.0773288756608963], [0.26713624596595764, -0.0021911277435719967, -0.10070478916168213, 0.13274458050727844, -0.05864141136407852], [0.00022984672978054732, 0.2562141418457031, 0.23677870631217957, 0.1702999472618103, -0.7047399878501892], 