// Auto-generated - DO NOT EDIT
// OnsetNet weights for Daisy Seed bare metal inference
// sr=48000 note_vocab_size=49 window_samples=240

#pragma once
#include <stdint.h>

#define ONSET_SR                 48000
#define ONSET_NOTE_VOCAB_SIZE    49
#define ONSET_WINDOW             240
#define ONSET_WIDTH              96
#define ONSET_N_STRINGS          6

static const char* onset_pitch_names[] = {
    "E2",
    "F2",
    "F#2",
    "G2",
    "G#2",
    "A3",
    "A#3",
    "B3",
    "C3",
    "C#3",
    "D3",
    "D#3",
    "E3",
    "F3",
    "F#3",
    "G3",
    "G#3",
    "A4",
    "A#4",
    "B4",
    "C4",
    "C#4",
    "D4",
    "D#4",
    "E4",
    "F4",
    "F#4",
    "G4",
    "G#4",
    "A5",
    "A#5",
    "B5",
    "C5",
    "C#5",
    "D5",
    "D#5",
    "E5",
    "F5",
    "F#5",
    "G5",
    "G#5",
    "A6",
    "A#6",
    "B6",
    "C6",
    "C#6",
    "D6",
    "D#6",
    "E6",
};

// shape: [48, 1, 9]
static const float l0_conv_weight[432] = {
    0.22646193f, 0.16182518f, -0.23510340f, 0.23129660f, -0.20854095f, 0.07516994f, -0.22816785f, 0.13566090f, 0.26332867f, -0.30197409f, 0.20964362f, -0.01935165f, 0.16839947f, 0.02355083f, 0.03655687f, -0.10984617f, 0.38213161f, 0.13596924f, -0.08291138f, 0.16718581f, -0.16854925f, 0.09950803f, -0.09679091f, 0.32805616f, -0.15441394f, -0.11539643f, -0.08872258f, -0.17880331f, -0.01315229f, -0.33851182f, 0.28639254f, -0.27515525f, 0.26447368f, 0.08221069f, -0.15907179f, 0.28625572f, 0.02149263f, 0.27676085f, -0.09767878f, -0.14714965f, -0.06766733f, -0.21000849f, -0.01201907f, 0.25886902f, 0.28084141f, -0.09769166f, 0.21457279f, 0.15349576f, 0.21933034f, -0.28285614f, -0.28774819f, -0.08873729f, -0.27429673f, 0.28509459f, 0.15339172f, 0.29068610f, 0.07479063f, 0.01722612f, 0.13579294f, -0.22091304f, -0.08592241f, -0.29384029f, -0.05461790f, -0.16795978f, 0.12662069f, 0.07826488f, 0.33017647f, -0.20137064f, -0.20226091f, -0.26359028f, 0.24764454f, 0.05106926f, 0.33484802f, -0.20867854f, -0.35462615f, -0.28070852f, -0.16828223f, 0.15791474f, 0.23940584f, 0.32044059f, -0.11477657f, -0.19333485f, 0.25888312f, -0.13308267f, 0.20810372f, -0.18902403f, 0.23953749f, -0.21694402f, -0.08279888f, 0.10294679f, 0.02388366f, -0.13958499f, 0.06076222f, 0.28118405f, -0.27807584f, -0.17537849f, 0.35583818f, -0.05225787f, -0.07819892f, -0.36137828f, -0.23050778f, 0.08409287f, 0.14767994f, -0.04779460f, 0.14590815f, -0.10901021f, -0.27192235f, -0.29343721f, -0.19576403f, -0.17860611f, 0.39078236f, 0.14122145f, 0.20789339f, -0.25743136f, -0.17664365f, -0.12655626f, 0.13790342f, -0.34890038f, -0.32301527f, -0.02633729f, 0.02508292f, 0.12344781f, 0.07675052f, -0.03908253f, -0.24686567f, -0.18119140f, -0.00838006f, -0.25347918f, 0.31283602f, -0.19849014f, 0.24157353f, 0.11246281f, -0.28975177f, 0.23038401f, -0.14825092f, -0.08574491f, -0.30840176f, -0.21023501f, 0.21567737f, -0.01556559f, 0.26979271f, -0.13746290f, 0.30487621f, -0.21787155f, -0.01575326f, 0.20525546f, 0.19924770f, 0.28013423f, 0.18057741f, -0.25163874f, -0.02791695f, -0.20720464f, -0.19997555f, -0.32880330f, 0.24171099f, -0.31212395f, 0.14068969f, 0.06125708f, 0.06630228f, -0.13678375f, 0.34580255f, 0.06177400f, 0.00734578f, -0.27754903f, 0.09877627f, 0.02559526f, -0.00594135f, 0.33906204f, 0.19508791f, -0.23605840f, -0.20420574f, -0.04231526f, 0.19710909f, -0.06515543f, -0.12499447f, 0.04809469f, -0.18344791f, 0.26136222f, 0.24139962f, -0.40558803f, 0.20899288f, 0.31590861f, 0.02373171f, -0.16315049f, 0.01882121f, 0.11515358f, 0.03454498f, -0.09819554f, -0.15422553f, -0.05474745f, -0.13062711f, -0.06755587f, 0.25529158f, 0.26637021f, 0.03031370f, -0.13524833f, -0.06488656f, -0.07606801f, 0.18061401f, 0.17731971f, -0.26372069f, -0.13098550f, 0.24996457f, 0.15862899f, -0.00586783f, -0.25688499f, -0.18582731f, -0.27562603f, -0.10732093f, 0.17691582f, 0.27859363f, 0.11165732f, -0.30107227f, -0.21589263f, -0.07817394f, 0.33362690f, 0.01128610f, -0.13082387f, 0.23064534f, -0.09475305f, -0.24564849f, 0.27899125f, -0.04302009f, 0.01704507f, -0.29052567f, 0.20176108f, 0.20384397f, 0.02358829f, -0.29615268f, -0.36792853f, -0.30332279f, 0.13145952f, 0.22986649f, 0.31075713f, 0.25370079f, 0.22321081f, 0.11610398f, -0.18086833f, -0.29791078f, -0.26904488f, 0.02616306f, -0.13079035f, -0.04932034f, -0.18603972f, -0.07750101f, -0.28412843f, -0.07648459f, 0.20680206f, 0.01938069f, 0.20946296f, -0.12736583f, -0.26084086f, -0.16034167f, -0.21680991f, -0.09374091f, -0.23722322f, 0.12839092f, -0.17611255f, 0.14211971f, 0.27611208f, 0.29755208f, -0.28890255f, 0.24382760f, -0.06594644f, 0.14112681f, 0.31132632f, -0.01290892f, 0.05714952f, -0.04533381f, -0.35635760f, 0.21036129f, -0.36226243f, 0.11981794f, 0.05111678f, 0.44244111f, -0.15327048f, -0.21157514f, 0.12984797f, 0.29554632f, -0.52971172f, -0.03004773f, -0.19447704f, 0.08160524f, -0.08310993f, 0.04367303f, 0.02018451f, -0.20216648f, 0.35388464f, 0.41052413f, 0.12809585f, 0.07188397f, -0.03309527f, -0.24873605f, -0.24837792f, 0.05843119f, -0.15522088f, -0.17125201f, 0.05291451f, -0.18071055f, -0.16170846f, 0.06547561f, 0.04680944f, -0.12764111f, -0.06937926f, -0.26762944f, 0.32156971f, -0.20922884f, -0.04835944f, -0.07243103f, -0.06096613f, 0.24259153f, 0.06930118f, -0.34648818f, 0.11896369f, 0.38619250f, -0.00101874f, 0.23139988f, 0.23191321f, -0.14008494f, -0.11784124f, -0.32007685f, -0.16114183f, 0.25097436f, 0.15401906f, -0.30274832f, -0.21109197f, -0.23833552f, -0.21504956f, -0.09110632f, 0.09698370f, 0.41896769f, 0.17155251f, -0.15935451f, -0.24919602f, 0.26978439f, -0.16985087f, 0.04213368f, 0.22420044f, -0.14975877f, 0.06272569f, -0.00974805f, -0.09178814f, -0.08596183f, -0.37465009f, -0.31307587f, -0.10585506f, 0.39789855f, 0.03139167f, -0.06263578f, 0.11757651f, 0.12894896f, 0.21127324f, 0.31509504f, 0.03239661f, -0.36203411f, -0.12623945f, 0.09004528f, -0.16263475f, -0.19164442f, 0.31562978f, -0.12330311f, -0.14778063f, -0.11829080f, 0.13171197f, 0.22819415f, 0.22298606f, 0.17802563f, -0.18555395f, -0.34217623f, 0.04137444f, 0.26843122f, 0.09259639f, -0.22756653f, -0.11816202f, -0.25981840f, -0.16835314f, 0.11821228f, 0.26398566f, 0.29802123f, -0.35620636f, 0.17340767f, -0.29301277f, 0.04857850f, 0.22007245f, -0.06402291f, 0.31550899f, -0.32122669f, -0.04241920f, 0.20288910f, -0.01460252f, -0.28736514f, -0.12658446f, 0.14151055f, 0.24294876f, 0.06676900f, -0.18643799f, -0.27004728f, -0.03245855f, 0.16804667f, -0.24398334f, -0.09900942f, 0.22189347f, 0.07873802f, 0.04653401f, -0.00226532f, -0.32267144f, -0.35337049f, -0.04354709f, -0.10634393f, 0.10471959f, -0.00996419f, -0.02212855f, 0.40592819f, 0.14879616f, 0.29762232f, -0.10613149f, -0.09611931f, 0.25288737f, -0.20856358f, -0.04280906f, 0.11757721f, -0.09019284f, -0.30259511f, 0.22555318f, 0.28603625f, -0.02227465f, -0.11030983f, -0.32322347f, -0.18422672f, 0.03053385f, 0.14859253f, -0.03565639f
};

// shape: [48]
static const float l0_bn_weight[48] = {
    0.90599138f, 0.82700467f, 0.78583115f, 0.96669769f, 0.81083089f, 0.68602312f, 1.06373239f, 1.12121999f, 1.01441920f, 1.25336814f, 1.51527071f, 0.76889282f, 1.09856987f, 0.72639418f, 1.26644421f, 0.77458656f, 1.04534900f, 0.73035681f, 0.95941967f, 0.97661823f, 0.99392051f, 1.07854390f, 1.02747846f, 0.95311373f, 0.75999105f, 1.41283453f, 0.81238991f, 0.71654564f, 1.14324999f, 1.15826011f, 0.72423691f, 0.70127499f, 0.91912931f, 0.80897152f, 1.17432749f, 0.84294277f, 0.58627391f, 0.89856154f, 0.74851453f, 1.00250983f, 1.04617596f, 1.29608369f, 0.99145186f, 1.27677476f, 0.88897723f, 1.09374118f, 0.71366012f, 1.17650914f
};

// shape: [48]
static const float l0_bn_bias[48] = {
    -0.19418630f, -0.42567363f, 0.08141530f, 0.07312907f, 0.00866033f, 0.00056916f, -0.11815952f, 0.00073334f, 0.14055742f, 0.00655684f, -0.00033590f, -0.46843490f, -0.07029074f, -0.00379240f, -0.01620264f, 0.08654262f, -0.00023274f, 0.05413887f, 0.08054068f, -0.20718946f, -0.29240695f, 0.04084175f, 0.05747486f, -0.00367354f, 0.04317612f, -0.11050209f, -0.09220316f, -0.24222392f, -0.10956553f, 0.04105594f, -0.00077334f, -0.10838795f, -0.00440004f, -0.26170632f, -0.08028563f, -0.00186842f, -0.05481575f, 0.00517195f, -0.02267371f, 0.09840651f, -0.05263617f, 0.05458020f, -0.09684155f, -0.04854978f, -0.19557999f, 0.00287033f, -0.00036840f, -0.03140970f
};

// shape: [48]
static const float l0_bn_running_mean[48] = {
    0.00056849f, 0.00073912f, 0.00010693f, 0.00048688f, 0.00040971f, -0.00002266f, -0.00025452f, 0.00020067f, 0.00006641f, 0.00033415f, 0.00011899f, -0.00072196f, -0.00031957f, -0.00076275f, -0.00035059f, 0.00003691f, -0.00010685f, 0.00054323f, -0.00013281f, -0.00004032f, 0.00011216f, -0.00007473f, -0.00021012f, -0.00007091f, -0.00027228f, 0.00024088f, -0.00037739f, -0.00040369f, 0.00008348f, -0.00000259f, 0.00002616f, 0.00001833f, -0.00036689f, -0.00027113f, 0.00013338f, 0.00006303f, -0.00008838f, 0.00005119f, -0.00023613f, 0.00003451f, -0.00015595f, 0.00000518f, -0.00031371f, 0.00011363f, 0.00001205f, 0.00001620f, -0.00019509f, 0.00008490f
};

// shape: [48]
static const float l0_bn_running_var[48] = {
    0.00228687f, 0.00285372f, 0.00066213f, 0.00240260f, 0.00080001f, 0.00150820f, 0.00135794f, 0.00081552f, 0.00242395f, 0.00101752f, 0.00077906f, 0.00587638f, 0.00190511f, 0.00595249f, 0.00153100f, 0.00112398f, 0.00168023f, 0.00237967f, 0.00031063f, 0.00035840f, 0.00140770f, 0.00065717f, 0.00161946f, 0.00116069f, 0.00145467f, 0.00170317f, 0.00272715f, 0.00311759f, 0.00193978f, 0.00166897f, 0.00385108f, 0.00531236f, 0.00318008f, 0.00115135f, 0.00147401f, 0.00072097f, 0.00397381f, 0.00119334f, 0.00327402f, 0.00087330f, 0.00087073f, 0.00041571f, 0.00143583f, 0.00022327f, 0.00118880f, 0.00290739f, 0.00178198f, 0.00150258f
};

// shape: [48]
static const float l0_bn_bias[48] = {
    -0.19418630f, -0.42567363f, 0.08141530f, 0.07312907f, 0.00866033f, 0.00056916f, -0.11815952f, 0.00073334f, 0.14055742f, 0.00655684f, -0.00033590f, -0.46843490f, -0.07029074f, -0.00379240f, -0.01620264f, 0.08654262f, -0.00023274f, 0.05413887f, 0.08054068f, -0.20718946f, -0.29240695f, 0.04084175f, 0.05747486f, -0.00367354f, 0.04317612f, -0.11050209f, -0.09220316f, -0.24222392f, -0.10956553f, 0.04105594f, -0.00077334f, -0.10838795f, -0.00440004f, -0.26170632f, -0.08028563f, -0.00186842f, -0.05481575f, 0.00517195f, -0.02267371f, 0.09840651f, -0.05263617f, 0.05458020f, -0.09684155f, -0.04854978f, -0.19557999f, 0.00287033f, -0.00036840f, -0.03140970f
};

// shape: [96, 48, 5]
static const float l1_conv_weight[23040] = {
    0.04844028f, 0.07602407f, 0.00436436f, 0.07067723f, 0.01175120f, -0.12394813f, -0.16072401f, -0.04932582f, -0.03488290f, 0.04270864f, 0.02169833f, 0.09322672f, 0.01530171f, -0.06252225f, -0.06950347f, -0.05540372f, 0.02997051f, -0.01775805f, -0.03821597f, -0.07396136f, -0.00932638f, -0.01466200f, 0.03067670f, 0.08100025f, 0.06607634f, 0.07802986f, 0.04625893f, -0.01444311f, -0.03879110f, 0.06310180f, 0.03704065f, 0.00888562f, 0.08685929f, -0.17809728f, -0.35977021f, -0.02348196f, 0.00906416f, 0.02810993f, -0.05126553f, -0.06368300f, -0.00440325f, -0.00774544f, 0.01362798f, 0.05671757f, 0.00832335f, -0.00540770f, 0.06093731f, 0.08930208f, 0.02610021f, -0.01245371f, -0.10108287f, -0.28168178f, -0.20130451f, -0.21851818f, -0.09067618f, 0.02747635f, 0.05579376f, 0.07514072f, -0.00218499f, 0.04514099f, 0.01855887f, -0.00280103f, 0.04036783f, 0.04120970f, 0.00501515f, 0.07353032f, 0.00853608f, 0.02193238f, 0.04755050f, 0.02087870f, -0.22326829f, -0.07074478f, 0.03240197f, 0.03129476f, -0.05565817f, -0.06274304f, -0.04546744f, -0.02505575f, 0.02620704f, -0.03974995f, 0.05836555f, -0.18381415f, -0.39065674f, -0.40663317f, -0.30534416f, -0.19268456f, 0.01657068f, 0.01094567f, 0.04844183f, 0.06383323f, -0.14530121f, -0.07515436f, -0.05698343f, -0.09100496f, 0.02233461f, -0.06360868f, -0.00887197f, -0.00633864f, 0.03269698f, 0.09980354f, -0.08248967f, -0.10110567f, -0.10875487f, -0.15342988f, -0.06372349f, -0.12435160f, -0.25480664f, -0.10396826f, -0.32112050f, -0.25732633f, -0.07906605f, -0.02951475f, -0.03912073f, -0.14555131f, -0.08938617f, -0.07766890f, -0.03090621f, -0.07563302f, -0.08660482f, 0.02911250f, 0.04108972f, 0.05330702f, 0.00197450f, -0.00041692f, 0.03317794f, 0.05882286f, 0.04880241f, 0.04760972f, 0.10924520f, 0.32338721f, -0.03688438f, -0.03485593f, -0.02305879f, 0.01583158f, -0.00447776f, 0.03114790f, -0.03266246f, -0.03368619f, 0.01489794f, -0.03793292f, 0.04104831f, 0.04029197f, 0.05170316f, -0.04229278f, -0.01881019f, 0.06902476f, -0.03485335f, -0.05909740f, -0.10784903f, 0.01540852f, -0.01746043f, 0.02550708f, 0.06785736f, 0.04689320f, -0.00452749f, 0.00318446f, 0.01771863f, 0.02836462f, 0.01587064f, 0.04359125f, -0.06046341f, 0.00541098f, -0.03513859f, -0.05407885f, -0.04002216f, -0.04376933f, 0.04269039f, -0.00654807f, -0.06065491f, -0.00096079f, -0.23611189f, -0.13191985f, -0.02689523f, -0.11629775f, -0.06047554f, 0.04353623f, 0.06688486f, 0.00134264f, 0.08739542f, -0.11407772f, -0.08574094f, 0.02751351f, 0.02028724f, -0.00903151f, -0.01248306f, -0.08810090f, -0.00571433f, 0.08701409f, 0.06487600f, -0.00488029f, -0.07527837f, -0.07279360f, -0.03067754f, -0.06431860f, -0.02651340f, 0.07397225f, -0.03773294f, -0.04306420f, -0.20469296f, -0.16293010f, 0.11321105f, 0.08412867f, 0.07553232f, 0.11297802f, 0.03665913f, -0.03020413f, -0.01051873f, -0.01244289f, -0.06621300f, -0.06596478f, -0.02318288f, -0.06735477f, -0.03974478f, -0.16603938f, 0.15207407f, -0.06015470f, -0.13678487f, -0.09669559f, -0.08205951f, -0.08655698f, 0.06661772f, 0.03118456f, 0.00883648f, -0.03451418f, -0.06578746f, -0.09234801f, -0.05526486f, 0.02159191f, -0.08023346f, 0.00340777f, -0.06831882f, 0.02565009f, -0.01967985f, -0.03391663f, -0.00555700f, 0.03668886f, 0.11530589f, 0.01653354f, -0.13069467f, -0.09008048f, 0.06928723f, 0.04745156f, -0.02064002f, 0.02154403f, -0.04041984f, -0.03260310f, -0.02574033f, -0.03159906f, 0.06220755f, 0.01275627f, -0.05707143f, -0.08996748f, -0.07580486f, -0.03902845f, -0.12880531f, 0.06765845f, -0.02745048f, 0.03630652f, 0.06128727f, 0.07332389f, -0.08584494f, 0.01939213f, -0.05557880f, -0.00183977f, 0.00397300f, -0.20474052f, -0.24590927f, -0.07949986f, -0.09417905f, -0.05751519f, 0.07307526f, -0.06346784f, 0.01262556f, -0.09944157f, 0.01952826f, 0.01575036f, 0.05781351f, 0.04560354f, 0.07351726f, 0.13845843f, 0.01338890f, -0.09595686f, -0.06451469f, 0.02572282f, 0.07861681f, 0.02434913f, 0.01100174f, 0.00513592f, -0.02968164f, 0.04993943f, 0.03276704f, 0.10743392f, 0.10750116f, 0.12662479f, 0.10460652f, 0.06997426f, 0.12844899f, 0.20031057f, 0.21741951f, 0.07456336f, -0.10977538f, 0.00387207f, 0.07952353f, 0.08434047f, -0.01082588f, -0.17020595f, -0.13077269f, -0.05178294f, -0.00006744f, -0.03228596f, 0.08381717f, 0.13162284f, -0.00391817f, 0.00069471f, 0.02550847f, -0.00175568f, -0.02066162f, -0.00425377f, 0.00656975f, 0.01042393f, 0.01586583f, 0.09549810f, 0.11768533f, -0.00659262f, 0.02007202f, 0.01760043f, -0.10395712f, -0.04449222f, -0.07660937f, -0.01331006f, 0.01826050f, -0.09590087f, -0.13808276f, -0.04000587f, -0.03167030f, -0.23452109f, -0.21682109f, -0.11209339f, -0.06694932f, -0.08614149f, 0.04762886f, 0.06947081f, 0.02233315f, 0.06721745f, -0.03726688f, -0.03640213f, -0.08138291f, -0.03485626f, -0.05369050f, -0.07080412f, -0.07445136f, -0.08816820f, -0.14872955f, -0.15263535f, -0.12336142f, -0.01765134f, -0.02763368f, -0.00932071f, -0.01574900f, 0.00566476f, -0.02339064f, -0.12249675f, 0.01672065f, -0.05592091f, -0.16467842f, -0.05819442f, -0.04918297f, 0.00189049f, -0.08218963f, -0.00921366f, -0.15209392f, -0.13634248f, -0.07284477f, -0.14958975f, 0.03414956f, 0.07666494f, 0.09098262f, 0.01985966f, 0.02580128f, 0.11499301f, 0.16309480f, 0.12149676f, 0.06668337f, 0.03211190f, 0.10177500f, 0.00738356f, -0.00993497f, -0.00610564f, 0.01986230f, 0.03823475f, -0.07076035f, -0.08421466f, -0.06068341f, -0.05132390f, -0.00275135f, -0.10408183f, -0.05700392f, -0.14943683f, -0.07507188f, -0.07616900f, -0.04490310f, -0.16147907f, -0.14883262f, -0.24595691f, -0.22632314f, -0.09002076f, -0.11244538f, -0.16344133f, -0.03323116f, -0.04996955f, -0.00442075f, -0.00343148f, 0.00946524f, -0.04441578f, -0.02852428f, -0.15891218f, -0.08499087f, -0.05072883f, -0.06040617f, -0.14107814f, -0.14560464f, -0.10721185f, -0.18550362f, -0.15194277f, -0.01686290f, 0.02330288f, 0.05209561f, 0.02166860f, 0.00712994f, -0.07019264f, 0.08425977f, -0.05753388f, -0.04297728f, 0.06722633f, 0.06401896f, -0.04691518f, -0.07189183f, -0.10401083f, -0.02965179f, 0.01005395f, 0.01509809f, -0.06843575f, -0.05359044f, -0.19657151f, -0.14066342f, 0.02724165f, 0.04134240f, 0.09876443f, 0.15517919f, 0.18721688f, 0.04219282f, 0.08578217f, 0.01849161f, 0.08619299f, 0.04422883f, 0.01154081f, 0.02398011f, 0.05499681f, 0.07034416f, 0.05301594f, -0.03011134f, 0.01689750f, -0.02828256f, -0.10617473f, -0.11105996f, 0.09027446f, 0.05474201f, -0.00857175f, 0.06420313f, 0.09272523f, -0.09223539f, -0.27019396f, -0.13516521f, -0.18027507f, -0.20713310f, 0.15468700f, 0.14281137f, 0.01484870f, -0.03212554f, 0.00075797f, -0.06519406f, -0.14989743f, -0.02330656f, -0.04158191f, 0.02151745f, -0.02649049f, -0.10650057f, -0.12293936f, -0.10451144f, -0.00525220f, -0.05286602f, -0.00879270f, 0.06069661f, 0.03520530f, -0.05015039f, -0.06501478f, -0.18736349f, -0.07093970f, 0.00824319f, -0.00660373f, -0.12739678f, -0.13580579f, -0.05575570f, -0.01346315f, 0.01483150f, 0.04342009f, -0.02448433f, 0.01765125f, -0.06066653f, 0.04678292f, -0.26152441f, -0.09305558f, -0.07202397f, -0.01526969f, -0.10311580f, 0.05699087f, -0.08400514f, 0.05424929f, -0.01324324f, -0.06024868f, -0.02782920f, -0.00295555f, 0.02024037f, 0.03030001f, -0.07375520f, -0.10011842f, -0.21150739f, -0.11830022f, -0.20707177f, -0.25552699f, -0.13467900f, -0.19596109f, -0.03510884f, 0.01130335f, -0.10035741f, -0.04997415f, -0.09331122f, -0.09332962f, -0.03048942f, -0.00887311f, 0.02069458f, -0.02660080f, -0.02614889f, -0.00921657f, -0.00225441f, 0.00125350f, -0.05779732f, -0.03237398f, -0.04468076f, -0.07110965f, -0.00524465f, -0.00460437f, -0.05338022f, -0.04743021f, -0.39280403f, 0.01657819f, -0.00469796f, -0.00159909f, 0.00680254f, -0.00343490f, -0.16737279f, -0.04940440f, 0.06485148f, -0.00508605f, -0.05842228f, 0.07960141f, -0.00402378f, -0.00207886f, 0.12113257f, 0.00976921f, -0.05551747f, -0.03622959f, -0.08974153f, -0.01858265f, -0.05925816f, -0.02486571f, -0.03126702f, 0.00471509f, -0.06204929f, -0.13181302f, -0.03675319f, 0.02437913f, 0.06600481f, 0.03172836f, -0.12891313f, 0.08593374f, 0.03186524f, 0.08263911f, -0.05967122f, -0.10795860f, -0.06391427f, 0.04159324f, 0.11032693f, 0.04791879f, -0.07110858f, -0.04370905f, -0.03839057f, 0.00344929f, 0.04275762f, -0.01943123f, -0.07854919f, -0.10675860f, -0.03945861f, 0.05175867f, -0.00981994f, -0.05305896f, -0.20987415f, -0.00754283f, -0.05993090f, 0.10661888f, -0.05058889f, 0.06122521f, 0.06950408f, 0.03183033f, 0.06608522f, -0.04047279f, -0.09968075f, -0.10164320f, 0.01233900f, -0.07240993f, -0.14910160f, -0.12939519f, -0.00269751f, -0.00816610f, -0.04863729f, 0.12399089f, -0.05647657f, -0.05927523f, -0.13924597f, -0.17800218f, -0.04930559f, -0.02154473f, -0.06619147f, -0.00439856f, -0.04219787f, 0.06473017f, -0.00296798f, 0.03087038f, 0.03793678f, 0.05557410f, -0.11526387f, -0.00251974f, 0.00552278f, 0.00484613f, -0.06165055f, -0.07067528f, -0.11688484f, -0.03620118f, -0.06948543f, -0.02466367f, 0.02840561f, -0.01518449f, 0.11040666f, 0.01414313f, 0.02064215f, -0.08029131f, -0.13990539f, -0.05066555f, 0.06983545f, 0.04966636f, -0.07101417f, -0.02696530f, 0.01757049f, -0.02867076f, -0.09621143f, 0.14492545f, -0.01790335f, 0.04711226f, 0.04973638f, 0.07765400f, -0.08114188f, 0.00608649f, 0.03567333f, 0.04963061f, 0.01738876f, -0.20104912f, -0.09749676f, 0.04665586f, 0.01804683f, 0.03634133f, -0.06448584f, -0.07893220f, -0.02949829f, 0.05695649f, 0.09908237f, -0.02849090f, -0.00865131f, 0.03003981f, -0.03602114f, -0.03956958f, 0.00206432f, -0.00010435f, 0.13297510f, -0.01560903f, -0.01934628f, 0.11729802f, 0.12306192f, 0.06521657f, 0.01111664f, 0.01794058f, -0.03931015f, -0.29659876f, -0.05216901f, -0.08629253f, -0.10574644f, -0.08205511f, -0.18387064f, -0.04512824f, 0.06621219f, 0.04387696f, -0.06741954f, -0.05197838f, 0.07023349f, -0.01589550f, -0.05702030f, -0.19228432f, -0.14445171f, 0.06417925f, -0.08661517f, 0.06685858f, 0.06594150f, 0.09077097f, 0.02993834f, 0.04079777f, 0.10899425f, 0.05353731f, -0.03113199f, 0.04043899f, 0.02195531f, 0.05683300f, 0.04684921f, 0.10159475f, -0.05885791f, 0.02177553f, -0.00064997f, -0.07502197f, -0.13167973f, -0.11002564f, -0.08747246f, 0.01387753f, 0.02759827f, 0.05525874f, 0.09517493f, 0.10347649f, 0.09642868f, 0.02246116f, 0.02427114f, 0.02239368f, 0.04032932f, 0.03766782f, -0.17337111f, -0.11690503f, -0.05462398f, -0.07776229f, -0.01918006f, 0.09080163f, 0.06987900f, 0.11891285f, 0.08868206f, 0.08491862f, -0.00473569f, -0.05672871f, -0.04163215f, -0.14703199f, -0.09260283f, -0.17842835f, -0.26068318f, -0.15720877f, -0.24263200f, -0.07320294f, -0.13028149f, -0.10374050f, -0.11546251f, -0.18952115f, -0.02192586f, -0.04399884f, 0.04488880f, 0.05808946f, 0.05720970f, 0.00964197f, 0.07139264f, 0.18814740f, 0.01923404f, -0.02173174f, -0.02009710f, 0.07022518f, 0.12427513f, 0.06011484f, -0.01121330f, 0.07471962f, -0.21367693f, -0.19037437f, -0.28743777f, -0.24461225f, -0.11835972f, 0.08450793f, 0.08090667f, -0.01141860f, 0.01537579f, -0.02462771f, -0.10137995f, 0.01196434f, -0.01399287f, -0.06474242f, -0.08252104f, -0.02314507f, -0.01229896f, 0.04241681f, -0.01139000f, 0.06122969f, -0.01160771f, 0.05215318f, -0.00997792f, -0.06735103f, -0.10691171f, -0.08397522f, -0.05628261f, -0.09081712f, -0.06279555f, -0.02683642f, 0.01169114f, -0.03466209f, -0.02736446f, 0.00276383f, -0.00914768f, 0.08902647f, 0.01915445f, -0.08351330f, 0.06787376f, 0.05704781f, -0.10322022f, 0.01171750f, 0.07889800f, 0.13726486f, 0.25562000f, 0.09335740f, 0.02705784f, 0.02930064f, 0.01042001f, 0.03498692f, 0.05814261f, 0.10302473f, -0.03499826f, 0.07632843f, 0.07902168f, 0.07518183f, 0.00361136f, 0.08910962f, 0.02204675f, 0.05629841f, -0.04148377f, -0.02985291f, 0.02953107f, 0.10478587f, 0.07543261f, -0.03864101f, 0.04743333f, 0.03350239f, 0.07648356f, 0.12118462f, -0.00533061f, -0.06340805f, 0.01528650f, 0.10680757f, 0.08429736f, -0.13753815f, -0.17733827f, -0.04150979f, -0.03746741f, 0.02026000f, 0.06392921f, 0.08495425f, 0.02585668f, 0.08759949f, 0.10623219f, -0.06348729f, -0.03765343f, -0.02569706f, -0.03168197f, 0.06535801f, -0.09644441f, -0.07244797f, 0.10629325f, 0.04507723f, 0.12073205f, -0.14189172f, -0.15424444f, -0.08546378f, -0.04161396f, 0.02275658f, -0.04149463f, -0.04257727f, -0.05721994f, 0.01497600f, 0.16895327f, 0.11112446f, 0.09906364f, -0.01083565f, -0.02438396f, -0.01916684f, 0.07044753f, 0.04525887f, -0.07567215f, -0.00884675f, 0.01475552f, 0.04556061f, 0.06618333f, -0.01295038f, -0.15283857f, -0.05576196f, 0.05358849f, 0.04410222f, 0.01039836f, -0.09931830f, -0.10091342f, -0.11781997f, -0.10204905f, -0.01935109f, -0.08989413f, -0.04396867f, 0.15220849f, 0.09978022f, 0.07916360f, 0.00467403f, -0.01614324f, -0.14348938f, -0.15716480f, -0.08038390f, -0.08018030f, -0.00866030f, -0.17254244f, -0.07270730f, 0.04096830f, -0.19560704f, -0.01584306f, 0.04554862f, 0.08115327f, 0.06137612f, 0.05902482f, 0.09033767f, -0.07692266f, -0.12990095f, -0.03881000f, -0.07569247f, -0.05260837f, -0.00816934f, 0.00758001f, 0.02331016f, -0.00643027f, -0.09538151f, 0.04826880f, 0.00667492f, 0.08036424f, 0.00590339f, 0.04924402f, -0.02224702f, -0.15175030f, -0.00231145f, -0.04109183f, -0.01883796f, 0.14314055f, 0.07999211f, 0.07831813f, 0.06839261f, 0.09511000f, 0.03417154f, -0.03796945f, -0.02953119f, 0.04915708f, 0.02392610f, 0.02269455f, 0.10840116f, 0.03587754f, 0.03228957f, 0.06079314f, 0.00805086f, 0.01892374f, -0.09661935f, -0.07113039f, 0.06032056f, 0.04573189f, -0.02077089f, 0.06256749f, 0.14686587f, 0.14967999f, -0.02424162f, 0.00347537f, -0.00352760f, 0.07273486f, 0.10710421f, 0.06075142f, -0.03202244f, -0.01937629f, -0.04738500f, -0.07943620f, -0.20520474f, -0.10769824f, -0.13884851f, -0.13453911f, -0.14129192f, -0.05912521f, -0.03071819f, -0.18117827f, -0.09833165f, 0.01956880f, -0.11883040f, 0.04255302f, -0.07437822f, -0.16477168f, -0.03623745f, 0.10458887f, 0.17609343f, 0.08227087f, 0.08907378f, 0.15967095f, 0.06106116f, -0.02892985f, -0.00788423f, 0.03696205f, -0.03273678f, -0.02195269f, -0.02196168f, -0.02005025f, -0.13603537f, -0.03220922f, 0.04477523f, 0.08128154f, -0.02886410f, -0.05934526f, 0.05703565f, -0.03278930f, -0.04618523f, -0.12751406f, -0.04586156f, 0.10764018f, -0.01042601f, 0.05601839f, 0.05476411f, -0.03843684f, -0.01319637f, 0.14374681f, 0.04477438f, -0.01801437f, 0.04899787f, 0.00077190f, -0.02178469f, 0.05312919f, 0.04304926f, 0.06521398f, 0.11124992f, -0.15609635f, -0.09184887f, -0.00699577f, -0.05386378f, -0.03976285f, 0.07123676f, 0.00987824f, 0.05927217f, 0.05092485f, 0.15192305f, 0.08379605f, 0.00140573f, -0.05203845f, -0.05880309f, -0.11400631f, -0.22597544f, -0.19845651f, -0.19661386f, -0.08052748f, -0.07815348f, 0.01133770f, -0.01781559f, 0.04221685f, -0.06071505f, 0.07126120f, -0.05264195f, 0.05804691f, 0.09512237f, 0.03270042f, 0.03862848f, 0.01668273f, 0.03983721f, -0.01192509f, 0.08274221f, 0.12046830f, -0.04454952f, -0.02483395f, 0.00772119f, 0.13151112f, 0.15022632f, -0.00539567f, 0.04941663f, -0.00317738f, 0.01754307f, 0.05475757f, 0.04385591f, 0.07440738f, 0.01696651f, 0.04594459f, 0.03510788f, -0.27546492f, -0.18559894f, -0.15856814f, -0.12222992f, -0.02378626f, -0.12348764f, -0.21283536f, -0.22401823f, -0.15297735f, -0.02282923f, -0.00465882f, 0.04545286f, -0.03872609f, 0.03237937f, 0.08948290f, -0.02142665f, -0.03980064f, -0.03413284f, -0.04337822f, -0.05257437f, 0.00861975f, 0.05438082f, 0.07659823f, 0.05304797f, 0.01923638f, 0.01265281f, -0.03608859f, -0.05364998f, -0.04416766f, 0.02276210f, -0.05777458f, -0.01194892f, -0.00975601f, 0.04365874f, 0.19323318f, 0.22686616f, 0.12702467f, 0.05741672f, 0.06025815f, 0.07955062f, -0.05817561f, -0.01676982f, -0.00006735f, -0.04550358f, -0.07986885f, 0.04723985f, 0.09822205f, 0.07098062f, 0.04900867f, 0.02297010f, -0.03684620f, 0.05154165f, 0.05552555f, 0.06552146f, 0.04794762f, 0.07463539f, 0.04651206f, -0.07685403f, -0.12002575f, -0.01716039f, -0.00821038f, 0.02660188f, 0.14394814f, 0.10661087f, 0.09523596f, -0.17060161f, -0.24367929f, -0.16354983f, -0.19184597f, -0.17134450f, -0.08037353f, -0.07440647f, -0.05781705f, 0.00540516f, -0.00990077f, -0.06963896f, -0.06139736f, -0.05163268f, -0.07761922f, -0.03845765f, -0.16227452f, -0.10234194f, -0.04894948f, -0.05102269f, -0.11159124f, -0.01848607f, 0.07452104f, 0.01783937f, 0.06734020f, 0.06190867f, 0.00334122f, 0.02282868f, 0.06813625f, 0.01716777f, 0.06958956f, -0.01819823f, 0.03153744f, -0.09266043f, -0.12841263f, -0.20014808f, -0.11826730f, -0.08909348f, -0.11754385f, -0.09838715f, -0.10994844f, -0.01477041f, 0.07533231f, 0.02362503f, 0.00296262f, -0.02495741f, 0.00937116f, 0.03408937f, -0.02578126f, 0.01852243f, 0.11684299f, -0.20620696f, -0.02028318f, -0.05642134f, -0.04819811f, -0.05646813f, -0.02315298f, -0.05642071f, 0.02176472f, 0.03213836f, 0.15912753f, -0.06562729f, -0.00803329f, -0.03501014f, 0.03952590f, 0.09825940f, -0.05054601f, -0.06409939f, -0.08452100f, -0.07082115f, -0.05834199f, 0.06737815f, 0.07807531f, 0.01588988f, 0.01202476f, -0.03837124f, 0.06211606f, -0.02872875f, 0.01734463f, 0.04986240f, 0.08043347f, -0.19692661f, -0.24198668f, -0.29677212f, -0.12651215f, -0.09575015f, -0.00295332f, -0.07169969f, -0.02944401f, -0.10034371f, -0.05850893f, 0.30256370f, 0.08291022f, 0.13116072f, -0.02933521f, -0.07853983f, 0.08158018f, 0.06955325f, -0.03756540f, -0.02921861f, 0.03624205f, -0.09863698f, -0.09091229f, -0.04997465f, -0.06430945f, 0.02706649f, -0.10020707f, -0.22477189f, -0.12172774f, -0.08107543f, -0.15562537f, -0.13154320f, -0.02762952f, -0.05503476f, 0.04399633f, 0.06074596f, 0.00118049f, 0.04957288f, 0.01194315f, -0.05355040f, 0.03985289f, 0.06357212f, 0.16215853f, 0.10283150f, 0.13867791f, 0.12931301f, -0.14822155f, -0.18337600f, -0.15200599f, 0.04057209f, 0.02025722f, 0.02397702f, 0.10675645f, 0.04917440f, 0.07422099f, 0.10327528f, 0.00852323f, -0.03689212f, 0.01652212f, 0.08275156f, 0.10386154f, 0.08619713f, 0.03347936f, 0.04357307f, 0.08855420f, 0.07704558f, -0.01994987f, 0.03179504f, 0.08318130f, 0.06825677f, 0.07788344f, 0.07405494f, 0.14666015f, 0.13804919f, 0.09588997f, 0.05301504f, -0.07411446f, 0.04706688f, -0.03346328f, 0.00050953f, 0.08472060f, -0.09459484f, -0.08051078f, -0.03988840f, 0.04640917f, 0.09369652f, 0.01227223f, -0.05793055f, -0.07548936f, -0.01997379f, 0.06909315f, -0.03984705f, 0.01010621f, -0.02564630f, -0.06709190f, -0.10601670f, -0.13484521f, -0.00816644f, 0.08261512f, 0.04315535f, 0.09773199f, -0.06211408f, -0.11254071f, -0.08221993f, 0.05167624f, 0.02196998f, -0.07439370f, -0.01180559f, -0.02629730f, -0.05587377f, -0.04445393f, -0.39831975f, -0.31352347f, -0.26363707f, -0.12851463f, -0.17102431f, 0.02736864f, 0.03683571f, 0.02800641f, -0.04293890f, 0.02107972f, -0.21966639f, -0.17944601f, -0.15156084f, -0.16402580f, -0.12751982f, 0.06008265f, 0.04641310f, 0.07833800f, 0.01679662f, 0.00512231f, 0.02760088f, 0.04675511f, -0.01535534f, 0.00910021f, -0.08226287f, -0.40225929f, -0.20052889f, -0.18069090f, 0.01933829f, 0.02194084f, -0.07336913f, -0.06971102f, 0.02220452f, -0.07579448f, -0.01109508f, -0.06519374f, -0.04673533f, -0.03238628f, -0.02994195f, 0.09945813f, -0.00996490f, -0.06525042f, -0.00932443f, 0.04078149f, 0.00751779f, -0.07376783f, -0.15622266f, 0.02001613f, 0.01386365f, 0.09083986f, -0.01945211f, -0.02323497f, -0.06037471f, 0.01117626f, 0.10341161f, -0.02508396f, -0.15728344f, -0.23528007f, -0.16151720f, -0.14064416f, 0.15172686f, 0.11628178f, 0.04913043f, -0.03774931f, -0.03521609f, 0.09168742f, 0.14146534f, 0.06397247f, 0.04620159f, -0.03475688f, -0.07748263f, 0.02857194f, 0.05853912f, 0.01177462f, -0.02687416f, 0.18361244f, 0.11795598f, 0.06141099f, 0.08218390f, 0.10069819f, 0.02377969f, -0.01795785f, 0.03596386f, 0.02709135f, 0.06890956f, -0.01567830f, -0.03257798f, -0.03348773f, -0.01698777f, -0.12241718f, 0.01835797f, -0.03092670f, -0.10946106f, -0.18184325f, -0.17739844f, 0.00763781f, 0.02735547f, 0.03898280f, -0.08149574f, -0.08399907f, -0.07273217f, -0.03693790f, -0.06018620f, 0.05164938f, 0.04191597f, -0.02353555f, 0.08412623f, 0.08451763f, -0.07544190f, -0.18874176f, 0.04189162f, 0.03508012f, -0.00848101f, 0.02667121f, -0.14513874f, -0.20118725f, -0.10861773f, 0.08107120f, 0.09515294f, 0.05454235f, 0.02779102f, -0.06743243f, -0.02091419f, -0.00063476f, 0.01784173f, 0.09757201f, -0.07105535f, 0.10855187f, 0.12455342f, 0.07722218f, -0.00510047f, -0.00382107f, -0.03866773f, -0.00033886f, -0.02174232f, -0.02914359f, -0.02075465f, -0.00380176f, 0.00395038f, 0.06390674f, 0.03299236f, 0.09641236f, 0.06230661f, -0.04179947f, -0.06216085f, 0.06355979f, 0.02457245f, -0.09508647f, -0.00995800f, 0.03258808f, -0.06587730f, 0.00564958f, -0.00567993f, 0.02969147f, -0.06782696f, 0.03264948f, 0.01249395f, -0.06200846f, 0.03888551f, -0.04502870f, -0.14592990f, -0.05636147f, -0.05783873f, -0.01598122f, 0.03353623f, -0.34395581f, -0.13922352f, -0.04353814f, 0.09732799f, 0.07756931f, 0.05842084f, 0.08637517f, 0.07928658f, -0.01856105f, -0.17628688f, -0.01928154f, 0.03888651f, -0.08616517f, -0.07743923f, -0.04049317f, 0.01402188f, 0.10475463f, 0.02046644f, 0.00945160f, -0.16365997f, -0.08838891f, -0.05770994f, 0.01865711f, 0.04486449f, 0.02149943f, -0.01786655f, 0.02377554f, 0.04785734f, 0.10752547f, 0.09357858f, 0.01372044f, 0.07950224f, 0.06267823f, -0.07608628f, -0.06183749f, -0.04612203f, 0.00234024f, 0.01646957f, 0.01748518f, 0.00578099f, 0.02308876f, -0.02366758f, -0.05373937f, -0.10989929f, -0.15494677f, 0.16210259f, 0.05468400f, -0.03922946f, -0.32545558f, -0.18485744f, 0.07338250f, -0.03018908f, -0.02898015f, -0.13007694f, -0.09978665f, 0.00177325f, -0.04380400f, -0.03868028f, -0.01660663f, -0.05967535f, -0.07559496f, -0.03190005f, 0.04436837f, -0.10860300f, -0.03163430f, 0.08138104f, 0.00524026f, -0.00260218f, -0.01151108f, -0.00713336f, 0.03734538f, -0.02814340f, 0.01124492f, -0.02709447f, -0.12879647f, -0.01032756f, -0.03118555f, 0.02718795f, 0.02732480f, 0.03207107f, 0.06624584f, 0.02690116f, 0.08279189f, -0.04706814f, -0.00298588f, -0.13482237f, 0.00551289f, 0.00296939f, -0.05133193f, -0.09815212f, 0.01399130f, 0.04265637f, 0.07653911f, -0.07932590f, -0.14085780f, 0.01267085f, 0.08550283f, 0.00370276f, -0.02021326f, 0.00982109f, -0.01059345f, -0.09989060f, -0.02738686f, 0.03957681f, 0.09033204f, 0.14303957f, -0.06950960f, -0.09192212f, -0.02612083f, 0.05361069f, -0.10251936f, -0.15347522f, 0.05992094f, 0.04973101f, 0.16086540f, -0.23053345f, -0.12679110f, -0.03586598f, -0.03377558f, 0.06147347f, 0.01882773f, 0.05508600f, 0.00229598f, -0.00106196f, -0.07052682f, -0.00492580f, 0.01943574f, -0.02344231f, 0.02680915f, 0.04404684f, -0.00529010f, -0.04115015f, 0.02437704f, 0.00295312f, -0.07570062f, -0.02672830f, -0.02592918f, 0.00902961f, 0.02475962f, 0.01374305f, 0.03462760f, -0.08649522f, -0.08879522f, 0.00833099f, 0.09070293f, -0.20163460f, -0.22214831f, -0.04998195f, 0.09686277f, 0.09369694f, 0.12415714f, 0.02820932f, 0.03487484f, -0.03561572f, -0.06566035f, -0.03457976f, -0.11661363f, -0.04449457f, 0.04998227f, 0.13575928f, -0.01512947f, 0.05251390f, 0.06693991f, 0.01815225f, 0.03516393f, 0.03951054f, 0.06582984f, 0.05264850f, 0.03266044f, 0.00732640f, 0.09683850f, 0.14605518f, 0.13692527f, 0.11704575f, 0.10903219f, -0.00204522f, 0.11628678f, 0.09443661f, 0.10274608f, 0.06903184f, -0.04079618f, 0.09446342f, -0.01017540f, 0.03007407f, 0.01859120f, 0.00001509f, 0.00546475f, 0.04983678f, 0.05442316f, 0.00875383f, 0.07907052f, 0.06717199f, 0.10139765f, 0.08401233f, 0.01947932f, -0.10737059f, -0.11391807f, 0.00689299f, -0.11732025f, -0.03836132f, -0.07977673f, -0.05142797f, -0.02311479f, -0.03364622f, 0.03562293f, -0.31886458f, -0.58926189f, -0.35385537f, -0.41821626f, -0.48333490f, -0.02249665f, -0.00553822f, -0.00810605f, -0.14754759f, -0.14810874f, -0.02655073f, 0.00756328f, 0.03227685f, -0.04166569f, -0.10120484f, 0.06277604f, 0.01307968f, 0.14539084f, 0.12203089f, -0.00812498f, -0.03578455f, -0.07205044f, 0.02332495f, -0.03359896f, -0.01431303f, -0.22105186f, -0.30298212f, -0.24321625f, -0.30702174f, -0.47164780f, 0.07100693f, -0.01842170f, -0.03915768f, 0.00427146f, 0.04690094f, 0.01324252f, -0.00657264f, 0.02457469f, -0.00873037f, 0.04835146f, 0.05420812f, 0.09437881f, 0.09086181f, 0.07928830f, -0.01017467f, -0.07149728f, -0.07865078f, -0.12732667f, -0.04088777f, -0.05694023f, -0.00777574f, 0.05850155f, 0.01171585f, 0.04400589f, 0.04084628f, -0.04343943f, -0.08521420f, -0.12683997f, -0.07971654f, -0.09199952f, 0.05603403f, -0.03093660f, 0.02345278f, 0.04838712f, 0.00110279f, -0.00610047f, -0.00636501f, 0.02111008f, 0.03194878f, -0.02580453f, 0.08257086f, 0.00741152f, -0.03277292f, 0.02071208f, -0.00547034f, 0.03667581f, 0.00799551f, 0.06550522f, 0.00236657f, 0.03068752f, 0.07286627f, -0.00820946f, -0.02344719f, -0.10168849f, 0.02579096f, -0.00516947f, -0.02653378f, 0.03186081f, -0.09799047f, -0.07254903f, -0.07466739f, 0.00852261f, -0.00935509f, -0.07845633f, -0.06933440f, -0.07848093f, -0.03451683f, 0.03073923f, 0.04024284f, -0.02179991f, 0.08003147f, -0.00130127f, 0.08712356f, 0.03437352f, 0.03517612f, 0.01501363f, -0.03749843f, -0.01200427f, -0.06760136f, -0.06857422f, -0.08327165f, -0.01448871f, 0.06806738f, 0.02509064f, 0.11155427f, -0.02117489f, -0.02971452f, -0.02432502f, -0.15984987f, -0.13093510f, -0.08108877f, -0.01599220f, -0.03046824f, -0.03622957f, -0.02147732f, -0.08877379f, -0.02898753f, -0.00869665f, -0.04664216f, 0.00535817f, -0.09786615f, -0.03702034f, -0.03800100f, -0.06579711f, -0.12459203f, -0.10029279f, -0.09051777f, -0.05343712f, 0.03734030f, 0.04197300f, 0.05010374f, -0.04173535f, 0.04099415f, 0.02544271f, -0.02524345f, -0.05271752f, -0.12040524f, 0.01059689f, -0.09907604f, -0.02649155f, -0.04607772f, -0.03224810f, 0.01324384f, -0.06177216f, -0.00362227f, 0.08501881f, 0.00064992f, 0.06462416f, -0.06151581f, -0.01474698f, -0.09457564f, -0.16854201f, -0.20116562f, -0.16187513f, -0.08968294f, 0.12234645f, 0.21647471f, 0.18926603f, 0.12094590f, 0.14292450f, 0.15134488f, 0.16189800f, 0.14779510f, 0.15549789f, 0.09200213f, -0.03914857f, -0.01781532f, -0.01808687f, -0.03758404f, 0.00795956f, -0.00138215f, 0.00618766f, 0.03578731f, 0.09621309f, 0.10055824f, -0.06943217f, -0.04287025f, 0.02408987f, -0.03674517f, -0.04683420f, 0.00572429f, 0.01483562f, 0.10705578f, -0.02683506f, 0.06440040f, -0.00655061f, 0.03325089f, 0.02116383f, 0.01801779f, 0.03679092f, 0.08922371f, 0.03378242f, 0.03240603f, -0.03751716f, -0.10356981f, -0.08161709f, -0.02796595f, 0.09422418f, 0.00771968f, -0.15664805f, 0.12054490f, 0.00330465f, 0.09374307f, 0.09376331f, -0.01494411f, -0.06278330f, -0.01780994f, 0.00908090f, -0.03927208f, -0.10661969f, 0.01067247f, -0.03252589f, -0.04177712f, -0.31056938f, -0.27064320f, 0.15733226f, 0.18989062f, 0.24844840f, 0.19275141f, 0.10681535f, -0.14611728f, -0.04439969f, 0.04428746f, -0.03008075f, 0.03543577f, -0.19942659f, -0.01999455f, -0.05235273f, -0.00584862f, 0.09636714f, -0.16239072f, -0.09223617f, -0.02145212f, -0.06902641f, -0.10132049f, 0.00669889f, 0.11601159f, 0.11850677f, 0.02387768f, 0.04524886f, -0.10027952f, -0.09870468f, -0.07103264f, -0.17513937f, -0.10177539f, 0.04128348f, 0.00731776f, 0.03802868f, 0.13567545f, 0.04481691f, 0.06059742f, -0.03588872f, -0.03257699f, -0.15035766f, -0.17059501f, 0.09379076f, 0.04657020f, 0.07504120f, 0.03377490f, -0.03764552f, 0.06065638f, 0.03978322f, -0.00482567f, 0.08026531f, 0.05059085f, -0.16797251f, -0.04873001f, -0.07745546f, -0.03418659f, -0.11325033f, 0.03281286f, 0.01489511f, -0.04493420f, -0.04431738f, -0.02518344f, -0.14949933f, -0.10549192f, -0.05760462f, -0.15538107f, -0.13406427f, 0.02899944f, 0.05691164f, 0.03102718f, 0.01752694f, -0.02732515f, 0.12640336f, 0.07269905f, -0.01470154f, -0.01052190f, 0.02106743f, 0.02130590f, -0.02792116f, -0.02493306f, 0.00551877f, -0.04103369f, 0.00420784f, -0.10960289f, -0.18186218f, -0.27192447f, -0.29830918f, 0.00943238f, 0.01088240f, -0.07847241f, -0.09721136f, -0.13878654f, 0.12153584f, 0.08497194f, 0.07120398f, -0.01021609f, -0.13736627f, -0.13200220f, -0.09173592f, -0.06351741f, -0.24033169f, -0.20164347f, 0.05654956f, -0.15598969f, -0.13249540f, -0.12193441f, -0.20005752f, 0.03950894f, 0.05739105f, 0.01452751f, -0.02071963f, -0.02139026f, 0.07135470f, 0.00569608f, 0.02059794f, -0.01294504f, 0.01740569f, -0.09203923f, 0.00184586f, 0.09297959f, -0.01804169f, -0.04634184f, -0.01288082f, -0.00430041f, -0.03486384f, -0.05323445f, -0.08987031f, 0.05811948f, 0.04698150f, 0.00592706f, -0.08635878f, 0.08395906f, -0.21669687f, -0.27911299f, -0.11887971f, -0.30608854f, -0.32705668f, 0.08489079f, 0.09486596f, -0.02901787f, 0.01269649f, -0.06171295f, 0.03691224f, 0.04157233f, 0.03183070f, -0.00144590f, 0.01839562f, -0.05055112f, 0.03502073f, 0.03673334f, -0.01962566f, -0.03747417f, 0.07237975f, 0.03511853f, 0.05478397f, 0.02309748f, -0.00788248f, 0.03592821f, 0.02530196f, 0.04118791f, 0.08455126f, 0.25225168f, 0.03143119f, 0.05532601f, 0.05636087f, -0.05834192f, -0.06363926f, -0.00335702f, -0.01277728f, -0.01464454f, 0.11674773f, 0.06257873f, 0.01586399f, -0.07350231f, -0.04165032f, -0.09453976f, -0.10189666f, 0.01227253f, -0.01449634f, -0.07019793f, -0.08243649f, 0.07202270f, -0.11980788f, -0.00847238f, -0.08210428f, -0.09598409f, -0.08315767f, -0.07581727f, -0.07070985f, 0.01330573f, 0.02598922f, 0.01227539f, 0.02472421f, 0.06583978f, 0.04651106f, 0.03275193f, 0.07469326f, -0.02713737f, -0.07760069f, -0.02497375f, -0.07734904f, -0.10544761f, -0.03864527f, -0.18266776f, -0.19428191f, -0.21087390f, -0.26108521f, 0.06611268f, 0.12170838f, 0.13217439f, 0.17692833f, 0.18619590f, 0.04099646f, -0.00180920f, 0.04966496f, -0.03322798f, 0.05698065f, 0.02978467f, -0.00305698f, -0.01235913f, -0.00886498f, 0.01097234f, 0.03936804f, 0.06287899f, -0.02945856f, 0.01465126f, 0.03074688f, -0.26531926f, -0.00972312f, -0.04214717f, -0.04039542f, -0.21082480f, 0.13194643f, -0.06034112f, -0.02337137f, -0.04916946f, -0.10209204f, 0.06463924f, 0.06453907f, -0.07815827f, -0.05773722f, -0.06569555f, -0.09360230f, 0.01890474f, -0.09029457f, -0.01620494f, -0.12382503f, -0.02149370f, 0.03275125f, -0.00855028f, -0.13385418f, -0.09591342f, -0.14683700f, 0.07671722f, 0.05206707f, -0.13183828f, -0.31470221f, -0.08938117f, -0.04076177f, 0.07667315f, -0.07251240f, 0.06260657f, 0.00910343f, -0.00368004f, -0.03620879f, 0.06234604f, 0.09208129f, -0.02118013f, 0.08078679f, 0.06602831f, 0.00996520f, 0.01484841f, -0.09319095f, -0.12710592f, -0.09279571f, -0.12373191f, -0.01661948f, -0.04310881f, 0.04597148f, 0.03131615f, -0.00958878f, 0.00671208f, -0.06528356f, -0.08102255f, 0.01094307f, -0.04263771f, -0.01533422f, -0.29769301f, 0.04672467f, -0.02657154f, 0.06713749f, 0.01430521f, 0.01718257f, 0.01385405f, -0.03514487f, 0.01952931f, -0.03753879f, -0.06781521f, 0.10456298f, 0.00798728f, 0.02613467f, -0.13504577f, -0.05275802f, -0.05414404f, 0.03325216f, 0.13327971f, 0.08558226f, 0.03228331f, -0.06777789f, -0.05220934f, 0.06625727f, 0.09124906f, 0.03626240f, 0.04921211f, 0.13988583f, 0.08243558f, 0.03682822f, -0.04824590f, -0.03396213f, 0.08983637f, 0.01888064f, -0.03461372f, -0.02529096f, 0.01028258f, -0.11139285f, 0.00279532f, 0.04451656f, -0.27097559f, -0.20946790f, -0.13079306f, -0.09283426f, -0.06229401f, 0.02633115f, 0.00774366f, 0.03711842f, 0.01241742f, 0.01442126f, 0.01925729f, -0.02985517f, 0.12335772f, 0.04831094f, 0.09431032f, 0.08795202f, -0.00326333f, 0.01989305f, -0.05542424f, -0.02487690f, -0.13470018f, 0.07220678f, 0.02898405f, 0.01874610f, -0.00159965f, -0.18633069f, -0.14327395f, -0.13777263f, -0.20186968f, -0.24198008f, 0.03488678f, 0.01943382f, 0.00763390f, 0.06501205f, -0.04661793f, 0.06182228f, 0.07107076f, 0.11503850f, 0.04127011f, 0.00382916f, -0.08071338f, -0.00037302f, 0.14470090f, 0.11996159f, 0.05874312f, 0.07125896f, 0.06256434f, 0.05174242f, -0.02525185f, 0.06084988f, 0.01140441f, 0.09990761f, 0.05861336f, 0.08863442f, 0.09470253f, -0.07316832f, -0.06698122f, -0.06518689f, 0.02887003f, -0.07001065f, 0.02107230f, -0.03740362f, -0.05640534f, -0.02430073f, 0.01747074f, -0.23162965f, 0.04532375f, 0.07875250f, 0.05912598f, -0.01662578f, -0.08271367f, -0.03793244f, 0.01572898f, 0.03218322f, 0.04713263f, -0.20278479f, -0.00213696f, 0.04799693f, 0.09587955f, -0.07503708f, 0.04359209f, 0.03328856f, 0.05996042f, 0.04655645f, 0.03207800f, -0.17176907f, -0.12798326f, 0.00783260f, -0.02347250f, 0.01280774f, 0.11609866f, 0.14682125f, 0.12055225f, -0.00062395f, 0.02938276f, -0.10557279f, -0.05948924f, -0.12576513f, -0.11475945f, -0.04946778f, -0.12615721f, 0.00466575f, -0.06101900f, -0.12132505f, -0.06996942f, -0.13732135f, 0.16372038f, 0.05107266f, 0.09654280f, 0.15707451f, -0.30863351f, 0.00752333f, 0.07585097f, 0.06918593f, -0.13145390f, 0.01273815f, 0.03808200f, -0.07329183f, 0.01349844f, -0.00057798f, -0.04051583f, 0.04489257f, 0.01803049f, -0.00157752f, -0.08678573f, -0.08422188f, 0.01999678f, -0.04793779f, -0.02521638f, -0.03369888f, -0.08036305f, -0.11866758f, -0.07987954f, -0.08203541f, -0.09046207f, 0.00143743f, -0.00200878f, -0.01847895f, -0.09939029f, -0.01424376f, 0.08593039f, 0.04561968f, 0.04642014f, -0.03652033f, 0.04333521f, 0.06575078f, 0.07090895f, 0.05744207f, 0.10157360f, 0.07926700f, 0.01350695f, 0.05506084f, 0.09664541f, 0.04837672f, 0.02857089f, 0.02536898f, 0.08561862f, -0.06100260f, -0.02480808f, 0.07961059f, -0.04824048f, -0.02119220f, -0.04102350f, -0.01308297f, 0.04348452f, 0.05017453f, 0.03287644f, -0.09876935f, 0.07291333f, 0.11671495f, 0.00973139f, 0.06419718f, 0.07479910f, 0.13167170f, 0.02564752f, -0.09674579f, -0.18950014f, -0.03285475f, -0.01698160f, -0.10944701f, -0.13222446f, -0.07909433f, -0.03275819f, -0.10234975f, -0.09412169f, -0.06169679f, 0.00976465f, -0.02399792f, 0.06665497f, -0.00861643f, 0.10444064f, 0.13012469f, 0.04094966f, -0.00113749f, 0.00601459f, -0.10917442f, -0.00477680f, 0.01502319f, -0.02399167f, -0.09651355f, 0.03060741f, 0.05084068f, 0.05001878f, -0.03388611f, -0.01936412f, -0.56277645f, -0.39392152f, -0.27967972f, -0.10078103f, -0.18116879f, 0.03252050f, 0.03892357f, -0.00124154f, 0.02026393f, 0.03059644f, 0.05668494f, 0.06255120f, -0.01167530f, -0.09694477f, -0.07814005f, 0.01571867f, 0.06545504f, 0.05253517f, 0.03354509f, -0.03979336f, -0.06233701f, 0.12846105f, 0.08125816f, -0.01966108f, -0.00405132f, 0.00551475f, -0.07446574f, -0.04078149f, 0.07454433f, 0.04982016f, 0.02270567f, 0.06036634f, -0.03611864f, -0.08104777f, -0.20952727f, 0.11869761f, 0.09179325f, 0.05835097f, 0.05036474f, -0.02246131f, 0.02489151f, 0.00890458f, -0.04396973f, -0.03959572f, -0.09344681f, 0.02906362f, 0.06583379f, 0.05106629f, 0.04742773f, 0.03165848f, 0.05169565f, 0.09617822f, -0.01838218f, -0.17279033f, -0.07317901f, -0.09718480f, -0.07600896f, -0.05429049f, 0.00847212f, -0.11678566f, -0.03940418f, -0.04167582f, -0.09969888f, -0.10228649f, -0.09296159f, -0.14347501f, -0.02314592f, -0.08197447f, -0.16173244f, -0.17964913f, 0.06052900f, 0.08931302f, 0.00228053f, 0.07149739f, 0.05392452f, 0.01853231f, 0.04247873f, -0.04283243f, -0.05295926f, -0.01136680f, 0.03241787f, 0.05206975f, 0.05021106f, -0.09852586f, -0.04296768f, 0.09403487f, -0.02133077f, 0.01584543f, 0.06742308f, -0.03250369f, 0.04919946f, -0.01270112f, -0.00018232f, -0.02071253f, -0.07637110f, 0.02079529f, -0.07727218f, -0.07229103f, -0.00617589f, 0.10920264f, 0.05456470f, 0.12459631f, 0.06697928f, -0.01594753f, 0.04398441f, 0.08041325f, 0.03992526f, 0.02406786f, 0.01128085f, -0.01102490f, 0.06295080f, -0.01837613f, 0.03486625f, 0.03596991f, 0.04026249f, -0.14019129f, -0.20779374f, 0.07937728f, 0.09014541f, -0.02254877f, 0.07451336f, 0.02373766f, 0.13324332f, 0.00999089f, -0.02156669f, -0.06732438f, -0.17002489f, -0.01437191f, 0.07434272f, 0.01306353f, 0.02639124f, 0.10861301f, -0.00145129f, 0.08352972f, 0.16768546f, -0.05249524f, -0.17583378f, -0.14403442f, -0.15065256f, -0.11787480f, -0.00001079f, -0.02138586f, 0.03162853f, 0.01982952f, 0.01826854f, -0.05824057f, -0.09535704f, -0.02342699f, -0.05147298f, 0.01465424f, -0.01243747f, 0.06291575f, 0.01242038f, 0.00280516f, 0.01807273f, -0.09938541f, -0.06536952f, 0.07973083f, -0.10222640f, 0.00525248f, -0.04073289f, -0.06483259f, -0.08648353f, -0.14579594f, -0.12548420f, -0.26286942f, -0.15689346f, -0.06932206f, -0.02004545f, -0.15191987f, -0.03424731f, -0.01838361f, -0.07180753f, -0.01353056f, -0.00218117f, -0.05466584f, 0.04984651f, 0.07858175f, 0.03898529f, -0.04343497f, 0.03315971f, 0.00749618f, 0.01195792f, -0.06766044f, -0.21124816f, -0.19068186f, -0.00068286f, 0.04560513f, 0.00789502f, 0.03055765f, -0.05006166f, 0.03970927f, 0.06686751f, 0.06280964f, 0.03296072f, 0.02515504f, 0.04934147f, 0.00022188f, -0.00233908f, 0.04278437f, -0.06467310f, 0.07934225f, -0.03880611f, -0.02292916f, 0.03190045f, -0.00164853f, 0.04041819f, -0.07401974f, 0.00829438f, 0.05022126f, -0.09141082f, -0.07216810f, -0.05450268f, -0.10787003f, 0.01762377f, -0.13913794f, -0.09554097f, -0.14029086f, -0.09093963f, -0.03738482f, -0.00474126f, -0.01978793f, -0.07803296f, -0.08874574f, 0.00783291f, -0.12945701f, -0.09757685f, -0.09458075f, -0.08121203f, -0.09709544f, -0.09259052f, -0.03153452f, 0.08135050f, 0.04737869f, 0.06531876f, -0.08236663f, -0.07275247f, -0.01269203f, 0.00910693f, 0.02179382f, -0.09563836f, 0.01674780f, -0.08555708f, -0.02466107f, 0.00544651f, -0.08408380f, 0.04591392f, 0.08799209f, 0.04259073f, 0.00425403f, -0.01621133f, -0.02079206f, -0.05652807f, -0.03539147f, 0.02169773f, -0.02601990f, -0.06088132f, -0.00931743f, 0.03755066f, -0.01326710f, 0.09879602f, -0.04965625f, -0.03940669f, -0.03944030f, -0.02451678f, -0.11028761f, -0.00797854f, -0.06073250f, 0.01922549f, -0.00030364f, 0.04776058f, -0.02863481f, 0.01610885f, 0.01591958f, 0.00641308f, -0.06452654f, -0.05836574f, -0.07364555f, 0.02002643f, 0.13147934f, -0.06679224f, 0.00353903f, -0.06678004f, -0.03720177f, -0.03241229f, 0.02886781f, 0.05619232f, -0.13730212f, -0.14337897f, -0.29035366f, -0.05758704f, 0.02899079f, -0.00469034f, 0.06148788f, 0.05132690f, -0.09923293f, -0.18890408f, -0.21215625f, -0.04576288f, 0.00410325f, -0.24923064f, 0.16944557f, 0.09499153f, 0.11015028f, 0.20739040f, -0.00531388f, -0.04279325f, -0.12431211f, 0.00381258f, 0.12787113f, -0.00988016f, -0.08202888f, 0.01406508f, -0.11234600f, -0.09634972f, -0.03940330f, -0.23134013f, -0.12948479f, -0.08185120f, -0.03949671f, -0.07032941f, 0.00506706f, 0.03110643f, 0.04753364f, 0.03051978f, -0.14884326f, -0.13808939f, -0.03352954f, 0.01466391f, 0.01115220f, -0.26447812f, -0.06134316f, 0.09716604f, -0.03432356f, -0.16742016f, 0.00069498f, 0.01575188f, 0.02302540f, 0.01995462f, 0.01883816f, -0.12380540f, -0.10359122f, -0.15131243f, -0.04856375f, 0.01871618f, 0.01523714f, 0.00376653f, -0.02656837f, 0.04627976f, -0.04021863f, -0.07987756f, -0.12302660f, -0.10409997f, -0.17035562f, -0.10368702f, 0.01727107f, -0.01213223f, 0.01476557f, -0.05848698f, -0.05176898f, -0.02785940f, -0.17014997f, -0.25875959f, -0.11666630f, -0.12539260f, 0.02629880f, 0.09667771f, 0.07145195f, -0.01476776f, -0.00696952f, 0.07410351f, 0.04708493f, -0.06384514f, 0.03375402f, 0.01054266f, 0.03007750f, 0.14008167f, 0.07073087f, 0.05647315f, -0.00326998f, -0.09727227f, -0.07886762f, -0.14640665f, -0.10276897f, -0.16891107f, -0.20685387f, 0.00025722f, -0.14935769f, -0.18224347f, -0.27334192f, -0.00563853f, -0.02373877f, 0.01259399f, -0.03415776f, -0.06779779f, -0.02692302f, -0.03561172f, 0.05008485f, 0.03787643f, -0.12277015f, -0.02847293f, -0.04200389f, -0.10746017f, -0.14233364f, -0.10805566f, -0.27134159f, -0.19530670f, -0.19952542f, -0.08163222f, -0.08507514f, -0.12545809f, -0.03483322f, -0.07189936f, -0.07990044f, -0.07615320f, -0.18818852f, 0.00065279f, -0.05875806f, -0.03039440f, -0.13028394f, 0.02971708f, -0.01523950f, -0.02810211f, 0.01883343f, 0.01209502f, -0.01583282f, -0.05852033f, -0.09501399f, -0.05884934f, 0.00417716f, -0.09810821f, -0.10621402f, -0.03240431f, 0.00999399f, -0.08218715f, 0.05272784f, 0.01515402f, 0.07104740f, 0.15559383f, 0.09580149f, -0.06276049f, 0.08388095f, -0.05508204f, -0.08812790f, -0.13864350f, 0.00725491f, 0.13353863f, 0.04922282f, 0.09491504f, 0.05080682f, 0.06548827f, 0.04678676f, -0.07857420f, -0.02558542f, -0.05341218f, -0.08558200f, -0.01736527f, 0.00200196f, -0.04979679f, -0.12543450f, -0.02826574f, 0.05826980f, 0.07976739f, -0.06098401f, -0.06355099f, 0.09357451f, 0.06693546f, -0.00707645f, 0.01672285f, -0.06020310f, 0.05852628f, 0.09807145f, -0.07112881f, -0.07943448f, 0.00976076f, -0.03712865f, -0.04154800f, -0.03110393f, -0.06094002f, -0.07408686f, -0.00728276f, 0.03153574f, 0.00461200f, -0.02478499f, -0.07045928f, -0.17398822f, -0.02540438f, -0.00644675f, -0.02751545f, -0.09016427f, -0.02997783f, 0.04458279f, -0.00170092f, 0.00526263f, -0.03251226f, -0.06638751f, -0.02422542f, -0.09101330f, -0.09120429f, -0.02544145f, -0.11957125f, -0.09216405f, -0.03462722f, -0.11212377f, -0.06814164f, 0.03106942f, -0.00794569f, -0.10950704f, -0.02383957f, 0.04172244f, -0.06176813f, 0.07162981f, 0.07530237f, 0.01989469f, -0.03065836f, -0.24152163f, 0.03591485f, 0.02540763f, -0.10051449f, -0.05512980f, 0.01720193f, -0.00938641f, -0.02513137f, -0.11730497f, -0.06772920f, 0.08589961f, 0.03457580f, 0.08500744f, -0.01475684f, -0.05058597f, -0.19292995f, -0.03673924f, -0.09027971f, 0.00311713f, 0.05299690f, -0.04273660f, -0.05401283f, -0.09765315f, -0.00402912f, -0.10732922f, -0.23065647f, -0.11718699f, 0.04884182f, 0.07342134f, -0.04020772f, -0.03783153f, -0.04350024f, -0.02198592f, -0.04532777f, -0.11753749f, 0.04225000f, 0.05022107f, 0.01198063f, -0.10451648f, -0.12873285f, -0.13628569f, -0.04590945f, 0.04413922f, 0.01621755f, 0.01740496f, -0.16058451f, 0.00262697f, 0.06750261f, 0.06341974f, 0.04795504f, -0.12094297f, -0.07926803f, -0.06398023f, -0.02305798f, -0.03374869f, -0.02800125f, -0.06012496f, 0.07870819f, 0.13110256f, 0.02155524f, 0.06408163f, 0.06885831f, -0.00970251f, -0.01197146f, -0.08840013f, -0.00715811f, -0.02342149f, 0.04235537f, -0.00511067f, 0.04167582f, -0.01867556f, -0.01157136f, 0.00573499f, -0.08893639f, -0.07852294f, -0.03644726f, 0.03545117f, -0.06760710f, -0.05678002f, 0.07814869f, -0.14702582f, 0.02761997f, 0.05554912f, -0.03591617f, -0.00833072f, 0.09384019f, 0.13551664f, 0.07337654f, -0.05669051f, -0.16590650f, -0.01394602f, 0.05679429f, 0.01585624f, -0.00057193f, 0.06339616f, -0.17623658f, -0.06215188f, -0.08880291f, -0.07376847f, -0.02625979f, 0.06244176f, 0.04629526f, 0.03672244f, 0.06411370f, -0.01269808f, -0.19903308f, -0.00318291f, 0.05548015f, -0.02584806f, -0.10172172f, -0.16734150f, 0.02812165f, 0.05990720f, 0.01743251f, -0.05699546f, -0.11112908f, -0.08310561f, -0.04954306f, -0.07059265f, -0.00515635f, -0.20289794f, -0.05980012f, 0.01884175f, 0.03009139f, 0.01067209f, -0.04003230f, 0.02427503f, -0.04104021f, -0.01097288f, -0.07333302f, 0.05877133f, -0.02568877f, -0.03063593f, 0.02797071f, 0.03683050f, 0.04133716f, 0.06093178f, -0.02129286f, -0.09773936f, -0.01062275f, 0.08076108f, 0.07126098f, 0.07964065f, -0.01620442f, -0.12842183f, 0.08270968f, -0.01182739f, -0.08319756f, -0.07590722f, -0.16772039f, -0.07903633f, 0.04785479f, 0.12629271f, -0.00275360f, -0.15782872f, 0.00502955f, 0.08888947f, 0.00534098f, 0.01056728f, -0.05872316f, -0.02975021f, 0.00487941f, -0.00002202f, 0.03763490f, 0.00239350f, -0.03233359f, 0.11491799f, 0.05067945f, 0.05255512f, -0.04941561f, 0.05715702f, -0.02301905f, 0.05840354f, 0.01002825f, -0.00938818f, 0.04820478f, 0.04695689f, 0.04322874f, 0.04365535f, 0.03998494f, 0.08639999f, 0.10121180f, 0.07046618f, 0.01399533f, -0.00775900f, -0.03316612f, 0.02764764f, 0.00990778f, -0.01139606f, -0.08408658f, 0.00399762f, -0.02618788f, -0.01333453f, -0.15482356f, -0.12620024f, 0.03938918f, 0.00358250f, -0.00478497f, 0.00573634f, -0.04353544f, -0.07212584f, -0.04412035f, 0.02887920f, 0.04477749f, -0.01863696f, -0.12038116f, -0.08542496f, 0.05085800f, 0.01793112f, 0.11224803f, 0.04316524f, 0.02470694f, 0.01140489f, 0.00017349f, 0.04327091f, -0.03858097f, -0.03847600f, -0.03983435f, -0.03867912f, -0.00175880f, 0.06016598f, 0.01494703f, 0.01200760f, -0.01952181f, -0.15746616f, -0.06640819f, -0.02543732f, 0.07418620f, 0.04356956f, 0.04592920f, -0.08269940f, -0.01137889f, -0.01791389f, 0.08567780f, 0.00713082f, -0.11080184f, -0.05350383f, -0.02171755f, 0.04757683f, 0.05997358f, 0.08051413f, 0.09037263f, 0.10148125f, 0.02881909f, 0.04935621f, 0.01663694f, -0.09409911f, -0.07483508f, -0.14561751f, -0.10980679f, -0.20711888f, -0.02193878f, -0.07416022f, -0.10033894f, -0.18275288f, 0.03138425f, 0.04507324f, 0.09020572f, 0.11838949f, 0.06388436f, 0.15135029f, 0.09449361f, -0.01460951f, 0.03909573f, 0.07372984f, -0.06344537f, -0.05081259f, -0.02389599f, 0.05365010f, -0.10227465f, -0.13306710f, -0.16664271f, -0.07805238f, -0.06419484f, 0.05300869f, 0.06245381f, -0.02054285f, 0.00629227f, -0.05056063f, -0.01675363f, -0.03213147f, -0.00155906f, 0.01587557f, 0.06344566f, 0.08429600f, -0.09618438f, 0.00036271f, 0.10506550f, 0.12368201f, 0.07973969f, 0.03071652f, 0.05087641f, 0.11274975f, 0.10949873f, 0.03531572f, 0.08677465f, 0.03502455f, 0.02038539f, 0.08237788f, -0.04841679f, 0.03231771f, -0.01778793f, 0.08118551f, 0.10181957f, -0.03569978f, -0.06833983f, -0.03466590f, -0.06538980f, 0.03655544f, 0.03574935f, -0.05742788f, -0.04907392f, -0.06391165f, -0.10848619f, -0.09643906f, -0.00243690f, -0.05029479f, -0.03200595f, 0.05305755f, 0.02458613f, -0.17333721f, -0.03720317f, 0.08220623f, -0.00099346f, 0.01432269f, -0.03754545f, -0.03986465f, -0.06602217f, -0.04049746f, -0.08748585f, -0.38382939f, -0.31826413f, -0.14025475f, -0.24677734f, -0.35641268f, -0.08873099f, 0.08586764f, 0.07868499f, 0.03706045f, 0.04585987f, -0.02922160f, 0.01067746f, -0.04585469f, -0.06078251f, -0.07431351f, -0.07525841f, -0.04490683f, -0.08120561f, 0.01845892f, 0.09117306f, 0.04506426f, 0.08276542f, -0.07492323f, -0.02527733f, 0.03152932f, -0.00315810f, -0.02584454f, 0.02029503f, 0.04665427f, 0.01473442f, -0.23918311f, -0.16546175f, -0.06619906f, 0.03261336f, 0.00067983f, -0.03196660f, 0.01981731f, -0.02394590f, -0.04943336f, 0.08016240f, -0.05284074f, 0.01932410f, 0.02147650f, -0.03460263f, -0.05981210f, -0.03851928f, -0.03108349f, 0.00457238f, -0.03000331f, -0.08839532f, -0.05262407f, 0.08462778f, -0.00561054f, 0.07964890f, 0.04377614f, -0.02447678f, -0.01258198f, -0.03049398f, 0.01956446f, 0.06921853f, -0.00726798f, 0.01679123f, 0.00153612f, -0.04301983f, -0.08372418f, -0.36799240f, -0.00520474f, -0.06633150f, 0.03504717f, -0.08144388f, 0.00265143f, 0.11028792f, 0.07306761f, -0.16336188f, -0.01520437f, 0.14555283f, -0.00891921f, 0.04316455f, -0.05056157f, 0.02372744f, 0.06480676f, 0.05513278f, 0.02611511f, 0.01413640f, -0.08117403f, -0.12856762f, -0.08992011f, -0.05419130f, -0.19152768f, -0.26621485f, 0.00223239f, -0.06860846f, -0.11389975f, -0.05841446f, -0.04172641f, 0.12789279f, 0.00556815f, -0.04290335f, -0.03156706f, -0.34223488f, -0.03391624f, 0.02091305f, 0.01752483f, -0.00212165f, 0.03867954f, 0.07525472f, 0.05067519f, 0.18836880f, 0.12092548f, -0.05609914f, -0.08026940f, -0.10053431f, -0.01395686f, -0.11214512f, 0.00460076f, -0.11690580f, 0.05069564f, 0.04082353f, 0.06362732f, -0.12946314f, 0.07602338f, 0.04764998f, -0.05489814f, 0.01723556f, -0.03456059f, 0.13273811f, 0.06789968f, 0.02421572f, -0.10076091f, -0.20362963f, -0.00807523f, 0.09560644f, -0.00706535f, 0.02148557f, -0.00293982f, -0.26878235f, -0.02777613f, 0.10049260f, -0.03913785f, -0.13224767f, 0.09520167f, 0.01181724f, 0.05668562f, 0.03672400f, -0.18649869f, -0.13623852f, -0.13613415f, -0.08646712f, -0.15608409f, -0.12146381f, -0.01765467f, -0.08868122f, -0.01186867f, -0.04486489f, 0.00850357f, -0.03884273f, -0.02657050f, 0.01875586f, -0.02004069f, -0.04184903f, 0.04420169f, 0.00419088f, 0.09997945f, -0.06620035f, 0.03892269f, 0.07543148f, 0.08398114f, 0.09009504f, -0.10304534f, -0.03674418f, -0.01913774f, -0.02418181f, -0.05200477f, -0.02411402f, 0.05684858f, -0.06077410f, 0.00595450f, -0.00873198f, -0.02845439f, 0.04011994f, 0.04540549f, 0.01481542f, 0.01568874f, -0.13790248f, -0.08697546f, 0.08022805f, -0.02672398f, 0.06525944f, 0.02078465f, 0.03741928f, 0.03872182f, -0.00607122f, -0.03549365f, 0.03933988f, -0.06598467f, -0.08458890f, -0.07024300f, 0.03123836f, -0.12158167f, -0.08121096f, -0.01276406f, 0.01232876f, -0.09195162f, 0.02882115f, -0.09982993f, 0.01522441f, -0.03027216f, -0.08124602f, 0.01183441f, 0.00980503f, -0.08286859f, -0.01490111f, -0.00849274f, -0.00374396f, 0.07658169f, -0.07918965f, -0.05494856f, -0.06935217f, 0.02448204f, 0.03380569f, -0.00370510f, -0.01198003f, 0.05904264f, 0.04106176f, 0.09931104f, -0.05801717f, -0.01668265f, -0.01761187f, 0.02366284f, 0.05408065f, -0.30813354f, -0.14933203f, -0.07562586f, -0.04540452f, 0.01912097f, 0.08945471f, 0.08858038f, 0.02466244f, -0.10287063f, -0.04873105f, -0.20217070f, -0.06056269f, -0.07567599f, 0.03152046f, -0.01236525f, -0.10871951f, -0.07258948f, -0.02658235f, 0.02842414f, 0.05167994f, 0.06745283f, -0.05358349f, -0.19227026f, -0.24261323f, -0.18420838f, -0.10001705f, -0.08798322f, 0.02803276f, 0.07063256f, 0.05041471f, -0.12236801f, -0.02241205f, -0.02970621f, -0.01551826f, 0.09107486f, -0.14484525f, -0.06448277f, -0.08769621f, -0.06068215f, -0.07660919f, -0.28457239f, -0.46003327f, -0.01825091f, -0.16045339f, 0.01724631f, 0.07213718f, -0.03036227f, -0.03454597f, -0.00705998f, 0.05980547f, -0.06961973f, 0.02430166f, -0.07131168f, -0.03867141f, -0.00842752f, 0.02458383f, 0.05486020f, 0.02056495f, 0.04567763f, 0.02279959f, -0.03441190f, -0.01884743f, 0.08188175f, 0.11586125f, 0.14267007f, 0.06470008f, 0.01923444f, 0.02520935f, 0.02221680f, 0.09858803f, -0.07702679f, -0.03764345f, -0.01041687f, 0.03949472f, 0.10913389f, 0.04955450f, 0.04330115f, 0.06733506f, 0.00952667f, 0.11539228f, -0.07107105f, -0.05747293f, -0.09971918f, -0.10949114f, -0.15060641f, -0.08696739f, 0.02177698f, 0.06140661f, -0.04269248f, 0.03432443f, -0.02546781f, 0.05559079f, 0.06245846f, 0.06335591f, -0.03984223f, -0.13439928f, -0.24139103f, -0.12479384f, -0.23995288f, -0.15981391f, -0.19575661f, -0.08902605f, -0.03220661f, -0.05372112f, 0.03808686f, -0.17325389f, -0.15153015f, -0.18445402f, -0.13001864f, -0.18199214f, 0.00239184f, 0.08011041f, 0.09509002f, 0.02874536f, 0.09794707f, -0.12535064f, 0.03119346f, 0.00013773f, 0.02347141f, -0.04345751f, -0.23847991f, -0.02390826f, -0.02826568f, -0.04245158f, 0.03643201f, 0.07381666f, 0.08490727f, 0.08352824f, 0.10733054f, 0.07492423f, -0.00589107f, 0.01917619f, 0.06897002f, 0.12666476f, 0.10118079f, -0.08592039f, -0.01080008f, 0.00104215f, -0.04638342f, -0.01590866f, -0.06215237f, -0.11284345f, -0.08171412f, -0.01662006f, 0.03794159f, -0.00745509f, 0.02265584f, -0.02878511f, -0.05718176f, -0.08591106f, -0.15385729f, -0.06264275f, -0.02590175f, 0.04868203f, -0.10948193f, 0.02703066f, -0.05576072f, -0.03952910f, -0.01811920f, 0.07178555f, -0.12500808f, -0.17398299f, -0.07661196f, 0.03751842f, 0.03598356f, -0.03128596f, -0.01331436f, -0.01623380f, 0.01904262f, 0.04205814f, 0.01051399f, 0.03931840f, 0.08301570f, 0.02794698f, 0.04426966f, -0.01726864f, -0.06948352f, 0.03328653f, 0.14029814f, 0.11889663f, -0.15504736f, 0.00199712f, -0.04656343f, 0.03175386f, 0.02769180f, -0.10260575f, 0.02068055f, 0.04749923f, 0.09554962f, 0.10777172f, 0.02357306f, -0.00747395f, 0.09635511f, 0.12375328f, 0.14196467f, 0.08808338f, 0.04087979f, 0.02785712f, 0.15201198f, 0.17212828f, -0.12464026f, -0.03363986f, -0.07174124f, 0.03839891f, 0.04564719f, 0.00953001f, 0.03228132f, 0.00270457f, 0.12377369f, 0.04981978f, -0.12316721f, -0.10181060f, -0.10652060f, -0.05543671f, 0.03697806f, -0.09993077f, -0.10463982f, 0.01797866f, 0.00420632f, 0.06984692f, -0.03180707f, -0.11731327f, -0.11645816f, -0.13521531f, -0.09791237f, -0.05896367f, 0.06120205f, 0.04238072f, -0.00452405f, 0.00971678f, -0.16509815f, -0.09983653f, -0.05198949f, -0.17171791f, -0.12970766f, -0.02968847f, 0.02999341f, -0.00053328f, -0.06187793f, 0.02055524f, 0.03105663f, -0.00745107f, -0.04322524f, -0.03378489f, -0.04691233f, -0.14896320f, -0.13698095f, -0.03291055f, -0.05369338f, -0.09101080f, 0.02574439f, 0.04340117f, 0.00639829f, -0.04820894f, -0.13327037f, -0.02078636f, -0.01080906f, -0.01890237f, -0.07868771f, 0.00943136f, -0.21868485f, -0.25717115f, -0.21754768f, -0.25046593f, -0.22674116f, -0.14112025f, -0.01944519f, -0.09262647f, -0.07759015f, -0.07494718f, -0.03568771f, 0.07084767f, 0.15838312f, 0.09890804f, 0.03246701f, -0.06997926f, 0.03857461f, -0.00566522f, 0.10706051f, 0.03349978f, 0.02699163f, 0.02292417f, 0.07176734f, 0.13224246f, 0.06843213f, 0.00887017f, -0.01378860f, -0.10283186f, -0.10920425f, 0.07865652f, -0.04391380f, -0.06061054f, -0.05890971f, -0.03708955f, -0.18272229f, -0.08772034f, -0.06323212f, -0.03610137f, -0.10180108f, -0.09257563f, 0.07307872f, 0.03614798f, 0.01236294f, -0.05884296f, -0.03549369f, 0.02297635f, 0.02611987f, -0.00206470f, -0.03053407f, 0.03356429f, -0.01432806f, -0.12404589f, -0.06750459f, 0.01769987f, -0.11656593f, 0.01803982f, -0.10518386f, -0.14390936f, -0.01130526f, -0.07281851f, 0.00372931f, 0.05967159f, -0.06280236f, 0.04242764f, 0.06076723f, 0.02352178f, -0.01895363f, -0.06632247f, -0.05048961f, -0.08469288f, 0.05415963f, 0.03177955f, -0.02963689f, -0.00695217f, -0.02594532f, 0.11215063f, 0.07399271f, 0.00521880f, 0.18481390f, 0.07579426f, -0.06692963f, -0.06235326f, -0.07424850f, -0.08127941f, -0.16110738f, 0.09012464f, 0.10283012f, 0.02646133f, 0.01994254f, -0.00796526f, -0.13139172f, -0.26026580f, -0.23625857f, -0.29029122f, -0.23908728f, 0.00815319f, -0.06942113f, 0.03463990f, 0.04299507f, -0.07587937f, 0.08845646f, -0.01844125f, 0.05369963f, -0.06476782f, 0.00162961f, -0.06237178f, -0.10600862f, -0.04656532f, -0.04168129f, -0.07688352f, 0.02454212f, -0.06257313f, -0.09078480f, -0.06142895f, -0.06098771f, -0.04361675f, 0.02282096f, -0.05112834f, -0.02054633f, 0.02661342f, -0.02234752f, -0.00137506f, -0.01280372f, -0.00522339f, 0.06167826f, 0.08744102f, 0.04998580f, -0.02282339f, -0.00452819f, 0.02706379f, -0.03159197f, 0.07197265f, 0.05173019f, 0.08914356f, -0.00029901f, 0.05938415f, 0.08179037f, 0.03690280f, -0.09657663f, -0.04592085f, 0.11580587f, 0.07474580f, 0.13797888f, 0.11033265f, 0.00344573f, 0.14856197f, 0.04388687f, -0.03786265f, 0.07204746f, 0.09975050f, -0.02298160f, -0.05102017f, -0.01375727f, -0.09426817f, -0.12630929f, -0.21986248f, -0.22544213f, -0.29855597f, -0.18150720f, -0.05294750f, -0.00969188f, -0.13704585f, -0.10391875f, -0.18957056f, -0.12990771f, -0.05989591f, -0.08061341f, -0.08416485f, -0.06171221f, -0.01207768f, -0.05928679f, -0.11421009f, -0.03908732f, -0.11776928f, -0.18893403f, -0.16831054f, -0.02691387f, -0.05625616f, -0.07500912f, -0.03404375f, -0.04119743f, -0.10975461f, -0.14973779f, -0.21219273f, -0.15646188f, -0.09101773f, -0.08377477f, -0.19884600f, -0.05741422f, -0.04538184f, -0.01554284f, -0.02512351f, -0.03623823f, -0.13424532f, -0.13223396f, 0.10662172f, 0.10969230f, 0.06677092f, 0.01870658f, 0.01288241f, 0.08988125f, 0.01508414f, -0.09126332f, -0.01248103f, 0.09672274f, -0.10318005f, -0.20824020f, -0.29504740f, -0.33947888f, -0.31115562f, 0.09186170f, 0.00663786f, 0.03597496f, -0.07787140f, -0.09556666f, -0.02410777f, -0.06672368f, -0.04842614f, -0.00666150f, -0.08229768f, -0.01428636f, 0.06550788f, 0.02342230f, 0.02404098f, -0.01453524f, -0.00873346f, -0.05545866f, -0.00779932f, -0.07965527f, -0.11286074f, 0.00040715f, 0.07556044f, 0.06434742f, 0.07246472f, -0.02773223f, 0.07651290f, 0.02217278f, -0.00132809f, -0.00694877f, 0.01235261f, 0.05545780f, 0.01358801f, 0.05535754f, 0.08679283f, 0.05613768f, 0.06134288f, 0.09940182f, 0.05307656f, 0.05652989f, -0.04349464f, -0.08763935f, -0.12039661f, -0.02791126f, -0.04540518f, 0.04849140f, 0.03807088f, 0.02578702f, -0.04250140f, 0.04398527f, 0.01457497f, 0.08465385f, 0.05581157f, 0.02144240f, -0.02467978f, 0.02866542f, 0.13291210f, 0.07577797f, 0.01161790f, -0.00548341f, 0.05724035f, -0.11737497f, -0.00754386f, 0.17128259f, 0.04571464f, 0.09764224f, 0.00937815f, 0.02335420f, 0.07303023f, 0.03589892f, 0.04078645f, -0.25395256f, -0.00622672f, 0.00363737f, 0.00699391f, 0.06760152f, 0.02637075f, 0.10305779f, 0.01592621f, 0.01870541f, 0.07786480f, -0.05085137f, -0.04648383f, 0.06183653f, 0.03012648f, 0.07633752f, -0.06078180f, -0.01112674f, 0.05995601f, 0.01095634f, 0.04869493f, -0.00750240f, -0.02127777f, 0.01011615f, -0.03216321f, 0.00849342f, 0.05693567f, 0.08740126f, 0.08594161f, 0.04319932f, 0.07354824f, -0.11794588f, -0.24410094f, -0.05628737f, -0.09718306f, -0.15449469f, -0.29782456f, -0.41362631f, -0.28403693f, -0.42278531f, -0.39500856f, 0.00489294f, 0.08359032f, 0.02432369f, 0.10734614f, 0.02771470f, 0.03534728f, 0.05008328f, 0.08046284f, -0.05670125f, -0.08438979f, -0.01047889f, -0.02412087f, -0.00243695f, 0.00952057f, 0.03120366f, -0.19875407f, -0.14900573f, -0.05730811f, -0.08261085f, -0.40361354f, -0.02287883f, 0.04171420f, -0.02769141f, -0.00819917f, 0.04877255f, -0.06403814f, -0.10811155f, -0.12864617f, -0.15466413f, -0.20378165f, -0.08255986f, 0.04852456f, 0.15607084f, 0.00391225f, 0.06206118f, -0.04079119f, 0.02672923f, 0.10052184f, -0.01121000f, -0.12781687f, -0.01535209f, 0.04537974f, 0.01185821f, 0.03241124f, 0.01130061f, 0.08620863f, 0.11453258f, 0.06631129f, -0.04068485f, -0.04987410f, -0.14269307f, -0.12549140f, -0.03691753f, 0.07660194f, -0.40362036f, -0.01122002f, 0.02983088f, 0.04992606f, 0.10718566f, 0.04057804f, -0.12345896f, -0.01485688f, 0.04885956f, -0.02192607f, 0.09227091f, -0.00375749f, -0.02405163f, -0.00512481f, 0.07393698f, 0.09902665f, 0.09501980f, 0.10420068f, 0.07097666f, 0.07287629f, 0.09457108f, -0.04123547f, -0.05304328f, 0.04589899f, 0.02215030f, -0.06207675f, 0.05084623f, 0.07221043f, 0.06798751f, -0.00665488f, -0.01430887f, -0.02619985f, 0.03190188f, 0.04539507f, 0.03614270f, 0.10956670f, -0.00469198f, 0.00223349f, 0.06738910f, 0.15259676f, -0.02029840f, 0.01514066f, -0.03076464f, 0.02962598f, -0.02580943f, 0.08441934f, -0.04774219f, -0.01598346f, -0.00605770f, -0.02292790f, 0.07732206f, -0.02631747f, 0.03623578f, 0.01507194f, 0.00473535f, 0.05232006f, -0.05853024f, -0.01830073f, -0.00280431f, 0.00522728f, -0.01128355f, -0.11441115f, -0.04488993f, 0.09023035f, 0.02665785f, 0.13437177f, 0.16261743f, 0.04210712f, 0.01577614f, -0.04201858f, 0.10012741f, -0.01995105f, -0.02716585f, -0.01165206f, -0.04484783f, 0.10189137f, -0.11142596f, 0.03419622f, 0.04123563f, -0.01212310f, -0.04867671f, -0.06812589f, -0.05748060f, -0.03941382f, -0.02981164f, 0.03423412f, 0.05789596f, 0.00317146f, -0.07623690f, 0.06860730f, -0.00011829f, -0.05432478f, 0.03155833f, -0.01394081f, 0.02915346f, 0.03174304f, -0.06617714f, -0.06450042f, -0.02271692f, 0.02420257f, 0.00713427f, -0.17332017f, -0.12319113f, 0.09475808f, -0.09277414f, 0.03198041f, 0.01490276f, 0.00028185f, -0.10955312f, -0.23415375f, -0.00278075f, -0.10752061f, -0.04086788f, -0.04433236f, -0.02306615f, 0.04844345f, -0.29548585f, -0.14637199f, -0.17553475f, -0.07139285f, -0.04401715f, -0.01310781f, 0.02228258f, 0.03567407f, -0.00559601f, -0.02382144f, -0.11897569f, 0.04168576f, 0.04573746f, -0.02769771f, 0.11331993f, 0.06489544f, 0.04457716f, 0.05985953f, -0.00854951f, -0.02441799f, 0.00600637f, -0.05305493f, -0.07514979f, 0.05582959f, 0.01432427f, -0.02260031f, -0.06825817f, -0.01495704f, 0.00017366f, 0.04755335f, -0.00334069f, 0.00562263f, 0.03518473f, -0.13385673f, -0.34305358f, -0.03182160f, 0.02848282f, 0.05093121f, 0.03327161f, 0.06660687f, 0.00748358f, -0.00485899f, -0.01811530f, -0.05181024f, 0.00869725f, 0.10632896f, 0.07112232f, -0.02037552f, -0.05216153f, -0.08495137f, -0.06156497f, 0.04167842f, -0.02320309f, -0.01390204f, -0.01563896f, -0.17813936f, -0.01794264f, -0.02148920f, -0.20808779f, -0.40041420f, -0.01594562f, 0.03249916f, 0.09066904f, 0.09413438f, 0.03050349f, -0.03196710f, 0.05103694f, -0.02427166f, -0.05165245f, 0.00926680f, 0.04939726f, -0.08986942f, -0.03495200f, -0.07674376f, 0.05244556f, 0.04372680f, -0.08052330f, -0.04959190f, 0.01918843f, 0.13098176f, 0.04453703f, -0.04311924f, 0.01638899f, -0.03241264f, 0.07752755f, 0.02957219f, 0.01588764f, 0.01051224f, -0.01904790f, 0.06262156f, -0.14881864f, -0.03216795f, -0.00375977f, 0.05699233f, 0.01149231f, -0.03497034f, 0.03391126f, 0.10578970f, 0.03281086f, 0.05627982f, 0.00824043f, -0.05614037f, -0.18093926f, -0.02990914f, -0.09826148f, -0.04654504f, -0.11638795f, 0.01164222f, -0.03938128f, -0.00456171f, 0.01865054f, -0.00448198f, -0.12945905f, 0.00034333f, 0.03334911f, 0.08718641f, 0.11007436f, 0.08189645f, 0.05390422f, -0.01910896f, -0.16710645f, -0.01341975f, -0.01369629f, -0.04691030f, -0.01958081f, 0.07250590f, 0.09185646f, 0.09096062f, 0.04312850f, 0.07546077f, -0.02746106f, -0.03649305f, 0.04139968f, 0.09814554f, 0.08968260f, 0.00626060f, -0.05423083f, -0.05548196f, -0.02775028f, 0.09665232f, -0.15333617f, -0.16680782f, -0.11060492f, -0.09458244f, -0.16946474f, -0.02805780f, -0.04842973f, -0.07459804f, -0.00170668f, -0.02659861f, 0.04451868f, 0.02990748f, -0.05787531f, -0.03597124f, -0.01286591f, -0.00111639f, 0.00351072f, -0.01132660f, -0.02718124f, -0.12716337f, -0.07666492f, -0.05695010f, -0.12785082f, -0.11615019f, -0.13128950f, 0.01279606f, 0.02193292f, 0.00991787f, 0.03900034f, 0.08424336f, -0.05492596f, -0.06109034f, -0.05776725f, -0.04537442f, -0.02825844f, 0.04276707f, 0.03574156f, -0.03768352f, -0.02240372f, -0.04916175f, -0.02525495f, 0.10958950f, -0.02989436f, -0.01679338f, 0.02008745f, 0.06307925f, 0.15478972f, -0.00061277f, -0.00545060f, -0.14724919f, 0.11547703f, 0.04886607f, 0.00119280f, 0.11207675f, 0.08461324f, -0.05921086f, 0.08292124f, 0.05245456f, 0.02870788f, 0.00813957f, 0.12978509f, -0.04644249f, -0.02819423f, 0.11401292f, 0.11905431f, -0.04448351f, 0.08505958f, 0.13997215f, 0.10112041f, 0.08345781f, -0.01463159f, -0.04573935f, -0.00216711f, 0.05538575f, 0.04701417f, -0.07250807f, 0.09703414f, 0.11790700f, 0.18041316f, 0.24107927f, -0.00514641f, -0.11620747f, -0.21220741f, -0.34974185f, -0.31397885f, 0.11851820f, 0.11758932f, 0.05513930f, 0.00419353f, 0.15679488f, -0.02872869f, -0.12319493f, -0.16437539f, -0.10967708f, -0.01137336f, -0.01235470f, -0.04271125f, -0.06796761f, 0.00010799f, -0.05661206f, -0.07114127f, -0.01433893f, 0.11047076f, 0.10774278f, 0.18065064f, -0.09292444f, -0.11932086f, -0.12856899f, 0.07677761f, 0.06747885f, 0.00298084f, 0.07701488f, -0.08257449f, -0.07797648f, -0.05516448f, 0.09854314f, 0.13773134f, 0.15366529f, 0.20057213f, 0.13490042f, -0.03415034f, 0.01173510f, 0.00491378f, 0.14362738f, 0.09286735f, -0.00785640f, -0.05157991f, 0.02072802f, 0.03020155f, 0.07030601f, -0.05046527f, -0.08118807f, -0.10251632f, 0.00818998f, -0.05035357f, 0.05357491f, 0.11088350f, 0.16179369f, 0.17705652f, 0.31226483f, -0.03896939f, -0.05365268f, -0.02745494f, 0.05782073f, 0.02948452f, -0.06057367f, -0.01576783f, 0.01521622f, 0.02164310f, 0.00287384f, -0.05213641f, -0.00301655f, -0.08835533f, -0.10740108f, -0.06002440f, -0.08713064f, -0.06571828f, -0.07093377f, 0.01930944f, -0.04866813f, -0.06068491f, -0.05654389f, -0.09447799f, -0.03557672f, -0.00607833f, -0.07334309f, -0.04575679f, -0.02638924f, -0.07976480f, -0.25541806f, 0.23248181f, 0.11819474f, 0.06640440f, 0.13447867f, 0.24550229f, -0.04876603f, -0.01532470f, -0.04592700f, 0.00386513f, -0.08926845f, 0.08789920f, 0.02520819f, 0.04253075f, 0.06909110f, 0.13568611f, -0.15404890f, -0.00926096f, -0.06538764f, -0.04870379f, -0.13686655f, -0.02019112f, 0.02182693f, 0.03183981f, -0.02484016f, -0.08288931f, 0.08111177f, 0.07640421f, 0.05135976f, 0.00508286f, -0.04041497f, 0.01891693f, 0.02445519f, -0.03074622f, 0.03678929f, 0.01147257f, -0.20538762f, -0.10466411f, -0.01680247f, -0.08122288f, -0.03728951f, 0.11293184f, 0.05648088f, -0.02692165f, 0.04370604f, 0.06831002f, 0.20664072f, 0.03006569f, -0.01812570f, 0.06811482f, -0.05234699f, -0.03740678f, 0.06049120f, 0.03301750f, -0.01052306f, -0.03778428f, -0.03713835f, 0.00774157f, -0.00022437f, -0.01529268f, -0.05648661f, -0.00114189f, 0.07663143f, 0.01133446f, -0.02679089f, -0.01688967f, -0.00676357f, 0.02290106f, 0.08272338f, 0.10077798f, 0.17539221f, -0.11416790f, -0.10671712f, 0.02007389f, 0.07168730f, 0.07758985f, -0.07634348f, -0.03203108f, 0.05899426f, 0.01813511f, 0.03075087f, 0.19316223f, 0.00513114f, 0.08475228f, 0.05006892f, 0.03816380f, 0.00030770f, -0.07442375f, 0.04238005f, 0.00386252f, 0.03615095f, -0.02372352f, -0.02457459f, 0.02771223f, 0.08472203f, -0.00231035f, 0.18867086f, 0.20697479f, 0.11879990f, 0.19045746f, 0.29458445f, 0.15775055f, 0.13635248f, 0.03647012f, 0.10594759f, -0.02334468f, -0.02851665f, -0.02971929f, -0.02010589f, 0.01870512f, -0.02115168f, 0.20035395f, 0.09712464f, 0.07986410f, 0.03449266f, 0.04290727f, -0.04713405f, -0.08756488f, -0.02141437f, -0.02550588f, -0.05999269f, 0.04295750f, 0.07526281f, 0.03369326f, 0.14599490f, 0.02170822f, 0.08636498f, 0.03634388f, 0.08820353f, 0.07570077f, 0.08355863f, -0.03940026f, -0.06930883f, -0.12621833f, -0.02415489f, -0.08685343f, 0.11279067f, -0.01889010f, 0.05145801f, -0.05960206f, -0.08129291f, 0.19425756f, 0.16270681f, 0.14281562f, 0.14468721f, 0.00517729f, -0.08404843f, -0.08235349f, -0.00042225f, 0.07012998f, 0.10651672f, 0.00748338f, -0.10722506f, -0.07982943f, -0.10813245f, -0.15391697f, -0.10787091f, -0.06179309f, -0.04577270f, -0.14446294f, -0.10135502f, -0.10589795f, -0.11558275f, -0.08775586f, -0.13521039f, -0.16196023f, 0.10117153f, 0.07805318f, 0.03459676f, 0.17933780f, 0.07905536f, -0.02807791f, -0.06811360f, -0.04198860f, 0.01537245f, -0.02190964f, 0.00938785f, -0.06447576f, -0.02402826f, 0.04821302f, 0.02320109f, -0.03309514f, 0.06672230f, 0.01597292f, -0.03193240f, 0.07050942f, 0.04718030f, -0.02553768f, -0.03473562f, 0.01044771f, 0.01370432f, 0.06349546f, -0.13014714f, -0.20979139f, -0.05044386f, -0.11253113f, -0.04770283f, -0.07968072f, -0.06196722f, -0.04454843f, 0.04845986f, -0.04472820f, -0.07383331f, -0.02634782f, -0.01772600f, -0.05608758f, -0.04750030f, -0.00807476f, -0.00870267f, -0.00708875f, -0.04367302f, -0.09137166f, -0.14878574f, -0.04100853f, 0.04909599f, 0.03181376f, -0.27850917f, -0.38067445f, -0.29058588f, -0.19583923f, -0.14455095f, -0.10302064f, -0.10277683f, -0.07630844f, -0.15693095f, -0.06074414f, 0.03814831f, -0.00191169f, -0.00540579f, -0.01100203f, -0.18106242f, -0.03468502f, -0.05543406f, -0.02881289f, -0.09174520f, -0.08540249f, 0.10220689f, 0.12069922f, 0.12097821f, 0.14196990f, 0.08638899f, -0.04167384f, -0.09658083f, -0.06651317f, -0.21375881f, -0.15245463f, -0.02747790f, -0.03650364f, -0.08054249f, -0.10512488f, -0.09327232f, 0.03404859f, -0.08477352f, -0.09393971f, -0.08737386f, -0.06077944f, -0.05464477f, -0.02961816f, -0.12550478f, -0.00176985f, -0.02709244f, 0.14229101f, 0.11048123f, 0.07325950f, 0.00612928f, -0.05439370f, 0.11592080f, 0.06357422f, 0.08022671f, 0.06594658f, 0.03967434f, -0.00635849f, -0.01439854f, 0.01988592f, 0.15139064f, -0.00260510f, 0.02278990f, 0.03366374f, 0.05913344f, 0.07862406f, 0.02726516f, -0.00285789f, -0.06562519f, -0.07632481f, -0.05149603f, -0.01174644f, 0.19084117f, 0.02079210f, 0.05263297f, -0.11970937f, -0.13880318f, 0.06652196f, -0.03189712f, -0.02175836f, -0.04991097f, -0.04829200f, -0.12949678f, -0.20038648f, 0.01311806f, 0.04670598f, -0.01907083f, -0.00669092f, 0.03560115f, 0.08357084f, -0.07475099f, -0.03977181f, -0.14449354f, -0.02000762f, 0.01340919f, -0.01413173f, 0.00188543f, -0.05312527f, -0.01267857f, 0.03779260f, 0.08812694f, 0.02584883f, 0.09421559f, -0.18615778f, -0.01507235f, 0.06373430f, 0.07058521f, -0.08580790f, -0.07620433f, -0.09477939f, -0.06130446f, -0.12279760f, -0.07651494f, -0.05449931f, -0.06143357f, -0.11521664f, -0.21027781f, -0.03966103f, 0.00069014f, 0.01471645f, 0.07869542f, 0.08630172f, -0.04375456f, -0.12262310f, -0.12755024f, -0.11019064f, -0.07191399f, 0.11549380f, 0.08409707f, 0.07528395f, 0.07225893f, 0.05212521f, 0.00723560f, -0.18802631f, 0.04853757f, 0.07078565f, 0.04974434f, 0.02246127f, 0.00831076f, -0.00928084f, -0.04922924f, -0.06611920f, -0.07544445f, -0.14070305f, -0.12843691f, -0.15355991f, -0.10403188f, 0.06717748f, 0.06976710f, 0.03390888f, 0.01757719f, -0.10980956f, 0.14355153f, 0.09885735f, 0.11649532f, 0.04546879f, -0.06106075f, 0.01110706f, 0.05376988f, 0.06441805f, 0.08093304f, 0.00236629f, 0.07504655f, 0.03542269f, 0.04872844f, 0.02795510f, -0.05247088f, 0.08084495f, 0.10273330f, 0.09056642f, 0.00240504f, 0.04226578f, 0.04618653f, 0.06489818f, 0.01544209f, 0.01806663f, 0.09032746f, -0.01786605f, -0.06475709f, -0.09962688f, -0.10390379f, -0.07260171f, -0.02780244f, -0.12775193f, -0.08893999f, 0.00403215f, -0.08861066f, -0.04367579f, 0.07188963f, 0.02777533f, -0.00475118f, -0.12384050f, 0.14235741f, 0.09390594f, 0.03830744f, 0.14825091f, 0.07932698f, 0.03256430f, 0.08962936f, 0.00575128f, 0.02155275f, -0.00598979f, -0.02863694f, 0.01625935f, 0.06032293f, 0.00832485f, 0.03101926f, 0.02075703f, -0.03268079f, 0.02840805f, -0.07291619f, 0.01966551f, -0.08955201f, -0.00211184f, -0.02176583f, -0.06659117f, -0.04499415f, -0.02773867f, -0.04570587f, 0.03385396f, -0.05020927f, -0.07640163f, 0.07694183f, 0.05713984f, -0.01056296f, 0.04138341f, -0.04481308f, 0.05136823f, 0.00042723f, 0.01722801f, -0.05292874f, 0.07782388f, -0.03383500f, 0.06028410f, 0.01087928f, 0.01792235f, 0.13630028f, 0.09548151f, 0.05946064f, -0.05478923f, 0.01360261f, 0.01620989f, 0.08690748f, 0.13888052f, 0.09704287f, 0.02078227f, 0.02508631f, -0.13367374f, -0.12987024f, -0.16679606f, -0.01012645f, -0.06574722f, -0.15446435f, -0.03331205f, -0.11004130f, -0.06650093f, -0.03092256f, -0.05324352f, -0.07494820f, -0.05264644f, 0.08968028f, -0.05506716f, 0.10850594f, 0.13438489f, 0.12785375f, 0.11411496f, 0.09102814f, -0.01960343f, -0.05981570f, -0.06573374f, -0.11583648f, -0.13249807f, -0.02849820f, -0.03105047f, -0.07351997f, -0.09308437f, -0.11494751f, 0.03601740f, 0.04952173f, -0.01409329f, 0.00307303f, 0.02931877f, 0.08891897f, 0.09103586f, 0.06955317f, 0.11796699f, 0.08387627f, 0.04045109f, 0.05181500f, -0.05650012f, 0.02470747f, -0.01273078f, -0.10361036f, 0.09505957f, 0.07106742f, 0.06701851f, 0.08143459f, -0.03469338f, -0.01255220f, -0.00102871f, 0.02110577f, 0.01750514f, -0.07060242f, -0.13159586f, -0.08572859f, -0.14951667f, -0.17830165f, 0.05111575f, -0.01799452f, 0.02378754f, 0.07121263f, 0.08218435f, -0.13937250f, 0.03662280f, -0.04829289f, 0.03821893f, -0.01427015f, -0.03064729f, -0.09745117f, -0.11358740f, -0.00698852f, -0.07189399f, -0.07258367f, 0.00312563f, -0.01057758f, -0.14148211f, -0.22710371f, -0.00552238f, 0.02739154f, -0.09319149f, 0.07582156f, -0.02807150f, 0.04267377f, 0.05467501f, 0.01362793f, -0.03495214f, -0.02123348f, -0.33354241f, -0.40277392f, -0.35244623f, -0.08802832f, 0.08319406f, -0.01175206f, -0.01059301f, 0.01942191f, 0.00426032f, -0.01591755f, -0.06475339f, -0.02010091f, 0.03454572f, -0.07742897f, -0.06360619f, 0.12217131f, 0.04404954f, -0.04025986f, 0.01073484f, 0.03700425f, 0.02264681f, -0.06064440f, -0.04445973f, -0.09560462f, -0.10227017f, 0.04441671f, -0.01334794f, 0.02973126f, -0.04677317f, 0.03330139f, 0.00697962f, 0.01322751f, -0.00570211f, 0.00953521f, 0.05117752f, 0.08397119f, -0.00762714f, 0.05104210f, 0.04215258f, -0.11967711f, 0.01375826f, -0.02625540f, -0.02236888f, -0.03118525f, -0.07405887f, 0.03750346f, -0.07878218f, -0.07552750f, -0.01166678f, -0.01235550f, -0.07010613f, -0.04504608f, -0.03368206f, -0.06479096f, 0.06840210f, -0.01419723f, 0.06281426f, -0.01501503f, 0.04718979f, 0.04678993f, 0.06182435f, 0.02383808f, 0.01668409f, -0.06999252f, -0.06369878f, 0.00706483f, -0.01063080f, -0.00332615f, 0.07660722f, 0.11549518f, -0.22025791f, -0.07850778f, 0.06517308f, -0.00175692f, 0.01509033f, -0.07635980f, -0.04223153f, -0.04164249f, -0.07659096f, -0.07170482f, -0.24610066f, -0.35476294f, -0.18870844f, -0.05598536f, -0.11062041f, -0.25759721f, -0.07998166f, -0.06213740f, -0.06884611f, -0.17417145f, -0.10065768f, -0.04436519f, -0.07745088f, -0.02901667f, -0.04419824f, -0.02218467f, -0.03222773f, 0.03418249f, 0.07076324f, 0.06670294f, 0.07581897f, 0.03666930f, -0.02867163f, -0.03663521f, 0.13622566f, 0.05407600f, 0.09609833f, 0.02062249f, 0.02761663f, -0.07476994f, -0.02973693f, -0.19329053f, -0.12075564f, -0.19278702f, -0.10735181f, 0.04430773f, 0.05032614f, 0.04682553f, -0.03741931f, -0.09191856f, 0.04345776f, 0.06549636f, 0.06631535f, 0.01521167f, 0.02595272f, -0.01258426f, 0.04847469f, -0.05542269f, -0.07198315f, -0.15092334f, -0.05688024f, -0.03373075f, -0.05056535f, 0.01387093f, 0.00687014f, -0.10269494f, -0.04509788f, -0.01566956f, 0.02833482f, -0.05715670f, -0.00036035f, 0.00778429f, 0.04082507f, 0.12126637f, 0.05140172f, -0.26635772f, -0.09126819f, -0.04723866f, -0.14526306f, -0.49233702f, 0.01759072f, 0.00316351f, 0.00921118f, 0.02906176f, 0.03151673f, 0.03499259f, 0.02737107f, 0.11324400f, 0.08840875f, 0.10161669f, 0.07630137f, 0.03771739f, 0.03774147f, 0.05661073f, 0.02737433f, -0.05929845f, -0.01338913f, -0.00122726f, 0.04789696f, -0.10142543f, -0.09473139f, -0.06841227f, 0.01164231f, 0.07964027f, 0.05972162f, -0.03262091f, 0.00203795f, 0.01140510f, 0.00232858f, -0.01541766f, -0.02186805f, 0.00758793f, -0.05893824f, -0.10681777f, -0.13315292f, 0.04943532f, 0.03439810f, 0.09100904f, 0.09903165f, 0.09739813f, -0.02485019f, 0.05204304f, -0.01016282f, -0.00889368f, 0.05166569f, -0.13458003f, -0.05057386f, -0.18511711f, -0.22327398f, -0.30087113f, -0.03704429f, -0.00493722f, -0.04916105f, 0.02967020f, 0.05570968f, 0.07169449f, 0.02692771f, 0.02242826f, 0.01857819f, -0.03889503f, 0.00316413f, -0.05242316f, 0.01856501f, -0.04050724f, -0.06408724f, -0.03588691f, -0.04842416f, -0.04718620f, -0.10300849f, 0.05373814f, -0.04194715f, -0.03423548f, 0.00151977f, -0.17248465f, -0.04808060f, -0.08104160f, -0.08617914f, 0.03337119f, -0.22297169f, -0.32695463f, -0.02656937f, -0.03345280f, -0.01381215f, -0.01519972f, -0.00838613f, 0.02341489f, 0.02410606f, -0.10732891f, -0.10391828f, -0.31612146f, 0.11629806f, 0.17292067f, 0.16566275f, 0.07599723f, 0.08519786f, -0.12967449f, 0.08885605f, 0.05054205f, 0.15279803f, 0.16721298f, -0.10373478f, -0.01784642f, -0.09586945f, -0.04288549f, -0.05780794f, -0.04020901f, 0.00780142f, -0.05830795f, -0.02637163f, -0.08176970f, 0.05561166f, 0.01143525f, -0.00346586f, -0.23359783f, -0.20251137f, -0.07045618f, -0.02819632f, -0.04766511f, -0.03060246f, -0.01201385f, 0.06311991f, -0.01572873f, -0.02275899f, -0.00935454f, 0.04343130f, -0.22343588f, -0.07968905f, -0.01430012f, 0.06184280f, -0.09304980f, -0.03466338f, -0.01406871f, -0.09901007f, -0.08197774f, -0.10469841f, -0.01107901f, 0.04524624f, 0.03189774f, 0.00065991f, 0.00916984f, -0.10031518f, 0.01990801f, 0.05229811f, -0.00309247f, -0.00046019f, 0.04290909f, -0.02394290f, 0.01204078f, -0.01807290f, 0.04699601f, 0.06407303f, 0.02517963f, 0.02582074f, 0.00887566f, 0.02388661f, -0.02534851f, -0.03946881f, 0.04613821f, -0.03570494f, -0.03490343f, -0.14299391f, 0.03357396f, -0.03496342f, -0.01034398f, -0.09491433f, 0.04692336f, 0.07117878f, 0.14649050f, 0.03716214f, -0.03693976f, -0.08390260f, 0.01737059f, 0.02794931f, 0.05351065f, 0.10175086f, 0.00582555f, 0.02162812f, 0.10054857f, -0.00072722f, 0.06686163f, -0.06187839f, -0.05869481f, -0.03521897f, -0.03675159f, 0.00660942f, -0.05353789f, -0.05812152f, -0.02170307f, -0.06075142f, -0.04721116f, -0.07254606f, -0.13966289f, 0.02256011f, -0.02631454f, 0.00365628f, -0.09219763f, -0.07373667f, -0.10839573f, -0.23637038f, -0.40264639f, -0.21303047f, -0.07632510f, -0.04393385f, -0.09366902f, -0.08094002f, 0.08131406f, 0.05734878f, 0.05818384f, -0.10271534f, -0.07742292f, 0.09220164f, 0.04689895f, 0.06960942f, -0.01442247f, 0.08163739f, 0.03765385f, 0.02914477f, 0.06908429f, -0.02230219f, -0.02087202f, -0.03966360f, 0.01801698f, -0.01060055f, -0.07533473f, 0.02114983f, 0.01647374f, 0.13316864f, 0.05687702f, 0.01433923f, 0.11811982f, 0.02847501f, -0.08500613f, 0.22711101f, 0.06981802f, -0.15022871f, -0.06389612f, -0.09338733f, -0.11522129f, -0.03319026f, -0.14424302f, -0.01856239f, -0.02414010f, -0.00979808f, 0.02217318f, 0.03398952f, -0.00108571f, -0.00561876f, -0.03864576f, -0.07129890f, 0.00852367f, -0.25835359f, -0.34382603f, -0.17668353f, -0.20950656f, -0.26694208f, 0.04445317f, 0.09388902f, 0.14725830f, 0.16598998f, 0.22650477f, -0.08376361f, -0.07719208f, 0.05584535f, -0.07525217f, -0.15148868f, -0.03520616f, 0.19006777f, -0.03143630f, -0.08330635f, -0.19127998f, 0.08745103f, 0.01561736f, 0.11298231f, 0.02888450f, -0.03317694f, -0.12348325f, -0.09967092f, -0.10186511f, -0.07393999f, -0.13702820f, 0.06079325f, 0.10998259f, 0.11186520f, -0.01493003f, 0.03006160f, -0.05058057f, -0.00022977f, -0.07565764f, -0.10756671f, -0.04276753f, -0.03630989f, 0.01083381f, -0.00347149f, 0.00657688f, 0.05494099f, -0.08995131f, -0.03666335f, -0.03428870f, -0.24583045f, -0.24887213f, 0.00601646f, -0.06115625f, -0.03407217f, 0.01288945f, -0.03553587f, 0.19988494f, 0.08617996f, 0.04190754f, 0.08795585f, 0.03997492f, -0.08592914f, -0.03710467f, -0.08455970f, -0.05853585f, -0.17005721f, -0.01763908f, 0.03455213f, 0.13743691f, 0.05532039f, 0.05855949f, 0.02556389f, 0.01325035f, 0.03630183f, 0.04570720f, 0.12793884f, 0.00424527f, -0.00375531f, 0.06400355f, 0.05565467f, -0.02828369f, -0.00334615f, 0.06866644f, -0.03275520f, -0.01174734f, -0.08764293f, -0.03216451f, -0.28007960f, -0.31396446f, -0.08282956f, -0.12218285f, -0.07499402f, 0.04374771f, -0.02372081f, -0.16054150f, -0.17148598f, -0.15670572f, -0.10635840f, -0.05669969f, -0.11499541f, -0.00670684f, 0.08226259f, 0.05791340f, 0.03043833f, 0.02275429f, -0.14913785f, 0.05136440f, -0.01866877f, -0.01095964f, -0.03095372f, 0.00664753f, 0.03062491f, -0.03383213f, 0.06898967f, 0.06653479f, 0.00890353f, 0.00616134f, -0.07498327f, -0.05793615f, -0.08582200f, -0.06562619f, 0.01155637f, -0.01547080f, -0.03622320f, -0.15446709f, -0.10646732f, -0.03924134f, -0.04003825f, 0.00361327f, 0.02161212f, 0.07785691f, 0.08248287f, -0.03542406f, -0.01184704f, -0.07034910f, -0.03001126f, 0.09413108f, 0.04573077f, -0.01092625f, 0.01934227f, -0.02025504f, 0.03929425f, -0.10494050f, -0.05672753f, -0.01229188f, -0.08350997f, -0.02789606f, 0.04594272f, -0.01338531f, -0.04809078f, -0.00554800f, -0.06361226f, -0.10118045f, -0.02570900f, -0.07061360f, -0.01673324f, 0.13317089f, 0.12880088f, 0.06292000f, -0.13805376f, -0.14843522f, 0.00601886f, 0.03909594f, 0.05728976f, 0.06394219f, 0.01960323f, 0.04742403f, -0.00641239f, 0.02770194f, -0.02445197f, -0.05349467f, 0.06470719f, 0.12525934f, 0.09856734f, 0.14559723f, 0.09733132f, -0.14307103f, -0.11023235f, -0.03849833f, -0.01799605f, -0.03234955f, -0.00297989f, 0.01787973f, -0.00882634f, -0.06730364f, -0.00114689f, -0.04532012f, 0.01217335f, 0.01534096f, 0.04641131f, 0.14360717f, -0.12515087f, -0.13144693f, -0.03650836f, -0.05041237f, 0.03599601f, -0.10170458f, -0.13190059f, -0.11935677f, -0.06698015f, -0.10546453f, -0.10255454f, 0.03542060f, -0.16302380f, -0.27137086f, -0.03713489f, 0.05958479f, 0.07084869f, -0.03098897f, -0.00248146f, 0.00036929f, -0.07144284f, -0.06233434f, 0.06209334f, 0.00173373f, -0.07744302f, -0.17567128f, -0.24847832f, -0.30005023f, -0.23188473f, -0.07569079f, 0.03680805f, -0.08280011f, -0.06204961f, -0.05661887f, 0.02793088f, 0.05420956f, 0.04096732f, 0.09006370f, -0.00493977f, 0.03346761f, 0.03933638f, 0.00754255f, -0.04448415f, 0.01265169f, -0.03787841f, -0.29628578f, -0.02151826f, 0.01769676f, 0.04465710f, 0.03825777f, -0.00462179f, 0.11938307f, 0.03513131f, 0.00200590f, 0.02446898f, 0.11517398f, 0.12104674f, 0.03433606f, 0.09754928f, 0.03021038f, -0.02014222f, -0.00985545f, -0.01851416f, -0.05110361f, 0.07158251f, -0.06312675f, 0.01985226f, 0.13661088f, -0.01732925f, 0.00629505f, -0.09034050f, -0.03588672f, -0.02622103f, -0.07331169f, -0.04720163f, 0.06403953f, -0.01570787f, 0.04795564f, 0.05825088f, -0.07064478f, 0.07804672f, 0.02182784f, 0.08722873f, 0.07840869f, -0.04416294f, -0.06941000f, 0.04468617f, 0.02883513f, 0.03807233f, 0.00833438f, -0.12968160f, -0.11237692f, -0.16059515f, -0.11997328f, -0.12419588f, -0.02210448f, 0.02378960f, 0.07608671f, 0.09022591f, 0.11223759f, 0.01539840f, -0.03763191f, -0.12495434f, -0.08522892f, -0.08910289f, 0.05611214f, 0.03564209f, 0.03263197f, 0.08739914f, -0.03976185f, 0.00304559f, -0.12318628f, -0.02893952f, 0.09188752f, 0.02664619f, 0.01057625f, 0.05886826f, 0.10589037f, 0.11760533f, 0.06702657f, 0.07653151f, -0.03827569f, 0.08651149f, -0.05296233f, 0.03409097f, 0.07786362f, 0.09780263f, 0.00398663f, 0.03765533f, 0.01115479f, -0.05220495f, -0.01615571f, 0.05827602f, 0.09588540f, 0.05151885f, 0.00411007f, 0.03770753f, -0.04525441f, -0.03597111f, 0.04766421f, -0.11858768f, -0.06801161f, -0.06584690f, -0.00705126f, -0.08574830f, -0.32801124f, -0.05821235f, 0.04929522f, 0.08281978f, 0.00594092f, -0.01293745f, -0.01765286f, 0.02175664f, 0.08136954f, 0.07162433f, -0.21929087f, -0.21656814f, -0.17241634f, -0.25591031f, -0.32424307f, -0.06906779f, -0.06906751f, 0.00501368f, 0.03617433f, -0.03754107f, -0.04375751f, 0.01264992f, 0.06347344f, 0.03548104f, 0.07555715f, 0.05163632f, -0.03931298f, -0.00433147f, -0.03293061f, -0.10796858f, -0.21784215f, -0.14573036f, -0.06951445f, -0.05885173f, -0.03141382f, -0.04651228f, -0.04978544f, -0.09300473f, -0.12896051f, -0.21577060f, -0.06218475f, -0.03143745f, 0.07958437f, 0.10569469f, -0.03336857f, -0.02457633f, -0.13330635f, 0.00438306f, 0.06021525f, 0.01025243f, 0.01538738f, 0.00619453f, 0.13712130f, 0.09479491f, 0.03392035f, -0.00746104f, -0.01154450f, 0.02168150f, -0.11123841f, -0.05558517f, 0.00525940f, -0.10842674f, 0.02589992f, 0.08007068f, 0.09543104f, 0.00476420f, 0.00011237f, 0.01338471f, 0.05232346f, -0.00229143f, -0.03559061f, -0.04384327f, -0.07201786f, -0.04550128f, -0.06834134f, 0.10461073f, 0.06896795f, 0.06214562f, 0.10316974f, 0.04018653f, -0.05716043f, -0.00644653f, 0.04735013f, 0.01685072f, 0.03134877f, -0.15429759f, -0.07665803f, 0.06200751f, 0.05078992f, 0.02225335f, 0.03403924f, 0.01297799f, 0.06218304f, 0.04952835f, 0.07714999f, -0.03937131f, 0.01602087f, -0.06815068f, -0.11424714f, 0.00241353f, -0.14129132f, -0.05919874f, -0.04368698f, 0.06438033f, 0.13586219f, -0.00794650f, 0.05659350f, -0.06947732f, 0.08073713f, 0.14425214f, 0.00151861f, 0.04689816f, 0.02162834f, -0.00646300f, 0.13874878f, 0.01187839f, 0.00861279f, -0.03760449f, -0.10188773f, 0.05246519f, -0.08193029f, -0.06229768f, 0.00339580f, 0.04441982f, 0.16127995f, -0.11767229f, -0.03946439f, -0.12256255f, -0.01086837f, 0.01661634f, -0.01111920f, -0.02597815f, -0.10805722f, -0.16097061f, -0.07542932f, -0.06364225f, -0.16198429f, -0.09756471f, -0.01590219f, 0.07345829f, -0.08436694f, 0.02215240f, -0.10533395f, -0.12264981f, -0.03797017f, 0.02236872f, 0.13643998f, -0.05150244f, 0.00691089f, 0.00083831f, 0.02106390f, -0.06238664f, -0.06697704f, 0.02089310f, 0.00118667f, 0.02694414f, 0.13369201f, 0.13645180f, 0.14513253f, 0.02233974f, -0.01058547f, 0.03129714f, -0.03739229f, 0.07817362f, 0.17440973f, -0.06530148f, 0.00236506f, 0.04055763f, -0.00665152f, 0.05129075f, -0.15389307f, -0.18948443f, -0.17041443f, -0.10329873f, -0.16849072f, 0.14612040f, 0.02539316f, -0.00362523f, -0.10037478f, -0.01281478f, 0.01252381f, -0.02373636f, -0.05873825f, -0.12237900f, -0.05823582f, -0.01910282f, -0.05581488f, 0.03011749f, 0.05628186f, 0.18054006f, 0.04781503f, 0.04656254f, 0.15256840f, 0.22667484f, 0.22237207f, -0.03019301f, 0.00244183f, 0.03797509f, 0.18831466f, 0.12444830f, 0.14293301f, 0.09347334f, -0.05196314f, -0.01769950f, 0.00020870f, -0.05684367f, -0.08143359f, -0.04007791f, -0.03303651f, 0.04044650f, 0.01977494f, -0.03959123f, 0.00444147f, 0.16170676f, 0.10952303f, 0.15141657f, -0.06455088f, -0.08735586f, -0.12788646f, 0.00523294f, 0.04688186f, -0.02796168f, -0.05716944f, 0.03145327f, 0.10916742f, -0.22258168f, -0.04665302f, -0.05111006f, 0.15223120f, 0.22047779f, 0.03488408f, -0.13478149f, -0.04037961f, 0.05746613f, 0.12202650f, 0.09394662f, 0.02562010f, 0.03187919f, 0.00432882f, 0.07827257f, -0.09185315f, -0.02662449f, -0.02359962f, 0.01346496f, 0.01174224f, -0.04670604f, -0.13890973f, -0.03363568f, 0.06855463f, 0.04919008f, 0.00996832f, 0.03440755f, 0.03584133f, 0.02786985f, 0.10009126f, 0.02155015f, 0.05457024f, -0.04418473f, -0.00880817f, 0.03728184f, 0.00945831f, -0.08694202f, 0.03548217f, 0.11186875f, 0.05568702f, 0.09403765f, 0.06798486f, 0.03863862f, 0.09391183f, 0.03612406f, -0.06722495f, -0.02134461f, 0.01454364f, 0.19652396f, 0.13658853f, -0.05626097f, -0.00940244f, 0.05509495f, 0.03144385f, 0.04509556f, 0.03879139f, 0.05302980f, 0.00208219f, 0.03273462f, 0.03533299f, -0.02943996f, -0.04501327f, -0.02534159f, -0.05305574f, -0.06013897f, 0.01801009f, 0.04699202f, 0.00084123f, -0.00051295f, -0.07390952f, 0.03087478f, 0.20901342f, 0.07836326f, 0.04742164f, 0.03014687f, -0.02501364f, -0.02709369f, -0.05913329f, 0.08511861f, 0.17440943f, -0.16979529f, -0.09460228f, -0.17004304f, -0.16059260f, -0.08286738f, -0.17446569f, 0.02645541f, -0.03600087f, -0.10148265f, -0.07418977f, -0.16360764f, -0.19869791f, -0.20750171f, -0.15492129f, -0.01896426f, 0.06287394f, 0.02665989f, 0.02141246f, -0.04219369f, 0.05687752f, 0.09793199f, 0.04336095f, -0.11616994f, -0.03923475f, -0.04328704f, -0.08599788f, 0.05103520f, -0.01048229f, 0.19146004f, 0.17282276f, 0.06710088f, 0.02038283f, -0.09431171f, -0.01988805f, -0.09817255f, -0.07016914f, -0.04653825f, 0.01882927f, 0.05116292f, 0.01232568f, 0.04512540f, -0.05453910f, -0.08347113f, -0.02803020f, -0.22157310f, 0.00130691f, 0.05530724f, 0.04297555f, -0.07822442f, -0.07007927f, 0.02654657f, -0.00382046f, -0.00384166f, -0.12159163f, -0.09404231f, -0.05504024f, 0.05547271f, 0.04936268f, 0.03329077f, -0.09992214f, 0.06805160f, -0.00325943f, 0.01235703f, -0.08416917f, -0.04716329f, 0.08263264f, 0.02092495f, 0.04316749f, -0.02467171f, -0.03427889f, 0.12512909f, -0.05125904f, 0.11758886f, 0.01678237f, 0.12455171f, -0.02791204f, -0.02407189f, -0.00599236f, -0.05032459f, -0.08061695f, -0.05095171f, -0.06437889f, -0.07419811f, -0.22713597f, -0.11076090f, -0.06009053f, -0.20528451f, -0.23679419f, -0.18993580f, -0.24805941f, -0.08399662f, -0.09933764f, -0.05366724f, -0.03271144f, -0.09708250f, -0.12698478f, 0.03438478f, 0.12962641f, 0.09193806f, 0.14697628f, 0.00939254f, 0.04322711f, -0.01996503f, 0.04049409f, -0.00966168f, -0.10827733f, -0.07778858f, -0.16526973f, -0.11687167f, -0.11304363f, 0.03668394f, 0.02245739f, -0.01906076f, 0.01386752f, -0.04130530f, -0.03350554f, 0.04135743f, -0.01936119f, 0.01212670f, 0.04389801f, -0.02848521f, 0.06543461f, 0.03894308f, -0.00309601f, -0.06019821f, -0.04769360f, -0.00553619f, -0.06300303f, -0.03083206f, 0.01189894f, -0.05311325f, 0.12320452f, 0.08865356f, 0.04090370f, 0.01328375f, -0.13252559f, -0.09514382f, 0.03856768f, -0.04301625f, 0.06171113f, 0.11370701f, 0.09099280f, 0.08402403f, 0.10755416f, 0.11567021f, -0.01545194f, 0.02222228f, -0.06806117f, -0.08480395f, -0.10954620f, -0.07633375f, 0.02002289f, 0.10816147f, 0.04823244f, 0.08518633f, -0.03447992f, -0.07292303f, -0.03184997f, 0.03991287f, 0.01295383f, -0.18826859f, -0.10781732f, 0.02733373f, -0.11497253f, -0.18506773f, -0.04028964f, -0.00867554f, 0.06541339f, -0.01011826f, -0.00852939f, 0.05523458f, 0.00597464f, -0.05361151f, -0.03307460f, -0.08978172f, 0.06911471f, 0.02403646f, 0.04510943f, 0.06596558f, 0.04656253f, -0.01242728f, -0.04600535f, 0.00861042f, -0.00267558f, -0.00862830f, 0.00560526f, -0.02338863f, 0.02355353f, -0.02232157f, -0.04750839f, -0.06946310f, 0.00203042f, 0.06600089f, 0.00067213f, -0.02207613f, -0.11790355f, -0.02382851f, -0.03245404f, -0.00652264f, -0.16817576f, -0.07596520f, 0.01538368f, -0.07354911f, -0.04507160f, -0.05560469f, 0.08648878f, 0.01469185f, -0.12595031f, -0.16179615f, -0.09931349f, -0.10659522f, -0.02909497f, 0.08356023f, -0.00656987f, -0.10748318f, -0.06818885f, -0.04229797f, 0.03599234f, -0.10511373f, -0.08478632f, -0.07774840f, -0.05747160f, 0.13847369f, 0.07507164f, -0.05995092f, -0.00031268f, -0.01938937f, 0.06183635f, 0.03491888f, -0.10681057f, -0.16556436f, -0.07050079f, 0.09683618f, 0.01076462f, -0.05181816f, -0.03555182f, 0.09477714f, 0.17575003f, 0.06996066f, 0.03427789f, -0.11147816f, -0.05365788f, -0.12587014f, -0.03247417f, 0.04511293f, -0.27097747f, -0.23547816f, -0.07095109f, -0.01635632f, 0.04246876f, -0.08025794f, 0.01514030f, 0.02306781f, 0.07036027f, 0.13173451f, -0.09466927f, -0.15388523f, -0.00989314f, 0.00491663f, 0.02709708f, -0.08290008f, -0.03048120f, 0.13840915f, 0.10710876f, 0.01718430f, -0.03781160f, 0.06657303f, -0.02717882f, -0.07122771f, -0.09049481f, 0.02282428f, 0.13271393f, 0.16348818f, 0.16389233f, 0.01957004f, -0.07049361f, 0.06001991f, 0.05079957f, 0.04440282f, 0.02944850f, -0.05908902f, -0.08555184f, -0.01825744f, -0.08096255f, -0.11946283f, 0.05154754f, 0.02033865f, 0.01516704f, -0.05355243f, -0.04634992f, -0.08461124f, 0.05723520f, -0.03202263f, 0.04695015f, 0.12803344f, 0.02489823f, -0.02364269f, 0.01498279f, 0.01548854f, 0.00605188f, 0.04305049f, 0.04683871f, -0.04128648f, -0.00593618f, -0.05281685f, 0.01555438f, 0.03855916f, 0.00128986f, 0.05768393f, -0.07175896f, -0.10144117f, -0.03353169f, -0.03265503f, 0.04481922f, 0.02835452f, -0.10379325f, -0.10589653f, -0.00919173f, 0.03413700f, 0.09344356f, -0.19970880f, 0.10281743f, -0.08255543f, -0.11312956f, -0.08272108f, -0.07536223f, 0.07443153f, 0.09868960f, -0.03511660f, -0.02600338f, -0.12248437f, 0.06495393f, 0.01981866f, 0.01793293f, -0.14335725f, -0.04560294f, 0.03041856f, -0.09005219f, -0.03527630f, -0.02117302f, -0.33959576f, -0.10657053f, -0.10570943f, -0.03363188f, -0.08071347f, -0.13848796f, -0.00184160f, -0.00660091f, -0.13459535f, -0.04197833f, -0.19602349f, -0.16958450f, -0.05363797f, -0.16068916f, -0.12649885f, 0.04400084f, 0.08476884f, 0.05169370f, 0.03544571f, -0.03780750f, -0.06883429f, 0.04931344f, 0.02747793f, -0.01301709f, 0.00224659f, -0.09270135f, -0.05325050f, -0.06853157f, 0.03519074f, -0.02908311f, -0.13772085f, -0.06426866f, -0.08000689f, -0.15400618f, -0.22742820f, -0.07700749f, -0.09297903f, -0.10321938f, 0.03964991f, -0.00835817f, -0.02382581f, 0.16043785f, 0.04215467f, 0.09777199f, 0.10511340f, -0.01531179f, -0.10322005f, -0.00570230f, -0.01744847f, -0.11091499f, -0.00243389f, 0.01510674f, -0.04275494f, -0.02428569f, -0.00962664f, 0.04313584f, 0.07284568f, 0.02277510f, -0.08263102f, -0.08403044f, -0.03376682f, -0.04118116f, -0.16782576f, 0.00846188f, 0.11545297f, -0.03117189f, -0.01681714f, 0.05205894f, 