// Auto-generated - DO NOT EDIT
// OnsetNet weights for Daisy Seed bare metal inference
// sr=48000 note_vocab_size=49 window_samples=384

#pragma once
#include <stdint.h>

#define ONSET_SR                 48000
#define ONSET_NOTE_VOCAB_SIZE    49
#define ONSET_WINDOW             384
#define ONSET_WIDTH              96
#define ONSET_N_STRINGS          6

static const char* onset_pitch_names[] = {
    "E2",
    "F2",
    "F#2",
    "G2",
    "G#2",
    "A3",
    "A#3",
    "B3",
    "C3",
    "C#3",
    "D3",
    "D#3",
    "E3",
    "F3",
    "F#3",
    "G3",
    "G#3",
    "A4",
    "A#4",
    "B4",
    "C4",
    "C#4",
    "D4",
    "D#4",
    "E4",
    "F4",
    "F#4",
    "G4",
    "G#4",
    "A5",
    "A#5",
    "B5",
    "C5",
    "C#5",
    "D5",
    "D#5",
    "E5",
    "F5",
    "F#5",
    "G5",
    "G#5",
    "A6",
    "A#6",
    "B6",
    "C6",
    "C#6",
    "D6",
    "D#6",
    "E6",
};

// shape: [49, 96]
static const float note_head_weight[4704] = {
    0.06069793f, 0.13136075f, 0.02118541f, 0.09518241f, -0.08628267f, -0.54950029f, -0.28004783f, 0.19363336f, -0.02777872f, 0.25135165f, 0.18202408f, 0.03752346f, 0.03069928f, 0.01070602f, -0.23029147f, 0.08458050f, 0.00523849f, 0.37245628f, 0.14800011f, 0.08707127f, -0.03268629f, 0.31687310f, -0.19672954f, -0.03841207f, -0.07761937f, -0.13248444f, -0.16026337f, -0.53738421f, -0.13380054f, -0.12546898f, -0.31055918f, -0.23868378f, -0.11294491f, 0.02693569f, -0.04219893f, -0.11647666f, 0.01596272f, 0.12077633f, -0.13381733f, 0.42138579f, 0.00917958f, -0.02965975f, 0.12526524f, 0.02725830f, -0.44122288f, 0.34225035f, -0.28846541f, 0.50969660f, 0.37673670f, -0.36077961f, 0.18014404f, -0.21315970f, -0.02836538f, 0.09645075f, 0.08257915f, 0.31868738f, 0.26024222f, 0.30986494f, -0.09627804f, -0.10904456f, -0.01213951f, 0.07526650f, -0.47470748f, -0.26194051f, -0.52125281f, 0.31020856f, 0.53214860f, -0.22676596f, -0.70108122f, 0.16030420f, -0.06252363f, -0.18908799f, 0.07000165f, -0.13017742f, 0.12015650f, -0.73240650f, 0.06366738f, 0.23029219f, -0.06426302f, -0.08512555f, 0.01922723f, -0.21642035f, 0.42889664f, 0.34307203f, 0.01977372f, -0.18403788f, 0.15474452f, 0.21208033f, -0.24013144f, -0.13803740f, -0.23581059f, -0.08888816f, -0.26896718f, -0.02897270f, 0.31299564f, -0.32837507f, -0.35738394f, -0.09788892f, -0.11117087f, -0.38388211f, 0.10008578f, -0.42729619f, -0.28030464f, 0.12265298f, -0.15806480f, -0.22545552f, -0.28103611f, 0.16997662f, 0.00796398f, 0.00672946f, -0.23238187f, 0.40085983f, -0.48322946f, 0.14210843f, 0.49757352f, 0.13240045f, 0.04151517f, -0.02915671f, 0.32894766f, -0.07777604f, -0.14631279f, -0.06743804f, 0.24018884f, 0.17791480f, -0.05159314f, -0.04866791f, -0.31664893f, -0.11084143f, 0.12005787f, -0.19621639f, 0.15524262f, -0.04892081f, -0.09972836f, 0.19976301f, -0.55159259f, 0.22202277f, -0.16995580f, -0.14680439f, -0.14362836f, 0.27560294f, 0.02643196f, -0.14005437f, -0.14330469f, -0.14753486f, 0.40452600f, 0.07298536f, 0.10360005f, 0.08637314f, -0.24895456f, -0.09100741f, 0.17638412f, -0.04928816f, -0.14292188f, -0.12681417f, 0.12645948f, -0.04171434f, 0.40392438f, -0.01682173f, -0.20559123f, -0.19768074f, -0.11005959f, 0.19160581f, 0.04815389f, -0.16691442f, 0.09874495f, 0.29512855f, 0.29190609f, -0.00184890f, 0.35072696f, 0.36013302f, -0.03798742f, 0.52500969f, -0.26710770f, 0.00773926f, -0.43498188f, -0.38250479f, 0.24340078f, 0.15311980f, 0.12419708f, -0.37643778f, 0.03913024f, 0.26211974f, -0.02594345f, 0.22590986f, -0.12938063f, -0.16687649f, 0.15768895f, -0.20838016f, -0.21613577f, -0.52311981f, -0.26531237f, 0.04989212f, 0.26033857f, -0.21814780f, -0.32695526f, 0.12654869f, 0.24025327f, 0.47477686f, -0.02949403f, -0.28057477f, 0.26961005f, -0.22178219f, -0.24746479f, 0.21508610f, -0.20646757f, 0.23596933f, -0.13704999f, 0.26642326f, -0.31674680f, 0.14320886f, 0.11602561f, 0.12309416f, -0.06714975f, -0.14947213f, 0.03605461f, -0.00063920f, 0.34232819f, 0.12384188f, -0.23245513f, -0.01814508f, -0.63986522f, 0.03457657f, -0.16330770f, 0.01925494f, 0.23860250f, -0.10366178f, -0.04384904f, 0.09989366f, -0.24880199f, -0.07689725f, -0.21784243f, -0.20695125f, -0.08276673f, -0.19901149f, 0.26377296f, 0.13113470f, 0.17757533f, 0.31787422f, 0.22377743f, -0.13175301f, -0.14322519f, -0.11855534f, -0.21777540f, 0.01130892f, -0.26451707f, -0.26079702f, 0.22096843f, 0.18641591f, -0.30135268f, 0.02748589f, 0.10300206f, 0.04562594f, -0.29229921f, -0.27574402f, 0.04562115f, -0.13349631f, 0.15873645f, 0.24782293f, 0.61227840f, 0.12084906f, 0.07595802f, -0.26989356f, -0.23204829f, -0.12885486f, 0.33463103f, -0.74267733f, -0.10767291f, 0.29127660f, -0.43908361f, 0.10615228f, -0.25544980f, 0.00389681f, -0.23055905f, -0.14083445f, -0.28557983f, 0.23515455f, -0.00167393f, -0.08347893f, -0.25954658f, -0.39014176f, 0.05862718f, 0.22919779f, 0.00763704f, 0.15281343f, 0.37632588f, -0.00038381f, -0.12375491f, -0.14496118f, 0.33039042f, 0.08831516f, -0.08528853f, -0.40003288f, -0.13682967f, -0.06321625f, 0.31915462f, 0.39885333f, 0.28744274f, -0.09005737f, 0.18486169f, 0.28211907f, 0.04820409f, 0.11227664f, -0.23928691f, 0.33948603f, -0.25096798f, -0.09151744f, -0.03233362f, -0.28304273f, -0.14193851f, -0.38639957f, 0.02160828f, -0.71092570f, -0.09615313f, 0.32115352f, 0.18451482f, -0.02265206f, 0.38441443f, -0.27171421f, 0.16598585f, 0.04435559f, -0.28411579f, -0.13980632f, 0.25823551f, -0.17969185f, 0.17372912f, -0.17563125f, 0.25413185f, -0.32106987f, -0.23954095f, -0.04179164f, -0.27327222f, 0.10820617f, -0.07867983f, 0.30971125f, -0.12766112f, -0.37762886f, -0.03061251f, -0.11389469f, -0.11998456f, -0.40240356f, 0.35279483f, -0.27495593f, 0.16689359f, 0.27996463f, 0.35890236f, -0.07492594f, -0.43649915f, -0.21164891f, 0.21526818f, 0.03927102f, 0.04083179f, 0.28256461f, -0.31545097f, -0.15405394f, 0.00539443f, -0.03426516f, 0.19422883f, -0.72857910f, 0.36462519f, -0.40732506f, -0.02998655f, -0.24615782f, 0.29679599f, 0.11543499f, 0.17831856f, -0.49007240f, -0.09063504f, -0.11256021f, 0.19733831f, -0.01630712f, -0.25040555f, -0.10103367f, 0.29718557f, -0.20600770f, 0.34832245f, -0.02076964f, -0.09738357f, 0.20445187f, -0.08934749f, 0.11740263f, -0.33897197f, 0.16476342f, -0.36181507f, 0.02840584f, 0.29462814f, -0.08309826f, 0.38823351f, -0.03172652f, -0.02554061f, -0.21791367f, -0.08560015f, 0.09224329f, 0.09953013f, 0.11868916f, -0.09319087f, 0.36359295f, 0.13565896f, 0.28722361f, -0.12933484f, 0.10300630f, 0.01761352f, -0.09624320f, -0.56521392f, -0.21814801f, 0.00714016f, 0.17921790f, 0.09241469f, -0.01862293f, -0.19728321f, 0.08094931f, 0.12545437f, -0.01704758f, 0.22486533f, 0.03458733f, -0.04097328f, 0.30929261f, -0.04683977f, -0.50312841f, 0.35688886f, 0.36756310f, -0.13384797f, -0.36938146f, 0.26754576f, -0.31713837f, -0.00228278f, -0.27923331f, -0.02977625f, 0.37667131f, 0.35575578f, 0.20820449f, -0.12385172f, -0.00991497f, 0.11040404f, -0.42724302f, -0.11563038f, 0.53690439f, -0.32529795f, -0.25269327f, -0.13303889f, -0.36316335f, -0.56049460f, 0.07266784f, -1.00966799f, -0.12788966f, -0.21924533f, -0.27967992f, 0.13805039f, 0.15763372f, -0.40578815f, -0.20168898f, -0.42977953f, 0.05399721f, 0.10056948f, 0.22382312f, -0.33839381f, 0.27664235f, 0.30401778f, -0.07996891f, -0.11713523f, -0.07864115f, -0.13134217f, 0.08024625f, -0.00766531f, 0.02708385f, -0.16096425f, 0.11881988f, 0.04316431f, -0.00230662f, 0.16850175f, 0.08218735f, -0.36476287f, -0.13839917f, -0.20902456f, 0.34745350f, 0.00608192f, 0.37715021f, -0.20840722f, -0.14164902f, 0.12995513f, -0.33382386f, 0.11959812f, -0.19196999f, 0.12494522f, 0.21236531f, -0.10612804f, 0.03894644f, -0.07948951f, 0.38323081f, -0.11277573f, -0.18184547f, -0.05315775f, 0.06718998f, -0.20434158f, -0.46166414f, 0.11270536f, 0.12408928f, 0.27738443f, -0.78589326f, -0.03736447f, 0.18909672f, -0.10536525f, 0.08959545f, -0.16905531f, 0.15270619f, -0.45340857f, 0.28505054f, -0.00889135f, 0.03266368f, -0.31209210f, -0.03593956f, 0.30529243f, -0.03746566f, 0.33318636f, 0.19644263f, 0.35291842f, 0.11075017f, -0.10136484f, 0.08298873f, -0.04690149f, -0.07524994f, -0.13945776f, 0.20620096f, 0.34664154f, 0.28801063f, 0.05029475f, -0.24759312f, 0.04122264f, 0.44166815f, -0.11139748f, 0.31231835f, -0.02435448f, 0.04905123f, 0.37562823f, 0.06099077f, -0.16789627f, 0.34969574f, -0.33067417f, -0.36725241f, -0.61916369f, 0.21359701f, 0.38477194f, 0.55746073f, 0.22924362f, -0.09332874f, -0.00246855f, 0.14996786f, -0.81623203f, 0.02406029f, -0.32959610f, -0.28865093f, -0.48711362f, 0.14217728f, 0.04138131f, -0.22569522f, -0.00649209f, -0.03935689f, 0.25874221f, 0.05794952f, 0.16170816f, -0.57155097f, -0.61516947f, 0.07670338f, -0.24433832f, -0.00443901f, -0.07533573f, -0.33260557f, -0.44892988f, -0.13554502f, -0.15945765f, -0.17223333f, -0.26864910f, -0.21386860f, 0.25216439f, 0.20511913f, -0.08736116f, -0.21015829f, -0.07963575f, 0.09866273f, 0.49161005f, -0.21212202f, -0.24273646f, -0.02662263f, 0.10853002f, 0.12322723f, -0.27373004f, 0.24139768f, 0.02438836f, 0.31240079f, -0.04073260f, -0.36089310f, 0.26600003f, 0.22525737f, 0.59986502f, -0.10353679f, -0.39552671f, -0.10020454f, -0.18141817f, -0.00580690f, -0.05729558f, -0.00037112f, 0.05149218f, -0.05164670f, 0.03288268f, 0.21610799f, -0.48910666f, 0.05539020f, -0.30536598f, -0.08355855f, 0.13681717f, -0.04595686f, 0.10350108f, 0.06162023f, 0.31627637f, -0.04159768f, 0.40433890f, 0.24435316f, 0.24464907f, 0.37518290f, 0.15877400f, -0.12676705f, -0.24413908f, -0.30827773f, -0.13353071f, -0.22483161f, 0.13247095f, -0.10587936f, 0.05277026f, 0.16302873f, -0.36083183f, -0.12652567f, -0.28916296f, 0.24697541f, 0.15683967f, 0.21074207f, 0.23514470f, 0.23316413f, -0.31773821f, 0.15174125f, -0.07096236f, 0.08948728f, -0.09801185f, -0.15831746f, -0.73593968f, -0.16611888f, 0.10597639f, -0.16900942f, -0.08926608f, -0.21069765f, 0.14225988f, 0.09284406f, 0.05766612f, 0.28686115f, -0.23364086f, 0.02508653f, -0.50459456f, 0.05894091f, -0.18939227f, 0.10632367f, 0.08973838f, 0.32316020f, -0.23815364f, 0.16516152f, -0.13345079f, -0.17320710f, -0.12330433f, -0.94517982f, 0.24414673f, -0.15133275f, -0.31543648f, -0.42568871f, -0.07333498f, -0.01878406f, -0.23056585f, 0.35649276f, 0.16607550f, -0.07939481f, 0.20544340f, -0.34842286f, -0.26875210f, 0.06369369f, 0.06770508f, -0.35794282f, 0.02844424f, -0.05541439f, 0.00258709f, -0.20577122f, -0.06642257f, -1.04603279f, 0.44337878f, -0.15339559f, 0.26450592f, 0.20140496f, -0.05452060f, -0.10490125f, 0.43009749f, 0.15254426f, -0.13552472f, 0.11503714f, 0.18587190f, -0.42293823f, -0.01890364f, -0.04064528f, 0.02534299f, -0.03493205f, 0.12787785f, -0.04823760f, 0.26291174f, -0.00269610f, 0.20260333f, -0.17759089f, 0.24649967f, 0.07078821f, -0.08967989f, 0.40681764f, -0.14603668f, 0.13645610f, -0.08606762f, 0.32116151f, -0.13395604f, -0.42954525f, -0.14219521f, -0.00901923f, -0.28784272f, 0.11616562f, -0.08944186f, -0.23259805f, 0.41191396f, -0.00911896f, 0.20092666f, 0.19746852f, 0.25108454f, -0.08380325f, 0.15223679f, 0.02645169f, 0.10204667f, -0.20555767f, 0.12299577f, -0.25979659f, -0.02011645f, -0.53906131f, -0.27284116f, 0.19519202f, 0.05918612f, 0.11358393f, -0.28080255f, -0.08235952f, -0.38119105f, 0.04520123f, -0.20353925f, 0.12991658f, 0.03461782f, -0.40444046f, -0.02165814f, 0.03069037f, -0.04081754f, 0.17336436f, -0.84765762f, 0.11980444f, 0.26521748f, 0.06060230f, 0.04088725f, -0.51126802f, 0.02594878f, -0.46148926f, -0.17020740f, 0.49156126f, 0.32389298f, 0.04183244f, -0.55363286f, 0.30240250f, 0.47732294f, -0.13829394f, 0.07805456f, 0.19267651f, -0.00382401f, -0.67858034f, -0.10248066f, 0.29946390f, 0.17001621f, -0.44399691f, 0.35958192f, 0.05541861f, -0.44848680f, -0.42417279f, 0.43504626f, 0.32832903f, 0.09194572f, 0.14200051f, 0.21680640f, 0.32864827f, -0.04553263f, 0.11381008f, 0.06566669f, -0.12838010f, -0.38216290f, -0.01878146f, -0.12795393f, -0.16285400f, -0.26591590f, 0.01198720f, -0.09532009f, -0.27023095f, 0.28267103f, -0.49659893f, -0.18495469f, 0.02815755f, 0.08498378f, 0.06787858f, 0.01127506f, 0.18172453f, 0.21274358f, -0.13930273f, 0.03137205f, 0.07091706f, 0.19158886f, -0.31420588f, 0.18990842f, -0.35592404f, 0.22793432f, -0.35646728f, 0.09373689f, 0.15384558f, 0.35039720f, -0.06955643f, 0.23119108f, -0.53905976f, 0.00353607f, -0.26841715f, 0.35770336f, -0.50123143f, -0.34052029f, -0.51189172f, 0.22710446f, 0.11005531f, -0.07756729f, 0.08477513f, 0.34436053f, 0.01832345f, -0.10705012f, -0.50473297f, 0.24827588f, 0.15393287f, -0.12942106f, -0.07867271f, -0.07218334f, -0.13277578f, 0.18291360f, -0.35298568f, 0.26478955f, -0.06969220f, 0.17089345f, -0.08287589f, -0.08329615f, -0.10659963f, -0.11833780f, 0.03320548f, 0.46037298f, -0.01714033f, -0.07963546f, -0.30874220f, 0.00941818f, 0.00658816f, -0.45231417f, -0.15459782f, -0.11492248f, 0.12862596f, -0.02250713f, 0.06554698f, -0.12934883f, -0.17511435f, -0.08344737f, -0.77213424f, 0.06866942f, 0.01870624f, 0.13009016f, -0.33099371f, -0.14320834f, 0.34440666f, -0.15846263f, 0.12085926f, -0.18201508f, -0.08222852f, -0.18289292f, 0.13988045f, -0.19308439f, 0.20090729f, 0.14278241f, -0.72482181f, 0.23506381f, -0.24142489f, -0.28632092f, -0.42947939f, 0.43453526f, -0.32192522f, -0.10906801f, 0.17154111f, -0.07285731f, 0.30306423f, 0.17312324f, -0.32759973f, -0.61535656f, 0.21190833f, 0.05432826f, -0.17883931f, -0.45356488f, 0.34611556f, -0.15405786f, 0.15557948f, 0.22335392f, -0.04498790f, -0.10187288f, 0.12836914f, 0.05606349f, 0.16995201f, -0.09574798f, -0.10309192f, 0.16649508f, -0.07498175f, 0.06919963f, 0.10122097f, -0.29386115f, -0.29043368f, 0.23827159f, 0.10665789f, 0.03533633f, -0.32760519f, -0.13516079f, -0.02788468f, 0.38183308f, 0.21998224f, -0.00537232f, 0.40481219f, -0.42609262f, 0.21724051f, 0.36968577f, -0.32028750f, -0.02184663f, -0.07250800f, 0.04974429f, 0.36234349f, -0.29591778f, 0.47627258f, -0.04037224f, -0.58060902f, 0.24752297f, 0.00834918f, -0.18203826f, -0.00466789f, -0.09617277f, -0.18923409f, 0.07028301f, -0.10258753f, 0.20014937f, 0.39279872f, 0.08063346f, -0.05213664f, -0.49136406f, -0.06336590f, 0.02871792f, 0.13681448f, -0.03418028f, 0.27716878f, 0.32612118f, -0.41591030f, 0.05572644f, -0.11648209f, -0.00907465f, -0.16309577f, 0.35954458f, -0.08745143f, -0.28897122f, -0.12279378f, -0.23723102f, 0.13844654f, -0.10992143f, -0.18174219f, -0.84186065f, 0.16858141f, -0.06773210f, -0.15740633f, -0.03517824f, -0.22291607f, 0.00075732f, -0.25573096f, 0.20132165f, 0.02039550f, -0.74800968f, -0.04939906f, -0.32303908f, 0.27574110f, -0.02838818f, 0.14736068f, 0.02453683f, 0.04043493f, -0.45354530f, 0.18277392f, -0.58443391f, -0.10982233f, 0.33131191f, -0.10649713f, -0.14796001f, 0.15502514f, 0.02270042f, 0.08642699f, 0.23075998f, -0.02866383f, 0.01862292f, 0.22252409f, -0.27479455f, -0.01370071f, -0.31358454f, 0.24397367f, 0.13215654f, -0.25446442f, -0.40010938f, 0.23714381f, -0.45505273f, 0.16350049f, 0.06120805f, -0.14824246f, 0.47327513f, 0.07251192f, 0.06555147f, 0.18859351f, 0.36097765f, 0.45256227f, -0.14164153f, 0.18404734f, -0.09543514f, 0.09531192f, -0.21397407f, -0.29734886f, 0.20671850f, -0.27192605f, -0.14422983f, 0.01455044f, 0.13604155f, 0.26025069f, -0.17366223f, 0.31919274f, -0.14474981f, 0.19427975f, -0.09930360f, -0.17479751f, 0.11707775f, -0.38546771f, 0.07483768f, 0.00737976f, -0.22841395f, 0.24904078f, -0.18125831f, 0.21804824f, 0.32182589f, -0.27230996f, 0.00418964f, -0.04118693f, -0.15705131f, 0.44397625f, 0.17670891f, -0.60429633f, -0.14938232f, 0.09039220f, -0.11995897f, 0.13177291f, 0.19367889f, 0.03377273f, -0.12330493f, 0.41833872f, 0.00849363f, -0.62618607f, 0.17497243f, -0.09754046f, -0.37396988f, 0.01905811f, 0.18770343f, 0.22898294f, -0.20168599f, -0.04718317f, 0.25329110f, 0.12335307f, -0.16244352f, -0.17009348f, -0.13016067f, -0.02631418f, -0.12524934f, 0.21297315f, -0.21656987f, -0.14185323f, -0.25464821f, -0.02664121f, -0.91003358f, 0.26109925f, 0.13147150f, 0.10514809f, 0.19893202f, 0.14973243f, 0.18832274f, -0.08310175f, 0.08406293f, -0.03672054f, -0.29161152f, 0.14144813f, 0.04170488f, 0.05742191f, -0.34497958f, -0.19791949f, -0.16042928f, -0.08195969f, -0.33720943f, -0.31120351f, -0.19249538f, 0.26774859f, -0.08665915f, -0.09616820f, -0.29918563f, 0.03371931f, -0.20499282f, 0.20854607f, -0.00882401f, 0.16208382f, 0.42082196f, -0.13738924f, -0.08268647f, 0.38178053f, 0.28152454f, -0.13076681f, -0.01753664f, 0.37438065f, 0.00309216f, 0.01110855f, 0.16685359f, 0.10403322f, -0.17962348f, 0.31936195f, 0.12682638f, -0.42191860f, -0.38762826f, -0.05461739f, -0.03173222f, -0.05485985f, 0.16995607f, -0.04594850f, -0.02936948f, 0.34227529f, -0.67679149f, 0.23244463f, -0.42834368f, 0.14548150f, -0.08060954f, -0.24719416f, 0.06780966f, -0.15979518f, -0.04711051f, -0.01993738f, 0.37907812f, -0.44874710f, -0.06114960f, 0.12944449f, 0.05917794f, 0.08457126f, 0.19922838f, 0.08036709f, -0.08474724f, 0.19394332f, -0.11155937f, -0.38055342f, 0.24445641f, -0.24834715f, 0.16857754f, -0.47073054f, 0.22612099f, 0.09684300f, 0.08853606f, 0.19199850f, 0.24973831f, 0.21700113f, -0.00081261f, -0.16616865f, 0.46682227f, 0.02700749f, 0.03901019f, 0.06886189f, -0.17175883f, -0.85505009f, 0.12970799f, -0.07304046f, -0.24901757f, -0.24818760f, 0.09142376f, -0.26070973f, 0.09659048f, -0.05346192f, 0.31057128f, -0.88756818f, 0.10855972f, 0.04514479f, -0.38963446f, -0.16522032f, -0.21581644f, -0.35681111f, 0.06085429f, 0.16431259f, 0.29133597f, -0.22451054f, 0.22399136f, 0.05647298f, -0.18988159f, -0.09000707f, 0.37402126f, 0.25049859f, 0.00750328f, -0.15911372f, 0.28747186f, 0.08244529f, -0.32821789f, -0.05864811f, 0.21033002f, -0.22675015f, -0.11949847f, 0.08247580f, -0.14267188f, -0.18026289f, 0.09760059f, 0.04948215f, -0.06085229f, -0.44527668f, 0.13334100f, -0.11575013f, 0.24690787f, 0.33662748f, -0.24587616f, 0.44424093f, -0.09403984f, 0.05519558f, -0.07588755f, -0.20915450f, 0.02358039f, -0.04064669f, -0.23497087f, -0.00051035f, 0.03173819f, -0.00687542f, -0.16174240f, -0.14731582f, -0.03577620f, 0.09931592f, -0.23896159f, -0.32804462f, -0.01115384f, -0.67709136f, 0.17830308f, 0.20392913f, -0.14535221f, -0.25784788f, -0.32213026f, -0.38573006f, -0.05751633f, -0.08575216f, 0.15011846f, 0.16839020f, 0.05546393f, 0.18222466f, 0.42831150f, -0.18061088f, 0.12116494f, 0.23013753f, -0.01438821f, 0.06520847f, 0.06954528f, 0.33438310f, 0.22518444f, 0.06318741f, 0.00812965f, -0.32546797f, 0.33019707f, -0.53465807f, -0.00836832f, 0.19419998f, -0.06079809f, 0.20729357f, 0.27037495f, 0.05657871f, 0.12457088f, -0.15927619f, -0.05124994f, -0.03492299f, 0.20766570f, 0.23052728f, -0.17320706f, -0.22381677f, -0.07877347f, 0.01429902f, 0.29752398f, -0.05323604f, 0.13322185f, -0.54662794f, -0.21698935f, -0.24131322f, 0.20852105f, 0.13261549f, 0.29385164f, -0.07862443f, -0.01114567f, -0.12386673f, 0.30857986f, -0.28906882f, 0.04801817f, 0.10932887f, -0.33463112f, -0.15516385f, -0.30708000f, 0.05310773f, 0.01907956f, 0.05587029f, 0.11689161f, -0.09600192f, 0.03966162f, -0.11420991f, -0.08392056f, -0.42562604f, -0.12652008f, -0.04394559f, 0.14367682f, 0.01013831f, -0.22757292f, 0.17879505f, -0.23347732f, 0.14860128f, 0.13561212f, -0.38382819f, 0.07822195f, -0.08655495f, 0.00532825f, -0.01410521f, -0.50398487f, -0.57116598f, 0.06542193f, 0.19679138f, 0.18033786f, 0.19212759f, -0.02806301f, 0.03218091f, -0.02618243f, -0.18042772f, -0.03700978f, -0.17832071f, 0.01870424f, 0.30656800f, -0.10472272f, 0.21738091f, -0.76818365f, -0.07481153f, 0.07495061f, -0.05999804f, 0.13474359f, -0.28110912f, -0.06653577f, 0.09079661f, -0.03066342f, -0.24523109f, 0.06562036f, -0.16524480f, 0.16599937f, 0.16121869f, -0.11490516f, 0.39895567f, 0.39242217f, 0.03295568f, -0.02410193f, -0.12821025f, 0.18304271f, -0.02223162f, 0.00007083f, 0.14305408f, -0.12056753f, 0.29622698f, -0.03363192f, -0.02046759f, -0.04517314f, 0.19648992f, 0.19350141f, 0.08719461f, 0.04593370f, 0.03942839f, -0.05346030f, 0.05623505f, -0.14816223f, -0.34380892f, 0.06733953f, -0.08934460f, 0.04089411f, 0.19843429f, -0.00128590f, 0.21055205f, -0.11996584f, -0.17957217f, 0.31338716f, -0.79335105f, 0.00073204f, 0.19304460f, -0.96367687f, -0.30260977f, 0.01034736f, 0.05863615f, -0.04022822f, -0.22368628f, 0.31889197f, -0.23165843f, 0.15725812f, 0.28751951f, -0.08453055f, -0.22316912f, 0.01275084f, 0.10936313f, -0.09600580f, -0.06679218f, -0.32403967f, 0.05738028f, -0.61528081f, -0.02291931f, 0.07763315f, -0.45678878f, 0.03273866f, 0.11163296f, -0.21037351f, -0.11934385f, 0.04719282f, -0.17420132f, -0.29263663f, 0.09449928f, 0.13905965f, -0.10897771f, 0.28601554f, 0.33545071f, 0.02719229f, -0.06575411f, -0.22308068f, -0.14651892f, -0.09518500f, 0.21590556f, 0.03494173f, 0.05735689f, -0.21246162f, 0.05271550f, -0.16869849f, 0.04197292f, 0.07852977f, -0.07512370f, 0.16682212f, -0.04070623f, 0.05496888f, -0.31190860f, 0.07013803f, 0.08271195f, 0.09303847f, 0.05068138f, -0.07299538f, -0.02482267f, -0.12040025f, 0.03813609f, -0.99247891f, 0.29449016f, -1.00758207f, -0.02191068f, 0.18105981f, 0.04995047f, 0.23954454f, -0.20671347f, 0.00438552f, 0.36365101f, -0.01680436f, 0.13278447f, 0.22393781f, -0.25908393f, 0.06830328f, -0.05318265f, 0.17202528f, -0.17358984f, 0.14887919f, -0.01685454f, 0.02719268f, -0.36885768f, -0.23973605f, -0.04236580f, -0.40879476f, -0.06528806f, -0.24251050f, 0.06045952f, -0.08096772f, -0.20070100f, -0.50941294f, 0.14628385f, -0.01647091f, 0.19754748f, -0.14644156f, 0.18300773f, -0.18372869f, -0.15693760f, -0.05164522f, -0.19983804f, -0.26735625f, -0.03385143f, -0.02966128f, -0.09623677f, 0.10839801f, 0.45988137f, -0.10929371f, 0.12993343f, -0.10105295f, 0.13125852f, -0.15892701f, 0.48177123f, 0.03059715f, -0.00806626f, -0.25372401f, 0.05992864f, -0.00856549f, 0.03049537f, 0.23097645f, 0.12923622f, -0.10216609f, 0.16239423f, -0.20482998f, -0.20604298f, -0.32677728f, -0.22611502f, 0.21250863f, 0.36147717f, 0.10749659f, 0.32047659f, 0.27936667f, -0.40369803f, 0.04808147f, -0.10848647f, 0.10347383f, 0.12985051f, -0.14145567f, -0.13489825f, 0.16956228f, 0.28410405f, -0.03719200f, 0.19150645f, 0.33358160f, -0.28672525f, -0.16478139f, -0.00127076f, -0.03882153f, 0.25385749f, -0.15413052f, 0.09535410f, 0.14464965f, 0.01624923f, -0.07067553f, 0.05897718f, -0.18608208f, 0.01315116f, 0.24952017f, 0.18293145f, -0.21807303f, 0.09191421f, -0.11202048f, -0.02281607f, 0.15168241f, -0.03056930f, 0.03134563f, -0.34947166f, -0.03096780f, -0.60240167f, 0.21595947f, -0.21365292f, -0.01708554f, 0.03958443f, -0.43953693f, 0.08963469f, 0.32306242f, 0.22789533f, -0.12536700f, -0.06163377f, -0.13301891f, -0.26478383f, 0.02524111f, -0.08735654f, 0.09887601f, -0.11784405f, -0.06886923f, -0.13504376f, -0.11839165f, -0.27233142f, 0.10140030f, 0.35045511f, -0.12156785f, -0.39781141f, 0.00006960f, -0.05442680f, -0.07957897f, -0.25472653f, 0.08557729f, -0.01180200f, 0.24584201f, 0.04852768f, 0.16976583f, 0.18363295f, 0.00135752f, -0.06198394f, 0.09863217f, -0.17630017f, -0.01877996f, -0.22505945f, -0.00284706f, 0.15446506f, 0.07235289f, -0.02519855f, -0.02859225f, 0.16182399f, -0.11737752f, 0.25349259f, -0.03575672f, -0.08246601f, 0.02241804f, 0.13103588f, 0.00121616f, -1.10130787f, 0.41452378f, 0.02597377f, -0.35280606f, 0.06433034f, 0.14067622f, -0.09553334f, -0.03563814f, -0.10408390f, -0.17514881f, 0.05805771f, -0.06431364f, -0.22997026f, -0.14867613f, 0.26315203f, 0.02831460f, -0.77754146f, 0.28891170f, -0.16651784f, 0.11315759f, -0.06517927f, -0.98580813f, 0.11724675f, -0.24881159f, -0.67310822f, -0.12532651f, -0.00890906f, -0.19844043f, -0.02710604f, 0.01057027f, 0.31473309f, 0.18816353f, -0.92622727f, 0.23867667f, -0.12775627f, -0.30301479f, 0.00952326f, -0.11578702f, -0.10843918f, 0.00070436f, 0.00895925f, -0.04477778f, -0.07589714f, 0.42574337f, -0.01759241f, -0.09983563f, -0.04329618f, 0.00675509f, -0.22879280f, 0.26167271f, 0.18277693f, 0.10760554f, 0.21811651f, -0.10530031f, -0.28653008f, -0.22164543f, -0.25126818f, 0.04616133f, -0.31969789f, -0.11449541f, 0.11878962f, -0.05484148f, -0.09631786f, 0.30797985f, 0.32159531f, -0.12139005f, -0.21175666f, -0.04568420f, -0.09009606f, 0.14262992f, -0.27863696f, -0.14392318f, 0.18835434f, -0.31731206f, -0.03148370f, 0.33852667f, -0.10446002f, 0.11579639f, -0.11244474f, 0.03869536f, 0.02830766f, 0.05041390f, 0.10586772f, 0.08524735f, 0.12382565f, -0.33872840f, 0.06906823f, 0.00887928f, 0.09193625f, 0.14548181f, 0.18360142f, 0.31698546f, -0.10395556f, -0.05204741f, 0.08055200f, 0.08682606f, 0.19947430f, 0.18509415f, 0.12199180f, 0.05053011f, 0.17338972f, 0.17944190f, 0.29835650f, -0.12932540f, 0.08409668f, -0.29962808f, -0.15548556f, -0.01274388f, -0.05306011f, -0.37591365f, 0.21353975f, -0.01571994f, 0.00559793f, 0.14116643f, -0.06086503f, 0.16077609f, -0.08484319f, 0.14098409f, 0.02237337f, 0.15223280f, 0.18112102f, -0.09086166f, 0.05842790f, -0.14050038f, 0.05724856f, 0.03950234f, 0.25082678f, 0.03560977f, 0.17168523f, -0.15599577f, -0.05361322f, -0.08254110f, -0.06952316f, 0.13355324f, -0.80652434f, -0.03526925f, 0.04849302f, 0.08541101f, 0.15884347f, 0.34932357f, 0.11314537f, 0.03297225f, -0.06223659f, -0.03159233f, 0.20504408f, 0.20579660f, 0.11895913f, -0.08983983f, -0.15301575f, 0.02614948f, 0.29318836f, -0.18395795f, -0.19620451f, -0.34024590f, 0.33421409f, -0.07436322f, -0.07447791f, -0.21274468f, -0.06565400f, 0.19999288f, -0.03998837f, 0.04662884f, -0.16654009f, 0.03006076f, -0.26601511f, -0.06262203f, -0.11234062f, -0.05714861f, -0.11738782f, -0.27994588f, -0.26698342f, 0.16354766f, -0.69938666f, 0.05649552f, -0.07577527f, 0.02146723f, -0.05390205f, -0.08964301f, -0.17703284f, -0.17183630f, 0.25163707f, 0.05056678f, -0.52278107f, -0.35971552f, -0.12791933f, 0.19946004f, 0.25278795f, -0.16590998f, -0.12249340f, -0.33645880f, 0.10568357f, 0.14935121f, 0.41847661f, -0.54707664f, 0.37299746f, 0.03416120f, 0.18009236f, -0.32125524f, 0.15039505f, -0.17722131f, -0.20033057f, -0.00284653f, 0.11392579f, -0.06046840f, 0.10832870f, -0.05314554f, -0.12395387f, -0.24884158f, -0.13881257f, 0.25580814f, -0.13706905f, 0.07376394f, -0.18319581f, 0.24495567f, -0.64852893f, 0.16096461f, 0.37527177f, 0.01148685f, 0.28561357f, 0.13946435f, -0.17330360f, -0.10586328f, 0.29604325f, -0.29106134f, 0.10338914f, -0.18603510f, 0.10995497f, -0.33795714f, 0.26038572f, 0.08328944f, 0.22163850f, -0.10563215f, -0.07274879f, 0.24434520f, -0.13667606f, -0.03383761f, 0.14734878f, -0.18661551f, -0.30395380f, 0.14801000f, -0.15941362f, -0.17811023f, 0.10090663f, 0.13507110f, -0.24489981f, -0.12791732f, 0.02121864f, -0.08004708f, 0.13356258f, -0.40821970f, 0.03945370f, -0.29087836f, -0.05729223f, 0.08670820f, 0.03433910f, 0.33749968f, 0.10026500f, -0.35143307f, -0.37321207f, -0.05250775f, 0.06356621f, 0.04814678f, -0.10833753f, 0.07732847f, 0.05765298f, 0.13897979f, -0.01623618f, -0.06286713f, -0.13645715f, -0.10061090f, 0.06025356f, -0.00797790f, -0.12875524f, -0.06545364f, 0.26823422f, 0.03631435f, 0.14945914f, -0.16310155f, 0.13118570f, 0.28742689f, -0.30049568f, -0.02034653f, 0.08610788f, -0.23081927f, 0.18551177f, 0.01702769f, 0.07061402f, -0.65658200f, 0.25721991f, -0.07116786f, 0.15576833f, 0.05945363f, 0.21978517f, -0.10523874f, -0.47603866f, -0.21237582f, -0.11392481f, 0.03509023f, -0.11539853f, -0.11132427f, -0.24836090f, -0.06401309f, 0.04971754f, 0.16208483f, 0.02857851f, 0.27187341f, -0.03596740f, -0.11996357f, 0.00358986f, 0.04775282f, 0.09162991f, 0.11224870f, 0.25818631f, 0.16722439f, -0.06879076f, 0.10400122f, -0.08002080f, -0.13418122f, 0.25136051f, -0.29652220f, -0.22061002f, -0.04884437f, -0.08595146f, 0.21795145f, 0.28823468f, -0.00929659f, 0.31520161f, -0.16455221f, -0.36456016f, -0.55767274f, -0.10655536f, -0.81185222f, -0.73556817f, -0.01059404f, -0.17031395f, -0.14653693f, 0.17262268f, -0.18572758f, 0.43372297f, 0.00039267f, 0.05587346f, 0.04896372f, -0.17490770f, -0.15103005f, -0.14565557f, 0.10361885f, 0.14400093f, -0.03781173f, -0.19842248f, 0.10369454f, -0.02979247f, -0.34365872f, 0.06215028f, -0.24678859f, -0.11990926f, -0.05250409f, 0.04481036f, -0.07381840f, -0.15185693f, -0.31385249f, -0.23602478f, -0.03948499f, -0.04363663f, -0.01307486f, 0.09832960f, -0.03852959f, 0.04671466f, 0.08260381f, -0.54287618f, -0.04605166f, 0.04347886f, 0.09332180f, 0.05925217f, -0.46276137f, 0.08638999f, 0.07380918f, 0.47548732f, 0.31222296f, 0.14104050f, -0.20998482f, 0.04066180f, 0.21498300f, 0.38796958f, 0.17566298f, 0.20723884f, 0.06468756f, -0.02261106f, 0.09744644f, 0.03727637f, -0.18218897f, -0.11550595f, 0.02876608f, 0.07573851f, 0.03980630f, -0.00715154f, -0.26843402f, -0.05896242f, -0.11025704f, -0.01033728f, -0.13495854f, 0.06695057f, 0.29057825f, -0.00157299f, 0.03693983f, -0.12999690f, -0.49021998f, -0.05593919f, -0.39152664f, 0.13924146f, -0.05040907f, -0.07741414f, 0.13706146f, -0.15904802f, -0.03685208f, 0.17542201f, -0.22271962f, -0.40208805f, -0.26413766f, 0.06729974f, -0.07096387f, 0.12744667f, -0.23632303f, 0.22730978f, -0.00688462f, 0.27297816f, 0.11314671f, 0.20483626f, -0.06754553f, 0.22462329f, -0.07151038f, 0.17861016f, 0.05349653f, -0.47924063f, -0.04153441f, 0.42919216f, -0.04342193f, -0.15161915f, -0.12273259f, 0.12481315f, 0.01914416f, 0.09663642f, 0.24786720f, 0.09573545f, -0.11627460f, -0.19159950f, -0.27836633f, 0.20751007f, -0.17809854f, 0.02543594f, 0.23012242f, -0.06747376f, -0.21886258f, -0.20555688f, -0.12992480f, -0.04730709f, -0.09328454f, 0.01052230f, -0.11862668f, -0.08069531f, -0.14192370f, -0.04755300f, -0.05839004f, 0.02555626f, -0.18568942f, 0.23040044f, 0.05599581f, -0.14579853f, -0.21973108f, 0.03361657f, 0.43252680f, -0.29531035f, 0.10119235f, 0.23013835f, 0.24989893f, 0.04464763f, 0.00926141f, -0.31780240f, -0.25271934f, 0.22110820f, 0.01620914f, 0.11101189f, -0.21707906f, -0.25469559f, 0.12155624f, -0.08452033f, 0.14648932f, 0.15086846f, -0.01204615f, -0.20884657f, -0.12474309f, 0.02015429f, 0.09714607f, -0.00461905f, -0.21356177f, -0.04520712f, -0.05989712f, 0.00675891f, 0.03982053f, -0.01678351f, -0.20302436f, -0.06657138f, 0.07247330f, -0.10218497f, -0.18424040f, 0.16283518f, -0.33908635f, 0.04047856f, -0.02409180f, -0.24156931f, -0.10218077f, -0.66495371f, -0.08027079f, 0.41265061f, 0.32183480f, -0.04022718f, -0.42479563f, 0.21967946f, 0.01736619f, 0.34380752f, 0.09620769f, 0.23300891f, 0.40740710f, -0.37636027f, 0.22050971f, 0.20516482f, -0.06426128f, -0.57725781f, 0.00678461f, -0.10092615f, -0.14094594f, -0.37874398f, -0.23878445f, 0.15660898f, 0.01793093f, -0.05783051f, -0.15024038f, -0.09228010f, -0.12281670f, 0.13107520f, 0.07977110f, -0.12931515f, 0.13252755f, -0.43091390f, -0.24858283f, 0.24541742f, 0.27258816f, -0.13332494f, -0.01787842f, -0.12667149f, -0.09835312f, 0.12660886f, -0.17056449f, 0.18138832f, -0.12696153f, -0.15961954f, 0.12151934f, -0.05043999f, 0.08271813f, 0.02983621f, 0.03147321f, 0.27237910f, -0.06717423f, -0.06715948f, -0.03086573f, -0.04563352f, 0.07494914f, -0.13061467f, 0.04990113f, 0.01519701f, 0.16908967f, 0.25519785f, -0.15160634f, -0.14156477f, -0.26400566f, 0.32925642f, -0.27113295f, 0.06900375f, 0.11050687f, -0.27463189f, 0.03106532f, -0.06293678f, 0.12805003f, -0.22146200f, 0.10533849f, 0.11035611f, 0.04521690f, -0.02425460f, 0.30807051f, -0.16677460f, -0.06896589f, -0.01939791f, 0.00008072f, 0.03123788f, 0.07171195f, 0.05413974f, -0.03632321f, 0.00454780f, -0.11216725f, 0.04467235f, 0.29927668f, 0.11285125f, 0.24772713f, -0.25876936f, -0.07593507f, 0.12538606f, 0.03676149f, -0.03964276f, -0.44956595f, -0.22912833f, 0.04716469f, 0.03057766f, -0.28339040f, 0.32838118f, -0.12803397f, 0.18833911f, -0.12879524f, 0.19450355f, 0.22165470f, 0.15692751f, -0.31625471f, -0.16746372f, -0.03294952f, 0.19058637f, -0.06282740f, 0.51124287f, -0.16252995f, -0.30705872f, -0.12617363f, 0.20403549f, -0.17163301f, -0.22864932f, -0.05032944f, -0.15008596f, -0.19790636f, -0.02812057f, 0.18488459f, -0.03637774f, 0.14236632f, -0.06135314f, 0.10126279f, 0.11369444f, 0.27964407f, -0.16851190f, 0.12452017f, 0.13301121f, -0.01299285f, -0.45419103f, -0.27728662f, -0.36970463f, -0.66219586f, 0.01255910f, -0.25237596f, 0.06738158f, 0.09530225f, 0.35625052f, 0.06232954f, 0.12602635f, 0.02767985f, 0.00092968f, 0.06227058f, 0.08870833f, -0.37805772f, -0.17381597f, 0.30257785f, -0.15646459f, 0.20263959f, 0.09077574f, -0.01188125f, 0.02878243f, -0.13362662f, -0.73224503f, -0.17883354f, 0.13633090f, -0.00063616f, -0.07808226f, 0.02601968f, -0.02581909f, 0.21285391f, 0.23579840f, -0.04477091f, -0.34204358f, -0.00328225f, -0.35196745f, 0.11180849f, -0.03883546f, -0.15414101f, -0.05883076f, -0.77215624f, 0.23113182f, 0.10330491f, -0.27321965f, 0.08122957f, -0.30555522f, -0.14353393f, -0.18341631f, -0.14978901f, -0.09105113f, 0.35306537f, -0.01017783f, 0.03606950f, 0.00917858f, -0.00844521f, 0.01290829f, 0.02268063f, -0.01601953f, -0.22798917f, -0.02328430f, -0.16337186f, 0.38197094f, -0.41949046f, -0.27483571f, -0.12991144f, 0.01933650f, 0.07719471f, -0.47632283f, -0.01166221f, -0.29755670f, 0.00706424f, 0.28610787f, 0.25751922f, 0.01994219f, -0.09650783f, -0.07849904f, 0.23038419f, -0.14192331f, 0.08195918f, -0.17729263f, -0.00464071f, 0.04152787f, -0.03016605f, 0.39449567f, -0.27300495f, -0.07166961f, 0.33030546f, 0.11541063f, -0.11615926f, 0.11555578f, 0.21561518f, -0.29121038f, 0.39847630f, -0.38026401f, 0.07729647f, 0.14496620f, 0.01663632f, -0.05185623f, 0.50699669f, -0.23093259f, 0.10510454f, -0.19914952f, -0.11401531f, -0.02867823f, -0.15211886f, 0.31453720f, 0.11990876f, -0.04415907f, -0.05927749f, 0.04945627f, 0.08620170f, -0.04110479f, 0.29463318f, -0.01934671f, -0.33711180f, -0.06832883f, -0.08138619f, -0.51309854f, -0.05681447f, -0.04525997f, -0.15430948f, 0.05323730f, -0.04568553f, -0.03360465f, 0.13295069f, -0.15011720f, -0.00657714f, -0.21777934f, 0.18448806f, 0.02177195f, -0.15131728f, 0.06031769f, -0.08879882f, -0.11557140f, 0.11490656f, -0.00534542f, 0.53229421f, -0.06174979f, 0.13882256f, -0.02755136f, 0.10823423f, -0.09953748f, 0.22596829f, -0.11729681f, -0.31680542f, -0.23429048f, 0.40408537f, 0.26035476f, 0.05089036f, -0.20572314f, -0.06405477f, -0.02745733f, 0.11351608f, -0.04734414f, -0.18596943f, -0.14921840f, 0.08575995f, -0.24089338f, -0.03528300f, -0.15724634f, -0.14858395f, -0.06943042f, 0.27465296f, 0.26402432f, -0.04427116f, -0.16351053f, 0.11519621f, -0.39547631f, -0.08671649f, 0.18377356f, -0.35527977f, -0.09709033f, 0.20136605f, 0.09417412f, -0.04722223f, 0.03471913f, -0.15203179f, -0.16191389f, -0.12259455f, 0.14366965f, -0.07873043f, -0.12686822f, 0.09268580f, -0.61431915f, -0.23119880f, -0.13947383f, 0.01057471f, -0.28758320f, 0.27170825f, -0.02650281f, 0.08893758f, -0.11910081f, 0.04165494f, -0.00184189f, 0.36043796f, -0.03691765f, 0.01650120f, -0.02771662f, -0.02312884f, 0.13739616f, 0.16932248f, 0.20443042f, -0.12308852f, -0.35864508f, -0.10032462f, -0.09121850f, -0.06905861f, 0.12599286f, 0.02094042f, -0.08906433f, -0.17343509f, -0.16693379f, 0.17523617f, -0.12359727f, -0.19358137f, -0.02440547f, 0.03843823f, 0.18989010f, 0.08423366f, -0.17759907f, -0.15763213f, 0.02886968f, 0.06431038f, 0.08132482f, 0.01916524f, -0.17577772f, -0.02787698f, 0.13997903f, -0.05217831f, 0.24554259f, -0.38494733f, 0.22831811f, 0.40023285f, -0.00960578f, -0.24457365f, 0.06078187f, 0.00721005f, -0.25183696f, -0.01709428f, -0.17832969f, 0.02030901f, -0.08739058f, 0.26498806f, 0.22471909f, -0.14956251f, 0.00333391f, -0.14287575f, -0.07326446f, 0.15007319f, -0.00658072f, 0.00591289f, -0.05392109f, 0.21652094f, -0.35396034f, -0.04590071f, 0.21865961f, -0.16095157f, -0.16509143f, 0.21373700f, -0.24338646f, 0.08367687f, 0.09979134f, 0.04092556f, -0.06256135f, 0.07892870f, 0.35002926f, 0.42502287f, 0.00202923f, -0.02972031f, -0.14617296f, 0.08120114f, -0.00866849f, -0.08556621f, 0.02910592f, -0.02577565f, -0.36693418f, 0.01352795f, -0.14154366f, 0.11134416f, 0.25017887f, -0.37863171f, 0.19829912f, 0.24491294f, -0.00115646f, -0.29253644f, -0.19852675f, -0.20969111f, -0.56170231f, -0.01368725f, -0.39973322f, 0.32633331f, -0.19962569f, -0.08813477f, -0.20147771f, -0.39522168f, 0.15894580f, -0.67175275f, 0.23812747f, -0.25857320f, 0.06906449f, -0.02773564f, -0.06389839f, 0.10668100f, -0.08480800f, 0.28699529f, -0.10139432f, 0.02769124f, -0.07895952f, -0.20999597f, -0.19993675f, -0.11431275f, -0.12394769f, 0.28975561f, 0.16604041f, -0.19770710f, -0.13455257f, 0.24071142f, 0.12928119f, -0.05719993f, 0.26151425f, -0.26355210f, -0.05962337f, -0.07486236f, -0.01397984f, -0.22404802f, 0.24114123f, 0.12928399f, -0.08689255f, 0.17517528f, 0.02342555f, -0.13625260f, 0.03128470f, 0.03194656f, 0.48955846f, -0.30590418f, -0.20200537f, -0.26375303f, -0.18971354f, -0.40460467f, 0.20664470f, 0.06712249f, -0.13299392f, 0.13451765f, -0.11747459f, 0.26214513f, -0.08552042f, -0.06594285f, -0.14755242f, 0.08852414f, -0.11434370f, 0.12942953f, 0.02751733f, -0.13138145f, -0.08262978f, -0.08509592f, -0.11377233f, -0.15370309f, -0.25706342f, 0.00252089f, -0.21929657f, 0.26525652f, 0.20187794f, -0.38362950f, -0.07876512f, 0.06026328f, 0.10363270f, 0.06077528f, -0.07903428f, -0.26919460f, -0.16910131f, -0.10312112f, -0.03392100f, -0.19297679f, 0.01497496f, -0.11255629f, 0.36691934f, 0.13915908f, 0.41180512f, 0.01549025f, -0.21449296f, -0.16544895f, 0.05861470f, -0.09520688f, 0.49439582f, -0.20912194f, -0.29566282f, 0.08568051f, -0.07447321f, -0.05093871f, -0.06495158f, 0.25898528f, 0.04064397f, 0.10993356f, -0.05545565f, -0.24662524f, 0.04573274f, -0.27217135f, -0.06711258f, -0.29493177f, 0.11161132f, 0.29953453f, 0.12422480f, -0.61691016f, -0.07019044f, -0.25046411f, 0.19262007f, -0.24883430f, -0.00571728f, -0.26415527f, 0.11852717f, -0.11810830f, -0.08696958f, 0.21302807f, 0.29891929f, 0.10044623f, -0.04094983f, -0.02152006f, 0.14914225f, 0.14719801f, -0.28147978f, -0.20382886f, 0.04026017f, -0.01102227f, -0.15103953f, 0.01374909f, -0.09344495f, 0.07374975f, -0.02801334f, -0.17121738f, 0.01538412f, 0.17437829f, -0.24756007f, 0.02762244f, -0.11521037f, 0.05898245f, 0.07532492f, 0.10597727f, -0.09658171f, -0.12149131f, -0.16944492f, 0.16531694f, -0.23310645f, 0.01755456f, 0.03509713f, -0.13376465f, -0.19331609f, 0.23762468f, 0.08653887f, -0.13840210f, -0.16406128f, -0.09484007f, -0.03377192f, -0.16424458f, -0.02903196f, -0.08813987f, -0.26938534f, 0.00607875f, 0.12563100f, -0.26048627f, -0.10597889f, 0.32687646f, 0.14673753f, -0.00579167f, -0.01827582f, -0.46630865f, 0.07766562f, 0.10143027f, 0.01543401f, -0.12695691f, -0.51716095f, -0.00353118f, 0.25419527f, 0.44369972f, -0.25315657f, 0.11584212f, -0.17401971f, -0.24795900f, 0.14418291f, 0.39477187f, 0.06872100f, -0.05119768f, -0.17077722f, 0.37263113f, 0.22480071f, 0.08096514f, 0.22638820f, 0.49103573f, -0.16663545f, -0.09764010f, -0.28856865f, 0.03128222f, -0.10343903f, 0.01529324f, -0.06483731f, 0.31322637f, -0.40541610f, -0.23030517f, -0.04492859f, 0.45816270f, -0.13507091f, -0.02892376f, 0.07136121f, -0.01975466f, -0.05237027f, -0.19263841f, -0.04741585f, 0.04495946f, -0.23374295f, 0.15609269f, -0.24457310f, 0.23689893f, 0.18849947f, -0.05111063f, -0.56432396f, -0.15150408f, 0.02067962f, -0.07044922f, 0.17186379f, -0.27579242f, -0.23963803f, -0.38965684f, 0.25141630f, -0.17859173f, 0.09219974f, 0.01752115f, -0.18931480f, -0.11324565f, 0.15070570f, -0.01190820f, -0.06913359f, -0.08157118f, -0.02673048f, -0.25600249f, -0.15033570f, -0.08351727f, -0.09579338f, 0.00536673f, -0.24724391f, -0.20527838f, -0.30789945f, -0.06469215f, -0.37295499f, 0.23764940f, 0.03112173f, -0.10345513f, 0.01864164f, 0.29171032f, -0.21965565f, -0.20422743f, 0.06020986f, -0.00302965f, -0.56071812f, 0.00826033f, 0.37271270f, -0.12017566f, 0.12716867f, 0.42815652f, 0.17111601f, -0.06348053f, -0.10531785f, 0.39028865f, -0.12164434f, -0.11535838f, 0.08633902f, -0.08726040f, -0.27040455f, 0.12326888f, 0.04438843f, -0.58898497f, -0.00802858f, -0.27088755f, 0.13239416f, -0.08386205f, 0.35426861f, 0.30418438f, 0.30011642f, 0.03430880f, -0.23918164f, -0.14784804f, -0.39385191f, 0.00182332f, 0.31108651f, -0.29809102f, -0.16417490f, -0.26844671f, -0.02713756f, 0.21145423f, 0.06839865f, -0.09577122f, 0.30102447f, 0.26873180f, 0.26590696f, 0.02678160f, -0.14892323f, 0.06010069f, -0.04568582f, -0.00953639f, 0.19751862f, -0.09438878f, -0.00455929f, -0.18738090f, 0.01442668f, -0.40208858f, -0.08798578f, 0.21576989f, 0.00110089f, 0.19399232f, 0.15301485f, -0.03520305f, 0.32215062f, -0.16031907f, -0.08823708f, -0.27196735f, 0.11271115f, 0.01645848f, 0.01527547f, -0.06316178f, -0.17789382f, -0.02082602f, -0.12868020f, -0.09834481f, 0.30889326f, -0.30951041f, -0.27469721f, -0.07777042f, -0.11983347f, -0.12385888f, -0.17674397f, 0.32135305f, 0.02723621f, -0.00331517f, -0.06755675f, 0.11281782f, 0.08183560f, -0.02956161f, -0.16474809f, 0.26588041f, -0.04178156f, 0.00716054f, 0.07448895f, 0.31178382f, 0.05113761f, 0.12392700f, 0.00524271f, 0.07254324f, -0.45187172f, -0.02334634f, 0.09797171f, -0.08990295f, -0.03417304f, -0.06718931f, 0.03891498f, -0.44687665f, -0.02774120f, 0.09752955f, -0.00033391f, 0.32770547f, 0.04999929f, 0.38709560f, -0.01483585f, -0.15530677f, -0.17508391f, 0.23782465f, -0.23755044f, 0.04726778f, -0.27762502f, -0.03711550f, -0.12195197f, -0.21324550f, 0.07689311f, 0.06951090f, 0.31878325f, -0.11306459f, 0.01349152f, 0.00875452f, 0.27747005f, -0.13341026f, -0.15611640f, -0.02686115f, 0.07275625f, -0.24141230f, -0.03286859f, 0.08554585f, -0.33699375f, -0.12316632f, 0.40957180f, -0.11398557f, -0.00847713f, 0.16628726f, -0.08596249f, -0.25939372f, -0.16957465f, -0.58248812f, -0.26450148f, -0.14526021f, -0.09770603f, -0.02025017f, 0.30234203f, -0.05583487f, 0.42597228f, 0.00720821f, -0.16854382f, -0.11560543f, 0.41489619f, 0.25479722f, 0.12140113f, -0.37750468f, -0.25028864f, 0.15437728f, -0.01041720f, -0.03738471f, 0.09975868f, -0.37829110f, 0.15114684f, 0.05664571f, -0.23131499f, -0.13949077f, 0.13852376f, 0.47717881f, 0.11068591f, -0.22108102f, -0.38908896f, 0.22263689f, 0.15679677f, -0.17809482f, -0.00194179f, 0.05488000f, -0.32063562f, 0.07326979f, -0.08838893f, -0.09268143f, -0.21621782f, -0.36305469f, -0.24108252f, 0.06830573f, 0.33805943f, -0.38668102f, 0.16322622f, -0.02270710f, 0.18573780f, -0.10114185f, 0.19589125f, 0.09720325f, 0.24774285f, 0.21377657f, -0.28974512f, -0.00052783f, -0.01269874f, -0.24244258f, -0.05784388f, 0.16205364f, -0.21132588f, -0.16147164f, -0.23277976f, 0.27628776f, -0.15330485f, 0.05599001f, -0.16584872f, -0.22566704f, 0.20640537f, -0.18728513f, -0.31704292f, 0.09675603f, -0.11090751f, 0.05465039f, 0.33997619f, 0.14996094f, -0.12607458f, 0.01030753f, 0.06730545f, 0.04294593f, -0.48475879f, -0.23441048f, -0.05870100f, 0.04253763f, -0.00105551f, -0.02204491f, -0.10161580f, -0.09164242f, -0.27447295f, -0.10103647f, 0.27235553f, 0.11402210f, -0.14430420f, 0.01575783f, -0.15322116f, 0.15385877f, 0.02912086f, 0.52277517f, -0.03730433f, -0.08033741f, -0.21661657f, -0.59571695f, 0.11467028f, -0.29652610f, 0.36668172f, -0.27069771f, 0.17759961f, -0.07051551f, -0.21804886f, 0.24215025f, 0.34281635f, -0.15962550f, 0.12540631f, 0.24175020f, -0.05931931f, -0.18720737f, -0.29166469f, 0.15527536f, 0.13254464f, 0.06185305f, 0.05845123f, -0.00567615f, 0.09777838f, 0.36538926f, -0.02758548f, 0.24649079f, 0.03683125f, -0.10655161f, 0.06448723f, 0.13804033f, -0.07329348f, 0.02708687f, -0.25449014f, -0.02183214f, -0.21242455f, -0.08639254f, -0.16848877f, -0.19763684f, 0.02631138f, 0.26187077f, 0.04134630f, -0.17501333f, 0.02154558f, 0.33640447f, -0.04929670f, 0.05282374f, -0.31487501f, -0.17958097f, 0.48183528f, 0.25455901f, -0.11018108f, -0.00886909f, -0.16843300f, -0.16569854f, -0.12050669f, -0.01486000f, 0.01938471f, 0.02423698f, -0.06832760f, 0.08669104f, -0.14593087f, 0.09523211f, -0.28488564f, -0.04960224f, -0.06770721f, -0.12422585f, 0.24640517f, -0.16604261f, -0.00246122f, -0.16607380f, 0.12679136f, 0.26072466f, 0.31489393f, -0.02855933f, -0.18014376f, 0.01623773f, -0.11077082f, 0.22896536f, -0.10085752f, -0.08585421f, -0.13415936f, -0.26807767f, -0.12369101f, 0.07149892f, -0.15963930f, -0.11400086f, 0.40895477f, -0.62092316f, 0.00638775f, -0.32645875f, -0.06389748f, -0.09288157f, -0.19353849f, -0.00378314f, 0.03275888f, -0.25748631f, -0.06585553f, 0.35025457f, -0.26024416f, 0.35806006f, -0.61714101f, -0.07399482f, -0.17018422f, 0.00846611f, -0.14447406f, 0.13943429f, 0.03999025f, 0.20992345f, 0.01993688f, 0.11553959f, -0.15392283f, -0.07635006f, -0.11920978f, -0.17431051f, -0.01636664f, -0.12690996f, -0.10569554f, -0.09835431f, 0.22570531f, -0.36229348f, -0.05737475f, 0.11894090f, 0.11224883f, 0.00050638f, -0.12591605f, -0.11169176f, -0.28789362f, 0.17507744f, 0.14982264f, 0.04817664f, 0.30257347f, -0.15391724f, -0.16487798f, 0.10135990f, 0.06607085f, -0.02656539f, -0.05645793f, -0.03128505f, 0.01598380f, 0.23598783f, -0.22090916f, 0.11079524f, -0.38690349f, -0.09729756f, -0.19309326f, 0.00284948f, 0.14046077f, -0.12164775f, -0.03569680f, -0.17624091f, -0.14329469f, 0.03184889f, 0.08123925f, 0.21171413f, 0.01899444f, 0.29923820f, 0.07455768f, -0.04619572f, 0.32658318f, -0.17747936f, 0.02108226f, -0.00782251f, 0.08350482f, -0.05132696f, 0.01274500f, -0.20657544f, -0.11156774f, 0.36590314f, -0.35248813f, 0.08588763f, 0.06860863f, 0.18943267f, -0.12568873f, -0.00378454f, -0.19032499f, -0.00341412f, 0.26209906f, -0.01438367f, -0.28938648f, 0.15583467f, 0.63320673f, -0.21515340f, -0.16876765f, 0.32243404f, -0.10273302f, -0.10725401f, -0.12661983f, -0.39386371f, -0.23667845f, 0.26861665f, -0.27583754f, 0.13424596f, -0.19761194f, 0.25565422f, 0.07460801f, 0.03771367f, -0.12610857f, 0.00960131f, -0.21273871f, -0.23784038f, -0.13511702f, 0.22805369f, -0.34567663f, 0.21149342f, -0.31414834f, 0.09662974f, 0.00043954f, 0.05159663f, 0.09079229f, -0.40727836f, -0.18961497f, -0.21374150f, 0.14653309f, 0.21269591f, -0.16196993f, -0.08214743f, -0.01339304f, 0.42295447f, 0.10262682f, -0.43639195f, 0.12872951f, -0.11307561f, -0.00868220f, -0.15455216f, -0.24286591f, 0.32840151f, 0.08849762f, 0.06618294f, -0.22694933f, 0.01327110f, -0.31731552f, -0.19534869f, 0.24430789f, -0.78593016f, -0.15689567f, 0.03059286f, 0.37705731f, 0.07022081f, 0.04379347f, 0.17090985f, 0.15106788f, 0.06583451f, -0.33478245f, -0.09978470f, -0.03759660f, 0.23381448f, 0.09904576f, -0.00296990f, -0.11928432f, 0.00780364f, -0.19546321f, 0.10898680f, -0.22987285f, -0.04664574f, 0.29449546f, -0.29157716f, -0.00940301f, -0.07426048f, 0.10989195f, 0.15222271f, -0.09000845f, 0.34059486f, -0.15557858f, -0.44755617f, -0.11721646f, -0.01435944f, -0.10437990f, 0.15087155f, 0.05804057f, -0.23996857f, -0.31736520f, 0.11337844f, -0.11113183f, -0.03952219f, 0.10738254f, -0.23122635f, -0.34198412f, -0.09228346f, -0.13489531f, 0.40435350f, -0.08033576f, -0.07232268f, -0.04220828f, 0.07559181f, 0.17861967f, 0.07039820f, -0.23107633f, -0.18549645f, -0.28603148f, -0.08315398f, 0.05976233f, 0.43194619f, 0.10602766f, -0.25077003f, 0.10798921f, -0.39704829f, -0.06439109f, 0.18416531f, 0.05344940f, 0.40456769f, 0.34944531f, -0.09230383f, -0.12984028f, -0.06071014f, 0.17881756f, -0.03676755f, 0.01783830f, -0.13043167f, 0.05832040f, 0.01164796f, -0.15554211f, -0.25214335f, -0.02253305f, -0.43163154f, 0.28662857f, -0.27335158f, -0.10604538f, 0.07082797f, 0.17503496f, 0.02855752f, -0.04708260f, 0.22783844f, -0.15191059f, -0.18420030f, 0.29722428f, -0.07184272f, -0.16651522f, -0.15821876f, 0.27592394f, 0.37732780f, 0.01518069f, -0.00521130f, 0.00324092f, 0.12038586f, -0.51903492f, -0.04728317f, -0.07029708f, 0.08629537f, -0.00353073f, 0.13914870f, -0.02436993f, 0.25610495f, -0.22990669f, 0.02551934f, -0.05409303f, -0.19684349f, -0.01219015f, 0.00920045f, -0.08014680f, 0.07817797f, 0.30807227f, -0.05990898f, -0.18131945f, -0.22317050f, -0.17604615f, -0.03269058f, -0.17274132f, 0.38884294f, 0.27872959f, 0.03672010f, 0.15984814f, 0.00103095f, -0.17387055f, -0.00405820f, 0.01719028f, -0.00476057f, 0.10848502f, 0.09972622f, -0.20561130f, -0.05862413f, -0.26729697f, -0.11587282f, -0.03211799f, -0.06773413f, 0.05252981f, -0.33268210f, -0.17458567f, -0.19324270f, -0.00189134f, 0.11614575f, -0.07150079f, 0.21520312f, 0.36794162f, -0.48115459f, 0.00378481f, 0.16505849f, -0.00036996f, -0.08877681f, -0.06488365f, -0.20364785f, -0.16445741f, 0.06621738f, 0.01756126f, -0.04068554f, -0.21395044f, 0.04078626f, 0.33152527f, -0.09428823f, 0.05960557f, -0.12661247f, -0.08289050f, -0.45489380f, -0.06530400f, 0.31164658f, -0.13057506f, -0.08068629f, 0.00113516f, -0.10204906f, 0.07111567f, -0.09979741f, -0.10284030f, 0.00260999f, 0.04648762f, 0.05099793f, 0.20900975f, 0.13768741f, -0.13406405f, 0.04721404f, -0.03651771f, 0.08307154f, 0.17864859f, 0.15100701f, 0.08077437f, 0.06377257f, -0.43186089f, 0.33277282f, 0.02057155f, 0.09399524f, 0.30623972f, -0.08807962f, 0.37490988f, -0.04753679f, -0.20689441f, -0.02743343f, 0.30791783f, -0.01373464f, -0.03117776f, -0.07091938f, 0.03161575f, 0.11202845f, -0.02835989f, -0.39524189f, -0.21728814f, -0.05009273f, 0.07265026f, 0.03317731f, 0.09118302f, -0.06267438f, 0.22693716f, -0.00117680f, -0.46001548f, -0.19692583f, -0.11578937f, -0.33349082f, 0.05096921f, -0.14629920f, -0.28192618f, -0.07236902f, -0.06530165f, 0.14581981f, 0.09413654f, -0.16727099f, -0.20701998f, 0.22533026f, 0.00694616f, -0.66567057f, -0.08708105f, -0.01549121f, -0.12789661f, -0.04552737f, -0.02339165f, 0.01908667f, -0.04350459f, -0.30807692f, -0.09326324f, 0.14481062f, -0.06273444f, -0.04869225f, 0.13832420f, 0.46315533f, -0.06812591f, 0.34989327f, 0.04709313f, 0.04192770f, -0.25933853f, -0.09093942f, -0.00567129f, 0.02297786f, -0.34742135f, 0.31646726f, 0.10784137f, -0.03797349f, -0.11630464f, 0.02499473f, -0.04389495f, -0.04087057f, 0.00764384f, -0.04714469f, -0.13680534f, -0.31871185f, -0.11029972f, -0.05978917f, 0.08681466f, -0.06395102f, -0.09980428f, -0.39018002f, 0.19598505f, -0.09089024f, 0.08784097f, -0.04570722f, -0.07947991f, 0.22934395f, 0.13427992f, 0.00719540f, 0.13027167f, -0.05507117f, -0.23447956f, 0.26402283f, -0.02465604f, -0.03431338f, 0.06615002f, 0.25339124f, 0.02906476f, 0.29002368f, 0.10311765f, -0.01261967f, 0.04218782f, 0.06930486f, 0.30233961f, -0.20905827f, -0.21899210f, 0.00477389f, -0.25295514f, 0.14876099f, -0.11319406f, -0.00658198f, -0.11723795f, 0.06123303f, -0.12647799f, -0.12231613f, -0.24806613f, 0.07203161f, -0.16379999f, -0.19682156f, 0.16823676f, 0.04737877f, 0.43380347f, -0.22262685f, -0.09244271f, -0.16086593f, -0.21109568f, 0.00127684f, -0.15672043f, -0.01731359f, 0.01122955f, -0.15139472f, 0.18637374f, -0.25688094f, 0.16168363f, -0.02848770f, -0.15385890f, 0.50933462f, -0.22475509f, 0.35089898f, -0.30651352f, -0.06514362f, -0.17042588f, -0.09671302f, -0.11147702f, -0.09922044f, -0.08405223f, 0.06893759f, -0.12623861f, -0.05853112f, 0.26056284f, 0.28455094f, -0.03261410f, -0.02396563f, 0.04047956f, -0.23620696f, -0.16261463f, -0.34817517f, 0.02382694f, 0.16455504f, -0.26751915f, -0.03633584f, 0.03641190f, 0.09298006f, -0.00371593f, -0.22668336f, -0.05771564f, -0.12437348f, -0.12514313f, -0.09577215f, -0.12743351f, -0.27376956f, -0.02250446f, -0.02984967f, -0.24736926f, -0.05762989f, -0.02569303f, 0.41925710f, -0.11295413f, -0.27002168f, -0.06586450f, 0.11405120f, 0.04468472f, 0.13355502f, -0.08509803f, 0.13860145f, 0.14656636f, -0.02567910f, 0.19018264f, 0.30184534f, -0.04120427f, -0.07220060f, 0.04999524f, -0.12486278f, -0.00712497f, -0.47369918f, 0.16547787f, -0.13383174f, 0.15524262f, -0.03608971f, 0.00180416f, 0.29510412f, -0.22840180f, 0.05059025f, -0.08469392f, -0.08529426f, -0.02810626f, -0.08631568f, 0.04941807f, -0.21005520f, -0.03022169f, -0.02591860f, -0.17323607f, -0.09430262f, 0.10337450f, 0.55107969f, -0.08967512f, -0.15739700f, 0.14988790f, 0.12008148f, -0.12635353f, -0.17746180f, 0.27237764f, -0.10745230f, -0.06232526f, 0.02405202f, -0.36408085f, 0.14285392f, 0.01316063f, -0.12337737f, -0.10632347f, 0.12007777f, 0.24229530f, 0.26708344f, -0.04696178f, 0.31946805f, 0.31937051f, -0.19195722f, -0.06584811f, 0.09296901f, -0.22888470f, -0.14205936f, 0.07864475f, 0.04025032f, 0.01621323f, -0.27168950f, -0.19669223f, -0.23796882f, 0.13160735f, -0.11047846f, -0.23319052f, -0.16673724f, -0.25423825f, -0.23170854f, -0.03460705f, -0.09071672f, 0.22330949f, -0.07705672f, 0.19258155f, -0.30545819f, 0.34322354f, 0.29243872f, -0.01070309f, -0.05718406f, 0.06063763f, 0.14764373f, 0.01875712f, -0.22512099f, 0.05599604f, -0.06821466f, -0.06933602f, -0.38640714f, -0.08928196f, 0.10694938f, 0.21065748f, 0.03034036f, -0.15108228f, -0.03357423f, 0.01769411f, 0.02066304f, 0.01068797f, 0.12760212f, -0.11332923f, -0.05436763f, 0.13415772f, -0.26084048f, -0.07181066f, 0.06506198f, -0.14536551f, -0.10554574f, 0.02587634f, 0.02761995f, 0.01820261f, -0.03415328f, 0.16981992f, -0.12466878f, -0.16242236f, 0.32953814f, -0.06192833f, 0.02664909f, -0.01538042f, -0.03016884f, -0.11745950f, 0.06785433f, -0.09788527f, -0.04129814f, -0.04006402f, 0.39010191f, 0.51343286f, 0.10855606f, -0.18725830f, -0.07559434f, -0.23712212f, -0.04661340f, 0.16071863f, -0.23657720f, -0.11353179f, -0.03258242f, -0.08043285f, -0.13418995f, -0.05593833f, -0.07077063f, -0.36876717f, -0.15830712f, 0.16079570f, -0.22312601f, 0.15267999f, -0.14034952f, 0.13677618f, -0.04935181f, -0.13937993f, -0.44665745f, 0.18926942f, -0.16182409f, -0.05569706f, 0.14609919f, 0.33979717f, -0.17546561f, -0.13955171f, -0.10391267f, -0.11331803f, 0.40391684f, 0.20734800f, 0.22805998f, 0.01453754f, -0.14948346f, -0.16419840f, -0.12413984f, -0.21040042f, -0.25631732f, 0.03212607f, -0.10868954f, 0.20230956f, -0.25616071f, 0.12703751f, -0.24682972f, 0.06551596f, -0.24423940f, -0.01600007f, -0.08865628f, -0.00346838f, 0.23239715f, 0.30064607f, -0.09637343f, 0.06396807f, 0.01002709f, -0.07779321f, -0.04250063f, -0.05360876f, 0.27925476f, 0.13631248f, -0.04247151f, -0.14940843f, 0.06241013f, 0.24812147f, 0.00258487f, -0.15552239f, 0.22421868f, 0.04711237f, 0.07485329f, 0.04751347f, -0.00921357f, -0.03883680f, 0.03385668f, 0.05063446f, 0.47496623f, 0.11848380f, -0.27801967f, 0.12574123f, -0.13909666f, 0.08549405f, -0.06112663f, 0.32053134f, -0.10815512f, -0.14519972f, -0.21102051f, -0.01019276f, 0.05528239f, 0.02077896f, -0.05248749f, -0.01147758f, 0.09025896f, -0.15575865f, -0.16598342f, -0.20867147f, 0.04305940f, 0.07891420f, -0.42725599f, -0.10465226f, -0.07943398f, 0.16966957f, 0.10478453f, -0.21581765f, 0.00363176f, -0.04856008f, 0.12946624f, -0.17020959f, -0.09609181f, 0.45043623f, 0.03376022f, 0.23193829f, -0.11070415f, 0.01784325f, 0.24063589f, -0.18540834f, -0.09371548f, -0.05421418f, -0.15031676f, 0.01820785f, -0.33290249f, 0.04110799f, 0.01520631f, 0.29597485f, -0.18809420f, -0.06265289f, 0.17746270f, 0.03283022f, -0.22034352f, -0.16500258f, -0.28765950f, -0.19347087f, -0.21510597f, -0.16959448f, -0.34951803f, 0.00376118f, -0.19453782f, -0.07968679f, 0.03985319f, 0.06405856f, 0.12957430f, -0.21212468f, -0.16639112f, -0.35850695f, -0.04928008f, -0.08818366f, -0.19836827f, 0.22421059f, 0.07353730f, 0.18866387f, -0.21844992f, 0.02975625f, -0.08519794f, -0.34814498f, 0.11599840f, 0.08619860f, 0.07608937f, -0.22435987f, -0.15740989f, -0.15337698f, -0.07454144f, 0.20802502f, 0.06766560f, -0.12373551f, -0.06749117f, -0.33980823f, -0.19933483f, -0.15694232f, -0.10890608f, 0.14506084f, -0.05230554f, -0.10073666f, -0.12943904f, 0.12709849f, 0.00734849f, -0.05407035f, 0.05004299f, -0.11050949f, 0.02372243f, 0.07795428f, -0.27327520f, -0.26985446f, -0.08679278f, -0.24171795f, -0.06191992f, -0.07010974f, 0.01359542f, -0.00442105f, -0.27181992f, -0.07531700f, -0.17696744f, -0.25635096f, 0.14898752f, 0.17071524f, 0.57841796f, 0.26592678f, -0.00558472f, -0.04012950f, -0.06523722f, 0.01311658f, 0.18374270f, -0.14345923f, 0.22353564f, 0.20130220f, -0.01479628f, 0.23962805f, -0.11354110f, 0.19116044f, -0.18084714f, -0.05017310f, 0.05049884f, 0.17543091f, 0.06970511f, 0.16403407f, -0.43974808f, 0.15214156f, -0.14997807f, -0.04826699f, 0.18320513f, -0.17985186f, -0.32852858f, -0.06774068f, -0.15629734f, 0.03531137f, 0.10391923f, 0.26880142f, 0.34355125f, 0.06953609f, -0.08629568f, -0.04848769f, 0.01215444f, 0.09429906f, 0.26138368f, 0.17410582f, -0.30721471f, 0.08340434f, -0.24555752f, -0.13154787f, -0.23193778f, -0.01279642f, 0.36977673f, -0.06253299f, -0.12023765f, 0.00785096f, 0.18796009f, -0.12105137f, 0.17425829f, -0.25190780f, -0.03470329f, 0.15552717f, 0.01489936f, -0.03079745f, -0.26422766f, 0.09920754f, -0.08768304f, -0.03100627f, -0.02393784f, 0.14152184f, 0.19501077f, -0.02683047f, -0.20602852f, -0.05104103f, -0.13841160f, 0.26672110f, 0.08831409f, -0.14918834f, -0.19581710f, -0.10432620f, -0.23300086f, -0.00535541f, -0.29807705f, 0.01782834f, 0.16246228f, -0.09596404f, -0.05639808f, 0.11711004f, 0.22284329f, 0.07461621f, -0.01517090f, -0.04115463f, -0.37536019f, 0.10459987f, -0.07964633f, -0.08445270f, 0.22374731f, -0.02766841f, -0.01821427f, 0.00159693f, -0.03340020f, 0.26356450f, -0.25989008f, -0.05641083f, -0.18573758f, 0.10514931f, -0.30531362f, -0.15142338f, -0.07911452f, 0.26896185f, 0.03662486f, 0.12722345f, 0.01678454f, 0.27523741f, -0.12922232f, -0.32262173f, 0.00499183f, -0.04600162f, -0.13253960f, 0.01895789f, 0.23886283f, 0.17284229f, -0.25357872f, -0.00267479f, -0.20119238f, -0.15291543f, 0.23118460f, -0.13859792f, -0.10786954f, 0.01895854f, 0.24346447f, -0.09844382f, -0.08978092f, 0.05427675f, 0.30654448f, -0.26691985f, -0.13145602f, -0.06468513f, -0.12079988f, -0.13957569f, 0.33037686f, -0.11463489f, -0.10505302f, 0.05957444f, -0.10198924f, -0.31401137f, -0.17927444f, 0.19329120f, -0.02198477f, -0.11358202f, -0.16149080f, 0.14067122f, -0.07875811f, 0.11972541f, 0.19687675f, 0.15619977f, -0.11922270f, -0.34832278f, 0.19986840f, -0.07399072f, 0.11948890f, -0.08798655f, 0.03991400f, -0.07769236f, -0.29189846f, -0.03421789f, -0.05152412f, -0.06472302f, -0.15526994f, -0.13533142f, 0.17963828f, 0.40132579f, 0.23045084f, 0.06081375f, -0.05883789f, -0.17060694f, -0.21502453f, -0.09226217f, -0.23110260f, -0.03165514f, -0.03663064f, 0.09210718f, -0.03692315f, -0.08577843f, -0.00002031f, 0.22538789f, -0.18971473f, -0.09690663f, 0.18190953f, -0.04359712f, -0.11651076f, 0.14224468f, 0.06329716f, -0.11395568f, 0.11348953f, -0.29337385f, 0.00373451f, -0.08060982f, -0.23448296f, -0.14329574f, 0.05234665f, 0.40518972f, -0.12852104f, 0.00286490f, 0.16889434f, -0.26632273f, 0.16541551f, 0.32676435f, 0.04249948f, -0.05690779f, 0.00766235f, 0.40342417f, -0.00934423f, -0.24603096f, 0.06090194f, 0.15252666f, -0.12619650f, 0.21002808f, 0.26211125f, -0.26319951f, -0.00953616f, -0.44502923f, 0.01165045f, 0.04908862f, -0.14892057f, -0.10701160f, -0.21110550f, -0.01523625f, 0.17940311f, -0.12472901f, 0.12319823f, 0.05446131f, 0.11759772f, -0.10356375f, -0.02298676f, 0.29661939f, -0.24306567f, -0.09535611f, -0.38221827f, -0.13725342f, -0.21426205f, -0.05798511f, -0.13882402f, 0.25480476f, -0.00484650f, 0.07542933f, -0.14004828f, -0.02335454f, -0.06339783f, -0.13820775f, -0.15148446f, 0.29770869f, -0.14363770f, -0.25892690f, 0.02887784f, -0.00667095f, -0.13705909f, -0.28079927f, -0.08784795f, -0.09141761f, -0.02469108f, 0.32657638f, -0.02644381f, -0.14014231f, 0.09324361f, -0.08546843f, -0.14821190f, -0.36581442f, -0.13925953f, -0.23194122f, 0.08217187f, -0.14115433f, -0.25236315f, -0.04720478f, -0.14214171f, 0.06548505f, -0.16961209f, 0.15084770f, -0.04850492f, 0.08978982f, -0.18878449f, 0.07640160f, 0.04478738f, 0.03902030f, -0.04099760f, 0.01372566f, 0.04716316f, 0.00579781f, 0.26969758f, 0.05731187f, 0.02847971f, 0.06495031f, -0.01259743f, 0.22443356f, -0.16182910f, -0.20720507f, -0.05615674f, -0.22300826f, 0.07995228f, -0.25125256f, -0.04062120f, -0.10712630f, -0.03075051f, -0.04888912f, -0.05191577f, 0.06242000f, -0.16101511f, 0.35550690f, -0.01416668f, -0.15898055f, 0.11562301f, -0.03046593f, 0.04710460f, -0.03557400f, -0.06162228f, 0.30965224f, -0.09721573f, -0.12462160f, -0.20777316f, -0.06875212f, 0.26864436f, -0.14976969f, 0.06625626f, 0.04901171f, 0.25069246f, 0.18443617f, 0.02827104f, 0.30438083f, -0.16376324f, -0.10105760f, 0.04673772f, -0.14546946f, 0.21815632f, -0.10837951f, 0.33778295f, -0.07044359f, 0.16137925f, -0.31888151f, 0.07682873f, 0.12936237f, -0.00900037f, -0.11265801f, -0.24847785f, 0.10932720f, 0.13198745f, -0.22542089f, 0.00239715f, 0.20194773f, -0.08454407f, 0.09819429f, 0.08381429f, -0.14784805f, 0.27640480f, -0.34909785f, -0.15083183f, -0.16006409f, 0.05791755f, 0.01115270f, -0.05422886f, -0.14799725f, -0.27790841f, 0.11142713f, -0.04367923f, 0.01814475f, -0.10664294f, -0.04957161f, -0.08474967f, -0.10669900f, 0.26512811f, 0.16938677f, -0.26635000f, -0.08389565f, -0.11464635f, 0.14871867f, 0.00884677f, 0.19838645f, -0.21078391f, -0.03302168f, -0.10117350f, -0.03601080f, -0.02427958f, 0.00491934f, -0.20350531f, -0.19244704f, -0.01260511f, -0.06290250f, 0.13308848f, 0.14335719f, 0.03722429f, 0.06247927f, -0.36169228f, 0.12209643f, -0.19064020f, -0.00650314f, -0.02499951f, -0.06418995f, 0.19862029f, 0.26213780f, -0.03667275f, 0.01604809f, -0.08408806f, -0.07035922f, -0.10194796f, 0.01335438f, 0.35444942f, 0.05698333f, -0.05719340f, 0.02218404f, 0.05125480f, -0.12654151f, 0.03752492f, 0.03919961f, 0.09257747f, -0.31886443f, 0.23669030f, 0.05273203f, 0.21509126f, -0.13659355f, -0.21052068f, -0.10724351f, -0.10791889f, -0.00884485f, 0.19252224f, -0.03769983f, -0.12721100f, 0.21540017f, 0.17416301f, -0.16026510f, -0.24000888f, 0.05140271f, 0.05603613f, -0.02289228f, 0.10120785f, -0.01445650f, -0.28157961f, 0.22453731f, 0.03212706f, 0.10546145f, -0.12475957f, 0.29335010f, 0.09945356f, 0.22555472f, 0.04679166f, 0.34095940f, -0.04012298f, 0.12487990f, -0.23351035f, -0.07708944f, 0.01623377f, 0.34775800f, -0.12962702f, -0.03542311f, -0.06768011f, -0.18266773f, 0.04102383f, -0.13186540f, -0.04554131f, -0.20684312f, -0.08031747f, 0.00375267f, -0.11492068f, -0.12928474f, -0.16360916f, -0.03618848f, -0.00707523f, -0.09538867f, -0.02958204f, 0.00445874f, -0.10101053f, 0.20029832f, -0.03842925f, -0.06486344f, 0.21821509f, 0.02248113f, -0.05620253f, 0.00247784f, -0.06269048f, -0.00278070f, -0.12242775f, -0.00606884f, 0.13555239f, -0.16057254f, 0.00712823f, -0.01808755f, -0.02198664f, -0.08513585f, 0.31757721f, 0.15145011f, -0.13415278f, -0.17213483f, -0.00589712f, -0.29497138f, 0.12164643f, -0.07966639f, 0.00159265f, -0.02412236f, 0.04297699f, 0.13178518f, -0.33420438f, 0.05251349f, 0.25827825f, -0.09388088f, 0.12334780f, -0.08119955f, 0.06182648f, -0.08268105f, 0.21582586f, -0.05785522f, -0.06872005f, -0.10957014f, -0.08772957f, -0.22883813f, -0.20378210f, -0.02888391f, -0.05935149f, -0.01065199f, 0.10022573f, 0.11530269f, 0.07113432f, -0.14416869f, -0.05309061f, -0.10288712f, 0.09205497f, 0.19914664f, -0.29410943f, -0.11962868f, 0.09430637f, -0.14770837f, 0.12483186f, -0.21267650f, 0.04750812f, -0.22854698f, -0.13648854f, 0.01750955f, -0.03783419f, -0.19009623f, 0.07041933f, -0.07922529f, 0.02927828f, -0.18690759f, -0.12840781f, 0.33619282f, -0.15043341f, -0.04885309f, 0.20143558f, -0.22036932f, 0.01323681f, -0.10925633f, -0.11674585f, 0.09456074f, 0.11340982f, -0.04941016f, -0.15444648f, -0.04641285f, -0.10966250f, 0.39007458f, -0.03400480f, 0.12020963f, -0.02651478f, 0.11432395f, 0.11897337f, 0.07827808f, -0.18192379f, -0.15175153f, 0.05348115f, 0.23614949f, -0.10085617f, -0.04972470f, -0.06503379f, -0.22035983f, -0.15121926f, -0.03246230f, -0.22713992f, 0.12062816f, -0.13645625f, -0.12273914f, 0.28843623f, -0.09480908f, -0.28612038f, -0.17919432f, 0.03538890f, -0.23221517f, 0.19436376f, -0.19036630f, -0.08350442f, -0.13595444f, 0.04727557f, 0.02878444f, 0.13327427f, -0.31676280f, -0.03883255f, -0.08070600f, -0.05869646f, 0.19725825f, 0.12648228f, -0.03685590f, -0.09021699f, 0.00361632f, 0.06485479f, -0.05129217f, -0.17162718f, -0.09588134f, -0.10755371f, 0.14135236f, -0.24462365f, -0.13719355f, -0.11812104f, 0.08888370f, -0.06392712f, -0.09968810f, -0.10431150f, -0.00393566f, -0.10503971f, 0.26585504f, -0.10048368f, -0.03678013f, 0.22309627f, -0.02731795f, 0.02531519f, -0.00885312f, 0.01350957f, -0.01318765f, 0.05134416f, 0.18030891f, 0.02598152f, -0.08033182f, 0.32886347f, 0.37991500f, -0.06875702f, 0.03097350f, -0.09248944f, -0.05617254f, 0.20105012f, -0.17690744f, 0.02039179f, -0.06732646f, -0.14596152f, -0.30780512f, 0.22549848f, -0.02271399f, -0.01916804f, -0.12208229f, -0.09689552f, -0.09007644f, 0.16071901f, -0.09986170f, -0.04504251f, -0.22708204f, -0.27976689f, 0.02582138f, -0.19431187f, 0.19704995f, -0.12684934f, -0.08852033f, -0.17167413f, 0.10068009f, 0.22510241f, -0.08670119f, -0.29962593f, -0.09376252f, -0.08653437f, 0.17647561f, -0.09341720f, 0.08950029f, 0.06399694f, -0.02357369f, -0.05150004f, -0.19971634f, 0.25274405f, 0.00760841f, -0.14665464f, -0.11010316f, 0.10352466f, -0.17593497f, 0.03337532f, 0.14946918f, 0.08097119f, 0.31588978f, -0.02103759f, 0.00358456f, 0.09336498f, 0.00394219f, 0.09598210f, -0.22671595f, -0.10374464f, -0.37804940f, -0.12262832f, -0.10214811f, 0.02414163f, 0.20860524f, -0.20016147f, 0.21509326f, -0.17442879f, 0.13770264f, 0.22783750f, -0.08081499f, 0.12488455f, -0.09131941f, -0.06248016f, -0.01889641f, 0.05923031f, -0.21419975f, 0.22879690f, -0.09534986f, -0.20395048f, -0.06286872f, -0.28021747f, 0.00835607f, 0.18070187f, 0.07586879f, -0.05864327f, -0.22122015f, 0.17370930f, -0.02695820f, 0.15786223f, 0.08878711f, 0.29543161f, -0.07561415f, 0.19951835f, 0.11899741f, -0.25795728f, 0.37413362f, 0.18950425f, -0.36226791f
};

// shape: [49]
static const float note_head_bias[49] = {
    0.05647364f, -0.07025818f, 0.05411779f, 0.12965877f, 0.20616253f, 0.14025366f, -0.05819783f, 0.06023142f, 0.07376359f, 0.07255922f, 0.00279551f, -0.05768089f, 0.21745616f, -0.11296285f, 0.20760307f, 0.06192992f, 0.03021516f, 0.07084837f, 0.02433473f, 0.03718339f, 0.04789533f, 0.04082552f, -0.02124550f, -0.00354614f, 0.05620913f, -0.01036230f, 0.05287465f, 0.04549596f, 0.10984397f, 0.00372546f, -0.04771122f, -0.03422047f, -0.04163934f, -0.06429516f, 0.00916183f, -0.14446045f, -0.14396232f, -0.08694813f, -0.14547507f, -0.04517708f, -0.15005112f, -0.07733092f, -0.04676323f, -0.06891732f, -0.17761180f, -0.19586731f, -0.15758832f, -0.05426360f, -0.15423092f
};

// shape: [6, 96]
static const float string_head_weight[576] = {
    0.32734400f, -0.06250680f, 0.02167242f, -0.32288262f, -0.28570268f, -0.16110553f, -0.24355596f, 0.28193352f, 0.06007582f, 0.05558276f, -0.30108601f, 0.06067453f, -0.30667573f, -0.35636494f, -0.29207629f, 0.40108877f, 0.23099931f, -0.23481764f, 0.44880560f, -0.25284398f, -0.28676045f, 0.05205535f, 0.01557381f, -0.18175498f, -0.18839669f, 0.43653387f, -0.28075135f, -0.16603726f, -0.11917846f, 0.13681616f, 0.07517039f, -0.21866579f, -0.38666251f, -0.17829195f, 0.09735130f, 0.05251584f, -0.04649795f, -0.23582739f, 0.45682806f, 0.47579259f, -0.19550791f, 0.12986298f, 0.29452085f, 0.45454496f, -0.05361540f, 0.46374717f, -0.16406170f, -0.16572882f, 0.64729673f, -0.06946761f, -0.09119054f, -0.24387787f, 0.04703263f, -0.27952573f, -0.19795066f, -0.00564087f, -0.13889202f, -0.28908268f, 0.29887307f, -0.16685084f, 0.27652186f, 0.00402810f, -0.01229127f, -0.45016187f, -0.25958818f, -0.07014119f, 0.53641468f, -0.03008164f, -0.01286439f, 0.06912557f, -0.06113201f, -0.04286056f, 0.38897330f, -0.34307835f, -0.24802463f, 0.33609095f, -0.16264032f, -0.29472497f, -0.19414265f, -0.29497272f, -0.35876840f, -0.31367388f, -0.16522697f, -0.07810754f, -0.15207182f, -0.24758364f, -0.30339742f, -0.34974101f, -0.01470403f, 0.45619226f, -0.44721445f, 0.38796631f, -0.11567054f, -0.15680702f, 0.03590243f, 0.02373168f, -0.22667187f, 0.43756241f, 0.31422952f, 0.22286394f, -0.16581230f, -0.02279189f, -0.10818442f, 0.08355891f, -0.58758634f, -0.46254575f, -0.16198288f, 0.30079314f, -0.35317782f, -0.19662075f, 0.34890419f, -0.28286192f, 0.30618906f, 0.04801889f, -0.13367023f, 0.51878279f, -0.03303795f, 0.16619419f, 0.23842943f, -0.02442609f, -0.24220632f, -0.20422623f, 0.16699632f, 0.03487127f, -0.05406022f, -0.49554962f, -0.31132478f, -0.08989725f, 0.61880493f, -0.06593444f, 0.30346569f, 0.01628334f, -0.02646344f, -0.41109875f, -0.35997382f, 0.01287821f, 0.29735255f, 0.46565434f, 0.03197641f, 0.07792068f, -0.06230012f, 0.10661618f, -0.16337271f, -0.11185739f, -0.16193965f, -0.04531915f, -0.01287512f, -0.04843280f, -0.05575020f, -0.28196263f, 0.03897371f, 0.39045325f, -0.18131828f, 0.00723871f, -0.32675409f, 0.10026342f, 0.12849160f, -0.01174427f, -0.20440136f, -0.04623416f, 0.42212677f, 0.23835143f, -0.43438390f, 0.42709300f, -0.01007770f, -0.22190076f, -0.24311776f, -0.01270801f, -0.18505169f, -0.09904993f, 0.03947894f, -0.14716600f, -0.24279922f, 0.06971065f, 0.09094755f, -0.30563441f, 0.09029246f, -0.19911948f, -0.28011164f, -0.37856147f, 0.00234787f, -0.27361411f, -0.15974282f, -0.43782094f, 0.03067918f, 0.27931729f, 0.11547789f, -0.57071036f, 0.10159300f, -0.11338362f, -0.03744591f, -0.03334875f, -0.27782795f, 0.06182697f, 0.03329093f, 0.36927259f, -0.15437774f, -0.09351980f, 0.38961542f, -0.40969980f, 0.55652869f, -0.15946916f, 0.09192225f, 0.08928316f, -0.06834915f, 0.01984227f, 0.22874728f, -0.46474311f, -0.45600936f, -0.00816667f, 0.58880687f, 0.08655933f, 0.08736006f, 0.03838401f, 0.39496866f, -0.18163571f, 0.09038820f, -0.52929068f, 0.25372303f, 0.02869899f, 0.01013117f, 0.42077890f, -0.18305370f, -0.06000027f, -0.07114898f, -0.23652190f, -0.28032038f, -0.30935889f, 0.01275296f, -0.22835055f, 0.28817642f, -0.46111783f, -0.32516104f, 0.00809248f, -0.52671713f, -0.31223944f, 0.15151483f, -0.32054946f, -0.05461996f, 0.11015201f, -0.17096703f, -0.15744643f, -0.29297051f, -0.12534834f, 0.26689509f, -0.06111750f, -0.46755710f, 0.01591543f, -0.11400115f, -0.30359891f, -0.08190016f, -0.21827650f, 0.29622173f, -0.27621102f, 0.00678033f, 0.11430743f, 0.00059481f, 0.27482989f, -0.13032332f, -0.22379918f, -0.17425160f, -0.39008662f, -0.01366525f, 0.21910588f, 0.32234854f, 0.45109126f, -0.02476207f, -0.54777539f, -0.04369855f, 0.35997921f, -0.27643314f, 0.52487451f, -0.08711106f, -0.12189998f, -0.23970920f, 0.41561124f, 0.09430323f, 0.00365974f, 0.27934560f, -0.11637388f, -0.21843989f, -0.20323843f, -0.36257479f, 0.01981905f, -0.11826532f, -0.21026899f, -0.21882984f, -0.24595644f, -0.10152536f, -0.43349147f, 0.02269210f, -0.44131109f, -0.10219797f, -0.11747663f, -0.13212398f, 0.00723098f, 0.68750387f, -0.27954674f, -0.04123458f, -0.02080168f, -0.12689495f, 0.00925723f, -0.23175727f, -0.21657877f, -0.41275492f, -0.38345319f, -0.51350468f, -0.04777918f, 0.22269388f, -0.11466824f, -0.38346717f, -0.16370820f, -0.36806652f, 0.44519472f, 0.21730372f, 0.30896312f, -0.41158411f, -0.22192144f, -0.02336234f, 0.06163803f, 0.10010043f, -0.29354778f, -0.23605652f, -0.34329057f, -0.10829338f, 0.14806785f, -0.27210215f, 0.38939559f, -0.41309783f, -0.43619433f, -0.55411065f, -0.19291027f, -0.41583920f, -0.05798798f, -0.08919109f, 0.12143953f, -0.17797524f, -0.13162470f, -0.31626725f, -0.19243076f, -0.15495892f, 0.42022306f, 0.19321828f, -0.09819483f, 0.20342757f, -0.04687258f, -0.09674627f, -0.03147795f, -0.15084563f, -0.11045588f, 0.10795709f, -0.18725365f, 0.00074783f, -0.07626529f, -0.26992935f, 0.66114300f, -0.21420020f, 0.18675950f, -0.39027306f, -0.42694914f, -0.34825784f, -0.07767460f, -0.09732644f, -0.04600265f, -0.22833718f, -0.31016803f, 0.29990473f, 0.13195218f, -0.20443082f, -0.23220506f, 0.41332078f, 0.29895338f, -0.06797019f, 0.40498486f, -0.04455674f, 0.48753175f, -0.29223496f, -0.39660844f, 0.71095687f, -0.23572962f, -0.21438645f, -0.06432723f, 0.14402977f, -0.09632808f, 0.42813084f, -0.38291302f, -0.20459372f, -0.17889200f, 0.07967231f, -0.13411011f, 0.21224362f, -0.48373204f, -0.47398135f, 0.16380151f, -0.04532806f, -0.28495723f, 0.12635702f, 0.32724184f, 0.07932371f, 0.47371748f, -0.19700672f, 0.08359838f, -0.42187807f, -0.07743622f, 0.29390931f, -0.25378883f, -0.23526239f, 0.07461792f, 0.49772614f, 0.05184845f, 0.01267898f, -0.35723507f, -0.11127029f, 0.52828628f, 0.23633125f, -0.21027246f, -0.31301802f, 0.08184473f, -0.35379112f, 0.18004936f, -0.60332996f, 0.31440985f, -0.06677396f, -0.05775263f, 0.36882725f, -0.41946921f, -0.82549900f, -0.24014945f, -0.22259207f, -0.10547005f, 0.46147540f, 0.02178134f, -0.20688239f, -0.20633022f, 0.26400456f, -0.19426064f, -0.17604956f, -0.12040486f, 0.63153279f, -0.25332886f, -0.20330766f, 0.24767821f, -0.06050658f, 0.15560500f, -0.25811979f, 0.31493965f, 0.20877464f, -0.12294614f, -0.36671451f, -0.18012273f, -0.11539228f, -0.34848934f, -0.04033033f, 0.02832733f, -0.00435621f, 0.13908772f, -0.31801847f, 0.09253159f, -0.03537100f, 0.22176927f, 0.35476390f, 0.10471500f, 0.06529628f, -0.25926703f, 0.05302579f, 0.59414053f, -0.17785436f, -0.07053047f, -0.33972150f, 0.22894865f, 0.05941879f, -0.25693482f, 0.09167243f, 0.09717717f, -0.60862136f, -0.44874167f, -0.49121633f, 0.06312529f, -0.14068207f, -0.28599522f, -0.38879171f, -0.37152007f, -0.34651312f, -0.00901209f, 0.24539885f, 0.21428643f, -0.39979047f, 0.14033164f, -0.48054713f, 0.27193576f, 0.17066285f, -0.34376594f, 0.21473490f, 0.14220618f, -0.30536428f, -0.36448514f, -0.21669476f, 0.30026096f, -0.46000585f, -0.40326926f, -0.26447439f, -0.40456685f, -0.16522872f, -0.01390943f, -0.12367218f, -0.27549571f, -0.47766340f, 0.04202477f, 0.13991019f, -0.63294256f, 0.19818999f, 0.11291857f, -0.27944914f, 0.07138068f, -0.43645152f, 0.17139041f, 0.36395478f, 0.15967402f, -0.35179552f, -0.51829642f, 0.09173237f, -0.38462356f, 1.26613522f, -0.32422912f, 0.24392784f, -0.51576948f, -0.10065626f, 0.09303868f, -0.58174235f, 0.27628469f, -0.07798890f, 0.24435149f, -0.31783271f, -0.02006068f, -0.62675130f, -0.41018030f, 0.17223285f, 0.09047220f, 0.17191070f, -0.14502376f, -0.47974429f, -0.00946796f, 0.06970213f, 0.04556284f, 0.22008799f, -0.24216041f, 0.20171262f, -0.78308398f, 0.07904299f, 0.26287028f, 0.33760184f, -0.08321625f, -0.28097770f, -0.10209782f, 0.15479946f, 0.14438067f, 0.02502524f, 0.00698734f, -0.15710007f, -0.35766312f, 0.18350179f, -0.12352468f, 0.12634027f, -0.10841505f, 0.21651034f, -0.33278799f, 0.07666081f, 0.22362539f, 0.19188508f, -0.37230667f, 0.27879933f, 0.42423111f, 0.29771426f, 0.00243786f, 0.17336664f, 0.23904303f
};

// shape: [6]
static const float string_head_bias[6] = {
    -0.03772847f, -0.17183863f, 0.03411197f, 0.00789633f, -0.00903773f, 0.12858476f
};

