// Auto-generated - DO NOT EDIT
// OnsetNet weights for Daisy Seed bare metal inference
// sr=48000 note_vocab_size=49 window_samples=768

#pragma once
#include <stdint.h>

#define ONSET_SR                 48000
#define ONSET_NOTE_VOCAB_SIZE    49
#define ONSET_WINDOW             768
#define ONSET_WIDTH              96
#define ONSET_N_STRINGS          6

static const char* onset_pitch_names[] = {
    "E2",
    "F2",
    "F#2",
    "G2",
    "G#2",
    "A3",
    "A#3",
    "B3",
    "C3",
    "C#3",
    "D3",
    "D#3",
    "E3",
    "F3",
    "F#3",
    "G3",
    "G#3",
    "A4",
    "A#4",
    "B4",
    "C4",
    "C#4",
    "D4",
    "D#4",
    "E4",
    "F4",
    "F#4",
    "G4",
    "G#4",
    "A5",
    "A#5",
    "B5",
    "C5",
    "C#5",
    "D5",
    "D#5",
    "E5",
    "F5",
    "F#5",
    "G5",
    "G#5",
    "A6",
    "A#6",
    "B6",
    "C6",
    "C#6",
    "D6",
    "D#6",
    "E6",
};

// shape: [49, 96]
static const float note_head_weight[4704] = {
    -0.03332247f, -0.00592009f, -0.16370115f, 0.21055765f, -0.05099298f, -0.33564350f, -0.04012091f, 0.18484774f, -0.11225795f, 0.10410595f, -0.02594507f, 0.18734112f, -0.08820433f, -0.09390461f, -0.00105784f, 0.19598629f, -0.03974187f, -0.06641369f, 0.12558338f, 0.06626199f, -0.26627484f, 0.20903935f, -0.11316325f, -0.01489572f, -0.02810228f, -0.14954762f, 0.07100566f, -0.67458194f, -0.18641271f, -0.07103739f, -0.09553456f, -0.04777697f, 0.11143474f, 0.02446412f, -0.19410625f, 0.15542433f, 0.24738690f, -0.08029493f, -0.15722851f, 0.15163285f, 0.33504224f, 0.30976003f, 0.06400419f, -0.17331330f, -0.58296174f, 0.25000083f, -0.04957404f, 0.40949044f, 0.34339479f, -0.41323146f, 0.17350498f, 0.08653194f, -0.07805410f, 0.03820810f, -0.02650147f, 0.30133373f, 0.27287272f, 0.47413841f, -0.09662355f, 0.00924687f, -0.10503942f, -0.35203126f, 0.10591329f, 0.12954153f, -0.40760088f, 0.13390602f, 0.37726375f, -0.03735258f, -0.88038379f, -0.13293426f, 0.06902815f, 0.01625903f, 0.01493583f, -0.25427076f, 0.22683203f, -0.50598162f, -0.31033662f, 0.28201017f, -0.02149048f, -0.23895116f, -0.29236877f, -0.63697982f, 0.44864115f, 0.29032701f, 0.31242758f, -0.17628521f, 0.24522866f, 0.11100813f, -0.10255525f, 0.07779534f, -0.31972411f, -0.32242781f, -0.02562587f, -0.21559942f, 0.30413905f, -0.54769051f, -0.38072947f, -0.01025632f, 0.07079888f, -0.01328216f, 0.04090339f, -0.46109319f, -0.35757279f, 0.19281001f, -0.01487445f, -0.28745466f, -0.08001497f, 0.36693850f, 0.34224552f, 0.23764689f, -0.11836982f, 0.31034371f, -0.18690333f, 0.10063947f, 0.32955405f, 0.15553123f, 0.19504449f, -0.10378725f, 0.06477154f, -0.06197537f, -0.24412882f, -0.06453027f, -0.13177961f, 0.27466986f, -0.02285336f, -0.00954374f, -0.10748557f, -0.25382355f, 0.12266466f, -0.01912427f, 0.36810783f, -0.20691688f, -0.21574768f, 0.14808580f, -0.44733727f, 0.33959833f, -0.38177672f, -0.32371575f, -0.06955871f, 0.14737876f, -0.66725594f, -0.21474420f, -0.09187362f, -0.82185620f, 0.34866408f, 0.16219746f, -0.01536512f, -0.08402450f, -0.16332401f, -0.04084161f, 0.04699713f, -0.18871483f, -0.16480903f, -0.55680662f, 0.05774374f, -0.18590569f, 0.55507052f, 0.30573910f, -0.05588474f, -0.11985630f, -0.02648744f, 0.31379572f, 0.08474742f, -0.07348771f, 0.07389900f, 0.08171057f, 0.10391025f, -0.00715722f, 0.34208158f, 0.42285267f, -0.27032405f, 0.20948805f, 0.16370292f, 0.05882944f, -0.54766423f, -0.42199722f, 0.32962433f, 0.30209857f, 0.23482305f, -0.65624636f, -0.06462289f, 0.23367566f, -0.19810528f, -0.11067002f, 0.15096204f, -0.12979764f, 0.16982774f, 0.31330007f, -0.33265775f, 0.16221333f, -0.79469043f, 0.31222931f, 0.04824207f, -0.24022558f, -0.09751250f, 0.00185036f, 0.14452632f, 0.23378827f, -0.27555829f, -0.36203611f, 0.24386428f, -0.11188686f, 0.54438138f, 0.11622445f, -0.29612687f, -0.46045035f, -0.78268623f, 0.27730593f, 0.44602600f, 0.00333791f, 0.19026297f, 0.28913096f, -0.34618700f, -0.04056027f, 0.08431597f, -0.13198835f, 0.50834560f, 0.13720985f, -0.56532490f, -0.04240219f, -0.26059064f, 0.03435772f, -0.18936293f, -0.13902463f, 0.07935350f, -0.02894664f, -0.06552095f, 0.22003825f, -0.16493146f, 0.32014781f, -0.54930097f, -0.02615600f, -0.07502696f, -0.29728386f, -0.08392064f, 0.23485906f, 0.18414506f, 0.17361353f, 0.23944923f, -0.09243377f, -0.15651838f, 0.01411061f, 0.00351291f, 0.11704465f, -0.00594850f, -0.33690354f, -0.05511347f, 0.16095896f, -0.05820271f, -0.10219528f, 0.26492697f, -0.06803642f, -0.42129192f, -0.03002806f, -1.00645363f, -0.17480800f, -0.03434232f, 0.41606644f, 0.60611796f, 0.00336686f, 0.39653692f, 0.03517346f, -0.26414374f, -0.04953631f, 0.27135444f, -0.53396386f, 0.08309938f, 0.15716468f, -0.32572749f, 0.15398443f, 0.11521054f, 0.32960573f, -0.09297060f, 0.16871649f, -1.06035566f, 0.33566484f, -1.08465981f, 0.11593369f, -0.22922236f, -0.63278896f, -0.32753778f, -0.03809551f, 0.17856039f, 0.00414560f, 0.32423365f, 0.08828948f, 0.50253081f, 0.29254085f, 0.44383559f, 0.21719569f, -0.28397417f, -1.10942554f, 0.11721781f, -0.08695715f, 0.26473635f, 0.41240329f, 0.31788218f, 0.30466855f, -0.06591055f, 0.28701138f, 0.06198564f, 0.07417787f, -0.52927917f, 0.28148401f, -0.46423227f, -0.37188521f, -0.16982917f, -0.14257839f, -0.33144224f, -0.00670606f, 0.15090317f, -0.17500450f, -0.37050995f, 0.40283903f, 0.59747773f, -0.07225328f, 0.32395327f, -0.43750992f, 0.30154973f, 0.15591662f, -0.12913525f, -0.30301371f, 0.28625178f, -0.10522079f, 0.15562442f, 0.17412794f, 0.13422999f, -0.46500289f, -0.24200116f, -0.65373009f, -0.21234410f, 0.07100940f, 0.23307896f, 0.35737684f, 0.01787703f, -0.33323768f, -0.33084676f, -0.13760048f, 0.04822067f, -0.10627186f, 0.22792245f, -0.26169926f, -0.00039548f, 0.48149422f, 0.09601486f, -0.11579764f, -0.55907154f, -0.30694073f, 0.29081029f, -0.18747960f, -0.27587545f, 0.13548961f, -0.03315692f, -0.36490992f, 0.27298152f, 0.05010638f, 0.22884555f, -0.67605710f, 0.40612563f, -0.12462439f, 0.02983023f, -0.00495594f, 0.18433768f, 0.22737767f, 0.02912804f, -0.45598572f, 0.28381646f, -0.23975754f, 0.28405073f, -0.04127237f, -0.64999980f, 0.19705546f, -0.03676704f, 0.08118530f, 0.19769078f, -0.20638333f, 0.25914055f, -0.04876994f, -0.22208230f, 0.19064863f, -0.04710203f, -0.02319745f, -0.74317211f, -0.06394184f, 0.08618625f, 0.04068600f, 0.38830703f, 0.29213846f, -0.11356919f, -0.32734129f, 0.08264375f, -0.15014523f, 0.02688799f, -0.26991579f, -1.30080318f, 0.43804252f, -0.02255520f, 0.51966554f, 0.14065658f, -0.18190739f, -0.61071473f, -0.26345605f, -0.45446476f, -0.21009110f, -0.21305570f, 0.10658073f, 0.12214211f, -0.16673344f, 0.04278221f, 0.02871122f, 0.09656765f, 0.01780686f, 0.33898458f, -0.04034318f, -0.15842122f, 0.32008252f, -0.15572330f, -0.23762320f, 0.36348200f, 0.12630656f, -0.27037352f, -0.23830365f, 0.37055919f, -0.54311675f, 0.07708853f, -0.07431722f, -0.08337504f, 0.41692913f, 0.68252391f, 0.14325167f, -0.10671481f, 0.01523741f, -0.01873227f, -0.45572132f, -0.03803970f, 0.15152483f, -0.13498503f, -0.17539620f, 0.02785127f, -0.62130463f, -0.10990041f, 0.37124979f, -0.08473745f, 0.11241157f, -0.22961433f, -1.11760271f, 0.41472468f, 0.21206234f, 0.07298143f, -0.13697357f, -0.28551874f, 0.08555726f, -0.03515792f, 0.38666144f, -0.38093385f, 0.18800183f, 0.27234459f, 0.08938752f, -0.18236692f, -0.01264096f, -0.36229312f, 0.15260363f, 0.14091271f, 0.05595289f, 0.23805039f, 0.07150677f, 0.13718714f, -0.12821965f, 0.11241622f, -0.23087287f, -0.14601937f, 0.06971729f, -0.25638935f, 0.25525635f, 0.19284289f, 0.34264642f, -0.13057959f, -0.54812467f, 0.28064716f, -0.28648615f, 0.19881354f, -0.12589407f, 0.16185337f, 0.20730017f, -0.22470494f, -0.02511108f, -0.05673802f, 0.43215275f, -0.26960334f, -0.31424046f, -0.99845725f, 0.09302620f, -0.11723050f, -0.10445964f, 0.02446643f, -0.27713677f, 0.33563933f, -0.27648729f, 0.31295699f, -0.03713038f, -0.13132821f, 0.00455360f, -0.29529506f, 0.01057379f, -0.17729831f, 0.40024352f, -0.13802318f, 0.05319367f, -0.53384817f, 0.00290347f, 0.17596212f, -0.00042028f, 0.33697227f, 0.40410957f, 0.47231343f, 0.20150174f, -0.00341772f, 0.28437322f, -0.15455411f, 0.09757396f, 0.14363316f, 0.40002319f, 0.25816956f, 0.28711131f, 0.28592968f, -0.26387277f, -0.19903347f, 0.30774811f, -0.06796998f, 0.15938587f, -0.15494746f, 0.06408993f, 0.34444955f, 0.07922955f, 0.11258414f, 0.62036133f, -0.16959096f, -0.26519653f, -0.45903230f, -0.14042264f, 0.47639957f, 0.45233810f, 0.40322289f, -0.27444950f, -0.14562650f, 0.31480658f, -1.39252913f, -0.13033372f, -0.49600774f, -0.22726610f, -0.15164308f, 0.10522471f, -0.27497509f, -0.31055477f, -0.14551522f, -0.16479500f, 0.19761582f, 0.25403807f, -0.11596863f, -0.14323077f, -0.79840600f, -0.07692488f, 0.12210809f, -0.38197166f, 0.01445562f, -0.41978714f, -0.20966254f, 0.01575835f, -0.13549730f, -0.01563420f, 0.09682651f, -0.21604879f, -0.12292421f, 0.15586710f, 0.03094326f, -0.23273560f, -0.06971097f, 0.13195071f, 0.31738463f, 0.00808638f, -0.17142673f, -0.07531828f, -0.06166099f, 0.22900425f, 0.03809423f, 0.23561625f, 0.53249246f, 0.34933862f, -0.02390277f, -0.11584883f, 0.15201987f, 0.22581403f, 0.60517532f, 0.29582369f, -0.09564411f, -0.18244983f, -0.35837224f, 0.12400783f, -0.19975989f, -0.29890332f, 0.16397560f, -0.61956459f, -0.15822770f, 0.06664149f, -0.04557241f, 0.11025376f, -0.49388865f, -0.14491534f, -0.05613871f, -0.30290094f, -0.01783401f, -0.13995790f, -0.08349366f, -0.06303582f, 0.41266665f, 0.26283604f, 0.18375646f, 0.34397846f, 0.08641530f, -0.18627867f, -0.59254473f, -0.36296439f, 0.12363792f, -0.14216568f, -0.00475918f, -0.20000361f, -0.02172193f, 0.26900837f, -0.18904859f, -0.16766557f, -0.11237814f, -0.02448057f, 0.04101070f, -0.09978159f, 0.29030621f, 0.11877166f, -0.25454333f, 0.12352782f, -0.18813424f, 0.04976052f, -1.05824757f, 0.19280855f, -0.00915559f, 0.05180763f, -0.34146222f, -0.25579241f, -0.07766709f, -0.28181589f, 0.09278544f, 0.10377379f, -0.00567950f, 0.33121744f, -0.39404115f, 0.30311006f, -0.89267576f, -0.15685020f, 0.10805755f, -0.03517653f, 0.01890336f, 0.47512811f, -0.04727294f, 0.46122387f, -0.17510089f, 0.04584397f, -0.01914977f, -0.44814673f, 0.10771577f, -0.28389862f, -0.08826467f, -0.16549294f, -0.27284387f, 0.33971453f, -0.31022561f, 0.44605085f, 0.08205735f, -0.12218137f, 0.03861757f, -0.41953066f, -0.55403137f, -0.14725482f, 0.08202650f, 0.05874009f, 0.45358145f, -0.81448555f, -0.27791715f, -0.29411602f, -0.45144266f, -0.11141723f, 0.44941258f, -0.06561149f, 0.11046301f, 0.28552976f, 0.18852012f, -0.31082979f, 0.64391911f, 0.13440776f, 0.02801770f, 0.01366831f, 0.06286620f, -0.26644555f, 0.14919166f, 0.20940842f, 0.06244633f, -0.14241681f, 0.21837096f, -0.29465947f, 0.22533824f, 0.20325884f, -0.01580280f, 0.02115314f, -0.00382495f, -0.18886440f, -0.47078362f, 0.10124244f, -0.17094377f, -0.08627419f, -0.38672760f, 0.52366066f, -0.13158658f, 0.00103519f, -0.07286301f, -0.06667281f, -0.35746658f, 0.28897682f, -0.00355809f, -0.48350310f, 0.10793138f, -0.04098793f, 0.17517711f, 0.29686186f, 0.07085186f, -0.14245665f, 0.05989857f, 0.35221666f, -0.16579586f, -0.08429916f, 0.37092555f, -0.24695730f, 0.23757188f, -0.37003267f, 0.29637018f, 0.22045772f, -0.21383381f, 0.05188261f, -0.32877892f, -0.14238067f, -0.17815076f, -0.24623157f, -0.14868975f, 0.17454973f, -0.05628106f, -0.40566111f, 0.17622416f, 0.41866523f, -0.44176027f, 0.39010271f, -0.58154368f, -0.20249391f, 0.39962348f, -0.05067023f, -0.25009146f, -0.50125641f, 0.05983175f, -0.23918632f, -0.20185892f, 0.20529412f, 0.08729172f, -0.01529841f, 0.15809058f, 0.42543319f, 0.31464657f, -0.74378914f, -0.02948389f, 0.19256182f, -0.17525387f, -1.01816082f, -0.05189611f, 0.15759306f, 0.22797695f, 0.16873924f, 0.21174993f, 0.02414653f, -0.48607635f, -0.22911340f, 0.34797877f, 0.01958672f, 0.22102407f, 0.14875042f, -0.08476442f, 0.32645100f, -0.04494714f, 0.23606721f, -0.47880459f, 0.12581721f, -0.12758003f, -0.06356151f, 0.09089128f, -0.17518942f, -0.04199632f, 0.24513935f, 0.01001120f, 0.11088489f, 0.53228289f, -0.37038967f, -0.23675948f, -0.06762886f, 0.27854717f, -0.03006871f, 0.07859500f, 0.09601057f, 0.06698991f, -0.06004566f, 0.52070731f, -0.01029116f, 0.05178904f, -0.11912205f, 0.12048688f, -0.47192469f, 0.08921673f, -0.78767866f, 0.23956653f, 0.08003318f, 0.25160074f, -0.40982959f, 0.03107190f, -0.46168637f, -0.46923283f, 0.01966560f, 0.41703761f, -0.87127125f, -0.11231721f, -0.21272632f, 0.34740895f, 0.14861324f, -0.03603091f, -0.14365658f, 0.28216273f, -0.26811394f, -0.14503646f, -0.05543097f, 0.07203206f, -0.19206229f, 0.06111997f, -0.16513591f, -0.00082360f, -0.05604120f, 0.57874918f, -0.07086676f, 0.18392490f, -0.59477353f, 0.24746279f, -0.55317044f, 0.14311826f, -0.16618031f, -0.40274411f, 0.00145681f, 0.37732074f, 0.15994518f, -0.00783311f, 0.05860246f, 0.24392781f, -0.35581583f, -0.17791131f, -0.43090457f, 0.15532672f, -0.12586369f, 0.14163145f, -0.11202187f, -0.16262557f, -0.24853244f, 0.28502864f, -0.30328277f, -0.23798852f, 0.04585657f, -0.04065250f, -0.03755417f, 0.13523157f, 0.43175334f, -0.29605818f, 0.06284376f, -0.24021512f, 0.22630106f, -0.00861751f, 0.11100621f, -0.11152183f, -0.11388310f, -0.00515318f, -0.97000784f, 0.65314388f, -0.26516837f, -0.20603737f, -0.27285960f, -0.01884454f, -1.21976447f, -0.24869068f, -0.18811232f, -0.06473958f, 0.15736215f, 0.08933712f, -0.01056285f, 0.19921167f, 0.02506781f, 0.24425666f, -0.13592638f, -0.10309623f, 0.22931981f, -0.08465839f, 0.09455374f, 0.30477753f, -0.14461611f, -0.06852528f, -0.02824358f, 0.31798550f, 0.20819697f, -0.33518025f, 0.01088833f, 0.01667307f, 0.18208407f, 0.00073272f, -0.02945199f, 0.07186897f, 0.01935337f, 0.41882527f, -0.16885220f, -0.02620958f, -0.23709188f, -0.23975743f, 0.02386372f, 0.37201962f, 0.26288450f, -0.17130908f, 0.46094903f, -0.55177480f, 0.25770488f, 0.57582539f, -0.29753226f, 0.30133736f, -0.35783502f, -0.14530885f, 0.21310247f, -0.28316772f, 0.52606183f, -0.09347916f, -0.35850760f, 0.01360637f, 0.16539694f, -0.28554991f, -0.22703628f, -0.24259391f, -0.25081295f, 0.17873330f, -0.24171025f, -0.06632612f, 0.53245175f, -0.09205159f, -0.15203585f, -0.49280646f, -0.06722090f, -0.02514127f, 0.15652281f, -0.23850977f, 0.35573322f, 0.20216084f, -0.21949285f, -0.04499089f, 0.07540172f, -0.02741318f, 0.22421536f, 0.50078982f, -0.10031715f, -0.11380945f, -0.20005617f, -0.12417074f, 0.25641373f, -0.18826605f, -0.44824749f, -0.44295448f, 0.03164354f, -0.21898203f, -0.24486621f, -0.12574618f, -0.04460657f, -0.07128496f, 0.14115036f, 0.08803527f, 0.03810968f, -0.40263894f, -0.07589259f, -0.64587647f, 0.55199003f, 0.04828258f, 0.11535022f, 0.17256743f, -0.18577044f, -0.51414436f, -0.12200671f, -0.86058521f, -0.21889557f, 0.24819434f, -0.02268419f, 0.05494596f, 0.09708098f, 0.01524670f, 0.18917954f, -0.03938374f, 0.22897480f, 0.15744348f, -0.02443723f, -0.42005932f, -0.02637798f, -0.18721940f, 0.28927562f, 0.18273637f, 0.14011271f, -0.17043896f, 0.36016449f, -0.17800735f, 0.10710616f, -0.00386908f, -0.03551590f, 0.43160051f, 0.28496030f, 0.20115624f, 0.13848354f, 0.31106263f, -0.07013425f, -0.36354214f, -0.04104539f, -0.09718600f, -0.12341479f, -0.74462157f, -0.13248014f, 0.62393779f, -0.18999356f, 0.02599303f, -0.18552196f, 0.14937635f, -0.06638642f, -0.56662607f, -0.28518996f, -0.32981533f, 0.12995169f, 0.11476212f, -0.00134313f, -0.26264703f, -0.25428835f, -0.17480329f, 0.14279394f, -0.20110393f, 0.51914430f, -0.12474720f, 0.13110128f, 0.24909365f, 0.00367062f, -0.26772365f, 0.14239524f, -0.19248940f, 0.62114018f, 0.03746030f, 0.18229277f, 0.09988245f, -0.15731075f, -0.62179065f, -0.07687533f, 0.31960467f, -0.01171945f, -0.26764354f, 0.30649057f, -0.05656790f, -0.42027998f, -0.10939474f, -0.24631955f, -0.14238364f, 0.00344459f, 0.08645854f, 0.23238520f, -0.01900856f, 0.01592056f, 0.06720641f, -0.22827242f, -0.22991586f, -0.04745611f, -0.45714587f, -0.17589970f, 0.20893918f, 0.49269110f, -0.48237628f, 0.11087740f, -0.20991263f, -0.05253914f, -0.41597632f, 0.28723159f, 0.38333353f, 0.36420515f, 0.36412162f, 0.11936729f, 0.02812555f, -0.21303892f, 0.00264651f, -0.23859672f, -0.37376231f, -0.09302884f, 0.09354220f, 0.03082100f, -0.30452171f, -0.04569072f, -0.08695690f, -0.54061335f, -0.76038313f, -0.76348662f, -0.05284395f, 0.25906333f, -0.14017065f, -0.23050204f, -0.10630704f, 0.02966009f, -0.10570657f, 0.18161139f, 0.23457822f, -0.26455799f, 0.36435151f, -0.10045186f, -0.03190398f, 0.63744622f, 0.39387050f, -0.01076867f, 0.05395347f, -0.17311774f, -0.59123629f, -0.15633933f, -0.11594461f, 0.22091416f, -0.01160912f, 0.34179857f, 0.02312546f, -0.43210962f, -0.21384668f, 0.02698271f, -0.25044832f, 0.09660821f, 0.31761596f, 0.21986578f, 0.10309744f, 0.01018932f, -0.04658020f, 0.12371909f, -0.11124855f, 0.13834639f, -0.16048762f, -0.11008764f, 0.12750889f, -0.10340222f, 0.07506228f, -0.23687389f, 0.55823123f, -0.92758620f, -0.03306753f, 0.41174915f, -0.32021329f, 0.15214586f, 0.25796899f, 0.14663421f, -0.09011401f, -0.07436822f, -0.30400312f, -0.24560395f, 0.43075427f, -0.41264731f, -0.12693149f, -0.33838770f, 0.00939377f, 0.23198052f, 0.24563262f, -0.03139821f, -0.10646013f, 0.11783323f, 0.05133740f, -0.22927892f, 0.75379825f, -0.18911321f, -0.10776665f, -0.15274560f, 0.09488355f, -0.29325780f, 0.06752571f, -0.30741769f, -0.30067986f, -0.52707273f, 0.30057171f, -0.12693101f, 0.22421215f, -0.02724347f, 0.08977102f, -0.26678944f, 0.11636603f, 0.26688015f, -0.32025865f, -0.09158209f, -0.06219277f, -0.27409783f, 0.17820914f, -0.16682692f, 0.39100152f, -0.01061694f, 0.07939899f, -0.14595875f, -0.08650948f, -0.40944219f, -0.07022338f, 0.23568355f, -0.11338994f, -0.26326638f, 0.24610956f, 0.15480217f, -0.26692325f, 0.33315960f, 0.22886688f, -0.05479845f, -0.02590543f, 0.13527542f, -0.42679593f, 0.11420758f, 0.18657833f, 0.01710125f, -0.39979771f, -0.59996194f, 0.02363017f, 0.18077551f, 0.21914890f, 0.34828642f, -0.14150019f, 0.72885597f, -0.13127296f, -0.14939728f, 0.05231393f, -0.07395649f, -0.07629891f, -0.00701017f, -0.17150603f, -0.00374993f, -0.17602767f, -0.15027590f, 0.01043272f, -0.27662107f, -0.28900516f, 0.16304113f, 0.04707265f, -0.69783062f, 0.01008876f, -0.52259958f, 0.45402250f, 0.26557568f, -0.10746925f, -0.28665891f, -0.00937868f, -0.27157518f, -0.28400412f, -0.03355737f, 0.14469796f, -0.04759307f, 0.01824558f, 0.03639431f, 0.40810043f, -0.20799476f, -0.04216274f, 0.36559057f, 0.09274779f, -0.24368283f, -0.25771543f, 0.76101124f, 0.32814008f, 0.19205067f, -0.31280819f, -0.27061501f, 0.07930242f, -0.24746096f, -0.75871223f, 0.24549972f, -0.24642269f, -0.01586834f, 0.16219123f, 0.20411305f, -0.27714533f, 0.07189999f, -0.69893622f, 0.05521233f, 0.11629422f, 0.25940603f, 0.14033327f, -0.51738924f, -0.04249451f, -0.08242911f, 0.35057637f, 0.01370127f, -0.36396328f, -0.19412704f, -0.26540184f, -0.30376786f, -0.00408292f, -0.10265558f, 0.49047521f, 0.22829515f, -0.04017880f, -0.07409286f, 0.23678519f, -0.19411570f, -0.00138116f, 0.08367249f, -0.56706125f, -0.20666979f, -0.34765768f, -0.09813498f, 0.05061972f, -0.19799560f, 0.00845519f, -0.22358999f, 0.29032761f, -0.15946819f, -0.10607589f, -0.08836310f, 0.15362222f, 0.36597323f, 0.38184723f, 0.02693173f, 0.02757089f, 0.28684768f, -0.10817110f, -0.00646093f, -0.00222637f, -0.24146301f, -0.04996882f, 0.05342140f, 0.22290166f, -0.21278518f, -0.42283648f, -0.22771829f, -0.15682420f, 0.21880645f, 0.14514421f, 0.07658241f, 0.08230852f, -0.08155318f, -0.20894204f, -0.06856493f, -0.19511010f, -0.12708645f, -0.49741635f, 0.30877557f, -0.03789265f, -0.08936147f, -0.87147248f, -0.06332368f, 0.12204012f, -0.05355813f, -0.06821937f, 0.12292282f, 0.09183272f, 0.17322758f, -0.15224120f, -0.19526605f, -0.25299868f, -0.30515802f, -0.00198124f, -0.12050927f, -0.16756220f, 0.45202169f, 0.60879022f, -0.62393951f, 0.04265668f, -0.02278023f, 0.13411514f, 0.11147232f, 0.40421903f, 0.12445069f, 0.08798487f, 0.00969076f, -0.01706043f, -0.07001323f, -0.41219366f, -0.00685963f, 0.08048593f, 0.05562390f, 0.01086163f, 0.09490058f, -0.09284856f, -0.11941315f, -0.08494631f, -0.16305700f, -0.18533941f, -0.21585533f, 0.40584734f, 0.09783740f, 0.33724540f, 0.41190246f, -0.33251789f, -0.08754955f, 0.45378634f, -0.41709891f, 0.02176419f, 0.31377667f, -0.06611080f, -0.22829083f, -0.17433126f, 0.14685148f, -0.03091733f, -0.06970851f, 0.39434269f, -0.37831047f, 0.18201855f, 0.35481313f, -0.13399027f, -0.09997582f, 0.15995701f, 0.45237109f, -0.10475748f, -0.13942218f, -0.32257992f, -0.08766878f, -0.96196580f, 0.10246033f, -0.28741047f, -0.56914395f, 0.17721044f, 0.09203846f, -0.28015077f, -0.01438749f, -0.17305866f, -0.10815965f, -0.15894134f, -0.05750298f, -0.01754889f, -0.19459742f, 0.18836100f, 0.39211720f, -0.28807524f, 0.11500735f, -0.30113053f, 0.01908753f, -0.04357748f, 0.43486974f, 0.20192641f, 0.03416426f, -0.22604080f, -0.06011995f, -0.06826764f, 0.06161441f, 0.13944009f, 0.08824071f, -0.08474554f, -0.00754689f, -0.20531219f, -0.87611914f, -0.05606891f, -0.20069952f, 0.39191431f, 0.04072956f, 0.06828598f, -0.14779542f, 0.03765848f, -0.10541593f, -0.23786713f, 0.49816030f, -1.25710559f, 0.53588426f, 0.08357160f, 0.01097442f, 0.30755940f, -0.22586462f, 0.62248516f, 0.35352802f, -0.07566299f, -0.07426057f, 0.07935806f, -0.27722329f, 0.07603020f, 0.00802177f, -0.01497374f, -0.14484785f, 0.13710968f, -0.00061418f, -0.15978082f, -0.25156751f, 0.00226654f, 0.09433766f, -0.16339494f, 0.13893396f, -0.28701308f, -0.20174147f, -0.03482905f, -0.39694661f, 0.03223311f, -0.06681174f, -0.16139974f, 0.10005727f, -0.11176339f, 0.29872245f, -0.17744230f, -0.32900503f, 0.09667122f, -0.48123151f, -0.36425692f, -0.34005889f, -0.22353788f, -0.15529457f, -0.04243866f, 0.72334385f, 0.00975468f, -0.06971733f, -0.77562809f, 0.01759939f, -0.20224145f, 0.09607913f, -0.35621351f, 0.00256883f, -0.02188536f, 0.08848409f, 0.08664618f, 0.11791258f, 0.15915798f, 0.00982513f, 0.23191869f, 0.15535292f, -0.15127313f, -0.14250121f, -0.34712887f, -0.00223712f, 0.30006430f, 0.62974709f, -0.15547398f, 0.11428411f, 0.22039722f, -0.05087581f, -0.01060297f, -0.15811063f, 0.03764921f, -0.02868243f, -0.29127085f, -0.02375772f, 0.19980855f, 0.19845176f, -0.08979434f, 0.48044011f, 0.35005140f, -0.23162895f, -0.17770559f, 0.14024690f, 0.26137751f, 0.65307939f, -0.05582549f, 0.22915050f, 0.12579738f, 0.19887900f, 0.06967244f, 0.26599577f, -0.29055670f, 0.00217479f, -0.06561371f, -0.35440037f, -0.20212503f, -0.48113924f, -0.16661257f, -0.19269258f, -0.04853321f, -0.22219242f, -0.11307610f, -0.32653293f, -0.20419945f, -0.07672414f, 0.38919446f, 0.05210583f, -0.01540277f, -0.11572622f, 0.33491620f, 0.12748161f, 0.30244216f, 0.21165904f, -0.17015029f, -0.25385058f, -0.04910340f, -0.33046994f, -0.31479070f, -0.23285948f, 0.20725226f, 0.06810920f, -0.25298867f, -0.04221946f, -0.06639453f, -0.34532297f, 0.08714973f, 0.34304625f, 0.00259311f, -0.61872762f, -0.06448779f, 0.02466791f, 0.09100123f, -0.02691549f, 0.06357650f, 0.16701244f, -0.01350326f, -0.18900596f, 0.17689838f, 0.12724270f, -0.00126828f, -0.04353924f, 0.06610161f, -0.03088620f, -0.08363287f, -0.29363647f, 0.35723054f, 0.27623832f, 0.03519432f, -0.05223579f, -0.01023298f, -0.02628991f, -0.21843517f, 0.24474336f, -0.34197831f, 0.06049328f, 0.02971260f, 0.10864055f, -0.12362624f, -1.42162728f, 0.61776674f, -0.24860746f, -0.12034199f, -0.30603877f, 0.01742443f, -0.15512276f, -0.09368280f, -0.08456729f, -0.06705598f, -0.16070029f, -0.14396349f, 0.05599570f, -0.07698207f, 0.40506580f, 0.07772321f, -1.15340996f, 0.25067338f, -0.26543859f, 0.00753154f, -0.08989054f, -0.55564463f, -0.04396018f, -0.09264039f, -1.00257945f, -0.02037745f, 0.19446263f, -0.39765486f, 0.14640993f, -0.03301239f, 0.12495106f, 0.06682326f, -0.55867219f, -0.03973919f, 0.03222769f, -0.29604176f, -0.16334487f, -0.19852556f, -0.09288428f, -0.65364450f, 0.04620757f, 0.08121611f, -0.58323264f, 0.49055997f, -0.02035258f, -0.39897984f, 0.03279745f, -0.39682156f, -0.17500667f, 0.42115897f, 0.09835803f, 0.31210425f, 0.40210602f, -0.01225329f, -0.57908261f, -0.05770266f, 0.03111200f, -0.05887768f, -0.41784772f, 0.02525429f, 0.03150916f, 0.14288540f, -0.20924896f, 0.47846070f, 0.19727661f, -0.23413785f, 0.12325159f, -0.00928142f, 0.23226836f, -0.10803255f, -0.24879359f, -0.26326987f, -0.00553936f, -0.22996083f, 0.13701345f, 0.57717335f, -0.47714004f, -0.02241048f, -0.26507419f, 0.63545889f, 0.13184680f, 0.03782911f, 0.10178234f, -0.27675769f, 0.07895419f, -0.27948636f, 0.05087880f, 0.05446165f, -0.08488247f, 0.44889614f, 0.22180441f, 0.12631859f, -0.18321845f, 0.14425553f, -0.02753411f, 0.08741225f, 0.18728065f, 0.42058823f, 0.18914557f, 0.10738745f, 0.11426166f, 0.28265977f, -0.00136528f, -0.13597472f, 0.05877392f, -0.08546851f, -0.15566957f, -0.05088501f, -0.07408312f, -0.43954152f, 0.16722675f, -0.02715097f, 0.06100649f, 0.33277136f, -0.16873018f, 0.40347311f, 0.16154672f, -0.00310878f, -0.53051102f, 0.32130566f, 0.44684926f, -0.11099453f, 0.29290816f, 0.00447643f, 0.11839867f, 0.01602318f, 0.47412062f, -0.16918643f, 0.06129655f, -0.40179271f, 0.10991979f, -0.03252651f, 0.16706420f, 0.00423362f, -1.07716835f, 0.22811916f, -0.23468810f, -0.29584217f, 0.23752415f, 0.65277898f, 0.12579140f, 0.16043817f, -0.00765366f, 0.05257209f, 0.18675929f, 0.28003934f, 0.14754492f, -0.29739624f, -0.27363473f, 0.04869440f, 0.37190542f, -0.33901969f, -0.32384560f, -0.39044666f, 0.20306042f, 0.06398010f, 0.04279884f, -0.21605036f, 0.07333201f, 0.05244526f, 0.11224198f, 0.16530503f, -0.42759705f, -0.19524719f, -0.53840715f, 0.01330756f, 0.12183098f, 0.00249216f, -0.21257456f, -0.14972627f, -0.31163847f, 0.03415404f, -0.20723565f, -0.00915835f, -0.25378796f, -0.24007799f, -0.12764032f, -0.15434933f, -0.22162072f, -0.19022703f, 0.18964264f, 0.14806384f, -0.27614391f, -0.25419846f, -0.18420574f, -0.06542684f, 0.10601211f, 0.02695234f, -0.32460728f, -0.51082087f, 0.13947597f, 0.17243080f, 0.61919200f, -0.97781497f, 0.27329913f, 0.07182098f, 0.06330821f, -0.43909910f, -0.14486641f, -0.16345270f, -0.02398435f, 0.10929671f, 0.27859440f, -0.19562727f, -0.06223473f, 0.01318474f, 0.15011214f, -0.35393393f, 0.04104896f, 0.22597000f, -0.30200082f, -0.14689204f, -0.12970917f, 0.35263425f, 0.08758546f, -0.07091631f, 0.38234615f, 0.03409899f, 0.49929142f, 0.08873262f, -0.26502299f, -0.05780539f, 0.52119756f, -0.07168586f, -0.03128868f, -0.25929701f, -0.38429064f, -0.21255445f, 0.21433689f, -0.02120375f, 0.37970367f, -0.27444375f, -0.13237888f, 0.18667015f, 0.11309730f, -0.80683273f, -0.45418850f, -0.26556647f, -0.19461866f, 0.33284524f, -0.30507737f, -0.51612854f, 0.27258530f, 0.24027409f, -0.31217200f, 0.01724104f, -0.08771979f, 0.25047821f, 0.07024144f, -0.22674005f, 0.17682283f, -0.40590337f, 0.10861622f, -0.28534988f, -0.09756365f, 0.53498155f, 0.05621335f, -0.22503772f, -0.08967903f, -0.45366737f, 0.15233603f, -0.00912081f, 0.07411750f, -0.04465897f, 0.19213784f, 0.07128133f, 0.08683864f, -0.12707590f, -0.12768333f, 0.06532990f, 0.14482211f, -0.20347747f, 0.02903995f, 0.04969122f, 0.11084723f, -0.06670994f, 0.11712743f, -0.19488305f, 0.09963299f, 0.08215738f, -0.58596528f, -0.30797592f, 0.12139669f, -0.32036006f, 0.25146151f, 0.03754545f, 0.25844032f, -0.85983688f, 0.07186347f, 0.05690788f, 0.47261643f, -0.01484030f, 0.36679655f, -0.06267881f, 0.01454556f, -0.33653429f, -0.20445971f, -0.12663284f, -0.04014977f, 0.14875276f, 0.00254819f, 0.04720316f, 0.02270879f, 0.17654711f, -0.04884288f, 0.25764292f, 0.04767415f, -0.07486390f, 0.21393393f, -0.42392474f, -0.15791571f, 0.06991674f, 0.18575242f, 0.17604023f, -0.27800828f, -0.07247638f, -0.06672681f, -0.11249519f, 0.14553882f, -0.19530047f, -0.33302191f, 0.04520545f, 0.18644069f, -0.05261703f, 0.37883520f, 0.16493499f, 0.46813950f, -0.23335727f, -0.17591569f, -0.78705895f, -0.13811703f, -0.36297783f, -0.32334390f, 0.09636116f, -0.04078611f, -0.79227960f, 0.30274454f, -0.02792003f, 0.32190537f, -0.10976518f, -0.10505231f, 0.14046383f, 0.26579109f, -0.10358788f, -0.45959556f, 0.15635373f, 0.26391619f, -0.11885606f, -0.26219636f, 0.14781524f, -0.13957241f, -0.75325775f, 0.08564050f, -0.86268914f, 0.09450267f, 0.10515909f, -0.29087913f, -0.23280451f, -0.25707665f, -0.15774338f, -0.56519800f, 0.03669051f, 0.06820402f, -0.14401475f, -0.35196027f, -0.03195190f, 0.07290236f, 0.19867262f, -0.49375531f, -0.22769605f, 0.26226798f, 0.18430583f, 0.33139449f, -0.43108556f, 0.06527375f, 0.20844851f, 0.63749081f, 0.54918808f, 0.19046807f, -0.36183995f, 0.19138074f, 0.35259780f, 0.27897081f, 0.13318567f, 0.17663205f, 0.16754609f, 0.01341067f, 0.22983871f, 0.02384067f, -0.39459848f, -0.05862755f, -0.09743933f, -0.03030772f, -0.06825215f, -0.05192868f, -0.33146250f, 0.22109139f, 0.14163843f, 0.14909926f, -0.18032409f, 0.15491112f, 0.29527673f, 0.07038714f, 0.00428669f, 0.02277349f, -0.14567873f, 0.10689995f, -0.07886849f, 0.06413105f, 0.13566494f, -0.32505730f, 0.04930415f, 0.10353762f, -0.11079463f, -0.20429619f, -0.27150935f, -0.16013210f, -0.10923741f, -0.08343891f, 0.20867684f, 0.10263056f, -0.25578699f, 0.31263468f, -0.03287450f, 0.18776658f, 0.57070535f, 0.18474574f, -0.17110154f, 0.16337128f, -0.23314369f, -0.17929786f, 0.17180604f, -0.68315470f, 0.04313351f, 0.60624635f, -0.02609625f, -0.17040978f, -0.14361532f, 0.09851272f, 0.09276260f, 0.20845377f, 0.22802919f, 0.09268235f, -0.60866475f, -0.05354344f, -0.44026646f, 0.27605018f, -0.34608531f, -0.22454101f, 0.39130285f, 0.06389022f, -0.40737182f, -0.27474034f, -0.33110595f, 0.02128480f, -0.23082341f, 0.25424477f, -0.13417748f, -0.24819516f, -0.22897804f, 0.08286779f, -0.09734003f, -0.14025705f, -0.13840756f, 0.29035175f, 0.17292546f, -0.57826924f, -0.51693040f, 0.07143546f, 0.36209986f, -0.26886585f, 0.01596656f, 0.31748405f, 0.47504157f, 0.09063559f, 0.10992875f, -0.53064263f, -0.48530409f, 0.19920519f, 0.10431165f, 0.20722215f, -0.34325796f, -0.32890281f, 0.05476283f, -0.56816453f, 0.12672688f, 0.05011749f, -0.12571952f, -0.09766554f, -0.29997191f, -0.03121593f, 0.15236665f, -0.22235653f, -0.40072924f, -0.20498715f, -0.36235231f, -0.01617801f, -0.18215412f, -0.20807861f, -0.08909712f, -0.21388127f, -0.14023533f, -0.20552519f, -0.32513261f, 0.30180749f, -0.14471927f, 0.01869272f, -0.20882681f, -1.17378604f, -0.05460233f, -0.11944167f, -0.13991116f, 0.12423562f, 0.25999570f, -0.05136381f, -0.79049069f, 0.07880968f, 0.03075184f, 0.39694837f, 0.11931328f, 0.34496558f, 0.33596906f, -0.38214773f, 0.12193517f, 0.15411919f, 0.03013600f, -0.31930125f, 0.11089712f, -0.13055848f, 0.08566638f, -0.75852102f, -0.04847261f, 0.24298680f, 0.06284171f, -0.04737421f, -0.03292995f, -0.33361295f, -0.03881345f, 0.10813989f, 0.53599697f, -0.10639402f, -0.17286557f, -0.37373766f, -0.37942526f, 0.40731025f, 0.39472419f, -0.10401583f, -0.03080695f, -0.08681837f, -0.13006963f, 0.35968518f, -0.09372844f, 0.20217696f, -0.10669384f, -0.29243419f, 0.12091706f, -0.28398710f, 0.01556990f, -0.01388028f, -0.04188687f, 0.13524860f, -0.05052850f, 0.02809826f, 0.13484335f, -0.42097318f, 0.17993692f, 0.23554666f, 0.21656027f, 0.04945445f, -0.24809970f, 0.34104019f, -0.15643544f, -0.07461330f, 0.21202573f, 0.51049542f, -0.29176071f, 0.03610767f, 0.38580951f, -0.34776172f, 0.04802347f, -0.23133512f, 0.18396625f, -0.12994269f, 0.15372439f, 0.13215719f, 0.23887819f, 0.05809944f, 0.14218506f, -0.21040213f, -0.07542398f, -0.09800562f, 0.01852420f, 0.00892252f, -0.04837059f, 0.22356835f, -0.10524687f, 0.05172054f, 0.17659029f, 0.09542403f, 0.60342187f, 0.28739324f, 0.43371058f, -0.34087226f, 0.05163240f, 0.44885963f, 0.20003727f, -0.14063235f, -0.57245529f, -0.05928984f, 0.25579023f, 0.04123184f, -0.27505288f, 0.33253431f, -0.25591484f, 0.29945362f, 0.16264258f, 0.41965801f, 0.10408167f, -0.27224568f, -0.22107010f, -0.27298459f, 0.05452129f, 0.00850496f, -0.32610497f, 0.57852644f, -0.27105191f, -0.18055734f, -0.30111626f, 0.29070154f, -0.10902753f, -0.12588599f, 0.13723692f, -0.10513596f, -0.25963420f, 0.23292370f, 0.23275225f, -0.15567693f, 0.18109110f, -0.20908025f, 0.11642428f, -0.11370016f, 0.29323068f, -0.19499689f, 0.01211053f, 0.09880093f, 0.07023877f, -0.62425041f, -0.04486393f, -0.45086944f, -0.71202636f, -0.00652293f, -0.22187236f, 0.06958491f, 0.18121183f, 0.34254387f, 0.11037218f, 0.15826966f, -0.10155106f, -0.19695863f, 0.12225076f, 0.13086714f, -0.28484744f, -0.01584992f, 0.37284851f, -0.34145814f, 0.17507936f, -0.10945296f, -0.07467641f, 0.01931501f, -0.18236141f, -1.10025239f, -0.03852580f, -0.02248037f, -0.41004452f, 0.01193496f, 0.05715789f, -0.13154285f, 0.09787393f, 0.17553644f, -0.24705690f, -0.29555738f, -0.17405067f, -0.66716915f, 0.28254178f, 0.07182303f, -0.37728089f, -0.19346818f, -1.23141599f, 0.14944924f, 0.12875082f, -0.38763317f, 0.01591438f, -0.52291983f, 0.03785851f, -0.27006203f, -0.56774426f, -0.57679021f, 0.32397693f, -0.10720453f, 0.08240668f, 0.05941783f, 0.20930153f, 0.00637801f, -0.02769432f, -0.03924732f, -0.00111933f, -0.00525683f, -0.16193314f, 0.44751474f, -0.34035394f, -0.10021851f, -0.26957539f, -0.16493367f, 0.12823725f, -0.68452811f, -0.12917563f, -0.02574278f, -0.09297826f, 0.33193541f, 0.20140332f, -0.32923079f, 0.02229862f, -0.23235834f, 0.25741881f, -0.17920284f, 0.07706425f, -0.34326828f, -0.10723950f, 0.42392939f, -0.28163007f, 0.38891870f, -0.23861091f, -0.29788056f, 0.45903030f, 0.32576346f, 0.05602077f, 0.14855154f, 0.01094643f, -0.23794107f, 0.28702095f, -0.56883901f, 0.23719783f, -0.31256220f, 0.22183341f, -0.20860979f, 0.54143721f, -0.29341358f, 0.21896656f, -0.03501286f, -0.10017722f, -0.06447315f, -0.23387921f, 0.38737258f, 0.16035455f, 0.02172419f, -0.12761198f, -0.03869729f, -0.02175421f, 0.04321014f, 0.43615422f, 0.02303591f, -0.14592768f, 0.03717535f, 0.04916853f, -0.38393590f, 0.23783372f, 0.09050569f, -0.17696138f, 0.04495440f, 0.00060173f, -0.27239558f, 0.18929788f, -0.13680013f, -0.07326712f, -0.35819316f, 0.32727918f, 0.02624657f, -0.06137624f, 0.48381731f, -0.25246254f, 0.15056179f, 0.15459266f, -0.38082650f, 0.74282646f, -0.19215406f, 0.16064084f, -0.01455240f, 0.12008013f, 0.15505475f, 0.06038004f, -0.27972656f, -0.36319691f, -0.09389756f, 0.47313228f, 0.41709107f, -0.21226789f, -0.42036191f, 0.13307576f, 0.00287455f, 0.17485486f, 0.02705553f, -0.07578941f, -0.08814595f, -0.08500081f, -0.19666736f, -0.11695667f, -0.22268961f, -0.29391482f, 0.03500707f, 0.28842574f, 0.15963487f, -0.36025977f, -0.16508526f, -0.01940303f, -0.38392672f, 0.00341424f, 0.11150645f, -0.43358517f, -0.04622433f, 0.30138415f, 0.26464891f, 0.00492509f, -0.06429219f, -0.09054700f, -0.33156055f, -0.30072516f, 0.19634920f, -0.02650604f, 0.06765992f, 0.31097975f, -0.79040188f, -0.16407447f, -0.26137123f, -0.16089180f, 0.16393805f, 0.46642977f, -0.10686925f, -0.19005561f, -0.17928490f, 0.09872188f, -0.05655088f, 0.33261055f, -0.31658319f, 0.04816080f, 0.26197442f, 0.01925784f, 0.04702381f, -0.12882601f, 0.18150204f, 0.27472216f, -0.36412627f, 0.08174875f, 0.10335764f, -0.28427306f, -0.03146676f, 0.03112567f, -0.19017647f, -0.13614778f, -0.22866912f, 0.21209776f, -0.06573810f, -0.13649140f, -0.14344577f, 0.03269395f, 0.16674824f, -0.09126073f, -0.21933916f, -0.20439714f, -0.09498396f, -0.03874243f, 0.05353905f, -0.05726445f, -0.21902239f, -0.15522052f, 0.47465241f, -0.16247900f, 0.19129935f, -0.45790741f, 0.52557021f, 0.41451862f, 0.10035471f, -0.30977529f, -0.41535243f, 0.00983095f, -1.01272655f, 0.23141757f, -0.06136096f, -0.08236272f, -0.30352631f, 0.03565646f, 0.14568236f, -0.19861078f, 0.13471827f, -0.04061661f, -0.01557980f, 0.14037469f, -0.26037517f, 0.10813778f, 0.14195530f, 0.48574039f, -0.35994449f, 0.28688625f, -0.13595100f, -0.07789630f, -0.39217263f, 0.29585207f, -0.34777933f, 0.00497137f, 0.19859509f, 0.00796864f, 0.04699405f, 0.41252518f, 0.52684820f, 0.27388069f, -0.12349384f, -0.31770724f, -0.35216442f, 0.13668604f, -0.17708938f, -0.25119627f, 0.29591358f, 0.08390430f, -0.61406654f, -0.31576610f, -0.20389195f, 0.03715969f, 0.33757859f, -0.32259497f, 0.34612313f, 0.06817133f, -0.05692992f, -0.41373178f, -0.05132512f, -0.15389612f, -0.58511162f, -0.09406735f, 0.13943109f, 0.35868922f, -0.06551669f, -0.01233007f, -0.22919464f, -0.45408463f, 0.13091402f, -0.13544922f, 0.31966153f, -0.46948311f, 0.32374200f, 0.00836392f, -0.22510090f, 0.19885355f, -0.17974462f, 0.30674410f, -0.16461582f, -0.19650975f, 0.00970766f, -0.28051847f, -0.36654425f, 0.15163282f, -0.15640050f, 0.42239976f, 0.23140988f, -0.02710529f, 0.05302902f, 0.24038379f, 0.25477785f, 0.04992058f, 0.18845907f, -0.20941304f, -0.33885416f, 0.08168848f, -0.43430918f, -0.26385275f, 0.08384140f, 0.49596864f, 0.11280077f, 0.16521475f, 0.08167777f, -0.08903282f, 0.33548257f, -0.09150486f, 0.69048113f, -0.32667446f, -0.12632322f, -0.25138524f, -0.68215477f, -0.23611568f, 0.11471675f, 0.08509650f, -0.11312329f, 0.22215353f, -0.09929097f, 0.38118711f, 0.11443272f, 0.08709296f, -0.04138929f, -0.20206553f, -0.19783928f, -0.05046129f, 0.19983150f, 0.06966931f, -0.07813342f, -0.30604041f, -0.03974631f, -0.19141424f, -0.63467729f, 0.00723975f, -0.42704448f, 0.12319276f, -0.03410706f, -0.54741812f, -0.00591141f, 0.16353977f, 0.22204247f, -0.00284906f, -0.06376663f, -0.16712165f, -0.25052592f, -0.37240785f, -0.09934508f, -0.02850248f, 0.05210704f, -0.17518252f, 0.52046627f, -0.09797820f, 0.54978627f, 0.09087782f, -0.37043339f, -0.16147819f, -0.01691017f, -0.45758605f, 0.44575843f, -0.21398181f, -0.44200832f, 0.22059494f, -0.23778598f, -0.05228757f, 0.05177024f, 0.49557441f, -0.02305960f, -0.02192904f, -0.21107598f, -0.17378083f, 0.02600770f, -0.25171372f, 0.07541595f, -0.74245882f, 0.37734759f, 0.31336302f, 0.08144401f, -0.43781772f, -0.11073713f, -0.08007514f, 0.34805164f, -0.17043239f, 0.16758206f, -0.27166760f, 0.17087016f, -0.00577980f, -0.09980789f, 0.31166536f, 0.30433413f, 0.18337806f, -0.16407335f, 0.00792591f, -0.03216503f, -0.07631471f, -0.41438824f, -0.14026828f, 0.00561952f, -0.11697819f, -0.10286536f, 0.18446712f, -0.18513447f, 0.11964159f, 0.13259694f, -0.06882508f, 0.03080542f, 0.03407183f, -0.15471892f, -0.05815389f, 0.20856595f, 0.06175706f, -0.10757937f, 0.07198852f, -0.26226592f, -0.12061495f, -0.02713292f, 0.02312774f, -0.08286535f, 0.03009572f, -0.07352380f, -0.03980813f, -0.04196574f, 0.29254946f, 0.01639818f, -0.15019362f, -0.21879984f, -0.56076503f, -0.41592559f, 0.10902934f, 0.03222561f, -0.26169455f, 0.08813366f, 0.06382623f, 0.07400872f, -0.09563401f, 0.06639083f, 0.16460212f, 0.14860855f, 0.03101976f, -0.10892870f, -0.48534960f, -0.17693186f, 0.08638573f, 0.16531914f, -0.01669427f, -0.41483733f, -0.17186098f, 0.21087946f, 0.34696200f, -0.37437376f, 0.25212914f, 0.07483501f, -0.22328590f, 0.17363778f, 0.56844872f, 0.13515925f, -0.08428699f, -0.11930950f, 0.47232902f, 0.08425152f, -0.00558629f, 0.35866162f, 0.28831512f, 0.02853568f, 0.01414470f, -0.27507979f, -0.05374271f, -0.48532349f, 0.10174598f, -0.41248715f, 0.57519865f, -0.49771506f, -0.22528714f, -0.17426413f, 0.55474436f, -0.08604651f, -0.11449593f, 0.19848453f, 0.04880770f, -0.18397509f, -0.29464805f, 0.12748912f, 0.04186193f, -0.53367585f, 0.27786011f, -0.53210938f, 0.32784006f, 0.14687210f, -0.13409586f, -0.75370133f, -0.05542088f, -0.15709253f, -0.23064107f, 0.26649502f, -0.21046101f, -0.03914129f, -0.37228492f, -0.07764101f, -0.08586101f, 0.07433900f, 0.29288101f, -0.53200173f, -0.34444028f, 0.12081946f, -0.03530518f, -0.34064779f, -0.30528936f, -0.01600726f, -0.33973488f, -0.20753291f, -0.09699069f, -0.04300055f, -0.15482686f, -0.20049849f, -0.03319900f, -0.33825225f, 0.08164599f, -0.31089288f, 0.25383881f, -0.25651321f, -0.17800821f, 0.29380554f, 0.46225795f, -0.17376976f, -0.13627066f, -0.27177203f, -0.17652476f, -0.88692945f, 0.11075097f, 0.31649113f, -0.08386755f, -0.03476830f, 0.52560341f, 0.37012285f, -0.26519179f, 0.06750582f, 0.49779823f, 0.01886430f, -0.06726237f, -0.13816039f, -0.05578814f, -0.31840593f, 0.25907135f, 0.04930909f, -0.60512227f, -0.11831681f, -0.12739575f, 0.11531635f, 0.14327167f, 0.32014343f, 0.33608851f, 0.35812509f, 0.09273220f, -0.21586294f, -0.47106704f, -0.33861578f, 0.05674764f, 0.02814611f, -0.46381220f, -0.21527155f, -0.26146621f, -0.14932552f, 0.33857399f, -0.01100682f, -0.07864314f, 0.48424077f, 0.31125215f, 0.28571081f, -0.12756798f, -0.23442118f, 0.01054053f, 0.00383757f, -0.22909273f, 0.39169672f, -0.05184815f, -0.10999621f, -0.16891737f, -0.08051527f, -0.24386868f, 0.16010985f, 0.30199862f, -0.07190997f, 0.16234505f, 0.11570399f, -0.02667682f, 0.57245231f, 0.05838209f, -0.06723818f, -0.48030436f, -0.20430923f, 0.04237407f, -0.09595895f, -0.11520945f, -0.44266295f, 0.08056616f, -0.24060483f, -0.18701966f, 0.35843340f, -0.16636497f, -0.11579996f, -0.38159749f, -0.06706510f, -0.31687841f, -0.23738334f, 0.33180344f, -0.11535190f, -0.06423878f, 0.03731241f, 0.33241424f, 0.01555175f, 0.11246242f, 0.09214707f, 0.31198522f, 0.06061580f, -0.01227727f, 0.14051820f, 0.15379407f, 0.19701043f, -0.01287868f, -0.29214790f, -0.00201921f, 0.33796588f, -0.01783527f, 0.52556503f, -0.10737658f, -0.12424884f, -0.26137066f, -0.01202713f, -0.52353072f, 0.04473563f, 0.05051772f, -0.07821056f, 0.44929099f, 0.44447598f, 0.33662021f, 0.04122262f, -0.05846344f, 0.12412683f, 0.37150258f, -0.32388690f, -0.03934979f, -0.29661402f, -0.20058712f, -0.35321644f, -0.05026024f, -0.03480328f, 0.16758491f, 0.28421891f, -0.12398734f, -0.03904735f, -0.09054736f, 0.04099420f, -0.21847479f, 0.03300061f, -0.02498619f, 0.06231104f, -0.31619003f, -0.38539818f, -0.04988573f, -0.51387560f, 0.14888284f, 0.22235082f, -0.27405792f, -0.20464377f, 0.19888783f, 0.03169006f, -0.25481406f, -0.07375877f, -0.61442775f, -0.63127422f, -0.00284013f, 0.15613812f, -0.02703610f, 0.27415034f, 0.14037231f, 0.29750404f, 0.18537885f, -0.16935930f, -0.10637473f, 0.53823239f, 0.46028402f, -0.11422524f, -0.32190341f, -0.20041946f, 0.36740816f, -0.15789397f, 0.05410010f, 0.13319978f, -0.16157465f, 0.38194752f, 0.04131962f, -0.33624080f, -0.13979448f, 0.12936240f, 0.30804399f, 0.05086464f, -0.03820539f, -0.28796914f, 0.07677511f, 0.20379882f, -0.47152200f, 0.10969587f, 0.19826338f, -0.33078811f, -0.14524941f, -0.23142242f, 0.06894319f, -0.02038385f, -0.37013388f, -0.20757996f, 0.17076941f, 0.38341445f, -0.41388044f, 0.14015195f, -0.04447181f, 0.05237506f, -0.04391459f, 0.65652525f, 0.18192087f, 0.00754381f, 0.23918064f, -0.37623772f, -0.10632628f, 0.03584731f, -0.18539354f, 0.01637778f, 0.17266768f, -0.36191154f, -0.13871707f, -0.49260256f, 0.14419436f, -0.22026087f, 0.45879668f, -0.24237095f, -0.68287325f, 0.18757871f, -0.20461735f, -0.28623363f, -0.13953486f, 0.04548333f, 0.15794970f, 0.51432830f, -0.03058900f, -0.35058594f, -0.08410715f, 0.11504836f, 0.14928387f, -0.30235487f, -0.20846763f, -0.18407799f, -0.01813632f, 0.09937011f, 0.03651991f, -0.27997756f, 0.03082139f, -0.45961985f, -0.01316777f, 0.09342587f, -0.01021851f, -0.08036926f, 0.06267286f, -0.18118267f, 0.25252634f, -0.05717342f, 0.61396623f, -0.33470273f, -0.19920449f, -0.21535155f, -0.58898932f, 0.20264578f, -0.16674310f, 0.31763175f, -0.49328399f, 0.22018251f, 0.03995147f, -0.28398541f, 0.10642831f, 0.42827865f, 0.05253556f, 0.05991794f, 0.23418665f, -0.16411138f, -0.36671433f, -0.07672348f, 0.20021141f, 0.49236417f, -0.10126531f, -0.01755335f, 0.02807532f, 0.01831509f, 0.38320518f, -0.25394353f, 0.31574067f, 0.00425744f, 0.05810920f, -0.00165182f, 0.02166250f, -0.08721242f, 0.02566759f, -0.27816391f, -0.17171149f, -0.11148860f, -0.18046601f, -0.36888236f, -0.27736664f, -0.01320653f, 0.17660706f, 0.04248356f, -0.23074542f, -0.25681829f, 0.34024671f, -0.21048546f, 0.16695812f, -0.78953993f, -0.22063746f, 0.56281829f, 0.04378456f, -0.03265455f, -0.04025031f, -0.01848949f, -0.16803913f, -0.05081073f, -0.08161465f, 0.43802670f, 0.11247318f, -0.07510270f, 0.09349475f, -0.10787869f, -0.04176196f, -0.20365362f, -0.22118725f, -0.11143114f, 0.21678691f, 0.17225006f, 0.04224024f, 0.04708678f, -0.26995373f, 0.26421988f, 0.20585808f, 0.35147947f, -0.22469223f, -0.36912930f, -0.12270623f, 0.02508165f, 0.25241214f, -0.01716218f, -0.12408751f, -0.05755609f, -0.18377759f, -0.18354543f, -0.02871774f, 0.07476790f, 0.00169622f, 0.51944578f, -0.72085601f, -0.23519740f, -0.46344364f, 0.03519752f, -0.22355269f, -0.21276268f, 0.04065335f, 0.00715832f, 0.05741553f, -0.17158139f, 0.66649801f, 0.00807083f, -0.00804196f, -0.60753542f, -0.22083804f, -0.08866222f, 0.14905921f, -0.14206141f, 0.11944564f, -0.00072346f, 0.32855770f, 0.12510835f, 0.06616876f, -0.17753974f, 0.05601315f, -0.26612803f, -0.18596517f, -0.14864722f, -0.07039804f, -0.18690039f, 0.19272697f, 0.22652005f, -0.06709164f, -0.02529977f, -0.12065411f, -0.04083623f, -0.10634822f, 0.05557121f, 0.09517447f, -0.28084990f, -0.04543194f, 0.13804053f, -0.20068124f, 0.03476755f, 0.04305686f, 0.23066635f, -0.10260542f, 0.19337560f, -0.08974366f, -0.15216237f, -0.03601583f, 0.18324330f, 0.23708637f, -0.02120817f, -0.17147601f, -0.17949079f, 0.06924316f, -0.49601141f, 0.02289682f, 0.07703277f, 0.03254918f, 0.06257521f, -0.30709276f, 0.11737004f, -0.07610217f, -0.16300799f, -0.01853229f, 0.03772371f, 0.14680703f, -0.07116069f, 0.01076577f, 0.55840129f, 0.10411638f, 0.01600196f, -0.15219913f, 0.01621445f, -0.15239918f, -0.18264446f, -0.12977575f, -0.13353312f, 0.47534224f, -0.16817196f, 0.15968016f, -0.04642709f, 0.16126885f, -0.41418499f, -0.33998379f, -0.08336883f, -0.06807789f, 0.13283916f, -0.02381397f, -0.19267926f, 0.18388858f, 0.71754247f, -0.04777708f, -0.48227152f, 0.35593253f, -0.04591084f, -0.14674728f, -0.13914445f, -0.27754763f, -0.24762547f, 0.27806947f, -0.27319956f, 0.02493960f, 0.12890463f, 0.07842205f, 0.06989332f, 0.03015112f, 0.14796039f, -0.05633797f, -0.17934899f, -0.13856781f, -0.36030397f, 0.09190454f, -0.14157015f, 0.01768301f, -0.18972483f, -0.00312076f, -0.00490947f, -0.19174759f, 0.08429778f, -0.30661562f, -0.28521028f, -0.12066579f, 0.39096588f, 0.27443832f, -0.17834902f, 0.13211681f, -0.09322385f, 0.57870054f, 0.00514517f, -0.21586172f, -0.05478454f, -0.21091627f, 0.18713565f, -0.07155848f, 0.02449680f, 0.53345984f, 0.16501831f, -0.09136270f, -0.60977679f, -0.05997138f, -0.30360457f, -0.09646854f, 0.34399092f, -0.37600034f, -0.13447878f, -0.00795659f, 0.39308482f, -0.04800418f, -0.38805467f, 0.29843709f, 0.22431588f, 0.03152547f, -0.29083052f, -0.19496553f, -0.01223506f, 0.09951732f, -0.13533966f, 0.09463786f, -0.19100311f, -0.06793331f, -0.13609263f, 0.25117606f, -0.28669366f, 0.13834886f, 0.05901391f, -0.42977229f, 0.04726972f, -0.40860233f, 0.09617261f, 0.07062548f, 0.01832169f, 0.38077039f, -0.13309947f, -0.66814494f, -0.21174863f, -0.02791503f, -0.17971361f, 0.07559552f, 0.23970352f, -0.23015940f, -0.19114500f, 0.03244795f, -0.07747541f, -0.22840030f, 0.13655069f, -0.38381198f, -0.29660639f, -0.15906948f, 0.05336234f, 0.41905284f, -0.01495746f, -0.14988875f, -0.25296164f, 0.34905890f, 0.26613027f, 0.07461289f, -0.29818773f, -0.06210655f, -0.37285316f, -0.24249345f, 0.11594155f, 0.51235968f, 0.19824450f, -0.22192760f, 0.26212451f, -0.65776914f, -0.02709605f, 0.26439378f, 0.07232728f, 0.50704563f, 0.18124086f, 0.00708206f, -0.27697316f, 0.16794708f, 0.08350770f, -0.24834678f, -0.26404709f, 0.07016496f, -0.00982146f, -0.17338669f, -0.55320752f, -0.28948152f, 0.02041732f, -0.69076061f, 0.21028268f, -0.11130192f, -0.24621664f, 0.17601523f, 0.21091972f, -0.04222208f, -0.18165471f, 0.34916472f, -0.26949453f, -0.08753571f, 0.52459717f, 0.07120127f, -0.19823399f, -0.01181983f, 0.12940699f, 0.21742219f, -0.12331467f, -0.00377259f, 0.03021360f, 0.15026395f, -0.30610880f, -0.14976074f, -0.05939138f, 0.17215841f, 0.03836801f, 0.08571099f, 0.06965562f, 0.37923700f, -0.01162209f, 0.04769127f, -0.00264373f, 0.06783924f, -0.13686596f, -0.12800597f, -0.10530268f, 0.02377198f, 0.45072600f, -0.10485042f, -0.13373530f, -0.17398560f, -0.25721166f, -0.03782921f, -0.11806636f, 0.31086728f, 0.29594743f, 0.19559067f, 0.24424712f, 0.04985363f, 0.15503728f, 0.03771432f, -0.05912946f, 0.03429256f, 0.00007183f, 0.02440395f, -0.06788310f, 0.02925692f, -0.29059970f, -0.13739809f, -0.20463333f, 0.18634233f, -0.24131243f, -0.21064256f, -0.12758784f, -0.20229340f, 0.05648369f, -0.11770821f, -0.01299806f, 0.27231252f, 0.31110719f, -0.76400709f, -0.14557144f, 0.28109482f, 0.05350357f, -0.09493650f, -0.14578854f, -0.43557727f, 0.01550231f, -0.01500510f, 0.01867365f, 0.03830027f, -0.39699069f, -0.10063613f, 0.14398958f, -0.22886804f, -0.04190109f, 0.04480629f, -0.16367206f, -0.18378584f, 0.21255310f, 0.19853178f, -0.32259172f, 0.09082828f, 0.46293476f, -0.18542357f, 0.11163434f, -0.08480589f, -0.22184525f, -0.11068482f, 0.10022166f, 0.01532654f, 0.11813602f, -0.07441229f, -0.18420398f, 0.18052037f, -0.22040074f, -0.08162850f, 0.04156468f, 0.00650305f, 0.08653066f, 0.11213486f, -0.41222429f, 0.23851201f, -0.00864615f, 0.16657269f, 0.16608754f, -0.02872397f, 0.54535067f, -0.27094612f, -0.41346425f, -0.17959921f, 0.42264009f, 0.16440585f, -0.07248928f, -0.14965278f, 0.04425632f, 0.04766921f, 0.14326996f, -0.16709092f, -0.17418484f, -0.08500422f, -0.24232367f, -0.15443143f, 0.01820032f, 0.08431363f, 0.12804407f, 0.04796470f, -0.49651349f, -0.04051839f, -0.00983305f, -0.40915298f, -0.08311339f, -0.38796052f, -0.33042356f, -0.11659133f, -0.17632878f, 0.20835230f, 0.19156821f, -0.17671680f, -0.26718906f, 0.43935636f, 0.10498805f, -0.61098087f, -0.19181611f, -0.08511316f, -0.23718822f, 0.05961857f, 0.02408595f, -0.03712935f, -0.07705143f, -0.22797832f, -0.14182156f, 0.17201310f, -0.09711231f, -0.18723239f, 0.35197315f, 0.56664348f, 0.00400877f, 0.37031406f, 0.05818843f, 0.02632073f, -0.46603087f, -0.30512914f, 0.16825791f, 0.11704091f, -0.24730997f, 0.20320024f, 0.19476186f, 0.01672115f, 0.16121188f, 0.25548720f, -0.14190301f, 0.04774090f, 0.09638193f, -0.10101521f, -0.27158615f, -0.52818340f, 0.16441418f, -0.07117966f, 0.02252511f, 0.01778271f, -0.08148919f, -0.39111859f, 0.21911506f, 0.12566933f, -0.06634417f, -0.24975736f, 0.03401508f, 0.08277849f, 0.27244818f, 0.10615389f, 0.17413282f, 0.18290618f, -0.36691183f, 0.14127317f, -0.13336679f, 0.04338076f, 0.18338352f, 0.36006096f, -0.01739730f, 0.28540596f, 0.31758419f, -0.19595368f, -0.20806158f, 0.23659150f, 0.46546465f, -0.10184405f, -0.32122335f, 0.15882123f, -0.20275529f, 0.15872714f, -0.12393788f, 0.01591030f, -0.05874767f, -0.14978120f, 0.08336967f, -0.20972596f, -0.14029750f, -0.00452683f, -0.41761369f, -0.17408615f, 0.12555239f, -0.18741664f, 0.53270876f, -0.31419858f, -0.04092421f, 0.00521062f, -0.21293609f, 0.30234364f, -0.05172749f, 0.16593711f, 0.10790608f, -0.25442550f, 0.26409420f, -0.37196088f, -0.04182631f, -0.36522457f, -0.13985290f, 0.64727724f, -0.36688206f, 0.48372781f, -0.07015707f, -0.36635950f, -0.13505395f, 0.01428197f, -0.25369841f, -0.35610127f, -0.03415373f, 0.09262483f, -0.15013543f, 0.13825865f, 0.03389785f, 0.20188466f, -0.06396548f, -0.20440385f, -0.21169876f, -0.08167288f, 0.00864103f, -0.45204273f, -0.18644702f, -0.03136337f, -0.11316375f, -0.05696969f, 0.07196003f, -0.04175752f, -0.17726599f, -0.32877228f, -0.33625612f, -0.01219661f, -0.23009486f, -0.22115044f, -0.00074766f, 0.08028986f, -0.31479198f, -0.13034086f, -0.26327187f, -0.09797295f, 0.05868306f, 0.49710193f, -0.18397571f, -0.10019530f, -0.01382605f, 0.19298707f, -0.01935874f, 0.02814794f, -0.10957607f, -0.06696209f, 0.29103711f, -0.13387114f, 0.31435871f, 0.25172845f, -0.10551562f, -0.08461886f, -0.13312802f, -0.17233337f, 0.04862307f, -0.49969342f, 0.19583938f, 0.19241542f, 0.16172244f, -0.24775678f, -0.09447554f, 0.46600211f, 0.01429185f, -0.10750166f, 0.15305957f, 0.02431569f, 0.08326495f, 0.02351828f, 0.05752645f, -0.29640007f, -0.16869384f, 0.23427217f, -0.31205541f, 0.14391473f, 0.16623016f, 0.49565399f, 0.03492562f, -0.07185362f, 0.22541615f, 0.15083665f, -0.07840759f, -0.36473289f, 0.25021049f, -0.37924957f, -0.23578803f, -0.21221913f, -0.28578633f, 0.33390087f, -0.22136347f, -0.13903306f, 0.01804398f, 0.31391782f, 0.07623921f, 0.18355978f, -0.17256272f, 0.19482672f, 0.27418491f, 0.25999829f, 0.09001238f, -0.01564806f, -0.20674372f, -0.42708263f, -0.13874978f, 0.05708800f, -0.00355564f, -0.30945250f, -0.05520875f, -0.17116922f, 0.03768415f, -0.07577482f, -0.19537026f, -0.17074157f, -0.12484636f, -0.07096436f, -0.16286930f, 0.11280493f, 0.13637471f, -0.23681042f, 0.36738846f, -0.42794290f, 0.31581020f, 0.09578227f, -0.11870703f, -0.04031290f, 0.26038367f, -0.04796890f, 0.12838350f, -0.03065787f, 0.12171837f, 0.04151484f, -0.23982996f, -0.28438982f, -0.11339185f, -0.10300640f, 0.23752868f, -0.12908947f, -0.28266203f, -0.22294179f, 0.09166216f, -0.17284784f, -0.18764964f, 0.01541679f, -0.33418638f, -0.10418324f, 0.07028047f, -0.04135507f, -0.03086455f, -0.11814593f, -0.23189496f, 0.03442868f, 0.06950288f, 0.15367652f, -0.29186442f, -0.02044285f, 0.26083341f, 0.20432428f, -0.37727457f, 0.08652876f, -0.25490582f, 0.05548446f, 0.05414096f, -0.23422895f, -0.09107555f, 0.05259158f, -0.18478897f, -0.00599306f, 0.01421907f, 0.44604194f, 0.76483643f, -0.18433216f, -0.28574267f, 0.04171680f, -0.09961639f, 0.05057362f, 0.26530591f, -0.13414307f, -0.19408430f, -0.08808234f, -0.24616608f, -0.03410934f, 0.10633895f, -0.03292237f, -0.39728731f, -0.36264640f, 0.15826105f, -0.08607008f, 0.16035426f, -0.00859413f, 0.20953447f, 0.15459387f, -0.05185205f, -0.41208628f, 0.28194848f, -0.07361083f, -0.14786886f, 0.20032844f, 0.30980226f, -0.37941188f, 0.00169402f, -0.10185038f, -0.01013852f, 0.38702783f, 0.25135431f, 0.08347040f, -0.05385452f, -0.04135510f, -0.09923719f, -0.01728830f, -0.30465460f, -0.31194451f, 0.17645960f, -0.08276799f, 0.16780065f, -0.08498742f, 0.00116586f, -0.22104879f, -0.10100008f, -0.21387461f, -0.13587211f, -0.14539148f, -0.01806637f, 0.26662281f, 0.23021866f, -0.12113883f, -0.17668946f, -0.01651515f, -0.08804807f, -0.03958613f, 0.03046375f, 0.39341825f, 0.16254140f, 0.06878086f, 0.09178661f, -0.01689238f, 0.19619629f, 0.05091330f, -0.14405420f, 0.27820191f, -0.19751713f, 0.20274845f, 0.29022515f, -0.06837300f, -0.03812208f, -0.10208382f, -0.20920850f, 0.05117346f, -0.01139569f, -0.25948098f, 0.04805620f, -0.04272090f, -0.02553206f, -0.32909378f, 0.32255864f, -0.20557120f, 0.08100489f, 0.02819120f, -0.14927562f, 0.22248723f, 0.21252839f, -0.07818100f, -0.03457035f, 0.09454996f, -0.04051683f, -0.27083272f, -0.15137784f, -0.03278250f, -0.05364579f, -0.55528688f, -0.10294237f, 0.06192625f, 0.15701869f, -0.03542531f, -0.04127670f, -0.14451234f, -0.02800626f, 0.31108978f, -0.30760539f, -0.00617151f, 0.41386226f, 0.10185423f, 0.37728488f, -0.06176788f, -0.28811958f, 0.00552553f, -0.08411174f, -0.26837829f, -0.22331335f, -0.30578279f, 0.03677212f, -0.24688618f, 0.06254334f, -0.09648834f, 0.50415456f, -0.21233800f, 0.15249744f, 0.31791264f, -0.03953052f, -0.41193420f, -0.32749581f, -0.05085020f, 0.06507373f, -0.29501140f, -0.12093198f, -0.28547314f, 0.16292532f, -0.12864530f, -0.04838734f, 0.14379270f, -0.02981466f, 0.12176876f, 0.07516805f, -0.30515808f, -0.33752280f, -0.22074799f, -0.32126370f, -0.17951769f, 0.24571018f, -0.01215138f, 0.23402646f, -0.01168654f, 0.05414448f, -0.01098229f, -0.47660109f, -0.11121427f, -0.07944854f, 0.25619832f, -0.18241403f, -0.26547325f, -0.11417727f, -0.07751126f, 0.13341251f, 0.03879913f, 0.07075442f, -0.01099096f, -0.24153745f, -0.04264856f, -0.16499759f, -0.06618636f, 0.10480279f, -0.05655219f, -0.20718081f, 0.13879423f, 0.09596630f, -0.03457239f, 0.25940269f, 0.05554955f, 0.08844618f, 0.27221355f, 0.07787647f, -0.17959639f, -0.33082259f, 0.00123080f, -0.23761019f, -0.06529436f, 0.02133934f, -0.00549108f, 0.10179430f, -0.19100931f, 0.05349126f, -0.16498286f, -0.41642532f, -0.02617972f, 0.09686743f, 0.72397381f, 0.22219841f, -0.00566548f, -0.26256225f, 0.23515493f, -0.05902160f, 0.39574146f, -0.18034524f, 0.10199615f, 0.13412729f, -0.03218178f, 0.18831939f, -0.14648126f, 0.22074229f, -0.12050929f, -0.26600915f, 0.21222910f, 0.08807629f, -0.04285963f, 0.12402970f, -0.38666472f, 0.05036377f, -0.32375786f, -0.11453302f, 0.05900455f, -0.32548061f, -0.29662645f, -0.11041399f, -0.07326552f, 0.00276788f, 0.11953551f, 0.28799012f, 0.15281284f, 0.29222649f, -0.08173763f, -0.10924625f, -0.23927434f, 0.01640052f, 0.18945280f, 0.26091909f, -0.35137022f, 0.12187876f, -0.32054773f, -0.61129510f, -0.35579187f, -0.09175494f, 0.54480529f, -0.28348753f, 0.05026618f, -0.03258212f, 0.24110833f, -0.02944513f, 0.20519732f, -0.23023349f, -0.13837215f, 0.17103164f, -0.10086943f, -0.00544642f, -0.25480428f, 0.12093384f, 0.08279611f, -0.06206141f, 0.02462768f, 0.13457929f, -0.04091544f, -0.12686796f, -0.17609362f, 0.13200921f, -0.32239485f, 0.21450785f, 0.03243881f, -0.28271577f, -0.01484710f, -0.04457364f, -0.16725229f, -0.11237129f, -0.29606482f, 0.07881423f, -0.01996467f, -0.13616729f, -0.10320252f, 0.04997725f, 0.21563542f, -0.05342926f, 0.07306329f, 0.06413960f, -0.41502243f, 0.11357662f, -0.03054745f, -0.06792152f, 0.17094964f, -0.03330190f, -0.06821709f, 0.00320392f, 0.11216384f, 0.31666130f, -0.32467091f, 0.12286112f, -0.10580470f, 0.15627113f, -0.26801196f, -0.08815096f, -0.02425425f, 0.36751327f, -0.11490106f, 0.21796781f, -0.01934187f, 0.29869008f, -0.20008779f, -0.46535459f, -0.04195013f, -0.01584773f, -0.38140702f, 0.09195562f, 0.18835048f, 0.27774629f, -0.49329543f, 0.05786433f, 0.07819162f, -0.17861207f, 0.31019774f, -0.07814877f, -0.37991849f, -0.00453447f, 0.15072013f, -0.04307980f, -0.08677014f, -0.11477301f, 0.32519123f, -0.26421034f, -0.24200688f, -0.03149228f, -0.23323259f, -0.21013911f, 0.38051361f, -0.10392768f, -0.07981304f, -0.16535255f, -0.19729808f, 0.26516426f, -0.23425950f, 0.19638431f, -0.14432451f, -0.17617907f, -0.27366999f, 0.11107847f, 0.01830145f, -0.00854409f, 0.14554678f, 0.10459362f, -0.08113143f, -0.22232409f, 0.22916017f, -0.14127892f, 0.03977625f, -0.03880286f, -0.09926133f, -0.01504494f, -0.22857389f, -0.08756623f, 0.10857312f, -0.01196266f, -0.24633284f, -0.08166853f, 0.04743396f, 0.42087260f, 0.08836918f, 0.29720974f, -0.25513196f, -0.12664661f, -0.36229971f, -0.01206334f, -0.12949267f, 0.05841376f, -0.11593924f, 0.02780718f, -0.19971421f, 0.03497558f, -0.12363181f, 0.27839553f, -0.10255673f, -0.04306028f, -0.08773684f, -0.15109633f, -0.17843984f, 0.16842118f, -0.05864530f, -0.13347170f, 0.23184729f, -0.37869704f, -0.19209577f, 0.04737399f, -0.24008223f, -0.07553210f, 0.08187295f, 0.24250092f, -0.06842346f, -0.07579821f, -0.07728574f, -0.22641012f, 0.22880270f, 0.46374890f, 0.06303848f, -0.19287080f, 0.05829600f, 0.50697595f, -0.08745009f, -0.39508462f, 0.23241428f, 0.12878899f, -0.19928049f, 0.31462485f, 0.36415833f, -0.10553892f, -0.11092624f, -0.39722916f, -0.01687653f, -0.00704853f, -0.08509050f, -0.03308536f, -0.28143257f, -0.06309346f, 0.20748344f, -0.16028583f, 0.01939237f, -0.04992933f, 0.11459397f, 0.03214175f, 0.30929866f, 0.25268432f, -0.33921319f, -0.21106842f, -0.41857994f, 0.05713285f, 0.02063463f, 0.01275371f, -0.18945679f, 0.25576660f, -0.06238419f, -0.11195292f, -0.18069196f, 0.01396877f, -0.15724936f, -0.13836668f, -0.03203742f, 0.24665737f, -0.04094627f, -0.30430603f, -0.06845725f, -0.16005486f, -0.29318592f, -0.17147192f, -0.02703833f, -0.11619763f, 0.09936571f, 0.19728164f, -0.03907301f, -0.00862668f, 0.28589407f, 0.05303796f, 0.01738972f, -0.34872890f, -0.03453021f, -0.31780449f, 0.16201411f, -0.15293260f, -0.30381975f, -0.03330465f, -0.22280020f, 0.40716836f, 0.00106575f, 0.06892685f, 0.05207253f, 0.09753843f, -0.02774463f, 0.04846013f, 0.01373420f, 0.01803688f, -0.08632582f, -0.00702559f, 0.07335325f, -0.04521035f, 0.19541478f, -0.09433797f, 0.06420409f, 0.06891462f, -0.00603649f, 0.13232884f, -0.24933898f, -0.24680223f, -0.09966296f, -0.11054001f, 0.07761027f, -0.11564080f, -0.11618371f, -0.15769657f, -0.03541669f, -0.06715781f, -0.05152427f, 0.10634294f, -0.05802523f, 0.20535275f, 0.10043672f, -0.07918623f, -0.01169427f, 0.06912036f, -0.01146468f, -0.25106928f, 0.12593611f, 0.25853935f, 0.09288437f, 0.07308494f, -0.19485843f, -0.20291911f, -0.08490502f, -0.16454904f, -0.04801450f, 0.04530841f, 0.08089378f, 0.25543079f, -0.00299820f, 0.08596273f, -0.11960511f, -0.14468716f, -0.10190966f, -0.00354989f, 0.33384901f, -0.02471103f, 0.40710106f, -0.05636953f, 0.12179007f, -0.42349759f, -0.00315638f, 0.01008780f, 0.03156580f, -0.25937000f, -0.16199002f, -0.01666179f, 0.01984397f, -0.15074141f, 0.05581307f, 0.11400160f, 0.00453792f, -0.05640273f, -0.00109749f, -0.16571099f, 0.30916327f, -0.29966781f, -0.03145063f, -0.16753493f, 0.04374413f, 0.01668616f, 0.01122175f, 0.00682693f, -0.26922825f, -0.11872428f, -0.19279414f, -0.07500490f, -0.06342192f, 0.03727178f, 0.04046609f, -0.10998826f, 0.37820157f, -0.03690349f, -0.22915600f, 0.05377206f, -0.16026576f, 0.18857403f, 0.08566710f, 0.23726629f, -0.08074832f, 0.00556120f, -0.04600480f, -0.01138931f, 0.04152896f, -0.11728758f, -0.19896999f, 0.05485540f, 0.09802113f, -0.23908928f, -0.06168377f, 0.11144959f, -0.08562421f, 0.09411403f, -0.21292134f, 0.09697501f, -0.11305752f, -0.21263140f, 0.02784154f, -0.05914412f, 0.16934724f, 0.42077017f, -0.09675297f, 0.21878955f, -0.03546229f, -0.07301401f, -0.10512616f, 0.02783885f, 0.17333511f, -0.21627523f, -0.07657749f, -0.04008948f, 0.05888412f, -0.18262102f, 0.07991391f, 0.01611627f, 0.18407616f, -0.17506418f, 0.27299863f, 0.10786882f, 0.29045647f, 0.02683609f, -0.15147361f, -0.07621021f, -0.27717122f, 0.10744691f, 0.17935494f, -0.01751327f, -0.16339894f, 0.20109233f, 0.06254753f, -0.15402681f, -0.51329833f, -0.17119640f, -0.02254640f, 0.02397535f, 0.09713361f, -0.09146178f, -0.35612896f, 0.10371426f, 0.06562509f, -0.06510840f, -0.16409013f, 0.24962306f, 0.10797216f, 0.16542888f, -0.05835357f, 0.29276133f, -0.12130693f, 0.02589527f, -0.24352822f, -0.06147350f, 0.08495999f, 0.47424984f, -0.02020585f, -0.04956992f, 0.08449572f, -0.14910673f, -0.04026213f, -0.18356262f, 0.19755694f, 0.00489399f, -0.01987846f, 0.03368133f, -0.25937679f, -0.20962343f, -0.03665221f, -0.10770587f, -0.17578712f, -0.06006568f, -0.06835481f, -0.09889730f, -0.21243067f, 0.10999490f, -0.07101950f, -0.10956670f, 0.20830692f, -0.03678475f, -0.02635875f, -0.03417972f, -0.08667824f, 0.00942691f, -0.12504028f, -0.11654515f, 0.10943401f, 0.02426588f, 0.07415012f, -0.09960325f, -0.02924541f, 0.03994349f, 0.28130186f, 0.27337244f, -0.13705774f, -0.09260122f, -0.05166233f, -0.08066545f, 0.10022512f, -0.36775422f, 0.11768978f, -0.15612938f, -0.16632007f, 0.08043259f, -0.23812246f, 0.09759840f, 0.26985624f, -0.11387096f, 0.04084916f, -0.03765040f, 0.14222762f, -0.10717575f, 0.20197281f, -0.04765701f, -0.11781866f, -0.07720173f, -0.01704410f, -0.04409997f, -0.39054528f, -0.01008900f, -0.10414741f, -0.02923555f, 0.07897636f, -0.09183022f, 0.21578202f, -0.14999135f, 0.07226412f, -0.13035868f, 0.02212042f, 0.17594407f, -0.31241876f, -0.18843479f, 0.06346750f, -0.23025042f, 0.17635606f, -0.10918859f, -0.04444032f, -0.25170821f, -0.18280622f, -0.16306944f, -0.07761956f, -0.19774231f, 0.03197123f, -0.10785793f, 0.13268858f, -0.08408417f, -0.14931822f, 0.37361199f, 0.17912291f, -0.10440957f, 0.27448428f, -0.12158498f, -0.11239440f, -0.09664760f, -0.10808985f, 0.30117461f, -0.08926091f, 0.06979913f, -0.41635048f, -0.18510735f, 0.06767258f, 0.40046224f, 0.25198174f, -0.04598710f, 0.04138188f, 0.05368788f, 0.20518588f, 0.03355925f, -0.14720286f, -0.19599395f, 0.18756084f, 0.17103775f, -0.32088032f, -0.12276848f, 0.02566044f, -0.36630076f, 0.02270536f, -0.11319877f, -0.18509138f, -0.00270929f, -0.04173950f, -0.19841719f, 0.20021637f, -0.23324578f, -0.04548713f, -0.20498593f, 0.08244778f, -0.44345129f, 0.10691226f, -0.22953658f, 0.03585648f, -0.22124939f, 0.13384055f, -0.12736861f, 0.02718504f, -0.04142214f, -0.12953234f, 0.05134296f, 0.08802558f, 0.33847377f, 0.06947702f, -0.10506011f, -0.06041088f, -0.23142086f, -0.24559085f, -0.08980712f, -0.28029734f, -0.27297142f, -0.02279677f, 0.41497624f, 0.04718067f, -0.18221894f, 0.04222167f, 0.12617084f, -0.26222807f, -0.17584072f, -0.34567791f, -0.06881217f, -0.23232195f, 0.35237443f, -0.13075061f, -0.06098663f, 0.27643815f, -0.02217669f, 0.00627756f, 0.07849621f, -0.13766666f, 0.04776518f, 0.06914526f, 0.25342265f, -0.05621355f, -0.04018235f, 0.33219433f, 0.37940618f, 0.12231536f, -0.08956188f, -0.06832607f, -0.25031063f, 0.18138273f, -0.22581707f, 0.02508767f, -0.30292651f, -0.07311175f, -0.16820014f, 0.29001975f, -0.06323995f, 0.01913115f, -0.08282337f, 0.05357397f, -0.10842850f, 0.02668384f, -0.23304518f, -0.05602458f, -0.09359717f, -0.02099494f, -0.07732601f, -0.00752782f, 0.12083169f, -0.21691096f, -0.02642336f, -0.07586607f, 0.21067046f, 0.25032443f, -0.14650418f, -0.22466220f, -0.15061940f, 0.01746290f, 0.15115683f, -0.01077659f, 0.24377964f, 0.06687780f, -0.11560357f, -0.03565214f, -0.13496387f, 0.23370463f, -0.04361907f, -0.04573826f, 0.01523313f, 0.07819549f, -0.06888685f, -0.06316257f, 0.21937017f, -0.09588836f, 0.40102637f, 0.10261647f, 0.15189937f, -0.06102239f, -0.08780557f, 0.08641670f, -0.27013791f, -0.18571597f, -0.52667439f, -0.14837150f, -0.16049659f, 0.14637275f, 0.08543356f, 0.01958401f, 0.43155944f, -0.18491465f, -0.05946652f, -0.00032143f, 0.05126250f, 0.06496192f, -0.15557083f, -0.04975078f, 0.00435087f, -0.05411139f, -0.09114832f, 0.16157161f, -0.13426080f, -0.26755065f, -0.07738647f, -0.16366254f, -0.19807962f, 0.15411404f, -0.01483609f, -0.01270999f, -0.16484474f, 0.15862441f, -0.06174686f, -0.01605497f, 0.04383812f, 0.11513119f, 0.02194129f, 0.08913013f, 0.07783445f, -0.33923319f, 0.32522771f, 0.10769892f, -0.24475431f
};

// shape: [49]
static const float note_head_bias[49] = {
    0.06201128f, -0.18802588f, 0.18264017f, 0.15211406f, 0.25505215f, 0.08781787f, -0.15294729f, 0.01671469f, 0.10525271f, 0.08104082f, 0.07543784f, -0.17691286f, 0.15268049f, -0.00114804f, 0.18659715f, 0.22181678f, 0.03757381f, 0.08097012f, 0.10497750f, 0.08102955f, 0.07066755f, 0.15775569f, -0.03083732f, 0.04183026f, 0.11843038f, 0.04330225f, 0.12712930f, 0.03449498f, 0.10609643f, 0.00931048f, -0.09950577f, -0.04630737f, -0.08897337f, -0.11919522f, -0.02254610f, -0.22156350f, -0.11658157f, -0.08965800f, -0.19336982f, -0.20009364f, -0.28943619f, -0.13461474f, -0.04483214f, -0.13110144f, -0.19163592f, -0.20511523f, -0.13260750f, -0.17437014f, -0.13781048f
};

// shape: [6, 96]
static const float string_head_weight[576] = {
    0.48783228f, 0.24222818f, 0.03065612f, -0.23490918f, -0.42553842f, -0.35021800f, -0.23873615f, 0.58585495f, 0.05990550f, -0.11769681f, 0.08631441f, 0.07011686f, -0.22949123f, -0.43334079f, -0.19243111f, 0.57049376f, 0.57387042f, 0.02517004f, 0.58711421f, -0.69752651f, -0.29976559f, 0.11061609f, -0.10822403f, -0.09259119f, -0.15845536f, 0.46963346f, -0.24557959f, -0.18530102f, -0.44531935f, -0.35455576f, 0.09576297f, -0.51196688f, -0.57771045f, -0.41775620f, 0.30722773f, -0.23339850f, -0.15274182f, -0.66316617f, 0.80903947f, 0.53874761f, -0.36897799f, 0.26625299f, 0.09612194f, 0.65133154f, 0.03608857f, 0.57732040f, -0.36020932f, -0.11024218f, 0.79601258f, -0.11203781f, -0.43866056f, -0.45084143f, 0.01831707f, -0.41230923f, -0.25355566f, -0.12808505f, -0.44630605f, -0.20240131f, -0.00899866f, -0.48803169f, 0.41193411f, -0.01719792f, 0.04789205f, -0.70224917f, -0.06311747f, 0.01099562f, 1.06260681f, -0.18912056f, -0.09313017f, 0.03514057f, -0.04212505f, -0.12259477f, 0.57484609f, -0.44735807f, -0.15925793f, 0.17407283f, -0.17571680f, -0.42032051f, -0.09963613f, -0.24664764f, -0.48201382f, -0.52171057f, 0.11089669f, 0.47586706f, 0.03458273f, -0.39092276f, -0.43837970f, -0.35946918f, -0.35620749f, 0.20144622f, -0.44617257f, 1.13040245f, -0.30581048f, -0.05904641f, 0.27504122f, -0.22655536f, -0.69692510f, 0.37802503f, 0.23206674f, 0.03238924f, -0.20384462f, 0.02047316f, 0.01213530f, -0.09045957f, -0.78825873f, -0.55036157f, -0.15298651f, 0.30539390f, -0.51270652f, -0.19943166f, 0.58382565f, -0.66591281f, 0.20079289f, -0.24871320f, -0.57232618f, 0.96847624f, -0.12374458f, 0.22835559f, 0.54000050f, -0.07784428f, -0.24508621f, -0.39292121f, 0.18334639f, -0.04398032f, 0.00704972f, -0.21663713f, -0.24018952f, -0.13728006f, 0.87042534f, -0.08929450f, 0.33115435f, 0.03229570f, -0.09360651f, -0.40051258f, -0.74412107f, 0.37571341f, 0.28806907f, 0.64745498f, 0.18002602f, 0.22109257f, 0.19747025f, 0.09374075f, -0.27772388f, -0.45263419f, -0.19347849f, 0.09563510f, 0.04841594f, 0.10541023f, -0.25726864f, -0.02801854f, -0.12334172f, 0.62684178f, -0.59042281f, -0.21204884f, -0.29408723f, 0.30264074f, 0.05855141f, 0.07805318f, -0.25027677f, -0.09139455f, 0.43468797f, 0.26988250f, -0.54306203f, 0.62700039f, -0.21924791f, -0.05309153f, -0.11313604f, -0.48689649f, -0.02612612f, -0.35717118f, 0.11039902f, 0.80369419f, -0.30746102f, 0.00031824f, 0.11298207f, -0.45644060f, 0.40147951f, -0.05552299f, -0.04810314f, -0.53388113f, 0.17074323f, -0.27069810f, -0.28140688f, -0.35943985f, -0.21744993f, 0.36672103f, -0.33060941f, -0.99117333f, 0.29033649f, -0.18407173f, -0.17182736f, 0.05466168f, -0.20850071f, -0.16140939f, 0.12245174f, 0.65073258f, -0.02972348f, -0.06156831f, 0.66224760f, -0.46608967f, 0.94392359f, -0.03133835f, -0.24166103f, 0.02548718f, -0.12668920f, 0.04307947f, 0.16072796f, -0.46307713f, -0.72029835f, -0.11710593f, 1.04119492f, 0.10274918f, 0.00605576f, 0.06439210f, 0.48108506f, -0.03058292f, 0.07350339f, -0.79384446f, 0.32468188f, 0.06928573f, 0.29434046f, 0.56404233f, -0.23347600f, -0.06318130f, -0.01944360f, -0.26407510f, -0.61116314f, -0.27783674f, 0.11899378f, -0.29422581f, 0.50640994f, -0.92629671f, -0.40593266f, -0.36542284f, -0.85569996f, -0.71196485f, -0.11538076f, -0.53583777f, 0.16039245f, -0.00899923f, -0.36661726f, -0.14967206f, -0.20437601f, -0.07675676f, 0.47196591f, -0.24611752f, -0.32527247f, 0.04354662f, -0.30962616f, -0.26978779f, 0.07080113f, -0.24711008f, 0.63836974f, -0.21037541f, 0.04512540f, 0.16092288f, -0.03706340f, 0.42171708f, -0.12463674f, 0.01876299f, -0.04211047f, -0.56721902f, -0.13870820f, 0.34903905f, 0.04287054f, 0.67780381f, -0.09234634f, -1.09034443f, -0.18740785f, 0.60749501f, -0.28533784f, 0.65305758f, -0.26390710f, -0.09746036f, -0.46132606f, 0.23009084f, -0.16643745f, 0.00023416f, 0.47626621f, -0.11881645f, -0.37832093f, -0.09895425f, -0.27281490f, -0.19155894f, -0.11754308f, -0.22144322f, -0.23193771f, -0.17717594f, -0.37134328f, -0.21243104f, 0.19554235f, -0.48689017f, -0.23896874f, -0.20469613f, -0.22113028f, -0.21368469f, 0.55894798f, -0.21355927f, -0.03134894f, -0.05246586f, -0.21780351f, -0.00283981f, -0.52221859f, -0.26794189f, -0.37380177f, -0.39142808f, -0.93777913f, -0.38065177f, -0.04555527f, -0.20884681f, -0.49535307f, -0.33849785f, -0.14942619f, 0.89137298f, 0.20103197f, 0.35589635f, -0.18316329f, -0.41019654f, 0.07162993f, 0.00663115f, 0.02887005f, -0.10516582f, -0.29103330f, -0.35510656f, -0.16256028f, 0.42157263f, -0.39438251f, 0.60564888f, -0.52631742f, -0.50118160f, -0.54104543f, -0.32502693f, -0.36202547f, -0.15651534f, -0.27115688f, 0.23715238f, -0.18833326f, -0.33338425f, -0.36851969f, -0.31246087f, -0.04168097f, 0.55074954f, 0.20658736f, -0.16348664f, 1.01001894f, -0.15337606f, -0.15238272f, -0.11531550f, -0.43924484f, -0.05958969f, 0.07453227f, -0.30120707f, -0.18246947f, -0.09074964f, -0.60886633f, 0.70040500f, -0.15995353f, 0.32663283f, -0.47308996f, -0.47959712f, -0.42150077f, 0.04458395f, -0.28445676f, -0.35149908f, -0.23459658f, -0.39110047f, 0.40598190f, 0.17719437f, -0.17469527f, -0.14986444f, 0.12444340f, 0.35941777f, -0.01220485f, 0.55393773f, 0.04079260f, 0.60674876f, -0.41537836f, -0.21444051f, 0.97905046f, -0.42783263f, -0.35740846f, 0.03284166f, 0.04908980f, -0.13504107f, 0.74189824f, -0.49625131f, -0.26052544f, -0.24477835f, 0.06704319f, -0.07428818f, -0.04149796f, -0.59569436f, -0.69961697f, 0.25360543f, 0.02789506f, -0.20540895f, 0.08507612f, 0.41159728f, 0.25842214f, 0.85853457f, -0.12002919f, 0.17450458f, -0.41406333f, -0.09877525f, 0.64597458f, -0.54161942f, -0.48681968f, 0.02030747f, 0.52432430f, 0.09410916f, -0.03438891f, -0.48395321f, -0.27420130f, 0.66797382f, 0.13715693f, -0.26420394f, -0.53587818f, 0.05670465f, -0.28922531f, 0.22081386f, -0.59444553f, 0.20694654f, -0.12136100f, -0.24221188f, 0.56230062f, -0.26636568f, -1.16036808f, -0.34643614f, -0.28621709f, 0.08376773f, 0.64334828f, 0.06266381f, -0.21366547f, -0.38619170f, 0.42871121f, -0.23213205f, -0.29496557f, -0.27397540f, 0.92548960f, -0.31042287f, -0.24118081f, 0.27060968f, 0.02382253f, 0.17509465f, -0.45565110f, 0.22211722f, 0.15225610f, -0.08135136f, -0.64541459f, -0.42579207f, -0.16799325f, -0.73284173f, -0.05280373f, 0.07070197f, 0.14092892f, 0.27734509f, -0.52357352f, 0.02640572f, -0.13948412f, 0.09743772f, 0.47091076f, 0.14974952f, -0.02566165f, -0.35639173f, -0.06777418f, 0.56532896f, -0.19807591f, -0.02452306f, -0.40350819f, 0.32017857f, -0.03235910f, -0.33258808f, 0.28001961f, 0.28365672f, -0.66978258f, -0.51978320f, -0.79173350f, 0.09608097f, -0.15528704f, -0.23305367f, -0.37144944f, -0.47742230f, -0.50393939f, -0.04176473f, 0.31226853f, 0.29870835f, -0.79551321f, 0.34827265f, -0.50494868f, 0.25044259f, 0.04855428f, -0.35555291f, 0.31855613f, 0.05921916f, -0.60237563f, -0.50488675f, -0.36487272f, 0.34021530f, -0.41124308f, -0.47308621f, -0.42609519f, -0.18512298f, -0.44897738f, -0.00103989f, -0.23982425f, -0.44900557f, -0.62851000f, 0.10011487f, 0.10146855f, -0.64370406f, 0.19749966f, 0.29880947f, -0.37338310f, 0.15307960f, -0.39921683f, 0.24284112f, 0.41209677f, 0.31803468f, -0.41700250f, -0.71146125f, 0.16910677f, -0.53645217f, 1.75006926f, -0.24000597f, 0.20044722f, -0.48687586f, -0.23830101f, 0.19882576f, -0.62873161f, 0.46869117f, -0.10694753f, 0.36074007f, -0.44676325f, -0.02183088f, -1.04117584f, -0.54172879f, 0.12556173f, 0.24896078f, 0.17715421f, -0.10179830f, -0.61930698f, -0.01654130f, 0.08084083f, 0.14814153f, 0.45934218f, -0.41860464f, 0.21769875f, -0.98197019f, 0.19851412f, 0.11178442f, 0.29796648f, -0.01384500f, -0.14630905f, -0.17354310f, 0.26934573f, 0.13897863f, 0.04865978f, -0.07698064f, -0.23674750f, -0.45205903f, 0.29418421f, -0.13235189f, 0.15588100f, -0.37617970f, 0.18446688f, -0.58087826f, 0.06631561f, 0.13459517f, 0.47111717f, -0.62220657f, 0.29178306f, 0.60027093f, 0.54809183f, -0.03236233f, 0.19775717f, 0.26601958f
};

// shape: [6]
static const float string_head_bias[6] = {
    -0.00680659f, -0.20302819f, 0.06285026f, 0.02461586f, -0.01514823f, 0.06817494f
};

