// Auto-generated - DO NOT EDIT
// OnsetNet weights for Daisy Seed bare metal inference
// sr=48000 vocab_size=49 window_samples=480

#pragma once
#include <stdint.h>

#define ONSET_SR           48000
#define ONSET_VOCAB_SIZE   49
#define ONSET_WINDOW       480
#define ONSET_WIDTH        96

static const char* onset_pitch_names[] = {
    "E2",
    "F2",
    "F#2",
    "G2",
    "G#2",
    "A3",
    "A#3",
    "B3",
    "C3",
    "C#3",
    "D3",
    "D#3",
    "E3",
    "F3",
    "F#3",
    "G3",
    "G#3",
    "A4",
    "A#4",
    "B4",
    "C4",
    "C#4",
    "D4",
    "D#4",
    "E4",
    "F4",
    "F#4",
    "G4",
    "G#4",
    "A5",
    "A#5",
    "B5",
    "C5",
    "C#5",
    "D5",
    "D#5",
    "E5",
    "F5",
    "F#5",
    "G5",
    "G#5",
    "A6",
    "A#6",
    "B6",
    "C6",
    "C#6",
    "D6",
    "D#6",
    "E6",
};

// shape: [48, 1, 9]
static const float l0_conv_weight[432] = {
    0.49231800f, 0.39443657f, -0.20634001f, 0.00049060f, -0.36302698f, -0.08640864f, -0.21172342f, 0.19138694f, 0.57352293f, -0.36432761f, 0.14168620f, 0.30754644f, -0.00773090f, 0.06292365f, -0.27565730f, -0.19781736f, 0.59147942f, 0.67571509f, -0.28017077f, 0.36368394f, -0.14488623f, 0.04892506f, -0.21153866f, 0.57993537f, -0.33555835f, -0.13206218f, -0.01645732f, -0.26068607f, -0.15129325f, -0.32582447f, 0.35664850f, -0.37375164f, 0.44437987f, 0.16612221f, -0.39690277f, 0.47506934f, 0.21620728f, 0.32510114f, -0.03430076f, -0.27570239f, -0.32603896f, -0.17518421f, -0.08181944f, 0.66109282f, 0.45013765f, -0.24248402f, 0.16459237f, 0.41364005f, 0.14615381f, -0.60208243f, -0.41668442f, -0.14429012f, -0.53951263f, -0.07348739f, 0.51045215f, 0.35807961f, 0.09398095f, 0.10301287f, 0.11498808f, -0.34027296f, -0.37158605f, -0.36881319f, -0.12093269f, -0.14740175f, 0.26540640f, -0.08049008f, 0.35850540f, -0.51791161f, -0.29751214f, -0.26104546f, 0.38972455f, 0.32619178f, 0.57610965f, -0.06113807f, -0.51254052f, -0.46334645f, -0.18914832f, -0.07467975f, 0.34330517f, 0.42170238f, -0.10139064f, -0.20308647f, 0.42171094f, -0.37162039f, 0.37643883f, -0.40941063f, 0.33232582f, -0.21427162f, 0.07449637f, -0.00698378f, 0.06430008f, -0.27543527f, 0.13264544f, 0.46953735f, -0.42747933f, -0.33687890f, 0.48272085f, 0.08158407f, -0.19158112f, -0.57237536f, -0.12325374f, 0.40475351f, 0.12860796f, -0.01741200f, 0.38204119f, -0.08394773f, -0.53140265f, -0.03997568f, -0.16072245f, -0.36043352f, 0.65221852f, 0.08715549f, 0.22042033f, -0.40854350f, -0.12457555f, -0.27411184f, 0.30171993f, -0.62988466f, -0.65007514f, -0.05197008f, 0.03199799f, -0.17371160f, -0.19602826f, -0.06534865f, -0.22930610f, 0.00249034f, 0.05596548f, -0.24655518f, 0.45302477f, -0.45527020f, 0.17818832f, 0.19302416f, -0.42063987f, 0.40506411f, -0.16447403f, -0.43088460f, -0.52485901f, -0.14403279f, 0.26252043f, 0.15292150f, 0.35602680f, -0.12645756f, 0.36746773f, -0.42208168f, 0.07207305f, 0.16363406f, 0.32083261f, 0.44411427f, 0.37732989f, -0.12513910f, -0.13990797f, -0.42082620f, -0.43918219f, -0.50220877f, 0.42105007f, -0.30985731f, 0.02565777f, 0.24837369f, 0.05120093f, -0.29448736f, 0.55076426f, -0.02073650f, -0.01560613f, -0.40858576f, 0.29474434f, 0.07087588f, -0.14282726f, 0.52511573f, 0.27283514f, -0.37966427f, -0.40335029f, -0.34336269f, 0.36300093f, 0.21114773f, -0.14680043f, 0.00089590f, -0.26002449f, 0.38609076f, 0.26502731f, -0.57342309f, 0.47680694f, 0.51579350f, -0.16023654f, -0.26726356f, 0.04544427f, 0.16155884f, 0.14716668f, -0.20409644f, -0.41966498f, -0.37884247f, -0.23145390f, 0.09367365f, 0.42166290f, 0.48845130f, 0.16460325f, -0.08260802f, -0.27986354f, -0.23734593f, 0.26095101f, 0.16490225f, -0.48135215f, -0.17067866f, 0.31872138f, 0.42553893f, 0.12265654f, -0.48167223f, -0.27482867f, -0.47495896f, -0.16280009f, 0.39556649f, 0.38290128f, 0.16239686f, -0.41499045f, -0.38965854f, 0.05490175f, 0.39035979f, -0.15956326f, 0.10065871f, 0.38701534f, -0.00247473f, -0.16617292f, 0.29634035f, 0.10322051f, -0.36216816f, -0.79697633f, 0.33348703f, 0.25350472f, -0.11279859f, -0.39223659f, -0.54146707f, -0.30799156f, 0.11526989f, 0.34004542f, 0.46962395f, 0.57426912f, 0.37183723f, 0.03713816f, -0.26554775f, -0.46869218f, -0.26342914f, -0.04268353f, -0.15145496f, -0.05261681f, -0.42181873f, -0.12092889f, -0.23317869f, 0.09550223f, 0.35715201f, -0.08892494f, 0.14710833f, -0.10452685f, -0.59995860f, -0.52169567f, -0.28954411f, -0.16421533f, -0.13492487f, 0.33753267f, -0.29593635f, 0.20016117f, 0.40063244f, 0.37837812f, -0.38805842f, 0.03851984f, 0.13795125f, 0.28317678f, 0.47828791f, 0.14759344f, 0.14320570f, -0.19160070f, -0.64000207f, 0.34664103f, -0.63259786f, 0.19316190f, -0.03472530f, 0.62111861f, -0.11982584f, -0.36086595f, -0.05697804f, 0.26499182f, -0.82314461f, 0.26569203f, -0.29092109f, 0.34986645f, -0.19685248f, 0.02783332f, -0.00245875f, -0.10953839f, 0.40870270f, 0.57562011f, 0.44200963f, 0.05955084f, -0.11369645f, -0.35856545f, -0.30831981f, -0.16468519f, -0.26211748f, -0.15826255f, -0.09715442f, -0.43069682f, -0.35667047f, -0.01424722f, 0.18779886f, 0.11379793f, -0.20836093f, -0.64839512f, 0.21048795f, -0.34128338f, -0.19807599f, -0.09566450f, -0.04586058f, 0.46243054f, 0.09807446f, -0.44160652f, 0.15295309f, 0.66942734f, 0.60382223f, 0.68925774f, 0.16160220f, -0.28122726f, 0.13125555f, -0.46324593f, -0.12951560f, 0.18790030f, 0.06985492f, -0.93891621f, -0.60115504f, -0.22307085f, -0.33317187f, -0.12473911f, 0.00126122f, 0.34807062f, 0.30617079f, -0.13276362f, -0.48202914f, 0.35262281f, -0.26061356f, 0.05320316f, 0.44868878f, -0.16735817f, 0.22752228f, -0.02363544f, -0.26900968f, -0.30859694f, -0.70412326f, -0.39352474f, -0.07888293f, 0.40183651f, -0.00892203f, -0.03854717f, 0.33058825f, 0.23793876f, 0.37171659f, 0.37626541f, 0.00360257f, -0.51996851f, -0.18345374f, 0.09837212f, -0.16464169f, -0.34859037f, 0.52693272f, -0.17752722f, -0.28882161f, -0.10057197f, 0.22588715f, 0.39860493f, 0.36200207f, 0.26637518f, -0.30445924f, -0.53973210f, 0.24198642f, 0.34296724f, 0.07734132f, -0.27575427f, -0.43617359f, -0.40694118f, -0.14241010f, 0.25180456f, 0.39065573f, 0.43939999f, -0.59160215f, 0.26186970f, -0.23520957f, 0.00251295f, 0.19826715f, -0.00766245f, 0.44020060f, -0.41886750f, -0.03502467f, 0.29560444f, -0.01571649f, -0.43553588f, -0.36114243f, 0.33611819f, 0.44322288f, 0.06099274f, -0.29083607f, -0.49557063f, -0.10885300f, 0.28272417f, -0.36112204f, -0.09326195f, 0.46990022f, 0.31572592f, -0.01016556f, -0.18771380f, -0.45698917f, -0.48737064f, -0.14089586f, -0.13492835f, 0.08862486f, 0.01435784f, 0.14719726f, 0.53053164f, 0.41955963f, 0.57123876f, -0.00710143f, 0.02537431f, 0.36970735f, -0.09791717f, -0.18050009f, -0.03084053f, -0.29784918f, -0.58480513f, 0.47568038f, 0.46883994f, -0.19217984f, -0.21606150f, -0.50895905f, -0.20315993f, 0.08616179f, 0.30401915f, -0.05736389f
};

// shape: [48]
static const float l0_bn_weight[48] = {
    0.82548791f, 0.92259920f, 0.54123580f, 0.55247265f, 0.61706960f, 1.30036199f, 1.15092385f, 0.82587528f, 0.92822427f, 1.31006718f, 1.07198095f, 0.48534128f, 0.84345663f, 0.55692053f, 1.34237862f, 0.49014091f, 1.07772398f, 0.69582075f, 0.95173156f, 0.88568985f, 0.98136175f, 1.57010305f, 0.75957477f, 0.94315034f, 0.83034205f, 1.45093858f, 1.33232057f, 0.55660218f, 1.14021802f, 1.22065043f, 0.42037991f, 0.32917660f, 1.15325224f, 1.03825986f, 0.99147010f, 1.17720044f, 0.81527478f, 0.86645842f, 0.89469296f, 0.60239530f, 1.16237187f, 1.70247602f, 0.75089514f, 1.13733625f, 1.12052381f, 1.21347404f, 0.62186980f, 1.11541164f
};

// shape: [48]
static const float l0_bn_bias[48] = {
    -0.28040335f, -0.54628873f, 0.01728457f, 0.04986520f, -0.00819124f, -1.03215539f, -0.09919620f, 0.22744164f, 0.04618353f, -0.00514183f, -0.00528474f, 0.00004685f, -0.03630463f, 0.02185972f, -0.00254608f, 0.06815614f, -0.00213053f, 0.04184721f, -0.35679886f, -0.03550524f, -0.19374189f, -0.18923855f, 0.03773348f, 0.00035599f, -0.13590312f, -0.05730885f, -0.36369121f, -0.08538364f, -0.17623425f, -0.03793323f, 0.00430973f, -0.00060792f, -0.03814006f, -0.54793680f, -0.10750055f, -0.79395515f, -0.25457969f, 0.02031572f, 0.00231719f, 0.10429191f, 0.02555412f, 0.07570424f, -0.05329830f, -0.02372969f, -0.18900284f, 0.08544850f, 0.10136428f, 0.10833379f
};

// shape: [48]
static const float l0_bn_running_mean[48] = {
    0.00014400f, 0.00018202f, -0.00011512f, -0.00013604f, 0.00013058f, -0.00029014f, 0.00008986f, -0.00008605f, -0.00002150f, -0.00013754f, -0.00002876f, -0.00011313f, 0.00008892f, -0.00046848f, 0.00008835f, -0.00016018f, 0.00013581f, -0.00004913f, -0.00002414f, -0.00004233f, 0.00009548f, 0.00000804f, -0.00001571f, 0.00000450f, -0.00011646f, 0.00000195f, -0.00002321f, -0.00022740f, -0.00005415f, 0.00001509f, 0.00019757f, -0.00023931f, -0.00001308f, -0.00026005f, 0.00005609f, 0.00030092f, -0.00047823f, -0.00006790f, -0.00013868f, 0.00006588f, -0.00002658f, 0.00000598f, 0.00010597f, -0.00005752f, -0.00007893f, -0.00006309f, 0.00001606f, 0.00000378f
};

// shape: [48]
static const float l0_bn_running_var[48] = {
    0.00477022f, 0.00721377f, 0.00129101f, 0.00263447f, 0.00396126f, 0.01322673f, 0.00417503f, 0.00172064f, 0.00268925f, 0.00218686f, 0.00112060f, 0.00293304f, 0.00232914f, 0.02456248f, 0.00160151f, 0.00327589f, 0.00396324f, 0.00273133f, 0.00108657f, 0.00111799f, 0.00322295f, 0.00165379f, 0.00199023f, 0.00182525f, 0.00419081f, 0.00207480f, 0.00420807f, 0.00627243f, 0.00485506f, 0.00219260f, 0.00285288f, 0.00541709f, 0.00512345f, 0.00991052f, 0.00343694f, 0.00821096f, 0.02406050f, 0.00218225f, 0.00639382f, 0.00138695f, 0.00121396f, 0.00131723f, 0.00190868f, 0.00067868f, 0.00204581f, 0.00528032f, 0.00471781f, 0.00250274f
};

// shape: [48]
static const float l0_bn_bias[48] = {
    -0.28040335f, -0.54628873f, 0.01728457f, 0.04986520f, -0.00819124f, -1.03215539f, -0.09919620f, 0.22744164f, 0.04618353f, -0.00514183f, -0.00528474f, 0.00004685f, -0.03630463f, 0.02185972f, -0.00254608f, 0.06815614f, -0.00213053f, 0.04184721f, -0.35679886f, -0.03550524f, -0.19374189f, -0.18923855f, 0.03773348f, 0.00035599f, -0.13590312f, -0.05730885f, -0.36369121f, -0.08538364f, -0.17623425f, -0.03793323f, 0.00430973f, -0.00060792f, -0.03814006f, -0.54793680f, -0.10750055f, -0.79395515f, -0.25457969f, 0.02031572f, 0.00231719f, 0.10429191f, 0.02555412f, 0.07570424f, -0.05329830f, -0.02372969f, -0.18900284f, 0.08544850f, 0.10136428f, 0.10833379f
};

// shape: [96, 48, 5]
static const float l1_conv_weight[23040] = {
    -0.07106513f, -0.20872661f, -0.30648339f, -0.39660451f, -0.26333708f, 0.09144525f, -0.09228729f, -0.29860801f, -0.30352148f, -0.49743420f, 0.20219511f, 0.09816987f, -0.14082909f, -0.22776431f, -0.55317277f, -0.10706232f, 0.09182149f, 0.09911045f, 0.04084628f, -0.07864751f, 0.23373349f, 0.22355101f, -0.15482663f, -0.00417929f, 0.12935863f, -0.01525374f, 0.20353788f, 0.05420585f, -0.02625480f, -0.45281708f, 0.12469333f, -0.16718841f, -0.53133363f, -0.40764907f, -0.35401639f, -0.13583550f, 0.07823825f, 0.12770852f, -0.16275729f, 0.26203886f, -0.27508861f, -0.08909581f, -0.20416638f, 0.06295543f, -0.15468603f, 0.07164638f, 0.12624530f, 0.14628196f, 0.24881455f, 0.30987790f, -0.08771604f, -0.30685008f, -0.41728473f, -0.18720499f, -0.16666025f, 0.09508726f, 0.11497110f, -0.11561246f, -0.29685175f, -0.27524343f, -0.16809496f, 0.06452527f, 0.23526424f, 0.40907714f, 0.09482744f, 0.49275118f, 0.29327911f, 0.20326519f, 0.11701725f, 0.03440086f, 0.14516127f, 0.18459854f, 0.07663478f, 0.12979183f, 0.02581711f, 0.28937772f, 0.12272874f, 0.08269864f, -0.01239527f, 0.00775856f, -0.60851157f, -1.37652087f, -1.83966506f, -1.87907743f, -1.44138730f, -0.33591670f, -0.32848886f, -0.28304291f, -0.27678695f, -0.17085141f, -0.07150416f, 0.05174610f, -0.18456805f, -0.42625383f, -0.36702505f, -0.30280283f, -0.15561369f, -0.06623495f, -0.26468164f, -0.31854215f, 0.89318359f, 0.91580063f, 0.65328062f, 0.68815321f, 0.79117090f, 0.09484135f, 0.20692270f, 0.47298577f, 0.32789490f, 0.46842182f, 0.11460433f, 0.10480996f, 0.02276406f, -0.18623337f, -0.49379483f, -0.02697625f, -0.17427814f, -0.26530918f, -0.30915010f, -0.08012798f, -0.24828075f, -0.29693753f, -0.23923492f, -0.15986271f, -0.19694753f, -0.11301302f, -0.01446347f, 0.04568520f, 0.19120924f, -0.09505475f, -0.27279440f, 0.04817735f, -0.09085269f, -0.10323175f, -0.34245574f, 0.18182322f, -0.13838896f, -0.21460338f, -0.02353832f, 0.02397272f, -0.06561600f, 0.08288343f, 0.03159534f, 0.01038262f, -0.01874960f, -0.26323879f, -0.32195595f, -0.16898733f, -0.04243480f, -0.26028261f, 0.23568350f, 0.09270211f, 0.29500636f, -0.00179543f, 0.00645494f, 0.06635085f, 0.06122280f, 0.06289440f, 0.06496543f, -0.03242643f, -0.15816522f, -0.02591405f, 0.03906050f, 0.35041559f, 0.25336200f, 0.05825667f, -0.00445715f, -0.04122576f, -0.24353506f, -0.46931115f, 0.26979989f, 0.33394766f, 0.28164682f, 0.03535662f, 0.14333098f, -0.06153008f, 0.52383125f, 1.05610633f, 0.70599490f, 0.22078598f, 0.31922904f, 0.24300312f, 0.26464319f, 0.21808673f, 0.05728948f, -0.09359927f, -0.22680613f, -0.00782795f, -0.37499622f, -0.42195123f, 0.03447880f, -0.07473270f, -0.14736688f, -0.17182545f, -0.23658207f, 0.08757238f, -0.10554682f, -0.05857806f, 0.19983602f, -0.21419051f, 0.21614940f, 0.04980945f, 0.11118614f, 0.13576831f, -0.04004738f, -0.00030716f, 0.15424991f, 0.04898869f, 0.05158463f, 0.15410587f, -0.51140958f, -0.16021939f, -0.11285178f, 0.00211064f, -0.18474410f, 0.08237743f, 0.01448584f, -0.08526531f, 0.00310571f, 0.15589775f, -0.06561811f, -0.00823956f, 0.13352503f, 0.05513288f, 0.14669631f, -0.14609234f, -0.17062448f, -0.13936859f, -0.22094211f, -0.09863769f, 0.17718615f, 0.27909207f, -0.06089730f, -0.02515379f, -0.27316469f, 0.10897110f, -0.16906628f, -0.32964474f, -0.11804227f, -0.00019183f, -0.01200291f, 0.12943791f, -0.13177317f, 0.06327013f, -0.13221733f, -0.10250000f, -0.02713717f, -0.09334654f, 0.07819578f, 0.11264072f, 0.21637353f, 0.05964413f, -0.07274994f, -0.03027624f, -0.10474791f, -0.22780553f, -0.25045666f, -0.17608465f, -0.06346153f, 0.21163875f, 0.02824435f, 0.14690201f, -0.01761224f, -0.13580133f, -0.01893505f, -0.76037943f, -0.47898832f, -0.64905900f, -0.60757565f, -0.98547882f, -0.08317320f, -0.07050363f, -0.30773726f, -0.41393200f, -0.51832747f, 0.04418558f, 0.17635450f, 0.28855312f, 0.28135478f, 0.14348099f, -0.13226110f, 0.15721297f, 0.23902467f, 0.40830907f, 0.26216301f, -0.34259114f, -0.64133561f, 0.01229217f, -0.12242191f, -0.20878281f, -0.16400950f, 0.14166982f, 0.25191498f, 0.36808532f, 0.37844735f, -0.09828871f, 0.23505625f, -0.01604886f, 0.02235014f, -0.46307695f, -0.16322799f, 0.06376552f, 0.05815227f, 0.20202342f, -0.05587853f, 0.10502422f, 0.17297377f, 0.08271193f, 0.00529296f, -0.20091707f, -0.10929240f, -0.18699627f, -0.15408088f, -0.16683820f, 0.23471902f, 0.08726646f, 0.03670222f, 0.01534117f, 0.15012044f, 0.12296865f, 0.38038716f, -0.11825812f, -0.20547178f, -0.15969524f, -0.27944458f, 0.15539001f, 0.07953801f, 0.09938763f, -0.07804828f, -0.03306637f, -0.14782999f, -0.08913423f, 0.14334248f, 0.02423736f, 0.03655521f, 0.18680263f, -0.00830684f, 0.07632321f, 0.36052987f, 0.39172792f, 0.72278178f, 0.36775574f, 0.18934534f, 0.26882929f, 0.10346622f, 0.25874636f, 0.42354852f, 0.49864590f, 0.26379609f, -0.16044433f, -0.08532510f, -0.38591969f, -0.27915987f, -0.20561701f, -0.32295415f, 0.07473697f, -0.36710966f, 0.07378274f, -0.03604792f, 0.02793309f, 0.44707939f, 0.20377249f, 0.42202786f, 0.30225855f, -0.09350035f, 0.02362039f, -0.24694097f, -0.36630163f, -0.25661531f, -0.10481795f, -1.23091567f, -0.72157669f, -0.73242068f, -0.75484425f, -0.46756423f, -0.03885205f, -0.03785118f, -0.22302745f, -0.25057644f, -0.41203451f, -0.04584111f, -0.08941420f, -0.09296779f, 0.01377523f, -0.04659423f, -0.11418065f, -0.00883539f, -0.35742798f, -0.28327730f, -0.15416187f, -0.70722228f, -0.19246620f, 0.00917398f, 0.00766423f, -0.12410875f, -0.17907128f, -0.11507754f, -0.30102971f, -0.11517257f, -0.08299551f, 0.56824040f, 0.40303200f, -0.06938094f, -0.53926957f, -0.96856356f, -0.14782472f, 0.13996683f, -0.19300166f, -0.07105526f, -0.48149860f, -0.09375721f, -0.02290054f, 0.06475796f, 0.10982627f, -0.22352192f, -0.14282703f, 0.01693231f, -0.17752603f, -0.02629573f, -0.08791541f, -0.14864610f, -0.08495984f, -0.05723017f, 0.13858603f, 0.14286624f, -0.13456336f, 0.31382844f, 0.09406855f, -0.07086095f, 0.25211611f, 0.00014060f, -0.05955702f, -0.18193911f, 0.03565966f, -0.04382974f, 0.35833809f, -0.01877544f, 0.04181916f, 0.18704605f, 0.10558309f, -0.05175479f, 0.15037572f, -0.15531136f, -0.25833285f, -0.27661845f, 0.00352783f, -0.04115212f, -0.23581415f, -0.37839657f, -0.41916782f, -0.17512482f, 0.22261892f, 0.10834167f, -0.00626161f, 0.14395688f, -0.52806425f, -0.42635241f, -0.20188221f, -0.05193935f, -0.09663171f, -0.15598890f, -0.02301086f, -0.08456389f, 0.10225051f, 0.09126014f, -0.13962214f, -0.01142841f, 0.09405669f, 0.15748085f, 0.07791155f, 0.29888737f, 0.25510454f, -0.13909154f, -0.13834523f, -0.46452790f, 0.05415051f, 0.40809807f, -0.17981252f, -0.12979095f, -0.11189450f, 0.14755520f, 0.41560137f, 0.41187906f, 0.31219283f, 0.09351677f, -0.12140753f, -0.28682783f, -0.17125189f, -0.65903610f, -0.85191846f, 0.10814635f, 0.03431485f, -0.02995069f, -0.07781912f, -0.01977818f, -0.36752960f, -0.47815111f, -0.21394406f, 0.11682905f, -0.13110602f, -0.05181661f, -0.05222751f, 0.09420957f, -0.06352723f, -0.04119367f, -1.24257731f, -0.40524039f, -0.39543045f, -0.60731679f, -0.58790797f, 0.30574608f, 0.31045121f, 0.17607912f, 0.10737248f, -0.11242267f, 0.06750840f, 0.02006830f, 0.08140583f, -0.11311848f, -0.05256278f, -0.72198969f, 0.01133273f, 0.10300211f, -0.01032337f, 0.18919173f, -0.58675241f, -0.06654058f, 0.21328422f, -0.14399004f, -0.06725889f, -0.11766089f, 0.02474613f, 0.15900187f, -0.23375346f, 0.08837923f, -0.04502916f, 0.07913665f, 0.08146282f, 0.19460328f, -0.09404512f, -0.22332710f, 0.39899716f, 0.12919314f, 0.25620854f, -0.36559257f, 0.16106722f, 0.06622028f, 0.02636967f, -0.13139319f, -0.24103008f, -0.27409175f, -0.33290720f, -0.17520447f, -0.40434766f, -0.53474897f, -0.16217475f, -0.16703452f, -0.08230531f, 0.12537995f, 0.16015446f, -0.22113103f, 0.07921693f, 0.25544852f, 0.03861225f, 0.07810458f, -0.13299188f, -0.02481624f, -0.07763158f, 0.13781357f, -0.11101421f, -0.22413608f, -0.28272128f, -0.26978046f, -0.66675144f, -0.53522378f, 0.38175213f, 0.43557495f, 0.33227921f, 0.14685905f, -0.66003042f, -0.48769602f, -0.07011721f, 0.16280884f, 0.44123077f, 0.12524484f, 0.12769744f, 0.18884067f, 0.26357201f, 0.01301408f, -0.05540594f, -0.12545368f, 0.24894223f, 0.45029992f, 0.13642739f, -0.43743411f, -0.87725198f, -0.11965923f, -0.08220335f, 0.30826786f, 0.08985146f, 0.22265811f, -0.24163054f, 0.05961333f, -0.04435562f, -0.23469445f, 0.12150656f, -0.30771330f, -0.14772333f, 0.07396971f, 0.06690191f, -0.19349843f, -0.37026539f, -0.25967681f, -0.16509786f, -0.23934755f, 0.13627459f, 0.05943828f, 0.18011355f, 0.12299404f, -0.00949114f, -0.07533900f, -0.05187001f, 0.07820039f, 0.08386610f, -0.13354240f, -0.24249801f, 0.05268962f, -0.06685662f, -0.28663984f, -0.17807619f, -0.16787173f, 0.35934085f, 0.25847259f, -0.12628008f, -0.22279803f, -0.26505375f, 0.02444385f, 0.12324173f, 0.27712643f, -0.04098787f, 0.05814265f, -0.02278378f, 0.05757451f, 0.12561026f, -0.11900283f, -0.30444029f, -0.34620631f, -0.37552881f, 0.25048211f, 0.28511381f, 0.18396831f, 0.28730118f, 0.25821531f, 0.22059786f, -0.05627326f, -0.55852914f, -0.55676877f, -0.43118554f, -0.17938662f, -0.41819981f, -0.25221589f, 0.15410842f, 0.36601457f, 0.12727121f, 0.28238702f, -0.02949909f, 0.23877005f, -0.06866650f, -0.13560954f, 0.36995468f, -0.26764113f, -0.13724251f, -0.00518717f, 0.11505781f, -0.11679580f, -0.42701784f, 0.11269295f, 0.12539726f, 0.21128085f, 0.12993172f, 0.21444164f, -0.03839994f, 0.14575680f, -0.18811560f, 0.10086668f, -0.03251320f, -0.21333499f, -0.07581081f, -0.12038288f, -0.07639003f, 0.15432091f, 0.47207236f, 0.26373923f, 0.08063506f, -0.40599048f, 0.21957733f, 0.10464299f, 0.07119688f, -0.12119366f, -0.04288698f, -0.43604982f, -0.28421614f, 0.23018755f, 0.37556168f, 0.12022004f, 0.21018857f, 0.07953801f, 0.16704477f, 0.27288109f, 0.09717550f, 0.15825026f, 0.05364856f, 0.28200239f, 0.04861081f, -0.20312890f, -0.55280834f, -0.27714056f, -0.16469575f, 0.11762632f, 0.11465716f, 0.11490719f, 0.21039324f, 0.14064673f, 0.30096048f, 0.29935017f, 0.01111463f, -0.20717263f, -0.05661819f, -0.17566629f, -0.12028965f, -0.17980237f, 0.04297704f, -0.01509222f, 0.55319959f, 0.62076277f, 0.28702599f, 0.05109885f, 0.09064353f, -0.28221464f, 0.08797619f, 0.09884977f, 0.04341762f, 0.12028482f, 0.38148445f, 0.41398928f, 0.91553646f, 0.60963565f, 0.28017372f, 0.13282181f, 0.04693548f, 0.17344236f, -0.06722967f, 0.19774795f, 0.02351785f, 0.21902850f, 0.20743904f, 0.18097146f, 0.21815129f, -0.10815711f, 0.06914111f, -0.23520473f, 0.08100064f, -0.03708703f, -0.40219212f, -0.31380016f, -1.05581903f, -0.92318499f, -0.49824277f, -0.34393567f, 0.14186053f, 0.08125371f, -0.10420320f, 0.06231377f, -0.02560161f, -0.02332714f, 0.10615186f, 0.21872850f, 0.16100687f, 0.27840269f, 0.32111821f, -0.29263997f, 0.24525154f, 0.00417718f, 0.08206762f, 0.06750341f, 0.03109488f, 0.14739762f, 0.18296655f, 0.10166299f, 0.23210378f, -0.52083617f, -0.64496726f, -0.64441180f, -0.56434906f, -0.58372796f, 0.25658479f, 0.06368899f, 0.14527647f, 0.20601548f, -0.02232599f, -0.37000343f, -0.09764264f, -0.07959012f, -0.32232973f, -0.27861452f, 0.11803485f, 0.01863566f, 0.20861863f, 0.10777316f, 0.20895331f, 0.08714987f, 0.13382627f, -0.00470023f, -0.22710754f, -0.38407150f, -0.07084577f, 0.03965834f, 0.24983506f, 0.27003548f, 0.23699778f, 0.10722346f, -0.41258028f, -0.29832768f, -0.34793216f, -0.30739319f, 0.02778641f, -0.09209855f, 0.23283727f, 0.01720192f, -0.21946204f, -0.24136584f, -0.04422713f, 0.06447116f, 0.38333595f, 0.60730433f, 0.23005201f, 0.39136359f, 0.07002369f, 0.11998649f, -0.02360456f, 0.05083513f, 0.03729846f, -0.14630426f, 0.14596213f, 0.19156989f, -0.10141873f, -0.16800395f, -0.30652630f, -0.05095155f, 0.21305214f, 0.19101390f, -0.06029912f, -0.06587372f, 0.02590115f, 0.01999924f, 0.03643892f, 0.06489792f, 0.14624521f, 0.21254452f, 0.18874651f, -0.08111576f, -0.12009965f, -0.08616161f, -0.02735929f, -0.09949874f, -0.02538509f, -0.05769444f, -0.07916801f, -0.03283904f, -0.11199115f, 0.20944171f, 0.40273064f, 0.07213447f, 0.05335868f, -0.03200767f, -0.06152299f, -0.04832656f, -0.04107493f, -0.11223375f, 0.04891999f, -0.17957203f, -0.13890986f, -0.01797353f, -0.23063898f, 0.01280822f, -0.36700279f, -0.16196752f, -0.15822501f, -0.18137991f, -0.16086593f, 0.06583083f, -0.08384792f, -0.04703906f, 0.16709092f, 0.37487850f, 0.30145824f, 0.30484957f, 0.30332524f, 0.07205448f, -0.14244375f, -0.51597577f, -0.32140049f, -0.00101232f, 0.05170503f, -0.06997358f, 0.19743052f, -0.16392274f, 0.11094716f, -0.11166873f, -0.18741953f, -0.00008059f, -0.04629832f, -0.01041104f, -0.10674597f, -0.30748186f, -0.99172974f, -1.07697046f, -0.33989000f, -0.19854894f, -0.23604822f, -0.01899143f, -0.09169725f, -0.09065209f, 0.10401769f, 0.25165260f, -0.19044283f, 0.05400586f, 0.09752210f, -0.01270328f, -0.13082443f, -0.29531303f, 0.33973405f, -0.10037791f, -0.26598749f, -0.05002048f, 0.54083908f, 0.18190475f, 0.18791021f, 0.52668750f, 0.41401288f, -0.67664278f, -0.42012221f, -0.28160641f, -0.06492843f, -0.41982469f, 0.33521762f, 0.10481901f, 0.04109944f, 0.09597015f, 0.03886889f, -0.07124910f, -0.27197561f, 0.03785520f, 0.15916137f, 0.54279625f, -0.55034083f, -0.30887350f, -0.11544576f, -0.15240824f, 0.08378456f, -0.29140592f, 0.11131512f, 0.23021561f, 0.23351167f, 0.13865174f, -0.08461338f, -0.00545860f, 0.05709683f, 0.07094649f, 0.04404708f, -0.06237786f, 0.12743014f, 0.27001724f, 0.41320452f, 0.44180441f, -0.21022704f, -0.70423985f, -0.70954216f, -0.62733352f, -0.19287571f, 0.00696286f, 0.00294366f, 0.13410467f, 0.07235645f, 0.00797997f, 0.48674509f, -0.25920218f, -0.24481502f, -0.18112451f, -0.29564539f, 0.03910564f, -0.41291559f, -0.56933564f, -0.37373382f, -0.58117157f, -0.15021512f, -0.36661923f, -0.02413330f, 0.23370175f, 0.42921293f, 0.17297123f, -0.38206184f, -0.61631280f, -0.20887659f, 0.22657725f, -0.12419750f, -0.21523733f, -0.19194369f, -0.46754318f, -0.20416661f, -0.51276988f, -0.38403437f, -0.07213929f, -0.61034864f, -0.22815236f, -0.11218131f, -0.08178638f, -0.02067980f, 0.12085616f, 0.17435881f, 0.03812186f, 0.04818228f, 0.06192315f, -0.00536842f, 0.18612577f, -0.18370435f, 0.01599609f, -0.11894274f, -0.05600744f, 0.06372816f, -0.29041058f, -0.29288805f, -0.41721150f, -0.23551911f, -0.08934116f, -0.12331008f, 0.21637762f, 0.10917966f, 0.10644632f, 0.06938194f, -0.06489317f, 0.11819997f, -0.00030001f, 0.22711466f, 0.17278481f, 0.38930091f, 0.43240824f, 0.39973259f, 0.25455296f, 0.52661777f, -0.32625252f, -0.35138032f, -0.09508545f, 0.06758977f, 0.13293958f, 0.25164583f, 0.35647464f, 0.24883555f, 0.12236167f, 0.39507177f, 0.15772504f, 0.29145312f, 0.04215609f, 0.11626706f, 0.23899415f, 0.16556129f, -0.04529476f, -0.09198859f, -0.03392383f, -0.05019705f, 0.21605219f, 0.08820205f, 0.18490271f, 0.17990421f, 0.36544165f, -0.15450124f, -0.39020711f, -0.33714554f, -0.08459560f, -0.06094828f, 0.34707886f, 0.16320442f, 0.13149089f, 0.19410616f, -0.00401548f, -0.15420400f, 0.09034528f, 0.23993382f, 0.41814241f, 0.68723780f, 0.29522422f, 0.17794824f, -0.10147815f, 0.07646720f, 0.10338411f, -0.09859142f, 0.00173195f, -0.07745045f, 0.03871865f, 0.03758945f, 0.21648338f, 0.13854982f, 0.14321767f, 0.23216040f, 0.36057964f, -0.33552200f, -0.59954494f, -0.60825366f, -0.55071133f, -0.37580732f, -0.01548189f, -0.01291273f, 0.04684035f, 0.00325697f, 0.09733494f, -0.03368499f, 0.19758160f, -0.02897820f, 0.00557909f, 0.12510625f, 0.22558819f, 0.16901799f, 0.04579007f, 0.21863052f, 0.23750170f, 0.13808002f, -0.06966350f, -0.03990613f, 0.06941164f, 0.20888257f, 0.24187127f, 0.36689535f, 0.32601964f, 0.30747604f, 0.41774362f, -0.31984234f, -0.05674348f, -0.20107661f, -0.22606462f, -0.15280563f, -0.18888249f, -0.05042245f, -0.12940465f, -0.01178763f, -0.02032638f, -0.06334421f, 0.15554088f, 0.20248698f, 0.26287147f, 0.47524738f, 0.14762253f, 0.52972662f, -0.02009538f, -0.22695328f, -0.02571598f, -0.09687653f, 0.19109426f, 0.38232422f, 0.33315352f, 0.09137229f, -0.09840306f, 0.03589110f, 0.15864943f, 0.31789404f, 0.23134832f, 0.06185773f, -0.03606988f, -0.23288099f, -0.21890146f, -0.72592849f, -0.21515581f, 0.06471893f, 0.02879363f, 0.25805101f, 0.06781251f, -0.19230330f, -0.34837997f, -0.36446846f, -0.30726206f, -0.53695893f, 0.00225904f, 0.07675707f, 0.23595662f, 0.20423816f, 0.08323898f, -0.00730434f, -0.40331861f, -0.85572165f, -0.77185136f, -1.02911580f, 0.12612733f, 0.09472076f, 0.04613458f, 0.00822570f, 0.23680802f, -0.22145402f, 0.24512625f, 0.21201192f, 0.33688048f, 0.35612959f, 0.20533261f, 0.21215500f, 0.20998591f, -0.04285032f, 0.09077431f, 0.09703973f, 0.11360820f, 0.07653591f, -0.02541435f, -0.03996336f, 0.13354264f, 0.27400100f, -0.01166861f, -0.31239897f, -0.27124038f, -0.04629506f, 0.10596037f, 0.11688764f, 0.23652220f, 0.33597851f, -0.39684531f, -0.42913461f, -0.28896356f, -0.25187379f, -0.12503730f, -0.04148394f, -0.02599815f, -0.07438540f, 0.11153130f, 0.62274444f, 0.15647595f, 0.09502380f, 0.00587981f, -0.18639520f, 0.09751613f, -0.33266592f, -0.04492576f, 0.05076623f, 0.10383908f, -0.02802449f, -0.03990439f, 0.30615062f, 0.26812497f, 0.40267140f, 0.29061821f, 0.11928256f, 0.10394396f, -0.09772723f, 0.06247834f, -0.10090886f, 0.21165350f, 0.28201270f, 0.33645511f, 0.33987790f, 0.13523583f, -0.88731354f, -0.68188918f, -1.01052988f, -1.34408045f, -0.89947891f, -0.40270826f, -0.27144924f, 0.04593039f, -0.21729617f, -0.25345597f, -1.86905527f, -1.86929119f, -2.05604649f, -1.90872598f, -1.75721049f, 0.02842272f, -0.01811919f, -0.12358266f, -0.01483199f, -0.11614799f, -0.28022540f, -0.35085925f, -0.34823373f, -0.17444994f, -0.34550387f, 0.23514919f, 0.09667090f, -0.07047273f, -0.08210718f, 0.01472737f, -0.15875982f, -0.10847126f, -0.07492270f, 0.12640929f, 0.14192487f, -0.29984257f, -0.06672294f, -0.02214262f, -0.18236874f, -0.17741524f, -0.01233412f, -0.04652457f, -0.20191565f, -0.22183287f, -0.22878042f, 0.14783165f, -0.15640609f, -0.18711214f, -0.10399686f, -0.16843496f, -0.09553254f, -0.19320191f, -0.05024688f, -0.02632263f, -0.00282174f, 0.00557882f, -0.06652961f, -0.31384262f, -0.40058607f, -0.28703445f, 0.34222424f, 0.26484767f, -0.06101252f, 0.00033613f, -0.03823066f, 0.09518483f, 0.00295724f, 0.15927549f, 0.15015142f, 0.33855751f, -0.03709378f, 0.05957755f, 0.01300037f, -0.14709522f, -0.02992704f, -0.33483341f, -0.15768756f, -0.11323357f, 0.29008833f, 0.24130213f, 1.04140794f, 1.41280758f, 1.14894843f, 1.01412058f, 1.05478907f, 0.32113418f, 0.27239102f, 0.31551641f, 0.04931044f, 0.07438553f, -0.32152578f, -0.16015996f, 0.13959426f, 0.01128405f, 0.02760268f, -0.60755980f, -0.18786868f, 0.17714122f, -0.26364356f, 0.02610995f, -0.08998768f, -0.12314375f, -0.37989721f, -0.40937358f, -0.62692368f, -0.27872577f, -0.10510887f, -0.06786282f, -0.11099166f, 0.05385762f, 0.67915714f, 0.59597659f, 0.45739344f, 0.19038554f, 0.39202267f, 0.17206898f, 0.02484485f, -0.11491082f, -0.14280337f, -0.16399163f, 0.20013621f, 0.14992499f, 0.11541274f, 0.07069509f, 0.09372914f, 0.05359491f, 0.54675013f, 0.23154488f, 0.47629017f, 0.62644309f, -0.09274554f, -0.37851763f, -0.08214715f, -0.02187449f, -0.21462427f, -0.05690211f, -0.29025945f, -0.20880905f, -0.16653015f, 0.03913482f, -0.12773377f, -0.13077126f, -0.12195670f, 0.06380405f, -0.03664092f, 0.09301709f, -0.01769097f, -0.04351212f, -0.02795269f, -0.02987478f, 0.11852160f, 0.07441273f, 0.00027555f, -0.18358853f, -0.19305344f, 0.04652916f, -0.01957611f, -0.04417240f, 0.02528422f, -0.03559619f, 0.21011569f, 0.22385560f, 0.20383114f, 0.06295817f, 0.10709082f, 0.02906839f, -0.22961855f, 0.16302378f, 0.05782124f, -0.15683833f, -0.05505979f, -0.13713042f, -0.06415364f, 0.05266799f, 0.14951551f, 0.14638217f, 0.09028355f, 0.10673755f, -0.15331727f, -0.21460105f, 0.08306299f, -0.29508436f, -0.15684862f, 0.13875520f, 0.05088343f, -0.55519819f, 0.13362885f, -0.16500175f, -0.07951118f, 0.04688938f, -0.15256010f, -0.09561045f, -0.43604675f, -0.29881579f, -0.62169081f, 0.15881529f, -0.01978622f, -0.11369061f, -0.02508870f, -0.27650169f, -0.09439664f, 0.01632058f, -0.16121879f, -0.31723642f, -0.52229077f, -0.02071396f, 0.09063360f, 0.06741706f, -0.24889182f, -0.35935727f, -0.14740199f, -0.14933722f, 0.45852685f, 0.13958549f, -0.27090883f, -0.06619253f, -0.05403992f, 0.41987154f, 0.27489591f, -0.11634623f, 0.17306608f, -0.02147973f, 0.23195352f, 0.02591009f, 0.19450259f, 0.00199690f, -0.17156355f, -0.12916487f, 0.00198476f, -0.30092824f, -0.05921773f, -0.48363250f, -0.22088428f, -0.05841691f, -0.20398219f, 0.03757902f, 0.19903442f, 0.22392921f, 0.01918795f, -0.14507332f, 0.05890664f, 0.24331442f, 0.15216091f, 0.00624763f, -0.17800567f, 0.08711110f, 0.03523406f, -0.23702650f, 0.06059346f, -0.15130448f, -0.15829030f, 0.10046335f, 0.15636027f, 0.22045553f, -0.04124054f, 0.28242898f, 0.04259448f, -0.08509357f, 0.04184118f, -0.15931854f, -0.10735946f, 0.06214030f, 0.10615582f, 0.18646808f, 0.07795296f, -0.48068047f, -0.12571765f, 0.21431082f, 0.34284112f, 0.18200219f, 0.27836564f, 0.36183921f, 0.03389301f, -0.06028994f, -0.12829278f, -0.79964298f, -0.19487442f, -0.05190886f, -0.58267778f, -0.11091575f, 0.13446917f, 0.22257465f, -0.12764117f, -0.12364646f, -0.20993690f, -0.42264062f, -0.12473658f, -0.42242390f, -0.01572304f, -0.03463856f, 0.00989367f, 0.08874431f, 0.29239553f, 0.50182432f, 0.53368092f, 0.32972550f, 0.01399547f, -0.00466153f, -0.13280293f, -0.40338808f, 0.04375672f, -0.14555368f, -0.11623599f, 0.10130321f, 0.05277029f, 0.39149716f, 0.05193012f, -0.35338151f, -0.54864985f, -0.60658008f, 0.16605455f, 0.10477769f, 0.12140187f, -0.25755203f, -0.22131379f, 0.02600848f, 0.10257687f, -0.22163849f, -0.85161912f, -0.56863374f, 0.13213928f, -0.15981171f, -0.17810638f, -0.16390635f, -0.26736546f, -0.18996036f, -0.29194370f, 0.00987804f, -0.29287568f, 0.04958774f, -0.08112963f, -0.23088896f, -0.09557825f, -0.26793644f, -0.22331475f, -0.13829640f, -0.04193019f, 0.10694961f, 0.12717043f, -0.19754773f, -0.13161363f, -0.02299252f, 0.00845917f, 0.09208097f, 0.14018570f, 0.03650446f, 0.46828133f, 0.50422949f, 0.36087734f, 0.27281147f, -0.51445562f, -0.28721046f, -0.56790966f, -0.98521930f, -1.37082064f, 0.14313747f, 0.02969342f, -0.19628976f, -0.12138406f, 0.08783657f, -0.48011726f, 0.07740109f, -0.02096690f, -0.17792599f, -0.31530067f, 0.14947551f, 0.48473567f, 0.54151887f, 0.62518042f, 0.63072550f, 0.01569086f, 0.10173636f, 0.03617681f, -0.07249915f, -0.11545227f, -0.25862658f, -0.35953137f, 0.08349276f, 0.08741477f, 0.00785865f, -0.42547601f, -0.31541139f, -0.17349042f, -0.19698480f, 0.19483936f, 0.12066370f, 0.09927287f, -0.07363486f, -0.05924558f, -0.39071202f, -0.05649710f, -0.16795215f, -0.05946072f, 0.06947225f, 0.08729932f, -0.04158891f, -0.03588400f, 0.22456996f, 0.37772331f, 0.00104120f, -0.01136116f, 0.03856870f, 0.41580972f, 0.16566031f, 0.19083989f, -0.26635411f, -0.29103726f, -0.34179199f, -0.06052317f, 0.13293831f, 0.03655842f, 0.05482348f, 0.37856779f, -0.13465530f, -0.30220604f, -0.07189300f, 0.07925372f, -0.22639662f, 0.17888036f, 0.13766401f, -0.53815347f, -0.29570141f, 0.06608047f, 0.14736114f, 0.06614063f, -0.15957066f, 0.17325822f, 0.06628230f, -0.06370175f, 0.01414231f, -0.02857083f, 0.02229597f, 0.22198184f, 0.17230606f, -0.08454502f, 0.12530363f, 0.13101296f, 0.09611838f, 0.46033385f, 0.82058805f, -0.09931074f, 0.12718242f, 0.06902401f, -0.00886303f, -0.00744178f, -0.04906317f, 0.18076515f, -0.09344406f, 0.01701552f, 0.18093404f, -0.28994104f, -0.17768614f, 0.03498229f, -0.55622512f, -0.48035076f, 0.29588810f, 0.09174002f, 0.26738229f, 0.46283796f, -0.07541523f, -0.08845198f, 0.20058136f, 0.40662277f, 0.49959102f, 0.36926913f, -0.32918948f, 0.06380044f, 0.34939927f, 0.25513545f, 0.25033405f, -0.76271445f, -0.66280907f, -0.34038663f, -0.21823435f, -0.57863957f, -0.32313815f, -0.32386431f, -0.08388270f, -0.29037002f, -0.26150763f, -0.31186417f, 0.10048187f, -0.09541307f, -0.24902658f, -0.02151866f, 0.01728673f, 0.27905676f, 0.35889652f, 0.30093187f, -0.22200513f, -0.07379381f, -0.02807022f, 0.03186749f, -0.10641291f, -0.16933276f, -0.95260191f, -0.85106266f, -0.30673656f, -0.65691733f, -0.37381050f, -0.14605686f, 0.13324268f, 0.11101777f, 0.27945787f, 0.23871592f, -0.03745491f, -0.07479721f, -0.02629576f, -0.08204682f, -0.21937539f, 0.19740665f, 0.18325138f, 0.20408764f, 0.09681983f, -0.20895250f, 0.51190209f, 1.06341100f, 0.59426111f, 0.78920746f, 0.96823871f, 0.18437386f, 0.17298855f, 0.31234869f, 0.45227480f, 0.22317949f, -0.08814529f, -0.14434877f, -0.10396885f, 0.10157807f, -0.00752928f, 0.42751572f, 0.39225051f, 0.21033989f, 0.18798451f, -0.07117183f, 0.57127243f, 0.51334107f, 0.31325251f, 0.09086809f, -0.24367781f, -0.03874220f, 0.04375014f, 0.01615146f, -0.18071333f, -0.11100458f, 0.19742811f, 0.11830558f, -0.12724508f, -1.06369805f, -1.33499479f, -0.04176860f, 0.01683152f, -0.08348955f, -0.35840246f, -0.19747318f, -0.33359271f, -0.48918974f, -0.42552477f, -0.26421282f, -0.16083550f, -0.18271980f, 0.20059076f, 0.04919985f, 0.03529732f, -0.02839754f, -0.15207498f, -0.16774212f, -0.01510687f, -0.21440542f, -0.17785148f, -0.14267287f, -0.02323239f, 0.29920438f, 0.08089285f, -0.22153039f, 0.04065272f, 0.17033026f, -0.14997105f, -0.06424964f, 0.05466176f, -0.19069606f, 0.10360757f, 0.06569675f, -0.06887390f, 0.11895598f, 0.38417998f, 0.11428893f, 0.05382294f, -0.63984835f, -0.94869334f, -0.16379111f, 0.04074016f, -0.15521742f, -0.36540484f, -0.42908809f, 0.15373898f, 0.23346783f, -0.02046843f, -0.25743914f, -0.23897825f, -0.19288555f, -0.17996913f, -0.00413091f, 0.05197330f, 0.09883934f, -0.20591629f, -0.08024578f, -0.12651342f, 0.22138956f, 0.05214003f, -0.39755097f, -0.05828008f, 0.20609035f, 0.15171285f, 0.47334182f, -0.14753893f, -0.07130684f, 0.07515521f, -0.05879078f, 0.00117675f, -0.20869182f, -0.06451296f, 0.00437503f, -0.13684164f, -0.04478435f, -0.79513645f, -0.85907704f, -0.49511304f, -0.52343500f, -0.61907941f, 0.18248032f, -0.03932339f, -0.00705382f, 0.10372498f, -0.16541897f, -0.17154208f, 0.65514851f, 0.37447026f, -0.00134692f, -0.11984855f, -0.24767505f, -0.22366948f, -0.13637824f, -0.25417414f, -0.29407126f, 0.10792498f, -0.02294667f, 0.12826282f, 0.09561998f, 0.06994493f, -0.01088372f, 0.00363232f, 0.17180067f, 0.18647625f, 0.04764862f, 0.28019047f, 0.60407138f, 0.44739872f, 0.07012376f, -0.09334244f, 0.00686940f, 0.08587866f, -0.00829515f, 0.16409613f, 0.38517234f, 0.20037839f, 0.34993511f, 0.44113231f, 0.52081329f, 0.04212714f, 0.10621063f, 0.10912440f, -0.07555596f, -0.30412310f, -0.43419710f, -0.04583318f, -0.10437065f, -0.03131787f, 0.47985387f, -0.17083068f, 0.50245845f, 0.13341811f, 0.09737661f, 0.13061234f, 0.11266109f, -0.16780083f, -0.20414092f, -0.18310116f, -0.14932150f, -0.49064228f, -0.15344396f, -0.68691117f, -0.25823888f, 0.31775460f, 0.40367770f, 0.37074113f, 0.17305598f, -0.00539253f, 0.10915291f, 0.15037723f, 0.05812179f, -0.09957444f, 0.03536393f, -0.29595286f, 0.17236046f, -0.24738553f, -0.40855625f, -0.12609836f, 0.28046581f, 0.30314702f, 0.34342688f, -0.20750715f, 0.15517047f, 0.14206418f, 0.09237610f, -0.28451878f, -0.18212438f, -0.00996728f, -0.21590516f, -0.19955018f, -0.13511012f, -0.35353875f, 0.07325079f, -0.07924484f, -0.25877714f, 0.14005803f, -0.04933325f, -0.00899600f, -0.04090163f, 0.04741319f, 0.16879593f, -0.17970265f, -0.38338166f, -0.64964545f, -0.77008170f, 0.15730284f, 0.05157950f, 0.09335994f, 0.11851557f, 0.01888095f, 0.30338898f, 0.36350539f, 0.06090280f, -0.17195421f, 0.18568549f, 0.14655718f, 0.17158061f, 0.13501382f, 0.17595559f, -0.14507057f, -0.18906538f, -0.37277457f, -0.50974256f, -0.48645124f, -0.07226140f, -0.58039922f, -0.84597391f, -0.30843997f, -0.60422319f, -0.04595475f, -0.67093360f, -0.92973566f, -0.83221692f, -0.51765835f, -0.12958479f, 0.23619771f, 0.23378724f, 0.01687355f, -0.23637033f, -0.18064849f, 0.05384015f, 0.05582245f, 0.20165706f, 0.28367132f, 0.31339031f, -0.12427586f, -0.30921319f, -0.09413882f, 0.19859006f, 0.20482174f, 0.08988816f, 0.13646892f, 0.02266678f, -0.08543602f, -0.25443095f, -0.28080472f, -0.21866326f, -0.23644473f, -0.93425810f, -0.69571882f, 0.10359851f, 0.02820111f, -0.10140770f, 0.11474670f, 0.20702435f, -0.45443708f, -0.81840307f, -0.59114653f, -0.41997638f, -0.84973270f, 0.06811634f, 0.03897067f, -0.11915198f, -0.55664897f, -0.53432131f, 0.11839080f, -0.05718153f, -0.14684524f, 0.09464795f, 0.11688419f, -0.14981371f, -0.06443585f, 0.03583409f, 0.16995507f, -0.05062970f, -0.02605878f, 0.08646246f, -0.39467818f, -0.12872569f, -0.40717667f, 0.16874777f, 0.17242910f, 0.38319159f, 0.06883112f, 0.40646136f, 0.25167570f, -0.09096753f, -0.14595303f, -0.24554481f, -0.13288124f, 0.08914307f, 0.46429309f, 0.14482328f, 0.19515793f, 0.25402522f, -0.33539838f, -0.29639444f, 0.11159880f, 0.08488362f, 0.05574103f, -0.60429144f, -0.07873571f, 0.06196899f, 0.14258640f, -0.01958864f, -0.26870793f, -0.12406500f, 0.05507035f, -0.33701402f, -0.36966506f, -0.05606530f, 0.08796106f, -0.15199392f, -0.19500308f, -0.19256559f, 0.32513043f, 0.40091419f, 0.12428731f, 0.32301053f, 0.24434392f, -0.33117440f, -0.30884212f, -0.35112339f, -0.22404048f, -0.07633755f, 0.34408268f, 0.37664002f, 0.30292860f, 0.01315001f, -0.05877910f, 0.07651588f, 0.33572459f, 0.16917057f, 0.11301295f, 0.07558089f, 0.13651820f, 0.13522190f, 0.03782678f, 0.20501001f, 0.15486196f, -0.06278599f, -0.07133247f, 0.03533229f, -0.13136567f, 0.05129992f, -0.14559044f, -0.17075592f, -0.40974241f, -0.18806496f, -0.01042899f, -0.00709724f, -0.25509471f, -0.30170149f, -0.14148171f, 0.06771544f, -0.28212225f, -0.05824121f, 0.07820983f, 0.16953309f, 0.07812595f, -0.05395626f, 0.03231725f, 0.05645655f, -0.17327550f, 0.05188836f, -0.21740013f, -0.30259261f, -0.06678918f, -0.13884374f, 0.28973085f, 0.10430475f, 0.14480083f, 0.12220325f, -0.25386772f, -0.19526182f, 0.19247857f, 0.15666266f, -0.12228738f, 0.32907960f, 0.61447710f, -0.77638012f, -0.20204027f, -0.32841697f, -0.43124503f, -0.40916923f, -0.01720696f, -0.10440141f, -0.00044912f, -0.14189978f, 0.17580919f, -0.02319782f, -0.04256212f, 0.13672790f, 0.30251545f, 0.26853958f, -0.11852460f, -0.01682365f, -0.07976603f, -0.27212635f, -0.04041007f, 0.13110909f, 0.09165635f, 0.30309257f, -0.00879951f, 0.16039230f, 0.04523887f, 0.16397107f, 0.40177640f, 0.38265455f, 0.28323045f, -0.40980834f, -0.48329982f, -0.54119176f, -0.45578030f, -0.17172877f, -0.14596565f, -0.10402979f, -0.34220201f, 0.00329331f, 0.00827883f, -0.06735940f, 0.22691926f, 0.14608072f, -0.08441666f, 0.27267417f, 0.10276282f, -0.03348440f, -0.26756477f, -0.16863354f, -0.01973525f, -0.37176910f, -0.24915917f, -0.16286932f, -0.10754664f, 0.10783842f, -0.14410780f, 0.08289037f, -0.45094705f, -0.19755895f, -0.55351120f, -0.41331238f, -0.02823252f, -0.17286731f, 0.22093219f, 0.15023959f, -0.03117362f, -0.24960893f, -0.43042973f, -0.12072486f, -0.20388405f, -0.02270697f, 0.55442530f, 0.37615472f, 0.50742698f, 0.44555697f, -0.28986704f, 0.06561203f, 0.12896253f, 0.02524920f, 0.14209197f, 0.04618518f, -0.18289219f, -0.01946713f, 0.12555297f, 0.22476853f, -0.11530249f, -0.20099385f, -0.36862209f, -0.34073487f, -0.67733747f, -0.13254748f, 0.24577864f, 0.03195651f, -0.06518853f, 0.00699127f, 0.02132525f, -0.11664832f, -0.22508259f, 0.25827616f, 0.13573514f, -1.08998322f, -1.30874550f, -0.52214646f, -0.41154528f, -0.11783813f, 0.09121191f, -0.13090335f, -0.12830409f, 0.00505992f, 0.17070545f, 0.37468934f, 0.12568152f, -0.18343024f, 0.20985456f, 0.19737005f, 0.08015972f, 0.16558985f, 0.17807297f, 0.13109016f, 0.02640622f, -0.35170576f, -0.15634210f, -0.13009012f, -0.21082665f, 0.05804830f, 0.53129560f, 0.48906568f, 0.00946922f, -0.15392347f, 0.02730596f, 0.21958271f, 0.15004316f, 0.20423920f, 0.22050206f, -0.00601468f, -0.35446948f, -0.40602484f, -0.11019483f, -0.14996311f, -0.15173462f, -0.56636417f, -0.14378674f, 0.06655934f, -0.07098114f, -0.25781128f, 0.19680937f, 0.31836000f, 0.08673625f, 0.02151814f, 0.14810517f, -0.11203089f, 0.21091105f, 0.14780951f, 0.04857675f, 0.13631815f, 0.20210838f, 0.47316173f, 0.28961211f, 0.18082482f, -0.15521459f, -0.02089304f, 0.03255890f, -0.05089253f, -0.49797231f, -0.05802768f, -0.30780903f, 0.05634557f, 0.13252912f, -0.13485219f, -0.17806716f, -0.17563556f, 0.46496147f, 0.25311598f, 0.17533092f, 0.36148328f, -0.99988151f, -0.70094419f, -0.17921463f, -0.08461525f, -0.50384492f, -0.02945663f, -0.29495564f, -0.06076071f, 0.02192993f, -0.00504239f, -0.00244034f, -0.14676403f, -0.10724750f, 0.36121050f, 0.39442530f, 0.03456046f, 0.06776308f, 0.38765177f, 0.15073265f, 0.03472477f, -0.18375568f, -0.24059726f, -0.29274362f, -0.17648120f, 0.23204574f, -0.23850250f, -0.23862514f, -0.45239118f, -0.30927324f, 0.04546135f, -0.20210634f, 0.05928557f, -0.01245270f, 0.02219206f, -0.00220415f, -0.62788975f, -0.23848544f, -0.12934692f, -0.24661326f, -0.75869590f, -0.14084305f, -0.07390797f, -0.23036528f, -0.24369290f, 0.05628530f, -0.01484927f, 0.13465486f, -0.34268916f, -0.26536345f, 0.30084169f, -0.06017815f, -0.00531342f, 0.14763336f, 0.19166735f, -0.00422407f, -0.13221395f, 0.21473807f, 0.31509429f, 0.24154343f, -0.14088537f, -0.00161396f, 0.03600248f, -0.29306227f, 0.21137884f, -0.12517184f, 0.16896549f, -0.13322650f, -0.06452537f, -0.19703242f, -0.17344354f, 0.09019766f, 0.01834940f, 0.01259809f, -0.08043613f, -0.62203354f, 0.10272811f, 0.33143732f, 0.18635991f, 0.35049397f, 0.01623053f, -0.41733998f, -0.51780200f, -0.48840731f, -0.58417588f, -0.79852706f, 0.06927533f, 0.21725535f, -0.22114773f, -0.33222863f, -0.38132334f, -0.24656768f, 0.06149042f, 0.21547560f, 0.16819359f, -0.21179825f, -0.07497442f, 0.39473185f, 0.03933572f, 0.66097075f, 0.38061395f, -0.56071448f, -0.58754128f, -0.28894171f, -0.38525608f, -0.44145173f, 0.11381395f, 0.18418622f, -0.05862993f, 0.07972314f, -0.29060543f, 0.23215581f, 0.28256449f, 0.01979041f, -0.01594852f, -0.61335522f, 0.33658499f, 0.24144532f, 0.04371301f, -0.03311319f, -0.15607812f, -0.39776659f, -0.46482739f, -0.33021972f, -0.47122914f, -0.09637388f, 0.26431108f, 0.09972831f, 0.26859352f, 0.21390091f, 0.29414409f, -0.17781709f, 0.27004620f, 0.41476586f, 0.38250610f, -0.04566818f, -0.13367437f, -0.06799359f, -0.10981462f, -0.03634763f, -0.02583070f, 0.25891423f, 0.15954416f, 0.02130514f, 0.14672576f, -0.13253166f, -0.07943140f, -0.47301531f, -0.18162054f, -0.60267353f, -0.70115036f, 0.45214504f, 0.03832398f, 0.28275868f, 0.29457951f, 0.11896738f, -0.20235580f, -0.03564615f, 0.07522520f, -0.15323305f, -0.18301551f, -0.13185973f, -0.26404780f, 0.29859555f, 0.03243316f, -0.38901088f, 0.17037514f, 0.27915588f, 0.11071971f, -0.03101471f, -0.32582816f, 0.06808136f, 0.00725798f, -0.22464328f, -0.08692451f, -0.68705201f, 0.28357562f, 0.02387414f, -0.12022546f, -0.14481591f, -0.17360577f, 0.04619800f, 0.37287492f, 0.25205386f, 0.33516800f, 0.48605210f, -0.11710780f, -0.20949680f, -0.18014242f, -0.11868490f, -0.33786097f, -0.02576816f, -0.01419131f, 0.00747810f, 0.10448717f, 0.16381602f, -0.10437513f, -0.05752639f, -0.08182077f, -0.41926673f, -0.02089250f, 0.08307099f, 0.24617226f, 0.03085780f, -0.07423748f, -0.09687798f, 0.10809605f, 0.04107584f, -0.02175542f, 0.02322859f, 0.08689035f, 0.01549761f, 0.34929872f, 0.33005100f, 0.14879413f, 0.04832299f, 0.01724069f, -0.12861826f, 0.11080649f, 0.15219244f, 0.13563822f, -0.11319886f, -0.00921035f, -0.13127773f, -0.32993892f, -0.48345459f, -0.10371009f, -0.21977030f, 0.09182810f, 0.14997020f, 0.20920156f, -0.17144826f, -0.01464551f, -0.03368787f, -0.06167419f, 0.07228496f, 0.03248334f, 0.03793777f, -0.33505088f, 0.01857939f, 0.26385388f, 0.33430353f, 0.25612959f, 0.34121448f, 0.20703126f, 0.14489241f, -1.01058364f, -0.59164453f, -0.34470394f, -0.08786097f, -0.05813398f, 0.26818198f, -0.04303313f, 0.19278544f, 0.27678797f, -0.04432655f, -0.07286004f, 0.17360839f, 0.14611962f, 0.05285696f, -0.08579424f, 0.22526954f, -0.18080938f, -0.23216346f, 0.27036023f, 0.46808067f, -0.13365965f, -0.10405280f, -0.13707903f, -0.45803857f, -0.50193590f, -0.12765399f, -0.26071969f, -0.03436328f, -0.14406210f, 0.18072414f, 0.14077024f, 0.00365728f, 0.08829295f, -0.03188392f, -0.10495769f, -0.26076666f, -0.16890651f, -0.16664954f, -0.29297662f, -0.12906794f, -1.21167147f, -0.48476008f, -0.17265649f, -0.03095341f, 0.04103322f, -0.08344935f, 0.02977074f, 0.38644654f, 0.01646199f, -0.24431935f, -0.03044765f, -0.08915446f, -0.15454698f, -0.12122553f, -0.47672284f, -0.19657965f, 0.02967698f, -0.02754624f, -0.09855326f, -0.13252266f, -0.33557814f, 0.13257861f, 0.20157121f, 0.08285495f, 0.29897383f, -0.06795432f, -0.02005034f, 0.15251459f, 0.28103471f, 0.26371822f, 0.32733637f, 0.28481922f, 0.07781346f, 0.12019406f, -0.25041214f, -0.10994781f, -0.10394825f, -0.12524331f, -0.00852377f, -0.00816898f, -0.00438790f, 0.00993880f, -0.28226465f, -0.44262847f, -0.23873043f, -0.06958369f, -0.12884800f, -0.22524929f, -0.09248152f, -0.12806019f, -0.25660059f, -0.01114888f, 0.11395814f, -0.13698944f, 0.24568208f, -0.02789364f, 0.15481648f, 0.17620812f, 0.12783264f, 0.21999511f, -0.43251002f, -0.58666521f, -0.07345160f, 0.10128275f, 0.46045691f, -0.30175978f, -0.48123884f, -0.29109147f, -0.29321766f, 0.18366452f, -0.10829265f, -0.11129542f, -0.14265941f, 0.04811300f, 0.07420100f, -0.45811343f, 0.00230274f, 0.34221926f, 0.31613937f, 0.47682506f, -0.22573698f, 0.05048572f, -0.15988688f, -0.56339467f, -0.72779095f, -0.35916719f, -0.11285704f, -0.19407019f, 0.00933591f, 0.02546293f, 0.32634148f, -0.07139689f, -0.09578710f, -0.17956735f, -0.33759546f, -0.49756548f, 0.17125688f, 0.06844413f, -0.08437043f, -0.03202180f, -0.24089691f, 0.06163722f, 0.07629716f, 0.07121670f, 0.24078526f, 0.10584479f, 0.13321424f, 0.01728919f, -0.12595987f, -0.08270261f, -0.31003866f, -0.19117190f, -0.16087089f, 0.18662868f, 0.15784976f, 0.02707339f, 0.03335643f, 0.02102800f, 0.02273479f, 0.17510368f, 0.01126878f, -0.13190599f, -0.02395736f, 0.01893787f, 0.10862590f, -0.08472548f, -0.14852533f, 0.01681455f, 0.21090659f, 0.48632962f, 0.06755000f, -0.06663596f, 0.18196727f, -0.00669171f, -0.15219399f, 0.50529915f, 0.13010576f, -0.33385941f, 0.01353197f, 0.21718575f, -1.00201046f, -0.43539524f, -0.32145441f, -0.05367768f, 0.11421741f, -0.27039045f, -0.16831438f, -0.24992238f, 0.17329523f, 0.18208393f, 0.06833181f, -0.25298396f, -0.03528318f, -0.21883047f, 0.07095370f, -0.23881641f, 0.03488422f, -0.26905003f, 0.08233380f, 0.01659942f, -0.66917855f, -0.37841320f, -0.24416439f, -0.36401996f, -0.45774797f, 0.42831740f, 0.40743497f, 0.24543110f, 0.33765328f, 0.44274247f, 0.48636481f, -0.05541581f, -0.39755306f, -0.39689919f, -0.36857477f, -0.00250235f, 0.13697372f, 0.15346670f, 0.18559280f, 0.06298180f, -0.11426070f, 0.09334994f, 0.16882631f, -0.28183869f, -0.47981882f, -0.25942177f, -0.73612773f, -1.27204931f, -0.24203506f, -0.15836616f, -0.57073522f, -0.32675987f, 0.06695973f, 0.28530759f, 0.41643125f, -0.95201248f, -0.49080500f, -0.83091354f, -0.57050782f, -0.49972224f, -0.28993928f, -0.17520751f, -0.22283928f, -0.32141945f, 0.19350076f, 0.05232044f, 0.27004668f, -0.01871283f, -0.07273010f, -0.00018836f, -0.15109359f, -0.18847878f, -0.05414114f, 0.01222767f, 0.10674842f, -0.26932865f, 0.09016151f, -0.04463576f, -0.26900285f, -0.11860225f, 0.13951528f, 0.26093981f, 0.07148276f, -0.04775680f, -0.06466560f, 0.07411639f, 0.20704383f, -0.07303238f, 0.00476149f, -0.16957687f, 0.39495280f, 0.15600207f, -0.49203646f, -0.82457423f, -1.32901323f, -0.29125747f, -0.24695556f, -0.17963429f, -0.04174783f, 0.01152842f, -0.18416311f, 0.11305846f, -0.15489011f, 0.02702710f, -0.10657215f, -0.42868251f, -0.39484316f, -0.26581767f, -0.06225613f, 0.12434984f, -0.64747381f, -0.61675906f, -1.04489458f, -1.12657630f, -1.20392680f, -0.19275181f, 0.00973700f, -0.07062835f, -0.03990199f, -0.04414927f, -0.25526139f, 0.03416085f, 0.17831314f, -0.06060446f, -0.19565217f, 0.16832910f, 0.37948501f, 0.37304854f, 0.23545675f, 0.25750661f, -0.11819803f, 0.05076369f, 0.08141351f, -0.80447590f, -1.58885384f, -0.02649837f, -0.23526971f, 0.14169455f, 0.03604771f, 0.00901407f, 0.09896439f, -0.19654624f, -0.17264861f, -0.30447704f, -0.30699125f, -0.10789091f, 0.09445237f, -0.17179070f, -0.08374175f, 0.06774907f, 0.00988460f, 0.19894540f, 0.21338889f, 0.37080574f, 0.22412898f, 0.21363159f, 0.20511688f, 0.16355266f, -0.16232982f, -0.29701418f, -0.06781898f, 0.08824067f, 0.10402700f, -0.09486183f, -0.17847283f, -0.09394399f, -0.08903183f, 0.14065124f, -0.07665090f, -0.21813935f, -0.05633716f, -0.09370992f, -0.05187495f, -0.00957428f, -0.07994436f, 0.01137581f, 0.18386298f, 0.13129318f, 0.07651665f, 0.05891611f, -0.17681697f, -0.29640347f, -0.33259591f, -0.12547402f, -0.16906303f, 0.20787120f, 0.13190934f, 0.31407246f, 0.49152914f, 0.64813346f, -0.12116433f, -0.14947282f, 0.06883857f, -0.12025864f, -0.36425298f, 0.08075106f, 0.18053444f, -0.20944312f, -0.33420441f, -0.26065111f, 0.08968296f, 0.03608945f, -0.28005502f, -0.40644115f, -0.03833643f, 0.09062409f, -0.17896047f, -0.31213489f, -0.18109252f, -0.03702610f, -0.02301298f, 0.01106499f, 0.00140957f, -0.04319578f, 0.02818561f, -0.16082624f, 0.03984872f, 0.11386401f, -0.17832692f, -0.30895847f, -0.15080935f, 0.10298283f, 0.23353541f, -0.01912070f, -0.00209409f, 0.29876471f, 0.28534088f, -0.14421642f, -0.36976063f, -0.06016490f, 0.21772137f, 0.37423754f, 0.27116421f, -0.09176403f, -0.14961419f, -0.26139271f, -0.31761807f, 0.03317899f, 0.01629260f, 0.20571324f, -0.21144462f, 0.04132517f, 0.08741239f, -0.01530951f, -0.25113320f, -0.27880329f, -0.04760338f, -0.01757805f, -0.01105450f, -0.41619337f, 0.03576734f, -0.23800741f, -0.37774229f, 0.10737792f, -0.04862313f, -0.32778794f, -0.06152428f, 0.14323792f, -0.09636666f, 0.01604788f, -0.25776845f, -0.23522656f, -0.14503381f, -0.32639733f, -0.07456845f, 0.03969326f, 0.25784355f, 0.19761369f, 0.05074517f, 0.00593543f, 0.09285554f, 0.02940420f, -0.16341606f, -0.48548371f, -0.65257871f, 0.39053056f, 0.30616349f, 0.03360962f, 0.06794373f, -0.02094248f, -0.83186805f, -1.09863269f, -0.76712823f, -0.26942399f, 0.02027143f, 0.15144844f, 0.25802583f, 0.34982514f, 0.43737885f, 0.46299285f, -0.19387989f, -0.09277945f, 0.10014267f, 0.05565675f, -0.01628954f, -0.13568746f, -0.07877326f, 0.06005152f, 0.27153635f, 0.31330636f, -0.16905828f, 0.07981249f, 0.10506453f, -0.07009740f, -0.09168629f, 0.39391109f, 0.36829457f, 0.11798244f, -0.30718893f, -0.15101628f, -0.17725286f, -0.25981516f, -0.15932642f, 0.06849957f, 0.03481438f, -0.51882446f, -0.23873945f, -0.05458426f, -0.03369106f, 0.10003652f, 0.13931628f, 0.09120145f, 0.11806164f, 0.01878218f, -0.03823397f, -0.39676321f, -0.09401955f, -0.00188053f, 0.06886019f, -0.11895023f, -0.18420684f, 0.04237280f, -0.00205300f, 0.03434170f, -0.05743496f, 0.01100077f, -0.08353796f, -0.30459598f, -0.45323706f, -0.37923425f, -0.31969041f, -0.05354945f, 0.03500150f, -0.12123462f, 0.18668038f, -0.77457029f, -0.53483373f, -0.48544461f, -0.26376265f, -0.09523069f, 0.06102607f, -0.16347869f, -0.03919736f, -0.06823202f, -0.14885208f, 0.07668775f, -0.16051860f, -0.37179810f, -0.01877717f, 0.39125383f, 0.14694065f, 0.24413471f, 0.08829372f, -0.17089182f, -0.38545236f, 0.24939096f, 0.06792707f, 0.13995731f, 0.28135586f, -0.09232495f, 0.23117810f, 0.36512825f, 0.55278879f, -0.07670216f, -0.45032904f, -0.28350523f, 0.12585832f, 0.14582391f, 0.36566788f, 0.15453906f, 0.24498020f, 0.40699047f, -0.48073897f, -0.37860635f, -0.03533453f, 0.06974974f, -0.05143765f, -0.17349896f, -0.49495888f, -0.56222820f, -0.04471518f, 0.10999230f, 0.20348105f, 0.02300497f, 0.23852061f, -0.22960986f, -0.18277851f, -0.27186722f, -0.08080946f, 0.08936805f, 0.09937818f, -0.21505070f, -0.11865050f, 0.09907328f, 0.38527235f, 0.19642881f, 0.07595723f, 0.15046825f, -0.04065927f, 0.17073360f, -0.12788516f, -0.09827566f, 0.03598415f, -0.05682544f, -0.08051732f, 0.02221171f, -0.01455163f, 0.00971172f, -0.11407237f, -0.06020307f, -0.26040271f, -0.36760092f, -0.22385202f, 0.34916866f, 0.20174052f, -0.03784056f, 0.07831885f, 0.18279409f, 0.14470860f, 0.13383852f, 0.05698075f, 0.14962383f, 0.00404855f, -0.02005794f, -0.13914376f, 0.20045938f, 0.16166370f, 0.13095039f, -0.16199028f, -0.06388916f, -0.00372004f, 0.18591905f, 0.00268609f, -0.11873577f, -0.25610712f, -1.20912218f, -0.53795278f, -0.12158401f, 0.00485522f, -0.05110840f, 0.08120658f, 0.07606581f, -0.07248891f, 0.20942712f, -0.04413411f, -0.15708435f, -0.14457929f, -0.12280583f, 0.09637934f, 0.24841467f, 0.20250733f, 0.29207391f, 0.72013032f, 0.34778759f, 0.24407730f, 0.01534976f, 0.03250788f, -0.03689831f, 0.05244498f, 0.01813677f, 0.19040191f, -0.04162641f, -0.45797840f, -0.29194346f, -0.17338514f, 0.47587311f, 0.83961344f, 0.41799089f, -0.28039750f, -0.32317236f, 0.05983904f, -0.08210173f, -0.05863869f, 0.42140511f, 0.27297783f, -0.00737381f, 0.16966215f, 0.15987286f, 0.03449527f, -0.07681452f, 0.25607890f, 0.03008902f, 0.11044001f, 0.04692286f, 0.20507400f, 0.10968792f, 0.23187719f, -0.12270232f, -0.02389129f, -0.06864663f, -0.16629040f, -0.35058600f, -0.21774510f, 0.10967359f, 0.33143780f, -0.12137668f, 0.00460014f, -0.26012367f, -0.13957675f, -0.04935378f, -0.44657710f, -0.41435987f, 0.00101019f, -0.11867287f, -0.27049839f, 0.13973199f, 0.00530886f, -0.09642094f, 0.02512806f, -0.30183691f, 0.54518884f, -0.23831365f, -0.21457708f, 0.02713080f, -0.32839730f, -0.54560918f, -0.52577895f, -0.08887324f, 0.13512936f, -0.08237370f, -0.25633410f, -0.48223054f, -0.47587761f, -0.29729593f, -0.05484137f, -0.24818006f, -0.25422633f, 0.07945224f, 0.49373633f, 0.43044260f, -0.07168718f, 0.09923723f, 0.55687326f, 0.14125988f, 0.01639959f, -0.16247372f, -0.49343005f, -0.34289199f, -0.25216696f, 0.08780498f, -0.48791295f, -0.68346786f, -0.63167626f, -0.49405938f, -0.62600887f, -0.01172817f, -0.19420779f, -0.21465732f, 0.07062929f, -0.06340354f, 0.19599348f, -0.01268851f, -0.40875396f, 0.20398669f, -0.00166834f, -0.27986634f, -0.17622997f, -0.15490417f, 0.05010748f, 0.41829500f, 0.02956241f, 0.11701071f, 0.09174237f, 0.07880667f, 0.11529765f, -0.12664412f, -0.46871743f, -0.07188850f, 0.16108151f, 0.12959474f, -0.56396472f, -0.25478968f, -0.09160654f, 0.21946828f, 0.53057170f, -0.24416280f, 0.10262064f, 0.01007141f, 0.18131508f, 0.17846742f, 0.12807383f, 0.18807441f, 0.12075044f, -0.12556371f, -0.46332830f, -0.03927274f, -0.32497260f, -0.30065340f, -0.52665746f, -0.36146590f, -0.08338536f, 0.10697409f, 0.09286262f, 0.05104066f, -0.12924875f, -0.28616032f, -0.08556120f, 0.04825237f, 0.08779389f, 0.05789579f, -0.27012414f, -0.27187687f, -0.37835941f, -0.56630075f, -1.26659489f, -1.31769288f, -0.56110060f, 0.08643279f, 0.01819900f, -0.27526638f, -0.22525738f, -0.07882057f, 0.52855337f, 0.46470076f, 0.11099587f, 0.01543424f, -0.06880074f, -0.02293031f, -0.00670556f, -0.23484415f, -0.10194651f, 0.02780339f, -0.12624767f, 0.17156380f, 0.31914908f, -0.01957818f, -0.06747937f, -0.60404289f, -0.55585182f, -0.26284751f, -0.14290287f, -0.18292108f, -0.12130168f, -0.13862033f, -0.33105052f, -0.06181344f, 0.08749235f, -0.15464760f, 0.08730200f, 0.32868335f, 0.04522777f, 0.26951331f, 0.21244045f, 0.04804207f, -0.07633308f, -0.19154264f, -0.14303470f, -0.04391854f, -0.16120072f, 0.12467062f, -0.12104273f, 0.05268560f, 0.19625317f, 0.09680798f, -0.00962560f, -0.44349319f, 0.06497289f, 0.03012713f, -0.21412021f, -0.71673322f, -0.10302799f, 0.04195604f, -0.15497659f, 0.00367228f, -0.00066556f, -0.10860942f, -0.20554626f, 0.22056149f, -0.06277615f, -0.15902543f, -0.08070759f, -0.06663696f, 0.06406029f, 0.07273224f, 0.01562998f, -0.19132715f, 0.26834166f, 0.16410355f, 0.06123257f, -0.43731949f, 0.12946215f, -0.30564234f, 0.36772975f, 0.76716417f, 0.42505017f, -0.17942932f, 0.01682791f, -0.27417210f, 0.35543773f, 0.07281753f, 0.03725744f, -0.16921100f, 0.05145832f, 0.00611158f, -0.20982741f, 0.02162559f, 0.06903998f, 0.05694097f, -0.27325717f, -0.14066242f, -0.23025522f, -0.16264684f, -0.23885587f, 0.01354208f, 0.22873619f, 0.51662570f, 0.59456164f, -0.43489656f, -1.23036790f, -0.92174304f, -0.05629488f, -0.03212794f, -0.13891965f, -0.20628156f, -0.25706801f, -0.07393841f, 0.12418959f, 0.23302642f, 0.08193944f, 0.03410748f, 0.05645529f, 0.08904038f, 0.00832738f, -0.58519840f, -0.99496043f, 0.20715168f, -0.11062126f, 0.03990111f, 0.19870485f, 0.33431703f, -0.01395330f, 0.04780133f, 0.03303345f, 0.15064338f, -0.15036693f, -0.06585356f, 0.39435393f, 0.49149892f, 0.50270110f, 0.45095417f, -0.12327672f, -0.05621900f, -0.03824737f, 0.00179241f, -0.16938633f, 0.03603238f, 0.11605561f, -0.01966132f, 0.12474740f, 0.06958184f, 0.46452811f, -0.17774384f, -0.24227771f, -0.18973519f, 0.16810992f, 0.05122388f, 0.16034505f, 0.13353992f, 0.10174148f, 0.03787004f, 0.10043962f, -0.18123138f, -0.06627214f, 0.07416572f, -0.00071310f, -0.04868497f, 0.15330887f, 0.05889969f, 0.10420120f, 0.05975086f, -0.45489153f, -0.13411996f, 0.15584260f, 0.36535394f, 0.11360557f, 0.15423372f, -0.03253690f, -0.23784512f, -0.12224353f, 0.02644875f, -0.52459079f, -0.21269619f, 0.06410580f, 0.12626378f, 0.19560035f, 0.15606506f, -0.13761637f, -0.42536262f, -0.13526839f, -0.08199923f, -0.08602531f, 0.16155085f, 0.12379472f, -0.29849416f, -0.36146152f, 0.00909513f, 0.16569348f, 0.27391341f, 0.28754133f, -0.01585619f, -0.39477280f, -0.11584768f, -0.15268929f, -0.31195125f, -0.32203120f, -0.08153182f, 0.16415167f, -0.01069010f, 0.17858240f, 0.17245956f, -0.57929254f, -0.55765969f, 0.13617375f, 0.22287811f, 0.29455510f, 0.18655689f, 0.17174158f, 0.23998594f, 0.24216792f, 0.19970375f, -0.08482824f, 0.18293850f, -0.21301112f, 0.09502932f, -0.09631646f, 0.16419093f, 0.04547511f, 0.28399324f, 0.18198514f, 0.14351845f, 0.22116186f, 0.16382232f, 0.24240133f, 0.37042117f, 0.36444297f, 0.03309614f, 0.19946796f, 0.21536994f, 0.35488281f, 0.12665880f, -0.10026723f, -0.05808495f, 0.07576012f, 0.09970547f, 0.09546006f, 0.23065984f, 0.35233539f, 0.29758558f, 0.05928530f, -0.05848878f, -0.06768987f, 0.10751218f, -0.30437070f, -0.22571461f, 0.12803148f, -0.14265268f, 0.18027127f, 0.34970966f, 0.27246159f, 0.54188579f, -0.19094482f, -0.15205878f, 0.08183130f, 0.09531938f, -0.00963698f, -0.11075534f, -0.42165855f, -0.27330747f, -0.42164230f, -0.53602093f, 0.01610851f, 0.08942051f, 0.25242239f, 0.26129416f, 0.22489661f, -0.02454340f, 0.01819752f, 0.30551925f, 0.49912184f, -0.05915170f, -0.05164906f, 0.06155336f, 0.04405246f, -0.01021711f, 0.11136801f, -0.16474524f, -0.32009086f, -0.56231260f, -0.67765313f, -0.53166229f, -0.56787455f, 0.01690426f, -0.06694942f, -0.01143681f, 0.21104674f, -0.21936078f, 0.00129005f, 0.10668669f, 0.05500869f, 0.36664355f, 0.05074057f, 0.23472191f, -0.01424855f, -0.24144331f, -0.61213905f, 0.19837254f, 0.03015360f, 0.11250204f, -0.07571983f, -0.14682809f, 0.24547017f, 0.25106254f, 0.02384073f, -0.07651293f, -0.42812556f, -0.04433724f, 0.14886132f, 0.07061109f, 0.02454686f, 0.25550431f, -0.12668116f, 0.06057851f, -0.14535062f, -0.71024179f, -0.51692051f, 0.17946184f, 0.23804224f, 0.11860375f, -0.22707665f, -0.46913832f, -0.58423531f, -0.46326956f, -0.00648384f, 0.36446118f, 0.40657002f, 0.27534920f, 0.17585377f, 0.29146442f, 0.06761666f, -0.17283045f, -0.04426574f, -0.01268243f, -0.05153079f, -0.23018987f, -0.50662655f, -0.26344225f, -0.27923414f, -0.14519550f, -0.53220397f, -0.76992887f, -0.16695105f, 0.18387951f, 0.02911188f, 0.06972560f, 0.11028691f, -0.26997668f, -0.20433174f, -0.16529272f, -0.30905995f, -0.25300232f, 0.01130588f, 0.05461718f, 0.19224122f, 0.08594680f, 0.48966330f, 0.12776300f, -0.11905436f, -0.03316959f, 0.14335124f, -0.00752054f, -0.42053360f, -0.01835821f, 0.01956612f, 0.22681901f, 0.30667597f, 0.17960632f, 0.23241833f, 0.08564121f, -0.21940452f, -0.30871454f, 0.04474250f, -0.09709760f, -0.19389075f, -0.19329765f, -0.24184206f, 0.17693809f, -0.00214311f, 0.00744807f, -0.16932867f, -0.63961267f, 0.01441180f, 0.06961875f, -0.10425694f, -0.13371260f, -0.20023815f, -0.30360541f, 0.04737128f, -0.11375315f, -0.10498644f, 0.13983919f, -0.28631592f, 0.25315374f, 0.13376983f, 0.15126821f, 0.25049233f, -0.65762949f, -0.18535057f, -0.08037249f, 0.04014641f, 0.38652343f, 0.19068879f, -0.02459644f, -0.06561524f, -0.01749930f, 0.02124273f, -0.32316071f, 0.29552975f, 0.34329939f, 0.28081578f, 0.01989250f, -0.03124602f, -0.16955379f, -0.68534553f, -0.64408296f, -0.75580245f, -0.04108257f, 0.33086964f, 0.25440502f, 0.12397821f, 0.50767261f, -0.20692983f, -0.42427123f, -0.34642586f, -0.61133838f, -0.85969383f, -0.77678490f, -0.08125803f, 0.02983300f, 0.25480530f, 0.35676172f, 0.41368797f, 0.44081953f, 0.34026474f, 0.27142721f, -0.11126013f, 0.10426399f, 0.47941548f, 0.17729783f, 0.19689175f, -0.29815826f, -0.00134648f, -0.09324515f, -0.16433515f, 0.19068588f, 0.21420762f, 0.04077186f, -0.57092804f, -0.21227017f, -0.32442918f, -0.27344641f, -0.25260451f, -0.16507009f, -0.73555803f, -1.03601539f, -1.10434914f, 0.00920423f, 0.03508373f, -0.00923391f, 0.14509578f, -0.04959538f, -0.14853598f, 0.32116506f, -0.14648935f, 0.10895985f, -0.10655262f, 0.29229343f, 0.16439182f, 0.16689426f, 0.09994060f, 0.27028885f, 0.85832918f, 0.11956263f, 0.31729829f, -0.30691448f, -0.60793990f, -0.61746395f, -0.37541309f, -0.11835459f, 0.34566110f, 0.29918399f, 0.21578048f, -0.00147644f, -0.00888749f, 0.44561934f, 0.01408161f, 0.48968500f, 0.16171768f, 0.20254903f, 0.29228789f, -0.08476868f, -0.09605266f, -0.44647199f, -0.29035965f, -0.25791252f, -0.08512314f, 0.08745524f, 0.08705078f, -0.03829233f, 0.12793785f, 0.18296058f, 0.12253653f, 0.26017395f, 0.05550402f, -0.32431802f, -0.02316979f, 0.08512121f, 0.22468029f, -0.27926984f, -0.28783622f, -0.04003971f, -0.02665972f, 0.04042432f, 0.44353691f, 0.42356059f, 0.35291451f, -0.10869230f, -0.22667919f, -0.25679880f, -0.05284202f, -0.06499196f, 0.18771163f, 0.21503519f, 0.12305338f, -0.43760243f, -0.39492840f, -0.23336396f, -0.08475239f, -0.09699748f, -0.06093932f, -0.15683764f, 0.09688851f, 0.11810733f, -0.42043149f, -0.62999642f, -0.28458983f, 0.15403403f, -0.03436222f, -0.34590739f, -0.08139606f, 0.04818346f, 0.05664809f, 0.01788406f, -0.13147947f, -0.19005899f, -0.39725766f, 0.03525788f, 0.02400979f, 0.10280996f, -0.04298075f, 0.17791475f, 0.10886326f, 0.03280912f, -0.19711894f, 0.12889323f, 0.04601613f, -0.07076462f, 0.16892257f, -0.10795972f, 0.00350417f, 0.07896681f, -0.00086767f, 0.01175817f, -0.28141737f, -0.21091355f, -0.23213197f, 0.41367203f, -0.08451451f, -0.33940488f, -0.11637106f, 0.14865023f, 0.27885213f, 0.10033517f, -0.06848846f, 0.04124103f, 0.11520892f, -0.19200429f, -0.03630297f, -0.04856691f, 0.04659403f, 0.09142268f, 0.09483127f, -0.04375884f, 0.33893350f, 0.39833468f, 0.01248580f, -0.10319458f, -0.33344883f, -0.36601233f, -0.68331838f, -0.52218670f, 0.01928872f, 0.05489374f, 0.24746111f, 0.27170512f, 0.28866407f, -0.04957407f, 0.08313596f, -0.16864166f, 0.32443815f, -0.04658056f, -0.18133454f, 0.05675310f, -0.10616639f, -0.41720304f, -0.71493965f, -0.18908581f, -0.03915145f, -0.14857672f, -0.07515112f, 0.06980256f, -1.15403533f, -0.93267262f, -1.02828348f, -1.28164852f, -0.83234817f, 0.09745441f, -0.31006330f, -0.02938743f, 0.31796896f, 0.60444891f, 0.21664277f, 0.08095825f, -0.23484941f, -0.44442043f, -0.62347311f, -0.02907208f, -0.03064523f, -0.12765160f, -0.37522450f, -0.87524027f, 0.06543138f, 0.03450136f, -0.13304569f, -0.25167069f, -0.17912930f, 0.34805337f, 0.39410433f, -0.02952866f, -0.10163526f, -0.30494660f, -0.27760938f, -0.02642979f, 0.05759824f, -0.00082127f, 0.00884535f, -0.01427559f, -0.01894816f, 0.11744534f, 0.15901947f, 0.03697929f, 0.00067425f, 0.26237220f, 0.24620749f, -0.10237058f, -0.13974999f, -0.21437159f, -0.01688684f, 0.00584770f, -0.12634517f, 0.07459417f, 0.21320108f, 0.24330066f, 0.31586224f, 0.25199622f, 0.11057831f, -0.34970376f, -0.17168514f, 0.08230986f, 0.25548664f, 0.15544739f, -0.27238530f, -0.64294749f, -0.28475085f, -0.12977907f, -0.01402016f, -0.28666055f, 0.10619989f, 0.03865564f, 0.18337642f, 0.11312432f, -0.10565174f, -0.07037565f, 0.12288213f, 0.31602472f, 0.30064225f, 0.03417649f, 0.18573672f, -0.11206751f, 0.06683800f, 0.08570918f, -0.13161914f, -0.63662463f, -0.37613091f, -0.14348224f, -0.19124568f, 0.36076078f, 0.20981728f, 0.10228509f, -0.18832192f, -0.05234953f, 0.32742023f, 0.25221050f, 0.03877455f, 0.02721509f, 0.10564912f, 0.12801640f, -0.02699220f, -0.06444854f, -0.09430645f, 0.01580004f, -0.13521282f, -0.10624031f, 0.01696673f, -0.20960452f, -0.65372002f, 0.25493181f, 0.25093144f, 0.24911448f, 0.12889038f, 0.33037639f, -0.06439903f, -0.01876600f, 0.20673984f, 0.30653650f, 0.09731834f, 0.36088720f, 0.39021501f, 0.07987967f, 0.20883280f, 0.18592347f, -0.15792112f, -0.32681334f, -0.25398093f, -0.31329677f, -0.05131347f, -0.15446635f, -0.29249656f, -0.43003920f, -0.96273470f, -0.39485854f, 0.00512156f, 0.36779761f, 0.06249558f, 0.11775000f, 0.26901838f, 0.25559589f, -0.42424494f, -0.49106809f, -0.12984419f, -0.00975178f, 0.25489670f, 0.25515118f, 0.29102737f, 0.27606788f, 0.12655710f, 0.04566436f, 0.13166654f, -0.01024237f, -0.04425204f, 0.33098817f, -0.68173438f, -0.16527936f, 0.39031109f, 0.53235304f, 0.39174289f, -0.41091424f, -0.36766046f, -0.27936524f, -0.33938870f, -0.34966591f, 0.19343013f, 0.19218171f, 0.14215238f, 0.17646171f, 0.14803639f, 0.27217704f, 0.23524547f, 0.35947305f, 0.07438052f, -0.03856448f, -0.24248545f, 0.02292147f, -0.23478372f, -0.62100500f, -0.20126459f, 0.03655412f, 0.36849314f, 0.55389088f, 0.00760915f, -0.36983800f, -0.08778495f, -0.12882140f, -0.05562218f, 0.17032385f, -0.21133545f, 0.10877751f, 0.08288628f, 0.00591868f, 0.56586134f, 0.35091126f, -0.27257639f, -0.04747837f, -0.24017537f, -0.39900222f, -0.02864654f, -0.06373420f, -0.09005481f, -0.30171946f, -0.51496410f, -0.24531676f, 0.04917820f, -0.11096250f, -0.03652899f, 0.04934879f, 0.02921556f, 0.05896349f, 0.03805546f, -0.05860954f, -0.21620674f, -0.67604142f, -0.07601254f, 0.08766594f, -0.07825771f, -0.01116233f, -0.08200099f, 0.13807061f, 0.03442471f, 0.07540330f, 0.12167331f, 0.06981716f, 0.53760862f, 0.42831972f, 0.38536465f, 0.63001949f, 0.43294689f, 0.17268002f, 0.14396453f, -0.25411481f, -0.25458786f, -0.33490670f, -0.38484022f, -0.42539170f, -0.36432233f, -0.35684270f, -0.23053221f, 0.02022411f, 0.18884271f, -0.08238641f, -0.10690145f, -0.03180585f, 0.33380553f, 0.03573807f, 0.10057229f, -0.04644220f, -0.26907548f, 0.00289759f, 0.08481308f, 0.19646612f, 0.36649907f, 0.34550992f, -0.50496149f, -0.29752907f, -0.09294789f, 0.08906835f, -0.14219089f, -0.41250503f, -0.40013745f, -0.51990855f, -0.20042747f, 0.04624625f, -0.18612647f, 0.29646090f, 0.20761976f, 0.31676927f, 0.69999725f, -0.72503763f, -0.69754261f, -0.26187193f, -0.30126724f, -0.47111920f, -0.16932218f, -0.31919429f, -0.09054869f, 0.07589192f, 0.21902004f, -0.50651181f, -0.11744269f, 0.01873383f, -0.14630836f, 0.27867132f, -0.04561010f, -0.09424248f, 0.03990947f, 0.17836188f, 0.07543748f, -0.08487765f, -0.13448791f, -0.11554942f, -0.00729068f, 0.21754549f, -0.15115412f, -0.24772723f, -0.50014335f, -0.94439071f, -0.66744858f, -0.28082743f, -0.19790521f, -0.30466947f, -0.17328462f, -0.17667128f, 0.10360233f, 0.14003211f, 0.09987940f, 0.20085455f, 0.09314913f, 0.10394186f, -0.05069532f, -0.08099416f, 0.26970246f, 0.27290511f, -0.28537074f, -0.21873076f, -0.10766399f, -0.02391391f, 0.09271840f, 0.06400616f, 0.06205930f, 0.37140042f, -0.11650589f, -0.50014025f, -0.14261825f, -0.21128431f, -0.22544579f, -0.30130923f, -1.14006102f, -0.32736489f, -0.40899104f, -0.02602160f, -0.24985561f, -0.15057637f, -0.20504005f, -0.05481635f, -0.28140879f, 0.01183995f, -0.15672067f, 0.20638573f, 0.04484862f, 0.18859129f, 0.19329876f, 0.11545165f, -0.32966697f, -0.16101444f, -0.09150130f, 0.05249014f, 0.18938401f, 0.06850944f, 0.00217125f, -0.16344836f, -0.13698833f, -0.22980206f, -0.21081787f, 0.26864070f, 0.09137823f, -0.08557648f, -0.64599532f, -0.17022073f, -0.18543543f, -0.42773205f, -0.51928401f, -0.14601821f, -0.12669444f, 0.15449071f, -0.05083328f, -0.06036068f, 0.05882515f, 0.12093588f, -0.15020014f, -0.13187735f, -0.00304521f, 0.17858455f, 0.00873011f, -0.13605839f, 0.13748094f, 0.03630036f, 0.23193598f, -0.30509242f, -0.39752010f, -0.04928740f, 0.11744349f, 0.21614295f, 0.04411824f, -0.01961290f, 0.08899749f, 0.00917129f, 0.22062656f, 0.31294441f, 0.38344330f, 0.29296473f, 0.32174125f, 0.34229901f, -0.41598928f, -0.14985250f, -0.15955359f, -0.03962222f, -0.42624697f, -0.29652220f, -0.05900702f, -0.03204517f, -0.06717676f, 0.26714015f, -0.01348951f, -0.00966354f, -0.14878641f, 0.04336395f, -0.53886485f, -0.23238868f, -0.23479314f, 0.13505633f, 0.04845728f, 0.17044058f, 0.33757234f, 0.34234515f, 0.12150899f, 0.18404515f, -0.00102508f, -0.13012898f, -0.19213356f, -0.17746095f, 0.10395962f, 0.12250867f, -0.10250215f, -0.23211618f, -0.23468180f, -0.00585529f, -0.04170070f, -0.22497638f, -0.17123896f, -0.03150590f, -0.10464393f, -0.07005296f, -0.41817042f, 0.00303961f, -0.12229978f, -0.08797151f, -0.02237426f, 0.37663797f, -0.02029517f, 0.18205096f, -0.03288480f, 0.03135099f, 0.03561733f, -0.17637798f, -0.24283829f, -0.22757313f, -0.64396930f, 0.17733976f, 0.41803080f, 0.48429036f, 0.21352535f, -0.08916040f, -0.03605066f, 0.06802627f, 0.01534698f, 0.15884744f, 0.23001425f, -0.53185797f, -0.41761968f, -0.64048016f, -0.51436394f, -0.75535983f, 0.20338108f, -0.02678283f, 0.07865383f, -0.01217595f, 0.14427081f, -0.27274179f, 0.03618327f, -0.04575941f, -0.09947243f, 0.07131811f, -0.39275980f, -0.18267679f, -0.18357934f, 0.05627095f, 0.06188280f, -0.16632365f, -0.11920040f, 0.14154318f, 0.18434368f, 0.08713420f, -0.28853631f, -0.01676847f, -0.11628450f, 0.14651985f, 0.12218732f, -0.48092020f, -0.37121528f, -0.26807556f, -0.20646192f, -0.28386658f, -0.29598320f, -0.03226758f, 0.06516739f, -0.23718169f, -0.39617148f, -0.36271510f, -0.04028755f, -0.01953008f, 0.06281116f, 0.20391445f, -0.03175485f, 0.31225887f, 0.03793492f, 0.17054354f, 0.23261108f, -0.24915379f, -0.03591468f, 0.05292451f, 0.10741225f, 0.10378236f, 0.23716168f, 0.09646405f, 0.37478328f, 0.27079070f, -0.04271088f, -0.37219217f, -0.20749594f, -0.13713825f, -0.05208778f, 0.17982510f, 0.27693692f, -0.08065923f, -0.52009177f, -0.80500776f, -0.62702852f, -0.08606839f, 0.11560618f, -0.06851688f, -0.02795886f, -0.03833316f, 0.24239929f, 0.30851418f, -0.01370722f, 0.00051192f, -0.03823873f, -0.62016374f, -0.06032192f, -0.16123748f, -0.15990570f, -0.47813985f, 0.73956293f, 0.61912817f, 0.57319027f, 0.44285429f, 0.42929164f, -0.47837195f, -0.39672068f, -0.37101850f, -0.03072130f, -0.11319866f, 0.11312094f, -0.06751544f, -0.07582691f, -0.10542156f, 0.00138306f, 0.03113823f, 0.18288019f, 0.40755528f, 0.28932196f, 0.18723102f, -0.02876030f, 0.20588440f, 0.16627364f, 0.31737223f, 0.41086826f, -0.17367254f, 0.18918936f, 0.32266012f, 0.37741888f, 0.07191628f, -0.27210423f, -0.09857336f, -0.17777257f, -0.00636813f, -0.02451776f, -0.14273596f, 0.03370635f, 0.23711917f, 0.48008981f, 0.49591941f, 0.12334070f, 0.12568489f, 0.05941624f, 0.16027503f, 0.22806334f, -0.18669653f, -0.26741150f, -0.10913932f, 0.06589588f, 0.05122143f, -0.11510942f, -0.13266222f, 0.02195563f, 0.15845954f, 0.20897764f, -0.09490088f, -0.09327117f, -0.32172069f, -0.21058811f, 0.06874554f, -0.58182842f, -0.55057383f, -0.49329785f, -0.47315237f, -0.41223696f, -0.42248312f, -0.51650250f, -0.32351494f, -0.66028434f, -0.88599074f, -0.17309037f, 0.05374331f, 0.32224521f, 0.25070795f, 0.27261671f, -0.18159726f, 0.22636929f, -0.10419870f, -0.11190174f, -0.51409793f, -0.09401470f, -0.06502629f, 0.05786290f, 0.07552864f, 0.17326321f, -0.12110138f, -0.42975196f, -0.48875457f, -0.56407720f, -0.72565490f, 0.12310512f, 0.20080382f, 0.11509445f, 0.00594499f, -0.04916058f, 0.51373422f, 0.49735361f, 0.28193974f, 0.17843826f, 0.26857492f, 0.15963869f, 0.23769011f, 0.24151525f, 0.18655507f, 0.26072395f, -0.19224870f, -0.15247762f, 0.03764919f, 0.06689548f, -0.25756800f, 0.05459562f, -0.15424277f, 0.14753537f, 0.20892292f, 0.14874771f, 0.19541907f, 0.07415032f, 0.24897459f, 0.05620035f, -0.12359000f, -0.18230926f, -0.09945568f, -0.17406353f, -0.37104362f, -0.30494937f, -0.14126532f, 0.04457336f, -0.20892528f, -0.04499410f, -0.29432675f, 0.16949439f, 0.29403171f, 0.20095788f, -0.02174128f, -0.18559936f, 0.13560079f, -0.01013212f, 0.04381663f, 0.07610324f, 0.16789365f, -0.00653562f, 0.04842776f, 0.05749584f, 0.14085381f, 0.23373486f, -0.11498502f, 0.10322943f, 0.14578897f, 0.14191975f, 0.18097427f, 0.09611747f, 0.03965786f, 0.31025165f, 0.26068026f, 0.33083582f, 0.16479063f, 0.12872316f, 0.27510187f, 0.25834426f, 0.31134135f, -0.31496230f, -0.25845036f, -0.19743039f, 0.05127958f, -0.12038635f, 0.16495365f, 0.02071003f, -0.03118184f, 0.01932792f, 0.16248894f, 0.16143858f, 0.21476722f, 0.10025533f, -0.04867388f, -0.21326743f, -0.11567482f, -0.22635086f, -0.27245715f, -0.14906210f, -0.22700976f, 0.00177600f, -0.04977270f, 0.05154698f, 0.25294054f, 0.33622813f, -0.18153141f, -0.34035382f, -0.26791945f, -0.05828778f, -0.24820535f, -0.17036656f, 0.05694478f, -0.02009994f, -0.21091813f, -0.23606086f, 0.11920957f, -0.02821143f, -0.01809624f, -0.20647942f, -0.22815572f, 0.08414548f, 0.36117616f, 0.37781534f, 0.07915808f, -0.16341780f, 0.24129730f, 0.12184825f, -0.12947442f, -0.27547821f, -0.20909770f, 0.50313562f, 0.56177455f, 0.23086515f, 0.06910381f, -0.36378291f, 0.22666752f, 0.29724687f, 0.43330365f, -0.01712436f, -0.34247932f, -0.10163146f, -0.18753861f, -0.25882930f, -0.32520756f, -0.43111852f, -0.08293262f, -0.33971134f, -0.02300658f, -0.11055402f, -0.21096596f, -0.13789883f, 0.10381051f, -0.02801178f, -0.21175021f, -0.30756718f, 0.46858290f, 0.48934591f, 0.23022866f, 0.02354852f, -0.06557633f, -0.33526739f, -0.35315531f, -0.15149365f, 0.11043637f, 0.21676035f, -0.19314402f, -0.37797934f, -0.19976972f, 0.07103314f, 0.03893251f, 0.51887846f, 0.82825160f, 0.46133661f, 0.21558991f, -0.05191953f, 0.10562050f, 0.07721068f, 0.10562810f, -0.16676269f, -0.22416563f, -0.00381160f, -0.28550032f, -0.02972268f, 0.02183304f, -0.28694585f, -0.21852075f, -0.28073668f, -0.53824562f, -0.54394114f, -0.25172934f, 0.11738093f, 0.15205841f, 0.42696437f, 0.32320449f, -0.41730079f, 0.16459417f, 0.16354957f, 0.16453180f, 0.15799530f, 0.29660758f, 0.06550076f, 1.00357735f, 0.52467746f, 0.14397876f, -0.14184646f, -0.53688329f, -0.42251945f, -0.33961061f, -0.40804884f, -0.19497934f, 0.24281968f, 0.25682610f, 0.34486344f, -0.38375211f, -0.04565242f, 0.11537655f, 0.12327035f, -0.00663317f, -0.15163939f, -0.46960095f, -0.16646358f, 0.23051420f, -0.07432155f, 0.02407298f, 0.09402589f, 0.31358171f, 0.46524268f, 0.18163146f, 0.19222896f, -0.04396345f, 0.12988004f, -0.19619010f, -0.03139949f, -0.23554687f, 0.07412273f, -0.36834770f, -0.18736729f, -0.15812095f, 0.20574498f, -0.03001744f, 0.21832655f, 0.02604104f, -0.07686669f, -0.00197240f, 0.13904397f, -0.04722748f, 0.29221633f, 0.17481451f, 0.06392426f, -0.08667203f, 0.58346415f, 0.54575074f, 0.34510681f, 0.11390206f, -0.04298062f, 0.16395804f, 0.14833894f, 0.07792529f, -0.14095709f, -0.37355098f, -0.24524947f, -0.15086335f, -0.44111854f, -0.19410883f, -0.41850272f, 0.04267609f, -0.23710540f, -0.57513219f, -0.32929343f, -0.22373204f, -0.12801270f, -0.17721024f, 0.10510544f, -0.07667471f, -0.11206438f, 0.80132008f, 0.17619614f, -0.01739293f, 0.19559714f, -0.25018245f, -0.02980919f, -0.20865338f, -0.48170432f, -0.43143874f, -0.22887073f, -0.26228794f, -0.29052886f, 0.13370116f, 0.02873255f, -0.05235147f, -0.03871534f, 0.03966674f, -0.23934898f, -0.46699315f, -0.46688479f, -0.33850268f, -0.46107966f, -0.09346982f, -0.08793582f, -0.08996794f, -0.46412531f, 0.05305107f, 0.55427623f, 0.26703426f, 0.14167574f, 0.25548553f, 0.72155541f, 0.20619307f, 0.41849265f, 0.19341776f, -0.11043233f, -0.07685448f, -0.06262226f, -0.16406108f, 0.24944049f, 0.07852763f, 0.12053362f, 0.25765184f, 0.07627850f, -0.38023844f, -0.25450546f, -0.23933947f, -0.00661740f, -0.23202860f, -0.44633326f, -0.37904289f, -0.30429345f, -0.06215762f, -0.02658805f, 0.29223263f, 0.09784531f, 0.06641588f, -0.01064360f, -0.05830874f, -0.37250310f, -0.87634492f, -0.46150300f, -0.21341054f, 0.10794840f, 0.04344662f, -0.48903492f, -0.26684955f, -0.23948884f, -0.34854946f, -0.98522216f, -0.24961747f, -0.00201022f, -0.04122270f, 0.06489493f, 0.03662955f, 0.22256471f, -0.04880317f, -0.00491328f, -0.06149229f, 0.04249287f, 0.21154670f, 0.10745804f, -0.01821083f, 0.25489813f, 0.55073988f, 0.08122932f, 0.03008216f, 0.21395709f, 0.09985868f, 0.04755021f, 0.28191653f, 0.25207511f, 0.01729744f, -0.04608681f, -0.14361012f, -0.02447885f, -0.15268826f, -0.20224132f, -0.14510268f, -0.12138999f, 0.08531129f, 0.29627255f, 0.39243719f, 0.43036640f, 0.35737181f, 0.24138935f, -0.11162765f, -0.43993184f, 0.05839493f, -0.01764023f, 0.15679660f, 0.04493923f, -0.05053925f, 0.20759563f, -0.10565995f, -0.10916944f, 0.16602764f, 0.15634304f, 0.35128215f, 0.21854685f, -0.01824481f, -0.08743544f, -0.33118466f, -0.09708402f, -0.07433254f, -0.07751038f, 0.06432720f, -0.19268474f, -0.28803733f, -0.59163058f, -0.61100620f, -0.14768542f, 0.09907851f, 0.27273884f, 0.19149140f, 0.03496032f, -0.17646714f, 0.02550479f, -0.06027155f, 0.00603633f, -0.66911852f, -0.16584674f, -0.00052687f, -0.28500637f, -0.11036906f, 0.05975926f, -0.02938966f, -0.25361821f, -0.32571694f, -0.31512690f, -0.48506621f, -0.10517102f, -0.32708699f, -0.18831560f, -0.10460220f, -0.21175478f, -0.07355853f, -0.14498551f, -0.26967570f, -0.36821005f, -0.18638480f, 0.26103562f, 0.26239851f, 0.15940930f, 0.22602050f, 0.00104361f, 0.30867380f, -0.31599581f, -0.44573984f, -0.39467236f, -0.03660248f, -0.12421855f, -0.42659083f, -1.06303787f, -0.70476729f, 0.03446959f, -0.01823147f, -0.06306647f, -0.25503537f, -0.35065758f, -0.14017162f, -0.29923263f, -0.19609125f, -0.20349011f, -0.14623234f, 0.04341385f, 0.30364659f, -0.04139084f, 0.25493184f, 0.20764093f, 0.08135624f, 0.30050415f, 0.28159240f, 0.11709201f, 0.10713009f, 0.03219894f, 0.12288353f, 0.01874092f, 0.04609974f, -0.01478810f, -0.15286376f, -0.24053138f, -0.09116401f, -0.06594059f, -0.02448880f, 0.16911164f, 0.19979811f, 0.02792703f, -0.06584793f, -0.18902668f, 0.00241397f, 0.14845482f, 0.00735675f, 0.09443126f, -0.00280746f, -0.13594142f, -0.09695588f, 0.04776889f, 0.08642121f, -0.46205479f, -0.21839477f, 0.42403045f, 0.54299814f, 0.48305225f, 0.31002599f, -0.15854119f, -0.02657323f, -0.02014760f, 0.06487922f, -0.01136954f, 0.26073360f, -0.10320257f, -0.16710311f, -0.24413466f, -0.46496007f, -0.12091865f, -0.07521671f, -0.05107754f, -0.02738663f, -0.10616163f, -0.54533070f, -0.34747699f, 0.08651546f, 0.07895159f, -0.39187005f, 0.09142915f, 0.00607948f, -0.09833691f, 0.06934717f, 0.24022898f, 0.38684037f, 0.07649525f, 0.09742747f, 0.29634809f, 0.11235950f, 0.13489568f, -0.02148879f, 0.06341956f, -0.20136361f, -0.03419342f, -0.16034344f, -0.20126565f, 0.01884350f, 0.07702701f, -0.00512620f, -0.50665438f, -0.25932807f, -0.27623942f, -0.02540104f, 0.40131810f, -0.30223304f, -0.19259322f, -0.27730528f, -0.39063492f, -0.32156968f, 0.04098131f, 0.03832936f, 0.07329862f, -0.18596502f, -0.36600009f, 0.17412406f, 0.13809828f, 0.14116997f, 0.03392088f, -0.00278262f, -0.19109379f, -0.12267710f, -0.45396602f, -0.35361475f, -0.45815998f, -0.28585869f, -0.02818596f, 0.15119603f, -0.07484514f, 0.10758407f, -0.17597602f, -0.06350494f, 0.04812593f, 0.26404372f, 0.22013870f, -0.06865975f, 0.02808758f, -0.05192477f, 0.03758762f, 0.36839554f, 0.32576421f, 0.39895314f, 0.22462949f, 0.18704540f, -0.15053785f, 0.20836772f, 0.16226624f, -0.03819684f, 0.12720065f, 0.28253946f, -1.33753800f, -0.24830151f, -0.14010313f, -0.17076275f, 0.07395250f, -0.01552022f, 0.11589848f, 0.19805159f, 0.11171377f, -0.12619357f, -0.09540138f, -0.27890801f, 0.19600455f, -0.11924632f, 0.22414783f, 0.00328088f, 0.06249360f, 0.31402287f, 0.35519359f, 0.13089041f, -0.65064716f, -0.29173753f, 0.07772810f, 0.25982267f, 0.36800250f, -0.16972922f, -0.47801799f, -0.18288058f, 0.11571813f, 0.29345596f, -0.09741803f, -0.38134336f, -0.38157052f, 0.00165923f, 0.23737437f, -0.18393736f, -0.23460940f, -0.01940363f, -0.08474935f, 0.08066471f, 0.02155402f, 0.03133504f, 0.38831413f, 0.30920419f, 0.16611437f, 0.02213341f, -0.13183272f, 0.03171869f, 0.09073692f, 0.05808041f, 0.13867590f, 0.09734177f, -0.02318112f, -0.38121274f, -0.49290422f, 0.03537539f, 0.15323777f, -0.16996568f, 0.09545550f, 0.34927636f, -0.86076677f, -0.83862865f, -0.34048590f, 0.07387070f, 0.18944480f, -0.02336388f, -0.27279881f, -0.10740358f, 0.01193976f, -0.14395045f, 0.25863379f, 0.11129055f, 0.23551150f, 0.23185855f, 0.21765395f, 0.18249322f, -0.00371681f, -0.21595673f, 0.19135201f, -0.17282674f, -0.29806015f, 0.02472106f, -0.19625799f, -0.46923885f, -0.03126685f, 0.04602645f, 0.06944530f, 0.03345876f, 0.06676808f, -0.03483912f, 0.26595169f, -0.03175333f, -0.44797510f, -0.44825435f, 0.77909857f, -0.30594599f, -0.27032560f, -0.29630443f, -0.02809476f, -0.80668443f, 0.33862504f, 0.13185392f, 0.36021331f, 0.32462013f, 0.52087158f, -0.61861140f, -0.05206520f, -0.05631913f, 0.01081716f, -0.10913189f, -0.10109930f, -0.13850805f, -0.18854359f, -0.53692168f, -0.33092737f, -0.02047322f, -0.00516260f, -0.22668800f, -0.07647756f, -0.03825494f, -0.21853073f, -0.00245659f, 0.03721779f, -0.13446911f, -0.48329666f, 0.27052099f, -0.09854319f, -0.11469898f, -0.10143139f, -0.34335071f, -0.02295900f, -0.03652798f, -0.03048605f, 0.04844097f, -0.04410017f, 0.04048956f, -0.04949901f, -0.02546053f, 0.00899472f, -0.10231578f, 0.16114312f, 0.30540794f, -0.02335841f, -0.17877075f, -0.18268132f, -0.00387389f, 0.12162959f, -0.20002201f, -0.42555058f, -0.56981975f, -0.06318340f, 0.14784069f, -0.17847420f, 0.19989917f, 0.28476804f, 0.22200894f, 0.03763245f, -0.09588981f, 0.09800804f, 0.24544173f, -0.18033406f, -0.09313735f, 0.15064560f, 0.33063489f, 0.21083786f, 0.16436727f, -0.17219438f, -0.35264844f, -0.00414775f, -0.30422643f, 0.02452839f, 0.11380815f, 0.57916385f, 0.81169581f, 0.66353387f, -0.11927963f, 0.02604505f, -0.02263921f, -0.18665381f, -0.24662456f, -0.50349534f, -0.21090779f, 0.05500590f, -0.20387793f, -0.03922188f, -0.05713733f, -0.42030632f, -0.57123017f, -0.12060584f, 0.57685357f, 0.00874538f, 0.34274355f, -0.00534662f, 0.04718823f, 0.07628656f, -0.29914907f, 0.41679952f, 0.22394434f, 0.10770677f, 0.77032495f, -0.46905857f, -0.17825443f, -0.19969083f, -0.16914779f, -0.09772624f, 0.08743424f, 0.57209206f, 0.38360119f, 0.12272398f, -0.06517353f, -0.19186758f, -0.19845419f, -0.48365557f, -0.76572841f, -0.61392576f, -0.17721651f, -0.14709328f, -0.15152493f, 0.15912266f, 0.01045278f, -0.43754396f, 0.21070370f, 0.27841118f, 0.10403690f, 0.15954626f, -0.50030565f, -0.29107800f, -0.03812542f, 0.59968954f, 0.78253013f, 0.15494509f, 0.00122060f, 0.13563494f, 0.17173441f, 0.12896943f, 0.09780855f, -0.04368843f, -0.18686481f, -0.03014936f, -0.11971384f, 0.13569658f, -0.05512844f, -0.17726667f, 0.21752506f, -0.06608514f, -0.17740992f, -0.18708406f, -0.29289192f, -0.39977768f, -0.49394122f, 0.28707403f, 0.20589776f, 0.02374620f, 0.09806219f, -0.01341522f, -0.07189187f, 0.04091864f, 0.07566580f, -0.01097372f, 0.17468518f, 0.22847053f, -0.03758558f, 0.28856045f, -0.19742788f, -0.21197797f, 0.17945164f, 0.35798156f, 0.09579761f, -0.57557267f, -0.40490451f, -0.03634927f, 0.01847580f, 0.11681088f, 0.00709688f, -0.14039199f, -0.06806663f, 0.34703895f, 0.28219020f, 0.03978117f, -0.05628180f, -0.14606361f, -0.33062705f, -0.22199611f, -0.22094151f, -0.04634478f, -0.05602604f, 0.27177799f, 0.00019839f, 0.14504033f, 0.01649019f, -0.72321165f, -0.54091620f, -0.25276265f, -0.23315777f, -0.09555888f, 0.36710393f, 0.16964383f, 0.29447713f, -0.35377407f, -1.03591967f, -0.08259691f, -0.19800922f, 0.22578716f, -0.08589986f, -0.20162995f, -0.18783243f, 0.28583044f, 0.33270991f, 0.11007097f, -0.04925631f, 0.07124109f, -0.14125693f, -0.11183351f, -0.11887888f, -0.16741413f, 0.05170535f, 0.03801587f, 0.26439342f, 0.32388213f, 0.35919133f, 0.16047108f, 0.00725254f, 0.12513696f, 0.27445126f, 0.24636802f, 0.01951884f, 0.21432990f, 0.21747577f, 0.05597293f, -0.02009591f, 0.11037360f, 0.13963921f, 0.44051659f, 0.55035663f, 0.22117725f, -0.35410610f, -0.16408041f, -0.02585992f, -0.12970510f, 0.08228677f, -0.08047961f, -0.04186736f, 0.23452871f, -0.12210529f, 0.31902054f, 0.27307975f, 0.09942275f, -0.13873069f, -0.38234401f, -0.18805438f, -0.15075102f, -0.41143373f, -0.30983746f, -0.66591656f, -0.32183063f, -0.17460246f, -0.28957206f, 0.19508287f, -0.06380113f, -0.19901831f, -0.69120693f, -0.03390962f, 0.14457349f, -0.03437028f, 0.02383085f, 0.32108554f, 0.31492200f, 0.19578725f, 0.01138887f, -0.25576964f, -0.20104897f, -0.05967747f, 0.08761297f, 0.18700023f, 0.19564138f, -0.41820982f, -0.18723296f, 0.02877779f, -0.25085008f, -0.47917747f, -0.00762741f, 0.08170965f, 0.06796183f, -0.06722775f, 0.06620453f, -0.00352068f, 0.03293568f, 0.25046912f, 0.18461205f, 0.31853768f, 0.12569466f, 0.04166245f, 0.05794009f, -0.02281572f, -0.00796391f, -0.03053647f, 0.36667261f, 0.09427036f, 0.00625765f, -0.10161224f, -0.08946506f, -0.09008818f, -0.04903054f, -0.04760361f, -0.35574353f, 0.20410222f, 0.08716598f, -0.10908360f, 0.24027145f, 0.14350045f, 0.06559939f, 0.02197376f, -0.17315307f, -0.18746775f, -0.07413014f, -0.08782480f, -0.07149783f, 0.10252996f, 0.33023000f, 0.38121280f, -0.20145507f, 0.09617960f, 0.02517169f, 0.42289981f, 0.23791718f, 0.16655770f, 0.27710080f, -0.07572585f, -0.29758775f, -0.48295084f, -0.04472805f, -0.10925721f, -0.39614034f, -0.17680953f, -0.07554934f, -0.28237844f, -0.51216155f, -0.47615707f, -0.77443969f, -0.73653555f, -0.16853261f, 0.36526859f, 0.57562244f, 0.55928516f, 0.03756461f, -0.05162562f, -0.28186536f, -0.36507392f, -0.18473558f, 0.08261015f, 0.43422902f, 0.14855215f, 0.12100401f, -0.08285052f, -0.12988262f, 0.13908279f, 0.11540087f, 0.12089983f, -0.07779661f, -0.16873513f, -0.06351400f, -0.00212984f, 0.14874981f, 0.40505475f, 0.57279164f, 0.21803367f, 0.79968607f, 0.60976589f, 0.22996718f, 0.28235194f, -0.96118981f, -0.63814396f, -0.75117427f, -1.24005032f, -1.23031723f, -0.00850224f, -0.20643842f, 0.02778404f, 0.07303632f, 0.38042843f, -0.35653627f, -0.42677316f, -0.30781162f, -0.22445466f, -0.33662763f, -0.29384121f, -0.12205781f, 0.00524962f, 0.09227460f, 0.11427533f, -0.56090337f, 0.04232377f, 0.21106337f, 0.03188621f, -0.34148043f, 0.09018301f, 0.21994956f, 0.43045670f, 0.34990895f, 0.30871212f, -0.32394865f, -0.23223667f, 0.00578326f, -0.37161002f, -0.11400095f, -0.15434581f, -0.29544994f, -0.27188304f, -0.08405905f, -0.07897907f, 0.32345000f, 0.19632885f, 0.01413117f, 0.06970688f, 0.09661146f, -0.09777088f, 0.18923411f, 0.09990231f, -0.10524860f, 0.20598055f, 0.14943580f, -0.11043619f, 0.04474298f, 0.14917076f, 0.18692002f, -0.22653580f, -0.18767789f, -0.20185439f, -0.31098205f, 0.08554312f, 0.22774625f, 0.20599838f, 0.07915688f, -0.10047773f, -0.02365402f, -0.46667707f, -0.26379460f, -0.17112947f, 0.03081876f, 0.48146209f, -0.36272925f, 0.03243265f, 0.07906488f, -0.04455354f, 0.18623549f, -0.35160249f, 0.03837243f, 0.03190938f, 0.14466804f, 0.55382204f, 0.07500044f, 0.33947170f, 0.73810256f, 0.39389274f, 0.24747717f, 0.05111235f, 0.24223594f, 0.09059742f, -0.06557113f, -0.10524868f, -0.07032556f, -0.24298647f, -0.06151060f, -0.17886671f, -0.25174758f, -0.93100613f, -1.31918335f, -1.51497674f, -1.25911510f, -1.25752354f, 0.00105519f, 0.09473732f, 0.21332930f, 0.14957893f, 0.02038472f, -0.03973171f, -0.04299138f, 0.19075494f, 0.20245121f, 0.33858332f, 0.17938980f, 0.09446418f, -0.14448355f, -0.24270387f, -0.05145193f, -0.19089980f, -0.06018294f, -0.08902550f, -0.27652860f, -0.24949041f, -0.22681381f, 0.13166875f, 0.12234511f, 0.10487895f, 0.51571625f, 0.21728419f, 0.38701257f, 0.36274967f, 0.43662325f, 0.39985001f, -0.15148154f, 0.03711574f, -0.18670918f, -0.16416800f, -0.00505977f, -0.14718135f, 0.02402724f, 0.40815750f, 0.02399926f, 0.01177137f, 0.09873411f, 0.26286155f, 0.23369491f, 0.08762469f, 0.04380060f, 0.16412029f, 0.44826040f, 0.23941463f, 0.50716650f, 0.44689956f, -0.21428981f, -0.09000631f, -0.08230208f, 0.12221551f, 0.09928529f, -0.12249874f, -0.02594592f, 0.09186048f, 0.29356843f, 0.58160973f, -0.41248667f, -0.78354853f, -0.46151891f, -0.57579356f, -0.19742396f, 0.32813835f, 0.01485592f, -0.07868703f, -0.14217107f, 0.04297235f, -0.09046233f, -0.00939817f, -0.13493210f, -0.13810906f, -0.14205438f, -0.39653301f, -0.45105022f, -0.41403702f, -0.10308472f, -0.36283726f, -0.12297683f, -0.28297672f, -0.02996590f, 0.31654859f, 0.35244903f, 0.23280637f, 0.20713149f, 0.25691193f, -0.01294545f, -0.12241863f, -0.16127358f, 0.15401590f, 0.11624060f, 0.01971360f, -0.09893825f, -0.03793129f, -0.03409800f, -0.18868409f, -0.28010184f, -0.25273535f, -0.23362789f, -0.28964862f, -0.18357325f, -0.30157354f, -0.26336849f, -0.00778126f, 0.04312338f, -0.00037231f, -0.34993073f, -0.26843414f, 0.06942562f, 0.10775460f, 0.07432508f, 0.07105069f, -0.09955862f, -0.35041833f, -0.20471776f, 0.16042855f, 0.13358834f, 0.07781275f, 0.34873646f, 0.24749430f, -0.19982217f, -0.31790870f, -0.23658977f, -0.31870812f, -0.50053757f, -0.29281035f, -0.71039051f, -0.48449072f, -0.21906392f, -0.15177450f, 0.02916436f, 0.01149216f, -0.06345433f, 0.05055579f, -0.08736796f, -0.05219251f, 0.00319437f, -0.08306071f, -0.07800313f, -0.04545941f, 0.00231128f, 0.01763161f, -0.18577892f, -0.00005360f, -0.29658070f, 0.09879743f, -0.17318326f, -0.21720080f, 0.50983298f, 0.38272977f, 0.67577809f, 0.32241741f, 0.00616776f, 0.14476281f, 0.15035780f, 0.25006086f, 0.28493282f, 0.05053822f, -0.48994631f, -0.22177546f, -0.32063866f, -0.36623329f, -0.24096496f, -0.13414112f, -0.24711141f, -0.01602520f, -0.00934902f, 0.06916904f, -0.20777328f, -0.07239209f, -0.07909998f, -0.26191026f, -0.10153329f, -0.07586133f, -0.16609906f, -0.19362172f, -0.36384419f, -0.20573451f, 0.12890920f, 0.13790183f, 0.04075855f, 0.09374302f, -0.00327192f, -0.40557998f, -0.59746140f, -1.02687752f, -0.95243865f, -1.07167959f, 0.39352390f, 0.32235089f, 0.32210007f, 0.40485159f, 0.19289988f, -0.33036160f, 0.08558113f, 0.08681143f, 0.04237116f, 0.14229654f, -0.01919175f, 0.04183193f, 0.10770749f, -0.01752910f, 0.10469478f, 0.03878267f, -0.01263135f, 0.20629023f, 0.16050561f, 0.34777343f, -0.10771870f, -0.16754428f, -0.34666979f, -0.13941936f, 0.10555343f, -0.61005205f, 0.05445412f, -0.16320087f, -0.02088443f, 0.74929506f, 0.00736067f, 0.34684357f, 0.40031734f, 0.41081357f, 0.53480870f, -0.00962039f, -0.04046305f, -0.21918035f, -0.08858769f, 0.55338746f, -0.25658044f, -0.12110581f, 0.16047369f, 0.17272753f, 0.64122581f, -0.10676503f, -0.03221104f, -0.05774448f, 0.17349845f, 0.56726146f, -0.66391444f, -0.22709347f, -0.01293157f, -0.01636444f, 0.23825087f, -0.25155193f, -0.47603756f, -0.37477091f, -0.37941647f, -0.41212022f, 0.02467612f, -0.15342191f, -0.21221831f, -0.04996646f, 0.05161127f, -0.20698838f, -0.08905102f, 0.10892662f, -0.13765460f, -0.04132802f, -0.48165116f, -0.47908676f, -0.32343385f, -0.35587817f, 0.16859345f, 0.02833579f, 0.04704543f, -0.21389924f, 0.14100705f, 0.35899904f, 0.00645031f, -0.05382666f, 0.02172142f, -0.01447574f, 0.23359661f, -0.04855856f, 0.02739117f, -0.19140217f, -0.03793827f, 0.24289022f, 0.30401802f, 0.18665013f, 0.13940200f, 0.17793915f, 0.21843308f, -0.55056792f, -0.75947756f, -0.71725518f, -0.17415832f, -0.10017241f, 0.33452126f, 0.00438632f, 0.16544153f, 0.15472291f, 0.06180988f, 0.31318465f, -0.11390727f, -0.02105275f, -0.07007073f, -0.27335730f, 0.05014800f, -0.03765304f, 0.28573057f, 0.21514514f, 0.19006404f, -0.30493802f, -0.11929610f, -0.11500619f, 0.14911647f, 0.09407857f, 0.01179820f, -0.15518677f, 0.17741197f, 0.45902815f, 0.66492409f, 0.30787733f, 0.01925394f, 0.15543574f, 0.24213865f, 0.03370077f, -0.07058714f, -0.32768089f, -0.01615717f, 0.10902129f, -0.17855921f, 0.16739172f, -0.11997531f, 0.06757963f, -0.12117103f, 0.40138239f, 0.17408071f, -0.01601993f, 0.14154536f, 0.12791294f, 0.23263383f, 0.37508395f, 0.31713495f, 0.30808219f, 0.31762236f, 0.37895554f, -0.29086533f, -0.39006972f, 0.05276265f, -0.02694700f, 0.05266880f, -0.28445905f, -0.20326081f, -0.20590559f, 0.12992086f, -0.29336014f, 0.23316143f, 0.02170367f, -0.23128530f, -0.00238990f, 0.36769238f, -0.05380817f, -0.13915540f, -0.15280318f, -0.01729362f, -0.07271952f, -0.11845355f, -0.71248811f, -0.09915929f, -0.13970903f, -0.29039326f, -0.22772257f, -0.06645173f, -0.02512740f, 0.09138012f, 0.18658704f, 0.26978999f, 0.09708346f, 0.00729375f, 0.07078145f, 0.27170920f, -0.00955483f, 0.11631133f, 0.12231395f, 0.29044476f, -0.06775387f, -0.23958986f, -0.27122357f, -0.05741725f, 0.26410910f, 0.72458035f, -0.05017418f, 0.23007643f, 0.11866071f, 0.25910661f, 0.46848214f, -0.42158097f, -0.23895027f, 0.00747270f, 0.42588037f, 0.74173951f, -0.01663076f, -0.15568535f, -0.12204701f, -0.00895800f, 0.08587123f, -0.23701410f, -0.34071222f, -0.37630197f, -0.11682463f, 0.11876682f, 0.32109404f, 0.17321643f, 0.29580611f, 0.15708293f, 0.13301031f, -0.59150153f, -0.60418802f, -0.00423207f, 0.07106420f, 0.28756863f, 0.01692793f, 0.11994064f, 0.05925928f, 0.22249478f, 0.36842421f, -0.08265872f, -0.06052364f, -0.01072278f, 0.09721570f, -0.01124712f, -0.30411997f, -0.30728638f, 0.07841967f, -0.05204359f, 0.02948511f, 0.20682657f, 0.02991767f, 0.08172326f, 0.60176307f, 0.45685089f, 0.13469917f, 0.02385356f, 0.10168298f, 0.01553011f, -0.14796285f, -0.08415026f, -0.18663663f, -0.13830841f, -0.00245927f, -0.20279002f, 0.25243714f, 0.47442934f, 0.26815835f, 0.29774541f, 0.18427968f, -0.20155248f, -0.48972213f, -0.45481381f, -0.02722123f, -0.08895132f, -0.21914005f, -0.02112214f, 0.26553652f, 0.15531464f, -0.14645332f, -0.18437752f, -0.05871912f, -0.09256733f, -0.04724465f, -0.14714481f, -0.23956135f, -0.11433122f, 0.06862291f, 0.10969035f, 0.33817497f, 0.22208740f, 0.24043776f, 0.05556245f, -0.13140497f, -0.08258848f, -0.22187340f, -0.09552199f, 0.33677444f, 0.31628832f, -0.18789837f, -0.48274377f, -0.68182659f, -0.78753453f, -0.58021849f, -1.21202111f, 0.03958805f, -0.04645782f, -0.25118428f, -0.21766132f, -0.20239395f, 0.20015784f, 0.41092798f, 0.16150823f, -0.11941649f, -0.35945630f, 0.26443103f, 0.29780456f, 0.06529828f, -0.05231358f, -0.17548668f, -0.14988920f, -0.44602582f, -0.11047804f, -0.48137823f, 0.11077777f, -0.04365829f, -0.29617885f, -0.34257108f, -0.67297655f, -0.91223115f, -0.14911945f, -0.17667645f, 0.15795842f, 0.18665735f, -0.02501236f, -0.15844409f, -0.21971139f, 0.04075224f, -0.03312527f, 0.02677471f, -0.22764215f, -0.01938884f, -0.00687548f, -0.08628141f, -0.20124623f, 0.13021298f, -0.63605273f, -0.39797243f, -0.15613706f, -0.38983750f, -0.14951904f, 0.11748612f, 0.24061333f, 0.02761209f, -0.04776388f, -0.10446279f, -0.14689344f, -0.04824326f, 0.12990870f, 0.21818703f, -0.31877172f, 0.20126554f, 0.30338365f, -0.07479899f, 0.07610242f, -0.17385875f, 0.29765633f, 0.22212847f, -0.08852215f, 0.09780241f, -0.04158213f, 0.12842888f, -0.15963940f, -0.37892851f, 0.10153116f, -0.22051184f, -0.35893479f, 0.08556852f, 0.04584460f, 0.13365720f, 0.11010487f, 0.10243678f, 0.30097285f, 0.11741447f, -0.01676426f, -0.08872914f, 0.27025193f, 0.19262065f, 0.04477484f, 0.21180038f, -0.17565678f, -0.02780119f, 0.53195912f, 0.21658589f, 0.23966256f, 0.01632527f, -0.15536208f, 0.01268103f, 0.05967044f, 0.20648019f, -0.32197195f, -0.07797251f, 0.15822092f, -0.27419600f, -1.19616747f, -0.18464686f, -0.01884807f, 0.22153415f, 0.00668685f, -0.23353858f, -0.27102706f, -0.01487766f, -0.08466505f, -0.31702209f, -0.29254180f, -0.22652957f, -0.30282801f, -0.14695567f, -0.17952108f, -0.24061777f, 0.10281178f, -0.05512244f, -0.18248212f, -0.29884911f, -0.08574508f, 0.20740682f, 0.16903901f, -0.08946867f, -0.33282322f, 0.05360126f, -0.12857723f, -0.14086036f, 0.28645128f, 0.27868149f, 0.18020388f, 0.05874780f, 0.15113105f, 0.29058069f, 0.46220607f, 0.41552648f, -0.02138627f, 0.09988856f, 0.24530534f, 0.07544498f, -0.27102429f, 0.11769369f, 0.40031487f, 0.10656501f, -0.54568863f, 0.00540146f, -0.29238051f, -0.06889947f, 0.10674527f, -0.11389791f, -0.38677040f, -0.08437984f, 0.20601459f, 0.29777682f, 0.05874350f, 0.09269298f, -0.29341078f, -0.03978166f, -0.06515686f, -0.18510279f, -0.04736188f, -0.02247949f, 0.23098490f, 0.52530116f, 0.26370907f, 0.30017456f, -0.36202201f, -0.15839630f, 0.08156236f, 0.02365562f, -0.09733966f, -0.15334010f, -0.02492131f, 0.23609608f, -0.05403297f, -0.10794748f, -0.30891186f, 0.02515800f, 0.04700431f, 0.18374637f, -0.19768742f, -0.34251097f, -0.07780290f, 0.70255226f, 0.30539921f, 0.43306303f, 0.02921195f, 0.26357618f, -0.00157362f, -0.18866858f, -0.64171898f, -0.17141885f, -0.33793074f, -0.23748727f, 0.27255654f, 0.12827466f, -0.06984890f, 0.03053484f, 0.05880491f, -0.14044744f, -0.25133726f, 0.00891146f, 0.18765223f, 0.16409263f, 0.10270131f, 0.18868595f, -0.60965234f, -0.21028557f, 0.38599205f, 0.35666639f, 0.11243263f, -0.00924428f, -0.12101663f, 0.13801554f, 0.41691345f, 0.37639761f, 0.11326221f, 0.22642532f, 0.34511483f, 0.27574396f, 0.22871667f, -0.21438840f, -0.35305980f, -0.24706784f, -0.61048734f, -0.84743840f, -0.28477123f, 0.16948733f, 0.00149384f, 0.12320980f, 0.15943992f, -0.21788171f, -0.25708428f, -0.04699466f, -0.03470406f, -0.23571126f, 0.09254367f, -0.20427923f, -0.05918362f, 0.43252733f, 0.37640759f, -0.12626402f, 0.01077274f, -0.11884404f, 0.01752511f, -0.24127424f, -0.26545101f, -0.14149700f, 0.10918325f, 0.08614922f, 0.16065550f, 0.02680814f, -0.16524461f, -0.03712908f, 0.57347602f, 0.26705998f, 0.25837708f, 0.13915595f, 0.23080742f, 0.01083017f, -0.05835692f, -0.16012178f, 0.12428472f, 0.13192847f, 0.27957347f, 0.17887054f, -1.03823841f, -0.60913938f, -0.28310618f, -0.19626488f, -0.16935131f, -0.01425346f, -0.39483833f, -0.17059337f, 0.14273037f, -0.29401642f, -1.13814032f, -0.39574605f, 0.07574315f, -0.00840884f, -0.25818297f, 0.11194280f, 0.34348154f, 0.27777237f, 0.12270995f, 0.13755988f, -1.46963167f, -0.91589075f, -0.27402085f, 0.02836176f, 0.20148523f, 0.10521857f, 0.25945339f, -0.03397644f, 0.22858687f, -0.04206819f, -0.27802077f, -0.14840011f, -0.14448729f, -0.03523526f, -0.20358931f, -0.53607082f, -0.65596884f, -0.21849135f, -0.25623643f, 0.05536215f, 0.08842059f, -0.03522157f, -0.09612420f, -0.13543992f, -0.29847270f, -0.23643026f, -0.18571827f, 0.01972825f, 0.05942469f, -0.00838483f, -0.34511682f, -0.40843353f, -0.12301807f, 0.10557085f, -0.00270462f, 0.07949248f, 0.01805979f, 0.01984143f, 0.06632041f, -0.42572191f, 0.05644207f, -0.15946203f, -0.11520366f, 0.04015274f, 0.15072533f, 0.00897073f, 0.08868376f, 0.07991901f, -0.46757707f, -1.02988827f, 0.14482772f, -0.15379143f, -0.50764769f, -0.36294472f, -0.35791600f, 0.17891821f, 0.17515984f, 0.03875457f, 0.14499651f, 0.08605511f, -0.38225731f, 0.00098664f, 0.11331388f, 0.01565810f, -0.21372959f, 0.09124210f, 0.27264583f, 0.38598728f, 0.15871957f, 0.03340546f, 0.40672451f, 